// Neural Network File Format by Kyle Julian, Stanford 2016
10,2,2,20,
2,20,20,20,20,20,20,20,20,20,2,
0,
-10000.0,-10000.0,
10000.0,10000.0,
0.0,0.0,0.0,
1.0,1.0,1.0,
2.21322e-01,3.03400e-01,
-6.32536e-02,-3.65876e-01,
9.00771e-01,1.73554e-01,
-8.57778e-01,6.47187e-01,
-3.55238e-01,-1.86904e-01,
3.33444e-01,-4.55448e-01,
-3.70408e-02,2.28269e-01,
-1.93587e-02,-6.20154e-01,
4.57121e-01,5.30320e-01,
4.27406e-01,-3.50834e-01,
2.51167e-01,-2.74513e-01,
-3.57347e-01,-9.88137e-02,
3.07074e-01,6.25670e-01,
4.76147e-01,2.30056e-01,
3.89961e-02,-1.90272e-01,
3.93920e-01,-1.10238e-01,
-4.75216e-01,1.56243e-01,
1.51565e-02,2.43093e-02,
-4.14666e-01,-2.10771e-01,
-5.83887e-01,3.25180e-01,
-2.32328e-01,
5.46566e-02,
-4.13970e-01,
1.86207e-01,
8.41495e-01,
5.29917e-01,
2.49044e-01,
-3.76968e-01,
3.72645e-01,
-9.43988e-01,
2.12699e-02,
4.32334e-02,
-5.76252e-01,
-3.58440e-02,
-3.49409e-01,
2.95108e-01,
-2.14759e-01,
2.75201e-02,
-6.43286e-01,
1.85403e-01,
-1.40975e-01,-3.20728e-01,1.43573e-01,1.06157e-01,-1.30756e-01,1.61007e-01,-3.51666e-01,-1.89569e-01,5.62138e-01,-2.43566e-01,3.50726e-01,2.97666e-01,-3.29892e-03,-3.12396e-01,5.10346e-01,5.38723e-01,2.79353e-01,-1.91256e-01,4.19275e-01,-1.45043e-01,
-4.86454e-01,-2.14113e-02,-4.40189e-01,-2.73987e-02,-2.99054e-01,9.03937e-02,-5.29029e-02,1.76335e-01,5.18357e-01,5.33433e-01,6.18743e-01,2.41784e-02,1.47574e-01,1.93047e-01,3.57712e-01,-2.84637e-02,-2.94968e-01,3.06943e-01,-3.05476e-01,-1.10787e-01,
-1.97365e-01,-4.23251e-01,-2.34112e-01,7.94680e-03,2.64122e-01,1.19688e-02,-4.21262e-01,1.26152e-01,-9.82807e-02,5.31573e-01,-6.18857e-01,1.77018e-01,4.19723e-01,-1.24505e-01,-6.81733e-01,1.52976e-01,3.45688e-01,5.85914e-01,2.40756e-01,4.56870e-01,
-5.24524e-01,-6.12345e-03,-2.45135e-01,9.08438e-03,3.82140e-02,-1.50130e-01,-3.35965e-01,-2.55904e-01,-8.21242e-02,-5.94813e-01,-3.12256e-01,3.93369e-01,-4.47202e-01,3.87536e-01,3.16333e-02,-2.30204e-02,7.30301e-01,-1.79664e-01,-2.86251e-01,2.72058e-02,
3.96289e-01,4.91755e-02,4.73524e-01,4.70932e-01,6.47710e-01,3.51731e-01,-7.76802e-02,-3.80665e-01,1.17307e-01,-2.81197e-01,2.04572e-01,3.67564e-01,8.71905e-01,-1.62382e-01,1.00951e-02,-1.30231e-01,-1.82812e-01,2.04475e-01,-7.23460e-01,5.95873e-01,
-5.22810e-01,2.41950e-01,4.06695e-01,3.69365e-01,-2.59449e-01,-1.67089e-02,9.37913e-02,1.19758e-01,-2.34563e-03,4.21524e-01,3.49478e-02,2.34571e-01,-4.08856e-01,-4.72468e-02,-1.00680e-01,8.11529e-01,4.37066e-01,3.35076e-01,-3.63384e-01,-2.70473e-01,
-1.24796e-01,-2.09315e-02,-7.81702e-03,-1.38659e-01,1.95716e-02,-1.54657e-01,5.33909e-01,1.34370e-01,7.42655e-02,2.19235e-01,-1.20597e-02,-4.64467e-01,-3.43281e-01,-5.39766e-01,1.02023e-01,1.06936e-02,-4.45675e-01,1.40258e-01,-1.37406e-01,-1.47284e-02,
2.02956e-03,1.70688e-01,-3.24078e-01,1.68127e-01,-2.51234e-01,1.42532e-01,-2.87495e-01,-4.55906e-01,-5.01149e-01,1.60167e-01,-1.49140e-01,1.08756e-01,2.34615e-01,-1.17353e-01,-2.57649e-01,4.52669e-01,-5.22635e-01,2.50536e-01,-2.82295e-01,-2.35634e-01,
4.66846e-02,5.04000e-01,-6.10891e-01,7.08566e-02,-5.56559e-01,-1.75405e-01,-3.00231e-01,-5.01320e-02,1.74087e-03,4.31037e-01,2.07403e-02,1.98896e-01,5.12632e-01,-1.90723e-01,1.86107e-01,4.26766e-03,2.56014e-01,-1.91949e-01,-9.20348e-02,6.76907e-01,
-7.64073e-01,2.95882e-01,1.77328e-01,-1.46787e-01,-2.07882e-01,2.40969e-01,2.81655e-01,-6.62563e-02,2.38477e-01,1.99573e-01,7.24591e-02,4.43866e-01,4.17552e-01,1.36697e-01,-9.29610e-01,-3.33424e-02,-6.01932e-01,3.80170e-02,-6.37436e-01,6.00677e-01,
2.48754e-01,3.41715e-01,3.86913e-01,6.29222e-01,3.25286e-01,1.81293e-01,-9.54884e-02,2.25366e-01,-2.20863e-01,-3.24069e-01,-9.03540e-02,1.86147e-02,-8.33860e-02,4.06190e-01,3.41733e-01,-1.04442e-01,1.81673e-01,3.20498e-01,-7.73683e-01,-4.28197e-01,
3.71961e-02,-3.72019e-02,-1.57912e-04,1.19508e-01,-1.42733e-01,-1.27352e-01,-4.81702e-01,3.99116e-01,1.12762e-02,-4.17036e-01,1.14216e+00,1.62273e-01,-2.39510e-01,-1.30506e-01,4.77831e-01,5.58872e-01,-2.33464e-02,1.02240e-01,2.52405e-01,-1.32769e-01,
-1.77853e-01,-8.36801e-02,5.88052e-01,-2.75546e-01,2.27991e-01,8.35219e-02,-1.10318e+00,5.64272e-02,5.30528e-01,1.48020e-01,1.69009e-01,8.11846e-02,3.57715e-01,-4.89119e-01,3.94333e-01,2.57503e-01,5.25826e-01,-1.83000e-01,-6.04164e-01,5.01441e-01,
-3.47664e-01,5.96952e-02,1.36000e-01,3.07119e-01,-4.66511e-01,3.29870e-02,-3.27662e-01,2.14230e-01,-5.29903e-01,4.33318e-01,4.33966e-02,2.94485e-01,-3.97761e-01,1.18120e-01,-8.88586e-01,-4.44053e-02,5.25407e-02,-3.47475e-01,-1.49694e-02,-4.88642e-01,
-5.99266e-01,-1.52147e-01,2.85127e-01,-2.06730e-01,-4.81799e-01,-1.35751e-01,-2.00908e-01,-4.76869e-01,1.57495e-02,7.19170e-01,1.95308e-01,1.45415e-01,2.38636e-02,-2.42086e-01,-6.62021e-02,-6.72439e-01,1.63077e-01,-7.82543e-04,-4.44463e-01,9.64872e-02,
3.55172e-01,-1.57170e-01,2.39834e-02,-8.86404e-01,-5.32038e-01,-6.74024e-01,-1.97292e-01,-2.35216e-01,4.19584e-01,-3.47365e-01,7.77064e-02,-3.92312e-01,6.10149e-02,3.38748e-01,1.20588e+00,-1.31026e-01,-1.32637e-01,-1.80184e-01,2.07447e-02,-1.79998e-01,
-1.90526e-01,-2.67791e-01,-6.46179e-01,3.46670e-01,1.16037e-01,1.14416e-01,-1.22625e-01,-4.16991e-01,4.59435e-01,-4.13664e-01,1.59420e-01,1.41045e-01,-1.68895e-01,-1.67750e-01,5.64197e-02,-1.82724e-02,3.66655e-01,-9.75269e-02,-4.11920e-01,3.59418e-01,
-5.39584e-01,1.64686e-01,2.14408e-01,-3.42238e-01,4.93526e-01,-1.44341e-01,-1.65064e-02,8.83522e-02,-2.60357e-01,-1.80978e-01,3.51598e-01,-1.99370e-01,-2.36075e-01,-1.28728e-01,3.05851e-01,2.59170e-01,5.84094e-01,5.70329e-01,8.77968e-02,-4.65406e-03,
5.71230e-01,-2.18953e-01,-1.18818e-01,-1.43694e-01,1.78721e-01,-3.11660e-02,-8.20410e-01,-3.33523e-01,-6.10088e-02,2.42195e-01,-1.14578e-01,-5.02318e-02,-4.41432e-01,-8.61284e-01,-1.53979e-03,2.20488e-01,-1.47007e-01,-2.14784e-01,1.57260e-01,1.86209e-01,
4.25505e-01,1.12549e-01,2.83417e-01,-4.06144e-01,1.01451e-02,6.36159e-01,-2.04081e-01,2.93771e-01,9.04394e-02,6.18630e-01,-4.61593e-01,2.66190e-01,9.44719e-03,-2.12912e-01,2.68355e-01,1.01355e-01,-8.23117e-02,-7.06574e-02,3.98810e-01,-4.98090e-01,
-6.35518e-01,
-3.69407e-01,
-1.39519e-01,
-1.38281e-02,
1.47875e-01,
-3.30199e-02,
-8.63488e-02,
2.88088e-01,
8.41788e-02,
-5.61032e-03,
3.06007e-02,
-5.83076e-01,
-2.95855e-02,
4.84381e-02,
-4.26657e-01,
1.91667e-01,
2.63634e-01,
-1.28349e-01,
1.72495e-01,
3.11884e-01,
-1.63183e-01,-1.29017e-01,-6.10733e-02,-2.02003e-01,-5.98261e-01,-2.44197e-01,-7.16774e-02,-4.50834e-01,-2.71352e-01,8.01021e-01,2.70583e-01,-4.43109e-01,1.06439e-01,3.30133e-01,1.73451e-01,8.45807e-02,3.00867e-01,-4.53382e-01,6.29104e-04,-3.22022e-01,
-2.66172e-01,4.77655e-01,2.20494e-01,6.29469e-01,5.01899e-01,-2.60595e-01,5.87215e-01,3.92885e-01,-1.49775e-01,6.44864e-01,1.84954e-01,1.73510e-02,1.09061e-01,2.05362e-01,-4.39169e-01,-7.31935e-01,2.39714e-01,-7.51405e-01,-3.48808e-01,3.51362e-01,
-1.82581e-01,-3.44680e-01,4.10979e-01,1.25529e-01,-5.86867e-01,1.39437e-01,-4.90206e-02,1.31936e-01,2.97899e-01,2.38941e-01,-2.56265e-01,1.33323e-01,1.53608e-01,-2.94425e-01,-5.74414e-02,2.49081e-01,-9.45798e-01,4.79030e-01,-2.98747e-01,2.82436e-01,
-3.11836e-01,-2.94323e-01,2.73924e-01,8.10153e-02,4.82006e-01,-7.39032e-01,2.30738e-01,5.82324e-01,-7.20051e-02,-5.81736e-01,4.23905e-01,1.74431e-01,-5.19669e-02,-3.10842e-01,-3.86120e-01,-5.06336e-01,-6.46786e-01,5.38611e-01,-1.86107e-01,6.01754e-01,
9.22180e-02,2.20031e-01,-2.22054e-01,2.85916e-01,-2.96552e-01,2.65796e-01,5.09601e-01,4.22029e-01,-6.50023e-01,-3.94478e-01,6.77448e-02,3.99528e-01,2.38343e-01,-6.26449e-02,-4.37068e-01,3.84338e-01,1.37746e-01,2.22348e-01,-3.81227e-01,-1.16295e-01,
1.14362e-01,-4.76493e-01,-4.37920e-01,-1.32250e-01,-1.23772e-01,-5.69381e-01,-2.03813e-01,-4.46577e-01,9.02417e-02,1.04231e-01,-2.51042e-01,-6.18092e-01,-2.66884e-02,5.11397e-01,-7.23682e-02,2.10066e-01,-1.84808e-03,1.03830e-01,-5.26947e-01,1.81310e-01,
-4.51801e-03,-2.19598e-01,5.24945e-01,-1.06179e-02,1.64205e-01,2.20644e-01,1.69005e-01,1.09878e-01,-1.47366e-01,-1.65256e-01,-2.85589e-01,-4.96214e-01,3.47461e-01,1.88601e-01,-2.35572e-02,9.31611e-02,-4.50921e-01,-5.21095e-01,-3.92874e-01,-9.55097e-01,
5.19965e-01,4.55152e-02,2.57912e-02,-8.41008e-02,-4.00710e-01,9.89008e-02,3.66552e-01,7.87101e-01,-4.91842e-01,1.88112e-02,-8.18501e-01,-6.67106e-02,4.87857e-01,-8.86717e-02,-8.16808e-01,-3.87844e-01,-4.41964e-02,-5.55874e-01,4.99017e-02,9.48568e-02,
1.76337e-01,-4.66471e-02,-4.58577e-01,3.18430e-02,2.06485e-01,4.20266e-01,9.92808e-02,2.04133e-01,-4.05324e-01,-7.60846e-02,-1.97992e-01,1.33518e-01,1.70440e-01,-2.96183e-01,4.80877e-01,6.65102e-01,1.12913e-01,3.19698e-01,-7.27002e-01,8.34987e-01,
-3.33308e-01,9.36539e-02,-5.10604e-01,-7.05298e-01,-2.34544e-02,3.42243e-01,5.58336e-01,9.96134e-02,-5.99943e-01,-1.20852e-01,1.82307e-01,3.96389e-01,-4.95692e-01,5.04346e-01,-8.56997e-02,-9.47722e-01,-6.98602e-02,-1.34792e-01,2.13123e-01,-2.55709e-01,
-1.01865e-01,4.43670e-02,-7.32231e-02,-4.45266e-01,-2.11287e-01,1.49090e-01,-1.04194e-01,-3.84165e-02,1.60805e-01,-1.07559e-01,-4.05834e-01,-4.98663e-02,-5.53918e-01,5.46215e-02,-2.21072e-01,3.58069e-01,-3.53033e-02,3.20448e-01,8.09281e-01,6.79831e-02,
-1.77345e-01,5.13543e-01,-2.18986e-02,1.91168e-01,2.02235e-01,1.00871e-02,1.94786e-01,-3.64071e-01,-8.77289e-02,-3.85936e-01,5.51615e-02,-3.45446e-01,1.12666e-01,-1.69295e-01,1.66063e-01,-2.74497e-02,-6.97975e-03,-3.30929e-01,1.58874e-01,2.34949e-01,
5.15162e-02,4.72455e-01,5.93376e-01,2.65657e-01,3.96766e-02,5.63383e-01,6.55309e-01,-8.75285e-01,4.76322e-01,4.96766e-01,-8.60080e-01,4.03888e-02,-3.54205e-01,2.83171e-01,8.16223e-03,-1.67165e-01,-2.98702e-01,7.79314e-01,4.49295e-01,6.33079e-02,
4.15920e-01,-1.87768e-01,-7.69678e-02,3.54948e-01,2.87693e-01,-8.68253e-01,-2.56481e-01,2.51622e-01,3.15743e-01,7.92700e-01,-4.37191e-01,-5.42448e-02,6.05826e-01,-8.14014e-01,1.81303e-01,3.36953e-01,-2.96228e-01,6.06737e-01,1.17775e-01,4.34689e-01,
-1.80839e-01,3.65551e-03,6.83514e-01,-2.54222e-01,-3.74340e-01,4.92212e-02,-3.43148e-01,1.78422e-01,4.23182e-01,-8.54366e-02,-2.47254e-03,-1.87658e-01,-7.75322e-02,-2.90005e-01,8.32371e-01,2.80381e-01,7.05918e-02,-1.11178e-01,-9.71277e-01,3.56951e-01,
1.27845e-01,6.60674e-02,1.91264e-01,5.27669e-02,1.40542e-01,8.47138e-02,-1.27519e-01,2.49915e-01,4.16024e-01,8.55283e-01,3.31308e-01,-2.41597e-01,-2.69697e-01,-9.70615e-01,-3.33574e-01,5.82038e-02,-2.44458e-01,3.93112e-01,3.81426e-01,1.21405e-02,
-3.01889e-01,4.92866e-02,1.35132e-01,-5.10896e-03,-2.74493e-01,4.39952e-01,-2.02522e-01,9.97897e-02,-1.32676e-01,3.25335e-01,2.35376e-01,-3.29588e-01,4.50845e-01,4.38417e-01,-2.85910e-01,1.19794e-01,4.89875e-02,1.56539e-02,5.88195e-01,3.71379e-01,
-1.73721e-01,-2.14589e-01,3.37803e-01,3.46539e-01,1.88924e-01,-2.03039e-01,-3.19243e-01,-3.73364e-01,3.17799e-01,6.00082e-01,-3.18340e-01,2.05860e-01,-5.87724e-01,-3.67836e-01,-2.28956e-01,-1.06934e-01,1.21713e-02,5.74859e-02,-1.80877e-01,-1.09691e+00,
-1.31211e-01,2.64915e-01,1.62588e-01,4.27693e-01,3.61502e-01,-2.47276e-01,-1.72802e-01,1.00443e-01,-5.88754e-02,-2.33696e-01,-4.81168e-01,-1.39346e-01,3.05012e-01,-3.91049e-01,-9.40652e-02,-7.34434e-02,-1.51965e-01,-1.78587e-01,2.27008e-01,-6.02516e-01,
3.92595e-01,-1.78656e-01,-4.28827e-01,1.37597e-01,-4.54106e-01,1.72199e-03,2.36310e-01,2.69288e-01,1.44946e-01,-4.57454e-01,-3.49716e-02,-5.91771e-01,6.66951e-02,3.18480e-01,1.12518e-01,-2.89285e-01,4.57665e-01,1.99310e-02,3.90965e-01,-2.38438e-01,
3.91720e-01,
-4.20895e-01,
6.17536e-01,
1.44488e-01,
-2.01378e-01,
4.64957e-01,
5.26311e-01,
-3.90012e-03,
-3.26442e-01,
-2.52298e-01,
8.28390e-02,
6.13880e-02,
-5.02556e-01,
1.06727e-01,
-2.50711e-01,
8.18390e-03,
3.49263e-01,
-3.80445e-01,
-3.86129e-01,
-8.16805e-03,
4.06137e-01,2.45656e-01,5.98295e-01,4.31822e-01,5.76575e-02,-1.07258e-02,5.76938e-02,1.09369e-01,2.71676e-01,-8.06721e-02,3.44266e-01,1.96433e-02,-3.07149e-01,2.90360e-01,-1.92995e-01,9.73822e-02,3.45128e-01,-3.26185e-01,-1.25244e-01,-8.08544e-01,
-4.25801e-01,-4.43123e-02,1.22870e-01,-3.61954e-01,2.38237e-01,1.60532e-01,-7.15859e-02,-1.67619e-01,1.08214e+00,2.62362e-01,3.21045e-01,-5.10131e-01,-1.95962e-01,1.82489e-01,-1.46562e-01,1.98518e-01,-3.53678e-01,-1.87399e-01,8.29840e-02,-7.78417e-02,
-5.96983e-02,1.51054e-01,1.97745e-02,-1.04348e-02,-4.00613e-01,-2.90401e-01,3.66587e-01,-3.20554e-01,2.33314e-01,-2.48389e-01,1.51783e-01,3.44884e-01,-8.27403e-02,-3.71973e-01,-2.87802e-01,-4.32911e-01,5.67105e-02,-1.54671e-01,3.31924e-01,-2.17583e-02,
-3.81317e-01,-2.27802e-01,-1.22040e-01,-9.03116e-02,3.18901e-01,5.98088e-01,-7.13959e-02,1.68766e-01,-6.75173e-02,3.04640e-01,2.99429e-01,-5.94346e-02,8.82676e-03,2.90231e-01,-1.51394e-01,-3.29160e-01,5.42066e-01,-5.85553e-01,-2.58966e-01,-6.63164e-01,
6.49092e-02,3.02895e-01,-6.35509e-01,-1.34897e-01,-4.23476e-01,6.64671e-01,-5.34070e-01,3.72206e-01,-2.45681e-01,-6.72548e-02,6.51310e-02,1.92851e-01,-6.30166e-01,2.63234e-01,-3.17878e-01,-4.59833e-01,7.56511e-02,2.06788e-01,-2.23158e-01,3.25933e-01,
4.31853e-01,-1.53348e-01,-6.74463e-01,4.53570e-01,-1.22704e-01,-8.46977e-01,-3.64172e-01,6.72365e-02,-3.02084e-01,-1.94663e-01,-7.59253e-03,7.27868e-02,1.84388e-01,-3.70508e-01,2.17530e-01,1.72507e-03,2.36804e-01,3.13344e-01,-5.57332e-01,2.63155e-01,
1.32999e-01,-3.08695e-01,1.38844e-01,1.67458e-02,-1.27191e-01,-3.81799e-01,5.29338e-01,5.25270e-02,4.97559e-01,-5.40442e-01,-7.15385e-02,5.90753e-02,-3.59583e-01,-2.97175e-01,7.19064e-01,2.26497e-02,-7.01692e-01,-4.01693e-01,4.73839e-01,-5.89833e-01,
-1.35295e-01,7.93125e-01,4.35330e-01,1.04978e-01,4.39286e-02,-1.58132e-01,-5.09705e-01,1.01868e-01,2.24320e-01,1.03631e-01,4.05827e-01,-1.36107e-01,3.57620e-01,-9.52617e-02,-4.22118e-01,4.40315e-01,2.08933e-01,1.35130e-02,3.40346e-01,2.29881e-02,
-2.07649e-01,2.21755e-01,-4.70153e-01,-3.80376e-01,5.73567e-02,-6.65655e-01,-5.13750e-01,1.57677e-01,1.82968e-01,-4.20058e-01,-2.01067e-02,-1.47484e-01,2.74556e-01,2.68712e-01,5.12080e-01,-4.13996e-01,5.13318e-02,-1.45415e-01,2.83977e-01,3.63135e-01,
5.57835e-01,-2.94881e-01,3.77026e-02,-2.79458e-01,-4.52137e-01,8.87174e-02,-3.12287e-01,1.75311e-01,6.11463e-03,3.26063e-01,-5.01157e-01,-3.98296e-01,-6.83230e-01,3.36838e-01,5.78706e-01,5.11219e-02,3.36880e-01,8.98508e-01,6.04159e-01,-2.86869e-01,
-1.08963e+00,-4.88860e-02,-9.88483e-02,6.11903e-02,-4.54713e-01,5.72380e-01,-5.34020e-02,-8.87386e-02,-7.50413e-01,3.71083e-01,3.04526e-01,7.15014e-02,-1.83212e-01,3.62235e-01,8.02384e-01,-6.69332e-02,-1.75350e-01,-2.33978e-01,1.85818e-01,-4.06224e-01,
3.53753e-01,-2.47161e-02,6.58714e-01,-4.67459e-01,-1.54260e-01,3.46032e-01,-3.34809e-01,-2.62688e-02,-2.60340e-01,-4.44585e-02,-4.31827e-01,-5.53895e-01,-1.07698e-01,3.67594e-01,-2.42861e-01,-4.11801e-02,-2.79526e-01,-3.01404e-01,4.20379e-01,4.61286e-01,
2.18952e-01,5.41541e-01,4.93648e-01,-9.23831e-02,-5.23370e-01,2.36543e-01,-1.50191e-01,-6.36530e-01,-6.02494e-02,-2.61426e-01,7.30711e-02,3.02621e-01,-5.11215e-01,-5.12798e-01,4.80785e-02,-5.31485e-02,1.60400e-01,1.23056e-02,-1.10342e+00,-6.35925e-02,
-4.17699e-01,-2.20804e-02,3.61376e-01,-3.03590e-01,5.58206e-01,5.14627e-01,2.21504e-01,4.36121e-01,-5.37455e-01,-3.20218e-01,-8.80925e-02,5.02198e-01,-3.51833e-01,2.82552e-01,-3.10035e-01,-2.96020e-01,2.54009e-01,8.82753e-02,-1.01419e-01,-9.46117e-02,
-1.77322e-01,4.83481e-01,1.57532e-01,1.30240e-01,1.35947e-01,1.40636e-01,1.18828e-01,1.37002e-01,6.67456e-01,-8.81971e-02,-9.13618e-02,7.85882e-01,2.39591e-01,-2.11580e-01,-5.17022e-01,1.94643e-01,2.92079e-01,2.38880e-02,8.87165e-01,-1.92276e-01,
-5.06434e-01,3.00836e-01,1.26421e-01,-1.94291e-01,1.24518e-01,-2.46766e-01,-1.58244e-01,-4.78290e-02,2.07302e-03,-3.53054e-01,9.07872e-04,-6.68080e-01,9.68314e-02,2.66877e-01,1.99279e-01,6.10283e-02,-1.46980e-01,-8.60675e-02,2.86523e-01,4.71825e-01,
-6.50674e-03,3.60489e-01,-1.77213e-01,-4.73053e-01,4.92409e-01,-4.30621e-01,4.96587e-01,-2.20981e-01,-1.31267e-01,5.91037e-01,1.50965e-01,-2.14069e-03,4.96438e-02,6.23333e-01,-5.78876e-03,-6.29230e-01,-2.93891e-01,7.59448e-01,-3.70484e-01,-5.44932e-01,
6.62902e-01,6.07516e-01,5.60241e-02,-4.39613e-01,-2.43194e-01,-1.64038e-01,-3.62383e-01,-1.04372e-01,6.70797e-01,4.01297e-01,3.75450e-01,1.37756e-01,-9.55114e-02,1.87909e-01,-2.18329e-01,-2.17195e-01,-3.96408e-01,-1.89435e-01,-6.63091e-01,2.04909e-02,
3.70844e-01,-2.45758e-01,-1.89395e-01,-2.32979e-01,-3.06282e-01,1.80619e-01,-5.52669e-01,-2.78666e-01,3.61453e-01,1.71495e-01,5.85077e-01,5.07010e-01,2.99210e-01,-5.60468e-01,-5.59381e-01,4.30223e-01,1.42256e-01,-4.83996e-01,-5.18247e-01,-3.24783e-02,
1.16337e-01,1.36263e-01,-4.49134e-01,2.32457e-01,1.61794e-01,2.74185e-01,-4.82356e-01,5.03744e-01,9.56707e-03,-1.47150e-01,-1.14187e-01,1.46171e-01,3.04274e-01,2.43195e-01,4.61430e-01,-9.24229e-01,-2.42409e-01,3.28297e-01,-2.19031e-01,-2.35777e-01,
-3.52260e-01,
5.11529e-01,
-2.33547e-01,
1.16747e-01,
1.43905e-01,
5.81611e-02,
-3.45427e-01,
3.70542e-01,
5.60178e-01,
-2.49194e-01,
-2.70602e-01,
-1.56254e-02,
1.63955e-01,
2.87125e-01,
1.42381e-02,
-6.78826e-02,
-1.08475e-01,
-1.55513e-01,
-3.63329e-01,
-1.28660e-01,
-5.77523e-01,-1.40719e-01,6.12636e-02,4.88196e-02,2.27205e-01,2.96087e-01,-2.44578e-01,6.38919e-01,6.16523e-01,2.71410e-01,-2.16389e-01,-2.58024e-01,6.68506e-02,-2.85124e-01,9.25606e-02,1.01322e-01,-5.20583e-02,2.05210e-01,3.98907e-01,3.09758e-01,
1.80540e-01,-3.53075e-02,3.16555e-01,-3.19816e-01,5.23928e-01,1.95683e-02,-3.98690e-02,5.42463e-01,2.64089e-01,5.68131e-01,1.25952e-01,2.13280e-01,-6.01957e-01,3.80223e-01,-5.88096e-01,1.57237e-01,3.13315e-01,2.65900e-01,3.20862e-02,3.29441e-01,
2.57446e-01,1.52137e-02,-3.81195e-01,7.98628e-02,-4.38065e-01,5.05855e-01,-8.36901e-01,8.14291e-02,1.94251e-01,-6.35690e-01,-1.89448e-01,-4.06029e-01,-4.80032e-01,8.60350e-01,-2.80739e-01,1.90752e-01,-3.97285e-01,4.46550e-02,-3.42888e-02,-2.50347e-01,
-2.24113e-01,-4.42427e-01,1.60604e-01,-1.12366e-01,-8.82141e-02,3.04459e-01,-3.26945e-01,-1.68906e-01,-1.03028e-01,1.41933e-01,2.46379e-01,8.73949e-02,-1.45829e-01,-7.72083e-02,-1.12648e-01,1.30943e-02,-1.08154e-01,-1.15651e-01,-2.19282e-01,-5.83844e-01,
-1.48694e-01,3.93988e-01,3.91034e-01,6.45724e-01,8.85136e-01,-6.75922e-02,6.11295e-01,-8.66492e-02,-2.02008e-01,-1.30730e-01,1.35748e-01,3.51304e-01,4.50980e-03,-1.26063e-01,-2.97853e-01,7.07091e-02,-9.25209e-02,2.81160e-01,4.75862e-01,-7.17474e-01,
3.16441e-01,5.14155e-01,-6.24789e-01,-3.87899e-01,-5.26674e-01,2.52411e-01,-3.20758e-01,1.31179e-01,-2.37135e-01,9.90101e-02,4.89626e-01,2.79064e-01,1.07712e-01,-3.22944e-01,5.24337e-01,-4.92930e-01,-3.94072e-01,-3.32793e-02,4.59184e-01,4.54796e-01,
5.44365e-01,1.68868e-01,-9.94497e-02,7.17655e-02,-6.96982e-01,-1.36200e-01,6.17734e-01,-9.35730e-02,-4.20058e-01,2.26028e-01,4.61903e-01,-8.63880e-01,-3.39644e-01,-6.79719e-02,-2.09621e-01,-5.94155e-01,-3.51941e-01,2.62075e-01,-5.26247e-01,1.60032e-01,
1.53933e-01,5.08595e-02,-2.19493e-01,-3.09683e-01,-3.58765e-01,-7.50470e-01,7.65670e-01,3.43875e-01,-5.99418e-01,-4.16096e-02,-4.81383e-01,9.85925e-02,-5.18732e-01,-2.85596e-01,-1.15172e-01,1.70630e-02,-4.86292e-01,-1.79861e-01,1.04566e-01,-4.01423e-01,
-3.24227e-02,2.58368e-01,-2.87656e-01,-3.90605e-01,-3.18394e-01,6.47812e-01,2.27118e-01,-1.30376e-01,-6.92593e-01,-3.61478e-02,8.53274e-02,-2.90864e-02,-1.10327e-01,-7.55309e-01,3.60651e-01,3.95021e-02,-5.89234e-02,-2.85971e-01,-4.34174e-01,4.87631e-01,
5.09277e-01,3.58055e-01,1.56490e-01,4.28191e-01,4.68478e-01,1.65347e-01,-2.67916e-01,2.96532e-01,-2.73768e-02,-3.48149e-01,-2.52067e-01,-6.40804e-01,-1.21568e-01,2.48072e-01,-8.16396e-01,-1.88247e-01,3.15242e-01,-5.31608e-02,-2.33896e-01,-1.30537e-02,
4.87092e-01,1.51576e-01,-5.83848e-01,6.35374e-01,-1.36107e-01,5.55848e-01,-6.70803e-01,-1.55903e-01,1.14716e-02,3.84890e-02,2.04539e-01,2.94350e-01,-4.27218e-01,4.54116e-01,-6.84043e-01,1.64708e-01,3.79784e-01,5.07400e-01,-2.86569e-02,1.48009e+00,
2.68598e-01,-6.67621e-01,6.09961e-01,-1.89937e-02,4.64294e-02,2.08388e-01,-3.40068e-01,-1.47659e-01,-6.92299e-02,3.40788e-01,4.47072e-01,-1.03337e-01,-8.09400e-02,-3.33097e-01,-2.57361e-01,3.68833e-01,-1.82959e-01,-1.90870e-01,1.91381e-01,1.56525e-01,
-8.08571e-01,9.69441e-02,1.71174e-01,4.64669e-01,3.81224e-01,5.09990e-01,-3.39999e-01,7.88992e-02,-1.87291e-01,8.93855e-01,5.27415e-01,-2.09477e-01,-1.42677e-01,1.93188e-01,4.91517e-01,8.11180e-02,5.33736e-01,2.31532e-01,-5.65203e-01,5.69857e-01,
2.81235e-01,1.55215e-01,1.43096e-02,4.35735e-01,-3.24922e-01,-3.96847e-01,5.84774e-01,4.87010e-02,1.94898e-01,1.34501e-01,3.34320e-01,2.55738e-01,-5.16515e-01,-1.04095e-02,1.54779e-01,-9.92250e-01,8.18242e-02,5.37069e-01,8.66140e-01,4.41679e-01,
-1.21065e-01,5.47251e-01,-3.11070e-01,8.40569e-01,-2.69502e-02,-6.93830e-03,-3.47893e-02,-4.56018e-01,-7.04670e-01,-6.59794e-02,7.10741e-01,-8.08889e-01,-3.72626e-01,-3.59841e-02,3.95586e-01,-6.20631e-02,-3.85341e-01,1.95447e-01,-4.28251e-01,-4.41665e-01,
2.30607e-01,3.27426e-01,4.34446e-01,2.03101e-01,3.32652e-01,1.73188e-01,2.26927e-01,6.18996e-03,2.35187e-01,1.66472e-01,1.50954e-01,-2.54387e-01,3.17024e-02,-9.35678e-02,1.34134e-01,-2.73801e-01,-6.48645e-01,-3.93874e-01,-4.96634e-01,1.09670e-01,
6.26420e-01,-3.17421e-01,-1.92943e-01,-5.14626e-01,1.52472e-01,-4.01732e-01,3.68853e-01,-3.79881e-01,-1.41704e-02,6.18549e-01,2.67233e-01,-9.09029e-02,2.17015e-01,2.93081e-01,3.56107e-01,-4.32755e-01,3.98959e-01,5.62341e-01,4.49512e-01,-3.36265e-01,
-3.02894e-01,2.96529e-04,4.58263e-02,2.35465e-01,8.09224e-01,2.43394e-01,1.50492e-02,9.80443e-01,-4.38395e-02,-5.81284e-02,4.63808e-01,2.65589e-01,-3.64589e-01,-4.13443e-02,-1.09581e-01,3.11139e-01,-1.22419e-01,-1.38385e-01,1.99433e-02,1.82144e-01,
2.10411e-01,-9.99777e-02,1.11005e-01,-5.81005e-01,1.82276e-01,1.58683e-02,-3.00036e-01,2.95605e-01,1.17998e-01,3.01224e-01,-4.77800e-01,-9.12343e-01,2.13263e-01,2.50697e-01,4.97388e-01,2.46645e-01,-1.37430e-01,-1.95025e-02,-2.92023e-01,3.12574e-01,
5.80305e-03,1.67294e-01,-7.80882e-02,1.63737e-01,8.75358e-02,3.72746e-01,4.10475e-01,-9.07147e-01,-1.15544e-01,-3.25424e-01,1.41847e-02,-2.97792e-01,8.02733e-03,3.34963e-01,3.59712e-02,-2.93907e-01,-1.75331e-01,4.69217e-01,-1.56567e-01,-3.18892e-01,
-6.54745e-01,
4.31867e-01,
-5.60178e-01,
-4.48787e-02,
2.30511e-01,
1.23067e-01,
2.41970e-01,
-2.92700e-01,
-4.63198e-01,
4.45065e-01,
-7.49283e-01,
1.50099e-01,
-5.19098e-02,
-4.56731e-01,
-2.01249e-01,
-5.85640e-01,
3.09326e-01,
1.35785e-01,
2.18097e-01,
7.33076e-01,
-3.19352e-01,6.09763e-02,-3.41053e-01,-5.73227e-02,-1.44104e-01,2.68973e-01,-3.45234e-02,-1.82461e-01,9.71516e-02,2.34426e-01,-2.14752e-01,3.98653e-01,3.58581e-01,3.83738e-01,5.44786e-01,-4.31129e-01,-4.34088e-01,-2.28362e-01,5.49062e-01,3.19676e-01,
1.21296e-01,-7.10436e-01,2.57817e-01,1.02311e+00,-3.30282e-01,-6.94664e-02,-6.99299e-01,1.06067e-01,4.71069e-02,-1.46509e-01,8.93492e-01,-1.71061e-02,3.63041e-01,-4.84623e-02,-3.71139e-01,3.55705e-01,-2.54398e-01,3.17786e-01,8.32735e-01,-3.61220e-01,
1.18261e-01,-5.95749e-01,1.58146e-01,1.65502e-01,4.40111e-01,3.30081e-01,-2.71571e-01,1.48272e-01,2.33321e-01,2.45027e-01,-2.71541e-01,-2.65649e-01,4.15444e-01,-6.19445e-01,-2.67732e-01,1.88502e-01,1.97277e-01,1.37499e-01,-1.63162e-02,3.31924e-01,
-9.29953e-03,2.71169e-01,-1.21638e-01,7.81567e-03,-1.27085e-01,-3.66442e-01,5.42594e-01,2.33716e-02,-1.87255e-01,-2.56885e-01,-4.03859e-01,6.86037e-02,-8.52762e-01,-1.89336e-01,4.68871e-01,2.10775e-01,-7.96933e-01,-1.26165e-02,2.03246e-01,5.39076e-01,
1.87638e-01,-5.56712e-01,-2.27173e-01,3.86312e-01,-1.91994e-01,-4.93360e-01,-1.18705e-01,2.34963e-01,-1.01105e-01,4.14621e-01,8.05905e-01,-3.23254e-01,7.34318e-02,1.10248e-01,1.09853e-01,-4.54124e-01,7.91071e-02,-3.49087e-01,1.68717e-01,3.58515e-01,
-8.02680e-01,2.40828e-01,-2.14951e-01,-7.23702e-01,-5.52224e-01,3.69700e-01,-1.26006e-01,5.46123e-02,2.38497e-01,-2.35471e-01,-1.30253e-02,1.56052e-01,-1.50637e-01,1.02161e+00,-6.60818e-01,3.30623e-01,2.73254e-01,8.04803e-02,7.34727e-02,3.13472e-01,
5.90953e-01,3.33722e-01,4.71068e-01,7.10900e-02,-4.14294e-01,-4.29210e-01,3.27436e-01,-3.06510e-01,-6.55367e-02,-1.31271e-01,1.46529e-01,1.71419e-01,-5.84860e-01,-1.36294e-01,2.85083e-01,3.04575e-01,5.78726e-01,-1.40944e-03,-1.25924e-01,2.30165e-01,
4.32082e-02,-3.10668e-02,-1.80953e-01,4.77272e-02,-2.95286e-01,-2.14479e-03,-2.62591e-01,-2.07499e-02,-3.03807e-01,6.03702e-01,2.95284e-01,1.19677e-02,-4.63746e-01,-9.28160e-02,8.62053e-02,-1.17079e+00,1.85418e-01,2.49656e-01,-6.39746e-01,-1.61783e-01,
1.55224e-01,4.38314e-01,4.46866e-01,1.52490e-01,-3.88101e-01,-7.27767e-01,1.07771e-01,3.60526e-01,5.01807e-01,-2.70133e-01,-5.58498e-02,2.89157e-01,5.05426e-01,1.31334e-01,7.42243e-01,6.33881e-02,-1.92752e-01,-6.11982e-01,-1.01919e+00,-2.06340e-01,
-2.65663e-01,-3.51726e-02,-1.96064e-01,-1.70833e-01,-9.71370e-01,4.70222e-01,1.12633e-01,1.69015e-01,-3.04156e-01,6.12370e-01,-3.24920e-01,-1.54651e-01,-3.05853e-01,8.70924e-02,2.31366e-01,-2.37357e-01,-5.22631e-01,6.56387e-01,3.00271e-01,-1.71117e-01,
1.11218e-01,1.95180e-01,1.82623e-01,-1.24245e-01,7.60490e-02,2.12487e-01,3.90205e-01,3.31361e-02,-2.30700e-01,2.23722e-01,6.51108e-01,2.52430e-01,4.09014e-01,-2.16795e-01,-5.20482e-01,4.76620e-01,6.12130e-02,2.56630e-01,4.29909e-01,-1.99925e-03,
-5.47748e-01,8.61042e-02,6.00923e-01,1.25994e-01,1.57485e-01,-1.39494e-01,4.75158e-02,2.88283e-02,-4.34947e-01,-1.36474e-01,1.90372e-01,6.32351e-01,-3.54300e-03,6.94562e-01,1.08781e-01,-9.91837e-03,2.62604e-01,1.68782e-01,5.95004e-02,6.53695e-03,
-4.17318e-01,1.27819e-01,1.60494e-01,-1.70759e-01,-8.64096e-01,2.33382e-01,-5.05953e-01,2.97350e-01,2.47195e-01,-6.43949e-01,-1.74550e-01,-5.68806e-01,-7.08365e-02,-3.30474e-01,2.74891e-01,2.11399e-01,-4.36970e-01,-1.81824e-01,1.99803e-01,-1.35831e-01,
-3.12663e-01,-4.86915e-02,-2.58820e-01,-1.02955e-01,8.29992e-02,-1.69231e-02,2.06181e-01,1.45157e-01,-1.13250e-01,-9.32541e-02,5.38682e-01,-9.22008e-01,5.28655e-01,-3.65314e-01,-3.91220e-01,6.55136e-02,1.08105e-01,2.98544e-01,-1.35407e-01,1.21100e-01,
-1.28534e-02,5.25159e-01,3.61121e-01,1.58193e-01,1.13064e-01,1.42521e-01,6.44417e-02,3.77348e-02,2.03209e-01,-2.87914e-01,6.02194e-01,-2.91288e-01,-1.17744e-01,-3.75554e-01,3.31135e-01,6.33141e-01,4.41303e-01,1.92497e-01,-1.93518e-01,5.15807e-01,
3.48342e-01,-2.33146e-01,-4.26784e-01,-4.05606e-01,-1.31021e-01,6.08179e-01,-6.26298e-01,-5.31484e-01,-7.29536e-01,-3.70374e-01,8.62336e-02,1.25457e-01,1.03659e-01,4.45729e-01,4.03340e-01,1.05321e-01,-7.19098e-01,-2.77749e-01,1.27769e-01,2.17740e-01,
-1.44577e-01,-7.94908e-01,6.68360e-01,1.76808e-01,2.79987e-01,2.36670e-01,-4.00331e-01,2.05270e-02,4.05544e-01,3.03497e-01,7.09553e-01,6.70800e-01,-2.76404e-01,1.02111e+00,4.78014e-02,-2.26454e-01,-5.00229e-01,5.59032e-01,-7.70799e-02,-3.98568e-01,
-1.01527e-01,-1.32389e-01,-3.30280e-01,-9.57388e-02,8.05146e-02,-5.52799e-01,-4.33734e-01,1.03365e-01,8.55965e-01,-6.63575e-01,-4.08946e-01,-7.55618e-02,-5.44733e-01,-6.34971e-02,-6.44632e-01,5.14348e-01,1.65821e-01,3.78500e-02,2.04873e-01,8.61625e-02,
-2.09752e-01,3.55006e-01,-3.59912e-01,-1.28048e-02,1.75199e-01,-2.72288e-01,-1.44299e-01,-3.24442e-01,4.44410e-01,1.10363e-01,-1.91560e-01,-3.30905e-01,-5.11666e-01,5.26708e-02,1.34442e-01,4.58038e-01,2.73829e-01,4.16376e-01,-7.47667e-01,-1.20024e-01,
-2.35353e-02,1.31178e-01,2.86167e-02,-1.30700e-01,2.04087e-01,-5.51130e-02,-4.57801e-02,1.05024e-01,2.60096e-01,-3.78605e-01,-1.29680e-01,4.19648e-02,1.58377e-01,-1.66026e-01,3.93998e-01,-6.02290e-02,-3.52368e-01,-2.04062e-01,-3.91344e-01,-6.34523e-01,
-7.80510e-02,
8.26596e-01,
3.40444e-02,
6.67825e-01,
5.26128e-03,
2.68836e-02,
1.82024e-01,
-6.25230e-01,
-9.47867e-01,
9.20835e-02,
-4.83692e-01,
2.90504e-01,
-2.96497e-01,
4.25766e-01,
-2.30374e-01,
7.37202e-02,
-2.35852e-01,
5.56122e-01,
2.07675e-01,
-9.26427e-01,
-1.64499e-01,3.24649e-02,-3.30522e-01,-2.73812e-01,-3.42086e-01,-5.47095e-01,-1.65795e-01,8.66194e-02,1.30186e-01,1.17621e-01,-8.77737e-02,2.65119e-01,3.65302e-02,-2.14616e-01,-2.48108e-01,8.41367e-02,-7.44457e-02,-3.50509e-01,4.78347e-01,-3.39872e-01,
-2.78697e-01,3.38830e-01,1.35867e-01,-8.53467e-02,1.70415e-02,2.57792e-01,2.00863e-01,5.59042e-01,-2.37813e-01,-3.45863e-01,-1.08443e-01,-6.93239e-02,3.41961e-02,2.23278e-01,3.25763e-01,-1.54635e-02,4.41283e-01,-2.09896e-01,-2.79403e-02,-4.06384e-01,
-1.00372e-01,-1.88961e-01,1.35551e-01,2.97599e-02,7.51066e-01,3.32257e-01,-1.27706e-02,-2.14359e-01,-8.25052e-01,-4.79160e-01,2.25006e-01,-2.65215e-01,-2.21539e-01,-3.06119e-01,7.17133e-01,5.56605e-01,1.40659e-01,-3.75572e-01,6.05005e-01,1.31488e-02,
-3.03728e-02,-3.20843e-01,-1.58527e-01,-7.09098e-01,-2.16156e-01,4.54384e-01,5.23357e-02,-4.63142e-01,-7.30382e-02,-5.82715e-01,8.82340e-02,5.77332e-01,5.07151e-01,6.67459e-02,-3.53058e-01,8.99598e-01,1.88164e-01,2.82764e-01,-5.26220e-01,4.93307e-01,
-1.74506e-01,-6.98822e-01,1.17494e-01,-1.24170e-01,-3.12829e-01,-1.37294e-01,-9.54657e-01,3.59451e-01,4.30098e-01,-1.55044e-01,6.85756e-02,2.67997e-01,-6.04233e-01,-1.81054e-01,-5.51304e-01,-3.78318e-01,1.28773e-01,3.73926e-02,4.24171e-02,4.31915e-01,
-2.73121e-01,-1.89835e-01,1.55168e-01,2.12246e-01,1.13641e-01,9.36926e-02,-8.72297e-01,2.69585e-01,3.01184e-01,-4.08476e-02,5.13463e-01,1.66945e-01,-4.59536e-01,5.27148e-02,-4.73864e-01,-2.86184e-02,-5.42585e-01,2.26538e-01,6.45334e-02,7.93223e-01,
-2.34887e-01,-1.18786e-02,-2.97957e-01,-5.91713e-02,-2.97118e-01,1.78862e-01,3.56440e-01,-2.46239e-01,1.29286e-01,-2.11130e-01,-6.48439e-01,8.32920e-01,-2.19290e-01,3.69173e-01,4.79917e-01,2.98856e-01,-3.44232e-01,-2.14345e-01,2.96384e-01,2.05566e-01,
7.40034e-02,4.41825e-01,-2.25737e-01,-2.05067e-01,5.26728e-03,1.63382e-02,-4.27871e-01,8.07538e-01,2.05973e-01,-2.62716e-01,-2.56759e-01,-2.46576e-01,-9.13899e-01,5.29579e-01,-4.88995e-01,2.42688e-01,-3.08559e-01,2.16965e-01,3.22758e-01,-1.33746e-01,
-8.56827e-02,-1.24867e-01,-8.69450e-01,-5.32756e-02,1.80746e-01,-1.82580e-01,1.47783e-01,4.86132e-01,-1.49353e-02,-2.21297e-01,1.93165e-01,-2.82061e-02,3.14226e-01,-2.84197e-01,1.41328e-01,-7.53025e-01,-2.55697e-01,1.98325e-02,5.06526e-01,-8.14764e-01,
1.45870e-01,9.38500e-02,1.09176e-01,7.39962e-02,-1.05813e+00,1.54678e-01,2.73497e-01,5.45743e-02,-2.00939e-01,-1.48467e-01,-3.54919e-01,-8.19835e-01,2.36816e-01,5.58507e-02,9.23482e-02,1.82167e-02,5.79044e-01,1.40898e-01,1.77797e-01,-4.29249e-01,
3.85683e-01,-9.50146e-02,-1.05390e+00,4.55144e-01,1.10046e-01,-3.17771e-01,7.55828e-02,-7.90635e-01,5.14408e-01,-2.40898e-01,9.79494e-01,-3.17234e-01,-4.49650e-01,1.44108e-01,-2.70643e-02,-5.72009e-01,-8.18422e-02,-4.55532e-01,-2.40329e-01,-1.17600e+00,
-4.64165e-01,-2.92179e-01,-6.79096e-02,1.02986e-01,-6.41249e-02,-1.93348e-01,-7.56985e-02,-1.41815e-01,1.39430e-01,1.80309e-01,3.33397e-01,-2.79038e-01,8.20631e-03,-5.00880e-03,-5.43162e-01,-7.96712e-01,-1.39255e-02,2.01465e-01,-4.70217e-01,-1.12794e-01,
4.38306e-02,-8.01387e-01,-3.67411e-01,-3.04192e-01,-5.18317e-01,1.06143e-01,-1.32387e-02,8.07346e-02,2.28175e-01,2.93676e-01,-1.33247e-01,-1.41417e-01,2.72469e-01,-2.52473e-02,6.95067e-01,-8.44357e-03,-6.19585e-01,6.11541e-02,-5.38243e-01,-1.87241e-01,
-2.14454e-01,-3.13920e-01,-5.65352e-01,-7.60927e-02,1.27231e-01,-1.31468e-01,-1.72374e-01,-1.56018e-01,-5.65605e-01,-5.52288e-01,5.40345e-02,6.22693e-01,-2.63073e-01,-8.23175e-02,-2.67301e-01,2.28337e-01,1.50425e-01,-1.07282e-01,-4.84174e-01,-6.02879e-01,
2.67944e-01,6.81671e-02,5.23925e-02,5.55677e-02,4.77035e-01,4.45698e-02,-3.13044e-01,-2.50196e-01,-6.26607e-01,1.01000e-01,6.33388e-01,-1.94480e-01,2.86096e-01,-5.35576e-01,-4.85877e-01,2.01682e-01,-1.24706e-01,5.48443e-02,8.45237e-01,4.83914e-01,
5.87139e-01,3.53647e-01,8.86049e-01,-3.11628e-01,-2.29560e-02,5.10448e-01,-3.03445e-01,-3.22370e-01,-1.77612e-02,1.35318e-01,-1.54494e-01,-5.20272e-01,8.28253e-01,-4.37636e-01,2.04301e-01,1.65448e-02,-3.49196e-03,1.31173e-01,5.60666e-01,1.13774e-01,
2.91862e-02,-3.98247e-01,5.21871e-02,-5.44736e-01,3.39807e-02,1.29606e-01,-2.83933e-01,1.34945e-01,5.02333e-01,2.35426e-01,-3.29033e-01,-5.47309e-01,-5.16147e-01,4.20739e-01,-7.73396e-01,-9.74466e-02,3.68381e-01,1.71744e-01,5.21834e-01,-1.71173e-01,
1.03847e-02,5.64200e-02,1.87976e-03,4.81022e-01,-2.98243e-01,-1.90853e-01,-2.81346e-02,7.01356e-01,4.53942e-02,-9.71095e-02,-2.22372e-01,-4.20157e-01,3.43721e-01,-1.41524e-01,4.27208e-01,-3.32288e-01,-4.34660e-01,7.91539e-01,-1.54545e-01,-9.28073e-01,
2.20765e-01,2.50493e-01,3.34477e-01,1.95611e-01,-5.51173e-01,1.61268e-01,1.30370e-01,-5.45788e-02,-2.00507e-01,7.12171e-01,-3.82811e-01,-9.07323e-02,5.32524e-02,3.20394e-02,-5.12513e-01,-2.07799e-01,-7.58223e-01,-2.81210e-01,-4.88663e-02,-7.54586e-02,
5.31455e-01,1.78952e-01,-1.21242e-01,5.49799e-02,4.20920e-02,-4.68299e-01,2.58176e-01,-4.12412e-02,-1.14917e-01,-4.17102e-03,2.48937e-01,7.06284e-02,1.90026e-01,-4.73680e-01,6.35892e-02,-6.38300e-02,-2.58301e-01,-4.21696e-01,-2.24448e-01,1.98873e-01,
-5.78484e-01,
6.21267e-01,
3.56785e-01,
2.33613e-01,
-6.51509e-02,
1.18198e-01,
-1.08722e-01,
-2.96987e-01,
-7.58801e-01,
-3.43662e-01,
3.34696e-01,
5.69523e-03,
-6.51348e-01,
-7.51175e-01,
-1.20394e-01,
-4.43100e-01,
-3.79358e-01,
-3.80041e-01,
2.23190e-01,
-3.77673e-01,
5.97562e-01,1.43621e-01,2.26161e-01,-3.68591e-01,-2.10834e-01,1.83670e-01,2.67762e-01,5.75195e-02,1.58086e-01,4.11187e-01,-5.27367e-02,2.42400e-01,-5.37315e-01,3.04739e-02,-1.22086e-01,-2.20103e-01,8.15843e-02,3.86424e-01,3.19094e-01,-1.87809e-01,
-3.48059e-01,-1.09059e-01,5.73817e-02,-1.12147e-01,-2.64372e-01,-2.83527e-02,2.39095e-01,3.87970e-02,3.62404e-01,-6.84158e-01,-3.38626e-01,-5.41788e-01,-4.60711e-02,-1.85888e-01,-2.17044e-01,1.68174e-01,-3.90433e-01,-1.40612e-01,2.32361e-01,1.33812e-04,
6.82112e-02,1.79965e-01,-9.73380e-01,-1.33702e-01,3.99946e-01,2.63222e-01,-3.65916e-01,-2.54784e-01,1.49154e-01,-1.07231e-01,-4.67040e-01,4.81281e-01,-1.74751e-01,-2.28089e-01,1.72612e-01,-3.03158e-01,2.36644e-01,-3.06618e-01,-3.04402e-01,1.12682e-01,
-8.76874e-02,-4.50903e-01,3.64984e-01,-2.87678e-01,3.31846e-01,3.90234e-01,-4.55277e-01,-1.70681e-01,5.62016e-01,1.66281e-02,1.95572e-01,-3.28338e-02,1.30548e-01,5.64863e-01,-7.48601e-01,1.07066e+00,3.53398e-01,2.51873e-01,-4.14636e-01,5.91291e-01,
-4.30181e-01,5.45737e-01,-1.91867e-01,5.59746e-01,-5.01448e-01,-7.17904e-01,-7.16913e-01,-5.29153e-01,3.20809e-01,-6.31449e-01,8.03680e-02,4.39111e-01,-2.28684e-01,-1.00705e+00,-1.74231e-01,-3.82971e-01,6.95381e-02,-9.78302e-02,1.03466e+00,4.61218e-02,
-3.06397e-01,9.12678e-01,5.25305e-02,-9.06720e-01,-5.63202e-01,-1.45628e-01,-1.19803e-01,-1.72001e-01,-4.75917e-02,-3.35459e-01,1.09919e-01,-3.90749e-01,4.83127e-01,-6.74538e-01,-5.46378e-01,1.71780e-01,2.59900e-01,-1.40726e-01,-9.39463e-02,8.28283e-01,
-2.49049e-01,2.63291e-01,2.50058e-01,5.86582e-01,-1.30390e-01,3.24156e-01,-7.89914e-01,-3.04929e-01,-2.16103e-01,1.19006e-01,-3.55845e-01,7.35342e-02,2.32506e-01,-5.70163e-02,2.58462e-01,-3.35056e-02,1.58156e-01,-3.23207e-01,-3.42093e-01,-9.77564e-02,
-2.19891e-01,-6.44940e-02,1.88479e-01,-1.71532e-01,2.08128e-01,1.55905e-03,-3.10747e-01,-3.03139e-01,-4.61658e-01,-6.22203e-01,2.31048e-01,-4.56978e-01,3.90867e-02,5.24121e-01,2.16640e-01,3.37088e-01,-2.93392e-01,1.76226e-01,-3.76656e-01,5.20779e-02,
-4.96606e-01,-5.86196e-01,1.05991e-01,-2.41164e-01,-5.35686e-01,1.77670e-01,-4.08107e-01,3.48201e-01,3.08701e-01,-1.49045e-01,3.33450e-01,1.74949e-01,-1.65881e-01,-3.12199e-01,-4.40877e-01,-6.39246e-01,4.21428e-02,-4.17091e-01,7.83859e-03,8.72491e-01,
2.87139e-01,-1.97744e-01,-5.35473e-01,-2.68687e-01,1.94807e-01,-2.65989e-01,-2.85131e-01,2.41383e-01,-8.51104e-01,8.42857e-01,-7.64323e-01,1.77895e-01,1.85630e-01,-1.42939e-01,4.72653e-01,3.64889e-02,-1.53220e-01,-6.72924e-02,1.50792e-01,-4.14693e-01,
1.72993e-01,-4.26448e-01,1.47255e-01,8.10336e-01,-1.20495e-01,-1.92586e-01,3.72122e-02,-2.51825e-01,-1.53677e-01,6.48397e-01,-3.27077e-01,5.45119e-01,1.38422e-02,-4.39245e-01,-3.52016e-02,8.85986e-02,-9.88486e-02,1.11062e-01,-1.47873e-01,4.88801e-01,
-5.79148e-01,1.91688e-01,2.91078e-01,3.99002e-01,2.83885e-01,-4.87883e-01,2.03432e-01,-1.40629e-01,2.97626e-01,2.61212e-01,-4.08648e-01,3.69037e-01,1.37979e-01,-2.79840e-01,-3.84538e-01,5.86460e-01,-2.55992e-01,-7.88786e-01,2.57031e-01,6.19525e-01,
3.81476e-01,3.66326e-01,2.41624e-01,1.06049e-01,-6.82432e-01,1.48236e-01,3.02583e-01,-2.19269e-01,-1.62746e-01,1.20229e-01,4.02951e-01,-1.24626e-01,2.35653e-01,-5.32957e-01,4.52966e-01,-2.79939e-02,1.79418e-01,1.39541e-01,-4.44237e-01,1.22461e-01,
3.47843e-01,4.15969e-01,5.48146e-01,7.36755e-02,6.59111e-01,-1.31314e-01,1.87408e-01,6.97596e-01,-2.99231e-01,1.15671e-01,7.45498e-01,-4.33622e-02,1.77501e-01,3.63390e-01,-1.91754e-01,6.94697e-02,5.03880e-02,4.41815e-01,-1.34866e-01,4.78308e-01,
1.77464e-01,3.45208e-02,1.71199e-01,-6.72877e-01,-4.07218e-02,2.25201e-02,4.34721e-01,-3.82200e-01,1.40886e-01,-5.15234e-01,-1.30487e-01,1.97822e-01,2.56881e-01,5.08646e-01,-1.09801e-01,-3.15374e-01,3.36482e-01,1.49823e-01,-3.34356e-01,9.16337e-02,
7.43314e-01,-5.44602e-01,3.87767e-01,-8.39551e-01,-5.28433e-02,2.79035e-03,-8.75357e-02,-2.54235e-01,-1.01464e-01,-5.20885e-01,3.23802e-01,-1.76187e-01,7.20079e-02,1.61647e-01,4.69158e-01,4.83092e-01,-6.13845e-01,2.03871e-01,3.14150e-01,2.83683e-01,
4.92585e-02,8.83742e-01,-7.84348e-01,1.71010e-01,1.44313e-01,4.31790e-01,1.58962e-01,3.15771e-01,8.28156e-02,5.34417e-01,5.39076e-01,-3.01636e-01,2.53285e-01,5.96848e-01,4.41550e-01,-2.39604e-01,3.93731e-02,4.16739e-02,2.62212e-01,-3.89992e-01,
1.67628e-01,1.69208e-01,-2.78668e-04,6.06669e-01,-2.95603e-01,1.85112e-01,2.94605e-02,-3.26981e-01,-4.10896e-02,-6.04002e-01,-6.11987e-02,3.02731e-01,6.32811e-01,-9.61554e-02,4.18337e-01,4.37211e-01,-2.04921e-01,-3.88734e-01,-6.24009e-01,6.62751e-02,
-2.74733e-01,-1.30300e-01,9.02500e-01,4.90990e-01,9.60318e-02,-1.42527e-02,-5.67813e-02,2.52591e-01,-4.05745e-02,-5.83528e-02,-3.18829e-01,2.89452e-01,5.94569e-02,-1.16210e-01,6.42845e-01,6.15459e-02,-4.33373e-01,7.21699e-01,-3.13422e-02,1.80418e-01,
4.60545e-02,-4.01601e-03,-2.33079e-01,4.59963e-02,2.13984e-01,6.57582e-01,2.23204e-01,1.87694e-01,-6.30548e-01,3.29534e-01,-2.87638e-03,-3.29820e-02,3.47841e-01,4.24479e-01,-1.47958e-01,-1.85152e-01,-4.22235e-01,-4.12696e-01,1.03222e-01,5.94420e-01,
9.99167e-02,
5.97717e-01,
-2.48118e-01,
-1.77768e-02,
1.15969e-01,
1.48869e-01,
-6.24472e-01,
6.62078e-01,
-3.07545e-02,
-3.52976e-02,
2.10795e-01,
1.63434e-01,
1.85716e-01,
3.41257e-01,
5.60818e-01,
-1.01983e-01,
-3.28719e-01,
1.80578e-03,
5.86321e-01,
-9.62689e-02,
1.17194e-02,-9.48630e-02,-3.32461e-01,3.26415e-01,-7.85556e-02,-8.30012e-02,-2.45141e-01,5.44937e-01,-4.15113e-01,5.62474e-01,-3.66938e-01,2.30315e-01,7.21167e-01,-4.39292e-01,1.32998e-01,-1.02872e-01,-5.96739e-01,-5.86766e-02,1.11919e-01,-1.86981e-01,
9.12060e-01,-2.14908e-01,4.50755e-02,-3.08886e-01,-3.61391e-01,-2.56121e-01,4.76500e-01,3.23372e-01,2.48437e-01,-3.32031e-01,2.09030e-01,-6.69316e-01,-2.10938e-01,3.09148e-02,2.59740e-02,-8.71540e-01,2.11171e-01,-6.60163e-01,3.07867e-01,-5.00244e-01,
6.12072e-02,-1.05926e-01,-9.56546e-03,-2.36716e-01,1.62698e-01,1.10086e-01,1.23241e+00,2.07140e-03,-3.43425e-02,-1.49662e-01,1.33005e-01,3.19460e-01,1.17562e-01,-2.87664e-02,-1.83442e-01,3.59406e-01,-7.59814e-01,-3.86352e-01,5.02244e-01,3.96761e-01,
1.63068e-01,-4.23351e-01,-4.78974e-02,-6.64543e-01,-2.52278e-01,-4.02466e-01,3.74777e-02,-2.70176e-01,-3.19988e-01,3.44496e-01,-7.46793e-02,4.27234e-01,-3.51073e-01,9.21382e-02,-2.96666e-01,-4.15447e-02,3.51925e-01,4.87684e-02,1.20143e-01,9.74591e-02,
6.53071e-01,3.57074e-01,1.41478e-01,2.14185e-01,-6.93624e-02,1.48617e-01,-1.29253e-02,-6.45546e-01,4.65655e-02,3.95479e-03,2.60666e-02,1.11866e-01,-2.48403e-01,-5.60828e-01,2.49325e-01,-2.33875e-01,-5.28723e-02,-4.62728e-01,-3.40341e-02,-7.21296e-01,
-3.02814e-01,-5.89229e-01,1.01004e-01,-5.65020e-02,-3.70708e-01,3.87054e-01,-1.87187e-01,2.44210e-01,-6.14297e-02,-1.16735e-01,-4.25073e-01,3.27934e-01,1.53144e-01,-4.27055e-01,-1.63598e-01,1.40945e-01,-7.30308e-02,5.65590e-01,1.08142e-01,-7.37744e-01,
-3.19983e-01,-5.04657e-01,-2.78503e-01,5.44452e-02,2.42421e-01,2.19492e-01,-2.47869e-01,-5.23359e-01,4.70069e-01,-3.45611e-01,5.65932e-01,-2.26761e-02,-8.50392e-01,-1.96224e-01,2.14573e-01,1.06198e-01,3.87017e-01,-2.94563e-01,-4.56727e-02,3.58176e-01,
-3.50897e-01,4.47613e-02,-1.73618e-01,-2.66452e-01,-1.68767e-01,-4.33731e-01,-4.35696e-01,4.34528e-01,-9.52512e-02,2.24200e-04,1.01437e+00,-1.61068e-03,6.09912e-01,-7.80514e-01,-1.06563e-01,1.63695e-01,2.79391e-02,2.94890e-01,3.10943e-01,-7.09666e-02,
-2.40865e-01,1.78111e-01,6.07713e-01,-1.12330e+00,2.94324e-01,-4.59032e-01,-5.41868e-01,-8.72930e-01,2.10621e-01,1.20358e-01,-1.89563e-01,-3.25241e-01,-1.13847e-01,-2.85376e-01,-3.63706e-01,1.01316e+00,9.51618e-01,-4.58147e-01,-7.30906e-01,-2.13062e-01,
-1.44051e-01,-4.48757e-01,-9.09288e-01,-3.68576e-01,-1.03388e-01,-4.73114e-01,-8.66610e-02,3.34859e-01,-7.38359e-02,-3.89453e-02,4.38430e-02,1.95726e-01,1.09613e-02,1.74866e-01,-2.10299e-02,-3.11627e-01,2.41521e-01,3.13854e-01,-7.90911e-01,-2.34398e-01,
-4.79558e-01,-4.32310e-01,-5.20996e-01,-2.08914e-01,6.42534e-02,-1.50779e-01,3.39495e-01,6.27830e-01,-3.84249e-02,-2.23644e-01,-2.93591e-01,-5.18782e-02,5.68158e-01,3.47745e-01,-2.24770e-01,-2.86457e-01,-2.25865e-01,2.64628e-01,1.77927e-01,-1.20013e-01,
3.87156e-01,6.81669e-01,2.86802e-01,-2.02424e-01,-5.92220e-02,1.44425e-01,-8.89890e-01,-3.11819e-01,-7.14327e-02,-1.87509e-01,-4.84507e-01,3.24816e-01,4.17286e-01,3.97332e-01,7.88750e-02,7.08410e-02,1.01072e-01,8.51745e-02,5.89026e-01,5.62723e-01,
-5.01952e-01,-2.29742e-01,-1.88494e-01,-2.03115e-01,-2.10830e-01,4.25006e-02,4.76298e-02,-6.79721e-02,-5.28500e-01,-1.97966e-01,-5.26513e-01,-2.48965e-01,-1.23088e-01,-6.25831e-02,1.54311e-01,-2.23347e-01,1.06913e+00,6.01418e-01,1.62692e-01,9.82015e-02,
5.84712e-01,1.14653e-01,4.01478e-01,-3.89351e-01,-3.02959e-01,-5.07700e-01,-1.16261e-01,2.71449e-01,3.59053e-01,9.04687e-02,-2.57115e-01,-3.93979e-01,-8.74384e-01,6.86494e-01,1.83769e-01,7.73725e-02,-1.04245e-01,3.22503e-02,-5.70939e-02,-3.43156e-01,
1.54532e-01,2.17883e-01,-6.60752e-01,-3.55443e-01,1.83838e-01,6.44772e-01,3.31086e-01,-1.60266e-01,3.82396e-01,1.00290e-01,4.90708e-01,8.20856e-01,8.18052e-02,1.76414e-01,-7.82038e-02,-6.73705e-01,-1.83008e-01,5.60908e-02,-2.47107e-01,6.51250e-02,
9.79677e-02,-5.14487e-01,-1.25933e-01,2.78182e-01,-1.66160e-01,-4.18688e-02,1.41918e-03,-1.11015e-01,-2.43326e-01,-2.52970e-01,4.58116e-02,6.21810e-01,-1.97280e-01,2.32033e-01,4.25944e-01,1.54009e-01,-5.58442e-01,-5.58936e-02,3.57105e-01,2.22200e-01,
-1.93464e-01,1.52713e-01,-1.21951e-01,-9.71939e-03,5.87460e-02,1.50068e-01,5.15076e-02,-2.45218e-01,4.78945e-01,-2.37966e-01,7.87078e-02,9.19262e-02,-1.43306e-01,-8.49079e-02,-5.44221e-01,2.82249e-01,-1.86649e-01,5.73404e-01,2.57987e-01,1.29134e-01,
-8.71516e-01,-4.25999e-01,-2.18360e-01,2.22321e-01,-1.99615e-01,5.57235e-02,8.59627e-04,-7.59272e-01,-3.22083e-01,-2.02441e-01,4.73694e-01,5.15701e-01,2.27467e-01,-1.64546e-01,4.61898e-01,1.49164e-01,-3.46744e-01,6.67261e-02,-3.63935e-01,-8.37369e-02,
-3.23092e-01,-2.40575e-01,1.45533e-01,-2.03742e-01,-1.71358e-01,-3.88531e-01,5.84321e-01,5.20883e-01,3.73567e-01,-2.10251e-01,-7.14614e-02,-2.76419e-01,-2.20838e-01,-1.67364e-01,2.14339e-01,6.49445e-01,4.91291e-02,4.04214e-01,-1.71142e-01,1.07111e-01,
1.64224e-01,-5.09157e-01,-5.65296e-02,-2.80983e-02,2.94420e-01,-1.70650e-01,1.92225e-01,-4.99358e-01,-8.20948e-01,-5.74854e-01,6.47179e-02,-4.26688e-01,3.55639e-01,-2.22481e-01,5.24720e-01,8.41005e-02,-1.77426e-01,-3.91120e-01,-5.57691e-02,-1.41201e-01,
3.17054e-01,
-3.78474e-01,
7.96813e-02,
5.74545e-01,
4.54387e-02,
-6.79448e-01,
1.65825e-01,
2.09199e-01,
4.27671e-01,
1.42724e-01,
7.61026e-02,
-1.30484e-01,
1.06247e-01,
-6.68149e-01,
-6.22755e-02,
-1.70399e-01,
-5.67227e-01,
9.49743e-02,
4.76296e-02,
-2.30282e-01,
-3.62031e-01,-1.10310e-01,-2.77564e-01,-8.10212e-02,-3.83362e-01,-3.18757e-02,-5.00179e-02,-3.43431e-01,2.55772e-01,4.83096e-02,4.74986e-01,-1.09316e-01,-9.22777e-02,-2.91617e-02,-2.10347e-01,-8.81854e-02,2.37954e-01,-2.74182e-01,5.86183e-02,-3.01125e-01,
8.61490e-01,2.58999e-01,2.14416e-01,3.28459e-01,-6.80882e-01,2.19572e-01,1.21100e-01,1.46251e-01,2.93765e-01,9.80421e-03,6.68714e-02,-1.84290e-01,-6.17455e-02,4.05876e-01,2.25280e-02,-2.77253e-01,-1.22447e-01,2.69508e-01,-2.34485e-01,1.76587e-01,
8.68991e-02,
-8.85437e-02,
