// Neural Network File Format by Kyle Julian, Stanford 2016
30,2,2,10,
2,10,10,10,10,10,10,10,10,10,10,10,10,10,10,10,10,10,10,10,10,10,10,10,10,10,10,10,10,10,2,
0,
-10000.0,-10000.0,
10000.0,10000.0,
0.0,0.0,0.0,
1.0,1.0,1.0,
-7.57466e-01,-5.14576e-01,
-7.77376e-02,-2.41762e-01,
1.70927e-01,-7.63747e-02,
-3.68464e-01,-2.84845e-01,
-1.99184e-01,4.07157e-01,
7.84181e-02,-6.67771e-02,
1.39354e-01,5.17897e-01,
2.53997e-01,-1.64254e-01,
-1.10544e-01,-4.40437e-01,
-4.74472e-01,-2.21136e-01,
-7.26471e-01,
1.84533e-01,
1.13713e-01,
-3.08404e-01,
1.88164e-01,
-4.11610e-02,
-1.86600e-01,
-4.13382e-01,
4.37735e-01,
1.29660e-01,
-2.12504e-03,-4.17552e-01,-8.26661e-02,5.66996e-01,1.60589e-01,5.45580e-02,-4.21555e-03,4.16775e-01,-1.96041e-01,2.68831e-01,
-1.01068e-01,2.68800e-01,-2.80269e-01,-6.38434e-01,-3.24421e-01,-8.31042e-01,1.64048e-02,3.96886e-01,-1.38058e-01,3.27723e-01,
1.95890e-01,3.24801e-01,-9.82276e-02,2.57385e-01,1.73088e-01,-1.85870e-01,1.88516e-01,3.84856e-02,4.65819e-01,5.15099e-01,
5.83055e-01,3.14482e-01,-9.13576e-02,6.91804e-02,-2.36209e-01,7.41055e-02,1.99461e-01,-4.32984e-01,-8.19565e-02,3.19934e-01,
-1.41380e-01,-1.04590e-01,2.72234e-01,3.23560e-01,6.00276e-01,2.94904e-01,-7.53169e-01,5.44254e-01,3.56097e-01,1.58595e-01,
3.67749e-01,6.51309e-02,-4.34576e-02,-1.54057e-01,2.82662e-01,-2.12449e-01,-5.29937e-02,1.10276e-01,1.37903e-01,-5.12161e-01,
4.49175e-01,-3.35445e-01,-2.56022e-01,8.03888e-02,8.41651e-02,-3.87651e-01,-5.69960e-01,5.31295e-02,4.70590e-02,4.59401e-01,
-4.71077e-01,4.28796e-01,2.65918e-01,-5.17442e-02,-4.83220e-01,7.04195e-02,4.85371e-02,2.30981e-01,-1.20294e-01,-4.60511e-01,
-2.12729e-01,8.15298e-02,1.95748e-01,-2.63271e-01,-5.95395e-01,-2.19211e-01,2.28635e-01,-3.30582e-03,-1.59113e-01,-1.55440e-01,
2.10928e-01,8.92886e-02,4.24199e-01,-1.76647e-01,-3.42678e-01,8.49121e-01,-5.16432e-01,-3.99631e-01,4.71672e-03,6.13803e-02,
6.78602e-02,
4.74485e-01,
1.21675e-01,
-5.08801e-01,
-4.39186e-01,
2.74800e-01,
-5.05414e-01,
3.57465e-01,
-4.45721e-01,
-1.11620e-01,
-1.37219e-01,2.65637e-01,1.86184e-01,-3.96300e-01,-9.16096e-02,3.04416e-01,-3.05274e-01,1.93084e-01,-1.66233e-02,-7.63801e-03,
1.16589e-01,1.70944e-01,-1.68060e-01,7.98399e-02,-4.68392e-01,-5.75279e-01,-5.24743e-01,2.31802e-01,6.04941e-01,4.44388e-01,
-3.28662e-03,-2.20985e-01,-2.24332e-02,-2.13453e-01,-6.64952e-01,-3.00690e-01,-1.57365e-02,-5.98269e-01,4.00749e-01,1.27429e-01,
3.78196e-01,2.73926e-02,5.69040e-02,1.03294e-01,4.09212e-01,1.63015e-01,-3.53007e-01,-3.40715e-01,-5.24414e-01,6.22645e-02,
4.41617e-01,5.11241e-01,-4.23379e-01,6.01316e-02,4.45701e-01,-3.81070e-02,1.63485e-01,-1.16045e-01,1.36324e-01,-3.45476e-02,
2.43396e-02,3.76390e-01,-5.77508e-01,2.23634e-01,8.29798e-02,3.08549e-01,7.46675e-01,-1.03443e-02,5.52803e-01,3.09363e-01,
-1.63191e-01,-2.75259e-01,-1.81532e-01,-9.77600e-02,-8.96773e-02,2.25526e-01,5.50651e-02,-4.71813e-01,-3.54693e-02,-9.43079e-02,
-3.84837e-01,-4.86103e-01,2.44895e-01,-1.61282e-01,-7.47449e-01,2.80883e-01,1.45864e-02,-2.96352e-02,-8.79585e-02,-4.83905e-01,
-4.35102e-02,-2.66885e-01,-7.40928e-02,-2.37080e-01,6.05180e-01,-1.19427e-01,-4.88105e-02,-2.47690e-01,-8.12737e-02,3.64170e-02,
4.99423e-02,-1.52925e-01,1.15167e-01,-7.46834e-03,4.76321e-01,1.57018e-01,-4.84657e-01,3.93642e-03,8.36393e-03,-3.67063e-01,
-4.05168e-01,
-1.17973e-02,
1.55972e-01,
6.54072e-01,
-4.37495e-01,
-3.01244e-01,
3.69562e-01,
-2.67523e-01,
8.28378e-02,
-3.42893e-01,
-4.39169e-01,-2.38544e-01,-4.59288e-01,-5.60808e-02,1.11365e-01,-9.48782e-02,-6.41791e-02,4.31786e-01,-2.56577e-01,-1.55943e-01,
-9.42267e-02,4.38711e-01,-2.92565e-01,8.70344e-01,1.84960e-02,3.49240e-02,-2.45855e-01,-4.01296e-02,2.37985e-01,-5.07724e-01,
3.02515e-01,2.69710e-01,2.36882e-01,-1.94730e-03,-9.43439e-02,-4.20841e-01,-8.58678e-02,-5.95723e-02,4.83097e-02,1.69617e-01,
3.16478e-01,-6.59365e-02,-2.74032e-01,5.54730e-01,-1.76099e-01,-2.60363e-02,-4.08673e-01,-9.52344e-02,2.02212e-01,2.73453e-01,
2.84898e-02,4.41904e-01,8.44843e-02,-1.07218e-01,4.88407e-01,5.08236e-01,-1.55384e-01,-1.87664e-01,-3.67982e-01,2.90081e-01,
-2.71156e-02,2.34254e-01,-4.11266e-01,6.99612e-02,1.11959e-01,-7.35540e-01,3.78644e-01,8.46941e-02,-1.04174e-01,1.11927e-01,
-3.19790e-01,2.75135e-01,2.40086e-01,-5.73975e-01,-1.53509e-01,2.55077e-01,-6.68608e-03,-8.73863e-02,-3.60660e-01,-1.66469e-01,
2.78887e-01,2.08725e-01,3.57105e-02,-1.89434e-01,-3.16004e-01,2.48328e-01,-4.42187e-02,-3.78947e-01,2.51693e-01,-2.30308e-01,
2.06230e-01,2.11755e-01,-2.49960e-01,-2.80294e-01,-1.15916e-01,4.33562e-02,-3.85803e-01,-1.22738e-01,-4.66843e-01,-4.13143e-02,
3.16706e-01,2.50046e-01,-3.82096e-01,-2.16288e-01,-2.86249e-01,5.51542e-01,4.43195e-01,1.54223e-01,8.30965e-02,-7.23362e-01,
-1.09139e-01,
4.55534e-01,
2.26294e-01,
5.95505e-03,
9.49022e-02,
-8.30810e-02,
-1.03781e-02,
-1.26241e-01,
-3.71330e-01,
-1.12340e-01,
-8.65199e-02,-1.00631e-01,4.79177e-01,6.98767e-01,-8.12520e-01,6.95820e-02,-1.38324e-01,-3.07285e-01,2.82495e-01,-3.19679e-01,
-1.91746e-01,6.53577e-02,-2.11798e-01,-4.84407e-01,4.18808e-01,-4.22497e-01,-1.00320e-01,3.13608e-01,-4.47518e-02,-3.35167e-01,
3.19676e-01,-1.87965e-01,-1.85943e-01,6.93715e-01,3.77504e-01,-3.41749e-02,-1.25638e-01,-2.38458e-01,-3.50777e-01,-2.00287e-01,
3.07265e-01,2.84770e-01,9.17413e-02,-4.03567e-01,-6.77007e-01,5.58108e-01,-5.39872e-02,-6.15093e-01,-3.52528e-01,-6.99560e-01,
3.81295e-01,1.73664e-01,-3.02953e-02,6.04779e-03,-1.65531e-01,3.03724e-01,4.64365e-02,1.52488e-01,-4.95735e-01,8.62596e-03,
-9.72031e-02,4.24039e-02,5.57715e-01,-1.81396e-01,-1.49657e-01,3.47650e-01,5.91414e-01,1.36836e-01,1.10907e-01,8.55878e-02,
-9.08344e-02,-4.04658e-02,-2.16627e-01,-2.39478e-01,1.60732e-01,-1.29866e-01,-4.85236e-01,-4.15415e-01,2.09914e-02,-2.96397e-01,
4.26951e-01,-3.85803e-01,-2.84239e-01,1.12329e-01,4.09406e-01,-5.32502e-01,2.06501e-01,9.03268e-02,3.78370e-01,-3.45745e-01,
-4.32968e-01,3.72523e-01,-2.50279e-02,2.13929e-01,-3.42288e-01,2.59415e-02,-1.60130e-01,2.33555e-01,-1.01206e-01,-4.67328e-01,
-5.22006e-01,-6.65567e-01,6.37692e-01,-3.12735e-01,4.45976e-01,2.22895e-01,-3.12173e-02,-1.17958e-01,6.80165e-02,-1.48290e-02,
1.63648e-01,
-6.21732e-02,
2.13428e-01,
-1.81214e-01,
5.33817e-02,
-2.16724e-01,
-3.38848e-01,
2.18346e-01,
1.51724e-01,
9.84619e-02,
-2.24129e-01,-1.29450e-01,-2.12536e-01,-4.27561e-01,-1.10222e-02,3.56411e-02,-6.61876e-01,-1.23837e-01,1.44834e-01,-2.12939e-01,
-3.67073e-01,4.03503e-01,3.01946e-01,2.92944e-01,-1.00964e-01,1.39623e-01,-1.63586e-01,-4.27502e-01,1.16442e-01,3.47515e-01,
5.11203e-01,-1.51390e-01,3.53865e-02,-1.91325e-01,-2.07940e-01,-2.97958e-02,5.50838e-01,-2.39308e-01,-1.83791e-01,-3.06231e-01,
1.84411e-02,3.35814e-02,-8.31144e-02,-4.64680e-02,5.96039e-01,8.04946e-01,6.80895e-02,6.84645e-02,2.64393e-01,-1.14816e-01,
-3.31533e-01,1.68024e-01,1.98233e-02,1.01854e-01,-3.97973e-02,1.07320e-02,1.44254e-01,-1.76687e-01,4.31614e-01,1.95042e-01,
-1.02726e-01,-4.75534e-01,7.59334e-01,-2.28082e-01,4.41169e-01,-2.68429e-01,-1.06444e-01,1.17802e-01,2.36311e-01,8.74920e-02,
2.11846e-01,-3.62684e-01,-3.88855e-01,-5.95260e-02,6.54621e-01,1.88501e-01,5.29969e-02,7.43448e-02,-5.69462e-01,-2.13963e-01,
-5.69847e-01,1.82972e-02,-4.56129e-01,-2.41709e-01,-2.43755e-01,-2.35266e-01,-3.36471e-01,-9.91121e-02,-5.21499e-01,6.72518e-01,
-1.16961e-01,-4.26597e-02,2.36603e-02,-2.90735e-01,2.55757e-01,3.92626e-01,2.62904e-01,5.87261e-01,2.04284e-01,-5.83383e-01,
-4.75235e-02,-1.58440e-01,-1.05891e-01,2.62779e-01,-5.92322e-02,-5.81949e-01,4.94088e-01,6.66864e-01,1.34148e-01,2.72877e-01,
-2.80934e-01,
1.06270e-01,
7.91372e-01,
-3.30482e-01,
7.95656e-03,
-1.57514e-01,
-9.46023e-02,
-2.75862e-01,
3.09953e-01,
-2.09364e-01,
2.48513e-01,1.12980e-01,3.23159e-01,1.83503e-02,1.76417e-01,-4.29645e-02,3.67677e-01,7.35581e-01,6.60673e-01,4.72137e-02,
-2.94906e-01,-2.75611e-01,-3.32449e-02,5.58569e-01,-2.19627e-01,-4.35961e-01,1.72725e-02,-5.26642e-01,3.90001e-01,4.22796e-01,
1.60678e-02,4.24271e-01,2.00451e-01,1.07887e-01,-2.63034e-01,1.96893e-01,1.23789e-01,1.56157e-01,-3.48335e-01,6.03841e-03,
-1.91918e-01,4.18100e-01,3.19565e-01,4.13614e-01,5.79035e-01,5.54009e-02,5.72254e-01,-3.85676e-03,-3.13054e-02,2.02409e-01,
3.21610e-01,-3.47880e-01,-2.70764e-03,-1.31535e-01,-5.40195e-01,4.49951e-01,3.23066e-01,2.19580e-01,3.14530e-01,1.88240e-01,
1.78940e-02,-2.66685e-01,1.71285e-01,-4.60594e-01,-5.04222e-01,4.10066e-01,8.42616e-03,6.20752e-02,5.50984e-01,-3.57409e-01,
-6.15120e-01,-1.35253e-01,-1.07826e-01,5.35449e-01,2.74194e-01,4.75416e-02,-1.29897e-01,-7.18032e-01,-7.28783e-01,5.38864e-01,
1.20946e-01,-4.10526e-01,-9.71014e-02,2.25277e-01,-2.83967e-01,1.74704e-01,-3.16895e-01,5.26949e-01,-1.56747e-01,-2.23213e-01,
-6.19391e-02,-2.67095e-01,1.17558e-01,-1.94695e-03,1.08298e-01,3.43505e-01,-3.88754e-01,-1.35473e-01,-3.03808e-01,5.53319e-02,
1.29343e-01,1.65078e-01,2.88424e-03,-3.44937e-01,-2.11442e-02,-4.71518e-01,-1.43021e-01,-9.91379e-02,-3.13252e-01,-4.57664e-01,
2.57704e-01,
-2.67654e-02,
-7.16042e-02,
-2.75494e-01,
-1.96014e-01,
1.23419e-01,
2.79778e-02,
1.01419e-01,
-1.27620e-01,
3.49394e-01,
-3.38031e-02,-4.41524e-02,9.90693e-03,5.07891e-02,-1.71577e-01,2.59575e-01,-4.94742e-01,4.54653e-01,-1.27353e-01,-2.78156e-02,
3.13543e-02,-2.22656e-01,-1.36948e-01,-3.44647e-01,2.56714e-01,-5.13561e-01,-3.79392e-01,-3.11380e-02,-5.22453e-01,4.67984e-01,
-7.29002e-02,6.94158e-02,-3.62519e-01,3.12417e-01,-3.62611e-01,-2.84468e-01,-4.78787e-01,-4.16360e-02,3.05809e-01,-1.83267e-01,
4.59733e-01,-3.55817e-01,-3.26638e-01,-2.69286e-01,1.57085e-01,-7.96096e-02,-1.23818e-01,-1.04295e-01,-4.88750e-01,-5.59679e-02,
-1.29667e-02,9.77064e-02,-5.79258e-01,8.27593e-01,-8.38144e-02,-6.69287e-02,-1.60532e-02,-1.05424e-01,4.50692e-01,5.85456e-01,
-2.44638e-01,1.85678e-01,-3.88578e-01,1.66331e-01,2.67481e-01,-4.17948e-02,-5.51684e-01,-5.41178e-01,-1.30915e-02,4.51923e-01,
-5.73361e-02,4.97092e-01,1.36695e-01,-3.77618e-01,6.58679e-01,5.85640e-01,-1.83746e-01,-3.96489e-02,-2.15241e-01,-4.48412e-01,
-1.26895e-01,-1.46077e-01,4.22668e-01,-4.14766e-01,8.66891e-02,1.36373e-01,-5.64154e-01,8.44828e-02,-5.18687e-01,7.30657e-02,
-3.57139e-01,1.15664e-01,-1.97915e-01,2.78860e-01,-2.24920e-01,-4.88559e-01,3.90381e-02,-2.47346e-01,9.17490e-02,-1.50716e-01,
3.11258e-02,-2.77778e-01,3.24350e-01,7.34364e-01,4.31265e-01,-5.46849e-01,2.48930e-01,-9.45953e-02,-2.78285e-01,2.39794e-02,
7.00656e-02,
3.91396e-01,
-1.20125e-01,
-5.60793e-03,
-4.05203e-01,
-3.33219e-01,
-8.87144e-02,
6.89902e-01,
-5.31147e-01,
2.38471e-01,
-4.03326e-01,2.52623e-01,8.71005e-01,-3.31563e-01,1.44394e-02,3.89137e-01,3.82501e-01,6.03061e-02,-6.35573e-02,-5.51645e-01,
1.24956e-01,-6.40959e-01,-6.36605e-02,-1.78864e-01,-1.32047e-01,-1.87026e-02,3.77377e-03,6.69246e-02,5.93839e-02,1.34739e-01,
1.23633e-01,-5.83521e-02,-1.44446e-01,5.40992e-01,-3.71776e-02,-1.83445e-01,-2.07963e-01,5.40340e-01,-4.23682e-01,2.23514e-01,
-1.55547e-02,-3.06365e-01,-3.98625e-02,2.34059e-02,2.49786e-01,3.44671e-01,-4.89798e-01,-3.72238e-01,-3.07058e-01,-8.72082e-02,
3.18518e-01,3.21255e-01,2.40205e-01,5.47633e-02,3.24031e-01,-4.95368e-02,-3.00319e-01,5.65195e-01,1.55743e-01,5.69437e-01,
3.41149e-01,5.57441e-02,-3.74443e-01,-1.16979e-01,-2.73290e-02,2.20325e-01,1.79948e-01,-1.65639e-01,7.19294e-02,-4.77729e-01,
-2.76616e-01,1.90436e-02,-1.78021e-01,-3.04644e-01,-7.65075e-01,3.97397e-01,-1.25111e-01,2.41237e-01,-8.71628e-02,2.14790e-01,
-8.04513e-02,-7.48646e-02,-2.69181e-01,1.57164e-01,-1.30363e-01,-3.81091e-01,2.42335e-02,-1.24543e-01,3.21682e-01,-3.01598e-01,
-1.06065e-01,-1.62513e-01,5.27630e-01,-1.15936e-01,-1.83647e-01,-3.12217e-01,4.06499e-01,1.44173e-01,1.43023e-01,3.47709e-01,
7.48103e-01,1.55005e-01,3.70433e-02,3.77944e-01,2.18440e-01,-6.03613e-01,2.88173e-01,2.37651e-02,-9.92416e-02,-8.05949e-02,
1.15442e-01,
-3.56302e-01,
1.01603e-01,
1.38947e-01,
-1.01201e-01,
-1.92853e-02,
-7.01474e-02,
2.39329e-01,
-2.73527e-02,
2.78276e-01,
1.98762e-01,2.40063e-01,-1.36644e-01,-2.96979e-01,-2.84966e-01,3.41601e-01,3.14955e-01,-5.37744e-01,5.32955e-01,-2.78187e-01,
1.82749e-01,6.99085e-01,1.08451e-01,-2.90427e-02,3.03321e-01,2.17627e-01,1.39640e-01,-2.32557e-02,-2.89380e-01,4.94719e-01,
-2.54457e-01,6.73257e-02,-2.02337e-01,-3.62856e-01,1.57668e-02,4.95725e-01,6.77855e-02,-4.18964e-01,5.92684e-02,2.38408e-01,
5.25906e-01,1.61920e-01,-1.48143e-02,-2.56115e-01,-4.00148e-01,7.55515e-01,5.87791e-01,-2.54856e-01,-1.31666e-01,2.06201e-01,
-1.99430e-01,1.18258e-01,2.27065e-01,-2.19824e-01,-2.35534e-01,-1.60516e-02,4.30539e-01,-1.29529e-01,2.88538e-01,-6.79237e-01,
-5.47017e-02,-2.57998e-01,-3.33555e-02,-8.36124e-02,-3.52553e-01,-5.46159e-01,-3.20229e-01,1.85958e-01,1.33102e-01,-4.01158e-01,
-2.05894e-01,2.32854e-01,-4.77517e-01,3.76639e-01,-2.96226e-01,-3.19937e-01,1.12720e-01,2.95835e-03,1.69009e-01,-1.88253e-02,
2.05907e-01,-3.07022e-01,-6.52900e-01,-1.01588e-01,-3.22958e-01,-4.41947e-02,-9.37104e-01,-4.54827e-01,4.50304e-01,1.93081e-01,
-2.97270e-01,4.92245e-01,-1.28987e-02,2.83577e-01,-3.93528e-01,-5.97187e-02,4.08754e-01,-3.07248e-01,4.35310e-01,-5.71497e-01,
-6.33618e-01,-9.96365e-02,1.85033e-01,-3.20298e-01,-2.89897e-01,-2.60333e-01,-3.35626e-01,-3.04454e-01,8.11148e-02,3.26662e-01,
-1.39124e-01,
1.01563e-01,
3.57714e-01,
1.99226e-01,
1.31863e-01,
-7.84410e-02,
-5.51494e-01,
-6.98342e-02,
2.03505e-02,
-7.19685e-02,
5.60667e-01,1.25168e-01,-4.82195e-01,2.32845e-01,3.06069e-01,-2.49442e-01,2.69272e-01,3.17893e-01,4.44978e-02,2.40653e-01,
1.03674e-01,-9.17292e-01,4.77833e-01,4.88629e-01,2.23955e-02,-2.96120e-02,4.45852e-03,2.22296e-01,2.75271e-01,-4.81288e-01,
6.95076e-02,4.89033e-01,-5.51064e-02,2.62917e-01,4.21232e-01,1.38676e-01,2.48592e-01,-9.63285e-02,3.02368e-01,1.99890e-01,
-3.89592e-02,1.83352e-01,-1.95376e-01,2.30938e-01,-6.10576e-01,-5.67914e-01,-6.36463e-01,-2.79559e-01,-2.13813e-01,2.56036e-01,
2.30179e-01,6.13046e-01,2.64812e-01,5.32386e-01,-3.58900e-01,-2.81989e-01,-1.91356e-01,-5.23159e-01,-5.54174e-02,2.03471e-01,
1.05194e-01,-3.82007e-01,-3.14194e-01,9.07334e-03,4.40121e-02,2.77339e-01,2.46750e-01,2.15717e-01,3.14164e-01,1.91556e-01,
3.30376e-01,-5.11110e-03,-2.98242e-01,-1.77965e-01,-2.85641e-01,-2.53827e-04,2.97068e-01,3.58079e-01,1.34677e-01,-2.92403e-01,
9.99199e-02,1.11994e-01,1.78141e-01,4.92181e-01,5.78206e-01,7.72499e-01,-2.15303e-01,-4.54993e-03,-1.48407e-01,6.83618e-02,
-6.27532e-01,2.62173e-02,2.76208e-01,-4.31128e-01,2.48855e-01,4.36927e-01,6.65310e-02,1.57627e-01,2.77660e-01,2.90047e-01,
-3.22095e-01,-2.41304e-01,7.15166e-02,-3.11063e-01,-5.40951e-02,-5.80039e-01,-2.45636e-02,-3.51042e-01,3.11513e-01,-1.86501e-01,
1.03615e-01,
3.88196e-01,
-1.29343e-01,
1.59457e-01,
-8.70401e-02,
3.39395e-02,
7.59925e-02,
1.67175e-01,
-1.50298e-01,
3.33186e-01,
1.44901e-01,9.48138e-02,-6.00657e-01,-3.85576e-01,9.76968e-02,-4.55271e-02,-9.13912e-03,4.58553e-01,-2.63152e-02,1.91948e-01,
-8.97358e-02,-2.81363e-01,1.46714e-02,4.14661e-01,-1.37619e-01,4.68716e-02,1.42551e-01,4.04620e-02,-1.89463e-01,-4.16135e-02,
-1.65126e-01,-8.89698e-02,-3.26800e-02,3.34550e-01,-1.25584e-01,-3.34091e-01,-1.04035e-02,1.65381e-01,-4.42896e-01,3.52858e-02,
1.56952e-01,1.47230e-01,4.22059e-01,-9.88679e-02,-2.96599e-01,2.23059e-01,-2.42169e-01,-1.35037e-01,4.90451e-01,1.77282e-01,
-3.19066e-01,4.58782e-02,-7.39578e-02,3.66820e-01,-6.76549e-02,2.67062e-02,2.14876e-01,4.38764e-01,3.74632e-01,6.63593e-01,
5.70514e-02,3.34248e-02,4.18733e-02,3.01035e-01,2.99369e-02,-1.85800e-01,5.51523e-01,-4.41106e-02,-3.56782e-01,-5.42696e-01,
-8.74073e-03,-1.76967e-01,-5.93538e-01,7.07724e-02,-3.84460e-01,7.02331e-03,-5.17151e-01,4.89652e-02,-4.42802e-01,2.45398e-01,
6.89119e-02,-4.44193e-02,-2.60226e-01,-1.84392e-01,-1.65386e-03,-1.42505e-01,5.64599e-01,1.60711e-02,-1.17180e-01,5.82809e-01,
1.21700e-01,-2.94619e-01,-8.69600e-02,7.03064e-02,-1.16762e-01,-2.36946e-01,2.00627e-01,2.27565e-01,2.99814e-01,-4.37599e-01,
-5.34264e-02,-1.33582e-01,7.25878e-02,-1.69756e-01,-1.12949e-01,8.14039e-01,-8.69767e-02,2.09682e-01,4.63300e-02,-1.15795e-01,
1.33353e-01,
-2.47031e-01,
-4.07657e-02,
-1.98180e-01,
4.34122e-01,
-1.69272e-01,
4.81707e-01,
-1.79688e-01,
2.20057e-02,
-1.23083e-01,
-3.96626e-01,4.81054e-01,-4.05782e-03,-4.59769e-01,4.23686e-01,5.97760e-01,-9.49760e-02,-8.72468e-02,3.54477e-01,-3.31783e-01,
-9.07149e-02,-1.00072e-01,2.37332e-02,-2.95461e-02,-3.14295e-01,-2.83159e-02,-3.39977e-01,3.91874e-01,3.33408e-01,-1.70571e-01,
-6.08756e-01,2.29635e-01,3.79843e-01,-3.17775e-01,-8.16888e-02,1.48135e-01,5.33209e-02,-3.50261e-02,-6.22664e-02,-2.97683e-01,
-3.41127e-01,-1.11249e-02,2.27832e-01,-1.84753e-01,2.49553e-01,-3.63662e-02,6.52677e-01,-2.51023e-01,5.65073e-02,8.81093e-02,
-2.78189e-01,2.61744e-01,1.56187e-01,-6.20723e-01,-3.57828e-01,1.16260e-01,-6.15084e-01,-7.22848e-01,1.24423e-01,1.11289e-01,
-1.89207e-02,-4.73871e-02,-3.58133e-01,1.36790e-01,5.02705e-01,3.63292e-01,-3.30887e-02,1.60448e-01,-2.61650e-01,-6.52684e-02,
2.95199e-01,-1.26062e-01,-3.99612e-02,-1.75523e-01,5.86995e-01,1.17311e-01,1.76284e-01,-2.43601e-01,9.12293e-02,-2.00194e-01,
-5.11189e-01,3.82241e-02,3.28993e-01,3.82318e-01,-8.50492e-02,-1.16865e-01,1.96979e-01,-2.51595e-01,-1.92520e-01,3.50614e-03,
-4.69634e-01,-2.70689e-01,-6.40819e-01,2.38296e-01,-2.67950e-01,1.04020e-01,1.50254e-01,1.58635e-01,-2.75175e-02,-1.32038e-01,
4.86350e-01,-7.41336e-02,1.47988e-01,8.74998e-02,-4.36320e-01,2.68031e-01,2.14466e-01,-5.20012e-02,3.68253e-01,6.63197e-01,
-4.27894e-01,
-2.42490e-01,
-5.95048e-01,
-4.71548e-01,
1.95941e-01,
2.41044e-01,
7.32953e-02,
-4.62693e-01,
2.93079e-02,
-1.77982e-01,
2.75511e-01,1.11673e-01,2.85873e-01,7.93863e-02,-4.75016e-01,5.10366e-02,8.80815e-01,-3.63495e-01,-2.29018e-01,-4.96824e-02,
-5.68009e-02,1.68468e-01,-4.75830e-02,-1.02811e-01,5.04412e-02,-1.83769e-01,-9.82167e-03,1.70215e-01,8.27346e-01,3.06933e-01,
1.35991e-01,-4.67007e-01,-4.12837e-01,3.16818e-01,2.81384e-01,-2.22421e-01,-4.39166e-01,1.47902e-01,4.36910e-01,4.66391e-01,
2.02295e-01,-2.92242e-01,-2.93474e-01,-7.47112e-01,-3.82496e-02,-4.98065e-02,-3.76730e-01,-2.96800e-01,2.72105e-01,2.32527e-01,
2.74458e-01,1.65501e-01,5.32739e-01,-2.11708e-01,-2.38747e-01,-4.04509e-01,-1.58527e-01,1.10229e-01,-1.11371e-01,-2.81559e-01,
1.93972e-01,1.65780e-02,-1.28368e-01,-2.17723e-01,-2.70194e-01,2.37750e-01,-1.27276e-01,-9.09820e-02,-1.06873e-01,-6.59056e-02,
1.51651e-01,1.94559e-01,-1.07276e-01,3.78803e-01,-2.97919e-02,8.59264e-01,-4.23273e-02,-3.90774e-01,7.90048e-03,7.55759e-01,
-1.02830e+00,5.51141e-01,-1.69967e-01,-1.81334e-01,9.96000e-02,1.21204e-01,-1.89593e-01,-3.97412e-01,4.15194e-01,1.17380e-02,
-1.38574e-01,3.32102e-01,-3.76379e-01,-4.73514e-02,-1.92718e-01,1.04584e-01,-3.00236e-01,5.87577e-01,-1.53702e-01,-3.40237e-02,
-2.02148e-01,-1.17969e-02,-3.91014e-01,2.26658e-01,2.45038e-01,1.89907e-01,3.92959e-04,7.84266e-02,2.30446e-01,-5.22210e-01,
6.38661e-01,
-1.40233e-01,
-4.04631e-01,
3.48030e-01,
9.70995e-02,
-1.73020e-01,
1.20724e-02,
2.27842e-02,
-3.19276e-01,
3.28392e-01,
3.09226e-02,3.39444e-01,2.03770e-01,1.33185e-01,8.56244e-01,-3.31883e-01,3.56259e-01,2.17216e-01,8.63751e-01,-9.96369e-02,
3.32438e-01,-2.60317e-01,-7.40623e-02,7.93249e-02,3.20682e-02,-3.17979e-01,-8.60912e-02,1.94945e-01,9.44396e-02,-1.89278e-01,
3.83933e-01,1.81448e-01,-3.66179e-01,-2.37975e-02,2.47267e-01,-4.84440e-02,-1.30783e-01,2.00482e-01,-5.59548e-01,1.43341e-01,
1.46746e-01,8.38791e-02,-9.21150e-02,5.75977e-03,-4.34695e-01,-1.96092e-01,8.66236e-02,5.77251e-01,-4.02857e-02,-2.29336e-01,
-4.59027e-02,1.38711e-01,-3.18699e-02,1.85746e-01,-1.13762e-01,-2.11708e-01,-7.11809e-02,3.39231e-02,-1.37241e-01,1.72281e-01,
1.34544e-01,1.66061e-01,2.78865e-01,6.92733e-01,3.87439e-01,-3.03182e-01,-3.54503e-02,4.67027e-01,-6.20481e-01,6.50966e-01,
-2.59214e-03,-3.19638e-01,1.83948e-01,2.83077e-01,-3.34617e-01,4.80666e-01,2.79295e-01,3.85891e-01,9.01564e-01,2.25519e-01,
6.29532e-01,-4.29238e-01,-4.85041e-01,3.35467e-02,-3.35985e-01,-3.72345e-01,-1.91482e-02,-3.34311e-01,7.19708e-02,-1.31875e-01,
2.12893e-01,-8.83295e-02,-8.42850e-01,1.94786e-02,-5.48950e-02,1.64582e-01,2.92957e-01,-1.74718e-01,-1.44783e-01,-6.04379e-02,
-9.08228e-02,6.69853e-01,3.57079e-02,2.31656e-01,8.85124e-01,-8.45449e-02,-1.24672e-01,-5.99734e-01,1.20764e-01,-3.88263e-01,
-3.18110e-02,
1.41290e-01,
2.20501e-02,
2.07602e-01,
3.33482e-02,
-4.53542e-02,
-1.92983e-01,
3.21114e-02,
9.35523e-02,
2.30465e-01,
4.66736e-02,-7.34721e-02,-2.07988e-01,-8.78187e-02,2.11013e-01,-4.51336e-01,-6.07569e-02,-2.24712e-01,-3.39051e-01,-1.29661e-01,
-3.96107e-01,-5.44307e-01,-5.96390e-01,5.81845e-01,3.51373e-01,4.09360e-02,5.16495e-02,-4.49153e-01,3.13502e-01,1.24759e-01,
-1.48448e-01,1.61693e-02,2.30449e-01,-2.66129e-01,2.46040e-01,9.59088e-02,6.98383e-02,1.68151e-01,1.99737e-01,5.71735e-01,
-4.42936e-02,-2.20010e-02,-2.41228e-01,3.43307e-02,1.32276e-01,-4.21374e-01,-1.27095e-01,2.53591e-01,1.10852e-01,3.65227e-01,
1.34075e-01,-3.08135e-01,4.55029e-01,-1.80751e-01,-1.44036e-01,3.51179e-01,-9.36534e-02,-2.20819e-01,-1.02706e-01,-1.30741e-01,
-2.96784e-02,1.43388e-02,4.44326e-01,2.18128e-01,-3.19242e-01,-2.46566e-02,5.22051e-01,1.08956e-01,1.73011e-01,-1.56281e-01,
2.49812e-01,4.32348e-02,3.18464e-01,1.32653e-01,5.28265e-02,5.70692e-01,4.36333e-01,2.09574e-01,-3.10099e-01,-4.45570e-01,
3.89756e-01,5.02198e-01,5.10944e-01,7.51966e-02,-2.01183e-02,9.92577e-02,-2.88589e-01,1.82574e-01,7.51513e-01,4.08582e-02,
-4.25530e-02,-2.61800e-01,1.77293e-01,-5.43069e-02,1.20736e-01,5.23903e-01,-5.58093e-01,2.23401e-02,4.39671e-01,-5.86838e-01,
-4.89937e-02,7.31860e-02,7.85119e-03,-5.41850e-01,4.60950e-01,2.44493e-01,7.34448e-01,3.69123e-01,-2.14262e-01,-2.48161e-01,
-3.43783e-01,
8.04054e-02,
-3.84711e-01,
6.89811e-02,
-6.61072e-01,
8.78557e-01,
1.85204e-01,
3.95888e-01,
-4.89689e-01,
-2.94017e-01,
1.14527e-01,-6.16299e-02,3.26960e-01,-3.62032e-01,1.91356e-01,2.15869e-01,-1.52677e-01,9.45218e-02,1.16803e-01,1.81213e-01,
1.56991e-01,-2.65895e-01,-1.53764e-01,-1.86635e-01,3.16000e-01,1.34630e-01,5.09813e-01,4.62149e-01,5.15246e-02,4.28699e-01,
1.24446e-01,2.32697e-01,-1.04479e-01,6.05416e-02,5.27939e-01,-1.21871e-01,8.88883e-02,-4.61507e-01,1.58317e-01,3.68812e-01,
-4.20532e-01,-2.98419e-01,7.37176e-02,6.24946e-02,8.35337e-02,-7.82264e-03,-1.53503e-01,-3.25203e-01,-3.26806e-01,-2.70887e-01,
-5.74908e-01,-1.03840e-01,3.39192e-01,-4.68229e-01,-2.02813e-02,8.85380e-02,-2.37858e-01,-1.71759e-02,2.45521e-01,-1.07325e-01,
1.30390e-01,2.54556e-02,-4.27718e-01,3.08929e-01,2.31135e-01,-5.68900e-02,-1.80919e-01,1.64749e-01,-2.10434e-01,5.15474e-01,
-2.24135e-01,4.21212e-01,-5.73378e-01,3.42237e-01,7.48917e-01,1.61984e-01,-3.91950e-01,-4.16087e-01,-1.88496e-01,-1.18621e-01,
-6.03484e-01,2.15339e-01,2.60810e-01,2.99544e-02,-2.27231e-01,2.34026e-02,-4.47342e-01,3.64403e-01,-1.46714e-01,-1.94784e-01,
-3.13866e-01,3.05386e-02,2.75036e-01,-1.73094e-02,4.40057e-01,-7.79814e-01,1.66590e-01,-6.97544e-02,-1.15819e-01,1.52024e-01,
3.25193e-02,2.65826e-01,-1.64245e-01,1.73381e-02,-7.06111e-02,-2.07721e-01,-3.17440e-01,-1.42737e-01,6.34658e-01,4.50620e-01,
1.95427e-01,
-6.10367e-01,
6.16593e-01,
-1.78943e-02,
5.02916e-02,
-3.78402e-01,
2.24436e-01,
-1.03327e+00,
4.67494e-01,
4.77898e-01,
1.07667e-01,-2.75660e-01,-8.18844e-02,2.34158e-01,-7.52624e-02,5.46354e-01,-5.97664e-02,-1.27454e-01,-1.94265e-01,-8.66645e-02,
-4.02029e-01,-1.80232e-01,-5.34880e-01,1.32522e-01,-1.73008e-01,5.98692e-01,-1.58257e-01,-7.65209e-03,2.41311e-02,-1.94848e-01,
-1.32830e-01,1.86887e-01,-6.07824e-02,-5.48269e-01,5.54839e-01,3.34784e-01,1.78135e-01,-4.06928e-01,9.46197e-01,3.88160e-01,
-3.01764e-01,1.82996e-01,-3.28917e-01,-1.67157e-01,2.62509e-01,4.52446e-01,1.44689e-01,-2.08695e-01,-4.70732e-01,-3.05455e-01,
3.44065e-01,1.10391e-01,-7.13266e-01,-1.60766e-01,-1.11969e-01,4.39255e-01,-1.27180e-01,3.09066e-01,-5.85354e-01,-8.79810e-01,
-5.19386e-02,7.91144e-02,1.48865e-02,1.31229e-01,-1.63173e-01,5.04555e-02,-4.62276e-01,6.58897e-02,4.58791e-01,-3.26644e-02,
4.62862e-01,9.84790e-02,-9.23484e-02,4.49496e-01,-3.53005e-01,-6.15814e-02,1.00110e-01,-3.85249e-01,-2.35506e-01,2.44330e-01,
-1.71937e-01,-2.52963e-01,4.35028e-01,1.62105e-01,4.64853e-01,-1.76580e-01,-4.19804e-01,-2.79510e-03,-3.48305e-01,4.87448e-01,
3.96683e-02,4.11724e-02,-5.70281e-02,1.14496e-01,6.47217e-02,-1.33671e-01,-1.98563e-01,-7.60442e-03,-6.02423e-01,1.93643e-01,
2.26392e-02,-2.23183e-01,-3.78348e-01,-4.57262e-01,1.34354e-01,5.27830e-01,-2.20108e-01,1.60490e-01,-6.57125e-01,-5.23070e-01,
-3.59295e-01,
-2.02850e-01,
-5.97202e-01,
4.89553e-02,
-4.92501e-02,
2.61684e-02,
-5.10679e-01,
3.90140e-02,
-7.17548e-02,
-2.42964e-01,
2.36606e-01,1.51539e-01,3.88698e-01,-1.04580e-01,1.55036e-01,6.67126e-03,-2.81689e-01,1.27727e-01,2.11915e-01,-1.51233e-01,
-2.08570e-01,3.06283e-01,-2.02699e-01,1.34977e-01,5.51827e-02,1.02441e-01,1.07993e-01,-1.29386e-01,-1.54600e-01,-1.85315e-01,
1.88812e-01,3.18209e-01,3.23595e-02,2.30612e-01,2.85411e-01,-4.29756e-01,-5.04267e-01,-1.36474e-01,3.14593e-01,-6.78834e-02,
3.83948e-01,1.39040e-01,-1.81825e-01,-2.34852e-02,-2.69745e-01,-1.80640e-01,-4.97519e-02,4.02141e-01,1.55689e-01,2.54343e-01,
-2.20929e-01,5.46393e-02,1.03666e-02,-5.06465e-03,3.31364e-01,3.29165e-02,-1.48442e-01,-4.05829e-01,1.74469e-01,-2.33073e-02,
-2.13576e-01,-3.72504e-01,6.73397e-03,-1.26049e-01,-5.73539e-02,2.17855e-01,-3.21017e-01,5.50113e-02,-1.67503e-01,2.10583e-01,
4.50546e-01,-3.02329e-02,2.44733e-01,7.44146e-02,2.34995e-01,-5.86190e-02,-5.57831e-01,3.25779e-02,-2.70192e-01,-2.74907e-02,
-2.68396e-01,-5.78623e-01,1.05310e-02,4.42429e-01,3.83093e-01,2.62905e-01,8.07369e-02,7.90713e-02,-3.53176e-01,1.56363e-01,
-6.99819e-01,3.03453e-02,-1.41149e-01,2.97307e-01,-1.78034e-01,5.92404e-02,-4.97359e-01,-5.86777e-01,1.12503e-01,-8.29561e-02,
-1.18940e-01,5.08240e-02,3.87714e-01,3.14976e-01,1.70255e-01,3.27616e-01,-5.52451e-02,-4.34010e-01,9.62081e-01,-5.21709e-01,
-2.82875e-01,
-9.81786e-02,
1.16989e-01,
9.30818e-02,
-7.13948e-01,
-8.52503e-02,
3.58435e-02,
-4.10579e-02,
3.18627e-01,
-4.82346e-03,
-4.31746e-01,-2.55857e-01,-4.70380e-01,6.82489e-01,-1.41488e-01,-1.63115e-01,3.10446e-02,3.48564e-01,-2.22157e-01,8.60678e-01,
2.63837e-01,-9.73615e-02,-7.87083e-02,-8.28010e-02,-2.28520e-03,-1.44083e-01,-2.31101e-01,1.91324e-01,1.58306e-01,6.04325e-02,
3.45944e-01,-4.82013e-02,1.46208e-02,5.65718e-02,-2.16303e-01,-6.07398e-02,-2.89015e-01,-2.45546e-01,-3.11309e-01,3.60798e-02,
-1.42333e-01,3.13469e-01,2.31032e-01,1.77460e-01,3.88864e-01,5.44001e-01,-6.69734e-01,6.68706e-01,-2.11222e-01,2.02419e-01,
-1.78049e-01,2.73323e-01,-4.02793e-02,2.61572e-01,-5.96315e-01,-1.70467e-01,5.11017e-01,3.04624e-01,-2.25500e-02,6.52922e-02,
1.99094e-01,1.99632e-01,-2.50125e-01,9.49700e-02,1.23769e-01,1.23556e-01,-1.55852e-01,2.48441e-02,-3.16351e-01,3.10817e-01,
-3.32128e-01,3.38969e-01,-5.39725e-02,-2.23928e-01,1.98310e-01,-1.90756e-01,2.71394e-02,3.85238e-01,1.47602e-01,3.04277e-01,
2.62627e-01,2.17810e-01,1.03606e-01,-7.23545e-02,-5.44413e-01,-2.88583e-01,-4.64999e-02,1.12867e-01,-2.68662e-01,-3.91018e-01,
4.07317e-02,-2.80146e-01,3.29793e-01,-2.71957e-01,-4.88787e-01,3.66169e-02,-2.67334e-01,1.03910e-01,-1.31790e-01,2.99933e-01,
-9.66994e-02,-3.77609e-01,1.55194e-01,-9.83361e-02,3.26369e-01,-4.69371e-01,-6.00448e-02,-1.82847e-01,-2.26700e-01,-1.63334e-01,
1.01996e-01,
9.24874e-02,
5.50143e-01,
-2.13231e-01,
-3.51000e-02,
2.03989e-01,
7.07549e-01,
-1.50299e-01,
-1.05676e-02,
2.63845e-01,
-1.64904e-01,4.38278e-02,2.34967e-01,7.58957e-02,2.25021e-01,3.53668e-01,-9.53515e-02,2.50625e-01,1.94964e-01,2.30839e-01,
8.19199e-01,1.73375e-01,8.06534e-01,-1.41744e-01,-3.07705e-02,-7.59396e-03,7.84711e-01,-2.87374e-01,-1.43857e-01,-6.46164e-02,
-3.60350e-01,-2.75232e-01,1.31908e-01,3.72160e-01,-5.58921e-01,2.94250e-01,1.92276e-01,8.68831e-01,4.51604e-01,2.67613e-01,
-5.31297e-01,2.76008e-01,-4.19037e-01,-4.26159e-01,-6.63925e-01,-2.57268e-01,5.90164e-02,-7.28130e-02,-2.86449e-01,-3.60336e-01,
1.38159e-01,2.43566e-01,-3.27966e-03,1.04363e-01,-1.09648e-01,6.07217e-02,-1.36383e-01,-8.88609e-01,-4.28484e-01,2.14769e-01,
-1.47039e-01,1.10672e-01,-2.79368e-02,1.18511e-01,2.03375e-01,4.73089e-01,3.28205e-01,1.55824e-01,1.39060e-02,-3.33094e-02,
4.64470e-01,1.11819e-01,2.31810e-01,-3.81857e-03,4.02285e-01,3.65345e-01,5.60050e-01,-3.51521e-01,-7.22264e-01,4.74222e-01,
-3.63211e-01,-1.86087e-01,-2.05215e-01,-4.29140e-01,-4.25492e-01,3.01192e-01,-1.06937e-01,-1.74950e-01,-8.01661e-01,-9.82060e-02,
-9.11669e-02,2.86625e-01,3.59163e-01,1.92717e-01,-2.22603e-01,-3.17529e-01,-9.12510e-02,-6.87686e-02,-1.55096e-01,-5.18256e-02,
1.03952e-01,1.39893e-01,-5.12125e-01,-7.88732e-02,2.93470e-01,6.61032e-01,7.30945e-02,-1.75403e-01,-6.03427e-01,7.12488e-02,
2.28725e-01,
-4.12066e-01,
1.41400e-01,
-2.00390e-01,
-2.83797e-01,
-6.32528e-02,
-2.77860e-01,
5.84242e-01,
-1.51747e-01,
6.75016e-01,
3.91596e-01,-3.11652e-01,1.24511e-01,-1.63089e-01,2.65885e-01,-6.76064e-01,-2.65056e-01,-2.73550e-01,-4.43247e-01,4.42156e-01,
1.61241e-01,-2.28732e-01,-2.60650e-01,3.94048e-01,1.76513e-01,8.71676e-02,3.86366e-02,9.31749e-02,1.35767e-01,1.64443e-01,
4.16674e-01,-4.35853e-02,5.36169e-02,6.04171e-01,9.75721e-02,3.26190e-01,-4.70977e-01,1.36300e-02,-2.70144e-01,1.52306e-01,
-5.43811e-01,-4.40893e-02,1.34183e-01,1.10217e-01,-5.42969e-01,4.28826e-01,7.11316e-01,-3.41562e-01,2.00685e-02,5.41897e-02,
1.45512e-01,-1.31902e-02,-1.58272e-02,3.70406e-01,-2.92212e-01,-2.64844e-01,1.47319e-01,-1.21612e-01,3.10778e-01,-1.07015e-01,
-3.39117e-01,2.75564e-01,4.45300e-02,-8.09658e-02,-5.52847e-02,-1.26038e-01,9.18869e-02,-9.15162e-02,2.20391e-01,1.73061e-01,
-7.93113e-02,-1.96375e-01,-6.45046e-02,2.04113e-01,-4.46231e-01,3.62362e-02,-4.97144e-02,-1.21044e-01,2.45579e-02,6.61077e-02,
4.38231e-03,2.44183e-01,2.69722e-01,2.12513e-02,-4.24793e-01,-3.57737e-01,-2.93849e-01,-4.00887e-01,1.43648e-01,5.49988e-01,
-6.07684e-01,1.35040e-02,3.52696e-01,-8.23152e-01,5.26530e-01,-6.62745e-01,-2.37589e-01,-8.30555e-02,1.00994e-01,2.20091e-01,
1.94139e-01,-2.11875e-01,2.86724e-01,-2.27483e-01,1.83324e-01,-9.38157e-02,6.80459e-01,-6.52221e-02,-3.78574e-01,-1.70332e-01,
-6.70632e-02,
3.47409e-01,
-4.16875e-01,
7.95354e-02,
1.07312e-01,
6.13595e-02,
5.65706e-01,
-1.36934e-02,
-3.72569e-02,
2.17407e-01,
-1.92755e-01,-5.10558e-01,3.29822e-01,-1.69510e-01,-4.89292e-01,-3.59846e-03,-1.41902e-01,4.42339e-01,5.37948e-02,-8.36843e-01,
2.82492e-01,-2.20953e-01,6.44033e-02,1.49513e-01,-3.10187e-01,4.94584e-01,9.01611e-02,2.35598e-01,2.98349e-01,5.53246e-01,
-1.39841e-01,-2.60790e-01,2.36542e-01,3.98413e-01,1.48570e-01,-6.06344e-01,-3.29165e-02,4.58746e-01,-2.02793e-02,1.56386e-01,
-5.27327e-01,-2.30958e-02,-4.18078e-01,-1.68284e-01,-2.34833e-02,-1.58004e-01,1.64559e-01,2.70351e-01,7.08812e-01,2.50498e-01,
3.52907e-02,-4.93017e-01,-4.21799e-01,-4.88691e-01,7.19619e-01,2.85288e-01,-1.02755e-01,3.99115e-01,8.78182e-03,8.74554e-02,
-4.28781e-01,3.01438e-01,-2.89382e-01,-1.70804e-01,8.60301e-02,1.42116e-01,1.48115e-01,-1.06005e-01,-1.94676e-01,4.46642e-01,
7.34499e-01,4.29516e-02,2.98671e-01,-5.53299e-02,3.52042e-01,-4.23376e-01,4.64439e-01,3.76375e-01,-5.14256e-01,-2.25444e-01,
4.56054e-01,-1.83173e-01,-1.58787e-01,-4.37251e-02,-1.63761e-01,-1.91784e-01,8.42553e-02,-3.51668e-01,2.32905e-01,-3.86607e-01,
-2.67393e-02,1.52585e-02,-6.82786e-02,1.93840e-02,1.30319e-01,-3.99708e-01,6.07135e-01,-3.51848e-01,2.63621e-01,2.18362e-01,
-9.82505e-02,-2.05651e-01,-5.62412e-01,1.65694e-01,6.44284e-02,1.66356e-01,-2.74940e-01,1.61847e-01,8.98747e-02,2.78227e-01,
-2.27379e-01,
1.96993e-01,
1.97761e-01,
1.30408e-01,
2.23523e-01,
1.89769e-01,
1.07896e-01,
3.92229e-01,
-8.34777e-02,
-2.16449e-01,
1.75293e-02,-2.96495e-01,-2.89573e-01,-3.86606e-02,-2.07967e-01,5.31036e-02,9.24113e-02,4.66111e-01,2.51697e-01,-9.93148e-02,
-2.26654e-01,7.79475e-01,1.04318e-01,5.30252e-01,2.27900e-01,9.88213e-02,1.28595e-02,2.69156e-03,-1.16160e-02,3.00676e-01,
-2.05164e-01,3.16280e-01,-1.68896e-01,3.21512e-01,-2.33487e-01,-3.00952e-02,1.45083e-01,-2.61962e-02,8.23980e-01,-1.48208e-01,
-4.53158e-01,1.98921e-01,1.42884e-01,-1.15457e-01,-1.75527e-01,3.30510e-02,-4.41368e-01,-4.19112e-01,-1.70503e-01,2.67777e-01,
-2.17459e-01,8.28724e-03,-6.59690e-01,-3.02822e-01,-3.96578e-02,-5.33027e-01,9.94732e-02,-7.11109e-01,2.67853e-02,2.08098e-01,
4.95477e-01,-4.47374e-01,1.02237e-01,1.73507e-01,-1.32533e-02,-1.67497e-01,4.38288e-01,-7.31288e-02,-5.71726e-01,-6.67662e-02,
-1.11195e-01,-2.50132e-01,-4.63885e-01,2.34344e-01,7.75809e-03,-8.28343e-02,1.65097e-01,-1.14423e-02,-2.26702e-02,2.25909e-01,
-2.53121e-01,-3.90162e-02,-4.18806e-02,1.43859e-01,1.59714e-01,-2.37339e-01,7.73326e-02,-1.63496e-01,1.14490e-01,4.44188e-02,
-2.85367e-01,-6.91800e-02,-2.47227e-01,1.67805e-01,2.74758e-01,-3.76196e-01,1.29329e-01,-3.81297e-02,7.45901e-02,-1.63204e-02,
-3.53818e-01,-3.61465e-01,1.29334e-01,8.35994e-02,-2.48559e-01,-3.17599e-02,6.20769e-02,7.47838e-02,-6.05969e-02,-2.71282e-01,
-7.93984e-02,
5.06130e-01,
-2.77933e-01,
-3.77742e-01,
3.36835e-01,
-2.30883e-01,
-1.69748e-01,
-3.35793e-01,
4.86209e-01,
-5.10959e-01,
4.84025e-01,6.28159e-01,2.57525e-01,1.86363e-01,5.88876e-01,-6.38935e-01,-2.97490e-02,5.03690e-01,1.84571e-01,-7.43753e-01,
-9.45600e-02,-1.42601e-01,2.63396e-01,-1.80460e-01,-3.75874e-01,3.73652e-01,-5.03633e-01,-7.21746e-02,6.72702e-01,-2.91642e-01,
-2.69197e-01,9.07740e-02,9.91491e-03,2.40232e-01,2.35013e-01,7.15311e-01,3.22450e-01,-1.84514e-01,2.17834e-01,1.55913e-01,
-3.84716e-01,-1.26818e-01,-2.69374e-01,2.35428e-02,-3.51156e-01,-2.03577e-01,2.38575e-01,-4.69914e-03,-8.97786e-02,-3.61443e-01,
-1.72250e-01,-1.97577e-01,1.68153e-01,2.33233e-01,4.24990e-01,2.22782e-01,3.91600e-01,-1.28314e-01,-1.39685e-01,2.78802e-01,
-4.20994e-01,7.55626e-02,2.26504e-01,6.46296e-01,-1.35554e-01,5.51498e-01,1.66298e-01,-2.71235e-01,3.94852e-01,-2.91894e-01,
-1.60173e-01,-3.85339e-01,-3.29273e-01,3.05889e-01,4.60814e-02,-4.86264e-02,2.18647e-01,-4.52035e-01,-3.60177e-01,-1.60695e-01,
1.31025e-01,-1.73091e-01,-1.66351e-01,6.20762e-01,5.07921e-01,7.54060e-02,-2.53652e-01,5.32236e-01,3.85545e-01,3.07967e-02,
1.80412e-01,-1.43806e-01,1.08592e-01,-2.41991e-01,6.34760e-02,1.68971e-01,-1.81902e-01,-5.03557e-01,-1.35141e-01,-3.57089e-01,
3.03889e-01,-2.03206e-01,3.77177e-01,-1.25992e-01,-1.39187e-01,3.54406e-01,7.58645e-02,-9.67894e-02,-2.03229e-01,5.03730e-01,
-1.76955e-01,
-1.21018e-01,
-2.08915e-01,
-2.53095e-02,
-4.35508e-01,
-8.94526e-03,
-2.44536e-01,
1.84565e-01,
-3.52272e-01,
-1.72659e-01,
4.81765e-01,-5.09365e-02,-4.88683e-03,4.09775e-01,8.15347e-01,3.47677e-01,-2.18930e-01,6.38800e-01,2.65951e-01,2.65305e-02,
-5.96153e-01,-1.52153e-01,-9.45134e-02,7.08847e-01,8.39889e-02,-7.08612e-02,-3.10951e-01,-1.14993e-01,-1.91513e-02,2.80165e-01,
1.02928e-01,-2.62603e-01,-1.42291e-02,1.78373e-01,3.12578e-03,-5.48953e-01,2.06901e-02,1.73202e-01,2.15772e-01,3.60157e-02,
6.18870e-01,1.13361e-01,-3.71235e-02,1.78547e-02,-1.10070e-01,-1.78047e-01,3.20905e-01,-2.37495e-01,7.21062e-01,2.00014e-01,
-9.84125e-02,4.12503e-01,1.13244e+00,2.30587e-01,-4.74814e-02,-3.54187e-02,-2.32400e-01,-8.34673e-02,5.48645e-02,4.51373e-01,
-3.46818e-01,3.20459e-01,1.33859e-03,-1.94540e-01,-5.72835e-03,1.43635e-01,2.98196e-01,4.18671e-01,1.14157e-01,-2.48370e-01,
5.40329e-01,-3.50260e-01,-1.76622e-01,-1.91136e-01,5.35672e-01,7.08184e-02,-1.08676e-02,-3.48142e-02,-1.80728e-01,7.43100e-01,
-1.82125e-01,6.73934e-02,-3.20619e-01,2.84941e-01,-1.62235e-01,2.69795e-01,-3.96436e-01,-3.56050e-01,-1.29294e-01,-1.70114e-02,
-3.47753e-01,-3.18616e-01,-6.49169e-02,2.18001e-01,2.95191e-01,-2.31361e-01,-3.51276e-01,-2.69455e-01,1.83763e-01,-8.53976e-02,
-4.11121e-02,1.71954e-01,-1.44803e-01,-3.68996e-01,-1.15460e-01,2.78003e-01,-4.40635e-01,-3.09574e-01,-1.45162e-01,-8.85848e-01,
-6.67384e-02,
3.46593e-01,
-3.69762e-01,
3.00215e-01,
1.53882e-01,
-1.70542e-01,
1.38178e-01,
-2.68677e-02,
-3.61270e-01,
3.50168e-01,
-6.57379e-02,2.32217e-01,-1.86597e-01,3.21247e-01,3.52591e-01,-1.76365e-01,-1.58000e-01,2.09558e-01,1.92986e-01,6.56961e-01,
5.30309e-01,-8.76882e-02,-1.65683e-01,-3.31090e-01,4.44658e-02,-9.79476e-03,-6.60632e-02,3.25057e-01,-2.12284e-01,-1.48899e-01,
-1.14213e-01,-6.78603e-01,-1.23082e-01,4.68760e-01,-9.63010e-03,1.47878e-01,-2.63133e-01,2.03487e-01,1.50792e-01,2.17756e-01,
7.83570e-01,-4.53540e-01,8.70150e-02,1.30827e-01,-5.82782e-02,1.65062e-01,-1.34934e-01,2.66246e-01,-3.00405e-01,-1.53857e-02,
-9.67775e-02,5.09147e-01,2.80901e-01,2.62772e-01,3.31441e-01,7.26366e-01,3.23850e-02,1.05995e-01,-2.79446e-02,3.52576e-01,
3.77838e-01,1.56635e-01,8.11095e-02,-3.92254e-01,-1.33505e-01,2.69229e-01,-5.64960e-01,-7.24980e-01,4.70191e-02,-2.90774e-01,
-1.15220e-02,-5.11272e-02,4.87046e-01,-2.58494e-01,2.01294e-01,4.58149e-01,2.23010e-01,2.88432e-01,-6.44068e-01,2.67349e-01,
-5.22221e-02,2.03537e-01,-2.66981e-02,-1.43199e-02,-4.97860e-01,-3.24929e-01,4.44482e-01,-2.01018e-01,7.10993e-02,8.10526e-03,
5.89661e-01,1.00111e-01,-3.90011e-03,-1.77009e-01,-6.56129e-01,-3.59824e-01,-3.84821e-01,-6.02373e-01,-3.86738e-01,-4.71731e-01,
7.03384e-02,-9.66579e-03,-4.65110e-01,8.32255e-02,1.03445e-01,3.70891e-01,3.12037e-01,3.26565e-01,1.89633e-01,-7.18357e-02,
3.97035e-01,
-1.29047e-01,
7.16511e-01,
6.31569e-02,
-1.12497e-01,
-2.72068e-01,
-1.56699e-01,
-1.83636e-01,
-5.14212e-01,
3.50035e-01,
-1.27862e-01,-1.13497e-01,-9.66832e-02,2.63107e-01,2.70901e-01,-3.89621e-01,2.29435e-01,7.39901e-01,-2.57189e-01,8.79613e-02,
-4.31234e-01,-3.06683e-01,-2.86145e-01,4.30265e-01,-2.90727e-01,-9.13681e-02,-1.04576e-01,-1.74539e-01,2.47389e-02,2.40342e-01,
-2.67963e-01,-2.35124e-01,-2.38396e-01,3.15562e-01,5.30433e-01,8.90650e-02,-2.38206e-01,3.91309e-01,-2.32588e-01,3.39265e-01,
-1.14705e-01,-6.51330e-03,-5.00304e-02,2.60360e-01,3.49702e-01,1.55775e-01,6.01332e-01,3.30115e-01,3.12811e-01,3.24192e-01,
-1.28893e-02,4.22920e-01,-3.48934e-01,-8.67193e-02,3.90120e-02,5.80752e-01,-1.34485e-01,-3.08079e-01,-1.21775e-01,2.90562e-01,
3.72497e-01,-2.29469e-01,-3.55210e-01,-2.08271e-01,3.39819e-03,-1.18442e-01,-5.54942e-01,-7.10249e-01,-3.09956e-01,3.53693e-02,
1.62131e-01,-1.49019e-01,-2.89636e-01,8.50036e-02,8.90056e-02,-4.22992e-01,-1.03105e-01,-5.88245e-01,2.30163e-02,3.12461e-01,
-2.58345e-02,-2.48239e-01,-5.08351e-01,-1.93559e-02,-2.14483e-01,-3.53319e-01,1.86613e-01,-3.40982e-01,-1.40219e-01,4.32229e-01,
-2.03261e-02,1.49577e-01,5.04446e-01,-2.08929e-01,8.59721e-02,-4.18443e-01,-1.05028e-01,-3.27965e-01,-6.26772e-01,-4.72555e-01,
1.05668e-01,2.02054e-01,-2.09285e-02,-3.32933e-02,-6.78279e-01,-2.37966e-01,6.71129e-02,-1.28419e-01,-1.90622e-02,3.22893e-02,
3.99142e-01,
-9.87468e-02,
-6.93846e-01,
1.08282e-01,
1.27949e-01,
3.14386e-01,
4.14079e-01,
-3.29946e-01,
3.47670e-01,
-2.84046e-01,
2.43502e-01,1.21126e-01,5.39224e-01,-7.29697e-02,6.44344e-01,-5.08040e-01,-3.78158e-01,-9.39312e-02,2.11706e-01,2.62978e-01,
-1.20781e-01,-6.23174e-02,4.19597e-01,-3.56226e-01,-6.33246e-02,-2.62003e-01,1.84267e-01,9.01321e-02,5.04464e-01,-2.82341e-01,
1.38882e-01,5.40126e-01,1.02078e-01,1.64901e-01,5.37846e-02,-7.26785e-01,-3.50990e-01,-4.10638e-01,2.23313e-01,1.16880e-01,
1.14177e-01,-3.20316e-01,3.15177e-01,-4.60952e-01,-1.84374e-03,4.88723e-01,-6.42771e-01,3.83114e-01,-5.01601e-02,7.08491e-02,
9.19137e-02,1.01452e-01,7.21491e-02,-9.44586e-02,6.59119e-02,-2.92332e-01,-1.60030e-01,-2.74568e-01,-1.30310e-01,-7.30730e-01,
-1.39537e-01,8.41846e-02,-2.35543e-01,-2.33928e-01,2.28063e-01,-7.13541e-01,-1.45322e-01,3.60994e-01,2.15876e-01,7.50673e-02,
5.87024e-01,1.52923e-01,-3.14744e-02,1.34232e-01,-8.65035e-01,2.74010e-01,-7.80423e-01,-5.26646e-02,2.93332e-01,4.78280e-01,
2.01582e-01,3.18628e-01,-3.45115e-02,3.89194e-01,3.91018e-01,-3.37941e-01,-3.95713e-01,-1.99182e-01,3.62071e-01,-3.90761e-01,
-1.24334e-01,-5.81031e-01,1.84477e-02,2.63782e-01,-3.17507e-01,1.66980e-01,5.15408e-02,7.86178e-01,-3.76879e-01,3.39847e-01,
1.96191e-01,3.88226e-01,6.17052e-01,-3.59355e-01,-2.00064e-01,4.02230e-01,-2.95853e-01,1.29632e-01,1.02424e-01,-2.91877e-01,
-6.12168e-01,
-7.21602e-03,
1.27142e-01,
-3.18317e-01,
-2.10410e-02,
-2.69889e-01,
4.76491e-01,
-6.15204e-01,
2.78719e-02,
6.84201e-02,
8.74484e-02,2.68406e-01,-1.75332e-01,-6.65589e-02,-3.86858e-02,-4.16617e-01,4.19364e-01,-3.85014e-01,-1.77859e-02,-9.37279e-02,
6.03117e-01,-2.16696e-01,2.72565e-03,4.01220e-01,-7.61199e-02,1.18315e-02,2.70002e-02,-2.97026e-01,-5.21831e-01,-1.12797e-01,
-3.01187e-02,
-7.85636e-02,
