// Neural Network File Format by Kyle Julian, Stanford 2016
10,2,2,5,
2,5,5,5,5,5,5,5,5,5,2,
0,
-10000.0,-10000.0,
10000.0,10000.0,
0.0,0.0,0.0,
1.0,1.0,1.0,
-9.39069e-01,2.43077e-02,
2.03897e-01,-1.28290e-01,
-3.18982e-01,-3.52640e-01,
2.25282e-01,-8.79432e-01,
2.03311e-01,-2.47522e-01,
-1.15987e-02,
6.78523e-02,
2.24342e-01,
1.36605e-01,
2.92105e-01,
-1.54411e-01,3.58433e-01,3.50443e-01,1.23706e-01,7.80931e-02,
4.21446e-01,9.77817e-01,3.30305e-01,-4.96790e-01,-1.07683e+00,
9.96775e-01,-8.96130e-01,6.25039e-01,4.11794e-01,-1.96133e-01,
3.62802e-01,-4.39117e-01,6.07703e-01,-2.70766e-01,3.61947e-01,
5.08233e-01,-6.28603e-02,1.22168e+00,2.56207e-01,4.11360e-01,
3.02136e-01,
-9.00072e-02,
-5.53252e-01,
-2.50249e-02,
-4.36506e-01,
-2.44783e-01,-2.92775e-02,7.01163e-01,-4.15614e-01,-1.09663e+00,
-1.72220e-01,-4.57900e-01,1.72579e-01,2.77194e-01,-3.84112e-01,
-1.65353e-01,-4.73123e-01,-4.43931e-01,1.16698e-01,3.24698e-01,
9.63053e-02,4.91858e-01,5.10272e-01,-3.74948e-02,-2.84330e-01,
-4.84460e-01,-6.39854e-01,7.21321e-02,-1.15167e-01,1.09667e+00,
2.14357e-01,
2.19743e-01,
-5.06444e-01,
-2.20928e-01,
7.73858e-01,
6.31417e-02,-7.27827e-01,7.34827e-01,-1.10915e+00,-6.95863e-01,
1.87744e-01,-7.61796e-03,6.57062e-01,-7.48553e-01,-6.17366e-01,
-3.05637e-01,-2.14049e-01,-7.36277e-01,1.08131e-01,-3.06165e-01,
-7.60714e-01,-4.62992e-01,5.70285e-01,-2.22851e-01,-8.32107e-02,
4.59159e-01,1.48917e-01,-5.43012e-01,-1.65021e-01,-3.20163e-01,
-1.85984e-01,
-2.36634e-01,
-6.90924e-01,
-2.13719e-02,
4.23987e-01,
8.10736e-02,-2.95098e-01,5.46159e-01,-4.08723e-01,-2.70916e-01,
3.71177e-02,9.86712e-01,4.06903e-01,2.64954e-01,-2.82168e-01,
5.39091e-01,1.08846e+00,7.53903e-01,5.24353e-01,3.86877e-01,
-3.48838e-01,2.27353e-01,3.55784e-01,-1.42859e-01,9.93825e-01,
2.12345e-01,4.59989e-01,1.16893e-01,-1.07339e+00,-2.00304e-01,
1.08330e+00,
6.62504e-01,
1.39602e-01,
5.18019e-01,
5.57025e-01,
-4.49818e-02,5.81663e-01,1.27608e-01,6.25729e-02,1.54395e-01,
-8.11256e-02,-3.82377e-01,-6.44285e-01,1.28818e-01,3.00065e-01,
1.42724e+00,2.06211e-01,3.45206e-01,-1.42409e-01,2.58448e-01,
4.45685e-01,-5.43058e-01,-7.18854e-01,5.95883e-01,6.10353e-01,
2.02103e-01,-4.54971e-01,1.52379e-01,9.62463e-01,-8.84214e-01,
1.75964e-01,
-1.02285e-01,
1.28142e+00,
7.15343e-01,
-5.96233e-01,
-7.26615e-01,6.54695e-02,1.94158e-03,-6.55306e-01,-4.33177e-01,
2.86044e-01,-2.60287e-01,-4.07149e-01,7.89779e-01,1.06096e-01,
1.61639e-01,4.47469e-01,1.54439e-01,5.55923e-01,1.87544e-01,
9.77892e-01,-2.50842e-01,2.00194e-01,1.21651e-02,-3.40941e-01,
-1.64568e-01,-3.73181e-01,9.16021e-02,5.07884e-01,1.21377e-02,
-6.54828e-01,
3.13899e-01,
-5.57759e-01,
-3.15664e-01,
5.26907e-02,
2.85969e-01,1.82686e-01,-1.42316e-01,-2.53285e-01,-1.93358e-01,
-1.23807e+00,7.95784e-01,3.25767e-02,-1.46885e-01,-6.53553e-01,
9.23309e-01,-1.83068e-01,-5.40984e-02,1.99461e-01,4.24879e-01,
-3.53108e-01,5.45937e-01,1.64627e-02,6.93616e-01,-2.60986e-02,
-1.87974e-01,-8.02143e-01,-1.64885e-01,2.72166e-01,3.67217e-01,
-7.41844e-01,
1.08814e-01,
-4.63159e-01,
-8.90473e-01,
9.25560e-01,
-1.12340e-01,1.36215e+00,-8.99636e-01,-4.87659e-02,7.39060e-01,
3.06099e-01,8.79409e-02,-9.04577e-01,1.49023e-01,-2.80187e-01,
8.86151e-02,5.07525e-01,-1.30901e-02,-1.48491e-01,4.77380e-01,
-3.16275e-02,-3.77504e-01,-5.28158e-01,5.14329e-01,4.93448e-01,
3.68626e-01,6.88725e-02,-4.16753e-01,-1.76614e-01,9.85690e-01,
-6.77882e-01,
2.87054e-01,
-3.52122e-01,
8.12161e-01,
-5.40418e-02,
8.05184e-02,3.92283e-01,-2.18439e-01,9.38154e-02,1.41747e-01,
3.50698e-02,-1.90978e-02,-8.82013e-02,1.37864e-01,7.14177e-01,
9.55541e-01,
-1.72141e-01,
