// Neural Network File Format by Kyle Julian, Stanford 2016
20,2,2,5,
2,5,5,5,5,5,5,5,5,5,5,5,5,5,5,5,5,5,5,5,2,
0,
-10000.0,-10000.0,
10000.0,10000.0,
0.0,0.0,0.0,
1.0,1.0,1.0,
2.28460e-01,1.18819e-01,
3.48746e-01,-6.54845e-02,
2.75809e-01,7.93836e-01,
-4.73128e-02,3.82052e-01,
-4.72221e-01,5.88190e-01,
-2.44391e-01,
-2.76651e-01,
-2.19651e-01,
2.82640e-01,
-3.57138e-01,
-8.62315e-03,2.84345e-01,-3.24734e-01,-9.00485e-01,-4.50440e-01,
-1.23147e-01,-3.84754e-01,2.68330e-01,2.53534e-02,-2.62718e-01,
-1.15345e-01,-8.79174e-02,8.00992e-02,-3.38200e-01,1.05717e+00,
-1.33498e-01,-5.82033e-02,3.57347e-01,5.15422e-01,1.32479e-01,
-3.01472e-02,-2.44591e-02,7.42423e-01,-3.01217e-01,-1.36090e-01,
4.83654e-01,
2.15914e-01,
-1.89796e-01,
1.52746e-01,
-8.44013e-02,
-2.20398e-01,-2.41615e-01,8.49036e-01,8.12221e-03,-3.46504e-01,
-1.42355e-01,-3.81737e-01,6.36586e-01,2.34935e-04,-1.85613e-01,
-6.09484e-01,6.19481e-02,-3.36260e-01,4.27431e-03,-2.17496e-01,
2.70182e-01,-3.89337e-01,3.27339e-01,-4.64069e-02,-2.76343e-01,
4.15582e-01,3.92509e-01,2.46648e-01,-3.14995e-01,8.34269e-03,
-1.43135e-01,
3.84042e-01,
7.71950e-01,
-4.69132e-02,
-4.17571e-01,
2.39736e-01,-1.51278e-01,-2.21875e-02,7.93395e-01,3.11552e-02,
1.61834e-01,-3.39604e-01,-3.12359e-02,-2.10925e-01,-9.70752e-02,
4.42780e-01,-1.42120e-02,-3.83966e-01,-2.51580e-01,1.07406e-01,
1.95344e-01,2.34735e-01,-7.01571e-02,-1.73371e-01,1.74688e-02,
-9.47557e-01,-6.37088e-01,-9.76668e-01,-1.05094e-01,-3.29047e-01,
9.21946e-01,
2.96056e-01,
-1.12468e-01,
4.38951e-01,
3.50035e-01,
-1.69073e-02,-1.56508e-01,9.22322e-02,1.31426e-01,3.35219e-01,
-3.63153e-01,-1.66982e-02,-7.97734e-01,4.32657e-02,-2.35714e-01,
-3.93992e-01,-4.14471e-01,8.15874e-01,-2.63503e-01,-2.43193e-01,
3.46581e-01,-2.96588e-01,-5.88225e-01,2.83390e-01,-5.14050e-02,
-6.42559e-02,4.30868e-01,-2.45359e-01,-2.84705e-01,2.61754e-02,
-3.27796e-01,
2.51919e-01,
2.55239e-01,
-5.10515e-02,
2.29076e-01,
-1.68588e-01,-1.36487e-01,5.24815e-01,-7.29173e-01,8.61504e-02,
-2.68285e-01,1.03887e-01,1.87820e-01,1.96893e-01,2.04868e-01,
-4.56808e-01,-4.59575e-02,5.06390e-01,-3.71692e-01,7.63661e-02,
4.00622e-01,-3.89686e-02,-8.47839e-01,-8.78769e-01,4.48907e-01,
8.04737e-01,1.20804e-01,-1.95865e-01,-2.05420e-01,-4.29568e-01,
1.36482e-01,
8.42313e-01,
-7.08349e-01,
-6.27087e-01,
4.16280e-01,
8.81406e-01,-1.19531e-01,5.38439e-01,2.50728e-01,-2.63243e-02,
-7.37546e-01,4.39890e-02,8.02624e-01,-3.03140e-01,4.06399e-01,
-6.36997e-01,1.16947e-01,5.34813e-01,-9.73016e-02,-9.24094e-02,
-1.35572e-01,1.27446e-01,5.58815e-01,-3.51925e-01,4.47282e-02,
1.72627e-01,6.45514e-01,-1.18954e-01,6.55585e-01,5.36386e-02,
-1.55827e-01,
9.91472e-01,
-3.40698e-01,
7.00365e-02,
-4.96455e-01,
6.88149e-02,-5.46007e-01,-1.68506e-01,3.52256e-01,-5.89027e-01,
3.03084e-01,-2.54642e-01,-6.33526e-03,-1.55126e-01,3.55865e-01,
4.53663e-01,6.92652e-01,-2.82208e-01,-5.14324e-01,-2.55284e-01,
2.80314e-01,3.52456e-01,-2.61282e-01,-5.27986e-01,-3.27485e-01,
6.50809e-02,2.67904e-01,-2.29632e-01,2.97475e-01,2.46685e-01,
2.45743e-01,
1.25025e+00,
2.61748e-01,
8.38138e-01,
4.19085e-01,
3.88747e-01,-2.84761e-01,-2.94277e-01,-3.85386e-01,1.83655e-01,
2.62495e-01,3.00601e-01,-7.48873e-01,-2.22512e-01,1.08866e-01,
3.72618e-01,1.31013e-01,2.96326e-01,-3.20762e-01,-6.32883e-01,
-6.48076e-01,1.86248e-02,-6.71932e-01,5.58357e-01,-3.37989e-01,
3.25603e-01,-1.98969e-02,2.13699e-01,-3.22804e-01,3.36656e-01,
-2.64292e-01,
-7.91598e-01,
6.04102e-01,
2.28764e-01,
-9.35776e-02,
-2.23269e-01,-2.51663e-01,4.71067e-01,-3.38032e-01,-1.12576e-01,
6.87983e-01,-4.31000e-01,-5.51313e-01,-1.18058e-01,6.51542e-01,
-1.50975e-01,1.07032e-02,-3.68895e-01,-5.66703e-01,3.45411e-01,
-8.17623e-02,-8.43936e-01,-2.10434e-01,2.09504e-02,-6.97677e-01,
2.20876e-02,1.73389e-01,-2.00237e-02,-2.60205e-01,3.58926e-01,
-5.53544e-01,
2.95779e-01,
5.63589e-01,
8.47333e-01,
2.32123e-01,
-5.48504e-01,1.01183e-01,-1.95205e-01,2.54948e-01,-7.55802e-01,
-6.88741e-01,-1.96098e-01,3.50492e-01,-1.99443e-01,2.73441e-01,
1.47090e-01,4.28920e-01,1.46320e-02,6.40897e-02,5.22195e-01,
5.12841e-01,-5.29770e-01,8.82090e-02,6.58229e-02,6.63787e-01,
-3.89140e-01,-2.99562e-01,3.05924e-01,2.64817e-03,7.66801e-02,
-4.42817e-01,
-6.55062e-02,
2.02697e-01,
-1.14357e-02,
-2.02251e-01,
1.16066e-02,-7.55689e-01,-6.34470e-01,3.03300e-01,9.52091e-02,
3.51332e-02,-3.00131e-01,1.92041e-01,-3.03485e-01,-1.39856e-01,
1.08540e-02,-2.42946e-01,1.89918e-02,9.06150e-02,-9.14102e-02,
-2.55730e-01,3.87919e-01,-4.35377e-01,-8.71568e-01,2.15107e-02,
-8.77350e-02,-2.42547e-01,2.77882e-01,-6.77706e-02,-1.01234e+00,
-5.25356e-04,
-3.04553e-01,
-1.95126e-01,
8.84495e-02,
-6.11445e-03,
-8.38795e-01,9.47604e-03,1.13074e-01,-3.16861e-01,-1.45982e-01,
-1.66914e-01,-1.30083e-01,1.26144e-01,8.79786e-03,4.43264e-01,
1.37188e-01,-9.75504e-02,7.36604e-01,-1.83312e-01,6.28558e-01,
-5.62363e-01,2.90586e-03,7.32005e-01,2.59142e-01,2.02637e-01,
6.52264e-01,8.91602e-01,-1.46624e-01,2.71642e-02,-1.14265e-01,
-6.27605e-01,
-1.47234e-01,
1.24385e+00,
-2.49283e-01,
3.91087e-01,
9.99885e-02,-1.61715e-01,-3.98641e-01,-3.24160e-01,-2.84166e-01,
-3.41023e-01,1.08414e+00,1.23804e-02,-3.62292e-01,-3.68119e-02,
-5.64562e-01,-1.11715e-01,3.43540e-01,3.95768e-01,-8.78182e-02,
1.15596e-01,6.26533e-01,9.77824e-01,-5.14767e-01,4.71402e-01,
-1.44119e-01,7.48968e-01,-1.72589e-01,5.60737e-01,4.96338e-01,
6.13227e-02,
-3.92650e-01,
-1.44040e-01,
5.98067e-01,
7.26836e-02,
4.27644e-01,-4.36030e-01,2.05911e-02,-3.56236e-01,3.99837e-01,
3.11488e-01,-4.96011e-01,-3.10604e-01,-3.62695e-01,1.72931e-01,
-1.67039e-01,-1.01695e-02,-2.95080e-01,2.60362e-01,1.83337e-01,
2.27185e-01,-4.44261e-01,-1.73698e-01,3.34131e-01,-7.63409e-01,
1.78989e-01,-2.22680e-01,1.18247e-01,-7.95817e-01,3.51813e-01,
-3.07020e-01,
-1.36343e-01,
1.48964e-01,
1.22369e-01,
5.75822e-01,
1.19627e-01,-5.16127e-02,1.52617e-02,2.74179e-01,1.39131e-01,
-3.33649e-01,3.54030e-01,-4.27239e-01,8.61107e-03,6.28664e-01,
3.53582e-01,-6.72381e-02,-2.95968e-01,5.57505e-01,2.44866e-02,
-2.55372e-02,-3.72841e-01,5.16847e-01,9.67256e-01,1.37943e-01,
-5.01870e-01,9.55566e-01,2.67450e-01,9.31191e-02,-1.85402e-01,
1.14407e-01,
8.41553e-01,
-2.61452e-01,
3.11341e-01,
-2.73133e-01,
-7.43865e-02,-9.43323e-02,-9.42521e-02,5.96613e-01,-3.98469e-01,
-5.75613e-01,-2.68127e-01,2.20934e-01,1.07922e-03,-4.54136e-01,
2.42085e-02,-8.48177e-01,-8.76917e-01,-4.46405e-02,-1.91469e-01,
-1.67570e-01,-7.13110e-01,8.08398e-01,2.60951e-01,-3.43156e-01,
7.49834e-01,6.37179e-01,9.18386e-01,-4.84053e-01,5.83204e-01,
1.87640e-02,
-2.97640e-01,
1.24296e-01,
-1.12996e-01,
6.34908e-01,
-6.42795e-02,8.04373e-02,1.54471e-01,1.52732e-01,-2.60768e-01,
-5.95064e-01,6.06687e-01,-9.16474e-02,6.55682e-02,5.98612e-01,
-2.39700e-01,-3.04068e-01,-2.81028e-02,-5.77051e-02,7.72392e-02,
-1.46633e-03,3.05882e-01,-4.11420e-01,-1.69839e-01,3.05168e-01,
2.06048e-01,1.03116e+00,-4.25420e-01,7.34846e-02,-1.20091e-01,
-4.05521e-01,
5.49461e-01,
2.63191e-01,
2.22294e-01,
-1.72124e-01,
-3.41268e-01,4.48175e-01,4.81247e-02,4.81035e-01,-1.63964e-01,
1.73679e-01,2.38948e-01,-6.44561e-01,-1.62300e-01,1.54035e-01,
-8.07861e-01,-3.64919e-01,-5.27686e-01,2.02283e-02,1.01021e+00,
2.31229e-01,-4.50643e-01,-7.00108e-02,-3.57944e-02,2.00786e-01,
1.43115e-01,-3.50671e-01,-6.08025e-01,2.17924e-01,3.57024e-01,
3.73281e-02,
-1.15978e-01,
-2.34615e-01,
4.95070e-02,
-2.61727e-01,
-2.48597e-01,-3.15037e-02,-6.30324e-02,7.59490e-02,3.27641e-01,
-2.69462e-01,4.72727e-01,-6.04488e-01,-5.75139e-01,6.82966e-01,
3.75115e-01,
3.35696e-01,
