// Neural Network File Format by Kyle Julian, Stanford 2016
35,2,2,5,
2,5,5,5,5,5,5,5,5,5,5,5,5,5,5,5,5,5,5,5,5,5,5,5,5,5,5,5,5,5,5,5,5,5,5,2,
0,
-10000.0,-10000.0,
10000.0,10000.0,
0.0,0.0,0.0,
1.0,1.0,1.0,
4.97450e-01,6.68660e-01,
1.96073e-01,1.68789e-01,
5.44920e-01,-4.39746e-01,
1.94075e-01,2.36127e-01,
-4.75663e-01,-5.33624e-01,
-1.58993e-01,
-2.63854e-02,
-3.74494e-01,
2.93014e-01,
-6.18789e-01,
3.81680e-01,-2.65656e-01,7.06005e-01,-5.56145e-01,3.69602e-01,
-3.44547e-01,6.25452e-01,1.04394e-01,4.68461e-01,-1.27008e-01,
5.16754e-01,-5.57998e-01,6.74889e-01,-1.64940e-01,-2.36707e-01,
3.34110e-02,-2.21830e-01,1.92292e-01,-1.53906e-01,1.06790e-01,
3.00125e-01,-1.55499e-01,-1.74438e-01,1.46098e-02,1.31504e-03,
-8.64021e-02,
-3.38125e-01,
-4.71416e-01,
1.26570e-01,
6.26759e-01,
-2.71545e-01,2.35554e-01,-1.24025e-01,-2.31387e-01,-1.44724e-02,
-3.40629e-01,-2.79224e-01,2.00150e-01,2.22319e-01,-3.45722e-01,
5.89670e-02,8.47444e-01,3.40145e-01,-5.02196e-02,-1.83576e-02,
-2.93542e-01,2.88504e-01,1.70245e-01,-5.75433e-01,3.79954e-01,
2.99406e-01,-2.74670e-01,4.65230e-01,-4.16228e-02,2.74227e-01,
-1.03861e-01,
-3.57358e-01,
1.50636e-01,
-4.24451e-01,
8.24497e-02,
-4.94376e-01,3.95726e-01,3.22648e-01,3.32307e-01,-3.15159e-03,
-1.19369e-01,-4.41053e-01,7.32280e-02,-5.56650e-02,3.90379e-01,
1.88029e-01,-4.74999e-01,5.91747e-02,-1.46978e-01,-3.29064e-01,
-4.54228e-01,3.94487e-01,2.24084e-02,2.31934e-02,8.10225e-02,
2.02147e-02,-7.02229e-01,-2.07097e-01,4.05606e-01,2.46615e-01,
1.02920e-01,
5.46192e-01,
7.71248e-03,
-5.22741e-01,
6.12855e-01,
3.61573e-01,-1.05170e-01,-4.76711e-01,2.91130e-01,-1.57686e-01,
-4.40122e-01,2.09235e-01,3.73053e-01,9.22896e-02,-2.60939e-01,
-2.78654e-01,9.37478e-02,-1.20139e-01,2.42783e-01,-3.01195e-02,
-2.40296e-02,6.39712e-01,-3.27621e-02,-3.53315e-01,3.90873e-01,
2.79575e-01,-5.67749e-01,1.32287e-01,-6.72421e-02,4.37396e-01,
4.54722e-01,
1.49528e-01,
2.00743e-01,
-2.10185e-01,
-2.30133e-01,
1.52200e-01,3.08703e-02,-3.22835e-01,2.46771e-04,5.69964e-02,
-3.57603e-01,-2.89754e-01,6.79135e-02,4.48850e-01,-1.69011e-01,
2.52422e-01,-2.09773e-01,7.29367e-02,5.35357e-01,1.22276e-01,
4.18298e-01,-2.05697e-01,-1.18049e-02,6.18918e-02,-5.60731e-01,
-5.41941e-01,3.88787e-01,4.19818e-01,5.15648e-01,-7.27874e-02,
-4.33864e-01,
2.49769e-01,
-2.60330e-02,
-4.06686e-01,
-5.33874e-01,
-1.39396e-01,-6.97497e-01,-4.34815e-01,-1.13701e-01,-3.77517e-01,
1.42003e-01,1.41770e-01,7.89992e-02,1.15048e-01,-1.96914e-02,
-1.69620e-01,1.43448e-01,-1.85948e-01,2.08212e-01,-8.78385e-02,
-5.90877e-02,3.91853e-01,2.10283e-01,-3.26902e-01,1.45263e-01,
1.23646e-01,1.01094e-01,-1.89886e-02,4.59343e-01,5.49184e-01,
5.79781e-02,
-5.92886e-01,
1.56610e-01,
-4.83669e-02,
-2.86318e-01,
-6.43972e-01,-5.50608e-01,-5.36147e-01,2.09418e-01,-1.80503e-01,
2.80736e-01,-3.07736e-01,-5.69659e-01,4.43979e-01,-3.78982e-01,
-7.57396e-02,5.23431e-01,3.30239e-02,4.09132e-01,-3.52365e-01,
1.62119e-01,4.13425e-02,9.99344e-02,7.25586e-02,-1.36432e-01,
-3.20523e-01,9.80909e-02,5.93848e-01,-2.21940e-01,-1.02252e+00,
-5.21937e-01,
5.45404e-01,
9.89478e-02,
2.76707e-01,
1.17351e-01,
6.33224e-02,-4.40623e-02,-1.17301e-02,1.68132e-02,2.03713e-01,
-3.20152e-01,7.49833e-01,4.55527e-01,-3.45506e-01,-3.15007e-01,
2.74431e-01,-7.92889e-02,2.43176e-01,-2.01848e-01,-6.10180e-02,
1.07174e-01,-8.43364e-01,-1.21038e-01,2.69510e-01,-7.17184e-02,
-5.49895e-01,1.77282e-02,-5.74680e-01,-4.81647e-02,2.28972e-01,
-5.01679e-01,
-2.17043e-01,
6.17734e-01,
2.48945e-01,
1.41232e-01,
3.71682e-01,2.56523e-02,1.72707e-01,9.57816e-02,8.88996e-02,
1.75568e-01,4.07274e-01,4.46034e-01,-3.47080e-01,2.23530e-01,
4.79897e-01,8.64659e-02,-2.07340e-01,-8.60566e-02,1.15177e-01,
-2.92112e-01,4.86456e-01,1.74614e-01,2.48698e-01,2.03452e-01,
2.03580e-01,3.09418e-02,4.00020e-01,-6.10224e-01,-7.52650e-01,
5.48029e-01,
-4.81190e-01,
-4.53007e-01,
-6.42211e-01,
-5.13112e-02,
-1.62786e-01,3.31254e-01,-2.16857e-02,-2.66637e-02,2.64808e-01,
3.26069e-01,-1.06175e-01,-1.43526e-01,2.81337e-01,-2.84354e-01,
-4.67227e-02,2.59476e-01,-9.01308e-02,-1.70808e-01,3.65416e-01,
-1.75982e-01,-1.38833e-01,1.35333e-01,6.34638e-01,-6.08624e-02,
4.20015e-03,-4.17801e-01,1.96703e-01,3.99393e-02,1.53674e-01,
5.80968e-01,
1.55384e-01,
-1.12748e-02,
-9.47344e-02,
2.79418e-01,
1.13116e-02,-6.43845e-02,2.51908e-01,-5.05472e-01,-3.11399e-01,
-5.14542e-01,-4.61140e-01,1.31590e-01,-4.33738e-01,-6.98973e-01,
-6.23259e-02,6.97202e-01,-4.83205e-01,-1.05346e-01,-3.88303e-01,
-6.54662e-01,4.86736e-01,-1.73629e-01,1.54976e-01,2.67905e-01,
3.86541e-01,8.58370e-01,1.32573e-01,5.12366e-01,-6.89152e-01,
4.57503e-01,
4.81957e-01,
2.28216e-01,
-4.16175e-01,
1.98301e-01,
2.25548e-01,-5.20525e-01,-1.59095e-01,-9.19721e-02,5.26427e-03,
1.66618e-01,-5.60467e-01,-7.58046e-02,-8.43487e-02,3.53546e-01,
5.52342e-02,5.61553e-01,-2.65930e-01,-2.40368e-01,-1.29146e-01,
-7.25451e-02,2.04939e-01,-2.40138e-01,1.94030e-01,-2.36782e-01,
-5.88856e-02,-1.22730e-01,1.36375e-01,-1.87930e-01,-1.42126e-01,
-1.80162e-01,
3.39908e-01,
-3.58068e-01,
-9.34428e-02,
-2.33341e-01,
2.30517e-01,-2.36394e-01,-3.34683e-01,-4.22573e-01,7.60313e-03,
4.35135e-01,-4.12304e-01,3.41833e-01,-5.56846e-01,1.79230e-01,
4.19974e-01,1.16053e-01,-3.12662e-01,-3.99062e-01,-1.01728e-01,
-1.16448e-01,-1.46977e-01,1.79527e-01,-2.43248e-01,2.08203e-01,
3.43049e-01,3.16229e-01,-3.68771e-02,-6.45226e-01,1.21669e-01,
-8.22902e-01,
-2.89434e-01,
-2.10054e-01,
1.58761e-01,
2.25880e-01,
1.45809e-01,-9.27156e-02,-2.59568e-01,1.80823e-01,-1.50903e-01,
3.96383e-01,4.22136e-01,1.56955e-01,3.14041e-01,2.19632e-02,
9.37868e-02,5.53924e-01,1.83326e-01,-2.95377e-01,4.05308e-02,
5.36135e-01,1.56137e-01,-2.03243e-01,-5.93563e-01,-7.97557e-02,
-3.19478e-01,5.34615e-02,2.75633e-01,2.54613e-01,3.64839e-01,
2.90443e-02,
-2.08077e-02,
3.45081e-01,
-1.47510e-01,
4.66527e-01,
-1.64687e-01,-1.20827e-01,-1.36668e-01,-4.88050e-01,-4.34631e-01,
1.41381e-01,3.03750e-01,-5.45443e-01,-5.61677e-01,2.35415e-01,
4.64332e-01,-3.09686e-02,1.53596e-01,1.21794e-02,2.11902e-01,
-8.73555e-02,4.61135e-02,-9.34450e-02,-1.84525e-01,5.19294e-01,
3.09670e-01,1.35957e-01,9.63762e-02,3.05010e-02,1.62400e-02,
-1.26011e-01,
4.52741e-01,
-1.56323e-01,
-4.35555e-01,
-7.70811e-02,
3.19480e-01,-1.52883e-02,2.02875e-01,-7.13996e-01,2.77657e-01,
2.76369e-01,-2.24586e-01,6.13198e-02,2.53498e-01,3.51781e-01,
2.01893e-02,-3.78000e-02,-3.88433e-01,-1.23444e-02,3.81224e-01,
-4.62796e-02,-1.73560e-01,5.55333e-01,3.58877e-01,2.82794e-01,
6.57420e-02,-1.41883e-01,-2.19461e-02,-2.72908e-01,-1.33402e-01,
2.73638e-01,
1.21789e-01,
5.19625e-01,
-4.21895e-01,
4.37511e-01,
-4.76997e-01,-5.14078e-01,2.18652e-01,1.20493e-02,-2.91727e-01,
4.31204e-01,3.65375e-01,-6.07670e-01,3.51783e-01,2.42881e-01,
7.99527e-02,-6.42183e-01,-5.71166e-02,4.10932e-01,1.42177e-01,
-3.59731e-02,6.51219e-02,5.47059e-01,-5.93755e-01,6.34036e-02,
4.60883e-02,3.55790e-01,-8.10350e-01,3.33201e-02,-2.80513e-01,
-1.06663e-01,
-1.87697e-01,
-1.98047e-01,
2.15473e-01,
-4.64254e-01,
2.90465e-01,4.00587e-01,3.67837e-02,-4.09671e-02,7.05699e-01,
5.38431e-01,-1.75053e-01,-5.36055e-01,3.48434e-01,4.37831e-02,
-1.55950e-01,-4.63717e-01,-1.46788e-01,-9.74511e-02,2.84785e-01,
4.64981e-02,-2.47511e-01,-5.51646e-01,-2.85293e-01,-5.06884e-01,
2.29093e-01,-6.98372e-01,2.72274e-02,-3.47800e-01,-2.78499e-01,
1.74346e-01,
2.96869e-01,
3.59012e-03,
-4.50890e-01,
3.18196e-01,
-2.66900e-01,1.92650e-01,-4.90500e-01,1.83436e-02,1.36421e-01,
-5.65813e-01,-7.49569e-02,-4.40314e-01,6.85716e-02,3.40120e-01,
-2.86542e-01,-4.34544e-01,2.82159e-01,1.76473e-01,1.37459e-02,
-5.98950e-01,-1.66823e-02,7.45713e-02,2.75725e-01,-3.15871e-02,
4.45002e-01,1.90338e-01,-2.05763e-01,-1.93785e-01,-2.21234e-01,
1.15278e-03,
8.71870e-02,
-5.21221e-01,
-1.15196e-01,
-6.53917e-01,
-5.90894e-03,1.95595e-01,-1.22321e-01,1.43790e-02,2.56777e-01,
-1.13527e-01,2.14305e-01,-3.02463e-02,-2.05239e-02,-4.20395e-01,
8.31310e-03,-1.24672e-01,-1.90024e-01,2.08261e-01,-1.16255e-01,
-1.80452e-01,6.34557e-02,1.11442e-01,-3.46663e-01,-3.25168e-01,
-8.16928e-01,-2.94334e-01,-1.48181e-02,2.03799e-01,-3.97473e-02,
1.39421e-01,
-3.21401e-02,
-4.38592e-01,
2.14347e-01,
-2.35751e-01,
-5.56550e-01,3.89977e-01,-8.99316e-02,3.21141e-01,-4.21236e-01,
-7.90891e-02,1.44388e-01,-6.24764e-01,3.43001e-03,2.41020e-01,
-4.61955e-01,-5.66604e-02,7.53631e-02,-1.69378e-01,-1.67576e-01,
4.36344e-02,-2.64915e-01,2.20861e-01,1.11279e-01,3.06998e-01,
-1.10406e-01,9.64812e-02,-1.83387e-01,-2.28497e-01,-3.21288e-01,
1.42867e-01,
4.43086e-01,
-1.34784e-01,
2.93935e-01,
1.34939e-01,
7.77137e-02,-1.68647e-01,-2.06879e-01,-1.79615e-01,3.74174e-02,
-3.05901e-01,-2.12265e-01,-1.53659e-01,-2.28782e-01,1.52076e-01,
-6.28157e-01,2.27228e-02,5.53344e-02,5.37697e-01,-2.99506e-01,
1.84293e-01,-1.46917e-01,8.64223e-02,-8.84519e-02,1.62643e-01,
1.87869e-01,-1.61846e-01,2.65270e-02,1.95839e-01,8.55603e-02,
-2.64108e-01,
3.17415e-01,
6.20134e-02,
-7.00477e-01,
-3.58167e-01,
-1.28914e-01,-2.07709e-02,-2.13573e-01,-3.71853e-01,5.06197e-01,
4.43937e-01,-2.27981e-01,3.16538e-01,1.67485e-01,-5.36279e-02,
2.37907e-01,6.07037e-01,1.50257e-01,3.21812e-01,8.79171e-02,
1.58618e-01,-6.85610e-01,1.11310e-02,1.41253e-01,-2.97998e-01,
-3.11545e-01,-2.28686e-01,-3.85243e-01,1.47276e-01,4.67394e-01,
-9.28977e-02,
-1.57245e-01,
1.10079e-01,
-4.07096e-01,
-4.70586e-01,
5.83813e-01,-2.19234e-01,-9.44189e-02,1.89951e-01,-3.52293e-01,
-4.61753e-02,-4.38849e-01,3.92785e-01,3.24887e-01,-4.73477e-01,
6.42307e-01,1.70661e-02,2.88552e-01,9.73406e-02,2.59036e-01,
3.60839e-01,-2.77827e-02,3.55457e-01,2.80504e-01,1.56395e-01,
4.55913e-01,-1.81184e-01,-8.20475e-02,2.85872e-01,-2.39009e-01,
-2.29651e-01,
1.60564e-01,
6.00426e-02,
3.10070e-01,
1.75556e-01,
6.52733e-02,-5.71519e-02,-7.93488e-02,-3.81072e-02,-2.19265e-01,
-3.49405e-01,4.25416e-01,5.32812e-03,1.21222e-01,5.85915e-02,
-1.13954e-01,3.16717e-01,-9.92478e-03,2.28714e-01,6.70903e-02,
1.59575e-01,-5.63059e-02,7.76835e-02,-6.49190e-02,-3.19496e-01,
2.32475e-01,-2.99176e-01,4.63237e-01,-5.27746e-01,-4.48420e-01,
1.16805e-01,
-2.01577e-01,
-1.08619e+00,
-2.22254e-02,
-8.79252e-02,
-4.96522e-02,7.15090e-01,1.64190e-01,-1.84041e-01,2.66555e-01,
-9.05163e-02,8.85065e-03,1.34020e-01,-3.29082e-01,-1.69242e-01,
5.17277e-02,1.73917e-01,4.16561e-01,3.63128e-01,-5.40887e-01,
-3.11747e-02,3.21339e-01,-7.21102e-02,-2.64083e-01,-1.59405e-01,
6.13860e-01,1.66061e-03,3.44014e-01,2.01793e-01,-2.80100e-01,
-1.44905e-01,
1.57059e-01,
-3.10057e-01,
2.18809e-01,
-2.33524e-01,
2.90029e-01,-2.88393e-01,1.02058e-03,6.22155e-01,3.48852e-01,
1.56345e-02,6.37936e-02,3.30330e-01,1.48596e-02,4.30418e-01,
-3.96205e-02,-1.36370e-01,2.97507e-01,6.57700e-02,1.00830e-01,
5.69310e-01,-3.11674e-02,-2.18972e-01,4.32521e-01,4.29939e-01,
-2.97041e-01,1.86233e-01,3.79675e-02,-1.03431e-02,-3.19760e-01,
9.24309e-02,
-2.13929e-01,
5.37215e-03,
-5.82755e-01,
-7.30972e-02,
-5.04158e-01,2.54466e-01,1.49178e-02,6.33859e-01,4.56832e-02,
1.40236e-01,-1.52928e-01,-1.98607e-02,-6.38913e-02,-1.87239e-01,
2.36187e-02,-3.48593e-01,5.19342e-01,-4.13331e-01,2.29430e-01,
1.96721e-01,-4.50299e-01,1.33952e-02,-1.58534e-01,-4.14577e-01,
4.67852e-01,-4.46429e-01,-2.73741e-01,-2.87043e-01,-2.20099e-01,
-5.83742e-03,
-1.95819e-01,
-1.33323e-01,
-2.61587e-01,
-6.03261e-02,
2.44266e-02,-6.47868e-02,2.30428e-01,-1.17866e-01,1.59063e-01,
-4.95918e-02,-4.41731e-01,5.62276e-02,6.36820e-02,3.57941e-01,
-3.76998e-02,-2.68902e-01,-2.26092e-01,4.20737e-01,3.85299e-01,
1.27233e-01,-6.46902e-03,-4.54535e-01,-1.21280e-01,-5.84078e-01,
-1.85767e-01,-1.36415e-02,-8.22387e-02,3.38834e-01,-2.59891e-02,
5.57745e-01,
1.43432e-01,
-1.05119e-01,
4.62903e-01,
3.00525e-01,
4.39005e-02,9.32573e-02,4.43570e-01,-1.96762e-01,-1.65225e-01,
5.62794e-02,-3.74885e-01,-1.28001e-01,7.56973e-02,-6.99516e-02,
4.18748e-02,-1.32868e-02,-3.35604e-01,2.41848e-02,5.05717e-01,
-1.63729e-01,-4.42916e-01,1.70317e-01,2.07535e-01,-1.30817e-01,
-3.06612e-01,3.90407e-01,-4.38259e-02,7.49557e-01,-7.03745e-03,
1.73147e-01,
-1.04315e-01,
-3.94567e-01,
-4.17484e-01,
3.04747e-01,
3.26727e-01,3.62912e-01,-2.44668e-02,-6.76724e-02,6.16698e-02,
1.44694e-01,1.12200e-01,6.17026e-01,4.95848e-01,3.89771e-01,
5.51088e-02,3.31709e-01,-1.32823e-01,-1.70408e-01,-2.81436e-01,
-4.17364e-02,7.17838e-02,-1.73625e-01,-7.31382e-01,3.33753e-01,
6.92189e-01,-5.60016e-02,-4.82517e-01,6.29900e-01,1.19824e-01,
-3.54590e-01,
-1.60988e-01,
-1.23132e-01,
4.76473e-02,
3.68196e-01,
-1.52325e-01,3.45976e-01,1.43634e-01,9.27566e-02,7.55364e-02,
-3.65024e-01,-8.64526e-02,5.13659e-01,1.30663e-01,-3.20877e-01,
2.37989e-01,-1.32093e-01,-8.76582e-02,3.46245e-02,3.84157e-01,
4.70224e-01,-3.92545e-01,4.01186e-01,-5.41068e-01,-2.08650e-01,
-2.14575e-01,2.07487e-01,4.44709e-02,2.61466e-01,-9.00156e-02,
-1.05286e-01,
3.64235e-02,
-3.31447e-01,
-1.91550e-01,
4.48649e-01,
4.70014e-02,-2.52719e-02,-2.57558e-01,-1.59103e-01,-5.66537e-02,
1.52041e-01,8.93556e-02,-1.45127e-01,2.29011e-02,4.68697e-03,
-2.18882e-03,-2.33194e-02,2.63666e-01,-2.34178e-01,1.30881e-01,
-1.41639e-01,1.14795e-01,-1.20296e-01,-9.31035e-01,-2.67455e-01,
4.81321e-01,4.71954e-01,1.41590e-01,-4.86842e-01,-6.65057e-02,
-1.40037e-01,
-1.36990e-01,
2.64051e-01,
-3.29281e-01,
4.43292e-01,
-4.33833e-01,-1.11242e-01,1.45286e-01,-1.60123e-01,2.02605e-01,
-8.43671e-02,3.73907e-01,-2.62329e-02,-3.26771e-01,-3.25416e-01,
-3.45889e-01,
4.35025e-01,
