// Neural Network File Format by Kyle Julian, Stanford 2016
25,2,2,10,
2,10,10,10,10,10,10,10,10,10,10,10,10,10,10,10,10,10,10,10,10,10,10,10,10,2,
0,
-10000.0,-10000.0,
10000.0,10000.0,
0.0,0.0,0.0,
1.0,1.0,1.0,
-7.58289e-02,2.74280e-02,
4.63378e-01,-6.91186e-01,
2.01425e-01,-6.16413e-01,
-1.02082e-01,6.81048e-01,
3.88418e-01,4.70668e-02,
1.08214e-03,-6.08062e-01,
-6.31080e-01,8.11724e-02,
-1.36964e-01,4.76185e-01,
3.23624e-02,3.45656e-01,
-1.91307e-01,-4.37799e-01,
2.70865e-01,
-3.07752e-01,
-6.28983e-01,
5.46499e-03,
4.21901e-01,
5.39203e-01,
1.26863e-01,
-5.71397e-01,
3.81645e-01,
-2.16551e-01,
2.46974e-01,-2.94797e-01,3.87445e-01,-1.05909e-01,2.37186e-01,1.71880e-01,-1.48617e-01,-4.94168e-01,-5.84795e-01,-8.05393e-03,
6.10968e-01,6.78194e-02,3.32570e-01,2.11922e-01,-1.41353e-01,-5.57053e-02,6.16993e-01,-5.97459e-02,3.09279e-01,8.96729e-02,
2.33755e-01,-5.77577e-01,-4.29693e-03,1.23177e-01,-1.34153e-01,-4.03173e-01,-3.11010e-01,2.41356e-01,-3.27784e-01,3.47186e-01,
1.98204e-01,6.96546e-01,1.32642e-01,-3.41513e-01,5.69806e-01,-3.20163e-01,-4.09651e-01,4.09373e-01,2.20875e-01,3.65459e-01,
-2.88981e-03,7.38393e-02,-3.09944e-02,-1.79316e-01,2.48021e-02,-1.63657e-01,-2.73851e-01,1.70916e-01,8.93608e-02,-3.90215e-03,
1.26229e-01,-4.02624e-01,1.46716e-01,-2.67634e-01,5.23518e-01,-2.65499e-01,-3.29088e-01,-2.77780e-01,7.60806e-02,4.89930e-01,
7.45228e-02,3.45681e-01,-9.84568e-02,-4.23962e-01,2.10986e-01,2.51051e-01,-2.54438e-02,-4.38650e-01,1.20242e-01,1.18953e-01,
-2.27620e-01,-7.07536e-01,3.05352e-01,3.32837e-01,2.96238e-01,3.46275e-02,-3.38545e-01,7.04223e-02,1.08698e-01,2.18548e-01,
-7.74254e-02,-8.17107e-01,-1.85959e-01,-3.49196e-01,2.69213e-01,-5.22787e-01,3.33962e-01,-3.19166e-01,1.78069e-01,2.78450e-01,
-7.08796e-01,1.19989e-01,2.74615e-01,-4.15256e-01,-2.31479e-01,6.88171e-01,-1.55913e-01,1.54544e-01,-7.01394e-01,-8.66399e-02,
-3.09419e-01,
-1.14983e-01,
3.72587e-01,
-1.20243e-01,
4.33589e-01,
4.87292e-01,
-2.86823e-01,
3.42501e-02,
-3.33870e-02,
-3.21255e-01,
-6.57959e-01,-1.34476e-01,-4.69161e-01,4.45911e-02,1.46769e-01,3.09815e-01,-3.61020e-01,6.97323e-03,4.90889e-01,7.92834e-02,
-4.86448e-01,-2.51711e-02,2.69619e-01,-7.79415e-02,-4.99362e-01,-2.69908e-01,7.98148e-02,2.94743e-01,3.72551e-01,1.81708e-01,
-1.84028e-01,-4.02960e-01,1.44575e-01,5.70950e-01,-6.89670e-02,2.94112e-01,1.26630e-01,-6.17101e-02,-3.73849e-01,2.07498e-01,
2.26885e-01,9.87825e-02,1.35441e-01,-4.14429e-01,1.68270e-01,-6.57560e-01,-1.48800e-01,-4.01001e-01,-1.93283e-01,6.56051e-02,
-2.81137e-01,-3.02627e-02,3.03988e-01,1.25054e-01,-3.09880e-01,-3.37335e-01,8.64664e-02,-2.03487e-01,-8.69428e-02,5.04681e-01,
-1.71241e-01,-3.43087e-01,-6.34846e-01,3.43825e-01,1.75259e-01,-1.62605e-01,3.78432e-01,-2.37859e-01,4.39653e-02,-7.46818e-02,
-1.44297e-01,-3.63166e-01,5.02899e-01,4.18872e-02,-4.03634e-01,-1.60582e-01,-4.88028e-01,-1.24330e-01,4.32013e-01,4.38127e-01,
2.59586e-01,-4.49215e-01,1.17515e-01,4.77641e-01,-5.97349e-01,2.75570e-01,3.11489e-01,-3.11724e-01,-1.93174e-01,-2.49998e-01,
-9.10011e-03,3.42641e-01,5.00367e-02,4.16530e-01,-3.08428e-01,3.70324e-02,1.34580e-01,-2.94860e-02,3.53822e-01,5.03590e-01,
-3.91590e-01,-7.58709e-01,-3.70312e-01,1.62828e-02,8.89415e-02,2.00986e-01,4.21331e-01,-8.07205e-01,5.68455e-02,-1.17275e-01,
2.67835e-01,
1.05999e-01,
1.99084e-03,
-7.93447e-02,
-3.52061e-01,
-3.11964e-02,
2.12947e-01,
-1.98464e-01,
1.43842e-01,
-1.69239e-01,
-2.34929e-01,5.55857e-02,-4.44451e-01,-4.09408e-01,-2.57933e-01,3.54166e-02,-1.27798e-03,-1.67837e-01,2.11502e-01,4.47618e-01,
2.02668e-01,-2.30022e-01,1.80654e-01,-5.54384e-01,4.24100e-01,-3.22773e-01,1.00397e-01,-1.67946e-01,-3.11000e-02,-2.02229e-01,
4.04817e-02,1.07283e-01,-6.18143e-01,-2.83541e-01,-4.24157e-02,-2.84023e-01,-2.01704e-01,1.19842e-02,1.36980e-01,-1.43994e-01,
-1.17487e+00,-4.36350e-01,4.88754e-01,-3.17598e-01,-1.77567e-02,-6.93357e-02,6.57598e-01,-1.29046e-01,-3.05148e-01,-1.08951e-01,
3.50425e-01,5.16145e-01,1.70110e-01,1.65855e-01,-2.89830e-03,5.96764e-02,-3.28989e-01,4.98102e-02,9.77238e-02,-1.60063e-02,
-2.30514e-01,-1.82693e-01,2.41761e-01,-1.70271e-02,-3.80227e-01,9.61254e-02,3.87194e-01,3.38156e-01,-1.06492e-01,5.29013e-02,
7.84314e-02,9.65018e-02,8.17006e-02,-1.67858e-01,-1.32040e-01,5.88375e-01,3.20740e-01,2.57499e-01,5.09208e-01,1.70767e-01,
-3.98801e-01,-1.62169e-01,-1.78855e-01,6.78730e-02,-6.72251e-01,-2.33465e-01,3.32822e-01,-9.13584e-03,-9.67932e-02,8.15913e-04,
4.15332e-02,5.09489e-02,-1.75540e-01,-5.08053e-01,-2.07034e-01,-2.49002e-01,4.65607e-01,-2.85656e-01,-1.05448e+00,-1.95534e-01,
3.77518e-01,-1.66288e-01,-1.17224e-01,-7.77671e-03,-9.25555e-02,-2.20891e-01,-1.59486e-01,-2.47061e-02,5.05439e-01,1.43904e-01,
8.87083e-02,
-3.09291e-01,
2.87639e-01,
2.19993e-01,
-2.87679e-02,
-7.42406e-02,
-3.59497e-01,
-9.95579e-02,
1.03611e-01,
-6.78419e-01,
8.09020e-02,-1.19494e-01,-4.17137e-01,3.61675e-01,-1.45625e-02,-5.09653e-01,8.07264e-02,-1.13289e-02,4.02217e-01,3.62323e-01,
8.94372e-02,2.46657e-01,2.10753e-01,-4.68213e-02,4.64676e-02,2.72351e-01,7.53001e-02,5.76500e-01,1.78401e-01,-4.74727e-02,
8.62110e-02,-1.66086e-01,-2.00359e-01,-2.65704e-01,7.00708e-02,-2.96824e-01,1.59151e-01,9.70499e-02,5.45211e-01,4.34657e-04,
-1.99057e-01,-6.28959e-02,5.75988e-01,1.05966e-01,-1.56240e-02,1.02165e-02,3.19691e-01,5.24515e-02,-2.52361e-01,4.71569e-03,
-5.00081e-01,-5.03903e-02,1.42219e-01,-2.06643e-01,5.56106e-02,-1.74247e-01,2.50503e-01,-3.82186e-01,7.86574e-01,-5.61184e-01,
3.73785e-01,-5.06814e-01,-2.85984e-01,2.77423e-02,-1.07238e-01,-7.38863e-03,1.06840e-01,-5.90746e-02,1.71775e-01,-2.18274e-01,
4.39215e-01,-2.77758e-01,-2.02404e-01,1.43831e-01,4.69882e-01,-1.55886e-01,1.07560e-01,-1.23712e-01,3.01201e-01,-3.13754e-01,
-5.58367e-02,-3.42152e-01,-6.23692e-01,-3.14036e-01,-2.64648e-01,1.28448e-01,-1.14617e-01,-6.04291e-02,-1.08951e-01,-1.50084e-02,
5.99631e-01,5.08668e-01,7.15322e-03,1.05957e-01,4.52076e-01,5.74694e-02,1.59964e-01,-1.67021e-01,-1.69836e-01,2.28925e-01,
4.53158e-01,9.90330e-01,-3.05345e-01,-3.65998e-01,-3.59708e-01,-2.32410e-02,-9.66594e-02,-1.38315e-01,5.34608e-01,-4.55045e-01,
2.02973e-01,
3.38573e-01,
-3.38762e-01,
-4.97720e-01,
8.63910e-02,
1.70176e-01,
1.76951e-01,
-4.06536e-02,
1.29972e-01,
2.97573e-01,
-7.27095e-01,-2.94255e-01,1.32479e-01,1.17270e-01,7.27339e-01,7.12541e-01,1.53553e-01,4.88860e-01,2.35911e-01,1.85384e-01,
-2.78215e-03,-1.97762e-01,-1.63059e-01,1.48778e-01,-1.87275e-01,-1.41050e-01,5.65494e-01,3.16818e-01,4.77986e-01,4.39692e-01,
-1.47134e-01,6.29603e-01,1.19453e-01,-5.25587e-01,-3.31042e-01,2.44314e-01,2.29975e-01,-6.07711e-01,-3.24012e-01,1.53188e-01,
1.87343e-01,-3.27228e-01,-5.44912e-02,2.59942e-01,-2.57332e-01,2.33003e-01,-3.70677e-01,-2.36522e-01,-1.54761e-01,4.84638e-01,
3.44733e-01,-4.90909e-01,-2.70620e-01,3.76217e-01,-3.89698e-01,2.22385e-01,-2.06256e-02,5.03287e-02,-2.14211e-01,5.09194e-02,
-3.16560e-02,4.64120e-02,-7.37889e-02,4.02646e-01,2.39735e-01,4.87599e-01,-5.50098e-02,-3.97176e-01,-3.79597e-01,-1.10979e-01,
5.11131e-01,2.25312e-01,4.42124e-01,-5.43387e-02,-2.48107e-01,5.82183e-02,2.85473e-01,1.84780e-01,-3.16906e-02,1.67718e-01,
-4.38224e-01,3.27331e-01,-1.22753e-01,-6.17641e-01,1.79193e-01,-5.53983e-01,-8.92884e-01,4.71861e-01,1.30732e-01,5.07557e-01,
1.07227e-01,2.23840e-01,-1.08260e-01,-4.46785e-01,4.27020e-03,-5.06926e-01,3.92301e-01,2.75473e-01,3.96564e-01,-1.57000e-01,
6.63566e-01,6.24483e-01,2.35270e-01,-5.26017e-02,-2.85367e-01,5.35616e-01,-1.34624e-01,-8.41518e-01,-2.13775e-01,-2.68136e-01,
1.73548e-01,
3.09619e-01,
1.84478e-01,
-1.89252e-01,
-1.07961e-01,
-4.98482e-02,
-5.74587e-01,
3.98062e-01,
-3.35584e-02,
-3.12805e-01,
-3.35755e-01,-8.67765e-02,-7.23140e-01,-5.97368e-01,-4.30960e-01,3.34249e-01,8.27892e-01,6.76264e-03,1.03770e-01,-5.99870e-01,
-1.81960e-01,1.75485e-01,-4.70755e-01,-5.04067e-01,-1.24120e-01,-3.16268e-01,3.83764e-01,2.16471e-02,8.10956e-02,3.33001e-01,
2.64543e-01,-1.36070e-01,4.09884e-01,-2.49295e-01,-1.75485e-01,4.85741e-01,4.37858e-01,5.17856e-01,-3.48144e-02,-3.21274e-03,
2.23230e-01,1.67953e-03,-1.12425e-01,-1.36517e-01,4.35623e-01,-1.46673e-01,4.03533e-01,-3.18238e-01,8.29877e-01,-1.16187e-01,
3.23382e-01,-7.67527e-02,3.90272e-01,-3.21394e-02,-6.76895e-02,-3.43224e-01,-7.75408e-01,4.17459e-02,2.19711e-01,-1.34435e-01,
1.49861e-01,-2.34158e-01,4.50100e-01,-3.53390e-01,-2.65052e-01,2.48339e-01,-7.83991e-02,-6.24942e-01,1.88431e-01,2.99307e-01,
2.00724e-02,4.91097e-01,1.05696e-01,-4.07123e-01,-6.14786e-01,-7.15650e-01,4.38127e-01,-1.18106e-01,-2.42790e-01,6.32473e-02,
-4.17674e-01,3.73141e-01,-6.79580e-02,1.60294e-01,9.61395e-02,4.52844e-01,1.32455e-01,6.68469e-01,-1.09872e-01,-5.21984e-02,
1.16247e-01,1.88751e-01,-3.87521e-01,4.54358e-02,-4.13482e-01,9.57946e-04,-3.72436e-01,2.12055e-01,3.23313e-03,3.09270e-01,
-1.12510e-02,-2.67162e-02,9.60250e-02,-2.00916e-01,-2.58807e-01,7.82634e-01,-5.66072e-02,-3.48109e-01,1.21701e-01,-5.18493e-01,
1.58820e-01,
7.67845e-02,
2.47928e-01,
-3.67175e-02,
-9.56738e-02,
3.55141e-01,
1.15217e-01,
-9.22222e-02,
3.76365e-01,
1.29083e-01,
8.36416e-02,-1.11209e-01,-3.81175e-01,1.45254e-01,-2.37913e-01,-1.56906e-01,2.66283e-01,-3.60501e-01,-1.01363e-01,1.58763e-01,
-1.30683e-01,-1.24575e-01,-1.69003e-01,-4.55204e-01,-4.43314e-01,3.71886e-02,6.62788e-02,-1.51916e-01,-1.18948e-01,5.33434e-02,
2.32652e-01,-1.07658e-01,4.59132e-02,-1.60277e-01,7.48270e-02,7.17703e-01,1.53398e-02,-5.09638e-02,4.13464e-02,-3.75062e-01,
-3.19488e-01,4.05278e-01,3.72897e-01,5.94516e-01,3.01960e-01,4.00395e-01,-5.24380e-02,-6.38310e-01,-3.73836e-01,1.43844e-01,
-6.98420e-01,-5.65190e-03,-2.32397e-01,6.10639e-02,2.48458e-01,-1.53221e-01,-4.64458e-01,-4.39410e-01,7.57479e-01,3.56418e-02,
-2.82655e-01,-7.01454e-01,7.03966e-02,2.48369e-01,-3.73295e-01,-4.02364e-01,6.88653e-01,-1.87243e-01,-4.23489e-01,2.54742e-01,
-6.55452e-01,-1.27471e-01,2.54855e-01,-5.51648e-01,-6.42960e-02,1.71667e-01,-2.24054e-01,1.53729e-01,-6.81963e-02,1.14324e-01,
2.31872e-01,1.16047e-02,8.31483e-03,-3.41370e-01,-4.34150e-02,-1.02542e-01,-5.79729e-01,-4.99999e-01,3.58697e-01,-7.35165e-01,
3.85112e-01,-5.17841e-01,5.20022e-01,-6.66426e-01,2.76810e-01,1.57659e-01,5.68979e-01,3.57800e-01,-4.56332e-01,1.24663e-01,
2.52409e-01,7.18253e-01,6.03558e-01,4.62686e-01,3.32020e-01,-3.49315e-01,-4.10544e-01,4.11125e-02,-2.09734e-01,4.33017e-01,
-2.72548e-01,
-2.08596e-01,
-2.48481e-01,
5.73178e-02,
-7.28723e-02,
4.67925e-01,
-2.26999e-01,
3.41079e-01,
2.81638e-01,
-3.10163e-02,
6.52506e-01,-6.44010e-02,1.73810e-01,2.73974e-01,-3.47906e-01,-7.23142e-02,9.76746e-02,-4.78912e-01,-1.82945e-01,-1.35883e-02,
7.01098e-01,-7.39538e-01,2.62859e-01,-5.39213e-01,2.82281e-01,-9.67568e-02,1.47476e-01,4.53868e-01,-2.73959e-01,-6.56646e-02,
2.00197e-01,-4.97820e-01,-2.16000e-01,-2.37889e-01,-1.56442e-01,-2.24729e-02,8.61711e-02,-3.50452e-01,-3.00646e-01,3.26508e-01,
2.95635e-02,6.21256e-02,7.08222e-02,6.26856e-01,-8.15287e-02,-3.28888e-01,5.56829e-02,3.74524e-02,2.85402e-01,5.95144e-03,
2.91143e-01,1.08788e-01,2.57719e-01,5.05383e-01,2.12647e-01,-2.37414e-01,-3.58897e-01,4.99541e-01,-9.75813e-02,4.97954e-01,
-5.77470e-01,-3.76797e-01,-2.80127e-01,-5.96658e-01,4.94973e-01,1.09370e-01,2.53946e-01,-5.53704e-02,1.28425e-01,-3.07310e-01,
-1.13102e-01,-7.05903e-01,-2.20064e-01,-2.94565e-01,2.19720e-01,4.44457e-01,1.52316e-01,2.36534e-01,-1.41097e-01,3.64299e-01,
5.61730e-01,-2.48781e-05,4.37376e-01,-3.21797e-01,-9.83091e-03,-5.55367e-01,-3.44115e-01,8.36509e-03,-5.36086e-01,7.09353e-01,
1.06005e-01,-9.15757e-02,1.93007e-01,-6.84395e-02,-6.45754e-01,6.76873e-01,-8.14225e-02,-6.63737e-01,1.02011e-01,4.02638e-01,
2.00676e-01,6.57067e-02,-2.65536e-01,3.15873e-02,4.60417e-01,7.76720e-02,-1.34636e-01,-2.43572e-01,1.42318e-01,-1.93064e-01,
-6.21226e-01,
1.58561e-01,
4.41588e-01,
-5.58574e-01,
-4.13110e-01,
-2.60396e-01,
6.18753e-01,
-3.23993e-01,
-3.13329e-01,
-2.40356e-01,
1.48095e-01,3.87819e-01,-1.20716e-01,-2.87182e-01,-3.82177e-01,3.36864e-01,-1.27569e-01,3.27451e-01,-1.75197e-01,-1.53200e-01,
-8.80478e-02,-9.00850e-02,-1.08115e-01,2.13848e-01,-8.20312e-01,-2.57571e-01,2.42284e-01,-1.59865e-01,6.23684e-01,-1.68721e-01,
-4.71951e-01,3.96594e-01,6.23716e-01,-7.75158e-01,-7.08139e-02,2.21564e-02,-1.18883e-01,6.15421e-01,-2.00208e-01,3.41712e-01,
-1.52886e-02,-8.00532e-02,-3.21026e-01,4.84465e-01,3.10763e-01,3.26114e-01,-2.41548e-01,7.61251e-01,3.23959e-01,2.42543e-01,
6.65436e-02,-2.71788e-01,1.12691e-01,-9.85588e-02,-1.57615e-02,3.10385e-02,-4.67390e-01,3.07050e-02,1.31042e-01,-2.95929e-01,
-3.00883e-01,4.25839e-01,-8.14875e-01,1.96980e-01,2.55377e-01,4.00159e-02,-1.86487e-01,1.53876e-01,5.73715e-01,4.50132e-02,
-4.60802e-01,-1.28796e-02,-6.30006e-01,8.85585e-03,-3.39150e-02,5.58702e-01,-3.93301e-01,3.43200e-01,-4.62565e-01,-1.84119e-01,
3.10878e-01,4.76630e-01,-1.89549e-01,-7.70055e-02,3.97768e-01,3.32148e-01,4.07506e-02,4.62481e-01,5.38502e-01,-1.26484e-01,
-4.19211e-03,-4.57050e-01,-2.54206e-03,4.34044e-02,2.59469e-01,4.03363e-01,-3.21585e-01,-2.01053e-01,-1.30686e-01,1.43798e-01,
-4.39342e-02,-7.21867e-02,2.01212e-01,8.45376e-01,-2.43489e-01,6.89139e-01,-1.61748e-01,5.86795e-01,-3.58605e-01,1.06942e-01,
-3.62676e-01,
-8.09306e-02,
1.69763e-02,
-1.48103e-01,
-4.61318e-01,
-3.63461e-01,
4.10925e-01,
1.51138e-01,
-3.78306e-02,
5.20772e-02,
-1.68095e-02,-2.66116e-01,-2.48061e-01,-7.56352e-01,2.34841e-02,6.38399e-01,4.64037e-01,2.39208e-01,1.78812e-01,-2.24541e-01,
-2.91955e-01,-1.77908e-01,3.47353e-01,-4.45740e-01,-1.98257e-01,1.32613e-01,-4.78653e-01,3.92750e-01,-5.65903e-04,3.69933e-02,
-1.23718e-01,1.34959e-01,-2.02812e-02,2.36700e-01,1.70487e-02,-2.62492e-01,-8.75787e-02,1.13041e-01,-4.61682e-01,4.22878e-02,
5.45628e-02,-1.28605e-01,2.98339e-02,1.74686e-01,-1.74017e-02,-7.44627e-02,-1.79938e-01,6.38614e-01,2.12243e-01,-3.80283e-01,
2.01901e-01,-2.00951e-01,-3.01293e-01,-2.54211e-01,3.50629e-01,4.33039e-01,4.97686e-02,-2.44112e-01,1.97922e-01,-4.13423e-01,
2.77949e-01,-3.96606e-02,2.02011e-01,-1.11880e+00,-2.05209e-01,-1.96571e-01,-6.22582e-02,-1.37928e-02,-3.45362e-01,-9.53941e-02,
1.40537e-01,-3.36901e-01,-3.43002e-01,6.49284e-02,-4.09101e-01,3.00955e-01,3.89790e-03,-9.64873e-01,6.18052e-01,1.05287e-01,
-2.60176e-01,-5.14505e-01,1.41619e-02,-5.21764e-01,1.30419e-01,1.53241e-01,-2.22723e-01,-2.07170e-03,-5.08535e-01,3.41030e-01,
3.13884e-02,-1.84111e-01,-5.16698e-01,1.89079e-01,3.89312e-01,-2.03425e-01,-1.18819e-01,5.04844e-01,7.54025e-01,4.37865e-01,
4.57174e-01,3.47858e-03,-4.92218e-01,-1.35584e-01,2.76489e-01,3.75377e-01,-9.12076e-02,-8.54497e-01,6.92556e-02,1.23008e-01,
-2.52258e-01,
4.50003e-01,
3.59644e-03,
9.15007e-01,
4.76484e-02,
6.34130e-02,
2.43180e-01,
-3.14739e-01,
2.24543e-01,
2.49092e-01,
-5.39739e-02,9.23053e-04,3.29299e-01,3.26987e-01,2.20196e-01,-5.02458e-01,-1.55968e-01,1.36779e-01,2.36119e-01,3.37360e-01,
-3.07759e-01,-1.44843e-01,3.34643e-01,2.47657e-01,-9.50609e-02,5.32559e-02,7.69419e-02,3.13680e-01,-3.62724e-02,-1.38526e-01,
-3.19895e-01,9.78649e-02,9.72785e-02,-1.68869e-02,2.44624e-01,1.37103e-01,1.39941e-01,2.05979e-01,3.83211e-01,-2.55130e-01,
-3.13309e-01,3.67155e-01,-3.69510e-01,3.88229e-01,1.71622e-01,-1.32430e-01,-6.04873e-02,4.03936e-01,-1.26293e-03,-3.70219e-02,
-2.65048e-01,1.58525e-01,6.77107e-02,-3.44175e-01,1.75984e-02,-2.07762e-01,-4.87925e-01,1.23804e-02,4.69782e-02,-2.24188e-01,
-3.06924e-01,-1.05616e-01,-1.85543e-01,1.52903e-01,3.80139e-01,-3.61260e-03,1.21310e-01,1.54159e-01,-6.59913e-02,-3.20270e-01,
2.41518e-01,1.18978e-01,4.33152e-01,-4.36819e-01,3.18582e-01,-3.28445e-01,2.24636e-01,2.81684e-01,5.69455e-01,3.09351e-01,
7.24806e-01,-1.73967e-01,-1.73000e-01,-4.64968e-01,-5.50086e-01,7.16864e-02,-8.00570e-02,-3.00810e-01,4.51156e-01,-1.25891e-01,
-3.50057e-01,2.18218e-01,-1.54596e-01,-3.39694e-01,-2.07531e-01,2.51277e-01,3.84488e-02,5.64205e-01,4.01527e-01,8.16464e-02,
7.54340e-01,-1.07787e-01,-4.05750e-01,5.59286e-01,3.63488e-01,-2.46787e-01,-8.02168e-01,5.16065e-02,2.50498e-03,-1.01579e-01,
-1.04528e-02,
2.36043e-01,
4.85411e-01,
3.44947e-02,
-2.36868e-01,
-1.10385e-01,
-2.06724e-01,
1.12324e-01,
2.85284e-01,
1.43880e-01,
-1.35184e-01,-7.54942e-02,9.64292e-02,-1.89976e-01,-4.27999e-01,1.14026e-01,-7.55469e-02,-3.52703e-01,-1.07334e+00,-3.72786e-01,
2.77524e-01,3.29112e-01,-8.55349e-02,1.88293e-01,-1.17323e-02,-1.95828e-01,8.46783e-02,-5.61527e-01,-7.47026e-01,-1.66436e-02,
-7.52869e-02,2.14053e-01,-3.24712e-01,5.47042e-01,-8.15068e-02,3.21675e-01,-6.48535e-01,-6.58549e-01,-3.83483e-01,-1.60203e-01,
5.23478e-01,-3.38941e-01,1.59294e-01,-6.09216e-01,3.92533e-01,1.24914e-01,-1.73104e-02,2.50754e-01,-2.73546e-01,9.38996e-02,
4.80020e-01,-3.72216e-01,-4.45892e-01,1.00023e-01,-3.91858e-01,-2.40133e-01,1.10277e-01,6.98263e-01,-1.93482e-01,-5.15272e-01,
-1.19420e-01,5.96430e-02,2.06810e-01,1.27327e-01,2.96853e-01,6.38589e-02,-1.40228e-02,-1.62999e-01,-4.70530e-01,-1.52797e-01,
-1.42666e-01,-3.86883e-01,2.94532e-01,9.46539e-02,1.08173e-02,-9.03313e-02,2.02173e-01,-2.89977e-01,-4.14618e-01,2.58185e-01,
2.12132e-01,4.99032e-01,1.64801e-01,-7.36251e-02,1.17948e-01,-1.96799e-01,-3.64631e-06,-1.74780e-01,1.57889e-01,4.43556e-01,
3.23056e-01,1.98418e-02,-7.38635e-02,4.58638e-01,-5.97842e-01,-2.54705e-01,1.05370e-02,-6.27557e-01,3.17482e-01,-2.11290e-02,
1.18375e-01,4.32223e-02,3.33234e-01,-2.05351e-01,3.22041e-01,-3.67045e-01,5.53434e-02,8.42439e-01,3.90923e-02,4.79245e-01,
-7.59386e-03,
1.64667e-01,
6.55709e-01,
-1.66158e-01,
-1.77891e-01,
-1.46249e-01,
7.76325e-01,
-9.28149e-02,
3.04399e-02,
2.80024e-01,
1.03531e-01,6.39870e-01,-4.46312e-02,2.27592e-01,6.15700e-02,2.86228e-01,-5.75299e-01,-2.31374e-01,1.23467e-01,2.43840e-01,
-1.67052e-02,-3.16534e-01,-3.49505e-01,5.54369e-01,-3.07275e-01,3.56581e-01,2.78633e-01,7.91166e-01,6.13025e-01,4.36774e-01,
2.20885e-01,7.15539e-01,4.12233e-01,5.87322e-01,6.92881e-03,-2.90759e-01,3.60947e-01,-1.35923e-01,3.45248e-01,-5.18409e-01,
-3.37982e-01,4.62619e-01,3.51955e-01,-4.86593e-01,-8.14964e-02,-6.09955e-01,-2.24133e-01,6.05293e-01,-1.09803e-01,-2.94831e-02,
6.31097e-01,1.08137e-01,-5.86946e-01,2.74668e-01,2.87250e-01,6.76711e-01,-7.52898e-01,4.37674e-01,4.73537e-02,-1.58541e-01,
-1.40094e-02,-6.59517e-01,-6.44668e-02,-1.31656e-02,3.65401e-01,-1.66225e-01,6.29198e-01,3.24723e-01,-1.94816e-02,6.20445e-02,
-1.48639e-01,7.97290e-02,2.41732e-01,1.49086e-01,4.40057e-02,2.29380e-03,4.64725e-01,-2.07558e-01,3.91155e-01,-2.92308e-01,
6.99461e-01,-1.09232e-01,2.63113e-01,4.82531e-02,-2.65555e-01,-6.44549e-01,7.64699e-01,7.90973e-02,2.77915e-01,-1.38041e-01,
-3.61852e-01,7.58952e-02,2.66348e-01,3.45252e-01,-5.71083e-01,-5.79934e-01,-2.70776e-02,-2.22682e-02,-7.06954e-02,1.25138e+00,
5.91807e-01,9.08131e-02,-5.38756e-01,2.40775e-01,1.22297e-01,3.12396e-01,-4.68327e-01,4.63741e-01,-4.97552e-01,-4.36703e-02,
5.48443e-02,
-4.56577e-01,
-3.77311e-02,
-2.93696e-01,
-5.29090e-01,
-4.28181e-01,
-1.13677e-01,
-6.30131e-02,
-1.70146e-01,
-5.21977e-01,
-4.90023e-01,3.09318e-01,2.51208e-01,2.84050e-01,-5.33497e-01,2.13750e-01,3.05580e-01,1.01381e-01,-3.98806e-01,-5.04039e-01,
3.23902e-01,-4.58853e-01,2.70261e-01,2.75765e-01,2.50648e-01,2.43263e-01,1.40733e-01,3.82954e-01,7.44386e-01,-2.48026e-01,
4.51609e-01,-1.89103e-01,4.02479e-01,5.68189e-01,1.09118e-01,-6.28024e-01,3.10550e-01,-2.42393e-01,-1.97036e-01,-3.13072e-02,
5.07983e-01,-4.25244e-01,-4.31322e-01,7.04138e-03,-1.53228e-01,-4.08575e-01,-3.51944e-02,-4.47222e-01,7.92958e-01,-2.99944e-02,
3.89983e-01,3.72286e-01,1.60050e-01,-3.73614e-01,6.27499e-01,3.62450e-01,3.02306e-01,-5.65577e-01,-6.09011e-01,-4.37156e-01,
-9.39983e-02,1.27511e-01,-5.74327e-01,1.64227e-02,-5.91094e-01,-1.45124e-01,-6.73279e-01,4.04629e-01,-1.78004e-01,1.18579e-01,
1.81947e-01,4.06568e-02,-6.56512e-01,-3.40422e-01,1.87245e-01,-1.24818e-03,-3.48023e-01,-5.99511e-01,1.50668e-01,-1.46564e-01,
1.79036e-01,-2.84627e-02,1.39423e-01,-4.13687e-01,-1.60153e-01,-5.91828e-02,3.25577e-01,-2.26907e-01,7.72347e-02,1.44641e-01,
-1.90794e-01,-3.92648e-01,-3.20380e-01,1.97020e-01,-6.56040e-01,3.30599e-01,3.36497e-01,-4.17719e-01,-1.21493e-01,-1.26526e-01,
-3.77589e-01,-3.78606e-01,3.04208e-01,2.86159e-01,-9.58245e-03,-3.89342e-01,3.94477e-01,2.90962e-01,6.05965e-03,-1.88919e-01,
-4.30574e-01,
-1.04600e-01,
3.60794e-01,
8.40481e-01,
1.69560e-01,
1.52011e-01,
9.42874e-02,
-1.40978e-02,
4.57662e-03,
2.83203e-01,
-3.00180e-01,-2.26875e-01,4.39691e-01,-1.41759e-01,-2.62092e-01,8.40362e-02,-4.52337e-01,1.74014e-01,-2.92814e-01,-1.87906e-01,
-1.64303e-01,4.63149e-02,-4.20619e-02,-1.70660e-03,-1.47671e-01,2.65540e-01,-3.66391e-01,2.05831e-01,6.39148e-01,-3.13093e-01,
2.16988e-01,-2.33287e-01,-4.11560e-01,-1.65658e-01,5.93979e-01,-3.40034e-01,2.21858e-01,-7.09478e-01,7.63860e-02,2.26210e-01,
-7.48501e-02,3.21765e-01,-5.57519e-03,-7.77395e-01,8.78046e-01,2.96689e-01,4.42753e-01,-3.12342e-01,-1.28698e-01,2.63067e-01,
-6.17608e-02,3.44825e-01,-1.00560e-03,1.63373e-01,-1.35739e-01,8.32943e-02,-1.67783e-01,3.54271e-02,-4.30870e-01,-1.30471e-01,
5.22759e-02,-3.24993e-01,2.86561e-01,-3.37717e-01,-1.20886e-01,1.26010e-01,-1.09699e-01,4.40461e-01,-9.15883e-02,1.96215e-01,
-8.01763e-02,-2.56611e-02,7.22933e-01,2.89566e-01,4.42008e-01,-4.31075e-02,-4.97904e-01,-7.05444e-02,-2.00851e-01,3.61205e-01,
-1.60992e-01,-4.53832e-01,-3.84134e-01,-3.29763e-02,-2.50406e-01,3.66862e-01,-3.54305e-01,-3.35422e-01,2.97116e-01,1.37398e-01,
2.14857e-01,1.05705e-01,-2.93755e-01,6.95153e-03,4.02509e-01,4.50984e-01,-2.85777e-01,-3.50867e-02,2.28017e-01,-3.76069e-01,
-1.84237e-01,2.43824e-01,1.11044e-01,2.79528e-01,6.70042e-01,5.03725e-01,1.27664e-01,1.98158e-01,-2.17801e-01,4.40662e-01,
-7.20504e-02,
-2.88902e-01,
-1.37760e-01,
-5.30662e-02,
1.10051e-01,
1.46864e-01,
2.62799e-01,
1.79785e-01,
3.87773e-01,
9.73747e-02,
3.95566e-01,4.05804e-01,-1.33916e-01,2.37019e-02,-4.62142e-01,-4.44225e-01,-3.84887e-01,-6.69830e-01,-4.52128e-01,-2.09541e-01,
-2.09618e-02,-4.01906e-01,5.79819e-01,6.19446e-01,5.08952e-01,-1.84294e-02,-3.08240e-01,4.26263e-01,3.75796e-01,-1.11421e-01,
2.18776e-01,2.00611e-01,3.23987e-01,-1.52883e-01,5.43859e-01,-1.32785e-01,-4.30185e-01,-1.36967e-01,2.62890e-01,-1.90031e-01,
4.54598e-01,3.81806e-03,1.95528e-01,-2.31409e-01,-3.43318e-01,-5.06705e-02,-4.47445e-01,-1.18761e-01,-6.23737e-02,-1.00114e-01,
6.08764e-01,-1.25219e-01,1.03674e-02,1.67213e-01,-4.71633e-01,-6.93809e-01,-2.29367e-01,6.61132e-01,-3.41869e-02,-1.43207e-01,
2.93146e-01,-5.43616e-01,-3.90003e-01,-7.10575e-02,4.65629e-01,1.09284e-01,-3.10918e-01,2.75199e-01,3.51092e-01,-7.22577e-02,
1.16905e-01,-2.08757e-01,1.73318e-01,-3.06111e-01,-4.97477e-02,4.15309e-01,4.16034e-01,5.32236e-01,-2.09864e-01,-2.01364e-01,
3.78565e-01,9.84972e-01,-9.26028e-02,3.75442e-01,5.70522e-01,-1.37814e-02,1.15666e-01,-1.45551e-02,6.63347e-01,-4.53580e-01,
3.19342e-02,-5.45083e-02,2.81989e-01,-5.53232e-02,-2.39605e-01,-2.53270e-01,-4.81759e-01,-5.14735e-02,-3.73485e-02,-3.21531e-01,
-1.24149e-01,-2.87238e-01,1.49704e-01,-1.40445e-01,2.39985e-01,3.27486e-01,2.46968e-01,-5.73354e-01,-1.63585e-01,2.37801e-01,
-3.54387e-01,
-4.79931e-01,
4.61240e-01,
-3.95733e-02,
-6.92440e-01,
5.25266e-01,
3.40162e-01,
1.33091e-01,
3.60995e-02,
-5.65929e-02,
-1.54413e-01,3.41682e-01,-3.19335e-01,-4.62902e-01,-3.21689e-01,1.02696e-01,3.83606e-01,1.92037e-01,1.34385e-01,7.95715e-02,
5.80671e-03,4.74601e-01,-1.02167e-01,6.56502e-02,-3.19615e-01,-1.20901e-01,1.45475e-01,2.58243e-01,6.83038e-01,1.15727e-01,
5.51494e-01,5.73226e-01,-2.89001e-01,-1.07989e-01,8.14618e-02,-1.56316e-01,3.82963e-01,7.78316e-01,-3.97992e-03,2.89754e-01,
-3.97361e-02,-6.67404e-01,-2.26893e-01,-2.39864e-01,2.95341e-01,3.49170e-01,3.13687e-01,5.93009e-01,-6.35728e-02,-8.07663e-02,
7.45886e-02,-7.93627e-02,-1.18192e-01,1.68977e-01,-2.27792e-01,-6.56497e-03,-6.48070e-01,-1.08536e+00,5.71848e-01,3.03222e-01,
1.68999e-02,1.15172e-01,3.06050e-01,5.47331e-01,1.17671e-01,-1.57821e-01,-4.78969e-01,4.27371e-01,-2.16447e-01,-8.08563e-01,
-2.62664e-01,-1.20084e-01,-3.86309e-01,-2.55438e-01,-2.98437e-01,-2.46842e-01,-2.42742e-01,2.96806e-01,3.46223e-01,4.24497e-01,
-2.42866e-01,2.77160e-01,2.12502e-01,-5.35205e-01,-6.00482e-02,1.63075e-01,-2.43833e-01,3.28009e-01,-2.70821e-01,1.60968e-01,
4.26049e-01,3.33419e-01,3.80577e-01,6.49807e-01,1.28147e-04,-2.19812e-01,-1.19018e-01,4.49503e-01,9.87589e-02,1.88393e-01,
5.18590e-01,3.36668e-01,-2.61358e-01,-4.10522e-02,-5.60815e-01,4.92307e-03,-5.46557e-01,-4.77155e-01,2.21432e-01,3.24008e-01,
-3.49306e-02,
3.36119e-01,
3.99063e-01,
-1.69605e-01,
-3.17572e-01,
4.33349e-01,
-9.29389e-02,
4.46895e-02,
4.58842e-01,
-2.44400e-01,
3.66847e-01,1.38268e-01,-3.30302e-01,1.87723e-01,-1.32277e-01,-1.82490e-01,5.13372e-01,-5.71030e-01,2.02142e-01,-2.58864e-02,
1.44163e-02,-4.45828e-01,-2.23079e-01,-1.53151e-01,9.27399e-01,4.52838e-01,-2.88628e-01,-3.77548e-01,-1.11390e-01,9.36428e-02,
-1.39530e-01,4.36196e-01,-2.67749e-01,-9.42236e-02,9.95225e-01,-1.68564e-01,-1.30636e-01,-2.92186e-01,-2.22988e-01,-2.88428e-01,
-3.81987e-01,8.66781e-01,-2.93649e-01,3.27319e-01,3.31643e-02,5.27227e-02,-1.42026e-02,-1.01147e-02,7.91361e-02,-8.49468e-02,
8.57075e-02,5.73894e-02,-3.89383e-01,-1.36828e-01,-4.10320e-01,-1.73080e-01,1.88390e-01,-1.64675e-01,-4.82082e-01,1.51414e-01,
4.59854e-01,1.39835e-01,1.85178e-01,2.42946e-01,-8.27657e-02,-4.00210e-02,1.51863e-01,4.99485e-01,-3.66739e-01,-1.81924e-03,
1.04648e-01,-5.19446e-01,-2.47062e-01,-3.49574e-02,-1.24096e-01,-1.41248e-01,6.99707e-01,9.43639e-02,5.96124e-01,2.92679e-01,
1.19354e-01,-5.20951e-02,7.15119e-01,-1.63967e-01,-4.95670e-01,-5.50475e-02,-1.33838e-01,1.30445e-01,2.90081e-01,3.13749e-01,
2.52552e-02,-9.79906e-02,-2.95956e-01,4.92414e-01,-2.39703e-01,7.89476e-01,-1.44771e-02,-1.19543e-02,3.53532e-01,3.41452e-01,
2.37405e-01,-4.86396e-02,-1.30893e-01,-1.62058e-01,5.55590e-02,1.14376e-02,1.80057e-01,-3.80876e-01,-1.07830e-01,5.83541e-01,
-4.16310e-01,
-2.16840e-01,
-2.70964e-02,
2.23629e-02,
-3.11576e-01,
-5.41599e-01,
1.19165e-01,
-5.47193e-01,
-5.40122e-01,
2.92957e-01,
-6.84208e-02,-1.80934e-01,-4.27099e-01,-7.22477e-02,9.49239e-03,1.45325e-01,2.80766e-01,-4.22600e-01,1.32842e-01,-2.45694e-01,
2.79801e-01,-2.97009e-01,3.54359e-01,-6.90735e-01,4.18179e-01,5.59767e-01,2.97568e-01,-5.36838e-02,2.83614e-01,1.10991e+00,
-4.53737e-01,5.21450e-01,-2.14683e-01,3.37354e-01,5.23983e-01,-5.29016e-01,1.34333e-01,2.72445e-01,-3.75576e-01,-2.59405e-01,
-1.94806e-01,2.73441e-01,4.27588e-01,-8.38371e-02,-4.98955e-02,4.02475e-01,-2.09181e-01,2.32634e-02,9.23549e-03,-4.86764e-01,
-1.78383e-01,9.25532e-01,5.99089e-01,-5.31637e-01,-1.84099e-01,-1.12947e-01,2.17681e-02,2.19859e-01,3.76646e-01,-1.93817e-01,
-4.50564e-02,2.93942e-01,-6.74726e-02,3.99742e-01,2.60945e-01,-1.23023e-01,-9.23435e-04,4.96211e-02,-1.96100e-01,-8.90789e-02,
7.04423e-01,3.62933e-02,7.18430e-02,-1.70788e-01,1.09286e-01,1.41583e-01,3.68028e-02,-1.13743e-01,-3.80200e-01,7.69753e-01,
9.33206e-02,4.35909e-01,-2.56243e-01,8.02617e-02,-8.92134e-02,-1.38520e-01,2.79408e-01,2.08590e-01,9.79771e-02,-5.41251e-03,
4.61927e-01,3.12289e-01,-1.21922e-01,-1.35132e-01,-2.58205e-01,-1.71945e-01,-1.75638e-01,5.07694e-01,2.85833e-01,1.37782e-01,
-8.59960e-02,-2.60650e-01,1.76522e-01,3.66542e-01,-1.99761e-01,2.10784e-01,1.78932e-01,-2.04405e-01,4.00871e-01,6.46169e-01,
-3.57732e-01,
-2.34237e-01,
1.41959e-01,
-7.10442e-01,
-1.46302e-02,
-1.71300e-02,
5.14170e-01,
4.31015e-01,
-2.62987e-01,
-1.21537e-02,
1.20824e-01,2.43384e-01,4.67594e-02,3.51056e-01,6.29966e-02,-1.69268e-01,-1.86501e-01,-4.65728e-01,-4.63694e-01,4.44270e-01,
1.99483e-02,9.11762e-02,-6.62642e-01,-1.69839e-01,1.62011e-01,6.63143e-01,1.88154e-01,1.29942e-01,-7.41798e-01,-2.51414e-01,
1.84611e-01,2.70511e-02,1.90471e-01,7.56897e-02,-2.66769e-01,-8.65165e-02,-1.28859e+00,-4.05379e-01,8.55069e-02,-2.18456e-01,
6.35188e-01,1.18493e-01,1.33273e-02,-2.73821e-01,-2.31901e-01,5.50750e-01,-2.33766e-01,-3.04796e-01,-3.17478e-01,-1.02850e-01,
6.02307e-01,-6.14437e-01,-7.67428e-01,-4.35988e-02,-1.27266e-01,-4.65299e-01,-3.65922e-02,-1.49317e-01,-1.15612e-01,-7.97910e-01,
-2.89136e-01,1.37748e-01,-4.99030e-01,-1.83135e-01,2.41589e-01,-7.22180e-01,-1.08182e-01,1.39721e-01,-9.48848e-02,-4.46852e-01,
5.55291e-02,7.48453e-01,1.74285e-02,1.06597e-01,5.17127e-01,2.69295e-01,-4.12578e-02,-6.16916e-01,-5.01446e-02,-3.49247e-01,
-4.63050e-01,1.38026e-01,-5.32634e-01,-5.03446e-01,-8.37319e-02,3.43963e-01,5.14217e-02,3.65423e-02,-6.14021e-01,9.45240e-02,
3.24134e-01,4.59199e-01,-8.84948e-01,-3.25450e-01,5.26654e-01,-1.91266e-01,-6.17310e-02,2.80227e-01,4.38777e-02,-1.88742e-01,
1.64106e-01,2.36316e-01,-8.49615e-02,-1.56521e-01,-3.54874e-01,-1.72741e-02,1.68227e-01,-3.81335e-01,-2.54307e-01,1.67389e-01,
-1.26968e-01,
-3.36657e-01,
2.97013e-02,
1.07337e-01,
4.53017e-01,
5.49427e-01,
-2.29687e-01,
4.68320e-01,
4.78059e-02,
1.95518e-01,
6.82889e-01,3.30457e-01,-1.10115e-01,-3.46877e-01,5.05552e-02,-6.88034e-01,2.95113e-01,1.84189e-01,-3.05246e-02,1.90280e-01,
-5.50508e-01,3.36706e-01,1.59927e-01,-2.22424e-01,-2.49927e-01,-2.80032e-01,-3.08228e-01,-6.21739e-02,-1.25984e-02,-3.34815e-01,
4.17595e-01,-2.13383e-01,-1.63951e-01,-7.16930e-02,-1.84470e-01,-1.23045e-01,-1.38772e-01,1.80248e-01,3.93748e-01,3.72620e-01,
8.87127e-02,3.99194e-01,-4.08003e-01,2.69677e-01,-5.99609e-02,-2.03108e-01,1.92865e-01,3.98792e-02,1.03540e+00,2.30534e-01,
3.71569e-02,2.45679e-01,-4.29025e-02,1.94806e-01,-4.47479e-02,-7.61681e-02,3.51227e-01,4.33726e-02,9.12952e-02,1.01440e-01,
-2.65284e-01,2.17411e-01,-1.16032e-01,-1.24342e-01,1.41009e-01,1.75580e-01,-7.16735e-02,-9.59010e-02,-3.30800e-02,-2.77319e-01,
-3.86549e-01,-3.51112e-01,-1.95579e-02,-3.29106e-01,-1.28918e-01,1.33602e-02,-5.90735e-01,-1.69203e-01,3.98544e-01,-5.63534e-01,
1.80964e-01,-1.12098e-01,-7.11620e-02,7.27467e-02,3.20080e-01,-2.07920e-01,-1.55601e-01,-6.99568e-01,-1.08965e-01,2.83103e-01,
1.99408e-03,-4.74240e-01,1.76580e-02,-3.77437e-01,3.22491e-01,-2.01628e-01,2.25537e-01,4.90324e-02,2.89723e-01,-5.58453e-01,
-1.26969e-01,-1.30199e-01,-2.06160e-01,2.54407e-01,-3.15426e-01,4.15989e-02,-1.32471e-01,4.29128e-02,-6.34218e-02,-2.72331e-01,
3.41476e-01,
2.86622e-01,
-8.80895e-01,
-2.01359e-01,
-5.03412e-01,
-1.48801e-01,
-4.14009e-01,
4.73970e-01,
2.85734e-01,
3.46508e-01,
-1.31768e-01,-5.01468e-01,-6.52514e-01,-2.01783e-01,1.44103e-01,-3.80732e-01,-3.12704e-01,2.84624e-01,-6.09506e-02,2.78815e-01,
1.73383e-01,-3.04118e-01,5.02963e-01,-1.29406e-01,-2.86493e-01,1.30421e-01,3.81482e-01,3.36679e-02,2.88247e-01,2.17368e-02,
2.02425e-01,-6.75842e-02,-2.87163e-01,1.22509e-01,-7.96207e-02,6.55130e-01,4.13104e-01,3.35720e-01,-4.74346e-02,-4.12295e-01,
-4.79204e-01,-2.28759e-01,1.36929e-01,3.65468e-01,5.18544e-01,-4.83057e-01,2.08439e-01,-9.82851e-02,-4.16804e-01,-4.00680e-01,
-3.37105e-02,3.75185e-02,2.25120e-01,-1.82303e-01,2.58973e-02,3.09878e-01,4.35189e-01,1.08954e-01,-3.65564e-01,-3.92304e-01,
2.63819e-01,-1.45739e-01,2.27596e-01,-4.94538e-01,-3.00578e-01,1.07443e-01,-6.14626e-02,-3.92442e-01,2.95119e-01,-1.00428e-01,
-2.56756e-01,3.50371e-01,-4.30090e-01,-1.11230e-01,1.53615e-01,-4.59688e-02,4.44178e-01,-1.21130e-01,2.62714e-01,-2.25395e-01,
-2.27259e-01,3.35110e-02,-1.19406e-01,9.57559e-02,-9.27083e-02,-5.14910e-01,7.78105e-02,2.00831e-01,1.06404e-01,1.01347e-01,
1.32242e-01,8.30179e-02,7.30914e-02,3.13228e-01,1.83959e-01,-2.75022e-01,-3.09753e-01,5.45996e-01,2.69968e-02,4.20795e-01,
-4.18375e-01,3.56391e-01,4.39724e-01,4.80323e-02,4.83529e-01,1.39657e-01,-4.36606e-01,-1.12617e-01,2.38391e-01,-6.50574e-01,
-4.14640e-01,
-4.37865e-01,
-3.00334e-01,
8.05240e-01,
-5.64762e-01,
2.54216e-02,
2.17670e-01,
9.32719e-02,
4.58270e-01,
2.94626e-01,
-1.87854e-01,1.13759e-01,3.02093e-02,-4.38810e-01,-1.41846e-01,-6.90055e-02,1.47632e-01,3.76027e-01,-3.15269e-01,2.60992e-01,
4.11304e-01,-8.17941e-02,-1.05984e-01,3.87688e-01,3.30143e-02,4.86655e-01,5.40647e-01,-1.75235e-01,-6.51691e-02,3.29210e-02,
-2.73752e-01,5.95837e-02,2.16744e-02,1.33807e-01,4.47284e-01,3.12774e-01,2.68633e-01,3.19276e-01,-3.92163e-01,1.68472e-02,
-9.77448e-03,5.53427e-01,2.32385e-01,3.28860e-01,4.34847e-01,-7.60046e-01,-7.62862e-01,-1.51539e-01,8.27986e-02,-6.08345e-02,
-2.71738e-01,8.54725e-01,3.99765e-01,6.03128e-01,1.31318e-01,3.04487e-01,-4.65237e-01,2.47889e-01,-6.89789e-02,4.38726e-01,
5.28124e-01,3.59070e-01,-1.44870e-01,5.27378e-01,2.51627e-01,1.86180e-01,1.33839e-01,-4.10612e-01,2.88189e-01,-4.05517e-01,
-6.00984e-01,-4.66528e-01,-1.99561e-01,2.76174e-01,3.66047e-01,7.32946e-02,4.63418e-01,-7.90067e-03,-3.27377e-01,-9.51969e-02,
-2.69561e-01,-5.00489e-02,1.63154e-01,-1.53420e-01,1.26128e-01,2.88332e-01,1.80424e-01,-2.10973e-01,1.91929e-01,3.47034e-01,
-3.55324e-01,4.62312e-01,7.23599e-02,2.32636e-01,1.88654e-01,-3.76015e-02,5.40977e-02,9.40196e-02,1.09458e-01,1.20404e-01,
6.28593e-02,-3.26940e-01,-1.61878e-01,-4.48698e-01,-7.23298e-03,-1.03515e-01,2.90523e-01,2.31209e-01,-1.10253e-02,-7.62506e-01,
2.40447e-01,
-1.51864e-01,
4.77238e-01,
2.41046e-01,
-4.26580e-01,
-9.09520e-01,
3.84078e-01,
-8.80200e-02,
-6.87326e-01,
-2.12360e-01,
5.36901e-01,-4.93207e-01,1.85513e-01,-1.79037e-01,1.22608e-01,-7.52705e-02,1.02734e-01,-5.82268e-01,1.47442e-01,3.38362e-02,
-2.55978e-01,-1.17950e-01,-4.17121e-01,1.91935e-01,2.27584e-01,2.74223e-01,-2.85733e-01,-1.55162e-01,-8.95195e-03,-2.84922e-01,
-4.77840e-02,
-2.15169e-01,
