// Neural Network File Format by Kyle Julian, Stanford 2016
45,2,2,5,
2,5,5,5,5,5,5,5,5,5,5,5,5,5,5,5,5,5,5,5,5,5,5,5,5,5,5,5,5,5,5,5,5,5,5,5,5,5,5,5,5,5,5,5,5,2,
0,
-10000.0,-10000.0,
10000.0,10000.0,
0.0,0.0,0.0,
1.0,1.0,1.0,
-3.92017e-02,-5.77360e-02,
3.51712e-01,-4.84888e-01,
-2.24657e-01,-1.43161e-01,
-3.77495e-01,8.04890e-03,
-2.14746e-01,-7.01982e-02,
-2.47989e-01,
3.14016e-01,
-2.56050e-01,
6.04480e-02,
-2.04852e-01,
-3.63778e-01,8.30671e-02,-7.47920e-02,2.63720e-01,5.30139e-01,
3.15475e-01,-1.57482e-01,7.33653e-02,2.05382e-01,-4.75779e-01,
1.70074e-01,-6.84421e-01,-3.98931e-01,1.06800e-01,-2.41551e-01,
2.03001e-01,-1.54762e-02,-1.46653e-01,4.96432e-02,-1.09334e-01,
-4.17071e-01,-3.13786e-01,-5.77784e-02,3.92637e-01,5.22527e-02,
-1.87890e-01,
-1.06967e-01,
-2.45597e-01,
-1.74935e-01,
-5.95890e-03,
6.05302e-01,4.30632e-01,-9.47129e-02,2.88651e-01,1.17665e-01,
-4.78602e-01,-3.49583e-01,-1.80737e-01,-6.93452e-02,-8.98432e-02,
-4.04808e-01,2.39955e-01,-1.65125e-01,5.91800e-02,-2.63531e-01,
-1.15403e-01,8.74287e-02,-2.71221e-01,7.53111e-03,-1.92075e-01,
1.95474e-01,-3.07519e-01,4.02577e-03,4.65545e-02,1.02896e-01,
-4.33794e-03,
-8.69271e-02,
-5.38477e-01,
2.13718e-01,
-1.52306e-02,
5.47192e-02,-5.04361e-01,1.31713e-02,-2.29297e-01,3.72796e-01,
-1.60936e-01,-2.81974e-01,5.00439e-01,1.03839e-01,3.45887e-02,
9.18828e-02,4.13200e-02,3.14769e-02,1.31218e-01,-3.34030e-01,
-5.17996e-01,-8.43397e-02,-2.24503e-01,-1.24153e-01,-5.98620e-01,
-1.29410e-01,-2.42278e-01,-2.13733e-02,-2.22702e-02,-5.61076e-01,
-1.15651e-01,
-2.27509e-01,
-7.03986e-02,
2.57299e-03,
2.61424e-01,
2.78994e-01,-2.23462e-01,-6.47175e-02,-2.39581e-01,3.09690e-01,
4.37045e-01,-4.93903e-01,-2.66384e-01,9.46088e-02,-3.66658e-01,
-1.32819e-01,8.19864e-02,1.01896e-01,1.15074e-01,3.79857e-02,
3.33228e-01,9.75232e-03,2.65832e-01,3.14372e-01,-3.41518e-01,
3.44420e-02,-2.38409e-01,-1.26467e-01,-6.18916e-01,-4.92520e-02,
-1.97911e-01,
-2.31110e-01,
-8.41976e-02,
-3.16377e-01,
1.06416e-01,
1.08826e-01,3.24446e-01,3.04134e-01,2.40021e-02,-4.86646e-02,
-3.22853e-01,1.22647e-02,-2.14232e-01,-4.46544e-01,1.75554e-01,
4.58978e-01,-4.30401e-02,-3.43802e-01,2.15309e-01,1.53149e-01,
-1.43037e-01,1.79405e-02,-8.68331e-02,-5.04244e-01,-1.84476e-01,
-2.92659e-01,-1.91130e-01,2.40710e-01,-3.22054e-02,-2.55940e-01,
-1.89792e-01,
-2.45568e-01,
-4.51154e-02,
1.65867e-01,
-5.48333e-01,
3.67676e-01,-3.50933e-01,3.42852e-01,-9.23256e-01,3.15079e-01,
-1.10066e-01,1.44374e-01,-9.13941e-02,1.98095e-01,-2.80265e-01,
-1.25185e-01,3.95015e-01,-1.27698e-02,-2.30216e-01,-1.12019e-01,
-7.71265e-02,4.87881e-01,5.99686e-02,-1.04576e-01,-6.28913e-02,
-1.59126e-01,-9.55351e-02,3.48628e-01,1.73308e-01,-1.02747e-01,
3.16652e-02,
7.95784e-02,
-3.08498e-01,
-3.29194e-01,
-1.58072e-01,
1.34559e-01,-3.89408e-03,-3.24793e-01,2.80005e-01,1.97196e-01,
2.55446e-02,-7.45656e-02,-2.30161e-01,-4.37037e-01,-4.56978e-01,
-1.75293e-01,-2.43297e-01,-4.78494e-01,8.61195e-02,2.22073e-01,
-5.25173e-02,6.49417e-02,-5.05032e-01,5.35549e-01,-2.17054e-01,
3.49158e-01,-1.63139e-01,-9.41788e-02,-4.51133e-01,2.59980e-02,
2.22984e-01,
1.98413e-01,
7.37011e-02,
-2.40624e-01,
7.43140e-02,
-2.33623e-01,2.05518e-01,-5.09173e-01,-5.63701e-01,-4.27428e-01,
1.85686e-01,9.24366e-02,3.69799e-02,-2.34696e-01,-1.21676e-01,
2.51413e-01,3.25155e-01,1.19401e-01,-1.44559e-01,2.89885e-01,
-1.30264e-01,3.10420e-01,6.10665e-02,1.05230e-01,3.81939e-01,
-6.51274e-02,5.35140e-01,-4.05079e-01,-1.01440e-01,-6.12893e-02,
5.41662e-02,
3.71767e-01,
1.27024e-01,
-2.16025e-01,
-5.10117e-02,
-5.15485e-01,-1.94863e-01,-2.26795e-01,-2.41316e-01,-3.86648e-01,
1.64193e-01,3.91318e-01,2.16662e-01,2.64575e-01,-7.52095e-01,
-2.12643e-01,-4.34092e-02,-1.60802e-01,-2.98866e-01,-2.15563e-02,
-4.10855e-01,1.19620e-01,1.86632e-02,-1.76962e-01,-9.31212e-03,
4.16990e-01,1.23071e-01,1.88688e-01,1.20006e-01,4.88880e-03,
4.52482e-01,
-6.08935e-02,
-2.14704e-01,
-1.05727e-01,
4.05479e-01,
-3.89948e-01,-1.19907e-01,-5.89178e-02,-4.41177e-01,-3.87476e-01,
1.55897e-01,2.58360e-01,4.72884e-01,-3.15398e-01,2.39023e-01,
-3.90018e-01,9.44282e-02,3.11637e-01,-1.26298e-01,3.03009e-01,
6.14422e-01,1.48532e-01,-1.83662e-01,3.72373e-01,7.90766e-02,
4.25047e-02,-8.34483e-02,-2.56087e-01,-2.55193e-01,-9.53691e-02,
4.46422e-01,
-5.22505e-01,
-2.16016e-04,
3.27692e-01,
7.74639e-02,
-5.20404e-01,3.38660e-01,-1.26877e-01,3.00466e-01,-1.06595e-01,
-2.95498e-01,-2.41231e-01,-1.84990e-01,2.46499e-02,4.55166e-01,
2.06203e-01,-5.39770e-02,-1.81782e-01,1.91746e-01,1.60603e-01,
-9.28893e-02,-1.42360e-01,6.96094e-02,-1.44902e-01,-6.01689e-03,
1.76889e-01,-3.29048e-02,2.73371e-01,-2.09257e-01,9.15924e-02,
-2.32288e-02,
-5.58845e-02,
-7.37864e-01,
4.37710e-01,
-3.54162e-01,
1.40188e-01,2.19119e-01,-2.20367e-01,-1.06418e-01,5.13212e-01,
-9.06848e-02,3.36412e-01,-1.73153e-01,-1.73843e-01,-1.00953e-01,
-1.54864e-01,4.47558e-01,9.69974e-02,4.38408e-02,-2.53909e-01,
1.42117e-01,-3.13093e-02,1.46127e-01,-3.76522e-02,1.47464e-01,
-4.83390e-02,-4.61364e-01,4.33619e-01,-1.91121e-01,5.30820e-02,
3.85007e-01,
-1.73990e-01,
5.89661e-02,
-4.64871e-02,
-6.26433e-02,
4.28313e-02,-2.35425e-02,3.31378e-01,-1.80116e-01,1.17538e-01,
-2.23980e-01,-2.06939e-01,1.48949e-01,-2.85775e-01,7.91212e-02,
5.68980e-01,-4.02845e-01,1.43297e-01,-3.93490e-01,9.69575e-02,
1.10406e-01,-1.96889e-02,-4.81719e-03,2.96220e-01,3.11693e-01,
4.89141e-02,1.64994e-01,-5.52802e-01,-9.46838e-04,-8.48894e-02,
5.73399e-01,
-1.49352e-01,
-2.90512e-01,
-3.08700e-01,
2.61969e-03,
4.57037e-01,-5.29807e-01,1.88954e-01,4.80236e-01,3.72071e-01,
-3.83079e-01,-8.30774e-02,1.17987e-01,7.38825e-02,-1.08132e-01,
-1.41709e-02,-2.65438e-01,1.69141e-01,-2.64323e-01,-5.76239e-02,
1.96934e-02,4.07365e-03,9.11654e-02,1.58495e-01,-1.78311e-01,
7.37557e-02,-1.59867e-01,2.63240e-01,5.17187e-02,4.87635e-01,
2.02399e-01,
-4.48108e-02,
-4.20606e-01,
3.13446e-01,
-4.05955e-02,
6.49668e-02,7.63491e-01,3.25494e-02,1.38000e-01,1.88218e-01,
4.03491e-01,3.27554e-01,-1.40344e-01,-2.92753e-03,1.74572e-01,
9.51192e-02,-1.01325e-01,-2.81433e-01,-4.07231e-01,1.03171e-01,
7.90613e-02,-1.01276e-01,4.16875e-03,5.68095e-01,1.73719e-01,
4.22897e-01,1.54878e-02,-2.22524e-01,1.29773e-01,3.14464e-02,
-4.25934e-01,
3.30042e-01,
-1.62219e-01,
-5.29769e-02,
4.37995e-01,
-4.10871e-01,2.65968e-01,-1.90747e-01,2.42677e-02,1.60692e-01,
-2.76892e-02,3.11850e-01,-9.56941e-02,-2.57055e-01,2.25893e-01,
5.56258e-03,5.71367e-01,-1.26304e-01,-6.23059e-02,-1.11627e-01,
-7.22140e-01,-8.63944e-02,4.62733e-01,-2.85985e-01,2.48562e-01,
-1.61259e-01,-4.30541e-02,8.53365e-02,5.31842e-01,3.58251e-01,
-5.50487e-02,
1.85427e-01,
9.31062e-02,
3.75172e-01,
1.05710e-02,
-1.56055e-01,2.61107e-01,3.37182e-02,6.03671e-02,1.46185e-01,
-5.29501e-03,1.01667e-01,5.81108e-01,6.34512e-01,-3.07552e-01,
-2.84553e-01,6.13811e-02,-3.69228e-01,2.09845e-01,2.70146e-01,
7.47621e-02,-7.31646e-02,-5.09496e-02,3.50433e-01,-3.27562e-01,
5.26177e-01,-3.21127e-01,-7.41978e-03,-2.66877e-01,-4.73019e-01,
-7.39128e-02,
-2.33985e-02,
-1.28425e-01,
-2.15060e-01,
1.88462e-01,
-2.74061e-01,3.71051e-01,2.96046e-01,3.03514e-01,1.98283e-01,
-8.80558e-02,-2.73130e-01,6.25546e-01,4.15665e-02,-1.43970e-01,
-3.95460e-01,-1.09927e-01,-5.11680e-01,-6.94504e-01,-2.07839e-01,
-1.99369e-01,9.88372e-02,-1.42706e-01,-5.24301e-01,2.32157e-01,
-4.64934e-01,-3.15997e-01,-8.61427e-02,-1.64089e-01,2.86295e-01,
3.60656e-01,
1.82955e-02,
7.36337e-02,
7.21903e-02,
-4.48005e-02,
3.90072e-01,-3.73867e-01,2.66450e-01,-5.66814e-02,-1.47555e-01,
2.18593e-01,-1.35019e-01,-1.72044e-01,-4.26722e-01,-2.17595e-01,
-8.36790e-02,-1.50986e-01,-4.85764e-01,-1.07833e-01,1.73779e-01,
1.50453e-01,3.15378e-01,1.07240e-01,6.92420e-02,5.96521e-02,
2.03536e-01,2.66179e-02,-5.65584e-01,2.33672e-01,-2.52679e-01,
-2.69636e-02,
-1.70249e-01,
-5.01264e-01,
6.51054e-02,
1.62708e-01,
-3.04547e-01,1.17318e-01,-2.37737e-01,-5.38200e-01,-2.84137e-01,
2.58745e-01,-2.86150e-01,-6.51741e-02,8.60523e-02,-1.55627e-02,
6.32950e-02,1.08400e-01,3.97290e-01,4.25246e-01,1.24814e-01,
-4.41939e-01,3.96606e-01,-3.44681e-01,5.27644e-01,-5.02279e-01,
4.81664e-01,-2.88731e-01,2.32105e-01,-2.30816e-01,-3.72333e-03,
-5.27484e-02,
4.28662e-01,
3.10209e-02,
-3.57140e-01,
2.49403e-01,
5.91589e-01,1.22125e-02,-3.82272e-02,-1.02755e-01,2.69246e-01,
-4.88985e-01,-9.47779e-02,1.50955e-01,8.04400e-02,1.90854e-01,
5.19624e-01,-3.57646e-01,3.41016e-01,-1.40100e-01,-5.88592e-02,
-1.62722e-01,2.33682e-01,-2.04658e-01,1.34441e-01,3.03414e-01,
-2.32574e-01,-9.84472e-02,2.78433e-01,-4.52398e-02,-3.04341e-01,
-2.64511e-01,
-2.30822e-01,
-1.68843e-02,
-5.80552e-02,
-1.21473e-01,
-1.42045e-01,-3.33457e-01,-5.13754e-01,-1.34019e-01,2.43134e-01,
1.77081e-02,-3.79569e-04,-2.74487e-01,-2.79420e-02,1.21032e-02,
5.40908e-02,-1.03416e-01,3.73839e-01,8.05257e-02,5.90872e-01,
4.20455e-01,-1.75324e-01,-1.01757e-01,6.70279e-02,2.00573e-01,
2.41108e-01,-2.74990e-01,2.13288e-01,2.13121e-02,8.82874e-02,
5.01889e-02,
-1.36789e-01,
-1.27391e-01,
-3.54782e-01,
5.77110e-01,
4.34219e-01,1.16981e-01,-1.11456e-02,-2.00037e-01,4.26778e-01,
5.76517e-01,2.67458e-01,3.37677e-01,6.17890e-02,4.16499e-02,
3.68077e-01,-4.37040e-03,7.72640e-02,4.57388e-01,-7.23106e-03,
-2.93628e-02,-2.62710e-01,7.03793e-03,2.34601e-01,3.72246e-01,
1.51276e-01,6.09253e-02,-3.18860e-01,-1.04807e-02,3.56066e-01,
6.13975e-02,
-2.57397e-01,
3.17649e-01,
-5.26464e-01,
-8.49291e-02,
3.99684e-01,4.15986e-01,3.48147e-01,4.70597e-01,3.17092e-01,
1.96028e-01,9.71948e-03,2.36475e-01,1.72877e-02,2.42613e-01,
-4.79231e-01,1.29207e-01,2.42382e-03,5.49259e-02,2.48202e-01,
-5.55312e-02,1.18411e-01,-4.05943e-01,4.22531e-01,-2.01013e-01,
-7.55982e-01,-4.01908e-01,-4.86447e-01,-2.43313e-01,4.46613e-01,
2.86645e-01,
-3.58014e-01,
3.56432e-01,
-1.86877e-01,
4.68992e-01,
-3.44061e-01,1.33952e-01,-1.32622e-01,3.91388e-01,-2.59925e-01,
2.07371e-01,-1.61848e-01,-2.33677e-01,-6.07869e-01,-5.35046e-02,
-4.25899e-01,-2.97106e-01,1.79120e-01,5.37843e-02,-1.49211e-01,
-3.54465e-01,-3.53232e-01,3.78321e-01,1.57480e-01,-2.47640e-01,
-3.67717e-01,2.49517e-01,-1.64899e-01,1.97671e-01,3.10708e-01,
1.88654e-01,
1.51180e-01,
2.28322e-01,
1.86820e-01,
-2.02711e-01,
-2.84170e-01,1.85505e-01,3.66487e-01,5.87154e-01,6.78406e-02,
-5.38869e-01,6.12576e-02,-2.61553e-02,3.42855e-01,1.47668e-01,
-2.51336e-02,-4.50061e-02,4.76673e-01,2.11992e-01,-3.65645e-01,
1.69191e-01,-2.80558e-01,-1.02057e-01,5.77465e-03,2.27353e-01,
-3.78091e-01,6.91996e-02,4.10924e-02,1.73057e-01,4.11400e-01,
5.58787e-01,
-1.36124e-01,
3.66380e-01,
-1.26194e-01,
-4.75014e-01,
-6.39752e-01,-4.05061e-02,8.94607e-02,1.73433e-01,1.01490e-01,
-5.00803e-02,2.60485e-02,-2.21657e-01,-5.16653e-01,-2.40910e-01,
3.78946e-01,8.55074e-02,1.85771e-01,3.15434e-01,-1.30997e-01,
-1.29848e-01,-4.07728e-01,-1.75024e-01,-2.07360e-01,-1.61824e-01,
1.33300e-01,-2.17119e-01,-2.58619e-01,-3.89459e-01,-1.86913e-01,
5.67959e-02,
7.13804e-02,
-1.97807e-02,
1.33478e-02,
-4.25844e-01,
1.34807e-01,-2.96065e-01,-6.72387e-01,2.40279e-01,2.83913e-01,
-8.66715e-03,-2.75237e-01,-3.17024e-01,-4.91207e-01,1.82271e-01,
-3.28271e-01,-1.36105e-01,-7.48473e-02,4.55018e-03,2.62750e-01,
-7.34646e-02,-4.69417e-01,-3.30392e-01,-4.44720e-01,-6.84690e-03,
-2.02515e-01,-2.30385e-01,-2.33974e-01,8.31527e-02,1.72533e-01,
2.99470e-01,
-2.21576e-01,
-4.11571e-01,
-2.78663e-01,
-4.17487e-01,
2.31524e-01,-2.36850e-01,-1.96539e-01,-2.01139e-02,-2.68344e-01,
-3.83845e-01,-4.14428e-01,2.49741e-01,-3.81914e-01,1.34549e-02,
-5.54127e-02,-5.81326e-01,-1.78703e-01,-4.77821e-01,-2.48083e-01,
2.89467e-01,-5.24172e-02,2.62172e-01,-5.66157e-01,1.65121e-01,
-1.96881e-01,3.34844e-01,-2.76029e-01,1.55182e-01,-2.38545e-01,
-1.13643e-02,
1.18600e-01,
2.07726e-01,
-1.51432e-01,
-2.09859e-01,
3.00118e-01,3.98849e-02,-3.70214e-01,6.56898e-01,-1.54704e-01,
-3.72757e-01,2.89854e-01,1.93734e-01,-2.82811e-01,3.39014e-02,
3.87802e-01,3.47990e-02,3.80158e-01,1.43259e-01,-1.92403e-01,
3.09681e-01,2.75333e-01,1.10635e-01,-1.42331e-01,1.80624e-01,
7.01033e-03,2.68445e-01,-1.68461e-01,-2.33085e-01,3.40271e-01,
2.29505e-01,
-1.79687e-01,
-2.24672e-03,
3.39588e-01,
2.40666e-01,
-2.16080e-01,5.96146e-02,5.86629e-01,1.24794e-01,-1.62933e-01,
1.32491e-01,2.38326e-01,-1.01806e+00,-7.99425e-02,4.27413e-01,
3.45822e-01,6.03715e-02,3.75082e-01,3.96850e-01,1.31119e-01,
1.12852e-01,1.62505e-01,2.58609e-01,-4.53884e-01,3.40086e-01,
8.50854e-02,1.00198e-01,-1.23424e-01,2.50517e-01,-7.76567e-02,
-1.23771e-01,
5.71945e-02,
2.86503e-01,
-4.74836e-02,
-9.09388e-02,
3.34040e-01,6.22216e-02,5.04949e-01,-4.03000e-01,-1.45620e-02,
2.50191e-01,-3.03550e-01,2.48961e-03,-1.41590e-01,1.54936e-01,
-8.33194e-02,3.29019e-01,1.76986e-02,2.17935e-01,-8.46775e-01,
-4.35941e-02,2.77828e-01,3.74415e-02,2.95055e-01,4.96165e-01,
-2.90276e-01,2.56196e-01,-9.63563e-02,3.29313e-01,-4.89918e-02,
-9.65638e-02,
-6.73117e-01,
2.98068e-02,
9.91088e-02,
-3.37388e-01,
-2.79996e-01,-3.47607e-01,-4.81555e-01,3.54423e-01,1.39565e-01,
-8.77593e-02,1.37141e-02,1.72082e-01,-3.40865e-01,-9.70916e-02,
4.92424e-01,-2.19676e-01,6.03189e-01,-6.20288e-01,3.05041e-01,
-1.57698e-01,2.19860e-02,-2.29403e-01,3.21426e-01,-3.00054e-02,
-3.29359e-01,3.12004e-01,-5.06429e-01,4.04048e-01,-4.60662e-02,
-8.67747e-02,
6.35820e-03,
4.50444e-02,
1.55346e-01,
-1.12086e-01,
3.12250e-02,1.86928e-01,2.98148e-01,-4.30502e-02,5.81343e-02,
2.34806e-01,-1.00169e-01,-3.64696e-02,-2.77992e-01,1.69628e-01,
-4.40158e-02,-1.68904e-01,4.19077e-03,-3.99326e-01,1.43228e-01,
2.08148e-01,-3.15527e-01,6.67440e-02,-4.44868e-01,-2.91057e-01,
5.78438e-02,-1.33834e-01,1.85069e-01,-8.59766e-02,-3.75521e-01,
-1.11286e-01,
5.87915e-01,
-5.85704e-02,
1.52184e-01,
-3.85815e-01,
-5.58322e-02,1.39690e-01,6.07061e-02,-1.58419e-01,4.26346e-01,
-4.73683e-01,-2.98449e-01,-2.72382e-01,3.75159e-01,4.02662e-01,
-9.37820e-02,-1.06149e-01,-5.86450e-02,3.74801e-01,-3.10930e-01,
-2.02536e-02,4.71717e-01,-1.24748e-02,-3.01651e-01,3.48784e-01,
5.74244e-02,-3.83259e-01,-4.62573e-02,-9.80131e-02,5.15248e-01,
3.20778e-01,
-2.16452e-01,
9.88491e-02,
5.32087e-02,
9.41319e-02,
2.75575e-01,-2.47003e-01,4.92062e-01,3.87900e-01,-1.53869e-01,
9.86544e-02,-7.24997e-02,5.97712e-01,-3.14428e-01,9.39947e-02,
2.05942e-01,2.73232e-01,-1.07706e-01,-8.78878e-02,-6.20877e-02,
1.69252e-01,-6.23794e-01,1.87500e-01,-5.26971e-01,-8.68834e-02,
-1.89337e-01,4.54190e-01,6.10594e-02,-3.49456e-01,1.85346e-01,
-2.69699e-01,
4.39571e-01,
-1.54377e-01,
-5.61347e-02,
-1.60417e-02,
1.23337e-01,1.06835e-01,-2.95763e-02,6.61361e-01,-6.43975e-01,
-1.51627e-01,-4.50880e-01,2.88007e-01,-3.35282e-02,-7.09609e-02,
-1.50508e-01,1.32877e-01,-5.38692e-01,-2.52902e-01,5.44506e-02,
1.69226e-01,-9.57256e-02,7.68237e-02,-2.76649e-03,4.75793e-01,
9.11776e-02,2.12514e-01,2.86266e-01,1.86179e-01,1.08283e-01,
-8.88795e-02,
-1.52997e-01,
-2.57510e-02,
-1.62991e-03,
-3.07920e-02,
4.48637e-01,-5.88271e-02,4.04664e-03,1.30594e-01,-1.57384e-01,
3.90081e-01,-2.14861e-01,-2.64602e-01,7.88688e-02,4.58656e-01,
-3.13006e-01,-1.08762e-01,-2.78444e-01,-1.93844e-01,-2.27137e-01,
2.57142e-01,1.22323e-01,-6.58406e-01,-2.57493e-01,-4.15561e-01,
-1.77223e-01,5.36443e-02,-1.47218e-01,1.26352e-01,2.65582e-01,
1.41813e-02,
1.42124e-03,
1.10115e-01,
4.06030e-01,
3.39290e-01,
-1.62411e-01,-1.38158e-01,3.49274e-02,4.46679e-01,1.58239e-01,
-6.23253e-02,1.82879e-02,4.96602e-02,-1.11457e-01,4.05356e-03,
7.13840e-02,-7.85567e-02,-7.41505e-02,3.00674e-01,-6.12078e-01,
-2.71583e-01,8.90047e-02,1.99311e-01,7.02236e-01,2.89585e-01,
4.29734e-01,6.61943e-02,-2.27198e-02,-2.49176e-01,3.64472e-01,
-8.58629e-02,
-5.50802e-01,
1.64248e-01,
1.57974e-01,
-4.93441e-01,
1.02517e-01,-4.59508e-01,1.99267e-01,6.28747e-02,-1.39835e-01,
-1.08872e-01,3.72072e-01,3.52364e-01,8.06418e-02,-1.48010e-01,
1.00407e-01,2.01752e-01,1.20133e-03,-4.05452e-01,-4.02429e-01,
-1.37773e-01,3.04910e-01,1.29644e-02,-5.64815e-01,-3.54259e-01,
4.06674e-02,-1.27675e-01,3.15078e-01,4.76317e-01,2.71579e-01,
-2.99331e-02,
-2.66509e-01,
-3.33675e-01,
1.95484e-01,
-4.82387e-02,
3.23944e-01,-3.51351e-01,-2.69336e-01,-1.62568e-01,-1.67445e-01,
4.79101e-02,-1.54413e-01,4.14497e-01,-4.36002e-01,3.60647e-01,
3.26012e-01,-1.42637e-01,8.85192e-02,-1.93746e-01,3.64327e-01,
9.93466e-02,2.32971e-01,-1.57231e-01,1.78205e-02,1.65029e-01,
5.69637e-01,-1.75208e-01,4.33982e-01,-1.14914e-01,5.00649e-02,
1.01388e-01,
7.67603e-01,
1.66232e-01,
-4.03704e-02,
2.84602e-01,
-8.28882e-02,3.43601e-01,2.35093e-01,9.45354e-02,3.54882e-01,
-2.16187e-01,6.95539e-02,2.49449e-01,-1.66259e-01,1.27222e-01,
3.89356e-02,3.41510e-01,-3.01058e-01,1.30223e-01,1.71050e-01,
-1.83692e-01,4.08197e-01,3.36894e-01,-1.22152e-01,3.83419e-01,
6.10581e-02,4.81858e-01,-1.59117e-01,2.52580e-02,-2.52450e-01,
9.81996e-02,
-2.93484e-01,
-2.65826e-01,
9.67429e-02,
-1.01697e-01,
2.60474e-01,6.07619e-01,-2.66828e-01,-2.93792e-01,3.40576e-02,
2.01315e-01,-4.14764e-01,-2.60467e-01,-3.71594e-01,1.27248e-01,
3.14748e-01,6.51782e-01,-2.70620e-01,8.38110e-02,5.48962e-02,
1.66351e-01,5.42368e-01,-4.28300e-01,5.35707e-01,-2.62089e-02,
1.36002e-01,1.77044e-01,3.44446e-01,-8.69417e-02,-4.32286e-01,
2.96466e-01,
5.47928e-01,
3.65961e-02,
-1.65544e-01,
-7.29598e-01,
-2.19832e-01,-3.37670e-01,3.29252e-01,-1.27662e-02,-3.67023e-01,
-1.41844e-01,-3.44797e-02,-9.58407e-02,-4.88431e-01,-2.48970e-01,
-9.02238e-02,
8.76712e-02,
