// Neural Network File Format by Kyle Julian, Stanford 2016
20,2,2,20,
2,20,20,20,20,20,20,20,20,20,20,20,20,20,20,20,20,20,20,20,2,
0,
-10000.0,-10000.0,
10000.0,10000.0,
0.0,0.0,0.0,
1.0,1.0,1.0,
-1.94517e-01,-1.35723e-01,
2.23161e-01,-2.00680e-01,
4.00907e-01,1.31299e-01,
9.05110e-02,-3.75281e-01,
1.78005e-01,1.22715e-01,
-2.06840e-01,-6.57911e-01,
-3.59642e-01,2.54444e-01,
3.70893e-01,-1.31607e-01,
-6.94517e-02,-2.80024e-01,
2.03929e-02,5.50292e-02,
1.44476e-01,2.55391e-01,
3.20979e-01,2.79059e-02,
1.62555e-02,-1.34355e-01,
-4.83933e-01,-2.70855e-03,
7.28347e-02,2.85048e-01,
-8.80115e-02,-3.90034e-01,
-2.55496e-02,-5.81691e-01,
4.50446e-01,-7.50391e-03,
1.31159e-01,1.92634e-01,
1.01323e-01,-2.52413e-02,
3.40657e-02,
8.78964e-02,
-4.67987e-01,
-5.16683e-01,
8.33392e-02,
-8.34101e-02,
7.11001e-02,
-1.08891e-01,
4.32241e-01,
-3.71419e-01,
8.56364e-02,
-1.27750e-01,
-2.59937e-01,
2.42129e-01,
2.09229e-01,
-3.93448e-01,
2.11809e-01,
-1.20610e-01,
9.70003e-02,
-1.88051e-01,
-1.16592e-01,-6.15005e-02,-2.78222e-02,-7.83033e-02,2.30344e-01,2.86295e-01,1.26321e-01,1.64215e-02,2.72037e-02,-6.03724e-01,6.09968e-01,-2.55899e-01,-5.68519e-01,1.37843e-01,1.53584e-01,1.67629e-01,-7.43166e-02,-2.27970e-01,-1.20900e-02,9.27080e-01,
-9.09382e-02,2.18692e-02,-1.40247e-01,-2.99683e-01,-1.27272e-01,-3.77969e-01,1.00353e-01,-7.10728e-02,-3.47230e-01,5.84705e-01,-4.48027e-01,1.57893e-01,-6.55700e-01,3.07271e-01,2.84756e-01,-4.31112e-01,2.34413e-01,1.02523e-01,-3.39492e-01,2.21335e-01,
3.03610e-01,2.42492e-01,-6.48061e-02,-1.72502e-01,5.58274e-01,-7.03695e-01,3.20752e-02,1.64324e-01,1.82520e-01,-3.19138e-01,1.81823e-01,-3.27047e-01,2.33938e-01,-1.74779e-01,-1.80976e-01,5.30831e-01,6.88510e-02,5.05755e-01,1.21104e-01,9.82836e-02,
-4.78150e-02,-4.07975e-01,-4.76677e-01,2.09986e-01,-4.01072e-01,2.23909e-01,-3.95848e-01,2.59199e-01,-1.13519e-01,-2.66874e-01,-2.13249e-01,-6.44926e-01,3.73092e-01,-2.80975e-01,2.04563e-01,1.03493e-01,-1.73633e-01,-1.17678e-01,-2.93069e-01,5.96530e-01,
1.73594e-01,-8.04654e-02,-6.76305e-03,-7.19664e-01,4.63562e-01,1.10606e-01,-5.43721e-01,3.58739e-01,6.20424e-01,-3.87691e-01,-2.19356e-01,-1.90582e-01,-1.75091e-01,-6.83101e-01,3.04504e-02,-5.29534e-01,-4.02763e-02,2.91412e-01,-8.66407e-02,-2.46022e-01,
-8.04355e-02,1.12762e-01,2.42474e-01,4.19834e-01,6.53793e-02,-4.60185e-01,1.77709e-01,5.48083e-02,-1.79198e-01,-2.97696e-01,2.17858e-01,-2.74433e-01,-2.81661e-01,1.48942e-01,-2.59683e-01,6.05247e-01,1.08471e-01,-2.21293e-02,3.95277e-01,-6.14212e-02,
6.23615e-01,-4.47888e-01,-1.33341e-01,1.26156e-01,3.19298e-01,-1.28845e-02,-2.53733e-01,-9.98838e-02,1.63068e-01,3.24051e-01,2.02366e-01,1.70199e-01,-6.24586e-03,5.75604e-03,2.12825e-02,-1.07187e-01,5.62239e-01,-2.05454e-01,1.47841e-01,2.87802e-01,
-1.77130e-01,-1.07939e-01,-7.38773e-01,9.69706e-01,3.60333e-01,-6.34684e-01,-6.41580e-02,-2.90518e-01,2.92966e-01,1.90896e-01,-2.74001e-01,3.75993e-01,-2.10710e-01,1.42791e-01,1.94604e-01,2.38360e-01,-5.20970e-01,1.53577e-01,-4.23636e-01,-2.81058e-01,
-8.62729e-01,-1.04569e-01,6.70804e-02,4.00518e-01,-1.59590e-01,-4.12064e-01,-2.28791e-01,-2.27679e-01,6.82781e-01,1.15241e-01,-2.22941e-01,1.34326e-01,8.71663e-03,-1.03180e-01,-2.60627e-01,1.32546e-01,-1.11404e-02,5.66673e-02,2.40415e-02,4.34036e-01,
-5.73518e-02,5.27161e-02,6.48327e-02,1.66267e-01,-2.76956e-01,-1.21323e-01,1.77486e-01,2.65215e-01,4.56979e-02,4.53272e-01,3.91763e-01,-4.01058e-02,9.27475e-02,2.36443e-01,-2.03797e-01,-4.14558e-01,-5.58491e-01,-4.35259e-01,-2.52810e-01,-6.23509e-01,
2.19531e-01,-1.53899e-01,4.53443e-01,1.65459e-01,9.46479e-02,-1.43840e-01,-2.40471e-01,-3.18982e-02,5.17885e-01,-5.34557e-01,-2.80562e-01,-1.92922e-02,-2.58012e-01,-1.38391e-01,3.78645e-01,1.77586e-02,-2.88638e-01,2.77332e-02,4.16352e-02,-1.12060e-02,
4.86365e-01,3.13836e-01,2.47154e-01,-1.74046e-01,-3.71436e-01,3.23538e-01,4.56051e-01,-2.65146e-01,-2.67692e-01,-2.63554e-02,2.49454e-01,-4.00091e-01,2.71723e-01,-4.85903e-01,-1.44706e-01,4.46862e-01,-8.52573e-02,3.97392e-01,3.78276e-01,2.81332e-02,
-3.45128e-01,-5.17402e-01,-3.35845e-01,-6.14551e-02,4.23178e-01,-3.28327e-01,-6.73509e-01,2.22474e-01,3.54869e-01,9.43842e-02,1.25280e-01,3.46176e-01,-2.30275e-01,1.15383e-01,-3.05458e-02,3.57895e-01,-2.75317e-01,-3.22046e-02,-6.13117e-02,-3.49131e-01,
-1.13021e-01,-1.79716e-02,6.77577e-02,-4.64533e-01,1.07871e-01,2.97477e-01,5.76614e-01,-1.94103e-01,5.58271e-02,1.06795e-01,-1.78764e-01,-3.95351e-01,2.65372e-01,-1.72968e-01,2.86442e-01,9.00713e-02,-1.98138e-02,5.34004e-01,-6.00653e-01,4.92136e-01,
-2.42168e-01,-2.31220e-01,-4.72936e-01,-2.10996e-01,-8.44809e-02,3.54880e-01,-2.52174e-01,-6.60430e-01,3.93183e-01,3.17283e-01,4.74526e-01,-1.49961e-01,-4.03854e-01,3.26717e-01,4.30788e-01,-2.67953e-01,2.51032e-01,2.84424e-01,2.33451e-01,-2.23195e-01,
-8.59184e-02,4.34488e-01,4.40846e-01,4.77302e-01,-4.21954e-01,7.84823e-01,3.64480e-01,1.44062e-01,-6.46547e-02,2.10700e-01,2.98088e-02,1.08289e-01,4.13519e-03,5.32387e-01,1.05739e-01,3.61193e-01,-3.25996e-01,4.46537e-01,-5.41501e-02,4.63413e-01,
3.87347e-01,1.87038e-01,2.13060e-02,1.36598e-01,-1.20825e-01,1.38326e-01,-1.50853e-01,7.55360e-02,-3.53299e-01,-4.98823e-01,-2.14741e-01,3.57306e-01,3.74711e-01,-7.04961e-02,-5.06511e-01,9.56848e-02,-8.04545e-02,-1.47770e-01,-3.00921e-01,1.83788e-01,
1.02143e-01,-2.69633e-01,-6.32675e-01,-3.75762e-02,-8.09875e-02,3.06919e-01,1.01776e-01,-3.50000e-01,1.45399e-01,1.64012e-03,4.76392e-01,-5.02161e-01,3.58563e-01,-7.37719e-01,2.41246e-01,3.46744e-02,1.73264e-01,1.52873e-01,-2.38815e-01,-1.27235e-01,
-1.62553e-01,-1.08636e-01,-3.62952e-01,-2.10030e-02,-3.95034e-01,8.91972e-03,1.88130e-01,2.79295e-01,1.14994e-01,-4.16157e-02,2.11172e-01,2.40821e-01,1.50906e-02,-3.18883e-01,-2.90050e-01,9.31605e-02,-3.00046e-01,1.29723e-01,-2.54201e-02,4.20458e-01,
2.25362e-01,-2.66592e-01,-3.44903e-01,-9.59824e-02,7.43957e-02,-5.23111e-02,-2.31904e-01,-5.07749e-01,-4.04158e-01,-2.13367e-01,-6.61581e-01,-1.70780e-01,-2.39413e-01,-5.67391e-01,-2.25555e-02,-4.92171e-01,-1.18913e-01,-1.06534e-01,1.09851e-01,-6.31886e-02,
-3.96717e-01,
-4.32669e-01,
-2.53548e-01,
-2.01055e-01,
-2.01489e-01,
-4.76558e-01,
1.52509e-01,
-2.91520e-01,
5.70694e-03,
-8.02603e-01,
-1.27079e-01,
-4.10595e-01,
-1.89413e-01,
-1.66210e-01,
3.95153e-01,
1.44110e-01,
-1.74291e-01,
4.42176e-01,
4.30960e-01,
3.79298e-01,
-2.42677e-01,2.47666e-01,-3.14381e-02,3.03104e-01,1.54149e-01,-2.01039e-01,-1.26365e-01,7.35026e-02,-2.80017e-01,-1.44923e-01,-2.87891e-01,1.44212e-01,2.37004e-01,-7.49920e-01,-2.39592e-02,5.92445e-01,-1.44318e-01,7.28412e-04,-8.63791e-02,-3.02701e-01,
-7.89484e-01,2.34188e-01,-2.37287e-02,-3.10582e-01,-1.13142e-01,-2.48660e-01,4.38787e-01,-1.54032e-01,-3.12566e-01,9.75511e-02,2.23923e-01,-2.60984e-01,9.63529e-02,3.68781e-01,1.86882e-01,-3.08565e-01,-3.27132e-02,5.02262e-01,-2.07843e-02,1.29325e-02,
5.48133e-01,3.33624e-01,-3.47495e-02,9.55365e-02,4.52188e-02,-2.60663e-01,3.09351e-01,-4.70470e-02,1.91393e-01,-2.22266e-01,7.91748e-02,3.78141e-01,-3.57950e-01,-1.17825e-01,-9.80465e-03,-1.08878e-01,1.51827e-01,-1.11072e-01,-3.57390e-02,5.57915e-01,
2.54966e-01,1.32883e-01,-1.69788e-02,-3.68310e-01,-1.69027e-01,5.56822e-02,-3.55505e-01,-7.69223e-01,2.65016e-01,-1.10933e-01,-1.91423e-01,4.05514e-01,-6.96359e-02,-1.06238e-01,2.70802e-01,5.39888e-01,-1.17622e-01,-3.93904e-01,3.28109e-01,-1.64834e-01,
-3.36912e-01,9.77947e-02,-2.19625e-01,-5.95616e-03,2.06480e-01,6.34728e-02,3.88215e-01,-2.00022e-03,-4.63996e-01,-5.54325e-01,4.00949e-01,-6.30800e-01,-1.10173e-01,4.35484e-02,-1.62451e-01,-5.59533e-01,3.46534e-01,2.30170e-01,-1.07184e-01,4.16666e-01,
3.81542e-01,7.55690e-02,1.61671e-01,6.40536e-02,-1.10002e-01,3.41530e-02,-1.13895e-01,-3.75445e-01,-8.85813e-02,3.95504e-01,1.06170e-01,1.73730e-01,1.14198e-01,-1.25632e-01,-2.09207e-01,3.08011e-01,-1.67208e-01,6.57142e-02,-3.31157e-01,1.10305e-01,
-7.39253e-02,-1.88961e-01,2.89307e-01,-1.19937e-02,3.54755e-01,1.49384e-01,9.65810e-02,6.17890e-02,-1.41204e-02,-1.17934e-01,5.75798e-02,5.73551e-01,-4.53439e-01,-2.25419e-01,-6.21900e-02,-3.79440e-01,1.36945e-01,4.50957e-01,-2.69099e-01,-5.57431e-02,
7.93887e-01,2.94149e-01,-2.36696e-01,3.16081e-01,1.00660e-01,2.69878e-01,-1.70347e-01,-3.07898e-01,4.51775e-02,2.88022e-01,2.64217e-01,-8.61760e-02,-3.96694e-01,2.97881e-01,-3.11596e-01,-9.55643e-02,-5.35472e-01,-4.14558e-02,-1.93253e-01,7.94994e-02,
2.83730e-01,-2.10025e-01,6.95586e-02,-1.66479e-01,1.65397e-01,1.17318e-01,6.23588e-02,-4.77579e-01,-3.39482e-01,3.58746e-01,-3.19219e-01,8.24315e-02,1.03625e-01,2.86659e-01,1.39205e-01,1.55632e-01,8.97317e-02,-4.70196e-02,-7.55142e-02,2.71137e-01,
1.86496e-01,-4.47519e-01,-1.58174e-01,1.97627e-01,-2.80890e-01,1.10611e+00,1.17020e-01,4.20710e-01,4.06032e-01,6.12802e-01,-2.32992e-01,-8.78004e-01,-1.50598e-01,1.63762e-01,-4.05299e-02,1.39874e-01,-4.65724e-01,-2.55915e-01,-2.93450e-01,-2.96595e-01,
-4.94244e-01,-1.00875e-01,1.69895e-01,-3.40146e-01,1.52235e-01,3.76668e-01,-1.10298e-01,-5.86519e-01,1.79404e-02,-7.93267e-01,7.25007e-01,1.97998e-01,-4.60853e-02,-2.02376e-01,-8.52674e-01,-6.84509e-02,-3.50723e-01,-3.75745e-01,5.37973e-02,7.90011e-02,
3.50119e-01,-1.16355e-01,-5.48850e-01,-2.44562e-01,-1.90236e-01,-3.25055e-01,8.56355e-02,3.73692e-01,-3.61273e-01,6.28542e-01,-7.66998e-02,-2.00581e-01,5.26722e-02,-4.50396e-03,2.12841e-01,-7.60162e-02,-3.47618e-02,-7.72613e-02,3.06308e-02,-2.13207e-01,
3.03519e-01,2.03736e-01,1.65738e-01,-4.73100e-01,1.63671e-01,2.90244e-01,-2.52941e-01,1.95442e-01,1.74610e-01,1.45541e-01,-6.71076e-02,-2.49560e-01,-4.44734e-01,-2.98613e-01,3.26463e-01,5.08391e-01,-5.94302e-01,-1.81029e-01,-4.63827e-01,-2.57473e-01,
-8.34001e-02,-3.00470e-01,-1.56817e-01,-6.05631e-01,3.86995e-01,-9.48679e-02,3.89833e-01,-5.21372e-01,2.51223e-01,-3.77349e-02,4.37522e-02,-1.23358e-01,-4.03870e-01,8.68176e-02,1.13589e-01,3.67791e-01,-5.29772e-02,3.31788e-01,-3.25061e-01,3.95435e-01,
1.04802e-01,-2.88631e-01,2.15689e-01,-6.08745e-01,-1.30615e-02,-7.00089e-02,4.59215e-02,-3.77593e-01,2.43434e-02,-4.35855e-01,-1.85136e-01,4.28109e-01,-2.83825e-01,2.57164e-02,-2.92454e-01,-4.36180e-01,-2.59663e-01,-1.94406e-01,-6.51931e-02,-5.47552e-02,
-2.43872e-02,-1.02993e-01,-1.71263e-01,-2.27532e-02,2.34798e-01,3.05808e-01,-1.16772e-01,-3.42660e-01,1.80261e-01,6.66992e-02,-4.32679e-01,4.13635e-01,6.46953e-01,5.84583e-02,-4.22556e-01,-4.42904e-01,-1.52311e-01,3.43443e-01,-1.95847e-02,1.17249e-02,
2.36838e-02,-6.43056e-01,1.33148e-01,1.02725e-01,-4.29357e-01,2.04401e-03,4.21805e-02,-2.60323e-01,-3.45118e-01,9.46914e-01,-7.38397e-01,4.59920e-01,3.34968e-01,5.15506e-02,-2.83271e-01,-4.13084e-02,1.83939e-01,2.32015e-01,7.28506e-02,-4.69777e-01,
-2.16116e-01,1.89335e-01,-1.94895e-01,7.64871e-01,4.64457e-01,-5.72465e-01,4.05839e-01,-3.41096e-01,-6.97738e-01,2.64818e-01,3.69164e-01,-4.95802e-01,-5.00165e-01,7.64579e-02,-1.56599e-01,-3.91548e-01,2.16812e-02,-3.47255e-02,2.77627e-01,1.21733e-01,
-4.54681e-01,-2.36058e-02,-1.27890e-01,-8.66348e-01,-6.87945e-01,-1.86174e-02,-1.38931e-01,1.17907e-01,4.12339e-02,1.86829e-01,-5.64986e-01,4.86404e-02,-2.38591e-01,5.31757e-02,6.48580e-02,-3.53928e-02,1.61203e-01,2.33939e-01,3.44885e-01,1.26740e-01,
3.15165e-01,-4.23761e-01,4.29833e-01,4.27394e-01,-3.27011e-01,1.28198e-01,-4.15200e-01,3.84008e-02,-7.85573e-02,8.82412e-01,-2.67455e-01,-8.50453e-02,8.09148e-03,1.26506e-02,2.05002e-01,7.96020e-02,7.37333e-01,4.05646e-01,-2.93473e-01,-1.59549e-01,
9.20938e-02,
-3.09069e-01,
-2.28081e-01,
5.47396e-01,
-2.58825e-02,
6.07212e-01,
4.55357e-02,
7.77738e-01,
-3.31204e-01,
3.96519e-01,
4.50357e-01,
5.36937e-02,
-9.69567e-02,
5.14598e-01,
-5.94146e-02,
-7.73272e-02,
8.67131e-02,
4.14484e-02,
-2.30417e-01,
-6.08414e-01,
-4.65910e-01,2.94294e-01,3.98996e-02,-1.26590e-01,-5.32138e-02,-1.94985e-01,1.25314e-01,-2.11937e-01,3.01165e-01,-4.46472e-01,1.27076e-01,6.19860e-03,-1.64036e-01,-7.74250e-02,-2.89619e-01,-4.81321e-03,-1.22839e-01,8.96008e-02,-9.36608e-02,3.86430e-01,
-2.02027e-01,-4.17359e-02,-3.58914e-02,-7.11623e-02,-2.98174e-01,-3.70243e-01,-3.60603e-01,-3.29260e-01,-2.63706e-01,3.15072e-01,2.41736e-01,-4.36159e-02,-2.32381e-01,6.12901e-01,-9.21414e-02,-2.41119e-02,1.58476e-01,7.00014e-02,-1.67253e-01,-2.15493e-01,
3.12806e-01,6.79435e-01,6.98318e-01,1.80801e-01,-9.82524e-02,4.99595e-01,4.87156e-01,2.87737e-01,-5.38595e-02,2.00010e-01,-3.37600e-01,2.14019e-01,5.71234e-01,-8.09079e-01,-1.19069e-01,-2.60211e-02,-2.02573e-02,-2.68538e-01,2.25865e-01,-1.31928e-01,
-1.15754e-01,3.48432e-01,3.38891e-01,2.34027e-01,-6.21252e-03,-4.13875e-02,-1.48002e-01,4.85330e-01,-2.63004e-01,-3.17875e-01,-1.85243e-01,4.05304e-01,-2.34347e-01,-8.15410e-02,5.25214e-02,-3.99879e-01,-5.01375e-01,-9.17310e-02,-5.48584e-01,1.24297e-01,
5.18390e-02,2.81320e-01,-8.89812e-03,-6.29857e-01,-5.57512e-01,3.54961e-01,-7.46498e-01,3.29615e-02,-4.45184e-01,-3.00624e-01,-1.87771e-01,5.28904e-02,-3.16590e-01,-2.53503e-01,-6.96436e-02,-2.98412e-01,5.44188e-01,1.34692e-01,-3.64956e-02,3.28300e-01,
6.18032e-02,4.68000e-01,5.15384e-01,-3.21680e-01,1.63416e-01,-3.37928e-01,5.11609e-01,1.23296e-01,-5.92909e-02,-5.59429e-01,2.77112e-01,2.51428e-01,2.67764e-01,-8.65797e-01,4.30010e-01,3.89433e-01,-3.70727e-01,2.19623e-01,4.82455e-01,-1.97221e-01,
-1.62730e-01,9.16089e-02,2.48694e-01,6.64017e-01,2.47133e-01,-1.56459e-01,-3.79379e-01,-2.85477e-01,7.95281e-02,7.67931e-02,1.42992e-01,-3.88002e-01,-2.87682e-01,-2.06546e-01,1.04880e-02,-3.50233e-01,-8.88938e-02,-1.13610e-02,3.22817e-01,-5.13362e-01,
2.36287e-01,3.59152e-01,2.98135e-01,-2.68973e-02,8.31477e-03,-2.53810e-02,1.97605e-02,-3.84687e-01,-2.17323e-01,1.42782e-01,2.80609e-01,3.73221e-01,-1.28429e-01,2.09100e-02,2.32993e-01,-3.19880e-01,-1.33893e-01,2.36957e-01,-2.08108e-01,5.67050e-01,
-1.02417e-01,-8.69848e-02,-5.03046e-01,-1.39680e-01,5.10967e-03,-6.32454e-02,-3.31573e-01,-1.60058e-01,3.08419e-01,-3.20049e-01,-6.35322e-01,4.14217e-01,4.38335e-01,-1.89994e-01,-9.91897e-02,4.04731e-01,2.75448e-01,-2.43187e-01,1.12222e-02,-2.87593e-01,
-1.10084e-01,2.89130e-02,-1.60116e-01,8.46866e-02,3.90049e-01,3.85243e-01,-1.10975e-01,-4.40636e-01,3.54114e-01,-3.46441e-01,-1.27943e-01,-2.63686e-01,-6.67925e-01,-4.97513e-01,-2.44507e-01,-1.78618e-02,4.80584e-01,-3.06679e-01,1.59906e-03,-1.17389e-01,
-2.31285e-02,2.08799e-01,1.76229e-01,1.78318e-01,3.64313e-01,1.37692e-01,2.08211e-01,-5.72076e-02,-4.68470e-01,5.37826e-01,4.84133e-01,3.00905e-01,1.40985e-01,-2.48099e-01,3.38943e-01,-2.33135e-02,1.11605e-01,2.53694e-01,4.55413e-01,7.71309e-02,
-4.07888e-01,7.07040e-01,4.04759e-01,3.02443e-01,2.63424e-01,1.53583e-01,6.41987e-01,-6.54811e-01,8.61998e-02,-9.05748e-03,-5.01826e-01,1.90615e-01,-2.54651e-01,6.05078e-02,-1.00319e-01,-7.37983e-01,9.93784e-02,-7.14228e-02,-3.43543e-01,8.57638e-02,
-1.47954e-01,1.87599e-01,-7.17567e-02,-2.43720e-02,6.03607e-01,7.56772e-01,6.95322e-02,2.93856e-01,9.66068e-01,3.23969e-01,-8.18122e-01,8.29601e-02,3.28365e-01,-8.32424e-03,3.48775e-01,-3.42782e-01,4.43501e-01,2.99193e-01,5.54742e-02,-1.50865e-02,
-2.01057e-01,2.12679e-03,1.68460e-02,-3.97846e-02,-6.66771e-02,-1.93406e-01,3.81175e-01,-3.20602e-02,1.13521e-01,-2.92177e-01,3.12854e-01,-2.33191e-01,-4.61739e-01,4.56500e-01,-3.40073e-01,7.68337e-02,2.60751e-01,2.80021e-02,3.05458e-01,-5.61967e-01,
-2.99689e-01,-6.91892e-01,-1.65245e-02,-1.14918e-01,-2.39462e-01,-1.06867e-01,-6.14618e-02,1.44560e-01,-3.91953e-01,3.00881e-01,2.04843e-03,-2.53857e-01,6.06443e-04,2.60573e-02,-8.17512e-02,4.50784e-01,-4.18409e-01,6.88701e-02,2.41621e-01,-3.79930e-01,
-2.22808e-01,-5.44418e-02,-3.97235e-02,3.98708e-01,-5.11351e-01,1.67507e-01,-4.38463e-01,-1.39202e-03,6.10621e-02,-2.83482e-01,-1.52075e-01,-8.07670e-02,6.32756e-02,-5.29124e-01,2.21092e-02,5.17312e-02,2.45609e-01,-3.45111e-01,4.37635e-02,-1.01443e-01,
-6.10027e-01,-4.12040e-01,3.18424e-02,6.47698e-02,-1.23008e-01,1.02756e-01,2.48501e-02,-2.62164e-01,2.38653e-01,-6.05810e-02,-5.33045e-02,-1.19219e-02,-1.63778e-01,-2.28630e-01,-6.03803e-01,1.10407e-01,1.91430e-01,-2.33365e-01,-7.23453e-02,1.16245e-01,
-3.55972e-01,-2.29479e-01,2.01049e-01,1.22679e-01,4.47886e-01,-1.78186e-02,6.38467e-02,-2.11447e-01,2.97911e-01,-1.07983e-01,-2.48179e-01,6.01514e-02,-1.57352e-01,2.48009e-01,3.88365e-01,-1.34203e-01,5.14774e-02,-1.92203e-03,-3.55604e-01,-1.10088e-01,
-3.06048e-01,-6.78752e-02,-2.57534e-01,5.79686e-01,-5.24506e-01,-6.53477e-03,4.10460e-01,3.40899e-01,-3.96014e-01,-2.61648e-01,5.91258e-01,6.56247e-02,-1.28385e-01,-6.33151e-01,1.42679e-01,-5.65242e-01,1.20239e-01,5.77180e-02,5.33579e-03,1.58870e-01,
-2.72454e-01,2.11156e-01,-5.23778e-01,-5.41647e-02,-6.03070e-01,-5.77760e-03,-5.52247e-01,1.22816e-02,-5.16679e-02,-3.29606e-01,6.41397e-02,-6.10345e-02,-3.13055e-02,-2.29007e-01,-2.22697e-02,-2.27033e-01,-4.35681e-01,-3.59659e-02,2.45625e-01,2.88755e-01,
1.58105e-01,
-4.02435e-01,
-2.47146e-01,
-4.02340e-01,
3.98723e-01,
4.71322e-01,
2.44298e-01,
4.84813e-01,
-5.97521e-02,
-3.05893e-01,
-6.52155e-02,
1.19594e-01,
-6.03886e-01,
2.29313e-01,
4.47980e-01,
-2.98377e-01,
3.44343e-01,
-5.55172e-01,
-2.37388e-01,
1.44130e-01,
7.89289e-01,-7.38810e-01,-6.90897e-02,3.45929e-01,4.45127e-01,-3.40326e-01,4.74265e-01,5.77296e-01,-3.67779e-01,2.70970e-01,-2.66663e-01,2.04674e-01,4.82243e-02,-1.37554e-01,5.36593e-01,-2.92965e-01,-1.14275e+00,-2.87197e-01,8.21177e-02,9.21665e-02,
6.28284e-01,-5.18599e-02,5.23096e-02,1.44676e-01,2.06705e-01,-7.33977e-02,4.53311e-02,1.91685e-01,-4.02276e-01,-3.57400e-01,1.16619e-02,-1.48143e-01,-4.15764e-01,3.07705e-01,-2.66950e-01,-2.50026e-02,-1.71633e-01,-4.78505e-01,5.18228e-02,-1.13876e-01,
-1.47625e-01,-6.36407e-02,5.19697e-01,2.33735e-01,3.52850e-01,-5.70725e-01,1.31248e-01,-5.98787e-02,-1.27238e-01,3.79899e-01,-3.07440e-01,-4.43700e-02,-1.96073e-01,7.71045e-02,-2.80749e-01,1.09708e-02,-6.01154e-02,4.21632e-02,3.42982e-01,2.21442e-01,
3.23085e-01,8.56454e-02,3.21967e-01,2.12814e-01,4.97094e-02,-1.95258e-01,2.87184e-01,3.03186e-01,1.14966e-01,-3.31731e-01,1.76151e-01,2.43915e-01,-2.18441e-01,3.34083e-01,-8.52916e-02,-3.43032e-02,9.33899e-02,-6.21588e-02,-3.08722e-01,2.01383e-01,
-4.07674e-01,-2.07132e-01,6.28199e-01,-2.11367e-01,-7.05454e-01,2.53387e-02,1.77120e-01,-1.35655e-01,-2.80958e-01,-1.38033e-01,-1.46280e-01,-1.38225e-01,7.02395e-02,-2.42701e-01,-4.70614e-01,-2.45682e-01,-4.40080e-01,-2.02324e-01,-2.03226e-02,3.89743e-01,
9.18209e-02,1.05949e-01,-2.48944e-01,1.28080e-01,4.55847e-01,4.31997e-01,4.58650e-02,-2.71304e-02,-2.87642e-02,1.88912e-01,7.67117e-02,-5.23971e-03,-6.99959e-01,2.26555e-01,-3.45711e-01,6.33885e-01,3.00650e-01,5.11728e-01,-3.13140e-01,1.14576e-01,
-3.19199e-01,2.96152e-02,4.15141e-01,-1.85390e-01,-8.38077e-01,3.14888e-01,4.14502e-01,2.94844e-01,-7.09948e-01,-4.80910e-01,2.20167e-01,-5.82715e-02,-6.44429e-01,-1.32771e-01,2.52559e-01,8.63351e-01,1.64191e-01,-4.76582e-01,8.76074e-02,3.99076e-01,
-5.46284e-01,-5.46291e-01,4.06637e-01,-8.05666e-02,-1.06698e-01,4.16358e-01,-6.15031e-01,5.39115e-01,-5.17078e-03,-1.88695e-01,8.11133e-02,2.91460e-02,2.21878e-01,5.12827e-02,-1.00072e-01,-5.91041e-02,-4.13966e-01,1.64904e-01,7.82494e-02,3.78651e-01,
2.88185e-01,-2.55075e-01,-7.40398e-01,-2.72501e-01,4.60838e-01,-4.23620e-02,7.12849e-02,-3.40121e-01,2.09111e-01,1.80268e-01,-3.15909e-01,2.52101e-01,-3.32084e-01,-8.34390e-04,-3.51155e-01,2.25477e-01,3.36681e-01,3.19437e-02,2.01175e-01,-2.36487e-01,
-2.05325e-01,2.42078e-01,2.15526e-01,-5.13357e-02,-3.65995e-01,2.05574e-01,-5.32845e-01,-8.81816e-02,-2.28691e-01,-1.23494e-01,5.12961e-02,5.88942e-01,-1.20530e-01,-1.20120e-01,1.90848e-01,-6.11201e-02,-1.59730e-01,1.75330e-01,-6.95369e-03,5.22273e-01,
-2.57436e-01,-7.05158e-02,-1.83703e-01,-1.89064e-01,-4.01099e-01,-1.31450e-01,6.40203e-02,-4.61549e-01,3.23276e-01,5.79182e-01,-5.85146e-01,1.47345e-01,-5.06158e-01,3.20856e-02,4.83449e-01,-1.52292e-01,-2.61098e-01,-2.48900e-01,1.70354e-01,-1.92773e-02,
3.58832e-01,-1.01109e-02,2.07411e-01,6.69252e-02,5.54402e-02,-2.15509e-01,1.64267e-01,-6.66907e-03,2.28576e-01,4.00013e-01,4.24804e-01,-7.97971e-02,-3.64206e-01,-1.47183e-01,1.80492e-01,-3.22989e-01,9.80139e-02,-4.72324e-01,4.42028e-01,2.40177e-02,
8.65916e-01,-1.26193e-01,3.29565e-01,2.16722e-01,-2.99551e-01,-4.53904e-01,-2.32557e-01,-3.34587e-01,-3.17443e-01,-5.73203e-01,-8.19507e-02,-1.56497e-01,-3.34395e-01,-3.36479e-02,4.99959e-01,7.06300e-02,-2.55427e-01,5.19628e-01,-1.25986e-01,-2.27083e-01,
-2.05345e-01,-8.95092e-02,-1.08089e-01,-6.73263e-01,9.57633e-02,-4.22292e-01,4.14226e-02,-2.52577e-01,8.95461e-02,1.33961e-01,-2.62400e-01,1.17557e-01,-4.69742e-01,-3.87479e-01,3.00543e-01,3.84874e-02,-5.14881e-02,-1.07248e-01,3.59316e-01,2.23864e-01,
-4.44672e-01,6.82508e-01,3.37344e-01,-1.44389e-01,4.93653e-01,3.92008e-02,4.41231e-01,-8.34122e-02,-6.83648e-01,2.06766e-01,-2.20762e-01,2.85311e-01,-3.47626e-01,-3.76530e-01,4.05032e-01,2.44678e-01,-4.96431e-01,5.57211e-01,-2.55427e-02,-3.90867e-01,
-8.62391e-02,-6.74302e-01,1.62404e-01,2.65508e-01,7.79370e-02,-1.54187e-01,3.31948e-02,-2.75789e-01,-8.30228e-01,-1.49579e-01,-3.20415e-02,-2.06777e-01,2.92885e-01,2.34254e-01,5.51928e-01,-1.14839e-01,2.39222e-01,-5.69670e-01,-3.07589e-01,-2.66573e-01,
-3.98840e-02,-6.50967e-01,2.08853e-01,2.18203e-03,-8.22561e-01,8.92688e-02,3.11315e-01,2.38436e-01,2.11552e-01,-4.18303e-01,-1.07601e-01,-4.03380e-01,5.24346e-02,2.21380e-02,9.43756e-02,3.13930e-02,1.43745e-01,2.73234e-01,4.64976e-02,5.98294e-02,
-5.05836e-01,-4.69909e-02,4.74466e-01,7.13188e-02,7.49940e-01,7.98236e-01,-4.75481e-02,-4.42412e-01,-1.08439e-01,1.50849e-01,-2.39934e-01,-1.85145e-01,4.03356e-01,-4.95637e-01,5.70933e-02,-4.00039e-01,7.05212e-02,-5.31682e-01,8.03920e-01,-4.83768e-01,
2.90962e-01,3.20986e-02,-1.40787e-01,-1.93857e-01,7.75594e-02,-4.22079e-01,-3.70413e-01,-1.19861e-01,-9.22015e-02,2.07186e-01,3.16163e-02,-9.29212e-02,8.91126e-02,-3.92949e-03,-3.35210e-03,-1.33439e-01,-1.11601e-01,1.52979e-01,5.91317e-01,-8.03850e-04,
2.06101e-01,6.03948e-02,-1.60982e-01,1.58208e-01,2.70677e-01,7.87548e-01,6.18135e-01,-1.90671e-01,-4.60146e-01,6.15626e-01,1.04491e-01,-2.17088e-01,2.19575e-01,4.80816e-01,3.09186e-01,5.10844e-01,2.59430e-01,-1.54364e-01,2.44474e-01,-1.12880e-01,
1.71318e-01,
5.88211e-01,
-3.35144e-01,
-2.61662e-01,
-2.24272e-01,
3.14842e-02,
1.52151e-01,
-1.49356e-01,
-9.58873e-01,
-8.09369e-02,
-6.76578e-01,
-2.30937e-01,
1.39031e-01,
1.43971e-01,
-2.20659e-01,
5.51185e-01,
2.28937e-01,
3.45934e-01,
-2.75630e-03,
-1.77965e-01,
2.53346e-01,-3.15546e-02,1.85447e-01,-5.83437e-01,-1.59193e-02,6.28858e-02,5.08637e-01,-1.23643e-01,6.48508e-01,4.03465e-01,-1.98048e-01,5.71343e-02,1.97225e-01,2.82690e-01,9.53125e-02,-1.30939e-01,-5.94887e-02,-2.42019e-01,4.26465e-03,1.14719e-01,
-1.51025e-01,8.66548e-02,-1.34008e-01,-3.09618e-02,5.93925e-02,2.72728e-01,-2.58776e-01,4.47288e-01,6.23022e-02,-4.57655e-01,-1.24135e-01,-4.69607e-02,-1.46286e-01,1.19547e-01,1.69842e-02,9.68336e-02,-8.47350e-02,-4.21852e-01,-3.39295e-01,-3.60341e-01,
2.93081e-01,8.50214e-02,1.60130e-01,-1.77346e-01,-3.71004e-01,-5.92238e-02,-4.35364e-01,3.33265e-01,3.29656e-02,-5.05112e-03,-4.02355e-01,3.13118e-01,2.62047e-01,6.02533e-02,3.95595e-02,-4.44565e-01,1.60705e-01,9.85981e-02,-3.39498e-01,-5.92387e-01,
-1.41819e-02,2.43443e-01,4.71481e-02,9.56777e-02,1.58321e-01,-2.82517e-01,1.02318e-01,1.99173e-01,4.18205e-01,-1.31691e-01,8.91451e-02,1.83196e-01,-4.46747e-01,1.30068e-01,7.06311e-02,-1.27978e-01,-9.86820e-02,-6.25793e-01,3.70884e-01,1.05460e-01,
3.22133e-01,4.48128e-01,1.96519e-01,1.52644e-01,-8.06923e-02,5.45625e-02,2.25157e-01,3.94372e-01,2.10745e-01,-4.70467e-01,1.20719e-01,-1.98433e-01,-6.71029e-01,3.07297e-01,-2.32211e-01,-2.01333e-01,5.06900e-01,3.05796e-01,-2.39500e-02,5.64097e-01,
-6.70232e-02,2.00207e-01,1.92530e-01,2.17131e-01,-4.07150e-01,-2.30100e-01,6.44901e-02,2.86607e-01,2.79432e-01,-1.67085e-01,-7.10254e-01,-5.16990e-01,1.48675e-01,-2.05949e-01,-4.40667e-01,1.30213e-01,-6.13621e-01,-3.32293e-01,-4.94201e-01,3.44688e-01,
-3.76036e-01,-8.65204e-01,3.49172e-01,-7.40243e-02,-1.77889e-02,5.93797e-02,-3.45375e-01,-2.49191e-01,-2.13453e-01,-5.05622e-01,1.21730e-01,4.78726e-01,2.44860e-01,3.51190e-01,-1.65695e-01,1.27735e-01,4.71388e-02,2.50602e-01,1.76486e-01,-2.01592e-01,
-3.73570e-01,1.37729e-01,2.51333e-01,3.14382e-01,8.31910e-03,-2.32641e-01,-9.42909e-02,-3.61018e-01,4.80843e-01,-9.52341e-02,1.73200e-01,-3.17112e-01,1.47787e-01,-5.77972e-01,2.26040e-01,-5.44390e-02,-1.81468e-01,4.97841e-02,1.02431e-01,-2.77617e-01,
8.00325e-02,-4.10054e-01,-7.10781e-01,8.26314e-02,8.51340e-02,-4.58471e-01,1.41240e-02,3.07039e-01,1.06672e-01,-2.65940e-01,-1.60152e-01,3.19005e-01,9.45013e-02,-1.69433e-01,2.92003e-01,-3.85883e-01,-7.75158e-01,-1.30876e-01,-2.21713e-01,-1.56187e-01,
1.54762e-01,-2.35238e-01,4.48493e-01,3.21797e-01,4.62980e-01,-7.59281e-01,1.48355e-01,5.75222e-01,-5.39051e-01,-2.75679e-01,-1.50361e-01,1.95470e-01,2.85014e-02,1.48679e-01,-1.53074e-01,-3.46590e-01,-2.77815e-01,4.47114e-01,7.30649e-02,-8.49072e-02,
5.85364e-01,-2.21257e-01,-7.68825e-02,-5.73621e-01,1.97101e-01,-3.35549e-01,-3.74110e-01,-2.31616e-01,-1.76682e-01,-5.82256e-01,-2.78808e-01,-2.34676e-01,3.53329e-01,-1.35194e-01,2.54785e-02,7.29192e-01,4.89715e-01,-6.11542e-01,-5.45303e-01,2.82785e-01,
-3.63878e-03,5.26339e-03,3.04178e-01,1.64115e-01,8.97051e-02,-1.05669e-01,-3.33616e-02,-4.31384e-01,-7.32471e-02,9.01626e-02,1.37690e-02,5.70101e-01,1.22547e-01,-6.09998e-01,-1.84253e-01,-4.66939e-01,1.29854e-01,-4.43742e-01,-4.11636e-01,4.38853e-02,
2.03299e-01,-1.23386e-01,1.41206e-01,4.69494e-01,-1.21810e-01,5.81173e-01,-9.32634e-02,1.76721e-01,1.34231e-01,3.60309e-01,5.27343e-01,-1.38420e-01,-6.78870e-02,-8.06634e-02,1.28023e-02,1.40088e-01,6.60346e-03,-6.12634e-01,1.80520e-01,1.30436e-01,
-5.28701e-01,6.91631e-01,4.98996e-02,7.79584e-01,2.37119e-01,-3.00642e-01,-3.24794e-01,-3.55736e-01,2.12653e-01,-3.70782e-01,-7.25643e-01,2.48130e-02,-3.22602e-01,-5.58408e-01,1.71159e-01,2.70330e-01,3.62294e-01,-2.91441e-01,1.29927e-01,-7.47149e-03,
2.28900e-01,1.71506e-01,2.56886e-01,5.10929e-01,5.56934e-01,1.82681e-01,-1.23723e-01,6.03341e-01,4.40308e-01,4.03181e-02,-4.48502e-01,-3.52822e-01,3.39148e-02,-1.28375e-01,3.58913e-01,-1.59636e-01,2.25360e-01,-3.22189e-01,1.04474e-01,3.33913e-01,
-2.00345e-03,-2.38817e-01,4.50666e-01,-1.72654e-01,-4.62964e-01,1.41942e-01,-8.58052e-01,1.09301e-01,-1.42189e-02,2.42737e-01,2.69372e-01,-1.07023e-01,6.44402e-02,-5.07330e-01,-6.53262e-01,-2.59007e-01,-1.94191e-01,-6.85334e-01,2.35933e-02,-5.39770e-02,
3.31807e-01,6.17136e-02,1.48714e-01,-7.84937e-02,-1.78376e-01,6.81726e-01,-4.35570e-01,-2.41071e-01,1.54932e-02,4.24402e-01,5.13949e-02,-3.71034e-01,-9.22603e-02,-3.55573e-01,4.06396e-01,-4.56948e-01,-2.41367e-01,-1.75051e-01,2.59817e-01,-4.87133e-01,
-2.26815e-01,-5.40235e-02,-6.80134e-01,5.04921e-01,-4.74986e-01,4.13623e-01,-3.32006e-01,4.61753e-01,1.68813e-01,5.09809e-01,4.21719e-01,-4.63516e-02,-2.59468e-01,-2.68155e-01,-6.19063e-01,-1.75494e-01,-2.51391e-01,6.20121e-01,-1.68084e-01,-1.44091e-03,
-2.50355e-01,-3.16278e-01,8.54784e-02,6.96933e-01,-1.06930e-01,3.54760e-01,-3.70055e-01,-3.86134e-01,-4.09443e-01,-1.36061e-01,1.87277e-01,-2.58456e-01,-3.14135e-01,4.22565e-02,1.10435e-01,-4.45874e-01,-2.40455e-01,-1.29393e-01,-3.55228e-01,-2.55038e-01,
5.02995e-01,-3.82319e-02,1.31158e-01,-3.22105e-01,9.58213e-02,5.86334e-01,-7.44617e-02,1.59781e-01,-1.54833e-01,-2.94044e-01,6.03181e-01,-2.21045e-01,-3.14218e-02,8.33689e-01,-5.33569e-02,-1.40908e-01,8.37182e-02,-7.74245e-01,-2.04843e-01,-1.93755e-01,
-3.47267e-01,
9.35534e-02,
1.81319e-01,
3.63504e-01,
8.72783e-02,
-2.18806e-02,
4.75513e-01,
-2.97181e-01,
-2.81973e-01,
-8.96963e-02,
-4.29838e-01,
-1.47928e-01,
6.44661e-01,
1.05038e-02,
2.10029e-01,
5.51885e-01,
3.02178e-01,
-5.59570e-01,
-3.60032e-01,
-1.47531e-01,
2.37164e-01,-1.54426e-01,2.86789e-01,-5.73339e-02,9.03527e-01,-2.74844e-01,5.75305e-02,-2.17062e-01,2.10108e-01,-2.88564e-01,2.08453e-01,-5.58018e-02,1.55820e-01,2.74194e-01,-2.17709e-01,-2.01328e-01,-6.29338e-02,-8.53625e-02,8.07846e-02,-4.10367e-01,
-1.68356e-01,-2.42247e-01,-3.67338e-01,-5.70193e-02,1.74437e-01,7.26967e-02,-9.63588e-02,-5.58934e-01,-3.92363e-01,4.70320e-01,1.74941e-02,4.98679e-02,2.97709e-01,1.95604e-01,2.60659e-01,5.27910e-02,2.26304e-02,4.37661e-01,3.86558e-01,4.49958e-02,
-1.72000e-01,7.80410e-01,-6.89207e-01,-3.28671e-01,1.56896e-01,-3.29606e-01,-2.28128e-01,1.40881e-01,2.56262e-01,-2.32860e-01,1.69063e-01,-9.60371e-02,-2.74373e-01,6.23660e-01,-5.23701e-02,3.88568e-01,1.44889e-01,-3.18856e-01,-3.23670e-02,5.97918e-02,
2.15455e-01,2.00743e-01,4.29417e-01,1.12037e-01,2.17901e-01,6.03574e-01,2.56932e-01,-4.81214e-01,-5.91048e-01,1.89143e-01,-3.43954e-01,-1.95221e-02,-4.91165e-01,-1.84143e-01,-4.52329e-01,-3.98647e-01,-4.40275e-01,5.44843e-01,-2.83354e-01,2.02019e-01,
-4.33020e-01,3.14106e-01,-1.49910e-01,3.56613e-02,4.82575e-01,-4.14462e-01,4.35905e-02,-2.82231e-01,-1.34474e-01,1.71407e-03,-2.58779e-01,8.98435e-02,-1.06311e-01,2.17985e-01,-2.75077e-01,4.86750e-02,-7.49126e-01,-7.18857e-01,-3.57731e-01,-1.51622e-02,
2.60779e-01,-4.51867e-01,-3.81681e-01,1.09187e-01,3.33409e-01,-8.14233e-02,-6.26560e-02,-1.20055e-01,-1.84111e-02,3.01996e-01,1.05986e-01,1.66100e-01,-2.00173e-01,-9.42042e-02,-3.91011e-01,2.21582e-01,5.55132e-01,-6.39333e-02,5.77806e-01,-1.95586e-02,
4.73337e-01,3.66301e-01,1.70893e-01,-1.92931e-01,-5.77253e-01,-7.89594e-01,-2.69562e-01,-1.48360e-01,-4.00706e-01,3.39915e-02,-5.94943e-01,7.60634e-02,8.46072e-02,-9.79360e-02,2.57670e-01,-1.39487e-01,3.36528e-01,-3.75728e-01,3.72005e-01,1.20623e-01,
4.12898e-01,-3.56387e-01,3.68560e-01,3.38250e-01,-9.09708e-02,-1.42378e-01,5.50873e-01,3.61905e-01,2.73035e-01,7.08263e-02,3.83909e-01,3.28334e-01,1.26531e-02,7.91926e-02,-2.50357e-01,-1.03425e-01,1.84178e-01,-4.36193e-01,6.23676e-01,2.39659e-01,
-1.36092e-01,-1.60611e-01,2.58603e-01,1.66892e-01,-5.41193e-03,-2.68103e-01,1.26993e-01,-1.17077e-01,-7.64874e-02,-1.32235e-01,4.62502e-02,-5.65140e-01,2.28637e-01,2.46975e-02,4.49804e-01,4.25001e-01,2.39407e-01,4.03780e-01,-6.19256e-01,2.47228e-01,
2.16323e-01,1.81503e-01,4.17613e-01,9.48537e-02,2.24846e-01,-7.36501e-01,-2.63576e-01,6.10704e-01,-2.33731e-01,-1.00837e-01,-3.82929e-01,1.29311e-02,3.14139e-02,-3.36503e-02,-1.84383e-02,-4.09011e-01,1.36445e-01,1.66146e-01,7.88074e-02,3.20231e-01,
3.53066e-03,5.47116e-01,5.76316e-01,-1.08553e-01,7.50983e-02,-1.80507e-01,-7.54405e-01,4.08493e-01,-3.14540e-01,6.66516e-02,-2.26939e-01,-8.71151e-02,-6.07061e-01,-1.04453e-02,-9.65051e-02,-4.10353e-01,-5.65973e-01,8.61723e-02,2.41534e-01,-3.79133e-01,
-3.84075e-02,6.91724e-01,-1.18563e-01,-3.21429e-01,2.49321e-01,-6.32115e-03,3.61682e-01,-3.80341e-01,-3.73088e-01,3.25101e-01,2.05175e-01,5.98205e-01,-1.17807e-01,-5.19871e-01,-2.05790e-01,-1.79733e-01,1.20301e-01,-6.77473e-02,2.25394e-01,1.92609e-01,
-2.47482e-01,-9.98091e-02,3.46159e-01,-4.04492e-02,-1.60668e-01,-5.51270e-01,-6.25261e-03,1.75959e-01,2.29420e-01,2.13289e-01,3.90292e-01,-4.03619e-02,-1.78822e-01,-2.55187e-01,6.24447e-01,5.20947e-02,4.04239e-02,-2.23316e-01,-2.36491e-01,-9.17367e-02,
1.03575e-01,-3.13257e-01,1.54816e-01,-6.42638e-01,-4.71240e-01,-3.85973e-01,-5.67723e-01,-4.58452e-01,-3.33710e-01,-4.30503e-02,2.83781e-01,-1.73967e-01,1.58354e-01,2.33054e-01,-9.63401e-02,-3.82019e-01,-2.00476e-02,7.86217e-02,1.49204e-01,5.59951e-01,
-2.99241e-01,1.31814e-01,-8.29908e-03,-1.53525e-01,5.31472e-02,-1.06538e-01,-1.57098e-02,-5.22940e-02,-2.52605e-01,5.43570e-01,-6.05999e-02,-4.99356e-01,1.02483e-01,-2.25686e-01,-3.78236e-01,1.22895e-02,-5.25343e-02,-1.55733e-01,1.94994e-01,4.96267e-02,
-1.51126e-01,6.48771e-02,-2.41393e-01,-2.14564e-01,-3.25955e-01,-1.94875e-01,-1.94357e-01,2.40732e-01,-3.54728e-01,3.03021e-01,1.04046e-01,3.35224e-01,4.54910e-01,1.21655e-01,4.23147e-02,-3.50890e-02,-9.18486e-02,-4.90309e-02,5.90050e-02,4.29124e-02,
1.41921e-01,-2.14698e-01,2.87226e-01,-5.32058e-02,-2.13695e-01,1.24156e-01,-8.01644e-01,-3.79427e-01,-2.55484e-01,-2.24244e-01,-8.09853e-02,-4.31694e-01,2.18784e-01,1.77823e-01,2.17283e-01,-2.17520e-01,-1.15718e-01,4.39053e-01,-6.44888e-01,1.76418e-01,
2.25508e-01,6.07635e-01,1.79712e-01,7.86176e-01,-3.57359e-01,2.79205e-01,1.01326e-01,-3.17769e-01,-1.42492e-01,3.13940e-01,1.73378e-01,-9.46934e-01,-1.12408e-01,6.99520e-02,4.32961e-01,2.62864e-01,-2.65966e-01,-1.01447e-01,1.01122e-01,-6.26024e-01,
-2.43409e-02,3.61738e-02,4.62242e-01,1.13012e-01,1.72441e-01,-2.21284e-01,-4.40765e-01,3.75687e-02,2.03833e-01,-1.82980e-01,7.36997e-01,-1.32986e-02,-4.09172e-02,3.30501e-01,6.41140e-01,1.45362e-01,4.76027e-01,2.53912e-01,-1.36971e-01,4.00623e-01,
-4.56640e-01,-5.15786e-01,-1.73271e-01,-2.60925e-01,9.47174e-02,1.99240e-01,3.13351e-01,-1.30767e-01,-5.63934e-01,1.67698e-01,-5.17415e-01,-1.54105e-01,-9.17051e-02,-1.66055e-01,-9.93410e-02,7.78091e-02,-2.73715e-01,-4.67292e-01,3.32450e-01,-2.96874e-01,
-1.09583e-01,
1.04249e-01,
-6.29059e-02,
3.47969e-01,
-2.24537e-01,
-1.16224e-01,
7.74029e-02,
-5.63213e-01,
4.18279e-02,
4.85448e-01,
-1.17344e-01,
-4.70336e-03,
3.88406e-01,
-2.57669e-01,
8.09741e-02,
2.91903e-01,
9.33982e-02,
1.17686e-01,
-6.65073e-03,
-4.34281e-01,
-4.36768e-01,4.59848e-01,-5.19419e-01,-2.18258e-01,2.44961e-01,1.01976e-01,5.64304e-01,1.75081e-01,2.54798e-01,3.05137e-01,-8.55454e-01,1.60951e-01,-5.09083e-01,-1.51110e-01,-3.00956e-01,3.07350e-01,-6.89227e-01,-8.98163e-02,-6.01888e-02,-2.54371e-02,
-1.48307e-01,-2.80654e-01,-2.28871e-01,8.01779e-02,3.37684e-01,-1.98752e-01,4.02427e-01,-7.35916e-02,9.91022e-02,1.91014e-01,-1.81587e-01,7.02654e-01,4.98631e-01,4.73694e-01,1.26991e-01,-2.27032e-01,1.02444e-01,-1.37202e-01,-1.75216e-01,-2.53448e-02,
-5.72007e-01,9.90316e-02,-3.02928e-01,-6.02708e-01,-1.28140e-01,-3.17175e-01,-3.68171e-01,2.34783e-01,1.28598e-01,-2.08603e-01,-4.85174e-01,3.01950e-01,1.14080e-02,-4.91698e-01,5.42357e-02,-4.14900e-01,-4.40218e-02,3.63204e-01,5.78592e-02,-7.06945e-01,
7.15855e-02,3.00492e-01,-2.45461e-01,-7.39866e-01,-4.39351e-01,-1.50512e-01,4.27851e-02,-2.87533e-01,1.97775e-01,2.23012e-01,-1.86293e-01,1.36616e-01,-5.38279e-01,1.11018e-01,-8.42554e-02,-5.54228e-01,1.49663e-01,-5.80415e-01,3.50769e-02,3.72046e-02,
-1.35261e-01,1.27643e+00,-3.35924e-01,-4.48368e-01,-2.96686e-01,-2.40491e-01,-4.14901e-01,-4.29770e-01,6.08408e-01,3.44789e-01,1.50119e-01,-3.10681e-01,4.15825e-01,5.72186e-01,1.28014e-01,-4.54996e-01,-1.42328e-01,1.39595e-01,2.08949e-01,1.66500e-01,
-2.15916e-01,-6.02389e-02,-2.22803e-02,8.67791e-02,-1.27893e-01,3.41278e-01,5.90173e-01,9.51225e-03,-3.06108e-02,5.13363e-01,1.97274e-01,-1.89287e-01,3.92288e-01,-4.38378e-01,3.37263e-01,2.48979e-01,6.19365e-01,-1.34610e-01,3.76129e-01,-2.08320e-01,
7.99742e-02,-6.47557e-01,-2.31403e-01,-4.43508e-02,-1.14867e-01,-2.04307e-01,-7.56196e-02,8.75037e-02,2.14223e-02,-5.20004e-01,1.84543e-01,-4.51621e-01,-1.44339e-01,7.60017e-03,2.68024e-01,5.51302e-02,2.32551e-01,7.83025e-01,-1.60719e-01,9.62942e-02,
-2.64028e-01,4.75185e-01,-1.77456e-01,4.38457e-01,-9.83653e-02,1.39684e-01,-1.07590e-01,4.40141e-01,1.93442e-01,-2.35500e-01,-1.47806e-01,-1.22629e-01,-1.48771e-01,2.37397e-01,-1.75209e-01,2.34866e-01,2.86946e-02,-9.07090e-02,-3.36841e-01,4.36740e-01,
-3.40262e-01,3.91263e-01,3.12381e-02,9.65928e-02,-2.32365e-01,1.37045e-01,6.42433e-01,-5.92202e-01,2.21895e-02,1.20595e-01,-4.14005e-01,-1.11872e-01,-3.31236e-01,1.12455e-01,7.90711e-02,-2.89064e-01,3.95661e-01,-1.81243e-01,-7.79741e-02,4.02638e-01,
2.03709e-01,3.10330e-01,-2.96391e-01,2.83663e-01,-3.42781e-01,5.33905e-02,1.81468e-01,2.50747e-01,1.44535e-01,-3.30376e-01,-4.46216e-01,-5.37554e-02,1.87039e-01,1.55149e-01,1.43410e-01,-5.82046e-02,-1.10192e-01,-3.38239e-01,-2.21551e-01,2.45335e-01,
3.98033e-01,-3.11182e-01,-9.53184e-01,-3.19258e-01,5.40872e-01,1.43784e-01,1.45787e-01,-3.53263e-01,-2.56919e-01,-2.79121e-01,1.28010e-01,9.05685e-02,9.93205e-02,2.45115e-02,-3.91330e-02,3.27179e-01,-2.38731e-01,-2.24355e-01,-7.85845e-02,-1.62842e-01,
-3.41191e-01,4.53132e-02,-2.80026e-01,1.28208e-01,8.86635e-02,3.47996e-01,2.31013e-01,7.04770e-03,4.55743e-02,-7.58812e-02,-7.50669e-02,3.97984e-01,-1.30292e-01,-3.80394e-02,5.05784e-01,3.62282e-01,-1.24039e-02,-1.34789e-01,1.70301e-01,1.82355e-02,
-1.97787e-01,-6.49704e-02,-3.69671e-01,2.33382e-01,-5.64973e-01,1.64360e-01,-2.98863e-01,-2.11207e-01,2.07696e-01,-1.16583e-01,-3.81691e-01,-2.26385e-01,4.08825e-01,-5.41385e-01,-1.05439e-01,-1.13423e-01,-7.05434e-01,3.69558e-01,-5.86087e-02,1.48270e-01,
-3.70757e-01,8.54611e-03,-2.19473e-01,6.91179e-02,9.23686e-02,3.34724e-03,-1.25709e-01,-2.36847e-01,1.72149e-01,4.28080e-02,-3.71455e-01,-3.57363e-01,4.74385e-01,1.97670e-01,5.36857e-02,-4.63934e-01,-2.08741e-01,3.36737e-01,6.65549e-02,3.68268e-01,
-1.66542e-01,-5.03746e-02,4.26869e-01,-1.85164e-01,-3.77975e-01,2.91057e-01,4.74169e-01,-1.09035e-01,3.97741e-01,7.82476e-02,5.45263e-01,2.89875e-01,-1.99260e-01,-1.69340e-01,1.62149e-01,8.64872e-02,-1.62510e-01,1.19413e-01,1.61591e-01,-5.13505e-01,
-3.42000e-01,-3.39474e-01,-1.15479e-01,-5.16806e-01,-3.66631e-02,1.08423e-01,9.71684e-02,6.38050e-02,-3.67053e-02,-2.01551e-02,3.59920e-02,3.02622e-01,2.17012e-01,2.56798e-01,3.04850e-01,-6.22172e-01,1.41818e-02,7.64185e-01,3.64802e-01,-5.21935e-01,
-1.46299e-01,4.97580e-01,1.04472e-01,-1.86238e-01,5.41540e-01,-6.74411e-02,-3.14039e-02,1.09881e-01,2.40375e-01,-3.04981e-02,5.09258e-01,1.95650e-02,2.64364e-01,2.59270e-01,1.71487e-01,-1.04076e-01,1.31818e-01,5.59315e-01,2.10063e-01,-6.87573e-02,
4.80860e-01,1.71147e-03,4.12608e-01,4.15760e-01,2.45004e-01,-2.08180e-01,4.49872e-01,-2.15935e-01,-1.95830e-01,-3.64196e-02,-5.70104e-01,2.67983e-01,1.54027e-01,-2.63181e-01,1.41914e-02,-1.70120e-01,1.74105e-01,-3.28947e-02,-4.26306e-01,-4.27934e-01,
5.58357e-01,3.36783e-01,1.95691e-01,1.59549e-01,2.04493e-03,-7.59814e-02,-1.15883e-01,-2.54577e-01,-7.36971e-02,-3.54347e-01,-1.20256e-01,3.70102e-01,-3.68961e-01,-6.65689e-02,-1.60972e-02,-5.62254e-01,1.72537e-01,-1.93096e-02,7.71340e-02,-7.60472e-02,
4.50988e-02,-7.20211e-03,3.30650e-01,-7.01471e-01,-4.20069e-01,-2.88114e-01,6.14613e-02,-4.84339e-02,6.93239e-02,1.88395e-01,-1.48901e-01,2.16653e-01,-1.36794e-01,-3.28160e-01,-6.86859e-01,4.62033e-01,5.48771e-02,6.95176e-02,2.52372e-01,-2.55920e-01,
-1.44964e-01,
6.52041e-02,
-2.33503e-01,
7.89962e-02,
-2.29381e-01,
-6.97103e-01,
3.22892e-01,
-2.41878e-01,
1.75544e-01,
-1.66208e-01,
2.03560e-01,
-5.26555e-01,
-2.39452e-01,
8.59217e-03,
2.03499e-01,
6.25106e-02,
-1.88383e-01,
-5.74071e-01,
5.14025e-02,
-1.48152e-01,
-7.13945e-02,1.54772e-01,1.69399e-01,2.12793e-01,2.42037e-01,-1.94226e-01,-2.09990e-01,1.26597e-01,-4.02295e-01,5.06919e-01,-2.68795e-01,3.03181e-01,-1.73247e-01,9.34607e-02,2.76209e-02,2.16242e-01,1.46649e-01,-1.07352e-01,4.52401e-01,1.54875e-02,
2.32025e-01,1.67190e-01,-7.89888e-01,6.62666e-01,1.58938e-01,2.03717e-02,-2.66543e-01,-5.09790e-01,2.91493e-01,-5.04718e-01,-4.04844e-01,4.22995e-02,-1.45962e-01,4.21423e-01,-5.83408e-02,-8.05454e-02,-3.44360e-01,2.50908e-01,-3.08602e-01,-4.72480e-01,
-4.11396e-01,4.21041e-02,-4.20936e-02,-1.00866e-01,-1.01324e-01,-5.07043e-01,3.21392e-01,-1.76700e-01,3.33880e-01,2.07077e-01,1.31747e-02,3.66780e-01,2.54079e-01,2.06766e-01,-2.49535e-01,4.61641e-02,1.60637e-01,-1.57733e-02,-1.50930e-02,9.62963e-02,
-2.46265e-01,-4.26512e-01,-1.10824e-01,3.19609e-01,-2.38649e-01,2.70214e-01,-1.22795e-01,1.76407e-01,-2.99268e-01,-4.05633e-01,-1.65058e-01,2.46144e-01,4.36534e-03,8.33107e-04,-4.58029e-01,2.58227e-01,-1.94698e-01,1.35377e-01,-3.31345e-02,5.14675e-01,
6.80780e-01,1.77679e-01,3.07588e-01,-2.97757e-01,-7.33185e-03,-2.72017e-01,-2.66107e-01,1.65224e-01,4.53468e-01,-1.49490e-01,-2.49331e-02,3.37190e-01,-3.50505e-01,1.58641e-01,-2.63957e-01,4.20809e-01,-8.55899e-02,2.24512e-01,-3.06770e-01,8.41805e-02,
-1.29717e-01,5.28508e-02,-7.86054e-01,5.96045e-02,-1.71081e-01,5.95138e-02,-3.53778e-01,1.19891e-01,-1.57029e-01,1.40811e-01,2.60081e-01,1.23736e-01,1.10999e-01,-2.57547e-02,4.27875e-01,-4.88680e-02,-2.00406e-01,-6.58346e-02,-6.98627e-01,-6.04902e-02,
-3.61613e-01,2.23784e-01,7.68911e-02,-9.60851e-02,-4.73313e-01,-1.69983e-02,-3.34552e-01,3.87739e-01,1.59925e-01,2.96998e-01,-1.80624e-01,-1.49199e-01,-4.29127e-01,2.35547e-02,3.56047e-01,1.52379e-01,-5.74372e-01,5.35292e-01,6.53537e-01,-9.29765e-02,
1.09723e-01,-7.78639e-01,-4.90737e-02,1.44478e-01,1.99565e-01,4.04239e-01,6.55131e-01,2.87924e-01,1.77945e-01,6.41189e-02,3.13587e-01,-6.20367e-01,-2.64407e-01,1.38366e-01,-4.68932e-01,-1.60646e-01,1.69964e-02,1.09588e-01,4.42613e-01,4.34159e-01,
2.57676e-01,1.06406e-01,-5.21940e-01,-6.14158e-01,-4.40381e-02,8.54974e-02,5.22201e-02,3.86380e-01,-1.29519e-01,7.57903e-01,5.60653e-01,-9.27638e-02,-4.35646e-02,-3.14096e-01,1.17777e-02,6.22646e-01,-1.79572e-01,8.42836e-02,-5.74965e-01,-4.39901e-02,
4.14396e-01,-3.65069e-01,6.46057e-02,3.94376e-01,-3.67712e-01,-5.13499e-01,3.12473e-01,3.43027e-01,-1.18183e-01,6.77407e-01,1.75905e-01,4.12995e-01,-3.23014e-01,-1.44183e-02,1.76301e-01,-7.47208e-01,-3.90555e-01,-3.14076e-01,1.76770e-01,-4.98365e-01,
2.47565e-01,-4.33051e-01,2.46766e-01,2.48183e-01,5.83769e-01,1.06070e-01,5.63756e-01,-2.75745e-01,3.57946e-01,-3.15333e-01,-4.04194e-01,-4.45227e-01,5.15924e-01,8.11517e-02,6.22352e-01,-2.50643e-01,1.32090e-01,3.77700e-01,1.30601e-01,-3.85502e-02,
-4.04887e-01,-7.90048e-01,-2.60143e-01,2.24363e-01,-1.10287e-02,5.58597e-01,-2.82248e-01,-1.56846e-01,1.31541e-01,1.82633e-01,1.02187e-02,-1.16500e-01,-2.96932e-01,5.97121e-01,-2.94212e-01,-1.46843e-01,3.40718e-01,-1.36551e-01,4.59536e-02,4.02381e-02,
-5.68040e-02,4.26988e-01,-2.08354e-01,9.47659e-02,-2.00609e-01,3.67272e-01,2.83651e-02,1.04784e-01,-2.53120e-01,1.13962e-01,-4.35276e-02,1.63385e-01,-7.24498e-02,2.50207e-01,-2.00627e-01,-4.17500e-02,-2.21260e-01,3.52342e-01,6.56171e-01,1.76731e-01,
-2.00627e-01,-1.03077e-01,-3.31651e-01,6.09340e-01,-9.57058e-02,1.06241e-01,-1.35626e-01,-1.16936e-01,-2.63897e-01,-3.96984e-01,2.93150e-01,-3.62226e-01,4.70918e-02,-5.08344e-02,-2.43125e-02,-1.59912e-01,3.52327e-01,1.97206e-01,-4.70884e-01,9.95736e-01,
4.42797e-02,-3.15445e-01,-1.83841e-01,5.74768e-01,-3.63863e-01,-1.48511e-02,1.05583e-01,3.70664e-01,3.27172e-01,1.79956e-01,1.78633e-01,-1.64641e-01,1.79528e-01,-1.74014e-01,1.56349e-01,3.56654e-01,1.90834e-02,9.84144e-02,2.48864e-01,3.47795e-01,
-3.57630e-01,3.62341e-01,-6.87155e-04,-2.04553e-01,4.46345e-01,-6.21732e-02,7.58865e-02,-9.51432e-02,-2.18491e-01,1.25745e-01,3.76822e-01,-1.60307e-01,4.20603e-02,5.58083e-01,3.63519e-01,-3.56569e-01,-2.36931e-01,5.00562e-01,1.08577e-01,3.02212e-01,
-4.32183e-01,-1.83632e-01,2.99500e-01,8.52895e-02,-1.43051e-01,-4.12735e-02,1.80179e-01,3.17508e-01,-3.61556e-01,-2.04676e-01,2.83676e-01,-2.95051e-01,4.81224e-01,-2.26604e-02,1.26336e-01,3.02322e-01,-1.80349e-01,3.62511e-01,-2.96818e-01,-2.79742e-01,
2.31081e-01,-2.08692e-01,4.02744e-01,-3.74072e-01,-8.44074e-02,-1.20987e-01,4.21083e-01,4.84002e-01,2.09458e-01,-2.52205e-01,7.47267e-02,3.86366e-01,-4.82686e-01,-5.99753e-01,-6.34924e-01,-6.17785e-01,2.41347e-01,1.29888e-01,-3.11869e-01,3.78629e-01,
-7.52153e-01,1.92589e-01,2.14625e-01,-4.54903e-01,-1.23114e-02,-3.19466e-01,-1.87388e-01,5.00063e-01,-3.15920e-01,3.15616e-01,-3.02834e-01,1.58784e-01,3.78772e-01,5.08167e-02,-4.02763e-01,6.83382e-02,-8.87201e-01,-1.29967e-01,2.30367e-01,2.57346e-01,
-1.22873e-01,2.32714e-01,3.63844e-01,-2.82318e-01,2.25598e-01,-7.29031e-02,2.72615e-01,4.32643e-01,-2.36882e-01,-2.21252e-01,-6.85202e-01,-2.81425e-01,2.24352e-01,2.61960e-01,-2.06622e-01,-1.80995e-01,-9.67203e-02,2.79163e-01,-2.24712e-01,-6.87462e-02,
-2.35621e-01,
-6.22098e-02,
9.14462e-02,
-4.75892e-01,
3.25640e-01,
-4.62764e-01,
4.35324e-01,
-2.88683e-02,
-3.58378e-01,
-2.08903e-01,
7.48935e-02,
-3.72197e-01,
3.82394e-01,
-1.49367e-01,
-3.33760e-01,
-3.34981e-01,
1.16669e-01,
-2.67955e-01,
2.23790e-01,
-3.35497e-01,
-4.22069e-01,-4.13384e-01,-5.00236e-01,1.47577e-01,4.17321e-01,2.63213e-01,-1.14911e-01,1.93494e-01,-1.45830e-01,-2.22648e-02,1.84918e-01,-4.04637e-01,-1.49202e-03,2.82617e-01,1.06876e-01,7.88452e-01,-6.16384e-02,-2.00926e-01,-5.57755e-01,-7.82779e-02,
-7.11396e-02,-1.43761e-01,1.70554e-01,8.61846e-02,9.91633e-02,-2.51724e-01,6.31654e-01,-2.05312e-01,-5.92717e-02,6.27755e-03,7.18493e-01,-4.67346e-01,1.32666e-01,-4.25402e-01,-3.59035e-01,1.40193e-01,-8.26046e-02,-4.22376e-01,-1.63369e-01,2.81649e-01,
1.31772e-01,-8.30270e-02,-2.17539e-02,1.94670e-01,-2.97723e-02,-1.18984e-01,7.51825e-02,-2.18398e-01,1.70243e-01,-1.79280e-01,3.07356e-01,3.97910e-01,3.16509e-02,-1.73026e-01,3.84036e-01,3.04527e-01,2.36648e-01,-5.85824e-01,-3.88656e-02,5.58178e-03,
2.34616e-02,3.49248e-01,3.73183e-01,-4.29180e-01,6.53054e-02,-1.11353e-01,-6.68011e-01,-1.22644e-01,2.13772e-01,-7.31490e-02,4.41552e-01,6.23910e-01,-2.63616e-02,-7.74012e-02,-7.08295e-02,-7.70383e-01,2.40836e-01,-4.75703e-01,4.73060e-01,-3.31858e-02,
3.73082e-02,1.73278e-01,6.04079e-01,7.04933e-02,6.58998e-01,-4.43752e-01,1.24215e-01,-3.13875e-01,5.59266e-01,1.77127e-01,2.62824e-01,2.69257e-01,3.09663e-02,1.03987e-01,-1.92686e-01,2.79743e-01,-2.97002e-01,-2.57099e-01,-2.07713e-01,6.13350e-01,
-2.89281e-01,-2.45607e-01,1.51871e-01,6.27921e-01,-3.14261e-01,1.64143e-01,1.43830e-02,-1.25515e-01,2.74052e-02,-1.56113e-01,-4.35889e-01,-4.37922e-01,5.84763e-01,-4.72853e-01,-1.20667e-01,-3.82484e-01,-1.11198e-01,-2.04836e-01,1.09012e-01,-1.06914e-01,
-1.30658e-01,-7.92119e-02,9.62587e-02,-5.09398e-02,-3.26143e-01,4.05486e-02,-8.99887e-02,5.86605e-01,4.44276e-01,-4.77366e-01,3.66099e-01,1.57705e-01,2.49633e-01,4.33367e-01,1.73721e-01,2.66020e-01,4.53093e-01,3.34668e-01,-1.31846e-01,7.41183e-01,
5.39705e-02,3.31740e-01,2.14434e-01,4.56580e-01,-3.22872e-01,-4.19651e-01,-1.15306e-01,-2.33888e-01,-3.90900e-02,4.05371e-02,-9.93279e-02,-5.63150e-01,1.11798e-01,-3.58779e-01,-4.92675e-01,-4.60694e-02,-2.24733e-01,-1.79526e-01,-1.06219e+00,1.19671e-02,
2.69447e-01,-8.96849e-01,-4.40445e-01,-1.25003e-01,-1.06690e-01,2.55747e-01,9.74171e-02,2.40101e-01,1.06249e-01,-2.22650e-01,-3.51550e-01,-1.19393e-01,1.38858e-01,-3.94078e-01,3.74735e-01,-3.28640e-01,1.93710e-01,-2.60805e-01,4.19903e-01,1.17673e-01,
2.23322e-01,1.47453e-01,-2.16135e-01,4.08214e-02,3.73924e-01,6.59982e-01,-3.91196e-01,3.72362e-01,3.05554e-01,-3.00852e-01,4.54512e-01,1.17229e-01,1.89580e-01,4.73065e-01,6.89247e-01,-5.24540e-01,4.66668e-01,2.24920e-02,-5.84625e-01,1.11366e-02,
-3.82080e-02,-4.50377e-01,1.64216e-01,4.02182e-01,-1.42297e-01,4.71977e-01,-1.88057e-02,1.97505e-01,2.09270e-01,-3.29474e-01,-1.22355e-01,-4.01288e-01,2.56360e-01,-5.94396e-01,3.29191e-01,9.18914e-01,1.25447e-01,-2.44910e-01,-2.02730e-01,5.82862e-02,
2.14889e-01,1.31384e-01,-1.59363e-01,2.94643e-01,-2.12352e-01,7.72109e-01,4.24163e-02,2.35562e-01,1.42430e-01,-2.79550e-01,-9.69742e-02,4.02680e-02,-2.81343e-01,-5.50005e-02,-3.74832e-01,2.56645e-01,4.67682e-01,-7.98690e-02,3.22250e-01,-3.01442e-01,
3.19641e-01,4.72405e-01,2.12866e-01,-6.18446e-02,2.47461e-01,-5.56526e-01,-6.44885e-01,2.83907e-01,-2.37886e-01,-1.33823e-01,-3.55525e-01,-3.04632e-01,3.86394e-01,3.93015e-01,1.35737e-01,2.46613e-01,-1.87839e-01,1.25341e-01,-3.28945e-01,-1.32648e-01,
-1.36857e-01,-8.73821e-02,2.28397e-01,-3.69674e-01,-2.33326e-01,-8.37367e-02,1.31890e-01,-8.18989e-01,2.77023e-01,-5.36680e-01,-9.90418e-02,-7.73991e-03,-2.22694e-02,-2.71638e-01,4.61637e-02,4.12349e-01,4.66305e-01,1.44000e-01,-1.02654e-01,1.11521e-01,
-2.83163e-02,3.58675e-02,1.94386e-01,-2.64980e-01,-4.52508e-02,-3.43041e-01,-7.89799e-01,6.18310e-01,5.31289e-02,-2.82288e-01,5.73520e-01,-1.53574e-01,3.14172e-01,3.66654e-01,1.57515e-01,-4.07063e-02,-2.70569e-01,5.10184e-01,1.27351e-01,-3.37860e-01,
-3.74251e-01,4.86917e-01,2.02441e-02,1.79297e-01,4.01885e-01,-2.29836e-01,-2.50052e-02,-2.59307e-01,-4.18700e-01,-5.59884e-01,-8.23365e-02,-5.64200e-01,-7.19542e-02,-2.96403e-01,-9.74177e-02,3.33485e-01,9.02919e-02,4.00245e-02,2.80985e-01,-2.92358e-01,
-2.27222e-01,5.19275e-01,1.59356e-01,-2.10845e-02,2.00112e-01,-5.03526e-01,5.07563e-02,-4.83311e-01,-9.21650e-02,-7.46534e-02,-1.83210e-01,-6.10934e-01,3.07127e-01,5.84602e-01,5.50399e-01,1.04895e-01,-4.13539e-01,-5.73051e-02,2.87388e-02,-2.74820e-01,
-3.17555e-01,-3.33431e-01,-5.17684e-01,-2.45463e-01,2.88514e-01,-1.17685e-01,-2.09139e-01,1.82758e-01,-7.27401e-01,-6.75879e-01,-4.30674e-01,-1.58052e-01,3.07672e-02,8.78510e-02,-3.86230e-01,6.60778e-01,1.10634e-01,-6.06930e-02,2.38731e-01,-2.03096e-01,
2.14292e-01,2.25217e-01,2.09725e-02,-1.93244e-02,-2.62788e-01,-2.35546e-01,1.56312e-01,7.04431e-01,3.95911e-01,-4.98468e-02,4.81181e-01,-6.26491e-02,1.28529e-01,-4.18250e-01,1.95518e-01,9.38461e-02,-9.36064e-02,-2.16304e-01,-1.68473e-01,8.96293e-02,
1.15114e-01,-1.17848e-01,2.25285e-01,5.08506e-01,4.69907e-02,-2.40825e-01,5.96231e-01,-4.90961e-01,-9.31324e-02,2.55400e-01,5.23864e-01,3.33102e-01,3.11065e-01,-7.58172e-01,-1.60107e-01,8.17466e-02,-5.51119e-01,-4.00179e-01,9.44613e-02,-3.99489e-01,
1.89963e-01,
6.04561e-01,
3.58888e-01,
-4.75367e-02,
-2.50344e-01,
3.97292e-01,
9.15731e-02,
4.05207e-01,
-2.87198e-02,
5.94349e-02,
-9.16640e-02,
7.33410e-02,
-4.39811e-02,
-4.35403e-01,
8.35727e-02,
-4.12583e-02,
-3.66647e-01,
2.56108e-01,
-5.47605e-01,
-1.05423e-01,
-1.10857e-01,3.34485e-02,-1.90528e-01,5.97389e-01,-1.69782e-01,3.38642e-01,8.20113e-03,-1.68535e-01,-1.01626e-01,-7.73417e-02,2.95734e-04,-6.41395e-01,1.10349e-01,-4.38936e-01,4.97253e-02,1.47908e-02,2.49158e-01,-1.86192e-01,1.16615e-01,5.70927e-01,
3.59728e-01,7.61510e-02,1.02526e-01,-2.58038e-01,4.29523e-01,4.47160e-01,4.77703e-01,3.35622e-01,1.33115e-01,1.50036e-01,-2.60209e-01,3.40757e-01,1.02192e-01,1.09827e-01,-7.39148e-02,2.30904e-01,-9.75920e-02,5.86883e-01,1.39802e-01,7.73874e-02,
3.27808e-01,1.36455e-01,2.02703e-01,-2.71789e-01,-1.78355e-01,2.15416e-01,4.11557e-01,9.51541e-02,-9.99661e-02,-3.31171e-02,7.25384e-02,-9.98140e-03,2.21116e-01,-4.06838e-01,-2.08633e-02,-7.94557e-01,2.64306e-01,1.31483e-01,-8.89433e-02,-1.29543e-01,
6.78170e-01,-4.56911e-01,-7.19156e-02,1.64745e-01,1.07996e-01,-9.93292e-02,1.09707e-01,-1.33730e-01,3.32018e-01,2.29156e-02,-9.54530e-02,-2.59003e-01,-1.92298e-01,7.75940e-02,-5.36480e-02,2.59415e-01,-5.05606e-02,5.67934e-01,2.80895e-01,-4.95425e-01,
-1.66789e-01,-2.30448e-01,5.06137e-02,-1.05036e-01,6.22267e-02,-1.98005e-01,3.69604e-01,6.25469e-01,5.32477e-01,-1.21863e-01,1.57173e-01,2.25215e-01,-2.08744e-01,-1.53106e-01,3.60547e-01,-2.15390e-02,8.91182e-01,2.09404e-01,2.60081e-01,-1.53634e-01,
1.04245e-03,-1.49709e-01,-3.32670e-01,-1.03206e-01,-9.36591e-01,2.31621e-01,1.13019e-01,-2.20333e-01,-5.64318e-02,5.60963e-02,5.49737e-01,8.95728e-01,2.95039e-02,-1.03837e-01,1.51044e-01,8.24274e-02,3.60216e-01,2.33065e-01,5.09021e-01,-6.93314e-02,
-2.48382e-01,1.72358e-01,-4.67686e-01,-2.73795e-02,1.70371e-01,2.26345e-01,-1.33694e-01,-2.35528e-01,-2.29918e-01,3.26093e-01,2.93931e-01,-3.01031e-01,4.68485e-02,-1.19760e-01,-1.29548e-01,-3.93349e-01,-5.08904e-01,4.30250e-01,-1.10763e-01,-1.90848e-01,
-3.34799e-01,-4.98426e-01,-1.73477e-03,2.30930e-02,4.19401e-01,3.39034e-01,2.86055e-01,-3.78302e-01,-2.45035e-01,6.44537e-01,-3.13296e-01,1.62067e-02,-3.47185e-01,-2.99693e-01,-6.34206e-01,3.52455e-01,9.01925e-03,-4.23401e-01,-2.63753e-01,-1.95401e-01,
-3.88152e-01,5.96453e-01,1.21337e-01,-3.96678e-01,1.92435e-01,-3.95605e-03,3.55916e-01,-3.33569e-01,-2.89781e-01,1.16828e-01,-2.17127e-01,-4.05586e-01,1.83765e-01,-3.86355e-01,2.67347e-01,1.81848e-01,-2.25479e-01,-1.69317e-01,-3.46842e-01,2.79626e-01,
-4.95809e-01,4.03119e-02,4.11744e-01,-1.82926e-02,9.12901e-02,-2.19617e-03,3.69245e-01,-3.02933e-01,-9.87693e-02,-1.46520e-01,3.42137e-01,-1.50172e-01,3.61252e-01,6.38680e-02,-1.91090e-01,-2.24895e-01,-1.35619e-01,9.47077e-02,-5.22850e-02,-4.28933e-02,
8.65105e-02,9.92006e-02,-1.48079e-01,3.25970e-02,6.31620e-02,4.09165e-01,-6.70684e-01,-4.36957e-01,-9.16920e-02,5.54895e-01,9.41063e-02,-5.64949e-01,5.30415e-02,1.98661e-01,2.03631e-01,2.45404e-02,4.67849e-02,1.20333e-01,-3.39283e-01,-1.33050e-01,
1.52263e-01,-2.96433e-02,-8.46978e-02,3.44806e-01,-1.09943e-01,-8.01350e-02,-1.41670e-01,-1.31186e-01,1.45027e-01,3.35126e-01,2.44637e-01,-2.11828e-01,-5.20058e-02,-2.57845e-01,2.70312e-01,5.95293e-01,-2.70179e-01,-2.94290e-01,-3.00535e-01,4.62365e-01,
9.57395e-02,-3.24167e-02,-3.46106e-01,3.18852e-01,-1.96134e-01,4.52404e-01,-1.12548e-01,-4.18113e-01,8.71361e-02,-7.41474e-03,4.67293e-01,8.58991e-02,3.43589e-01,1.90845e-01,2.04487e-02,-1.67367e-01,-5.08714e-02,-4.82175e-01,-5.76871e-01,-2.94707e-01,
-2.00135e-01,-6.70552e-01,-1.51630e-01,-1.68811e-01,-8.82452e-03,-1.78683e-01,-2.28907e-01,-5.74540e-02,-8.25650e-02,-2.93361e-01,-3.31104e-01,3.36282e-01,-4.29837e-02,-4.28569e-01,1.74748e-01,-2.67411e-01,1.92866e-01,4.24803e-01,6.55857e-01,6.69030e-02,
1.50854e-01,-2.45176e-01,-4.89833e-01,4.73864e-01,1.12772e-01,3.32054e-01,5.72393e-01,3.96340e-01,9.76349e-02,2.22000e-01,-6.18273e-02,-1.45844e-03,-1.75784e-01,-2.44617e-01,3.24427e-01,-5.97760e-02,2.52098e-01,-2.62358e-01,2.99736e-02,3.08978e-01,
2.95780e-02,-6.09366e-01,-4.63880e-02,-1.09898e-01,-2.00808e-02,1.99182e-01,-3.69292e-01,2.19587e-01,4.31723e-01,4.54221e-01,-4.51325e-02,3.56527e-01,1.06402e-01,-3.17720e-01,-4.84448e-01,-1.73819e-01,-4.22429e-02,1.81685e-02,6.74963e-01,-9.75685e-02,
-3.97499e-01,-8.68195e-02,4.03071e-01,-4.29678e-01,5.17003e-01,-1.09345e-01,8.91146e-02,1.91303e-01,-4.87910e-01,-2.11448e-01,2.33856e-01,2.28240e-01,-4.28608e-01,3.85484e-01,-6.04984e-01,6.99141e-01,-4.25886e-02,-5.06492e-01,-2.77288e-01,6.52703e-01,
1.91069e-01,-7.04949e-02,-5.44735e-02,2.45421e-01,-5.55732e-03,-1.37431e-01,-4.21375e-02,-8.52925e-02,8.69091e-02,1.74539e-01,1.34955e-01,-6.83643e-02,-4.36899e-01,5.82261e-01,-8.47037e-03,4.91817e-02,4.77630e-01,-4.53342e-01,-3.63759e-01,-1.95787e-02,
4.12900e-01,-2.01854e-01,-3.75403e-01,7.32342e-02,-2.09033e-01,2.31373e-01,-1.12386e-01,-2.40851e-01,-5.77059e-02,5.45472e-01,-5.92978e-01,-1.13510e-01,3.26568e-01,9.36446e-02,2.22581e-01,-1.30792e-01,-3.90871e-01,1.09883e-01,-4.63781e-01,-7.26888e-02,
3.07630e-01,1.31789e-01,5.16733e-01,2.67740e-01,-6.96900e-02,2.56583e-01,3.38247e-01,-6.88627e-01,3.28475e-01,2.16206e-01,-3.94805e-01,-3.31992e-03,4.26091e-01,3.26412e-01,9.65630e-01,1.57925e-01,-5.39146e-01,-2.54702e-01,3.68544e-01,3.02143e-01,
-7.79420e-02,
-1.42646e-01,
6.02112e-04,
-5.03286e-02,
-3.98384e-01,
1.63112e-01,
1.02578e-01,
-2.40861e-01,
-2.49868e-01,
7.85646e-02,
-7.38682e-01,
7.50380e-02,
3.45205e-01,
-7.84718e-01,
-2.66571e-01,
-3.76623e-01,
1.39181e-01,
2.88352e-01,
-3.25502e-01,
4.48826e-01,
4.02829e-01,1.07960e-01,-4.05082e-01,2.19305e-01,4.67795e-01,-3.22214e-02,-5.96429e-02,2.18847e-01,4.90103e-01,6.96107e-02,1.75478e-01,-8.27324e-01,2.09059e-02,-6.74330e-02,5.03384e-02,3.41944e-01,4.25097e-01,2.56632e-01,5.25826e-01,6.25191e-01,
4.34862e-02,-2.91076e-01,-5.15782e-01,-2.16539e-01,-3.61732e-01,3.27503e-01,-2.92396e-01,-6.08608e-01,2.02895e-01,-2.89055e-01,3.11643e-02,1.14194e-01,-2.63773e-01,-4.94817e-01,-2.07112e-01,-7.10783e-01,-2.71128e-01,-5.32794e-01,7.36685e-02,-2.27835e-01,
6.83768e-02,5.95990e-02,2.38996e-01,5.96993e-01,-2.38361e-01,1.19072e-01,-3.15234e-01,-6.91355e-02,-2.44984e-01,-1.38786e-01,4.72736e-01,-3.04142e-01,-8.33111e-01,1.06491e-01,4.13176e-01,-4.17475e-01,3.02419e-01,-8.39880e-02,4.01724e-01,4.19559e-01,
1.22651e-01,-2.43121e-01,-1.39212e-01,-5.58165e-01,9.83555e-04,3.52643e-01,6.85450e-01,-2.08352e-01,4.91635e-02,-4.62729e-01,-3.87329e-01,-4.93446e-01,-1.08401e-01,-6.84854e-01,3.19340e-02,3.00293e-01,1.63527e-01,5.30950e-01,-1.29644e-01,-1.59559e-01,
-1.87774e-01,-1.47457e-01,-8.02112e-03,-3.54398e-01,1.22777e-01,-3.06252e-01,1.39423e-02,6.52969e-03,6.73652e-02,2.58558e-01,2.11803e-01,-2.79382e-02,9.17330e-03,2.01612e-01,3.80343e-01,-1.33752e-01,1.43676e-01,-1.14755e-02,1.73234e-01,-6.10555e-02,
-3.00062e-01,-7.94016e-02,5.21513e-01,-1.47942e-01,2.33722e-01,3.17938e-02,-2.30606e-01,-2.20917e-01,5.19828e-01,3.14919e-01,-1.99878e-01,3.01836e-01,-1.32958e-01,2.57304e-01,-2.52658e-01,-4.12805e-01,-2.50850e-01,-6.13316e-01,1.71978e-01,-2.26691e-01,
2.43358e-01,-1.79332e-01,-5.13136e-02,-7.18145e-02,1.85819e-02,-1.41255e-02,-1.31443e-01,-2.43680e-02,3.11870e-01,-1.00118e-01,-4.38473e-02,-2.44624e-02,-3.40434e-02,3.01777e-01,-6.27598e-01,3.88171e-01,-3.25915e-02,6.78067e-01,1.67906e-01,2.62375e-01,
6.67253e-01,-3.84928e-01,-1.30531e-01,-7.12747e-01,-3.09662e-02,3.69611e-02,-1.45554e-01,-5.72417e-01,2.26701e-01,1.96533e-01,-3.38318e-01,4.67672e-01,-7.76704e-02,5.86756e-01,3.17820e-01,2.21399e-02,3.93145e-02,-4.13200e-01,7.51562e-02,-1.26493e-02,
1.10956e-01,4.58886e-02,-2.53774e-01,1.50359e-01,-2.83201e-02,2.72905e-01,-1.87856e-01,2.40997e-01,-8.39882e-02,-3.83700e-02,2.50527e-01,1.77892e-01,1.20159e-02,-6.79030e-01,-6.83374e-01,-4.58501e-01,-4.17550e-01,7.89674e-01,3.54091e-01,-4.70740e-01,
2.81228e-01,-3.17812e-01,3.75059e-03,-2.21374e-01,1.03840e-01,1.49762e-01,3.88888e-01,-1.45432e-01,-7.75887e-01,-5.04870e-02,1.08737e-01,1.35528e-01,5.96176e-01,-2.60679e-01,-2.00525e-02,1.27308e-02,-4.85427e-01,1.13062e-01,-8.59747e-02,4.12639e-01,
8.79363e-02,1.32849e-01,3.12866e-01,-2.85887e-02,1.84924e-01,8.86732e-02,4.53030e-02,3.63817e-01,-7.79924e-01,3.09859e-01,-1.90750e-01,-3.33787e-01,-2.29848e-02,-4.71796e-02,-1.04560e-01,-6.28977e-02,3.87228e-01,-1.44312e-01,2.17850e-01,8.86719e-02,
4.04029e-02,-3.34685e-01,1.65871e-01,-2.33779e-02,1.93118e-01,-1.98034e-01,-2.74298e-01,-9.45825e-02,-1.01946e-01,1.19039e-01,4.06090e-02,-6.78786e-01,3.51370e-01,-7.23241e-02,9.80085e-02,-4.29044e-03,-1.40667e-01,1.84594e-01,-3.18237e-01,-3.94099e-01,
2.64325e-01,2.01380e-02,-4.42643e-01,-5.82970e-02,-2.16308e-01,-1.84592e-01,2.64861e-01,2.26419e-02,-2.21849e-01,-2.14735e-02,1.17607e-01,-2.16262e-01,4.11329e-01,7.86031e-02,1.25330e-01,7.93082e-02,2.99946e-01,-6.02780e-01,-9.17727e-02,-1.26277e-01,
-6.39046e-02,-8.73229e-02,-4.45951e-02,2.93898e-01,1.30626e-01,1.47786e-01,-2.81970e-01,2.18960e-01,-2.25335e-01,-2.27049e-01,-4.86307e-01,-2.05614e-02,1.00129e-01,1.75176e-01,-6.70217e-02,-1.30919e-02,3.37106e-01,-6.80334e-01,3.22916e-01,-5.33019e-01,
3.68525e-01,-2.56926e-01,2.58505e-01,-1.35435e-01,3.99995e-01,1.79503e-01,4.23109e-02,-1.09700e-01,-5.33211e-01,-8.13785e-02,-1.05989e-01,5.49815e-01,-6.44349e-02,-4.76411e-01,2.73419e-01,4.78993e-01,-2.22760e-01,-1.67533e-01,-2.48538e-01,3.83216e-01,
-5.59616e-02,1.00154e-01,8.43043e-02,-9.77718e-02,1.69687e-01,-1.24386e-01,3.91548e-01,-1.85786e-01,-3.21255e-01,-2.60038e-02,-2.88302e-01,-4.15651e-01,-1.87252e-01,-2.45862e-01,-4.97785e-02,1.89647e-01,-3.05386e-02,6.99385e-02,3.17676e-02,-2.97729e-01,
3.02223e-01,-9.98627e-02,2.25001e-02,-3.04833e-01,-2.43582e-01,5.10949e-03,6.10141e-01,-3.78450e-01,1.47470e-01,1.81400e-01,-8.27079e-02,-2.83712e-01,-1.20152e-01,-4.09856e-02,6.49918e-01,-1.33596e-01,-3.11035e-02,3.85829e-01,-1.46671e-01,-3.82326e-01,
1.13200e-01,-9.20251e-02,3.14264e-02,-2.23053e-01,-3.53787e-01,3.13267e-01,-2.55954e-01,-5.13729e-01,1.00676e-01,5.39590e-02,-1.00391e-01,-9.38678e-02,1.22328e-01,-8.58925e-03,-2.07431e-01,1.40349e-03,3.85767e-01,1.33275e-01,1.36195e-01,-1.81122e-01,
2.71966e-01,-5.32859e-01,1.36621e-01,3.07685e-01,2.60099e-02,-2.35385e-02,-5.76060e-01,3.06628e-01,2.18341e-01,2.55449e-01,3.27083e-01,-2.36426e-01,-4.85866e-01,1.93645e-01,-1.37574e-01,3.11176e-01,-5.46225e-01,-6.05777e-02,2.35164e-01,3.80131e-02,
2.50015e-01,1.34148e-01,-1.77592e-01,5.63766e-01,-3.78682e-01,-1.92034e-01,1.11970e-01,5.22345e-02,-2.76233e-01,6.31261e-02,1.74126e-01,-4.13345e-01,3.32941e-02,-9.01849e-02,4.40667e-01,8.85467e-02,4.06248e-01,-2.60723e-01,-1.02658e-01,4.88903e-01,
-1.18094e+00,
1.32907e-02,
1.81394e-01,
-1.75746e-01,
-1.93455e-01,
3.82494e-01,
-7.72112e-03,
1.60929e-01,
2.20235e-01,
7.29825e-01,
-4.39547e-01,
3.77367e-02,
-6.83433e-02,
1.99696e-01,
6.92004e-01,
-3.58986e-01,
1.17553e-01,
-2.05734e-02,
-1.99697e-01,
1.06794e-01,
3.43437e-01,2.09454e-01,9.58455e-02,-2.89346e-01,-1.60316e-01,7.77148e-01,-5.58919e-01,9.23650e-02,-2.43926e-01,4.76609e-01,1.65278e-01,3.22089e-01,-5.08704e-01,-2.96069e-01,1.14806e-01,6.14642e-02,4.27756e-01,-3.09782e-01,-3.24637e-01,-2.07788e-01,
-1.07269e-01,1.54959e-01,1.19239e-01,1.62926e-01,-3.61668e-02,-2.43990e-01,1.72413e-01,8.52341e-02,-1.72428e-01,3.85814e-01,4.03953e-01,-1.71130e-01,-1.61909e-01,2.15006e-01,2.56920e-01,1.02665e-01,4.95210e-01,4.29959e-01,5.32557e-01,5.15080e-01,
4.37170e-02,1.22576e-01,-1.35594e-01,2.43273e-01,3.35198e-01,-2.92786e-01,-4.61098e-01,-5.91156e-02,2.01382e-01,2.46655e-01,-2.79670e-01,-5.13762e-01,1.46869e-01,-2.48213e-01,3.76377e-01,-2.95865e-01,9.64610e-02,-9.13419e-02,-2.94885e-01,2.26671e-02,
-2.13474e-01,8.10759e-02,-8.84193e-02,3.10247e-02,-8.95923e-02,1.23167e-01,1.71387e-02,5.45039e-01,-2.64993e-01,-1.36434e-01,4.40973e-02,6.03298e-02,4.60312e-01,1.45419e-01,-4.72657e-01,9.53811e-02,4.92662e-02,3.57853e-03,4.69344e-01,-1.93895e-01,
7.60126e-01,4.71437e-01,-2.88814e-01,-8.72671e-03,-1.89543e-01,3.04134e-01,7.39438e-01,-1.58960e-01,4.14674e-01,1.85932e-01,-1.66474e-01,-2.89668e-01,-1.10038e-01,2.05361e-01,8.93801e-02,5.58676e-02,2.27283e-01,1.72676e-01,-4.13339e-01,1.26720e-01,
1.55837e-01,7.44454e-02,-1.22252e-01,2.65052e-01,1.66307e-01,-2.95652e-01,4.80233e-02,-3.24800e-01,-1.26957e-01,3.80486e-01,6.00495e-02,7.79030e-02,-1.57000e-01,1.55546e-01,-1.28506e-01,-3.31920e-01,1.44088e-01,4.05268e-01,-1.92692e-02,3.60696e-01,
3.43231e-01,5.33775e-01,2.06054e-01,-1.37855e-01,4.63986e-01,2.71332e-01,-2.22476e-01,1.53511e-01,1.07844e-01,-4.13043e-01,5.43052e-02,-4.15696e-01,-7.48508e-01,-3.08361e-01,-3.84675e-01,3.05739e-01,-6.43655e-02,-3.25664e-01,1.08860e-01,-2.97357e-01,
2.55418e-01,2.09460e-01,-1.35895e-01,-2.97027e-01,5.40558e-01,-2.43704e-03,1.08910e-01,2.65569e-02,4.89128e-01,-3.62794e-01,-5.68423e-01,-3.36278e-01,-7.21152e-02,-8.76847e-01,-3.35543e-01,8.53939e-02,2.13921e-01,7.82493e-02,-8.96203e-02,1.28416e-01,
4.24436e-01,-2.35964e-02,-1.46484e-01,2.68723e-01,1.25698e-01,-1.34348e-01,-4.02477e-01,-1.04206e-01,-3.26224e-01,2.77752e-01,1.11271e-01,1.15478e-01,-2.57830e-01,-4.07359e-01,-2.29806e-01,2.40073e-01,-4.73777e-01,2.50454e-03,-1.56347e-01,1.24101e-01,
-4.18841e-01,1.34745e-02,-2.26075e-01,-6.22635e-03,1.18663e-01,-2.13519e-01,5.29263e-01,2.50794e-01,-3.80897e-01,-2.37351e-01,-1.66440e-01,-4.29247e-03,2.91183e-01,3.89597e-01,-2.46248e-01,-4.02733e-02,-8.33695e-02,-6.30088e-02,6.47891e-01,-1.99008e-01,
-2.88946e-01,4.36448e-01,-3.98966e-01,-8.05914e-01,-3.01448e-01,-2.24091e-01,-2.11508e-01,1.30806e-02,1.22801e-01,-3.58699e-01,2.10258e-01,-1.75012e-01,-2.59928e-01,-1.49930e-01,-2.85228e-01,-7.55021e-01,3.46471e-01,-4.92794e-01,2.41308e-01,3.59798e-01,
-4.63341e-01,-7.17952e-01,2.28284e-01,1.61926e-01,-3.53123e-01,4.32400e-01,-3.83579e-01,9.41775e-02,-1.53239e-01,-2.91363e-01,2.12431e-01,2.25405e-01,5.31113e-02,-8.36361e-01,-2.49226e-01,-1.25151e-01,-7.15839e-01,1.07098e-01,5.36049e-01,2.33607e-02,
-2.37828e-01,-3.20144e-02,-5.02851e-01,-6.24532e-01,7.89503e-03,3.21217e-01,-3.67298e-01,4.99496e-02,2.85862e-02,-6.30511e-02,-1.97714e-01,-6.46029e-02,2.15159e-01,6.99127e-01,-2.97004e-01,2.15405e-01,-8.40174e-02,-1.65963e-01,5.32096e-01,-3.52844e-01,
3.64122e-01,4.35796e-01,-9.13439e-02,3.82543e-01,-5.72440e-01,-1.96048e-01,2.51368e-02,-2.29613e-01,-4.00066e-01,9.37628e-02,-9.18756e-01,-2.37576e-01,-6.36789e-02,-1.18714e-01,5.22251e-01,1.39481e-01,-1.09590e-01,-1.21368e-01,3.36731e-01,-4.42658e-02,
5.91165e-03,4.18731e-01,-1.19697e-01,7.15639e-02,3.42748e-01,2.28548e-01,-2.79314e-01,6.51852e-01,6.31138e-01,-1.11575e-01,-1.18565e-01,-1.35102e-01,4.95947e-01,2.78340e-01,7.84074e-02,-2.37220e-02,-4.20336e-01,4.39368e-01,1.59426e-01,4.63378e-02,
3.92262e-01,2.89215e-01,-7.17417e-01,2.35086e-01,1.50492e-01,1.63370e-01,-1.89437e-01,-2.06655e-01,-1.25751e-01,8.95862e-02,-2.03031e-01,-2.58506e-01,-2.75266e-01,1.83299e-01,-1.78755e-01,-1.59715e-01,-3.30815e-01,-2.12047e-01,5.18743e-02,6.86555e-01,
4.09628e-01,-3.26890e-01,4.47260e-01,5.24008e-01,-5.25042e-01,-5.16642e-01,-3.90860e-01,6.18069e-02,-7.31771e-01,-9.80025e-02,-1.93224e-01,1.21447e-01,-3.17969e-01,-3.93424e-01,1.21188e-02,-7.03264e-02,-3.16335e-01,-2.02902e-01,-1.20987e-01,2.24937e-01,
-3.69281e-01,-4.49720e-02,-1.68790e-01,2.30569e-01,9.09292e-02,-1.47845e-02,-8.05524e-02,4.07677e-03,-1.74315e-01,-2.69788e-01,2.35997e-01,4.83087e-01,-2.22070e-01,1.65693e-01,4.28436e-01,3.88072e-01,6.03792e-01,2.88236e-01,1.33174e-01,-1.07265e-01,
5.07488e-01,-4.79710e-01,3.54707e-01,-3.52234e-01,6.24682e-01,-2.90790e-01,-7.79009e-02,6.84600e-01,4.48962e-01,-3.50857e-01,-3.11600e-01,2.26769e-01,-6.55751e-02,3.43572e-01,-3.47041e-03,-8.50654e-01,3.44235e-01,1.77771e-02,-1.22360e-01,7.20522e-02,
5.84330e-01,3.30112e-01,-3.38699e-01,-5.29555e-01,7.13774e-01,-4.95434e-01,-2.08475e-01,-4.70557e-01,3.74594e-01,6.11480e-01,-5.31650e-01,-1.35492e-01,7.43325e-01,1.72348e-01,-3.98144e-01,-2.56658e-01,-2.27054e-01,9.12292e-03,1.06031e-01,5.53451e-01,
-2.39170e-01,
4.94383e-01,
-2.35274e-01,
4.16547e-01,
-1.78247e-01,
-4.35265e-01,
5.56808e-01,
-4.81364e-01,
-1.57270e-01,
-4.66566e-02,
-5.02913e-01,
-1.90346e-01,
4.02486e-01,
-3.22942e-01,
-2.63735e-01,
-9.84290e-02,
4.49504e-01,
-1.31937e-02,
-9.94620e-02,
1.05535e-02,
1.64023e-01,-3.05188e-03,3.05419e-01,6.60846e-01,3.56738e-01,1.96474e-02,1.86020e-01,4.93712e-01,5.95060e-02,2.67605e-01,-3.79070e-01,1.68364e-01,5.47891e-02,-3.75786e-01,-5.06548e-02,1.49750e-01,-1.37721e-01,-3.06206e-01,-1.45051e-01,2.78960e-02,
-3.49924e-01,5.73885e-02,3.02069e-01,-1.86685e-01,1.37587e-01,2.13457e-01,1.10280e-01,3.86560e-01,-2.12559e-01,2.50144e-01,-4.39003e-03,8.67763e-02,1.98399e-01,-1.22292e-01,7.49997e-01,-8.19012e-01,3.52482e-01,-1.69175e-01,8.66030e-02,-1.46036e-01,
3.46162e-02,4.42713e-02,2.85826e-01,6.53061e-01,-7.36252e-02,-8.32927e-02,-5.38082e-01,-5.32877e-02,-1.89046e-01,-2.74825e-01,-2.48566e-01,5.12514e-01,-7.85088e-03,-7.37967e-01,-3.63120e-01,-3.73986e-01,1.98475e-01,-7.21366e-02,1.65933e-01,2.22123e-01,
1.97128e-01,2.41416e-01,1.42137e-01,2.32549e-01,-1.83378e-01,3.73809e-01,-1.60472e-01,1.41043e-01,1.33340e-01,5.72819e-01,-4.62582e-01,5.65242e-01,-6.26387e-01,3.35354e-01,4.89451e-01,-4.28818e-01,2.97518e-02,-5.96161e-02,3.54549e-01,-1.00724e-02,
4.34375e-01,-2.57142e-01,1.12949e-01,2.25046e-01,3.74807e-01,-3.50468e-01,4.61968e-02,1.37311e-01,3.02937e-01,6.30217e-01,-1.70444e-01,5.08481e-01,1.12511e-01,2.42208e-01,-9.06539e-02,2.33519e-01,6.05609e-01,2.33704e-01,1.04409e-01,-3.16078e-02,
2.39617e-01,-1.18088e-01,1.67571e-01,-1.87270e-01,1.82849e-01,-5.45442e-02,5.01683e-02,-4.37029e-01,-2.17898e-01,2.19558e-01,5.75784e-01,1.96981e-01,4.26434e-01,-1.46630e-01,-1.35709e-01,-3.76967e-01,-4.19941e-01,3.84229e-01,-2.72694e-01,-8.72361e-02,
-4.57985e-02,2.59755e-02,2.73880e-01,-9.04074e-02,-4.51213e-02,1.75177e-01,-5.59138e-01,3.14895e-01,-1.68891e-02,-3.13931e-01,8.80966e-02,-3.95596e-02,-2.17668e-01,-1.72153e-01,8.92495e-02,-5.23683e-01,-4.76285e-01,1.94678e-02,-6.50566e-02,-2.59463e-01,
3.26060e-01,-2.73546e-01,-2.20077e-01,-5.76606e-01,3.58760e-01,-5.79687e-01,-4.63908e-01,6.12789e-02,-2.56053e-01,1.44920e-01,2.67532e-01,-5.51890e-02,-3.36710e-01,-1.45224e-01,-3.09910e-02,6.27952e-02,2.99733e-01,3.63445e-01,1.00534e-01,3.12120e-01,
-8.38804e-02,-1.10974e-02,4.50272e-01,-3.68938e-01,-5.14418e-01,-3.08533e-01,1.94107e-01,1.67130e-02,-1.35992e-01,-7.04267e-01,4.58224e-01,-3.04615e-01,1.57045e-01,4.54582e-01,-1.29272e-01,-1.08882e-01,-3.31312e-01,5.30583e-01,-6.22709e-01,-3.14050e-02,
4.76633e-01,1.34427e-01,-5.64194e-01,1.00636e-01,-2.74182e-01,3.65915e-01,4.49657e-01,2.79721e-01,-3.11598e-01,9.16343e-03,3.39781e-01,-2.18069e-02,-4.28455e-01,3.11190e-01,-8.97853e-02,3.20574e-01,-2.24234e-01,-2.03208e-01,-4.47414e-02,-1.45490e-01,
2.78758e-03,-1.65548e-01,-8.07091e-02,2.82757e-01,-4.50031e-01,-8.78543e-01,-3.94593e-01,-2.19050e-01,-6.55082e-02,-3.09054e-01,-2.16097e-01,-9.85040e-02,2.42389e-01,5.84930e-01,8.67240e-02,5.13076e-01,7.33985e-01,1.22203e-01,5.62477e-01,-3.33700e-01,
-1.05079e-01,-1.99716e-01,-5.90667e-01,-3.70656e-01,6.44939e-02,-6.06652e-01,-8.62725e-03,2.24062e-01,-1.42979e-03,2.30697e-01,-2.83581e-01,-3.28639e-01,1.46161e-01,4.52087e-01,-1.61266e-01,-1.66222e-01,-8.73959e-02,-1.10253e-02,2.07830e-01,-3.66455e-02,
-2.20236e-02,7.27025e-02,4.19853e-01,1.66298e-01,9.04939e-02,-4.65044e-01,4.54433e-01,-2.02888e-01,3.74020e-01,2.85177e-01,3.30095e-01,1.39793e-02,1.41227e-01,5.59238e-01,4.93938e-03,4.60726e-01,1.77619e-01,-9.79361e-02,2.96888e-01,-4.21252e-01,
2.77246e-01,-3.25417e-01,-3.42964e-02,1.64266e-01,-2.37736e-01,-2.65817e-01,1.78348e-02,1.47177e-01,-5.90610e-02,-2.32721e-01,1.01597e-01,-7.26598e-02,1.21381e-01,1.08517e-02,-4.63887e-02,3.58883e-01,-3.26303e-01,4.80927e-01,1.86032e-01,3.31954e-01,
2.03925e-01,-2.41027e-01,-1.93913e-02,-1.98564e-01,4.34925e-01,-2.93701e-01,1.71197e-02,-2.21710e-01,-7.87837e-02,-5.86524e-01,-5.06161e-01,-1.52474e-02,-5.65565e-01,-2.43776e-01,3.72099e-01,-4.95308e-01,-8.53098e-02,2.22407e-01,-2.98814e-01,-3.77576e-01,
-3.65625e-02,6.99497e-01,8.65117e-01,2.23102e-01,-1.46632e-01,2.14295e-01,1.65125e-01,-1.36735e-01,1.35218e-01,-4.64967e-01,-4.38056e-01,7.50457e-02,-3.38317e-01,-1.43526e-01,-6.55236e-02,-2.92221e-01,1.01246e-01,-5.51573e-01,-2.79246e-01,-7.07796e-01,
1.40766e-01,1.14745e-01,4.86959e-02,-3.72446e-01,-1.45421e-01,1.81384e-01,6.20536e-03,5.72242e-01,-3.11479e-01,-1.58329e-02,2.22110e-01,4.99818e-01,3.33097e-01,-2.77616e-01,3.33643e-01,3.39707e-01,9.17943e-02,-3.11766e-02,-7.40497e-02,4.42455e-01,
3.18805e-01,-5.98155e-01,-2.02242e-01,2.59568e-01,2.26292e-01,-2.81485e-01,7.19171e-02,7.22994e-01,1.09158e-01,1.56245e-01,7.92886e-01,2.36980e-01,-7.34079e-02,2.75584e-01,8.48701e-02,-1.97260e-01,-1.98727e-01,-2.69628e-01,-6.81573e-02,2.42911e-01,
-4.52915e-01,1.17567e-02,6.60385e-02,1.32597e-02,-8.42672e-03,3.19608e-02,1.59836e-01,3.41027e-01,4.30263e-01,-1.59554e-01,-1.64666e-01,-8.17499e-02,-1.62687e-01,3.81187e-01,-4.41886e-01,-4.99642e-01,-4.20390e-01,2.48323e-01,-1.29088e-01,2.75462e-01,
3.31539e-01,-1.72802e-01,-1.28483e-01,1.20067e-01,7.60342e-01,1.75008e-01,3.48004e-01,-1.00696e-01,1.44623e-02,1.97266e-01,-3.60890e-01,3.11539e-01,-1.42510e-01,7.96084e-01,-9.53772e-02,5.82461e-03,-3.32468e-01,1.73859e-01,2.36552e-01,-1.68046e-01,
-2.44228e-01,
1.74127e-01,
4.22467e-01,
-1.25652e-01,
3.83697e-01,
3.15194e-01,
-4.56902e-01,
-4.18515e-02,
-1.97237e-01,
-1.17610e-01,
1.03225e-01,
7.46630e-02,
-8.79409e-04,
9.70223e-04,
-1.14382e-01,
-2.43012e-02,
2.49222e-02,
2.03090e-02,
-2.01330e-01,
-6.64360e-02,
9.44550e-02,1.97045e-01,4.25728e-02,1.38326e-01,2.23840e-01,1.02994e-01,-6.50067e-01,2.87252e-02,-4.20160e-01,1.98796e-01,3.68899e-01,5.38193e-02,2.09428e-01,-3.73919e-01,4.27261e-02,3.78063e-01,4.96052e-02,3.87481e-01,1.82173e-01,1.64761e-01,
2.79072e-01,6.89200e-01,-1.46040e-01,-3.24918e-01,-3.86682e-01,4.42436e-01,-6.76353e-01,-2.97660e-01,1.00530e-01,-1.87743e-01,5.69696e-01,-1.56918e-01,1.33576e-01,2.30148e-01,-1.56569e-01,5.93704e-02,-2.34491e-01,6.15027e-03,3.58797e-01,1.22066e-01,
-1.81356e-01,4.53352e-02,4.00553e-01,-1.27161e-01,-2.97111e-01,3.91460e-02,1.78807e-01,-4.34322e-01,6.29873e-02,2.10805e-01,-3.20474e-01,2.18792e-01,3.51552e-01,-1.69827e-02,-8.63966e-02,-1.01883e-01,-6.40074e-02,1.47243e-01,-3.89530e-01,-3.94276e-01,
2.00463e-02,-1.20423e-02,-5.91761e-02,4.87183e-01,3.17281e-01,3.21100e-03,-1.16217e-01,7.32310e-03,1.53387e-01,-2.92797e-03,-3.54430e-01,7.71660e-02,-3.62001e-01,-1.52107e-01,-1.36729e-01,-6.44260e-01,3.92347e-01,5.42967e-01,2.06514e-01,7.27329e-01,
-6.06421e-01,-5.55771e-02,-2.11807e-01,-1.83343e-01,1.70717e-01,-5.30001e-01,3.21326e-01,5.38692e-01,-2.88022e-01,-4.62727e-01,-4.67487e-01,2.46133e-01,-2.72587e-01,2.58975e-01,-1.83206e-02,-6.90951e-03,-1.53919e-01,1.87267e-01,-1.75344e-01,1.17552e-01,
-1.56284e-01,-2.48244e-01,3.19974e-01,1.07305e-01,-3.70539e-03,8.68596e-01,1.13891e-02,-2.30053e-01,6.33733e-02,1.52937e-01,1.58667e-01,1.00097e-01,-3.73476e-01,-1.76884e-01,2.50376e-01,-2.68061e-01,-2.52232e-01,3.88677e-01,-3.15071e-01,-2.85765e-01,
-7.70624e-03,-1.48433e-01,2.27205e-01,-5.61946e-02,-3.22592e-02,-3.46803e-01,8.00869e-01,4.62065e-01,4.01640e-01,-1.76039e-02,1.64378e-02,-4.07851e-01,-8.01840e-02,-6.50696e-02,-1.82660e-01,7.09482e-01,-5.34807e-02,-1.00670e-01,-4.67792e-01,-1.66632e-01,
3.37740e-01,2.82041e-01,1.46839e-01,1.23498e-01,2.19614e-01,-2.30674e-01,1.23698e-02,4.84645e-02,1.65845e-01,-2.67271e-01,-4.26833e-01,3.61223e-01,-4.00591e-02,-2.79037e-01,2.44959e-02,8.95465e-02,-9.38181e-02,-6.60398e-01,8.17804e-02,-1.99318e-01,
-3.93218e-01,-5.04932e-02,-1.15603e-01,1.49512e-01,1.57516e-01,-2.34503e-01,-4.29097e-02,6.68775e-02,2.05124e-01,-3.06963e-01,1.16490e-01,-2.81138e-01,2.93969e-01,-1.16400e-02,7.49784e-02,-1.29020e-01,3.99194e-01,-5.40216e-02,2.41626e-02,-6.90076e-01,
3.52640e-01,-1.81078e-01,-6.07269e-01,2.45373e-01,-4.63875e-01,3.58260e-01,-4.33349e-01,3.29294e-01,-4.15905e-01,1.91088e-02,-4.71829e-01,2.70600e-01,-7.88949e-02,-4.76061e-01,6.78440e-01,-4.74606e-03,-2.00899e-01,-1.51454e-01,2.85953e-01,4.49272e-01,
-6.06480e-01,4.13629e-01,2.55952e-01,-6.13564e-02,3.80331e-01,-2.92942e-02,-6.27336e-01,1.08932e-01,-2.04760e-04,-9.86996e-02,3.18622e-01,-2.87623e-01,-5.05020e-01,2.50780e-01,-8.85873e-02,1.88510e-01,4.70713e-01,3.93461e-01,-1.09713e-01,-1.17780e-01,
-4.80533e-01,2.05218e-01,-2.26615e-01,1.68032e-01,-2.79134e-02,-1.18353e-01,8.64246e-02,-3.00925e-01,4.26654e-01,-1.33870e-01,2.07934e-01,9.97692e-02,4.67169e-01,-4.42016e-01,5.18854e-01,3.07716e-01,3.21722e-01,-7.41484e-01,5.34888e-02,2.52549e-01,
-3.19561e-02,-4.69995e-02,-9.98664e-02,-4.00221e-01,1.39069e-01,-3.61720e-02,-3.83199e-01,-3.00604e-01,-8.71577e-02,5.17075e-01,4.07468e-01,-1.21861e-01,-1.04029e-01,3.14134e-01,4.44735e-01,-3.49899e-02,-2.70420e-01,4.03578e-01,-2.85541e-02,1.20333e-01,
3.76257e-01,6.85035e-02,-1.01255e-01,-7.14584e-03,-1.51028e-01,-5.53145e-01,2.60655e-01,9.30130e-03,2.20829e-01,-2.33204e-01,-8.74252e-02,1.41471e-01,-3.83069e-01,-1.44262e-01,-4.52029e-04,4.33387e-01,1.27535e-01,5.74383e-01,2.34739e-01,-6.01195e-02,
4.71909e-02,-6.97634e-02,6.51191e-02,-5.03919e-01,-1.69562e-02,-1.98693e-02,-8.40548e-01,1.52178e-01,-4.28873e-02,-3.14870e-01,-2.84642e-02,3.19536e-01,4.48564e-01,8.35431e-02,6.13155e-01,8.93042e-01,4.27282e-02,9.06311e-02,3.66607e-01,2.73103e-01,
6.21328e-02,2.58318e-01,9.46823e-02,-6.21969e-01,6.24250e-02,-9.59591e-02,6.58385e-01,-2.61682e-01,-2.80420e-01,2.95727e-01,-3.72580e-02,-7.68700e-01,1.99206e-02,1.73172e-01,-2.08268e-01,-3.61666e-02,4.73557e-01,-2.97686e-01,9.11504e-02,-1.76821e-01,
-2.51815e-01,-6.55953e-03,-1.15130e-01,-5.32001e-01,-5.51306e-01,7.91719e-02,1.33678e-01,7.11499e-01,-4.47156e-01,1.21519e-02,-8.69321e-02,-2.10268e-01,-6.15268e-02,-3.15021e-01,-4.45611e-01,1.95145e-01,3.20664e-01,6.91606e-02,-4.84814e-01,4.80259e-01,
1.40415e-01,2.63346e-01,-1.53682e-01,1.18510e-01,-1.32952e-01,-5.64059e-01,-7.71438e-02,-1.07108e-01,1.31370e-01,3.61448e-02,-6.18210e-02,-3.43197e-02,3.73172e-01,4.61596e-02,4.76306e-01,-2.54605e-01,2.38195e-01,-2.82485e-01,-2.79281e-02,-2.61196e-01,
-4.94664e-01,-2.13458e-01,-8.68420e-02,-4.66159e-01,-1.73312e-02,2.15273e-02,-6.57947e-02,4.25441e-01,-3.23094e-01,-6.59978e-02,-1.99038e-01,-2.96912e-01,-3.33474e-01,-2.82733e-01,4.46982e-01,2.47440e-02,-4.12421e-01,-1.00797e-02,-1.14058e-01,1.17854e-01,
4.79169e-01,1.76888e-01,4.36747e-02,1.96226e-01,-7.73045e-01,5.40720e-01,-3.53586e-01,3.68812e-01,-1.05217e-01,-7.36414e-02,4.69106e-02,1.39632e-01,-3.15243e-01,1.02614e-01,6.71457e-02,1.22673e-03,1.99425e-02,-4.49586e-01,2.08655e-01,-2.40165e-04,
-1.94714e-01,
5.22673e-01,
-2.03006e-01,
4.30746e-01,
-6.31537e-01,
-4.93138e-02,
-2.25287e-01,
-3.23456e-01,
-1.03587e-01,
-3.06588e-01,
1.24785e-01,
-2.25149e-01,
6.61005e-01,
5.14326e-03,
2.85330e-01,
-3.02537e-01,
-6.55398e-01,
-1.73327e-01,
2.47925e-01,
-2.81032e-01,
-5.24337e-01,-3.72260e-02,3.05060e-01,1.22579e-01,-4.63605e-01,-1.82724e-02,-7.55300e-01,2.09477e-01,-5.98350e-01,7.40869e-01,-1.14262e-02,-4.75822e-02,-8.17618e-02,1.47465e-02,1.59152e-01,-2.05811e-01,3.74455e-01,-1.90352e-01,4.57176e-01,5.53517e-02,
-1.80662e-01,-1.49654e-01,3.71922e-01,4.04373e-01,-5.79924e-01,8.62291e-02,-9.38995e-04,-3.67313e-01,-3.39465e-01,4.87730e-01,-1.38574e-01,3.21650e-01,-1.81736e-01,-1.23184e-01,1.97387e-01,3.89611e-01,4.82205e-01,-2.78408e-02,-2.19133e-01,1.34720e-01,
4.47603e-01,1.00887e-01,-5.07279e-01,2.01001e-01,-2.20218e-01,-3.81644e-01,9.96507e-02,-8.28225e-01,1.39435e-01,5.81890e-01,5.66228e-02,1.53699e-01,-1.88171e-01,1.04050e-01,1.40734e-01,-5.83544e-01,1.71473e-01,-2.47498e-01,-3.78149e-01,-4.88486e-02,
-1.53346e-01,-4.81399e-01,2.71206e-01,5.42749e-02,1.47870e-01,3.01124e-01,5.09840e-01,-5.67668e-01,5.75790e-01,-1.22273e-01,2.75436e-01,2.95675e-01,-2.88903e-01,8.48433e-01,-1.70713e-01,-1.20978e-01,3.40632e-01,-3.99644e-02,6.87834e-02,9.94443e-03,
4.87016e-01,1.71378e-01,2.69601e-01,-4.61859e-01,-3.29507e-01,-2.41463e-01,4.00016e-01,3.29220e-01,2.11497e-01,5.42208e-02,-1.52520e-02,-3.42579e-01,1.19798e-01,5.14201e-01,-1.90871e-01,-1.66242e-02,-2.57772e-02,-5.54875e-01,-8.89591e-02,1.23788e-01,
1.08337e-01,-1.19912e-02,-4.33732e-02,-1.74080e-01,1.70056e-01,-6.36327e-02,3.90913e-02,-4.83534e-01,2.19964e-01,5.48379e-01,-1.61561e-01,2.58461e-01,-2.75672e-01,3.03287e-01,-4.57117e-01,1.22905e-01,-5.68410e-01,1.15236e-01,-3.87135e-01,-3.21633e-01,
2.52218e-01,-1.10329e-01,1.90521e-01,3.31301e-01,-5.29570e-01,-2.75798e-01,-1.06184e+00,1.79941e-01,-6.87244e-01,2.93967e-01,4.74972e-01,-3.50425e-01,-1.55573e-01,5.41127e-03,-6.45837e-01,3.38029e-01,-4.05113e-01,-3.19413e-01,5.49110e-01,2.05622e-01,
3.84025e-02,3.34908e-01,-8.59840e-02,-2.13213e-01,1.31012e-01,-6.60943e-02,2.45919e-01,-1.03245e-01,-1.19394e-01,8.44765e-02,3.06730e-01,-5.83324e-01,2.18465e-01,-5.76786e-01,3.03127e-01,-4.34994e-01,8.52596e-02,-3.83336e-01,-1.40378e-01,6.17698e-02,
1.30226e-01,-4.28247e-02,1.47887e-01,-2.35632e-01,-5.11287e-02,-3.21788e-01,-3.84821e-02,4.37192e-01,-5.09538e-01,-2.41825e-02,-9.25422e-02,-2.28728e-01,-7.71230e-01,9.92817e-02,4.70667e-02,6.53871e-01,-6.73904e-01,1.10521e-01,2.22339e-01,-1.67060e-01,
-7.24090e-02,-1.16422e-01,1.36236e-01,-2.26247e-01,3.04112e-01,4.42641e-01,-3.69790e-01,9.64249e-02,-2.64791e-02,3.33527e-01,1.19019e-01,-5.49488e-02,-1.88392e-02,-7.33603e-01,8.32399e-03,3.28927e-01,-2.41955e-01,-2.73935e-01,-2.32339e-01,-2.47438e-01,
2.94614e-01,9.85178e-02,-6.49982e-01,-1.10250e-01,4.14730e-01,2.67458e-01,-1.27657e-01,-6.15866e-01,5.50283e-02,-3.24673e-01,2.10908e-01,6.28528e-01,4.07455e-01,-1.36536e-01,-4.90581e-01,-1.10780e-01,-1.30622e-01,-1.48130e-01,2.63428e-01,2.18417e-01,
-2.50804e-01,-2.97165e-01,-3.17480e-01,-1.99341e-01,-3.93839e-01,2.11083e-01,6.03138e-02,-5.86286e-02,1.91536e-02,4.83160e-01,1.11252e-03,-3.15596e-01,-2.19748e-02,1.67646e-01,-3.67039e-01,1.74973e-01,9.82599e-02,3.50751e-01,-3.02263e-01,-3.17453e-01,
-1.98911e-01,1.49407e-01,3.30970e-02,-3.23482e-01,9.06911e-02,-1.23014e-01,2.87012e-01,-8.96677e-02,-3.63499e-02,3.58505e-01,2.28236e-01,-1.83133e-01,3.43112e-01,-6.59081e-01,1.47546e-01,-3.18429e-01,-4.04235e-01,2.74186e-01,4.72942e-01,3.46302e-01,
-7.42888e-02,-1.73385e-01,3.62821e-01,3.36581e-02,2.91375e-01,2.32615e-01,-6.55109e-01,4.68470e-01,4.89605e-01,3.19160e-01,6.92172e-02,-6.93819e-01,4.00288e-01,1.90101e-01,-5.77629e-01,5.42450e-01,-2.15945e-01,5.97497e-01,6.80124e-02,3.51965e-02,
-1.66492e-01,-1.35734e-01,-9.72364e-01,9.01220e-02,-1.54114e-02,-4.22958e-01,2.34941e-01,1.41733e-01,3.45437e-01,-9.78446e-02,2.69254e-02,2.34823e-01,-1.52842e-01,-1.88178e-01,1.38360e-01,-1.71235e-01,4.22986e-01,4.63520e-01,7.26786e-01,-4.07610e-01,
-2.67823e-02,1.41132e-01,8.99079e-01,-3.01806e-02,-1.54643e-01,3.89916e-01,9.63095e-03,1.88230e-01,-5.07921e-01,1.35384e-01,-2.73360e-01,-1.76597e-01,1.27016e-01,-2.41207e-01,-1.80619e-01,-2.00388e-03,6.00940e-02,3.00384e-01,-4.16518e-01,2.73496e-01,
-7.80000e-02,-2.29703e-01,-3.32668e-01,2.43378e-01,-7.39144e-01,-1.36473e-01,4.09470e-01,-3.80723e-01,-7.48070e-02,1.26443e-01,-2.06136e-02,-1.85960e-02,3.52941e-02,4.78140e-01,-3.13752e-01,1.97772e-01,-4.77467e-01,-6.19889e-01,-2.01262e-01,-4.98478e-01,
8.74070e-02,5.51270e-01,-2.46160e-01,-1.60327e-02,-2.44199e-01,3.52894e-02,-2.76503e-01,2.48486e-01,-1.57892e-01,3.80968e-01,1.39694e-01,-2.15209e-01,2.01815e-01,3.12173e-01,6.41206e-01,1.97089e-01,-4.15691e-01,4.67206e-02,-1.51492e-01,5.60489e-02,
2.97362e-01,7.18792e-02,-5.57241e-01,-6.57615e-02,-2.00731e-01,2.80952e-01,-6.30000e-02,2.55397e-01,-6.22546e-02,5.58714e-02,2.90135e-02,-4.94198e-01,3.83224e-01,9.12569e-01,-1.18501e-01,-3.98798e-01,-4.45655e-01,-2.63468e-01,6.21648e-01,-5.67077e-01,
1.45924e-01,-5.49757e-01,7.26959e-01,6.02317e-02,-3.85154e-02,-2.60308e-01,2.96305e-01,-7.57193e-02,-2.29550e-01,-8.65352e-02,-9.81785e-03,7.84318e-02,-5.95338e-01,5.67539e-03,3.74794e-01,-5.31563e-03,9.35372e-01,-4.07251e-01,-8.20865e-02,1.39438e-01,
-2.79207e-01,
1.66871e-01,
7.75735e-03,
-1.91276e-01,
3.48810e-01,
3.15015e-01,
3.87521e-01,
-6.86080e-02,
7.10461e-02,
-3.90138e-01,
5.07685e-01,
-2.15912e-01,
2.10902e-01,
-1.96573e-01,
1.21795e-01,
3.34409e-01,
1.60472e-01,
4.25430e-01,
1.23834e-01,
-3.64062e-01,
4.74654e-02,4.77321e-01,-2.73252e-01,-1.64161e-01,3.77214e-01,1.87316e-01,-3.84834e-01,-5.91423e-02,1.71614e-01,2.27857e-02,2.86712e-01,3.14248e-01,2.08965e-01,-4.84709e-01,-3.28694e-01,1.15674e-01,3.85769e-01,-2.58728e-01,7.88203e-01,-2.88888e-01,
4.31074e-01,4.99891e-01,-4.14647e-01,-1.24958e-02,-9.60513e-01,3.96471e-02,-5.77356e-01,3.97402e-02,-1.96982e-02,2.97168e-01,-9.57079e-02,1.19620e-01,-2.48641e-01,5.05162e-01,-2.16377e-01,2.24865e-01,1.00007e-01,9.12072e-01,9.61159e-02,2.37051e-01,
-9.21253e-02,-5.47639e-01,4.13392e-01,-9.88598e-02,-1.76445e-01,3.91294e-01,-3.00533e-01,-2.46313e-01,-2.83109e-02,-2.76536e-01,-6.75649e-01,-7.25811e-02,-1.31801e-01,1.24785e-01,-2.79114e-02,3.37564e-01,-2.69800e-01,-1.72027e-01,2.38285e-01,2.66143e-02,
-4.40197e-02,-9.21048e-02,2.15667e-01,-5.27476e-01,-2.16635e-01,-5.06265e-01,-3.10748e-01,4.02502e-01,-2.82676e-01,-3.84083e-01,3.59126e-01,7.20570e-01,2.88783e-01,3.33379e-01,2.61937e-01,-2.74411e-01,8.06001e-02,2.80247e-01,1.20087e+00,-1.89559e-01,
2.60351e-01,6.23464e-01,4.63146e-01,5.52533e-02,5.98625e-01,-2.06042e-01,6.27864e-01,-1.34603e-01,8.59306e-02,-8.54947e-02,1.79980e-02,-2.35012e-01,-4.18104e-01,1.50160e-01,2.50908e-02,5.20959e-01,7.86043e-02,1.69783e-01,3.97272e-01,4.13007e-01,
-1.38685e-01,-3.21265e-01,3.05787e-01,4.21397e-01,1.08935e-01,-4.72310e-01,-7.02466e-01,-8.03834e-01,-6.26001e-01,-2.14856e-01,1.13564e-01,2.74117e-01,-3.61391e-01,3.08237e-01,-7.83433e-02,2.50134e-01,2.76461e-01,1.80303e-01,8.83282e-01,-6.31187e-01,
-4.56503e-01,-2.57898e-01,-5.11294e-01,7.07200e-01,1.71450e-01,-4.40837e-02,-2.99604e-01,1.38453e-01,1.73870e-01,1.29919e-01,2.63582e-01,1.46702e-01,7.71524e-01,2.03411e-01,-3.75903e-01,-3.08227e-02,-1.48552e-01,-2.67802e-01,5.57741e-01,-4.45746e-01,
-3.28800e-01,4.03380e-01,1.68819e-01,6.35785e-01,-3.61972e-01,1.30508e-01,3.92957e-02,2.54111e-01,-2.33135e-01,1.56568e-01,-1.53531e-01,1.08949e-01,-7.76081e-01,-7.58294e-01,5.90732e-02,1.13349e-02,1.00648e-01,-2.08920e-01,8.53854e-02,2.59877e-01,
4.66172e-01,5.19595e-01,3.02406e-01,5.44601e-01,-1.30999e-02,-1.96981e-01,-5.63925e-01,1.20558e-01,-1.27579e-01,3.35148e-01,1.16422e-01,-2.00659e-01,7.43402e-02,3.50967e-01,1.04729e-01,-1.12815e-01,4.20453e-01,-9.61509e-02,6.17381e-03,-2.88159e-01,
4.55552e-01,4.24597e-01,2.96816e-01,-3.26764e-01,4.19070e-01,2.76780e-01,3.28704e-01,4.23284e-02,-1.18505e-01,-2.39549e-01,1.46232e-01,3.47752e-01,-3.18327e-01,-2.06614e-01,2.07102e-02,2.62381e-01,3.82111e-01,3.33577e-01,2.11769e-01,2.15041e-01,
1.67847e-01,-1.20887e-01,2.42510e-03,2.29825e-01,-6.19220e-01,-5.66445e-01,7.94683e-02,5.09724e-01,-1.54637e-01,-1.77690e-01,1.40498e-01,-5.76595e-01,-5.44611e-02,3.18963e-01,-3.65256e-01,-1.62095e-01,-2.48712e-01,3.26194e-01,4.99438e-01,-3.19378e-01,
3.05524e-01,5.74143e-01,-1.45936e-01,-6.18406e-02,1.60591e-02,1.97597e-01,-3.82391e-01,-8.34528e-02,-3.13457e-01,5.65045e-01,-1.86766e-01,-4.29543e-01,2.43769e-01,3.93827e-01,-1.06860e-02,4.71007e-01,3.38781e-01,-4.61681e-01,-2.83190e-02,-2.14323e-01,
4.93680e-02,4.21553e-01,-6.27476e-01,6.80215e-02,-1.32444e-01,6.98531e-02,-1.48366e-01,-4.85939e-02,-7.86411e-03,3.25203e-02,-4.15598e-01,2.45842e-01,2.34338e-02,1.56269e-01,-3.80149e-01,-4.66152e-01,-8.73896e-02,1.50453e-01,-8.03960e-02,4.72812e-01,
-4.16262e-01,4.06987e-01,-1.85864e-01,3.62567e-01,3.14736e-01,2.82795e-01,3.38582e-01,-4.14474e-01,-2.09543e-01,4.11336e-01,-4.68916e-03,-5.05768e-01,-5.29967e-01,-6.15977e-01,-1.31172e-01,1.73350e-01,-3.84967e-01,-2.55838e-01,1.66359e-01,3.65126e-01,
-3.36908e-02,-5.92148e-01,3.96936e-01,-4.63365e-01,-4.44139e-01,-2.98901e-01,-1.94359e-02,3.36587e-01,-3.40700e-01,3.81720e-01,1.13698e-01,-3.17754e-02,-5.25209e-05,-1.68315e-01,4.54361e-01,-1.68442e-02,3.78498e-01,1.71395e-01,5.35215e-01,-6.79851e-01,
-8.19239e-02,4.94158e-02,-3.72568e-01,-2.06164e-01,-7.98412e-01,-3.32018e-01,-6.52834e-03,-3.47524e-01,2.20762e-01,2.61673e-01,4.13986e-01,-8.21705e-02,-3.91397e-01,-2.73940e-01,-1.92619e-01,2.27159e-01,4.08712e-01,2.08985e-01,4.83491e-01,-2.05432e-01,
4.64800e-01,3.40011e-01,2.08002e-01,3.93879e-01,1.82726e-01,-1.90082e-01,2.01387e-02,1.34164e-01,-5.42614e-01,-2.43375e-01,-4.88214e-01,-2.94173e-02,-7.92930e-02,5.66600e-03,4.12206e-02,3.16456e-01,-7.85969e-01,-5.86242e-01,2.35272e-01,4.62305e-01,
4.39563e-01,-5.94927e-02,7.98435e-02,5.39148e-02,-4.26550e-01,2.42025e-01,-1.69667e-01,1.07706e-01,-7.71608e-01,-3.56538e-01,-3.42229e-01,3.12590e-01,-3.31390e-01,1.14190e-01,-1.34721e-01,4.01546e-01,-4.01669e-01,-4.50020e-01,-4.68300e-02,-7.90165e-02,
1.94246e-01,-1.70566e-02,4.48052e-01,-2.75921e-01,1.81316e-01,-5.95886e-01,-5.65376e-02,2.55298e-01,-3.08080e-01,-3.88255e-01,3.90087e-01,-3.28916e-02,2.05050e-01,2.17056e-02,1.38867e-01,-1.55871e-01,-3.88310e-01,-2.30742e-02,-1.68046e-02,4.57183e-01,
-5.02057e-01,-3.69272e-01,3.11621e-01,-4.97457e-01,-2.68322e-01,2.05030e-01,-2.01892e-01,3.37982e-01,-2.12063e-01,-3.88413e-01,1.23498e-02,2.49357e-01,4.56689e-01,-3.69072e-01,2.73197e-01,-7.00662e-02,3.05742e-01,-2.89203e-01,3.31963e-01,3.37388e-02,
2.98332e-01,
-1.68949e-01,
-4.26100e-01,
-4.08994e-01,
-3.47272e-01,
-7.61468e-02,
4.12699e-01,
-5.09580e-02,
3.89402e-01,
7.16065e-02,
-8.97848e-02,
-4.39204e-01,
-5.90010e-01,
-4.10349e-01,
4.45310e-02,
-3.16634e-01,
1.44223e-01,
-4.34333e-02,
-2.45488e-01,
4.77751e-01,
1.60705e-01,4.59315e-01,-4.37165e-01,-2.06783e-01,-2.07304e-01,-6.41639e-01,-1.68090e-01,-4.34763e-01,3.70941e-01,-1.43747e-01,-5.57934e-01,-3.32054e-01,-5.41732e-03,3.41424e-01,-1.19060e-01,3.14422e-01,1.85878e-02,-1.51043e-01,-2.60959e-01,-2.80371e-01,
2.83765e-02,-2.35097e-01,2.21821e-01,-1.56962e-01,-3.59512e-01,1.86526e-01,-1.32948e-01,-9.42718e-02,-4.81639e-01,3.62663e-01,-3.76415e-01,1.24925e-01,1.48794e-01,4.29299e-01,-2.15193e-01,2.55639e-01,9.42556e-02,-2.85025e-01,8.90091e-02,-4.90067e-01,
5.50119e-03,-2.71610e-01,3.37860e-01,3.46345e-01,1.01755e-01,3.48669e-01,1.08504e-01,-6.17659e-02,1.05226e-01,-4.45972e-02,8.10764e-01,3.22201e-01,1.67529e-01,4.46531e-02,-1.05552e-01,-7.24405e-01,4.13416e-01,-1.76813e-03,-2.28911e-02,1.94921e-01,
-8.59855e-02,-3.14165e-03,-2.03018e-01,9.31935e-02,2.17321e-02,-2.38367e-01,-1.74905e-01,2.75382e-01,3.47241e-01,-3.57315e-01,-4.72999e-01,1.16831e-01,-1.17427e-01,-4.63662e-01,1.06135e-01,5.64132e-01,4.31661e-01,2.31593e-01,-9.00874e-02,1.96960e-01,
-1.08774e-01,1.45679e-02,-6.27617e-02,1.23904e-02,1.19459e-01,1.67105e-01,-4.89191e-01,-2.27636e-01,1.44317e-01,-1.64976e-01,5.46346e-01,-2.82865e-02,5.64273e-01,-1.59922e-01,1.53327e-01,-2.70917e-01,-1.80450e-01,3.69911e-01,-4.16257e-02,-4.39414e-01,
3.52237e-01,4.93462e-01,2.19280e-01,6.80739e-02,-8.65910e-02,4.86016e-02,-3.01162e-01,9.95809e-02,-2.57076e-01,-9.26857e-02,-5.00623e-01,2.20043e-01,3.94357e-01,1.16587e-02,-3.75391e-01,3.72329e-01,-4.31062e-01,-4.89731e-01,-1.66992e-02,3.85437e-01,
-1.96697e-01,-3.27318e-01,5.84114e-02,4.40692e-02,-8.30333e-02,-2.70790e-01,5.32201e-01,1.17518e-01,-2.64493e-01,-5.24291e-01,5.21610e-02,4.45990e-01,1.44267e-01,-3.77230e-01,7.06067e-02,-5.40018e-01,-2.30806e-01,-3.81176e-01,-3.96757e-01,-3.54527e-01,
1.59923e-01,4.70357e-01,2.19952e-01,4.42633e-01,4.53168e-01,-4.25844e-01,-6.44481e-01,-3.37447e-02,6.09092e-01,-3.16291e-01,-4.96596e-01,2.11433e-01,-2.11298e-01,1.49870e-01,-3.74633e-01,3.71178e-01,-2.70347e-01,-9.77286e-02,1.51011e-01,-3.98007e-01,
2.05532e-01,-1.92669e-01,-2.51197e-01,4.00152e-01,-2.19020e-01,-1.54455e-01,-5.25804e-02,9.99846e-02,-3.54668e-01,1.39204e-01,-5.22509e-06,-2.36872e-01,-2.89347e-01,-3.10327e-01,5.45119e-01,-3.00023e-02,7.67190e-02,-1.91023e-01,-5.80665e-01,-7.59889e-02,
-3.56568e-01,4.98432e-01,-2.76521e-01,-3.43100e-01,-3.54135e-01,2.71484e-01,4.00716e-01,1.74407e-03,-5.69187e-02,3.92661e-01,1.10927e-02,-5.00218e-01,-9.24234e-02,4.87083e-01,-3.71517e-01,2.80315e-01,-1.22293e-01,-1.86998e-01,-7.08258e-01,3.05993e-01,
-1.01396e-01,-5.16507e-01,5.22650e-02,1.50867e-01,3.75937e-02,4.23804e-01,-3.47246e-01,1.65086e-01,-4.66622e-01,-2.93022e-01,6.86662e-01,-3.96141e-01,1.66964e-01,2.23689e-02,4.40678e-01,-2.27050e-02,5.12621e-02,4.35126e-01,-3.85016e-01,8.03416e-02,
6.69954e-01,-2.52240e-01,-3.09777e-01,-2.41730e-01,-2.43460e-02,-6.18861e-02,2.27115e-01,2.15906e-01,1.65639e-02,-5.85701e-02,-6.74669e-02,1.05065e-01,-1.23822e-01,7.20308e-02,-2.67946e-01,-2.21995e-01,1.09985e-01,-2.06261e-01,8.13528e-02,-3.99275e-01,
5.92197e-01,6.57866e-01,-8.63279e-01,2.78590e-01,-5.02383e-01,-4.53130e-01,1.92137e-01,-3.23666e-01,-9.75685e-02,2.58165e-01,-2.34288e-01,-2.90877e-01,4.95117e-01,-1.20895e-02,3.58825e-01,-1.44130e-02,-5.51173e-02,-4.30275e-01,-4.09857e-01,9.08555e-02,
-3.54655e-01,-3.55706e-01,-8.20852e-02,-1.31908e-01,5.29345e-02,-1.13175e-01,-1.33382e-01,-4.89648e-02,-3.82643e-01,2.36045e-01,1.81522e-02,-1.25905e-01,-1.92363e-01,1.29170e-01,-1.40362e-01,-9.11601e-02,-4.15940e-01,-2.27946e-01,3.48331e-01,-1.33166e-01,
-4.61043e-01,-2.96289e-01,-2.87025e-01,-2.10710e-01,-2.59088e-01,-1.33811e-01,-7.19131e-01,7.23631e-02,-2.07190e-01,1.15114e-01,-1.55961e-01,3.83692e-02,1.15728e-01,1.59165e-01,-4.28022e-01,3.30320e-01,-1.99006e-01,2.14455e-01,-2.37854e-01,-8.96182e-02,
1.72633e-01,-2.80864e-01,-5.24185e-02,-4.93318e-02,1.23731e-01,1.76193e-01,1.06574e-01,3.93322e-01,1.43325e-01,1.97981e-01,-3.17647e-02,-2.23246e-03,-1.62090e-01,-2.63911e-01,2.32759e-01,3.02322e-01,-1.00948e-01,-3.25941e-01,-5.62497e-01,1.23596e-01,
-7.65869e-02,-2.23346e-01,-2.25244e-01,-1.82129e-02,-1.78112e-01,1.67009e-01,-4.97865e-01,4.81965e-01,-4.88255e-01,4.75490e-03,2.33161e-01,4.01253e-01,6.08124e-02,-3.31787e-01,8.21554e-01,3.75286e-02,-4.91339e-01,-9.56662e-03,5.41996e-02,5.41037e-02,
3.58798e-01,-4.30037e-01,5.16590e-01,4.96448e-02,1.48884e-01,-1.98541e-01,6.48674e-02,2.23677e-01,2.07935e-01,6.87756e-02,-2.20821e-01,5.13011e-01,-2.63205e-01,4.27123e-01,2.57370e-01,3.48038e-01,4.13452e-02,2.38030e-01,2.63202e-01,-3.97139e-01,
-1.92634e-01,8.17158e-02,-3.35961e-01,-5.98492e-01,3.29255e-01,4.29244e-02,5.98323e-01,-2.35640e-01,2.76535e-01,-3.33604e-01,3.26850e-02,1.40145e-01,-1.81155e-01,4.45007e-01,3.51197e-01,-9.05753e-01,-9.11052e-02,8.33529e-02,1.33734e-01,-5.77140e-01,
-1.30500e-02,-1.64980e-01,1.55484e-01,-1.40952e-01,-4.93382e-01,-2.31367e-01,-1.60298e-01,-3.12497e-02,-1.53341e-01,3.14122e-01,-1.37714e-01,-1.62275e-01,6.48121e-01,-4.64487e-01,1.80841e-01,1.71583e-02,1.69584e-01,-3.98498e-01,-7.73572e-02,-2.65621e-01,
6.83031e-01,
-2.64167e-01,
1.60321e-01,
2.14680e-01,
1.47739e-01,
1.63767e-01,
3.16948e-01,
-3.79646e-02,
-3.45015e-02,
4.59658e-02,
2.49783e-01,
-3.71695e-01,
-1.02155e+00,
2.91555e-01,
-2.06789e-01,
1.51477e-01,
-6.30303e-01,
-9.93649e-02,
5.46479e-01,
8.01927e-01,
-2.16405e-01,1.87721e-01,-2.51731e-01,-9.81811e-04,4.76623e-02,-1.04312e-01,1.68008e-01,3.24867e-01,-4.65649e-02,-3.72730e-02,1.77884e-01,-3.11882e-01,2.61480e-02,-4.60288e-01,-5.59339e-01,-6.20521e-02,-1.08214e-01,-4.33486e-02,2.55688e-01,6.44726e-01,
2.09609e-01,-1.19137e-01,-3.79791e-01,-2.44358e-01,4.51081e-01,-6.35161e-02,2.83725e-01,-2.85243e-02,-2.87508e-01,-3.12084e-01,-1.37614e-01,2.97667e-02,-4.61486e-01,-4.42275e-01,8.93266e-02,-4.76299e-01,1.48037e-01,-4.89891e-01,1.34939e-03,2.61367e-01,
-1.08615e-01,3.76636e-01,3.91523e-01,-6.30244e-02,-1.57047e-01,2.48411e-01,9.66893e-01,2.40686e-01,1.97125e-01,4.00921e-01,4.57243e-01,2.62977e-01,-2.33512e-01,2.35936e-01,-2.08245e-01,4.45795e-01,5.14709e-01,-1.44519e-01,-3.71029e-01,8.91018e-02,
-4.73494e-01,-1.91832e-01,3.56945e-01,-1.40609e-01,5.57858e-01,5.25734e-01,-2.74709e-01,-5.59173e-01,-3.67793e-02,1.11451e-01,-2.12948e-01,6.32138e-01,-4.25251e-02,2.47741e-01,3.32783e-02,-7.12642e-01,9.53016e-02,2.95780e-01,-3.53749e-01,-2.63974e-02,
1.80943e-01,5.26946e-02,-1.81564e-01,2.35256e-01,-2.43345e-01,5.42037e-02,2.49022e-01,2.95554e-01,-4.22822e-01,-2.65103e-01,1.63747e-01,-6.02127e-01,4.87937e-01,1.90816e-01,5.01671e-01,2.94117e-02,-3.22560e-01,-8.67257e-02,1.82855e-01,-3.76865e-01,
-1.84470e-01,-8.71259e-02,1.64239e-01,-2.28336e-01,-7.30718e-01,-1.05984e-01,-6.15875e-01,-2.91194e-01,-1.92103e-01,-2.90860e-02,2.14388e-01,-3.34439e-01,4.33260e-01,2.15107e-01,2.28824e-01,1.83773e-01,-3.31551e-01,-2.29223e-02,-7.34234e-02,1.17314e-01,
-2.52730e-01,8.02852e-02,1.23975e-01,-1.49840e-01,-8.35099e-02,5.77017e-01,-2.73718e-01,1.39344e-01,-2.64938e-01,-1.08253e-02,-1.84764e-01,-1.13195e-01,-2.05859e-01,-5.22127e-02,-4.63252e-01,-6.53011e-01,4.09937e-01,8.44585e-02,7.83731e-02,-5.26237e-01,
3.37167e-02,-2.73265e-01,-3.04732e-01,1.47469e-02,8.06269e-02,4.14775e-01,-8.30704e-02,-6.32452e-02,-3.26924e-01,3.29340e-01,9.22700e-02,5.43198e-01,-3.12733e-01,2.54261e-01,4.08343e-01,6.22951e-01,2.66895e-01,-8.89623e-02,-9.13349e-02,2.16872e-01,
2.46752e-02,4.69677e-02,3.17412e-02,3.49758e-01,-1.63548e-01,-5.37457e-01,2.44504e-01,9.89453e-02,-1.41576e-01,-5.11733e-01,6.23423e-01,2.83455e-01,-3.46640e-01,6.44387e-02,8.95856e-02,-2.72645e-01,1.09206e-01,-7.02623e-01,-2.08286e-01,-7.33092e-01,
-1.48671e-01,3.91427e-01,4.73677e-01,-4.45714e-01,3.25242e-01,2.79286e-03,-1.07458e-02,3.79333e-02,-2.84891e-01,7.66882e-02,4.44944e-01,1.19868e-01,-5.59649e-02,-2.40302e-01,-1.33788e-01,2.81964e-01,4.78219e-01,1.66148e-01,3.85349e-01,5.08948e-01,
7.10276e-03,3.03112e-01,-1.67062e-01,-2.72053e-01,3.36646e-01,1.76985e-01,2.59253e-01,3.30179e-01,-2.24256e-01,-6.26345e-01,1.51252e-01,-1.70073e-01,1.78702e-01,-2.76414e-01,-1.27432e-01,-1.38641e-01,1.78723e-01,-5.49351e-01,2.07932e-02,-3.92085e-01,
7.81917e-02,-6.27389e-01,2.24180e-01,-6.28569e-01,-1.35957e-01,1.63419e-01,-1.06833e-01,1.07528e-01,2.31728e-01,1.34867e-01,9.87449e-02,-5.22862e-02,3.11870e-01,8.23739e-01,2.49646e-01,1.08410e-01,4.97377e-01,-3.90847e-01,-2.63198e-01,2.72910e-01,
-1.12254e-01,-2.13445e-01,-1.12451e-01,-4.87169e-01,-1.57830e-01,-2.17813e-01,1.12012e-01,-3.27031e-01,-1.15184e-01,-1.08781e-01,2.46490e-01,2.18937e-01,1.76515e-01,3.37369e-01,-6.69968e-02,-6.99806e-02,3.03380e-01,-1.44668e-01,6.79118e-01,-1.31490e-01,
2.21884e-01,-4.07135e-02,1.69293e-01,-3.92117e-01,4.63120e-01,4.33891e-03,4.40365e-01,2.98967e-02,1.99091e-01,-3.23890e-01,1.46415e-01,9.13872e-02,2.89066e-01,-9.84769e-02,2.53002e-01,1.43921e-01,-2.19815e-01,-1.66385e-01,-1.56791e-01,-3.14999e-01,
4.87963e-01,-1.31748e-01,4.30567e-01,-5.29662e-01,6.60144e-01,-1.44218e-01,7.21462e-02,4.16338e-01,2.04521e-01,3.31163e-01,3.53807e-01,-1.83215e-01,2.47008e-01,4.78994e-01,5.87767e-03,-1.14219e-01,3.73335e-01,6.16708e-01,-5.42964e-02,-1.84486e-01,
-2.41397e-02,3.90332e-01,2.00272e-01,-1.03327e-01,-7.89557e-02,-1.65928e-02,-1.05616e-01,1.17301e-01,1.90749e-01,2.60455e-01,-2.22641e-01,-1.44633e-01,2.61107e-01,3.57215e-01,-1.46713e-01,9.24273e-02,-4.03607e-01,-6.43463e-02,-5.20619e-02,-3.00228e-01,
-1.71132e-01,-2.31483e-01,-1.69317e-02,-4.39328e-02,1.93166e-02,-6.29230e-01,-3.83155e-02,4.05670e-01,7.25758e-02,-5.45708e-01,-1.57280e-02,-3.11540e-01,1.73149e-02,2.42948e-01,8.21177e-02,-2.97190e-01,3.86399e-02,9.39435e-01,-1.43165e-01,-1.54502e-01,
-2.82161e-01,-2.91505e-01,5.17297e-02,-3.35622e-03,-1.80951e-01,1.37841e-01,4.29680e-01,5.21643e-01,4.38707e-01,5.62339e-01,9.67811e-02,5.57250e-01,-7.11594e-02,3.60616e-02,-2.09263e-01,-4.73408e-02,-2.12008e-01,-1.33368e-01,-6.14780e-01,4.00673e-01,
4.36670e-02,1.06717e-01,-2.31678e-01,-1.11844e-01,6.12562e-02,3.96196e-01,4.62342e-01,-3.13944e-01,2.91657e-01,1.10094e-01,4.85814e-01,2.76719e-01,-3.71181e-01,1.11312e-01,-1.49050e-01,4.23729e-01,-1.66673e-02,-6.46644e-02,-2.59325e-01,-7.58967e-02,
5.79408e-02,-3.36135e-02,3.53793e-01,2.96905e-01,3.34451e-01,5.77957e-01,1.67178e-01,-1.18666e-01,2.00679e-01,-4.84458e-01,3.85869e-01,-6.67254e-02,-2.45942e-01,4.64525e-01,5.95388e-01,1.86653e-01,4.37651e-02,2.97887e-01,-3.26872e-01,1.97684e-01,
-3.37106e-01,
3.48543e-01,
3.06777e-01,
-3.35846e-01,
-7.30778e-02,
2.89996e-01,
3.94987e-01,
2.22546e-01,
4.24177e-01,
3.04623e-01,
-5.68510e-01,
2.43042e-01,
-4.20021e-01,
-8.35376e-01,
-1.64667e-01,
6.22481e-01,
-1.68584e-01,
3.86286e-01,
9.00239e-01,
-3.58182e-01,
-1.34226e-01,-1.65819e-01,9.45437e-01,-2.86020e-01,-1.38175e-01,-1.24104e-01,5.18129e-01,-6.14081e-02,6.67826e-02,2.56980e-01,1.86331e-01,8.34959e-02,6.79855e-01,2.25147e-01,-3.25240e-01,1.01225e-02,3.29340e-01,2.46692e-01,-6.44359e-02,-3.04684e-01,
-5.54068e-01,6.71316e-01,-2.61272e-02,-3.00614e-01,4.23073e-01,2.80773e-01,1.34844e-01,7.66481e-02,-2.32391e-01,3.58259e-01,-4.74503e-02,4.93527e-02,1.22608e-01,4.60188e-02,-2.05300e-02,1.56354e-01,2.23973e-01,-3.77891e-01,-2.13385e-02,1.20370e-01,
-4.75225e-02,
5.61121e-01,
