// Neural Network File Format by Kyle Julian, Stanford 2016
10,2,2,15,
2,15,15,15,15,15,15,15,15,15,2,
0,
-10000.0,-10000.0,
10000.0,10000.0,
0.0,0.0,0.0,
1.0,1.0,1.0,
-1.52904e-01,-1.30291e-01,
2.01540e-01,3.29024e-02,
-4.80939e-01,5.04273e-01,
4.94616e-01,-5.08016e-02,
4.42413e-01,-2.67007e-01,
-8.60133e-02,-2.61423e-01,
3.06665e-01,1.09598e+00,
5.49522e-02,-1.63222e-01,
1.61895e-01,-3.24026e-01,
4.01467e-02,1.15997e-01,
2.40545e-01,-4.01302e-02,
5.50115e-02,-4.19840e-01,
-5.83772e-01,1.60647e-01,
1.18967e-03,-1.10791e-01,
3.47168e-01,1.81746e-01,
7.54278e-02,
-6.68714e-01,
-5.20049e-01,
-2.90923e-01,
-6.68223e-01,
3.25967e-01,
2.66088e-01,
8.59540e-01,
3.98454e-02,
5.79388e-01,
3.71313e-01,
1.34196e-01,
-1.97900e-01,
7.70695e-01,
-8.58713e-02,
1.74731e-01,1.39757e-01,-1.34892e-01,-5.01846e-02,-2.19979e-01,8.12334e-02,-1.26138e-01,-5.45877e-01,2.86927e-01,-5.21261e-01,-2.40313e-01,4.27536e-01,2.92681e-01,9.18909e-02,4.32955e-01,
-3.35735e-01,1.63648e-01,-8.65123e-03,-2.24703e-02,-9.88939e-01,-7.61936e-01,2.77676e-02,-5.39056e-01,-2.59276e-01,-1.44972e-01,-5.97323e-01,6.52911e-01,3.22313e-01,4.92815e-02,-6.32519e-03,
1.64713e-01,8.30717e-02,-1.96964e-01,-8.42285e-01,-1.07243e-01,2.19665e-02,6.95274e-01,5.33234e-01,1.99956e-01,4.50021e-01,5.52408e-01,-1.11662e-01,2.69619e-01,-5.91250e-01,1.02913e-01,
4.04505e-01,4.04920e-01,-1.40561e-01,-2.68765e-03,-1.77877e-01,-7.10797e-01,6.29843e-01,-3.97653e-01,1.52163e-01,-6.00403e-01,5.66611e-01,1.99979e-03,2.46583e-01,-5.65159e-01,2.22824e-01,
-8.36959e-02,-1.92597e-01,2.52400e-02,6.24630e-01,1.22891e-01,9.82749e-02,1.11868e-01,-6.24632e-01,5.06842e-01,-4.60427e-02,-6.00741e-01,-3.06642e-01,4.18045e-01,-4.45996e-01,-3.70015e-01,
1.26175e-01,4.50278e-02,-5.69553e-01,2.78629e-01,9.27417e-02,-3.38132e-01,1.45427e-01,-2.08674e-01,5.71443e-02,-3.21435e-02,-4.86564e-01,-6.78303e-01,1.16863e-01,-4.28853e-02,2.74429e-02,
1.92089e-01,1.16191e-01,-1.89271e-01,-3.07914e-01,1.63808e-02,-1.81454e-01,2.10632e-01,2.13607e-01,9.36691e-02,3.22980e-01,4.45614e-01,-4.16291e-01,3.11623e-01,1.13130e-02,-3.44377e-01,
-1.47042e-01,3.75891e-01,2.11870e-02,-1.57886e-01,-3.40237e-01,3.33143e-01,4.62932e-01,-2.03419e-01,-2.00985e-01,-6.33010e-03,9.24061e-02,2.89797e-01,-8.49197e-02,-1.16333e-01,9.89833e-02,
7.13570e-01,-6.53747e-01,3.10371e-01,-4.82351e-01,-4.18355e-01,1.61521e-02,-2.23332e-01,2.89344e-01,4.41039e-01,-6.84673e-01,4.21840e-01,-2.13279e-01,-5.17307e-01,2.93433e-01,7.28080e-03,
5.27453e-01,3.34366e-01,-3.33947e-01,4.24523e-01,-1.83165e-01,8.26494e-02,-2.90991e-01,8.33871e-02,4.54757e-01,-6.50227e-02,-1.09734e-01,4.96201e-01,7.39577e-01,2.55070e-01,2.95050e-01,
-8.25198e-01,3.30592e-01,3.74588e-01,3.58903e-02,-3.73049e-01,4.76369e-01,-2.14379e-01,-7.85405e-02,-6.56274e-01,-2.86172e-01,-1.15422e-01,-2.28401e-02,1.28321e-01,6.36117e-01,-3.66566e-02,
2.15797e-01,2.07206e-01,-6.12553e-04,6.44456e-01,-2.90427e-01,-8.10148e-01,-1.89440e-01,-7.56409e-02,-3.39493e-01,4.51232e-01,-4.08912e-01,7.34938e-01,4.99741e-01,-8.81846e-01,4.56251e-01,
-6.55567e-02,1.42261e-01,1.33630e-01,-1.71487e-01,2.60737e-01,1.99772e-01,4.22143e-02,-5.24174e-01,-1.42198e-01,2.12112e-01,-4.05647e-02,-9.39554e-01,9.26928e-02,-7.64439e-02,-6.32006e-02,
-3.21524e-01,-5.71526e-01,1.21272e-01,-5.37018e-01,3.65753e-01,4.49084e-01,-1.67114e-01,-2.27119e-01,1.69753e-01,3.30998e-01,-5.25800e-02,-4.60373e-01,-3.51254e-02,-7.20451e-01,-4.34321e-01,
-4.54348e-01,-4.08129e-01,-5.12954e-02,-1.40276e-01,-4.79241e-01,-1.25066e-02,6.14803e-01,-7.30118e-01,-1.46446e-01,-2.33165e-01,5.98456e-01,-3.41311e-01,-4.81002e-01,2.35446e-01,-3.70754e-02,
1.89285e-01,
-4.76776e-01,
-3.23018e-01,
7.35235e-02,
-5.25032e-01,
1.85354e-01,
-6.96190e-01,
-1.44428e-01,
3.61202e-01,
2.14625e-02,
-2.92512e-01,
4.34299e-02,
-6.29581e-01,
1.97161e-01,
-2.85435e-01,
-5.72882e-02,-3.10974e-01,1.72985e-01,-4.99733e-01,6.40609e-02,4.05706e-01,-8.10163e-02,1.44625e-01,4.49452e-01,-1.87686e-01,-1.27503e-01,5.75866e-01,-3.09460e-01,5.18963e-02,-1.51855e-01,
-2.74338e-01,-2.56082e-02,-1.51828e-01,-1.91281e-01,-2.21875e-01,1.07573e-01,-1.21130e-02,-1.00456e-01,-2.15709e-01,-3.09070e-01,1.84291e-02,1.86897e-02,1.02843e+00,-5.28066e-01,5.12184e-02,
-7.57782e-02,-5.90780e-01,-2.24502e-01,-1.82626e-01,-3.91403e-01,8.40278e-02,2.62139e-01,-1.33873e-01,-1.31344e-01,5.82764e-01,-7.49926e-01,1.96382e-01,4.79848e-01,1.79033e-01,-1.70509e-02,
-1.48728e-01,8.31885e-02,-2.24511e-02,-3.94612e-01,9.20539e-03,-9.62450e-03,9.95880e-02,-4.32560e-02,5.24285e-01,2.26748e-01,3.17348e-01,4.80410e-01,-2.36639e-01,-6.64006e-02,2.69625e-01,
4.45119e-01,-1.05429e+00,-4.10292e-01,1.13207e+00,5.41760e-03,-1.35250e-01,7.58972e-01,-5.74331e-01,-3.02674e-01,-3.24477e-01,2.73568e-01,-5.08981e-01,-7.83225e-02,2.70332e-01,6.55041e-01,
-3.78578e-02,-4.58752e-01,-9.92599e-02,-4.44554e-01,-4.08572e-02,-1.78598e-01,3.40175e-01,-3.37858e-01,-7.41431e-01,6.05906e-01,6.16467e-01,-9.15661e-02,-2.42678e-02,-3.67177e-01,5.36340e-01,
3.69283e-01,2.19986e-01,2.00789e-01,-1.69398e-01,-2.32320e-01,5.54890e-02,3.24595e-02,2.91507e-01,3.18841e-03,-6.65594e-01,-6.50915e-02,2.85161e-01,3.47688e-01,6.23803e-02,5.86576e-01,
6.25406e-01,1.47064e-03,3.95731e-01,4.09489e-01,1.60511e-01,-1.54875e-01,-3.92123e-01,4.87077e-01,-6.39071e-01,4.40629e-01,-1.34346e-01,1.52578e-01,-5.60491e-01,3.20985e-01,2.40814e-01,
-1.50382e-01,6.98997e-01,4.44789e-01,-5.34669e-01,2.45352e-01,-7.71839e-01,4.93296e-01,-4.54818e-02,3.01364e-02,3.08863e-01,3.15539e-01,-3.50980e-01,1.50647e-01,8.28893e-02,2.66160e-01,
-3.06982e-01,-9.97863e-02,6.93306e-01,-4.17017e-02,4.02551e-01,4.36134e-01,-5.43911e-01,2.29534e-02,2.71233e-01,6.53324e-01,-1.02587e+00,2.51280e-01,4.75989e-01,-5.35448e-01,1.25041e-01,
-4.13761e-02,2.15781e-01,-1.46052e-01,-1.18152e-01,-8.12991e-01,4.16713e-01,-1.09140e-01,-5.17177e-01,5.40574e-03,-5.32800e-01,-8.85413e-01,-5.32799e-01,-2.03503e-02,-1.21952e-01,-4.22162e-01,
1.67410e-01,6.57139e-01,4.66160e-01,1.06046e-01,4.07983e-01,-6.07488e-02,2.56785e-01,-4.07123e-01,-4.99423e-02,1.13431e-02,-9.87218e-02,4.51969e-01,2.22384e-02,-1.99843e-01,5.64046e-01,
-5.52893e-01,8.21716e-02,-4.21993e-01,3.85568e-01,7.21511e-01,5.02163e-01,8.07159e-01,-7.81871e-01,1.48543e-01,-4.01946e-01,2.33474e-01,4.58987e-01,2.33324e-01,-3.35924e-01,6.54109e-01,
5.65753e-02,1.32210e-01,3.77668e-01,-2.39071e-01,3.21501e-02,-2.04397e-01,2.00729e-01,4.09072e-01,-2.88992e-01,2.69458e-02,-4.22215e-01,3.36712e-02,1.29786e-01,3.74771e-01,-2.46036e-01,
8.19672e-01,-2.48045e-01,5.57029e-01,-2.19617e-01,-4.14046e-01,-4.98104e-01,2.92913e-01,-3.53953e-01,4.92032e-01,-4.96711e-01,5.04729e-01,-4.04578e-01,-1.58420e-01,-5.62445e-01,5.40218e-01,
6.07610e-01,
5.93887e-02,
-1.07583e-01,
2.47792e-01,
3.40190e-01,
-4.11522e-01,
-5.94386e-01,
-6.31507e-01,
3.95079e-01,
-5.92418e-01,
-1.81787e-01,
-6.93253e-01,
-5.08558e-01,
1.28990e-01,
-1.38032e-01,
2.63308e-01,6.27514e-01,7.84633e-02,-2.24891e-01,-3.92465e-01,5.66546e-01,-2.55964e-01,-2.91773e-01,-2.02727e-01,6.96558e-01,-1.87167e-01,3.25353e-01,-8.36978e-01,1.57747e-02,-5.51473e-01,
-1.33659e-01,3.79524e-01,2.09504e-01,4.05107e-02,2.61087e-01,5.27849e-01,1.18936e-01,1.45260e-02,4.22383e-01,-1.84466e-01,-5.05307e-02,1.45456e-01,-6.06169e-01,2.45750e-01,3.62471e-01,
-3.60597e-01,3.27288e-01,-2.45423e-02,-1.59788e-01,8.31893e-02,5.02791e-01,5.02985e-01,1.54218e-01,4.18997e-01,-2.71954e-01,-5.63211e-01,1.44589e-01,-2.64620e-01,1.79824e-01,7.35684e-01,
-1.05470e-01,-2.23386e-01,9.05673e-02,-1.04035e-02,-3.94925e-01,5.54713e-02,-4.44063e-01,2.71691e-01,-1.34421e-01,-4.01554e-01,-6.81586e-01,1.12656e-01,1.68972e-01,-3.08752e-01,-3.17081e-01,
-4.35687e-02,-5.66026e-01,-7.54775e-02,3.00271e-01,6.81018e-01,1.54530e-01,3.61251e-01,3.02150e-01,-3.25835e-01,-6.94527e-01,2.46828e-03,1.64327e-01,-3.38696e-01,1.72218e-01,-7.53804e-03,
-2.17389e-01,1.99631e-01,7.58263e-01,4.46472e-02,3.70897e-01,1.19753e-01,2.90672e-01,3.80647e-01,-6.05646e-01,1.18756e-01,5.12746e-02,1.00187e-01,3.94941e-01,1.27665e-01,2.58709e-01,
7.16006e-01,7.38555e-02,2.04953e-01,4.93900e-02,-5.03811e-01,-7.61440e-02,-5.16047e-01,-4.13845e-01,-2.18730e-01,-3.62141e-01,5.11127e-01,-1.41731e-01,1.71913e-01,-6.72472e-01,-2.70671e-01,
-1.15401e-01,4.45083e-01,-3.49470e-01,-1.56126e-01,3.56331e-01,2.15361e-01,-1.02589e-01,-2.21573e-02,2.46100e-01,-2.68956e-01,1.32817e-02,-4.86660e-02,1.01926e+00,-8.89107e-01,-7.57616e-02,
2.35017e-01,5.43538e-01,6.11623e-01,4.10596e-01,-1.23538e+00,-3.38886e-01,5.34390e-01,4.93093e-01,6.08482e-02,-1.69852e-01,2.59100e-01,-9.32632e-01,-7.01090e-02,3.06348e-02,-4.70732e-01,
5.96787e-02,2.82382e-02,-4.95589e-01,9.04183e-02,-2.95487e-01,-3.43788e-01,3.22914e-01,6.46995e-01,7.44376e-01,4.17508e-01,3.16120e-01,-1.01001e+00,5.53478e-01,3.15200e-01,3.77019e-01,
3.80100e-01,-2.81707e-01,1.00333e-01,-2.65702e-01,-2.58224e-01,1.76502e-01,6.38535e-02,-4.49164e-01,-9.44359e-01,-6.40064e-01,7.62477e-01,-3.54714e-01,3.87450e-01,3.07035e-01,6.19121e-02,
-4.59663e-01,-6.78373e-02,-3.02036e-01,-6.04655e-01,-4.34035e-01,-1.35026e-01,-6.23763e-02,2.53191e-01,-2.59742e-01,6.18099e-01,4.52897e-01,-3.15684e-01,1.03426e-02,-4.32456e-01,-3.93174e-01,
3.92293e-01,-5.33749e-01,1.49235e-01,3.84660e-01,-1.66485e-01,1.27861e-01,2.74500e-01,6.61526e-01,3.76237e-01,-1.23368e-01,7.97347e-02,-2.45457e-01,-9.46276e-01,-6.88377e-01,-4.05518e-01,
-7.19882e-01,-2.63026e-01,-5.14277e-01,3.41294e-01,-3.56063e-01,-6.11058e-01,-4.33882e-01,-3.96164e-01,-1.01480e-02,2.28619e-01,3.18108e-01,-3.87080e-01,-8.10240e-01,5.21343e-01,4.97548e-01,
-7.24971e-01,-2.72522e-01,1.26171e-01,2.33605e-01,-2.70094e-01,5.65065e-01,-1.61940e-01,6.66387e-02,-5.79520e-01,-1.00748e+00,-2.60618e-01,-1.04539e-01,1.15223e-01,-2.04110e-01,-3.63893e-01,
-2.24414e-01,
3.10751e-01,
-6.66233e-01,
-4.66667e-01,
4.84844e-01,
-2.08943e-01,
6.97674e-01,
-4.21820e-02,
3.52424e-01,
-2.88572e-01,
3.81641e-01,
2.51193e-01,
-1.43095e-01,
-1.10846e+00,
1.40711e-01,
-3.40660e-01,-1.71916e-01,-2.97167e-01,5.85420e-01,2.35080e-02,1.70852e-01,3.22476e-02,8.65038e-03,-3.11127e-02,-5.63867e-02,-3.98831e-01,-5.30318e-02,-4.84699e-01,5.74615e-01,-2.24394e-01,
1.53186e-01,-1.05320e-01,-6.16965e-01,2.29940e-01,-1.39862e+00,-5.99588e-02,-6.49207e-01,-3.08032e-02,3.38917e-01,-5.53988e-01,-4.12840e-02,-2.55460e-01,-4.21879e-01,4.61012e-02,-5.26289e-01,
5.47031e-01,6.37016e-01,1.29520e-01,3.73978e-01,3.57442e-01,1.32089e-01,2.55424e-01,-2.33996e-01,-1.38961e-01,-2.46581e-01,-1.23237e-01,5.09840e-01,-3.21402e-01,-2.29287e-01,5.45312e-01,
-1.48198e-01,-1.29307e-01,-5.23510e-01,1.62896e-02,-8.76603e-01,3.63027e-01,2.21096e-01,-2.20964e-01,-3.75504e-01,-8.13323e-01,2.08589e-01,5.94925e-01,-1.03402e-01,-2.20646e-01,-2.07233e-01,
3.25796e-01,2.40584e-01,4.99335e-01,3.18061e-01,-2.41812e-01,-3.17523e-01,1.44162e-01,6.54714e-01,4.36980e-01,2.86073e-01,4.55778e-01,-3.32890e-01,2.67752e-01,-3.51206e-03,-3.83653e-01,
-9.38652e-02,6.09390e-01,1.72926e-02,3.84698e-01,-5.29498e-01,3.72734e-01,5.38537e-01,-4.01657e-01,2.34497e-02,-4.87540e-01,-1.01740e-01,4.65499e-01,-1.87547e-01,1.50814e-01,-6.40028e-03,
-1.79207e-01,-2.00583e-01,2.46381e-01,1.22536e-02,-6.41821e-01,-2.55589e-02,6.01639e-01,4.04219e-01,-7.61548e-01,1.70956e-01,-3.66128e-01,-3.80148e-01,2.64433e-01,1.14240e+00,-1.38700e-01,
2.91824e-01,8.74491e-02,-8.05083e-01,2.93038e-01,3.25605e-01,-5.64007e-01,-5.31237e-01,-1.40899e-02,-3.84954e-01,2.29111e-01,5.78772e-01,1.30219e-01,-2.37818e-02,-5.78567e-01,4.58804e-01,
-6.74375e-01,1.01150e-01,-1.97741e-01,-5.17098e-01,8.02067e-01,-5.24943e-01,-1.64686e-01,1.19367e-01,2.49735e-01,-3.84542e-02,-2.02605e-01,6.59836e-02,2.04385e-01,-1.47102e-01,1.73181e-01,
2.46465e-01,6.42862e-01,-6.88140e-01,4.75226e-01,-2.59918e-01,8.48167e-02,-4.46533e-01,-1.18725e-01,-4.81786e-01,2.27194e-01,-2.50101e-01,9.31243e-03,2.91813e-01,6.77582e-02,3.91046e-01,
6.98992e-01,-5.82180e-01,4.77280e-01,2.01042e-02,8.00084e-03,9.71018e-02,-1.06325e-01,-3.13358e-01,-1.20327e-01,2.61100e-01,4.49860e-01,-5.92678e-01,6.36095e-02,4.45797e-01,3.20896e-01,
-4.63730e-01,-8.56158e-01,4.43295e-01,8.87405e-02,2.77880e-01,1.03840e-01,-3.87265e-01,-3.71834e-01,-1.78620e-01,-5.99078e-01,2.32306e-01,1.06496e+00,-4.10320e-01,-1.14501e+00,2.73560e-01,
-1.92440e-01,4.77097e-01,-5.59738e-01,-7.51192e-02,3.13835e-01,4.64329e-01,-4.46964e-01,-1.19627e-01,4.76861e-01,-1.34288e-01,-7.06178e-01,3.87129e-02,1.45203e-01,4.27224e-02,9.94478e-03,
1.98216e-01,2.71571e-01,-7.40556e-01,-3.13381e-01,-6.08998e-01,-3.11681e-01,-1.75257e-01,-3.59449e-01,1.39821e-01,-5.12621e-01,-4.15288e-01,3.44741e-01,-7.24604e-01,-2.26556e-01,1.64995e-01,
-5.72593e-04,-2.29629e-01,2.25230e-02,-2.80939e-01,2.56409e-01,3.18999e-01,4.70128e-01,-2.22025e-01,-6.69112e-01,1.88593e-01,-2.56168e-01,2.92513e-02,-5.81540e-03,2.71940e-01,-4.03578e-01,
-5.06756e-02,
-9.43783e-02,
-3.99774e-01,
-6.46741e-01,
5.54534e-04,
-9.66163e-02,
2.86888e-01,
6.30323e-02,
-3.40814e-01,
-5.25583e-01,
6.90978e-01,
5.23558e-01,
2.52557e-01,
-3.89572e-01,
-3.22876e-01,
-1.97539e-01,-2.44876e-02,-1.31765e-01,2.03502e-01,1.42975e-01,2.45767e-01,-2.40357e-01,2.53160e-01,2.24347e-01,-1.91562e-02,-1.58426e-01,7.26025e-01,3.54380e-01,4.01219e-01,-7.48528e-01,
3.99581e-01,2.08766e-01,-9.84046e-02,-2.20852e-01,-9.34924e-02,1.44160e-01,3.76892e-01,-7.34166e-01,9.76065e-01,7.16174e-02,2.81197e-02,-1.53821e-04,-8.54682e-01,-8.46653e-01,-4.35066e-01,
8.49349e-01,-1.46436e-01,2.82578e-01,-7.44805e-01,1.04521e-02,-1.24148e-01,2.98851e-01,-3.15299e-01,-5.25009e-01,4.69186e-02,2.17476e-01,5.75464e-02,1.13234e-01,4.70797e-01,3.49724e-01,
-6.36995e-01,6.15160e-01,3.10083e-01,3.31149e-01,-6.69748e-02,-4.56193e-01,-5.11700e-01,1.23729e-01,7.13953e-02,4.00439e-01,-4.40653e-01,2.81402e-01,2.35001e-01,4.58610e-02,4.61750e-02,
-1.53344e-01,4.98382e-01,-1.69769e-01,5.19332e-01,1.57538e-01,8.53323e-02,-1.29584e-01,1.93056e-01,3.09624e-01,-8.53317e-01,-2.96058e-01,3.55441e-01,-4.99189e-01,-5.96658e-01,1.27185e-01,
-2.45392e-01,3.87900e-01,5.66504e-02,-7.54869e-05,1.47453e-01,5.25952e-01,6.19222e-01,3.43505e-02,-5.31180e-02,-2.87775e-03,-4.45870e-02,-4.93575e-02,-3.44658e-01,3.59528e-02,-1.86702e-02,
2.09212e-01,-4.62171e-01,2.44654e-01,6.55306e-02,3.22008e-02,-4.82470e-01,-1.56306e-01,1.38839e-01,5.77252e-02,-3.39327e-02,6.58440e-01,-4.06855e-01,-3.72355e-01,4.39924e-01,3.12531e-01,
5.17689e-01,-1.80434e-01,-5.74607e-01,1.86813e-01,-3.59976e-02,-3.22205e-01,-1.57683e-01,-8.57921e-01,-2.23611e-01,-2.52264e-01,3.90554e-01,-5.14215e-01,2.38230e-01,-5.55027e-02,4.14838e-01,
1.88130e-02,-4.26706e-01,-4.78628e-01,1.38230e-02,3.95235e-01,-5.93949e-03,-5.89000e-01,4.42478e-01,2.25935e-01,4.74815e-01,-1.59697e-01,-1.44889e-01,-7.61881e-01,-9.59855e-02,1.61648e-01,
1.32253e-01,-9.21897e-03,7.13331e-02,-2.82768e-01,2.10756e-02,5.37058e-01,-4.64731e-01,1.20958e-01,7.04915e-01,-2.77430e-01,-1.36152e-01,6.00616e-01,-6.46628e-01,6.95192e-01,-9.99911e-02,
1.37396e-01,5.04019e-02,5.02325e-01,7.57877e-01,7.85077e-01,1.31893e-02,-1.77135e-01,1.07425e-01,-6.79997e-01,-1.15174e-01,5.78263e-01,3.33934e-01,-3.10196e-01,-4.04086e-01,-6.55903e-02,
-1.60930e-01,-6.85244e-01,3.00746e-01,-4.21142e-01,4.68896e-01,7.84646e-01,-9.96748e-02,3.61887e-02,1.11848e-02,-2.48533e-01,4.03557e-01,-8.35145e-01,-3.36656e-02,-4.91952e-01,4.46579e-01,
4.26890e-01,7.93724e-01,3.72780e-01,2.38196e-01,1.98347e-01,6.22376e-01,9.77737e-02,2.57414e-01,2.92369e-01,1.55633e-01,3.40930e-01,-7.09657e-02,5.61607e-01,-1.02646e-01,3.01241e-01,
-3.82949e-01,-4.79793e-01,9.70775e-02,3.18470e-01,-7.67899e-01,6.69960e-01,-1.89762e-02,-2.36903e-01,1.99051e-01,-4.38875e-01,7.14960e-02,7.55505e-01,-5.65185e-01,-2.70578e-01,1.61997e-01,
-1.29280e-01,3.78362e-01,-4.79357e-01,3.34009e-01,8.35201e-01,-1.32220e-01,-4.99871e-01,2.51303e-01,-3.47776e-01,9.18045e-02,9.85381e-02,8.86083e-01,-5.05541e-01,3.87867e-01,-5.21228e-01,
2.26795e-02,
-4.98764e-01,
-8.03187e-01,
-2.26955e-01,
-6.08071e-01,
-8.32357e-01,
-1.21879e-01,
-1.74957e-01,
2.68992e-01,
4.25818e-01,
-5.37953e-02,
4.77425e-01,
2.35450e-01,
3.44898e-01,
-4.69311e-02,
-7.38407e-01,3.96867e-01,4.97978e-01,-2.87537e-01,-4.11273e-01,-2.92766e-02,7.34312e-02,-2.37268e-01,5.59449e-02,-2.34217e-02,2.83989e-01,-1.81065e-01,1.24410e-01,-7.77241e-01,2.06698e-01,
1.26945e+00,-5.91506e-01,-5.53055e-01,5.63270e-01,3.10560e-01,-9.09271e-03,-4.09259e-01,-1.45548e-01,1.79927e-01,4.12099e-01,4.31030e-01,5.74961e-01,1.32510e-01,-3.19221e-01,6.67775e-01,
4.46273e-01,-2.37539e-01,-2.16871e-01,4.22229e-01,-2.61312e-01,-4.65098e-02,-1.75239e-01,-1.58083e-01,5.03266e-01,-8.67778e-01,-1.67360e-01,-9.54263e-02,4.73063e-01,3.64105e-01,-4.73972e-01,
-7.65319e-01,2.38157e-01,-9.81045e-01,-8.61815e-01,3.13202e-01,6.48943e-02,-2.93977e-01,-4.01477e-01,-1.83782e-01,-4.73056e-01,7.17452e-01,-2.17949e-02,6.54424e-01,7.00909e-01,4.56856e-01,
6.19540e-01,1.72743e-02,4.66582e-02,2.24970e-01,-6.16510e-01,1.11090e-01,-6.77315e-01,-9.53904e-02,-4.77277e-01,-9.08172e-01,2.05460e-01,2.22640e-01,9.59630e-02,2.81631e-01,6.19845e-01,
-3.70744e-01,9.27833e-01,1.91320e-01,4.95781e-01,-9.24608e-02,-2.05700e-01,4.36183e-01,-2.64717e-01,3.14197e-02,-1.35098e-03,-5.75490e-01,-2.25559e-01,-5.41819e-01,-2.82786e-01,3.45723e-01,
-1.84272e-01,-7.86386e-02,-1.76958e-01,3.95717e-01,7.67881e-01,6.42779e-02,-4.02952e-01,-1.08218e-01,-4.65737e-01,2.06257e-01,-1.07135e-01,2.56778e-01,1.70564e-01,-7.91672e-01,4.86124e-01,
-1.42180e-01,-6.92475e-02,-8.28997e-01,6.31328e-01,1.84868e-01,7.43832e-02,3.50629e-01,-6.75206e-02,4.38579e-01,2.44269e-02,-3.97488e-01,-3.03684e-01,-5.01271e-01,-2.18423e-01,-9.65669e-02,
6.40126e-01,-9.53209e-01,2.95373e-01,1.50957e-01,-1.67943e-01,4.35031e-01,3.25003e-01,-2.76744e-01,-7.77771e-02,-1.10351e-01,-9.99933e-02,6.95738e-01,7.49771e-02,-6.84502e-02,-5.21747e-01,
9.84075e-02,-1.11488e-01,-4.18692e-02,-1.90752e-01,5.76726e-02,2.71137e-01,-4.47082e-02,1.08351e-01,1.87543e-01,-8.92639e-02,-3.11022e-01,2.70957e-01,2.16294e-01,4.45833e-02,2.05489e-01,
2.30649e-01,7.04126e-01,7.29195e-01,-1.65726e-01,5.48760e-01,-1.16904e-01,-5.01208e-02,3.61590e-01,9.59553e-01,-1.59456e-02,8.81531e-01,-1.03202e-01,2.81197e-01,-5.45924e-01,-1.45454e-01,
-3.70086e-01,-4.27770e-01,-1.94823e-01,-3.80372e-01,1.36516e-01,1.52740e-01,5.86834e-01,2.00316e-01,3.17445e-01,4.07759e-01,-8.52198e-02,-3.80658e-01,-9.05219e-02,2.43472e-01,5.54162e-01,
2.85729e-02,-5.67197e-01,5.40566e-01,1.44542e-01,-7.63340e-01,6.39596e-01,1.47672e-01,-6.80700e-01,-6.61578e-01,-2.53035e-01,3.67154e-01,1.99906e-01,-2.36323e-02,-2.53998e-01,3.50288e-01,
6.61447e-01,2.26936e-01,2.89821e-01,-5.71024e-01,-7.52244e-01,-7.36421e-01,3.94470e-01,1.68223e-01,-4.45289e-01,-3.77509e-01,1.40400e-02,-3.75381e-01,-5.35074e-01,5.91565e-01,4.56963e-01,
-1.43469e-01,2.11500e-02,2.93050e-01,-4.79798e-01,6.45824e-02,-5.81581e-01,2.17687e-01,1.63601e-02,5.18788e-02,1.06877e-01,4.10274e-01,-2.07526e-01,-6.34666e-01,3.91941e-01,3.17387e-01,
3.38501e-01,
8.58355e-01,
-2.51477e-01,
-1.98151e-01,
-3.60570e-01,
-7.74219e-01,
1.56060e-01,
8.80702e-01,
-1.73019e-01,
-3.40986e-01,
-6.63971e-02,
-2.93074e-02,
1.09410e-02,
1.79785e-01,
1.92731e-01,
-3.91294e-01,-3.32422e-01,-5.23729e-01,1.61045e-01,-5.70310e-01,2.10930e-01,7.21330e-01,-6.71732e-01,6.24674e-02,-1.69789e-01,6.71014e-01,2.22225e-01,-4.89808e-01,2.41584e-01,6.97079e-02,
-3.16021e-03,-2.65063e-01,-5.54284e-01,-1.57574e-02,-3.23682e-02,-1.68398e-01,-5.68340e-01,-3.19077e-01,-3.29986e-01,-1.28065e-01,4.30783e-01,-3.47598e-01,5.93067e-01,2.56690e-01,-1.65354e-02,
1.33927e-01,2.39428e-01,1.22978e-01,9.03898e-02,-6.62365e-02,3.58985e-01,7.19574e-02,2.44263e-01,-5.27156e-02,1.96406e-01,-7.29178e-02,-5.27943e-01,-7.10512e-01,-4.54660e-01,2.52126e-01,
-2.58084e-01,7.26769e-01,-2.77056e-02,2.69253e-01,1.56180e-01,-3.84706e-01,-1.90355e-02,6.46563e-01,8.14815e-01,-2.35411e-01,-8.27035e-01,-2.63795e-01,2.41989e-01,2.53637e-01,-7.22561e-01,
-4.43589e-01,-1.18389e-01,-1.48917e-02,-2.36316e-01,2.18665e-01,-9.88210e-02,-1.83811e-01,-3.43870e-01,-3.41465e-01,-6.14539e-01,1.25341e-01,3.94385e-01,6.30126e-01,3.40433e-02,5.36525e-01,
-4.00061e-01,5.64210e-01,4.42970e-01,2.63277e-01,3.97347e-02,4.58597e-01,2.72515e-01,7.63455e-01,4.03285e-01,9.18767e-02,-5.13599e-01,4.70029e-01,-1.71019e-01,2.64921e-01,-5.90711e-01,
-1.97795e-01,6.36227e-02,3.54406e-01,-3.96588e-01,6.55840e-01,-6.27145e-01,-5.31962e-01,-5.94830e-01,-2.57387e-01,4.85990e-01,-1.92922e-01,5.18412e-01,-8.72357e-02,-2.08671e-01,3.44486e-01,
3.22313e-01,-2.23951e-01,-2.68263e-01,-3.60824e-01,9.24680e-01,1.71668e-01,-6.32226e-01,4.51105e-01,-4.26651e-01,-4.96216e-02,-1.68533e-01,5.61669e-01,-1.59924e-01,2.47647e-01,-2.06837e-02,
6.18283e-02,4.44194e-01,2.46266e-03,-7.78450e-01,-2.94663e-01,6.33295e-01,7.36830e-02,-1.24653e-01,3.95614e-01,-6.54094e-01,2.37677e-01,-4.12635e-01,2.95904e-01,1.81456e-01,2.53578e-01,
-8.54271e-02,7.56671e-01,-7.15697e-01,-5.21334e-01,-4.09745e-01,-2.79617e-01,-4.41143e-01,-3.29101e-01,4.65738e-01,-2.44788e-01,4.98131e-02,-6.91114e-02,-3.40896e-01,-3.33446e-01,-5.09405e-01,
1.93264e-01,6.02244e-01,-5.79173e-01,-4.43998e-01,-8.89760e-01,7.64728e-01,-7.41614e-01,3.39707e-01,-8.54999e-02,2.97424e-01,-2.67744e-01,4.36298e-01,-4.07812e-01,6.01206e-01,5.47885e-01,
6.66180e-01,-8.20507e-01,5.68244e-03,-3.39842e-01,4.95335e-01,-2.01631e-01,-4.99244e-01,-4.23350e-02,4.50480e-01,5.34051e-01,-1.68558e-01,-2.92912e-01,-3.22583e-01,4.86974e-02,4.62332e-01,
3.11492e-01,-4.14289e-01,1.51467e-02,-6.41548e-01,1.82719e-01,-3.25993e-01,-1.71418e-01,-1.04054e-01,1.50567e-01,8.69640e-01,4.25204e-01,5.17832e-02,5.48973e-01,1.01458e-01,-4.88639e-01,
-1.10413e-01,3.62315e-01,5.86432e-01,-2.53006e-01,-6.65378e-01,-1.69863e-01,1.45773e-01,-2.45816e-01,-4.16109e-01,6.45858e-02,-3.01080e-01,-3.90425e-01,3.72613e-01,-3.16218e-01,-1.71107e-01,
6.94321e-01,3.82955e-02,-8.60285e-01,-6.14030e-04,5.49350e-01,-4.58285e-01,-7.23593e-01,-2.70400e-01,6.35776e-01,6.58102e-01,4.28113e-02,1.91587e-01,3.89145e-01,-7.33189e-02,4.56262e-01,
5.45092e-01,
-2.68966e-01,
-1.42516e-01,
2.15567e-02,
-3.17502e-01,
3.49019e-02,
-1.32797e-01,
4.19380e-01,
-3.69236e-01,
4.16862e-01,
-3.18884e-01,
1.94411e-01,
-4.09236e-01,
4.89225e-02,
3.52714e-01,
-1.99606e-01,3.02838e-01,-3.13300e-01,-1.76492e-01,-1.69130e-01,2.30067e-02,-2.37811e-01,6.27261e-01,-1.60390e-01,-2.33107e-01,-1.53714e-01,-2.62342e-01,-3.60862e-01,-4.53707e-01,2.82319e-02,
-1.37825e-02,-2.47678e-01,2.10366e-01,-9.60746e-02,2.01976e-02,-4.01525e-01,-8.21279e-01,1.02791e-01,5.89023e-01,2.83925e-01,5.07486e-01,-4.29884e-01,-3.12321e-01,7.99972e-02,-1.76433e-01,
6.35296e-01,-1.93012e-01,-6.91883e-02,-3.56728e-01,-3.79543e-01,1.66087e-01,-8.81203e-02,1.13718e-01,-5.79518e-01,-3.26178e-01,-6.93448e-01,4.39062e-01,4.11526e-01,2.46903e-01,-2.52306e-01,
6.33794e-02,-8.11510e-01,1.43593e-01,2.44337e-02,-4.35738e-01,-2.15905e-01,-3.59635e-01,-2.76346e-02,-5.61706e-02,8.76354e-02,2.71074e-02,2.97567e-01,1.85742e-01,-4.46280e-02,8.53414e-03,
1.17316e-01,8.11359e-01,-2.42975e-01,1.17843e-01,2.00589e-02,3.95750e-02,6.76586e-01,-4.38385e-01,-3.62984e-01,1.94393e-01,8.85709e-01,1.32835e-01,2.87751e-01,-4.65764e-01,-2.68970e-01,
-1.54834e-01,-3.70547e-01,-1.16295e-01,6.35751e-01,1.99988e-01,1.07642e-01,5.38061e-01,6.52758e-02,4.44318e-01,-1.46741e-01,-2.08722e-01,-6.69449e-01,1.44274e-01,1.71299e-01,1.68411e-03,
2.77753e-01,-3.19297e-01,2.82195e-01,4.99886e-01,-3.79444e-01,4.88022e-01,9.08131e-02,5.70187e-01,1.08891e-02,1.31649e-01,1.98215e-01,4.54780e-01,4.75827e-02,3.81259e-01,7.94267e-02,
4.76854e-01,3.40129e-01,4.97967e-01,-2.52775e-01,-1.17182e-01,-1.31004e-02,-2.65399e-01,-8.36234e-02,7.36058e-01,2.30440e-01,-4.97630e-01,-1.25215e-01,-6.81009e-02,-2.90219e-01,-3.92026e-01,
5.10978e-01,-3.36782e-01,1.93490e-01,3.68653e-01,1.40408e-01,1.71509e-01,-1.70300e-02,-3.20685e-01,1.84328e-01,-4.60613e-01,3.60279e-02,3.77779e-01,4.28447e-02,-2.28039e-02,-3.60045e-01,
-2.63610e-01,-5.04286e-01,-2.22126e-01,-3.09325e-01,2.34542e-01,-2.92321e-01,5.28411e-01,6.02238e-01,-2.86128e-02,1.54529e-01,-1.03337e-01,-6.16994e-01,1.24365e-01,-5.01828e-01,-1.01308e-01,
7.25149e-01,-4.88397e-01,4.68545e-01,-1.43862e-01,2.59242e-01,1.77549e-01,1.14123e-01,8.75145e-02,2.39673e-01,-1.54270e-01,-6.63731e-02,-5.26424e-01,1.30960e-02,-6.18497e-02,1.81944e-01,
6.85829e-02,2.10356e-01,-5.17782e-01,-7.68294e-01,-8.18843e-01,-1.46088e-01,-1.73748e-01,6.34234e-01,2.21725e-01,-3.86516e-01,-9.00240e-01,-2.85777e-01,-3.58556e-01,2.17976e-01,-5.16731e-01,
-6.49577e-02,-6.77452e-01,6.69318e-01,1.86526e-01,2.34972e-01,3.44287e-02,-7.45152e-02,-3.05123e-01,-1.12772e-01,-7.23852e-01,-3.44741e-01,2.52572e-01,2.76688e-01,1.05751e-01,1.39936e-01,
-3.85813e-01,-9.35980e-01,6.65758e-02,2.22161e-01,7.47191e-01,-9.30227e-01,2.28346e-01,2.92173e-01,2.56389e-03,1.10585e-02,5.46190e-01,4.93667e-02,4.68407e-01,-3.10649e-01,-2.48088e-01,
-6.64311e-02,-2.62250e-01,-2.92204e-02,2.50138e-01,-2.31473e-01,3.34810e-01,5.03652e-01,-3.69976e-01,-2.70388e-01,1.66809e-01,-4.14545e-01,1.29014e-01,-2.76171e-01,2.61635e-01,2.85020e-01,
-4.01849e-01,
-6.06009e-01,
-7.12274e-02,
5.99853e-02,
5.21305e-01,
-3.69303e-01,
-3.82393e-01,
1.99447e-01,
-1.83915e-02,
2.69328e-01,
5.10296e-01,
3.90444e-01,
7.27874e-01,
-1.35270e-01,
4.25854e-01,
-4.51870e-01,-5.35936e-01,2.57312e-02,-2.71037e-01,-7.86255e-02,-2.13872e-01,-1.31500e-01,3.62525e-01,-4.99343e-02,3.82841e-01,2.93054e-01,-1.91279e-01,-3.41554e-01,3.84893e-01,-1.90513e-02,
6.62416e-01,1.16770e-01,-1.54320e-01,-1.15924e-01,-7.52055e-01,9.40449e-03,-6.53079e-01,-4.04066e-02,9.43216e-02,4.91546e-02,-4.43688e-01,-1.42979e-02,1.98080e-01,5.24361e-01,1.00388e+00,
9.07666e-02,
-5.57455e-01,
