// Neural Network File Format by Kyle Julian, Stanford 2016
15,2,2,5,
2,5,5,5,5,5,5,5,5,5,5,5,5,5,5,2,
0,
-10000.0,-10000.0,
10000.0,10000.0,
0.0,0.0,0.0,
1.0,1.0,1.0,
8.65198e-02,-2.22151e-01,
4.61848e-01,-7.78064e-01,
-3.38032e-01,-3.94045e-01,
1.76154e-01,-4.24864e-01,
1.48701e-01,2.36551e-01,
3.63327e-01,
-2.79906e-01,
-5.59138e-01,
2.75097e-01,
-5.42893e-02,
-5.01112e-01,2.15844e-02,2.77221e-02,-4.59519e-01,-1.06587e-01,
8.64096e-01,-1.01353e-01,-4.13150e-01,1.59136e-01,-5.67990e-01,
-8.74179e-02,-2.07247e-01,4.42480e-01,6.21022e-01,4.86440e-01,
1.96238e-01,-4.30042e-01,5.57054e-01,2.24915e-01,-2.82370e-01,
-3.14951e-01,-1.07547e-01,2.61888e-01,1.57777e-01,-8.11942e-01,
-5.72834e-01,
1.45170e-01,
2.99888e-01,
6.67070e-02,
1.46267e-01,
-4.07020e-01,-3.34752e-01,-4.83549e-02,1.22885e-01,1.06146e-01,
-1.16206e-01,-1.39728e-01,2.00580e-01,-2.66235e-02,-2.10197e-01,
1.56331e-01,-4.59498e-01,-1.37133e-01,6.28861e-01,-5.58881e-01,
-6.97720e-01,6.96489e-01,-2.65357e-01,-7.61553e-02,7.48021e-01,
-2.41853e-01,-3.05951e-01,2.68311e-01,-9.71344e-02,1.48263e-01,
-1.57849e-01,
-4.04964e-01,
7.49613e-01,
3.04551e-01,
-3.14712e-01,
-1.71446e-01,-3.49639e-01,1.19065e-01,1.24964e-01,-5.45433e-01,
-3.23760e-01,-7.75816e-01,1.21490e-01,4.43242e-02,-1.62379e-01,
-2.63063e-01,1.16015e-02,-2.55941e-01,4.94434e-01,-5.40241e-01,
-5.99133e-01,9.28051e-01,-6.66084e-01,-5.14722e-01,1.87409e-01,
1.84880e-01,3.20910e-01,1.17047e-01,-1.08571e-01,-2.24174e-01,
4.56515e-02,
5.34445e-01,
-1.24307e-01,
-2.33290e-02,
1.58172e-01,
-3.12213e-01,6.19203e-01,-1.28093e-01,2.23638e-01,8.72560e-01,
-1.24490e-01,1.64513e-02,1.99391e-01,-6.30728e-01,2.01247e-01,
2.30529e-01,-5.16122e-01,-6.17232e-01,-2.21743e-01,-1.84824e-01,
-7.68902e-01,-1.32200e-02,-3.42583e-01,4.46686e-02,-3.18874e-01,
-9.95550e-01,3.24549e-01,4.10084e-01,-2.52179e-01,-6.80739e-01,
-1.82602e-01,
-8.09649e-01,
-4.03972e-01,
4.71383e-01,
-4.38661e-01,
-6.38567e-03,-1.10337e-01,-7.39376e-02,5.32694e-02,-9.27959e-01,
-4.48446e-01,2.34137e-01,3.67394e-01,-6.65194e-02,-2.02903e-02,
-3.15059e-01,7.73821e-01,1.02379e-01,4.88689e-01,-1.58122e-01,
-1.37111e-02,-8.95196e-02,-2.15248e-01,7.65373e-01,6.41925e-01,
-5.22131e-01,1.82657e-02,1.61899e-01,2.56071e-01,4.93930e-01,
1.57454e-01,
2.97836e-01,
4.76507e-01,
-1.02159e-01,
1.63002e-01,
-1.90366e-01,3.37954e-01,4.59801e-03,1.00438e-01,-5.07457e-01,
-4.25533e-01,-5.68545e-02,1.29444e-02,9.40972e-01,7.01014e-01,
-2.79164e-01,-1.79174e-01,-5.08509e-01,-4.03905e-01,-4.90718e-01,
-3.18904e-02,-5.90026e-01,-2.50481e-01,7.37699e-02,-2.82454e-01,
-3.87765e-01,-4.48360e-01,5.39943e-01,7.65624e-01,-2.79325e-01,
-6.77460e-01,
-3.36579e-02,
-1.32848e-01,
-3.25310e-01,
-1.09959e-01,
-9.48745e-02,-5.33778e-01,2.94081e-01,8.94784e-02,4.88026e-01,
-2.18697e-01,6.11887e-01,3.98747e-01,3.74571e-01,2.29933e-01,
-2.23829e-02,3.32706e-01,-7.71019e-01,4.02052e-02,1.44334e-01,
-1.68666e-01,-9.87887e-05,4.69625e-01,-7.54445e-02,3.56821e-01,
2.47096e-01,-5.15679e-01,7.34124e-01,-6.43530e-01,9.06833e-01,
-5.72205e-02,
-1.65161e-01,
-1.17304e+00,
9.46237e-01,
3.06592e-01,
-6.10588e-01,3.22660e-02,2.74210e-01,6.65975e-01,9.89668e-02,
-6.84636e-01,3.58615e-01,-1.89827e-01,5.00367e-01,7.01923e-01,
6.38501e-01,-6.13505e-01,-1.19146e-01,3.48475e-01,-4.59800e-02,
-2.62275e-01,1.07444e-01,-4.46344e-01,8.54938e-02,-4.26106e-01,
6.57850e-01,3.21504e-01,-7.44877e-02,3.41945e-01,-5.31935e-01,
-7.04111e-02,
6.17731e-01,
3.06013e-02,
1.39770e-01,
2.03148e-01,
-2.39195e-01,-9.65885e-03,-4.94257e-01,-4.72234e-01,4.56764e-01,
7.64581e-01,1.32205e-02,5.53838e-02,1.29437e-01,-1.34831e-01,
1.85341e-01,4.24789e-01,2.33378e-01,-8.80681e-01,2.24863e-01,
-1.58503e-01,-1.99900e-01,-4.99528e-01,-3.52523e-01,4.72147e-01,
-5.83409e-01,2.41377e-01,1.55179e-01,3.90951e-01,-7.04442e-01,
-3.52615e-01,
-2.94447e-02,
-6.34363e-01,
-6.24996e-02,
-2.48362e-01,
-7.15469e-02,-2.87707e-01,-3.19924e-01,7.60021e-01,5.73702e-01,
-2.02390e-01,1.76113e-01,1.90397e-01,-5.81590e-02,-1.76083e-01,
-2.86691e-01,7.69048e-02,-3.75726e-01,3.86839e-01,-9.16168e-02,
-4.78847e-02,-1.08273e-01,-4.03603e-01,3.56819e-01,-1.29288e-01,
3.02754e-01,-1.53477e-01,2.17887e-01,3.42416e-01,-9.84122e-01,
-2.24464e-01,
3.09972e-01,
-1.09729e-01,
-5.67707e-01,
-1.17315e-01,
-1.16099e+00,2.12728e-01,-7.13255e-01,-4.96441e-01,-4.46501e-01,
-1.01777e+00,6.94436e-01,-5.13982e-01,8.43135e-02,4.42278e-01,
-7.09342e-01,-2.11255e-01,-8.44547e-02,9.44189e-02,7.20784e-01,
2.53450e-01,-2.86743e-01,6.88161e-01,1.38486e-01,-2.00731e-01,
7.91166e-01,1.19943e-01,-6.53927e-01,8.27707e-01,7.60607e-01,
1.04541e+00,
-3.49595e-01,
3.58217e-02,
-5.99003e-01,
1.84901e-01,
1.58041e-01,1.50482e-01,4.72752e-01,5.36065e-01,-1.16036e+00,
-3.19644e-01,3.59714e-01,5.32924e-01,-5.69595e-02,-4.80744e-01,
6.47686e-01,-1.24484e-01,-4.63679e-01,9.00918e-02,2.24392e-01,
7.21505e-01,-8.48682e-01,5.80967e-01,2.47392e-01,-8.96047e-02,
2.44031e-01,1.17298e-01,9.79712e-02,4.16961e-01,7.79517e-01,
9.14337e-02,
2.13971e-01,
1.32290e-02,
-8.15905e-02,
7.81133e-03,
-5.57692e-02,4.26656e-01,3.18439e-01,-2.59087e-01,-3.40696e-01,
7.43046e-01,1.13936e+00,-1.74021e-02,-1.59391e-01,-8.32966e-01,
1.18601e+00,-6.09241e-02,4.63981e-02,5.16229e-02,1.15681e-01,
6.65339e-01,6.50402e-01,3.14976e-01,6.55772e-01,1.58145e-01,
-4.85461e-01,1.62432e-01,-8.10922e-01,-8.85084e-02,1.93587e-01,
9.18706e-01,
-1.13229e+00,
1.89536e-01,
-4.27395e-01,
-5.97809e-02,
-2.41748e-01,1.32210e-01,9.30135e-01,-8.23961e-01,-2.28600e-01,
-2.59802e-01,4.75270e-01,8.07449e-03,1.01958e-02,-7.51226e-01,
-4.81829e-01,
5.58973e-01,
