// Neural Network File Format by Kyle Julian, Stanford 2016
45,2,2,10,
2,10,10,10,10,10,10,10,10,10,10,10,10,10,10,10,10,10,10,10,10,10,10,10,10,10,10,10,10,10,10,10,10,10,10,10,10,10,10,10,10,10,10,10,10,2,
0,
-10000.0,-10000.0,
10000.0,10000.0,
0.0,0.0,0.0,
1.0,1.0,1.0,
1.45243e-01,-2.30336e-01,
-3.01093e-02,1.14142e-01,
2.27917e-02,-1.15423e-02,
5.91036e-01,2.62245e-01,
7.83259e-02,6.62520e-01,
-3.80665e-01,1.45439e-01,
3.08230e-01,-4.11519e-02,
-6.38130e-02,1.76388e-01,
-5.67962e-01,4.64589e-02,
-3.91218e-01,-1.06632e-01,
2.68076e-01,
1.04199e-01,
1.38551e-01,
-1.40849e-01,
-1.11878e-01,
-1.43578e-02,
-1.48593e-01,
1.51160e-01,
-3.30859e-02,
-1.22661e-01,
8.48917e-02,-3.08347e-01,2.18911e-01,-1.91386e-01,-4.62616e-01,-2.97015e-01,-1.45231e-01,-8.99700e-02,3.13549e-01,6.24516e-01,
-3.32703e-01,-9.88848e-02,2.28610e-01,4.89918e-01,-7.84334e-02,4.41450e-01,-1.84533e-01,-3.26124e-02,2.64071e-01,3.19792e-01,
-5.14465e-02,6.75689e-03,-6.40789e-02,-3.04881e-01,8.14660e-02,2.43964e-01,3.23487e-01,1.01724e-01,1.58031e-01,-1.21863e-01,
-4.15629e-01,-1.99367e-01,-1.54252e-01,-6.69149e-01,-1.24880e-01,3.51639e-02,2.34862e-01,1.91133e-01,1.25812e-01,-2.44142e-01,
-3.87574e-02,1.85993e-01,1.26883e-01,6.19212e-02,-3.46613e-01,6.30128e-02,7.14589e-02,2.20821e-01,2.56270e-02,-2.92258e-01,
-5.15437e-01,2.01425e-01,2.55358e-01,9.17148e-02,1.36912e-01,-2.51013e-01,1.85549e-01,-2.55973e-01,1.78003e-02,-2.79596e-01,
2.29977e-01,2.09884e-01,1.18855e-01,5.78104e-01,6.35855e-01,2.48138e-02,-2.15007e-01,-7.68846e-03,6.92830e-02,-4.40446e-01,
3.44613e-01,-1.25658e-01,9.80007e-02,1.69775e-01,3.86961e-01,3.32042e-02,-1.67019e-01,5.70854e-01,-9.10984e-02,-3.46905e-01,
-1.48702e-01,-5.44061e-01,-3.22623e-02,1.07976e-01,-5.53722e-01,-2.82385e-01,4.93913e-02,-4.23484e-02,3.53289e-01,2.58435e-01,
3.76365e-01,-5.24994e-01,2.58297e-01,5.65126e-01,-2.15316e-01,9.11360e-02,-5.65201e-01,-6.19484e-01,1.66796e-01,-2.33438e-01,
-1.60699e-02,
-1.01673e-01,
3.61049e-01,
-1.46349e-01,
3.03717e-01,
4.27059e-01,
-5.03852e-01,
9.68182e-02,
2.55721e-01,
2.44819e-01,
-3.88876e-01,1.89689e-01,-6.27009e-01,-1.26334e-01,3.61310e-01,3.52959e-02,3.21255e-01,1.47319e-01,-2.65184e-01,-6.86999e-01,
-1.89448e-01,-1.19271e-01,-5.71762e-02,-2.15818e-01,-1.80690e-01,-1.68697e-01,3.23592e-01,-1.20477e-01,2.21053e-01,1.02223e-01,
-1.91213e-01,-3.55632e-01,4.28582e-01,-2.49319e-01,-6.69630e-02,7.71426e-02,-1.48671e-01,2.44982e-02,-5.03188e-01,5.32654e-02,
-4.32988e-01,8.42889e-02,-7.86038e-02,-8.14721e-02,9.69783e-02,1.36697e-01,3.58039e-01,-1.05949e-01,2.79138e-01,1.50577e-01,
1.09353e-01,7.67871e-02,4.63867e-01,-4.09035e-01,-3.11534e-01,-1.36097e-01,3.48091e-01,2.46878e-01,1.62726e-02,-1.93970e-02,
2.13964e-01,-4.01032e-01,-3.16933e-01,2.87978e-01,3.11431e-01,4.16207e-01,1.15476e-01,-5.01680e-01,-4.05085e-01,2.69310e-03,
-1.52531e-01,-1.83177e-01,8.59620e-02,2.49652e-01,3.83854e-02,1.56733e-01,3.38640e-01,4.54099e-01,-9.57402e-02,3.87176e-01,
-5.44817e-01,5.24017e-01,-3.50445e-01,1.64806e-02,-1.61983e-01,1.35574e-01,-9.02451e-04,7.68932e-02,-4.90994e-01,2.80919e-01,
2.20778e-03,-8.96633e-03,1.16637e-01,3.53878e-01,-1.87069e-01,-2.42409e-02,2.16697e-02,-1.41841e-01,3.71318e-01,2.92219e-01,
1.08643e-01,-3.80715e-01,5.37266e-02,2.08279e-01,-2.33810e-01,1.37303e-01,1.35125e-01,-3.37051e-01,-3.75181e-01,-1.54219e-01,
-3.13895e-01,
-2.07249e-01,
-5.06285e-01,
-9.14166e-02,
-9.28329e-02,
-3.55705e-01,
-8.78447e-02,
-8.00754e-02,
3.31541e-02,
1.78148e-01,
1.51677e-01,-1.02121e-02,3.69954e-01,-1.48086e-01,1.23428e-01,-2.53143e-01,3.95028e-01,-2.11965e-01,-1.74794e-01,6.29841e-02,
-8.40808e-02,-9.73300e-02,-1.29369e-01,3.87052e-01,2.23413e-02,-8.82041e-02,-1.89974e-01,1.50760e-01,7.42169e-02,2.40731e-01,
-1.34403e-01,5.34904e-01,1.68251e-01,-1.05769e-01,9.16809e-02,8.11245e-03,-1.64613e-01,-1.46948e-01,2.07697e-02,1.69481e-01,
3.09641e-01,1.54220e-02,-9.61461e-03,3.87209e-01,2.79310e-01,-2.74987e-01,1.91378e-01,2.07183e-01,-9.93669e-02,-3.15634e-01,
5.17471e-01,4.10640e-01,1.24946e-02,-1.58072e-01,-4.53362e-01,4.33718e-01,4.09072e-01,-1.64028e-01,-2.62939e-01,2.32524e-01,
-3.75931e-01,1.52797e-01,2.07712e-01,-1.89752e-01,-2.55761e-01,8.24900e-02,5.05685e-01,3.96492e-01,1.03699e-01,6.98673e-02,
-4.83728e-01,3.38030e-01,2.45114e-01,1.15690e-01,-1.57352e-01,4.12695e-02,-1.48477e-01,-9.16356e-02,1.16790e-01,-2.42360e-01,
1.48810e-01,7.44258e-01,-8.72212e-02,-9.47024e-02,1.93810e-01,1.45366e-01,7.12846e-02,1.51772e-02,-1.02938e-01,-3.75896e-01,
-1.10366e-01,1.83766e-02,-4.63184e-01,9.91092e-02,6.64745e-02,-3.02655e-01,1.70694e-01,-2.06981e-02,-8.67451e-02,4.43850e-02,
1.94790e-01,3.60998e-01,4.14874e-01,5.23402e-01,-1.84831e-01,-2.06345e-01,3.94657e-01,-1.47150e-01,-1.27493e-01,1.45480e-01,
6.52917e-03,
1.36787e-01,
2.54356e-01,
-3.07288e-01,
1.35351e-01,
3.24827e-01,
4.55300e-01,
-4.92896e-01,
7.82599e-02,
9.19956e-02,
2.63430e-01,-4.01084e-02,-7.18530e-02,1.26535e-01,1.16956e-01,-2.12915e-01,5.22270e-01,5.21781e-01,2.39019e-01,3.21151e-01,
-2.64151e-01,-3.60888e-01,2.75483e-01,-3.11284e-01,-2.66574e-01,-1.95944e-01,-9.65189e-02,-4.61599e-02,3.00463e-01,1.53825e-01,
-2.18664e-01,-3.36730e-01,-1.37415e-02,-1.32773e-01,-3.18121e-01,-2.77804e-01,-1.14145e-01,1.61820e-02,-3.53055e-01,-2.49821e-01,
-2.46577e-01,3.54341e-01,-7.39827e-02,-1.68875e-01,-8.65723e-02,-2.70001e-01,-1.42998e-01,-2.37224e-02,1.91370e-01,-4.04559e-01,
9.45128e-02,7.11366e-02,-4.81640e-01,-3.71058e-02,-1.57605e-01,-2.11456e-02,4.93674e-03,-6.14204e-01,-9.99320e-02,4.01256e-02,
-3.12695e-01,3.71597e-01,-4.98629e-02,-3.02094e-01,5.50836e-02,3.86049e-01,7.72420e-02,-9.63822e-02,3.65940e-01,-1.02266e-02,
1.78141e-02,-2.04499e-01,-3.72053e-02,-1.13624e-01,-3.86954e-01,6.87939e-02,-5.28050e-02,3.61854e-01,1.64952e-01,1.09846e-01,
9.88540e-02,-1.09013e-01,-8.67844e-02,2.85010e-01,-9.44471e-02,6.85634e-02,-2.23791e-01,-1.06485e-01,-1.83994e-03,-1.65398e-01,
-3.10677e-01,-3.83893e-01,-7.10417e-02,-2.20942e-01,1.96992e-01,-3.41142e-02,2.73589e-01,-9.88483e-02,-1.42702e-01,3.07359e-01,
-2.79756e-04,-3.87283e-01,-1.03252e-01,3.22709e-01,-5.37168e-01,1.37963e-01,1.13026e-02,-3.77369e-01,1.76278e-01,4.51308e-02,
-3.10285e-01,
-2.87762e-01,
8.38631e-03,
2.01037e-01,
-3.65414e-01,
-2.11338e-01,
1.24660e-01,
1.94571e-02,
1.25110e-01,
-1.57797e-01,
-1.04085e-01,9.84979e-02,-1.03831e-01,1.59240e-01,-4.98334e-03,-4.76246e-01,-2.67752e-01,3.51755e-02,-3.79829e-01,-7.41620e-02,
-3.29292e-01,-5.53647e-02,3.07923e-01,-1.85060e-01,-1.94997e-01,-6.55880e-02,-2.00837e-02,1.81919e-01,1.42085e-01,2.13737e-01,
-2.94500e-01,2.85175e-01,-1.26792e-01,-6.33689e-01,-2.97501e-01,-3.29738e-02,-1.44990e-01,-1.07931e-01,-3.64788e-01,1.05366e-01,
5.95584e-01,1.14936e-01,-2.51056e-01,2.77814e-01,-2.67502e-01,-1.99353e-01,-1.00292e-01,-6.82356e-02,-1.69019e-01,-1.92003e-01,
-4.68062e-01,-3.46243e-02,1.02344e-01,1.40929e-01,2.80135e-01,-1.48799e-01,-2.53440e-01,-3.06899e-02,2.25672e-02,2.51256e-02,
-1.54703e-02,2.73403e-01,-6.04870e-02,2.72525e-02,-2.39618e-01,-1.48322e-01,-9.85347e-03,-2.00483e-01,-2.12123e-01,1.63251e-01,
-2.05595e-01,1.77755e-01,-4.43429e-01,1.35783e-01,4.44928e-02,4.77901e-01,-1.34646e-01,7.19836e-02,1.65982e-01,2.58449e-01,
8.98009e-02,-3.29213e-01,2.00782e-01,8.30440e-03,1.37326e-01,-5.84544e-01,2.64096e-01,-1.46734e-01,3.35946e-01,6.84981e-02,
2.59182e-02,-3.71183e-01,3.22571e-01,-2.10929e-02,1.22833e-02,-2.02033e-02,4.23522e-01,2.25649e-01,1.08241e-01,-1.59231e-01,
3.46089e-01,1.74402e-02,-2.06685e-01,-9.43662e-02,-6.12322e-02,-8.34801e-02,3.62840e-01,8.51348e-02,-1.56519e-01,-1.40129e-01,
-2.43157e-01,
2.04377e-01,
-2.41333e-01,
-1.94654e-01,
1.66411e-01,
2.49628e-01,
-1.47568e-01,
4.76243e-01,
8.36584e-03,
1.66426e-01,
5.29712e-01,1.60540e-02,1.98550e-02,-1.20363e-01,-2.73132e-01,-9.34305e-02,-8.65868e-02,-3.49380e-02,2.23129e-02,2.28300e-01,
-4.46815e-02,5.20644e-02,2.73046e-02,8.81683e-02,1.21984e-01,3.64911e-01,3.43482e-01,4.18305e-01,-1.83396e-01,-4.31640e-01,
-1.64569e-01,-4.75636e-01,8.83517e-02,1.72306e-01,1.79928e-01,-3.38395e-01,-2.36936e-02,-1.57651e-01,-6.72695e-01,-7.41460e-02,
3.01580e-01,5.27539e-01,1.69243e-01,8.91492e-02,-4.15745e-01,1.73894e-02,-3.83205e-01,-1.41539e-01,-4.90065e-01,2.28820e-01,
1.71648e-01,-6.49271e-01,-5.70836e-03,-8.73132e-02,-1.38917e-01,7.84054e-02,-2.18021e-01,-6.01010e-01,1.30436e-01,-2.66038e-01,
-2.00642e-01,2.75903e-01,1.91667e-01,-5.37859e-01,-1.21976e-01,-1.00732e-01,-2.30006e-01,3.75010e-01,5.91438e-01,-3.58644e-01,
5.24488e-01,-1.43837e-01,3.62895e-01,-4.41508e-01,-4.43998e-02,-4.86407e-01,3.85997e-02,2.42079e-02,1.10711e-01,-1.92734e-01,
-2.42676e-01,1.39546e-01,-1.21528e-01,-5.59661e-02,-2.38422e-01,-9.65186e-02,4.86674e-01,2.03049e-01,1.67054e-01,2.44663e-01,
-3.37070e-01,1.64487e-01,1.71875e-01,6.60938e-01,9.53437e-02,-6.79255e-01,7.65130e-02,1.56330e-02,9.25517e-02,2.27553e-03,
8.55806e-02,-4.11780e-03,-2.06989e-01,-6.23424e-01,-3.89881e-01,-1.53263e-01,-3.83239e-01,-4.72394e-02,1.79402e-01,-1.22554e-01,
1.77570e-02,
2.18242e-01,
-4.91087e-02,
-6.81182e-01,
-1.34931e-01,
-6.48897e-02,
-1.38115e-01,
3.62760e-01,
-3.13034e-01,
4.58889e-01,
4.96717e-02,-2.41182e-02,6.23861e-01,5.98338e-01,7.65211e-02,9.15982e-02,-2.89680e-01,-5.23459e-02,-2.28993e-01,2.14998e-01,
-1.63722e-01,-1.08276e-01,4.68010e-01,-3.67578e-01,2.60901e-01,3.06041e-01,5.71261e-01,4.54661e-01,2.49090e-01,-2.91696e-01,
-2.37989e-01,1.26910e-01,-1.95142e-02,-2.18793e-01,-1.66995e-01,2.10210e-01,-5.26530e-03,4.46143e-01,1.72548e-02,1.36540e-01,
5.80309e-01,-2.56398e-01,-5.88636e-02,2.89778e-01,4.44339e-01,-2.16117e-03,1.06758e-01,-3.26968e-01,-3.51941e-03,-1.06390e+00,
-1.52672e-01,-2.43497e-02,-5.48128e-01,8.45980e-02,-3.31768e-01,5.28001e-01,2.17726e-01,2.80031e-01,-5.15799e-02,-5.12684e-02,
-3.44191e-02,-3.96423e-01,3.01742e-02,2.53356e-01,3.53295e-01,1.90255e-01,-7.82976e-02,-2.06502e-01,-1.80345e-02,5.63033e-02,
1.84883e-01,5.03467e-01,6.32927e-01,3.31397e-02,1.21425e-02,-3.02736e-01,-1.01129e-01,4.67225e-02,3.82725e-03,2.95273e-01,
3.72797e-01,-2.72129e-01,-1.43314e-01,-4.37722e-01,3.23086e-01,-1.13333e-01,1.05771e-01,9.72958e-02,1.29157e-01,-3.12582e-01,
-1.71386e-01,1.67372e-01,-5.37950e-02,-1.47261e-01,5.44753e-01,3.63106e-02,-9.58141e-02,1.71692e-01,1.19530e-02,-4.01765e-01,
-3.41870e-01,1.32007e-01,3.13476e-01,5.29623e-02,7.54486e-01,3.27414e-01,-1.94712e-01,-6.85784e-02,-1.68080e-01,2.66258e-01,
-1.31365e-01,
-2.35102e-01,
-2.70448e-01,
7.48686e-02,
-1.53870e-01,
-7.04058e-01,
1.36835e-01,
9.30775e-02,
-1.11480e-01,
-1.74896e-01,
-4.90359e-02,7.28433e-02,2.59428e-01,-3.68525e-02,-6.31908e-01,-2.14781e-02,-7.22119e-02,1.85780e-01,8.00879e-02,-4.58719e-01,
2.91124e-02,2.39570e-01,-3.67314e-01,-1.06859e-01,1.79094e-01,-2.87470e-01,-3.60619e-01,4.47873e-02,-1.80154e-02,-9.80730e-03,
1.19843e-01,-2.19772e-01,4.27170e-01,-5.68349e-02,5.28825e-01,1.13252e-01,-2.34732e-01,4.86942e-02,1.04955e-01,-1.57622e-01,
-4.12584e-02,-1.06051e-01,-1.52947e-02,7.70688e-02,-1.66655e-01,-4.09823e-01,-3.78669e-01,2.31865e-01,1.95656e-01,1.40017e-01,
1.18135e-03,-3.39896e-01,1.42100e-01,-4.08489e-01,-6.66968e-01,-4.11747e-01,1.51969e-03,-1.31005e-01,-4.37278e-01,-1.32318e-01,
-1.76094e-01,-4.20171e-02,-2.79095e-01,-9.98736e-02,2.19179e-01,-6.84953e-02,-3.01449e-01,-2.88597e-01,2.71089e-02,1.49317e-01,
3.44775e-03,-8.81578e-02,6.97663e-02,1.99402e-01,-3.15554e-01,-1.42681e-01,1.26941e-01,4.32271e-01,-2.08701e-01,-1.28307e-01,
1.56677e-01,4.58354e-01,-1.99245e-01,-1.88851e-01,-2.86446e-01,7.15573e-01,3.04901e-01,-1.22550e-01,1.45214e-01,-2.66257e-01,
-1.08271e-02,1.14043e-01,1.56740e-02,4.37366e-01,-1.97867e-01,3.82059e-01,5.92332e-02,-1.00590e-01,4.82554e-02,-3.58306e-02,
4.75274e-02,-3.61654e-01,3.37575e-01,2.46881e-01,1.99205e-02,-4.75809e-01,-2.88344e-01,2.86773e-01,-5.23003e-02,1.15212e-01,
-2.88172e-01,
-1.84805e-01,
2.93655e-01,
6.85857e-01,
8.49392e-03,
1.31459e-01,
-1.51635e-01,
3.07752e-03,
6.71338e-01,
2.02277e-01,
1.76711e-01,-3.76783e-01,2.27863e-01,9.19207e-02,2.10016e-02,1.33137e-01,-1.52220e-01,-2.97446e-01,-4.95392e-01,1.19107e-01,
-2.08085e-01,2.67016e-03,-4.46269e-01,-2.25440e-01,-4.11122e-01,1.82541e-01,2.77620e-02,-7.40742e-02,3.61929e-01,-2.59278e-01,
1.30371e-01,2.79122e-01,-6.32809e-02,2.89608e-01,2.29644e-01,-5.35930e-01,5.65503e-02,-2.57663e-01,-3.78929e-01,2.64384e-01,
-3.08072e-01,1.00644e-01,-1.58281e-01,2.24645e-01,4.98264e-02,-3.50897e-01,1.01495e-01,-2.43436e-01,2.06264e-03,2.37889e-01,
-2.16447e-01,1.15507e-01,-4.16643e-01,-1.60083e-01,8.12627e-02,1.91243e-01,5.53994e-01,-2.01837e-02,2.04350e-01,7.07905e-02,
2.72747e-02,3.19377e-01,1.60509e-01,1.58510e-01,2.20974e-01,-3.05081e-01,-1.80268e-01,5.46370e-02,-5.12510e-02,3.37762e-01,
-9.27911e-02,6.25958e-02,2.58315e-01,9.84614e-02,6.69629e-02,2.89224e-01,4.87201e-04,2.71515e-01,-1.10337e-01,3.28455e-01,
-1.31200e-01,-1.28058e-01,-2.67170e-02,1.55648e-01,7.96122e-02,-1.97616e-01,-2.31418e-01,-2.35029e-01,2.31868e-01,1.04975e-01,
-6.57797e-02,2.98839e-01,-3.53588e-01,2.25354e-01,8.48702e-02,8.72589e-02,1.10100e-01,2.71925e-01,3.81727e-02,-2.03274e-01,
3.77134e-01,5.34322e-02,3.39392e-01,1.72629e-02,1.37438e-02,-1.41146e-01,3.39977e-01,-6.02327e-01,-8.84377e-02,-1.96552e-01,
-3.10031e-01,
-2.87251e-01,
-6.97237e-01,
1.95211e-02,
-4.09284e-02,
4.80027e-01,
-1.19266e-01,
1.10268e-02,
3.27456e-01,
2.58986e-01,
8.97082e-02,3.32125e-01,-2.66081e-01,-6.55528e-02,-1.04369e-01,5.83347e-01,3.74101e-01,1.97512e-01,-5.05856e-02,-5.93200e-02,
2.33460e-01,-8.11375e-02,1.73873e-01,-1.77087e-01,1.44757e-02,-7.66553e-02,4.91417e-01,-1.89674e-02,-1.09065e-01,-1.93349e-01,
1.34393e-01,-5.70618e-01,4.15899e-01,1.15114e-01,-1.86390e-01,-2.65371e-01,-2.42705e-01,-3.23595e-01,-1.56850e-01,-4.62204e-01,
-2.06933e-01,-4.09967e-01,-4.86296e-02,-2.38367e-01,-4.86496e-01,-3.29953e-01,2.11103e-01,2.67871e-01,2.02133e-01,2.83479e-01,
-9.54221e-02,3.02402e-01,2.44303e-01,1.88222e-01,-3.58724e-01,-2.61338e-01,3.69920e-01,6.07952e-02,-4.54837e-01,1.95580e-01,
2.88525e-01,-1.99519e-01,2.89303e-02,-2.71829e-01,3.61635e-01,1.79174e-01,-2.82768e-03,9.77313e-02,3.57843e-01,-3.12769e-01,
4.32795e-02,-2.95917e-01,2.65518e-01,-3.73078e-02,-3.37723e-01,3.35836e-01,-2.79899e-02,1.59031e-01,-2.59739e-01,-1.60648e-01,
4.08116e-01,3.24703e-01,-9.01803e-02,3.56776e-02,-4.68299e-02,-3.00348e-01,4.11766e-02,-3.22870e-01,-2.74646e-01,-1.48620e-01,
1.10063e-01,3.04305e-02,-2.43495e-02,2.77953e-01,-2.05303e-01,6.09583e-01,5.35637e-01,3.88743e-01,1.49543e-02,-3.24535e-03,
-3.61909e-02,2.99157e-01,2.45794e-01,2.07865e-01,-3.89936e-01,-6.80921e-02,-1.89264e-01,-2.24374e-02,4.16844e-01,6.09213e-02,
-5.46920e-01,
-5.25774e-02,
2.17837e-01,
2.41887e-01,
7.66329e-02,
-9.99824e-02,
-1.49584e-02,
-1.19126e-01,
2.25173e-02,
4.60628e-01,
3.37874e-01,1.70199e-01,-4.57302e-02,-1.24647e-02,-4.22225e-01,-3.91877e-01,2.30407e-01,-6.89943e-02,1.27214e-01,2.23557e-01,
-1.58419e-01,1.45672e-01,-8.57471e-02,6.82804e-02,4.94358e-01,1.34365e-01,-2.63930e-01,6.16535e-02,-3.16161e-02,-6.11356e-01,
-2.99605e-02,-1.79355e-01,-6.43796e-01,-4.78648e-01,-2.05022e-01,5.34454e-03,1.12582e-01,4.79258e-02,-1.73180e-02,-5.50657e-03,
1.30203e-01,6.53841e-02,2.68428e-01,3.05391e-01,1.06504e-01,2.03226e-02,-1.73076e-01,2.48213e-01,4.16782e-01,8.89930e-02,
2.03131e-01,4.52578e-01,2.31849e-01,-2.32077e-01,1.25013e-01,-6.89250e-02,1.91856e-01,1.76006e-01,4.96817e-01,-6.79642e-02,
4.07231e-04,4.40359e-02,9.85379e-02,9.59113e-02,-1.10962e-01,1.17608e-01,-2.56352e-01,-8.03556e-02,-4.39329e-01,-3.51529e-01,
-1.44348e-01,1.16944e-01,-1.32803e-01,5.53227e-02,5.50991e-01,-8.46438e-02,-3.61318e-01,-2.28788e-01,2.58632e-02,-4.48770e-01,
-9.11853e-02,3.83856e-01,2.42597e-01,-3.08838e-02,6.73260e-02,-7.43092e-01,4.21075e-01,8.52710e-02,-1.64318e-01,-2.44417e-02,
-1.28885e-01,4.23254e-01,-2.92629e-01,-4.12208e-01,1.21579e-01,-3.93187e-01,-8.41686e-02,-4.32207e-01,-5.42395e-01,8.19792e-01,
1.44275e-01,5.46192e-02,3.81705e-01,3.65331e-01,1.99683e-01,7.52215e-02,-3.71626e-02,3.57993e-01,7.85112e-02,-3.89892e-01,
-8.17700e-03,
-1.90269e-01,
-4.81744e-02,
-1.90019e-02,
2.74398e-01,
9.87593e-02,
-1.93057e-01,
-8.23816e-02,
1.85077e-01,
4.36162e-01,
3.06536e-01,-3.72600e-01,-3.04563e-01,1.60458e-01,-6.76927e-02,-4.63281e-01,9.31903e-02,1.62014e-01,-2.31103e-01,4.97036e-01,
-1.96072e-01,-1.57964e-01,1.91478e-01,-1.26120e-01,-1.23919e-01,-2.82363e-01,-9.62277e-02,-1.91170e-01,2.33992e-01,9.72347e-02,
2.07332e-01,-2.80677e-01,-2.05300e-01,2.86833e-01,1.53019e-01,-3.19596e-01,4.82001e-02,9.81606e-05,5.32384e-01,-3.48972e-01,
-3.61699e-02,-1.15695e-01,2.09266e-01,-3.98306e-01,2.92471e-01,-4.07664e-02,7.68198e-02,5.78687e-01,4.94484e-01,8.79304e-02,
1.05646e-01,-3.70954e-01,-1.37036e-01,5.08438e-02,2.46516e-01,-2.27371e-01,2.60447e-01,-3.10282e-01,-3.22449e-01,-2.47242e-02,
-1.28756e-01,-3.61337e-01,-2.91133e-01,5.59602e-01,-4.77904e-01,1.69465e-01,-1.65791e-01,8.63068e-02,1.33700e-01,-1.93260e-01,
2.38354e-01,-1.07709e-01,1.21230e-01,1.08462e-01,-5.29334e-02,-3.88490e-01,-3.66246e-02,-3.40363e-01,1.18540e-01,1.46666e-01,
-3.36265e-01,1.99945e-01,5.67787e-01,1.83957e-01,-1.52601e-01,3.22762e-02,-2.94905e-01,-4.56222e-03,-7.74653e-02,3.26069e-01,
-3.19973e-01,3.70011e-02,2.72588e-01,1.85482e-01,5.27693e-01,2.11923e-01,2.71580e-02,-1.52812e-01,-4.36467e-01,-3.34497e-01,
-1.81495e-01,-2.07924e-01,2.60659e-01,-1.26117e-01,-4.75049e-01,-6.32823e-02,9.75457e-02,2.47348e-01,-1.25948e-01,-3.61199e-01,
-3.67076e-01,
-2.69584e-02,
2.35306e-01,
-1.39261e-01,
-3.83313e-02,
1.17164e-01,
-4.23590e-01,
-1.33017e-02,
3.32518e-01,
1.86486e-02,
-3.99434e-01,-4.60904e-01,-1.42971e-01,1.10587e-01,-3.98182e-01,3.21687e-02,-2.61503e-01,1.43611e-02,2.82079e-01,-2.33734e-01,
2.19914e-01,5.80844e-01,-2.26659e-01,-2.70666e-01,-1.07206e-01,-2.19867e-01,-2.30760e-01,1.40882e-01,8.68306e-02,-2.54492e-01,
-3.61298e-01,-1.47275e-01,-2.67270e-01,2.04671e-01,-3.38770e-02,3.21899e-01,-3.00652e-01,-1.13780e-01,-2.25608e-01,1.92439e-01,
4.95638e-01,5.93468e-02,-1.07439e-02,-8.05660e-02,2.30380e-01,3.34317e-01,5.09891e-02,-4.98635e-01,1.66590e-01,-1.30386e-02,
-3.84312e-01,-4.14265e-01,-4.26576e-01,2.55653e-01,9.36144e-02,1.20704e-01,-4.36656e-02,-1.52353e-01,-6.75646e-02,7.14497e-02,
8.13002e-01,-1.50386e-01,-1.25469e-01,-1.00903e-01,2.35769e-01,4.43834e-02,2.08811e-01,9.22817e-02,9.31641e-02,1.30909e-01,
-1.81901e-01,-2.16168e-01,-7.54069e-02,6.64827e-02,1.79303e-01,1.96194e-01,-4.20960e-01,-2.95538e-01,-1.14989e-01,-5.31402e-02,
-2.13680e-01,-2.95737e-01,-2.10337e-01,-2.68797e-01,-4.80069e-01,5.00850e-01,-7.15119e-03,-7.08763e-02,5.52154e-02,4.19638e-02,
2.19090e-01,-4.23200e-02,3.03183e-02,7.06825e-01,-5.44563e-01,5.75951e-01,4.68931e-02,-2.04823e-01,-8.27981e-02,4.76385e-02,
-1.71041e-01,-4.67095e-01,1.83518e-01,1.47700e-01,-1.67044e-01,-2.22069e-01,-5.23462e-01,3.65834e-01,1.43848e-01,2.23552e-01,
-2.84318e-01,
-2.42525e-01,
-3.63344e-01,
-2.87581e-01,
-3.35853e-01,
-2.80043e-02,
4.21527e-01,
1.43918e-01,
1.14372e-01,
6.87756e-01,
9.38981e-02,2.52491e-01,1.78635e-01,2.43783e-01,-6.60312e-02,6.01346e-02,5.80006e-02,2.47290e-02,-2.63967e-01,1.99364e-01,
-2.97804e-01,1.81333e-02,1.41158e-01,-2.92950e-02,6.15026e-02,-9.19018e-02,-1.71224e-01,4.44290e-01,3.18315e-01,4.80191e-01,
-2.40599e-01,-4.56938e-01,4.67186e-01,-2.01946e-01,-1.76923e-02,-1.19201e-01,2.70318e-03,2.00168e-01,1.63970e-01,1.61407e-02,
3.60008e-01,4.03693e-01,2.95527e-02,7.34637e-02,2.53457e-01,-2.85375e-01,-2.94946e-01,-3.83763e-01,2.07480e-01,5.11429e-01,
1.66182e-02,4.09830e-01,-3.82152e-01,4.74589e-02,-7.26595e-01,2.29060e-01,-2.73613e-01,-1.29456e-01,-3.98808e-01,9.39494e-02,
-4.70674e-02,-3.65927e-02,5.00660e-04,1.96284e-01,-5.46882e-01,-3.52752e-01,-2.04158e-01,-1.53919e-01,-1.67276e-01,-1.24549e-01,
9.84077e-02,-2.33437e-01,-1.38260e-01,-9.63520e-02,3.27171e-01,-9.09516e-02,1.83937e-01,1.75239e-01,9.47613e-02,-1.29132e-01,
6.08319e-03,-3.96300e-01,-2.34724e-01,1.33405e-01,2.77542e-02,-2.34554e-01,-1.25575e-01,-1.08715e-01,5.62327e-01,1.43887e-01,
-8.45823e-02,1.83560e-01,-2.42450e-01,-4.27023e-01,-1.13229e-01,8.47589e-02,1.29329e-01,1.64749e-01,-2.16993e-02,-1.64415e-01,
-6.82724e-02,-7.52737e-02,1.08449e-01,3.34216e-01,1.76701e-02,-1.56874e-01,-7.23904e-01,-1.67938e-01,1.51303e-01,-2.42051e-01,
-4.08194e-01,
-1.50104e-01,
-4.16657e-01,
-3.59044e-01,
-3.92519e-01,
5.83181e-02,
-3.99565e-02,
1.52373e-01,
6.24750e-02,
5.52896e-01,
2.77002e-01,5.88447e-01,2.11876e-01,4.44984e-01,-2.24181e-01,-2.86503e-02,-1.23771e-01,-5.46151e-01,5.01407e-01,-4.63596e-02,
-4.85134e-02,1.65168e-01,1.14472e-01,3.44848e-01,5.36417e-01,4.24849e-01,-2.04232e-01,1.73862e-01,1.59616e-01,-2.11569e-01,
2.04594e-01,1.80951e-01,3.85203e-01,-1.31818e-01,4.08015e-01,-2.98784e-01,1.27268e-01,-5.96469e-01,3.29222e-01,-9.24349e-02,
2.20135e-01,-1.78285e-01,-3.23575e-01,-1.50882e-01,2.89914e-01,-3.71385e-01,-2.50616e-02,1.92477e-01,5.28643e-04,-2.81285e-01,
-3.32146e-02,-9.81246e-02,2.11770e-01,-3.87237e-01,1.07881e-01,6.18102e-01,-4.88315e-02,4.91165e-01,2.51655e-01,-5.04962e-02,
1.66887e-01,4.75825e-01,-2.02344e-01,-3.84698e-01,-1.36572e-01,-1.34837e-01,1.56259e-01,-3.63102e-02,-1.93104e-01,3.99414e-01,
-4.38120e-01,1.24379e-01,2.98373e-01,1.58673e-01,2.39750e-02,-5.44185e-01,-1.43078e-01,-1.83385e-02,-9.39643e-02,1.75647e-01,
6.59785e-02,8.23055e-02,-6.51791e-02,-3.04329e-01,5.98205e-03,-2.76088e-01,-3.10810e-01,2.19193e-01,1.41971e-01,3.42371e-02,
-2.38732e-03,1.64122e-01,4.27170e-01,-4.89290e-01,-9.17470e-02,-1.89875e-01,-2.14337e-01,-2.16966e-01,1.66408e-02,-7.27375e-03,
7.38836e-02,-1.68738e-01,-1.86052e-01,-3.33284e-01,-1.22641e-01,-2.16597e-01,-1.06538e-01,3.79115e-03,2.58254e-01,-4.44766e-01,
2.03289e-01,
5.16300e-02,
7.78464e-02,
2.70394e-01,
3.46263e-02,
3.87082e-01,
-1.84751e-01,
-5.91815e-02,
-7.86291e-01,
-1.57405e-01,
-2.66152e-01,-2.18936e-02,-1.72139e-01,5.03601e-01,-1.94415e-01,1.99770e-01,1.31742e-01,1.55202e-01,6.27121e-02,-6.63228e-02,
4.12159e-02,7.17294e-02,7.09923e-02,-1.72647e-02,-2.19029e-01,1.02552e-01,1.08965e-01,-4.49205e-01,-5.06127e-02,1.39017e-02,
4.74103e-01,-3.22651e-01,2.92214e-01,-1.62040e-02,3.12458e-02,2.51884e-01,1.53858e-01,2.76337e-01,2.26398e-01,-3.80850e-01,
-3.86103e-02,9.82146e-02,1.47423e-01,1.37691e-02,-1.19606e-01,6.68301e-02,-1.99825e-01,-2.12291e-01,3.31754e-01,-1.96787e-01,
2.78536e-01,1.08632e-01,9.60831e-02,-2.11759e-01,2.82082e-01,-3.84431e-01,-2.76137e-02,-4.27914e-01,1.46896e-02,4.37278e-01,
-9.74704e-02,8.87308e-02,-1.11537e-01,-3.16616e-01,5.00716e-02,-2.44938e-01,-1.14884e-01,-2.48515e-01,2.30064e-01,3.38833e-01,
-5.00865e-01,-6.66294e-02,-4.63339e-01,1.41171e-01,5.94149e-02,1.66365e-01,1.31425e-02,5.89592e-01,4.99986e-01,-2.88842e-01,
2.81718e-01,3.20080e-01,1.43984e-01,-5.37314e-01,2.10103e-01,8.64761e-02,1.27511e-01,-3.24033e-01,-6.42148e-02,-2.93686e-02,
4.33188e-01,-6.95797e-01,-3.38473e-01,-1.78652e-01,-1.80842e-01,-5.71366e-01,-2.01099e-02,1.26054e-01,2.26000e-01,2.87274e-01,
-7.91973e-02,3.61101e-01,-2.65753e-01,-1.44397e-01,3.13788e-02,2.05087e-01,-4.08593e-01,2.73747e-01,2.27883e-01,-3.28341e-01,
2.62609e-01,
-1.13256e-01,
4.24229e-01,
1.95658e-01,
-2.24275e-01,
3.70792e-03,
-4.30950e-02,
3.66383e-01,
3.03244e-02,
1.33434e-01,
2.74205e-01,1.60677e-01,-7.02888e-02,3.88736e-01,3.50322e-01,-2.58761e-01,-6.35219e-02,-2.67676e-01,3.70614e-01,1.68311e-01,
-1.89821e-01,4.32762e-01,3.89921e-01,-2.02543e-03,-2.01738e-01,-1.85918e-01,-5.84234e-01,-1.78292e-01,7.90943e-02,-1.78492e-01,
2.56522e-01,-6.61541e-01,-1.68717e-01,-4.80525e-02,-4.29141e-04,4.47272e-01,1.34720e-01,5.52535e-01,-3.28657e-02,-2.27318e-01,
-1.70960e-01,-1.04869e-01,-2.90505e-01,4.09881e-01,-2.52053e-01,-2.05398e-01,1.73602e-01,-5.96191e-01,-2.69234e-02,-3.13774e-02,
-3.33835e-01,-1.10999e-01,7.91949e-02,3.53117e-02,9.96107e-02,-1.02663e-01,1.31175e-01,-6.20969e-02,1.48182e-01,2.10814e-01,
5.44545e-01,-3.98878e-02,1.83575e-01,-7.63866e-02,-1.29884e-01,-2.17649e-01,1.14090e-01,3.31992e-01,3.87442e-01,2.50217e-01,
3.51212e-01,2.18667e-03,3.20979e-01,3.38914e-01,-1.62054e-01,-3.60866e-01,4.71525e-01,-1.84276e-01,-9.93722e-02,1.36323e-01,
1.13234e-01,3.55760e-01,-2.90487e-01,7.02723e-02,7.29664e-02,1.64905e-02,1.30758e-01,-2.31746e-01,-1.09650e-01,-7.20138e-02,
-2.90287e-01,2.61497e-01,1.30189e-01,-8.24293e-03,-5.89647e-01,3.27579e-01,-4.20803e-01,3.91572e-01,2.29586e-02,-2.84707e-01,
-9.09006e-02,8.60444e-02,-7.72102e-02,2.04224e-02,-2.27371e-01,1.54637e-01,2.96332e-01,-1.65285e-01,-7.09322e-01,-4.87970e-01,
-5.65532e-02,
-2.65370e-02,
-9.10726e-02,
-1.42687e-01,
-1.20189e-01,
-2.99921e-01,
-1.96868e-01,
1.34278e-01,
-3.35515e-01,
4.78132e-01,
-1.06328e-01,-7.58210e-02,-2.41249e-01,5.93838e-02,1.73562e-01,-5.84028e-03,-2.54208e-02,-2.04620e-01,1.63135e-02,-7.59025e-02,
-2.26282e-01,1.57175e-01,1.58600e-01,8.15512e-02,-1.58382e-01,2.84398e-01,-3.36375e-01,-2.29663e-01,1.30636e-01,-2.78427e-01,
-1.80735e-01,-5.03952e-02,-2.48707e-01,2.75226e-02,-1.44224e-01,2.04601e-01,3.20682e-01,9.01959e-02,1.60698e-01,1.32334e-01,
-2.97321e-01,-3.45847e-03,-1.63612e-01,1.37793e-01,-2.81892e-02,-1.71187e-01,-3.78467e-01,1.28927e-01,4.38833e-01,-5.36609e-01,
-8.54113e-03,-1.91145e-02,-2.33887e-01,-3.02999e-01,1.26312e-01,-1.75303e-01,6.10736e-02,-5.20743e-02,2.46543e-01,5.05483e-01,
2.64969e-01,3.37655e-02,2.90196e-03,-2.30382e-01,3.96654e-01,1.33581e-01,-3.36277e-01,-1.96864e-01,4.71181e-02,-4.25972e-01,
-1.14343e-01,2.17204e-01,1.14776e-01,-1.83987e-01,-3.76584e-01,2.22160e-01,1.34101e-01,1.15265e-01,-1.89858e-02,-3.64420e-01,
-1.68903e-01,-1.92605e-01,1.50233e-01,7.60312e-01,-2.81206e-02,-2.35503e-03,3.79945e-03,2.50509e-03,1.72051e-01,2.70258e-01,
7.19002e-02,-2.94394e-01,-1.36272e-01,5.22500e-02,-4.67683e-01,-5.80718e-01,-4.94765e-02,-1.14890e-01,3.65024e-01,2.55791e-01,
2.60987e-01,-2.92841e-01,-4.52367e-03,-3.23477e-01,-2.46911e-01,2.82805e-01,4.50306e-02,2.70824e-01,-5.21028e-01,-7.82231e-02,
-1.86568e-01,
-4.47513e-01,
7.04330e-01,
-1.28742e-01,
-2.27147e-01,
9.37782e-02,
-2.63918e-01,
-2.29381e-01,
8.16403e-02,
1.24915e-01,
3.15373e-01,5.42101e-02,-3.09410e-01,3.71206e-01,-1.54034e-01,-1.48765e-01,-3.66167e-01,3.67996e-01,-3.70634e-01,-1.96029e-02,
-1.32459e-01,1.26963e-01,3.33938e-01,2.23640e-01,8.92291e-02,-4.38871e-02,-2.85432e-01,1.48103e-01,-1.78930e-01,-4.12121e-02,
4.71283e-01,-1.56581e-02,2.25519e-01,2.15765e-01,-1.27971e-01,-2.26292e-01,-8.73268e-02,2.98460e-01,-1.52578e-01,-1.80231e-01,
-1.16824e-02,1.99530e-01,-7.49131e-02,4.34562e-02,1.56004e-01,-2.86250e-01,-5.61498e-01,4.04822e-02,-1.56546e-01,4.61752e-01,
-2.77350e-01,8.65604e-02,-4.98083e-03,2.72794e-03,3.80866e-02,3.07464e-01,1.03583e-01,9.16475e-02,-4.14327e-02,-1.59614e-01,
-1.76591e-01,2.44194e-02,2.04136e-01,-3.39108e-01,-1.20866e-01,1.09874e-01,5.26680e-01,-2.70829e-01,3.07541e-01,-2.29486e-02,
-2.16429e-01,1.21282e-01,2.17592e-01,-2.65484e-01,8.79916e-02,-2.70730e-01,-1.19231e-01,8.40259e-02,-2.81431e-01,4.74440e-01,
1.18580e-01,3.39542e-01,9.92500e-02,-2.06114e-01,-3.49149e-01,-4.38690e-02,-5.61286e-02,2.99250e-01,-2.55980e-01,-2.37720e-01,
3.78049e-02,-9.14143e-02,-2.99882e-01,7.78729e-02,-5.53003e-01,4.67009e-01,5.12301e-01,4.31414e-01,-2.02311e-01,-2.11433e-01,
3.53129e-02,6.07188e-01,-8.48729e-03,4.71353e-02,-4.65326e-01,2.92343e-01,5.34352e-02,6.97922e-02,2.31457e-01,-1.80683e-01,
-1.59326e-01,
-1.65295e-02,
-9.00488e-02,
3.58060e-01,
6.33320e-02,
-4.01999e-01,
1.87821e-01,
2.12783e-01,
-5.64597e-01,
-5.76428e-02,
-3.72666e-01,-3.09764e-01,2.61484e-02,-3.33006e-02,-6.58585e-03,-8.30978e-02,-1.33750e-02,5.49389e-02,1.67520e-01,-3.74180e-02,
-1.18225e-01,-1.14400e-01,-1.72253e-01,-1.30710e-01,-1.63383e-01,-5.43541e-01,4.84711e-01,2.06013e-02,-6.64199e-01,1.22345e-01,
-2.78317e-01,-2.78514e-01,4.24927e-02,-3.56413e-01,1.31996e-02,3.37613e-01,1.48845e-01,-2.25823e-01,-7.22796e-02,3.70265e-01,
-9.94419e-02,-4.58784e-01,1.99045e-01,1.72421e-01,4.28069e-02,-2.66160e-01,-3.43068e-01,1.08263e-01,2.93260e-01,1.85289e-01,
2.73553e-01,9.35346e-02,2.57359e-01,8.41260e-02,-9.72300e-02,5.11071e-02,2.42981e-01,-1.38147e-01,5.07591e-02,-5.70377e-02,
5.65955e-01,1.31808e-03,1.60983e-02,-1.37975e-01,1.70566e-01,-8.14484e-02,-3.34626e-01,-3.62706e-01,-1.65487e-01,3.93832e-01,
-7.02307e-03,-2.03642e-01,2.99633e-01,5.92196e-02,5.31331e-02,-4.74747e-01,-2.86544e-01,-2.95990e-01,-8.40282e-02,-3.86133e-01,
-4.13167e-02,8.34153e-02,1.95885e-01,-1.32830e-02,-7.08993e-01,1.78732e-01,1.97017e-01,-1.23085e-01,4.09701e-01,3.64540e-02,
-4.39709e-03,3.80234e-01,-1.28257e-01,1.32008e-01,1.84208e-01,2.33748e-01,8.54213e-02,8.43366e-02,-3.62029e-01,1.49115e-01,
-2.92627e-01,-2.70405e-01,5.29968e-01,-2.56316e-02,1.53364e-01,9.59118e-02,2.90089e-01,-2.62887e-01,2.38415e-01,-1.78485e-02,
-3.63150e-01,
-4.31453e-01,
-2.96298e-01,
1.91690e-01,
-5.66090e-02,
1.01002e-01,
-1.71838e-01,
8.61890e-02,
-3.25924e-01,
-4.68860e-03,
5.43503e-01,-6.13046e-01,-2.66525e-03,2.97479e-01,-6.09474e-01,5.16230e-02,-4.09315e-01,3.88117e-01,7.89360e-03,-2.48075e-02,
2.39386e-01,3.35906e-01,-3.25527e-01,3.26367e-01,-8.38918e-02,2.79608e-01,1.29993e-01,-1.76367e-03,-1.48202e-01,9.58330e-02,
-1.54136e-01,-2.51332e-01,3.50907e-02,-4.30173e-01,-4.74891e-02,1.14259e-01,-1.07742e-01,-1.69962e-01,-5.24909e-02,-1.28870e-01,
2.41462e-02,1.83756e-01,1.21377e-01,-1.56942e-01,5.52577e-01,2.52685e-01,-1.37775e-01,-2.02011e-01,-2.95118e-01,-3.36742e-02,
-1.19135e-01,8.80093e-02,-1.56530e-01,-2.20790e-01,-1.49293e-01,-2.05328e-01,2.61796e-01,5.92564e-02,1.06987e-01,-1.06572e-02,
-7.10207e-03,9.90407e-02,3.31340e-01,4.00029e-01,5.85217e-02,-3.44799e-02,-3.22654e-01,1.63561e-01,-5.98329e-02,3.60804e-02,
-1.58369e-01,-4.05577e-01,-3.81635e-01,1.53448e-01,-7.39961e-02,-3.02427e-01,-2.78139e-01,2.47713e-01,4.95172e-02,1.59344e-01,
-4.86620e-01,1.94125e-01,-2.14306e-02,7.30450e-03,-2.05069e-01,-4.52761e-02,-4.03895e-01,1.76649e-01,-3.23644e-02,-1.00368e-01,
-6.05106e-02,1.18597e-01,5.15279e-01,-8.99515e-02,-3.20149e-01,7.19608e-01,-1.56690e-01,-4.73012e-01,-2.06171e-01,2.92179e-01,
5.12034e-02,-8.62516e-03,-2.77844e-01,4.21760e-02,6.48152e-02,1.02730e-01,3.80463e-02,-3.99869e-01,1.67758e-02,4.07648e-01,
-5.81093e-01,
-3.90432e-02,
7.28120e-02,
-5.57430e-02,
-3.38563e-01,
1.94093e-01,
-1.48909e-01,
-1.30891e-01,
-1.07753e-01,
-1.20645e-01,
-3.43799e-01,1.08380e-01,1.96215e-01,2.30854e-01,3.33553e-01,-1.71233e-01,-8.96574e-02,1.84182e-01,-2.41039e-01,-2.52380e-01,
2.00283e-01,-2.62143e-01,2.52805e-01,-2.50242e-02,-2.30253e-01,2.00640e-01,-1.07737e-01,1.58130e-02,-1.97875e-01,-6.50478e-02,
1.44375e-01,-3.80924e-01,3.99027e-01,-2.79491e-01,-3.92559e-01,1.92550e-01,-4.29579e-02,2.12114e-01,7.26489e-02,-2.60794e-01,
3.33120e-01,-1.56443e-01,6.02402e-02,4.76495e-01,7.89720e-03,-1.72248e-03,-4.58759e-02,-5.79576e-02,8.61232e-02,-4.33046e-01,
-4.87844e-01,3.09317e-01,2.47415e-01,-2.76888e-01,-9.55806e-02,4.41105e-01,-1.03611e-01,5.37061e-02,2.38108e-01,1.51924e-01,
1.11532e-01,1.42093e-01,5.48617e-01,-2.45744e-01,4.02327e-01,5.74464e-01,-1.42382e-01,-6.44473e-02,-9.99861e-01,-1.18685e-02,
2.47286e-01,-3.66876e-01,2.30443e-01,-4.41773e-04,1.87976e-01,1.67459e-01,1.11826e-01,2.03723e-01,4.78509e-01,2.53556e-02,
-3.51233e-01,-7.46157e-03,-1.95253e-01,4.02133e-01,2.70738e-01,6.50267e-01,3.41447e-01,-4.00402e-01,-2.80176e-02,-3.23596e-01,
-3.15727e-02,4.72320e-01,2.22402e-01,-1.99942e-01,1.25388e-02,1.48591e-03,7.58984e-02,2.48622e-01,1.12582e-01,-7.25919e-02,
-2.11858e-02,-4.29165e-02,-3.08114e-01,-2.05253e-01,-3.12838e-02,-1.16771e-01,-3.91066e-01,-4.40190e-01,6.55746e-01,-1.00510e-02,
2.42066e-01,
-5.09186e-01,
3.40655e-01,
1.50962e-01,
-1.95441e-01,
-1.18079e-01,
-2.53176e-01,
4.98701e-02,
-1.98362e-01,
-5.16292e-01,
-5.64970e-02,-1.97960e-01,9.78045e-03,3.39778e-01,3.60482e-01,-6.87966e-02,-3.63742e-02,4.01477e-01,7.72267e-02,-3.62502e-01,
6.58273e-02,1.76951e-01,7.97927e-02,-1.46638e-01,-2.46475e-01,2.57448e-01,2.19918e-02,4.83699e-02,-1.97584e-01,-2.17590e-01,
1.65115e-01,1.97997e-01,1.50182e-01,2.87865e-01,5.57714e-01,-4.10379e-01,2.31876e-02,-4.73746e-02,1.27719e-01,-2.01741e-02,
-4.97378e-01,5.21778e-02,4.65128e-01,-3.87329e-01,2.04517e-01,-1.32012e-01,5.86277e-01,1.90940e-01,3.43465e-01,1.32434e-01,
-4.63163e-01,-1.78855e-01,-1.23497e-01,3.10261e-01,1.83308e-01,-4.33486e-01,1.50994e-02,-2.42611e-01,-1.64421e-01,-1.21342e-01,
-4.15865e-02,-3.55573e-04,4.46821e-02,1.58858e-01,-1.36678e-01,1.80322e-01,3.27842e-01,3.49573e-01,-4.92394e-01,-2.30522e-01,
2.73653e-01,4.23778e-03,-2.04274e-01,4.55644e-01,4.33564e-01,-9.93280e-02,9.90763e-02,-1.26197e-01,3.27749e-01,-7.10943e-01,
3.91952e-01,-1.68278e-01,-5.42141e-02,-1.06700e-01,-2.63227e-01,-6.45020e-02,1.58047e-01,3.74970e-01,-1.75696e-02,-8.26767e-02,
-2.78704e-01,6.43919e-01,-9.53288e-02,6.80629e-01,-2.89661e-01,9.20262e-02,-7.35590e-02,-2.94833e-02,4.06046e-02,6.59308e-01,
-6.35015e-01,-6.57876e-02,4.10334e-01,5.56839e-01,-2.55879e-01,-2.62694e-01,2.83436e-01,2.18996e-01,-1.47489e-01,3.86789e-02,
-1.68258e-01,
-1.93957e-01,
2.56975e-02,
3.24008e-01,
3.15642e-02,
-5.20103e-02,
4.79758e-02,
4.22110e-01,
-2.28621e-02,
1.10218e-02,
-1.16910e-01,-3.34499e-01,1.11244e-01,2.08970e-01,-6.92311e-01,-2.01326e-01,3.56069e-01,-1.80431e-01,4.94222e-01,8.77211e-02,
1.13406e-01,-3.50117e-01,-1.11597e-01,5.95014e-02,-1.99932e-01,-4.81863e-02,-1.61517e-01,-6.09766e-01,-1.82966e-01,-1.12740e-01,
-3.83147e-01,3.07818e-02,-4.61201e-01,-2.30772e-01,3.12010e-01,3.07194e-01,5.73224e-01,9.42038e-02,-2.71359e-01,9.39053e-02,
1.31316e-01,6.27426e-01,-2.64126e-01,-1.23595e-01,-2.26959e-01,-2.54954e-01,-9.82560e-02,-1.54057e-01,2.06828e-01,-1.86002e-01,
-2.32041e-02,5.27843e-01,3.41932e-02,-8.58102e-02,-1.87741e-01,-2.15202e-01,-8.18484e-02,6.60925e-02,7.31559e-02,9.66515e-02,
2.39662e-01,1.09873e-01,9.84133e-02,-2.88740e-01,-1.90913e-01,9.29515e-03,3.86022e-02,1.16667e-02,1.68426e-01,1.07912e-01,
2.12571e-01,-5.11289e-01,8.35299e-02,3.45530e-01,3.33292e-01,-2.74397e-01,8.83755e-03,4.58777e-01,-2.69506e-01,3.53774e-01,
6.96044e-02,-1.86265e-02,-6.72949e-02,5.60962e-01,-1.27890e-01,2.77894e-01,1.06380e-01,-2.21452e-01,3.02824e-01,2.39178e-01,
-7.85314e-02,8.71638e-02,-4.34405e-02,-1.78644e-01,1.72571e-02,2.31339e-01,4.35074e-01,-1.01459e-01,-7.35604e-02,1.12493e-01,
1.76471e-01,3.00344e-01,2.02502e-01,-3.13495e-01,2.54929e-01,1.47241e-02,2.11986e-01,1.16408e-01,2.27977e-01,5.88952e-01,
-1.44371e-01,
-3.45439e-01,
5.18591e-01,
1.11287e-01,
-1.34775e-01,
-2.15220e-02,
4.59262e-01,
-4.02154e-01,
-2.13597e-01,
4.06836e-01,
-1.95100e-01,1.91991e-01,6.22541e-02,-2.83356e-01,-1.00407e-01,-2.09846e-01,-9.55424e-02,4.74215e-01,-1.85632e-01,-2.46679e-01,
5.31028e-01,-2.89807e-01,2.30390e-01,-1.53509e-01,-2.68069e-01,-1.41164e-01,1.78512e-01,2.28787e-01,-1.74401e-01,-1.28520e-03,
1.48061e-01,4.20116e-01,6.12640e-02,2.10956e-01,4.03527e-01,6.29916e-01,-5.60311e-02,2.34084e-01,2.33179e-01,-1.22714e-01,
-8.40082e-02,-4.43006e-01,-2.27585e-02,1.75702e-01,4.35822e-02,-1.03887e-01,1.17779e-01,-4.38937e-02,2.59495e-01,3.34445e-01,
3.87019e-01,-1.55568e-01,2.19489e-01,2.01508e-02,-2.68270e-01,-4.38214e-02,-6.09831e-04,-5.14502e-01,-2.52127e-01,-1.19239e-02,
4.89108e-02,-2.78597e-01,-3.46021e-01,1.31082e-01,9.76111e-02,2.04957e-01,-7.43269e-02,-3.57807e-02,2.84058e-01,1.01934e-01,
2.61202e-01,-9.23996e-02,5.44824e-01,-5.91432e-02,-4.27076e-01,-1.15121e-02,-3.63142e-01,-4.87935e-02,-3.37687e-01,1.61109e-01,
-5.07950e-03,2.33435e-01,1.10969e-01,-1.94730e-01,1.51832e-01,1.75391e-01,-1.08305e-01,1.58887e-01,-1.55780e-01,-1.63340e-01,
2.62044e-01,2.98883e-01,2.57758e-01,1.66355e-02,4.05973e-01,-7.83483e-02,1.05166e-01,-6.27102e-02,-6.01682e-01,7.04142e-02,
-3.18580e-02,-5.52082e-01,2.92661e-01,-5.00627e-01,9.19557e-02,7.83204e-02,2.47578e-01,-3.02454e-01,2.50128e-01,8.80422e-01,
-2.10559e-01,
2.47385e-01,
-7.34095e-02,
-1.82376e-01,
6.03939e-02,
6.38616e-02,
2.86808e-01,
-3.44508e-02,
2.89401e-01,
5.71418e-02,
4.42205e-02,2.00793e-01,2.66828e-02,1.79256e-01,-3.66243e-01,-2.18781e-01,3.32936e-01,-3.83120e-01,3.28584e-01,-4.37116e-01,
-1.54294e-01,-2.18222e-01,3.60758e-02,-9.62116e-02,9.55466e-03,1.39397e-01,6.19118e-01,1.88723e-01,-8.73733e-02,6.31719e-01,
-3.77270e-01,3.47994e-01,-5.36359e-01,3.22096e-02,2.15383e-03,3.78309e-01,2.51601e-02,4.11106e-01,-3.70847e-02,-3.69991e-01,
1.31852e-01,2.01040e-01,2.88856e-03,3.03004e-01,-5.59086e-02,-7.14893e-02,1.14200e-01,-4.81402e-01,1.83059e-01,2.13451e-01,
-4.56093e-01,8.45522e-02,-5.89738e-02,1.04345e-01,1.31432e-01,-4.67878e-01,-4.13697e-01,-4.89739e-04,7.22669e-02,-8.51142e-02,
1.62622e-01,-1.00410e-01,7.76203e-02,-4.40119e-01,-2.45253e-01,-1.63502e-01,-1.84344e-01,1.55568e-01,8.51326e-02,-2.02666e-01,
1.86833e-01,1.31881e-01,2.01622e-01,3.15656e-01,2.90136e-01,6.96928e-02,-2.16946e-01,9.97480e-02,-1.57924e-04,4.30429e-01,
2.74231e-01,3.20668e-01,-4.49525e-01,1.74411e-01,1.54253e-01,-2.32629e-02,-1.38765e-01,-1.52856e-01,4.41400e-01,2.19370e-01,
-2.67615e-01,-4.72672e-01,-1.10269e-01,4.36702e-01,-3.58986e-02,-1.22297e-01,-2.10694e-01,-7.81200e-02,2.07924e-01,4.45298e-01,
2.67571e-01,1.07772e-01,-3.20787e-01,-4.28019e-01,-2.31778e-01,-4.81531e-03,-1.73158e-01,-8.30402e-01,-4.89987e-01,-1.16731e-02,
-7.73836e-02,
3.93188e-01,
-1.02685e-01,
2.46226e-02,
-1.01415e-01,
-2.66136e-01,
-1.91379e-02,
5.46946e-01,
-2.69979e-01,
2.58668e-01,
9.57156e-02,4.45753e-01,-3.76442e-01,1.45269e-01,-3.70941e-01,-2.38346e-01,3.12169e-01,1.92608e-01,-3.53885e-01,6.92948e-02,
2.89224e-01,3.05715e-01,-3.44034e-01,-1.10523e-01,-2.72451e-01,-1.04982e-01,-3.28364e-01,-6.72844e-03,2.57203e-01,-5.57307e-03,
-8.85304e-02,2.32114e-01,-3.19672e-01,-1.21172e-01,5.65492e-01,1.27066e-01,-5.14545e-02,1.52717e-01,4.17822e-01,1.12356e-01,
-1.11077e-01,8.97672e-04,-2.96788e-01,1.48502e-01,7.17318e-02,9.14392e-02,-1.98165e-01,-5.27012e-01,-3.71644e-02,-1.18092e-01,
1.13602e-01,-2.25028e-01,-3.38376e-01,-2.84862e-01,-1.84104e-01,8.34012e-02,7.04933e-01,3.01705e-01,2.85299e-01,4.09217e-01,
-1.70007e-01,8.08742e-03,3.58160e-02,-1.58924e-01,1.34895e-01,5.11299e-03,-8.86567e-02,2.74660e-01,1.01252e-01,1.56375e-01,
5.37848e-02,-1.07757e-01,-3.15242e-01,-2.57498e-01,-1.08905e-01,4.96545e-01,2.13275e-01,5.07028e-02,-2.38310e-01,1.67819e-01,
2.53279e-01,-1.40843e-01,-9.16814e-02,3.77957e-02,-2.59771e-01,2.28146e-01,2.77492e-01,6.41585e-01,2.33752e-01,-2.67030e-01,
-2.02590e-01,3.84078e-01,-6.23153e-02,-3.99770e-01,3.73176e-02,-3.47652e-01,-2.00446e-02,-4.51393e-01,-3.67362e-01,3.81268e-01,
-2.30784e-01,-1.93760e-01,-3.94401e-01,-1.93768e-01,-2.41902e-01,4.90637e-01,-4.72626e-01,-7.07216e-02,-2.19721e-01,-3.62330e-01,
4.66195e-01,
2.97561e-01,
1.60978e-01,
2.08004e-01,
5.54649e-01,
1.09516e-01,
1.91141e-01,
7.03280e-01,
-3.42507e-01,
1.92546e-01,
-7.67488e-02,1.50682e-01,-6.08373e-01,-2.01597e-02,-1.15596e-01,4.03220e-02,7.49402e-02,1.12545e-01,2.31794e-01,2.93892e-01,
4.97817e-02,-2.01171e-01,-3.00431e-01,2.02824e-01,-8.63505e-02,-2.38096e-01,1.37359e-01,-1.27964e-01,2.97575e-01,6.30358e-03,
-3.86749e-01,8.94343e-02,-1.25165e-01,-3.53024e-01,-2.32172e-01,3.34875e-01,-8.14253e-02,1.09009e-01,-9.24074e-02,-1.30052e-01,
-4.85566e-02,2.28406e-02,-2.03657e-02,1.38417e-01,-1.23327e-01,1.85985e-01,5.96664e-02,2.48949e-01,-1.94477e-01,1.34130e-01,
-5.27229e-01,2.08557e-01,4.19578e-01,-4.86253e-02,-2.97401e-01,-4.55659e-01,-2.37683e-01,1.97090e-01,-1.31524e-01,-1.91501e-01,
-1.00578e-01,2.63414e-01,3.03416e-01,1.96370e-01,2.29218e-01,9.62798e-02,-2.42561e-01,-3.75258e-01,-3.60101e-01,-2.78718e-01,
-4.60847e-02,1.76767e-01,2.66663e-01,-3.68939e-01,-6.33249e-02,-1.33290e-01,3.61697e-01,-2.84714e-01,-2.53170e-01,9.84983e-01,
2.93744e-01,-2.84548e-01,4.51869e-02,3.62390e-01,-6.95291e-01,2.89274e-02,-1.06111e-01,-8.35065e-02,-2.99743e-01,4.32240e-01,
8.05104e-02,4.32502e-01,8.60393e-02,3.24836e-01,2.47325e-03,-2.06739e-01,3.79576e-01,4.18369e-01,1.84968e-01,4.40593e-02,
-1.00114e-02,-1.25547e-01,-1.52166e-01,-1.94340e-01,1.31735e-01,6.13070e-02,5.54152e-01,1.09237e-01,2.33403e-02,1.86149e-01,
8.68179e-03,
4.14561e-01,
-5.66042e-01,
1.27142e-01,
-3.25259e-01,
-3.50556e-01,
-3.41833e-01,
3.80388e-01,
-2.88414e-01,
-3.91011e-01,
-7.32200e-02,-1.07174e-02,5.82365e-02,-3.19627e-01,2.41620e-01,-4.17704e-01,2.16566e-01,-6.78463e-02,-4.64076e-01,2.46235e-01,
1.58707e-01,1.46614e-01,-4.79278e-01,-4.32237e-01,3.07728e-01,2.57158e-01,2.01926e-01,-1.84527e-03,-2.46328e-01,1.40509e-01,
1.93371e-01,2.34599e-02,1.20605e-01,-3.90176e-01,4.83084e-02,3.41222e-02,1.69983e-01,3.64685e-01,4.04590e-01,-1.00346e-01,
-3.19470e-02,1.70780e-01,3.95561e-01,-3.52575e-02,1.82155e-01,3.52705e-01,-1.15340e-01,4.35932e-01,-6.96814e-01,3.32083e-01,
3.17956e-01,2.87337e-01,-2.26929e-01,1.83495e-01,5.09799e-01,-3.93481e-01,2.16006e-01,1.45488e-01,1.41098e-01,-1.00179e-01,
8.51204e-02,-2.87000e-01,-1.03900e-01,-1.05139e-01,4.23227e-02,4.78895e-01,1.76550e-01,8.17014e-02,9.07835e-02,9.48897e-02,
1.38702e-01,-1.55813e-01,3.06624e-01,1.43539e-02,-8.27922e-03,4.15765e-01,9.98689e-02,-5.88905e-02,-2.27042e-01,-4.87270e-01,
-1.18971e-01,1.96438e-01,-8.60056e-02,-2.40451e-01,-6.20124e-02,2.00427e-01,-1.99130e-01,3.39815e-01,-4.99283e-01,1.68758e-01,
-3.03865e-01,-1.80849e-01,-6.71435e-03,2.54088e-02,-3.29603e-01,3.77462e-02,-2.16922e-01,3.92884e-01,-2.49997e-01,-2.17041e-01,
-6.03206e-01,-2.14423e-01,-1.33772e-01,4.42671e-02,1.57562e-01,-4.56673e-01,4.00208e-01,-9.11363e-02,2.53617e-03,4.32431e-02,
-2.47675e-01,
1.58807e-01,
1.84319e-01,
2.06409e-01,
-2.55659e-01,
3.18215e-01,
-6.09793e-02,
-1.18182e-01,
2.66637e-03,
-1.77130e-01,
-2.55302e-01,-1.16892e-02,2.08220e-01,2.43559e-01,3.22933e-01,-2.75911e-01,1.98299e-01,1.20565e-01,7.87791e-02,-3.83591e-01,
4.79465e-02,3.81262e-02,-1.19934e-01,9.61044e-02,-4.82041e-01,4.06610e-01,-5.73534e-01,-1.17270e-01,-1.53112e-01,-1.10836e-01,
2.88762e-01,3.37757e-01,2.80292e-01,2.73903e-01,9.02513e-02,9.55895e-02,-3.02563e-01,7.23059e-02,7.40576e-02,2.72388e-04,
-3.94904e-01,4.35658e-01,1.13731e-01,4.46628e-01,7.75515e-02,-5.96719e-01,-3.30054e-01,-1.22461e-01,1.76922e-01,2.31523e-01,
-9.29772e-02,4.08128e-01,-5.25406e-02,4.21122e-01,-1.05480e-01,2.78622e-01,4.29945e-02,-7.16613e-02,1.67793e-01,-2.64291e-01,
-1.42822e-01,-7.66524e-02,-1.13100e-01,-1.34548e-01,-3.44646e-01,1.13669e-01,-1.27617e-01,-2.35634e-01,-1.65578e-01,6.33282e-02,
4.26511e-01,2.41679e-01,1.16944e-01,2.28825e-01,5.23029e-02,1.55748e-01,1.02850e-01,1.26667e-01,-4.52608e-02,1.85800e-01,
-7.37081e-01,1.02455e-01,1.47627e-01,1.59910e-01,3.35323e-02,-4.20266e-01,6.79650e-02,-2.79437e-01,3.15259e-01,-2.52528e-01,
3.10053e-01,1.52328e-01,-8.27993e-03,1.54684e-03,-1.00536e-01,4.83637e-01,2.02554e-01,3.14370e-02,-2.01687e-01,1.16785e-01,
4.27113e-01,-2.09308e-01,4.79705e-01,-2.10122e-01,1.50262e-01,7.40784e-02,-4.48568e-01,-1.04449e-01,-2.98220e-01,-2.52762e-01,
1.57421e-01,
-2.39333e-01,
4.18561e-01,
-1.73285e-01,
-9.69307e-02,
1.13029e-01,
-2.81500e-01,
-1.09958e-01,
-1.45850e-01,
3.27928e-01,
-7.34372e-02,-3.28636e-01,-3.86231e-02,-4.76120e-01,-1.25783e-01,-9.90112e-02,1.94543e-01,3.01319e-01,5.82514e-01,-9.20973e-02,
2.06110e-01,2.54848e-01,1.43727e-02,-1.19624e-01,1.45915e-01,-2.13432e-01,1.80580e-01,-2.14582e-01,-4.84317e-01,3.50259e-01,
6.64210e-04,4.94169e-02,-1.11786e-01,1.13814e-01,2.23405e-02,1.21547e-01,-3.76417e-01,-2.86456e-01,1.25581e-01,-2.33883e-01,
5.48099e-02,3.01889e-01,2.20272e-01,-1.60037e-01,1.59410e-02,-1.94262e-01,-4.54645e-01,-3.21223e-01,-1.25118e-01,-2.15074e-02,
5.88636e-02,3.51149e-01,2.03912e-01,5.51641e-01,3.67905e-01,-9.27317e-02,-1.01132e-01,-9.97627e-02,-5.28980e-01,-3.11102e-01,
7.54047e-02,-7.59364e-01,-1.12929e-01,2.73344e-01,-2.05087e-01,3.23636e-02,2.30163e-01,-2.04507e-02,-4.05734e-02,-1.99043e-01,
-6.48928e-02,1.26660e-01,-5.80581e-01,9.08205e-02,-8.29967e-02,-1.30076e-01,3.90539e-01,-4.52667e-01,-1.68526e-01,-1.46828e-01,
1.82654e-01,-3.27504e-01,1.75567e-01,-4.86677e-01,5.87239e-01,-1.39738e-01,-1.38764e-01,1.46897e-01,1.70850e-01,2.29963e-01,
-1.11196e-03,-6.14737e-02,-2.12924e-01,-1.74121e-01,-1.17533e-01,-3.06169e-01,-2.72836e-01,-7.83877e-02,3.59539e-01,3.43887e-01,
-1.48700e-01,-1.13365e-01,3.31244e-01,-1.88083e-01,3.63728e-01,-6.18840e-02,3.90317e-01,-2.68001e-01,-4.92114e-02,-1.39243e-01,
-4.17712e-01,
-1.22833e-01,
-3.25773e-02,
2.45492e-01,
-7.46427e-02,
4.70283e-01,
2.94132e-02,
-2.36974e-02,
1.07328e-01,
-2.32814e-01,
-8.76561e-02,2.01217e-02,1.77928e-01,4.70972e-01,9.21296e-02,3.27403e-01,-3.47047e-01,6.88169e-02,2.41218e-01,4.53309e-02,
-2.11577e-01,1.09016e-01,-1.21450e-01,-3.91945e-01,1.63473e-01,7.51153e-02,4.81005e-01,-5.64991e-01,-1.46102e-01,-3.65681e-01,
7.50352e-03,-3.04517e-01,4.67998e-01,2.25752e-01,3.97804e-01,-2.13665e-01,2.42107e-01,-3.39548e-01,7.63652e-02,3.06370e-01,
-3.91469e-01,-5.97492e-01,-4.39813e-02,-1.70313e-03,-3.44874e-01,-3.22694e-01,-9.24383e-03,3.26908e-01,4.00408e-01,-3.12385e-02,
5.33687e-02,7.02767e-03,1.22559e-01,-1.05103e-01,3.98470e-01,1.60546e-01,-2.12596e-01,-1.39273e-01,-1.58559e-01,-1.86255e-01,
7.23710e-02,-1.38458e-01,1.77527e-02,-1.51052e-01,2.66893e-01,2.71591e-01,1.04198e-01,-6.95638e-01,1.91437e-01,-2.14292e-01,
-7.01771e-02,-3.62146e-03,-1.82554e-01,2.09386e-02,2.96655e-01,-3.24904e-03,2.89881e-02,2.92732e-01,3.19670e-01,5.26462e-01,
7.53527e-02,-3.24723e-01,-6.66007e-01,-1.35887e-01,1.70365e-02,-2.32999e-01,-2.47429e-01,-3.15144e-03,-3.71276e-02,3.10831e-01,
5.78072e-01,-3.33686e-02,1.69962e-03,-3.63517e-01,1.92395e-01,1.24720e-01,3.40375e-01,8.05948e-03,4.21507e-03,-4.38594e-01,
1.54884e-01,4.05081e-01,-1.82855e-02,6.17592e-03,1.49638e-01,1.46712e-01,-7.30929e-02,3.67081e-01,3.84966e-01,-6.52923e-02,
-2.21833e-01,
-1.18940e-01,
4.55152e-01,
-8.64634e-02,
-2.35883e-02,
-5.21795e-02,
-6.31356e-01,
-2.03783e-01,
-3.24194e-01,
-3.12048e-01,
8.32623e-02,-2.59267e-02,4.62126e-01,1.87041e-01,-6.54888e-02,-2.48320e-01,2.89710e-01,-9.00959e-02,-2.07054e-01,-2.70390e-02,
-2.87256e-01,3.67802e-01,-3.76320e-01,-5.17170e-02,-1.75527e-01,8.22340e-02,-6.95174e-02,7.19205e-02,4.21948e-01,2.20722e-01,
-2.52862e-01,1.61765e-01,-6.29779e-02,-6.02039e-02,3.83449e-01,-2.28870e-01,6.32371e-01,2.16665e-01,3.35777e-01,1.97971e-01,
3.74299e-01,-2.79718e-01,-5.01800e-01,-1.71040e-01,-1.21125e-01,1.04883e-01,-2.59758e-01,-2.44935e-01,-1.12726e-01,1.55204e-01,
1.21481e-01,7.50910e-01,-5.43072e-01,-3.02748e-01,1.26977e-01,3.81285e-01,6.02669e-01,-1.82547e-01,5.59554e-02,-3.63459e-01,
2.17784e-01,-2.79880e-01,6.08755e-02,9.74489e-02,-2.02364e-01,-1.47678e-01,2.88348e-01,9.04141e-02,-7.09204e-02,-2.23666e-01,
-4.61689e-02,-1.71289e-01,-3.26835e-01,8.86375e-02,9.27631e-02,-2.58218e-01,2.01530e-02,-1.00915e-01,-5.06054e-01,-1.12875e-01,
1.61255e-01,2.93027e-01,-3.23270e-01,-1.58915e-01,3.95522e-02,-2.49294e-01,2.33985e-01,-1.72633e-01,9.37404e-03,-4.99593e-01,
-1.00995e-01,-2.03392e-01,-2.39347e-01,1.05315e-04,4.03286e-01,-8.59294e-02,-3.42374e-03,-5.11893e-01,2.46133e-01,4.07908e-01,
3.40914e-01,-1.02971e-01,-3.41998e-01,-9.81570e-02,1.24803e-01,-1.42946e-02,-2.26743e-01,5.65628e-01,5.32077e-01,-4.44778e-01,
1.60717e-01,
-1.39535e-01,
-6.26087e-02,
-3.45347e-01,
-1.23057e-01,
-3.74617e-02,
4.60072e-01,
2.59027e-01,
-2.50727e-02,
-3.61486e-01,
3.64446e-01,-1.55874e-01,1.10976e-01,3.90747e-01,9.78253e-02,2.58785e-01,3.17741e-01,2.54079e-01,4.73799e-01,8.02903e-02,
-2.29747e-01,5.28695e-01,4.44414e-01,-1.25661e-01,2.48442e-01,3.07794e-02,-2.67986e-02,-4.16662e-01,2.75072e-01,5.67655e-02,
-3.03706e-02,1.16424e-01,-1.58952e-01,-5.92658e-02,-4.33457e-01,3.71468e-01,1.36495e-01,-4.40799e-01,-1.58022e-01,-4.75277e-01,
-6.07242e-01,6.32563e-02,-1.64054e-01,4.70580e-01,1.43975e-01,-1.53075e-01,-3.81559e-02,3.17822e-01,2.18031e-02,3.80818e-02,
3.18789e-01,4.74873e-02,2.72709e-01,9.61827e-02,-3.16176e-01,2.21526e-01,-1.17665e-01,1.73106e-01,4.49122e-01,1.25440e-01,
-1.53644e-01,-3.32149e-02,-2.85637e-02,1.25226e-01,-1.78498e-01,7.19271e-02,9.75021e-02,2.69084e-01,7.20715e-01,-7.38015e-02,
2.94573e-01,-3.68664e-01,1.08884e-01,-2.71536e-02,-2.54379e-01,-6.12292e-02,-3.64467e-01,2.55451e-01,-6.47314e-03,-2.81666e-01,
-3.29909e-02,1.70976e-01,-3.03904e-01,-4.25064e-01,-3.39176e-01,1.45753e-01,2.06827e-01,3.74987e-02,-4.64436e-04,-5.27148e-02,
4.02297e-02,2.30117e-01,2.05047e-01,3.53615e-02,-3.85618e-01,3.18686e-01,4.93743e-01,-2.78157e-01,3.13610e-02,4.85265e-02,
1.09364e-01,2.81010e-01,-4.39428e-02,-4.31293e-01,6.37423e-03,3.17977e-01,1.12115e-02,9.16684e-02,2.73665e-01,4.81222e-01,
-1.05468e-01,
4.97424e-01,
-1.24288e-01,
-1.69113e-01,
1.15536e-01,
-1.69394e-01,
3.51636e-01,
1.70115e-01,
4.95599e-02,
-7.32877e-02,
2.95976e-01,-5.40073e-01,2.13780e-01,2.22467e-01,-1.69373e-03,-1.79501e-01,9.22257e-02,3.24345e-01,3.16414e-01,3.74973e-01,
1.52945e-01,5.21790e-02,1.73999e-01,-3.71712e-01,1.27724e-01,-6.34831e-02,6.54333e-02,7.13174e-02,-1.58688e-01,-2.22956e-01,
-6.28136e-01,6.82631e-02,6.74055e-02,7.23375e-02,-6.35987e-02,1.22880e-01,8.78904e-02,3.15188e-01,-4.38393e-01,-2.73676e-01,
7.34443e-02,4.04188e-01,3.24284e-02,-2.08235e-01,1.95371e-01,3.42240e-01,-1.72636e-02,-2.03069e-01,4.35719e-01,-3.28762e-01,
-4.28511e-02,3.06224e-01,1.26268e-02,-3.79029e-01,-2.53295e-01,-6.55729e-01,-1.69108e-01,2.79535e-01,5.08415e-03,5.55746e-02,
1.47439e-01,2.76663e-01,-4.27357e-01,-1.84209e-02,-3.69507e-01,-1.65653e-01,-4.53008e-01,3.48209e-01,-2.52774e-01,4.95527e-02,
-6.03775e-02,-2.33100e-01,-1.71438e-02,-1.45006e-01,-2.31641e-01,-5.93589e-01,-5.97509e-02,-4.76379e-02,1.58359e-01,6.45500e-02,
2.03145e-01,1.57332e-01,-2.15020e-01,-1.23253e-01,-5.22380e-01,-2.98141e-01,-3.92322e-01,-1.25027e-01,1.67432e-01,-3.52625e-01,
2.06243e-01,2.07234e-01,2.19527e-01,-3.79392e-01,-1.18732e-01,-2.57364e-01,-2.54372e-02,-3.85113e-02,-4.59375e-01,2.93557e-01,
2.71934e-01,5.19266e-02,-1.77850e-01,8.36000e-02,-1.50438e-01,6.81458e-02,5.10002e-02,1.90844e-02,-7.14439e-02,-1.06802e-01,
-4.67085e-01,
-1.07835e-01,
-2.89569e-01,
3.51930e-01,
-4.86990e-01,
-3.88581e-01,
7.81778e-02,
2.05091e-01,
1.38715e-01,
1.46811e-01,
1.04008e-01,1.64018e-01,3.29520e-01,-4.70001e-01,-8.30105e-02,-2.19046e-01,-2.95688e-01,5.29418e-02,1.92304e-01,1.32430e-01,
2.77929e-01,-1.38527e-01,-6.10538e-02,8.61811e-02,-2.52981e-01,2.75299e-01,-2.50729e-01,-2.46580e-01,2.26026e-01,4.97192e-01,
-3.34859e-02,-4.92516e-01,4.24825e-01,1.91205e-01,4.69949e-02,3.87124e-02,-3.25842e-01,7.43438e-02,-7.21935e-01,6.22156e-02,
7.55508e-02,-3.11966e-01,-1.59898e-01,2.31771e-01,7.08399e-01,-1.48623e-01,4.34290e-01,3.50053e-01,9.10244e-02,3.68536e-01,
-1.08154e-01,8.11687e-02,6.64473e-02,-3.60207e-01,-1.71892e-01,-2.53602e-03,-2.81776e-01,-1.68987e-01,3.52022e-01,-1.66417e-01,
4.78259e-02,2.53460e-01,3.01720e-01,3.55562e-02,-2.59321e-01,8.82996e-02,2.42291e-01,2.43947e-01,-3.15964e-03,-3.16033e-01,
4.83711e-01,-3.82681e-01,3.47501e-01,2.79102e-02,1.03351e-01,1.68955e-01,-8.35078e-02,2.53068e-01,1.27021e-01,6.42154e-01,
-8.73145e-02,1.17183e-01,1.77060e-01,7.59367e-02,1.06819e-02,-7.10099e-01,1.04743e-01,-2.84013e-01,-2.15108e-01,-1.55784e-01,
3.19838e-01,2.71093e-01,1.28270e-01,-1.32196e-01,5.51142e-01,7.68853e-02,-1.40173e-01,-3.31415e-01,-5.13841e-01,1.17921e-01,
3.42599e-01,-1.22113e-01,1.83321e-01,7.66521e-02,-1.33895e-01,5.82112e-02,3.48515e-02,-8.03745e-02,9.18929e-02,4.74152e-01,
2.12750e-01,
7.11287e-03,
4.80142e-01,
-1.34728e-01,
3.33432e-01,
2.90289e-01,
7.66372e-02,
2.32669e-01,
1.41032e-01,
-6.03319e-03,
6.84233e-04,3.36069e-01,1.66924e-01,-1.37000e-01,-3.84074e-01,6.84641e-02,-3.26728e-01,-4.12346e-01,2.49338e-01,3.19761e-01,
1.71215e-04,-3.60986e-01,1.60721e-01,-2.30147e-01,3.78304e-01,-2.79778e-01,1.36883e-01,4.11839e-02,-2.07885e-01,5.89398e-01,
8.12451e-02,-7.24581e-03,2.23200e-01,2.75984e-01,6.73230e-01,1.83292e-01,-2.42274e-01,2.14002e-01,-3.06966e-01,2.37912e-01,
7.59068e-02,-3.09411e-01,5.26226e-01,2.43629e-01,2.39608e-01,1.13824e-01,4.94816e-02,-4.03555e-01,1.24495e-02,4.91865e-01,
1.32045e-01,3.08444e-01,-1.90130e-01,4.79661e-01,1.66039e-01,4.33119e-01,4.50676e-01,-1.30375e-02,8.49814e-02,1.15074e-01,
-1.36680e-01,-2.98918e-02,2.46295e-01,-1.23619e-02,2.15475e-01,-2.11629e-01,1.16267e-01,2.47120e-01,9.31415e-02,1.00603e-01,
1.61991e-01,9.37692e-02,2.69129e-01,4.82868e-01,-2.21129e-01,-2.01971e-01,-5.24695e-03,2.15978e-01,1.08261e-01,-2.12527e-01,
1.97825e-01,8.72983e-01,9.37921e-02,-2.88663e-01,2.15258e-01,-5.93132e-01,4.77036e-02,2.57450e-02,-2.85708e-01,-2.57637e-01,
1.27129e-01,-2.19579e-01,8.71112e-02,-3.41909e-02,-4.27440e-01,-2.08976e-01,-3.29619e-01,-1.84721e-01,3.70682e-01,8.42511e-01,
1.99770e-01,3.05216e-01,-4.61847e-01,1.77915e-01,1.79671e-02,-5.60364e-02,-1.34085e-01,4.17092e-02,-1.84317e-01,2.21032e-01,
-2.46734e-01,
-2.26706e-02,
2.40582e-01,
7.40596e-02,
1.82282e-02,
-3.00070e-01,
-4.94139e-01,
2.17788e-01,
-3.99713e-02,
5.00068e-02,
7.34460e-02,-6.77852e-02,-2.72969e-01,5.81005e-01,3.63023e-01,3.85231e-02,-7.10479e-02,5.49526e-02,-3.83970e-03,8.02777e-02,
-2.36893e-01,1.90962e-01,1.15545e-02,7.69382e-02,-4.14651e-01,-6.49161e-02,4.08082e-01,1.92345e-01,2.58566e-01,-1.22844e-01,
-1.12880e-01,-1.20952e-01,-4.35083e-02,-3.60642e-01,-2.20599e-01,1.75948e-01,-1.81148e-01,2.34555e-01,-9.30907e-02,-1.45559e-01,
5.11331e-02,-4.39584e-01,-1.19053e-01,-1.61601e-01,1.39008e-01,-2.42442e-01,-1.93079e-01,2.10472e-01,-1.95358e-01,2.55121e-01,
-1.79497e-01,2.49851e-01,2.04744e-02,5.46166e-01,-6.05582e-01,2.60154e-01,-4.89075e-01,1.34821e-01,-3.60442e-01,4.80125e-02,
-2.09541e-02,-7.81635e-01,4.15560e-02,4.92169e-02,6.35583e-02,-8.62295e-02,-6.47667e-02,1.56288e-01,-3.71643e-01,-4.25947e-01,
-2.45101e-01,-1.48176e-01,-1.25139e-01,-4.48287e-01,2.40309e-01,-6.85458e-01,3.69160e-01,1.86154e-01,-3.37452e-01,-2.17479e-01,
4.21330e-01,-2.75496e-01,-1.06905e-01,-1.85540e-01,1.11261e-01,-7.76996e-02,2.95094e-01,-3.23470e-01,2.60636e-01,5.53001e-03,
-3.37494e-01,-2.07422e-02,7.10832e-01,-5.21707e-02,1.21012e-01,-1.13559e-01,-7.62490e-03,-5.84944e-01,8.65233e-02,-4.41268e-01,
-2.84780e-01,-2.65447e-01,1.39347e-02,3.03242e-02,3.41751e-01,-1.79727e-01,-3.51948e-01,4.92946e-01,6.12075e-02,2.40663e-02,
-4.78297e-01,
-2.91051e-02,
5.27307e-01,
-2.39667e-02,
2.53628e-02,
-4.24420e-02,
-5.64975e-01,
2.55091e-01,
2.03176e-01,
-1.89925e-01,
4.04497e-01,3.04045e-01,-4.79470e-01,2.30010e-01,-2.49540e-01,3.77191e-02,-2.95757e-01,3.75494e-01,-2.93186e-01,-5.00281e-03,
4.80139e-02,3.40014e-02,-9.09513e-02,3.34453e-01,-5.93800e-01,9.81941e-03,-1.82989e-01,2.44386e-01,1.74716e-01,-4.64505e-01,
-1.56898e-01,-2.15455e-02,2.48092e-01,-3.39836e-01,2.19908e-02,1.55071e-01,-3.84965e-01,-3.45328e-01,1.86895e-02,8.38232e-02,
-5.12537e-01,2.61707e-01,4.54468e-02,-1.77000e-01,1.92350e-01,-4.09828e-01,1.81696e-01,4.06915e-03,-6.73228e-03,3.67300e-01,
-9.45710e-02,1.37357e-01,1.06994e-01,-8.75399e-02,-1.63660e-01,-2.09612e-01,6.86106e-01,4.71050e-01,-4.55974e-02,2.72649e-01,
-2.75017e-01,8.69249e-02,2.09681e-02,-1.66923e-01,3.08132e-01,-2.98958e-02,-2.19425e-01,9.98776e-02,-6.18205e-03,-3.38215e-01,
-3.49378e-01,-1.17183e-01,1.19850e-01,-2.70426e-01,-6.19743e-01,1.30992e-01,1.64680e-01,-4.33855e-02,2.73058e-01,-1.07952e-01,
-5.39483e-01,2.04434e-01,1.64038e-01,-4.40414e-01,-1.81501e-01,1.31801e-01,8.97091e-02,-1.73298e-01,-2.23549e-01,2.49643e-01,
3.65311e-01,-3.78292e-01,-1.30437e-01,8.06026e-02,-2.86682e-01,-2.62224e-01,-2.23690e-01,2.12134e-01,8.16818e-02,-1.47832e-01,
-1.15821e-01,1.76075e-02,4.23586e-01,-1.85315e-01,2.70317e-02,2.96477e-01,-1.64465e-01,-7.25028e-02,-1.16870e-01,2.37082e-03,
3.37768e-01,
-2.21432e-01,
-2.77416e-01,
1.52635e-01,
6.74306e-01,
-1.22782e-01,
8.25787e-02,
-1.66015e-01,
1.86201e-02,
1.75574e-01,
2.18646e-01,-1.68677e-01,7.19397e-02,-1.97090e-01,-1.05001e-01,2.20193e-01,-2.82138e-01,1.82536e-01,4.66927e-04,4.05270e-01,
-1.36997e-01,-2.65564e-01,6.83643e-02,6.84110e-02,1.38272e-01,-9.06149e-02,3.74778e-02,6.01712e-01,1.62508e-01,-1.57333e-02,
-3.84819e-01,1.36787e-01,-1.73234e-01,1.74431e-01,3.83969e-01,-5.04724e-01,-1.35081e-01,-1.20366e-01,6.56493e-03,-5.33746e-01,
-1.92187e-01,7.66260e-02,-1.35148e-01,-1.98024e-01,3.28000e-01,1.06367e-01,1.87412e-02,2.70028e-01,5.17433e-02,1.94774e-01,
1.86259e-01,-3.78272e-02,2.95016e-01,2.43022e-01,-3.12415e-01,1.13525e-01,5.91264e-02,-2.15715e-01,4.16048e-01,-4.02401e-01,
-3.24984e-01,-5.03329e-01,-2.48857e-01,-9.77276e-02,-4.04379e-01,-1.82156e-01,-7.59224e-02,1.35000e-01,6.79100e-02,-6.21351e-01,
5.67880e-01,-8.79025e-02,-2.17359e-01,2.58075e-01,3.73042e-01,-1.78479e-01,-7.34517e-02,6.84985e-02,-1.76781e-01,-8.23182e-03,
-3.07924e-01,-1.40068e-01,-3.59602e-01,4.24644e-01,-4.25776e-01,4.01091e-01,-3.44974e-01,2.79454e-02,2.67668e-01,6.09885e-01,
-4.43281e-01,8.55519e-02,2.88540e-01,-6.23477e-01,-9.05410e-02,-1.01068e-01,-4.24637e-02,1.97115e-01,2.91400e-01,1.48354e-01,
3.22208e-01,-3.60711e-01,3.13519e-01,2.61451e-01,-3.30455e-01,-3.09678e-01,5.87688e-01,2.58609e-01,4.66676e-01,-7.69694e-02,
3.55053e-01,
-1.46985e-01,
-2.82671e-02,
2.59086e-01,
-8.60254e-03,
4.96473e-01,
-1.22072e-01,
-1.14322e-01,
1.36730e-01,
-1.86236e-02,
-2.04928e-02,-3.56040e-01,2.33693e-02,-1.03964e-01,-3.27425e-01,-1.17447e-02,6.32503e-01,-1.79367e-01,2.08413e-01,-4.45826e-02,
6.39534e-02,3.07686e-01,2.67280e-01,-2.78189e-01,-2.00890e-02,2.13877e-01,-1.06404e-01,-5.32603e-02,3.56825e-01,1.52731e-01,
-3.56181e-01,3.91845e-01,-1.62202e-01,4.22832e-01,-6.41572e-02,2.50105e-01,-4.16922e-01,-1.59008e-01,4.35633e-02,-4.87613e-01,
-1.03620e-01,-1.15417e-01,-1.01670e-01,-3.92504e-01,-1.95183e-01,-8.31415e-02,3.44909e-01,1.96656e-01,-1.61469e-01,-3.39615e-01,
1.24225e-01,2.94437e-01,-1.53241e-01,-4.73016e-01,8.85291e-02,1.25592e-02,-3.64971e-01,-1.21451e-01,-4.21766e-02,4.60561e-02,
2.93272e-01,2.35026e-01,3.63353e-01,1.49973e-01,3.04794e-01,1.09871e-01,-3.12628e-01,1.67475e-01,2.61793e-01,-1.67524e-01,
-4.85331e-02,-5.91470e-01,-1.17015e-02,2.25817e-01,1.48611e-01,-5.32281e-02,1.41701e-01,-1.71993e-01,-2.76393e-01,-1.25969e-01,
-3.49234e-01,1.23851e-01,5.82621e-02,-3.20181e-01,1.38196e-01,-7.96448e-02,-5.26565e-02,-1.13901e-01,-4.03325e-02,-3.94050e-01,
-5.36966e-02,-6.25555e-01,4.40002e-01,1.50431e-01,1.95308e-01,1.86709e-01,-3.96073e-01,-8.76491e-02,-1.35716e-01,-1.25702e-02,
-1.10753e-01,-1.59814e-01,-4.76858e-02,3.22384e-02,-3.70457e-01,-2.81062e-01,4.11797e-01,4.18662e-01,-3.91346e-01,1.86907e-02,
2.67543e-01,
-5.97992e-02,
3.06546e-01,
-1.77164e-01,
-1.88464e-02,
3.17167e-01,
-1.49435e-01,
-2.06051e-01,
-4.01149e-01,
2.15180e-01,
1.03289e-01,2.13819e-01,1.78113e-02,-4.27175e-01,-5.86285e-02,-4.63623e-01,-2.59544e-01,-5.95465e-01,1.31058e-01,1.35546e-01,
1.41201e-01,1.16962e-01,1.61520e-01,-1.55464e-01,-8.24850e-02,-1.16839e-01,1.32011e-01,-1.81408e-01,1.89822e-02,3.93897e-01,
1.72199e-01,-3.50250e-02,-1.24226e-02,1.17028e-01,-3.88809e-02,2.97080e-01,4.04705e-02,-1.66301e-01,-2.68323e-01,1.04706e-01,
-1.03997e-01,3.70733e-02,-2.03505e-01,-5.24709e-02,2.73535e-01,-4.41889e-01,-2.31526e-02,-2.15640e-01,1.14838e-01,1.30194e-01,
-3.58014e-01,-8.60982e-02,3.13209e-01,-1.97414e-01,-1.24350e-01,-2.34460e-01,2.42334e-02,-5.79793e-01,-3.74012e-01,-3.06979e-01,
3.05200e-03,-2.06739e-02,3.44207e-02,1.44592e-01,1.40776e-01,3.35330e-01,5.95240e-01,1.52861e-01,6.28408e-02,-1.06506e-01,
-7.20769e-02,-2.98486e-02,-1.95629e-01,-2.07206e-01,-1.62393e-02,7.13237e-01,-2.14110e-01,8.02445e-02,-8.86206e-02,-5.31739e-01,
2.98279e-01,1.16049e-01,-4.19831e-01,-5.35818e-02,2.05220e-02,-3.59047e-02,3.53832e-01,-3.22240e-01,-4.79192e-01,-2.14601e-01,
3.32336e-01,5.30295e-02,-5.55807e-01,-1.42934e-01,-3.94479e-02,-1.33549e-01,2.68519e-01,-9.72364e-02,-8.73793e-01,-4.28456e-01,
-2.49622e-01,-1.41860e-01,-6.85948e-03,-1.73208e-01,-3.58904e-01,-4.01735e-03,1.81880e-01,-2.29660e-01,-2.37038e-01,3.93033e-02,
-3.00328e-02,
2.67921e-01,
-4.85180e-02,
-5.40636e-01,
4.14025e-01,
-4.02926e-01,
5.67228e-02,
1.60929e-02,
1.51627e-01,
3.53164e-01,
-2.56000e-01,2.17737e-01,3.27510e-01,3.42460e-01,3.63126e-01,-2.04422e-01,4.86842e-01,1.79984e-01,2.83740e-01,2.35019e-01,
-3.11758e-01,-2.25772e-01,-4.33742e-01,6.38292e-02,-7.97644e-01,7.35650e-02,3.38097e-01,-3.29773e-03,-1.16660e-01,6.48120e-02,
3.96766e-01,3.83343e-01,3.80735e-01,-9.30722e-02,2.09483e-01,3.07128e-01,8.21398e-02,-1.61467e-01,-2.18385e-01,-1.61679e-01,
2.04308e-01,4.78520e-02,3.82072e-01,6.52750e-01,-1.58207e-01,4.16290e-01,-4.16156e-01,-6.18767e-02,1.14704e-01,-1.86865e-01,
2.23859e-01,-2.91301e-01,-2.24316e-01,8.21505e-02,-2.97139e-01,2.44420e-01,1.86179e-01,2.11602e-01,1.09986e-01,-2.08882e-01,
-1.06521e-01,-2.23516e-01,-7.87566e-02,3.12720e-01,-2.37073e-01,-5.23755e-02,3.40416e-02,-3.21060e-01,2.28281e-01,-1.18715e-01,
3.25652e-01,3.71248e-01,1.43085e-01,3.43247e-01,-2.19657e-01,-1.65037e-01,4.78385e-01,4.40874e-01,-1.33459e-01,-1.87614e-01,
3.17611e-01,2.87514e-01,3.00750e-01,-3.69293e-01,4.39327e-01,-2.31208e-01,-4.36931e-01,1.10125e-01,3.08909e-01,2.76702e-01,
-6.43518e-01,-1.53512e-01,-1.44672e-01,4.38170e-01,2.03268e-01,-5.82727e-02,-3.84867e-01,1.84832e-01,3.62928e-01,4.10194e-01,
1.75207e-01,1.31191e-01,1.17705e-01,2.50911e-01,-3.71805e-01,4.75471e-02,1.05838e-01,-8.57749e-02,2.24355e-01,3.74782e-01,
4.38094e-01,
7.44594e-02,
4.52418e-01,
-6.82085e-02,
4.85485e-01,
-6.56901e-02,
7.19363e-01,
7.24706e-02,
-1.00806e-01,
6.53588e-02,
-1.11900e-01,-7.71270e-02,-6.86902e-01,-2.99048e-02,3.59533e-01,-8.83293e-02,4.40477e-01,-2.30495e-01,-1.46510e-01,-1.09365e-01,
-2.89334e-01,2.22763e-01,4.24190e-01,3.29872e-01,1.68475e-01,-3.70883e-01,-3.48501e-01,2.02644e-01,4.85118e-01,-7.76209e-02,
7.14030e-01,
-4.82470e-01,
