// Neural Network File Format by Kyle Julian, Stanford 2016
5,2,2,20,
2,20,20,20,20,2,
0,
-10000.0,-10000.0,
10000.0,10000.0,
0.0,0.0,0.0,
1.0,1.0,1.0,
-7.18949e-02,-8.35614e-02,
-2.12533e-01,1.10859e-01,
-7.28627e-01,-9.24613e-03,
-2.45069e-01,-2.19258e-01,
-1.39530e-01,3.03399e-01,
3.65199e-01,-1.84602e-03,
-2.04364e-01,1.33580e-01,
2.30059e-01,-7.90606e-02,
-9.13558e-02,-5.47225e-01,
-2.98295e-01,1.34486e-01,
6.31956e-01,9.82214e-02,
-4.46913e-01,-2.43320e-01,
-8.07760e-02,4.61381e-01,
-2.79333e-01,3.16880e-01,
-1.78248e-01,-1.50010e-01,
7.62088e-02,-1.14362e-01,
5.88234e-01,6.49122e-01,
8.51073e-01,-2.03171e-02,
-1.33605e-01,-5.05500e-01,
-1.69244e-01,-2.52595e-02,
1.22919e-01,
3.78325e-01,
-1.75660e-01,
3.29645e-01,
-4.53127e-01,
4.25195e-01,
1.83256e-01,
-2.17780e-01,
-2.75831e-01,
3.92720e-01,
-6.74066e-01,
5.48143e-02,
5.66250e-01,
-1.14923e+00,
-8.48031e-02,
7.47447e-02,
-6.31473e-01,
-3.82281e-01,
-2.59288e-01,
-1.60457e-01,
2.88169e-01,2.97450e-02,1.43913e-01,4.65907e-01,3.14479e-02,1.74744e-01,1.41239e-01,2.52510e-01,-5.71496e-02,4.02169e-02,-6.75162e-01,1.11088e-01,3.74158e-02,-6.69836e-01,-2.35780e-02,-8.35282e-01,6.15059e-02,3.42563e-01,1.52640e-01,1.01644e-01,
-1.07956e-01,-1.48255e-01,7.16913e-01,4.58037e-01,3.41350e-01,-4.02752e-01,1.33298e-02,4.62661e-02,6.58462e-01,-6.28956e-01,-5.67301e-01,9.73278e-02,1.16326e-01,3.33047e-01,3.09211e-01,-1.03203e+00,-2.35135e-01,-2.65260e-01,1.42910e-02,6.00731e-02,
-3.82805e-01,1.52738e-01,-3.53816e-01,-1.13390e-01,-9.39114e-02,1.96425e-01,3.48060e-01,-8.38704e-02,5.74438e-01,7.52465e-01,-6.27247e-02,6.10840e-01,7.33468e-01,-4.11623e-01,8.23276e-02,-3.97506e-01,-5.09390e-01,4.70135e-01,-5.41526e-01,-2.92051e-01,
-4.09130e-01,-3.19574e-02,1.62507e-01,-2.40709e-01,5.96939e-01,1.52060e-01,-1.27886e-01,6.75534e-01,6.36220e-01,1.18109e-01,4.18532e-01,-4.82150e-01,4.98923e-01,-1.18197e-01,4.10153e-01,4.50740e-01,-1.40823e-01,-4.68955e-03,-4.59925e-01,-9.78699e-01,
4.16121e-02,-3.49470e-01,-2.89262e-02,-3.10031e-02,1.25769e-01,-4.27896e-01,-2.61492e-01,5.18358e-01,3.30466e-01,-1.84238e-01,-9.07853e-02,-6.25049e-01,2.46198e-01,-3.75383e-01,-7.77341e-01,4.05891e-01,1.68231e-01,1.83245e-01,-1.61167e-01,8.17140e-02,
3.84976e-01,1.91700e-01,-1.81259e-03,-3.04850e-01,9.08291e-02,2.05236e-01,-1.88427e-01,4.04436e-01,-2.29057e-01,2.57718e-01,3.24779e-02,-2.84975e-01,-5.74191e-02,9.36336e-02,-2.31737e-01,7.43232e-01,3.01634e-01,9.19228e-01,-3.34963e-01,8.57432e-01,
5.51862e-01,-5.45815e-02,-6.02114e-01,4.30183e-01,2.14800e-01,-9.31387e-02,3.98132e-01,-8.70213e-02,-4.50961e-02,-3.41426e-01,1.93983e-01,-3.53898e-01,5.72525e-02,3.27926e-01,5.35572e-01,-4.60396e-01,1.60494e-01,-4.39584e-01,2.99727e-01,-2.72199e-01,
-2.75797e-01,-3.15044e-01,-7.94252e-01,-5.66933e-02,-2.45930e-01,-1.37604e-01,-5.65446e-01,1.16490e+00,1.10437e-01,7.99602e-02,-2.99507e-01,-4.16805e-01,-2.42005e-01,-6.46033e-01,5.26733e-01,-1.89757e-02,-1.24488e-01,2.78009e-01,-1.72859e-01,2.36363e-02,
1.04434e-01,-2.01768e-01,-3.58992e-01,-4.92139e-01,1.81745e-01,-8.21569e-02,4.39609e-02,-8.54774e-02,-1.55112e-01,-8.42730e-01,-2.27996e-01,-2.17152e-01,-6.41798e-01,-6.34862e-01,1.63264e-01,3.14186e-01,1.08286e-01,-3.55971e-02,-6.93396e-01,7.30344e-01,
-8.22644e-01,-2.01863e-01,1.81098e-01,1.82009e-01,-4.63208e-01,-5.59664e-01,-4.83226e-01,3.77050e-02,2.80374e-01,7.63749e-02,5.66975e-02,-3.31119e-02,-3.98693e-01,-1.18113e-01,-7.97628e-02,-1.03246e-01,-3.50635e-01,-6.77408e-01,-9.29717e-01,4.36137e-01,
1.62211e-01,2.15079e-01,-5.99364e-01,9.80862e-02,9.09309e-01,-5.05498e-01,-1.01156e-02,3.07571e-02,-3.69459e-01,-6.18736e-02,-4.29638e-01,-3.86318e-02,-2.30103e-01,4.96179e-01,-7.45354e-01,-3.72902e-01,1.25147e-01,9.16585e-01,-1.23543e-01,1.03829e-01,
2.84616e-01,1.04887e+00,-1.32349e-01,3.15510e-02,-7.21605e-02,3.30762e-01,4.08241e-02,5.02479e-01,-6.86930e-02,4.81690e-01,-1.65534e-01,-4.52202e-01,2.48247e-01,4.20304e-02,-3.14319e-01,2.89518e-01,7.05497e-01,-4.55210e-01,-2.14235e-01,1.56437e-01,
-6.07482e-01,9.87557e-02,3.06549e-01,-5.93481e-01,-7.53794e-02,-1.28873e-01,4.80136e-01,-2.39480e-01,-1.58945e-01,5.34378e-01,-1.39136e-01,-3.14261e-01,6.18665e-01,5.12382e-01,-8.69295e-02,-8.48954e-01,5.28648e-02,6.19810e-01,6.77222e-01,4.77877e-01,
6.97810e-03,3.17820e-01,-5.41989e-01,6.46127e-02,-3.86851e-01,-8.49719e-02,7.69450e-02,-1.90063e-01,-1.53545e-01,-3.26357e-01,-1.57810e-01,-1.95227e-01,-1.69051e-01,3.14046e-01,2.63392e-01,-2.86220e-01,-4.03958e-01,-5.02101e-02,6.15032e-01,-1.38479e+00,
-5.78408e-01,1.57023e-01,8.79921e-01,-5.12095e-01,-3.29212e-01,-3.92870e-01,-9.21502e-02,7.59340e-01,3.23912e-01,-4.24380e-02,4.35889e-01,2.13966e-01,-1.63872e-02,1.85185e-01,4.25369e-01,-3.12654e-01,8.41251e-01,-6.65664e-02,6.95731e-02,1.06329e+00,
-5.24199e-01,5.94001e-01,5.38738e-01,-1.40030e-01,4.47998e-02,-2.55527e-01,-5.04044e-01,6.98368e-01,-5.42991e-01,2.68849e-01,4.98830e-01,8.89886e-01,1.00763e+00,-2.10334e-01,-1.52198e-01,3.80928e-01,-5.01605e-01,-6.31926e-01,-3.40790e-01,1.93222e-01,
-2.06873e-01,2.82623e-01,-2.47126e-01,-6.01677e-01,-1.74495e-01,5.98938e-02,-6.44345e-01,-2.28522e-01,-8.52133e-03,6.69999e-01,5.89168e-01,3.07084e-01,7.53023e-02,1.10232e-01,5.14015e-01,1.77307e-01,-3.13100e-02,-4.68279e-01,-4.62446e-01,-5.56885e-01,
2.10218e-01,4.23073e-01,-2.52847e-01,-3.61895e-01,-1.35403e-01,-2.40437e-01,2.70997e-01,1.29714e-01,7.91538e-01,-1.07739e-02,-4.93488e-01,-6.11292e-01,4.06941e-01,-3.66601e-01,4.43522e-02,-5.42899e-02,3.45456e-01,-4.11282e-01,1.70154e-01,-1.39661e-01,
-1.16895e-02,-1.83221e-01,-3.31734e-01,-3.72404e-01,1.99859e-01,5.57674e-02,2.26084e-02,4.84988e-01,-5.26018e-02,-9.64425e-02,3.35561e-01,3.54299e-01,-5.96311e-02,2.07669e-01,1.30790e-01,3.22499e-01,-2.58839e-01,2.95152e-01,7.90580e-02,4.61631e-01,
-4.92458e-01,3.74683e-01,-2.02868e-01,4.41594e-01,-2.82600e-01,-2.05993e-01,-3.29601e-01,4.81893e-01,-1.05356e-01,5.36447e-01,-7.12191e-01,-6.77013e-01,-6.57693e-01,-2.30509e-01,-6.01503e-01,4.12237e-01,-4.01646e-01,-1.93434e-01,-6.54173e-01,-5.54294e-01,
4.15906e-01,
2.53710e-01,
2.38840e-01,
-5.40737e-01,
-5.01149e-01,
6.24683e-01,
-3.90171e-01,
-1.60138e-01,
9.87394e-03,
8.18086e-02,
-5.95618e-01,
1.64485e-01,
-5.60920e-02,
-6.21983e-01,
-9.10415e-01,
2.46122e-01,
2.38792e-02,
-3.34867e-01,
2.62553e-01,
2.19709e-02,
2.30109e-01,1.36236e-01,-5.68156e-01,1.71585e-02,-1.69568e-01,6.62514e-01,3.90807e-02,-1.87739e-01,9.18515e-02,-2.57736e-01,3.07608e-01,-1.57892e-01,-9.11126e-01,3.57638e-01,-5.92610e-01,2.61770e-01,8.20426e-01,9.34293e-01,4.05069e-02,5.06263e-01,
7.30623e-01,1.72619e-01,4.65754e-01,6.29135e-01,6.33573e-01,-1.05987e-01,1.49267e-01,1.00971e-01,7.12484e-01,1.38712e-01,3.82758e-01,-4.67727e-01,6.38856e-01,2.49219e-01,4.61181e-01,8.15917e-01,-1.36772e-01,-2.11459e-01,1.04779e-01,-1.89852e-01,
4.59820e-01,7.12817e-01,-6.12224e-01,6.22095e-02,2.40097e-01,2.75042e-01,7.63006e-02,1.07128e-01,-3.84629e-01,1.25970e-01,3.74185e-01,4.78145e-01,-2.04909e-01,-6.69873e-01,-4.18583e-01,-2.69000e-01,-4.06787e-01,-4.07483e-01,-1.00759e-01,2.00873e-01,
3.88653e-01,4.17440e-01,-3.00502e-01,8.57110e-02,-2.31707e-01,3.48916e-01,-5.67049e-02,5.14404e-01,-3.25330e-01,-1.32295e-01,4.21011e-01,-1.99791e-01,-3.83816e-01,-1.26258e-01,-4.58789e-01,1.38089e-02,5.17680e-01,-9.48088e-01,4.34820e-02,-2.57476e-02,
2.88011e-01,-4.29673e-01,-1.82107e-01,-3.76995e-02,-4.89330e-01,-1.47919e-01,-5.87403e-02,2.82040e-01,6.77510e-01,4.23412e-01,3.94135e-01,-3.96281e-01,-4.59834e-02,7.32897e-02,-3.90184e-01,7.75098e-03,7.29906e-01,1.94807e-01,-4.98362e-01,-1.70270e-01,
-2.30739e-01,2.97315e-01,3.86375e-01,4.39282e-01,5.13476e-02,1.07365e+00,2.80444e-01,-2.69228e-01,-3.91267e-02,-2.27169e-01,1.68521e-01,-1.04303e-01,-9.03726e-02,6.33291e-02,5.70983e-01,-9.74715e-02,-2.96630e-01,4.02112e-01,4.54429e-01,4.13358e-01,
-4.00664e-02,-2.96030e-02,-2.26916e-01,-2.45819e-01,1.49322e-01,-1.83688e-01,5.68332e-01,-7.40763e-02,-3.53087e-01,-1.68433e-01,-2.07200e-04,-8.66477e-01,2.70210e-01,2.84321e-01,-2.89275e-01,-6.50640e-02,-6.49488e-01,-3.26478e-01,1.25549e-01,1.32324e-01,
-6.15621e-01,1.38029e-01,-2.11162e-01,1.43056e-01,2.08809e-01,-1.14967e+00,5.92811e-01,-8.08178e-03,3.37935e-01,-1.34197e-01,-3.44607e-01,3.96834e-02,-3.37044e-01,-1.40980e-01,-6.54297e-01,1.80376e-01,3.55073e-01,6.96534e-01,-1.18774e-01,4.25397e-01,
-3.56375e-01,-2.98957e-01,4.54623e-01,5.74305e-01,3.74617e-02,-1.59643e-01,1.14383e-01,2.97361e-01,-1.78246e-01,-2.78678e-01,-5.09862e-02,1.61045e-01,-2.23990e-01,-1.11090e+00,3.86933e-01,8.53400e-01,4.42441e-01,-3.25726e-01,-3.14069e-01,1.33203e-01,
-1.64825e-01,4.22515e-01,-6.36453e-01,4.81927e-01,-2.12749e-01,5.84007e-01,4.80511e-01,3.85001e-02,1.21585e+00,3.35164e-01,-5.10364e-01,1.00732e-01,-1.98911e-01,-9.63343e-02,-4.56687e-01,-1.69578e-01,3.33615e-01,-3.31471e-01,-3.74310e-02,7.99930e-02,
-3.27263e-02,-4.12370e-01,3.30028e-02,2.07495e-01,1.81869e-01,3.91770e-02,-2.27975e-01,3.04886e-01,-1.24139e-01,7.44300e-01,-1.42589e-01,-2.26087e-01,5.72719e-02,5.56178e-01,-3.07677e-01,1.25171e-01,1.94070e-01,-5.29583e-02,1.98301e-01,-4.71958e-02,
9.91362e-02,-2.83521e-01,-1.51115e-01,-1.81902e-01,5.29345e-02,-4.57800e-01,3.89775e-01,8.42000e-02,-4.77896e-02,2.22226e-01,-1.00446e-01,-6.32945e-01,-1.26553e-01,1.27931e-01,-1.56583e-01,5.24238e-01,6.71023e-01,3.91180e-01,3.89637e-01,5.12295e-01,
3.08863e-02,-5.39570e-01,-2.57091e-01,-9.21810e-02,4.05332e-01,1.43213e-01,2.71966e-01,-3.21091e-01,-2.10867e-01,-3.68915e-01,4.96191e-02,1.14365e-01,3.68493e-02,9.87070e-02,-1.09360e-01,-8.67921e-02,-2.33363e-01,-3.32435e-02,-4.70247e-01,-2.23889e-01,
1.13873e-01,2.03092e-01,-1.55878e-02,-1.31362e-01,-4.57439e-01,-3.17930e-01,-4.06136e-01,1.79639e-01,-3.05330e-01,-7.42944e-02,-6.82525e-02,8.15079e-02,-2.64653e-01,-7.82637e-02,-4.69464e-01,-3.88041e-02,-2.56694e-01,2.46229e-01,4.88133e-02,3.35823e-02,
5.80210e-01,1.87861e-02,3.85261e-03,2.71108e-01,-1.20777e-01,-2.30479e-01,1.23516e-01,2.44960e-01,-3.53794e-01,4.74643e-01,-7.12738e-01,3.83873e-01,-2.51168e-01,-3.49548e-01,3.17888e-01,2.61547e-01,1.86145e-01,-1.25166e-01,-3.36702e-01,-8.12811e-02,
2.30490e-02,1.08133e-01,6.35732e-01,-2.52187e-01,3.70395e-01,4.62204e-01,1.61174e-01,3.10410e-01,3.69050e-01,1.07199e-01,5.04214e-02,-5.85301e-01,-4.28438e-01,-3.02906e-01,2.07593e-01,-2.27113e-01,3.17483e-01,-4.59680e-01,9.40375e-02,-6.02339e-01,
4.38398e-01,-2.31043e-02,1.98369e-01,1.16084e-01,-6.19962e-02,-2.04675e-01,3.68562e-02,3.52079e-01,3.11782e-02,2.52856e-01,7.52286e-01,-7.15028e-02,7.05554e-02,-1.01627e-01,-1.12584e+00,-4.50121e-01,-1.62426e-01,-5.99334e-01,3.53458e-01,3.50232e-01,
-1.65845e-01,6.76846e-01,-8.14093e-01,-3.17851e-01,3.15518e-01,-6.15010e-02,3.62220e-01,2.13806e-01,6.13623e-01,5.32734e-01,-5.03933e-01,-2.07209e-01,5.46272e-02,8.48873e-01,5.15005e-02,-6.60338e-02,-2.01790e-01,-2.01317e-01,2.89308e-01,-9.16867e-01,
-5.28978e-01,-2.81135e-01,1.99014e-02,-1.44926e-01,-7.11935e-02,-9.35698e-01,-2.11404e-01,6.40842e-01,-3.80908e-01,2.20817e-01,4.69002e-01,-3.19728e-01,1.84396e-01,5.54311e-01,2.15105e-02,3.68831e-01,-8.76010e-01,-3.65294e-01,-5.91136e-01,5.74874e-02,
-5.69568e-01,-3.18053e-03,6.48180e-02,-2.57581e-01,5.71142e-01,-4.58913e-01,3.00763e-01,-2.97986e-01,-8.15229e-02,1.76901e-01,-5.68225e-01,4.27272e-01,1.14596e-01,-3.32180e-01,-3.75200e-01,-3.74689e-01,-2.94226e-01,4.20677e-01,-4.36177e-01,-3.54991e-01,
2.65347e-01,
-2.85427e-01,
-1.90883e-01,
-5.02886e-01,
-2.65611e-01,
-2.37148e-01,
-6.11243e-01,
-8.66455e-01,
4.90358e-01,
-3.65327e-01,
4.03161e-01,
-6.96733e-02,
5.80949e-01,
-4.51124e-01,
-1.30065e-01,
4.27853e-01,
-1.89176e-01,
-2.34879e-01,
-2.27058e-01,
-1.40363e-01,
-1.06512e+00,8.32326e-02,-6.97024e-01,-6.25949e-02,-3.35699e-01,1.05326e+00,-3.18365e-02,2.18643e-01,1.33146e-01,4.78945e-01,1.62712e-01,-2.21362e-01,-1.51259e-01,4.15969e-01,-4.68705e-01,2.07306e-01,1.62524e-01,-1.01055e+00,1.89818e-01,1.10853e-01,
4.43916e-01,7.50552e-01,-2.79398e-01,-3.04880e-01,-6.10659e-01,-5.19944e-02,2.39077e-01,-8.86234e-02,4.45875e-01,-8.27041e-01,3.81414e-01,-3.70124e-02,-2.56530e-01,-3.11453e-01,-6.71012e-01,-1.03561e-02,-2.36691e-01,-3.03874e-01,2.99376e-02,6.17736e-01,
3.36421e-01,6.06352e-01,-6.88481e-01,-4.78088e-01,6.77565e-01,-2.67597e-02,1.21743e-01,-2.65935e-01,-2.02099e-02,-4.06228e-01,-1.31490e-01,-1.62119e-02,5.63483e-01,1.65829e-01,4.68035e-02,-3.36053e-01,-1.01501e-01,-3.26661e-01,-2.85411e-01,3.26884e-01,
2.20442e-01,3.07336e-02,1.35410e+00,-4.66056e-01,-4.55426e-01,1.03258e+00,4.91536e-02,2.41165e-01,2.89045e-01,1.64720e-01,4.45971e-01,-8.74668e-01,-2.33734e-01,6.35789e-01,3.10061e-01,-6.48746e-01,1.72470e-01,5.77391e-02,-3.82089e-01,-1.07330e-01,
1.77374e-01,-2.16569e-01,5.10273e-01,2.50289e-01,-1.38565e-01,-7.62412e-01,3.86960e-01,-3.80144e-02,2.91932e-01,-1.13465e-02,1.91965e-01,3.21483e-01,2.65145e-01,-2.98831e-02,1.93870e-01,-3.60259e-01,5.01867e-01,8.74637e-01,5.31527e-01,1.29732e-01,
5.72949e-01,2.22423e-01,-4.25166e-03,-2.13130e-02,9.48009e-02,3.56195e-02,1.61740e-01,-2.44091e-01,-2.13094e-02,1.50580e-01,-8.52459e-02,3.13478e-01,-1.14647e-01,-3.30823e-01,-2.24323e-02,-3.59543e-01,-8.14959e-01,-8.30528e-02,-3.49270e-01,2.86003e-01,
-1.07594e-01,-1.23357e-01,-2.40819e-01,-1.44190e-02,2.91515e-01,3.93919e-01,1.27274e-02,1.51358e-01,-9.87828e-01,-1.03921e-01,3.35095e-01,6.17108e-01,9.37339e-02,6.74406e-01,4.91719e-01,2.27292e-01,3.64897e-01,5.04130e-01,-1.37171e-01,4.93643e-01,
-1.24975e-01,9.79730e-01,-2.26303e-01,-4.86911e-01,5.94018e-02,-9.35615e-02,2.14366e-01,5.97947e-01,-5.56738e-01,-5.43250e-02,-5.65172e-01,4.00131e-01,1.49110e-01,-3.39459e-01,1.75226e-01,6.30086e-02,-9.48229e-01,-1.43863e-01,2.46331e-01,-2.54986e-01,
-4.99040e-02,9.52490e-02,2.34069e-01,-3.84315e-01,5.35647e-02,6.77059e-01,4.00357e-01,-7.33127e-02,4.09080e-01,5.52688e-02,-2.10663e-01,1.46111e-02,-1.26472e-01,2.33570e-01,1.60604e-01,-1.72373e-01,-1.88990e-01,1.89022e-01,5.81026e-01,1.65231e-01,
1.41673e-01,-6.03902e-01,-2.13101e-01,5.24827e-02,-2.66169e-01,2.81313e-01,-3.48489e-01,3.48751e-01,1.85474e-01,-8.96939e-02,1.69967e-01,-5.38443e-01,5.53293e-01,3.46280e-01,1.59362e-01,-2.95671e-02,7.00363e-01,-5.79015e-01,1.59276e-01,-2.35995e-01,
-5.48955e-01,-1.32385e-02,2.48098e-01,2.44138e-01,1.23341e-02,-8.01673e-01,4.99940e-01,4.14919e-01,-1.31905e-01,-2.82969e-01,7.85330e-01,-3.14755e-01,3.59663e-01,-3.06251e-01,3.55446e-01,9.44666e-02,1.54311e-01,7.00105e-02,6.01614e-01,3.04263e-01,
6.50584e-01,-3.68971e-01,-2.54086e-01,-3.86172e-01,1.36989e-01,2.43334e-01,1.70956e-01,-1.20828e-02,2.51074e-01,-4.21415e-01,-2.25813e-01,-5.98288e-01,1.27994e-01,-1.96258e-01,3.33010e-01,1.94306e-01,1.30711e-01,-1.37451e-01,5.68835e-01,-9.09779e-02,
5.05691e-01,5.07577e-03,8.25186e-02,2.93964e-01,1.39600e-01,3.54521e-01,-4.52411e-01,-7.38471e-02,1.55981e-01,1.74173e-01,-2.91092e-01,6.69620e-01,2.45953e-01,3.17981e-01,-2.33917e-01,-2.43645e-01,1.88160e-01,2.04204e-01,2.37754e-01,-5.21496e-01,
-3.11453e-01,2.25926e-01,-1.54222e-01,-2.64157e-01,1.67309e-01,-5.05807e-01,2.65753e-02,-9.31625e-01,-2.82352e-01,2.51558e-01,-6.81008e-02,-4.35231e-02,-5.50031e-01,-2.38464e-01,2.05257e-01,-8.36694e-01,2.69698e-01,2.01576e-01,-6.85552e-01,1.65912e-01,
-2.10585e-01,-2.57074e-01,-3.81540e-01,-5.90946e-01,-6.12494e-03,-3.65775e-01,2.24935e-01,-3.56921e-01,4.49684e-02,1.04084e+00,1.03989e+00,-1.69172e-01,-1.68109e-01,-2.52761e-02,1.62211e-01,-4.36227e-01,4.50660e-01,-1.87427e-01,-1.97300e-01,2.97148e-01,
7.39227e-01,1.04245e-01,4.96428e-01,1.66042e-01,4.24541e-01,2.02265e-01,-2.97255e-01,6.33706e-01,-2.66210e-01,-3.08326e-02,-1.16093e-01,-3.85666e-01,-3.68791e-01,2.03314e-01,-1.99723e-01,7.59897e-01,8.64994e-01,-1.49028e-01,1.34469e-01,-4.15806e-01,
4.92583e-01,-4.72774e-01,-9.63057e-02,-2.33908e-01,4.23804e-01,7.48614e-01,-1.40647e-01,5.75068e-02,3.35067e-02,2.61650e-01,2.42803e-01,1.80607e-01,1.37753e-01,-4.35396e-01,-6.49298e-01,1.07476e-01,5.19606e-02,2.17337e-03,5.28511e-01,5.53232e-01,
-2.67941e-01,7.56648e-02,1.17409e-01,-5.51391e-01,-1.18202e-01,-1.35177e-01,-2.28536e-01,1.09154e-01,-2.42610e-01,5.67864e-01,2.57593e-01,-1.32451e-01,5.02443e-02,-3.05457e-01,7.65739e-01,-3.18247e-01,-2.30274e-01,7.22077e-02,-3.93629e-01,1.56064e-01,
-2.10106e-01,4.15155e-01,5.57350e-01,-4.13119e-01,-8.24124e-01,-5.50282e-01,-7.71647e-01,7.86987e-01,-2.59041e-01,3.46934e-01,-5.88437e-02,1.48631e-02,3.36772e-02,-1.05591e-01,-1.83224e-01,1.26546e-01,-5.95925e-01,4.72153e-02,9.37457e-02,4.26331e-01,
-6.59663e-01,-5.11430e-01,-4.60098e-01,-1.01093e-01,-4.46489e-01,1.75680e-01,-4.88267e-01,6.05381e-01,3.09304e-01,-1.25346e-01,-2.30334e-01,3.48834e-03,1.56787e-02,-8.34812e-02,2.90815e-02,1.95215e-01,-1.81828e-01,-3.20856e-01,-1.78043e-01,2.78468e-01,
-2.42805e-01,
4.55401e-01,
-4.21025e-01,
-1.13896e-01,
2.70440e-02,
-6.67938e-01,
4.74419e-02,
-3.15680e-01,
2.99787e-02,
3.37677e-03,
2.37834e-01,
2.72338e-01,
1.20388e+00,
1.21978e+00,
6.31279e-01,
8.57070e-01,
-1.74658e-01,
-2.31048e-01,
2.38724e-01,
-1.97308e-01,
-3.47751e-01,6.96805e-01,-8.14722e-01,1.16847e-01,-1.09937e-01,-3.93580e-01,4.83314e-01,3.66454e-01,-4.48112e-01,-4.00248e-01,2.41898e-01,6.12337e-01,9.57166e-02,-1.22247e-01,3.20717e-02,-3.56900e-01,-3.05304e-01,-2.01538e-01,-2.25536e-01,3.50519e-01,
-5.11030e-01,9.14111e-01,-3.34662e-01,7.79285e-01,-1.25798e-01,-1.46847e-02,1.91374e-03,2.68478e-01,-1.33959e-01,8.28297e-02,-2.40889e-01,-1.16887e-01,1.34913e-01,4.09971e-01,2.47049e-01,7.61140e-02,3.83480e-02,6.65899e-01,3.17531e-03,1.74522e-01,
-3.26907e-01,
-9.10635e-02,
