// Neural Network File Format by Kyle Julian, Stanford 2016
40,2,2,10,
2,10,10,10,10,10,10,10,10,10,10,10,10,10,10,10,10,10,10,10,10,10,10,10,10,10,10,10,10,10,10,10,10,10,10,10,10,10,10,10,2,
0,
-10000.0,-10000.0,
10000.0,10000.0,
0.0,0.0,0.0,
1.0,1.0,1.0,
2.03289e-01,5.40209e-02,
1.97850e-01,2.93906e-02,
-2.84692e-01,-1.04398e-01,
-8.98416e-02,-5.87360e-02,
2.00450e-01,-2.08116e-01,
8.74425e-02,-4.72570e-02,
3.45676e-01,8.21133e-03,
9.43255e-02,1.34241e-02,
-5.24806e-01,3.45407e-01,
-5.14201e-02,-6.91936e-01,
2.04600e-01,
-5.49170e-01,
-6.53671e-01,
-1.96621e-01,
4.53258e-01,
2.96864e-01,
-1.80557e-01,
1.28441e-01,
1.42183e-01,
-6.97197e-03,
-1.54726e-01,3.11319e-01,5.53637e-01,5.34487e-02,-1.03233e-01,-3.74312e-01,-2.17872e-01,3.88448e-01,-3.42174e-02,3.31953e-01,
-8.78419e-02,-3.94459e-01,-1.74944e-01,-3.89155e-01,-3.10091e-01,-3.93541e-02,-8.03696e-01,-7.89942e-02,-8.72788e-03,-1.35644e-01,
3.97546e-01,2.01217e-02,-1.25123e-01,5.51055e-01,5.40703e-01,-3.60974e-01,3.98044e-02,-2.78368e-01,-2.59019e-01,4.01755e-01,
-3.39024e-01,5.51182e-02,9.43942e-04,-1.05222e-01,2.22424e-02,3.14759e-02,-1.62018e-02,-4.81118e-01,2.60353e-01,-1.21811e-01,
-4.69649e-01,2.09595e-01,-6.54088e-01,-1.66901e-01,-7.13252e-01,1.29447e-02,-2.41084e-01,-3.48413e-02,-1.14037e-01,-2.53808e-01,
6.76075e-01,-2.08256e-01,-1.95160e-01,-4.38765e-02,2.69530e-01,-3.23884e-01,-3.76991e-01,-1.35101e-01,-8.95005e-03,1.49455e-01,
1.52082e-01,1.44353e-01,2.35441e-01,-1.08272e-04,6.50858e-01,-2.88077e-01,-3.31031e-01,-4.25635e-02,-1.08147e-01,-1.65877e-01,
4.48781e-01,5.35728e-01,-1.41885e-01,-9.17414e-02,-1.11844e-01,2.78620e-01,-3.45176e-01,4.65375e-01,3.87960e-01,1.07807e-01,
-5.26573e-02,4.03115e-01,-3.25664e-01,-9.75943e-02,1.60914e-01,1.34217e-01,6.19191e-01,2.59499e-01,-2.80571e-01,-3.45470e-02,
2.98347e-01,-2.16882e-01,2.58997e-01,-4.26889e-01,2.58825e-01,8.49388e-02,-3.58682e-01,-8.03961e-02,-7.66253e-01,2.15842e-02,
-1.92288e-01,
-2.60755e-01,
1.61595e-02,
1.94283e-01,
-1.01817e-01,
-8.30687e-01,
2.58680e-01,
1.37688e-01,
-4.76709e-02,
2.48624e-01,
1.43248e-01,-2.67815e-01,1.79046e-01,2.07890e-01,-3.27103e-01,-1.82907e-01,6.48221e-01,-1.13639e-01,-1.06590e-02,-2.87493e-01,
-8.59115e-02,1.04692e-01,-1.38544e-01,1.56420e-01,5.23185e-01,2.33700e-01,-1.51148e-01,-1.43005e-01,-5.42837e-01,7.82514e-01,
3.48339e-02,4.67090e-01,2.68375e-02,1.61633e-01,5.16210e-02,4.49754e-01,-5.83005e-01,-1.20076e-01,7.67681e-02,1.82063e-01,
4.31783e-01,-1.53628e-01,-3.22507e-01,6.55665e-01,1.24284e-01,5.92917e-02,3.73237e-01,-1.21471e-01,3.14019e-01,2.22471e-01,
-4.99841e-02,2.86104e-01,-4.26362e-01,-4.07035e-01,5.50545e-01,1.01469e-01,-1.88556e-01,1.38042e-01,1.49107e-01,3.06841e-02,
-3.04912e-01,-3.18595e-01,-1.11198e-01,1.59449e-01,-2.23832e-01,1.29047e-01,6.02921e-01,2.08334e-01,-1.25864e-01,-4.69722e-01,
-3.30007e-01,1.41631e-01,1.87111e-02,5.41377e-01,1.44200e-01,4.98179e-01,2.65162e-02,4.48122e-01,1.55690e-01,-3.46623e-01,
2.94486e-01,1.05319e-01,-2.30005e-02,-1.13377e-01,2.79102e-01,2.31140e-01,-7.65605e-02,-4.21945e-02,-5.17889e-02,-4.96111e-02,
2.37671e-02,1.74711e-01,-2.84439e-01,-1.16426e-01,-1.62971e-01,5.79882e-02,-4.33482e-02,1.33843e-01,1.31800e-01,9.76605e-02,
8.12433e-02,9.78404e-02,-2.99926e-01,-4.50754e-02,5.20447e-01,1.79352e-01,1.66140e-01,3.34110e-02,-7.85567e-02,-7.04123e-02,
3.64452e-01,
-2.31777e-01,
1.36820e-02,
1.48630e-01,
-2.15859e-01,
2.02323e-01,
4.46854e-01,
-3.26074e-01,
2.91533e-01,
6.19986e-01,
2.72378e-02,2.07607e-01,-3.87272e-02,1.66881e-01,-4.52456e-01,9.80055e-03,-3.15797e-01,-1.48805e-01,-7.54367e-02,-5.37882e-02,
3.72858e-01,5.52536e-01,2.00611e-01,-5.37796e-02,1.24699e-01,-3.37909e-02,-3.34088e-01,-1.78132e-01,-5.55199e-03,-1.80911e-01,
1.24618e-01,-2.72205e-01,4.29330e-01,-2.31652e-01,-2.50711e-01,2.68658e-01,1.12873e-01,-2.69276e-01,-9.30911e-02,2.44693e-01,
-2.45985e-01,2.94938e-01,1.77033e-01,2.47506e-01,-1.53959e-01,-2.02543e-01,-7.39144e-02,-3.67886e-01,1.03942e-01,-2.38288e-01,
2.46697e-01,1.95195e-01,9.07257e-02,6.65728e-02,2.75460e-01,1.59704e-01,-1.46882e-01,4.45465e-02,-3.49161e-01,2.33350e-01,
2.07194e-01,-2.61552e-01,3.84591e-01,1.12860e-01,-1.57148e-01,-4.09092e-02,-3.30607e-02,1.02968e-01,4.82875e-01,2.96647e-01,
2.20934e-01,8.10035e-02,-1.23514e-01,8.23317e-02,-5.54171e-01,2.95951e-01,2.04643e-01,3.76666e-01,-5.83867e-01,1.38552e-01,
-2.82292e-01,-5.65853e-01,-8.99492e-02,5.17067e-01,2.12023e-01,-1.79924e-01,2.73010e-01,1.49412e-01,1.03818e-01,-2.01556e-01,
-8.69075e-02,1.92180e-02,-1.34305e-01,9.65344e-02,2.91490e-01,1.83190e-02,-3.86755e-01,-2.94574e-01,-1.49123e-01,-3.04626e-01,
-4.57119e-01,-3.35935e-03,1.53641e-01,3.28119e-01,6.21433e-02,-4.27823e-02,-1.80422e-01,2.68066e-01,-5.34561e-01,-5.99902e-03,
4.12970e-01,
1.39315e-01,
1.07071e-01,
-1.14539e-01,
-3.08610e-01,
-7.44312e-01,
-8.45620e-02,
-3.47433e-01,
-9.40451e-02,
1.92856e-01,
-6.82836e-02,-7.44189e-02,-1.33332e-01,5.01621e-02,4.93645e-01,-2.01805e-01,-2.21713e-01,7.79366e-01,-1.28008e-01,-1.80106e-01,
-3.52889e-01,6.15361e-02,3.26352e-01,-3.71083e-01,1.26026e-01,-3.82529e-01,2.43009e-02,-2.01011e-01,2.01767e-01,2.76571e-01,
-1.40435e-01,-7.96610e-02,-4.52008e-01,2.23776e-01,4.15780e-01,-1.23186e-01,-3.18161e-03,-2.02748e-02,-2.85301e-01,-4.79580e-01,
-2.22851e-01,1.61604e-02,-2.93896e-01,3.61774e-01,-1.66192e-01,-5.23123e-02,1.91391e-01,-1.70506e-01,4.72957e-01,1.98316e-03,
4.34157e-02,5.23493e-02,2.56401e-01,-1.35881e-01,-6.08095e-01,-2.93417e-01,1.76534e-01,5.66379e-01,-3.99683e-02,-1.82740e-01,
4.28565e-01,1.66505e-02,1.28219e-01,1.98486e-01,3.83754e-01,-7.24809e-02,-1.29137e-01,4.18119e-01,1.20600e-01,-1.84580e-01,
-4.66583e-01,3.42286e-02,-3.89232e-01,-4.74431e-02,6.87545e-01,7.06457e-02,-7.16973e-02,1.41245e-01,1.47561e-01,-2.94882e-01,
2.51514e-01,3.18351e-01,-6.95368e-02,-2.64357e-01,2.04036e-01,-1.15590e-01,-1.28919e-01,-2.16315e-01,-2.22273e-01,6.73744e-02,
5.68170e-01,-1.16536e-01,-6.13349e-02,-2.45921e-02,-6.12599e-02,2.94073e-01,-1.31881e-01,4.97692e-02,2.28322e-01,-8.35752e-02,
2.84120e-01,-1.74939e-01,3.01112e-01,-1.78038e-01,2.34610e-01,-9.39200e-02,-1.37982e-02,4.96431e-02,1.82444e-01,2.19195e-01,
-1.28967e-01,
1.66310e-01,
3.77092e-02,
-1.06741e-01,
-8.51819e-02,
-4.63742e-01,
1.15339e-01,
2.07328e-01,
-1.89225e-01,
2.50423e-01,
-1.36519e-01,-9.81029e-02,1.77070e-01,1.92589e-01,-1.07393e-01,2.93578e-01,-3.92928e-02,-1.28282e-01,3.54372e-02,-6.16241e-01,
5.79569e-02,-1.58786e-01,-2.36941e-01,1.60626e-02,1.57997e-01,-7.74457e-02,-9.86655e-02,-2.50693e-01,4.08958e-01,-3.72864e-02,
3.12104e-01,-2.78912e-02,-4.66237e-03,4.11733e-02,-5.54598e-02,4.00046e-01,1.95651e-01,2.65496e-01,-2.11721e-01,-6.11167e-01,
-3.24573e-01,-1.45271e-01,3.24352e-01,1.87012e-01,-2.86397e-02,-7.95271e-02,-1.29774e-01,-1.75648e-01,-4.19819e-03,4.20542e-01,
9.41313e-01,-3.91111e-02,-2.81834e-01,-5.35322e-01,-2.05706e-01,-1.37588e-02,-3.25218e-01,-3.00576e-02,5.52442e-02,-6.17379e-02,
-4.64959e-01,-3.71602e-01,-2.19815e-01,-5.10759e-01,6.70378e-02,5.11894e-01,-1.40459e-01,-1.51034e-01,-8.78461e-02,2.32479e-01,
4.00374e-02,5.89978e-01,-2.06018e-01,-2.97295e-01,-4.73493e-01,-2.32270e-01,4.80192e-02,3.28666e-01,-1.39900e-01,3.30849e-02,
2.53215e-02,8.42599e-02,5.61075e-02,2.72930e-01,6.22448e-01,5.43177e-02,2.34297e-01,-1.47487e-01,-8.34634e-01,-3.84565e-02,
-4.40470e-01,1.10936e-01,-2.74323e-01,8.38129e-02,-2.60704e-01,-4.21917e-01,-3.83828e-01,-2.37090e-01,-6.75485e-01,-8.01555e-04,
3.02750e-03,-7.32722e-02,-5.62684e-01,1.44056e-02,9.94208e-02,1.08516e-01,-3.54986e-01,-2.17407e-01,2.16504e-01,3.58827e-01,
-2.54315e-01,
-2.53734e-02,
-5.90823e-02,
-5.35174e-01,
-2.00627e-01,
7.62732e-02,
-4.41736e-01,
2.87524e-01,
4.59322e-01,
2.87350e-01,
8.44135e-02,-3.45111e-01,-1.31859e-01,5.37799e-01,-3.37023e-02,-1.99967e-01,7.01705e-02,4.41929e-01,4.11733e-01,1.90448e-01,
-3.61541e-02,-3.93733e-01,-3.50336e-02,1.76639e-01,5.27050e-01,2.80684e-01,2.57189e-01,2.61172e-01,-2.38434e-01,2.41691e-01,
-1.51713e-01,2.10286e-01,3.61785e-01,5.52605e-01,2.88058e-01,1.05195e-01,-2.20100e-01,-1.21521e-02,2.79010e-01,8.90645e-02,
-4.50878e-01,-4.68790e-01,3.62209e-01,3.36749e-01,-1.77599e-01,-1.16419e-01,-1.47608e-01,2.20572e-01,2.92192e-01,1.84208e-01,
-9.31105e-02,-2.84836e-01,3.85392e-01,-1.82138e-01,-1.87046e-01,-2.04956e-01,4.26364e-02,1.37222e-01,1.72329e-01,1.13131e-01,
-1.93506e-01,-4.09718e-04,2.82150e-01,1.49080e-02,-4.34333e-02,2.12769e-01,-2.25341e-03,4.01661e-01,2.11139e-01,-1.91856e-01,
-1.61496e-01,1.17388e-02,-1.57016e-01,4.96254e-01,1.41519e-01,-2.24459e-01,-4.52206e-01,-2.15941e-02,3.39268e-02,3.03673e-01,
-3.60117e-02,-1.32779e-02,-4.61261e-01,-5.43914e-01,2.46222e-01,1.62145e-01,3.24138e-01,2.78195e-02,-8.39838e-02,-5.11428e-03,
-1.36799e-01,1.74600e-01,-1.57876e-01,-1.70174e-01,-4.60756e-01,3.28883e-01,4.19639e-01,5.09856e-01,1.42443e-01,-2.52220e-01,
-1.50217e-01,5.55207e-01,1.82558e-01,2.61468e-01,-1.69726e-01,-1.93967e-01,-1.77731e-01,2.53373e-01,-4.70790e-02,-8.97834e-02,
1.72018e-01,
2.20114e-01,
-4.57633e-01,
-1.15433e-01,
3.87447e-02,
1.63662e-01,
-2.37171e-01,
-1.96188e-01,
9.96654e-02,
1.50094e-01,
1.08078e-02,-1.05976e-01,-2.20751e-01,-3.07780e-01,1.11396e-01,-1.18005e-01,-1.89633e-01,3.21273e-01,-3.62022e-01,-2.39818e-01,
-6.03166e-01,-9.33456e-02,-4.69410e-02,1.41588e-03,-4.45809e-02,1.53180e-01,-2.67988e-01,-2.16870e-02,-7.17035e-02,-2.89875e-01,
-1.82440e-01,4.14210e-01,-9.20769e-02,-1.92916e-01,-1.09966e-01,1.07500e-01,-1.79082e-01,-2.65276e-01,2.86019e-01,-1.56360e-01,
3.15862e-01,5.49309e-02,9.30228e-02,2.06054e-01,2.95502e-02,-3.09748e-01,9.86007e-02,-4.99858e-01,-3.50136e-01,6.21962e-01,
1.96980e-01,-2.41269e-01,5.67108e-02,-3.88393e-03,2.26028e-01,2.07456e-01,1.95027e-01,-4.26570e-01,-6.69270e-01,3.64510e-01,
-8.14879e-02,-4.10134e-02,-4.52086e-02,-1.74539e-02,2.62892e-01,-2.36464e-01,1.54801e-01,-1.53598e-01,-6.21138e-01,-2.30039e-01,
3.74916e-01,-3.37535e-01,6.42909e-02,-5.60927e-02,1.66954e-01,-1.27414e-01,3.55328e-01,-3.90240e-02,2.83035e-01,1.03165e-01,
-3.33359e-02,-4.51762e-02,9.20093e-02,-2.39258e-01,-3.13389e-01,-4.04573e-03,-1.44049e-01,1.50551e-01,1.36676e-01,-4.74063e-01,
-3.16301e-01,-1.53275e-02,-3.72217e-02,2.65240e-01,4.29749e-01,3.55898e-01,3.04000e-01,-3.40488e-01,-3.01112e-01,1.77129e-01,
-1.23930e-01,-5.68925e-01,4.30763e-01,-3.03277e-01,-4.49841e-01,8.32114e-03,-1.59818e-01,-6.81825e-02,-4.52540e-03,-1.33610e-02,
3.24409e-02,
-1.24685e-01,
3.47306e-01,
8.07078e-02,
-5.54482e-01,
9.96055e-02,
9.37267e-02,
2.84067e-01,
-1.06824e-01,
1.08216e-01,
-3.18987e-01,4.00732e-01,6.68405e-03,4.03005e-03,5.57821e-01,-1.51966e-01,-6.82325e-02,-1.13992e-01,6.71684e-01,-4.69849e-01,
-2.37091e-01,1.88767e-01,2.65896e-01,-4.98358e-01,-4.36878e-01,-1.04452e-01,1.71603e-01,1.84578e-01,-3.68709e-01,-5.45729e-02,
-1.50715e-01,1.53906e-01,-3.17725e-01,1.59255e-01,2.80462e-01,-1.39399e-01,-2.93038e-02,-2.81076e-01,-1.90182e-01,3.53710e-01,
8.79462e-02,3.98323e-02,4.28109e-01,3.51840e-01,-1.51401e-01,-2.38004e-01,-3.79034e-01,2.26415e-01,-3.42083e-01,1.64064e-01,
-5.15240e-01,-1.55325e-01,3.98930e-01,-4.54752e-01,1.07324e-01,1.71078e-02,4.56531e-01,-1.49199e-01,4.01706e-01,7.18456e-01,
4.89820e-02,4.30081e-01,-4.08498e-01,1.60118e-01,1.06695e-01,7.46899e-02,-2.62371e-01,-3.27411e-01,2.69436e-01,-1.20898e-02,
2.86813e-01,5.82669e-01,-1.82011e-01,2.54609e-01,1.11012e-01,-3.27923e-01,-1.21565e-01,-8.21202e-01,-3.04244e-03,8.69787e-02,
-1.84930e-01,-1.27023e-02,-3.32683e-01,-2.41824e-01,-3.43138e-01,3.45913e-01,1.08419e-01,3.31639e-01,3.63658e-01,3.44400e-01,
-3.09914e-01,1.52834e-01,3.21517e-01,-4.55509e-01,1.62816e-01,1.44715e-01,-2.94444e-01,3.19139e-01,-3.43481e-01,2.13801e-01,
7.35152e-02,5.21176e-01,7.58930e-02,-1.23343e-01,-1.91354e-01,-2.59179e-01,-6.59085e-01,-2.26213e-01,2.20118e-01,3.25490e-01,
4.46990e-01,
8.88033e-02,
-3.48336e-01,
-6.33402e-01,
5.15899e-02,
1.94444e-01,
-4.72753e-02,
4.86201e-01,
-1.68817e-01,
-2.23463e-01,
-1.45150e-01,-1.86524e-01,9.31102e-02,1.86037e-01,6.48826e-02,-6.41829e-02,2.28933e-01,1.20861e-01,-4.66843e-01,8.37201e-02,
-3.75261e-01,-1.71865e-02,3.13642e-01,-2.29824e-01,-4.63704e-01,-1.35178e-01,1.69254e-01,-2.27964e-04,-1.36350e-01,3.12642e-01,
3.67901e-01,2.52755e-01,5.36406e-01,3.42948e-02,1.91635e-01,4.55203e-01,-8.18809e-02,2.18766e-01,5.34101e-02,4.12595e-01,
4.07479e-02,-3.28174e-02,-3.08032e-01,-1.28809e-01,-8.60272e-02,-2.84616e-01,7.54511e-02,-5.35293e-03,-7.12794e-02,-6.08077e-01,
-1.02527e-01,1.06685e-01,-4.56374e-02,1.92706e-01,3.05897e-02,2.05755e-01,1.40805e-02,8.76764e-02,-5.82662e-01,1.48517e-01,
5.24591e-01,3.78211e-01,-5.38149e-02,1.21767e-01,-3.68353e-01,-9.77150e-02,2.76503e-01,8.14750e-02,-2.43869e-01,-1.98897e-01,
2.09194e-01,9.61317e-02,-1.05117e-01,-3.48702e-01,-3.93752e-01,-1.42715e-01,1.92993e-01,2.59980e-01,-3.21791e-01,-8.08975e-02,
7.71869e-02,6.83139e-02,-4.93029e-02,-3.71774e-02,4.05644e-01,-3.61537e-02,-5.36026e-01,-2.69163e-01,4.60351e-01,6.40666e-03,
-5.24731e-02,2.27657e-01,3.26534e-01,2.16403e-01,2.59164e-01,1.23244e-01,-3.53897e-01,1.32031e-01,-4.19416e-02,3.87891e-02,
3.12550e-01,-4.42623e-01,-3.25750e-01,-1.23251e-01,-1.63153e-02,1.39726e-01,2.40213e-01,4.23630e-02,1.48854e-01,5.54734e-02,
-2.36558e-01,
-3.74368e-01,
-5.64673e-01,
3.59671e-02,
-3.34884e-01,
4.12770e-01,
7.55463e-02,
-8.13840e-02,
5.37850e-01,
-2.31180e-01,
2.09585e-01,-2.68017e-01,2.85177e-02,-3.33557e-01,-2.61181e-01,4.54933e-02,-1.48875e-01,5.25365e-02,5.98587e-02,-2.42017e-02,
3.79154e-01,4.98856e-03,2.24314e-01,8.39791e-01,8.07075e-02,3.35331e-01,2.78500e-01,3.96795e-01,-9.09805e-02,3.66995e-01,
-3.07821e-02,3.46214e-01,-3.31751e-01,-3.80378e-01,-3.50123e-02,-2.07176e-01,-1.64763e-01,-3.14328e-01,-5.40339e-01,7.01429e-01,
5.34862e-02,-1.68144e-01,2.81498e-01,2.18631e-01,-4.36428e-01,1.49798e-01,4.01215e-01,-4.48720e-02,-1.85904e-01,2.10036e-01,
2.05719e-03,-4.30646e-01,-2.84030e-02,-2.93382e-01,-5.93754e-02,-3.60498e-01,-1.05186e-01,8.06031e-02,-3.78281e-01,-9.53452e-02,
-1.39616e-01,1.61469e-01,-4.05612e-02,5.63406e-01,1.41896e-02,-3.47133e-01,1.71220e-01,4.28647e-01,6.82278e-02,-3.46027e-02,
-2.72045e-01,-5.27614e-01,-4.38760e-01,4.49236e-01,-8.02987e-02,-3.01988e-01,-1.60077e-01,-6.74975e-02,-4.86728e-02,-4.77017e-01,
-2.18861e-01,1.03580e-01,1.70661e-01,-1.79184e-01,2.16432e-01,-2.49581e-01,1.54137e-01,1.71847e-01,2.11007e-02,-4.79428e-01,
-2.90692e-01,1.58308e-01,3.59629e-01,-1.70442e-01,-3.83693e-01,-3.03886e-01,-1.78314e-01,1.58785e-01,-2.43724e-01,-7.97174e-01,
-1.85498e-02,-3.45505e-01,-2.68153e-01,-4.93819e-01,-8.41689e-02,-3.43695e-02,3.76847e-01,-2.00781e-01,-6.69132e-02,2.47138e-01,
-1.39200e-01,
-3.31516e-01,
-1.89165e-01,
1.01224e-02,
-3.04337e-03,
2.57562e-01,
6.71693e-02,
-6.24872e-02,
3.23834e-01,
5.58924e-02,
2.62576e-01,-1.04521e-01,-8.18448e-02,1.92575e-01,-2.52823e-01,-4.07520e-01,-2.73216e-01,-4.90720e-01,-9.03370e-02,-3.88473e-01,
-1.14220e-01,-1.34438e-02,3.01642e-01,3.76340e-01,5.70129e-01,2.08917e-01,-2.86067e-01,1.87265e-01,1.62897e-01,3.24434e-01,
-1.34144e-01,3.49799e-01,1.24540e-01,3.87318e-01,-1.99074e-01,-1.75975e-01,2.03349e-01,1.88141e-01,1.46679e-01,-1.37937e-02,
-5.55146e-01,1.43792e-01,-1.16981e-02,4.83887e-01,3.56270e-01,-2.62519e-01,2.46150e-01,-2.61555e-02,2.10950e-01,1.16615e-01,
1.74539e-01,-4.24451e-01,-1.63850e-01,-1.65539e-01,3.66421e-01,-1.10820e-01,2.05869e-01,-1.04884e-01,-4.54727e-01,-1.00126e-01,
-1.06470e-01,-1.31534e-01,-5.03929e-02,2.63180e-01,-7.89202e-02,-5.10007e-01,3.73121e-01,7.79677e-02,2.02397e-01,-3.65009e-01,
-3.92063e-01,4.91877e-01,3.29439e-01,-3.16303e-01,4.87247e-03,-2.43756e-02,1.64701e-01,5.27077e-02,-3.10700e-02,2.53587e-01,
-2.13238e-01,-5.13924e-02,3.32638e-02,-1.11988e-01,-2.17526e-01,3.32105e-01,-2.18227e-01,3.74467e-01,-2.16337e-01,2.27554e-01,
3.10777e-01,2.67224e-01,-3.40742e-01,4.61354e-02,-1.04187e-01,2.22085e-01,4.91382e-02,-1.02796e-01,-1.47670e-01,5.82287e-03,
6.26745e-02,4.64373e-01,4.49860e-01,1.48015e-01,7.10031e-01,-3.50042e-02,-1.51480e-01,5.12754e-02,-2.40928e-02,-6.65747e-02,
-1.36097e-01,
4.25170e-01,
7.69377e-02,
4.58730e-02,
1.26348e-01,
-8.32995e-02,
4.85690e-01,
1.10937e-01,
3.05947e-01,
8.55177e-02,
2.78484e-02,4.00980e-01,3.22057e-01,-4.21754e-01,5.04790e-01,5.52286e-02,-3.99376e-01,-8.12124e-02,-3.92876e-02,-2.01717e-01,
2.44184e-01,-1.60412e-01,6.48244e-01,2.26926e-01,-1.07649e-01,-2.66502e-01,3.04343e-01,-2.64626e-01,-7.24906e-02,-4.06767e-01,
2.23450e-01,5.06870e-01,4.68922e-02,2.09448e-01,3.28365e-01,2.79812e-02,-5.32084e-01,3.49965e-01,2.67878e-01,2.06640e-01,
3.20680e-01,-3.60052e-01,2.42348e-01,3.59915e-01,4.88949e-02,-2.34874e-01,-4.61194e-01,3.55228e-02,-5.66424e-03,2.85527e-01,
-2.05655e-01,1.03046e-01,-6.56420e-01,1.49352e-02,2.21629e-01,1.28720e-01,8.00411e-02,-1.02862e-01,2.35306e-01,1.90909e-01,
-3.45419e-02,3.63524e-01,-1.20001e-01,2.59575e-01,-4.67480e-01,-4.58830e-01,2.59816e-01,-4.60839e-01,-1.27695e-01,-4.58604e-02,
1.84744e-01,1.43036e-01,-3.24756e-01,-4.14588e-01,2.10425e-01,-1.10422e-01,2.34082e-01,-1.04856e-01,1.56024e-01,1.79381e-01,
2.62374e-02,-6.68500e-01,-1.86693e-01,3.71176e-01,-5.13593e-02,3.85166e-01,-2.21388e-01,-1.46926e-01,-1.24825e-02,1.28335e-01,
6.21705e-01,5.78474e-01,-1.30349e-03,-3.19489e-01,2.40890e-01,-3.98456e-01,-7.95319e-02,9.06624e-02,-2.29444e-01,4.42572e-01,
3.57761e-01,8.31994e-02,5.27736e-01,-6.12491e-02,-1.56625e-01,1.50392e-01,-1.51410e-01,-1.76968e-01,-4.38804e-01,6.22179e-02,
-2.12345e-01,
-1.45466e-01,
6.35614e-02,
2.85827e-02,
-7.85123e-02,
2.30651e-01,
1.50897e-01,
1.45123e-01,
-6.60024e-02,
1.06515e-01,
1.30212e-01,-4.81703e-01,-5.14115e-01,1.68583e-02,-4.29211e-01,-2.90177e-01,2.13383e-01,-1.80206e-01,-4.86990e-02,4.19361e-01,
-4.89025e-01,-2.27168e-01,-3.53827e-01,1.15291e-01,-7.18377e-02,1.15771e-01,1.94864e-01,4.95231e-02,1.35258e-01,-4.33805e-01,
-1.21871e-02,2.74840e-01,5.77849e-01,1.09037e-01,-4.36841e-03,-1.31708e-02,-1.60036e-01,2.00482e-01,8.18536e-02,2.63962e-01,
6.08678e-01,3.63117e-01,-3.94565e-01,-1.19037e-02,2.73755e-01,7.96615e-02,3.32740e-02,-2.93868e-01,2.37329e-01,5.92159e-01,
2.43700e-01,-2.71045e-01,1.83053e-01,8.37002e-02,3.27115e-02,3.05866e-01,-4.05368e-01,8.06596e-02,-8.70338e-02,2.43201e-01,
-2.58016e-01,-3.96934e-01,2.08515e-01,6.90740e-01,-1.73086e-01,1.02228e-01,3.11562e-01,-4.31896e-01,1.58827e-01,5.03103e-01,
-1.64873e-01,1.34839e-02,2.83469e-03,1.96276e-01,-1.95283e-01,3.25703e-01,2.56573e-01,-1.24711e-01,-4.42469e-01,-9.08512e-02,
3.46048e-01,5.48095e-02,5.91875e-01,2.55604e-02,5.08220e-01,1.66639e-01,-9.43815e-02,2.02027e-02,5.34829e-02,-3.59069e-01,
-7.56325e-02,1.37073e-01,6.31955e-01,-2.65524e-03,2.00339e-01,2.78775e-01,-1.31932e-01,-1.68436e-01,1.88510e-01,-3.75313e-02,
-1.75640e-01,-6.00090e-01,-2.36939e-01,1.82262e-01,2.08558e-01,-1.25863e-01,3.77237e-02,-2.07918e-01,-1.13486e-01,7.87463e-02,
4.24234e-02,
2.10457e-02,
-2.95534e-01,
-7.31771e-02,
3.24717e-01,
-5.45187e-01,
-5.11877e-01,
5.49882e-01,
-3.28256e-01,
-2.19022e-01,
-1.26992e-02,-2.18307e-01,1.07194e-01,-2.54587e-01,-1.00257e-01,-1.04416e-01,1.21502e-01,-1.10484e-01,3.47779e-01,-4.39124e-01,
-2.82271e-01,-3.45123e-01,-1.96723e-01,-2.33710e-01,1.61599e-01,1.15670e-01,2.63670e-01,-2.02958e-01,3.76922e-01,-5.15157e-01,
6.21763e-02,-7.87432e-03,7.04535e-02,1.14774e-01,1.43035e-01,1.14970e-03,-7.55010e-02,-1.59354e-01,-2.59417e-01,2.27023e-01,
1.47141e-02,-1.43253e-01,-1.79430e-01,-8.13988e-03,-4.06513e-01,-1.64655e-01,-4.98179e-01,5.04949e-02,-1.35407e-01,-5.70612e-01,
-4.63928e-01,-2.76710e-01,9.75502e-02,3.44879e-02,-4.26058e-01,1.87971e-01,1.44054e-01,-2.47284e-01,8.95991e-02,3.72776e-01,
2.43119e-01,-5.98278e-01,-6.52130e-02,-1.66312e-01,-3.26304e-01,-1.42559e-01,4.75287e-01,-3.61802e-01,3.32511e-02,-6.84397e-02,
3.33624e-01,5.25397e-01,1.00192e-01,6.78875e-01,-1.05426e-01,-1.52854e-01,6.73349e-02,3.10590e-01,2.46629e-01,2.55175e-01,
4.83252e-01,2.66318e-01,1.61290e-02,2.59008e-01,2.28290e-01,4.65352e-01,5.71705e-02,3.18680e-01,-1.69076e-01,-2.00322e-01,
2.67806e-01,1.20894e-01,1.23539e-01,6.88765e-03,1.53861e-01,2.77191e-01,-2.37605e-01,3.86815e-01,-5.08969e-02,5.58410e-01,
1.74141e-01,-4.58280e-01,-2.70703e-01,-7.97386e-02,-2.73812e-01,-1.60440e-01,7.46622e-01,-9.71636e-02,-2.58984e-02,6.40150e-02,
1.57048e-02,
8.52062e-02,
-8.02369e-02,
1.85786e-01,
-1.86268e-01,
1.60750e-01,
1.16541e-01,
-6.15158e-02,
6.95547e-02,
5.04789e-04,
5.36118e-02,6.94471e-01,-8.70090e-02,2.92321e-01,7.55115e-01,4.87416e-02,-1.20919e-01,7.21286e-01,6.69211e-02,-1.09014e-02,
-4.51218e-01,4.09552e-01,2.68774e-01,2.90899e-01,3.30734e-01,6.14415e-01,-1.96157e-01,-2.22349e-01,-2.04988e-02,-2.23252e-01,
1.25797e-02,4.32095e-02,-7.10679e-02,1.85683e-01,2.25456e-01,4.80454e-01,-7.80124e-02,-1.53401e-01,-1.83084e-01,2.74582e-01,
5.16651e-01,-1.13558e-01,-4.05840e-02,2.29738e-01,2.73776e-01,1.80930e-01,-2.55375e-01,-3.16967e-01,-1.84212e-01,-1.63758e-01,
7.68119e-01,-4.37334e-02,2.02658e-01,-1.02966e-01,1.39080e-01,-7.40984e-02,3.36571e-01,-3.12670e-01,-6.66547e-02,-3.09923e-02,
1.18435e-01,-3.29087e-02,7.09395e-01,-2.84901e-01,6.35234e-02,-4.44557e-01,7.22589e-02,-2.57441e-01,-1.24063e-01,-3.45941e-02,
1.36721e-01,-3.14810e-01,-3.54738e-01,2.89576e-01,2.10643e-01,1.16735e-01,2.24287e-01,-1.88647e-01,-3.94677e-02,-3.04283e-02,
5.70030e-01,6.49172e-01,1.12835e-01,-1.16335e-01,2.00740e-02,-6.21424e-01,1.44737e-02,-3.49134e-01,7.56422e-02,-2.85821e-01,
-2.91498e-01,2.08331e-01,-3.65738e-01,1.79031e-01,5.63401e-02,-1.37322e-02,7.48073e-02,-1.23329e-01,3.76265e-02,2.15908e-01,
2.47204e-01,-2.46168e-02,6.70449e-01,2.52518e-02,6.61155e-02,1.68556e-01,-3.85410e-01,2.16246e-02,-2.18327e-02,5.67100e-01,
1.38978e-01,
-6.17783e-02,
-4.33757e-01,
8.90085e-02,
-3.57851e-01,
-1.44568e-01,
2.31951e-01,
-2.38426e-01,
5.60934e-02,
3.08396e-03,
1.27272e-02,-4.19740e-01,-2.12735e-01,-3.69629e-01,-2.86974e-02,-3.10218e-01,1.21074e-01,2.52009e-01,-1.49650e-02,4.32329e-01,
-1.77823e-01,2.33648e-01,-8.20357e-03,3.40169e-01,-5.89877e-01,-1.55315e-01,-2.17027e-02,9.14864e-02,3.83684e-01,3.24379e-02,
1.98512e-01,-2.58971e-01,4.01481e-01,1.63481e-01,-1.33218e-01,4.37248e-01,8.22591e-02,-2.99675e-02,2.52867e-01,-3.87124e-01,
2.22005e-01,5.33325e-01,1.61288e-01,1.99197e-01,8.97479e-02,-9.90312e-02,-3.47449e-01,3.41523e-01,-6.53881e-01,2.46865e-01,
8.09313e-02,6.39093e-01,1.51339e-01,3.19457e-01,-3.70818e-01,-7.21300e-02,4.32799e-01,7.73660e-02,7.80335e-02,-1.30552e-01,
-1.92369e-01,-1.70131e-01,3.79100e-01,1.07738e-01,1.20347e-01,6.03320e-02,-1.97450e-01,8.45866e-02,3.43961e-01,-5.28746e-01,
3.34289e-01,1.57389e-01,6.02154e-01,1.81528e-01,3.38804e-01,-8.26946e-02,-2.86637e-01,-9.42629e-02,-6.87634e-02,1.99233e-02,
9.10465e-03,2.64913e-01,-2.99738e-01,2.73549e-01,4.29385e-01,6.44483e-01,3.88003e-02,1.10602e-01,1.78838e-01,3.66370e-01,
1.57057e-01,1.77100e-01,-2.31864e-01,2.00484e-01,-1.11142e-01,-5.42725e-01,-8.33796e-02,-9.46330e-02,-1.03628e-02,1.68251e-01,
3.15674e-02,2.78750e-01,-5.58926e-02,3.66129e-01,9.06899e-02,3.71612e-02,4.79368e-01,1.81395e-01,-1.03911e-01,-1.21365e-01,
-8.08974e-02,
2.39285e-01,
-1.25467e-01,
-3.99169e-02,
-1.54400e-01,
-9.58976e-02,
-1.38911e-01,
-1.07736e-01,
3.09990e-01,
-5.53651e-01,
-4.56856e-01,9.56209e-02,-1.80999e-02,2.51008e-01,-1.90617e-01,-4.46906e-01,-4.51906e-02,2.85586e-01,-2.17518e-01,7.06750e-01,
-2.75808e-01,2.21383e-01,-1.73492e-02,-4.00188e-01,9.83866e-02,-8.97500e-02,-2.78764e-01,-4.80542e-01,-6.00861e-01,-4.45829e-02,
-7.08978e-02,-3.02329e-02,5.11122e-01,2.50583e-01,-2.96459e-01,1.15083e-01,-3.74938e-02,8.82117e-03,8.36027e-03,-1.05022e-01,
3.59323e-01,-4.83545e-01,-1.84461e-01,-1.24004e-01,4.95301e-01,2.11247e-01,-5.28106e-01,-3.18391e-01,-1.13117e-02,-2.37567e-01,
-3.71933e-01,-3.84794e-01,3.63284e-01,-4.55030e-02,-5.46906e-03,1.09086e-01,5.77136e-02,-2.68465e-01,2.96492e-01,-3.06494e-01,
4.57013e-01,-2.39972e-01,-1.87009e-01,9.45989e-02,-4.89944e-01,-1.05611e-01,4.21040e-02,-5.42390e-02,1.44598e-01,-2.56733e-02,
-4.13531e-01,-4.94600e-01,-1.70310e-01,-4.98666e-02,5.08717e-01,3.87643e-01,-2.60383e-01,3.39370e-01,6.86447e-02,-5.04537e-01,
1.02463e-01,-9.17990e-03,8.92422e-02,-5.65113e-01,-1.19140e-01,-1.45162e-01,1.04882e-02,1.01622e-01,6.21840e-01,-1.55183e-02,
4.62260e-01,-1.21855e-01,2.95668e-01,6.12008e-02,6.95888e-02,2.94609e-01,3.12100e-01,-3.27191e-01,-5.53719e-02,-3.77491e-01,
-2.01673e-01,2.49873e-01,-3.57755e-01,-1.29769e-01,3.41028e-01,4.23749e-01,-1.19484e-01,-1.09039e-01,3.15494e-01,-3.48343e-01,
-1.01186e-01,
8.48330e-02,
1.61474e-01,
3.30425e-02,
7.28161e-02,
-1.41148e-01,
-8.59547e-02,
-3.56393e-03,
-8.27123e-02,
-3.12227e-01,
-9.15149e-02,-6.33624e-01,-7.28107e-03,-4.30094e-02,-2.17122e-01,-4.49990e-01,-3.05906e-01,2.88782e-01,4.91135e-02,-5.91900e-02,
3.46573e-03,-1.95040e-01,-3.35187e-01,-6.26961e-01,6.31303e-03,-3.70066e-01,-3.79905e-01,9.73620e-03,-1.17567e-01,-5.90653e-01,
4.32142e-01,2.38990e-02,-4.08367e-01,-4.98192e-02,-8.96274e-05,4.12189e-01,1.06603e-01,-4.40547e-01,-2.40295e-01,2.34619e-03,
-6.69272e-01,-5.20688e-01,3.84728e-01,4.08695e-01,-3.56111e-01,-3.13562e-01,2.09960e-01,-5.44286e-01,1.82231e-01,-6.50473e-01,
-1.11038e-01,6.28790e-02,2.62705e-01,2.10707e-01,-3.74862e-01,4.63541e-01,-8.48339e-02,-3.40470e-01,-1.93090e-02,-4.01256e-01,
-4.00255e-02,-9.34447e-01,-1.72031e-02,3.78806e-02,2.69321e-01,5.50225e-02,-7.60865e-01,4.72395e-01,-1.32445e-01,8.74213e-02,
-5.59379e-02,-2.94979e-01,5.88673e-01,1.23829e-01,-3.01144e-01,2.51246e-01,-2.29467e-02,-1.41555e-01,-4.76821e-01,1.57532e-01,
2.49613e-02,-9.15739e-02,-4.27175e-02,-5.42914e-01,5.16092e-02,-2.60305e-01,-3.35593e-02,2.73726e-01,4.82468e-01,-1.38728e-01,
3.60982e-01,-1.27843e-01,-1.59921e-01,-1.43641e-01,-1.79643e-03,3.70603e-01,3.09620e-02,-4.52635e-01,-3.61964e-03,3.02175e-01,
-9.38545e-02,-3.02546e-01,3.41096e-01,3.81683e-01,-2.07506e-01,-1.96627e-01,6.59385e-02,1.40717e-01,1.56819e-01,1.99136e-03,
1.14167e-01,
2.91735e-01,
-5.13883e-02,
2.28493e-01,
-2.24693e-01,
-2.45404e-01,
4.21234e-02,
-1.09216e-01,
-3.17883e-01,
2.86586e-01,
-1.83980e-03,4.75282e-01,-3.69234e-01,2.09016e-01,2.32807e-01,-2.26076e-02,-5.19677e-01,-2.35194e-01,-1.83358e-01,2.91223e-01,
5.27080e-01,-1.57031e-01,-1.94580e-03,6.47038e-01,2.23304e-01,4.47655e-02,-1.36534e-01,5.65493e-02,8.76106e-02,2.86711e-01,
1.49097e-02,-7.11874e-01,-1.67183e-01,2.73825e-01,2.70347e-01,-1.98469e-01,3.78646e-01,-1.91118e-02,-2.63103e-01,-1.25677e-01,
1.35784e-01,2.80799e-01,8.51229e-01,-9.78008e-03,2.18175e-01,-7.39395e-02,1.67607e-01,-3.76225e-01,4.07676e-01,-1.43770e-01,
2.65554e-01,-6.27807e-01,-2.44710e-01,-5.03040e-01,-1.26428e-02,-1.28276e-01,2.76483e-01,1.69543e-01,-2.52620e-02,3.89369e-02,
-3.26269e-01,2.83287e-01,1.56402e-01,5.07299e-01,-6.53659e-02,2.47746e-01,-1.51131e-01,-2.75836e-01,1.54963e-01,-3.29389e-01,
2.48232e-01,9.97909e-02,-1.39095e-01,2.54087e-01,-4.23652e-01,1.58979e-01,-3.46179e-01,-6.45000e-01,1.37303e-01,1.24595e-01,
-3.08476e-01,9.52998e-02,-3.77889e-01,1.25967e-02,9.91866e-03,1.88860e-01,-1.72721e-01,4.33258e-02,-2.00355e-01,1.42659e-01,
6.06698e-02,-1.33157e-01,-4.36015e-01,2.39950e-02,-1.03134e-02,5.56182e-01,-6.57318e-02,-2.23210e-01,-2.33118e-01,-5.21078e-01,
-3.06891e-01,2.65669e-01,-5.30359e-02,2.85474e-01,-1.21539e-01,3.80699e-01,-1.18587e-01,-3.21881e-02,-3.12544e-01,-6.23997e-02,
1.13940e-01,
-1.81710e-01,
1.15124e-01,
-1.14955e-01,
8.02420e-02,
-2.31010e-01,
-3.82497e-01,
-2.47572e-01,
3.25607e-02,
5.99225e-01,
1.95018e-01,1.03720e-01,-3.99745e-01,5.65492e-02,5.59328e-01,1.68613e-02,-1.09235e-01,4.90065e-01,-4.36296e-02,1.33648e-01,
-2.56247e-01,-2.09493e-01,3.09320e-01,-8.79712e-02,-5.76413e-02,-9.94503e-02,2.80132e-02,1.49706e-01,1.97259e-01,-1.38323e-01,
1.86640e-01,-2.08726e-02,-2.40100e-01,-1.96234e-01,2.74027e-01,2.40527e-01,-3.25734e-01,1.17960e-01,-2.24374e-01,6.68282e-02,
-4.17532e-01,-3.35732e-01,-2.36122e-01,-2.13820e-01,-1.18976e-01,-3.63813e-01,-1.88374e-02,-2.26694e-01,-1.39574e-01,1.65091e-01,
4.22781e-02,3.14459e-02,3.66658e-01,-8.68240e-02,5.28820e-01,-2.78458e-01,-1.71859e-01,2.70352e-01,2.32287e-01,-1.31282e-01,
4.58375e-01,-4.25853e-01,2.12003e-01,-1.54925e-01,-1.62202e-01,1.25292e-02,7.82252e-01,5.50699e-01,-9.77321e-02,1.28601e-01,
5.75536e-02,-4.28289e-01,9.87544e-02,4.04588e-01,-2.83519e-01,1.07665e-01,-1.12606e-01,4.86279e-01,1.62676e-02,-5.83180e-01,
4.48869e-01,-4.19309e-01,8.48205e-02,1.96951e-02,-4.49116e-01,-2.74749e-01,3.98780e-02,-1.77610e-01,-8.46419e-02,-4.26464e-01,
-2.49939e-01,6.27582e-02,3.86751e-01,1.03018e-01,-2.62181e-01,2.51317e-01,1.34814e-01,-2.23071e-01,-2.89030e-01,-3.37409e-01,
-4.92992e-01,-1.97825e-02,-5.22409e-01,4.42248e-01,-4.58165e-02,3.63446e-01,6.88057e-02,1.83026e-02,-1.16205e-02,-1.80777e-01,
3.59510e-01,
7.89177e-02,
2.29721e-01,
2.97239e-01,
6.89761e-02,
1.14400e-01,
2.41651e-01,
4.48574e-01,
3.70735e-01,
-5.75345e-02,
2.60557e-01,8.43300e-02,-1.01316e-01,1.89281e-02,-2.60153e-01,-2.75025e-01,-7.75146e-01,1.25349e-01,-5.22737e-01,-1.14544e-02,
-1.44875e-02,-3.22785e-01,-3.52221e-01,6.92809e-03,-1.51559e-01,2.06140e-01,3.07665e-01,2.94943e-01,-1.80786e-01,2.47434e-01,
2.99609e-01,-3.83295e-01,2.49481e-01,-1.40173e-01,-5.35452e-01,-2.96245e-02,5.28132e-01,1.77861e-01,-2.32149e-01,-2.92401e-01,
2.29529e-01,-2.22042e-01,5.89592e-01,-4.11646e-02,-7.08118e-02,-1.69669e-01,2.47873e-03,-1.61582e-02,-4.39506e-01,-1.53272e-01,
4.03597e-01,-7.83917e-01,-1.15745e-01,3.16363e-01,1.79121e-01,1.82586e-01,3.03327e-01,-1.27739e-01,3.91758e-01,1.60808e-01,
-2.82884e-01,-1.93750e-01,7.21053e-02,-1.30211e-01,5.19703e-01,-2.96845e-02,4.15708e-01,4.53281e-01,3.60819e-02,6.35173e-02,
-4.37476e-02,1.34201e-01,-2.04885e-01,2.28055e-01,-2.82470e-01,-2.77083e-01,-2.78039e-01,-1.67612e-01,-9.19060e-02,3.38318e-01,
5.39588e-01,-4.68426e-02,-3.37941e-01,1.61550e-01,-2.03013e-01,1.73844e-01,4.07736e-01,5.06980e-01,1.86674e-01,-1.51305e-01,
-2.97308e-02,-1.26180e-01,2.37351e-01,-5.47061e-01,2.40183e-02,-1.69715e-02,-6.03066e-02,-5.50376e-01,4.33049e-01,3.39549e-02,
-1.43992e-01,2.13791e-01,-1.74930e-02,-3.49503e-01,2.12579e-01,-2.31448e-01,8.24441e-02,-2.43957e-01,-2.58896e-01,5.59430e-01,
3.05685e-01,
1.01381e-01,
-4.66423e-02,
-2.52431e-01,
1.94239e-01,
4.58328e-02,
9.45814e-02,
6.12413e-01,
-1.68224e-01,
-2.41027e-01,
1.82224e-01,-2.55056e-01,-3.63128e-02,4.17452e-02,3.61650e-01,1.40290e-01,6.42435e-02,-6.80430e-02,-9.45137e-02,4.21931e-01,
8.23793e-02,-6.77030e-03,3.23314e-01,1.23442e-01,-1.60067e-01,-3.93594e-02,-3.01811e-01,3.50429e-01,2.31375e-01,-8.82315e-02,
6.75448e-03,-6.90617e-02,-3.86235e-01,-5.97480e-01,-1.84679e-01,-1.43611e-01,-2.07530e-02,1.05079e-01,3.88188e-02,1.52757e-01,
-2.13775e-01,1.60956e-01,1.02125e-01,-3.46045e-02,5.82861e-02,-2.23906e-01,-2.32965e-01,1.43764e-01,4.11041e-01,-1.20058e-01,
5.84141e-02,1.08872e-01,-2.70666e-03,2.34516e-01,2.17641e-01,1.71244e-01,5.19339e-01,-8.31808e-02,-1.21688e-02,-4.71307e-01,
5.68030e-02,9.38582e-02,-4.00701e-01,-3.60593e-01,9.60604e-02,2.91795e-01,-2.69816e-01,-1.00248e-01,4.03948e-01,-7.83503e-02,
-1.16211e-01,-2.05283e-01,2.01850e-01,-2.72944e-01,-2.16101e-01,1.79616e-01,4.36816e-02,2.38268e-01,-1.86110e-02,4.37166e-02,
7.94432e-02,-3.40188e-02,3.67291e-01,-3.74256e-01,-1.74687e-02,1.52439e-01,5.01398e-02,-1.22965e-01,-9.59737e-02,1.05299e+00,
-1.00533e-02,2.83749e-01,-3.26015e-01,-2.77577e-01,4.84594e-01,-2.26980e-01,1.60739e-01,7.48355e-01,1.41152e-01,-3.55337e-02,
-3.72061e-01,5.97005e-01,-3.34738e-01,-3.41333e-01,9.33285e-02,1.93234e-01,-1.71125e-01,-2.49370e-01,-4.51464e-02,-3.44148e-01,
-1.07845e-01,
-1.56812e-01,
-3.17241e-01,
1.40127e-01,
6.28771e-01,
3.62979e-01,
-2.94337e-01,
2.20258e-02,
-9.43732e-02,
2.40934e-01,
6.16875e-01,-3.01267e-02,5.70300e-02,-5.20353e-03,-3.55697e-01,7.69248e-03,-5.69854e-01,4.45841e-01,4.47306e-02,1.45630e-01,
2.90905e-01,3.86126e-01,-3.08521e-01,-4.67245e-02,5.44637e-02,6.30721e-01,-2.89483e-01,1.62704e-01,-1.56013e-01,-1.91499e-01,
1.25368e-01,-2.54242e-01,3.36432e-01,7.68472e-02,-1.57731e-02,6.29756e-02,-1.71989e-01,-7.39459e-01,-2.13683e-01,-2.33453e-01,
-2.26164e-01,-6.66101e-01,7.58943e-02,3.66970e-01,2.84951e-02,-2.62101e-01,-4.19097e-02,4.88496e-01,1.17418e-01,4.27674e-02,
-5.40000e-01,9.90166e-02,-3.96461e-01,4.37396e-02,-9.93877e-03,1.46537e-01,1.28080e-02,-1.52393e-01,3.22599e-01,-3.39638e-01,
-1.66121e-01,-3.33210e-01,8.63843e-02,-3.66090e-01,-7.96662e-02,3.44263e-02,-2.77202e-01,-5.49768e-01,4.10254e-01,6.12373e-01,
6.70814e-02,4.20261e-01,8.50399e-02,6.12636e-02,-2.18771e-01,1.79685e-01,1.31100e-01,1.92244e-01,-1.00349e-02,-2.81518e-01,
-1.90019e-01,-2.83068e-01,-1.89135e-01,-4.38571e-01,1.22227e-01,-1.58954e-01,8.54747e-02,-7.16184e-02,2.93736e-01,4.69742e-01,
-2.33515e-01,3.93407e-01,2.20829e-01,5.08028e-01,1.63562e-01,3.13015e-01,-4.13524e-01,-2.05705e-01,-6.33121e-02,-5.14860e-01,
1.66003e-01,2.06233e-01,-3.20800e-01,1.53778e-01,-1.98524e-01,-1.57003e-01,3.02025e-01,-8.08133e-03,-1.26614e-01,1.16491e-01,
1.35517e-01,
-6.79130e-02,
-6.93487e-03,
-2.20473e-01,
1.51672e-01,
3.31917e-01,
3.14109e-01,
-2.26956e-01,
-1.87443e-01,
6.52320e-01,
-3.86485e-01,1.03265e-01,6.68635e-02,-1.82255e-01,-2.93591e-01,8.90533e-02,-2.06616e-01,2.05895e-01,-6.36034e-01,4.71573e-01,
-6.99609e-02,-3.87220e-02,9.04649e-02,-2.45820e-01,-2.97928e-01,4.75372e-01,-2.00842e-01,-1.54005e-02,7.83687e-02,-4.66711e-02,
-1.06682e-01,-1.69206e-01,4.89169e-02,3.31295e-01,1.15859e-01,9.29769e-02,-6.44697e-02,-3.34822e-02,7.59830e-02,-2.26775e-01,
5.99168e-02,1.25956e-01,2.61107e-01,2.82012e-01,3.22888e-01,5.98655e-02,-5.50768e-02,-3.02128e-01,2.58254e-02,2.76439e-02,
1.83444e-02,-1.81809e-01,1.34680e-01,-7.13557e-02,1.71614e-01,2.16331e-01,-9.79770e-02,1.48393e-01,-1.31059e-02,-5.92723e-01,
2.16473e-01,4.33474e-01,1.07725e-01,2.26800e-01,-3.88758e-02,5.55874e-02,8.84535e-02,-2.05429e-01,-3.27155e-01,2.53620e-01,
1.23959e-01,-4.54113e-01,2.54479e-01,1.05616e-01,-3.25753e-02,-1.17752e-01,-7.67115e-01,1.51745e-01,3.02469e-02,-1.75098e-01,
-1.92390e-02,-1.17985e-01,-1.79383e-01,-7.66944e-02,3.53224e-01,-1.75201e-01,-3.80108e-02,-3.77004e-01,-3.09742e-01,-1.65729e-01,
2.97168e-01,6.60150e-02,2.99896e-01,-7.69567e-02,-5.66621e-02,1.33866e-01,-3.66465e-02,-1.80338e-01,-1.49042e-01,6.34939e-01,
-3.21621e-01,-1.85843e-01,1.40835e-02,5.45733e-02,-2.64160e-01,-1.28354e-01,2.72923e-01,-2.71747e-01,-5.23179e-02,2.61930e-01,
-5.47693e-01,
-2.01031e-01,
-5.33626e-02,
2.26071e-01,
-2.36563e-01,
3.32521e-01,
9.35877e-02,
-2.17318e-01,
5.16504e-02,
3.68979e-01,
2.17171e-01,6.03730e-01,-5.00303e-03,8.20018e-02,8.09456e-02,-9.50181e-02,-3.58092e-01,-1.82928e-01,-1.85733e-01,-2.48174e-01,
4.10229e-01,2.64654e-01,-5.51715e-02,3.08703e-02,2.02375e-01,7.90284e-02,3.14329e-01,3.47662e-02,4.86009e-01,2.02266e-01,
-3.07020e-01,-1.89105e-01,2.15522e-01,-2.13605e-02,2.83347e-01,6.09656e-02,-4.83598e-01,2.33032e-01,-2.35263e-01,3.37038e-01,
-2.02604e-01,-6.09324e-01,5.97179e-03,4.00446e-01,7.32738e-01,1.81386e-01,2.23436e-02,-2.80655e-01,-1.03487e-01,1.94744e-01,
2.62582e-01,-7.68308e-01,1.68654e-01,-3.57854e-01,-1.55439e-01,5.37342e-02,3.27258e-01,-2.89606e-01,3.83555e-01,-5.47847e-01,
-6.27955e-02,1.75473e-01,-2.55467e-02,-1.87037e-02,-2.99773e-01,-3.85542e-01,-3.05387e-01,-9.75589e-02,1.63045e-01,-1.50646e-01,
-1.34361e-01,3.19271e-01,-1.05306e-01,-5.39498e-02,4.49368e-01,-6.55903e-01,-1.71059e-01,2.20316e-01,5.98213e-01,2.17891e-01,
2.64556e-01,2.90979e-02,-1.16473e-01,1.50610e-01,2.95065e-01,9.41223e-02,-7.79321e-02,3.99484e-01,-2.17048e-01,1.61876e-02,
2.54603e-01,-2.13435e-01,1.80235e-01,2.37564e-01,1.18122e-01,-6.02518e-02,1.07062e-01,4.29253e-01,2.38027e-01,-4.21390e-01,
2.47365e-01,-2.91609e-01,4.44214e-01,-2.25570e-01,-3.42162e-01,2.82099e-02,-5.47510e-02,4.43286e-01,1.89178e-01,4.92593e-02,
1.90296e-01,
7.80787e-02,
-5.46846e-01,
8.51449e-03,
5.36984e-01,
1.36566e-01,
-2.43538e-01,
-1.72254e-01,
-1.48686e-01,
-4.38607e-02,
3.40396e-01,7.64603e-03,-2.76149e-01,-1.39815e-01,1.25423e-01,-1.54062e-01,-2.59203e-01,8.60031e-02,1.30624e-01,-2.03776e-01,
-1.92843e-01,-4.48049e-01,-1.76466e-01,-2.45565e-01,1.46091e-01,4.55741e-02,4.24732e-01,-2.75690e-01,-8.84939e-02,-1.67355e-01,
4.68276e-01,-7.21076e-02,-8.71621e-02,2.30233e-01,-2.64131e-01,3.28275e-01,1.10683e-02,5.02639e-02,-4.00743e-01,1.08136e-01,
1.71634e-01,-1.45401e-01,1.67843e-01,8.86593e-02,-3.09671e-01,-3.01616e-01,-6.20131e-01,1.09121e-01,8.54927e-04,4.05175e-01,
1.99129e-01,-1.79836e-01,-1.13143e-01,-2.12826e-01,6.67410e-02,3.17624e-01,-4.65640e-01,2.82628e-01,3.14076e-02,-3.13536e-01,
1.06449e-01,4.66822e-01,3.66524e-01,-6.32302e-02,1.02532e-01,-5.81224e-01,2.91672e-01,-4.08136e-01,-1.40440e-01,-2.90185e-01,
4.63796e-01,-5.16425e-01,-1.00909e+00,4.00278e-01,-1.58543e-01,-6.19853e-02,-4.81660e-02,2.10869e-01,2.38495e-01,-5.61017e-01,
-1.30508e-01,-7.53224e-02,1.26236e-01,2.25226e-01,-8.24638e-02,-3.13679e-01,-2.17468e-01,-4.54708e-01,-7.91246e-02,-2.45804e-01,
-1.47015e-01,-2.49350e-01,2.99335e-01,6.15100e-01,-3.69541e-01,-3.01109e-01,1.43027e-01,4.72608e-02,2.57669e-01,-1.96445e-01,
-2.45859e-01,-1.41674e-01,-1.51526e-02,-1.65674e-01,4.36444e-01,-9.16967e-02,1.02394e-01,-5.71439e-01,2.16482e-01,-2.78046e-01,
-3.22043e-01,
2.38711e-01,
3.97062e-02,
-7.44932e-01,
-2.27633e-01,
2.64251e-01,
3.85434e-01,
5.09421e-02,
4.20382e-01,
-1.15111e-01,
1.98974e-01,-3.86807e-01,8.89092e-02,-2.17719e-02,1.01619e-02,-1.01234e-01,-5.81175e-02,1.04129e-01,3.15762e-01,1.76581e-01,
7.44934e-02,8.39303e-01,-2.70998e-01,1.34433e-01,2.53093e-01,-1.07277e-01,-9.30255e-02,4.62237e-02,-1.75154e-01,2.32465e-01,
2.47277e-01,2.28432e-01,-3.46182e-04,1.74615e-01,-3.90851e-02,-1.61321e-01,8.07175e-02,-6.19588e-03,7.87559e-02,1.82229e-01,
-3.31707e-01,-1.24307e-01,-3.61336e-01,4.05172e-01,4.92247e-01,-1.11715e-01,4.85651e-01,1.53969e-01,-5.91064e-03,-3.88344e-01,
-3.48953e-01,-8.93339e-02,-1.91679e-01,-8.04310e-02,1.34497e-01,-3.12748e-01,-4.52746e-01,1.66362e-01,8.51308e-02,3.78834e-01,
-1.32846e-01,2.21368e-01,-1.82642e-01,-5.45779e-01,-1.87800e-01,3.86840e-01,-1.68065e-01,-3.23251e-01,-3.32564e-01,5.80610e-01,
-9.35509e-02,-2.18744e-01,9.01060e-02,-4.89040e-01,2.30286e-01,-5.06410e-01,-3.13347e-01,3.01617e-01,2.98646e-01,-3.37676e-01,
6.24636e-01,-4.09488e-02,1.51707e-01,3.03559e-01,-3.07329e-01,-2.48528e-01,-2.84018e-01,-2.85857e-01,4.99702e-01,3.61501e-01,
-3.49602e-01,1.83487e-01,-4.16082e-02,4.01188e-01,3.74231e-01,-4.81961e-01,-2.50747e-01,4.97703e-01,-3.11483e-01,-7.00399e-02,
-3.82215e-01,-2.45545e-01,-1.08744e-01,-4.14464e-02,1.18160e-01,-2.59799e-01,4.55249e-02,3.35970e-02,1.22151e-01,1.95259e-02,
6.95543e-02,
1.05713e-01,
-2.35573e-01,
-5.26795e-01,
3.13093e-01,
-8.54158e-02,
-3.35192e-01,
1.12135e-01,
3.51054e-02,
2.99225e-01,
1.37004e-01,5.14789e-01,2.06012e-02,-1.97233e-01,-1.31369e-01,1.21362e-01,4.61103e-01,-4.02101e-01,-1.05481e-01,-4.08554e-01,
2.49376e-01,-1.23541e-01,2.06931e-01,-1.14283e-01,2.06994e-01,-3.08982e-01,-2.56741e-01,3.41482e-01,2.19974e-01,2.49437e-01,
1.02828e-01,-3.16863e-01,-4.21708e-01,4.52248e-01,3.07426e-01,2.92617e-01,-1.93244e-01,5.60707e-01,-1.02491e-01,-3.77778e-01,
1.66898e-01,5.23552e-02,-2.77695e-01,-1.44708e-02,3.71225e-01,1.00365e-01,-5.35849e-02,1.21225e-01,5.08842e-01,1.14632e-01,
2.63937e-01,1.91665e-01,5.74538e-01,3.26863e-01,-1.17497e-01,-1.67647e-01,3.36269e-01,9.29637e-02,-2.84615e-02,-7.13937e-02,
2.90029e-01,-2.56542e-01,3.76170e-01,-4.05947e-01,-2.61075e-01,-1.60535e-01,4.47039e-03,4.04558e-01,3.11280e-01,4.26220e-02,
-4.85795e-01,1.96771e-01,-9.17917e-02,-2.28863e-01,3.07623e-01,1.62103e-01,-1.34872e-01,-1.46455e-01,-2.04231e-01,1.24933e-01,
1.43769e-01,3.13239e-01,-1.63107e-01,5.26847e-01,5.49823e-02,-1.73066e-01,7.43436e-02,-1.28477e-01,1.00911e-01,1.97358e-01,
-6.44570e-01,-8.13374e-03,1.55716e-01,1.85084e-01,-5.87197e-01,2.19879e-02,-1.30050e-01,-9.99746e-02,6.61888e-01,-1.05306e-01,
1.28336e-01,1.04530e-01,-4.48445e-02,-2.49448e-01,-5.12248e-01,3.70037e-01,1.30545e-01,-1.56358e-02,2.30812e-02,2.79874e-03,
-5.22460e-01,
-1.91978e-01,
1.98492e-01,
3.89598e-02,
-7.09379e-03,
-3.08492e-02,
-4.76550e-01,
-1.18709e-01,
1.37387e-01,
-2.85158e-01,
9.92565e-02,-1.95229e-01,-6.40527e-01,9.01163e-02,3.39267e-01,-2.06215e-02,-5.27068e-02,2.65059e-01,-2.76199e-01,2.81552e-01,
-3.15213e-02,2.15267e-01,-1.51904e-01,4.46424e-01,1.66562e-01,4.69735e-01,-2.90862e-01,-6.42467e-02,-1.72714e-01,-3.40043e-01,
-7.07249e-01,1.51242e-01,1.34966e-01,-1.61842e-01,1.41256e-01,-2.19350e-01,6.96211e-02,1.52623e-01,-2.57235e-02,5.66662e-01,
-5.62593e-01,1.76680e-01,3.24670e-01,4.54820e-01,4.69999e-01,-2.27373e-01,3.75803e-01,2.74051e-01,-7.43893e-02,-1.00378e-01,
6.26872e-01,-7.81304e-02,6.11492e-01,9.72372e-02,8.54322e-01,3.52983e-01,2.30301e-01,7.69139e-03,-3.11345e-01,7.09185e-01,
-1.46809e-01,1.32484e-01,5.50103e-01,-9.42890e-02,2.55125e-01,-1.23417e-02,3.64399e-02,5.68046e-02,9.43190e-02,-1.21724e-01,
-7.20338e-02,-4.19162e-02,-3.19949e-01,2.78528e-01,-7.86485e-02,-2.29988e-01,-4.11248e-01,-2.32441e-01,-3.68401e-02,-6.84737e-01,
2.03254e-02,5.09537e-02,3.83046e-02,-1.70375e-01,-3.71164e-01,1.73383e-01,-4.82494e-01,-8.24992e-02,-3.78404e-01,4.16969e-01,
4.63902e-01,-1.95804e-01,-1.33891e-01,3.17670e-01,-1.65161e-01,2.36151e-01,-1.85694e-01,3.49201e-01,-2.37474e-01,-8.17952e-02,
4.52329e-01,1.72687e-01,3.29721e-01,1.73977e-01,1.52129e-01,-2.15961e-01,4.71545e-02,8.44804e-02,4.82388e-01,-2.36526e-01,
1.56223e-01,
-8.53297e-02,
-1.91695e-01,
3.93899e-03,
-1.20280e-01,
-1.06681e-01,
-3.07940e-01,
-3.65896e-01,
-1.89561e-01,
7.55384e-02,
2.32496e-01,-4.58665e-01,2.46887e-01,1.56061e-02,3.57713e-01,-9.19560e-02,1.94373e-02,1.15611e-01,-3.20795e-01,2.47632e-01,
-1.73218e-01,1.20697e-01,-4.74988e-01,5.59169e-01,-2.11721e-01,4.19773e-01,-2.88112e-02,-5.67232e-01,-5.20245e-01,9.03050e-02,
1.06745e-01,-3.74200e-01,-1.31288e-01,2.48456e-01,-2.71124e-01,-5.19227e-01,2.53771e-02,1.91335e-01,-4.64979e-01,-2.80844e-01,
-6.79030e-02,7.88623e-02,-3.35887e-01,1.00651e-01,1.18153e-01,-1.86275e-01,5.21277e-01,-1.95320e-02,-2.32522e-01,-3.48947e-01,
-2.55264e-01,1.64428e-01,2.45926e-01,2.76887e-01,2.17226e-01,2.40934e-01,3.65514e-01,-5.19458e-02,-7.78642e-02,2.69139e-01,
-6.45608e-03,-5.30773e-02,-4.06015e-01,-1.70656e-01,3.93137e-02,-1.82322e-01,2.24701e-01,-7.74169e-02,3.50243e-01,3.02409e-01,
-1.59431e-01,2.18888e-01,-1.37762e-01,-4.31648e-01,7.01833e-02,1.57959e-01,7.98577e-02,-2.06470e-01,2.56058e-01,1.42420e-01,
-1.55512e-01,-2.63699e-01,-1.33613e-01,2.36295e-01,-3.36826e-01,-3.66653e-01,-2.55850e-01,-9.06355e-01,9.25454e-02,2.37857e-01,
-5.36542e-01,-4.10366e-02,-2.31990e-02,1.56969e-01,5.40911e-03,1.76346e-01,1.15818e-01,-5.23896e-01,-1.73180e-01,-3.69319e-01,
6.56290e-01,1.14670e-01,-1.34899e-01,-3.45286e-01,-2.59817e-01,2.72639e-01,-2.43782e-01,1.07664e-01,-1.17303e-01,3.93782e-01,
9.29647e-02,
-6.10016e-01,
1.18849e-01,
-1.57768e-01,
-9.46099e-02,
-1.98348e-01,
-8.51095e-02,
-2.88892e-01,
7.73864e-01,
3.16550e-02,
2.01581e-01,1.73614e-02,-3.83023e-01,4.71036e-01,-3.85083e-01,2.23604e-02,1.35333e-01,-8.84401e-02,2.67310e-01,-1.37533e-01,
-4.78150e-02,2.50496e-01,-1.54993e-01,-8.69029e-02,-4.78986e-02,-3.29878e-02,-2.62132e-02,-2.15952e-01,5.83141e-02,-2.95144e-01,
-2.42951e-01,9.78002e-02,-2.23842e-01,1.16401e-01,3.56728e-01,-3.12011e-01,-1.44315e-01,-3.70222e-02,-1.67985e-01,3.85607e-02,
-4.67446e-01,2.95070e-01,-1.25321e-01,3.36582e-01,-6.37748e-01,2.97403e-02,-3.33170e-01,1.60987e-01,-1.70114e-01,4.32677e-01,
-3.26230e-01,-1.80158e-01,-3.51452e-01,1.61424e-01,-1.21962e-01,-8.33338e-02,3.79575e-01,-2.08878e-01,1.93719e-01,-1.32511e-01,
2.96495e-02,-3.03123e-01,3.59458e-02,-1.87107e-01,-6.67065e-02,3.13047e-01,-4.26918e-01,5.94337e-02,-2.44799e-01,-1.58930e-01,
2.59919e-01,2.50992e-01,-4.45697e-02,2.20212e-01,3.64031e-01,-7.73170e-01,-1.17362e-01,5.59334e-01,-1.15729e-02,5.62422e-01,
-9.44905e-02,-3.82885e-01,5.67319e-02,2.96497e-01,5.80965e-02,1.13447e-01,-5.41328e-02,-3.29695e-01,-3.86273e-01,4.51893e-01,
4.84066e-02,3.52718e-01,-4.09955e-01,-4.07254e-01,-1.58985e-01,3.41422e-01,-2.04730e-01,2.21614e-01,2.84295e-02,-1.53195e-01,
5.26678e-02,-4.60391e-01,-1.35465e-01,-3.51843e-01,-5.85743e-01,8.13156e-02,-3.96462e-01,4.03942e-02,-1.87025e-01,6.05006e-02,
-6.07836e-02,
-1.35193e-01,
-2.62567e-01,
5.34079e-01,
-5.21819e-01,
-1.46017e-01,
2.82452e-01,
-9.11224e-02,
1.45528e-01,
-3.67889e-03,
3.19982e-01,-3.27338e-01,-5.97931e-02,-1.59569e-01,-2.19916e-01,-2.03851e-01,-1.39723e-01,-3.52764e-02,-4.72978e-01,-4.31110e-01,
-4.05797e-01,-8.66150e-02,1.07906e-01,6.43932e-02,3.62589e-02,1.88659e-01,2.30266e-01,-1.99149e-01,5.67137e-01,-1.87350e-03,
4.68283e-01,-1.45560e-01,4.80568e-01,5.92830e-02,7.31648e-02,6.94219e-01,3.20540e-01,1.54318e-01,-1.84843e-01,2.03436e-01,
2.43301e-01,4.08067e-02,1.71960e-01,-4.27849e-01,2.60525e-01,1.48944e-01,4.10036e-01,2.19977e-01,5.37862e-01,3.72626e-01,
1.12716e-01,-3.69989e-01,-2.02845e-01,4.32111e-01,4.34099e-01,1.54799e-01,5.63415e-02,2.21782e-01,-1.89209e-01,-1.84479e-01,
1.75163e-01,-1.62634e-01,-1.49683e-01,1.73601e-01,4.48246e-02,-1.01930e-01,-3.67193e-01,-1.57971e-01,-3.36209e-01,-3.20686e-01,
7.56157e-02,2.34635e-01,-4.64059e-02,3.73556e-01,-3.08355e-01,-7.35309e-02,3.07379e-01,5.29208e-01,8.62762e-02,-5.26920e-01,
8.59898e-02,1.20595e-01,-8.02426e-02,4.90933e-01,2.12738e-01,1.77843e-01,-1.08609e-01,2.16760e-01,2.38367e-01,2.40434e-01,
-1.71630e-01,-2.38908e-01,5.61628e-02,2.25746e-01,2.83269e-01,2.48686e-01,6.06825e-02,-4.54287e-01,-1.33549e-02,4.67938e-02,
-4.56188e-01,-4.38578e-01,-3.96531e-01,6.42212e-02,4.08790e-01,-4.42251e-01,1.31015e-01,2.00753e-02,-1.57416e-02,-1.06463e-02,
4.14900e-01,
1.66745e-02,
-3.86061e-01,
-2.36454e-01,
-1.82664e-01,
1.66724e-01,
4.88756e-01,
4.10819e-01,
-1.66090e-01,
1.84378e-01,
1.37457e-01,7.18230e-01,-4.05489e-01,3.01924e-01,1.98748e-01,-2.63432e-01,-3.55254e-01,-1.78897e-01,-3.19529e-01,-1.89496e-01,
-2.21506e-02,1.13333e-01,4.42532e-02,6.31709e-01,3.55361e-01,1.96413e-01,3.85218e-01,-3.81642e-01,1.85645e-01,2.08109e-01,
3.00549e-01,-3.26465e-01,2.71016e-01,-4.67161e-02,6.52246e-02,1.79095e-01,-2.27816e-01,1.53870e-01,-3.56201e-02,3.08470e-01,
2.93821e-01,-2.43617e-01,-1.04318e-01,-5.32844e-01,4.05904e-02,1.83056e-02,-3.11062e-01,1.62754e-01,-7.56090e-02,-3.41278e-02,
-1.32349e-01,-1.42185e-01,-2.15292e-01,3.96941e-01,-9.95342e-02,3.79193e-01,-7.35065e-02,-2.69145e-01,-2.40769e-01,-8.09319e-02,
2.94491e-01,6.70393e-02,-9.45714e-02,5.39282e-02,-1.96674e-01,-8.03323e-02,-5.44936e-01,-1.22792e-01,1.34980e-01,-2.01788e-01,
-1.19790e-01,2.07198e-01,1.15402e-02,-2.06567e-01,5.18464e-01,-2.07203e-01,1.67584e-01,-2.23409e-01,-8.45784e-02,2.47504e-01,
-3.00039e-01,7.87249e-03,1.92755e-01,-2.46487e-01,1.55363e-01,3.24093e-01,-1.61791e-01,-1.93368e-01,3.57568e-01,-1.36651e-01,
-6.81450e-02,-3.12523e-01,9.60674e-02,-1.83252e-01,-3.77090e-01,-5.49788e-01,1.22062e-01,-1.61237e-01,1.03568e-01,-8.72853e-02,
-2.95880e-01,-3.12123e-01,-4.99123e-01,-1.96685e-02,-1.14720e-01,-3.57599e-01,-1.09259e-02,4.16090e-02,-4.90944e-01,-1.07887e-01,
2.86744e-01,
-2.49827e-01,
-4.08548e-01,
-2.58283e-01,
-3.55271e-01,
2.33606e-01,
3.57895e-01,
2.41594e-01,
4.50088e-01,
1.44345e-01,
2.98148e-01,4.70865e-01,-6.60020e-02,2.61914e-01,2.77054e-02,1.19767e-01,-6.39918e-02,2.03367e-01,4.10501e-01,1.57685e-01,
5.42701e-02,-6.04532e-03,-4.40109e-01,2.35879e-02,3.16585e-01,-3.90647e-03,3.37437e-01,-3.82017e-01,1.91513e-01,-1.82908e-01,
-3.45799e-02,-5.33394e-02,7.37176e-02,-1.91033e-01,-5.47417e-01,-3.95359e-01,1.96692e-02,-2.05007e-01,4.34478e-01,1.26320e-01,
2.09469e-01,2.04576e-01,1.20533e-01,-1.66700e-01,5.40478e-01,-4.80136e-03,-1.54896e-01,1.30086e-01,3.07965e-02,6.11190e-03,
5.13609e-02,-3.84606e-01,-2.58912e-01,-4.85128e-01,-1.58561e-01,-3.62972e-01,-4.19147e-01,2.30309e-02,3.59972e-01,9.91151e-02,
-3.04005e-02,-3.13362e-01,-2.70214e-01,-4.56745e-01,-5.38027e-02,4.67295e-01,-2.05960e-01,3.59965e-01,1.97428e-02,2.14716e-01,
-1.95579e-01,1.38084e-01,-1.13508e-01,-3.34771e-01,-2.48363e-01,-1.80704e-01,-4.04985e-02,1.60820e-01,9.43246e-02,-3.47837e-01,
-6.66633e-01,-9.91755e-02,2.81750e-01,-2.05947e-01,-6.76917e-01,5.20016e-02,-3.30247e-01,2.24740e-01,-3.88254e-02,1.29764e-02,
-4.94815e-01,6.16591e-02,5.65329e-04,1.10454e-01,1.65853e-01,-1.10307e-01,-5.59167e-01,2.03138e-01,2.65969e-01,2.21855e-01,
-3.89316e-01,-9.36890e-02,-1.99824e-01,4.13058e-01,-1.30111e-02,4.11645e-01,-3.74849e-01,-7.25575e-02,2.86738e-01,6.07371e-02,
2.19237e-01,
3.92489e-01,
-1.63640e-01,
3.48729e-02,
1.26826e-01,
-2.10177e-01,
3.60062e-01,
-2.42116e-01,
-2.96815e-02,
3.29523e-01,
3.28953e-01,2.58023e-01,3.52287e-01,4.45982e-01,4.05560e-01,-6.01317e-02,2.81456e-01,-2.66948e-01,-3.32239e-01,-8.03152e-02,
-4.86790e-01,-7.39630e-02,2.05568e-02,1.54685e-01,4.45419e-01,7.52987e-02,3.29087e-01,-3.73334e-01,1.85192e-01,1.76186e-01,
-3.57317e-01,-4.36023e-01,2.13035e-01,-5.37640e-01,3.39769e-01,-1.92573e-01,-3.50925e-01,9.06812e-02,-2.29109e-01,2.39499e-01,
3.38911e-01,3.85798e-01,-4.88087e-01,-6.65332e-01,1.62005e-01,2.55102e-01,4.56040e-01,-3.63673e-01,3.32399e-01,-1.18085e-01,
-1.67542e-02,2.04846e-01,-4.08837e-01,2.89391e-02,2.22568e-01,2.47414e-01,5.20401e-01,-1.42551e-02,-5.87459e-02,2.04091e-01,
-9.93525e-02,-2.36920e-01,3.98542e-01,6.64576e-01,-1.01350e-01,-4.86792e-01,3.28106e-01,-3.04935e-01,-4.29318e-01,-1.10619e-01,
-6.43056e-02,-3.44885e-01,-1.06044e-01,5.30748e-02,-2.93811e-01,3.48739e-01,-3.25510e-01,2.68004e-01,2.16682e-02,-1.42246e-01,
1.12122e-02,-3.22337e-02,-2.36965e-01,8.09379e-02,1.40788e-01,-4.24123e-01,2.16035e-02,2.76646e-01,1.84962e-01,1.29599e-01,
-3.95478e-01,-9.01381e-03,-5.44391e-02,-4.47610e-01,4.20206e-01,-3.18706e-01,-2.00062e-02,-1.26862e-02,2.66246e-01,-3.87161e-01,
1.17299e-01,4.92252e-01,3.93191e-01,-1.00665e-01,2.77268e-01,-1.20772e-01,1.14162e-01,1.23470e-01,4.49953e-01,1.86718e-01,
-2.29741e-01,
1.92980e-01,
-3.27419e-02,
2.54560e-01,
-4.43960e-01,
-5.77743e-02,
6.29402e-01,
-1.94771e-01,
-1.74202e-01,
-1.89290e-01,
-3.43233e-01,1.58866e-01,9.98778e-02,3.50808e-02,2.84047e-02,-1.65860e-01,-6.85343e-02,1.01075e-01,2.23787e-01,1.61448e-01,
3.33172e-01,-3.65942e-01,-3.46901e-01,-1.47252e-01,-3.19415e-01,-3.47880e-01,-2.03899e-01,5.47315e-01,-3.39660e-01,3.02784e-02,
-2.62620e-01,2.35105e-01,-6.10008e-01,-1.04828e-01,-2.90009e-02,-1.91002e-01,-4.79820e-01,2.16426e-01,-5.18456e-01,2.05807e-01,
8.99576e-02,-2.19693e-01,-8.68554e-02,-3.46667e-01,4.66450e-02,7.83935e-02,-2.83134e-01,-5.67268e-02,-2.14290e-02,3.07006e-01,
6.63882e-01,3.80171e-01,-3.54623e-01,-2.13342e-01,1.85071e-02,4.35576e-01,-3.36431e-02,6.89410e-02,-7.88942e-02,-8.16486e-03,
1.16667e-01,-3.41834e-01,8.80417e-02,-3.74699e-03,3.30669e-01,-1.77242e-01,6.61020e-01,-4.98514e-02,-2.99184e-01,-1.02224e-01,
-8.84419e-02,4.45745e-01,4.31818e-01,1.79738e-03,3.72608e-01,-2.91549e-01,-4.13833e-01,1.43341e-01,-2.35355e-01,1.35631e-01,
-3.48531e-01,-1.86887e-01,9.51841e-02,-1.20851e-01,-4.77581e-01,3.87644e-01,6.06119e-02,-6.52016e-01,2.48782e-01,-3.65534e-01,
-2.51315e-01,4.59892e-02,1.21796e-01,-3.37109e-01,1.64668e-01,-1.32495e-01,-1.31347e-01,-3.51638e-02,-2.49565e-01,4.95244e-01,
-3.86919e-02,2.78811e-01,2.51129e-01,-2.79222e-01,-1.56259e-02,6.75032e-01,-3.66422e-01,4.39014e-01,2.93324e-01,-1.12899e-01,
-2.11408e-01,
2.95171e-03,
3.91748e-01,
9.16703e-02,
6.77563e-01,
4.66130e-01,
-1.77024e-01,
7.75202e-02,
-3.45184e-01,
5.06851e-02,
-2.16812e-01,3.48754e-01,1.77172e-01,1.80248e-01,-7.03250e-02,1.54197e-01,-3.48125e-01,-2.43740e-01,-1.43701e-01,-1.61186e-01,
-1.82485e-01,-2.85301e-01,7.18246e-02,-1.20879e-01,1.90383e-01,-2.41268e-01,-1.02931e-01,1.92593e-01,-3.44711e-02,8.64858e-02,
-7.83153e-02,6.37047e-02,1.43978e-01,-9.32779e-02,-1.35283e-01,9.04950e-02,-4.73198e-01,3.14706e-01,-8.86880e-02,4.29721e-02,
4.12278e-01,6.89585e-02,-1.93853e-01,-5.12457e-01,-2.80240e-01,1.13673e-01,-2.00272e-01,-8.17796e-02,1.70128e-01,2.84640e-01,
9.76321e-02,-1.35234e-02,-9.92467e-02,3.08884e-01,-4.51001e-01,2.08321e-01,-4.78240e-01,-1.26717e-01,-2.31296e-03,-7.65121e-01,
2.44230e-01,-1.75191e-01,2.70434e-01,-3.44983e-01,-5.26160e-01,-1.00996e-01,7.93168e-02,-5.39406e-01,4.72077e-01,-3.56624e-02,
4.48331e-01,4.95022e-01,1.39074e-01,1.89613e-01,-2.33942e-01,1.67353e-01,1.00433e-01,-1.27111e-01,1.99377e-01,2.42935e-01,
-1.18510e-01,1.13945e-01,-4.88921e-03,-4.73432e-01,1.15431e-01,2.69697e-01,-5.10811e-02,4.01760e-01,2.54249e-01,-2.16812e-02,
-1.20116e-01,1.10699e-01,-1.28144e-01,1.09773e-02,-4.95242e-01,1.33365e-01,-1.31790e-01,-4.76003e-01,-3.54326e-01,3.51757e-01,
8.85382e-02,6.36112e-02,2.19866e-02,-2.62578e-01,2.39116e-01,4.58955e-01,-1.09570e-01,1.32937e-02,3.09590e-01,2.48827e-01,
-3.71842e-01,
-8.50856e-02,
2.94163e-01,
-2.42457e-01,
8.24358e-03,
-7.51553e-02,
4.87854e-01,
4.67164e-01,
3.51241e-01,
-3.24558e-01,
5.08213e-01,3.79525e-02,-6.00337e-01,-2.81447e-02,1.08091e-01,2.68434e-01,-3.82198e-01,3.70434e-01,-3.19257e-01,1.04871e-01,
1.83791e-01,1.03821e-01,-2.86221e-01,4.07506e-01,-1.58324e-02,1.26393e-01,-4.97391e-01,-2.63419e-01,-1.13767e-01,-1.94763e-01,
6.88751e-02,2.30856e-02,-8.87771e-02,-1.92913e-01,2.48907e-01,-1.04706e-01,-1.94937e-01,-1.23431e-02,2.44324e-01,3.24053e-01,
-3.85299e-01,-6.30487e-01,5.07067e-01,-1.71508e-01,5.01948e-01,2.18606e-01,-9.02383e-02,-1.64264e-01,-1.56667e-01,7.96048e-03,
-1.89759e-01,-3.69747e-01,4.53365e-01,5.76204e-01,1.90771e-01,1.31098e-01,-6.15103e-01,4.89866e-02,-2.19231e-01,-2.19913e-01,
1.59825e-02,2.58646e-01,2.21156e-01,3.23580e-01,1.04611e-01,-1.95379e-01,2.99804e-02,-1.48253e-01,3.99304e-01,-1.31289e-01,
-5.57798e-02,-1.46962e-01,-2.37084e-01,1.53594e-01,-1.31859e-01,-2.17954e-01,-2.97082e-01,-1.50976e-01,2.81103e-01,9.31586e-02,
4.62532e-02,-3.35639e-01,5.47971e-02,-3.78555e-01,3.36035e-02,-2.38729e-02,2.07629e-02,1.29697e-01,2.59768e-01,-4.36359e-01,
9.37921e-02,-2.54964e-01,-1.66893e-01,-4.22379e-01,-6.73584e-02,-2.80686e-02,-2.29175e-01,-1.17582e-01,-1.18812e-01,1.79829e-02,
-1.75846e-01,2.36730e-01,1.38276e-02,2.93214e-01,-1.11020e-01,3.26980e-01,1.85011e-01,2.37859e-01,-2.08313e-01,-4.50590e-02,
5.01172e-01,
6.97599e-02,
7.54086e-02,
-1.90584e-01,
2.70320e-01,
-8.08000e-02,
-4.75222e-01,
1.22055e-01,
9.86294e-02,
3.38009e-01,
3.25388e-01,1.10848e-01,-2.81256e-02,-7.32585e-02,2.72421e-01,-2.62185e-01,1.99674e-01,-2.34017e-01,2.96746e-02,-4.42515e-01,
1.99825e-01,-1.00341e-01,1.17953e-02,2.10133e-01,-4.16207e-01,-2.33105e-01,1.25650e-01,2.64266e-01,4.01113e-03,-2.24727e-01,
2.45409e-01,
-1.38174e-01,
