// Neural Network File Format by Kyle Julian, Stanford 2016
31,2,2,10,
2,10,10,10,10,10,10,10,10,10,10,10,10,10,10,10,10,10,10,10,10,10,10,10,10,10,10,10,10,10,10,2,
0,
-10000.0,-10000.0,
10000.0,10000.0,
0.0,0.0,0.0,
1.0,1.0,1.0,
0.328196508,-0.860908388,
-0.335339140,-0.347535876,
1.650538864,-0.176371124,
-0.139317406,0.361520349,
-0.805064987,0.132441548,
0.472877792,1.663013944,
-0.765285772,0.035228740,
0.048994473,0.290987991,
1.141350246,0.050625247,
0.379401523,1.322740101,
-0.362942085,
0.470777161,
0.649134608,
-1.147181025,
0.200825142,
0.346652038,
-0.879954239,
-1.162408693,
0.239885893,
1.721216677,
-0.772057939,0.432463830,0.891456374,0.196177871,-0.969067427,0.230042988,-0.284758979,0.437410108,0.056945201,0.060986951,
-0.251925346,-0.007332848,-0.086689291,0.890646197,0.424024620,-0.422204904,0.035413741,-0.243165434,0.367970788,0.530555241,
-0.972093333,-0.029127599,0.498507495,-0.565740584,0.289929090,-0.027241829,-1.694862001,1.007929431,-0.072255345,0.804840218,
-0.904734771,-0.067299403,-1.161659879,0.553568553,-0.250362533,0.207510797,-0.392689184,1.532207155,1.938444307,0.977443348,
0.565827326,-1.168656780,-0.449960108,0.564213969,0.608771302,0.722190351,-0.369898701,-0.239082335,0.516366065,-1.806514448,
-2.079691036,-0.821384623,-0.861971469,-0.031119015,0.070244066,0.288580099,0.019412783,0.584759654,-1.769439432,-0.920157689,
-0.754901871,-1.904670269,0.522268354,0.117470954,0.216834665,0.524848435,0.121924874,0.698032732,-0.238426396,1.262545390,
0.302679611,-0.147620797,-0.632195443,-0.621023892,0.795873335,0.051243422,-0.975450499,1.085498557,0.126455761,-0.227399116,
0.258544288,-0.268878466,-1.264544241,-0.080163894,0.254179919,-1.061653939,0.836010102,-0.391926529,-0.392147846,0.101981579,
-0.274183490,1.297183879,-1.383944425,0.556283878,1.064526252,-0.438868352,-0.487954810,-0.550476293,0.557988099,0.732167417,
-0.475655977,
-0.878410003,
0.854465177,
0.438064403,
-0.863941662,
0.902295901,
0.542276485,
-0.733781286,
0.579937735,
-0.292143185,
-0.182401126,0.055215621,-0.834187168,-0.287134324,0.296052646,-1.198635581,-1.128934669,0.564278477,-0.206204755,-0.587040650,
0.057589194,0.161647282,0.815574716,-0.758365120,-0.178501557,-0.402169807,0.704649290,-0.882605406,0.948981804,0.659661899,
1.152582990,-1.861537667,0.448166219,0.507962041,-0.081933834,-0.192552531,0.953743964,0.097098791,0.156072904,0.295511817,
-0.152577081,0.277917051,0.759106164,-1.254203167,0.384227217,0.508833995,-0.855667912,-0.235482840,-0.170821535,0.166267265,
0.206032078,0.017492943,-0.831576523,-0.077941893,0.023943412,0.101272194,-0.410859986,-0.486865339,-0.010515519,0.298957158,
0.050856149,0.273230914,-1.328311180,0.070679376,1.436354449,-1.041026575,-0.509512472,0.575079905,-1.111074469,1.060194106,
-0.763446722,-0.733383007,-0.323792478,0.435502624,-0.385238775,-0.884318581,-0.127562208,-0.723204194,0.246129879,0.348648987,
0.683200920,-0.514946712,-0.897352387,0.823855124,-0.162011425,-1.562709708,0.766365263,-0.631964675,0.107554696,-0.336434355,
-0.040454871,-0.596303356,1.178955938,0.631541305,0.489254464,0.474340181,-1.328929631,-0.261291472,0.903639595,0.218666551,
-0.721242729,1.434362202,1.147607898,0.910834095,0.483582181,-0.210787867,0.221425635,0.529201326,0.329217952,-0.986836455,
0.647249025,
-0.509702558,
0.125969040,
0.887210876,
0.978532765,
-0.131685866,
-0.117096649,
0.082297178,
0.647563785,
0.635029523,
-0.030899715,-0.762943145,0.484603366,0.582497020,-0.624808246,-1.198377759,0.229005611,-0.016784068,0.309513323,-0.323987919,
1.776154311,-0.817635803,0.438174415,0.050504249,-0.206460570,0.031586063,1.510077083,-1.179133104,1.802698193,0.465966458,
-0.006685592,0.396420287,0.151039858,1.202871878,-0.625815599,0.706255069,-0.785939703,0.303827178,0.415065697,-0.252066993,
0.840322850,0.507398243,-0.917057214,0.663194699,0.247728442,-0.424606852,-0.210959316,0.242986339,-0.296732007,0.536108870,
-0.479921686,0.058144888,-0.552064059,0.181291485,-0.124905196,-0.105303012,-0.045004394,-0.655133945,-1.197860507,-0.071239826,
-0.052792688,0.193544700,-0.660103899,0.904815521,0.679679040,-0.213740644,0.123194236,0.001595382,-0.476011273,0.732318863,
-1.329520584,-0.286003317,-0.270605821,-0.936763085,-0.442952894,-0.831127218,0.328852851,-0.020385769,-0.485802444,-0.470700043,
0.849885948,-0.341561521,0.425278302,-0.736677092,0.088754415,-0.792318544,-0.546014364,-0.617387014,0.589370174,0.006941614,
0.374381529,-0.160420372,0.972046624,1.077544874,0.289065763,0.013004435,-0.114576198,-0.070045130,0.334199582,-0.185321101,
1.069261223,-0.360802629,-0.787804243,-0.558074900,-0.343762679,0.603120043,0.258643212,1.716960316,0.331110673,0.111221446,
0.826764187,
-0.826437023,
0.197198768,
-0.206051723,
-0.236564214,
1.420590310,
-0.837668622,
2.051253249,
-0.662582862,
-0.262449867,
1.461340033,0.647813053,-0.920110206,0.566276677,1.549896082,0.246074357,0.325792315,-1.171096128,-0.649148932,-1.203291798,
0.844211075,-0.764487293,-0.280927832,-1.403468257,0.239925188,-0.243474795,-0.546950353,1.078372354,0.153503941,0.684611680,
-0.270362802,-0.589713532,0.239379617,0.315979797,-0.067218159,-0.908731368,-0.024720070,-1.074894785,1.659830225,-0.662472640,
-0.245545453,-0.378038674,0.261738177,-0.191582540,-0.437827722,1.231060875,0.297823624,0.890996763,1.254023397,-0.258014992,
-0.615064530,-0.515892515,0.837196741,-1.070142922,-0.553962943,0.371215926,-0.771211764,0.431214870,0.018176886,0.631311037,
-0.180947164,-0.364118116,0.650582618,0.015091025,1.925251928,0.795432632,-0.235504787,0.377357159,-0.530841861,-0.183584723,
-0.279508679,0.538993296,-0.452038464,-0.699902818,0.337381578,0.320403845,-0.756290497,-0.326602008,0.295462866,-0.404529177,
-0.492906172,-0.343830923,0.455798813,-0.139542116,0.424351813,-0.147155028,0.344031568,0.214857615,-0.281723133,0.351289780,
-1.013245325,0.303235803,-0.600303636,-0.177474439,-0.318066835,0.417032917,1.250166217,-0.925517683,-1.008951140,0.473257366,
1.788064978,0.538861317,1.019277134,-0.611210304,0.213838555,0.147661584,-0.277498553,-0.403659633,-0.164808680,0.348453895,
-1.140432806,
-0.842157815,
0.046312124,
-0.546794517,
-0.428342591,
0.764444104,
-0.510352677,
-0.749845381,
0.432022974,
0.146496736,
1.905702571,-0.782689775,-0.012575222,1.446301241,-0.717900468,0.166883602,-0.047805817,-0.926722193,0.600742235,-0.845530543,
0.545606980,-0.524350676,-0.600315043,-0.415832342,0.283069956,-0.862316697,0.308995397,-0.831681408,-0.531319706,1.019212721,
0.042067818,-0.751202018,-0.191089190,0.289385320,-1.691419003,0.430757519,0.125076820,-0.475771823,0.679796851,0.387115709,
0.762025783,-0.020359807,1.924155802,0.549195249,-0.226315526,0.455047431,-0.375405132,0.288058779,-0.416617722,-0.695212743,
-0.762847802,0.803604263,0.345077148,-1.195408865,-1.067192350,-0.073053365,0.610331861,-0.437594251,-2.206262818,0.054015470,
0.633479319,-0.262431622,0.041960344,0.489262020,-0.565261136,-0.099418038,-0.145742331,0.249908773,-0.447071880,0.414308451,
1.577651080,0.611033404,0.283955226,-0.093383921,0.565065972,0.510897788,-0.670923068,0.322992582,-0.233238151,-0.162134733,
-0.114260340,-0.240825245,-1.010649277,0.611276246,-1.167730184,-0.188576235,1.314377619,1.224448003,-0.649619273,0.393791088,
-1.075999423,1.152584706,1.220238052,0.120548059,-0.431256599,0.273804532,1.299511721,0.272950763,-0.279826385,1.414337041,
0.129199031,-0.718489061,-0.064724586,0.240927203,-0.930172716,-0.517796802,-0.056746523,0.650560677,-0.233427674,-1.339846468,
0.412914293,
0.114157205,
-0.721205228,
0.569756599,
0.439364419,
0.027143382,
0.735011085,
0.885631542,
-0.312365655,
-1.127994250,
0.987693313,-0.182613023,-0.432026008,-0.347768814,0.440780063,-0.777476895,0.124891515,-1.097548071,0.376410492,-0.404604851,
-0.312663267,-0.264756481,-0.801395208,0.074405659,0.052206165,-0.546514404,-0.728316954,1.564460360,1.507710391,0.291782647,
-0.454523598,0.715119033,-0.169820764,-0.076430333,0.495756106,0.104145061,0.639273207,0.837807688,-0.798189121,0.203695569,
-0.202194593,-0.776375275,-0.022152854,-0.019307656,0.680152530,0.299442313,0.702934685,-1.081829838,0.019207134,-0.008267555,
0.700658813,0.085799687,-0.004784698,1.475799758,0.533025353,-1.186024396,-1.239501476,-0.638718304,0.325445778,1.125367640,
0.707785667,-0.327753983,-0.854775519,0.296479854,0.678244324,1.192458527,-0.926192096,-0.775698587,-0.095318670,-0.501168541,
0.685044866,-0.980766712,0.542591616,0.696741002,-1.621930409,0.946502379,-0.840387472,-0.756324932,0.026142156,0.267861076,
1.150845958,-0.730176246,-1.369374172,-1.388696588,0.376576941,-0.956388570,-0.302040470,0.444881546,0.220638503,0.739007395,
-0.148458407,0.290199796,-0.060118562,-1.493495716,0.932645414,1.003597701,-0.278464865,0.172018656,0.428548541,-0.892294141,
-0.106499292,1.335601909,-0.350473524,-0.399507950,-0.342850030,-0.531912736,0.569992384,0.603079030,-0.746736352,-0.196866121,
-0.517956444,
-0.513994792,
0.413957236,
-0.545561065,
-0.588657579,
0.340178748,
-0.333710945,
0.105100372,
0.535748983,
-0.215965953,
-0.529263253,0.698475638,-0.543163882,-0.442630717,-0.267192607,0.460376243,1.158335745,-0.182920322,-0.378442780,0.441236554,
0.929556627,-0.122043514,0.281339612,0.291145760,1.453769428,0.605623463,-0.253367353,0.402909709,0.468110381,0.388575954,
-0.844964997,-0.192112327,0.342846474,0.346496437,-0.693203983,-0.036855125,0.685995060,-0.025743905,0.043357910,1.201750059,
0.555529812,-0.638590305,0.103245999,0.138164071,0.641122518,-0.842400597,0.393754947,0.163188427,0.245523444,0.606200244,
-0.993654613,0.624050369,-0.687150023,-0.593126120,0.820139060,-1.214578452,0.594450435,0.631650204,0.070512330,1.109077824,
0.817955631,0.326561452,0.531377035,1.160653657,-0.581274812,0.871572620,-0.869438304,-0.467994709,-0.163382858,0.129138345,
-0.673779538,1.015879590,1.155995036,-0.699487694,0.122142230,-0.241243240,-0.093805091,1.391389173,-1.242824620,0.564612771,
0.277619432,0.527080983,-0.205925404,1.321897485,0.255592820,-0.459994779,0.567587759,0.834026884,0.151967717,0.761369773,
0.999269124,0.263983650,0.368106292,0.217517121,-0.369334511,1.216756075,0.419674644,0.502735180,-0.942250456,-0.037068263,
0.637356117,1.114630731,0.628776224,0.441861061,-0.861072621,0.381034795,-0.206129405,0.971160372,-0.223750429,0.825120463,
0.865019225,
-0.602894946,
-0.684791722,
-0.343653447,
-0.678284282,
0.916549227,
0.001453110,
-1.344644471,
-0.155477194,
-0.405094284,
-0.139994298,0.093734626,0.412376521,-0.565093311,0.297610260,0.097924913,0.569891816,-1.462373078,0.804829900,0.395150459,
-0.379381654,-0.007081079,0.353878354,0.967269014,-0.442801602,-1.211398857,0.719225259,-0.114568849,-0.485504566,0.704395903,
0.404306675,0.238224597,0.042517892,-0.377517244,-1.035586283,-0.614034721,-1.271453567,0.750295779,1.028348453,0.085584410,
1.199524876,0.275219988,0.659344876,0.544851454,0.507238956,0.503665343,-1.102793235,0.273434429,1.331423732,0.393594581,
0.478662144,-0.902073876,-0.890132790,0.020869711,-0.530618254,0.234924272,0.947024361,0.882667270,0.312738516,0.101234000,
-0.760571175,1.056346428,-0.468534594,-1.603550564,-0.100879674,1.344323696,-1.375291786,0.684696169,-0.110458851,0.981538428,
-0.517701341,-0.655323397,-0.437108795,0.622270829,-0.824713990,0.221998684,-0.490152588,1.335540799,1.968497677,-0.174742181,
0.019715014,-0.092871741,-0.211647115,-0.487685271,0.226706879,-1.379471536,-0.792900760,-0.929530986,0.008530231,0.029288000,
1.144609316,-1.446218003,0.565793965,-0.782149748,-0.685809189,-0.255420645,0.993220734,-0.205777504,0.441040274,-1.435967414,
-0.677120148,-0.589428183,-0.041588234,1.187494128,0.268239798,-0.482848099,0.649106880,0.408308198,-0.651715790,0.474128277,
-0.552505741,
0.691896652,
-0.792115772,
-1.119791449,
0.785993498,
0.654458853,
-0.204433630,
0.594658732,
0.240836960,
-0.658483320,
-0.090581204,0.225299606,-0.595092834,0.498852154,1.632711169,0.262434066,0.534792801,0.344147710,0.242830600,-0.811942682,
-0.583352134,-0.407634338,0.440662242,-0.952282354,1.393228731,0.468964705,2.218416318,-0.521566323,-0.167613231,0.379638690,
-1.438759083,0.339964271,-1.604237099,-0.735787942,-0.652540334,0.648968202,1.400027157,0.160686554,-0.798135692,0.312171450,
-0.280898361,-0.390451522,1.015579509,-0.262842420,1.262952721,0.178746128,0.290113110,0.795419463,1.264239392,-1.147269178,
-0.224940979,-1.271474542,-0.498473731,-0.027026530,0.145214131,0.595671479,-0.546648706,-0.867016000,-0.201559463,0.916791473,
-0.063898392,0.169924240,-0.663128325,0.812434006,0.240744437,-0.189357340,0.048475247,-0.259676202,0.291614334,1.074515805,
-0.202953397,-1.691688326,-0.212138286,0.295367722,1.039342673,0.872858029,0.049440118,-0.594886530,0.564109462,-0.379699443,
-0.974281397,-0.104725225,1.954978545,0.765357810,-0.345462383,0.915959215,-0.923628590,-0.515203993,-0.085010062,-0.281084648,
-1.051659143,0.273985610,-0.908513190,0.245977320,1.653392540,-0.112220330,0.542419453,0.271532290,0.867918218,0.082978942,
-0.805441165,0.915068556,0.956231250,-0.373265648,-0.144660881,0.187989580,1.663372712,-0.237865723,-0.603415971,-0.296190662,
0.727118151,
-0.191263372,
-0.124270645,
-0.617397404,
-0.390219333,
1.382974409,
-0.497135385,
0.320862769,
0.701809598,
0.219646891,
-0.687621051,1.133370264,0.013881431,0.919701797,0.116300052,-0.226056723,0.832722914,-0.571672354,-0.111201508,0.867561764,
0.297075389,1.509704966,0.767517068,-0.226626817,-0.200341597,0.488945044,0.495629263,-0.280586717,-1.118955179,-0.213016940,
-0.318557511,-0.474797825,0.476502262,0.543574972,-0.342943956,0.616025228,0.249903683,0.730997781,-0.189134573,0.498567839,
-0.576089115,0.080527100,-0.018482934,-0.346950688,0.254636182,-0.644801057,-0.148261206,0.852144013,-1.077550566,-0.445277902,
0.877588271,0.863740266,-0.191858937,-0.981323669,0.522643835,0.352670825,1.788300588,0.358088043,-1.148659747,0.591108734,
-1.142905669,-0.456872260,-0.564536726,0.782068113,1.215126027,-0.052853160,0.120661466,-0.096892934,0.309969776,-0.484493492,
-0.085086842,-0.336851787,-0.709593577,-0.042112914,-0.371618380,-1.100426239,-0.064186112,-1.381360515,-0.166157108,-0.262929580,
-0.071146787,-0.146535910,1.150189520,-0.724507937,-0.708346857,0.058707148,0.941586084,-0.789606140,0.268966795,0.306250904,
-0.702466199,-0.081388270,-0.930582128,0.696422956,0.214063868,-0.879487349,0.515129147,-0.082224055,-0.082559712,-0.334489939,
1.081900001,0.375538656,-0.826660758,0.617238324,-0.106801258,0.215556610,0.270071414,-0.796681451,0.392815699,0.320617327,
1.600840521,
0.565898690,
-0.034615395,
-0.051213497,
-1.804257398,
0.395043063,
0.234289919,
-0.631203385,
1.426610065,
0.857360380,
-0.011435320,0.254005317,0.492847945,0.216219727,-0.464131723,-0.495646359,-0.912168465,-0.469694594,-0.657201489,0.187437504,
-0.371488873,-0.279073032,0.629332737,-0.565245063,0.146509243,0.719606833,-1.216221056,0.785846181,-0.202038224,-0.049919190,
0.965986058,-0.168480340,-0.987599227,-0.084972597,-0.078597328,-0.863933986,-0.342140647,-0.126678305,-0.068981887,0.365219205,
-0.149125273,0.075348784,-1.295632190,-0.150623957,1.372050684,0.182176539,0.515004979,-0.153401116,2.595417843,0.191635849,
-0.314614073,0.234979460,1.059117197,-0.471244210,0.686354724,-0.252617424,-0.654990040,0.586739682,0.203636758,-0.471093400,
-0.629072824,0.141265761,0.032185688,-0.937135720,0.409504535,0.093025823,-1.351715020,2.324519945,0.911813772,-0.056979436,
-0.457194646,0.583090859,0.030528904,0.133973952,0.091344474,0.232061276,0.421383501,0.364285300,0.544130975,-0.140867784,
-1.955416433,0.603136040,0.535444518,-0.102636289,-0.747455851,-0.316396425,0.655180965,0.604314503,0.958326682,-0.493276104,
-0.784147505,-0.447262638,1.450437454,-0.824380195,-1.284317553,0.103179466,-0.073804223,-0.557440973,0.799056170,-0.123858045,
-0.701646687,0.011920377,0.937315030,0.531983839,0.587260321,-1.011497564,0.669128601,0.641194146,0.880268352,-0.771505362,
0.096375532,
0.918758091,
0.963153306,
0.601212165,
0.532602833,
0.287843443,
0.037441454,
0.256745345,
0.704955052,
-0.539705770,
0.548319224,0.421995240,0.758540152,1.303473094,0.849298701,-0.901973528,0.579187521,-0.154646078,0.067272558,1.157996199,
0.085883131,-0.132452986,-1.170802423,-0.496873592,-0.220996052,-0.058695099,1.195452531,0.277693834,0.723140802,-0.455525383,
-0.811527926,-0.888867999,0.863870795,0.001567496,0.990454323,-1.516485008,0.323437704,-0.799312654,0.307686458,1.310674989,
-0.175389684,-0.104500443,0.516180069,-0.170839344,-0.316930754,-0.564148053,0.984956190,-0.491571114,-0.515449480,0.925704475,
0.862806993,-0.788114826,-1.288528741,0.461651330,-0.008184941,-0.200008017,0.064928534,-0.742037119,-0.721837717,0.111661336,
0.128976216,0.154064941,-0.009220749,-0.550171481,-0.566303110,-0.727758979,0.290014158,0.963548637,0.779763764,0.699520639,
0.437264715,-1.306176367,1.585957759,-0.207715120,-0.731115084,-0.129005754,0.510204816,-0.707986139,0.820306979,-1.034816643,
1.143711049,0.340710067,1.291658711,-0.513876225,-0.382464215,-1.178300886,1.185450714,-0.457602355,-0.424156740,0.096750325,
0.251400473,-1.038674893,-0.516265444,1.085321293,-0.569088675,-1.167953835,0.558315184,-0.249272149,-1.015425926,1.603158412,
-0.828954151,0.333721705,-0.501073266,-0.368700638,-0.298039510,0.351792900,-0.170151922,0.588196733,0.838139193,-1.547598727,
-0.551737002,
-2.050576315,
0.094046610,
-0.650715793,
-0.418148054,
0.467297969,
-0.016991599,
0.475112975,
0.626049959,
0.391533031,
0.208001340,-0.105049097,-0.281549675,-0.262466476,-0.084627165,0.042250495,-0.281903780,0.045616258,-0.199112087,-0.495945183,
0.302620630,0.733193388,0.935202451,-1.086593104,-0.252732898,-0.404107158,0.173267452,0.337481031,-0.139969131,-0.545275430,
0.673190904,0.603652329,-0.198057299,-0.374949768,0.117125393,-1.010017295,0.278026241,-0.937171689,0.809100132,-0.303393471,
-0.514893062,-0.795055769,0.799306823,0.743329825,-0.765581186,0.376056134,0.386725485,0.385832265,0.727679105,0.176612759,
-0.195664478,-1.208084917,0.073029141,0.499295798,-1.069104474,0.433176217,-0.448711192,0.442718633,0.095395086,-0.494821769,
0.343435005,0.158543454,1.060023645,0.793633217,0.572749620,-0.006727727,0.516613789,0.929786628,0.522558508,-0.992024560,
0.004161690,-1.030556758,-0.605130651,-0.163400204,-0.385881627,-0.806018362,1.037114428,0.413956306,0.039751910,0.254045179,
-0.088154860,-0.365517922,0.476292140,-0.121682971,0.184845749,-0.400645189,0.298947141,-0.634595418,1.166045334,-1.251407508,
-0.314085991,-1.012701771,0.474923219,0.211451797,0.191052890,0.281772224,-1.183752617,0.098265314,0.021532607,-0.509477325,
-0.023651689,-0.208434987,-0.368162379,0.004973056,0.170813945,0.881254249,-0.935835333,0.004558473,0.580964177,-0.845012198,
0.539812206,
0.438970431,
-0.683888746,
-1.087358493,
0.379172477,
-0.235855960,
-0.003471988,
-1.372923941,
0.914216180,
0.655906427,
0.559275022,1.083132374,-1.148467293,-0.235965890,0.148247874,1.470224077,0.044477505,-0.832489574,0.612743372,-0.844911309,
-0.280664597,0.541456553,-0.530355474,-0.232243609,-0.414638820,-0.066579215,0.102791376,0.005402978,-0.402875383,0.075644858,
0.628748764,0.613670344,0.160585481,-1.385343562,-0.118639238,0.166254884,-0.162864762,-0.042564102,-0.511551122,0.923988365,
-1.709753750,1.314913795,0.830386932,0.798647263,-0.310491619,-0.217325953,-0.528479148,0.597381251,0.595448877,0.291982393,
0.717263361,-0.344593669,0.022470593,0.080274717,0.385342002,0.756277685,1.579474903,1.184323737,-0.796987794,-0.861048956,
-0.644857913,0.601182574,-0.608364282,0.518504616,-1.355193905,-0.039545286,1.102297842,-0.753246037,0.137151735,0.216764897,
-0.387131879,0.126552663,-0.059549107,-0.421528222,0.454546227,-0.944272783,-0.209005991,-0.549804692,-0.347938019,-0.391385209,
-0.373784488,0.090727753,0.163906258,0.034642754,1.302398636,-0.198423108,-0.433049305,-0.542252485,-1.410908552,0.041495838,
1.255618628,0.533728840,0.731160178,0.162383149,2.018537386,0.756287366,0.982706591,0.854989246,0.505703500,-0.417539373,
-0.373979449,0.329814247,-1.213731172,1.819922028,-0.419015636,-0.272822666,0.027591184,-1.036429646,-0.052764591,-0.839839108,
-2.231857211,
-0.791040136,
0.195301517,
-1.080074434,
-0.325470223,
0.425443952,
1.267498924,
-0.944083727,
0.473211769,
-0.498791499,
0.482309177,1.168812424,-1.114521144,-0.068005543,0.466046276,-0.354996333,0.171656290,-0.452524002,1.369642796,1.111545012,
1.301038334,1.689356464,0.542920433,-0.335537484,-0.231782451,1.089391644,-0.296218379,-0.073717442,0.586781994,0.003059159,
0.390919790,0.436054271,-1.251804461,0.223725494,0.453501756,0.678216911,0.453261445,-1.056848050,0.175644838,-0.370545879,
-0.513869761,0.858689550,0.181739115,-0.998019468,0.951019650,0.978335573,-0.355000666,0.557747043,-1.498061275,0.013723490,
0.546447601,0.143263521,-0.345264321,-0.089235406,0.392801120,-0.573894420,0.246067957,-0.223195030,0.923308370,0.052495213,
0.544540946,0.205175357,-0.594965763,0.455930626,0.477388417,0.460498031,0.239776521,-0.949215474,-0.599893471,-0.275850904,
-0.993572449,-0.209847456,0.054293467,0.850229809,-0.415397849,-0.357458193,1.084548651,0.081155933,1.021955935,-0.093231140,
0.047675459,0.142443441,-0.487424700,0.260686440,0.337041159,1.149472496,0.394371276,-0.468672248,0.300800277,-0.283734302,
1.003948410,-0.276496833,1.078523954,0.388077578,1.112533972,-0.423133690,-0.475206466,0.888877246,-0.373354392,-0.590449183,
-1.147804654,-0.004300627,0.073571320,-0.263115558,0.857681342,0.407917643,-0.288444426,-0.683180200,-1.034408156,0.148276740,
-0.314218328,
-0.826400713,
-0.433382735,
-0.707961307,
-0.544757423,
-0.030206283,
-0.154476948,
-1.189884362,
0.261735022,
-0.068125340,
-0.125846279,0.489832090,-0.133421859,0.318611146,0.555925392,0.789971784,0.784821695,-1.052396218,-0.050576245,0.089242600,
0.131533760,-0.939360187,-0.302781585,-0.664403838,0.732090251,0.312675507,0.777654806,0.574813676,0.100218005,0.143863354,
0.972064515,-0.226266168,1.382407964,-0.336407508,-0.178873249,0.980492045,-0.412127197,-0.857005064,0.712618848,0.380883856,
-0.238734595,0.625993638,0.358007884,0.892910135,-1.051637397,-0.453564972,-0.768176514,0.626139251,-0.022917154,-0.253922063,
1.205625180,-0.366154203,-0.307900035,0.295500322,-0.199924641,-1.072066412,-0.883632551,-0.090748920,0.531651716,-0.589142648,
0.277688579,-0.351702205,-0.209489554,0.247199248,0.180474492,0.681696859,-0.756914019,0.066371780,0.585165282,0.925444473,
-1.163614514,2.468841978,-0.610975145,-0.059560652,-0.670640123,-0.279290650,-0.873331970,-0.270940960,-0.313917235,0.172318678,
-0.312002383,-0.133509481,0.868193440,1.472082618,0.009754260,0.385544311,-0.862370908,-0.848187427,-0.671146355,0.562487290,
0.148980440,-0.623847099,0.638761326,0.029838841,-0.196787928,0.385549267,-0.291362427,0.252394825,-0.068767981,0.869169034,
-0.715309661,0.268368198,-1.126882599,-0.664519329,0.697704887,-0.561241746,-0.280590051,-0.209165545,-0.834215770,-0.498976857,
-0.650843163,
-0.481011784,
-0.539502027,
0.715680448,
0.130526853,
0.532564192,
-0.692741083,
1.135590170,
-0.700997997,
0.555056153,
0.296941510,1.511691905,-1.295914913,0.369687841,-0.738491973,-0.890273907,1.500960981,-0.680736173,0.044804707,1.149511299,
0.416017982,-1.118022868,1.519608522,0.098055503,1.115802344,-0.012126039,0.653933058,0.743174577,-0.761583702,-1.127731503,
0.618175002,-0.733657104,0.007449213,0.316983058,0.943311183,0.934428474,-0.782136042,0.609580846,-0.678130600,0.644306217,
0.230542668,-1.100430355,0.688710595,0.808840429,-0.124034140,-0.512593788,1.041538985,-1.087845479,0.473747595,0.000147336,
-0.537783295,-0.404877252,0.973652705,-0.649460462,1.367823290,-0.838093573,-0.034860262,1.398567523,0.055926961,0.939969430,
0.695655554,0.878641635,0.315975198,0.205577747,-0.708659333,0.086806127,0.316462110,0.090068833,-0.256475385,-1.069674989,
1.144476283,0.634260606,0.223000147,-0.672738041,-0.241987761,0.398858877,-0.147701101,-0.462622375,-0.449391894,1.418473912,
0.816210811,-1.299405215,-0.462973675,-0.262653650,1.310048570,0.435579017,-1.046128793,-0.485789288,0.698363650,-1.677740735,
0.749127430,-0.270523173,-0.369133889,-0.486735625,0.892834097,-0.210845500,0.352711890,0.293964817,-0.167219529,0.007763082,
-1.136975627,0.539622284,0.374690550,0.595489632,-1.451586454,-1.031790181,-0.645073808,-0.896072334,0.019798271,0.846390475,
-1.124961610,
-0.425986520,
-0.689632627,
0.157104627,
-0.077561274,
-0.516536988,
0.223672013,
-0.052899665,
0.343289378,
-0.589019287,
0.900595170,0.260836810,0.617881930,-0.350294157,-0.025255722,-1.166364604,-1.193727327,0.321776451,-0.069987582,0.685844554,
0.030228705,-0.022514599,-0.537367480,-0.911286215,0.182976557,0.630038727,-0.254379498,0.237689155,-0.980786543,0.753549189,
0.360895289,-0.783004901,0.533340008,-0.063233590,1.144897541,-0.529044793,-0.114964487,-0.345592301,0.165120971,-0.936318302,
0.503899315,-0.534158941,0.343036554,0.362496066,-0.991596532,-0.172916126,0.045807762,0.251081315,-0.065832022,-0.078116513,
-0.160651349,0.336990200,-0.238805383,-0.453639236,0.218628909,-1.160209328,-1.027970622,0.108400713,-0.271151269,-0.036437855,
-0.834086739,0.610150882,-0.381922789,-0.564657375,0.116004955,0.162180822,0.925911185,-0.757438793,-0.595936169,-0.164858990,
-0.841733377,-0.220566517,-1.042192492,-0.186754627,0.580199165,-0.355483260,0.102134234,-0.590060331,1.469270547,1.352980342,
0.548465202,1.749620269,0.283152382,0.438132824,0.543272607,-0.553100764,0.115343552,0.687228454,-0.101818420,-0.263243199,
-0.806200602,0.202311337,0.347462866,0.403504807,0.948722075,0.166884772,-0.868158297,1.205225919,0.491378590,-1.270383337,
-0.298418222,-0.770230178,-0.300665491,0.585896258,-0.275027309,-0.357291938,1.333222319,0.379540667,0.615267940,0.765067015,
0.103834875,
1.185082364,
0.394172758,
2.014999406,
0.706311062,
-1.211903115,
0.495956729,
-0.644234144,
-0.369302303,
0.990023144,
0.528822627,0.550887030,-0.911468352,-0.726074872,0.429218945,-0.012897174,-0.794408157,-0.573570743,-0.697030600,-0.231615119,
-0.079758796,-0.040404010,-0.694070912,-0.181329510,0.634743732,0.724224844,0.283926495,1.281574316,0.325898935,1.468681816,
-0.251422092,-0.358148369,-0.877041008,0.939790602,-0.967934424,-0.127021920,-0.540677810,-0.612038216,-0.672222543,-1.131832981,
0.852760392,0.006733553,-0.512452508,-0.002206849,1.479410633,-0.830655768,0.610941839,0.391311405,-0.105103375,1.724881094,
-0.667398550,-0.348185053,0.986934547,-0.308819419,-0.081535571,-0.394873166,-0.606412639,2.053719947,1.085606954,0.587242842,
-0.261861221,0.594537093,0.543052261,-0.251171906,-1.109013351,-0.124323616,-0.043921341,0.007742680,-0.330577951,-0.232762693,
-0.134537639,0.400913603,-0.178629041,0.387418013,0.134917962,0.449430604,-0.922947610,0.440693819,-0.429488811,0.953766431,
0.170174654,-0.095539321,-0.654922475,-0.151349603,0.059307061,0.417609535,-0.269613301,0.165725696,0.740119706,0.416727258,
0.246610950,0.392876051,-0.056842248,0.031205881,-0.005242632,0.471360452,-0.490244082,0.393484585,-0.534852890,-0.537230722,
-0.372039756,0.651235689,-0.397710458,0.284404311,0.283407683,-0.715846332,0.101438182,-0.811724428,-0.900118259,-0.095383315,
1.139916319,
0.626192330,
0.568483092,
-0.718648414,
1.111813965,
-0.356173113,
0.254469091,
-0.061271298,
0.183109867,
1.749276182,
0.797368168,-0.430992016,0.713094503,-0.695206396,-0.750408638,0.244378453,0.270101676,-0.263218600,0.355689493,-0.123568735,
-0.015627919,-0.764007932,0.631139008,-0.966929198,1.073573146,1.095849710,-0.428828355,-1.241974160,0.117480945,-0.021579977,
0.471379136,0.324877679,0.160740055,0.007326886,-0.283336354,-0.549332735,0.503105315,-1.223688642,-0.426280806,1.207718251,
-0.047234337,0.884817655,-0.330205932,0.050865594,0.520584831,-1.019814763,-1.000481706,-0.445819916,-0.205625786,-1.020134936,
-0.433039084,0.699648944,-0.294251438,0.345317688,0.477415380,-0.442167897,-0.191120021,0.201976520,-0.841837398,-0.285783984,
-0.009551392,-0.315299231,-0.340818312,0.343712360,0.952011217,0.320401562,-0.105273208,-1.186314713,0.356665093,-0.216986476,
-0.127097819,0.241189121,0.778586252,-0.065676205,0.807461463,-0.675996817,-0.284478959,0.103024731,-0.747963281,-1.195105045,
-0.058518656,-0.581844845,0.474862095,-0.272357405,0.674550254,1.260474062,-1.550835803,-0.416722268,-0.069563226,-0.377196690,
-1.011557208,-0.767137014,0.084398522,0.559037611,0.133493341,-0.935796488,-0.279647548,0.374535555,-1.179665686,-0.200506798,
0.315459805,1.158498930,-0.115994689,0.062175616,-0.262587672,1.676131842,-0.335090913,0.670237707,-0.090392631,-1.159054337,
-0.734941927,
1.000450836,
0.351548987,
-0.870014687,
-0.617642524,
-0.047858207,
-1.166554243,
0.715746538,
-0.714604019,
-0.189415898,
-0.782162460,-0.133403185,-0.219522951,-0.601709770,0.221835310,0.086423191,-0.215843593,0.796016725,0.036039519,-0.495842755,
-0.161236537,0.719442820,0.339553470,-0.036294241,-0.380128741,0.072810021,-0.249099373,-0.219498613,0.218241755,1.029769575,
2.213353887,1.034201642,0.085806865,0.873378972,0.298336524,0.489876840,-0.016832477,-1.004014606,0.427552553,0.049012873,
-0.593573055,0.396145075,-0.285340228,-0.349301428,-0.043791841,-0.457026990,-0.773059486,0.483938940,-0.476925189,0.215818324,
-0.609802538,-0.126557337,-0.437284184,-0.032082503,-0.458030188,0.542376067,0.535844354,-0.481689180,-1.300528496,-1.661239326,
-0.445998109,0.428240986,0.323903167,0.634338558,-0.145315544,-1.598805833,-0.625222701,-0.046903587,0.797326373,1.079377115,
0.482060434,-0.243338332,-0.618057760,-1.293918040,0.508162339,0.046597832,0.692526752,0.093432457,-0.026916203,-0.221667369,
0.042634867,0.006848926,-0.003692096,-1.118959410,0.272699828,0.006265908,0.399118594,-0.541602308,-0.523816968,0.265794203,
1.215456043,-0.066357317,0.238103821,0.536146435,-0.782467037,-0.969678106,0.263622582,-0.222877030,1.373623118,0.194114857,
0.641119981,-0.003697674,-0.009726583,0.771265722,0.807691369,-0.508699560,0.874067270,-0.529279930,0.432776072,-0.325626003,
0.845400289,
-0.597393624,
0.776211913,
0.034240606,
-1.211227375,
1.164356469,
-0.852917429,
-0.287222818,
1.151716406,
0.763852143,
1.185199793,0.796374236,0.621871022,-0.763102158,-0.336682635,-0.009380287,-0.009129507,0.968418744,-0.071561664,-1.245070307,
0.728951045,0.001215990,-0.681498737,0.157655388,-0.571678590,-0.281201488,0.569110574,0.565817343,-1.365041061,0.059062902,
-0.229598733,-1.186315914,0.463268623,0.051549921,0.386312666,0.033128108,-0.162404367,0.177702156,0.089829889,-0.043567916,
0.530047450,0.964564537,-1.055506101,0.364017599,1.001076857,-0.095785274,-0.489510423,0.726505072,-0.285539670,-0.095526239,
0.898524332,0.587545986,0.016790894,-0.197229096,0.939934064,0.744154797,0.559970578,-0.862113617,-0.416766383,0.021445260,
0.357564930,-0.207652558,-0.182448259,0.166831004,1.352126896,0.612248489,0.443940049,0.474308163,0.563003988,-0.510434848,
1.146979137,0.340831116,0.364134943,0.911064615,-0.971578420,1.145037294,0.912793201,-0.600481841,0.584473511,-2.027202550,
-0.184161376,-0.109364287,-0.094432151,-0.323066103,0.547954136,0.647663390,-0.986140505,-0.090842522,0.325456096,0.420667538,
-0.145786468,-0.555445847,-0.428385597,0.806758215,-0.684116186,0.519847434,0.584965643,-0.874263400,0.645146892,0.415812588,
-0.445583834,-0.732165906,-0.397827673,-0.177524852,-0.461154728,0.324822530,0.361923444,-0.915035803,-0.405416810,-0.313364030,
0.467055464,
0.220227907,
0.567623630,
-0.404881026,
-0.609229888,
1.233008193,
0.870731427,
0.407696124,
-0.446815527,
-0.333029182,
-0.126189562,0.474240140,-0.285610210,0.641691152,0.550658864,-0.035822483,-0.530303770,-0.200857300,-0.120445147,0.051328447,
-0.191406921,-0.319986937,-0.176871274,-0.196056251,0.480873865,-0.638119694,-0.201057578,0.495435984,0.704833597,-1.268591881,
-0.544326292,-0.116137333,-0.642191262,-0.070438307,-0.212218018,0.505851433,-0.671142014,0.437588553,0.217612558,0.610438495,
0.557035707,2.433836137,-0.019344548,-0.385690147,-0.635804089,-0.431499626,-0.989626598,-0.340786772,-0.347600663,-0.740555465,
1.757103944,-0.712145213,0.443177313,-0.120242779,0.294687786,-1.147203727,-0.210548146,-0.153965675,-0.195691352,-0.860142716,
-0.510095958,0.305940105,0.345983451,-0.088446854,1.357171129,-0.718043973,0.780082264,-1.386210236,0.110713955,-0.011747219,
-0.232339824,-0.844006246,0.564873961,-0.851593587,0.991587692,0.737480403,-0.684132858,-0.240217959,0.866696195,0.381323529,
-0.017325417,-0.983507556,-0.895849940,0.032410937,-0.625922696,-0.791347209,2.026874993,0.053433156,-0.919376559,1.612800613,
-1.067129092,-0.303999275,1.024965419,0.233748595,1.075298674,-0.010273607,-0.441660838,0.258333749,0.136684069,0.868421004,
-1.720599753,-0.261179277,0.883693847,1.316053947,0.436141728,-0.357150791,0.815341204,-0.254526220,1.359761693,-1.585857229,
1.083681077,
-0.613681654,
0.017703669,
-0.054243897,
-0.480314679,
-0.112080546,
-0.796173779,
0.510285230,
-0.324626555,
0.003372947,
0.090595578,0.044521672,-0.452981316,0.044829831,-0.447452249,0.793718804,0.600547495,-0.232731023,0.581649825,-0.264879808,
0.301161853,-0.937649550,-0.408243969,-1.112927956,0.373619339,-0.343524639,-1.653804436,-1.022970961,0.021477776,-0.055930850,
0.018019578,-0.602799812,-0.744898797,0.698435530,0.417392254,0.762890261,-0.806556079,0.450683352,1.054882427,0.611321272,
-0.160952676,-0.744697053,-0.136943099,0.044122606,-0.164640580,-0.109209182,-1.384449763,-0.533712147,0.783252367,-1.397945276,
-0.845610868,-0.561376056,0.358314425,0.930282996,0.426344366,-0.416389858,-1.377621848,-0.153598659,-0.712326185,-0.865299062,
1.012046786,-0.265641993,0.950954048,0.217942802,2.002867029,-0.479239733,-0.655335988,0.950184541,0.790541202,-0.670678705,
0.700199328,1.056031279,0.811429223,0.431563195,1.005229496,-0.581750676,-0.065708583,-0.724801927,0.600451580,-0.000664650,
-0.262182746,0.586196528,-0.302707237,0.569371470,1.093927324,1.111437223,0.862855887,-0.064064458,-0.347366130,-1.200828942,
1.463078221,-0.555788940,0.904049416,-0.395710538,-0.900084650,-0.291433794,-0.487983139,0.448552968,-0.316586660,-0.536230524,
0.173185327,-0.395739016,0.492246863,-0.786950954,-0.529181668,-0.059800376,0.650264802,0.262883035,0.161085519,-0.693318110,
-0.403163701,
1.012231230,
-0.113935851,
-0.696939474,
1.009154480,
0.483789644,
0.399236115,
0.130396881,
0.197052919,
-0.312737120,
0.166523324,1.104065910,0.018169479,0.159178053,0.771382563,0.773039729,0.117730037,1.195126231,0.218038132,-0.046975672,
0.160928428,0.599559916,-0.939248712,-0.236066745,-0.438702056,-0.027631157,0.277258958,-0.411437685,-1.454364323,-1.348901755,
-1.298317582,-0.162917732,-0.481655540,0.449045578,-2.524720384,-0.651065889,-0.625855829,-1.314675447,0.045156286,0.443430736,
0.593604058,-0.309836857,1.434279190,0.095471625,0.541157918,-0.434041753,-0.585028696,1.267957247,-0.583262985,-0.500475119,
-0.586316564,-0.806021619,0.208036926,-0.213242445,0.394850588,0.990941602,-0.422445313,0.028290839,-0.227045712,-0.127794412,
0.421949446,-0.476019694,0.074658801,-1.150008236,0.895305675,0.605158481,0.472464652,0.308587388,-0.209767696,-0.482050716,
-1.350759683,-0.806163777,0.210025478,-0.464952904,-0.407088427,-0.830794210,-0.409132779,0.101449480,-0.339953632,-0.446416679,
0.010045387,0.794974101,0.630139842,-0.223535522,-0.308159432,0.283693254,-0.845147830,-0.488341673,0.403429654,0.734932157,
0.429108917,1.041893749,0.675225289,0.883098972,-0.623459708,-0.088349098,-0.939375502,0.608319902,0.232749009,-2.048653451,
0.000348588,-0.453971665,0.300181994,-0.192104062,-0.385828083,-0.456211415,0.007869176,0.822824092,-0.925808372,-0.033082576,
-0.355596883,
-0.373752729,
-1.013929907,
-0.396824873,
1.331757001,
-0.224604737,
0.123698789,
1.062417455,
-0.646255104,
0.143205107,
1.025317576,0.166845948,0.475787799,0.236848667,-0.978028888,-0.429827601,0.242367870,1.178802894,0.172865950,0.273012856,
-0.065359067,0.349230164,0.293474868,-0.326216126,0.592837415,0.088757214,-0.134360170,0.333469296,0.059341916,0.417358790,
-0.185455252,-0.039830636,-0.673716004,0.442140905,-0.872611418,-0.916778423,-0.763165602,0.036704498,-0.106580410,0.490453966,
0.984663186,-0.063044143,-0.410278704,-0.123813833,-0.538725646,-2.007568025,-0.223898902,0.165576341,1.260766240,0.347266087,
-0.701451001,1.617420749,-0.636157087,1.001620800,0.417908049,-0.234463866,0.477807398,-0.764886981,-0.514967799,0.938802870,
1.569574044,0.299844576,0.246865493,-1.279326242,0.224101303,0.266607830,-0.811354263,-1.295620058,-0.491969392,0.980041495,
-0.562822506,-0.662536075,-0.110482386,0.458471531,0.630313646,1.526848562,0.469782886,0.836298530,0.037324122,-0.995852778,
-1.381460349,0.644508025,-0.622568151,-0.706334523,-0.707256487,0.370253414,0.140157775,0.207064462,0.918230954,-1.096556327,
-0.247379937,0.959867270,-0.564011551,-0.423854134,0.299528128,0.320495360,0.772381440,-0.666747086,0.170368959,-0.035483759,
-0.028111698,-1.302009418,0.550235717,-0.231109797,0.072997698,1.359568259,0.390984866,-0.136279228,-1.127624021,-0.364965559,
0.527421161,
0.544141186,
0.034166363,
0.366506854,
-0.016798529,
0.008013422,
0.570961239,
0.626798991,
0.154824291,
-0.045317578,
0.189833356,0.087756930,-0.496193135,-0.535302069,1.213754488,0.402339420,-0.614430585,1.377170701,0.645171587,-0.324424979,
0.134859848,0.703621851,-0.010957470,0.217404718,1.356065905,0.039341846,0.668675003,0.559872622,-0.638356069,1.214091607,
0.467978105,1.502224436,-0.823836021,0.324172310,-0.661630785,1.043441638,0.118113303,-0.041704046,0.274186235,-1.141487649,
-0.149010595,-0.499384530,0.378729585,-0.006062396,-0.247631077,-0.199500964,1.702094287,0.646124902,-1.069365654,-0.177144329,
0.034188451,-1.285956857,0.471359356,0.701218721,0.551424370,0.457712517,-0.170227055,0.743710307,0.698515798,-0.179320407,
1.232458309,-0.052889792,0.204143195,-0.916851704,-0.081702992,0.344087226,-0.537553378,-0.001038037,0.510521847,-0.901101414,
0.451241167,-0.280430572,1.187954672,0.144215536,0.082657359,0.555420159,-1.230283603,1.187745865,-0.459567445,-0.654520525,
1.292060973,1.124434148,0.576138576,1.395842400,-0.153795810,-0.549488515,-0.304275208,-0.638751182,0.205735458,-0.814489001,
-0.316502976,0.065196147,-0.468209697,0.440427985,0.255460235,0.331436103,-1.181107729,-0.280253456,-0.961611392,-0.175593856,
0.694235259,0.527140562,0.009803204,1.456637180,-0.591302876,1.573882404,-0.227260834,-1.340914401,-0.067261309,0.717488188,
-0.889108375,
-0.120657947,
0.949147060,
0.324759043,
-0.885881841,
-0.133570212,
0.289734631,
0.801073872,
1.155950106,
0.331191652,
0.065757025,-0.099947951,0.338051372,-0.128149130,0.302413444,0.386691224,0.141353818,-0.286852708,-0.728619963,-1.836694172,
0.749715308,0.911258744,-0.114602121,0.750172868,-0.401324234,-0.415090391,0.688441443,0.160905162,-0.350627474,0.729557596,
-0.478646203,-0.081959050,-0.846270573,0.352230980,1.157757926,0.802886725,-0.714139161,-0.455627549,1.404411541,-0.530364520,
-0.161320001,0.049415247,0.768478577,-0.262073527,-0.150084626,-0.171010632,-0.678930634,0.533240031,-0.365765003,-0.817470165,
0.144535058,-0.768668302,-0.300277822,-0.222031956,-1.729908103,-0.013783656,0.389590474,0.815403501,-0.594061182,-0.064365886,
-0.338294911,-0.434249018,0.413109134,0.328810788,-0.217052372,-1.073249180,0.210261104,-0.593420414,-0.532337057,-0.135621032,
-1.562201847,-0.157854764,0.531535038,1.359569163,0.238939324,0.254561630,0.782903529,-0.504672676,0.299723418,0.991336690,
0.996848384,0.796336731,-0.011287038,-0.461513551,-0.532659198,-0.679666749,-0.333105033,-0.714179595,-0.016300006,0.038791778,
0.326127365,-0.187217297,-0.451931882,0.107726573,-0.218844315,-0.504046430,-0.245874516,0.236234845,0.811814873,0.136780446,
0.212873235,-1.366273136,-0.300067639,-0.465901597,-0.508770275,-0.364297572,-0.899791668,0.680652679,0.073235621,-0.841158143,
-0.230712153,
-0.222326172,
-0.019995857,
-0.688425709,
0.150550296,
0.477051190,
0.015833945,
0.001786782,
1.184418277,
0.293951036,
-0.974895952,0.534477781,-0.256704300,1.689998744,0.447538589,0.023686326,-0.472249871,-0.469535308,-0.990860616,-0.033558523,
-0.224529074,0.077553935,0.494924690,-0.889139692,0.058163472,-0.012295231,-0.494557276,0.637721623,0.146663161,0.171790215,
0.793211173,-0.456752147,-1.545283675,-0.044379772,0.467419824,-0.425964777,0.549263232,-0.019733806,0.950375412,0.079218143,
-0.260996418,0.159942028,-0.427454870,0.037079743,0.391608112,1.412845060,-0.305586830,-1.624528182,-0.201786155,-2.169432047,
-0.058544810,-0.088198092,-0.219102512,-0.106891377,-0.426045524,0.086177809,-0.353882629,0.540517769,-0.715148417,-0.608734012,
1.628383663,0.153674719,-0.017288260,0.805375362,-0.100143157,-0.968300010,0.612256380,0.502797794,0.282037482,-0.313895518,
0.178980577,0.850176918,-0.284690370,1.882109441,0.292422088,-0.889725246,-1.003822695,-0.996443034,0.310359902,2.178609333,
1.158112590,0.620438082,-0.794638456,-0.080805798,0.064715408,1.160421443,0.256285278,1.103924277,0.232683122,-0.255554907,
-0.026927979,-0.256059180,0.097292602,-0.274313475,0.608542852,-0.694563993,-0.315898390,-0.580381104,-0.752580206,-0.980887791,
-1.237885538,0.212891584,0.743925363,0.371475711,0.396950652,-0.510010820,-0.203602758,-0.307199019,0.428840313,-0.015465802,
-0.368064487,
0.379154809,
1.190233384,
0.523796921,
0.474699172,
0.666970914,
0.654337679,
0.818107211,
-0.301231301,
0.001791971,
0.662084741,-0.730514954,0.435550705,0.503643286,0.587838207,0.261105712,1.621308891,-0.749036132,0.964868912,-0.443865506,
-0.107692146,-0.511301141,0.215151658,0.435812075,0.248779779,0.675991600,-0.081515495,-0.741114555,-0.291913954,0.441562878,
1.267412255,
0.952603355,
