// Neural Network File Format by Kyle Julian, Stanford 2016
16,2,2,10,
2,10,10,10,10,10,10,10,10,10,10,10,10,10,10,10,2,
0,
-10000.0,-10000.0,
10000.0,10000.0,
0.0,0.0,0.0,
1.0,1.0,1.0,
-0.137774930,0.854585284,
0.535549901,0.170650313,
0.356225359,0.489552865,
1.050692290,0.437632467,
-0.641139138,-0.075895070,
-0.029000174,0.030173685,
0.112632579,0.202848842,
0.517446920,0.048424747,
0.092837535,-0.187322155,
-0.081956476,0.360016765,
-0.968227910,
0.059825514,
0.376179647,
0.461125539,
-0.179918450,
-0.320349700,
-0.451935182,
0.118228140,
-0.091163985,
0.043227338,
0.539684487,0.020087543,0.049459842,-0.417052937,0.323151202,-0.187971681,0.305761899,0.440994903,-0.595498360,0.178990063,
-0.462003023,-0.810394716,-0.424677274,0.528611949,-0.578246050,-0.007682542,-0.326701205,-0.392578030,-0.589752241,-0.553036632,
-0.118790588,-0.115273136,-0.367522474,0.426414707,-0.536171352,0.103471096,-0.035771783,0.365634847,0.138415252,0.029000835,
0.493332613,-0.413627714,-0.071391545,0.677194869,-0.194624690,0.717872669,0.982208544,-0.114028979,-0.615168983,0.261356523,
0.750382210,-0.362668848,0.419443608,0.578014281,0.750210703,-0.561110992,0.436907288,0.040211165,0.168230681,-0.395374964,
0.171249543,0.213081996,-0.749664383,0.257127405,0.304965260,-0.124345823,-0.568229106,-0.403637766,-0.142316757,0.702427355,
0.068717793,-0.667285339,0.034452435,-0.134296177,0.215063317,-0.331151931,-0.277487757,0.363916251,-0.529709378,-0.152978371,
-0.065634834,0.052025492,0.025896351,0.739831424,0.078615776,-0.364173812,-0.089826535,0.386593493,0.030202239,0.209583656,
0.162450287,-0.172652278,0.022985307,-0.289965218,0.014622091,0.427270589,-0.255332828,0.189617807,0.676904516,0.270287717,
0.204787894,0.425769795,0.330529873,-0.398349455,0.246933423,-0.256930920,0.365946891,0.771506989,0.096909280,-0.157708640,
0.536342440,
-0.168196171,
0.431510398,
0.303496045,
0.363368160,
0.084645090,
-0.773698200,
0.880357592,
0.598547740,
0.524390532,
-0.461978085,-0.408223995,0.326512670,0.272812257,0.176270700,-0.454453766,0.000044193,0.295138518,-0.333348876,-0.147286816,
-0.059821304,0.534543418,0.284378743,0.351579140,0.309547170,0.177027194,-0.303896328,-0.647534851,-0.299803027,-0.011970356,
0.151945906,-0.308450956,0.977609629,-0.529517597,0.146608626,-0.016377244,-0.072767687,-0.653960758,0.393742020,0.422867678,
0.358640442,0.891197575,0.296768294,0.446636651,-0.104899328,-0.743226595,0.287197307,0.028767283,0.510129707,0.688863444,
-0.284426131,0.359316090,-0.795293549,-0.988583205,-0.490765871,0.154331868,-0.178437743,0.388618049,0.681761604,-0.682125070,
0.066908814,0.023367396,0.756049099,-0.038929257,0.167234247,-1.176665093,0.340533493,0.486910208,0.250222556,0.279132535,
-0.014002572,-0.792315461,0.011238512,0.309805274,-0.086594529,-0.180719072,0.200981310,-0.330888616,-0.192434111,0.601209248,
-0.537554979,0.228304446,-0.157861440,-0.066818159,-0.493453672,-0.359801160,-0.308885790,-0.128767152,0.048948878,-0.429593982,
0.100704663,0.357835471,0.049862457,-0.422239825,0.257917492,-0.484889263,0.044400210,0.201109443,0.042457126,-0.361757762,
0.951161672,1.079015734,0.506004448,-0.292924381,0.144883452,0.276551743,-0.457058707,0.932476726,0.296197590,0.370576759,
-0.038098360,
-0.160672773,
-0.242521886,
0.183118421,
-0.326024328,
-0.161553650,
0.105033530,
0.027688311,
0.654374570,
-0.324426199,
-0.137575779,-0.026266762,-0.496898604,0.235477873,0.048354206,-0.516650427,0.783985840,-0.064474751,-0.193033477,0.117305714,
1.245546693,0.368608090,-0.279029382,-0.290908985,-0.027755090,-0.052579815,0.402228349,-0.309320126,0.453174764,0.030104244,
0.104724936,-0.630274956,-0.663840003,0.449167736,-0.128046928,0.274895605,-0.452094734,0.039010216,-0.558249851,-0.617259000,
0.641315655,0.180002846,0.743275738,-0.162988162,-0.026307757,0.114328707,0.379130932,0.490547575,-0.047635673,-0.588071797,
-0.051415799,-0.113978110,0.110859537,0.225006032,0.146346990,-0.535891622,-0.213734984,0.050957123,0.536623622,1.134042960,
-0.179119883,0.167539616,0.024989113,-0.092706846,-0.585230568,0.014281493,0.284439469,-0.594679480,-0.586712216,-0.823695972,
-0.338791869,0.173572811,0.437920442,0.483805010,0.260995917,-0.908395473,0.440204721,0.273452591,0.525027948,0.322742349,
-0.361959002,-0.049192055,0.164038089,0.410381722,-0.012887069,0.215006991,0.211122855,0.752526443,-0.355149637,0.318251712,
0.574431856,-0.151648668,-0.459598414,-0.338751831,-0.311272532,0.190717258,0.323889705,-0.222085670,-0.289157347,-0.558725686,
-0.022968618,-0.139088606,-0.509001920,0.234490636,0.737860015,0.989069040,0.345287761,0.841259335,0.161745221,-0.156254695,
-0.414482700,
-0.220024342,
-0.436558281,
0.150065053,
-0.080423705,
0.258122052,
0.710064703,
0.921145412,
0.242620628,
0.103483756,
0.211816164,0.947291990,-0.071220693,-0.024546137,0.530021292,0.475330918,-0.011099854,-0.408049794,-0.297632111,0.265087847,
-0.298029439,-0.083082668,-0.232576014,-0.012893313,-0.374344878,0.273982870,0.272235289,-0.160002274,-0.351111855,-0.901534036,
0.436300462,-0.586081827,0.010999843,-0.258211125,0.120857543,-0.220413036,-0.513281139,-0.548225562,-1.145059569,0.559241570,
-0.062628416,0.693262330,0.416277923,0.039029194,-0.641021994,-0.021308771,0.167549579,0.045582505,0.472856674,0.020472548,
0.035816192,-0.506598644,0.039592208,0.587819773,0.090336378,-0.480078670,-0.695712984,-0.394656084,-0.308493965,-0.385324430,
0.176132521,0.255844670,-0.014550758,-0.073437967,-0.322348642,-0.699023613,0.179431039,0.215040212,0.181222092,0.014786088,
0.171080671,-0.042092675,0.119879247,-0.425854674,-0.337871878,-0.300007321,-0.093503711,-0.772580642,0.276832828,0.576441554,
0.464119674,0.272617662,-0.236330422,0.023134449,0.015993766,-0.827237810,0.501203881,0.493217622,-0.727310034,0.157337474,
0.041131844,-0.604271394,-0.364265184,-0.420254481,-0.053145068,0.056453336,-0.968897694,-0.228848059,-0.305119966,0.610953178,
0.024877406,-0.187485757,0.093312908,0.477609600,0.673655809,0.558978281,0.389147165,0.035677458,0.280335636,0.414144889,
-0.205582854,
0.448829570,
-0.156737789,
-0.410524088,
0.061487230,
-0.262447260,
0.666268097,
0.131911527,
0.149869757,
0.225998882,
-0.009318113,0.800555954,0.197406616,0.380743946,0.287374260,0.519933198,-0.822840731,-0.605516225,0.465680583,-0.989104869,
0.166151202,-0.354448659,-0.150430779,-0.146401962,0.006166263,-0.685039019,0.060745477,0.590805431,-0.387413410,-0.228472414,
-0.333436906,-0.327340284,-0.616510349,0.502882352,-0.001824562,-0.283021985,0.407841466,0.464612598,0.267227936,0.058254512,
0.222524904,-0.082638485,-0.018994885,0.032332716,0.151091236,-0.468731509,-1.114769718,-0.602334249,-0.247116720,-0.173184631,
0.081688693,0.407377547,0.677890724,-0.076539424,0.129606851,0.050141820,0.714080135,0.143391494,-0.332838180,-0.399655992,
-0.277352771,-0.050238311,0.083428280,0.130518979,-0.574923042,-0.036344718,0.357715907,0.044562220,-0.108233348,-0.009688540,
-0.227799737,-0.489749177,0.359383795,-0.164685719,0.284076345,-0.006250394,0.349374547,0.140838206,0.293161850,0.257637643,
0.130225900,-0.505118248,0.025123638,-0.090365921,-0.586142531,1.124402881,-0.309502189,0.494760901,-0.191996397,-0.168942437,
-0.077712198,0.345034814,-0.631101704,0.536662840,0.202269712,-0.185669077,-0.277672465,-0.125757442,-0.240194667,-0.056978762,
-0.201559336,0.610360511,0.135390468,0.418708347,-0.554177268,-0.379323009,0.865113702,-0.264672814,-0.469563670,-0.120817391,
0.282923473,
0.546713090,
-0.271360010,
0.499871521,
-0.179894170,
0.123040290,
-0.325711522,
0.451190113,
-0.170274739,
0.300173365,
-0.298854546,0.013545645,0.164808157,0.926232517,0.165194527,-0.004409137,-0.114221139,-0.054754338,-0.057464346,-0.168467729,
0.089927583,-0.141749060,-0.051270589,0.148200591,0.333933690,0.199159301,-0.263627088,-0.205200697,-0.332630358,-0.038966804,
-0.781394874,0.717134919,0.350208280,-0.223461795,-0.175536001,0.034236490,0.345056133,-0.376295130,0.565658344,-0.272110756,
0.082397560,-0.206878119,0.239424060,-0.383840835,0.050332840,-0.205813027,-0.282470188,0.394955941,-0.168454660,0.121291909,
-0.182010064,-0.190851679,0.776289007,0.090629208,-0.382506021,0.115451421,-0.243000828,0.268304083,-0.583382756,-0.499349822,
-0.864699970,-0.487863209,-0.011348261,-0.070466263,-0.175588918,0.101614502,-0.301114048,0.827490164,-0.803934398,-0.361869123,
-0.773969758,0.631084817,-0.633157664,0.247251539,-0.065486455,-0.423540052,-0.319419379,-0.108562552,-0.223808223,-0.197509481,
0.078334866,-0.699654816,0.270854611,-0.277312817,-0.114101224,0.031179264,-0.474389666,0.208969171,0.113790874,-0.141572513,
-0.307930782,0.974924146,-0.457706709,0.203892933,-0.012351313,-0.063553580,-0.582350770,0.804676142,-0.429889336,0.030568603,
0.273887729,-0.359597723,0.028312960,-0.695359652,-0.128467761,0.695051604,-0.998454739,0.144547769,1.022629523,-0.692144492,
-0.206466158,
0.228636924,
-0.444724227,
0.700270084,
0.374452404,
-0.446078887,
0.016632490,
0.097845181,
0.246419266,
-0.147188833,
-0.183014753,-0.333669598,-0.429397534,0.805695885,0.046605247,0.091283667,-0.016908499,-0.063454998,0.015646883,0.469336705,
-0.362605941,-0.205564791,0.188687136,-0.161378585,-0.325761310,-0.336687037,0.494296484,0.163879216,-0.252608816,-0.163116847,
-0.504349238,0.525811222,0.361144214,-0.648032402,0.709307833,-0.472918126,-0.011102345,-0.095414221,0.700575714,1.141421358,
-0.145226861,0.037596837,0.565002335,-0.198838786,0.650401186,-0.185770462,-0.215763236,0.694746215,0.039174909,-0.806468112,
0.194319324,-0.266672864,-0.638449114,0.429001214,-0.528943504,0.159895580,-0.621828500,-0.138570009,-0.110022910,0.132564670,
0.081813586,0.693091723,-0.044011579,1.113816162,-0.128785590,-0.520482864,0.530459499,-0.298246857,-0.068802088,-0.040879030,
-0.150666772,0.003319852,-0.478295402,-0.713611033,0.463851863,0.164650559,-0.377867642,-0.464693938,-0.425827187,-0.384351399,
0.493526143,0.380750279,0.628427240,-0.475079851,0.001339666,0.598588043,-0.200345997,-0.570837592,-0.136236707,0.333511609,
-0.233712135,0.417746435,-0.093906475,-0.031386324,-0.364272492,-0.024104833,0.364809433,-0.790109541,-0.267351025,-0.283976739,
0.303953962,0.482150899,-0.100520485,-0.059476271,-0.242193404,-1.289395433,-0.568595841,-0.108964913,0.031999679,0.597328016,
0.056504262,
0.608850308,
-0.086165544,
-0.207892327,
0.179099505,
0.046562400,
-0.663980612,
0.712512939,
-0.149248679,
0.745112191,
-0.364357439,0.016454222,-0.763566091,0.450365727,0.528456176,0.079666315,-0.189011926,-0.682392945,-0.811224382,0.345927699,
0.032846137,-0.092738979,-0.003513632,-0.157646088,-0.436628949,0.099207214,-0.094742293,0.501670608,-0.275327243,0.530866044,
-0.476228290,-0.443296215,0.054878130,0.385048294,0.725673241,-0.594053528,-0.453243207,-0.817289061,-0.146941257,0.117579256,
-0.525041087,-0.565209247,-0.516562804,0.190920825,-0.127566544,-0.095997098,-0.688999024,0.888551693,-0.095694118,0.217849577,
-0.303239320,0.293924430,0.762526792,0.198001910,0.162191877,-0.260971552,0.430750179,0.422965355,-0.970948206,0.888208059,
-0.690382217,0.162047915,-0.087906241,-0.026239609,0.777375457,0.139996025,0.263120605,-0.049612903,-0.687496849,0.112995761,
0.126135334,0.287592144,0.519782860,0.340797606,-0.105870916,-0.163154620,0.062903432,0.238255329,-0.115041628,0.087696027,
-0.168762102,-0.054919080,0.100328134,0.593747671,-0.351307465,-0.079534143,-0.381185142,0.253287502,-0.885364335,-0.164684335,
-0.225095303,0.060651088,0.006623303,1.060983315,-0.130886584,-0.336715635,-0.000802053,0.014634914,-0.119199779,0.324674887,
-0.267211524,0.717746454,0.583106428,-0.268372519,0.576487786,0.650552314,-0.531503039,0.560677368,0.648411582,0.176175068,
0.190905122,
0.676828871,
-0.567113982,
0.344471302,
-0.465649834,
0.489362107,
0.030237803,
0.003805671,
0.197107229,
-0.454399297,
-0.121668050,-0.065844622,0.057142095,0.598764623,-0.697194447,-0.266423568,0.181518855,-0.731274987,-0.702867189,0.051788651,
-0.063663947,-0.453365653,0.143083248,0.098893752,-0.439492317,0.744371530,-0.120031737,0.634062565,-0.429169799,-0.335573020,
0.709192297,0.451725080,-0.138967422,0.241097837,-0.090764531,-0.035191098,-0.096761261,-0.601661109,0.383392616,-0.217831431,
-0.176075630,0.011455799,-0.822129254,0.074787854,0.429284880,-0.517169247,-0.401193429,0.676051294,0.432426310,0.939390329,
0.543946742,-0.481550596,0.916146058,0.286659861,-0.252627607,0.356510652,0.050769478,-0.467414268,-0.204114419,0.440006575,
0.178527670,0.270337694,0.089513603,-0.414248849,-0.177962913,0.222350542,0.629639547,0.103793038,-0.153794637,-0.386705032,
-0.109712848,-0.023950222,0.163755260,0.333895036,-0.373443552,-0.867677763,0.878156261,0.450131140,-1.084786667,0.006224042,
0.124155119,-0.127166685,-0.189787296,-0.175975708,-0.561510420,-0.220771496,0.234822178,0.027158301,0.281951103,-0.338310189,
-0.428283042,-0.854627544,-0.617445637,0.086801435,0.118733950,-0.039831353,-0.926664756,-0.407974731,-0.125582996,-0.082462042,
0.355290182,0.083629818,-0.334204791,0.384467489,-0.362399589,0.529986991,-0.392997020,-0.191525339,0.247110219,0.151131345,
-0.004426489,
-0.169586431,
0.425199759,
-0.085486096,
0.532876993,
-0.008186323,
-0.015959350,
-0.561215824,
-0.074194989,
0.008439403,
-0.150648099,0.043116894,-0.653575431,-0.196097143,-0.121649832,-0.388211836,0.112098552,0.728675692,0.345742679,-0.341850625,
-0.381235370,0.249341390,0.110638650,-0.792905146,-0.147335530,0.234859731,0.465020919,-0.094570039,0.063596564,0.030286512,
-0.557967367,-0.463771809,-0.549584879,-0.109302869,0.017493057,0.518104870,-0.079912600,0.378970844,0.930339166,0.061039948,
0.473365561,0.584710716,0.521893032,-0.491118161,-0.105146312,0.437677124,-0.935834222,-0.570653154,0.221928324,-0.019979780,
-0.091130352,-0.473799667,-0.400190976,0.646091976,0.005248427,-0.345320508,0.133882656,-0.483541012,0.759886498,-0.346090483,
0.730648150,0.409898351,0.115342938,-0.295908958,-0.302958519,0.394704880,-0.356300924,-0.076398650,0.153764112,-0.157767502,
0.587013223,-0.029690390,-0.781778336,0.587481567,-0.814089989,1.091993870,0.359274082,-0.332986907,0.669813361,-0.050654155,
-0.921724570,-0.644665695,0.287422051,-0.600010987,-0.682631887,0.350661204,0.515039888,-0.029828937,0.094823133,-0.368985153,
0.244959562,0.239026377,-0.161821315,0.448313134,-0.242532073,-0.413197166,0.432616345,-0.264563980,-0.167341518,0.111384374,
0.270027874,-0.122585069,0.085379807,-0.114092389,1.115548646,-0.142934979,0.620113033,0.228473182,-0.600096381,-0.240439945,
-0.074069474,
-0.129459492,
-0.705345303,
-0.139827781,
-0.079295576,
0.066583474,
0.189157072,
-1.015286438,
-0.134755416,
-0.220717750,
0.297022253,-0.380694481,-0.270121738,-0.704161300,-0.084857922,-0.757213229,0.401460941,1.253491071,-0.034556463,0.325001965,
-0.511989104,-0.579227475,-0.017453431,0.493284161,0.184180087,0.251705007,-0.346460416,-0.081579322,-0.702034034,0.238792190,
-0.616347454,-0.136399156,-0.181891631,-0.135975608,0.162243038,0.322481104,-0.535876467,-0.449307071,0.084109163,0.473566071,
0.626433248,-0.087881178,0.494197606,-0.180791113,0.018644438,-0.170487710,-0.097042463,-0.280853630,0.330147813,1.033395764,
0.093938496,0.142622350,0.296404946,-0.011110018,0.059625573,-0.346115937,0.039604682,-0.385678782,-0.096268134,0.433899907,
-0.492054431,0.357193728,0.312171928,-0.457807149,0.285312335,0.714340242,0.333072719,-0.198678914,0.368898628,-0.300646394,
-0.133537829,-0.306942914,0.371799173,-0.769466735,-0.063482134,-0.536426802,0.906356734,-0.151027075,-0.146143648,-0.236244335,
0.318545384,-0.157583566,-0.007975694,0.526636205,-0.065684924,0.037291238,-0.478756116,-0.715525154,-0.245860734,-0.584389945,
-0.533996866,-0.475903867,0.388142151,0.043704518,0.290876283,-0.134487437,0.353852404,0.125900950,0.092849249,0.630059339,
-0.805877652,0.530189724,-0.415724285,-0.605964639,-0.434598433,0.281091244,-0.234990818,0.110678949,-0.556516620,1.008312145,
-0.233649832,
0.045795454,
-0.022612226,
-0.108837456,
0.580305996,
0.049180657,
-0.034152618,
-0.242117014,
0.486603707,
0.188017181,
0.586150876,-0.002186425,-0.439020198,0.823287822,-0.080405862,0.504803523,-0.247142010,0.690501315,0.063384074,-0.072443826,
0.465467287,-0.152529327,0.002611852,-0.219461893,0.386167411,-0.085008008,-0.304594307,-0.415266333,0.322860662,0.085294032,
-0.034799392,0.059756408,0.086675132,0.303941742,-0.569352575,0.604646634,0.218136565,-0.502926483,-0.394202200,-0.081719212,
-0.690686513,0.338028840,0.215949470,-0.468376915,-0.443300474,0.686611806,-0.975669363,-0.347354095,-0.152052043,-0.325766435,
0.100359301,-0.972022677,-0.175560485,0.789456809,-0.179739766,0.322597833,-0.219070473,0.025048146,0.117188451,-0.758251917,
0.499994252,0.429466737,-0.493598883,-0.649115995,-0.062311882,0.795689498,-0.258805649,-0.106191747,-0.510399067,0.948931464,
-0.661204138,0.416616896,0.130217222,0.765000632,0.431458750,-0.131826840,-0.241380826,-0.595714225,0.305160118,0.301067153,
0.209986501,-0.180153342,0.317908002,-0.583659086,-0.137623919,0.259254707,-0.202702512,-0.000493201,-0.129643202,0.739516987,
0.101602722,-0.257814909,0.354207666,0.619828400,0.177362850,0.436393194,0.043265587,0.727740989,-0.128220122,-0.399406106,
-0.509987924,-0.087506498,-0.757731128,-0.668343666,-0.189448583,0.008811224,-0.753569178,-0.222533345,0.781269861,0.394111604,
0.060985533,
-0.139546847,
0.074507120,
0.209131489,
-0.815183032,
-0.436964766,
-0.496530898,
-0.469018137,
-0.079503848,
0.282794052,
-0.686569940,-0.017792665,-0.253090532,0.154386784,-0.584431578,-0.511995755,-0.332581404,0.692780938,0.373515674,0.498835346,
0.710018482,0.435427218,0.745801665,0.621229143,0.189443659,-0.137384478,0.138948915,0.137391759,-0.911455769,-0.441799059,
0.708642908,0.158906911,0.017607805,0.191096374,-0.596158731,0.360285077,-0.428425069,0.173248226,-0.125255422,0.481802492,
-0.682473791,-0.410417666,-0.024001963,-0.254060732,-0.173308798,-0.429154518,0.206284715,-0.292090579,-0.069600281,-0.736677948,
0.443334091,0.114384269,-0.488940379,-0.098974467,-0.037442831,-0.431222706,-0.105713576,0.460328250,-0.317324243,-0.794911382,
0.380422309,-0.077684153,-0.047459499,0.239549110,-0.129832459,0.313745173,-0.306977650,0.277011961,0.995229049,-0.029936366,
-0.124024513,0.397671839,-0.413216185,-0.188218267,-0.334684701,-0.182316800,-0.233389125,0.236570948,0.218123538,0.086942200,
0.001889652,0.313167906,-0.198164493,0.163418054,0.112871141,-0.122664959,0.252923291,0.152031968,0.021937540,-0.330445717,
0.431047118,0.404588054,-0.611482259,0.151779666,-0.250287125,0.379570930,0.331468305,-0.137700910,0.400196455,-0.036338506,
-0.611964252,0.006827110,0.324414119,-0.501630780,-0.457087848,-0.593905727,0.188586999,-0.051291941,0.045106909,0.196180151,
-0.371344638,
0.432568181,
-0.683819692,
-0.341039295,
-0.324561513,
0.168152634,
-0.130208738,
-0.047975141,
-0.190687549,
0.181335009,
-0.190596450,0.448523947,0.188697143,-0.369530854,0.634002052,0.060853612,0.564759378,0.044966242,-0.161941047,0.139428114,
0.462874003,0.017108897,0.110589393,0.234704217,-0.803543266,0.248120711,-0.370651027,-0.327246794,-0.303436986,0.581465937,
0.142711184,-0.034381184,-0.907265201,0.120346347,0.598298270,-0.288733157,-0.348904091,-0.437789470,0.703494704,-0.080395688,
-0.059692284,0.306297762,-0.072423860,0.270168141,0.421813052,-0.562256463,-0.462105667,-0.102455779,0.292223142,-0.565880676,
-0.566917355,0.580449130,0.805105943,0.421296186,-0.361308483,0.443982088,-0.011067109,-0.140233883,-0.950985063,0.145716848,
0.144332334,-0.123545501,0.141943051,0.326816364,0.053864164,-0.113087416,-0.300493647,0.870966098,0.077417864,-0.224805946,
-0.077659251,-0.311632548,-0.263582396,0.029293286,0.405707982,0.212994633,-0.533972147,-0.338832107,0.376473539,0.160213136,
-0.296004678,0.329037480,-0.415509661,-0.152839926,-0.103414938,-0.333977880,0.308291052,-0.066616829,0.368667369,0.510086565,
0.547510754,-0.813887465,0.180079906,0.160644715,-0.984890936,-0.175620610,0.315456335,-0.147651640,-0.662867161,0.517548529,
0.094866192,0.450787436,-0.710568010,0.064612768,-0.408541143,0.088499456,0.188311076,0.323980953,0.208668948,-0.648664260,
-0.286750186,
-0.492489581,
0.088031705,
0.312696988,
-0.175773207,
0.111533706,
0.897146672,
0.491100136,
-0.358746746,
-0.476914574,
0.120461144,0.088011988,-0.368725042,0.060672155,0.265792589,0.061310024,-0.848204222,0.436734611,0.253730037,-0.368515471,
-0.469097218,0.229146428,0.024225353,-0.116791391,0.534418478,-0.216739153,0.264291980,0.673486971,-0.444906678,0.212087237,
-0.699842700,
-0.323225439,
