// Neural Network File Format by Kyle Julian, Stanford 2016
61,2,2,50,
2,50,50,50,50,50,50,50,50,50,50,50,50,50,50,50,50,50,50,50,50,50,50,50,50,50,50,50,50,50,50,50,50,50,50,50,50,50,50,50,50,50,50,50,50,50,50,50,50,50,50,50,50,50,50,50,50,50,50,50,50,2,
0,
-10000.0,-10000.0,
10000.0,10000.0,
0.0,0.0,0.0,
1.0,1.0,1.0,
0.098255781,0.221254349,
0.070988066,0.255656317,
-0.122735500,0.224075072,
0.350550653,0.001082544,
0.251087966,-0.104192605,
-0.229649097,0.065595778,
0.079962596,-0.046868495,
-0.137910904,-0.025653622,
0.177960420,0.029234928,
-0.031732536,-0.118693030,
-0.152919712,-0.062905001,
-0.009787702,-0.113799693,
-0.068399959,0.118926346,
0.105175283,0.267589491,
0.097454936,0.200021781,
-0.008603757,-0.159888433,
-0.091776057,-0.166745631,
-0.066940232,0.016036497,
0.018742240,-0.088952373,
0.047292405,0.060968045,
-0.113992018,-0.244101488,
0.024883190,0.023850302,
-0.143670342,0.032499602,
-0.007557173,0.297416781,
-0.173399840,-0.226600507,
0.141411627,0.395440626,
-0.012298727,0.434998006,
0.118151786,0.028784217,
0.117793264,-0.238610432,
-0.050700303,-0.024655936,
0.081261509,0.158986967,
-0.006991746,0.084244189,
-0.032340391,-0.110643927,
-0.098038359,-0.327480518,
0.061690868,0.067675249,
-0.079926528,-0.158219790,
-0.005853168,0.047300596,
-0.080749275,-0.183664185,
-0.232620006,-0.115269161,
0.296144068,-0.278622277,
0.086066894,-0.127494549,
-0.255934725,-0.231246381,
-0.134870321,0.252283263,
0.022772848,-0.091904608,
-0.203867876,-0.008200678,
0.040380658,0.146861096,
0.168026931,0.054894457,
-0.038820300,-0.184789202,
-0.409349892,-0.032712859,
-0.007820832,0.130654378,
-0.153691569,
-0.133542882,
-0.019833642,
0.045688548,
0.093879279,
0.193705654,
-0.021010562,
0.003516005,
0.013327516,
-0.274369480,
-0.260860665,
-0.004439074,
0.041993680,
-0.140807504,
0.070862601,
-0.054824647,
0.111404853,
0.081112911,
0.153792505,
0.119600637,
0.146358072,
0.111160574,
-0.054096749,
0.137649040,
-0.149840506,
0.150621345,
0.022228253,
0.093547860,
-0.173002741,
-0.403005418,
0.023008403,
-0.144081091,
-0.209354425,
-0.024675537,
-0.080378955,
0.124923090,
-0.001022748,
0.104935286,
-0.388672473,
-0.156906407,
0.096305402,
-0.101067476,
-0.100656058,
0.155998634,
-0.081805103,
-0.187890983,
0.096057727,
-0.268776058,
0.176907248,
-0.226120794,
-0.051614708,-0.192000330,-0.185729289,0.107354635,0.009821602,0.111621206,-0.174389932,0.078159008,0.073411262,0.192891319,-0.204799622,-0.003247663,-0.224951241,0.022487689,0.120763505,-0.163094952,0.088474189,0.082495687,0.049109155,-0.266261748,-0.072437908,0.110011597,-0.276201034,0.127315415,0.308243078,-0.088073010,0.118155914,-0.180037842,-0.222306985,0.199952993,-0.056050031,-0.108553728,-0.075787944,0.234108446,0.069129742,0.398427840,0.058511787,-0.117230147,0.172877431,0.098035913,0.126613919,0.025622346,-0.135650204,-0.078865630,0.113290163,-0.168582154,0.253975696,-0.067860534,0.053085915,0.228494994,
0.194419454,-0.151814422,-0.008991655,0.116563569,0.290256401,-0.027806282,-0.225477307,0.014903039,0.110775278,-0.013197781,0.263938125,-0.151091388,-0.080746789,0.062108258,0.279904255,-0.029292881,0.070054132,-0.041596444,0.039336166,0.003969588,-0.152389264,-0.067670149,0.038727043,0.137498415,-0.080305620,-0.088780230,-0.049538802,0.107346432,0.100702377,-0.162134776,-0.002987196,0.127268851,0.026190626,-0.077411832,-0.210484027,-0.030141444,0.168565760,0.150673698,0.229006443,0.015462737,-0.190039926,-0.020115384,0.015592923,-0.200636223,0.023658172,0.034961442,-0.046499031,-0.107977306,0.111448191,0.214062462,
-0.008506771,0.023103732,-0.168093154,0.238124133,0.141253471,0.131053456,-0.086843003,0.039852203,0.174251134,-0.085337723,-0.005854343,-0.057492310,-0.269833623,-0.027261546,-0.263892797,-0.069027014,-0.057841296,0.045069525,-0.098574084,-0.030860704,0.208276812,-0.063055482,0.000530372,0.000633502,0.110116929,0.010412498,0.096176726,0.003054670,0.169099086,-0.072180095,0.079663192,0.069091043,-0.109744228,0.106927930,0.149956139,-0.153051607,0.149807726,-0.020567650,0.146738534,-0.253804732,0.066369311,-0.126130142,0.027152457,-0.115353819,-0.149160230,0.053364883,0.230618948,0.134878226,-0.063745573,-0.120363190,
0.163655934,0.093061038,-0.087836592,-0.221879477,0.127747292,-0.303262659,-0.253458131,0.231797831,0.137398173,-0.022751129,0.062464214,-0.076890970,-0.031744049,-0.228895105,0.108872715,-0.142868386,0.018203444,0.155319141,-0.086254065,-0.170603340,0.117796521,0.041073555,-0.037829923,0.059849847,-0.080225986,0.106720134,-0.201075281,-0.022703018,0.073131629,-0.138172595,0.111666288,0.000644715,0.086062385,-0.030686926,0.289982313,-0.156683418,-0.190652046,-0.019507081,-0.066075243,-0.194143778,0.175341150,0.119794530,-0.000695760,0.155964801,-0.018313587,0.064704179,0.088211110,-0.080685563,0.034835247,0.004916072,
-0.044185324,-0.020825160,0.079645389,-0.034904340,-0.316254331,-0.133371270,-0.064504600,-0.151677238,0.116373089,-0.174384433,-0.282510884,-0.207973663,0.137400517,0.031837168,0.027398802,-0.056676524,0.185400881,-0.047313794,0.166294196,-0.044710284,-0.146127814,0.076784963,0.077692240,0.036416387,-0.103155082,-0.133647056,0.026103821,-0.023052625,-0.049488295,-0.065854632,0.033752109,-0.050517130,-0.093526941,-0.052348692,0.070361413,-0.203409368,-0.004685358,-0.106536519,0.058944560,0.177334692,0.192801640,-0.001418094,0.069250151,-0.062826565,-0.196376993,0.107406009,0.156979842,-0.173528893,-0.104720461,-0.087980781,
0.081947276,0.043728162,-0.038484992,0.144624891,-0.287005639,0.072716609,-0.031517749,0.066336650,0.302191906,-0.121999601,0.129800533,-0.052615810,0.179611391,0.020493889,-0.214018951,-0.195706604,-0.064295423,0.091412769,0.038723112,-0.089709728,-0.079195031,0.064000528,0.050609732,-0.042966717,-0.102694162,0.166066385,0.139896874,0.075742210,-0.007938000,0.042351240,-0.153295198,-0.090431433,-0.008264537,-0.078254352,-0.138966970,0.055721747,0.136037236,0.185700389,-0.104740706,0.166684527,-0.005768818,-0.116232624,0.169120613,0.218626252,0.018692230,-0.042638855,-0.002005975,-0.031749372,0.112255095,-0.061651639,
0.037721896,-0.040375910,0.088967458,0.062054825,0.093426897,-0.158038921,0.168417510,0.249188467,-0.045735685,0.083009951,-0.019438241,0.217820562,-0.065094957,0.007014469,-0.203604905,-0.039084685,0.047828006,0.137651463,0.016746433,0.051367203,0.200013097,-0.146586745,0.005414860,0.007760065,0.079243804,0.047891955,0.282924744,0.175301815,-0.049998380,-0.168817512,0.050029051,0.041816402,-0.049138737,0.069740022,-0.097849321,0.017836206,-0.037206574,0.064206512,0.034122265,0.090964310,-0.001009436,-0.142874616,-0.151338183,-0.124668324,0.012216522,0.235700294,-0.283416978,0.166875348,-0.071281975,-0.077159729,
-0.065086418,0.285453981,-0.109073400,0.135354624,-0.020867981,0.029745277,-0.028934617,-0.168111401,-0.261114041,-0.080623567,0.066710056,-0.189459306,0.060348197,0.012558512,0.009646604,0.069894353,0.167746887,-0.088496267,-0.071845511,-0.079216527,-0.279201683,0.117614061,-0.167616960,-0.180560223,0.103481062,0.005490179,-0.111584339,-0.184066277,0.009609620,-0.083754349,0.099116885,0.099520078,0.065040920,0.037657994,-0.217347464,-0.040387562,-0.057640877,0.082207071,-0.015266182,-0.068800506,0.138059229,0.257682984,0.371711016,0.169438231,0.096468183,-0.023769490,-0.085479478,0.037393810,-0.022542192,0.212767184,
0.068804754,-0.017938567,-0.141998086,0.093717948,-0.092477062,-0.075784090,-0.089627600,0.115448739,-0.150623036,-0.060941180,-0.197114704,0.322828714,0.012850965,0.176628095,-0.051799007,-0.141019064,0.011143231,0.048306510,0.094300431,0.158674615,0.092589044,0.159918602,-0.036848078,-0.096519686,-0.005241363,0.082376053,0.177313268,-0.103189114,-0.081217845,-0.084599314,-0.216399934,-0.176839654,0.119494974,-0.018949333,-0.095391944,-0.126658753,-0.059130210,-0.177751205,-0.128434123,0.469612257,-0.040249454,0.084194170,0.249490904,-0.006505950,0.103254160,0.158071011,-0.208584314,0.221386678,0.074572405,-0.205029792,
0.231353121,0.141586937,0.210796850,0.009073420,0.060164330,-0.104745260,0.103721047,0.104590374,0.055882882,-0.010317487,-0.102189000,-0.058577668,-0.316550276,0.187214373,-0.235886356,-0.119405118,0.063813465,0.186142933,0.126556135,-0.071363041,0.108359200,-0.148273101,-0.071012264,-0.123247987,-0.310097526,0.079526415,0.077457061,0.198656027,0.102005114,0.084857381,-0.191268705,0.232491873,-0.068221472,-0.018702902,0.084439808,-0.075135502,-0.024501695,-0.044964005,-0.180206398,0.074861338,-0.203540770,-0.003083197,0.111601780,-0.339713487,-0.102463516,0.199093549,0.151540714,0.031186599,-0.073116580,-0.033125424,
-0.096601972,-0.099766351,-0.147125080,-0.188838800,0.075749291,0.055419289,-0.046241861,0.065362018,0.170590589,0.220065118,0.046061686,-0.105799088,0.188517168,-0.247403070,0.133518072,-0.036508917,-0.120829006,0.041272412,0.075998808,-0.120464192,0.153635040,0.050914833,-0.233439644,-0.014840275,-0.304067977,-0.101846856,-0.027874182,0.023582960,0.082214894,-0.058167706,-0.096192942,-0.254402489,-0.233312463,0.070684224,-0.260042528,0.190600252,-0.052398679,0.096041435,-0.002155631,0.206601302,0.108852194,0.049434155,0.109186969,0.034698589,0.058834973,-0.131389113,0.029102300,-0.130571170,0.029960884,0.143115212,
-0.048637351,0.126475460,-0.052753268,0.011216710,0.002884981,-0.395543340,-0.123736359,0.247354478,0.058270754,-0.014359788,-0.062628631,0.097452634,0.022028290,0.168339205,0.029497757,0.294934074,0.038380548,0.090454583,0.080725968,-0.100527394,-0.022363408,-0.130194299,0.260894719,0.132820393,0.415842590,-0.073354105,0.006144562,-0.218454093,-0.133482353,0.153411711,-0.174052554,-0.108827382,-0.066654278,0.241616841,0.068342306,-0.057754218,0.078004023,0.084097040,-0.047636570,-0.097269958,0.084261084,0.024052255,-0.144035508,0.010938374,0.207861725,-0.038346097,-0.068355062,0.104706306,0.001109408,-0.070569325,
0.289264652,0.000279688,-0.095979689,-0.026852747,0.057514783,0.053245455,0.088525230,-0.011377190,0.083908945,0.043274514,0.225570521,-0.512067872,-0.144841291,0.198185547,0.070109571,-0.048664432,-0.157194963,0.149703871,-0.267788535,0.042940159,-0.017691179,-0.129647452,0.025517727,-0.054048774,-0.025908984,-0.078240043,0.060131832,0.207958881,-0.213141454,0.081682191,0.109593941,-0.122284450,-0.136313662,0.052457674,0.062673354,-0.144107709,0.065497264,0.192499428,0.095841066,-0.164142237,0.120513862,0.045586909,0.043290895,0.091305717,-0.156103166,-0.048848555,-0.134650103,0.012916033,-0.161176132,0.193329278,
-0.218520031,0.312431814,-0.012466058,-0.133225463,-0.040207747,-0.133101197,-0.027504796,-0.159599681,-0.188943624,0.184441561,0.279991337,-0.078416206,0.276349829,0.184457643,-0.149728002,-0.152299867,-0.244412303,-0.155875153,0.127787995,-0.020144897,-0.104237280,0.083964594,-0.025045301,-0.073515889,0.101228536,0.066862301,-0.092958237,-0.328822881,0.086881502,-0.301919691,-0.099127872,-0.084045800,-0.008020531,0.317125715,-0.095016899,0.051946071,-0.078668656,0.131685861,-0.202341762,0.112831744,-0.094131155,-0.150236724,0.134661106,0.049776321,-0.068499511,-0.006528546,-0.233498220,-0.040415689,0.198597664,-0.065404606,
0.222864614,0.114385780,-0.123982023,-0.143065285,-0.113732867,-0.118921248,0.083277472,-0.009042262,0.278237041,-0.070454231,0.180381046,0.043729587,-0.006989482,-0.010909078,-0.038443566,-0.025247078,0.023186885,0.081577679,0.240412330,0.105754627,0.039765583,-0.025063905,-0.015091537,0.016747188,-0.127752672,-0.125900636,0.148129367,-0.136729429,0.232992792,-0.135600876,0.190272513,0.070662314,-0.057287679,-0.134881889,-0.086418307,-0.174241520,0.114393068,0.040932387,-0.085086444,-0.087211840,0.001487698,-0.057363113,0.150589993,-0.045411468,-0.149787947,0.015571773,0.265916249,0.188137211,0.068572002,-0.196380965,
-0.146368547,0.046403506,-0.125678029,0.154343848,0.255872932,-0.077752732,-0.073765821,0.301438933,-0.029161328,-0.246971132,-0.158609346,-0.142553968,-0.064721229,-0.155101657,0.005382262,0.056674669,-0.105354585,0.082426188,-0.138490022,-0.175387378,-0.064058304,-0.173943214,-0.174349960,-0.022183097,0.081813606,0.254748224,-0.088487058,-0.023564004,-0.057176310,-0.106806399,0.045936681,-0.228127452,-0.044414555,-0.073940780,-0.049594420,0.009078853,-0.024377134,-0.009800091,-0.093240905,-0.068938789,0.022090678,-0.057903202,0.065476726,0.153793907,0.083161627,-0.032482861,0.119428107,0.000378993,-0.141325982,0.178375469,
0.032103869,0.146120699,-0.006204852,-0.179431310,0.253804932,0.211483344,-0.277568855,0.019452334,-0.027922678,-0.072913088,-0.283001245,-0.058974711,-0.132814029,-0.237548531,0.007816854,0.055287476,-0.201416086,0.097739475,0.209347602,0.114871046,-0.182693394,0.136557688,0.137342162,-0.169197730,-0.191604043,0.043001957,0.156265344,-0.069357102,-0.420781678,-0.055429554,-0.167695974,0.180703824,-0.056959113,0.005773518,0.084538039,-0.308908055,0.110924774,-0.086864661,0.169251370,0.030039318,0.213367902,-0.037147411,-0.065707064,0.218390887,0.173629980,-0.030481664,-0.008974661,-0.014122408,0.111830897,0.103785685,
-0.082618102,0.250153876,-0.018120846,-0.174535224,0.123502545,-0.224848980,0.207621773,-0.099612246,-0.167385426,0.008644803,0.060100512,0.062724726,0.037218682,0.025881227,0.137298271,-0.032352381,-0.128936526,0.235577148,0.094590244,-0.202649332,0.164462412,-0.031733941,-0.087074159,-0.123492890,-0.159627558,0.106650162,0.153777283,0.024903104,-0.015364190,0.078122637,0.049937551,-0.171516483,-0.078294544,0.098895262,0.093113912,0.137476557,-0.145843154,0.384242125,-0.161101986,0.012838457,0.041355764,-0.003652367,0.019713343,-0.221704146,-0.045119752,0.167044653,-0.211442107,0.026584693,-0.044902189,-0.204118750,
0.119865029,0.021033075,-0.007617791,0.298840893,-0.108551379,0.041698212,-0.240394490,-0.034814588,-0.129843963,0.126218421,0.171190095,0.055751033,-0.082922205,-0.148518516,-0.010356994,0.087038567,0.085162690,0.032656007,0.128680879,-0.025385477,0.318631438,-0.172678335,0.199175929,-0.023122292,-0.027294310,0.149992399,-0.176933644,-0.067442548,0.074740912,-0.165455291,0.053389536,-0.035094268,0.051788640,-0.001709368,-0.002874247,-0.234819671,-0.205344373,-0.209579689,-0.233021460,0.240584599,0.099212219,-0.131975646,0.083587214,-0.259523325,0.055791452,-0.150610135,0.227813664,-0.042004042,0.089048213,0.205900431,
0.043336880,0.130884668,0.080651567,-0.046559233,0.108155984,0.194177491,0.144439833,-0.076385389,-0.037909462,0.011970252,0.043909977,-0.151760815,-0.090793460,-0.015627939,-0.120249128,-0.167867002,0.132398342,-0.068917710,0.118113763,-0.043046440,-0.052915686,-0.021370427,0.078355079,0.219948946,-0.138925329,-0.042888376,-0.274275745,0.094941923,0.167019165,0.120840505,0.087987922,0.266269757,0.257617208,0.134873745,-0.035106496,0.192458181,-0.002532830,-0.042366514,-0.150823240,-0.048150120,0.036524706,-0.037464790,0.077794818,0.175384918,-0.311974934,0.144041559,0.383172095,-0.028648241,-0.201286098,0.123164746,
0.108107654,0.142780677,0.026681623,0.175238850,0.110408493,0.277353654,0.171223360,-0.062541733,-0.107570697,-0.048846610,0.061323618,0.007960870,-0.145367191,0.308104732,0.127699940,-0.100973131,-0.214499071,-0.002969837,-0.035019681,0.073726177,-0.056579602,0.116302912,0.301058328,0.125865607,-0.256792717,-0.103965252,0.348437954,-0.151399940,0.043100989,-0.005183013,-0.070657699,-0.210271480,-0.224609363,0.145723840,0.160843093,0.085705684,-0.090726286,-0.120869276,0.004542808,-0.209910001,0.059198124,0.083114430,0.083972427,-0.112258611,0.100296940,0.004097833,0.216713633,0.114557739,-0.039009625,0.046110853,
-0.319734554,0.101729818,-0.155288177,-0.121902029,0.071114985,0.017768104,-0.155417536,-0.379528281,-0.037787651,0.029321851,-0.173870601,0.111331832,0.059611232,0.164840193,-0.197131393,-0.224636252,0.043430442,-0.157142984,-0.201950943,-0.018020954,0.153425523,0.113172013,-0.163705407,-0.146659384,0.059004843,0.085489504,-0.027006517,-0.108385739,-0.299449480,0.081379199,0.073272733,-0.014577012,0.237230457,-0.178248780,0.051447133,-0.091598299,0.011772754,0.101983392,0.080253397,-0.046705746,-0.226176804,-0.075789744,-0.012632864,-0.200794312,-0.105633971,-0.285382306,-0.122907738,-0.100940663,-0.062813794,0.087481841,
0.017625154,0.046653549,0.070747820,-0.071962548,-0.102364526,-0.028844237,-0.079018581,-0.006400809,0.027597671,0.009133312,0.209467481,0.088270442,0.088269232,0.139460723,-0.036523373,-0.132389428,-0.060374034,0.237387195,0.065978990,-0.183158969,0.226203981,-0.032131741,-0.243845770,0.189066509,-0.172123455,-0.099952243,-0.118483145,0.250456788,-0.424016067,0.045937670,0.078976060,0.017699178,-0.245941098,0.169735248,-0.029786831,0.016925517,-0.228471474,-0.104952783,-0.091243104,0.122649007,0.081594939,-0.022426293,-0.120043887,0.238124508,-0.080989905,0.209366321,0.286052194,-0.007170272,0.000805222,-0.014913015,
0.147719434,-0.027892619,0.176416344,-0.151187904,-0.050485373,-0.112372325,0.004146574,-0.148558889,0.064210048,-0.013590870,0.033486647,0.131842758,-0.148093381,-0.027182955,-0.152953308,-0.083167476,0.113693065,0.085569039,0.148809329,0.141820966,-0.161524871,0.139485948,-0.106089605,0.190650490,0.108977530,0.215822677,0.091107578,-0.168308030,-0.076587748,-0.198079057,0.139083698,0.072457511,0.000338897,-0.155008548,-0.148644942,0.142358606,-0.176819214,0.013138668,0.087610640,-0.052065335,0.019768235,0.032866008,-0.047929202,-0.078508625,-0.007669442,0.257344069,-0.074328603,0.115701962,0.050158897,0.045247839,
-0.067692366,0.032807724,0.181195831,0.094936613,-0.043251407,0.060551105,0.125959130,0.031646615,0.032609690,0.080894388,0.213333763,-0.004413726,-0.260465235,0.273071447,-0.080027282,-0.015511060,-0.172628420,-0.022625813,-0.120117938,0.309406249,-0.109407587,-0.218753269,-0.252509118,0.043050060,-0.081466354,0.068685224,0.083462014,-0.214136106,0.086576727,-0.133250737,0.089289469,0.007314533,0.070043393,-0.264987568,0.179513553,-0.006041687,-0.113802633,0.081802488,-0.014234793,-0.224584827,0.024593119,0.037069392,-0.215551673,-0.335715414,-0.037307574,0.040616509,-0.071392210,0.049106818,-0.069679801,0.141531091,
0.035977860,-0.001158666,0.024664622,0.041921001,0.120403118,-0.047793730,0.374660334,-0.151755908,0.251154426,-0.032701122,0.073386788,0.115911647,-0.004728922,0.034623674,-0.042961962,0.068587812,0.098881096,0.182055075,-0.159307823,-0.007210110,-0.074545335,-0.111009795,-0.042703606,0.009833654,-0.024711625,0.171138117,-0.028212787,-0.044538574,0.124564704,-0.410098349,-0.106551924,-0.072926278,-0.151513609,0.091478964,-0.266867329,-0.161293167,0.088037193,-0.103825712,-0.046438254,0.138643217,-0.059500580,0.069912752,-0.071291736,0.069350667,-0.062806316,-0.557440718,0.095277921,0.137452570,-0.156990608,0.110693867,
0.020354507,0.003793865,0.151960013,-0.016800838,-0.008936483,0.071390662,0.218654620,-0.022233917,0.143000438,-0.203701660,0.181513036,-0.155041681,0.051167363,0.265106706,-0.034270861,0.011840992,-0.073374302,0.343010983,-0.025911179,0.016329894,-0.086950728,-0.053621580,0.090206097,0.038478371,-0.047959717,0.185333613,0.223464136,0.141156527,0.000415709,0.217796909,-0.275931622,-0.176691490,-0.096087895,0.211785888,-0.233105144,-0.155711058,-0.231357245,-0.188541639,0.017672148,0.196742390,-0.084708507,-0.016362345,0.033860530,0.085638262,-0.208986167,-0.135283985,0.200938163,0.083560243,-0.253377263,-0.367734793,
-0.063815405,0.177713142,0.164473364,0.026919003,0.359890481,-0.121395047,-0.120478158,0.297675315,-0.158465682,-0.010185572,-0.108050521,-0.095150024,0.069304089,0.102501184,-0.358874784,0.122529099,-0.120644565,-0.038117691,-0.092995332,-0.003951455,0.138936363,0.273069826,0.074601997,0.087862190,-0.001567689,0.074904573,0.031075409,-0.076186803,0.001164873,-0.131480421,0.050407580,-0.030263046,0.069245314,0.050119989,-0.125181723,0.009741777,0.062410848,-0.319728552,-0.210877483,-0.019783869,0.008587203,-0.052111174,0.002696677,0.088048892,-0.011311962,0.039525377,0.056162698,0.120183250,0.121341387,-0.047889293,
-0.028889630,0.227811089,0.092014429,0.067554594,0.053326805,0.085624175,-0.272950024,0.134254740,-0.210859610,-0.015276693,0.004967912,-0.044191869,-0.188203983,-0.069234985,0.115348862,-0.176779017,-0.010239607,-0.007582387,0.051654565,0.358211319,-0.105969797,0.085844049,-0.215109852,0.038463170,-0.031255383,0.134643521,-0.127150089,0.086195778,0.253328015,0.097522096,-0.070132214,0.135387643,-0.027868272,0.084597161,0.012853990,0.024662396,0.154631942,0.005269653,0.169707474,0.199696806,0.296791624,0.164022230,0.187439955,0.271707660,0.005546194,-0.151564533,0.013553014,0.154168531,0.280372269,-0.049868966,
0.213374781,0.009760844,-0.342226048,0.169340886,0.143294402,-0.129512458,0.055757661,-0.039914246,-0.007550188,-0.203381607,0.072435987,0.039096126,-0.137460395,0.115806065,-0.069775070,0.054176044,-0.083744363,0.085941027,-0.070414364,-0.024899585,-0.044093077,-0.311100691,-0.091299631,-0.091862288,0.135375809,-0.313308725,0.055324972,-0.197357921,0.490384202,-0.068706560,-0.047696724,0.037494799,0.305717030,-0.066232147,0.171179674,-0.108925685,-0.069512698,-0.000544765,-0.253128180,-0.079391282,-0.073937600,0.066049532,0.141340117,-0.088454892,0.172825959,0.028977389,-0.216026498,0.010639332,-0.028778347,-0.235220326,
0.038450061,0.126421442,0.120928938,-0.039120895,0.142896248,-0.019165509,0.045990446,-0.012265710,0.082674618,0.094945708,0.019272891,-0.120170268,0.162455651,0.128876377,0.150997927,-0.171096615,-0.114551513,0.122963428,-0.160563512,-0.115253665,-0.107843787,0.110946262,-0.243698029,-0.131853341,0.210430938,0.290358468,0.081242356,0.092691535,0.074689848,-0.003346746,0.165667430,-0.038279186,-0.134098516,0.028487519,0.101465304,0.000737155,0.093861217,-0.202713495,0.248843719,-0.069652114,0.138119995,-0.268827333,0.222328700,0.038748578,0.095478830,-0.304673072,-0.106101018,-0.257877380,-0.104674138,0.239291572,
-0.191583305,0.135177475,0.090454898,-0.090434217,0.003411269,-0.055528291,0.015269526,0.284462849,0.016171586,0.188162996,-0.062902788,0.017232385,0.030268901,-0.052224911,0.055956037,0.037740148,-0.112384234,-0.219300258,-0.032562596,0.038461559,-0.065492696,-0.055179147,-0.067249316,-0.019623951,0.243499529,-0.005259501,-0.009254731,-0.219365676,0.103053654,-0.005530053,0.049103479,0.177673661,0.300262494,-0.283670378,0.227295196,0.217009141,0.118377886,0.173239613,-0.317892555,-0.225756955,0.048810502,0.088907372,-0.186675270,0.019709455,-0.039749805,0.066472415,-0.107124107,0.085864720,0.067235618,0.021409577,
0.022506520,-0.211516817,-0.041106133,0.067458475,0.264944434,-0.107501595,-0.189627393,-0.126456142,0.005609389,0.234142086,0.022823385,0.013067473,-0.170516954,-0.116225964,-0.137389726,-0.178727543,-0.137273807,-0.193091750,0.272776121,-0.134444826,-0.039536624,-0.262599504,-0.178911715,0.101208190,0.346446564,0.345744791,0.136284376,-0.080332307,0.086275257,-0.107059200,-0.040519316,-0.195662225,-0.102671842,-0.214684687,-0.150653940,0.338964324,0.029643581,0.058565733,-0.039592708,-0.230422601,0.441796154,0.094243689,0.170002839,-0.055000593,-0.319280337,0.118229946,-0.237066219,0.038766870,0.330021936,0.367285525,
-0.012922076,-0.024995913,0.050643585,0.008409523,-0.059440914,-0.304118043,0.079325784,0.006555622,0.071743422,0.098267200,0.038571932,0.131536169,0.072011821,-0.093480775,-0.136957900,-0.173028431,-0.082005439,-0.176061402,-0.181479765,0.102301765,0.086220331,-0.132433060,0.093163086,-0.229402400,-0.124591070,-0.221438433,-0.030480368,-0.171234807,-0.027064765,-0.365054581,-0.088283032,0.032864932,0.016499075,0.143168277,-0.274587717,0.109667369,0.099666536,-0.160215460,-0.070179640,-0.073280640,0.124146453,-0.041388945,-0.058097210,-0.143543301,-0.117820231,0.179242596,0.247849102,0.183065165,-0.292491703,0.048183318,
0.066174802,-0.031242597,0.280896858,-0.143228590,-0.048558088,-0.149654114,-0.015863753,0.359257192,0.131135646,0.075320641,0.096270487,-0.025584434,-0.116110979,0.006958017,0.001916806,0.081446482,-0.088325708,-0.173989692,0.255824277,-0.193804346,-0.027220473,0.068830228,0.011406704,-0.096190100,-0.030934716,-0.063023379,-0.127560997,-0.155923736,0.077247604,-0.004757027,-0.132876836,0.040308663,-0.040863235,-0.331095594,-0.201388602,0.047127329,0.023533351,0.187610853,0.028026628,-0.342952570,-0.002899640,0.199120627,0.039959407,-0.098608590,0.108437200,0.023059953,0.253194019,0.137470006,0.160749531,0.495444423,
0.099696036,-0.060689028,-0.017140334,-0.120788633,-0.061624034,-0.048984815,-0.033881319,-0.116537741,-0.094809433,-0.161847631,0.126027573,0.228539948,0.015803539,-0.031296689,0.027326153,0.047696666,-0.117410507,0.104422999,-0.182141166,0.217330466,0.202505156,0.108897304,0.043548964,-0.305003278,0.013446250,-0.018619046,0.143853157,-0.275756286,-0.108344447,0.013259174,-0.025224579,0.301077858,0.008966806,0.055663885,0.161564157,-0.058191326,0.014207860,-0.089349714,0.021321050,-0.081358514,-0.004279880,-0.322091015,-0.176788015,-0.072353956,0.032150353,0.281108988,-0.002608955,0.008870554,-0.094749612,-0.087149940,
-0.180243501,-0.115136275,-0.108128145,0.041654694,0.051224245,-0.058621511,-0.005878789,-0.078913211,0.006764769,-0.003188113,0.066768593,0.217461661,0.102638562,0.094040148,0.090546565,-0.160506951,0.160352121,-0.194287328,-0.004322034,0.037655095,0.224842521,-0.210688304,-0.182169746,0.040682633,0.231449351,0.322226802,-0.146982727,-0.070739829,-0.280220956,0.020674178,-0.034305769,-0.005159478,0.077512410,-0.217354560,0.036352653,-0.162177099,-0.119073060,0.024525327,-0.179317493,0.131054988,-0.072481765,-0.001269768,0.259596437,-0.064550835,0.178599327,0.014446107,-0.114927448,0.013590141,-0.231174084,-0.277044724,
-0.002973960,0.035466816,-0.033213558,0.052871120,-0.198842741,0.096025392,0.033102277,-0.118296923,0.073955436,-0.070970648,-0.146433661,-0.146631858,0.196830380,0.076160861,-0.168834016,0.006982100,0.050529154,0.127605090,-0.042941685,0.049366002,-0.046643932,-0.025083739,-0.030904372,-0.237110738,-0.111840181,0.098492032,0.024206600,-0.218228517,-0.087622425,0.203576899,-0.113995825,-0.122792797,0.068764688,0.129219085,0.119645784,0.219238724,-0.136594331,-0.180251292,-0.118895609,0.443621056,0.135848973,-0.329311953,-0.129943297,0.070707244,-0.117001462,-0.001909787,0.151042568,0.101807054,-0.044858834,-0.082881966,
-0.080191341,-0.129431275,0.251362213,0.175884577,0.012922845,0.216073023,-0.040944988,-0.165107395,0.083724537,0.065799121,0.155432290,0.238660467,0.204892874,0.007425057,0.187961184,-0.148845545,0.056273976,-0.085346636,0.203118158,-0.108717310,0.250743125,0.035887041,0.010797439,0.194877605,-0.041941926,0.005510450,0.010787611,-0.017831125,-0.166971453,0.008284646,-0.176717081,0.126771963,0.107265395,-0.000823947,-0.264628954,0.095576550,0.057853773,0.075252580,0.125279491,-0.124360234,-0.005902287,0.083810094,0.113764311,0.041570540,0.115199335,-0.072483545,0.158557049,-0.104197643,0.060598895,0.034404248,
-0.005245642,-0.147806218,0.007953097,-0.168404807,0.114083156,-0.118647003,0.001416896,-0.002848749,-0.050662575,-0.161850389,0.163214348,0.204481417,0.044011338,-0.042755940,-0.227467853,0.045221206,-0.156749445,0.128308756,-0.058986967,0.143667976,0.338741738,-0.106455094,0.094890242,-0.177388049,0.088084461,-0.172184191,0.240852110,0.020874023,-0.069321594,-0.155694817,0.015316504,-0.354904440,0.115483559,-0.033022477,-0.019482338,0.214472927,-0.120562834,0.186369091,-0.184016580,-0.138644421,-0.003617614,0.057306038,-0.281685729,-0.022719440,-0.020040913,-0.196395385,0.032239045,-0.097689648,-0.047240917,-0.352919183,
-0.002333083,0.312155566,-0.058177401,0.340242972,0.030799165,0.083253800,0.084824357,-0.098562150,-0.069432598,-0.033734142,-0.202096650,-0.195132898,0.122669771,0.263956772,-0.139951204,0.130408840,0.214776659,-0.011046954,0.100739842,0.041020600,-0.183363100,-0.181433343,-0.126624694,0.123104647,-0.189197924,0.121118037,0.038832252,0.103149040,0.210499525,0.057978908,0.033615147,0.094786832,-0.089259524,-0.000840549,-0.114382847,-0.032712717,0.035230125,-0.130672463,-0.103240852,0.099342031,0.113809389,0.039134931,0.011465482,-0.024527219,0.019007605,0.272038899,-0.105909026,-0.037938806,-0.126371579,-0.112678824,
-0.137437183,-0.141406145,0.283535762,-0.245314116,0.061677261,-0.030815619,-0.165763961,-0.053354594,0.199355540,0.109334971,0.081123913,0.066170853,0.055491514,-0.140747053,0.015267819,0.022921398,0.120703205,0.065198956,0.153019443,-0.033481598,0.114788506,0.009152938,-0.200032761,-0.121393634,-0.081133017,0.019869451,0.037228428,-0.038408022,0.071701680,0.068073445,0.120216653,0.130305180,0.001704444,-0.193965155,0.034779663,-0.015638530,-0.226346164,-0.061220073,-0.024027570,-0.124534122,0.224877811,-0.071960158,0.147226339,-0.081210398,-0.348817910,-0.035993031,0.097168456,0.087383060,-0.040150562,0.003247074,
0.193440624,-0.056508555,-0.003343355,0.131915886,-0.054677507,-0.110961830,0.051519917,-0.109045513,-0.115056916,0.093725418,-0.011652804,0.121589063,0.190298773,0.068376288,0.149896400,0.078733938,-0.097878522,0.063883123,0.086822975,0.046348364,0.091446672,0.014356761,0.142758666,-0.288276470,-0.229515089,-0.089326452,-0.130912213,-0.082682461,0.161311686,0.152121940,0.000905753,-0.024031517,-0.018289004,-0.162182249,0.061628552,-0.021257958,0.005835148,-0.147711866,0.200076593,0.011366571,-0.123815187,0.247703212,-0.252228380,0.056012062,-0.176279760,0.034387863,0.249840398,0.198303566,-0.137216091,-0.036374557,
0.007153373,-0.060541593,-0.010617443,0.048142521,0.081859449,-0.098089393,0.006834689,-0.057821380,0.061347595,-0.169503122,0.167948370,0.089693487,0.158561697,0.091951326,-0.086742990,0.090328791,0.209181014,0.020570119,-0.126637422,-0.254699564,0.263718096,0.090545362,0.016651133,0.074388106,0.176651481,0.000324995,0.039260302,-0.077272645,-0.072811099,-0.036375087,0.063712400,0.233622349,-0.014621566,-0.106803344,0.065509073,0.134167478,-0.052981391,-0.105870034,-0.105783461,-0.016495436,0.124398238,-0.229620948,0.064387736,0.169194245,-0.086902151,0.217467782,-0.102496010,-0.193944108,0.055483375,0.095146635,
0.051346249,0.049622952,0.049072091,0.127493301,0.161815746,0.286237433,-0.011181545,0.020641811,0.144815442,-0.173477333,-0.182889142,-0.014407286,-0.159886440,-0.001249421,-0.102002338,0.022180095,0.216845930,-0.182742927,0.092213794,-0.051356810,-0.026347771,0.125264370,-0.045377763,0.133068806,0.108316213,0.061273132,0.218626266,-0.063842745,-0.086823992,-0.045534178,0.134773968,-0.165742218,-0.107057811,-0.165473917,-0.165848477,0.056939093,-0.194116470,-0.249916480,-0.185330954,0.132655644,-0.223758947,0.140824371,0.153237523,0.050662192,0.001370165,-0.046185833,-0.095080096,0.002459859,0.044178337,0.094640793,
-0.125256448,-0.381073833,0.067289339,-0.175607005,-0.119061218,0.276398596,-0.238702547,0.304140293,-0.134258464,0.090231639,-0.030982656,0.062886330,-0.009549847,-0.055016402,-0.026894121,-0.205861765,0.100948017,-0.154663372,-0.004531563,0.018314710,-0.329381649,-0.091695699,0.053378636,0.273561379,-0.017836118,0.032001240,-0.034661601,0.219349958,0.214252895,0.110265350,0.002427674,0.026050691,-0.096690892,-0.015324833,0.010912118,-0.075625779,0.085353176,-0.077911078,0.028466004,0.044800174,-0.024991904,0.109413502,-0.190230381,0.009603300,0.010697846,0.042270566,-0.034581645,-0.314018938,-0.181014666,-0.034918040,
0.080062807,-0.095653670,-0.257166997,-0.120942289,-0.107599846,-0.114210522,-0.150538409,0.032064054,-0.136766881,-0.260427665,-0.033976013,0.268296031,0.070970156,-0.195048347,-0.021468422,0.094520015,0.046425027,0.001632580,-0.166867640,0.056994015,-0.102848057,0.117591006,0.095915756,-0.233346645,-0.012820972,-0.068247991,-0.006761424,-0.158233244,0.032424100,0.167272255,-0.145793552,-0.155231088,-0.197079138,-0.097211473,-0.141077752,0.056718094,-0.215583157,-0.010862272,-0.008524958,-0.109610397,-0.109813895,0.102808011,0.081290877,-0.020731489,-0.104270758,-0.019178540,-0.046611388,0.142982815,0.159882805,-0.111660349,
-0.070222785,0.021079012,0.074546035,-0.146097789,0.014268211,-0.135146401,-0.047347048,-0.148041533,0.208545859,0.159184982,-0.237563281,-0.299364154,0.111239135,0.272045152,-0.115675991,0.102360496,0.085353072,0.110011827,-0.111847281,-0.133588003,0.225495558,0.198417272,0.019491206,-0.029808909,0.149246164,-0.188385698,-0.066378935,0.201390804,-0.229607767,0.120581061,-0.078689114,-0.012772063,0.058150116,-0.032707089,0.203619501,-0.167518891,-0.042670523,-0.029363744,0.230645216,-0.043732362,0.005758646,0.058831936,-0.068687439,-0.087795368,0.365138657,-0.122119882,-0.145229008,-0.190088781,-0.105799190,0.131992312,
0.020348338,-0.067673097,0.365260657,-0.297176136,0.209134281,-0.026171793,-0.069099911,0.177879608,0.110862286,0.079530353,0.076922238,0.206231274,-0.092855255,0.066947975,-0.000653950,0.113954382,-0.001624685,-0.009924929,-0.058794849,-0.007945277,-0.143234807,-0.043504856,-0.176673020,-0.042096618,0.004161128,-0.125572039,0.042659468,0.114386895,0.211913433,-0.013060176,-0.016245860,0.139529085,0.044609756,0.244593117,0.065638389,0.099930293,0.286469395,-0.216230240,0.412350828,-0.130806969,-0.140398342,0.023052418,0.054507420,0.383305390,0.088026674,0.049149484,-0.146897361,0.184471754,0.183821921,-0.137854707,
-0.007614332,-0.187203135,0.394852132,0.133538972,0.122875381,-0.115802732,-0.109220405,-0.106239098,-0.076599984,0.074489536,-0.218911557,-0.150254368,-0.151787081,0.037295175,0.324062417,0.027303712,-0.061505270,-0.220741029,0.006533599,-0.157361677,0.014153459,-0.160110901,-0.132895203,-0.263599430,-0.078506375,0.077422259,-0.115566965,-0.130815538,-0.082535156,-0.009818194,0.075384902,0.044079346,-0.277791365,0.206476031,-0.002581902,-0.055101037,0.051429169,0.100467286,0.193836525,-0.201678236,-0.150661188,0.140567694,0.007159602,0.228038544,0.265042455,-0.025740481,0.103691466,-0.030524148,0.124116994,0.030482174,
0.287407002,
0.104330795,
0.211715702,
0.058794553,
-0.112863148,
-0.266067776,
0.009948248,
0.173401099,
-0.217894027,
-0.182762327,
-0.180018543,
-0.050613563,
0.089538061,
-0.065058337,
-0.146357443,
0.287958981,
0.012548442,
0.154351294,
0.092236955,
-0.069945051,
-0.029599446,
0.106459040,
-0.196789583,
0.088993331,
-0.008380501,
0.082406903,
-0.019665826,
-0.232420864,
-0.179704127,
0.039055729,
-0.001378171,
-0.004413264,
0.249240666,
-0.143887573,
-0.058158314,
-0.026868371,
0.058212154,
-0.259230959,
0.215200025,
-0.030062524,
-0.151347248,
-0.096505031,
-0.087856554,
0.063896841,
0.013739143,
-0.035657808,
0.141636722,
-0.092220354,
0.220999973,
-0.135886874,
0.080142667,-0.076846164,-0.106478518,0.165205686,-0.209232847,0.003935960,-0.037482371,0.017410916,0.099086622,0.009512958,0.023507359,-0.139347087,0.117256789,0.164104387,-0.053571767,0.181370011,0.171117735,0.071328323,0.108257923,-0.200729974,-0.136155849,-0.001213073,0.011757508,-0.123329633,-0.120837877,0.217695114,0.010678165,0.097153303,0.022867649,-0.095147283,0.137019866,0.210739059,0.207232930,-0.003454985,-0.222593210,-0.060028874,-0.101434884,-0.056518058,0.031513431,-0.174894956,-0.069280762,0.078569611,-0.008898075,0.149237837,-0.096849961,-0.106074300,0.047788089,-0.102812943,-0.050987462,0.100567563,
-0.237770409,-0.387621389,-0.125473645,-0.091322903,-0.148243987,0.024337321,-0.145600871,0.218215935,-0.115705133,-0.045733234,-0.027822225,0.047940406,0.308797469,-0.193591447,0.092328694,-0.090489399,0.181840358,-0.123791162,-0.024071600,0.002395253,0.105248114,-0.324484869,-0.027252911,-0.013161823,0.254551607,0.250485636,0.362831919,-0.003719659,0.060003977,-0.003017080,-0.004335340,-0.027378263,0.013900565,-0.045521054,0.140552021,-0.250284764,0.004221292,0.040101857,0.017976971,-0.033773583,-0.034134117,0.005497403,-0.093321968,0.076566578,-0.024468322,-0.153609093,0.009803697,-0.228997710,-0.135475743,0.047306339,
-0.039677365,-0.096330699,0.359930370,0.199985691,-0.036320018,-0.010891645,0.039339660,0.065382741,-0.094208600,0.088613018,-0.010383492,0.021678388,-0.051512507,0.117208353,-0.228419628,0.052034156,0.036284844,0.021483210,0.069134492,-0.067590260,0.186544723,-0.159329138,-0.156072216,-0.007669796,0.248932258,-0.036140723,0.110524614,-0.161451215,-0.232197738,-0.135184954,0.031865073,-0.124231663,0.028113187,-0.074050619,0.112814825,0.112932711,-0.132411988,-0.110645214,-0.058844684,0.244452101,0.027831517,-0.138940165,0.040136665,0.338173769,-0.045519988,0.072700832,0.097079398,0.063644449,0.095844900,-0.018187989,
0.151236566,-0.228247840,-0.108287817,-0.049067762,0.134559753,0.310183500,0.074621533,-0.162420021,0.042470046,-0.128025549,0.014710370,0.092480308,0.139602128,-0.116361026,-0.017185796,0.155404872,-0.030723226,-0.016644486,0.192164262,0.150711845,0.400111814,0.098980374,-0.100876761,-0.178725811,-0.033024383,0.025073460,-0.050193831,0.168001750,-0.059063310,0.082201081,-0.132350151,0.089797469,0.089473900,0.157258693,-0.080892017,0.004765694,0.303116804,-0.216568146,0.268161482,0.031180577,0.073412278,0.010686162,0.037277009,-0.137697715,0.151577781,-0.059674544,-0.105534758,-0.036162334,-0.191624114,-0.011776363,
0.057809346,0.016986048,0.022941687,-0.181740539,0.084121575,0.051817101,0.075008332,0.050185175,-0.093324892,0.031303971,0.051172520,-0.261153083,0.001034301,-0.203186776,-0.092838564,0.052056233,-0.032071959,0.109337974,-0.154309647,-0.031901157,-0.361523162,-0.095863658,-0.175382451,0.136788913,-0.169329283,0.126006229,-0.126094696,0.069912863,-0.133062124,0.077149471,-0.010277846,0.141245685,-0.215660917,0.047058158,-0.142058554,-0.016393249,0.077105386,-0.190825761,-0.120547179,0.055993433,-0.110038018,-0.169596188,0.052849291,0.136726219,0.053123079,0.118369325,0.108041841,0.008774396,0.147277247,-0.021439252,
0.002005781,-0.004278386,0.110399754,0.043347953,-0.016352254,0.119349832,0.076433614,0.090056660,-0.071776258,0.084074108,0.110803246,-0.050522841,0.123067143,0.017118067,0.120893887,-0.073377906,0.062853199,-0.134000118,0.125533931,-0.064717557,0.181406149,0.174594156,-0.151910801,0.071496093,-0.119178403,-0.107746103,0.152704893,-0.046036860,0.081964963,-0.126012830,-0.199737432,-0.100777357,0.192181838,0.079627842,-0.113545606,0.165841817,0.239000054,-0.076558754,0.115772487,0.059064901,0.025132687,0.337437191,0.144211292,-0.068327658,-0.128123396,0.057565662,0.040341762,-0.152835319,0.194850777,-0.158900979,
0.026668299,-0.097932073,-0.088864767,0.032463026,-0.196456862,-0.037291921,-0.293640706,-0.195793907,-0.117268243,-0.100347439,0.201789293,-0.170889779,0.073775577,0.341150984,-0.265339444,0.039540822,-0.084866155,0.140350182,-0.266128810,0.008919010,-0.233903832,0.326276039,0.339869568,-0.068520623,0.033925896,-0.072457683,0.168829108,-0.209870868,-0.170693323,0.304803928,-0.153498174,-0.294532737,-0.270555440,-0.208936090,0.022903195,0.192180174,-0.135794189,0.226329164,-0.003474235,0.283578866,0.266680140,-0.057334931,0.189476603,-0.044965489,0.141456174,-0.201667156,-0.031370232,-0.046663645,-0.197069276,0.105921271,
-0.057253595,0.236783252,-0.102759415,0.185241196,-0.010183125,0.158505822,-0.016760695,-0.300364301,-0.128791950,-0.026552021,-0.039093496,-0.062520467,-0.054910602,-0.101217671,0.032646993,-0.027901416,-0.229469293,-0.055268281,0.225940463,0.200244771,0.206227988,-0.111597591,-0.089502683,-0.103677010,-0.020006389,0.056525613,0.289625985,0.036421676,0.124327814,0.048443693,-0.148655518,-0.175294346,0.050222384,0.043058249,-0.073153530,-0.194684443,0.197458072,0.172508738,-0.269383490,-0.126052492,-0.022993676,-0.107640770,0.121752545,-0.101392560,-0.174694299,-0.005126082,-0.018098167,0.024448929,-0.201095081,0.313434485,
-0.156635678,0.025003456,-0.013271625,0.288888967,-0.083790757,0.012574942,-0.378669658,-0.002614578,0.293772497,0.133406678,-0.090884421,-0.104127261,-0.028290405,-0.315365140,-0.051119075,-0.246615190,0.124268721,-0.053606750,0.035726254,0.058795335,-0.168732358,0.043655295,0.009912651,0.044759132,-0.103586378,0.051428677,0.030123534,0.045530261,-0.000497590,0.048424119,0.148034866,-0.086628914,0.096345752,-0.183279562,-0.227311635,-0.101877176,-0.120475627,0.056952024,0.057822081,0.150733435,0.051368858,-0.096623147,0.108210509,-0.072131922,0.016875171,-0.182390936,0.015579772,-0.076235644,-0.091768362,0.265753868,
0.080222132,-0.097276441,-0.095432206,-0.065126899,-0.010945725,-0.014325360,-0.170567811,0.128448316,0.217145295,0.228579950,0.015394356,0.291925132,0.024432131,-0.274827254,0.122817847,-0.294997315,-0.127455193,-0.182616739,-0.141811687,-0.020056850,-0.093805217,-0.250370859,0.064583439,0.257177664,0.046862153,-0.064390319,-0.007786287,0.056226606,0.102950474,0.085344234,-0.053699797,0.034716652,-0.075122458,0.113201421,0.107934220,0.069083682,0.132135708,-0.128131224,0.203534988,-0.259586519,-0.399944865,-0.014316904,-0.261884881,-0.183684784,-0.242753594,0.237374418,0.332602095,-0.120288469,0.141176502,0.078251412,
-0.037969942,-0.203503130,0.027585141,-0.043137307,-0.036835656,-0.028926499,-0.135790667,0.093367401,-0.025950559,0.094813443,0.088011770,-0.163693909,-0.045418618,0.178204320,-0.003944281,-0.000961615,0.199714126,0.109613610,-0.299185198,-0.152644739,-0.009169835,0.047938349,0.096532006,0.233132445,0.284439542,0.024435466,0.149161919,0.061744244,-0.055415724,0.248041015,-0.225421325,-0.031595861,-0.069762378,-0.008718656,-0.137200078,-0.293959011,0.028271283,-0.117097784,-0.099531461,0.059059676,-0.045266705,0.120060254,0.223966025,0.036484782,0.102984205,-0.249598051,-0.064213290,0.025992852,0.022761794,0.050801689,
0.013724703,0.091925409,-0.174324475,-0.004638752,-0.011090956,-0.349873034,0.429370101,-0.295488248,-0.075436570,0.095556332,0.075299204,-0.119936168,0.074106569,0.231845712,0.052958727,-0.104892422,0.065734720,0.014932358,-0.162028423,-0.048268708,0.210864427,-0.069781755,-0.108373794,-0.190761176,-0.109349735,-0.166456397,-0.225812140,-0.173107132,0.011155510,0.220021142,-0.004336655,-0.047730789,0.337301674,-0.021882171,0.280680569,-0.079851712,-0.037114463,0.149283552,0.181958274,-0.020358639,0.001306732,-0.065249891,-0.028636777,-0.007019214,0.306323382,-0.099358854,0.034350772,-0.122895860,-0.009557842,-0.219035991,
-0.092417196,-0.134275377,-0.073268012,-0.216556525,0.058201823,0.136122364,0.089777489,0.200910085,0.053914615,-0.027742028,0.097530088,0.001842910,0.135687642,0.003612981,0.160539168,-0.116547723,0.066167566,0.015493761,0.045696289,0.030004650,-0.038107704,0.001230784,-0.112533599,-0.078217730,0.166843942,-0.211779949,-0.170831983,0.141152788,0.150599108,0.224153086,-0.023249949,0.103980626,-0.133406629,0.107306694,0.057866449,0.109131849,0.165749508,-0.220494303,-0.078039133,0.074328020,-0.237147032,-0.107263885,0.020599022,0.124104884,-0.160211267,-0.102139794,0.059937399,-0.088440933,-0.424157283,-0.239226894,
0.075382630,0.014622382,-0.060320781,0.138001928,-0.022087913,0.066779594,0.104247806,0.103955407,-0.121444470,0.373583334,-0.042089009,0.094036146,-0.115253745,-0.060576459,0.302682344,-0.133780932,0.175057265,-0.076990589,-0.049032267,0.075217728,0.042464415,0.201490113,-0.076552411,0.006325079,0.164181541,0.147866138,0.113054367,-0.312486405,0.104677052,0.080325509,-0.130402651,-0.136932209,0.020603560,0.016136020,-0.044782230,0.203342679,0.038827707,0.189954346,0.023637427,0.143842481,0.102236201,0.516567683,-0.076146194,-0.050912561,-0.008728235,-0.263566503,-0.135389502,-0.127505838,0.134663340,0.030010752,
0.011075039,-0.172978833,-0.072776106,0.145812949,-0.059384146,0.236212774,-0.043135399,-0.138917087,0.098525195,-0.101368490,-0.071707075,-0.004480938,0.105120441,-0.071761333,-0.104405166,0.280056859,0.144156425,0.056032809,-0.082460928,0.295215204,0.201229104,0.113771602,0.011292265,0.186221912,0.109444686,0.049299371,0.187195918,0.161785966,-0.104019781,-0.085710900,0.116187609,-0.039695551,-0.118450568,-0.255211189,-0.174341812,-0.120651937,0.080096655,0.200793410,0.022423840,-0.117731353,0.158627849,-0.099861850,0.144308937,0.054368691,0.090841776,-0.002527805,0.045076759,0.140265873,0.196504300,0.067973521,
-0.003060223,0.021697932,-0.014579841,-0.119278341,0.276204144,0.016383203,-0.238051159,0.168306093,0.302724083,0.050643773,-0.058427112,0.075608419,-0.043005201,-0.118509147,0.226286509,-0.167659503,-0.053248154,-0.132723102,-0.069356647,-0.140748679,0.012128436,0.052011150,-0.239316920,-0.143590516,0.151627437,0.040015117,-0.251798868,-0.045311829,0.094359941,0.060301259,0.101949292,0.000695911,0.125644935,-0.140932720,-0.024688146,-0.051237784,-0.136645869,-0.053304235,0.105342491,-0.114257386,0.098666238,-0.238524704,-0.003542890,-0.058250005,0.031861213,0.026331052,-0.019892419,0.157421586,-0.113793961,0.202517926,
0.207143402,-0.131421729,-0.035120997,-0.050749558,-0.049940557,-0.132599012,0.315423947,0.013198318,-0.021145750,0.025429961,-0.074685202,-0.041763486,0.007167357,0.084469624,0.026931319,0.012121242,0.227619727,-0.173456699,0.080232959,0.108871164,0.135310552,-0.129847294,0.042968168,0.261843775,0.247436351,0.142541219,0.203617996,0.150797642,0.207280585,-0.076064905,0.033819123,0.098813538,-0.208044910,-0.196323180,0.012981828,-0.017322285,-0.155794477,0.117987664,0.110182215,0.076111868,0.064133346,0.131285207,0.060854701,-0.268400723,-0.087648728,-0.226719585,-0.101405938,0.031252343,-0.102758473,0.172083439,
0.066324331,-0.079746698,-0.082986277,-0.019631770,-0.218214218,-0.127217902,0.335442624,0.104395957,-0.033558128,0.055299167,-0.059344949,0.002883028,0.121808983,-0.057113308,0.121194396,-0.074467503,0.104636448,0.155920465,-0.194235653,0.349424570,-0.228948415,-0.090584486,-0.101381744,-0.104487887,0.114077232,0.172505968,0.029791060,-0.060347740,-0.063795977,-0.058188878,0.122203932,-0.322144931,0.085876908,-0.114112697,-0.133088557,0.140220834,-0.124693900,0.048052954,0.108418907,-0.027425163,-0.151400660,-0.392171100,0.079455825,-0.040093458,0.101753781,-0.023216524,-0.200614418,0.099777541,0.071450961,0.040064110,
0.002331562,0.141669503,-0.088570431,0.090809768,-0.225198274,0.000170564,-0.049233953,-0.129763011,0.068989170,0.173727750,0.130832285,-0.014901553,0.083519718,0.317419521,-0.050150253,-0.148013311,0.008535597,0.253337220,-0.261825627,0.083416330,0.004150542,-0.314667697,0.146788036,0.227095125,0.031523560,-0.249352077,-0.142196442,0.031859473,0.088765813,0.097170450,-0.291264693,-0.306930861,-0.109902808,-0.114067671,0.252620065,0.032748225,0.024667465,-0.207631663,0.014594707,0.011534437,0.348787165,0.208196680,-0.095866865,-0.053415005,0.239704601,0.044018959,-0.094307609,-0.063402985,-0.181632535,0.100210717,
0.036003992,0.025154633,0.209273095,0.097899264,0.183423259,-0.108535624,-0.014445544,0.193185510,0.218477076,0.008037666,-0.359732000,-0.199782738,-0.032483937,0.030838280,-0.063749362,0.138251513,0.074185784,-0.165073323,0.154192352,0.047133675,0.034324622,-0.081181254,-0.080165167,0.083877062,0.040691555,-0.108990807,0.019717731,-0.135707175,-0.044926286,-0.113919191,0.137481342,-0.066135499,-0.041632610,-0.064188043,-0.203241587,-0.131604314,-0.002362262,0.117245101,0.044583802,-0.183500361,0.072888686,-0.254855117,-0.011890196,0.034487496,-0.109996849,0.185272812,0.017940313,-0.025699944,0.133207388,0.111257637,
-0.012088581,-0.040282783,-0.130413245,-0.096484350,-0.140398204,0.082619589,-0.077166360,0.243260139,-0.152581096,0.087149948,0.334360875,-0.065119505,-0.025185729,-0.234343865,0.024458489,-0.188172509,0.165081404,0.058273213,-0.055651493,-0.079647839,0.014086633,-0.075277035,0.015622759,0.099915132,0.055890754,-0.257265017,0.055859135,-0.248992774,0.124273967,0.303719714,0.253836925,0.111331818,0.169236816,-0.071801880,-0.071712459,0.114577768,-0.199854169,-0.274416062,0.103267367,0.048868444,-0.001339047,0.027690599,0.073143976,0.088249471,-0.089499311,-0.053760370,0.196122088,-0.053189803,-0.135976080,0.049982788,
-0.022333343,-0.238672417,0.120658269,-0.005128478,-0.131754234,-0.245812700,0.236277298,-0.160268688,-0.185338062,-0.038121834,-0.236525568,-0.146274726,-0.003202464,-0.069892893,0.259080280,-0.105623839,-0.146166367,0.064063564,0.308939987,0.075433576,-0.153958922,0.330297889,-0.038281927,0.181518905,-0.116144648,-0.023146129,0.116305743,-0.249684614,0.019878836,-0.062194015,0.198989993,0.261025234,0.217831648,0.209814526,0.065256578,0.059789022,-0.132613880,-0.016102552,0.051968200,0.015666651,-0.101247477,0.232672842,-0.019173081,-0.033297771,-0.138325266,0.075876277,0.256412832,-0.103442055,0.129479292,0.120571322,
-0.054623927,0.000787759,-0.071688689,0.154221640,-0.094789096,0.286273089,-0.165362155,0.098394427,-0.060012292,-0.082485432,-0.070214269,-0.071372922,-0.257470075,-0.212979746,0.028178735,-0.039444609,0.401232384,-0.100578747,0.021317604,0.065228319,0.055188022,-0.060153806,-0.014405490,-0.014524564,-0.045376743,-0.047401326,-0.070299654,-0.074446712,-0.030688454,0.145959097,0.159996293,-0.024419005,0.059378895,-0.380902235,0.110066645,-0.159000278,0.032356135,0.047135712,0.240996008,-0.074910540,-0.088697751,0.058602917,-0.130360183,0.066937987,-0.024288917,-0.146210791,0.087472027,0.004644129,-0.090971323,-0.185048675,
0.186012113,0.160841412,-0.216634776,-0.025384030,-0.081757484,-0.054955750,-0.019669826,0.077868105,-0.074402508,-0.013130472,-0.248444632,0.050394210,-0.026595704,-0.169511218,-0.051057914,-0.050537922,0.084094252,0.098897312,-0.011410205,0.032724587,0.064365814,-0.003953090,-0.002482735,-0.136209225,0.095036112,-0.181118153,-0.187227891,0.068837423,-0.080170798,0.006547066,-0.183457076,-0.084913504,-0.162260281,0.148276650,-0.049289043,-0.188052146,0.171631609,0.073992520,0.136187445,0.084381446,-0.084059103,-0.240946155,0.059234019,0.051942959,-0.091787850,0.150473228,-0.214421599,0.178976241,-0.209291444,-0.171635480,
-0.218828870,0.038201629,0.085021281,0.238898483,0.109557890,-0.167441987,-0.005721687,0.104835071,0.053014088,-0.100883825,-0.040928334,-0.038308310,-0.098523621,0.092139680,-0.116368776,-0.041152412,0.004672677,-0.165077172,-0.008912450,0.097743820,0.032029122,0.048062209,-0.041623441,-0.006188714,0.128547749,-0.219425917,0.209799199,-0.112792800,-0.080243873,-0.156187384,-0.162282167,0.233332283,-0.149939211,0.254423728,0.154384036,0.068707214,-0.099994732,-0.230322921,-0.007170828,0.210755024,-0.118501538,0.188068177,0.299724058,-0.233538981,-0.003016066,0.133681654,0.255257213,-0.016926183,0.166977693,0.039543100,
0.353710629,-0.009079945,0.039453805,-0.007357489,0.086528292,-0.014869950,-0.007337954,0.127716178,0.048502576,-0.211660217,-0.074654656,0.215102186,-0.200186394,0.158069199,0.003702873,0.427947519,0.192791188,-0.093267729,-0.172645246,-0.137520516,0.064542644,0.167568259,0.245542461,0.019262408,-0.024535292,-0.058954472,0.071853596,0.054669188,-0.144390062,0.009030195,0.191339431,0.060418485,-0.140290484,-0.072947202,-0.074170776,-0.131086781,-0.257129010,-0.020261232,-0.047369031,-0.205271511,0.075934762,0.063841513,0.037934841,-0.059543219,-0.236210990,-0.011911379,0.274917135,-0.022217149,-0.349946077,0.083814450,
0.074548023,-0.180807788,-0.162907704,-0.047071939,-0.111525395,-0.077898630,0.045110573,-0.086961878,-0.262579977,-0.210786711,0.061047882,-0.053193596,0.007857089,0.156072444,-0.055569587,0.154240813,0.029314913,-0.022332706,0.054358459,-0.135828378,0.051238692,-0.000454731,-0.002276702,0.058901516,0.062553305,-0.054170255,0.088670981,0.118680439,0.028418416,-0.147036212,-0.115059015,0.011835420,-0.132699413,0.016093859,-0.158946441,-0.185928886,-0.149441621,0.051240939,-0.013375072,-0.129080034,-0.232032239,-0.279164366,0.080218042,-0.048075270,0.005339926,0.131562467,0.022243083,0.051858231,-0.198113977,0.160329760,
-0.133218287,-0.027265090,-0.086781833,0.029035738,0.176810024,0.046542317,-0.229743111,-0.030536391,0.052641717,-0.028733681,0.099040924,0.055288779,0.247613354,-0.228784964,-0.020040685,0.097690808,-0.055427421,-0.121145388,0.173982877,-0.048373803,-0.199981689,0.185119920,-0.168667343,-0.307558885,-0.010244989,-0.181226671,-0.037103857,0.052303193,-0.243927017,-0.068519635,-0.099485102,-0.091623932,0.009481654,0.022349310,-0.008587080,0.127716213,0.046632411,0.013741427,0.131471724,-0.062998433,-0.039178822,-0.289259002,0.072263143,-0.062020930,-0.032418078,0.235407295,0.092307757,-0.050753525,0.016545825,-0.046955638,
0.048081834,0.072696061,0.076641616,0.015747170,-0.020178767,-0.099404288,0.053813167,-0.079335360,-0.253000169,0.261745776,0.088983000,0.185511139,-0.093373669,-0.138058577,0.080838789,-0.109997686,-0.034341378,-0.058554517,0.132709310,-0.100349342,0.180675611,0.253648630,-0.104805050,0.119225686,-0.152044269,0.334383185,-0.398621961,-0.058428148,-0.087221746,-0.042646222,0.057178337,0.227786574,-0.006178007,0.333660045,-0.036071657,0.042064082,-0.109424255,-0.017149455,-0.181739847,0.070853476,0.119162774,-0.097756306,0.116264837,-0.107320143,-0.049870096,-0.015517602,0.168010580,-0.133553133,-0.106731006,-0.145979307,
0.252529440,-0.170481711,0.165954506,-0.094002871,0.244037136,0.022043753,0.049406835,-0.201724933,-0.097950941,0.080393818,-0.023420528,0.340455931,0.052758774,0.110886008,0.034298387,-0.409936613,0.085524027,-0.111999534,-0.084387061,-0.013399425,0.105431507,-0.025596760,-0.003168679,-0.161704058,-0.185389895,0.058553476,0.070488129,0.229306745,-0.145694914,-0.008820653,0.175252287,-0.047174861,-0.225186665,-0.123269293,0.228943683,-0.012151222,-0.011128385,0.068106610,-0.059868368,0.053137024,-0.070582259,0.135312015,-0.133672579,-0.071320098,0.006022086,0.015754758,0.006554690,-0.077894739,0.030563822,-0.054308170,
0.052522193,0.293499730,-0.182496400,0.023664779,0.056305338,-0.073367493,0.145700675,-0.036680961,-0.071179820,0.224466538,0.274981517,0.010899781,0.103594439,-0.100880081,-0.187652350,0.066671745,-0.039692549,-0.237916609,0.064014370,-0.356328697,0.184310169,0.120585275,-0.085478703,0.237155111,0.053839204,0.326294699,0.006832406,-0.186603177,0.079180966,0.204001071,-0.095466981,-0.027646476,-0.023957470,0.015204034,-0.164972377,-0.173816032,-0.002474998,-0.163116687,0.096043022,0.160985018,-0.102548022,-0.061944147,0.165982626,0.059659357,0.129188199,-0.294433174,-0.012915434,0.068187089,-0.302324078,-0.226649343,
0.018265480,0.069867539,0.013506635,-0.042155456,0.006162159,-0.287158514,0.099209798,-0.131428368,0.297199318,-0.051200042,-0.130156607,-0.288707921,-0.116032168,0.083646838,-0.068641425,0.068153036,0.037224444,-0.175259208,-0.022494618,-0.077328898,-0.159289183,0.111715611,-0.216018852,-0.018954332,0.356883363,0.046149443,0.009719912,0.010691182,-0.110626349,-0.089130307,0.239170886,0.027830130,0.170026667,0.207714520,-0.102574822,-0.002880552,0.017926252,-0.181826340,0.315574028,0.051836283,0.316854644,0.189851824,-0.158310609,0.186089484,-0.057824795,-0.082863490,0.130403302,0.160734366,0.081705664,-0.072239434,
0.172315968,-0.137365637,0.051512653,-0.021545283,-0.071841163,-0.202229979,-0.114340499,0.041964531,-0.211314221,-0.098179386,-0.159499483,-0.042225886,-0.096204277,0.021878818,0.020820348,-0.147961508,0.139097885,-0.074945302,-0.086497828,0.130969950,0.087404765,-0.027970912,-0.029776667,-0.028795775,-0.106249469,-0.004341627,0.101024486,-0.033615591,0.095251563,0.245046744,-0.093266676,-0.084008053,0.041352064,0.140844066,-0.046631394,0.281527215,0.142088705,0.169088798,-0.129087277,0.133615715,-0.054260917,0.050675214,0.184535878,0.050869161,0.047574621,-0.023623400,0.201246449,0.175810820,-0.126731765,-0.179521614,
-0.017248077,-0.080774308,0.287648045,-0.224568087,0.338329581,-0.121103479,-0.036483054,-0.045643917,0.022008805,0.183070114,0.060941121,0.095905780,0.068416873,0.034961094,-0.075399593,-0.099525262,0.023460683,0.048049250,-0.058511476,-0.169399486,0.011390923,0.114215738,0.068478135,0.177245826,0.153621961,-0.080486396,0.139141529,0.392395099,0.132528400,-0.005953301,-0.107116404,-0.049099341,-0.148144759,-0.039935423,0.021695575,-0.075818971,0.021603208,-0.089793644,-0.218808095,0.361164726,-0.079208118,0.150332510,-0.378984757,-0.061286884,-0.094138823,-0.011042535,-0.312151075,-0.190297791,0.240007913,-0.018945915,
-0.049940111,0.012881781,0.110623844,-0.379308814,-0.090667501,-0.199628185,0.070257660,-0.128310375,0.218736007,-0.141417656,0.210860685,0.110236001,0.271132326,0.009810250,0.240795445,0.183413958,-0.108627730,-0.124984186,-0.156496498,0.172003352,0.061767674,0.202781956,0.102286123,0.187958043,0.110428031,-0.068615890,-0.194344123,-0.099895042,-0.040601851,-0.017024130,0.209446654,0.135216867,-0.029489069,-0.114647658,-0.031112334,0.082091163,0.024938294,0.245717812,0.031297247,-0.181750675,0.032334886,-0.234259216,-0.048835019,0.135496492,-0.054762572,-0.055538429,0.107757064,-0.134834628,-0.153792261,0.030615508,
0.168417175,-0.209776378,-0.122624028,0.242014266,-0.109287841,0.035928350,-0.016664173,-0.239380223,0.005508828,0.078059039,0.046784981,-0.036184471,-0.166779115,0.017144255,-0.050100284,-0.161498690,0.250408685,0.157010134,-0.031678399,0.106467864,0.120627457,-0.007855023,0.008553168,0.094319954,0.047312297,0.086960161,-0.203768784,-0.216715977,0.025264039,0.139687992,0.131478548,-0.117352961,-0.049701485,-0.116490788,-0.179688335,0.073516791,-0.066027524,0.092774201,0.279385438,0.145654359,-0.128728268,-0.078733189,-0.275384329,0.095637322,0.158898210,0.101980107,-0.103394839,-0.043697743,0.096078557,0.101935111,
-0.011484256,-0.132480506,0.090936174,-0.326683797,0.090132801,-0.123878330,-0.212393401,-0.031897928,-0.099610812,0.263912460,0.160297331,-0.051739733,0.101394363,0.185927499,-0.002969490,0.124360719,0.057184217,0.312938031,0.021764725,-0.001549721,-0.027543895,-0.306473692,-0.301939443,-0.241761442,0.055720787,0.008513116,0.088115192,0.265897235,0.233131844,0.084207031,-0.233118161,0.025462840,0.086148567,0.040204073,0.036070562,0.248727400,-0.075098324,-0.077620890,-0.028275978,-0.063253119,0.258611868,-0.202360629,0.063200891,-0.072952566,0.181153622,-0.112699583,-0.062127080,-0.046997207,0.081548490,-0.077428601,
-0.285868971,0.072552573,-0.090485523,0.077296820,-0.050932921,-0.042659082,0.084427111,-0.108232481,-0.029756791,0.218786470,-0.114536634,-0.014975737,0.014695531,-0.236428394,0.127315213,-0.025150801,0.094864817,0.143475833,0.039652267,-0.060681894,-0.002542160,-0.086039982,0.177057421,0.056242187,-0.158434021,0.184494077,-0.046927258,0.060740281,-0.146754930,0.145555204,-0.225316437,-0.146620963,-0.071382448,0.183573833,-0.006375782,0.230649316,0.146081562,-0.144078830,0.059183063,-0.035302534,-0.225277542,-0.390654661,0.009838073,0.003841877,-0.044491967,-0.063101112,0.156262811,-0.043641850,0.019294917,0.119792974,
0.155750561,-0.064657189,0.096190828,-0.125792973,-0.158260303,-0.095930380,-0.025981306,-0.177588405,0.077317379,-0.122236305,-0.325324697,-0.007940398,0.005271747,0.155100582,-0.058087943,0.140278289,-0.079287519,0.096979331,0.020737390,-0.109027976,-0.143410722,-0.079595169,-0.126649356,0.248754307,-0.096677243,-0.099650708,0.088504094,-0.122343410,-0.033297754,0.229703435,0.032208515,-0.112561417,-0.054140890,0.201873906,0.088339947,0.005214271,-0.141087257,-0.079878758,-0.031947375,0.036277972,0.063373430,-0.074928103,0.175661887,-0.013475978,0.202926662,-0.242203738,0.237812380,-0.145105922,-0.056005000,0.089924014,
-0.042245900,-0.072768567,0.063706165,0.037873377,-0.066421074,-0.014289807,0.084542545,-0.006095684,-0.136210274,0.038387472,-0.131515061,-0.406392576,-0.008511700,-0.168429319,-0.178136511,0.021911805,0.001895744,-0.209555116,0.147655716,-0.113986783,0.110813789,-0.140955083,-0.023193997,-0.038567962,-0.109510984,-0.156489548,0.066867829,-0.103976943,0.010351821,-0.161604056,-0.012972497,0.077832506,-0.016664674,-0.060696251,-0.175584332,0.217074567,0.080723960,0.291895590,0.113332725,-0.003230532,0.256968199,0.071268597,-0.303550854,0.041882529,0.139714745,-0.017185465,0.160184555,0.043144056,-0.110463703,-0.062632619,
-0.258673358,0.038001482,-0.014188695,-0.049947803,-0.038625990,0.080300700,0.128636833,0.206422928,0.055297596,0.020596897,0.232402876,0.324766120,-0.173328610,0.018936423,-0.215879234,-0.184809289,-0.183095147,-0.086185961,0.017263512,0.034394494,-0.130671950,-0.252470967,-0.083011877,0.222713211,-0.097637806,0.406587797,0.157298973,0.131631607,-0.081012473,-0.047228676,-0.253697384,0.121718336,0.086470536,-0.219955157,0.173208029,0.036063071,-0.107148734,0.211394277,0.029598244,0.177610934,-0.268072389,0.068517768,0.116390053,-0.138999117,-0.127571088,0.158727896,-0.068562829,0.083474907,-0.055590937,0.152748349,
-0.102654330,0.078756612,0.055017726,0.036620755,0.139195117,0.153715473,0.060675638,0.077335031,-0.016599052,0.319527214,0.037770804,0.187475087,-0.017012618,0.165514518,-0.064607289,0.076804923,-0.357727739,0.005919363,-0.005291953,-0.087935995,-0.166011828,-0.255512310,-0.233345230,-0.029099663,0.114470081,0.035537461,0.216361258,0.111097977,0.099672472,0.034069508,-0.082770127,-0.203124032,-0.003013978,0.029266533,0.127788276,-0.061695136,0.074924867,0.173703937,0.076086531,0.262100410,0.249168928,-0.112607950,-0.235110348,-0.287866099,-0.035328217,0.075379340,0.204641225,0.170846573,0.012345129,0.072256693,
-0.114798820,-0.152177645,-0.008633122,0.134008267,-0.087333818,0.094087862,-0.225377977,-0.127385935,-0.100423770,0.021429211,0.182231591,0.035314266,0.025325321,-0.006862767,-0.296116140,0.043535058,0.006592338,-0.171813271,0.332719143,0.145163815,-0.117992857,0.049503216,0.086770295,-0.083746066,-0.141635356,-0.261203249,-0.110059694,0.057127688,-0.277282282,-0.113234182,-0.037334242,-0.304821269,0.264808017,0.004620389,-0.343713440,0.190548586,0.026599611,-0.011328330,-0.118046818,-0.017504819,0.052610728,0.125188077,-0.014759410,0.108575295,-0.094439025,-0.027300220,0.046497856,0.130163565,-0.103673030,-0.051363543,
-0.071664976,0.020443418,-0.097805253,0.064486890,0.012512458,0.041493267,0.144255317,0.320647551,-0.007347270,0.026479254,0.185860077,0.147336899,0.019329313,-0.019534328,-0.045305671,0.031918453,0.131511041,-0.202154468,0.194571221,0.167173751,0.391838256,0.019618673,-0.116631838,-0.127099967,0.227760869,-0.193663151,0.114339173,0.125833710,0.052114173,-0.010264534,0.130531567,0.203167616,0.196222258,-0.199652009,0.019863710,0.059588325,-0.071776011,0.008628742,0.104211809,0.088724391,0.111228213,-0.164558042,-0.071145028,0.279821439,0.247856385,-0.014297936,0.181846257,-0.051791636,0.214643558,-0.317479892,
0.094579116,-0.103839237,0.059835413,0.143140876,0.010619269,0.050125180,-0.104933737,0.190597981,0.074903403,-0.147122826,-0.025782802,-0.135840034,0.068204907,-0.095849980,-0.232212823,0.205714353,-0.089590175,-0.100305556,0.103378812,0.171513278,0.069368051,-0.072366953,-0.081809880,-0.131426896,0.297921817,0.102097126,-0.077445749,0.084996801,0.181651522,0.347077044,0.065688697,-0.046895106,0.114237787,-0.269263435,0.039417849,-0.016274576,0.086559314,-0.028110004,0.023850227,0.096541187,0.028744783,0.001152740,-0.269684527,0.164212442,-0.150514272,-0.143710378,0.144256662,0.088660720,0.058342222,0.061791497,
0.133184055,-0.108802542,0.394162268,0.185138268,0.081392378,0.229719501,0.098469862,-0.112464625,0.074309652,-0.066715797,0.124493412,0.165334908,-0.193793901,-0.025840512,-0.009617338,0.120946263,0.064922634,0.235197434,-0.137870398,-0.278517524,0.241433797,-0.065904985,0.066074647,-0.100520660,0.083231921,-0.162453109,0.026360580,0.167353612,0.016731015,0.206126040,0.176689785,-0.222055448,0.022232233,-0.213732816,-0.108127212,-0.045760778,0.032894596,0.024129337,0.096199153,-0.062423429,-0.072897652,0.110114427,-0.205584022,-0.118610784,0.197984547,-0.111940705,-0.196898475,0.095480960,-0.008396142,-0.074174993,
0.094451349,0.001659071,0.231332164,0.244518432,0.159246483,0.010045666,-0.018464421,-0.009539963,-0.008255751,-0.010951849,0.040942545,-0.362272185,0.017219569,0.094225532,-0.030868798,-0.014487714,-0.070757206,-0.034693884,-0.234438708,0.156831456,0.042214122,-0.043585230,0.028152559,0.067392419,-0.290346527,0.051883920,-0.116632100,0.068626569,-0.018364276,-0.178094258,0.068197330,0.149828394,0.121578912,-0.092909734,-0.235648924,0.012327275,0.113268317,0.100614042,0.284080574,-0.232456735,0.288130996,-0.023717164,0.083784081,0.022827874,-0.303279501,-0.174835914,-0.083857913,-0.094110963,0.197663096,0.010515534,
0.023094548,-0.211272469,0.031139746,0.188114684,0.002523827,0.101100677,-0.297035553,0.145623893,-0.131836496,0.008805427,0.020335714,0.010134817,-0.082806845,-0.272857156,-0.220701230,-0.066884138,0.012833504,-0.091546451,0.059961948,-0.116453208,0.203609154,-0.017509895,-0.261278394,0.141909324,-0.067935525,0.001502452,-0.124410610,0.107132840,0.091071087,-0.205129547,-0.245545280,0.102760616,-0.055270869,-0.261738245,-0.141844996,-0.037769196,0.188302003,-0.108209049,-0.057969256,0.193875777,-0.042964781,-0.205999058,-0.178177850,-0.211114473,0.069673279,-0.011140381,-0.126395799,-0.034669841,-0.027198530,-0.072275956,
-0.298694502,0.105752487,-0.057916619,0.012965446,0.139223643,0.250667697,0.026854971,0.056683152,-0.063246616,0.212583912,0.069584127,-0.195966215,-0.162650127,0.173288106,0.003894201,0.114886321,0.114226165,0.077482261,-0.074266065,0.030218907,-0.101318724,0.133521658,-0.203887020,0.141877878,-0.083457338,0.085064581,-0.154162874,-0.030780427,0.001478413,-0.254236193,0.151906084,-0.104264545,0.131782087,0.109256006,0.241099057,0.032013060,0.141662128,0.310664413,-0.199844156,0.022887586,-0.038619333,-0.221454712,-0.040442719,0.034795264,-0.012517459,0.010779953,0.126503016,-0.122115087,0.150544935,-0.281849266,
-0.083818297,0.175861104,-0.015431392,-0.227158463,-0.071208773,-0.177255716,0.092854286,-0.254264681,-0.013189492,-0.099553091,-0.023666328,-0.214924489,0.024286635,0.136705350,-0.008217221,-0.058896459,0.053789705,-0.199784392,0.092878597,0.037559481,-0.029463143,-0.082618005,0.030246820,-0.083273430,-0.027968682,0.259511018,0.004889243,0.016479294,-0.305202932,-0.117099329,-0.063394517,0.202072540,-0.013218163,0.029417529,0.192415762,0.039371887,0.049161885,-0.427108204,0.068192873,-0.018870771,0.219422743,-0.009570722,0.396657168,0.044890337,0.033963188,0.122513675,-0.017138262,0.088591363,0.004213611,-0.218115103,
0.099502249,
0.117699917,
-0.147536427,
0.021493220,
-0.126337450,
-0.020293358,
-0.074674563,
0.041367999,
0.080074270,
-0.068762523,
-0.122003641,
-0.154298191,
0.174586535,
-0.116537441,
-0.223147719,
0.119901703,
-0.095027134,
0.145153512,
0.079019085,
0.060839034,
0.039138693,
0.242972638,
0.026259843,
-0.076690225,
0.087717920,
-0.047518256,
0.033041900,
-0.023054649,
-0.044433099,
-0.165972186,
0.200638017,
-0.011423104,
0.065593882,
-0.054098863,
-0.165814567,
-0.031536467,
-0.051288859,
-0.128094383,
-0.051698398,
-0.199156874,
-0.162503756,
0.065145565,
0.112224419,
-0.040657611,
-0.079596383,
-0.055020698,
0.029551933,
0.191042756,
-0.337373158,
-0.309661964,
0.188570440,-0.286086636,0.180528502,-0.185373696,0.178889262,-0.248857194,-0.023414764,0.069293010,-0.223453424,-0.037210362,0.029650589,-0.011903058,0.197050970,0.006406576,0.101410874,0.142402739,0.030255330,0.055663446,0.067416890,-0.010932631,0.231446117,0.233197121,0.104499785,-0.044260308,-0.350843034,0.017450364,-0.042160506,-0.017947502,0.297682301,-0.128555081,0.036055848,0.023113210,-0.022608877,0.115655919,0.303734605,-0.150588782,0.010074234,-0.172864449,-0.066706207,0.130680460,-0.100664609,0.345082932,0.093446432,0.042932371,0.018994676,0.004262343,-0.072598019,0.020097586,-0.206253151,0.151158153,
0.172480944,0.026340834,0.307065920,0.291560840,0.199276219,-0.260933892,-0.041230682,0.310378133,0.107474941,-0.063743045,-0.023434794,0.124863115,0.046871262,-0.193407558,-0.140583013,0.186038527,0.153558827,0.043592229,-0.138671810,0.267234664,-0.084862158,-0.273168309,-0.016431700,0.277490932,-0.105318508,-0.352295891,-0.193331065,0.166164385,-0.238881879,0.196141161,0.155021092,-0.203718725,-0.141625205,-0.111209809,-0.206758269,-0.200788668,-0.090032007,0.022474163,0.219872598,0.105457314,0.137286972,0.086720699,-0.132818725,-0.229743203,0.113515433,-0.046352629,0.107728602,-0.083039956,-0.063157961,0.126599993,
-0.202031992,-0.061577530,0.185086326,-0.079595463,0.154826616,0.176874082,0.023858923,0.051490499,0.131149714,0.135209681,-0.014565147,0.156898712,-0.027493627,0.029054748,0.318820107,0.183491903,0.020680035,0.144516801,0.234388091,-0.044487220,0.020089338,-0.225423924,0.026700105,-0.036736081,0.081746321,-0.193484549,0.079990682,0.134143855,-0.249935883,0.183956663,0.080693266,-0.148577210,-0.099126673,-0.115036855,-0.026629916,-0.189068776,-0.153461317,0.222067662,0.170287530,0.061102606,0.173557803,-0.059903594,-0.198881829,-0.070462521,0.103346922,-0.111523209,0.134527687,0.075663622,-0.057332969,-0.188128088,
-0.255443251,0.015820648,-0.075674899,0.179653641,-0.109234510,0.200748580,0.144624549,0.126904230,0.023755878,0.010392111,-0.102479103,-0.036625213,0.156313541,-0.081298421,0.026027550,-0.180209590,-0.102299191,0.017399953,0.104571762,0.126780288,-0.060003707,0.035486303,0.080646815,-0.131465341,0.074772603,-0.064311928,-0.013047909,-0.299797104,0.042025466,-0.005929305,0.013813105,0.113182150,-0.156481096,0.218019224,0.063788889,0.154695976,-0.286625963,-0.060557511,0.301144545,-0.080110760,-0.003670168,-0.265142571,-0.307030554,-0.020879059,0.278379927,0.162277492,-0.045938666,0.003814783,-0.016820437,0.097879542,
0.141043190,0.042656891,-0.170606414,-0.281802361,-0.268187806,-0.048314201,-0.299853770,0.164079907,-0.222937951,0.067703057,0.084494601,0.099570961,-0.070937313,0.115102071,0.125927560,0.094974656,0.052119799,-0.053317464,-0.280587118,0.312262096,-0.169720444,-0.299663452,0.059909723,0.091501239,0.185630210,-0.253727456,0.017793705,0.247965171,-0.003665875,-0.058628390,0.043314947,0.013466669,0.041432197,0.059480932,-0.091456493,0.159109948,0.075750969,-0.046250763,-0.055719792,-0.089382990,0.249618590,0.148709688,0.227268365,0.123108803,0.081035235,0.021692695,-0.182436299,0.007796113,-0.005978996,-0.032252453,
0.252082650,0.062219806,-0.321074017,0.016945906,-0.151350765,-0.241063100,-0.174579530,-0.080674940,0.146771484,0.043055909,-0.151321597,0.025865649,-0.075924419,-0.154202805,-0.036065147,-0.137101331,0.259304373,-0.195887550,0.060411321,0.367321225,-0.218223878,0.265174221,-0.033510708,-0.041160084,-0.060370321,-0.042994612,-0.077210212,0.269294514,0.064101529,0.089536944,-0.159620623,0.322017383,-0.051624950,0.340193931,-0.061497493,-0.036633882,-0.086235262,-0.052667817,-0.106047935,0.201203660,0.033329039,-0.042953000,-0.038664711,-0.082143806,-0.129418318,-0.242114075,0.135450477,-0.157917571,-0.070701556,-0.161161846,
-0.043382812,0.034660407,0.202784889,-0.095277283,0.121744204,-0.169169703,-0.059136239,0.156760045,-0.240198712,0.222739053,-0.012388828,0.071486989,-0.010604931,0.232141399,-0.019109620,0.213835487,0.091179146,-0.093776190,0.032967314,0.212913149,-0.187683782,-0.064213023,-0.251640729,-0.006937842,-0.067128509,0.024055108,-0.155070873,0.026186024,-0.052888704,0.031754238,0.026433783,0.173599039,-0.053765312,0.109068324,0.367462486,0.145168326,0.044096156,0.198263574,0.217427079,-0.156380111,0.166955704,-0.093503614,0.135312233,0.204325401,0.117368111,0.124116167,0.196577045,0.073058125,-0.026128251,0.060495253,
-0.034788225,-0.271650535,0.001371736,0.127534713,-0.156461240,0.019882685,-0.043613402,0.091927331,0.036446800,-0.257048966,-0.150021673,-0.064604809,0.198529179,0.061788839,0.090580261,0.312661101,-0.190250626,-0.042588735,-0.106305960,-0.090295453,-0.174879130,-0.173938058,-0.167626301,-0.109063771,-0.288355698,0.110213993,0.054907727,0.084859757,0.213310621,-0.088640583,0.028936050,-0.022155744,-0.007635280,0.150083219,0.076820681,0.180203740,-0.163628675,-0.093434543,0.077703155,0.265411640,-0.359711172,-0.109987520,-0.088672811,0.167162209,-0.257229026,-0.158883965,0.293664180,-0.119542667,0.107439171,-0.012093115,
-0.066404817,0.255550283,-0.169115844,-0.002330989,-0.166465709,0.107730619,0.318214378,0.060983805,-0.032384478,-0.137211816,-0.229600147,0.150144222,0.182157941,-0.006201936,-0.073062119,0.086432043,-0.194531985,-0.194030185,-0.150195526,-0.033371777,0.018992106,0.220847973,-0.267293128,-0.014615283,-0.128587388,-0.147589998,-0.124728448,-0.230465943,-0.137624602,0.068999472,0.002267878,0.111395274,0.063907786,0.012492726,-0.106178147,-0.101106039,0.179233447,0.028756885,-0.075706201,0.195103581,-0.048829867,-0.074385173,0.058790848,-0.069721828,0.020776155,0.108470736,-0.265227911,0.059125766,-0.188542517,-0.006879819,
-0.037667473,-0.212448173,-0.001040758,-0.103207918,-0.014929087,0.127987008,-0.318248059,-0.070491569,-0.068395390,-0.169663618,-0.153137876,0.072636584,0.157590204,-0.065990523,-0.004081656,-0.096628630,-0.152211119,-0.047884883,0.002387423,-0.117837277,0.178780376,-0.203119692,-0.167112105,-0.206581461,0.021255544,0.135170858,0.054968749,-0.005915018,0.322399615,-0.134625558,-0.051546177,-0.078871411,-0.018985881,0.089173419,-0.030136408,-0.041052861,-0.191291020,-0.178661256,-0.169373112,0.189393645,0.156648952,-0.101504570,0.056960229,-0.100963272,0.091019887,0.014145848,0.211733575,0.136369260,-0.208342513,-0.203738455,
-0.098539634,0.009605586,-0.020073746,-0.138417123,0.154271731,0.019298732,0.146771734,-0.170654167,-0.086186818,0.021275049,0.069748318,-0.035911479,0.044704131,0.194183120,0.102930562,0.017335911,0.115445888,-0.039206760,0.084180480,-0.040577770,0.021973288,0.095370429,0.094612263,0.003973956,-0.093433318,-0.156744436,-0.308836649,-0.167109352,0.051698487,-0.155592630,-0.074898573,-0.057118882,-0.109382610,0.244260731,0.150401458,0.242828211,-0.060457766,-0.110834622,0.177825045,0.097539549,0.012864739,0.277587061,-0.109832146,0.036819293,-0.059469473,-0.022850565,0.136235241,-0.114784696,0.151826214,-0.077660889,
0.158458654,0.022109115,-0.155444698,-0.201803602,-0.224323705,-0.203950207,0.028600635,0.119839549,0.080231732,0.077510962,-0.010289681,-0.002373848,0.156116892,-0.003195720,-0.080069475,-0.029780251,-0.108857774,0.100214292,-0.017279300,0.071911141,-0.013855408,0.007795566,0.053588620,-0.144532707,0.004689804,-0.096272531,0.143424670,0.013433245,-0.126611010,0.284698639,-0.078015498,-0.017135823,0.076448149,0.241625288,0.115717142,0.002356398,0.014448069,-0.033386580,0.148615715,0.047402039,-0.187489801,-0.047823651,-0.037119684,0.057722799,-0.004539273,0.126998629,0.220653789,0.004970379,0.034261980,-0.303920003,
0.176397199,-0.002126730,-0.012478452,-0.094423826,-0.093490455,0.037714887,-0.309493610,-0.037957180,0.157831937,-0.012057018,-0.161791051,-0.235764749,0.238774732,-0.199414143,-0.149586007,-0.105550402,0.021245924,0.062163446,-0.250160788,-0.055831265,0.285430393,0.112841867,-0.000402790,-0.024748569,-0.190504378,-0.009185653,0.011441566,0.218668035,-0.108943001,0.074595107,0.088267337,0.123046583,0.163212024,0.007707411,-0.070052196,0.105562580,-0.158215568,-0.137792602,-0.187145921,-0.149829488,-0.044300612,-0.090975739,0.112227581,-0.051185302,-0.026704724,0.136236825,0.067903439,0.149142892,0.155522353,-0.231144742,
0.129201950,0.213181036,-0.064781024,-0.012527383,0.002948426,0.328528462,0.118439476,-0.055322836,-0.099764138,-0.076384695,0.073460950,-0.130192462,0.024410428,-0.078407761,-0.213446582,0.103779905,0.004779991,0.213501974,0.086582349,0.093136689,0.016126511,0.056155653,-0.129459489,-0.310470873,-0.107232819,0.240863241,-0.055886791,-0.064322261,0.023917863,0.033903179,-0.054783965,0.008261613,0.177701073,-0.205280447,0.009576450,-0.036862535,0.109026178,-0.129153980,0.048256050,0.022146019,0.271876455,0.027870570,0.150675265,0.206645925,-0.206366481,-0.030611689,0.080812767,0.144619884,0.061600906,0.108807607,
0.172862945,-0.037557200,-0.008021589,0.238898457,0.119928597,0.166746280,-0.149417670,-0.177696722,-0.094551861,0.065973149,-0.294699136,0.005071343,0.072779223,-0.014680118,-0.132012079,-0.128656844,0.309277479,-0.062019442,0.038899981,0.351206426,0.179266746,-0.175779734,-0.079208611,0.089549981,0.309278104,0.024920263,0.073634154,0.259564836,0.265339939,-0.173734731,-0.167526371,-0.073517470,-0.121152149,-0.140147699,-0.150675290,-0.357006868,0.119696009,0.007511761,0.019011772,0.124989979,-0.023035970,-0.151357107,0.203524263,-0.281528563,0.007491459,0.063030093,0.067731228,0.120658250,-0.104345250,-0.216696036,
-0.179317646,-0.102326153,0.263570993,0.062066099,-0.123759342,0.097860118,-0.023658352,-0.144992680,0.070774963,-0.000051643,-0.267127480,0.062433401,-0.009553976,0.096250261,-0.128316900,0.143000323,-0.313159863,-0.027524942,0.038080718,-0.213739274,-0.126978326,0.100775652,0.183894826,-0.052760008,-0.265667752,-0.075078779,0.371763524,-0.009072089,0.109020083,-0.263627163,0.001714979,0.097610691,0.073935165,-0.048707122,0.136722430,0.140440352,0.189560463,0.011892859,-0.079954080,-0.018741309,-0.117995347,0.171430490,-0.155166442,0.012838475,0.002545891,-0.065333255,-0.181197070,0.186180221,-0.104490787,0.084940171,
-0.170011062,-0.025600844,0.164197233,-0.070447635,-0.193544411,0.033461124,0.096962875,0.036217672,-0.032799473,0.196095576,-0.150912472,-0.015634241,-0.085113506,-0.112454937,0.150000814,0.177224207,0.150543825,0.279202968,0.188115364,0.046939693,-0.038119072,0.226924333,-0.069231766,-0.189436963,0.151563778,-0.084885193,-0.096862238,0.037247789,0.070313691,-0.088546621,-0.117061177,-0.097609789,-0.103156239,-0.006740557,0.127243074,0.005972123,-0.004839907,-0.027986180,-0.117877008,-0.088033292,-0.056167561,-0.222063462,0.178911620,0.124487899,-0.218564591,-0.078701777,0.195018405,-0.132314509,-0.161381189,-0.184555976,
0.093004022,-0.107094715,-0.060663993,0.208064636,-0.117973563,0.045261290,0.103745516,-0.370777336,-0.121377630,0.043654960,-0.071665469,-0.102023987,-0.295426847,-0.118544409,0.189734964,-0.082346335,-0.196983601,-0.116950498,0.033090841,0.133683992,-0.011192366,-0.139246801,-0.002366906,-0.078251874,-0.061792077,-0.053637623,0.398973688,-0.159432755,-0.013959180,-0.109787639,0.040725237,0.097344817,-0.021889014,0.106627059,-0.048347320,0.068511389,0.092026227,0.147980629,0.004915020,-0.239349993,0.133459548,-0.060594508,0.154466148,0.117044076,-0.254693582,0.064004178,0.250182068,0.056711038,-0.052024070,0.048692394,
0.424374080,0.197167484,0.082419356,-0.011574939,-0.009054900,-0.147297478,0.001878398,0.274380906,0.079392658,-0.294184353,0.183977298,-0.039903764,-0.164773871,-0.053580425,-0.000930095,0.000878168,-0.020931925,-0.149665656,-0.067558774,0.036495891,-0.122771209,-0.134282353,-0.079881190,0.033594312,-0.002965574,0.115081777,0.058345433,-0.081694163,-0.048251487,0.004399456,-0.115304246,0.071599531,-0.038834610,-0.007532252,-0.196475812,-0.215271933,-0.094167477,-0.157965639,-0.166497695,-0.189975401,-0.031189951,0.015110772,0.248412023,0.031992627,0.141939770,-0.059447478,-0.031946864,0.098172364,0.081191544,0.158811396,
0.065000928,0.047717956,-0.127390912,0.133036509,0.012848279,-0.198800806,0.096202307,0.181217878,-0.035329262,0.108606271,-0.231477185,-0.047090167,-0.054388448,0.097309895,0.013435924,-0.091849173,-0.066882103,-0.093196786,-0.079423620,0.248768805,-0.123742435,0.004131061,-0.032541237,-0.253371293,-0.163560402,0.032817634,-0.171291049,-0.102087910,-0.131891667,-0.014810919,-0.125681290,-0.312635436,0.309971994,-0.076344481,-0.241248388,-0.071306678,-0.014642388,-0.346461463,-0.031182642,-0.120837639,-0.067263064,0.070233778,-0.153961446,-0.084062403,0.001370172,0.261596429,-0.219876315,-0.165097378,-0.055581556,-0.106820175,
0.133661118,-0.177771191,-0.138156661,-0.045731035,0.264214220,0.333496799,-0.028148987,-0.090359410,-0.045028059,0.228382459,0.089297685,-0.104546299,-0.333248221,-0.113924689,-0.181770559,0.059871431,0.113203008,0.033863258,0.007547575,-0.052902819,-0.384573415,0.156582379,-0.216552818,0.021470063,0.024112030,-0.010400248,0.005658154,0.380141261,-0.115241059,-0.156959955,0.037261184,-0.042446490,0.045102877,0.090531832,-0.081113543,0.241542609,0.125355524,0.133823691,-0.015953242,0.083993153,-0.036826307,0.021475297,0.024769666,0.214897949,-0.125842989,0.015705491,0.010295610,0.032595444,0.088852886,0.066928122,
0.006071112,-0.018005103,-0.065885542,-0.033795883,0.061978482,0.064696613,0.049465160,-0.128584129,0.018837416,-0.170811566,-0.058336598,0.357113111,0.064174952,-0.011372534,0.174434717,-0.040242633,0.000803385,-0.184730635,0.092347944,-0.090206672,-0.256160157,-0.289387067,-0.005976820,0.061046520,0.080056662,0.257904950,0.180795160,0.044791550,-0.000492708,0.004182780,-0.066382416,0.025237230,0.010740713,-0.066895784,-0.184060239,0.049698641,0.050123550,0.001637885,0.109799864,-0.119199210,-0.078400344,-0.051933531,0.132633115,0.067726560,-0.069100611,0.021943778,0.326411360,0.007144269,-0.011264108,-0.087229605,
-0.162203601,-0.056411927,0.122265031,-0.188709356,-0.168017827,0.277622281,0.293139174,0.045448484,-0.090979934,-0.254461295,-0.291347119,-0.052385337,-0.047473142,-0.001808320,-0.070871542,-0.123139056,0.049780890,-0.035868893,-0.074676865,0.131585030,-0.193882414,0.077388667,-0.004518244,0.005268583,0.014467176,0.029452620,0.083124861,-0.059224388,0.054262666,-0.171666651,0.051219210,0.254959121,-0.086283660,-0.086634185,0.084182187,-0.124597664,0.119132669,0.085325672,-0.204649520,0.245463601,-0.201927299,-0.071217575,-0.135883981,-0.179351358,-0.061274030,-0.028229109,-0.305303806,0.143888689,0.089101341,0.122600580,
-0.044525266,-0.042484391,-0.026506450,-0.028881918,-0.076760506,-0.069912615,-0.056354271,-0.047870596,-0.171667589,-0.033055795,0.263580093,-0.113974952,0.209372961,-0.061235109,-0.021651802,0.090471368,-0.158104423,-0.249685976,0.071039316,0.344774203,-0.057243762,-0.210554352,0.151208967,0.206697981,0.064703501,-0.137013794,0.214242277,0.000682279,-0.082906537,0.116201127,0.063384381,0.023530849,0.088693356,-0.018422706,-0.047979561,-0.203390857,-0.384482980,0.167848771,0.125205898,0.036318354,-0.242664253,-0.024606560,0.013460425,0.055286492,-0.196905821,0.079249935,-0.205468590,0.350453105,-0.050931675,-0.112941169,
0.285381785,0.066550849,0.245117809,-0.040768729,0.038030980,-0.012128833,-0.101919987,0.142066290,0.041539189,-0.021605633,0.031522393,0.214162769,-0.220887905,0.122277131,0.012336821,0.136426621,-0.245449623,0.099168710,0.265949621,0.144741114,0.334024400,0.075986893,-0.164324604,0.042246530,0.125785065,0.079121085,-0.041381147,-0.061998508,-0.176229952,0.030655617,0.149764188,-0.185936257,0.018984893,0.180514316,0.064584588,-0.253689876,-0.069948353,0.032278305,-0.237709270,0.014842859,0.173516073,-0.037927961,-0.142457388,0.024205551,0.186785863,-0.007305519,-0.213196232,0.191018318,0.136448698,0.070645191,
0.107716388,0.070098463,-0.017909009,0.113089742,0.302181860,-0.238484750,0.025052995,0.134562429,-0.013351765,-0.065772656,0.166325637,0.107502066,0.081255112,-0.031939677,-0.254854570,0.036684270,-0.219568460,-0.014711499,0.004922771,-0.102151487,-0.072750233,0.148439197,0.080488912,0.153869223,-0.084735292,-0.035783775,0.078333424,-0.208418263,-0.101414206,0.184570921,-0.170881881,0.016168518,-0.007026811,0.045202142,-0.032702475,-0.076772683,0.005592791,0.000091110,-0.074210459,-0.248346446,0.068720566,0.304872710,-0.109184916,-0.129698649,0.017326707,0.100390132,-0.059521276,0.020261333,0.087389419,-0.186056512,
-0.180651194,0.223691326,-0.081502066,0.153154853,-0.017569707,0.041738526,0.407304073,-0.119874499,0.157272907,-0.043194422,0.016562049,0.209866546,-0.256555807,-0.131058166,-0.062549953,0.212776860,-0.277089098,0.202789713,-0.016238892,0.050463778,0.287274116,-0.321975645,0.002424361,-0.088179675,-0.101370526,-0.234654693,0.012317177,-0.180233710,-0.265439386,-0.181217215,0.076499231,0.054366321,-0.083285841,0.121658425,-0.128175559,-0.001487372,-0.116090517,-0.170561717,0.033057205,-0.007772016,0.160698878,-0.165879239,-0.024974750,-0.145241739,-0.046030950,-0.084065246,-0.069240624,0.339517940,-0.188523216,0.012373013,
0.135325267,0.047602498,-0.022135356,-0.464992812,-0.027419650,-0.031514388,-0.242737889,-0.072987697,-0.016821319,-0.099441924,-0.025251368,0.102963364,0.141497146,0.014992195,0.036274781,0.101727150,0.012046263,0.108378054,0.085642015,-0.125088052,-0.054521501,0.005335382,-0.085439608,0.129638284,-0.030756474,0.163728363,0.179981597,-0.060641625,-0.097919143,0.075466151,-0.266567266,-0.333763437,-0.031770073,0.054967457,0.117397262,-0.161859628,0.208822050,-0.024464990,0.034505597,0.098018704,0.132291870,0.256175912,-0.000046270,-0.015356451,0.249825711,0.091427137,-0.004646232,0.341014206,0.215762541,0.092405386,
-0.292812044,-0.061974202,-0.021186461,-0.157774404,-0.141141925,0.031854853,0.146491683,0.078217260,0.044051245,0.023504258,-0.333964710,-0.057875203,-0.152432506,-0.087622780,-0.100832756,0.307400499,-0.086892368,-0.265116499,0.168288988,-0.143500322,-0.047658246,0.007490583,-0.032624007,0.000865245,0.071124193,0.158703257,-0.102511289,0.041312954,-0.075344798,-0.080205902,0.242994745,-0.089571725,-0.007523688,-0.010781021,0.070364702,0.024785050,0.141815074,0.107183006,-0.235080387,0.067567303,0.017114334,0.151689553,0.011524827,-0.196217701,0.000025758,0.048067018,0.017937298,-0.116909281,0.161590813,-0.169145145,
-0.152260008,0.056311100,0.038616632,-0.066406145,0.014690076,-0.152066055,0.140480541,-0.044721157,0.093881307,0.082673576,-0.251650044,-0.068406988,-0.066688836,0.099554405,0.048333688,0.187590734,-0.359834606,0.025584138,-0.251668218,-0.052627747,-0.022773332,-0.079813748,-0.177635431,-0.235374213,0.234701104,-0.026796675,0.153885632,0.098691222,-0.167258216,0.035586457,0.146720530,0.138243634,-0.051854430,-0.088959004,-0.189929295,-0.186481089,-0.034228919,0.028319645,0.172955973,-0.131113360,-0.194339193,-0.207245498,-0.019229810,-0.119285032,0.050537596,-0.184928078,0.216615081,0.085763477,-0.013851220,-0.019563324,
-0.045440589,-0.065224969,0.171861933,-0.022811118,-0.147128957,0.153135739,-0.363262763,0.079928845,0.127505428,-0.019634862,0.034856729,-0.154648777,-0.020375821,0.120629560,-0.161939733,0.070065771,-0.155793064,-0.181992416,-0.099486644,0.036692636,0.065339042,0.008590512,0.030775247,0.018275874,-0.084042407,0.252799352,-0.058127795,-0.032943075,0.321493205,0.133729799,0.051364742,0.069947820,0.093549498,-0.117208610,0.211880938,-0.073301663,-0.068926320,0.084775493,-0.161766865,0.048775863,0.138570709,0.074821948,0.278082930,-0.113172459,0.136076413,0.108514765,0.084428991,-0.226630350,-0.014192800,-0.024160756,
0.216279487,-0.111368118,-0.249122336,-0.019014995,0.021507254,0.281279288,-0.208942699,0.239569083,-0.006863194,0.380631163,0.017604965,-0.098658059,0.211973639,-0.270389742,-0.068610207,0.163964685,-0.148112845,0.028892233,-0.034148997,0.467716396,0.178635688,-0.306354448,0.382922988,0.164791884,0.157516401,-0.111404000,0.108283982,0.011512546,-0.031324431,0.060225711,0.175790494,0.217117211,-0.230973272,-0.165451144,-0.296946166,-0.027704327,-0.044220817,-0.212840231,0.043908028,-0.252106013,0.008072286,0.050729848,0.072777775,0.137643772,0.160242283,0.022283701,0.072573487,0.050164413,-0.200068963,0.009553892,
0.040836102,-0.195839461,-0.076688536,0.017416991,-0.108017632,0.204023943,-0.167047555,0.035550902,-0.016690920,-0.051751272,-0.069083845,0.106441295,0.050584704,0.129712657,-0.218485566,0.109409531,-0.180753999,0.260444885,-0.028511191,0.000140075,-0.257473285,0.071680860,0.037719368,-0.032942251,-0.080839420,0.076118602,0.038844576,0.012356135,-0.078625308,-0.145276500,-0.096133144,0.025154636,-0.008021039,0.034843091,-0.151439648,-0.142636294,-0.227772931,-0.029936920,-0.088969279,0.072167094,0.093598528,0.042289647,-0.249183530,0.033912258,0.027035644,-0.029144365,0.193695257,0.150932185,0.007012914,-0.048483799,
-0.140681319,-0.055477935,-0.134088632,0.014232676,-0.034182849,-0.173947668,-0.052182511,0.398443908,0.176782668,-0.151520018,0.006728201,0.019323356,-0.047112124,-0.070666361,-0.066639955,-0.117740660,-0.052925302,0.088441100,-0.089279458,0.177853039,-0.106530212,0.011056420,-0.006221541,0.018295680,-0.128886761,0.160770390,0.283976258,-0.148723773,0.076221395,0.013435794,0.293894014,-0.157711429,0.302354195,0.025254239,0.065649709,0.053592377,-0.079257782,0.220315477,-0.124764600,0.052661517,0.218340480,0.015260776,-0.076972027,-0.052836798,-0.045795699,0.021643628,-0.087471813,-0.049937074,-0.124917257,-0.153243674,
0.003698361,-0.005556130,0.023434970,0.039494931,0.098208802,-0.165596338,-0.205213533,-0.015041060,0.009237224,-0.020030698,-0.188352210,-0.159123490,-0.062955567,0.013423980,-0.083602183,-0.024154716,0.187113991,-0.014571214,0.098636500,0.042826831,-0.069916617,0.080886154,0.224645359,-0.330831046,-0.138119751,-0.040542896,0.020431841,0.189863610,0.002873495,-0.154752734,0.122741265,0.101312165,0.131359102,0.007747499,0.102178303,0.110276245,-0.077630630,0.028465423,0.023065739,-0.197531973,0.377726846,-0.076802840,-0.081077711,0.202333804,-0.100318680,0.152377521,-0.220205577,-0.002914184,-0.037885593,0.066962172,
0.137491942,0.033815293,-0.027682442,0.012689495,-0.200321244,0.053269580,-0.124261709,-0.072581952,-0.032834085,-0.007184313,-0.078676869,0.000882061,-0.034181141,-0.019743788,-0.008895505,0.004571636,-0.076190538,0.153946288,0.181844666,-0.125685504,0.016692542,0.222120891,-0.008993174,-0.070233024,-0.066418287,0.012136477,0.162453207,-0.102197020,-0.178571853,0.011171042,0.182322973,0.042233989,0.066084577,0.125249590,0.208822143,-0.014719489,-0.075864322,-0.027241031,-0.010972430,0.162062622,0.116676199,0.110251173,0.067081279,-0.173854011,0.083484213,0.084503328,0.013639700,-0.038941027,0.137898602,0.050256083,
-0.014483221,-0.105044333,-0.006984405,0.156723053,0.148653229,0.172478750,-0.169203626,-0.243831118,-0.132963054,-0.080885596,0.067767629,0.126068015,-0.157398712,-0.213651648,0.053911630,-0.043188891,0.024409888,-0.086537331,-0.126706749,0.208785371,-0.050055333,-0.133311210,-0.072754081,0.198938840,-0.128149856,-0.245977745,-0.117943962,-0.001521390,0.093802396,-0.106267526,0.063242201,-0.156542260,-0.028798062,-0.271199346,-0.247894351,-0.059140974,0.045629394,-0.000106353,0.214729377,0.066820100,-0.064906889,0.098922047,-0.259715557,0.077606449,0.029642506,0.169848646,-0.077340393,0.218790993,-0.247938704,0.141021515,
0.004333229,-0.288638002,0.148928368,-0.048407164,0.292444111,0.092371197,-0.105939749,-0.182878925,0.158163009,-0.196312125,-0.081147891,0.085403040,0.015016975,0.234210108,-0.175705355,-0.094298773,-0.018552742,0.227613771,-0.146746894,-0.170432616,0.146276603,0.181267786,0.051000589,0.067360085,0.165410105,-0.239250636,0.189856752,0.063831924,-0.058689717,0.180451209,-0.054502754,0.029992989,0.128088474,0.079419863,-0.043208524,0.108204148,-0.001160414,0.109748109,0.021881396,0.013948390,0.122647752,0.072110608,0.120872824,0.140773532,-0.353645602,0.064950781,-0.183242598,-0.166013376,-0.142798645,-0.285763050,
0.368587136,0.288353009,0.068974837,-0.293562807,0.061607507,0.113536896,-0.039222301,0.005597047,0.023361421,-0.058831446,-0.121837548,0.154694432,-0.209366841,0.174799279,-0.064508567,0.129321071,-0.187143949,-0.098557513,-0.125215835,0.048341140,-0.099849642,0.065024758,0.117879570,-0.111023439,0.094233561,0.127010562,-0.104905179,-0.174265215,-0.101853564,0.222952494,-0.045294859,-0.306200942,-0.160042061,0.144228019,0.172673044,-0.016487778,-0.052474914,-0.124702263,-0.000550733,-0.136363791,0.102172094,-0.081139129,0.003516007,-0.126673097,0.056676561,-0.146994847,-0.188896422,-0.041316883,0.021594209,-0.229428386,
-0.024108965,-0.173644201,-0.010943113,-0.233822251,-0.381369044,0.122226934,-0.130373373,-0.049906452,-0.018760458,0.009781059,0.015712997,0.156201293,-0.161900810,-0.060084864,-0.145562610,0.021522001,-0.021947711,0.164116483,0.137892033,-0.135522564,-0.004804108,0.218220699,0.024871085,-0.125236580,-0.012844095,0.184653725,-0.020595162,0.224160573,0.213448165,-0.040550005,-0.035885347,0.304651350,0.033451079,-0.176183796,0.005247929,0.221060668,-0.031991480,0.012228682,-0.048798672,0.006971723,0.130096072,0.111209361,-0.023041906,-0.146678003,-0.168971328,0.113691404,0.042385521,0.106922977,0.100575943,0.040662450,
-0.316683947,-0.308726199,-0.047469128,0.048263421,0.157157131,0.091241526,-0.156839985,0.093297366,0.021303849,-0.095659610,-0.013333794,0.019042619,0.103302065,-0.077150005,0.016085574,0.088314962,0.248918945,-0.064034524,-0.036404618,-0.048779253,-0.047829672,-0.273023799,0.021356201,0.068118131,-0.029268999,0.006986944,0.052532065,0.141865943,0.054715904,0.185546711,-0.096799670,-0.118974319,-0.007678712,-0.075775112,-0.051151825,-0.195759149,-0.008001977,-0.019398992,-0.056662439,0.089615801,0.170043513,0.220041957,-0.056606143,-0.024875425,0.027019226,0.169261111,-0.122146578,-0.260349649,0.027141867,0.003307350,
0.042205915,0.213450555,-0.087243008,0.280371946,0.090072621,-0.148744267,-0.135198739,0.149983491,-0.011875592,-0.282951471,-0.215383769,-0.028428678,-0.148379502,0.024616065,-0.183539238,-0.067366765,0.200375877,0.102870323,-0.125031317,-0.082442765,-0.145400563,-0.142876918,0.007689526,0.002548034,0.260473760,-0.358649601,0.017288840,-0.070230809,0.061892837,0.189316583,-0.044770603,-0.198682117,-0.111981369,-0.011643671,0.015967270,0.121444884,-0.021493335,0.048926529,0.092879551,0.047451913,-0.242775118,0.038262785,0.203700146,0.014465963,0.165771001,0.186999934,-0.283933070,0.174814673,0.126256922,0.090051908,
-0.096198035,-0.166471637,-0.235384217,0.103570183,-0.033365522,-0.192609514,0.005771538,-0.068419369,-0.135903202,0.040905117,0.084715783,0.032587552,-0.234760432,-0.037040948,0.215816459,-0.094231617,-0.416682854,0.004764604,0.096902216,-0.037400694,-0.072736812,0.038060817,-0.175101710,0.060777839,0.049352096,-0.327284316,0.054016593,0.212011721,-0.098185660,0.172032332,0.083979231,-0.163459284,-0.109558915,0.097047446,0.014640457,-0.086905558,-0.045947869,-0.091897770,0.012432256,0.168464414,0.191103164,0.159784982,0.150179425,-0.113890012,-0.016401766,-0.094558731,0.143029446,-0.168952251,0.118188325,0.072366579,
-0.093002662,0.076360520,0.251014822,-0.172286550,0.155015421,0.239542387,0.013558283,-0.242626293,0.053219844,-0.107426863,-0.048181717,-0.048955592,-0.062618324,0.022426986,0.102705652,-0.033806707,0.037261314,-0.221401537,0.230402631,0.022005859,0.012092310,-0.040973658,-0.192255443,0.007164570,-0.084124112,-0.139374396,0.084312127,0.012604754,0.061688035,0.046221994,0.159178189,0.127435367,0.142992828,0.234040501,-0.135219548,0.154211770,-0.098978527,0.165768379,0.365076144,0.081782922,0.033264980,-0.127363146,0.296285095,0.136312535,-0.338648762,-0.287552111,0.005911548,0.072329052,0.149315477,0.026550710,
-0.151937121,-0.103002042,-0.122380862,-0.283272496,-0.059525898,0.152392084,-0.154728272,-0.257616332,0.113962236,0.020121544,0.007349126,-0.011364805,-0.125593463,-0.029054075,-0.036932404,-0.127817962,-0.042123578,-0.105754143,0.086585869,0.095964857,0.350704634,0.148346000,0.060163193,0.219839581,0.157242692,0.020126347,-0.290967499,-0.209814984,-0.102884329,0.017362006,0.032173303,0.013035644,0.126400813,0.015884611,0.090115560,-0.189213553,0.193478919,0.139354998,0.063012459,0.030219184,-0.331683377,0.306819439,-0.191905409,-0.046654485,0.278186212,-0.189136545,0.042415489,-0.012703446,-0.198722338,0.237725330,
0.106862993,-0.039462998,0.030795941,-0.235349419,0.189635149,0.199323710,0.051557095,0.332920795,-0.079806002,0.220285452,0.066772268,0.013406282,0.082426287,0.080040280,0.056458022,0.139380810,-0.149466633,0.351444258,-0.177799434,-0.092529329,-0.036716704,0.100742070,0.137430577,0.072612283,-0.163500109,-0.132663462,-0.338065667,0.065926344,0.083170665,0.066622539,0.101959852,-0.131012427,0.068961483,0.044668367,0.026707747,-0.042975333,0.053878657,-0.217645638,0.062040820,0.023644993,-0.059113010,-0.014622514,0.001095810,0.235536260,0.088256346,-0.072605564,-0.079197808,0.000347460,-0.026740741,0.115612683,
0.223283839,-0.038398591,-0.169899293,0.072629757,0.200006362,-0.037089776,-0.034047142,-0.034602000,0.119856983,-0.044502984,-0.027977844,-0.055081092,-0.108819495,-0.062272329,0.166099868,0.001364108,-0.134830153,0.096072423,0.047495257,0.079839366,-0.177565987,0.292384148,0.015358553,0.145499102,0.067076896,0.193096403,0.019691915,0.290311907,-0.123149313,-0.102180693,0.207052917,-0.176980815,0.030156794,-0.119773226,0.177348207,-0.002990251,-0.023766882,0.142701454,0.011150909,0.198952243,-0.063180061,0.170116236,0.303403907,0.168406033,-0.106464105,0.355308508,0.235040926,0.085362420,0.205722507,-0.229167198,
0.012591677,-0.192965576,-0.092458975,-0.045214091,-0.047487503,0.275158998,0.225552883,-0.027576470,0.152271094,-0.087283927,0.049242000,-0.024607031,0.039203274,-0.052509261,0.327823309,-0.040135208,-0.109265772,-0.226583562,-0.049874319,-0.015986232,0.116102457,-0.026827145,-0.103202339,0.025723089,-0.212022112,0.145384617,-0.067414186,0.361569675,0.015423238,-0.074534811,-0.168872605,0.025840688,-0.118111243,0.233278380,0.143375798,0.113290431,0.160268047,0.166805619,0.151939208,-0.038777985,0.106404859,-0.003454913,-0.103539443,-0.019667448,-0.126262705,0.195234830,0.089967211,0.096754401,-0.109071348,-0.023879594,
-0.020730783,-0.133697677,0.016041752,0.136480750,0.166887603,-0.505814002,-0.212088901,0.095026106,0.146193356,0.081486184,-0.017740018,-0.070965434,-0.063976785,0.007239666,-0.135192690,0.111836869,0.051744170,-0.011934303,-0.271992101,-0.057400788,0.344822492,-0.062527435,-0.098943061,-0.057878990,0.167248962,0.268959007,-0.151208723,-0.057345810,-0.139541602,0.217503878,-0.111177461,0.134094655,0.223631483,-0.199604231,-0.347865456,0.160406598,0.001191757,-0.080118352,-0.096268177,0.033266761,0.006258906,0.044671897,0.149294613,0.159889507,-0.082548861,0.034451910,-0.110273700,0.078924016,0.215433897,-0.034304936,
-0.002912585,0.028264677,0.078345704,-0.003539558,-0.047573197,0.012564614,0.040240809,0.166402877,0.072203180,0.061081155,0.053228975,0.250241052,0.075279730,0.135124879,0.042693018,0.137344362,-0.157715432,-0.048272515,0.077756112,-0.168917163,0.097143081,-0.104752219,-0.079065644,-0.082127984,0.046690458,0.043336001,0.054948978,0.119273007,-0.022433461,-0.134886321,0.305678333,0.110551966,0.238850955,0.126215473,0.111673904,-0.047205652,-0.122973140,0.041286953,-0.109938554,0.133281713,-0.093116328,0.026821552,0.030756017,-0.104269744,0.006972134,0.226746667,-0.025476189,0.168779409,0.266280460,0.149848000,
0.101366825,
-0.096912701,
-0.129609029,
-0.002730690,
-0.074524102,
0.297531506,
0.048918318,
-0.318022357,
0.079059461,
0.051379909,
-0.378557180,
-0.019688843,
0.251956777,
0.137511419,
0.015187711,
-0.086856803,
-0.041610321,
0.105457915,
0.275909328,
0.124234690,
-0.034017243,
-0.007913959,
-0.021863537,
0.014064201,
-0.236407801,
0.195178215,
0.276726191,
0.100756964,
0.014985368,
-0.066438958,
0.001578317,
0.014818205,
0.124281661,
-0.083242919,
0.107135327,
0.010299649,
0.012813556,
-0.085258897,
0.038355449,
-0.129391618,
-0.024022105,
0.079720456,
-0.025176931,
-0.018726426,
-0.166111858,
0.050987640,
0.177080940,
0.050899994,
0.166570731,
0.008231982,
-0.281327266,0.076906325,-0.052061282,0.110338139,-0.068281507,-0.018913902,0.069159468,-0.105707609,0.140615948,-0.173682642,0.097030031,0.004926156,-0.002420955,0.000413893,-0.068300093,-0.006644737,0.009277509,-0.096613806,0.339936105,0.131421588,0.044800904,0.071468472,-0.027981536,-0.172887865,-0.006763504,-0.060508439,0.202072484,0.063434669,-0.071230947,-0.057572631,-0.342030011,-0.118621518,0.195341348,-0.223917046,0.135260238,0.066697828,-0.193229205,-0.040127721,0.231324893,-0.174564923,-0.251385809,0.290650175,-0.001701201,0.021656219,-0.210248660,-0.145794409,0.083165560,0.197028753,-0.052139644,-0.234160263,
0.029957255,0.152921220,-0.197319515,0.132831533,0.042554049,0.130435976,-0.134588206,0.070578084,-0.105878001,0.015120028,0.175188952,-0.093586969,-0.060544741,0.092983375,0.153793589,0.271445856,0.062275038,-0.106030737,0.168156694,-0.095324805,0.258765803,-0.012266413,-0.064003857,0.066987058,-0.091265982,0.020011468,0.015562546,0.307109036,0.036253054,-0.049388791,0.035127980,0.251983640,-0.076062319,0.009521428,-0.132495514,0.066547604,-0.121915346,-0.234950853,0.163164305,-0.104895418,-0.079891482,-0.290785555,-0.023641254,-0.175452367,-0.064593875,-0.103586169,-0.009834016,-0.033608538,0.107341425,0.237198949,
