// Neural Network File Format by Kyle Julian, Stanford 2016
31,2,2,5,
2,5,5,5,5,5,5,5,5,5,5,5,5,5,5,5,5,5,5,5,5,5,5,5,5,5,5,5,5,5,5,2,
0,
-10000.0,-10000.0,
10000.0,10000.0,
0.0,0.0,0.0,
1.0,1.0,1.0,
-0.068184225,0.541959067,
0.153091118,-0.052474816,
0.394866709,-0.066561879,
-0.508431118,-1.428783883,
0.603938213,1.065040349,
-0.870578311,
1.067842303,
0.362224863,
0.521423295,
-0.987842327,
-0.496818940,0.946227190,-0.156458520,0.199547448,0.387089387,
1.842026848,1.052862660,-0.729084765,-0.100453566,-0.516405408,
0.196361267,-0.286173666,-0.857768631,0.307421136,-0.265585612,
-0.329165197,0.744612409,0.546802567,1.096343128,-0.105307455,
0.100655949,0.423914787,-0.303489093,-0.344463603,0.316190697,
-0.722167236,
0.602633239,
0.445855189,
0.452674247,
-0.953049641,
1.127263038,0.062126032,-0.096057407,1.306242859,0.859935544,
-0.387901977,-0.469542260,0.576455227,0.295371385,-0.634365652,
1.074329399,1.355277061,-0.628496721,-1.012611682,-1.166377329,
-0.179955897,0.422791957,1.220947405,0.376409732,0.047331380,
-0.499992159,0.375979101,-0.071928593,-0.725464361,0.167752926,
-0.502933400,
-0.395251009,
0.164475909,
0.563328755,
1.329413218,
-0.239998034,-0.027848655,-0.587123223,0.471938917,-0.241366159,
-0.487287362,0.504018383,-0.681007919,-0.214278584,-0.061729685,
-0.872560859,-0.757420149,1.134207986,-0.178214286,0.954725670,
-0.257523413,-1.395667733,-0.354074896,1.753365806,-1.120718564,
0.699584256,0.705434565,0.130740028,-0.610866215,0.007856283,
1.287785130,
-0.881583714,
0.511199041,
-0.881223883,
-0.134254045,
1.412244516,-0.222288254,-0.265447414,-0.528178317,0.028350794,
-0.716986674,0.590308474,-0.011341185,0.561445557,0.491371286,
1.056294946,0.030888910,-0.413645648,-1.147558579,-0.671003374,
0.963863614,-0.089374023,0.351446230,-0.293218666,1.112581929,
-0.052617377,1.009927668,-0.387583350,0.927394433,-0.819964256,
0.606497821,
-0.617244051,
-1.032134489,
0.198661321,
-0.760802986,
0.383380614,-1.067162839,0.306270918,-0.009168923,0.547311183,
0.491824150,1.875175498,0.582420339,1.352789303,0.467744715,
-0.290085763,0.111831169,-0.292980074,1.229988081,0.884413563,
-1.077367250,0.160613133,-1.012457614,1.759767123,0.243587953,
0.225498830,0.508579087,-0.078138667,-0.025521511,1.052585831,
-1.191707308,
-0.051096433,
0.524178404,
0.693598916,
-1.167637435,
1.637785556,-0.068329885,-0.080334031,-0.521292335,-0.665008227,
0.112080789,0.612678946,0.612139078,-0.290977600,-0.443342280,
-0.191734124,-0.613165104,-1.785754925,0.941653542,-0.436430690,
-0.627627790,1.286153899,0.432884312,-0.617744548,1.203150521,
1.526420440,0.794994493,-0.251916786,0.612044518,-0.693963517,
-0.636454358,
-1.018429468,
-0.898356464,
0.389453138,
-0.313403657,
0.235716588,0.448622809,1.539170598,0.446706854,-0.925255525,
-0.196967939,0.329294119,-0.644787312,-0.414141352,-1.741083176,
-0.972177074,-0.903828088,-1.220357945,-0.295600428,-0.038128962,
-0.751160454,-1.351864392,-1.238262791,-0.718593791,-0.711554197,
-0.956262335,0.281323986,-0.202295677,0.498014437,1.750309386,
-0.867974265,
-0.422648081,
0.657750927,
-1.233190429,
-0.443816898,
0.725150666,1.301940568,0.242533164,-0.247677003,-0.884986471,
-0.813202789,0.195784450,-0.414290839,-1.529535183,-0.205134237,
-0.095492069,-0.565394171,0.380917999,-0.042054830,0.138844258,
0.785600121,0.781141944,-1.080156546,0.505858120,0.352157357,
-0.818770110,0.823694617,1.370331540,0.549611977,1.085950078,
-1.679003763,
-0.568118431,
0.325252705,
-0.598984871,
-0.646108329,
0.537545892,0.428810558,-0.092541931,0.450100336,-1.668046260,
0.590860341,-0.726184789,-0.911691140,-0.683145527,-0.193869689,
-0.096929370,0.140164127,0.442580118,0.342581212,0.316957867,
-0.185062037,-0.125835722,1.160414428,-0.855577463,0.177045974,
1.216363699,-0.050223933,0.845732058,0.551648697,0.272409167,
0.781519931,
0.436738300,
-0.947176431,
-1.358904416,
0.691260272,
0.251810946,-1.790539034,-0.015117396,-1.363179209,-0.021065027,
0.826373049,-0.191508780,-0.339265357,0.839602808,-1.134596643,
0.388558860,1.046728637,0.612659524,-0.012841586,-0.011054315,
-0.326627027,-0.658305181,-0.548239639,-0.634085902,-1.309620420,
-0.738991191,0.175515418,0.182150434,-0.166973353,-0.367748178,
-0.899678526,
-0.587140572,
-0.119083375,
-0.427021685,
0.235611912,
-0.210122523,-0.092428763,1.085554814,-0.526811694,0.963303109,
-0.173264103,-1.057085079,1.747338920,1.246723579,0.091775707,
-0.206899751,-0.045684534,-0.727912621,0.613486662,-0.546767575,
-0.980473691,0.804471755,0.241834821,-0.639053420,1.698361281,
0.742276223,0.445844961,-0.788874536,-1.093071598,0.594723492,
0.246834102,
-1.357870020,
-1.285545151,
0.856810733,
0.273928156,
0.320621400,1.145003887,-0.836890913,0.784969825,-0.519572613,
-0.350530954,0.559347613,-0.054319485,0.441947456,-0.072600771,
0.587152019,0.031349891,-0.362420742,0.019084773,0.274738291,
-0.449520183,-0.326100335,-0.817425032,0.984552844,0.975283151,
-0.080521694,-0.423844196,-1.283191015,-0.583790343,0.412175477,
-0.616262511,
0.232556417,
0.292048235,
0.929047863,
0.128377253,
0.611664707,0.408156071,-0.053706142,0.229086764,-0.913248884,
-0.466102532,1.645832174,1.367767000,-0.700276173,0.079214068,
-1.182847228,0.918453677,0.510901526,0.590004165,-0.489295217,
-0.035503236,0.098939545,-2.097551046,-0.412229615,-0.430858812,
-0.122809680,0.797217535,1.332951404,0.220092413,-0.823894463,
-0.366529756,
0.513118799,
-0.065865749,
-1.493188655,
-0.012001168,
0.285446163,-0.512654819,-1.238249656,-0.325800678,-0.217308173,
0.696437326,-0.423725312,1.349181647,1.534138926,-0.914493285,
-0.682007419,0.161553592,0.434481974,-0.766607180,0.387226547,
-0.279884401,-0.373209633,1.282318275,0.940050431,-0.334289142,
0.471090070,0.252308648,0.354914724,-1.312356572,0.171608984,
0.911948533,
-1.158403722,
0.098619125,
0.114879494,
1.273510462,
0.038803059,1.126893220,0.905781901,0.004037290,0.210882020,
-0.061822310,-0.827108647,0.396559353,1.200771759,0.055519315,
-0.279162094,0.121606092,1.261568044,-0.019197561,1.049139773,
0.360383525,-0.133138834,-0.469093212,-0.074471868,-0.923084094,
1.247766987,0.014560651,-0.316468064,-0.490749194,0.742515933,
-0.277672262,
-0.053520589,
0.342912938,
0.742537558,
-0.460400224,
0.044416422,0.216497575,0.325375370,-0.516583008,-1.341293479,
0.978963886,-0.518240923,-0.623985271,-0.473655572,-0.262390432,
0.336525462,0.467343057,-1.187317982,1.479327080,-1.789351851,
0.648766166,-0.136972765,0.278463037,0.800646411,-0.172987556,
-0.232032125,-0.554573047,0.706326420,0.898952320,0.471618482,
-0.338194993,
0.683725177,
-0.072162336,
-0.074127316,
-0.288031863,
-0.619222146,-0.713106954,-0.202149659,0.889668143,-0.612060640,
-0.577992457,-0.390536660,-0.574589371,0.635205129,-0.196570798,
0.136020462,1.205623080,-0.417535821,0.081112611,0.306246978,
-0.210100790,0.642347908,0.725152681,0.403944118,-1.197615672,
-0.489485286,-0.337011707,0.626420444,0.836037518,0.214969603,
-0.178731255,
-0.291313863,
0.354970218,
-0.420497650,
-0.989175514,
0.048589472,0.401629833,-0.743100752,1.345943977,0.982711337,
0.638834841,0.092725701,-0.213240348,-0.681816062,1.448124633,
0.264644801,0.651155584,-0.798963129,-0.037315846,0.517366667,
0.229192614,-0.144432092,0.257960099,0.135533238,-0.201962795,
-0.805575819,0.159362209,-0.132694808,0.945520670,-1.046309260,
-0.478796676,
-0.052986926,
-0.192028286,
0.467772272,
0.901597722,
0.274857376,-0.582639355,0.836212487,-0.468798607,-1.214520352,
0.706964947,-0.596682454,-0.980975709,-0.884570712,0.255398626,
0.059868775,-0.060079162,-0.234337215,-0.769395431,-0.160690954,
1.214743693,0.066992542,0.182853466,-1.534691596,-1.189081407,
0.508652038,0.470689638,-1.063641294,0.052410765,0.678472660,
-0.124806282,
-0.911318213,
1.661707891,
0.658039430,
-0.296852365,
0.669898200,-0.182952466,-0.068692166,-1.030701890,0.757326687,
-0.241370114,-0.287476748,0.173479195,0.172047727,-0.798149104,
0.194594611,0.330501723,-0.248107727,-0.435000399,-0.362218821,
0.221137132,-0.406500533,-0.484805828,-0.401564053,0.442782459,
0.129961870,-0.405528441,0.138197741,0.451091502,0.928004099,
-0.653758002,
-1.346720216,
-0.525707488,
0.899684297,
-0.073315383,
0.349211503,0.765772498,0.535693032,0.980957696,0.612579926,
-1.224768075,1.585761811,-0.245914488,-0.296979736,-0.309816749,
0.330913067,0.252908511,-1.768255303,0.202081998,0.009113452,
1.352207375,1.490553698,-0.145497127,0.541926154,-0.112675503,
1.619558389,-0.677922175,0.457745808,0.397268063,-0.640807687,
-0.324176297,
1.679135916,
0.063194704,
0.141326511,
0.712882058,
-0.248688569,-0.653196176,0.591436144,-0.865738732,0.958791416,
-0.023960186,0.507973721,-1.064635310,0.361840752,1.262656375,
-0.274274933,0.508367050,0.670054893,0.228492447,-1.567749135,
1.020857935,-1.291668922,0.440859368,0.932689051,0.157512244,
0.103635942,0.003414562,-0.736006052,0.009428075,-0.252508071,
-0.071293093,
-0.728877629,
-0.935932151,
0.687978753,
0.084229716,
0.386107639,0.885914676,0.187488405,-0.421602074,0.250674956,
0.390923395,-0.494486624,-1.405428182,0.409742351,-0.781890130,
-0.607291717,-1.176555662,-0.025954879,0.361501896,-0.887402436,
-0.929100970,-0.088410745,-1.237839643,0.257112864,0.148965610,
-0.119241167,0.291236257,-1.261882712,0.795092156,-1.714805035,
0.606314245,
0.646565580,
0.673425755,
0.682824463,
-0.683832185,
0.601471817,-0.410854455,0.847679254,0.823660591,-0.490313006,
0.471948826,0.035563153,0.816430350,-0.302634784,0.482107355,
-1.578276177,-0.488947472,0.890958113,0.194406559,-0.270866948,
-0.593542875,-0.972381530,0.201661832,-0.513615350,0.215103894,
0.308345345,-1.511419173,-0.320084764,-0.272526959,-0.335702690,
0.301102201,
0.013447150,
0.351145318,
2.521087070,
0.141613592,
-0.484024906,0.158311750,1.029748276,0.736140038,0.510747471,
0.163505030,0.326712426,0.391855417,-1.062855613,0.061940075,
-0.343448479,-0.370804154,0.452997495,0.967821325,-1.222685360,
0.866224272,0.114986608,-1.008132213,-0.537523106,-0.075642073,
0.922647861,0.029302316,1.360855723,-0.365655192,0.104168436,
0.300503217,
-1.310925141,
0.339995510,
-0.002319495,
-0.192045554,
0.197314151,-0.604100816,-0.941336739,-0.705301609,-0.948556523,
-0.174546086,0.836912190,-0.668773645,0.905063645,0.040494842,
0.503702939,0.563363440,-0.399804145,0.428736571,-0.620588359,
0.115609665,0.303665849,-0.580738436,-0.168016363,0.797776359,
1.502148141,-0.528568966,0.646053606,0.921019307,-0.476043065,
-0.347824982,
-0.361481463,
0.084912689,
0.532254750,
1.187419384,
0.866346104,-0.414270071,-0.140378287,1.272238924,0.999961657,
0.258818447,0.449715816,-0.244292989,0.648786999,-0.265994548,
-1.013195066,-0.196656860,0.593109183,-0.500188912,-2.006137351,
-0.272672820,-1.043296127,-0.526173629,-0.718739870,0.407065726,
-0.796262677,0.028025266,-0.864012769,0.946221180,-1.059877543,
0.715473477,
0.317060127,
-0.217180673,
1.645690426,
-0.183403728,
-0.984056094,0.231164576,-1.322852103,-0.103728272,-0.579046786,
1.447366551,-0.404757939,0.553986315,0.525723980,0.804022234,
-0.215306290,0.181014355,-1.228989048,-1.434058555,-1.443212004,
1.729230209,0.725539340,0.055661425,-0.262668701,0.340628856,
0.046047347,0.290717462,-0.251263836,-0.081185548,0.255243730,
-0.548179981,
-0.443071873,
0.399268035,
1.195404547,
0.060789513,
0.377964586,-0.704537316,1.428267721,-0.052961499,1.624710128,
0.375343849,-0.336085677,-0.707947591,-0.134661070,-1.348955046,
-0.431143621,-0.307095355,-0.410959981,0.522547048,0.116144543,
0.722301781,0.848642225,-0.504905413,0.411214413,0.630062854,
0.188744109,-0.197905577,-0.270304486,-0.357208007,0.612414218,
-0.575212909,
-0.177297158,
-0.119253821,
-0.304633208,
0.689162194,
-0.237031390,0.244969373,-0.235530266,0.446753448,-0.030745563,
1.393996647,0.453956347,0.539471100,0.554160367,-0.493769364,
0.230298589,
-0.058966590,
