// Neural Network File Format by Kyle Julian, Stanford 2016
81,2,2,50,
2,50,50,50,50,50,50,50,50,50,50,50,50,50,50,50,50,50,50,50,50,50,50,50,50,50,50,50,50,50,50,50,50,50,50,50,50,50,50,50,50,50,50,50,50,50,50,50,50,50,50,50,50,50,50,50,50,50,50,50,50,50,50,50,50,50,50,50,50,50,50,50,50,50,50,50,50,50,50,50,50,2,
0,
-10000.0,-10000.0,
10000.0,10000.0,
0.0,0.0,0.0,
1.0,1.0,1.0,
0.445228369,-0.060304309,
-0.143769317,0.217572946,
-0.238416321,-0.072427180,
-0.047331116,0.046022742,
-0.068908640,-0.111012930,
-0.128857996,0.111295373,
0.144549428,-0.114819746,
0.017854215,0.090567854,
0.089314619,0.088582146,
0.219647535,0.087844693,
0.107568708,0.210873204,
-0.006033281,0.047882846,
0.116490550,-0.123009727,
-0.035061695,0.038404445,
0.016766706,-0.008715446,
-0.423090327,0.220643489,
-0.211122428,0.058610660,
0.153171259,0.230009290,
0.207525433,-0.256333925,
0.080409827,0.095342735,
-0.076023005,0.076556735,
-0.041177022,0.079772515,
-0.004393911,0.088926419,
0.118756220,0.204997368,
-0.260617440,-0.058921442,
-0.149848375,0.032297736,
-0.034523024,0.071332945,
-0.031199974,-0.099131302,
-0.127790481,0.040102460,
0.127360442,-0.146960929,
0.235253402,-0.094027782,
0.289799459,-0.514147620,
-0.046497645,-0.311890157,
0.183987871,-0.024784594,
0.113868734,0.092907794,
-0.235156956,-0.036445496,
0.218851762,-0.153083488,
0.117439383,-0.192893489,
0.114143222,0.113391567,
0.118040265,0.010945443,
-0.036218678,0.041017874,
0.168494115,-0.378946864,
-0.078020989,-0.045501972,
0.263555000,-0.133787000,
-0.021074988,-0.001067056,
-0.112255685,-0.139046195,
-0.283103600,-0.103964090,
-0.021653096,-0.304668137,
-0.014057326,-0.037388276,
-0.029168564,0.208003466,
-0.156867891,
-0.297651082,
-0.057328034,
-0.075012027,
0.155689827,
0.039835270,
-0.099178569,
0.123967097,
-0.149915137,
-0.118518138,
0.295773208,
-0.245154592,
-0.045600249,
-0.186432405,
0.023080687,
0.175547742,
0.011523706,
0.060206693,
0.026832653,
0.185779177,
-0.166660830,
0.168317606,
-0.059235401,
-0.016088899,
-0.158395765,
0.070856622,
-0.004988054,
0.113647053,
-0.078747953,
0.056258353,
0.186856375,
0.081161845,
-0.128742364,
-0.146108663,
-0.082521571,
0.192899093,
0.168229885,
0.157053828,
0.090592299,
-0.032553056,
0.003930690,
-0.006576066,
-0.047690231,
-0.068755801,
0.010067382,
0.231834194,
-0.164189820,
-0.114815170,
0.081081306,
0.150875972,
0.103720239,0.116405191,-0.052264035,0.144046279,0.103385283,-0.038494019,-0.051800068,0.098032198,0.049617589,0.076581702,0.056254265,-0.043459410,-0.238625039,0.080272363,0.198738200,0.060517255,0.143625634,-0.071295113,-0.157621196,-0.337185474,-0.046671427,0.061868995,-0.144232910,0.094210493,0.014712072,0.068082307,0.088282899,0.094752602,-0.041670425,-0.011483060,0.139196506,0.166989807,0.084301554,0.199752360,0.169840159,-0.181936181,-0.142161716,0.090932356,0.128534643,0.057360109,-0.051166538,-0.247968964,-0.172894681,-0.235213669,0.180979303,0.012749540,0.103087328,-0.032732806,0.213291908,-0.199894538,
-0.010833687,-0.232866046,-0.035405608,-0.325598766,-0.216720130,0.031475158,-0.044708698,0.085580496,0.078263635,-0.093078109,-0.215664227,-0.216321845,0.065264332,0.212639307,0.050445927,-0.080214081,-0.353950215,0.236633728,0.048269910,0.073015775,0.116376211,0.092950017,0.023852905,-0.075322127,0.078031792,0.079837592,-0.306586491,0.184130454,0.190113091,0.011969698,-0.124138562,-0.261802710,-0.076438231,0.132621486,0.244477994,0.070157520,-0.191863039,0.022688959,0.013400788,-0.060422648,-0.116874036,0.101322106,0.069743087,-0.157458181,-0.131288790,-0.088814144,-0.016035531,0.006341000,-0.046405386,0.071236497,
0.214418871,0.028828246,-0.216689301,0.081341784,-0.241562928,-0.097108336,-0.079545998,-0.011145929,-0.029882266,0.142841767,0.090721892,-0.028599557,-0.216915278,0.032961675,0.310006532,-0.155539409,0.131165622,-0.090234733,-0.092217133,-0.216465407,0.274103011,0.130924227,0.144818658,0.088481077,-0.048279774,-0.281205972,0.138870820,0.123685490,-0.081325906,0.001413255,-0.187132611,0.053706349,-0.064297542,-0.156217144,0.144355736,0.166264387,0.271409230,0.122425044,0.258268362,0.069403655,0.124683960,0.192564965,-0.041675424,-0.085226687,0.073242982,0.276220184,0.108767995,0.100814451,-0.059286003,0.151027566,
0.104906626,-0.068708122,-0.142867181,0.127264531,-0.031056401,0.315570086,0.292435535,-0.088978936,-0.070374171,0.021717024,0.058417123,-0.322564476,0.039793615,-0.124138445,0.203987129,0.027046635,0.001981984,0.135295966,0.050297192,0.086709888,-0.117232931,-0.014402029,0.074208235,-0.076084252,0.013751428,-0.060085596,-0.065888421,-0.130088127,0.166970806,-0.290495104,0.048118966,-0.002889613,-0.119503961,-0.122047988,0.131589340,0.005713340,0.045980579,0.085504145,-0.143023792,-0.099449674,-0.063457627,-0.113269587,0.028042224,-0.049269696,-0.029681617,0.137599591,0.176222774,-0.123558978,0.069759383,-0.139087921,
0.021353187,0.063892618,0.050068483,0.117414729,-0.038755226,-0.353595869,-0.068034124,-0.056061838,0.010180532,0.212725943,0.201050548,-0.259392608,-0.089564173,0.077883625,0.076951301,-0.005893114,-0.031109515,0.140358765,-0.180843167,-0.226677147,0.154684504,-0.167456887,0.214319177,0.161018449,0.012801712,0.172711921,0.147263996,0.248241186,-0.280438374,0.127975877,0.004389908,-0.011480947,0.078109856,0.267730839,0.347016555,-0.048468927,-0.020225881,-0.041830417,-0.146452448,0.112400046,-0.355261506,-0.071540338,-0.072565409,0.004121510,0.095836779,-0.037035394,-0.104765873,0.191062203,0.152309242,0.055816224,
0.080680203,0.158264777,0.104887878,0.007277140,0.004139018,-0.022183393,-0.168152513,0.282226175,-0.070951477,-0.092927286,0.163936038,-0.089605405,0.149172184,-0.089901031,0.316441305,0.143760087,0.012158811,-0.070019717,0.070888957,0.046203667,0.170768820,-0.059718141,-0.108276315,0.173374064,0.070538553,-0.016833271,0.057902856,-0.134212608,0.080544722,0.041104648,-0.048021939,-0.111015179,0.042654729,-0.104054204,-0.280020127,-0.036195598,0.131920479,-0.077504660,0.165514589,0.093826740,-0.008495644,-0.265829535,0.016535899,-0.067880207,0.236624043,-0.294133868,0.122296741,-0.076497091,-0.072923162,-0.247175071,
-0.134477927,-0.237808717,-0.018487286,0.061939645,0.059450940,-0.066566434,0.153029607,0.003297453,0.101344592,-0.276979868,0.115934856,-0.116011784,0.116108080,-0.154049373,-0.262026736,-0.065632755,-0.078198205,-0.094120989,-0.026368608,-0.177906522,0.089675874,0.087567504,-0.069661435,-0.180679812,-0.021882926,0.214198358,-0.161493847,-0.035102843,-0.185133922,0.040263496,-0.118031663,-0.173560799,-0.011863605,-0.125621966,0.076531441,-0.173747490,-0.121638294,0.201756724,0.000385865,0.342047006,-0.093694496,0.061223372,-0.236242284,-0.042545622,-0.082552713,0.178187392,-0.027933760,-0.044984247,-0.232320051,0.124839190,
-0.121729796,0.016036504,0.185510037,0.067795214,-0.061475162,-0.047423808,-0.009624788,0.100944411,0.143049717,0.056257346,-0.004573521,-0.087769062,0.022597367,0.091301646,-0.096335361,0.134625097,0.103055531,-0.024233837,-0.043890401,0.140078291,-0.015301050,0.225674786,0.193835764,0.297100318,0.129584158,0.277431429,0.466854337,0.038387110,0.316334168,0.148017587,0.050234629,0.072387287,0.101486624,0.097634744,0.043899268,0.104284848,-0.241175813,-0.165349748,0.004363632,0.257190286,0.156559350,-0.072492926,-0.330216665,-0.022230218,0.049759736,0.252344930,-0.055261008,-0.157991055,-0.000159622,0.023426402,
-0.080098536,-0.014291623,-0.160114708,0.214132839,0.152018067,-0.105428955,-0.351292426,0.095050904,0.171916299,-0.200632126,-0.032309891,-0.153788392,-0.051413134,-0.251849780,0.093600796,-0.099350289,0.127751467,-0.244585151,-0.120449336,-0.263968817,0.124417921,-0.113950812,-0.128883000,-0.006602751,0.028532965,-0.080808135,-0.108791503,-0.081150515,0.415489027,0.138418149,0.099052328,0.026835827,0.093885814,0.174660245,0.006200280,0.042919062,0.183554081,0.128354475,0.156593016,-0.184156717,-0.014719842,-0.082805207,-0.142175507,-0.218926555,-0.032932198,-0.115401573,-0.234434418,-0.095031504,-0.051551043,-0.116285234,
0.159731405,-0.147453982,0.213408417,0.077494237,0.013049263,-0.048069408,-0.193555031,0.314982863,-0.152277073,0.233136969,0.290950404,0.159496701,0.089741953,0.116787088,0.079385791,-0.014314636,0.019261141,-0.341835142,-0.008466100,0.008115450,0.255160436,-0.145171692,0.183238201,-0.139882210,-0.112601500,0.459452128,-0.070575266,0.150591541,-0.030297144,0.033140366,-0.012939100,-0.189733893,-0.030910855,0.086058561,0.070442017,-0.067626589,0.021405070,-0.273706546,-0.107619660,-0.017330865,0.256904942,0.013004830,-0.069981094,-0.027332275,-0.231030384,-0.114711916,-0.069722912,0.028678292,0.021971335,0.079062034,
-0.120140329,0.023632046,-0.009377084,-0.144380763,-0.179785449,-0.221058102,-0.010474226,0.307327283,0.326402699,-0.363030753,0.013960274,0.084658360,0.045571899,-0.162901884,-0.130898086,0.178357260,-0.126421327,-0.320548050,-0.028217755,-0.157147702,0.182522950,0.164369482,-0.095053490,0.015358182,-0.121225057,-0.064492762,-0.044666193,-0.037217965,-0.100030443,0.124982434,-0.031606587,-0.024429240,0.008901127,-0.201603852,-0.032932798,0.154516243,-0.170392489,-0.065265073,-0.281832601,0.200646656,0.105621397,-0.098545646,0.223287033,-0.174272192,0.161334328,-0.004102913,-0.005392225,0.192982307,-0.077755845,-0.252058591,
-0.151109369,-0.112646912,-0.056346504,-0.161739764,0.153472311,-0.179399479,-0.194472481,0.100856581,-0.170438590,-0.060466532,0.023059629,-0.066850146,0.058670541,0.093132181,-0.085881463,0.109289484,-0.145643422,-0.100896141,0.163083940,-0.132479263,-0.116915676,-0.023183411,-0.239736492,-0.062858975,-0.068190715,0.075501948,0.245790136,-0.105761789,0.042001780,0.128340629,0.045513029,0.058360122,0.017273446,0.015000102,-0.216875216,-0.026432507,-0.207525370,-0.110527568,0.224434486,0.212668843,0.182340023,-0.110783476,-0.111829988,-0.156541328,-0.134698658,-0.159170662,-0.221926699,0.130136099,-0.214394903,0.112215362,
-0.087963359,0.059592303,0.047090436,0.054768941,-0.016710144,-0.135495008,0.051986463,0.101713556,0.019362757,0.284888245,-0.076560057,-0.167268416,0.012744338,0.128882705,-0.152944070,0.072468428,-0.052551920,-0.014335784,-0.352332677,-0.101839022,0.202890351,0.072012242,-0.151560528,-0.048781193,0.172315567,0.385050894,0.017184716,-0.097446278,-0.116192234,-0.089619530,0.258506088,0.003012654,-0.064594220,0.076872366,0.087657810,0.161545892,0.146338601,0.060382149,0.026439498,0.041708016,-0.041458003,-0.206761754,0.159152368,0.158986596,0.156421519,0.181787549,-0.110756987,0.100416158,0.245108788,-0.085255285,
-0.182416849,-0.227754594,0.148693124,-0.072175934,-0.157895440,-0.014307572,-0.061539043,-0.148534266,0.116060706,0.195937533,0.106976873,0.099242832,-0.147272516,0.137181149,0.166245683,-0.010695004,0.126835320,0.047775458,0.099203926,0.096240023,-0.035430576,-0.026782615,0.011932548,0.063523981,-0.059668725,0.015227324,-0.038187104,-0.025092605,-0.009075211,-0.079019257,-0.059125241,-0.093508135,-0.005446455,-0.225611590,-0.263553376,0.130124894,-0.303986459,0.135193954,0.269624526,-0.130294137,0.065272591,0.015475180,-0.086635326,-0.036462543,0.225002258,-0.133131053,-0.183995627,-0.032766322,-0.111351262,0.187815530,
0.098741236,0.017112612,0.115942472,0.065999594,-0.044833584,0.016455366,-0.019997424,0.114805175,0.221689854,0.099011429,0.171917120,-0.103047278,-0.035485403,-0.072190856,-0.032289181,-0.104786836,-0.109149037,-0.101001671,0.263944037,-0.007117399,0.329104634,-0.076716588,0.030993073,0.159459048,0.023394638,0.127266353,0.113094472,-0.136612076,0.024369938,-0.065372481,0.204035202,-0.004903113,0.109626645,-0.216362045,0.024928827,-0.020643830,-0.068799978,-0.198088577,0.254213980,-0.032150378,-0.055608447,-0.013972408,0.031162057,-0.025584165,-0.073932915,-0.282625638,-0.180646252,0.343051053,-0.331655371,-0.179311478,
0.245044108,-0.310775788,-0.297893530,0.088240016,-0.035892676,-0.134565901,-0.211812310,0.018007306,0.177685787,-0.114879070,0.116689332,0.093354207,-0.159940660,0.169944692,-0.083638138,-0.042075476,-0.174381778,-0.195136788,-0.147185932,-0.018092487,-0.216353467,-0.007491729,-0.093378496,0.140085700,-0.081230125,0.074328924,-0.230917927,-0.095364824,-0.056717085,-0.051157520,0.042797435,0.185353601,-0.088903857,0.037723109,0.257941188,-0.020681935,0.115338480,-0.116430644,0.117868290,0.117971550,-0.132906763,-0.028379974,-0.012405152,0.140331999,-0.026829084,-0.208452893,-0.118360655,0.195060899,-0.054590138,-0.228071643,
-0.065204652,0.082251535,0.071378583,0.223099519,-0.205349206,0.185241978,-0.076536455,0.188335419,0.023007842,0.149009195,0.013770870,-0.047565883,-0.235861911,-0.062197493,-0.060525121,0.031717146,-0.159144181,-0.047601003,-0.184350933,-0.202836256,-0.081859933,0.102456048,-0.115141652,-0.189598243,-0.039328344,-0.138646414,0.107909452,0.126638863,0.049213470,0.015484292,-0.064407875,0.014475087,0.133409852,-0.237764867,-0.188461755,-0.211074055,-0.109855814,0.075466836,-0.095613653,-0.015137557,0.223781759,-0.015737531,-0.233473142,-0.201961325,-0.002864408,0.034268047,0.009109127,0.123770894,-0.151081301,0.202565515,
0.240219557,0.009488781,-0.104037008,0.005911612,-0.066587230,-0.108007345,-0.131173155,0.049872239,0.008663991,-0.053143833,0.043026938,-0.141902474,-0.350000616,-0.279320220,-0.047697179,-0.041040241,-0.177987899,0.133877951,-0.211206028,-0.188285761,0.019891242,-0.150994685,-0.026509868,0.020791130,-0.076988050,0.153866478,0.021444239,0.021258197,-0.011418339,0.002573504,-0.024576637,0.065604008,-0.040459326,-0.196376418,-0.122311306,0.094056561,0.078084746,0.175883103,-0.162401068,-0.124430708,0.004565539,-0.323847651,-0.045625908,-0.245275855,0.001169532,0.312704065,0.318412152,-0.020474545,0.119212980,0.030907412,
-0.115144486,0.277340563,0.139621440,0.202922467,0.073386041,-0.028948313,-0.133110115,-0.082271321,-0.010741247,0.014277801,0.024011445,0.017917468,0.300057889,0.057245817,-0.050455774,-0.075345172,-0.137367412,-0.046480139,0.237781467,0.220124317,0.077946848,-0.144987406,0.043578503,0.134305740,-0.227623978,0.051588943,0.120560455,0.037943858,0.063493555,0.218669489,0.064809960,0.202679078,-0.030588167,-0.046292188,0.171817300,0.238271979,0.021809115,0.124072503,0.028428801,-0.103846197,0.310043253,0.155041760,-0.117329814,0.015592065,-0.015572016,-0.000028765,-0.174925283,0.286788522,-0.070456046,0.012736426,
0.132017514,-0.011636089,0.010631708,0.014648892,-0.089258753,-0.013942562,-0.140755869,0.008402829,0.007448977,-0.070147536,-0.020861328,0.048461911,0.030697679,0.088797281,0.154646410,0.041285118,-0.054414115,0.005340118,0.061923872,0.061487465,0.293156689,-0.076739896,-0.134985984,0.065172961,0.163564460,-0.025105759,-0.120346189,-0.095830844,0.166275916,-0.149048693,0.322710291,-0.095849317,-0.048970871,-0.028242960,0.172300197,0.091233320,-0.264070085,0.030341896,0.258390107,-0.024735238,0.121603794,-0.019251636,-0.123207493,0.051147093,0.014652262,-0.201495307,0.164866084,-0.074622438,0.109088175,0.146919448,
-0.180460433,0.041139945,-0.081588772,0.103021052,-0.238905075,0.211740058,-0.095290900,0.266459742,-0.013363308,-0.087700429,0.012978385,-0.048219892,0.138981509,-0.003798315,0.124492938,-0.008180047,-0.060987579,-0.163768913,0.137151075,0.116050321,-0.087262315,0.073516326,0.124379185,0.085480518,0.049901840,-0.122630220,-0.171966551,-0.000843241,0.142594392,-0.153314519,-0.179752411,-0.015752686,-0.092041015,-0.072131848,0.118159834,-0.104726991,-0.007837580,0.102591881,0.062390495,0.041588970,-0.038325765,-0.026789520,0.079893859,-0.229997940,-0.108552793,0.062459713,0.110887819,0.023118078,0.211628113,-0.028369071,
-0.273439480,0.048923499,0.043718096,-0.124321281,-0.129229067,0.262606646,-0.235403681,-0.041492002,-0.169960480,-0.260377955,-0.057642741,0.077506362,-0.085382668,-0.109377168,0.043600602,-0.101074899,0.055978334,-0.149370763,-0.062954353,0.066388259,0.199266646,0.032303737,0.202158576,-0.422864295,-0.297881238,-0.073109775,-0.081645258,0.023484587,0.153574912,-0.171566794,0.029816639,0.176153576,-0.141749521,0.005020612,-0.205291219,-0.002076187,0.177166712,0.090533068,-0.086075154,0.069111828,0.132182262,0.073747911,-0.315439642,-0.118641906,-0.175926294,-0.246571804,-0.067649079,0.205866901,0.017720673,-0.054694401,
-0.058458948,0.039825914,-0.226207583,0.035247126,0.002630199,0.113876797,0.273143157,0.171847155,-0.195362396,0.061371355,0.281617314,-0.060458893,-0.179686388,-0.053701016,-0.122193173,0.101073707,-0.103393062,0.141713089,-0.160348867,0.198531044,-0.057930291,-0.166345005,0.205219697,0.102032911,0.076468527,0.154622638,-0.093936945,0.188580028,0.035013606,0.270757686,-0.036557419,0.056770873,0.121960055,0.062584903,0.110459059,-0.106801047,0.033381713,0.182172541,0.112712122,0.033972212,0.093792853,-0.230158496,0.032545424,0.061396184,-0.158483739,-0.039063902,0.179377928,-0.017876486,0.048658477,-0.086268291,
0.123967118,0.062003461,0.062774846,-0.142414460,0.054367044,0.067889874,-0.152970890,-0.070442415,-0.219961476,-0.175007765,0.049735921,-0.003886225,-0.033173512,0.142190672,-0.152946977,-0.246151454,0.233559859,-0.027266354,-0.156892108,0.030162141,0.219158664,-0.184366315,0.050861668,-0.085374095,0.121834701,0.053819144,-0.054306619,-0.144276500,-0.100825475,0.202113371,0.053011032,-0.080426956,-0.077036384,-0.146616414,-0.042405307,0.154802989,0.033271387,0.106468715,0.062440325,-0.051807227,0.092318851,-0.094237999,-0.057148579,0.087760119,-0.169071147,-0.101793884,-0.110645442,-0.012315751,-0.035841208,-0.219816793,
-0.081286080,-0.120776527,-0.085375848,-0.002472964,-0.063238808,0.307860593,-0.232794042,-0.018617704,-0.185718318,-0.013290473,0.022857969,0.061571328,-0.068377201,-0.060550121,0.046149819,-0.082586847,0.085306315,0.137216703,0.188181209,-0.123029086,0.159010250,-0.024000716,-0.094149601,-0.014376172,0.032646944,-0.086260316,0.117321358,0.180771404,-0.141331497,-0.106714426,0.020905774,-0.142280997,0.166995856,0.112682172,-0.321030714,0.129011961,-0.034062184,-0.215544361,0.027949155,0.107644794,-0.162589800,-0.107222154,0.113268959,0.267050893,-0.049900217,0.150102611,0.180663165,-0.177933350,-0.131249055,0.026520653,
-0.021781799,0.021984907,-0.333687468,0.056468212,-0.041520887,-0.100397102,-0.204176401,0.028774193,-0.315361094,0.137093811,-0.009739268,0.244133883,0.059909605,0.058688642,-0.146701697,0.152981755,0.100803468,-0.047936774,0.084578553,-0.079214477,-0.025058175,0.185963094,0.130052607,-0.067356748,-0.129780936,-0.096383066,-0.123477984,0.268128085,0.036214220,-0.113531122,0.348407676,0.157295925,0.176011788,-0.141943290,0.056157894,-0.139351367,-0.141138132,-0.050253109,-0.003883646,-0.096597402,-0.077283789,0.056092479,-0.130973015,-0.055175281,0.160266409,-0.058985041,-0.066573322,-0.084435066,-0.024216125,0.151840607,
-0.149558275,-0.043041416,0.140596300,-0.031765247,-0.060041621,-0.186991848,0.085126142,-0.141071034,-0.087450289,0.068633095,-0.189700366,-0.316368674,-0.196523937,-0.133719038,0.206024223,-0.118261394,-0.207763931,0.024338544,-0.086300803,0.001274494,-0.098833451,0.176883335,-0.129416451,0.095970564,0.036559120,-0.255025917,-0.076362119,0.039911097,-0.121713978,-0.028410868,-0.069457242,0.145462273,0.121842811,-0.224557449,-0.078809222,0.139860060,0.083050461,0.178583757,-0.160831216,-0.250500685,0.032574201,-0.063382854,-0.328663689,0.022091023,-0.134416498,0.099902694,0.291839125,0.053829887,-0.167078018,0.054304831,
0.097394590,0.090982644,0.039415421,-0.078563947,0.065930760,0.066297731,-0.045061883,0.325119401,-0.011127081,0.116600352,-0.093578533,0.071243468,0.144947248,-0.001969830,-0.104346743,0.034707197,0.232973548,0.001645629,0.059274607,0.170908511,0.063993714,0.057002314,0.037620786,-0.153962715,-0.046184909,0.020650516,0.047423105,0.011593387,-0.020408942,-0.056465917,0.011745135,-0.299090643,0.083276715,-0.079509797,-0.019398785,-0.068683011,0.008742415,0.078307020,0.118720037,-0.198005558,-0.150190729,0.066321794,0.008070415,-0.295408030,0.055199022,-0.006689934,0.016461680,-0.241395550,0.148097537,-0.188459370,
0.083987783,0.034211535,0.009758377,0.040642572,-0.065534279,0.065950159,0.046372018,-0.100349179,-0.093894624,-0.262582516,0.033724533,-0.222355151,0.203405480,0.055243659,-0.232195065,-0.121649957,0.001591327,-0.096854037,0.035369746,-0.081592458,-0.122471929,0.107341935,0.167977359,-0.038331209,0.060046851,-0.214928868,-0.058310252,0.031674284,0.013418864,0.128686638,0.036995202,0.242684746,-0.120441602,0.037668897,0.049705921,-0.020404575,0.293331929,-0.256652447,0.200732993,0.288292253,-0.200782273,-0.336941339,0.046249876,0.270817029,-0.123188728,-0.073500044,0.062013038,-0.236652510,0.042755856,0.071382948,
-0.087476055,0.162152022,-0.117782739,0.240626029,0.091845171,0.143993586,0.023366318,0.174425006,0.031620825,0.038403037,-0.261318776,-0.271696482,-0.163241821,0.136406958,-0.260646822,-0.061532838,-0.118463986,-0.005048510,-0.089561777,-0.205292110,0.230969741,0.076133445,0.156759984,0.275978830,-0.264853425,0.117408596,0.010926010,0.105024180,0.095275276,0.018011427,-0.106368082,-0.123590575,-0.217112899,0.076308723,0.023921274,-0.253064827,-0.014825001,-0.104880020,0.141537826,-0.059011566,-0.060419162,0.302723060,0.086200308,0.085113444,-0.130930626,-0.076464328,0.079733245,0.072566660,0.157922554,-0.032327086,
0.269768790,0.107994986,0.088245561,-0.054276263,0.079603330,-0.052452741,0.103781965,0.108463497,-0.108316562,-0.106803314,-0.006031861,-0.070472592,0.153374849,0.080781739,-0.135160503,-0.014016916,0.074161960,0.034043720,0.085774069,0.011883403,0.106786078,-0.168541009,0.113828847,-0.194129531,0.050493456,0.052750156,0.282570753,-0.180152327,-0.045518434,-0.228646882,0.157910093,0.072762949,0.054218521,-0.196012721,-0.115150324,-0.186320249,0.170469683,0.150709520,-0.010792199,-0.082193005,-0.023407308,-0.240465632,0.249149998,-0.272299050,-0.293867236,0.154605400,-0.069120479,-0.093056450,0.035615507,-0.005135325,
0.084542423,-0.081938615,-0.052803382,-0.110697347,-0.054007244,0.246146728,-0.198216950,0.268959142,0.104426502,-0.034832500,-0.121383667,-0.048903393,-0.096056670,0.060061022,-0.049986236,0.013831733,0.015448827,0.019523486,0.158104678,-0.005447929,0.081137849,0.124617703,-0.090597988,0.027479668,0.307850728,0.056246542,-0.004606340,0.096313243,0.185533019,0.126905537,-0.148758590,0.054831201,-0.129979489,-0.001143118,0.278702472,-0.085644803,0.188720459,0.026465353,0.043997768,0.129660288,-0.061141268,-0.054026468,0.007560680,0.113141968,-0.098771399,0.190184092,0.004565680,0.096130137,-0.030266495,-0.042735071,
-0.049381706,-0.077656988,0.090010957,-0.135192762,0.140070839,0.157313110,-0.212874522,-0.129635086,0.065568119,-0.476446688,-0.160932554,-0.196274194,-0.010032437,0.184592424,-0.166812964,-0.163458917,0.013188717,-0.059728959,0.102822297,-0.153298426,0.285450619,0.065289975,0.032199526,-0.079269428,0.226922248,-0.023780101,0.265045247,-0.239253370,0.030186165,-0.052666683,0.021093869,0.064456512,0.215686765,0.104192494,-0.073953190,0.167663919,0.384027946,-0.027715691,0.148465361,0.123420603,0.018895511,-0.016799442,-0.047271925,0.189338971,0.131671292,-0.091181581,0.005308915,-0.035895011,0.078684277,0.198215549,
-0.051555276,0.182016104,-0.264471542,-0.050258789,-0.057156921,-0.000114088,0.152187831,-0.085732128,-0.147331366,-0.051580422,0.299479572,0.087063869,-0.014362711,0.090454644,-0.167594011,0.191543655,-0.072741318,0.026611679,0.027267678,-0.117620372,0.137306925,0.303895412,0.008706853,-0.070184985,-0.281645720,0.027356438,-0.046496198,-0.034941497,0.141839898,-0.047203367,-0.246526304,0.057091161,-0.036649831,-0.112499121,0.012796043,0.072130354,-0.125790444,-0.164940523,-0.122078349,0.149148382,0.089019758,-0.112261541,-0.116621800,-0.073775344,-0.299554336,0.153481370,-0.027864699,-0.220889562,0.034679075,0.116932596,
0.023002477,0.287941793,0.035613779,0.098364307,-0.078388958,-0.229247546,0.030184652,-0.027210210,-0.083612877,-0.114045176,0.061371413,-0.190622460,0.063621080,-0.022898783,0.075785253,-0.122748602,0.225590409,0.059489308,-0.070708006,-0.132384484,-0.033245671,-0.016770538,0.226634272,0.109534531,0.055918901,0.174700748,-0.063571062,-0.007451995,-0.175628690,-0.106074802,0.007796032,0.276043485,-0.131407699,0.042696733,-0.002574758,0.071231254,0.009788220,0.256873033,0.022071716,0.086559650,-0.113876761,-0.215007757,0.194303450,-0.094583092,-0.182269043,-0.038857022,0.160638110,-0.000779681,-0.053531451,0.057787856,
0.031823452,0.054248164,0.034374672,0.163543431,-0.059562271,0.024828270,0.025327213,-0.316948662,-0.079426307,0.079463618,-0.004042037,0.277547403,-0.143321771,-0.023407891,-0.002496803,-0.235720570,0.227579335,-0.194824632,0.124368782,0.125323096,-0.077148205,0.177611346,0.201629194,-0.007313254,-0.069399575,0.213154323,-0.090477409,0.068463226,-0.058982347,-0.197298733,-0.014963484,-0.022645265,0.126139451,-0.245765493,-0.092097109,-0.051244675,0.123741209,0.228321262,0.136535600,0.106199982,-0.231086954,-0.236920840,0.245682845,-0.143238387,-0.183550195,-0.328906573,-0.116063162,0.137404810,0.030014545,-0.005217759,
0.034453637,0.120022376,0.036889415,0.093500389,-0.007146555,-0.337494275,0.103733087,-0.143917558,0.083360279,0.007332099,-0.081723835,-0.004954042,-0.047726657,-0.104872181,-0.195943570,0.265625461,-0.099666353,-0.374872170,0.146521366,0.079591400,-0.066695864,0.036462030,-0.109466955,-0.117889749,-0.038380420,-0.044125981,-0.011847504,-0.037840783,0.219802600,-0.418838482,0.143914106,0.167799242,0.169574571,0.156036682,0.122987287,-0.207576150,0.067237647,-0.078762851,-0.162380614,0.216594406,0.018294650,-0.317614544,-0.042764207,0.248702617,-0.048008923,0.225909209,0.244006721,-0.218145825,-0.014848708,0.001012416,
0.145447786,-0.055905783,0.238880444,-0.120959108,0.006098314,0.056538551,0.089854711,0.025165951,0.312038518,-0.016904221,-0.058116821,0.297303907,0.018022819,-0.090654489,0.073333751,-0.052587039,-0.127532381,0.296229440,0.036050476,-0.140469218,0.174945486,-0.051962546,-0.062604230,-0.043192539,0.192779283,0.207290473,0.357464235,0.352432374,-0.002684721,0.107819217,0.001701313,-0.196642004,0.037717511,0.080490719,0.045035339,-0.002208881,-0.008231489,0.444528969,-0.044006331,0.052071624,0.021570295,0.126959783,-0.113549766,-0.178080543,-0.033086131,-0.228364354,-0.021618370,-0.062745795,0.130228925,-0.129583238,
0.079810949,-0.122003264,-0.071266810,0.035220285,-0.111632186,0.412484019,-0.116089600,0.067056444,0.068240778,-0.054698843,0.104035936,0.082968804,0.062229691,0.009319864,0.125457212,-0.092613457,-0.007296783,0.205131706,0.122962511,0.228240558,0.060538332,-0.048367712,0.075522669,0.042357150,0.131673275,0.024958329,-0.157113998,-0.030414999,0.118368758,-0.044048631,-0.116526243,-0.019762540,0.098584148,0.132134004,-0.069736851,-0.038790764,-0.269072350,-0.179724034,-0.032529662,-0.095339359,-0.436184175,0.038786645,-0.094103170,-0.061002166,0.297942560,0.431100054,0.024091579,0.015815317,-0.154519141,0.003450693,
0.039910961,0.092814006,-0.002198991,0.012794183,-0.108013871,-0.076478525,-0.225951637,-0.000279252,0.088206418,0.041905028,0.093375569,-0.022420739,0.087117936,-0.122645297,0.087689705,-0.056254299,0.128099683,0.315449353,0.017151398,-0.112048434,0.057360715,-0.032272328,0.019214854,0.155343588,0.028310009,0.044274093,0.027230882,0.113532584,0.068915898,0.175337698,-0.094806085,0.159596481,-0.328205561,-0.086997123,0.234012782,-0.238628883,0.109891133,0.213124898,0.101245083,-0.111185233,0.202064661,0.117798609,-0.079333863,-0.103106167,0.140008723,-0.112935740,-0.008110566,0.017082614,-0.105728047,0.371573089,
0.016786862,0.026583957,0.235879099,0.001309705,0.116079162,-0.073763867,0.079159127,-0.081126091,-0.157651078,-0.203340854,-0.384454222,0.185337062,-0.050969794,-0.049190407,-0.057384526,-0.312421091,0.265301887,-0.320930237,0.240482650,0.044291361,0.022400316,-0.104441260,-0.175424841,-0.074992470,0.050447425,-0.102729199,0.071511396,-0.042369636,0.108830274,0.191027333,0.207408941,0.277588977,-0.167263738,0.147387391,0.174295653,0.120343425,0.170700870,0.164734829,0.039940513,0.010419893,-0.252219449,-0.255974184,0.027861399,-0.045476652,0.186500682,0.207336676,-0.131296126,-0.031651227,-0.016703779,0.122658623,
0.015909007,0.028524391,-0.121544119,0.116259904,0.130562652,0.137316826,-0.161592804,-0.293256754,-0.095801145,0.033408048,0.011872575,-0.089503783,0.017417208,-0.047897384,0.001277626,0.332245070,-0.043958652,0.264168545,0.007848895,-0.190489672,0.067243199,0.021379588,-0.024560237,0.211259308,-0.256328097,-0.030730230,-0.012530657,-0.121106104,0.307461662,0.093415990,0.077872720,0.010714873,0.003131447,-0.003893810,-0.325045014,-0.194322133,-0.078715055,-0.058434398,-0.066794716,-0.013866388,-0.118860343,-0.117592393,-0.083272134,-0.131707668,-0.214439057,0.012268192,0.295937073,0.123196854,0.041900154,-0.041345571,
-0.158460890,0.152760255,-0.135203173,-0.054393627,-0.043205305,-0.044617451,-0.039413468,-0.126968021,-0.157489338,-0.034992007,-0.234364458,0.006134268,-0.054872761,0.309207280,-0.281744243,0.002461476,-0.188814011,0.059039292,-0.289475776,0.055759911,0.047820185,0.034495531,0.066803372,-0.250147229,0.197321366,-0.115499769,0.021517822,-0.246461841,0.055775727,-0.042320797,-0.141037039,-0.036221384,0.120893909,0.115239469,-0.112957047,0.010130540,-0.034001829,0.286972858,0.240170316,0.085732788,0.173903634,0.324857597,-0.074536781,-0.163087453,-0.145890740,-0.196367257,-0.285308331,0.078880871,0.022241990,-0.097170974,
-0.119690624,0.042945482,0.005374432,0.016801533,0.016536808,-0.259771823,0.207884965,-0.121280925,-0.029358395,0.103453632,-0.020934220,0.297374802,0.005042837,-0.237825832,0.064405107,-0.062679415,-0.066187498,0.128106988,-0.144775255,0.009041517,-0.072564878,0.061188366,0.154835062,0.222248936,0.145729152,-0.131878366,-0.113464441,0.174668899,0.212368033,-0.023794984,0.036032348,-0.105925492,0.138604835,-0.099807833,0.040125003,-0.116487699,-0.096786111,-0.167539906,-0.013245784,0.129756509,-0.151793520,0.018572257,0.257059937,-0.068995296,0.060261861,-0.079914145,0.197774086,0.084657478,0.175329941,-0.105931951,
0.088543583,0.184843159,-0.010877972,0.058249651,-0.112974057,0.021705304,-0.152331680,-0.037653352,-0.077464244,0.120290653,0.206207406,0.093575194,0.037981277,-0.077818446,-0.270136984,-0.061536484,0.075670712,0.129359233,-0.084179674,0.064125758,-0.037485700,0.079920704,-0.291553050,0.021117000,-0.261162331,-0.195921204,-0.141411600,-0.089412127,0.080115464,-0.121139105,-0.110085402,0.132758387,-0.021564234,-0.092365342,0.128496419,0.100739327,-0.173402412,0.064989693,0.199577299,0.150320146,0.061670015,-0.567537930,0.032442699,-0.152007943,0.051635067,0.278935625,-0.033046290,0.008155070,-0.203958621,0.250735076,
0.123141531,0.118355760,-0.013218043,-0.031613722,-0.031926861,-0.061489537,0.048708428,0.279322151,-0.116230797,0.152237535,-0.137357778,-0.143301621,-0.238225884,-0.014168736,-0.069284678,-0.085519462,-0.079618770,0.154540446,0.004893190,0.186077920,-0.000218409,-0.045854324,0.309764776,0.014058882,0.145194918,0.214901830,0.084847222,0.039105984,-0.021936219,0.124095239,-0.063439734,0.010559709,0.013897183,0.111474475,0.160228069,-0.126070296,-0.134979398,0.003257163,0.140960678,0.090648052,-0.234082133,-0.068325676,0.047959368,-0.007057525,0.023508314,0.033630204,0.136158634,-0.051202342,0.374057343,-0.208667273,
0.218656953,0.086311063,0.008739665,0.271919866,0.109991853,-0.173014766,0.065650345,-0.082610375,0.187994813,-0.098080516,0.158150958,-0.123743567,0.232433774,0.069923148,0.019452061,-0.167791545,-0.042698119,0.059189829,0.081022462,0.047453449,0.148585976,-0.308993384,0.119474721,0.180869827,-0.245444708,0.036460267,0.224685084,0.015805035,-0.149466563,-0.127071689,0.153704754,-0.270116549,0.223149490,-0.013278404,0.351215061,-0.040546617,0.159510976,0.019985055,-0.165441834,0.031866923,0.111913271,0.045207473,0.105667391,-0.056955109,-0.272587565,-0.126549466,-0.055465284,-0.062043159,-0.120695645,-0.084368616,
-0.162816374,-0.004130757,-0.208373837,-0.002634114,-0.057489889,-0.181637752,0.347232491,-0.431976858,0.110914754,-0.092706834,0.189444445,0.113436308,-0.072941838,-0.153081927,0.073630983,0.143228817,0.090589341,0.139024070,-0.028661469,0.134907895,-0.097870114,-0.088220980,0.121805327,-0.027879086,0.091729351,0.122354812,0.126242293,-0.228170641,-0.060503137,-0.165193550,0.171352919,0.147690184,-0.152871126,-0.011859659,0.192530147,-0.209151847,0.216045480,0.104667726,-0.168763086,0.145118362,0.093069961,0.050691210,0.014629138,0.323334757,0.075185299,-0.252433498,-0.086911438,-0.015722249,0.160923732,0.026563453,
0.015642924,-0.270018294,0.282203361,0.173875321,-0.181638802,0.035399068,0.031872615,0.055714061,-0.253484997,-0.013939530,-0.293967852,-0.121221493,0.031432876,0.065884042,0.052822533,0.183544500,0.114602913,-0.003242151,-0.023320923,-0.230820230,-0.211988143,0.234305328,0.072018228,0.127721794,0.123240447,0.184762735,-0.037822493,-0.142623457,-0.168741116,-0.175493994,-0.003619945,-0.433468115,0.231190657,-0.075384413,-0.069342926,0.018063082,-0.125833241,-0.138181177,-0.298421010,0.183288682,0.078267927,-0.183171155,0.144402297,-0.018659770,0.133766712,-0.109162860,-0.158550083,0.039511078,-0.002662651,0.043217535,
0.188821108,0.026331566,-0.002183750,-0.191132493,0.065240945,-0.176929650,-0.026388957,0.172146582,0.084124970,0.158946322,0.007598565,-0.121237101,0.094788718,0.011726618,0.009544977,0.108984515,-0.139487242,0.364401667,-0.203414754,-0.198312048,0.159862370,0.089453713,0.016851242,-0.152560730,0.207291440,-0.166274359,0.056079443,-0.039853747,0.046408978,0.070925921,0.123910095,0.254800535,-0.027178278,0.102967644,0.303846793,0.103252722,0.040027123,0.254720692,0.079151675,0.031097458,0.020350598,0.169485260,0.090846698,0.040438550,0.136218250,-0.337551131,0.305513777,0.269045254,0.024673952,0.212605500,
0.003114925,
-0.213518578,
0.067834004,
-0.087103734,
-0.316532688,
-0.067278571,
0.176100076,
0.120079765,
0.022043747,
0.244678668,
-0.103434651,
0.149885432,
-0.018246388,
-0.131413301,
-0.079772234,
0.088338821,
-0.184398143,
0.211010150,
0.079771150,
0.070631405,
-0.172433054,
-0.070533744,
0.040982118,
0.053886484,
0.332357102,
-0.059081485,
0.049730566,
-0.033493812,
0.047975055,
-0.103092854,
-0.008049890,
0.093232732,
0.087761691,
-0.127822615,
-0.035743016,
0.111411815,
0.100034504,
-0.030904738,
-0.152963436,
0.330268715,
0.113760049,
-0.076610201,
-0.207559067,
0.035119576,
0.133338287,
-0.093379133,
0.212630559,
0.031297236,
0.078564292,
0.016230856,
-0.251086660,0.087475018,0.111907508,0.070644768,0.038044614,0.091696428,-0.182238347,-0.023668558,0.299536157,0.190035799,-0.028910960,-0.071149005,-0.081557288,0.111849494,0.080009690,-0.222447392,0.051659417,0.175989302,-0.060922978,-0.156627352,0.015661970,-0.071661385,-0.010685800,-0.130717445,-0.175347982,-0.099744094,0.028596596,-0.174948241,-0.067718837,0.037100577,0.022079861,-0.042594261,-0.212609452,-0.115725526,-0.003638926,-0.029514061,-0.076591430,0.006952211,-0.058038387,-0.102490756,0.102191629,0.053793745,-0.026412749,0.180174531,-0.141257494,0.338314929,0.133273489,-0.015236673,0.063772496,-0.045612765,
0.281053382,-0.102521104,-0.050102737,-0.018251652,-0.065210812,0.117255365,0.119554138,-0.003785258,0.199896818,0.090724993,0.065305403,0.110692153,0.183475440,-0.025868143,0.064469146,0.098716023,0.226576847,-0.176205102,-0.095173031,0.024951974,0.070249812,-0.076391043,-0.353594149,0.005400615,0.090288835,0.133841949,-0.046107380,0.150699286,0.085539034,-0.077094410,-0.065082842,0.226734987,-0.007695402,-0.098356000,0.175046990,0.033170268,-0.222851216,-0.047637267,0.275098929,0.171722621,-0.281357080,-0.038822337,0.001006666,0.051616714,0.068219998,0.078592874,0.132320228,-0.366554313,0.149987714,0.089396962,
0.119952533,-0.023120086,0.231832594,-0.019377777,0.087222878,0.136324086,-0.049392527,-0.017268565,0.025788703,-0.074905274,0.105587227,-0.078374282,0.039648722,0.250959147,0.013821449,-0.208134914,-0.132566077,0.071293760,0.202207779,-0.034690860,0.018404011,0.045184180,0.178809848,0.059194093,0.063502806,0.144163373,0.219315429,-0.042879798,-0.095539267,-0.105024750,-0.026594141,-0.099799108,0.106996685,0.029571410,0.071709165,0.041963399,-0.017588690,-0.019214607,-0.014112441,0.150603769,-0.003026135,-0.131132063,-0.124845901,-0.247525808,-0.012143399,-0.106230511,-0.044398923,0.208649889,0.422961851,0.281954657,
0.024830586,0.058774162,0.012344564,-0.151291534,0.156244122,0.002842434,-0.133035103,0.073973995,-0.070355936,0.118925354,-0.162964386,-0.226469118,-0.116533069,0.068221893,-0.136433151,0.022215668,-0.094823449,0.209675954,0.077082853,0.096733353,-0.226156725,0.144492628,-0.177603970,0.261876181,0.146504114,-0.029022298,-0.043670937,0.111745918,0.177890270,-0.188648516,-0.064486115,0.093437725,-0.037592433,-0.034000037,-0.184078684,-0.061031260,-0.187742953,0.184443561,0.262269197,0.118605433,-0.029643818,-0.140727973,0.083791027,0.077648630,0.113791030,0.288497856,0.161694447,-0.143075238,-0.076928663,0.039518628,
0.029177995,-0.020530100,-0.140297770,-0.141979116,-0.205624140,-0.061869132,0.028702762,0.146099998,-0.147956550,0.205414392,-0.183341804,0.051916471,-0.020956340,0.063727302,0.027793013,-0.135141841,-0.044197820,0.133799997,-0.009520129,0.050821378,0.256798093,-0.063048641,-0.016472641,-0.350816676,-0.297250612,-0.049728032,-0.010050146,-0.238962867,-0.139418261,-0.045741862,-0.048178936,0.199435728,0.091459736,0.032469497,0.089283701,-0.130825681,0.110625554,0.006095402,-0.057848338,0.189091405,-0.249516488,0.006537975,-0.194821039,-0.022093013,-0.123182976,0.014283404,-0.149397722,0.201257100,0.007208397,-0.051124739,
-0.195932119,-0.095502265,0.063197768,-0.176452613,-0.247005625,0.326027229,0.093081455,0.172072486,-0.219967082,-0.097526605,-0.076650934,0.106390087,-0.009800224,0.005900700,0.169393440,-0.106277479,0.153283103,-0.105940130,0.279458761,0.103754462,-0.123393526,0.177585926,0.000548070,-0.052187790,0.091820736,0.084473989,-0.055959349,-0.132073677,-0.059697487,-0.119159903,-0.239098146,0.015612981,-0.041560200,-0.008567177,0.079336458,-0.020668387,0.110918229,-0.196691807,-0.107299949,0.365667193,-0.014257916,0.136736027,-0.172226130,-0.118216649,0.143642686,-0.006619980,0.105813775,0.051935910,-0.177497148,-0.113008837,
0.125062767,-0.124914524,0.066860127,-0.091403848,-0.195184370,-0.086848776,0.047689427,0.038671634,0.051296119,0.134069089,-0.023403485,-0.158222472,-0.042103850,0.035862165,0.031911061,0.053197349,0.288906087,0.045893140,-0.111820801,0.257866657,0.000145806,0.082644902,0.080727149,-0.237472031,0.110808085,-0.069106607,0.013350312,-0.183215563,0.130188349,0.166413767,0.103260916,0.156363593,-0.151708656,-0.045768586,-0.212331269,-0.202822395,-0.187295015,-0.210266291,-0.345315595,0.296197190,-0.124005844,0.129271798,0.031829564,0.023846279,0.115026958,-0.264240688,-0.072942217,0.043813826,0.026330632,0.191220852,
-0.067719194,-0.030504255,-0.020822966,0.271052322,0.101808731,-0.056587605,-0.107404394,0.241899811,0.053920940,-0.038034307,-0.009585011,0.058553830,0.028826040,0.279839344,0.171309564,0.303964937,-0.199438471,-0.298131327,0.061240562,0.094889371,0.074452720,0.055872281,-0.011909702,-0.169666859,-0.002334764,0.145459803,0.165891250,0.414114401,-0.085330508,-0.197821758,0.164499783,0.249350209,-0.024851407,-0.135688405,-0.010425924,-0.000857112,0.164779106,0.021688378,-0.133835743,0.074913277,-0.038587799,-0.093139621,-0.155069280,-0.193317808,-0.294478032,-0.144987375,0.303654199,-0.041068964,0.002332126,-0.043588843,
0.305635989,-0.001561758,-0.018439380,0.015549036,0.020525494,0.070141207,0.105440237,-0.185170395,-0.060904541,0.390871054,0.054506108,-0.153219194,-0.015183231,0.223536948,0.050751542,0.106062625,-0.084564175,0.231637987,0.010720266,0.021635788,-0.010542527,-0.030603970,0.017234514,0.234314881,-0.000478017,0.240496366,-0.241905168,-0.090567918,0.135121583,-0.086006052,-0.322038161,0.085841617,0.249334417,0.028182774,-0.174201959,0.313188586,0.095197749,0.210850405,-0.064591495,-0.114977266,-0.203543268,-0.031999179,0.052372501,-0.068318526,0.183368074,0.014803819,-0.139492525,0.096548600,0.009570978,0.049235385,
0.202432086,-0.159645793,-0.106380172,-0.018351297,-0.269630024,-0.041910179,-0.150915484,0.160569542,0.057912240,-0.184000968,0.162852006,0.042176297,0.012599660,-0.072703107,0.173612266,0.024204368,0.112876826,-0.257269309,-0.051363436,-0.147329174,-0.133165894,-0.225590004,-0.137449456,-0.119479558,0.125550900,0.146420451,-0.244006936,-0.058348352,-0.118619593,-0.105109484,-0.052839537,-0.063805147,0.034908314,0.001753057,0.152772350,-0.085975886,0.014292613,0.050575749,0.168582960,-0.165340211,0.149899196,0.195027361,0.136726819,0.449468551,0.145078142,0.220439781,0.210002597,0.059883734,-0.109950266,0.224750719,
-0.107167991,0.126122823,-0.204194201,0.025090104,-0.125592915,-0.000637713,-0.230777178,-0.086702942,-0.176663775,0.007751909,-0.052627874,-0.124868760,-0.249763364,-0.170304451,-0.045160701,-0.083526455,0.027836349,-0.030883932,0.169423793,-0.295989474,0.022034341,0.099362056,0.252892363,0.172299899,0.050349348,0.024666522,0.042563329,-0.094246427,0.054691264,-0.204654591,0.096197551,-0.158263495,-0.324867714,-0.038592122,0.022584261,-0.196292337,-0.108761426,0.170956968,-0.054011674,-0.070109176,0.240217181,-0.058709992,0.132879873,0.002200757,-0.085559135,-0.075022538,0.035421628,-0.193193073,0.171802346,0.240787358,
0.351100108,0.036238541,-0.158149333,0.208700002,-0.111247954,0.124554458,-0.130176969,-0.107053666,-0.139385113,0.015153287,0.004564240,-0.104890458,0.207289651,0.115312053,0.129038248,0.094850428,-0.006358592,0.143827027,0.014772485,-0.312827507,-0.005203946,-0.270034050,0.015675002,-0.083272377,0.060896892,0.057413411,0.128023037,0.160009679,0.053409783,-0.157596002,0.008555054,-0.022842767,0.180277416,-0.069929924,-0.125116627,0.035014161,-0.166730352,0.183282460,0.046393499,-0.251964337,0.144205279,-0.104432148,0.041443382,0.126582228,0.331308745,0.276192456,0.012803538,0.186329064,-0.044278947,-0.153987426,
0.012950065,-0.068793547,0.168133948,-0.142337683,-0.043240744,-0.178862779,-0.092598008,0.099523965,0.036028233,-0.046157214,0.002945632,0.032491766,0.125107974,0.098299737,-0.221363333,0.053522960,0.291716833,0.016831730,-0.010237495,-0.096829646,0.059937726,0.019011154,-0.108458348,-0.131852369,0.139970938,-0.124769415,-0.113943074,-0.024173758,-0.170838833,-0.033278193,0.112563430,-0.193527633,-0.196403110,-0.148997608,0.145960772,-0.019181038,0.308457560,-0.041588948,-0.112005994,-0.238931933,0.072758160,0.025281876,0.091374609,-0.057410173,-0.196019917,-0.141981822,0.209168253,0.006494134,-0.173391683,0.076124944,
0.020513609,-0.131054866,-0.084381114,-0.218220111,-0.105326289,0.024367413,0.142970274,-0.004409539,-0.221084608,-0.116466998,-0.027336151,-0.283824353,-0.048265893,-0.114620549,0.105110409,0.017776703,-0.036027305,-0.064159985,0.089150851,-0.088256846,0.031825210,-0.103641156,-0.032365744,0.062017670,0.145129418,0.066203439,-0.041805424,-0.207454377,-0.049990747,0.001425278,0.052349542,-0.060897518,-0.012953670,-0.144425547,-0.238730385,0.091163348,-0.008323504,0.169455274,0.033895347,-0.040834074,-0.110052142,0.054657421,-0.184080162,0.113068222,0.058478237,-0.101554822,-0.074040180,0.125546792,0.284936200,-0.186740239,
0.061872984,-0.099703330,0.174359024,0.065641783,-0.346901860,-0.124933717,-0.144229473,0.051278946,-0.017856766,0.011300415,-0.172893550,0.213742498,-0.056813161,-0.213814242,-0.013611255,0.310386874,-0.205979125,-0.239748525,-0.172568714,-0.017452364,0.179221220,0.150503173,-0.261557868,0.021977380,0.075804706,0.129023672,0.032625777,-0.128406215,0.027897823,-0.058855350,0.318716158,0.150165699,-0.154513209,-0.146378737,-0.031984472,-0.008892441,-0.001142456,0.026138916,0.121836263,0.154143727,-0.121920452,0.147335688,0.095235094,-0.083865338,-0.026086797,-0.225118858,-0.053763965,-0.274502339,0.001985498,-0.166968952,
0.162216785,0.354210500,0.350217974,-0.000203358,-0.239799959,0.181343319,-0.057632838,0.057743215,0.098170712,-0.013247229,0.206663520,-0.067177983,0.068256834,0.011721301,-0.251746046,-0.215931254,0.116799242,-0.034647149,-0.003024193,-0.023450105,0.201486337,0.323074595,0.181373883,-0.107115180,-0.026813370,0.133498422,0.057587104,0.124177512,-0.033206345,0.046740873,0.026126145,0.072484517,-0.089723864,-0.238216261,0.131597053,0.028911734,-0.035776780,-0.062578043,-0.129734290,0.074610873,-0.232662143,0.013245985,0.072033331,0.078294637,-0.065025457,-0.253878796,-0.178589117,0.012541993,-0.037133992,-0.300168661,
-0.000032534,-0.250252332,0.128810629,0.241233750,-0.131249745,-0.004362661,0.234123524,-0.027093271,0.187578826,0.073894637,0.140027215,0.037818813,0.035302906,-0.150870148,-0.071117355,0.002486494,-0.073453269,0.006048339,-0.085172743,-0.033973170,-0.081030951,0.018829246,0.008123395,0.227886477,0.128550127,0.226717297,-0.130929303,0.149378886,-0.066321911,-0.056661694,-0.140558640,0.076036069,-0.041755507,0.059446877,-0.117344406,-0.195283024,0.121668938,-0.166345160,-0.261017506,0.076009342,-0.025052527,-0.192162589,-0.182960621,0.287578671,-0.150586312,-0.294156547,-0.005214337,-0.299101336,0.236253250,-0.095685009,
0.147878825,-0.036320955,0.130039364,-0.122713078,0.171752101,-0.114616673,-0.126602706,-0.086151120,0.092474343,0.046636387,0.056728454,0.174080486,-0.111387800,-0.017355292,-0.016962967,0.052552509,-0.075292290,0.265945373,0.158320892,-0.075336926,0.018063513,-0.134378265,-0.054531066,0.228390544,0.079486438,-0.040929342,0.272866685,0.041875564,-0.053098345,0.130272742,0.153464637,-0.153382793,0.223831132,0.028839094,-0.123700365,0.058759576,-0.153562547,0.082931150,-0.081147944,-0.017423970,0.188072045,-0.043490494,-0.042767058,0.192630848,-0.153617999,0.250973544,0.115046014,0.112761803,-0.347760510,-0.176220747,
-0.178304134,-0.175269162,0.142951266,0.162383363,0.012326563,-0.101252883,-0.102663787,0.067485795,-0.128296164,-0.014404425,0.270842533,0.162030584,0.122605647,0.041238745,-0.074572926,-0.036927358,-0.105296421,0.138303313,0.043063988,-0.035395861,0.100290821,-0.184148280,-0.000365068,-0.103417852,0.000037120,0.065053357,-0.125509463,0.065353712,0.089180807,-0.121209543,-0.111102309,-0.088518494,-0.147752218,-0.151838442,0.034537851,0.150756049,0.100319641,-0.069665173,0.221638731,0.111922915,-0.032799666,0.131551525,-0.134301246,-0.111717502,-0.020102356,-0.025743126,0.234787009,-0.041013432,0.103221949,0.063762664,
0.003280784,-0.339908997,0.035483554,-0.194467905,0.175322544,0.302521719,-0.108196358,-0.248225055,0.126160144,-0.106960064,0.008865702,-0.082542081,0.030149371,-0.209518808,-0.088442756,0.074693064,0.002585114,0.045193526,-0.024700009,-0.055128057,0.118149202,0.037594742,-0.150127965,0.094053612,0.221076374,-0.034426192,0.075654458,0.045971049,-0.013229075,-0.064952938,-0.131437712,0.105265808,0.168480337,0.108485956,0.205407350,-0.062636712,0.079837131,-0.151210560,0.239632324,0.175830918,-0.153570465,-0.028624492,0.166735173,-0.117073686,0.010862812,-0.206593905,0.026412277,0.188193988,-0.112565637,-0.082765501,
-0.130981403,-0.167349246,0.121784793,0.036229900,-0.102264974,-0.059170192,-0.250421915,-0.110750081,-0.157409782,0.169060067,0.013781794,0.108912119,0.318773840,-0.059721810,-0.146131006,0.097521621,-0.019936810,-0.222307507,-0.029245616,-0.103826380,0.057096772,0.058952659,-0.068845432,-0.146690032,0.023299675,-0.000524941,0.095445888,0.102475416,-0.233683841,0.131816943,0.058204789,-0.148352466,-0.332364046,-0.085031169,0.051694848,0.015714574,-0.182603552,0.039742164,0.194521534,0.264445751,0.149187217,-0.089109721,-0.209756894,-0.076223835,-0.190108440,-0.070156845,0.024393397,0.052900091,-0.243851214,0.056049610,
-0.085156322,-0.074932610,-0.055225538,-0.038010327,0.083173479,0.012455462,0.083695727,-0.050103167,0.032576076,0.242270998,-0.042242802,0.115412042,-0.052397208,-0.117124086,-0.101221911,0.047185123,-0.095311628,0.046214916,0.010975304,0.213138179,-0.028092521,-0.005009864,0.257495332,0.111280432,-0.018957059,-0.095783888,0.160333512,-0.082241246,0.247871817,-0.013252633,-0.152859049,0.140254965,-0.184427019,0.059438218,-0.088182946,-0.032381976,-0.115045645,0.076533204,-0.271204226,-0.008471167,-0.123983203,0.083980833,0.018828857,-0.040032238,0.256337746,0.073084713,-0.022769977,0.135717126,0.144816570,-0.087414074,
0.063726300,0.131591766,-0.015127937,-0.024223523,-0.085904745,0.017983191,0.013735409,0.113381029,-0.062880042,0.151312350,-0.064230456,-0.127751091,-0.007061490,-0.098232024,0.165162614,0.097710313,-0.165968208,-0.086321908,0.106807674,0.066130131,-0.135359153,0.087018049,-0.055133231,-0.011924627,-0.022420139,-0.082474501,0.032548749,-0.014177573,0.264262076,0.101817417,-0.245562324,-0.059099773,-0.153029451,-0.050599281,-0.014100179,-0.134382882,0.100616165,0.010346506,0.044692446,0.002642004,-0.235543675,0.029935416,-0.090143682,0.003307892,0.004820953,-0.104318409,-0.114523897,0.032204088,-0.184028836,0.153307917,
-0.216725016,0.106311033,0.046397258,0.051911927,-0.269261374,-0.224101531,-0.183907398,-0.152982478,-0.134499554,-0.156591320,0.161764397,-0.145226020,-0.085111435,-0.080918816,0.018496643,-0.026680146,0.040897380,-0.105535451,-0.045837151,0.277001447,-0.253815111,-0.132551007,-0.039832342,0.093422713,-0.091905451,-0.265512139,0.027159478,-0.039810121,-0.045769880,-0.061823567,-0.117928724,-0.096006564,0.179387601,-0.227110079,0.051577013,-0.016921924,0.126935929,0.142662910,0.036301792,-0.240017930,-0.021987320,-0.064430167,0.066256492,-0.303928018,-0.106336696,0.115147796,0.277311947,-0.082665058,0.013315814,-0.025338364,
-0.125053866,-0.083265775,0.248476178,-0.000415357,0.042944787,0.150328256,0.090430382,0.070902575,-0.002321363,0.011487669,-0.170224803,-0.116906787,-0.038217192,-0.034139393,0.254354662,0.048264202,-0.053785105,-0.059304963,-0.185050099,-0.303730543,-0.255340074,0.017980784,0.298024370,-0.134622314,0.048644557,0.044341095,0.146132413,0.310431966,0.128235470,0.107918728,-0.013113994,-0.032119329,0.122222329,0.058929245,0.346100401,0.048536382,0.019862118,-0.339817816,-0.081799389,-0.113821291,-0.171591819,-0.072766220,-0.161382458,0.081806120,-0.046686555,-0.116674064,-0.087059923,-0.054235586,-0.031453460,0.037198720,
-0.210346065,-0.291069505,0.278749393,0.112556681,-0.097425009,-0.052080979,0.186742609,-0.164991456,-0.048205971,-0.053332156,0.228240720,-0.261411879,0.104821050,-0.111634682,0.080565446,0.052000830,-0.087729009,0.109978261,-0.115643921,-0.114569350,0.214898143,-0.109450781,-0.049284356,-0.249016976,-0.025649495,0.255295735,0.000724043,0.303023238,0.095175625,-0.120472407,0.060336088,-0.017461374,-0.267236626,0.013169434,0.051365097,0.140725803,-0.175258946,-0.172771690,-0.121263464,0.164721264,-0.214160112,-0.124389275,-0.061137602,0.087251052,-0.015398521,0.086118678,0.107031885,-0.060198146,0.094095827,0.057112457,
-0.006710418,0.241237591,-0.046720552,0.072390369,0.073186944,-0.190390380,-0.068386389,0.358495219,0.075447009,0.005057434,-0.159269966,0.062163434,0.001332676,-0.142216258,-0.090069732,0.021268950,0.024037422,0.133795456,0.410615672,0.069725300,0.169766018,-0.065273188,0.084858833,0.016922486,0.041134670,-0.224762572,0.080533417,0.182953434,-0.047696470,-0.027691004,0.030255588,-0.017775212,0.214826150,-0.138121034,0.061856237,0.038929803,0.146756027,-0.045889510,0.023383254,-0.183986914,-0.052975272,0.004188688,-0.027591705,-0.195363481,-0.105606967,-0.049224943,0.238283098,-0.042062105,-0.069506237,0.215388871,
0.038823931,-0.132481942,0.124737752,-0.162469156,-0.162183631,-0.073328007,0.137819252,-0.031420601,0.233690770,-0.018976454,-0.326235588,-0.031576285,0.030966131,-0.193146176,0.058208101,-0.206423817,-0.093877374,-0.167825998,0.179249845,-0.118270107,-0.110910536,0.130424287,-0.098842490,0.098819801,0.246464080,-0.091832695,0.015100104,0.016221517,-0.106272107,0.063340251,0.210877126,0.195260862,0.183819779,0.139241366,-0.155166593,-0.057796654,-0.101273084,0.037742169,0.121286566,-0.105097408,0.110853330,0.112998807,-0.045000258,0.142293200,-0.012451019,0.220878448,-0.084641174,-0.133313543,-0.022092497,-0.036012915,
-0.078287382,0.403465187,-0.145000796,-0.066181887,-0.002799262,0.014487184,0.059589123,0.201809260,-0.146558259,0.099209238,-0.133985562,-0.154742835,0.031673168,0.054641226,0.065908766,-0.146388272,0.073425639,0.082156340,0.040595080,0.017816188,-0.125976028,-0.231837463,-0.002161519,0.176314374,0.109581507,-0.071106621,-0.000759734,0.108347056,0.015682338,0.032221172,0.000055743,-0.122661067,-0.198055984,-0.220622623,0.025280633,-0.230124193,-0.105269958,-0.055646716,0.034663838,0.013390411,-0.171681449,-0.109597512,-0.127290421,-0.094463103,-0.211941489,0.061109247,0.063685661,0.055087549,0.134319276,-0.040497720,
-0.152669426,-0.143161197,0.136579228,-0.125382935,0.105291336,0.257966004,-0.079838849,-0.167319026,-0.080006686,0.017794536,0.177171896,0.149580429,0.267664182,-0.057149187,0.144766819,-0.079834449,-0.095661023,-0.021682276,-0.164134053,-0.008267652,-0.277351192,0.162992292,-0.027320598,-0.069373472,0.059457454,-0.153705413,-0.055159268,0.116519788,-0.060073115,-0.123418135,-0.105585327,0.104867320,-0.014556407,0.135386458,-0.062190584,0.026676685,-0.259264247,0.063733434,-0.284191517,-0.078428948,0.021824007,0.252839202,-0.147267441,-0.136929201,-0.144032971,-0.076761744,-0.019700068,0.257538249,0.071936356,-0.004393728,
-0.217101935,0.035026616,-0.156382604,0.151134808,-0.060838063,0.005650637,-0.045151886,0.124460694,0.368449483,0.124254014,0.071800643,0.131122543,0.073896067,-0.034525846,0.026647701,-0.124041071,-0.078003297,-0.097231159,0.104263325,0.357001741,0.074980680,-0.101802262,-0.205207107,0.057000443,0.111573773,0.234036420,0.208973701,0.242018585,-0.169039047,-0.111042680,-0.070500887,0.383093134,-0.168994660,0.187417611,0.040372042,0.002494484,-0.053072180,0.060913418,-0.040328954,-0.094818324,-0.000603906,0.060429816,-0.013956456,-0.055710570,-0.027013115,0.264635733,-0.165733203,0.060818664,-0.006661401,-0.130270566,
0.053497751,0.029057823,-0.315179843,0.064712365,0.040897391,0.110991470,-0.056458489,-0.070108045,-0.074903058,0.061568664,-0.138476412,-0.162172489,0.085259075,0.040328107,0.053412149,0.197560932,0.096067737,0.049741226,-0.183633878,-0.039364058,0.116049271,-0.243248285,-0.265342971,-0.100924421,-0.039476514,0.004441968,0.046806557,-0.005879580,-0.090755015,0.144173502,-0.020327506,0.097101814,0.014651225,0.126379789,-0.058063713,-0.103008344,-0.005586541,-0.126710406,-0.059621627,0.116846529,0.032914256,-0.061434160,0.163761379,0.025273240,0.022581291,0.079221605,-0.035797808,0.037439922,-0.087194728,0.101633925,
-0.157792976,0.209993969,-0.130625342,-0.126146786,-0.340187032,0.313902859,-0.006069260,0.171860716,0.034958898,0.351717393,-0.061173643,-0.038100347,0.014085118,-0.092900392,0.016448697,-0.142353479,0.183260935,-0.088900562,0.015316303,0.029956965,0.185587594,0.001098091,-0.032197639,-0.136685714,-0.304444923,-0.084554588,-0.049778771,0.024789008,-0.039849249,0.019448621,0.086273185,-0.330847225,0.068001851,0.171861401,-0.198653085,0.040377192,0.087106044,0.136876924,0.234871652,0.034707513,-0.025547511,0.114058839,-0.238581928,0.317856240,0.071075182,-0.102004296,-0.085517776,-0.073589200,0.075041183,-0.013482953,
-0.303599448,-0.028833196,0.012056305,0.004934974,0.023395810,0.035910329,-0.177088497,-0.064457605,-0.139599187,-0.046482868,0.026528416,0.026903897,-0.027058859,0.044960597,-0.004110348,-0.218695493,0.127812827,0.201622827,-0.026691194,-0.143983110,0.021964244,0.139335307,-0.151410944,-0.095645539,-0.040760708,-0.058129607,0.110892743,-0.166519744,0.002809648,0.058783359,0.137381218,0.149222480,0.530749780,-0.166059185,0.095726775,0.082326664,0.092428926,0.234687102,-0.150246210,0.035659641,-0.112835721,-0.040432834,0.261598298,0.036729429,-0.068146209,0.027533077,0.176443497,0.124110709,-0.189192823,-0.269933980,
0.032138569,-0.037292494,-0.285298096,-0.075460067,-0.098325852,-0.086889564,0.190295244,-0.056202275,0.130491854,-0.048833450,0.119989857,0.292917980,0.113481977,-0.123497983,-0.117589726,0.129166231,0.223880561,0.017604658,-0.242571194,-0.136786021,-0.021911638,-0.303433895,0.028783363,-0.047691352,-0.176799610,0.110288374,-0.083865853,0.020706846,0.086371186,-0.069044269,-0.096631168,-0.141157307,-0.114551032,0.098468659,0.086884372,0.096691419,0.112493182,0.234360100,0.046865698,-0.198071430,-0.067609206,-0.048119117,0.191829545,-0.014671209,0.283599260,-0.070928567,-0.190362260,-0.043067137,0.197657161,0.267743222,
0.283649070,0.028160420,0.009356371,0.022244444,0.035483534,0.168477801,-0.151875197,-0.099429012,0.232826497,0.152031848,0.112842463,0.032045464,-0.119823385,0.065703311,-0.038044451,0.033678871,-0.141259691,-0.083793360,-0.016337294,0.020701087,-0.148724003,0.119908419,0.009399244,0.107039523,0.089277801,-0.030453372,-0.056167639,0.057919867,0.195313178,-0.074098114,0.039379444,-0.075602138,-0.071688036,0.229501388,-0.165629733,0.057192149,-0.057476751,-0.240320443,-0.137344942,-0.305919768,0.075018429,0.057012173,-0.180011622,-0.168691270,0.196980873,-0.162530913,0.039666254,0.128132305,0.025428089,0.106802190,
-0.279277165,0.106423413,0.056938265,-0.001340037,0.028940711,-0.237716020,-0.053479469,0.201974413,0.190223107,-0.273700772,-0.247731056,0.002460739,-0.119717397,0.158499836,-0.042961840,0.078382591,-0.055730107,-0.175462459,0.123105609,-0.035178550,-0.187215646,0.012819932,0.133676945,0.042169680,0.045587202,-0.067970668,-0.055016317,-0.073533731,-0.228865538,0.129667546,0.020646599,-0.181617855,-0.288050571,-0.079088178,0.156352291,-0.055815684,-0.035734506,-0.088758200,0.099306283,-0.005398751,-0.129515728,-0.129036766,-0.005038809,-0.228716307,-0.336169055,0.101652893,-0.109417120,-0.165564633,0.052763410,0.135317023,
0.128752424,-0.165227654,0.344331686,0.013920835,0.110872547,-0.018376114,-0.107148692,-0.054699214,0.112820013,-0.053518717,-0.317181997,-0.186840050,-0.133723901,0.289011394,-0.166026941,0.208685013,0.078812050,-0.166472764,-0.130170413,-0.120979993,0.191460247,0.034164832,0.205633314,-0.114870535,-0.084587840,-0.177806639,-0.151534945,-0.165257081,0.172832637,0.203473862,-0.251280972,0.018393391,0.089723560,-0.207779182,0.143854760,-0.039609873,0.214041915,0.160244818,0.073277924,-0.295998372,0.144481050,-0.030821707,0.151546525,0.091619019,-0.121248471,0.039413817,0.069225047,0.027222307,0.101137847,-0.076119684,
-0.097796843,-0.411535665,-0.041054594,-0.102900384,0.029877858,-0.008762010,0.168120744,0.000659068,-0.047699878,-0.054921631,0.099998804,-0.130047266,-0.196470013,0.046143441,0.083033969,0.179486100,-0.003140080,-0.171884354,-0.051635891,-0.062338594,-0.138505008,0.153213173,-0.251675218,-0.132612214,-0.178215621,-0.217279160,0.066436625,0.014680172,0.056571288,-0.137005932,-0.023070690,0.028630928,-0.040366042,0.033646712,0.111808547,-0.119093521,-0.203757823,0.143433738,0.073307273,-0.119521756,-0.010029093,-0.004064508,-0.046100919,0.091414370,0.063521014,-0.013355499,-0.171405573,0.246156405,0.057334469,-0.013054436,
0.253611846,0.020434767,0.044458303,-0.097565681,0.071145101,0.267583135,0.116219421,-0.120834037,0.029849723,-0.189850547,-0.057135904,-0.064482728,0.070432254,-0.283675152,0.001843930,0.035205668,-0.382863473,0.004979139,-0.031692190,-0.160827526,-0.291676974,0.082223246,0.147863647,0.009311056,0.077862797,0.125957961,0.173902264,0.046125612,0.264054117,-0.009693567,0.055546193,-0.065393759,-0.018221971,0.257753493,0.152192027,-0.186833513,0.188753300,0.198084702,0.013191179,0.255441591,-0.042822920,0.069070360,-0.125642663,-0.175951060,-0.052420421,-0.167535037,-0.031092988,0.080323307,0.056402833,0.123200564,
-0.032087821,-0.228676352,-0.035682055,0.098285379,0.130408564,0.049950394,-0.057940824,-0.154889009,0.116107281,-0.126156457,-0.048283727,0.024292989,-0.306499495,0.094502523,0.194357317,-0.126093581,-0.024722623,-0.147301634,-0.295101528,-0.058635025,-0.008649185,-0.071715623,0.249493322,-0.035653370,-0.144022394,-0.149473765,0.161961569,-0.093467039,-0.183119964,-0.109432203,0.093859670,0.021440990,-0.048868316,0.028565238,0.022386909,0.153866632,-0.163641878,-0.183409383,-0.138040346,-0.050517770,0.259503547,0.105840324,-0.124373992,-0.143546010,-0.260507747,-0.062915743,0.121597552,0.086276027,0.204250234,0.303835346,
0.016329957,-0.052641360,-0.197997493,-0.180614752,0.093932798,-0.133219185,-0.031979163,-0.068891113,0.101015177,0.065884494,-0.148811501,0.000152762,0.086492467,0.094652368,0.059175818,-0.053292879,-0.068064107,-0.135217677,-0.146157035,-0.313613516,-0.088175158,0.149298740,-0.021411927,-0.233104838,-0.034028148,0.006054393,-0.008621137,0.009488996,0.052347829,0.187485212,-0.031772882,-0.113995964,-0.015085177,-0.159958693,0.093549912,0.233260965,0.081394954,-0.221719091,0.123149509,0.165849682,0.080303881,-0.078055808,0.081117427,-0.023580994,0.287132889,-0.253118367,0.111533281,-0.154840063,0.047983839,0.226210890,
0.167771030,0.048919032,-0.107589011,-0.070304991,0.070500567,0.093773006,-0.022152294,0.068587016,-0.005813541,0.011799059,0.025731604,0.197539986,-0.117903502,0.114482746,-0.216950131,0.155199514,-0.053332774,-0.069301296,-0.324498321,0.065529260,-0.073835867,-0.008276346,-0.053358857,-0.033757138,-0.051843500,-0.037524851,0.263143136,0.149766901,0.216013016,-0.049270374,0.057047524,0.100340011,0.253513633,-0.102010295,0.119764528,-0.063453522,-0.030056060,0.158327448,0.267023410,-0.122954718,0.164699865,0.049119024,-0.035783635,0.089870451,0.199941246,-0.021692225,0.029911620,-0.246400735,-0.113743343,0.057694871,
-0.148610233,0.082504766,-0.030052108,0.050245529,0.196508079,0.074296137,-0.009678824,-0.052824305,0.004720250,0.415082432,-0.237384447,-0.090038075,0.212591352,0.080080524,0.034606959,-0.268560412,0.186048837,-0.166744775,0.020559355,-0.078806458,-0.257516504,0.185463167,-0.109541825,-0.073601625,-0.065646919,0.204746721,-0.118476984,0.205541251,0.090501041,-0.189929082,-0.003688363,-0.090924453,0.024018523,0.112277371,0.024536355,-0.099692720,-0.202735655,0.038408282,0.202207028,-0.183827743,-0.111432620,-0.370108496,0.131242945,0.151381809,0.049099837,-0.099824493,0.123527244,-0.057098412,0.021328946,0.073891846,
-0.069649633,-0.009751349,-0.144188576,0.183269325,-0.107942239,-0.162434256,0.188782915,-0.121759317,0.055325227,-0.117161439,-0.060951599,-0.117913118,-0.238621942,0.068647746,-0.186467212,-0.102609874,-0.025729461,0.041455783,0.081982685,0.080591885,-0.126455177,0.182707198,-0.095579170,-0.055326318,0.105006753,0.076856528,0.033320957,0.158028704,0.100158516,0.046279090,0.098239913,0.096910474,0.224899942,-0.039690799,0.119706619,0.024053680,-0.106753414,-0.092943196,-0.108959874,-0.107799066,-0.040184566,0.114002742,-0.012562628,0.036968254,0.139161908,-0.296038347,-0.071479307,0.078123532,-0.071198934,0.349922210,
-0.049435456,-0.055194384,-0.027377508,-0.189009837,0.028797371,-0.194511221,-0.097284379,-0.008822566,0.195479422,-0.082265522,0.117687691,0.181397537,0.131757778,0.099605236,-0.061700833,0.191793732,0.245373014,-0.132131347,0.097147808,-0.438108679,-0.076700023,-0.159227803,0.164716685,-0.040988520,0.219382575,0.148575335,-0.038355884,-0.037208095,0.071797733,0.111967774,-0.034399032,0.150746269,0.192429787,-0.152880872,-0.202232913,-0.036286731,0.055674009,0.185970594,-0.137397602,0.040470893,0.049924337,-0.081977387,-0.007489800,-0.070396726,0.113635675,0.195954213,0.295812240,0.104752163,-0.029171180,-0.189210524,
-0.163979052,-0.069524852,0.064520350,0.205633107,-0.029117855,0.053824618,-0.188797854,-0.074425519,0.174505188,-0.258820358,0.025409783,-0.087941008,0.070325692,-0.017269132,-0.082204767,-0.113279741,0.139875983,0.246847043,0.030377197,-0.274057345,-0.266703039,-0.065176746,-0.019716919,0.200832800,-0.004711448,0.151957763,0.222002560,-0.230634206,-0.179928236,0.226300788,0.155009668,-0.117271102,-0.253701499,-0.093923067,0.060756529,-0.058740594,-0.152898981,0.085832758,-0.121163730,-0.060662003,-0.158921602,0.160500884,0.023560386,0.099640589,0.125002603,-0.205945907,0.219842158,-0.183066548,-0.256037656,-0.010248100,
0.220733214,0.027174406,-0.279966962,-0.056119882,0.182479075,-0.263100552,-0.059541062,0.026644885,-0.014337840,0.094427809,-0.215251992,0.189511775,0.022920715,0.184109881,-0.244822532,-0.153470699,0.094679888,-0.017898645,0.048508155,0.079967926,-0.154083501,-0.030180971,0.155902432,0.039370108,-0.106326545,0.333908231,0.214330891,-0.188869729,0.028595396,-0.057616267,-0.264103308,0.053612639,0.053176770,-0.223475776,-0.011838652,-0.100474478,0.016927566,-0.061742818,0.000502416,0.111453099,0.088723569,0.119403715,0.102660363,-0.128710693,-0.024709775,0.265912783,-0.167636203,0.075750977,0.073852904,-0.159738234,
-0.078311603,0.144469714,0.003207749,0.031723658,-0.006417871,0.011873143,0.086181543,0.219922242,0.108132099,-0.208886851,0.021009226,0.057184642,0.062619923,-0.264042156,-0.198322363,-0.021733013,0.084786364,0.042298723,-0.163557429,-0.180010815,-0.090988883,0.108421960,-0.185950367,0.117701917,0.016230184,-0.167485365,0.021444848,-0.076900823,-0.167299636,0.104692587,0.058563234,-0.118385851,0.137868216,0.204223587,-0.057775526,0.409489946,0.215882446,-0.095044110,-0.188705770,0.147611119,0.018621622,-0.166169108,-0.048611939,0.022940515,0.029810070,0.390313002,0.214930461,0.035842652,-0.304921905,0.143294732,
-0.242607243,-0.113847819,0.108679206,-0.206970233,-0.025740387,-0.044601175,0.068436580,-0.321700667,-0.081198639,-0.170522537,0.053326653,0.129982431,0.070266792,-0.115996206,0.053904391,0.072868400,-0.090138025,-0.025187611,0.119406722,0.037554188,0.060072867,0.055746066,-0.160022579,-0.048189228,0.080808497,-0.096039061,0.006457606,-0.179239698,0.043611996,0.153851068,-0.080542991,0.196524633,0.121979734,0.371822776,0.122001118,0.051240167,-0.080809660,0.091351802,-0.211681559,-0.243685518,0.086372246,0.058233482,0.087498595,0.098679072,-0.213025347,-0.028548872,-0.137270781,-0.208581907,-0.136888879,0.026740075,
-0.044883344,
-0.292346939,
0.130848636,
-0.183571442,
0.062923353,
-0.219309795,
-0.216271003,
0.083677286,
-0.085671089,
-0.063417788,
0.169362401,
-0.213103559,
-0.273209447,
0.229562877,
0.244766250,
-0.082388596,
0.099537295,
-0.023514566,
-0.275229314,
-0.036186912,
-0.183316537,
-0.054893473,
0.083567298,
0.030922696,
-0.046132732,
0.222527177,
-0.230165239,
0.099578344,
0.036143221,
-0.098854316,
0.164140006,
0.097893537,
-0.129463624,
0.010891399,
-0.014309821,
-0.098323519,
0.049372115,
0.092168155,
0.163037146,
0.015557823,
-0.025517565,
-0.320733064,
0.126848194,
-0.112283071,
0.233555774,
0.022438049,
0.041032735,
0.138251325,
0.000770318,
0.074648981,
-0.100355873,-0.185891926,0.121328160,-0.169832748,0.205766269,0.172616460,-0.186742543,0.109114426,0.017561100,0.116008280,0.170365820,-0.085516118,0.118048193,-0.279494784,-0.028454496,0.069058992,0.049925231,0.167552464,0.093706586,-0.029218541,0.200170375,-0.183599375,0.062835995,0.197740805,-0.082310775,0.078147353,-0.111861376,0.105827820,-0.125229252,0.015669984,-0.050190157,-0.033183355,0.094232734,0.019038518,0.138392689,0.108291890,-0.115773152,0.106929606,0.046671647,-0.140217484,-0.016004317,0.190093790,0.125160073,-0.232523955,-0.151928398,-0.028117028,0.044360973,0.046180887,0.001118663,-0.207953910,
0.120449494,-0.076421408,0.022775701,-0.121336180,-0.220772902,-0.092470393,-0.072386178,0.002081261,0.062388959,-0.003251717,0.011155957,0.012441868,-0.090062186,-0.212195519,-0.422202762,-0.066891842,-0.029018331,-0.038113347,0.173290772,-0.257553028,-0.088383665,0.040271087,0.141665503,0.006738737,0.207912117,0.129148446,0.003632003,-0.224399351,0.003589459,-0.085085341,-0.039995761,0.216726469,-0.012559846,0.160981134,-0.006692701,-0.278362905,0.025859979,-0.091491679,-0.037675324,-0.077038292,0.079165110,0.112072360,0.081514148,0.156672461,-0.122524645,-0.044750020,0.034789136,-0.066902211,-0.138766522,-0.044880188,
0.256701852,0.074331374,-0.065888775,0.014461253,0.307705326,0.042053842,-0.000861757,-0.151214059,0.204497248,-0.010445705,-0.003178263,0.314392880,0.148372454,0.115351747,0.137744901,0.135503992,0.381622445,-0.030357954,0.146000772,0.085684928,0.104065510,0.172058192,0.138490337,0.116519624,0.088333364,-0.114133444,-0.089204219,0.020365327,0.068438679,0.176960008,0.191183213,0.100841375,0.030560212,-0.205342361,-0.042293707,0.110606018,0.208281964,0.095027953,-0.025791479,0.125023160,-0.172521721,-0.134867338,0.249455486,-0.059375710,0.172718522,0.008275453,0.170750939,0.228013831,0.051122129,0.169015539,
-0.049877578,-0.050723724,-0.332677117,-0.185317057,-0.010686545,-0.183019366,0.010474311,0.071710101,0.067074638,-0.161436945,0.344731316,0.062154819,0.196818908,0.020185669,0.066519568,-0.117497923,0.002153581,-0.113939985,0.355942807,0.078320779,0.102603470,-0.265225703,-0.055859666,0.016549844,-0.131335026,0.197493873,-0.231717132,0.070014909,0.019712210,-0.142832928,0.051172937,-0.200533489,-0.206925619,-0.028394048,-0.002006387,-0.176536655,-0.158816886,0.014426270,0.056730903,-0.107287250,-0.309180903,-0.082247205,0.190843050,-0.090385370,-0.082951611,-0.070573370,0.311640700,-0.043260018,0.209134465,-0.250517120,
-0.392122731,0.180057999,0.112425470,-0.163196332,0.037158257,0.233432428,-0.072500594,0.018367167,-0.191073061,0.019564308,0.018373693,-0.057934917,0.132054203,0.017562826,-0.152978638,0.103473952,0.245668548,-0.139339417,-0.069887540,-0.039867923,0.314537752,-0.006683816,0.153985947,-0.027781949,0.218155355,-0.130127853,0.009360921,0.040100979,0.161463900,0.088593120,-0.087589824,-0.080125844,-0.011105025,-0.117703845,0.084859618,-0.109871059,0.027649029,0.319775192,-0.171335819,0.162180862,-0.305086264,-0.151666914,-0.340664550,-0.187514593,-0.218853199,0.094705211,0.012503295,-0.036721664,0.142119090,0.086604693,
0.105243481,-0.008432285,0.057745463,-0.111875034,0.039107838,-0.098201628,-0.107031742,-0.065393994,-0.100083912,0.237544407,-0.195964555,-0.106026334,0.163020715,-0.145357316,0.039395822,-0.017821111,0.084372686,-0.004590807,-0.103813486,0.242706663,-0.062880997,0.215032438,0.029259749,0.075783218,-0.076261434,-0.034137545,-0.149199498,0.154366413,-0.237899219,0.172493713,0.065415514,0.033814179,-0.046011694,-0.104335849,0.123164409,0.005673875,0.195628809,0.248940337,-0.167804573,-0.027730975,-0.193211817,-0.086838107,-0.079841963,-0.115408738,-0.006273084,-0.131271256,-0.175790891,-0.113017214,-0.149799428,-0.134837333,
0.233078433,0.040203641,0.135211437,-0.163302502,0.151453227,0.067200449,-0.267520057,-0.086284344,0.181799422,0.005528127,0.019974270,-0.035482091,0.005886670,0.028310197,0.130376343,-0.053541882,-0.051473771,-0.153134850,-0.253039291,0.323228048,0.006948378,-0.031870675,0.177544196,0.061399160,0.084647568,-0.234476140,0.071926253,0.080445270,-0.048676644,0.013317509,-0.061809956,-0.207755293,-0.202162711,-0.227279628,-0.000711248,-0.160770422,-0.179976727,0.173329831,-0.295521206,-0.054237607,0.178224228,0.134672830,-0.062119118,-0.216480044,-0.044822906,0.037729775,-0.158228550,0.150956833,0.028274251,-0.051136754,
0.051527803,0.001278825,0.235272657,-0.328085920,-0.179507442,0.091188259,0.083567671,-0.183370821,-0.028169616,0.113768469,0.074036256,0.021109136,0.039235901,0.054054581,0.210999082,0.413439741,-0.071754725,-0.146298983,0.126045508,-0.049485084,0.049900321,-0.058785306,-0.208198923,0.005021509,0.062691884,0.036974189,-0.205617142,0.213790361,-0.158128785,0.118839024,-0.125352327,0.014718430,-0.074666087,-0.173635035,-0.213542100,0.055052844,-0.383139475,-0.254688395,-0.106384160,-0.151380222,0.100581811,0.166007878,0.123768079,-0.115773959,0.186123062,-0.049561259,-0.141210295,-0.007304548,-0.168979548,-0.167231059,
0.090687222,0.227562054,0.235734019,0.146811377,-0.007855091,-0.021535931,-0.296576173,0.240502823,-0.022652584,-0.179001049,-0.171695369,-0.115656786,-0.171988500,-0.180089650,-0.284571081,0.019975245,-0.000513853,-0.037005094,-0.013412317,-0.089665972,-0.092756697,0.133827651,-0.092443613,-0.453861112,0.051279783,-0.055219891,0.060508070,-0.062569122,0.168351853,-0.215422383,-0.011589271,0.112699854,0.080458105,-0.078773828,0.290246812,-0.066139698,0.122352733,-0.125974307,0.127479996,0.256949533,0.087715094,-0.009514063,-0.159978683,0.132965909,0.074555950,-0.092271607,0.067343542,0.129128625,0.121546379,0.166769948,
0.098865660,-0.097564638,-0.078152976,-0.091917470,0.149489339,-0.106851190,0.206837581,0.076020566,-0.003377942,-0.066943519,0.189971007,0.078447415,-0.172562211,-0.174095371,0.058453935,-0.012562776,0.008380563,-0.094880210,0.421619086,0.182736085,-0.127616658,-0.078425411,0.133936121,0.058362733,0.101157770,0.061664938,0.138835275,0.179903004,-0.060792488,-0.016828096,-0.161475192,-0.146574021,-0.126383904,0.061515753,0.059087450,0.155053589,0.145575697,-0.066175912,-0.096868465,0.054765513,0.134559484,0.215850009,-0.041799296,-0.210880129,-0.042529765,0.056286610,-0.009906611,0.113862484,-0.054928319,0.214742823,
-0.031780330,0.150787984,0.075741104,-0.221817344,0.026165883,-0.079593089,0.224759947,-0.244154476,0.052611820,0.148911951,-0.022052913,-0.087540305,-0.057397159,0.111333280,-0.166594196,-0.031237699,0.189630566,0.083467586,-0.087496867,-0.250409957,0.091035600,0.012345392,-0.132700143,0.008600241,0.238601616,-0.017133360,0.110981732,0.118981846,-0.174765928,-0.031458207,-0.191416320,-0.089646952,0.141744244,-0.278550446,-0.016903460,-0.276262264,0.080785371,0.187358051,0.144341935,-0.105090489,0.132307896,0.045492893,0.112651023,0.085509223,-0.093505479,0.152810684,-0.286099319,0.136372152,-0.206383625,-0.079286931,
0.180730937,0.116774037,0.036948553,0.113591923,-0.002600656,0.260149480,0.144754113,-0.121950258,0.094145708,0.212718386,-0.002915918,0.110425139,0.010695528,-0.035702331,-0.049670179,0.110130917,-0.005460914,0.101659117,0.032728287,0.191863576,0.155666202,-0.041100704,0.063744721,0.264827430,0.286983122,-0.059815391,-0.111505890,-0.103145508,-0.154185984,0.155128772,-0.207938130,0.041947285,-0.106664938,0.010273125,0.120861992,0.031637021,-0.172151584,0.034613371,-0.077212394,-0.123299568,-0.008671980,0.000302882,0.009927294,-0.092581494,-0.157411575,0.193526722,0.055347764,0.173885105,0.157448318,-0.065949184,
0.046155102,-0.110227007,-0.068503180,0.071939484,0.059267524,-0.160868353,0.100781026,0.193583177,-0.027354418,-0.044171450,-0.301606542,-0.094039673,-0.152315083,-0.097120625,-0.034199326,0.008042944,0.059550283,0.008865527,-0.062731745,-0.189461308,-0.303065542,0.219498664,-0.298741524,-0.153533628,-0.217472879,-0.129035817,0.070822606,-0.015224916,-0.067030743,0.113720295,0.236236712,-0.123445952,-0.083717958,0.034443621,-0.003248014,0.157640204,0.263219170,0.008292290,-0.089509743,0.062194904,0.139145329,-0.047456358,-0.297696301,-0.106075507,0.119360211,-0.148533966,0.026222475,0.001590808,-0.153580968,0.257449606,
-0.158798691,-0.083303669,0.120340022,0.140178055,0.020683261,0.265933734,-0.082808744,0.060514728,-0.069263163,-0.046190565,-0.070728856,0.183381061,-0.039872746,0.213784983,-0.261146388,-0.016703900,-0.065049871,0.010480292,-0.073791115,-0.067412322,-0.149863922,0.105309696,0.139667705,-0.147717493,-0.241770357,0.065310490,0.143173749,-0.107255164,-0.082550783,0.203489158,0.162512869,-0.048801153,-0.152546099,-0.061883066,0.319677991,-0.166417409,0.040559393,-0.065136487,-0.100800694,0.190093945,0.038725024,0.005321877,-0.115954710,0.241783295,-0.033645537,0.023353869,0.073361408,0.172569149,-0.075016828,-0.047529031,
-0.045048655,-0.301540280,0.037096173,0.012083409,-0.087111725,-0.129362919,0.138741744,0.151224131,-0.212568781,-0.203305776,-0.201982965,0.098150929,0.232502026,0.022347715,-0.094807364,-0.082008952,0.063652371,-0.167625485,0.092825745,0.053195428,0.001628346,0.121843133,-0.035549392,-0.229623292,-0.136528582,-0.141430311,0.236825711,-0.039442740,-0.027882004,0.103363839,0.323829978,0.088544145,-0.027053813,0.090639100,-0.038010112,-0.179735112,-0.066044929,0.248738533,0.162068920,-0.035539653,-0.235487294,0.148796171,0.326166063,0.128939737,-0.037133524,-0.016708763,0.107000341,-0.074861943,-0.012971981,-0.093004707,
-0.067725481,0.082104881,-0.269479284,0.033082318,-0.235997422,-0.047399477,0.302349473,-0.250160511,0.056476881,-0.242062753,-0.241628337,-0.069817415,0.049711678,0.108054568,0.077410459,-0.075163713,0.064047755,0.006799387,-0.116748718,0.298781426,-0.038220259,0.206254302,-0.029105927,0.095238231,0.090382156,-0.086133756,-0.110518590,0.243185781,-0.209086903,0.172366421,-0.029944450,0.209357137,0.082751767,-0.239970283,-0.225207508,0.130204255,-0.064784800,0.127355858,-0.104672082,0.044025862,-0.152623911,-0.223920217,-0.057073378,0.045435284,0.064458533,-0.360011580,-0.345509669,0.145412747,-0.027522191,-0.079945574,
0.276285458,0.152712253,0.303817294,0.093422850,0.026725699,-0.185295312,0.080518695,0.048726608,0.008661853,0.135919550,0.274924413,-0.111331946,-0.142314859,-0.058044518,-0.206563080,-0.102755173,-0.272776572,-0.044519198,-0.047604402,0.083393025,0.103535498,-0.054102263,0.124248616,0.189354673,-0.198449086,-0.183192748,-0.351390149,0.053509165,-0.253659974,-0.184452973,0.062646769,-0.080675897,-0.050362337,0.102113164,-0.030886052,-0.026261943,-0.020405725,-0.023082628,-0.098041126,-0.069555374,-0.001849859,0.124785975,0.121320254,-0.178898860,-0.218637824,-0.227424046,-0.115854514,0.024895366,-0.080448904,0.083254110,
0.078861101,0.064911587,0.114551747,-0.061443537,-0.075092022,0.032506253,0.020062291,0.091187206,-0.030950741,0.098644501,-0.073682860,-0.015520456,0.013631067,-0.062894152,0.308412492,-0.190815268,-0.162525606,0.007486694,-0.013532044,0.067523054,-0.064419083,0.112335490,-0.210571252,-0.188986966,0.343935111,0.011945228,-0.029318964,0.253144331,0.018989593,0.040990634,-0.104450008,-0.206860740,0.073800832,0.243633970,0.033707530,-0.018559512,-0.090854013,-0.251808225,-0.159330951,-0.069823998,0.235296944,0.063936153,-0.042949273,0.173618345,-0.153145192,-0.136613410,0.095012462,0.127574934,-0.152558510,0.054121740,
0.027287192,-0.006032046,0.013987474,-0.355925604,-0.016347383,0.172633097,-0.032542759,-0.057239987,0.070747175,-0.036745196,-0.137035234,0.113370427,0.056539891,0.077690715,-0.155236826,0.049190086,-0.163828131,-0.116676205,-0.029122810,0.263233719,-0.117630784,-0.352141311,-0.302445673,-0.058242717,-0.137412016,-0.005279623,0.047429897,0.053520903,-0.096780615,0.095169003,-0.018715156,0.329529296,-0.003772488,0.368920783,-0.020766767,0.057490818,0.086336920,0.010896823,-0.088485292,-0.031647027,0.179873491,-0.070309257,0.119784167,-0.025608764,0.056496824,0.131805105,0.061352762,0.030665787,0.260613408,-0.199685955,
-0.044990918,0.193841231,-0.066443038,-0.021746059,0.075562304,-0.203979455,-0.059502949,-0.138192413,-0.131026016,-0.057777726,-0.066488491,0.037231677,0.073292472,-0.100585587,0.027532045,0.046327184,-0.134877658,0.045115930,-0.126397956,-0.201994971,0.000870530,0.002592726,0.096547791,0.177978803,-0.048366902,-0.380379988,0.052098275,-0.147197155,-0.198397124,-0.214063824,0.001388255,0.268186732,0.044843078,-0.072877493,0.161053409,-0.045572197,0.131992442,0.209559796,-0.018863500,0.119820315,0.070824117,0.153712415,-0.124024842,0.142816708,-0.163386077,0.154822061,0.070121832,-0.096379466,0.075780510,0.048560565,
0.031089069,0.104203594,0.120853278,-0.020179328,0.179626015,0.037931347,-0.280870243,0.023045948,0.032945270,-0.172898618,0.122354803,-0.043119613,-0.146466701,-0.210559915,0.216020206,-0.040300439,0.408758469,0.038463899,-0.203902709,0.120394065,0.128675995,0.130118690,0.090868845,-0.067669481,-0.265753149,-0.189880011,0.006361276,0.345708998,0.089172218,-0.009014239,-0.008627526,0.056211133,0.229458143,0.262591909,0.140365999,0.022017334,0.071705648,0.059596483,-0.123001155,0.128362436,-0.029049116,-0.039572415,-0.017713117,0.042554555,0.008813606,-0.288151150,0.126659285,0.062321782,0.126251674,0.182331572,
0.043247513,-0.318604025,0.099895073,-0.086630715,-0.046339826,-0.064266533,0.175575925,-0.143638307,0.169794706,0.175409598,-0.061580247,-0.097805395,0.072322863,-0.058154355,-0.090815689,0.069141499,-0.135321081,-0.054080676,0.090367115,-0.092635575,0.173816472,0.105507787,0.174817168,-0.071606296,-0.096020148,0.175038714,0.012253956,0.106377572,0.264331608,0.129623239,-0.189113566,0.102836570,-0.026989049,0.018164845,0.292161515,-0.202403161,0.078312258,0.170639156,0.189785826,0.107138123,0.180413588,0.131863734,0.090311013,-0.191605399,-0.159447009,-0.050461164,0.021699358,0.040016024,0.088734284,0.225846162,
-0.053665920,0.029444410,-0.070713224,-0.054823880,0.020206098,0.139041579,-0.039331832,0.071131444,0.056107727,-0.047177441,-0.054094102,0.098179155,-0.050703052,0.126155081,0.060367597,-0.059391622,0.125996341,0.180438929,0.195316429,0.135842396,-0.088368951,-0.072499426,0.101465812,-0.072057579,0.261158103,-0.224744954,-0.038719302,-0.006669206,0.237399127,0.239876484,0.089949396,0.035035489,-0.221841199,-0.223968549,0.271387170,-0.119905418,0.165158147,-0.151889710,0.080055244,-0.210101775,-0.149127546,0.043173161,0.130233161,0.071225346,0.062752755,-0.032886823,0.101440559,0.008753234,-0.129750943,-0.019182474,
-0.207868649,-0.006629150,-0.003177421,-0.252357974,-0.037139118,-0.284351382,0.183446679,-0.131208894,0.023550429,0.043842487,0.278365998,0.337603886,-0.122448184,-0.197005463,-0.035467239,-0.007946702,-0.234509923,-0.088384590,0.003059191,0.059124499,0.149761449,0.033450820,0.333344069,-0.014939820,0.113920643,0.032458868,-0.114702792,-0.037588911,-0.017329331,0.259025354,-0.018297705,0.098597055,0.204663287,-0.032982250,0.167098743,-0.154851583,0.059712104,-0.038435849,0.183405932,0.009553905,-0.031940719,-0.017627953,0.039260199,0.043470138,-0.157087444,0.144710287,-0.405777971,-0.081469720,0.087407873,0.008800248,
0.209789498,-0.030146368,-0.031787896,-0.094340111,-0.076241622,0.105057594,0.150443966,-0.269545019,-0.048553577,0.076022347,-0.159613752,-0.149169610,0.132232793,0.181999832,-0.007180087,0.063815249,0.059302532,0.094634069,0.324100375,-0.047795359,-0.097651944,-0.210475949,0.148298488,-0.194822661,0.086785275,0.271902718,-0.110076292,-0.130105379,0.040026617,-0.298707065,0.113081791,0.034848667,0.018085081,-0.151953966,-0.058909093,0.059612057,-0.045309461,-0.082740294,0.059402013,0.098819209,0.334210998,-0.132153934,-0.022241682,0.115170644,0.114964071,0.023914770,0.150310522,-0.011503930,-0.096173079,0.180754151,
-0.183900926,0.070166922,0.006185158,-0.063018017,-0.335980297,-0.104472377,-0.030341575,-0.038966404,-0.021735102,-0.135101915,0.101073194,-0.033383278,0.039246235,0.077445957,-0.179867563,-0.100794021,-0.270141812,0.041206897,0.076554676,-0.122543074,0.118478506,-0.283262760,-0.204364896,0.123695601,-0.087953960,-0.030109614,0.116704047,-0.052401805,-0.026714603,0.005608577,-0.330755924,-0.002282397,-0.369982489,0.136418003,-0.187505384,0.113295441,0.194599718,0.088678193,-0.127061353,0.084406040,0.077954087,0.136134928,0.055171485,0.467591654,-0.121838288,-0.042624100,0.081254652,-0.041201775,0.106613120,0.076987406,
-0.014191774,-0.204721789,0.059931754,-0.248878394,0.008474088,0.121027536,-0.228146705,-0.004666546,0.101768172,-0.015067757,-0.228974402,-0.220679788,-0.242634471,-0.285184020,0.060521692,0.083082490,-0.023230087,-0.257863189,-0.244088855,0.322143009,-0.328853759,0.137993128,-0.154262223,0.161055840,-0.015229832,-0.125249912,0.172860734,0.300208752,-0.001911985,0.045335225,-0.088369769,0.118947928,0.080608104,0.212083530,0.038527262,-0.006858453,0.007923292,-0.148223172,0.157397021,0.102552017,-0.183931644,-0.005276493,0.006261944,0.223662631,-0.064028257,0.088563464,0.089742783,-0.060956161,-0.042010001,-0.084000317,
0.306928228,-0.157955567,0.020827202,0.064982539,-0.069003763,-0.200641648,-0.131253362,0.016992013,-0.174896338,-0.296175013,-0.033392868,0.080862205,-0.084993003,0.209137814,-0.067700962,0.255303394,0.067789058,-0.127488614,0.062582380,0.100882620,-0.099359755,0.189570440,-0.339915214,-0.100360105,0.050230200,-0.124822733,0.199131690,-0.091344922,-0.092229924,-0.255762125,0.032713291,0.037287543,0.098928731,0.307082398,0.097258662,-0.106551432,0.070778459,-0.207592704,0.018411917,0.009524351,0.106902553,0.173385980,0.043562427,0.193640594,-0.008316681,0.086189334,-0.141197078,0.189642357,-0.023889566,0.202201815,
0.186674859,0.054911735,-0.342316115,-0.006080465,0.131852537,-0.276078658,-0.195130430,0.040792616,0.154815188,-0.061525732,-0.212363238,-0.106588192,-0.023170709,-0.213652894,0.181212961,0.085814161,-0.023624556,0.130082639,-0.050077183,0.073112730,0.010606156,0.012230931,0.168307783,0.378925289,-0.221108049,-0.137962463,-0.019642133,-0.250164228,-0.163723545,0.068133413,-0.011355929,0.089976761,-0.133417727,0.181044140,-0.032878282,-0.367897238,-0.213473526,0.229326334,-0.147719516,-0.028960842,0.119492119,0.381141300,-0.396841047,-0.188303932,0.112376568,0.132397941,0.123875489,-0.326791747,-0.091655501,-0.049878456,
0.057435467,-0.168984124,0.255632232,0.214933139,0.040924890,-0.012273491,-0.206826598,-0.165296919,-0.049518152,0.239925999,0.013111339,0.065910846,-0.010366018,0.164827925,0.117619978,-0.018786002,0.090721939,0.028134574,-0.009614096,-0.017598166,0.061691515,0.190724387,0.054257105,-0.071580445,0.210259169,0.063262571,-0.067042236,0.069578674,-0.128492164,0.112705230,0.019633459,0.125665733,0.026751295,0.069852250,-0.029037291,-0.022724163,-0.026910768,0.021424042,-0.055510890,0.086757483,0.152290247,0.174674923,-0.235422654,0.212650746,0.037979820,-0.188657418,-0.143180500,-0.126679187,-0.140203750,0.122297800,
0.064854502,-0.236164625,0.108140107,0.032484059,-0.021845521,0.207829248,-0.021987315,-0.117844881,-0.117543852,-0.030153541,0.076089688,0.235305973,-0.026415356,-0.039766740,-0.087262825,0.051383603,0.127644964,-0.117713059,0.049620483,0.051616317,0.205058014,-0.056194583,-0.024479998,-0.109706413,-0.069779248,0.108847111,0.175545474,-0.009927079,0.026280678,-0.065342674,-0.068322643,-0.152459537,0.165610033,-0.096863277,0.089519453,0.203902432,0.016267246,0.050876019,0.048429192,-0.000344755,0.164975064,0.049271020,0.264765053,0.161225460,0.083930770,-0.201927901,0.157443859,0.077561727,-0.013382049,0.036042052,
-0.078873270,0.419550414,0.124382350,-0.169423090,-0.176384585,-0.048989055,-0.177824522,-0.224797842,-0.107583168,0.187734092,-0.038443853,-0.313050812,-0.011423627,0.012978062,0.010310709,0.123660925,-0.077327867,-0.355875718,-0.063101271,-0.044350960,-0.025852261,0.279868903,0.132398181,0.066320619,-0.170200787,0.162796538,-0.137515689,-0.008799291,0.087258350,0.038171323,0.228956840,-0.033275075,0.002039256,0.097907297,0.211569653,-0.236817970,0.161878394,0.112061018,0.175432823,-0.030351079,-0.069763995,-0.095888410,-0.008189649,0.137943067,-0.070192644,-0.201517909,0.030493116,-0.293448699,0.318437335,-0.218987699,
-0.010263808,-0.170500103,-0.033312640,-0.017990118,-0.199117077,-0.069991685,0.047861914,-0.065117692,0.119956892,-0.130435789,0.096962725,-0.080999580,0.002829400,0.173586062,-0.002303940,-0.077228894,0.034023220,0.019210722,-0.195930764,-0.412423537,0.134780902,-0.013354979,-0.048619400,-0.023216971,-0.198886570,-0.028967111,0.195195764,-0.113807501,-0.171501551,0.012574492,-0.184111636,-0.006580085,0.091976001,0.247506835,0.053758270,0.065655445,0.015903593,0.280734088,0.028361948,-0.053127219,0.090323780,-0.138997974,0.054305571,0.166192900,0.028548062,0.050852719,-0.099733469,0.033833610,0.091285895,0.117710996,
0.214805652,-0.154327725,-0.221852418,-0.036703417,-0.209880432,0.177207005,-0.184651767,-0.076453240,0.091191674,0.317132783,-0.009693813,-0.052727739,0.092927292,-0.333262130,-0.126588138,0.030190814,0.036695435,0.080758181,-0.103636150,-0.058087330,-0.032166644,0.092853047,0.037617342,0.052897938,-0.018751746,-0.234938995,-0.067208340,-0.029543996,-0.005025328,0.321338117,-0.187622512,-0.116046396,0.129275548,0.047951819,0.168197221,-0.134985530,0.177933604,-0.228682241,0.031889043,0.044602460,-0.149981372,0.136687375,0.131925972,-0.265499195,-0.106403418,0.148230401,0.204574048,-0.122822670,0.036850526,0.016753050,
-0.257717930,-0.186014821,-0.145800392,-0.320582022,0.041025797,0.075476477,0.149134351,-0.126060946,-0.160303317,-0.069013614,-0.172324341,0.375011766,-0.042921670,-0.096486948,0.024105836,-0.097883812,-0.194264544,0.099068996,0.044157452,-0.079683683,-0.086637304,-0.030206823,-0.058715842,0.206056403,0.105888372,0.062798709,0.029550226,0.013750859,-0.068606568,-0.367547265,0.066969766,-0.025763282,0.139520791,0.170179755,-0.009739834,0.052228884,-0.203755104,0.491507288,0.253487564,0.096121812,0.034188911,0.007261724,-0.159585331,0.015094915,0.161971334,0.083046608,0.093515772,0.066825194,0.049294562,0.221636275,
-0.096279587,-0.039978480,0.024331564,-0.122748817,0.103773564,-0.187689751,0.022802988,0.322753499,0.004886673,-0.179972322,-0.173176333,-0.019869167,0.055563823,0.102105449,0.121095812,-0.248338799,-0.148483712,0.077692675,-0.149125727,-0.162172606,0.042032354,-0.183066444,0.036058051,-0.075572967,-0.055634949,-0.197377937,0.052721521,-0.169227842,-0.044304673,-0.303169085,-0.095960657,0.282928772,0.061824878,-0.204923111,-0.350395221,0.076773511,-0.232760122,-0.288952408,0.058819206,-0.191613145,0.011687301,0.002217911,-0.017833423,0.125962584,0.112793869,-0.068534443,-0.121430761,-0.167143324,0.007784877,0.138428579,
0.002571969,-0.093740508,0.071876616,-0.080745820,-0.026046873,0.018719986,-0.111720633,0.039702893,0.054535574,0.033349062,0.108464470,0.056289666,0.155808158,0.023414991,0.046728666,0.308115833,0.270512051,-0.024549746,-0.174399914,-0.033317400,0.048182138,0.070061861,-0.012762662,0.168945600,-0.042950858,0.048070973,-0.198903230,-0.080519855,-0.020778563,0.437009807,0.280717831,0.088321715,-0.011192322,0.049961718,0.016483420,-0.145206998,0.247910165,0.019829570,0.080766334,-0.149191741,0.037921456,0.361248273,0.134393318,-0.010648557,-0.248991613,-0.141549577,0.534871589,0.113744321,-0.185713094,0.087125155,
0.157182648,-0.051220860,-0.048671946,-0.074802623,0.065513484,-0.138264213,0.071731547,-0.022486574,-0.123250449,-0.019540981,0.007730252,-0.058520923,0.039668928,0.110960601,0.054980763,-0.144281828,0.080444441,-0.035360112,0.213051703,-0.152292968,-0.168874215,-0.186259248,0.138945390,0.189296056,-0.040784880,0.101237144,-0.342138198,0.084015333,0.198509157,0.039339984,0.072825767,0.380277866,0.044328900,-0.078628256,0.040579933,-0.179107621,-0.158689381,0.238129973,0.039704153,0.064025734,-0.015439135,-0.107135475,0.092852650,-0.009261439,0.039250844,0.060507009,0.326025643,-0.137419751,-0.265156597,-0.007531361,
-0.138166170,-0.021528376,0.118437457,-0.394924340,0.058585090,0.096732736,0.014670066,0.161391463,-0.027236793,0.201152851,-0.125925596,-0.080981933,-0.070066767,0.097907642,0.128112472,0.202570079,-0.065642700,0.075162269,-0.259546195,-0.053581573,-0.055911206,-0.056258134,0.023524371,-0.054694914,-0.201166898,-0.070377536,0.020923524,-0.193969480,0.110055294,-0.063500374,-0.396737765,-0.219059312,-0.061445270,-0.029766927,-0.167147859,-0.042064321,0.060343441,0.082487569,0.012344153,0.091607251,-0.059574501,0.065505339,-0.001210033,0.196872234,0.082201949,-0.106068354,-0.085464242,-0.094678104,-0.159668615,0.232387865,
-0.312299233,-0.055762183,0.113705284,-0.298218373,0.118821593,0.223124136,-0.010115143,0.130803260,0.190857591,-0.048369288,0.096705619,0.040155836,-0.115558155,-0.278153329,-0.161329731,-0.018451781,0.315579196,0.351597980,-0.256432686,0.056787727,0.247005912,0.144221564,-0.091263678,0.188829107,0.267972647,0.116404851,0.058320405,-0.001127873,0.100568609,-0.270062577,-0.027962368,-0.016907610,0.029298275,0.216804194,0.331064222,-0.356305742,-0.087642762,0.048796277,0.202629528,0.128638289,0.002460294,0.104818581,0.012569531,0.022786660,0.088657117,-0.059004280,-0.210726137,0.036885904,-0.023987449,-0.143042730,
0.042675701,-0.393248214,0.147287069,-0.104756141,0.065366544,0.144872759,-0.189435784,0.025096853,0.142122665,0.147556669,0.331530885,0.204597132,0.119733216,0.259304059,-0.294845258,-0.079169631,0.102963548,-0.040749660,0.159365809,0.099880464,-0.123516514,0.066897202,-0.056925675,-0.206411811,-0.075985503,-0.069458388,-0.196850942,-0.352705055,-0.104066241,0.179863686,-0.245051765,0.092624745,-0.318401683,0.102474322,-0.079953299,0.055978531,-0.160724588,0.211681263,-0.026792221,-0.281172897,-0.234152898,-0.173618536,-0.060607866,-0.078650517,-0.315310751,0.016711555,0.169980103,-0.255097198,-0.298229240,0.237185341,
-0.155132000,-0.085602199,0.027974337,0.094246439,-0.205799583,0.113246337,0.039855434,0.009134182,0.062561956,0.015130561,0.118783217,0.143189336,0.029303320,-0.096744083,0.046615559,0.011379762,0.189952097,0.011732983,0.146972388,0.068216666,0.059585808,0.255260097,0.130245842,-0.135165127,-0.106546084,0.015057392,0.205987540,-0.031487668,0.147669080,0.158167795,0.109903111,0.288878732,0.144208813,-0.064407728,-0.095932583,0.003953995,0.066358499,-0.172772227,0.269523759,-0.182932965,-0.197475897,0.112327995,-0.046059623,0.024241621,0.197233917,-0.132713191,0.032921464,0.113374196,-0.056697411,-0.321272159,
-0.089574285,-0.221649485,-0.221737453,0.109146798,-0.004071937,0.000710249,-0.162218861,-0.079170933,-0.048920515,0.192591292,-0.105724899,0.089884046,0.190172417,-0.141231470,0.123025550,-0.159153068,0.246859597,0.108389513,0.098109499,-0.044978319,0.199550447,0.138276177,0.209639672,-0.079078250,0.095770298,-0.094409306,-0.175406498,0.019155240,-0.030893152,-0.032782650,0.281975251,0.126109882,-0.241390790,0.034856961,0.112711853,0.251143902,0.066062309,-0.096784155,-0.129564416,0.019835931,-0.203659712,-0.165639576,0.066256777,-0.028678738,-0.123957395,-0.084733061,-0.237075576,-0.150639961,-0.071068699,-0.080862046,
-0.133273370,-0.190150604,-0.109651458,-0.039921154,0.083288099,-0.194215658,0.138326567,-0.065733765,-0.113519112,-0.112020857,-0.094665056,-0.232450734,0.294931252,0.250040156,0.171645929,-0.117079742,-0.016022965,0.120743324,-0.009536080,0.018630264,-0.007337841,-0.031917875,-0.057356664,0.209911931,0.020071598,0.103996257,-0.042859842,-0.320136216,-0.052047446,-0.114238101,-0.016440514,0.027271548,0.154500188,0.092442990,0.045001302,0.196695384,0.106731668,-0.206932719,0.012413990,0.264688022,0.244837109,0.057927711,0.159728865,0.030464392,-0.083352155,0.218445366,0.025710840,-0.088672047,0.117045934,-0.152256401,
-0.050135426,-0.032776021,-0.040856044,-0.350014911,0.106453004,0.200019267,0.227310062,0.110186034,0.288195422,-0.034530303,-0.021591062,-0.056201609,-0.148392729,0.089839817,0.042442864,-0.196395289,-0.074586666,-0.098633161,0.118754328,0.012505107,-0.149596740,-0.027063977,0.105145808,-0.084860038,0.140918392,-0.211051122,0.004898559,-0.291344717,0.038458204,-0.261951856,-0.179652577,-0.201499191,0.003617479,-0.094505727,-0.104625477,0.049051510,0.170347824,0.207617330,-0.181878042,-0.137476974,0.153113806,0.172162558,-0.073964513,0.002815265,-0.050866066,-0.103270157,-0.116608808,-0.265279031,-0.169617802,0.170354180,
-0.088684855,0.049748086,0.027869309,0.138811428,0.122862482,0.121159003,0.247434249,0.085961997,-0.031951878,-0.147142592,0.118796972,0.004933600,0.027898279,0.160462675,0.193191094,0.070694873,0.175378910,-0.027407851,0.032638271,-0.074384199,0.031890063,-0.018195261,-0.106662452,0.099627246,0.079593336,-0.013115577,-0.305488434,0.001528246,-0.014832096,-0.013942676,-0.227618269,0.338518247,0.104468913,-0.228080918,-0.087682069,0.117567312,0.022147305,0.113373889,0.045981635,0.097471486,-0.011749109,0.125237201,-0.098323265,0.014955183,-0.027809256,-0.031432396,-0.077178035,-0.281996471,-0.047293861,0.209382424,
0.099587606,-0.030565232,0.110861038,-0.269494418,-0.065746211,-0.002434758,-0.165478973,0.000564091,-0.001872884,-0.085278345,0.058010013,-0.050677557,-0.197534277,0.232446858,-0.204229786,0.243062361,-0.252706787,0.067067136,-0.247351933,0.092376644,0.221738070,-0.206228653,-0.112402125,0.214466729,0.188726651,0.080009641,-0.148532498,-0.059989320,-0.195229960,0.142004550,0.089341172,-0.069448357,-0.062918287,-0.331128318,-0.071727923,0.088308505,-0.159169075,0.155097822,0.219406884,-0.299165137,0.048824660,-0.104026688,0.101735739,-0.170147404,0.046043478,-0.040345596,-0.057111482,-0.187306419,-0.023864063,-0.043071589,
0.112425205,0.027184891,0.316711439,-0.020966519,0.003172308,0.007136576,0.211225419,0.084851373,0.015266090,-0.057001449,-0.087398168,-0.009148271,-0.077526701,-0.076495854,-0.173141635,0.251000586,-0.073274962,-0.194352934,0.103685572,-0.091047966,0.046851324,-0.043506071,0.155183046,-0.012323383,-0.071303330,0.154497556,0.043947708,-0.173640425,0.098092082,0.300984096,0.300267344,-0.162211567,0.254075000,-0.138946221,0.114599341,-0.066484389,0.002046873,0.104413688,-0.079010126,-0.129211479,-0.125337288,0.012505942,0.005945914,-0.326954092,0.229943412,-0.046268991,-0.028999233,0.129842172,0.015097234,-0.000515509,
0.098169556,0.117087561,-0.052247727,-0.049153406,-0.165089490,0.088699237,0.008673247,0.049580559,-0.017888420,0.063767186,-0.031932984,-0.126863984,0.026724553,-0.057709450,-0.083425685,0.115370025,-0.055193925,0.072930987,-0.048905817,-0.102567082,0.099790549,0.086237477,-0.268399674,0.119546307,0.049523454,0.060378312,-0.025072656,0.044657890,0.185745205,-0.051795262,0.022080281,0.027703341,0.099400524,-0.194813879,0.130407874,0.038176697,0.241271542,0.067664225,-0.100337458,-0.029236322,-0.069597512,-0.032262004,-0.064184953,0.382193923,0.094096504,-0.139373163,-0.092113182,0.015750495,0.009471168,0.078184369,
0.030966727,0.176760795,0.252082735,-0.008841408,0.012860486,0.078314768,-0.174555648,-0.096936557,0.067062141,-0.043207898,0.094785314,-0.078382036,-0.088342414,-0.331194032,-0.259552294,-0.030490685,-0.083889734,0.267821197,-0.014447775,0.146799324,0.039002359,0.002905470,0.054932594,0.034750388,-0.150131986,-0.081063260,-0.114319330,0.043813138,-0.161981734,0.272278449,-0.065139187,0.010671580,-0.063852803,-0.221397721,0.219431783,-0.037404738,0.046333968,0.106250936,0.069402677,0.058253868,-0.097510566,0.195358046,0.046627035,-0.027119834,0.118506157,-0.124817923,0.087909138,0.002825404,0.177318912,0.127139979,
0.055091881,
0.010189341,
-0.037045460,
-0.039729250,
0.017992215,
0.141755141,
0.015098161,
0.058074470,
0.011740506,
0.190561066,
0.072422805,
-0.091060250,
0.180060553,
0.241839332,
0.116322607,
-0.122548011,
-0.005809585,
-0.017308818,
0.091416288,
-0.052695669,
-0.049928207,
-0.004222268,
0.209889182,
0.222088159,
-0.120893013,
0.260850347,
-0.020434688,
-0.200632714,
-0.013602842,
0.184630949,
-0.054656347,
0.052231470,
0.103834927,
-0.061673683,
0.037417909,
-0.004104568,
-0.241920989,
-0.045819810,
-0.257695689,
0.125881584,
-0.046650572,
-0.056173926,
0.158893704,
-0.070931650,
0.234177063,
0.115061807,
-0.090776675,
0.150192090,
0.125513904,
0.014249468,
0.045409181,-0.104415495,0.061075271,-0.206960727,-0.018372473,-0.109219750,-0.025428540,0.215450644,0.125241098,-0.097637872,0.098365735,-0.078109709,0.085109249,0.068569281,0.113021262,0.074957220,0.053570047,-0.251716133,0.178284538,-0.053430387,-0.027935262,0.011846651,-0.176387831,-0.032011969,-0.110511261,-0.045308334,-0.047559997,0.355554205,-0.063781024,0.122382173,0.156828145,-0.175837460,0.018097938,0.102269694,0.172138684,-0.062051143,-0.059037816,0.111777572,-0.009217830,0.066944724,-0.039226016,0.123829787,-0.060938437,0.133426242,0.143095039,0.037233572,0.044959739,0.152697359,-0.252575611,0.225464386,
0.170464970,0.232726160,-0.181170056,0.003465916,0.172258607,-0.040837221,-0.007026156,0.172063678,-0.128750750,0.079625482,0.159035131,0.132678736,0.107756778,0.036184103,0.140128935,-0.045138622,0.022114962,-0.129437769,0.010501923,-0.135130191,0.064275108,0.015724467,-0.189635899,-0.135151841,-0.076764119,-0.078392170,0.230543492,-0.189452024,0.200353899,-0.026281551,0.371770576,-0.098933776,-0.108648009,0.013587322,-0.268205278,-0.100036505,0.241484839,0.097887048,0.067181705,0.120807926,-0.022453817,-0.020240916,-0.257899889,-0.096452338,0.062955902,0.130803993,0.038749710,-0.243421042,0.073695789,-0.177303568,
