// Neural Network File Format by Kyle Julian, Stanford 2016
21,2,2,10,
2,10,10,10,10,10,10,10,10,10,10,10,10,10,10,10,10,10,10,10,10,2,
0,
-10000.0,-10000.0,
10000.0,10000.0,
0.0,0.0,0.0,
1.0,1.0,1.0,
-0.503483759,0.586459780,
-0.100365852,-0.176548112,
-0.193281437,0.236519534,
-0.029279952,-0.600671877,
-0.074908678,0.111548515,
0.448490792,0.436247840,
0.930655897,-0.579748863,
-0.102459552,-0.426862467,
0.434743377,0.316411312,
0.450599410,0.446132921,
0.057367275,
-0.073488145,
-0.155419050,
-0.307072687,
-0.222318433,
-0.168421284,
-0.575096068,
0.019498175,
0.264331288,
-0.529393301,
0.491489670,0.276057671,-0.488427955,-0.577131245,-0.014376744,0.205431313,-0.492807327,-0.365875939,0.440431742,-0.364917774,
0.437107590,-0.415748360,0.280444897,0.609435343,0.387575939,-0.037221307,-0.578883517,0.171959518,-0.309070237,0.737082033,
0.635882955,-0.051666836,0.074445140,0.446875155,0.902208908,-0.120114245,0.225061948,0.221152574,-0.219377240,0.235731647,
-0.307239922,-0.286409897,0.450629826,0.241421950,0.390204306,-0.163663918,-0.815728822,0.805261243,0.231761410,0.518670384,
0.624212827,-0.021906868,0.394009919,0.955360959,0.027638337,-0.026528088,-0.168518190,-0.233004167,-0.549938633,-0.458910574,
0.337961232,-0.594676298,0.177999767,-0.528239893,-0.448084805,-0.382763934,-0.000680551,0.249602331,0.221695796,-0.203730335,
0.045940155,-0.273006964,0.641332573,0.001931018,-0.184487365,0.021884541,-0.490030372,0.467722734,-0.500403617,-0.033644475,
0.199808852,0.310489985,-0.180613875,-0.303382684,0.138077484,0.074797568,0.127499442,-0.166071199,-0.388065574,-0.088480849,
0.151930114,-0.038687613,0.560821401,0.050794989,0.805510632,-0.312345080,0.033834209,-0.398724172,0.314171732,0.345239296,
-0.067277861,-0.778012413,0.325264211,0.059415641,-1.147231374,-0.238539502,0.423993149,0.141403715,-0.628004892,-0.364104405,
0.318194865,
0.015362845,
-0.337410226,
-0.508880991,
-0.003087405,
-0.325162794,
0.348688665,
0.500299241,
0.208635320,
0.332967379,
-0.322298810,-0.949425204,-0.539660761,0.312252419,-0.010321269,0.162984053,-0.115909682,-0.591147023,-0.190003457,-0.354630636,
0.176405437,-1.061930899,-0.356951109,0.564021258,-0.156490565,-0.463803987,0.661689815,-0.262265376,-0.349818771,-0.165004370,
-0.205965189,1.158785186,-0.003802828,0.193696962,0.035958398,0.038976581,0.361656801,1.005308115,-0.758756472,-0.127525479,
0.476881659,-0.426347354,0.697334631,-0.168619306,1.011050353,0.109703537,-0.304178113,0.579070475,0.357359706,0.740873887,
0.255570045,-0.977134094,0.019089324,-0.468950864,0.085415185,-0.170025630,0.326473151,0.604920321,-0.384806117,-0.380591953,
-0.260003718,0.075055530,0.378336202,0.282403455,-0.096611024,0.110727976,0.033308143,-0.996534842,0.260807564,-0.158460742,
-0.119165303,0.625675480,-0.404404502,0.126123624,-0.496463002,0.006901403,-0.113766140,-0.203930702,0.218886997,0.010086971,
0.133587264,0.175374923,0.498383908,0.072769248,0.038150685,-0.173655579,-0.058668220,0.180349673,0.659737172,-0.245709056,
-0.031095993,0.473122942,-0.078918208,0.171927686,0.077882853,0.183661233,-0.373000458,0.164034061,0.145345786,-0.549028251,
-0.052182630,-0.150947093,-0.792725495,0.344717035,0.799946605,0.067821635,0.424502372,-0.506264292,0.009346182,-0.978521117,
-0.259141077,
-0.289605868,
0.044653470,
0.150316157,
-0.524699185,
-0.128088966,
0.221707519,
-0.191965462,
0.205171326,
-0.086404695,
-0.224416326,0.016045721,0.427134161,0.588361904,-0.148592115,0.516558581,-0.482235646,0.012020161,0.367352800,0.150566157,
-0.848045329,0.303120166,0.225415096,-0.493278551,0.904194811,0.453414592,-0.136816809,-0.204143643,0.094745250,0.098715684,
0.998653742,-0.511308755,-0.365131549,-0.025271125,-0.253527715,-0.421435506,-0.376767309,0.028701209,0.114315536,0.095275155,
-0.155807803,0.382006348,-0.465542089,0.679695399,-0.093934981,-0.631928006,-0.658941562,-0.650359915,0.841576398,0.274696522,
-0.032609881,0.551516312,0.002462799,0.293325665,-0.231161822,-0.423306826,-0.413306255,-0.081304533,0.150504562,0.176362501,
0.155522351,-0.708500742,-0.114229321,-0.069381786,0.167140755,-0.434529299,0.382112852,-0.020710863,-0.259822879,-0.082501820,
0.213414157,-0.435427656,0.092986907,-0.219734543,-0.748040702,-0.009598316,-0.915016802,0.289422372,-0.338996596,-0.086540886,
0.903710858,-0.321802068,-0.084454058,0.593079429,0.128628862,-0.054506972,-0.866671786,-0.441423436,-0.325295765,-0.637121575,
-0.517080225,0.018261344,-0.364864071,-0.066979273,0.708994914,-0.066310211,-0.399748985,-0.394390653,-0.611968996,-0.452740454,
0.632338744,0.726375444,-0.506398413,-0.013457884,-0.456022894,0.032410931,0.423920081,-0.288040318,-0.186166966,0.262340896,
-0.068687291,
-0.196434003,
0.269861978,
0.851926165,
-0.175258534,
-0.007143880,
-0.246425303,
0.607373956,
-0.379450554,
0.184020218,
0.090806201,0.366597414,0.425849557,0.367403653,0.122674509,0.679315069,-0.379209182,0.240349859,0.330841604,0.321565436,
0.937596140,0.320777085,-0.637928535,-0.284861293,-0.579071535,-0.613019673,1.067869517,-0.089923852,0.050746595,-0.241681822,
-0.317338460,0.187838692,0.153387322,-0.294623050,-0.130270543,0.263714998,0.060365971,-0.235135587,0.007658599,-0.057990241,
-1.445644157,-0.449587854,-0.294595012,-0.711680782,-0.132022907,-0.856419375,-0.014029288,0.270028966,-0.099899047,-0.611357993,
-0.331251463,0.839443094,0.040715450,-0.268495011,0.338692209,0.166683619,-0.035201618,-0.335984309,-0.205510264,-0.186578402,
-0.289808408,-0.557573094,0.013434944,-0.345568998,0.293570546,-0.491796606,-0.141986017,0.273198953,0.006166198,-0.152152704,
0.140380734,-0.040586617,-0.369240581,0.204739988,0.352088205,-0.406540932,0.254606704,0.447336088,0.097521457,-0.249926357,
-0.418690684,-0.114797697,-0.048827075,0.065194153,0.525771590,-0.391439436,-0.324677038,0.305148123,-0.449378312,1.094825009,
-0.300995695,-0.083284500,0.614976739,0.311451178,0.432821343,-0.599737621,-1.053971014,-0.631418492,-0.082877414,0.812401728,
-0.218914653,0.033592262,-0.278648879,1.061061928,0.521474778,0.411536247,-0.057545590,0.053590624,-0.258485246,-0.141034731,
-0.002348207,
0.429961787,
-0.044576708,
-0.063403144,
0.368140173,
-0.076770552,
0.654518543,
0.179399455,
-0.371040881,
0.349095419,
-0.140647885,0.212825181,0.058357879,0.699587470,-0.019985713,0.029535532,-0.123519056,0.558117939,-0.025873166,-0.006328720,
0.029953314,0.097818912,0.118193522,0.288775530,-0.243544843,0.666807233,0.624901052,0.016006642,0.374777082,-0.214012289,
-1.132765755,0.107895821,-0.251578156,-0.587682512,-0.807715132,-0.037754732,0.439907184,0.100480655,0.098396916,0.408451076,
-0.035616038,0.176731539,-0.027347479,-0.543006097,0.054958925,-0.147812700,-0.470835683,0.258346628,0.016648263,1.070091713,
0.555941819,0.564559706,0.711552410,-0.393701571,0.348977798,0.609460534,0.053400463,-0.425758366,-0.257308443,-0.619162469,
0.316467279,0.589061640,0.316322101,-0.514676414,0.088229335,-0.036061941,-0.116123292,-0.112382036,0.229806395,-0.016269361,
-0.197490124,0.677428804,0.894588854,0.033871250,0.216526593,0.388243990,-0.764681451,-0.676199216,0.756751215,0.009824469,
-0.093409528,-0.249145862,0.187446702,0.474404808,-0.452472300,-0.267293588,0.462110036,-0.037211013,-0.162992520,-0.231816015,
0.285019909,-0.177439732,-0.041883130,-0.106992821,0.284260878,0.107773590,-0.080007486,0.662455850,0.487190302,-0.383113782,
0.522539270,0.464188712,-0.220344051,0.709069640,-0.775832394,0.233832733,0.012438836,0.700983758,0.518768818,-0.243465996,
-0.231663193,
-0.349622092,
-0.131387043,
0.886197281,
0.515377923,
-0.614989665,
0.478774915,
-0.370133165,
-0.012966807,
0.058984195,
0.015687854,0.455706197,-0.156118848,-0.019646487,0.662149643,-0.002940153,-0.266083143,-0.051365916,0.625585971,-0.409133285,
0.720783758,-0.609895480,-0.561209347,0.296364193,-0.309210797,-0.201040287,0.478457195,0.082947603,-0.287190760,0.165268197,
-0.116979411,-0.603108807,0.087371492,-0.476144301,-0.238242348,0.742151559,0.499461721,-0.241240034,-0.170478548,0.095251423,
0.163859504,-0.244000641,-0.445738153,-0.425310747,0.137355456,-0.274821418,1.103053350,0.854474753,-0.031876229,-0.432194592,
0.838489343,0.299236807,-0.116534198,-0.110427998,0.030801154,0.064462747,-0.337142715,-0.070077787,-0.419078119,-0.245579761,
0.039428879,0.092925683,-0.868520756,0.208571553,-0.605836998,0.213399193,-0.343016436,-0.605724222,-0.180782203,0.087353369,
-0.416752756,0.306568539,0.567227085,-0.429135955,0.267117723,-0.328285223,-0.191964211,-0.048797844,-0.031608773,-0.073617647,
-0.476539500,0.195709682,0.665001771,0.147400021,0.042799150,0.124268729,0.009859835,-0.406051861,-0.220321431,-0.034939147,
0.191125583,-0.698544887,-0.427608141,-0.011804977,-0.375075257,-0.510410897,-0.431515073,-0.073403651,0.099762755,0.054871156,
-0.172960908,0.042697808,0.107971826,-0.156046575,-0.236928571,-0.189571355,-0.278031342,0.534260640,-0.479553755,0.032542836,
-0.138322953,
-0.348665082,
0.679076576,
-0.185062885,
-0.093590250,
-0.035658063,
0.414752644,
0.112249376,
-0.207445795,
-0.009987604,
-0.382611907,0.187927462,0.256724492,-0.195991039,0.801606723,-1.157638490,-0.002709496,0.142601926,-0.528402505,0.482429610,
0.892819342,-0.015002878,-0.120958124,-0.234085951,-0.219576931,-0.172418528,-0.244007155,0.265673654,0.511605556,-0.473650352,
-0.827813715,-0.206157178,0.319054913,0.030563100,0.534173644,-0.023674637,-0.415998717,-0.187655974,0.300877430,-0.126680701,
-0.343497118,-0.616189098,-0.404461078,0.412616139,-0.140498405,0.035054192,0.177257336,-0.254544452,-0.384031603,-0.681054584,
0.323026093,-0.491223976,0.651008900,0.879041618,0.247744813,0.543438117,0.234716158,0.919651926,-0.350035443,-0.286546451,
0.599377415,-0.283863232,0.086739475,0.852714555,-0.447293704,0.274459973,-0.082614865,0.141448358,-0.269583294,-0.145213966,
-0.080660813,0.870305350,0.553115302,-0.508004891,-0.502814099,-0.058104760,-0.189900544,-0.618969920,0.434337588,0.123242384,
-0.437194881,0.051208195,0.642642914,-0.449990102,0.978495217,-0.054346291,-0.552214541,-0.042032085,-0.172594105,0.440669313,
0.420009601,0.061001108,0.254325333,0.763711385,0.019126965,-0.437458371,0.123495441,0.016413085,-0.044755510,0.029487200,
0.081226425,-0.470431783,-0.292299433,0.546603158,0.106813075,0.655200444,0.561724366,0.009137056,0.965135616,-0.099082204,
-0.321147432,
-0.063202460,
0.094552689,
0.860271212,
0.517376703,
-0.191958324,
0.010075501,
-0.247927499,
1.258556389,
-0.264211586,
-0.531214373,-0.307729022,0.445410412,0.227968491,-0.265063484,0.305899955,0.052470062,-0.243366623,-0.243522643,1.047602917,
0.009910032,-0.429962040,0.120723103,0.100648807,-0.087332091,0.074680137,0.430340191,0.583223638,-0.027657652,0.129369216,
-0.732625490,-0.211734307,-0.105420522,0.784736822,0.407122840,0.257083618,-0.003717009,-0.798200217,-0.110670894,-0.348256913,
-0.010852251,-0.206669524,0.201227895,-1.048906203,-0.642373516,1.333477003,0.660938359,0.515048153,0.187447584,-0.351632585,
0.078280053,0.524230907,0.670023538,0.348931469,-0.211323583,-0.301501683,0.119649234,-0.383517761,-0.163612469,0.650453093,
0.325217711,-0.413936617,0.512555833,0.383992965,-0.295821954,0.786439061,-0.591602090,-0.104571079,-0.026495013,0.479782914,
0.393541771,-0.961700578,0.012640657,0.300692256,-0.178401394,-0.605783840,-0.281228792,-0.369637721,0.916244001,0.270433005,
-0.462120164,-0.105547074,-0.282052100,-0.079320171,0.377780321,0.162364537,0.505132374,0.837790872,0.279842230,-0.068002790,
-0.366195237,-0.142840205,-0.700405945,-1.079777373,-0.236690847,0.103853209,0.303588831,-0.182719511,-0.655482883,0.171436445,
-0.584820205,-0.408523108,-0.203794292,-0.192742334,-0.466516733,0.361569923,-0.177238311,0.051400452,0.144616834,0.052305705,
-0.495758843,
0.096362880,
-0.820413883,
0.470379496,
0.541987398,
0.104763955,
0.086687156,
0.716060008,
1.202963508,
-0.084659117,
-0.169871836,0.213177848,0.269940695,0.039352390,-0.159107656,-0.258995779,-0.408358452,0.260630501,-0.274424350,-0.237877732,
-0.571719383,-0.056930179,0.455183129,-0.308287661,0.394483360,0.160214924,-0.066490119,0.731282369,0.212954549,-0.438877716,
-0.102752624,0.369998985,0.422980795,-0.409327343,-0.265198550,-0.073610395,-0.230362367,0.147126910,-0.647824980,0.942917997,
-0.467658601,0.142297709,1.191771457,0.129209805,0.491582498,0.606648143,-0.060350105,-0.216706675,0.455381030,0.100308623,
0.705057862,0.128715215,-0.057515916,-0.164586807,0.355529982,-0.077529409,-0.286598030,0.149389544,0.350549490,0.710704122,
-0.305813221,0.580492045,-0.616293390,0.752341113,0.266720549,-0.150224636,0.788634074,-0.314455037,0.243021400,0.199955073,
0.351652946,0.129187286,-0.313165528,-0.582735020,0.201603980,0.474613861,0.521668825,-0.536918389,-0.161526622,-0.483527377,
-0.540768065,0.190366599,0.497107009,-0.587874977,-0.440920567,0.303493619,-0.490245012,-0.009290976,-0.219494592,-0.081625002,
-0.407106512,0.749233697,0.346841967,0.255892927,0.089529131,-0.245394040,0.017928929,-0.599975875,0.141297062,-0.106264659,
1.054836955,0.236026148,0.169802210,0.048827760,-0.746170643,-0.654042515,0.442499598,0.827762340,-0.105526666,0.010421610,
0.122670255,
-0.546560068,
-0.681772191,
0.254498320,
-0.029211562,
-0.113025641,
0.231341384,
0.456396438,
-0.296337989,
-0.055760577,
0.371839234,-0.123347320,-0.251000287,-0.523961971,0.718232260,0.414319488,-0.093099645,1.005115439,-0.664645207,-0.627003727,
0.074700154,-0.110307420,-0.257818480,0.114867419,0.038417181,0.045874224,0.321048495,0.099828361,0.070475978,-0.399973297,
0.095883918,0.571177562,0.217362739,-0.365657898,-0.103644677,0.298931888,0.105831359,-0.673491790,-0.110001581,-0.206219445,
0.534752632,-0.204187572,-0.637523498,0.122041899,0.311451886,-0.185541994,-0.018927343,0.036889110,-0.307699806,0.096616638,
-0.582959399,0.151556563,0.445778786,-0.275335003,0.824301190,0.461222847,-0.700104990,0.016994788,0.531621194,0.059660893,
-0.061775521,-0.629289914,0.269197531,-0.165582264,0.287065741,0.602247977,-0.075841779,-0.929515803,0.915585950,-0.209606583,
-0.000641282,-0.129119477,0.372570695,0.200537131,-0.163428440,-0.039650836,-0.011394718,-0.090698042,0.664118293,-0.424108317,
0.803857240,-0.934551642,0.285267488,-0.739488306,-0.404022491,0.188487549,-0.064875012,0.193452798,0.746024887,-0.046349716,
0.911997681,-0.073684247,-0.252428529,-0.023240324,0.266971482,0.482508056,-0.355373799,-0.122664860,0.314753056,0.053945662,
0.071370688,0.261507801,0.382149844,0.222157080,-0.058902122,-0.110253200,-0.510662027,-0.301086220,-0.305981935,-0.465726407,
-0.316070707,
-0.297526070,
-0.243470808,
0.143289611,
1.107095703,
0.749630072,
-0.157389706,
0.267507147,
-0.337785107,
-0.098805171,
0.333291781,0.432990403,0.147782736,-0.473621656,0.183711641,0.003556920,0.179484303,0.255556115,-0.371896966,0.941006778,
-0.220475373,0.902725148,0.012513869,0.719736500,0.229842708,0.625519996,0.148861553,0.286390188,-0.203524897,0.428808324,
-0.493626693,0.007720227,0.394699556,-0.239221309,0.767758867,0.077651261,-0.362609554,-0.191362783,0.276921798,0.653836362,
0.299038234,-1.090927153,-0.619317277,0.152901807,-0.665775648,0.173467430,-0.203094839,0.410408625,-0.316660048,-0.070007755,
-0.505314309,0.085291835,0.163045330,-0.214820265,0.119100254,0.523502976,-0.552898038,0.478759261,0.170894505,-0.499854042,
0.340851621,0.318172891,-0.492921219,-0.488307905,0.117990159,0.797098765,0.208061722,0.006521954,0.292580510,-0.615088967,
0.455001323,-0.049760992,-0.485341740,0.016223995,-0.439134435,0.792184979,0.068739195,-0.793972233,0.068904401,-0.049852722,
0.124236672,-0.145881005,-0.595918196,-0.241356196,0.359965694,-0.078524825,-0.254848509,-1.151342435,0.426370152,0.194785683,
-0.691220912,0.576291808,0.535863517,-0.263390006,-0.082412406,-0.048108082,-0.161741055,0.319368592,0.356646475,-0.039086757,
0.180023336,0.440503399,0.050362264,-0.067260390,-0.011793327,0.033854341,-0.175315159,-0.251158990,0.818825318,0.038128347,
-0.201245909,
-0.202689439,
-0.156861875,
-0.405376111,
-0.491099055,
-0.360346140,
-0.435742456,
0.183575156,
0.187474801,
-0.117908901,
-0.849582739,0.320676890,0.349622439,0.307890574,-0.040664502,0.358648835,-0.997518004,-0.080645908,0.000404823,-0.117210948,
-0.106208733,-0.804964344,-0.634389501,-0.210924683,0.263187503,0.269639474,-0.011915639,0.497362886,-0.673222150,-0.185872489,
-0.123511613,-0.230114731,-0.514807511,0.747184241,-0.800830556,0.299397187,-0.165718616,-0.148006523,-0.717299474,-0.811790189,
-0.493891479,-0.617302644,-0.063649143,-0.096457840,0.136954201,0.337040179,-0.888699275,-0.171671047,-0.424800769,-0.625122635,
-0.455662413,-0.425539630,-0.530922499,-0.216610384,-0.367668105,0.065596489,0.175635639,-0.455840700,-0.092084583,0.246185274,
0.214397640,-0.064687489,0.154491348,0.173934419,-0.119907204,-0.284836262,-1.125372316,0.493403053,0.840181196,0.060730489,
-0.190662460,0.271901291,-0.121417819,0.138486301,0.062391771,0.885690707,0.624872402,0.906098602,0.299945318,-0.534820192,
0.031089644,0.117464778,-0.136803185,0.155734386,0.400914558,-0.437138671,-0.443878187,-0.107368753,-0.443472073,0.311986264,
-0.234597771,0.614363460,-0.517263153,-0.554998133,-0.468411585,0.436021742,-0.413680677,0.185217580,0.045152875,0.150905044,
-0.586941062,0.505082012,0.364970911,0.043535395,-0.567053030,-0.056042809,0.182168766,0.188364989,0.028592562,0.733263653,
0.360533410,
-0.243826249,
0.291797123,
0.540036453,
0.299767497,
0.004945106,
0.482364027,
-0.214494160,
-0.078660537,
0.441755664,
-0.546609022,-0.284605805,0.119877901,-0.149642703,0.360120161,0.865341986,0.339437917,0.184927132,-0.252450183,0.075313226,
0.020596612,-0.673165576,-0.165337735,-0.032759076,-0.435237686,-0.078692688,-0.534075251,-0.035589306,0.010804836,0.165251497,
-0.924073656,-0.043583482,0.225523313,-0.254538374,0.139163740,-0.178482468,0.029329493,0.358999667,-0.038533361,-0.294258765,
-0.830201592,0.174518637,-0.204102820,-0.501891305,0.752269729,-0.253729056,0.160678007,0.403422632,-0.458504363,-0.065129997,
1.041089502,0.130577919,0.198597147,-0.424995881,-0.776700201,-0.054496792,-0.710911545,-0.092506129,0.201106537,-0.272781243,
-0.104974072,-0.574149647,-0.281046885,0.094987590,0.244040051,-0.501526234,-0.374713069,-0.118428818,0.527012253,-0.495203802,
0.084474764,-0.455676419,0.352122578,-0.438413946,-0.563227330,0.166014832,-0.343690810,-0.520787240,0.034220031,-0.563675804,
-0.162414357,-1.079846077,-0.171786285,0.692814738,0.383853346,0.318282039,-0.039145407,0.216289491,0.040877822,-0.144689488,
-0.436243442,-0.367114564,-0.132349275,0.233942145,-0.260812252,0.146430947,0.236736745,0.856937341,-0.594367226,0.228148513,
0.712218516,0.271990695,0.418944335,-0.046136215,-0.379546675,-0.146065805,-0.098804340,0.300632915,-0.815699076,-0.366021471,
0.454319811,
-0.512292719,
-0.504831318,
0.560742245,
-0.100948233,
-0.282443749,
0.259236779,
0.586335557,
-0.047687684,
0.565680198,
0.405805974,-0.141748629,0.075712619,-0.404033820,-0.731547478,0.399975179,-0.182329149,0.154777062,-0.604155530,-0.507357585,
-0.032088212,-0.181804395,0.609165545,0.143506583,-0.238814327,0.047516868,0.480210932,0.074609600,0.262693908,-0.090139842,
0.583727849,-0.336238499,-0.089045870,-0.539084837,0.676846246,0.154029651,-0.556672995,0.304351054,0.163296816,0.382649284,
0.074214124,-0.157368979,0.182280844,-0.637726618,0.081710171,0.212193253,0.383925051,-0.031587485,-0.069704894,0.010538470,
-0.350327040,0.287683259,0.180602821,-0.493649018,-0.376009897,-0.142112295,0.278291593,-0.389190084,-0.012709230,0.165491548,
-0.087829847,0.016336018,-0.629769667,-0.482843262,-0.294558528,0.337237058,-0.306391019,0.036400802,-0.076373085,0.511343466,
-0.546457596,0.328594855,-0.595692520,-0.710350244,-0.624553159,0.401957439,0.228929586,0.736818085,0.302051507,-0.958570691,
0.355126113,0.476573915,0.625938632,0.147659971,-0.421953734,-0.401891910,-0.163430298,-0.374450382,0.417003364,0.259805651,
0.424818567,0.531568223,-0.240092160,-0.439901157,-0.552155364,0.033444265,0.322147372,1.000568629,-0.292832793,-0.516653918,
1.002715405,-0.133192289,-0.192028600,-0.182720983,0.751411145,0.807886864,-0.168708160,0.370015086,0.369134783,-0.802545220,
0.308770255,
-0.272618823,
0.164848819,
-0.040493551,
-0.495261920,
-0.269289584,
0.251124967,
-0.158056699,
-0.025541269,
0.097651884,
-0.413897598,0.159148030,0.215952991,-0.117424004,0.944153674,0.464201010,-0.726403227,0.327214781,-0.032703709,0.089496529,
0.335841731,0.425247247,-0.293797589,0.038675425,0.323248066,0.009349076,0.461799855,-0.444497915,0.431844738,0.687809299,
-0.030019819,0.896533343,0.190819294,-0.593166716,0.774886011,-0.384542439,-0.359639747,0.120950798,-0.597624088,0.191835742,
0.272812656,-0.045773821,0.303769003,-0.177763037,-0.597980930,0.241155360,-0.766039170,0.063338479,-0.044994917,0.364425310,
-0.034263961,-0.049216255,0.155914728,0.774976797,0.310695324,0.396221704,-0.101800597,0.021906647,-0.181679690,-0.381804857,
0.003242581,-0.072062398,-0.035049955,0.497018488,-0.415163999,-0.210847904,-0.025622567,-0.200712535,0.238333053,-0.226906474,
0.642836123,0.010586133,0.206843289,-0.347315860,-0.177064557,-0.022010961,-0.427491497,-0.131411414,-0.043704951,0.291393655,
0.289356733,-0.577470557,-0.444262188,0.056492612,-0.470397603,0.435403735,-0.473321091,-0.172296641,-0.554661640,-0.069528972,
0.720438140,-0.019750083,-0.776548730,-0.415417122,0.487160630,-0.137702158,-0.239766528,-0.298695551,-0.178358840,0.133437365,
-0.552845229,0.665520940,-0.356304397,-0.155069039,-0.372130904,0.490712359,0.454460519,0.092074534,-0.092964017,-0.097218478,
-0.045536319,
0.427270891,
-0.345683937,
0.405686369,
0.294915665,
0.378638047,
-0.213403762,
0.484942392,
0.417130422,
0.087330108,
-0.448886797,0.287876710,0.454189086,-0.185545625,-0.669026703,-0.278280041,-1.052055590,0.358655789,-0.202708052,0.501322775,
-0.996571122,0.020328609,0.372577085,-0.105331789,-0.085834782,0.221800931,0.169492465,-0.219286512,0.651856194,-0.005791171,
-0.313391960,-0.434816841,-0.147648233,-0.165368783,-0.334692128,0.194925325,0.462098676,0.065393867,0.162599943,0.481110826,
0.394429601,0.815829852,0.534118911,0.146994988,-0.708662475,-0.458382551,-0.494899703,0.530444493,-0.700944685,-0.034805935,
0.021600358,-0.172784105,0.032001053,-0.210299086,0.568858736,0.054946258,0.487928013,0.837317593,-0.328638971,0.015046757,
-0.422781912,0.903653332,0.569665387,-0.180755522,0.073491433,0.063283976,-0.418140735,0.138109160,0.022896156,0.687062390,
-0.140495174,-0.428503914,0.309555291,0.284897247,0.790191996,0.536377245,-0.094056139,-0.362011602,0.440094419,0.253240548,
-0.249993565,-0.290783167,0.370148188,-0.703047470,0.317079585,-0.257270554,0.230660323,-0.126149914,0.461673675,0.599162935,
-0.138049793,-0.059462199,-0.277459249,-0.210561671,-0.281164524,0.376199430,0.011547586,-0.329862539,-0.716806677,-0.559820960,
0.425458311,-0.415584332,-0.081388931,-0.150795991,-0.018890403,0.666053880,0.089185372,-0.107303367,0.396950105,-0.827233370,
-0.043823173,
-0.798860776,
0.241362763,
-0.641233279,
-0.822853555,
0.187027947,
-0.472946323,
0.122506329,
0.620516710,
-0.409863376,
-0.275876773,0.519134020,-0.429900154,-0.249162347,-0.064263069,0.365736358,-0.775057710,0.093445998,-0.076218006,0.151523019,
-0.345601689,0.304436756,0.177964216,-0.096319878,-0.091731887,-0.386410140,-0.203622270,-0.008210421,-0.710461508,-0.202930629,
0.301972157,0.391994312,-0.008900848,0.207274253,-0.312176168,-0.040724993,-0.421129493,-0.166126624,0.341979006,0.169755270,
0.089263686,-0.134820782,0.103080335,0.226031690,0.400226759,0.686383673,-0.583191007,0.714209012,-0.184513837,-0.288978524,
0.050734068,-0.339662157,0.376127435,-0.239933270,0.493855637,0.358493712,-0.406939144,-0.007534643,-0.666025850,0.396206900,
-0.433581300,0.061591382,0.210035432,-0.511295368,-0.054987618,0.491761702,0.314538510,-0.561480989,0.208615970,0.054669587,
-0.143449849,-0.171347489,-0.219693713,-0.034778341,0.442889279,0.137893140,-0.007376649,0.328464793,-0.285923441,-0.320019793,
-0.097660826,0.253864148,0.250498332,0.352157085,0.513201024,-0.237612987,-0.089839074,0.156174573,0.141203728,0.170803757,
-0.117393545,-0.210680089,0.147594247,0.411330862,1.058215018,0.410983559,0.656292590,-0.286821568,-0.416311595,0.011342002,
-0.376054539,0.190127608,-0.176081653,-1.331754582,-0.859328930,-0.007142372,0.070724660,0.217176048,0.159408580,1.012903100,
-0.010388192,
0.526851913,
0.184019587,
0.511197102,
0.125303502,
0.010936849,
-0.162025336,
0.679151993,
0.414476415,
-0.266423997,
0.488662241,-0.294278095,0.315789652,0.646375268,0.337748475,0.140038593,0.389658861,-0.015144966,0.316443611,0.178025105,
0.336869072,-1.180434958,0.535395631,0.038761313,0.165585351,0.017911982,-0.203218042,-0.508078377,-0.247165099,0.011361128,
0.495033384,-0.874061100,0.467757100,-0.005719041,0.615585440,-0.109796031,0.224702214,-0.233936565,0.125696451,0.046290035,
0.284741748,0.457625813,0.241734211,0.397297593,-0.129484560,-0.032896597,-0.052152428,-0.105562353,-0.415195724,0.410324922,
-0.213990819,-0.356634875,0.409090070,-0.176064592,-0.054131293,0.583967766,-0.192963838,-0.486938032,-0.295459041,0.302126345,
0.526956868,-0.157886302,-0.659139416,0.351082456,-0.409174711,-0.601865007,-0.870183401,0.260648716,-0.383236734,0.100014941,
0.391814071,-0.273832442,0.324657109,-0.363709707,0.414533833,-0.510533062,0.193814880,-0.356067026,0.054123502,0.169054541,
-0.114960302,0.178362386,-0.267251685,0.381979577,-0.032106172,-0.025220064,0.206658497,0.019036681,-0.420378264,0.349628939,
-0.305632231,-0.330368114,-0.261043984,0.789010637,0.033921672,-0.894523046,0.165406490,-0.668190393,-0.410845159,-0.337987437,
-0.258519296,-0.370598542,0.594529801,0.347859113,0.105828695,0.252652171,0.561949239,-0.067947871,0.548690298,-0.004632912,
0.010267834,
-0.684459903,
-0.257483641,
0.097641931,
0.289147853,
0.983068194,
-0.010333108,
0.637090622,
0.134594095,
-0.216419966,
0.019831973,0.120617379,0.387596854,-0.381972734,0.118549136,-0.179331173,-0.820410868,0.005295670,0.225394887,-0.489968673,
-0.419277297,-0.220346508,0.114677901,-0.633406739,0.131092887,-0.397392819,-0.762546908,0.400736945,-0.341323393,0.100937560,
-0.446993271,0.478002007,0.172655855,-0.322751213,-0.418143637,0.272682618,0.080814937,0.365509744,0.103707688,-0.236399236,
0.494102325,0.511829839,0.529857652,0.167755617,-0.129680482,-0.422239053,-0.464759494,-0.036695348,0.560597474,0.402012082,
0.883138595,0.152423951,0.460394414,1.001233972,-0.492239377,0.284669251,-0.163628396,0.763439222,-0.151485338,0.923853811,
-0.922098480,-0.128637137,0.127498572,-0.525606316,0.552372304,0.170320383,-0.064916236,0.020361475,0.148953767,-0.345290504,
-0.585911945,-0.402989290,-0.154931944,0.707226139,0.921820810,0.536601797,-0.496923858,-0.226103032,0.024922194,-0.026099287,
0.462941817,-0.346125451,0.810521703,-0.412641518,-0.434832177,0.099360846,-0.437985530,0.556067166,1.069738071,-0.007600926,
0.281925737,0.580629432,-0.181328969,0.315051833,0.657623368,0.298970376,-0.904366690,0.070883616,0.339630161,-0.036269979,
-0.631617123,0.007023148,-0.499744844,0.194931883,-0.755557591,-0.707626475,0.173248582,-0.503435178,0.279770270,0.078823156,
0.194866393,
0.189740974,
0.163099895,
0.346968329,
-0.105851795,
0.023491160,
0.553369855,
0.679337272,
-0.594736304,
-0.072386887,
-0.037424276,-0.325586247,-0.111064620,0.544960088,-0.192526014,0.727951523,0.500694754,0.536766842,-0.535235023,0.223037901,
0.193937496,-0.039996509,0.193791083,-0.177462984,-0.080464540,0.732733205,0.262688186,-0.623750414,-0.303133734,0.559361036,
0.410472767,
-0.423877356,
