// Neural Network File Format by Kyle Julian, Stanford 2016
6,2,2,20,
2,20,20,20,20,20,2,
0,
-10000.0,-10000.0,
10000.0,10000.0,
0.0,0.0,0.0,
1.0,1.0,1.0,
-0.154010481,0.043986419,
-0.059877924,0.013890323,
-0.175261941,0.050184796,
0.015942841,-0.100261690,
0.149072787,0.154237115,
-0.117121407,0.248229568,
-0.015518451,-0.177997732,
-0.116721670,-0.089801509,
-0.013396411,0.372440295,
0.207951621,0.189730856,
-0.195608155,-0.456051196,
0.177273077,-0.113410854,
-0.431305911,0.149057450,
0.579725724,-0.057095706,
0.314622335,0.133829463,
-0.121591312,0.132174063,
0.605240386,-0.188351252,
-0.195859349,-0.279994579,
0.855724290,-0.166755007,
-0.406986121,-0.664527278,
-0.014696068,
0.049016317,
0.297837961,
-0.010271604,
-0.663053873,
0.514054657,
0.091670916,
0.378126067,
0.385643079,
-0.100371055,
-0.157550401,
0.079834035,
-0.062463377,
0.157094379,
0.153239058,
0.098081273,
-0.575564386,
0.392026257,
-0.031267703,
0.231504038,
0.325428288,-0.117641714,0.161156828,-0.196635325,-0.593130711,-0.226286803,-0.111925161,0.285696937,0.178515413,-0.231134639,0.176033588,0.454551107,0.383410711,0.024935105,-0.136176920,-0.252569257,-0.179301954,-0.263994551,-0.077024603,0.137387739,
-0.103669924,-0.087097421,-0.006752013,-0.347804577,-0.038834695,0.056263349,-0.278912921,0.492782338,0.257947488,0.007358569,-0.365416308,0.009789208,0.044342315,-0.385123538,0.229497035,0.128276942,-0.123295016,0.141599833,-0.146982138,-0.264611406,
-0.102506608,-0.275585874,0.067246242,0.020715702,-0.030199872,-0.135198708,-0.319120753,0.068348104,-0.254541273,0.105012457,0.315308622,0.367323815,0.046223290,-0.256875874,0.315260372,0.281687805,0.171664041,-0.369082886,-0.266813148,0.038871283,
0.081565293,-0.009751371,0.227478460,0.189147603,0.140648401,0.137722512,-0.077572209,-0.390921012,0.352224331,0.559419740,-0.170525846,0.048782520,0.286691962,-0.117639064,-0.057639156,-0.069178930,0.112580768,-0.110826130,-0.260552101,-0.384896966,
-0.078328358,-0.206355146,-0.269898415,-0.448502306,0.150086729,-0.193551307,-0.367560799,-0.321385531,-0.097622255,0.340043918,-0.039119898,-0.027344498,0.038733580,-0.108757381,0.101697619,-0.029166390,-0.477013602,0.324955825,0.104540894,-0.058601857,
0.113478868,-0.499949171,-0.024602033,-0.183580074,0.203106918,-0.509656120,-0.139533525,-0.296984439,0.550561001,0.306463558,0.373333594,0.205692447,0.314218404,0.121568827,0.161340574,0.123202396,-0.361539688,0.160140182,0.136318616,-0.434476258,
0.250158933,-0.127255476,0.541928845,0.170290086,-0.050865263,0.157017673,-0.084439998,-0.117181096,-0.307091622,-0.346060280,-0.131494511,0.709804012,-0.184440893,0.224092555,-0.074572135,0.053257922,-0.103168063,0.319988251,0.001142929,0.141316860,
0.120774426,-0.126589372,0.234921114,0.563952927,-0.031160777,0.097629614,-0.305388276,0.015060334,-0.330319225,-0.507375443,0.232805776,0.116177384,-0.044243948,0.044291400,-0.491459579,0.036220721,0.020617518,0.131938194,0.347062192,0.198436071,
0.152891438,-0.178993453,0.393972356,-0.045125930,-0.140476888,0.244245885,-0.297438693,0.499340899,0.119070195,0.074378761,-0.199291809,-0.192801767,-0.175090275,-0.091994354,-0.320092025,0.311874303,0.422536059,0.023229404,0.256198530,-0.365348929,
0.141812639,-0.136149938,0.355919237,0.203003902,0.123073830,0.140294172,-0.479658643,-0.216367073,0.204076991,0.186969678,-0.133498868,0.284002903,0.168379184,0.059202280,0.097025971,0.087902657,0.242315243,0.010170533,-0.272084010,-0.006250398,
0.040778090,-0.232636057,0.091521308,-0.332863095,-0.018349278,0.098082929,-0.316128473,0.184069559,0.374250118,-0.444073205,-0.082881677,-0.072479075,0.218994870,0.257542457,0.150778384,0.041747163,0.017263047,0.218653332,-0.008733698,-0.050513798,
0.128421315,0.233673648,0.210125797,-0.105176890,-0.056635175,-0.267005262,0.189592817,-0.313539131,-0.184753902,0.105301629,-0.040429857,-0.044342932,-0.221118763,0.341462893,0.071062326,0.039972238,-0.021644431,0.043447474,0.157788587,0.143180425,
-0.320822312,-0.131166681,0.097722745,0.224667472,0.052608615,0.090841253,0.423033720,0.418961582,0.209757970,-0.052068789,0.219278311,-0.388551991,-0.137684322,-0.103992474,-0.129528698,-0.103054539,0.221531740,-0.395211707,0.320804567,-0.110832937,
0.161633264,-0.131551468,0.086875344,0.139372428,-0.130379744,0.100593473,0.206421345,-0.117707633,0.188898634,0.324223414,0.107908922,0.341541173,-0.045142083,0.207395014,0.332778757,0.147456351,-0.032309173,0.026645829,0.093885702,-0.399526194,
-0.347125569,-0.296352870,0.231371044,-0.564945335,-0.028992869,-0.191494619,0.112991237,-0.005313310,0.121204146,0.145645162,0.095674260,-0.502273448,0.272446606,-0.065206163,-0.091275431,0.196928357,-0.035867793,-0.185844123,-0.069705381,0.456665450,
0.128513284,0.169988839,-0.059433716,-0.174340130,-0.176416558,-0.108177629,-0.182260572,-0.229954510,0.083654026,-0.066548952,-0.243156428,0.130554236,0.099014248,-0.203865212,0.379609146,0.016561480,0.439645068,0.203168283,-0.226634698,0.084895958,
0.390907140,0.340617831,-0.141073815,0.246619090,0.114485037,-0.027542816,-0.001422210,0.102516010,0.310868525,0.222283226,-0.441540367,-0.150401595,0.416793340,0.174283768,0.307725252,0.294957892,-0.033294225,-0.028671032,-0.260573983,0.030669913,
0.180484411,0.122677511,0.202403538,-0.151171085,-0.246684905,-0.090489235,0.080857931,-0.322469363,-0.053097537,0.030234325,-0.075637993,-0.013060674,0.504671393,0.274709269,0.625543436,-0.261819160,0.028123767,0.033842507,0.064799391,0.330794631,
-0.528986460,0.060739469,0.183183248,-0.134949993,0.172262605,0.028556742,-0.247304823,0.260690696,-0.265298812,0.025903471,0.161300222,-0.228253579,-0.213174320,0.209382104,-0.350889352,-0.040242338,-0.076274229,0.058553253,0.144270186,0.001490240,
-0.016980966,-0.119736398,-0.267582803,-0.235799974,0.287256184,-0.071275676,-0.259945487,0.107199499,-0.002172639,0.161437094,0.049388175,-0.247022016,0.051159029,0.115683806,-0.378516852,-0.060780085,-0.187842262,0.033366647,0.008037239,-0.193597789,
-0.412724944,
-0.300250401,
-0.158005344,
-0.155868322,
-0.094964645,
-0.443371410,
0.101679430,
0.409393260,
0.071466480,
-0.251659152,
0.099922544,
-0.086726430,
-0.021822335,
-0.323327478,
0.167856566,
-0.413915804,
-0.571401937,
0.107161094,
0.031336715,
-0.489773814,
-0.329333849,-0.117237119,-0.262060253,0.270318711,0.449424569,0.029434741,0.447500205,0.298238602,0.053308926,0.222085990,0.072685954,-0.042789712,0.508211956,0.095832976,-0.086128946,-0.140648785,0.572595369,0.163818241,-0.272614099,-0.135641869,
-0.200149685,0.301089451,-0.263332332,-0.089597339,0.155338520,0.128225410,-0.053957552,0.493626777,0.206645010,-0.100334678,0.197919603,-0.355697841,0.050299966,-0.124460778,-0.223699320,0.421727043,0.225379023,-0.052055923,0.119303833,-0.325836882,
0.181443690,0.040345951,-0.163308072,-0.102159373,-0.206811466,-0.159871839,-0.366457970,0.025071033,0.009893682,0.069163635,0.043751713,-0.580953006,0.350337833,-0.025756633,0.080510525,-0.314835231,0.099565847,-0.297709758,-0.397484664,-0.348927077,
-0.488240484,-0.329152477,-0.328388631,0.433213236,-0.216870675,0.003987916,0.220638482,-0.005426534,0.077526658,0.123021114,0.333381364,-0.173525976,0.137908165,0.218227851,-0.317132658,-0.682253935,0.291656453,0.043818439,-0.499240391,0.294644050,
-0.396540862,0.062394521,-0.353947094,0.315444004,0.149101666,0.046619775,-0.304438410,0.173019571,-0.331675329,0.085155370,-0.193004504,-0.052572791,0.125296124,0.008560984,-0.029095613,-0.450458749,0.170025422,-0.153652852,0.003778463,0.124956151,
-0.162071154,0.023339850,0.159679123,-0.068639165,0.142699185,0.371134849,-0.025402905,-0.363323886,0.017344346,0.417340130,-0.247882563,-0.236939248,-0.288719904,0.233825205,0.089400364,0.130710309,-0.074301033,-0.301215688,0.131748437,-0.174075636,
0.165895665,-0.230520031,-0.231539080,-0.175714986,-0.496838917,0.278339709,-0.020022733,-0.371413431,-0.112911993,-0.015185717,0.233864405,0.216344371,-0.061990827,0.161419444,0.300913179,-0.036991725,-0.508304391,0.033877687,0.266158785,-0.096097004,
-0.239620426,0.068223284,-0.165229111,-0.636412151,0.212719919,-0.356655777,-0.079721310,-0.236650445,-0.362184939,-0.066278796,-0.000366644,0.062811830,0.178700189,-0.232146240,-0.369780035,0.035929050,0.217680864,-0.165598448,0.195686380,-0.481350954,
0.389730500,0.161179145,0.240793894,0.029683693,0.345971879,0.098868701,-0.032638197,-0.286215023,0.258168132,0.010627883,0.351308462,-0.018811784,0.211487000,-0.356358434,0.182509791,-0.103172588,-0.051495278,0.217429564,-0.281054412,0.325034679,
-0.034294940,-0.108778587,-0.031888947,0.017309177,-0.016706036,-0.225719492,0.142625861,0.067559033,-0.227933428,-0.045591287,-0.053531619,-0.456737117,0.037547637,0.232639911,0.294788127,0.553493201,0.119399200,0.387865831,-0.015810292,0.074958289,
-0.250694935,-0.043999721,0.119091831,-0.244743601,-0.375046239,0.059132868,-0.041335014,0.301632364,-0.185071515,-0.078709449,0.492210750,-0.195470597,-0.115226293,-0.122620497,0.143120791,-0.037361635,-0.263908841,0.171620949,-0.022178373,0.071121054,
-0.275003332,-0.083773703,-0.042199041,0.239255736,-0.499645838,0.261550267,0.040252020,-0.177101774,0.051429432,-0.363632253,-0.266345115,-0.116012222,-0.400978053,0.140418814,0.191332624,-0.002162333,0.301325343,0.309150073,0.235539507,-0.097947399,
0.041953715,0.231810727,0.238630750,0.148939340,0.487678391,0.463049147,-0.453091869,-0.056897316,0.168511443,0.006290624,0.185130255,-0.583409089,-0.339924905,0.243570219,0.401700345,0.589404803,-0.025914175,-0.045062826,0.002047391,0.198578720,
0.386221241,-0.387261662,0.132175563,-0.788844327,-0.075803509,0.397676540,-0.102254909,-0.260522717,0.436679064,-0.144063531,0.120463025,0.431974721,-0.204020798,-0.005013919,0.346594389,0.143764202,-0.126102228,-0.158944479,0.107659148,-0.017929920,
-0.445742766,0.098176950,-0.442781370,0.133820121,0.364159315,0.111354388,-0.115826297,-0.258305542,-0.145533724,-0.405442171,0.088610016,0.117394323,0.141391540,0.514361542,0.199911747,0.173159942,-0.239168188,-0.006964486,0.093401166,0.271891931,
0.066514476,0.319710879,0.277594390,0.095430439,-0.038449032,-0.369585118,-0.050955301,-0.094210127,-0.265042930,0.427141194,-0.078657533,-0.174180449,-0.128768056,0.102764334,-0.255833679,0.051291896,0.097095484,-0.555419262,0.224021082,0.220954529,
-0.057021817,0.027465090,0.380255565,-0.220833523,0.127034957,-0.127174149,0.193580389,-0.130905926,-0.237857856,0.045674952,0.671632974,-0.079893267,-0.309683178,-0.003176684,0.176512662,-0.108124036,-0.354311919,-0.292419466,0.018382356,0.471438908,
-0.135732252,0.005344445,-0.089159669,0.111304042,0.024081952,0.051286314,-0.427065785,0.477470897,-0.068425343,0.075438351,0.326357262,0.175775829,0.017005754,-0.082242711,0.263518026,-0.208432552,0.254667180,-0.182143578,0.705019425,-0.226012901,
0.141320800,0.006499263,-0.357638051,-0.313286941,-0.137340331,-0.171891776,-0.249197998,-0.103265235,0.000867823,0.328844993,0.498346977,-0.609897928,-0.162401810,-0.239560254,-0.211698770,-0.084775790,-0.452590033,0.084014787,0.226940117,0.025119805,
-0.252336354,-0.154071860,0.493029788,-0.055802461,0.260424299,0.374430223,-0.364080261,-0.276961474,0.140657589,0.131535284,0.128702707,0.120865176,-0.118888425,-0.454036524,-0.462305858,0.037782848,0.537426779,0.602454278,0.250837738,0.057796028,
0.041819786,
0.007392046,
0.188324634,
-0.553788050,
-0.017844993,
-0.077463640,
0.084128108,
0.120357714,
-0.214237029,
0.001863300,
-0.262716568,
-0.430528761,
-0.341626358,
0.050605139,
-0.116502088,
-0.164106141,
-0.342104397,
-0.126180553,
0.029397379,
-0.469841473,
-0.431475830,-0.043184957,-0.063864585,-0.273891717,-0.366753758,0.164162270,-0.007943101,0.028019777,-0.103487828,0.045112839,-0.093357583,-0.143788869,0.035011443,0.338962264,0.076797023,0.047680010,-0.067908833,-0.190169085,-0.090687379,-0.126646349,
-0.101190386,-0.026638297,-0.109898242,-0.100762783,0.305627279,0.020732037,0.476745230,0.306071902,-0.517357280,-0.239033328,0.131292154,0.079999716,0.183683864,-0.156911095,0.270988589,0.561124859,0.047021743,-0.376274352,0.185773351,0.217618858,
-0.045889263,0.102655687,-0.238210198,-0.021476325,0.027428075,-0.178030117,0.121451779,0.606963809,-0.248087267,-0.203447797,-0.465660744,0.058755098,0.120634083,0.536699341,-0.224611105,0.049908229,-0.044128476,-0.149032091,0.173551993,-0.609346180,
0.341398721,0.494969079,-0.142143640,0.038098164,0.701537043,-0.058794849,0.245865705,0.239411543,-0.190754474,-0.424048850,0.412021175,-0.491793332,-0.183100409,0.064886069,-0.192780668,0.297277800,0.102968835,-0.117109580,0.208031989,-0.037059253,
-0.087176541,0.133864650,-0.034042527,0.498463968,0.109257404,-0.250553884,0.086705939,0.069475716,0.004954581,-0.079981186,-0.195125752,-0.010663213,0.227283047,0.062490630,0.039623393,-0.151431187,0.126969107,0.082242769,0.463146881,0.228194477,
0.121260021,0.101175225,0.357861850,-0.417240717,0.017432985,-0.201605226,0.661866902,0.119838403,-0.145167581,-0.312555176,0.556422710,0.155691215,0.234273721,-0.279466017,-0.232703710,-0.022691918,-0.292530842,-0.288893084,-0.228852603,0.363325826,
-0.071311298,-0.265753375,-0.313485849,0.496094795,0.016910043,0.243988954,0.107749231,0.174881632,0.137342655,-0.354764147,-0.492742013,0.185373462,0.048865992,-0.013049007,-0.153083783,0.089907948,-0.143938608,0.146396238,-0.224292397,0.203716630,
-0.128268438,-0.099661448,0.286343440,-0.031333385,-0.010611253,-0.390220784,-0.421419320,-0.120091042,-0.067054137,-0.055782409,-0.234551151,0.005744268,-0.168702531,0.139180713,0.165252587,-0.025614055,0.304590259,0.038280380,-0.070335379,0.201144347,
0.005532058,0.121708454,-0.269417875,-0.150105046,0.177684908,-0.293726294,-0.059441549,-0.446695812,0.036671909,-0.051679462,-0.198757837,-0.155130395,-0.067585482,0.100215587,0.087417636,-0.125939129,-0.188431876,0.103388962,0.085025456,0.218030464,
-0.468954898,0.087713882,0.539201605,-0.020960655,-0.077537642,0.189099674,-0.706168221,-0.356375791,0.207909107,0.056723828,-0.011084615,0.068416618,0.024021313,-0.148520953,0.054843359,-0.347721824,-0.286436579,-0.546593964,-0.010662449,0.167646071,
0.427090781,0.064860336,0.033659194,0.078608685,0.118612806,-0.034964312,-0.086872075,-0.269882055,-0.182753824,-0.367210854,0.238094337,-0.312657249,-0.688375722,-0.237334618,0.330345192,0.362000677,0.046881170,-0.305254925,0.131901271,0.319096561,
-0.385718423,0.528152599,0.000540691,-0.412554979,0.002411371,0.104010964,0.430255107,-0.190775899,0.044046704,0.303657480,0.012418872,0.365343776,-0.523831070,0.318156377,-0.433880196,-0.313001474,-0.153273511,-0.253574084,-0.257723277,0.236925520,
0.156767056,0.017866332,-0.161573260,-0.062795631,0.361920838,-0.134905780,0.185919545,-0.615240676,0.590642701,-0.008058482,0.194701170,-0.345070271,0.302901926,0.079239595,0.187497851,-0.219828703,0.017354060,-0.159383508,0.113821887,-0.277082482,
0.469818950,-0.167555888,0.114497916,0.344587073,-0.175006341,-0.221851695,0.314973003,0.047844672,-0.318335747,-0.430748666,0.182176025,-0.131381553,-0.392867894,-0.109328421,0.125456277,-0.451531555,-0.131607818,-0.297041614,0.398985970,0.106100502,
-0.361930134,0.517673189,0.103434663,-0.069458218,-0.522954396,-0.084222872,-0.325653750,0.127700493,0.090372384,-0.007017206,0.201593241,0.353925446,-0.053720719,0.354337182,-0.357232788,0.069618764,-0.136677674,0.443881022,-0.315227115,-0.030773821,
0.148994305,0.357418850,-0.080378968,0.668191586,0.086454941,-0.221379753,-0.140630279,0.529984816,0.287145587,-0.012721137,0.054210243,0.295348414,-0.075077383,-0.259505374,-0.109946773,-0.275632073,-0.306955048,-0.212744615,0.214286981,-0.398597535,
0.303150998,-0.064859470,-0.105050292,-0.071952945,0.072588795,-0.494473570,-0.036727861,0.242086359,0.013070796,-0.253857770,0.098483666,-0.120155586,0.094657439,0.668705230,0.045083156,0.293151032,0.137806024,0.063451942,0.316943184,-0.293160295,
0.417959982,-0.048739044,-0.113010432,-0.367000997,-0.036060094,-0.289098258,-0.182982491,-0.335378367,0.165326729,0.017164779,-0.126406159,0.320502029,-0.143223621,-0.141801380,-0.352449583,-0.271355584,-0.177251176,-0.094655821,-0.035984103,-0.591481831,
0.157810559,0.154952143,0.038667781,0.179842987,-0.125783840,-0.324314952,0.153467610,0.620590965,0.279032596,0.052070218,0.267167039,0.106808986,0.358001694,-0.043403796,0.195151619,-0.023061931,-0.450456871,-0.202875138,-0.060405249,0.231660638,
-0.230328430,-0.111047118,-0.062820835,0.084166661,-0.302370619,-0.581486626,-0.243850732,-0.203392825,-0.007966323,-0.046285074,-0.146724356,-0.168331590,-0.186565941,0.050485713,-0.144014126,0.486632847,0.364110846,0.186507114,-0.114992834,0.393317806,
-0.296674973,
0.304651948,
-0.287235888,
0.113361082,
-0.531211903,
-0.489037546,
-0.116002955,
0.463681838,
-0.151315458,
-0.537339401,
0.010328880,
0.061604636,
-0.068146328,
0.671355919,
0.128508008,
-0.033063150,
0.104588348,
0.155914831,
-0.115119531,
-0.346797057,
-0.334025304,-0.325767309,-0.036526594,0.270355177,0.026676805,0.201445910,-0.218401368,-0.450344970,0.282473123,0.170260000,0.279778171,-0.143592066,-0.118625400,0.120661925,0.215542276,0.026774821,0.037128186,0.110922456,-0.071002826,0.106968286,
-0.069089722,-0.075393587,-0.137196291,-0.407559249,0.013644651,-0.229790674,-0.171094446,-0.282478240,-0.074711551,0.409134716,0.094382364,-0.389118104,-0.084356280,-0.156019768,0.088828882,0.003241796,-0.207765187,-0.066464442,0.381376609,0.204681398,
0.120895642,-0.220659182,0.083019479,0.507602306,-0.426020789,-0.032030245,0.195250327,-0.665359927,0.121652042,-0.036630267,-0.265935985,0.396158918,0.320427231,-0.114764241,0.322460242,-0.398643819,0.040577353,-0.175733511,-0.344756992,0.357657723,
-0.121787880,0.102956990,0.180542866,0.020369330,-0.033991436,-0.369265752,0.095101559,0.004296068,0.054555103,0.132079987,-0.085780096,-0.269532396,0.211022601,0.162798281,0.114883021,0.254588373,-0.043615524,-0.056752001,-0.355640800,-0.356704376,
0.367717442,-0.186895020,-0.156236361,-0.688006414,0.178915433,-0.069111457,0.379551305,-0.599787862,-0.170737904,0.532354698,-0.070407867,0.257443037,-0.068900027,0.247289980,0.620060508,-0.267316589,0.024781678,0.053738272,-0.060009080,0.238777588,
-0.320952417,0.276700746,-0.047267260,0.023503611,-0.231009682,-0.023788826,-0.348413259,0.024494271,0.006675626,0.326374432,-0.000811935,-0.048101397,-0.401829310,0.473362141,0.186070276,-0.271690405,0.121294439,-0.088701288,0.075499789,-0.137539137,
0.035049573,-0.458469915,-0.041227090,-0.543000846,0.238465353,-0.101892429,0.206264856,-0.500757778,-0.082619195,-0.179319410,-0.080411584,0.018759973,-0.363904620,-0.170076720,0.188695524,0.191912863,0.250038069,0.285675908,0.096402473,0.007366690,
0.191753950,-0.191881455,-0.072878874,-0.424522873,-0.613620454,0.500275640,0.045092769,-0.504050267,0.298097505,0.508935147,-0.040291577,-0.178820466,-0.221241352,-0.208918736,-0.238345128,0.126905576,0.155491565,-0.331043513,0.352683679,-0.089090152,
0.230033241,0.233075978,-0.273187563,-0.277129765,0.430682907,0.113403290,-0.046812625,0.288972735,0.365642552,-0.370828313,-0.152024978,-0.105812620,0.239165290,0.100313396,0.019453894,-0.024369466,0.547389442,0.177107812,0.257090612,0.279980677,
-0.132466214,-0.338236348,0.055442609,-0.338155638,-0.207893457,-0.350716019,0.410528960,0.021966015,0.476227618,-0.086048217,-0.755868626,0.029017364,-0.200563743,0.127114369,-0.489980028,0.101841082,-0.170700721,0.236779934,0.352644352,-0.100658424,
-0.278460473,0.200201864,0.286596803,0.149872168,-0.047697568,0.091876349,0.364000735,-0.001592956,0.303168419,-0.057314501,0.023636371,0.252414818,-0.712264887,0.222924372,-0.281572429,0.146714204,-0.159976068,0.217041098,0.028222346,-0.145684211,
-0.120038834,0.406827089,-0.616857435,-0.045324624,-0.305867455,0.264411549,0.394681957,0.333584851,-0.216407140,0.434144544,-0.295876883,0.206668691,0.136862371,0.229556109,-0.178262011,-0.061925712,0.280640792,-0.209324463,0.366065731,0.442027179,
0.063096588,0.025947403,-0.046661781,-0.152864283,-0.002962454,-0.158050242,0.315162478,0.252554944,0.581714451,-0.184436928,-0.317294168,-0.022038000,0.195267299,-0.020268524,0.169591884,-0.237514881,0.354755327,0.024425228,0.248418167,0.101830358,
0.331097271,0.078949702,0.134270438,-0.093766260,0.009146397,0.011403849,0.270838634,0.076696448,-0.222803915,-0.178587066,0.362263503,0.374636283,-0.056020551,0.324140472,-0.340692487,-0.124336752,-0.418920463,0.110025423,0.451424780,-0.027892679,
0.280126995,-0.819456443,-0.045359424,0.253343534,0.010107217,-0.303066185,-0.106370711,0.063706235,-0.029528314,0.212621075,0.065469649,0.334155159,-0.271939651,0.073228481,0.018678584,-0.016310724,-0.550686377,-0.196809864,0.105002945,0.073454785,
-0.339551330,0.168972716,-0.002588797,0.132021010,-0.270176308,-0.209112208,-0.006702584,-0.151958066,-0.124915144,0.169997089,0.141426371,-0.185088344,-0.415329327,0.177093986,-0.389856811,-0.105406911,-0.119653374,-0.056655442,-0.053213350,0.617101847,
0.065292747,0.063508992,-0.074506550,-0.166086169,0.280391306,-0.020370727,0.100856192,-0.047509484,-0.046496008,-0.204045686,0.199165998,-0.111740020,-0.130761940,0.443113884,-0.160001760,0.143782446,0.307153993,0.244021212,0.027657657,-0.178159771,
-0.386840839,-0.202063922,0.031177443,-0.151668733,0.364960656,0.301902673,-0.117893077,-0.601102552,-0.063554706,-0.255608612,-0.361965089,-0.153346360,-0.374509074,0.066357446,-0.464373050,-0.007380354,0.016719012,-0.213200964,0.146670795,-0.421611356,
0.518043629,-0.019288123,-0.140961980,-0.094191937,0.015377923,-0.069628100,0.018992977,0.116671149,-0.020567395,0.105455917,0.108418484,0.276193127,0.007120793,0.026705562,0.083245226,0.282749169,-0.099764650,0.212164992,-0.368249998,0.133128824,
0.432353595,-0.204841409,0.496575472,0.225019523,-0.081042349,-0.192556578,0.030262957,0.181616451,0.149652028,0.204046809,-0.104241782,0.029136308,-0.075657949,0.046630828,0.200384525,0.334591697,-0.131471098,-0.133175319,0.040119509,-0.218448067,
-0.165594507,
0.054577885,
-0.226927489,
0.256872527,
-0.205548464,
0.306023069,
-0.205384454,
0.273020156,
-0.369226377,
-0.144499965,
-0.262409823,
-0.343488659,
0.314617766,
-0.578366719,
-0.000054082,
-0.518793406,
-0.219968991,
0.262930403,
0.234058244,
0.180033382,
-0.261246732,-0.745905970,-0.277285817,0.042550913,-0.105956715,0.207343651,0.613367143,0.301481100,0.001345530,-0.229856109,0.035119315,-0.485880114,0.063000770,-0.220662999,0.451237565,0.015159621,-0.092979433,0.225344758,0.165971793,-0.117412548,
0.184269160,0.178503465,0.104621262,0.177358222,-0.321844374,0.098136990,-0.062598360,0.152688215,0.500881164,-0.359029247,-0.040827250,0.320257832,-0.173673423,0.342939844,0.257617532,0.219811402,0.187268842,-0.196150438,0.243343939,-0.160462939,
0.264556941,
0.436181647,
