// Neural Network File Format by Kyle Julian, Stanford 2016
11,2,2,10,
2,10,10,10,10,10,10,10,10,10,10,2,
0,
-10000.0,-10000.0,
10000.0,10000.0,
0.0,0.0,0.0,
1.0,1.0,1.0,
0.361171502,-0.172001789,
-0.100120924,0.002074432,
-0.872032657,0.183440770,
-0.351207476,-0.222412344,
-0.379557676,0.496392796,
-0.176972861,-0.048658135,
-0.070465343,-0.601786952,
-0.152013393,-0.885853388,
0.687772915,0.206939511,
-0.407303965,0.243492377,
0.259639430,
-0.033624069,
0.543779417,
-0.181889046,
0.806059383,
0.568276654,
0.243436843,
0.233016823,
0.649645869,
0.418602778,
-0.021353930,-0.542400124,0.437314022,0.249299770,-0.311572966,-0.576633026,0.179227123,0.420569003,0.045928934,0.617734278,
-0.464849844,1.149778110,0.210545620,-0.483657484,-0.936304912,0.367213733,-0.239237284,-0.001491077,-0.091240322,0.884069188,
0.286991745,0.406501395,0.135972303,0.350820988,0.241644517,-0.325348809,-0.084757119,-0.051904646,-0.274676406,0.157372686,
-0.623153317,0.182528145,-0.356288083,0.531131009,-0.099682772,0.226659060,-0.545117756,0.018497184,1.026322844,0.323000154,
-0.255840740,0.066255580,-0.353284676,0.535559590,0.846159993,-0.600141804,-0.613627813,-0.089147860,-0.171908947,-0.391638426,
0.017503126,0.651850973,0.047107476,0.161832062,-0.634157435,-0.293381491,0.496828182,0.605775881,0.323246566,-0.211899104,
0.383714076,-0.222544886,-0.678662518,0.454883420,0.306440077,0.805663781,0.827813721,0.678188485,0.247411357,0.239490655,
-0.307756033,0.802207015,0.231086535,0.236707394,0.226755323,0.273650990,-0.497760199,0.424436407,-0.261751955,0.424521678,
0.064034557,-0.248305933,0.044890815,-0.445336256,0.262112971,-0.618012478,0.441185200,-0.515574104,-0.420859977,0.538591455,
0.103451676,-0.019842596,-0.324014412,0.054845930,0.320999404,-0.248127880,0.403560029,0.308407391,-0.491421466,-0.089310141,
-0.189321240,
-0.211704777,
0.318698192,
-0.050866080,
0.094142551,
-0.207043435,
-0.364608454,
0.178922373,
-0.392736509,
-0.454317943,
-0.134136648,0.226365061,0.695083237,-0.404647957,-0.404221000,0.017730994,0.087551299,0.125057919,-0.229387518,-0.012488541,
0.184928784,0.265210424,0.078940824,0.335720316,-0.467413092,0.058111955,-0.344240266,1.016516934,0.467423867,-0.237279645,
0.117176939,0.092550144,-0.542010616,-0.071923449,-0.324180136,0.299598248,0.095320195,-0.938425607,-0.857907969,0.354406099,
-0.951585045,0.020812822,-0.985477906,-0.482543503,-0.098539881,0.401322555,-0.484883773,0.066792761,-0.023263552,0.114301269,
-0.176639541,-0.056035495,0.634901021,0.204470500,-0.008726555,-0.192071207,0.971266331,-0.831615869,-0.105058311,-0.315200188,
0.742411595,0.020713471,0.249532819,-0.762767255,-0.663686205,0.111419477,-0.161193093,-0.311901963,-0.008005764,0.008389844,
-0.470677922,0.320834520,0.142889884,-0.292939864,0.030986749,-0.249794328,-0.517696429,0.665910998,-0.240855605,-0.076634960,
-0.435025319,-0.072368823,0.181805396,-0.093079278,0.145697682,0.211207012,0.131095884,-0.625736831,-0.416787317,-0.198226315,
0.033151930,-0.013238046,-0.522360236,-0.319767177,-0.273710326,-0.112436047,-0.345037147,0.394276254,0.800686302,0.244490137,
-0.652989992,0.426877023,-0.441108387,-0.258689861,0.125052960,-0.169408314,-0.255930340,0.349787898,0.588733436,-0.176046544,
0.503735557,
0.463639986,
-0.081547197,
0.170808776,
0.036632027,
0.846911222,
-0.542917933,
0.045219999,
-0.668858266,
-0.223004096,
0.343906484,-0.444069732,0.184827343,-0.188749824,0.082264027,0.041598393,-0.044657922,0.324477309,0.097920416,0.106198798,
-0.402570628,0.430813351,-0.011000322,0.179764220,-0.850188290,-0.038758385,1.339593961,0.120880487,0.115139018,-0.198128842,
0.451665315,0.207748071,0.680193764,-0.048597043,-0.459068970,-0.194757186,-0.876085583,-0.068973207,-0.357624217,0.066140583,
-0.090629843,-0.412002400,0.155569945,0.468670595,0.405664131,-0.525004154,-0.461178189,-0.039392348,0.430074207,-0.039167884,
0.318480564,0.149114132,-0.471441042,-0.218468926,0.042708963,0.136092767,-0.130830340,0.368994535,0.200934371,0.761812430,
0.209443426,-0.108740434,0.218951868,-0.388733002,0.021188371,-0.370935669,-0.466019309,0.347053454,0.652199720,-0.286799706,
0.283218460,-0.530813104,0.353816242,0.053819172,0.061165943,0.322941837,-0.518655588,0.373112261,-0.225033941,0.008700368,
0.526527498,0.355905557,0.168392256,0.547799044,0.421126250,0.487621260,-1.050896899,-0.817769416,-0.355441072,-0.018398674,
0.497957641,-0.143319156,-0.361145116,-0.591492441,-0.220856269,0.311836542,-0.170808932,-0.317415957,-0.223779099,-0.095557251,
-0.054711990,0.285115719,0.078316083,-0.629139897,0.080965702,-0.482213959,-0.740719281,0.379758705,0.191039277,0.056966438,
0.366781726,
-0.478562077,
-0.246145822,
-0.385283781,
0.437668235,
0.117676679,
0.227480217,
-0.827688313,
0.082152010,
-0.125260102,
0.345532508,-0.701803196,0.318697890,-0.113862196,0.214765481,-0.226393465,0.177057868,0.966938024,0.181264818,0.393131281,
0.038290829,-0.937097954,-0.468086597,0.265050779,-0.082709898,0.287699385,-0.052413014,-0.215753622,-0.136910438,0.629562860,
0.084176085,0.105053385,0.313638391,0.894637980,-0.141026632,-0.843110187,0.465751938,0.038067267,0.952081909,0.148524335,
-0.140425795,-0.154284283,-0.395407645,0.215979390,0.373407590,-0.218507260,-0.185781588,0.128217414,-0.234169072,-0.001149169,
0.174233824,0.002234563,-0.012374971,-0.374821635,0.587136258,-0.404547498,-0.338752494,-0.494415402,0.242285905,0.201641046,
0.487045543,0.647315245,-0.244016979,0.376383326,0.452490463,0.187243674,0.554006177,-0.875060907,-0.883457127,0.375261460,
0.308985050,-0.426240735,-0.181559713,0.600042497,-0.379400752,0.288217363,-0.859004723,-0.333649015,0.568324333,-0.805178070,
-0.129974935,-1.029465165,0.479516547,0.503304305,0.233650472,0.855606861,0.337517245,-0.208059731,0.414278506,0.540191510,
0.054547638,-0.397117698,-0.175819618,-0.287545332,-0.324757286,-0.196825160,-0.283157340,0.198779336,0.162595976,-0.051300282,
0.303387193,-0.576264016,0.450483751,-0.669288068,-0.115047058,-0.064111995,-0.353975198,-0.753777449,-0.347482828,0.556664866,
0.560725933,
-0.058850829,
0.609219977,
0.366140475,
0.420924442,
-0.283226701,
0.126076049,
-0.667006508,
0.175114495,
0.249608759,
0.001604876,0.051866374,-1.008321059,-0.256045991,-0.433945127,-1.001901533,-1.065156644,-0.020706737,-0.371821334,0.092057492,
-0.123232501,-0.923215440,0.919958570,0.378533503,0.361993839,-0.402134734,0.082202990,-0.055520463,0.186497217,-0.242650657,
0.140429788,0.078919333,-0.133171316,-0.093818587,0.198617876,0.042363522,0.289802801,-0.174732837,0.140912157,-0.525226640,
-0.475736820,0.151293079,0.390961792,-0.178623626,-0.051544443,-0.535755222,-0.598205415,0.149436803,0.496712012,0.527217411,
-0.162534252,0.199629600,0.426860551,-0.206667993,0.003157474,-0.183545148,0.135446917,0.497951132,0.644851469,0.294849046,
-0.173644653,0.162705851,-0.224061613,-0.291509719,-0.258959693,-0.036404957,0.078647686,-0.133219296,0.425491933,-0.092139186,
0.536772959,-0.316499220,-0.393555268,-0.194536675,-0.333633044,-1.004279480,0.330914559,-0.097829729,-0.028066661,0.341729476,
0.018216321,0.140124884,0.238134881,0.256982714,0.013613096,0.472603416,-0.388149446,-0.827915625,0.290302360,0.206805392,
0.451589713,-0.163048840,-0.381795381,-0.835308016,0.547481344,-0.561930814,-0.622030311,0.583761993,-0.296343003,0.616950341,
0.346906430,0.266887139,-0.195010869,0.127832094,0.273625514,-0.594339811,-0.421956261,-0.037365583,0.243447556,0.378972847,
0.785295873,
-0.491249520,
0.123937043,
0.256894157,
-0.451183101,
-0.829936459,
0.605425090,
-0.412128639,
0.468226793,
0.261823326,
0.589049543,-0.366858534,0.254625823,0.267152129,-0.341428198,0.316996898,0.151847442,1.182866540,-0.275055197,-0.047833514,
0.326848059,-0.266837348,0.421886008,0.226201438,0.185970285,0.144279869,0.298711283,0.225171554,-0.136180661,-0.338810304,
0.159202228,-0.052695982,-0.141135567,-0.272658187,0.212629091,-0.048047669,0.346551937,0.605172077,-0.358182719,0.287330741,
1.258142751,-0.379345658,-0.446852330,0.608472453,0.096005560,-0.113283997,0.084266579,0.422191659,-0.727766953,-0.491988632,
-0.406455757,0.338420628,0.276208998,-0.117990112,-0.317011515,0.264624266,0.101821005,0.469130071,0.034379922,0.072374560,
0.466857851,-0.728948735,0.086616000,-0.010518630,0.469605385,-0.474633981,0.321248426,0.207023973,0.210859171,-0.022468205,
0.443215545,0.580829286,-0.442555299,0.478312043,-0.200531143,0.670208677,0.417014084,0.291641657,-0.986709578,0.051714703,
0.535475374,0.527252845,-0.317903501,0.281258787,0.052354515,0.245759014,-0.530636549,-0.632091478,-0.463262031,0.598970085,
0.505773024,-0.448533503,-0.122326473,0.111729980,-0.027296023,-0.194138185,0.142188938,0.458811716,-0.359906194,-0.499464564,
-0.220883232,0.120364798,-0.207443139,-0.579373983,0.336182385,-0.153266836,-0.659096211,0.009331779,0.088229829,-0.187375389,
-0.151175965,
-0.579330046,
-0.433615770,
-0.106604057,
0.139088893,
0.310809975,
0.132638932,
-0.052186570,
-0.403348345,
-0.280582012,
0.870627498,0.099395932,0.517015774,0.478931206,-0.032997268,-0.349538280,-0.410389229,-0.117344365,0.723564934,0.090483067,
0.079416014,-0.442494228,-0.052923482,0.388287228,0.231275420,0.423800831,0.128047265,-0.099392785,0.103659608,0.357275695,
-0.079363988,-0.111235061,0.597310715,1.017022755,-0.589656472,0.251345856,-0.911568104,-0.402961057,-0.164104671,0.537278423,
-0.424436083,0.706945743,-0.378194540,0.164674552,0.396041925,0.766885804,-0.387657104,-0.615108317,-0.296369424,0.354902653,
0.266826078,-0.049827948,-0.876040315,-0.076829899,0.463654613,0.395992681,1.351763953,0.072862520,-0.503049144,0.093556811,
-0.724978505,-0.642367151,0.229835827,0.133979866,-0.174422571,0.050086827,-0.228231866,0.002862742,-0.573817735,0.117319243,
-0.048972942,-0.024997494,0.469037396,-0.067611762,0.059484721,-0.378989682,0.461245850,0.025252975,0.109490729,0.348946714,
0.474211526,0.702802997,0.161475560,-0.093704188,0.313723904,0.442730895,0.085076336,-0.042376113,0.181667086,-0.660959838,
0.086211457,0.474045768,0.004731304,-0.017130786,-0.496352261,-0.243887504,0.843259492,0.628298494,0.358116724,0.136445941,
-0.743403255,0.134074228,-0.069457104,-0.512423863,-0.508192283,0.160319652,-0.929948113,-0.426960539,-0.632794606,0.356751349,
0.143896882,
0.210469335,
0.519331921,
-0.276057154,
0.055794833,
-0.299505033,
0.306134883,
-0.311820428,
-0.736674133,
-0.250557924,
0.144728972,-0.103749764,0.760469378,-0.309370177,0.049440157,0.064830432,0.634136391,0.006063968,0.442990166,0.065462909,
-0.270292789,0.363077481,0.091305021,-0.126992601,-0.309226697,-0.177329136,-0.177654866,-0.166486337,-0.113712083,-0.664401526,
0.031026434,-0.102960612,0.538389434,0.047583446,0.479300714,-0.325133686,-0.186140698,0.024863717,-0.806355800,0.061464883,
0.118116656,-0.257909060,0.190977279,0.094255445,-0.658865069,0.526137644,0.616400389,0.699887819,-0.550935872,-0.032061408,
0.649551337,-0.829210454,-0.187241170,-0.232545918,0.194849716,0.142979947,-0.094789417,-0.006667948,-0.312295672,-0.225278896,
-0.171862299,0.775233375,-0.381447097,0.143886829,0.192509214,-0.423507902,-0.097769011,-0.367113049,-0.184007900,0.688558136,
0.113486866,-0.099153987,-0.214673820,-0.429019861,-0.519925860,0.036960506,0.337952450,-0.349753868,-0.117125762,0.379932209,
0.406602778,-0.447234440,-0.258169205,0.344393860,-0.064475094,-0.340971732,-0.371813100,-0.446085460,0.792013786,0.369889250,
-0.660442010,-0.640567086,0.642568130,-0.344286086,0.407182302,0.751732836,-0.170706138,-0.291591225,-0.125432471,-0.127274577,
-0.196194901,0.419604781,0.069677331,0.655886996,0.158947528,0.200596636,0.413365714,0.512955218,-0.615744298,-0.028081258,
-1.102312544,
0.007514652,
0.380271403,
0.432067055,
-0.477389951,
0.782017396,
-0.109720038,
-0.605596258,
0.490186718,
0.523500781,
-0.054315596,0.201792730,0.609100431,0.223679159,-0.757061439,0.115990972,0.117610180,-0.092765945,-0.212684107,-0.442721095,
0.510332714,-0.274785878,0.343389652,0.370247872,-1.033334124,0.503879212,-0.165064218,0.761935171,0.197420422,-0.231962694,
0.143133551,0.326727973,0.333782941,-0.504417760,0.422441650,0.605729939,0.170964394,-0.113103941,-0.323245664,0.823052414,
-0.772153098,0.078495730,0.270803660,-0.321117216,0.010590606,-0.527469815,0.251832591,0.060543926,0.299534685,-0.487936531,
-0.216514373,-0.021564715,0.104540971,-0.368017499,0.303631831,0.128198959,-0.138425869,0.577998250,-0.548010757,-0.177894424,
-0.241075743,-0.177146466,1.085001007,-0.065946136,0.301381316,-0.208736237,-0.315163917,-0.080160193,0.179637236,0.277007200,
1.273825107,-0.055752023,0.521278115,-0.205763843,-0.426922626,-0.052509648,-0.348298546,-1.057179138,-0.339986187,0.712292624,
0.138512826,0.337451238,0.164495996,0.133971902,0.272112047,0.235380845,-0.199087200,0.585729860,0.245785137,0.013664940,
0.430712096,0.115501899,0.548695130,0.532412189,0.233340905,-0.178473853,-0.036800772,0.953155289,-0.325128243,0.262509973,
-0.081960333,-0.332364601,-1.116713402,-0.176411760,0.261279109,-0.318812970,0.251832125,-0.028628200,0.523277476,0.190770426,
0.295164454,
-0.234231372,
0.134920674,
0.148091762,
0.329034862,
0.145472107,
-0.429633812,
-0.215444112,
-0.742185034,
0.345178605,
0.061566143,-0.137449724,0.401894423,0.137723145,0.468930710,0.083326140,0.056235470,0.524836402,-0.208162759,-0.192378930,
-0.167990276,-0.150667291,-0.096803910,-0.525102811,0.202470296,-0.200398535,-0.715065339,0.213446794,-0.268284527,-0.397268713,
0.826162494,
0.041392414,
