// Neural Network File Format by Kyle Julian, Stanford 2016
56,2,2,25,
2,25,25,25,25,25,25,25,25,25,25,25,25,25,25,25,25,25,25,25,25,25,25,25,25,25,25,25,25,25,25,25,25,25,25,25,25,25,25,25,25,25,25,25,25,25,25,25,25,25,25,25,25,25,25,25,2,
0,
-10000.0,-10000.0,
10000.0,10000.0,
0.0,0.0,0.0,
1.0,1.0,1.0,
0.332534094,0.014091184,
-0.212589488,-0.155117789,
-0.449281099,0.393986887,
-0.506420380,0.137030513,
0.177359439,0.207083192,
-0.228866230,0.098429101,
-0.090749960,-0.179047610,
-0.082262572,-0.337831995,
0.338006475,-0.098581166,
0.266054657,0.450413391,
-0.039140531,-0.084437058,
-0.405820853,0.266737014,
-0.026390404,0.267926264,
0.328426931,-0.155657912,
-0.366427626,0.425126045,
0.009249322,0.070285031,
0.170474284,0.006425153,
0.383953753,0.088719405,
-0.184901903,0.323984475,
0.010462074,0.032972335,
-0.092312405,-0.154004341,
0.313259566,0.530952686,
0.077923691,0.125787007,
-0.364651736,0.395046889,
-0.141767826,0.125796235,
-0.195942722,
0.341900795,
-0.066829834,
0.070555995,
-0.389163110,
0.225371743,
-0.178149464,
0.021863774,
-0.004430575,
-0.246907022,
-0.034930279,
0.070016270,
0.179095981,
0.540260756,
0.041061866,
0.005414479,
-0.483038749,
0.180094187,
0.166108430,
0.218908412,
0.021586825,
0.167044557,
0.052851885,
-0.021818691,
0.129007950,
0.088481685,0.094677588,0.094942874,-0.250295361,-0.062912345,0.323360704,-0.389646632,0.068184317,0.134235105,-0.005113205,-0.112604023,-0.073780421,0.027776959,-0.410291466,-0.305881288,-0.097772559,-0.121433307,-0.040907734,-0.129137671,-0.424834791,0.139930944,0.130354699,0.070935584,0.375670356,-0.085899723,
0.070974484,0.124014845,-0.023772535,0.324063459,-0.301644691,-0.174649131,-0.259719734,-0.041928933,-0.237450955,-0.347188601,-0.140803051,0.206872450,0.098192846,-0.097664253,-0.028627650,-0.152494149,-0.021130896,-0.438223841,0.053039178,-0.141714753,-0.284099636,0.230594705,0.315830001,0.302504482,-0.330860755,
-0.340798125,-0.001762399,0.341136173,0.257501758,0.352314885,-0.365916971,-0.036489038,-0.054972239,-0.099622112,0.034176028,-0.070168857,0.157639884,-0.282234238,0.027691381,-0.214937686,-0.305996583,0.074081427,0.158303601,0.049229317,0.268774090,-0.424277731,-0.248471294,0.013447223,0.214366104,0.203733795,
-0.120841282,0.040033368,-0.140263314,0.170476575,-0.466911599,0.600378526,-0.178825569,-0.225743230,0.285386090,-0.232076169,-0.439488099,-0.317962213,-0.607764413,0.213775719,0.189878774,0.007349549,0.084818200,-0.013342527,0.165094853,-0.242329265,0.089338569,-0.126665265,-0.152304178,0.156626627,-0.171825302,
0.224808221,-0.320780575,0.146781608,-0.391899598,-0.111455507,0.091669180,-0.057443994,0.002296195,0.094210139,0.178264604,-0.047729741,0.030533374,0.210193826,0.022130050,-0.347360705,0.344258485,-0.247158979,-0.071845297,-0.185908033,0.249504207,0.103849314,-0.474598008,0.271324859,0.355750063,-0.441019872,
0.162858002,0.118837319,0.242079129,-0.483497320,0.140922447,-0.155277804,0.023717061,-0.085044882,0.313846668,-0.248464987,0.418245574,0.065464067,-0.175600998,-0.020097464,-0.174607255,0.193411471,0.105065094,-0.020529861,-0.083203130,-0.335909112,-0.024809435,0.358025553,-0.101098742,0.244101026,0.073557031,
-0.181034719,-0.337618941,0.236067315,0.096536678,-0.240399690,0.472179015,-0.098259492,0.030806071,-0.449548463,0.132278898,-0.117502129,0.395549735,-0.052277693,0.215818028,-0.147818150,0.171822843,0.274520088,-0.206098252,-0.034104445,-0.212725247,0.469149206,-0.521270160,0.080218286,0.230469853,0.119659826,
0.028306540,0.062073862,-0.554014294,-0.229516118,-0.501582019,0.627650243,0.094434859,-0.009270910,-0.106394038,-0.088638083,-0.456865044,0.308593762,-0.065005641,0.299160078,-0.116248259,-0.056318957,-0.325867335,-0.156555218,-0.416190900,0.436334363,-0.034452358,-0.089552819,-0.038916915,0.173059056,-0.124175528,
0.173143191,-0.147324402,-0.042874407,0.090084581,0.060429986,-0.185745051,0.107399239,-0.132867643,-0.135066971,0.038889704,-0.029380779,-0.469915581,0.059688541,-0.200749820,-0.216981901,-0.146673451,0.266187022,0.127201388,0.139913807,-0.456541587,0.098785564,-0.066575997,-0.129703632,-0.171161426,-0.363374645,
0.070994345,0.038824262,-0.318115712,-0.090321586,-0.025966633,0.162427262,0.132226733,0.281920862,-0.192805516,-0.104282056,-0.066202198,-0.089463356,0.045017930,0.005215394,0.000701912,0.086307717,-0.120995664,-0.113252614,-0.215577557,0.182930550,-0.522182287,-0.122985261,-0.029372091,0.271921691,0.395413183,
0.161794304,0.103967133,0.094024332,0.049349636,-0.163529874,0.080218629,-0.038185735,-0.102838670,0.296197163,-0.128425057,0.025894293,-0.266328506,0.382291407,0.068540303,0.128330009,-0.146574565,0.140972513,-0.079282169,0.082538814,0.027333644,-0.193581901,0.196707490,-0.038967711,-0.022734710,-0.093022894,
-0.320346255,-0.302378677,0.011115930,-0.148190649,-0.405207917,-0.084577372,0.229965843,0.185072639,0.186894035,-0.163759847,-0.247380327,-0.104043737,0.145150940,-0.438359734,0.054839795,-0.078020320,-0.237051259,0.119646687,0.122412893,0.039830153,0.222248124,0.250316166,0.033521896,0.012323651,0.143511175,
0.163833953,-0.148882249,-0.485624126,0.229327717,-0.012115541,0.331779635,0.203525944,-0.292562671,-0.242939608,-0.093263627,-0.220324154,0.167771517,0.056364013,0.320993584,0.107198175,0.199402064,0.260326816,-0.249031908,-0.552365605,0.277574372,0.303855769,0.071110704,-0.176885809,-0.133471924,0.136650799,
0.004259748,-0.017629081,0.422840434,-0.213996573,0.159689369,0.327682451,0.380105457,0.126601809,-0.199257591,0.049771575,-0.021159937,-0.242605919,-0.112235983,0.217821885,0.094771631,0.190053365,-0.190384841,-0.070749998,-0.211095048,-0.349206435,-0.363717541,0.206805380,-0.351464916,0.186103415,0.491434176,
-0.171889723,0.368511794,0.361130461,-0.062684399,0.223120939,-0.050887832,-0.351573481,-0.433830256,-0.225075280,0.061641228,-0.064747967,0.173708087,-0.158091554,-0.034305547,0.050128228,0.026473120,-0.518693634,0.205664822,-0.089244552,-0.415777525,0.064796424,-0.268660015,0.266550278,0.254508876,0.187374755,
-0.018294769,0.103296141,-0.345751875,-0.192228173,0.046370099,-0.113344349,0.083259898,-0.387702717,0.293037368,-0.198755575,-0.297058133,-0.449661235,-0.586982734,-0.141923514,-0.002975651,-0.161415189,-0.376562966,-0.012173351,-0.208534541,-0.303554032,-0.094777206,-0.046289303,-0.028480308,0.051840962,-0.097518422,
-0.103674088,-0.179407165,0.027623486,-0.283568525,-0.323289299,0.113500208,-0.244918838,-0.136290215,-0.483517932,0.082607061,0.224140481,-0.122368291,-0.186558510,-0.050094744,0.119520094,-0.292480242,0.157317598,0.112503548,-0.001901470,-0.203151467,0.443828280,0.068637865,0.083871644,-0.093478563,0.206810691,
-0.540589113,0.125752347,-0.088546319,-0.027400844,0.255123962,0.056425712,0.008001345,0.217565825,-0.079916551,-0.240571629,0.186411039,-0.027441987,0.046270166,-0.040080501,-0.334040046,0.107499386,0.216298951,-0.000171278,-0.157711062,-0.283812218,0.016652611,-0.091604893,-0.147441794,-0.343317123,-0.258464560,
0.126599839,0.334717793,-0.100338611,-0.232998207,-0.258463182,0.329750013,-0.138612827,0.256771443,-0.126332493,0.072607520,0.330048528,-0.277057012,-0.212819572,0.137138516,-0.104461176,0.328417980,-0.135679729,0.209670202,-0.174911168,-0.004552703,-0.005511766,0.237260623,-0.479448918,-0.004284634,0.056981401,
-0.319573791,0.320670631,-0.004256042,0.138066199,-0.071357348,-0.356257659,0.113060213,0.030750287,-0.270771410,0.029993363,0.201118311,-0.153520911,-0.259756181,0.058228054,-0.198414799,-0.140304442,-0.067895438,0.162898354,0.162507406,-0.226477624,-0.044465845,-0.293261115,-0.341163927,0.073692167,-0.440868008,
0.072649007,-0.096720683,-0.129722062,0.101771815,-0.053765380,0.219341196,-0.103233467,0.040469512,-0.138195728,0.265393231,0.481646770,-0.143101916,0.269949174,-0.213455816,0.360022060,0.189153026,0.364156420,-0.012537327,0.131034547,-0.102508648,0.413121344,-0.189021733,-0.076367850,-0.141882338,-0.158679452,
0.117219159,-0.004598871,0.048688595,0.581543379,0.073166831,0.083305817,0.102505759,0.074204906,0.016056108,-0.139671393,0.062015885,-0.040364846,-0.516014407,0.061208414,-0.127957066,-0.171188429,-0.196852451,-0.181888453,-0.222743115,-0.452495125,-0.053751549,0.407148884,-0.055754755,0.224360315,0.092733087,
-0.094337847,-0.006015665,-0.163420530,0.380340343,-0.294656894,0.119825530,-0.139431713,-0.065183102,-0.016753051,-0.007291396,-0.023276098,0.351040967,0.345186645,-0.338318620,-0.075801460,-0.120093040,0.017206350,-0.231887331,-0.108788871,0.006811942,-0.038070516,0.190830924,0.357512630,0.342907404,0.299530710,
-0.549941619,0.070143464,-0.258543365,0.258213639,-0.062399537,-0.032512823,-0.002171445,0.331805175,0.025635686,0.030206363,0.453081617,-0.205843998,0.468842273,-0.096599663,-0.194628451,0.088764564,0.199844484,-0.187243460,0.460969115,0.069427083,-0.355704017,0.464170702,0.090254334,-0.004457853,0.189276405,
0.605412531,0.188792946,0.013483180,-0.238985054,-0.125453738,0.269171551,-0.139273646,-0.054549601,-0.196503086,-0.054590459,0.024892776,0.284900082,-0.246732640,-0.438911243,-0.048275816,-0.070545736,0.313542109,-0.125747417,-0.209512659,-0.575944573,-0.244829709,0.130630046,-0.347492204,0.030053068,0.468426362,
0.058924587,
0.390709014,
-0.290756272,
0.213089754,
-0.113389736,
-0.070507872,
0.010036183,
0.216379299,
-0.105680637,
0.126051943,
-0.020266472,
0.119750932,
0.210776564,
0.248648907,
0.118823426,
0.290345887,
-0.117314840,
0.406851307,
-0.313541824,
0.076353802,
0.293911812,
-0.067591485,
0.144103541,
-0.328750568,
0.113219003,
0.353867797,0.082697178,0.221544226,0.091064648,-0.088104924,0.215409948,-0.233586543,-0.171825615,-0.320843557,0.303310820,0.008435393,0.285327109,0.250827231,0.255581883,0.006910847,0.348892002,-0.024286060,0.081687918,-0.298105429,0.269935667,-0.002490237,-0.478791063,-0.142470800,-0.220422508,-0.120921031,
-0.055816569,-0.014615418,0.188501532,0.022227920,0.184623154,-0.014312620,-0.099729791,0.307193469,-0.058924125,-0.058890852,-0.402853251,-0.115087329,-0.148118315,0.133555966,-0.051860938,-0.291039781,0.274710283,-0.012159147,-0.400413705,0.326281250,-0.243143129,0.079217492,-0.278982911,-0.537416801,0.059600455,
-0.205223018,0.206916106,0.242598660,-0.497185794,0.057707554,0.162903876,-0.189318957,0.289478259,0.004074528,0.110720567,0.536641587,-0.099579548,0.353598145,-0.463439567,0.142035583,-0.070559138,-0.171142178,-0.023279133,0.171793850,0.000958908,-0.120787826,-0.357462634,0.053752153,0.491084052,0.155972414,
0.023801353,0.328333133,0.255225802,-0.120998042,-0.377388641,-0.075190388,-0.469270881,-0.040690661,-0.050361694,0.326798678,0.037186769,-0.143024232,0.175637708,-0.305969057,0.111254172,0.228863786,0.025067414,0.288845784,-0.122587908,0.024984307,-0.065751505,0.175414347,-0.363441263,-0.523445826,-0.069693195,
0.149854881,0.118549917,-0.249618002,-0.001779162,-0.117340101,0.363461090,-0.253604457,-0.055917005,0.003935388,0.277852834,0.124992536,0.243569482,-0.241039416,0.163596568,-0.077393709,0.055888699,0.211568877,-0.333086981,-0.237002619,0.097186357,-0.115977965,-0.013320182,0.050480580,0.026834732,-0.066641118,
-0.041365277,0.302925372,-0.099808888,0.013475254,0.386142415,0.429119022,-0.153287241,0.341965584,-0.270621664,-0.061113810,0.145539916,0.084459518,-0.139586487,-0.490301229,-0.272723105,0.204640667,-0.271484501,-0.037725056,0.109843020,-0.151157005,-0.249572844,0.015380816,-0.169024374,0.317982637,0.100986084,
-0.217403629,-0.288375304,-0.195926971,-0.154829172,-0.143579038,0.068993875,0.259776218,-0.105526593,0.292097781,0.379474306,-0.177125992,0.130967731,0.514057336,0.277409140,0.330393030,-0.148194179,-0.416461104,0.354144033,-0.188182441,0.446223806,-0.216305860,-0.334595462,-0.225556012,-0.355423710,0.334347262,
0.248870482,-0.051915461,0.204963326,0.128955700,0.221801048,0.028753610,-0.023853982,-0.081418353,0.101521234,0.093334030,0.152789842,-0.001722285,-0.260757431,0.162702100,0.145696988,0.139518500,-0.557006621,0.131359544,-0.189370528,0.170609629,0.154076257,-0.121342234,0.016021954,-0.124134038,0.244259083,
0.194031675,-0.107303529,0.134649584,-0.290073644,0.214089735,0.182050752,0.184180191,-0.227698152,-0.020149817,-0.056831322,-0.154426092,0.048252282,-0.030666634,0.010813060,-0.040312835,0.043959799,-0.281714279,0.215268066,0.295074096,-0.253886569,0.009710773,0.445972706,-0.217558886,0.370759095,-0.235664908,
0.330169655,-0.028526242,-0.069595354,-0.144112645,-0.012346738,-0.024272812,0.281576341,0.072806109,-0.266828701,-0.048033668,-0.017964802,-0.109022903,-0.213935302,0.326828994,0.273604511,-0.160928802,0.059115951,-0.324925176,-0.029273695,-0.016750558,-0.011326018,0.167010234,-0.186239557,-0.500970002,0.114210299,
-0.576042711,-0.020552177,0.095896324,0.431230149,-0.193399228,-0.457796105,0.319921936,-0.078457783,0.132237081,-0.230531942,-0.186739532,0.361977680,0.241184891,-0.243720269,-0.175066516,-0.528721096,0.029287945,-0.101915547,-0.106112713,-0.047955372,0.191044208,0.051809364,0.200928581,0.407252702,0.011527077,
-0.011748105,0.269256071,0.162954437,-0.091281090,0.549046647,-0.218762550,-0.012738514,-0.234210090,-0.057943142,0.001827400,0.242508731,-0.049052824,0.265805189,-0.231898439,-0.008909219,0.111283673,-0.174671488,0.383168914,0.317988837,-0.239796856,-0.067858110,-0.081525929,0.252167179,0.273209576,0.082115754,
0.100263400,-0.236784960,0.114020617,-0.019565380,0.079014014,0.472642970,0.116316457,-0.008248786,-0.406660456,0.043949136,-0.262996415,0.003341447,0.215676858,-0.143122682,0.019991056,0.208479962,0.088554244,-0.222620232,-0.222410534,0.281721974,-0.034501855,-0.477900491,-0.243585784,-0.166096636,-0.109478042,
0.029324960,0.208931979,0.307815593,-0.340731611,0.085573913,0.027592906,-0.005746914,0.292867989,-0.039366807,0.145207501,0.120186090,-0.302445751,0.208835485,0.229387372,0.151791785,0.194382063,-0.119747801,-0.575190388,-0.271247903,0.222643541,-0.442966559,0.230070316,0.082639314,0.018893188,-0.117501273,
-0.231689012,-0.042470330,0.244642045,-0.108036074,0.075428924,-0.056762926,-0.388171078,-0.081499088,-0.042607308,0.216948458,0.025752123,-0.199679204,-0.066015996,0.375746409,0.104470780,0.069980043,0.025501164,0.261278789,0.152842456,-0.087365414,0.211816250,0.055710044,-0.227401064,0.125579403,-0.491539077,
0.377428780,-0.090738342,0.001166222,-0.190802908,-0.247576188,0.104884982,-0.157409105,0.698139998,0.122191596,-0.363167039,0.176558388,0.057015742,0.330941949,-0.023125989,-0.545901724,0.046526900,0.182337135,-0.152613641,-0.455296802,0.137569184,-0.031818488,-0.140801083,-0.013912951,0.304246706,0.112821966,
0.281069243,0.260172765,-0.141306001,-0.116759143,0.315323879,-0.028353927,-0.390253368,-0.371437572,-0.091688942,0.271085687,0.275140516,-0.121049663,0.037889985,0.023457013,0.092663049,0.028811459,-0.130553983,-0.223417310,0.410409629,0.174119290,-0.091062831,-0.115629694,-0.286988076,0.371435196,-0.317260226,
0.091682362,0.283610642,0.348985022,0.033109889,0.048064029,0.392470117,0.081875032,0.341449726,-0.204341582,0.047464568,-0.492627959,-0.306408542,-0.007208420,-0.092061665,0.163971989,-0.396546596,-0.113545666,0.001321453,-0.239351729,-0.044788206,-0.205698986,0.273825245,-0.017851467,-0.085712321,-0.169506157,
-0.053962984,-0.265930044,-0.009053583,0.157364369,0.135540354,0.102264759,0.428084031,0.225495435,0.477721633,0.114180878,0.461054163,-0.248316754,0.012996631,-0.103114874,0.210971323,0.143620943,0.436980790,-0.192803239,-0.076418345,0.036836945,-0.169228486,0.208605771,-0.150573789,-0.127149678,-0.234053264,
-0.102666231,-0.308215735,0.006612891,-0.100614617,0.472720004,0.121936245,-0.072504714,0.056398355,0.273114684,-0.016019291,0.202694548,0.092411224,-0.242384882,0.172491164,0.285777301,-0.474584387,0.496266471,-0.476895218,-0.450646461,0.042709808,-0.345761383,-0.011433110,0.155287581,-0.053218945,-0.075437459,
0.426760736,0.204194834,-0.120995957,-0.265742933,-0.054388232,-0.092831461,-0.100546685,-0.109461793,-0.013251409,0.400373638,-0.172290584,0.092458986,0.099538707,0.125074167,0.178924133,-0.129745611,-0.102640281,-0.050685166,-0.267598295,-0.059006700,-0.184859620,0.319284727,0.180362221,-0.108329012,-0.346075526,
-0.057700718,0.003841613,-0.070572861,-0.123878630,-0.092151876,0.245407565,-0.264461706,-0.493104980,0.238731432,0.004389757,0.142840006,-0.056487757,-0.004002679,-0.268217648,-0.023060107,0.008085735,0.158038562,-0.014446717,0.289657617,-0.328032486,-0.153787417,0.033574532,0.301724501,0.177662699,-0.103196460,
-0.218322754,-0.019128489,0.120789002,-0.176774671,0.093565245,0.049233764,0.269667038,-0.127874206,0.037605152,-0.511334964,-0.443705398,-0.131810994,-0.421001485,0.160185293,0.321655316,0.040466045,0.391833574,0.287363903,-0.063165807,0.468401021,0.095671503,-0.146479507,-0.291025135,0.293610592,-0.317131120,
0.212614869,-0.095921386,0.431527491,0.076486878,-0.067864206,-0.035884989,-0.009617617,0.191485290,0.377574694,-0.068529116,0.102407657,0.009402542,-0.292642703,0.199399571,0.198019056,-0.313139181,0.061632846,-0.192836758,-0.389407557,0.357078370,-0.047603240,-0.182174491,-0.032343458,0.011794454,0.316978440,
0.168442389,-0.097935122,0.169355554,-0.163781117,0.022210079,0.092763391,-0.082336019,-0.112666265,-0.049556869,-0.370443083,-0.098301124,-0.282832609,0.286042799,-0.143051043,-0.097262456,0.000956570,-0.094020729,-0.424247690,-0.041915227,-0.289455971,-0.036842430,0.181710705,0.040732240,0.028067873,0.173224362,
0.266560206,
-0.283564376,
0.290377591,
-0.310422253,
-0.401386614,
0.381289269,
-0.057177143,
0.144128079,
0.151943407,
-0.147158357,
0.110781516,
-0.286302349,
0.070017428,
-0.025959901,
-0.383539788,
-0.090568756,
-0.285708459,
0.173564675,
-0.032931464,
0.076544226,
-0.138645129,
0.186980407,
-0.459914473,
-0.127602812,
0.039333258,
-0.352481810,0.014614464,-0.280490831,-0.155554714,-0.053919092,0.207237293,-0.058240349,-0.022963888,0.136222281,-0.531349266,-0.085934316,-0.280568283,-0.287870042,-0.071989659,0.300377545,-0.534062824,0.019126447,-0.225376791,0.045377904,-0.206636058,0.431605233,0.147829888,-0.233619155,-0.182851137,0.016745954,
0.069911931,0.166133308,0.193107739,0.032889559,0.040128632,-0.081526549,-0.055218720,0.294048855,-0.512426250,-0.228439999,-0.141044124,0.053795926,-0.256896414,0.105672025,0.112087095,0.081253562,-0.028534646,0.209870397,-0.218600406,-0.539104391,-0.018184754,-0.335384784,0.021755725,-0.053292927,0.208770147,
0.307933639,-0.259749276,-0.187998578,0.047352485,0.068303886,-0.202668540,0.059706265,-0.352482428,0.188964471,-0.207719933,-0.541026565,0.000190360,0.014424684,0.337707070,0.212594733,0.244255984,0.084322790,0.076022186,0.102368829,-0.124017688,-0.036940561,0.018622673,0.087298487,0.268880931,0.051728078,
0.132128537,-0.052390208,0.073721241,0.315149192,0.040260325,-0.009110724,0.084755040,0.118466275,-0.218400419,-0.233402306,0.070345020,-0.076869639,0.095420206,-0.095548221,-0.324179345,0.085400997,-0.003807417,0.154707184,0.294847329,-0.292708384,0.152086656,0.276614900,-0.067862300,0.055414947,-0.033563772,
-0.186307257,0.108941342,0.357584570,0.411738359,-0.035444177,0.346440006,0.140402500,-0.064099469,-0.039254941,-0.498979036,0.015860606,0.013813661,-0.064765186,0.145962259,0.026964053,0.234768058,-0.070172701,-0.015072949,-0.267586006,-0.036145280,-0.184330209,0.086607875,-0.078353082,-0.080711429,0.279127732,
0.162296985,0.092074584,0.165889137,0.035823415,0.331405535,-0.027381650,0.560481360,0.289273985,-0.135372930,0.109713311,-0.025554070,0.191623502,0.002071470,0.071634818,0.062472941,0.146912189,-0.294542666,0.089443379,-0.088595825,0.220073948,-0.146415284,0.220033164,-0.225337895,-0.228170275,0.040548591,
-0.453795506,-0.138318600,-0.069392929,-0.124845851,-0.049968918,0.606576315,0.082061904,0.097876509,-0.145365764,0.029596227,0.276033208,-0.307741603,-0.383359706,-0.015760450,-0.436333977,0.225857214,-0.239402570,-0.241237008,-0.077061410,0.162125798,-0.348915254,-0.053701429,-0.065187114,-0.271085823,-0.094589652,
0.085418092,0.193833579,0.159021838,0.091241998,-0.120493819,0.103649226,-0.107427491,-0.258914437,0.230002614,0.688023465,0.086058648,-0.280239216,0.077706530,-0.073353777,0.056241888,0.133955007,-0.100997694,-0.237773985,-0.101918876,0.085430346,0.101904799,-0.100883984,0.007563498,-0.095998845,0.133110428,
0.374511364,0.490898711,-0.110745595,0.184916460,0.150041831,-0.118791866,0.144887642,0.161961741,0.247725220,-0.143137508,0.158229551,0.009162868,0.258784274,-0.100429727,0.281814685,-0.034900048,0.247018881,0.104005958,-0.103081116,-0.143239635,-0.101180108,-0.342439819,0.076189770,0.006258113,-0.052113453,
-0.186472578,-0.062084475,0.132566077,-0.482888613,0.263381360,0.609334966,-0.016145198,-0.169860065,0.289552164,-0.048338061,-0.163178757,0.221605336,0.191374738,-0.219503946,-0.382865953,-0.066112663,-0.166197753,0.340869190,0.231073884,0.040287859,0.182099044,-0.196448513,-0.069763980,-0.061865028,0.109330349,
0.120676236,0.145496768,0.031932461,0.338508890,0.001366252,-0.144337520,0.139443200,-0.336142099,-0.519629050,0.546113342,-0.381051864,-0.320003523,0.400935179,-0.177917425,0.116950857,-0.274438838,-0.004357712,0.366179854,-0.232432561,0.230588897,0.049600026,0.222682709,-0.153311735,0.032261495,-0.064877969,
0.006596461,0.031210183,-0.028711911,0.112724233,-0.081205182,0.031741979,0.100981592,-0.063382688,0.340221259,-0.246750728,-0.154124962,-0.145557584,0.178500783,-0.375239700,0.077940302,-0.184803926,0.128150332,-0.227190301,0.087587373,-0.266228166,0.199623659,0.293004413,0.128441184,-0.140471562,-0.290239179,
0.156430867,-0.552985205,0.212201605,-0.005295121,0.216033685,0.053108826,0.313913939,0.002370479,-0.058060170,0.374233090,-0.385561089,0.022091789,-0.379912963,-0.088576874,0.044026893,0.257440141,0.078734226,0.001535151,-0.480482876,-0.022003991,0.128954698,0.179455255,0.143332570,0.245069991,-0.329496423,
0.358220807,0.269606739,-0.192370137,0.187286099,0.174527913,0.085430496,0.225065031,0.083169281,0.047361611,-0.191887512,0.074417087,-0.066140924,0.098367357,-0.236311743,0.123849414,-0.211480910,0.007729908,-0.132516326,-0.159105555,-0.238719418,-0.326692051,0.129662041,-0.113124554,-0.205578946,-0.448691314,
0.002870102,-0.326300774,-0.236743272,-0.234690158,-0.203594630,0.152926789,0.040765963,-0.320642786,0.014926786,-0.475425180,0.389308978,0.037098410,-0.420737298,-0.330636119,-0.104751625,0.226246290,0.183373338,-0.197184364,-0.045527580,0.068811601,-0.302507308,0.213408598,-0.480275922,-0.033727263,0.186207357,
0.518044900,0.250416156,-0.196270437,-0.318885019,0.325615954,0.174906041,0.003665274,0.099262448,-0.204369308,-0.355046846,-0.036111507,-0.043455413,0.078642698,0.116552983,-0.185480135,-0.237701418,0.042459553,0.148372497,-0.137050535,0.277827937,0.097860519,0.128535670,0.269193305,-0.233148784,-0.456470039,
0.270707496,0.211731464,0.223826065,-0.266534576,0.402493188,-0.261055739,-0.209598134,0.225514890,0.141376677,0.009927310,-0.024681260,0.510362793,0.170280342,-0.086601574,0.443139493,-0.345905557,-0.467415011,-0.143520563,-0.247501949,0.151777767,-0.021079241,-0.039650709,-0.104367698,0.206564260,0.152087968,
0.439134122,0.137946575,0.110510886,-0.126720931,-0.173130045,-0.311227841,0.201627255,0.136558739,-0.088198107,-0.197281884,-0.179335026,-0.053502694,-0.171744069,0.399084164,0.268457065,0.436631712,-0.083901666,-0.108252194,0.003621730,-0.090754286,0.152524503,-0.108765328,-0.161461160,-0.429146488,0.155202100,
0.116885391,-0.233403083,0.218392700,0.303213158,0.243384215,-0.312654812,-0.026446759,0.052832767,0.221841433,0.092945497,-0.104227639,0.412848716,-0.174848115,-0.004757218,0.135300414,-0.195816972,0.276838828,0.073836154,-0.108331841,0.293152899,0.023754804,-0.225005520,-0.198274288,-0.025468212,0.025704291,
0.210946588,-0.233162777,0.288355310,-0.035586149,-0.060660790,-0.408229089,-0.183170307,-0.315555195,0.199221074,-0.451725484,-0.497627724,0.388220058,-0.159561834,0.235284168,-0.454428438,0.168106777,0.019583822,0.000521590,0.364027316,0.108930624,-0.023422413,0.545837976,-0.236880356,0.154860422,0.147286771,
0.136286559,0.089538694,0.093136370,0.098775789,-0.401456043,-0.450174558,-0.088611316,-0.359392620,-0.115710317,0.227018481,-0.159556705,0.221220886,-0.106530549,0.377885883,-0.149904137,0.006356707,-0.235435332,0.177216234,-0.373062720,-0.183087699,-0.061397586,0.062494993,-0.065860811,-0.082224506,0.046674322,
-0.026254575,0.102605414,0.453877503,0.102887799,-0.330726108,0.153727878,0.214748882,-0.013469064,-0.138950297,0.125353795,-0.431669622,0.139788165,0.139945311,-0.009288622,-0.312687222,-0.027214241,-0.198075051,0.138544295,0.056082600,0.147734132,-0.210321992,0.211459338,0.138389897,0.164084634,-0.483577578,
-0.034286255,-0.016210037,0.138412120,0.000369676,-0.040638046,0.085622632,-0.505114078,0.164678638,0.134519735,0.026597204,-0.221625329,0.001708235,0.161989180,-0.036971714,0.040805500,0.233386156,0.284342333,-0.178942118,-0.404066756,-0.018149928,0.021405934,-0.176934552,-0.072499794,0.137716119,-0.063606414,
0.307963633,0.199174671,0.080933995,0.231794418,-0.203369279,0.100347900,0.327114824,-0.187952219,-0.198396576,-0.149977968,0.229331858,0.043901419,0.284464705,0.462858636,-0.062810600,0.162082704,-0.201499568,-0.249400612,-0.209785363,-0.424691082,-0.236650471,-0.032052102,-0.161074711,0.205977612,0.313186130,
0.204261536,0.244139453,0.106093583,0.041378986,-0.200507887,0.017557433,-0.017189481,0.019753393,0.329601551,-0.171758162,-0.125007702,-0.351414784,0.119178306,0.175772273,-0.231284961,-0.051860556,-0.102278185,0.126490716,0.132965902,0.294915416,0.193400824,0.270486416,0.020982131,0.020785760,0.026035034,
-0.132208827,
-0.316604989,
0.117178046,
0.332040680,
-0.069559365,
-0.276791647,
-0.045245040,
-0.017569830,
-0.090576758,
-0.192525480,
0.024568275,
0.023984910,
0.007807284,
-0.074175554,
0.306634845,
0.387783905,
-0.554224899,
-0.029737568,
0.276228224,
-0.285984285,
-0.040149171,
0.165513310,
0.421840238,
0.226003906,
0.221835585,
-0.322416411,0.010142447,-0.208424358,0.144142624,-0.367494223,-0.504716737,0.006747584,-0.120114433,0.007655911,-0.230156625,0.068074453,-0.174465117,0.079092746,-0.039378655,-0.010685584,0.049237695,-0.060303943,-0.126933855,0.133906725,-0.173014794,-0.028714499,0.225771916,0.027014249,0.144410320,0.232837151,
-0.156961649,-0.226053694,0.258836782,-0.110718172,-0.284496502,-0.110210912,-0.295382108,0.092465063,0.253117943,-0.087924872,0.298792359,0.010640715,0.370881997,0.301739003,0.054280662,0.042123178,0.229687243,-0.209011535,-0.161176864,-0.506101512,-0.035348387,-0.126689943,0.358488482,-0.330388581,0.088799748,
-0.028311443,-0.101389172,-0.203176278,-0.192867003,0.340624831,0.213392367,-0.036700890,-0.175569339,0.350773035,-0.114885812,-0.187401831,-0.022469309,-0.076938396,0.175512857,0.149353052,0.569320952,0.245748280,0.011483485,-0.066733450,-0.264493848,0.021283719,0.047522524,0.267164206,-0.134833603,-0.088207155,
0.293249622,-0.023483608,-0.113589131,0.137384712,0.236551849,0.133437035,0.368058041,-0.198159362,-0.363204908,0.193126835,0.389239412,0.085696857,-0.081004778,0.118202580,-0.291593916,-0.054057751,-0.196323490,-0.071652658,-0.202137731,-0.111543444,-0.106151819,-0.098785758,-0.221682905,-0.014936114,0.343757807,
-0.200784670,-0.101296127,-0.109759301,-0.126226932,0.333183878,-0.098000122,-0.229065337,0.202463556,0.275470283,-0.295204755,0.239488808,0.075170163,0.430283026,-0.245824791,-0.475823288,-0.296434947,0.125691750,-0.042274503,0.397168594,0.146889468,0.194798804,-0.301528995,-0.150347012,-0.172870895,0.270557786,
-0.075010300,-0.066757925,0.179180224,0.194894192,0.264909156,-0.161233958,0.006100163,0.168209604,0.168650743,0.246993391,0.175417195,0.356652926,-0.125073877,-0.099295087,-0.106029772,-0.160106619,0.283570853,0.043032803,-0.289104018,0.480270983,0.124637146,0.077268113,-0.275801870,0.102982869,0.063365449,
0.418044313,0.122364892,0.220437541,-0.083969054,0.157396942,-0.213160085,0.240214176,-0.068067741,-0.419892577,0.064029562,-0.069090846,-0.437071147,0.119015069,-0.111141502,-0.194448350,-0.259250460,0.013624170,-0.009772874,-0.217815750,-0.379143530,-0.107835435,0.009676602,0.006457694,-0.092927848,0.022021115,
-0.060025724,-0.088704367,0.014566368,0.286613790,-0.227868508,0.054651636,0.182417951,0.342500813,0.136614815,0.051343238,0.204104436,-0.235003064,-0.307148493,-0.430703577,-0.219725755,0.021427452,-0.460353404,-0.073386676,0.418614743,-0.002485564,-0.082353517,0.056673992,0.464600569,-0.075669170,0.427690218,
0.329631423,0.164730473,0.169693715,0.285050474,0.005782851,-0.075098016,0.111426491,0.076329662,-0.100702512,0.423223182,0.161268475,-0.049263183,0.360931559,0.024919360,-0.150531006,-0.588042175,-0.046832697,0.337103976,0.054466279,-0.202009489,-0.176531519,-0.223590708,0.084868458,-0.051881167,0.041762269,
-0.029539477,0.347429215,-0.223235909,0.496070085,-0.107313579,0.258768162,0.114348822,-0.266050997,-0.334217402,0.337400842,0.055361976,-0.072855312,0.142155172,-0.101107316,0.033162724,0.085289640,0.085395687,0.062197453,0.156667447,0.278310565,-0.122370489,0.048274275,0.043815637,0.078368132,0.050939281,
-0.301980148,-0.428780469,-0.131076045,0.447446938,0.262259081,-0.026062978,0.092608821,0.040945545,0.190600088,0.166774959,-0.056451359,-0.030876453,-0.195849903,0.117278450,-0.004591753,-0.031354030,-0.148871059,0.112011097,0.033909347,-0.148448480,0.270309813,-0.096733142,0.281149696,-0.096118221,-0.070632594,
0.192304178,0.063410445,0.005976688,-0.332419747,0.271382208,0.061986678,0.322202564,0.290820403,-0.394381794,-0.105471355,0.003822015,-0.038361655,0.002647549,-0.343490161,0.177035400,-0.560413416,-0.430748935,0.280547224,-0.157604711,-0.030062826,-0.125369115,0.116980569,-0.259081742,-0.030681310,-0.123123801,
0.177601135,-0.286384534,0.099360309,0.303811230,0.376272397,0.090573215,0.230736579,0.092971245,-0.019856304,-0.267749299,0.013498483,-0.600058848,0.238966568,0.494251565,-0.051088466,0.260570319,0.127805247,-0.204400541,0.163118225,-0.115485476,-0.119722261,-0.065991082,0.128137891,0.013989051,0.061786131,
0.077011525,0.412314129,0.039029244,0.099436974,0.375764593,0.185734096,-0.028718452,0.391036290,-0.051547674,0.355615842,0.018105068,0.175065760,-0.238402704,-0.106181022,0.227359095,-0.306235947,-0.356457364,-0.221985874,-0.103454941,-0.501750159,-0.076343787,0.123558581,0.222424462,-0.193832812,-0.534518721,
-0.003685719,-0.430069923,0.157588806,-0.272631137,-0.136181103,-0.186595551,-0.190633789,-0.068357228,0.194512348,-0.154404086,-0.467858995,0.108275667,0.028394279,0.468281396,0.181606233,0.055575273,0.038926258,0.145949908,0.024642642,-0.147623923,0.111788570,0.092381776,0.326542545,0.044855882,0.050137430,
0.163919726,0.073593760,-0.174236280,0.073868543,0.119162671,-0.064211652,-0.372123289,0.048116456,-0.078074804,0.108100517,0.262910280,-0.434508462,-0.013751015,-0.072304469,0.006843280,-0.258591423,-0.276322769,0.046323384,-0.143051451,0.380341500,-0.112995808,-0.173660772,-0.285904932,-0.042745935,-0.359517627,
0.077948008,0.214101002,-0.085617629,0.173319317,-0.094214674,-0.119830203,-0.327857113,0.292147220,0.406404606,-0.041298499,0.001790621,0.001331278,0.359725715,-0.029052140,0.305141723,-0.511890386,0.167867608,0.153476256,0.152005405,0.115381215,0.040412586,0.007110776,0.098846645,0.199941477,-0.005950506,
0.283787607,0.294476797,-0.201397549,0.472578812,-0.320387240,0.448134015,0.022090906,-0.093020407,0.131006833,0.051222523,0.074793528,-0.082678802,0.149029418,0.082313786,0.182186070,-0.189827788,-0.173092012,0.056232786,0.070063394,0.009818987,0.179830820,-0.100729386,0.302067124,-0.092829929,0.173967400,
0.308079164,0.314126878,0.011242353,0.093607935,-0.050092514,0.004351462,0.109996537,0.122546175,0.279964955,0.019739627,0.120357818,0.519138117,-0.394431032,0.107934474,-0.017241719,-0.032174116,0.197972561,-0.133979169,0.176197127,0.160902249,0.015852430,-0.154797397,0.200259368,0.102555902,-0.522536614,
0.022543133,0.254540876,-0.070639450,-0.194459214,-0.047955157,-0.224256249,-0.023955414,-0.440095205,0.203343515,0.171772907,-0.357486039,-0.213207819,-0.214208180,0.076301025,0.011589615,-0.279200765,-0.208594341,0.150429100,-0.375301025,-0.034305849,0.096414984,-0.184798308,0.432154312,0.175262090,-0.064298421,
0.205122745,-0.253306099,0.071724790,-0.164306175,-0.248501210,0.030841243,0.181481685,0.390711327,0.181541331,0.471097478,0.340553393,-0.147618045,0.085568829,0.199496784,0.069779656,0.087094960,-0.174917044,0.376156324,0.039846120,-0.067097396,0.015681492,0.066091361,0.057951746,0.066124695,0.049933122,
0.078999374,-0.272425508,-0.161783285,0.341908261,0.430713903,-0.063421607,-0.157001384,-0.102584333,0.273986503,0.305316374,-0.132342585,-0.015929977,0.022486419,0.287342252,-0.275039224,0.314025000,-0.090262139,0.306273145,-0.154733434,-0.004575969,0.229409256,-0.312244348,0.073800355,-0.055877192,0.119706526,
-0.138603598,0.323283016,0.022813654,-0.169387718,0.034422074,-0.309172811,0.024774696,-0.154600828,-0.194045476,-0.086870894,-0.278176392,0.519911807,0.059645393,0.015943569,0.190278096,0.068675225,0.316773312,0.411283687,0.398655080,-0.189997870,0.229131761,-0.066540217,0.216683598,0.101816076,0.191941721,
-0.153719310,0.163107924,-0.241420732,-0.269345094,-0.108454704,0.179237647,0.185408325,-0.116558846,0.463809114,0.329855044,0.275474395,-0.052421256,-0.027147354,-0.201505803,0.205656218,-0.078770944,-0.221708678,-0.099515524,0.073531090,-0.178274475,-0.065946180,0.204246772,0.074229685,0.051409630,0.363389349,
0.225170274,-0.075933628,-0.134403871,0.275193936,0.043884619,-0.263168307,-0.017203511,0.145845703,-0.044502621,0.265815178,0.272448424,0.033777791,0.062876576,0.217671281,-0.134172946,0.110719259,-0.021881679,0.051555339,0.142771011,0.342020598,0.048457377,-0.208162537,0.345720312,-0.452867514,0.513694821,
-0.023270265,
0.050088495,
0.142520173,
0.042731808,
0.214317926,
-0.131157346,
-0.320411344,
-0.272240256,
-0.024310107,
0.117804347,
-0.088858000,
-0.280766861,
0.308677528,
0.115523754,
-0.020453282,
0.162281581,
0.062960440,
-0.495553754,
-0.313751707,
0.060915029,
-0.053823078,
-0.186837800,
0.407380423,
0.381362041,
0.001861433,
0.111575213,0.336604873,-0.063568418,0.222503014,0.471801495,-0.051472812,-0.374418047,-0.092138749,0.006016218,0.294315784,-0.158724071,-0.163827136,0.242384220,-0.102809727,0.244733808,0.158143841,0.267350313,0.295967910,0.167651468,-0.139255650,-0.080519305,-0.159176040,-0.090660400,0.076990896,0.304997098,
0.082629381,-0.298722170,0.054054261,-0.169257085,0.376161321,0.252894514,0.301913304,0.126966436,-0.050943629,-0.139435631,0.072974408,-0.143281908,-0.102365133,0.107995020,0.041534766,0.080644998,-0.048861032,0.098227658,-0.264393630,-0.391142365,0.023422312,0.155847095,-0.072705460,-0.025666034,0.120341816,
0.234268246,0.071297248,-0.087326678,-0.174224040,0.046844199,0.147335080,-0.045466583,-0.215732527,0.440757872,-0.236277348,0.170660620,0.100679126,0.068961332,-0.021001845,0.001787774,-0.201396717,-0.331832290,0.064569174,0.244434143,0.314670192,-0.136214079,0.207839369,0.225399337,-0.205505280,0.089700248,
-0.347485642,0.267350659,0.312819764,0.107172575,-0.115362795,-0.058747441,-0.163637908,0.061919798,0.047825668,-0.192547567,-0.327976124,0.049417782,-0.052749574,0.103632837,0.592179489,0.455259168,-0.224402722,-0.180847543,0.100914232,-0.192752536,-0.322928404,0.058697489,-0.258628422,-0.011406413,0.000240478,
0.357222906,-0.033263473,0.183662747,0.049543112,-0.361055201,0.173529399,-0.110215958,-0.057318329,-0.122760296,0.154730986,0.337069285,-0.205478697,0.228512068,-0.198413753,-0.481280474,0.285160831,0.126365155,0.177147951,-0.084551769,0.282093079,0.226990184,-0.078537658,-0.005577358,0.017475454,0.024182963,
-0.381769538,-0.058449438,-0.301405968,0.087177225,0.068013253,-0.095881774,-0.325459847,0.055581312,-0.107878350,0.320366241,0.035174808,-0.027497729,0.279273276,0.065487855,0.308159480,-0.116241160,0.037722347,-0.184614560,0.297243791,0.197916870,0.220005744,0.071424030,-0.160565549,-0.051514968,-0.283124262,
-0.262124278,-0.134387383,-0.264651129,-0.061895764,-0.229100010,0.060762757,0.085849545,-0.044518871,0.198280317,0.118492177,0.535439468,-0.134138416,0.479200098,-0.078866623,0.041945893,-0.102965342,0.105056386,-0.000745783,0.131693919,-0.042163752,0.191553523,-0.338611736,0.228218047,0.126782630,0.125628580,
0.159810882,-0.191609512,0.354743771,-0.023759587,-0.014204454,-0.053234836,-0.030574548,0.169311406,-0.097731299,0.118018014,-0.135751037,-0.289698937,0.002602372,-0.079499044,0.065841162,-0.088822899,-0.145181763,-0.232450529,0.138340922,0.298009341,-0.114428303,0.430304698,-0.073544125,0.378831671,-0.009207831,
0.322893575,0.029946346,0.085927932,0.055248026,-0.162982434,-0.293180983,0.155231428,-0.458595187,-0.270047480,0.075554681,-0.051512871,-0.214718290,-0.332525386,0.045903978,0.321385837,0.232788795,0.199091266,0.372980552,0.056195139,-0.355059165,0.304154493,-0.275711843,0.327708684,0.027132723,0.050572129,
-0.050293860,-0.242101360,0.138776899,-0.186949729,0.120196718,0.048551357,-0.057457802,0.247462887,-0.312323000,-0.110797739,0.063705433,-0.083482729,-0.385192513,0.185920695,0.093484419,0.187766088,0.029295766,0.094150099,-0.108551467,-0.217244881,0.349965900,-0.168145678,-0.377394615,0.112991139,-0.284412451,
0.287097092,-0.532417380,-0.243608800,-0.016622741,-0.150613732,-0.021099873,0.255997893,-0.030755878,-0.323597519,0.272432157,-0.007731735,0.093299154,0.244731106,-0.139126589,0.413544825,0.022151927,-0.018748149,0.142207856,-0.036082518,-0.157160278,-0.169494964,-0.137327036,-0.235821137,0.391129347,0.142543347,
-0.123804302,0.215333955,-0.125843307,0.083523672,0.368448095,-0.090705351,0.193877579,0.204381303,-0.139051633,0.102333742,0.072143932,-0.006137073,0.029265682,-0.138147037,-0.084471221,-0.060475791,0.110790982,0.161131470,-0.269360003,-0.151976827,-0.248531520,0.192734895,-0.069829128,0.076469699,0.006094009,
-0.211384723,0.177324969,0.039814015,-0.030438580,0.043735465,-0.302066771,0.064376520,-0.057944640,0.001697122,0.122936311,-0.215054310,-0.090079130,-0.029592627,-0.023140482,0.127622019,0.090052507,0.390353411,-0.033225465,-0.053741559,-0.107811695,-0.207127578,-0.152878651,-0.140785047,0.153186513,0.161741077,
0.224009933,0.263502281,0.333683143,-0.007817666,0.061676137,0.210222004,0.102832847,0.126464273,0.017406617,-0.188690014,-0.040541633,-0.047013561,0.349715320,-0.037264580,-0.074527240,0.388693983,0.218486222,0.009197897,-0.005944982,-0.209680751,-0.334649853,0.241820094,-0.119650691,0.070634771,0.060915380,
0.181659033,-0.063913145,0.063112171,0.132673012,-0.251595908,-0.107446758,-0.459946603,-0.368305356,-0.044151267,-0.311036421,0.115713256,-0.002488068,0.257199964,-0.101132383,0.127406525,0.108856501,0.297560769,-0.287694370,0.060055856,-0.302063664,-0.451887507,0.131355936,0.263573720,0.059745576,0.231970232,
-0.017903518,-0.013240000,0.216973386,-0.083592938,0.161461014,0.120602585,-0.222096480,-0.001207334,-0.062165857,0.034604103,0.143306327,-0.002963693,-0.330417003,-0.026159751,0.270537055,-0.086688755,-0.158367138,-0.306066852,-0.085885256,-0.114595946,-0.002057861,0.022378284,-0.184126913,-0.055341028,0.184187451,
0.276771639,-0.641550050,-0.326842706,0.274180142,-0.060684961,0.346063079,-0.271916640,-0.034400182,0.058760984,-0.177797573,-0.009869603,0.238181431,0.097183520,0.097340405,0.024798755,-0.334727602,-0.280791364,-0.462389287,-0.062988366,-0.108308255,0.486889430,0.262854744,0.462044330,-0.022708221,0.388902893,
-0.114673436,-0.186513293,0.067167561,-0.369475915,-0.195400954,-0.221891153,-0.201911165,0.452608665,0.020660734,0.022778557,0.014447049,0.097547629,-0.204206556,-0.075372565,0.004573189,-0.181895093,-0.155344532,-0.111780038,0.090892434,-0.058873020,-0.004288341,0.649058381,-0.420124367,0.073975032,-0.023195797,
0.354296857,0.316611734,0.188746502,0.230112391,-0.127480638,-0.415359835,0.010985956,0.111890980,-0.390691120,0.215933198,-0.050315953,-0.074840792,-0.172984257,0.029413343,0.026645427,0.393485438,-0.225330647,0.048532618,-0.195424714,-0.315551146,0.068613955,-0.384098483,-0.248261228,0.094278624,-0.003242412,
-0.024990581,-0.206168683,0.155283869,0.016325321,0.047529448,-0.028205948,0.003857345,-0.063202578,0.114636297,-0.139652630,0.061910235,0.334244717,-0.125396037,-0.429468150,0.584304952,-0.082699465,-0.287897407,-0.001969637,0.046114604,-0.080035521,-0.002906765,-0.162672955,-0.335532444,0.254072012,0.064904632,
-0.130467116,0.138966762,-0.078538522,0.189150769,0.044163785,0.204770797,-0.033922462,-0.074538610,-0.051535525,-0.073367199,-0.060821863,-0.174413397,-0.232008391,0.086500436,-0.394826091,0.127859470,0.011325096,0.100428754,-0.041294924,-0.101068709,0.007561269,0.015458528,0.255505501,0.012117033,0.029580643,
0.298769726,0.044713054,0.030560000,0.532826982,0.364501931,0.318947594,-0.085964657,-0.042781985,-0.191356162,0.322420065,-0.218915941,0.275001021,-0.119055409,0.340256645,0.139523859,-0.073914685,0.169809408,0.015529904,0.012078716,-0.004175382,-0.107973577,0.255150761,0.096164459,0.094181637,0.236605979,
-0.454971500,-0.281943264,0.155285450,-0.230704488,-0.219301412,0.212827048,0.051186243,-0.221182421,0.023212695,-0.284916794,-0.225889093,-0.024837850,0.014413724,0.013536765,-0.334523746,-0.005320003,0.102512995,-0.246820279,-0.213656044,0.067883483,0.367946475,0.065665205,0.147081984,0.155406066,0.045937049,
-0.120956863,-0.009916831,0.005640314,-0.056964353,0.258371262,0.182629591,0.128162788,0.062891321,-0.025082466,-0.017229681,-0.230770296,0.169737006,-0.012072596,0.039840560,0.095104453,-0.235901153,-0.020330601,-0.128686811,0.097586850,0.257552845,0.104443504,-0.119710950,-0.021926649,0.061660769,0.231860020,
0.177067578,-0.032561613,-0.101905434,-0.110239584,-0.274818643,-0.113597498,0.219543455,0.077459454,0.198707402,-0.082678751,0.190352498,-0.160143744,-0.001247235,0.110836937,0.014371976,0.127514848,-0.119963889,-0.012682557,-0.208751593,-0.053076954,0.014291287,-0.192149442,0.062330532,-0.075178617,0.155390979,
-0.312160373,
0.058681180,
-0.299501361,
0.074216414,
0.236316047,
0.044322481,
-0.117575455,
-0.067693931,
-0.355257216,
-0.300667457,
0.394296153,
0.044700030,
0.156890303,
0.242313679,
-0.024244075,
-0.199808227,
-0.139640273,
0.253872507,
-0.213047674,
-0.275658300,
-0.048317088,
0.082528245,
0.103281041,
-0.138515573,
-0.075198334,
-0.052425537,-0.173690873,-0.244924384,-0.003160656,0.204757701,-0.004064260,0.046718048,-0.163338102,-0.142324469,-0.255331292,-0.084412007,-0.102964866,0.091213588,-0.130686304,0.040704397,0.085392011,0.205290950,0.450614628,-0.178091840,0.200813345,-0.195795600,-0.035326300,-0.353770751,0.334694195,-0.106681648,
-0.413348639,-0.074771820,0.490100436,0.556822417,-0.284113850,-0.071856022,-0.095703389,0.292453075,0.045385915,-0.358010248,0.057229573,-0.047361553,0.065962448,0.330170728,0.165429769,0.390117165,0.097769368,0.188768072,-0.616353944,-0.066422034,-0.273780583,-0.028386216,-0.062688903,-0.127250841,0.479030971,
-0.302189129,0.307357152,0.045424706,-0.155399823,0.196919720,-0.121441998,0.043126890,-0.681134281,0.112423500,0.085791687,0.019798606,0.066476222,0.030916374,-0.059533322,0.322353050,-0.274219056,-0.186192680,0.261319910,-0.011714423,-0.409152391,-0.285575883,-0.107286827,0.302347190,-0.274419790,0.405596889,
-0.081179692,-0.071198480,0.185743078,-0.084861332,0.234895590,-0.364869783,0.467053794,-0.012253179,0.268283882,0.333088808,-0.208428246,0.137870489,0.205389756,0.199194761,-0.131038016,0.579515081,-0.235609485,0.140127761,0.343226448,-0.171971129,0.138225315,-0.030272249,-0.091978205,-0.224151130,-0.040383493,
-0.096867037,0.225715755,0.048534703,0.088718598,0.271275424,0.041755786,0.185741409,0.098150661,-0.145592018,-0.415831567,0.122086606,-0.149348652,0.084678640,-0.116287929,0.042575224,0.046991723,-0.376102780,0.196837163,-0.061225566,0.197813596,0.289042728,0.176511480,-0.536041545,-0.087687092,0.055827688,
-0.059003398,0.021755946,-0.046179003,0.055898788,-0.092199943,-0.033176965,-0.046456163,-0.011010592,0.224622977,-0.306388219,0.557374539,0.008554690,-0.106729949,-0.345110829,-0.149702812,-0.185297058,-0.153865022,-0.200247123,0.252890855,-0.227423081,0.397057408,-0.171229660,-0.199948846,0.278583791,0.190113112,
0.024957138,-0.044189383,0.112556471,-0.199063477,0.328476597,-0.219336932,-0.229276902,0.269162434,0.278321946,0.055324398,0.044006575,-0.118171664,-0.158129965,-0.099141018,0.235551020,0.258453817,-0.274187931,-0.212756535,0.030769217,0.216362201,0.011582533,-0.231937769,-0.124743776,0.104019938,0.473741062,
-0.235398857,-0.126190163,0.183008131,0.153279982,-0.016041633,-0.275250429,-0.241311683,-0.016509055,0.179079896,0.019905095,-0.095885066,-0.163863423,-0.413359515,0.003643786,0.051390042,0.130989463,0.163338957,0.177370163,0.006336059,-0.153277146,0.476827390,-0.054675088,0.054556906,0.030187989,-0.072187008,
0.015435028,0.385410156,0.464557471,-0.019957890,0.079243405,-0.171459649,0.033039220,-0.365868738,0.025892325,-0.244596708,-0.000789821,0.143043836,0.039208690,-0.104263828,-0.320374485,0.274974972,0.240892660,-0.049944735,0.298161020,-0.012986048,-0.034211931,0.045192239,0.518325794,0.123136542,-0.212165772,
0.174561138,0.698770192,0.090990663,-0.372816765,-0.194492235,-0.018293436,-0.216491856,0.001571968,-0.385437823,-0.213411416,0.410481545,-0.096511357,-0.040397387,0.248837192,0.117206467,-0.264358143,-0.043457993,-0.012922820,0.012068579,0.688095469,-0.060983014,0.126140217,0.173670708,-0.095117326,0.196443116,
0.604412791,0.191387926,0.042605358,0.255780676,-0.319041840,-0.009775631,-0.033043706,0.017153999,0.171131712,-0.125750150,0.026054871,-0.374326380,-0.169248330,-0.209780517,-0.217067950,0.129185977,-0.003499453,-0.178297704,0.150149739,-0.105924204,0.642436030,0.080547531,0.184504984,-0.026530126,-0.002246623,
-0.206742010,0.111459041,-0.154173215,0.157934110,0.016364320,0.157497016,-0.025351656,-0.099093686,-0.191462677,0.170913240,-0.182541015,0.296521961,0.493964776,-0.033986148,-0.022254486,0.023007617,0.043473227,-0.142664745,-0.563462639,-0.045283340,-0.038668854,0.075341807,0.306120902,-0.218603812,0.154957173,
0.183018409,0.208170230,-0.033116583,0.347040760,-0.041620125,0.213004275,0.106115638,0.416488371,0.350078723,0.099629242,-0.358216572,0.282667076,0.189913685,0.213116842,-0.241705471,0.234355531,0.314554472,-0.084784420,0.340578504,-0.266093137,-0.015498618,-0.244289364,0.359162330,-0.163603375,0.275276855,
-0.058947255,-0.107243885,-0.308305821,-0.426171254,-0.327660018,0.228908803,-0.192060836,-0.044576002,0.229419816,-0.334974105,0.155142706,0.209022373,0.222198890,-0.333107159,0.062589173,-0.092776481,0.127204206,0.075602698,0.149050734,-0.131354369,0.073208043,0.096215322,0.355413628,-0.042022757,0.120972184,
0.121039608,0.198501085,0.230450047,0.173216538,0.235235899,0.086938123,-0.000927362,0.378342937,0.025056652,0.067162017,0.146825039,-0.405467309,0.040459038,-0.399642931,-0.095518317,-0.248367603,-0.207599373,0.083956210,0.006259504,0.054189665,0.259660245,-0.140524834,0.126050921,0.250933568,0.317325033,
0.378644144,0.071340577,-0.129185342,0.086722795,0.149974891,0.110726258,-0.250430697,0.228970519,-0.095340774,0.078273087,-0.058189955,-0.062307650,-0.001595132,0.109334256,0.430333029,0.094147942,-0.336856164,0.579614650,0.252600690,-0.075244519,0.006928430,0.110558276,-0.001557738,-0.003558744,0.233670372,
-0.033834946,-0.223548809,0.171937488,-0.128368605,-0.060873065,-0.159311459,-0.347565011,-0.030289570,0.001067518,0.109258959,0.036973864,-0.206634223,-0.126380098,-0.574036216,0.136040411,0.196707866,0.370346336,-0.179197553,-0.145926141,0.062776388,0.320084647,-0.115307824,-0.138049289,0.033420558,-0.192812279,
0.089866142,0.236465518,-0.424126190,-0.228950432,-0.061171507,-0.204848357,0.154933125,0.282446554,-0.497661193,-0.224025146,0.319620419,0.689258299,-0.172071571,-0.179256858,-0.176333126,-0.112329423,-0.129265651,-0.027338893,0.059098244,-0.231709621,-0.068009444,0.119662590,0.062020934,0.380881776,-0.204424572,
-0.257239263,0.087713148,0.197994660,0.256075380,0.174652205,-0.359005950,-0.135686310,0.164326442,-0.189299328,-0.160731315,-0.413372892,0.189767558,0.094818322,-0.247259207,-0.150733267,0.016190299,0.092017341,0.203196426,-0.197700563,-0.039423833,-0.212218382,0.229602045,0.283410371,0.267981691,0.225997018,
0.086709945,0.276964510,0.121587813,0.153678809,0.113637181,-0.143444787,0.079956275,0.088791570,-0.260601115,0.056242813,-0.297517804,0.103803709,0.373670948,-0.099165711,-0.015172776,0.065959420,-0.180037432,0.132673654,-0.002695845,0.151361398,-0.016090522,0.064087771,0.105610461,0.099065202,0.026399124,
0.247739346,-0.084189979,0.092364512,-0.217176371,-0.005758222,-0.030001357,-0.071377640,-0.092376685,-0.215410821,-0.076511061,0.156046268,-0.160280894,-0.000328531,-0.340104388,-0.038213951,0.138469844,0.321617680,-0.011743106,0.484595656,0.042824646,-0.079565790,-0.348945671,-0.089605369,-0.124429682,0.227116974,
0.092049775,-0.183867305,0.156174282,0.164745796,-0.137030228,-0.080966514,-0.014923644,-0.089374014,0.234237936,-0.158690626,0.305259135,-0.376343689,0.063427581,0.219769484,-0.163806991,-0.081624198,-0.382726495,-0.126745486,-0.266998463,0.341118399,-0.053097218,0.060132416,-0.170662765,-0.273646518,-0.184231600,
-0.284523048,-0.229993116,0.414910167,-0.073619601,0.092490671,0.256381533,-0.098111665,0.166157994,0.052738244,-0.112358953,0.052277705,0.080077244,0.129440594,-0.071363229,0.243498672,0.193479755,-0.146128121,-0.202322492,0.173521453,-0.269801666,-0.266414617,-0.198928668,0.288935217,-0.366970860,-0.194577497,
0.094998211,-0.321325969,-0.263444201,-0.079569994,0.115809128,-0.346639022,-0.117742430,-0.270167930,-0.149489630,-0.192396629,-0.206345869,0.215698054,0.216221669,-0.469485148,0.216126298,-0.079247454,0.127488289,-0.248018568,-0.035763375,0.147080640,-0.339276039,0.102226772,0.118845234,0.332745936,-0.094229753,
-0.455411027,-0.073498800,0.056680469,-0.026458524,-0.112077766,0.334681952,-0.080952891,-0.022288350,-0.113817146,0.033650439,-0.009062379,0.038209542,0.258275407,-0.310853239,0.350783037,-0.121555315,0.061746804,0.300523517,-0.139132296,-0.000682689,-0.629003510,0.082457025,0.480686791,0.311465973,0.046770686,
0.146051466,
-0.324127959,
-0.025340661,
-0.156677279,
-0.256047881,
0.161443655,
-0.051821566,
-0.293359576,
-0.095951331,
0.019533911,
0.228386087,
0.205057603,
0.308166173,
-0.126968572,
-0.207099314,
0.022903852,
0.289418858,
-0.080597305,
0.141606891,
-0.139906797,
0.042778940,
0.083253919,
0.253222966,
-0.085898507,
-0.037614774,
0.198944462,0.212285874,-0.022160008,0.133388484,0.103394048,0.294035509,0.031607440,-0.108692914,-0.098173836,-0.047836753,0.218616052,0.609967051,0.190646647,0.162157654,-0.069778454,0.023217744,-0.020807540,0.030579130,0.101475943,-0.332821519,0.361648701,0.005485692,-0.206922454,0.267664629,0.355000805,
-0.023893955,-0.442457582,-0.089226704,-0.821675553,0.196564506,0.159264664,-0.252419702,0.036154040,-0.269951445,0.095759653,0.143634868,-0.228755611,-0.097804763,0.012705761,0.303291533,0.105539513,-0.188932576,-0.113463763,0.369690458,-0.042909257,0.091635951,0.068818345,-0.263346215,0.045680970,0.044156964,
-0.059778767,-0.269553570,0.052751872,0.062318813,0.871800527,-0.348665169,-0.004677261,-0.026664837,0.270949326,-0.139175087,-0.325776832,0.185320030,-0.255823733,0.021655257,-0.119781991,0.114092533,0.138101063,0.082828026,0.008791514,-0.037561083,0.100417848,-0.174868432,0.132549288,0.072652570,0.075259082,
0.438300236,0.243755020,-0.314612604,-0.108354314,-0.020284580,-0.039842151,0.188724276,0.088563906,0.258418131,0.079841101,-0.226244856,-0.287910147,-0.437594372,-0.292139627,-0.249212244,0.051671254,-0.226776907,-0.233722779,0.363828142,-0.174506996,0.196876064,-0.100291528,0.131891843,-0.000281455,-0.150208732,
-0.229333543,-0.087494021,0.397873090,0.255336753,0.284420024,0.102633869,-0.008059947,0.069161803,0.009018503,-0.137917835,-0.028110600,0.270479735,-0.405132266,-0.197781391,-0.183112653,0.192629426,-0.163078087,-0.070906987,0.077686366,-0.114574844,0.026020152,-0.059411512,0.224333141,-0.166683759,0.214465400,
-0.038282008,0.002657413,-0.090537838,0.027486580,-0.381681360,0.254097048,-0.091669865,0.295286933,0.229755340,0.183358933,-0.060879230,0.000139357,-0.137298731,-0.148209035,-0.380966054,-0.200974043,0.601910083,-0.114795328,-0.055579899,-0.220195111,0.072961149,0.246716436,0.070862460,-0.112204249,-0.199293386,
-0.472881474,-0.191884415,-0.001910722,-0.254847078,0.079661625,0.068469628,-0.230374876,-0.467455070,-0.197654964,0.051321983,-0.027354947,-0.223606294,0.136112818,-0.204371976,-0.193964353,0.010751697,-0.202369817,-0.307684918,-0.153932703,-0.053979711,-0.164375979,-0.418671589,0.089795808,0.255468074,0.044544864,
-0.375837654,-0.091655639,0.128083128,0.001602675,-0.001041987,0.137974862,-0.147395355,-0.004512965,0.097921594,0.061356528,0.333860173,-0.125846727,0.089073877,0.101863201,-0.142651562,0.205207738,0.490909988,-0.196027579,0.056497871,0.034005152,0.222930712,-0.359154869,0.047501878,0.052584489,-0.188807381,
-0.186123340,-0.117607094,-0.145216515,0.390970245,-0.334488841,-0.254312511,0.124710828,0.227639960,-0.140372685,-0.364004663,0.012686298,-0.363492677,0.268911616,0.295459057,-0.018355853,-0.340888481,-0.305012776,-0.178748581,0.237631492,-0.137883024,0.535946493,-0.115157001,-0.074537997,-0.338900253,0.108009728,
0.007498635,-0.003287297,0.381058868,-0.259873430,0.171727857,0.116748302,0.166702163,-0.179032091,-0.209952775,0.170238537,0.539467357,0.578971278,-0.290866899,0.448560574,0.108313592,0.003857522,-0.069678055,0.030057390,0.112235307,-0.159904250,0.021071074,0.207328964,0.188566114,-0.069189573,-0.162867949,
0.043655891,-0.062355277,-0.232000433,0.356145715,-0.086292253,-0.016184396,-0.104815203,0.103176750,-0.179808263,0.342049154,-0.167674639,-0.320771563,0.312379139,-0.559562756,-0.142437511,-0.094178153,-0.281753036,-0.490105909,-0.389843962,-0.131595365,0.019386276,0.172320964,-0.271488922,-0.290850219,-0.006448019,
-0.167556671,-0.138542126,-0.203862220,-0.189599290,-0.171966289,-0.013035404,0.032852942,-0.265379621,0.202074462,0.044165900,-0.298132045,-0.001289021,0.364568544,0.003831145,0.191784476,0.364557253,0.218052421,-0.376370061,0.170194986,0.030585457,0.045991415,-0.303694095,-0.133707510,-0.098590899,-0.027966599,
-0.317131476,-0.114026624,-0.282870862,0.246124534,-0.308475629,-0.122381356,-0.095162497,0.049627496,-0.441215274,-0.045148502,0.389530182,0.388713180,0.191087255,0.080067844,-0.515899948,-0.136861311,0.304699017,-0.045980334,-0.123959475,-0.053561902,0.081262661,-0.106833872,0.152160663,0.053052063,-0.269738391,
-0.204160844,0.336417367,0.346957624,-0.083692898,-0.243690223,-0.275723526,0.525574548,0.231444999,0.072127292,-0.231996249,0.018767697,0.139338297,-0.151113584,0.067539705,0.084644938,0.153411797,0.297352835,-0.021991331,-0.056421550,0.589807961,0.161346504,-0.577273868,-0.068251651,-0.122295430,-0.114840834,
-0.175186366,0.029008159,0.114910156,0.042044608,0.061417766,-0.650928968,-0.116656213,0.121718835,0.277888554,0.238923826,0.009813044,0.088472708,-0.032588351,-0.057743242,0.147883766,0.143126578,0.319701577,0.132173486,-0.102744979,0.339944844,-0.190511349,-0.331018228,-0.073957959,-0.106850870,0.358843453,
-0.159785889,-0.090310641,0.020373061,-0.009345905,0.209125643,0.061998660,-0.055739809,-0.296539913,0.200650477,-0.464760198,-0.135756482,0.290647576,-0.373694189,0.250215801,-0.210028679,-0.323729455,0.509071547,0.072373562,0.122881827,0.003646050,-0.326547226,0.048693878,-0.235866823,-0.048220302,-0.156571515,
0.435538643,0.197696873,-0.188715492,0.069820083,-0.045489731,-0.222615744,-0.091284340,0.155590930,0.290131883,-0.105483203,-0.019055065,-0.119636913,0.136605493,-0.047278935,0.148907065,0.120960323,0.377935433,0.441570430,0.377990613,-0.243669744,0.043464876,0.001386854,0.031396083,0.109825708,-0.291813733,
-0.361469256,-0.056773799,-0.399851933,0.067566029,-0.343818712,0.042627018,0.147016025,-0.061443245,-0.088131632,-0.095293861,-0.242280519,-0.518886961,-0.252128021,0.539242755,-0.122772955,0.058892155,0.124367251,0.017290299,0.107127508,-0.222697385,-0.122883926,0.210925815,0.245601249,0.021561004,0.221235538,
-0.000790798,0.095334181,-0.529184707,-0.310761496,-0.452918189,0.202495873,0.162139218,-0.171979587,-0.209971707,-0.173722207,-0.044365452,-0.141971604,0.215359739,0.085907140,-0.217735899,0.217025926,0.070652954,-0.085532846,-0.048869135,-0.040365565,0.044559586,0.114538806,0.265116098,-0.070800220,0.362604199,
-0.194319455,0.013131305,0.050800989,0.285191613,-0.284379209,0.187721450,-0.030523665,0.009527743,-0.087371204,0.137528431,0.029806113,0.228982151,-0.033631219,0.148323652,-0.059670076,-0.186514424,-0.085285338,-0.328359444,0.134748161,0.047176593,0.097995691,0.006451670,-0.031632927,-0.076117896,0.053394561,
-0.215112127,0.042424035,0.495421342,0.125290233,-0.006908968,0.458957931,-0.500219714,-0.036372554,0.096025055,-0.215938385,-0.357378181,0.026564589,-0.282157562,-0.131306647,0.086469638,0.155154532,0.543395721,0.090104878,-0.168789789,-0.010869274,0.430382430,-0.228868226,-0.084319800,-0.210312925,-0.068180936,
0.003230274,0.614568414,0.066717769,-0.181652936,-0.443714014,-0.150744723,0.135866795,0.111638098,0.350402754,0.220259573,0.335087400,-0.182022378,-0.090783551,-0.249445835,0.370401078,-0.267457794,-0.060506886,0.386398570,0.327088765,-0.046373154,-0.103238466,-0.081842506,0.719679244,-0.259256633,0.078700061,
-0.229363516,-0.121534960,-0.130827062,0.078257684,-0.027262458,0.181996392,0.242173902,-0.127137222,0.160113457,0.141418487,-0.404127314,-0.140836244,0.281626183,0.098388743,0.018977166,0.053000814,0.081186735,-0.265002880,-0.031222364,0.064357367,0.074536039,0.139729754,-0.182608019,0.079864553,-0.113236059,
-0.051340058,-0.039996744,0.189669975,-0.570420726,-0.147761520,-0.222838770,0.036308146,0.119202493,-0.114094508,0.077905695,0.235336169,0.202687481,-0.538794533,0.096816604,-0.350215299,0.104523095,-0.239391746,-0.111183771,0.198128766,0.357278692,-0.369654521,-0.028368736,-0.107470843,0.140992661,-0.149129426,
0.057059416,-0.189442174,-0.316869748,0.481004922,0.060297589,-0.028285072,0.342397107,0.151741731,0.314257212,0.279541445,-0.044186073,0.403899047,-0.270695721,-0.132852573,0.240649112,0.479089619,0.063172820,0.167189101,-0.072456681,-0.156042854,0.020186713,-0.318513650,-0.072777418,-0.183762794,-0.031400710,
-0.325430361,
-0.093305710,
0.213365537,
0.220844236,
0.056570353,
-0.000960928,
0.429000315,
0.113089671,
-0.200708669,
0.162669405,
-0.198946644,
0.239061363,
0.368482409,
-0.320791645,
0.185388931,
-0.055143519,
0.324752807,
0.081792059,
-0.396495782,
-0.203044631,
-0.286877185,
0.255389038,
-0.032825715,
0.070024437,
-0.330432998,
-0.161970006,-0.136550445,-0.048418922,-0.084773753,0.080464097,0.296962100,-0.020263860,-0.152335589,0.104129203,-0.151094856,-0.079715728,-0.254982486,0.044146721,0.172722315,0.312729748,-0.052154165,-0.255927248,-0.059885222,0.171605358,-0.068514458,0.172553718,-0.026997037,0.210472980,0.312457718,-0.013968963,
0.316123547,0.248842210,0.000243683,0.150359672,-0.138996285,-0.272740403,-0.468454504,0.147236450,-0.384437683,-0.145492508,0.015732859,-0.163338913,-0.102776007,-0.008808912,0.241161532,-0.176461577,0.068654366,0.040227035,0.006179685,-0.087179514,0.002521607,-0.061653640,0.403288121,-0.074212293,0.301434650,
0.193123211,0.012855283,0.105233406,-0.013235825,-0.094211165,0.128084309,0.130478061,-0.178672998,0.037790744,0.124005267,0.118791357,-0.040129904,0.086678537,0.522533934,0.063547074,-0.072993047,-0.317886704,0.229165163,-0.125420155,-0.319619022,-0.036087655,0.173356273,0.193366431,-0.050625659,0.072438636,
-0.000750491,-0.244592052,-0.180403834,-0.502443797,-0.010035704,0.057175087,-0.202549947,-0.238931949,-0.125967155,-0.121554795,0.290615863,-0.101874063,0.282369005,-0.100257391,0.257363973,0.205030006,0.004320486,0.127377370,0.006490585,0.130801707,-0.329134927,0.222447831,-0.110697318,0.086022225,-0.227227377,
-0.068631560,-0.089060343,0.181885440,-0.063386558,-0.179220510,0.198690930,0.055363240,0.095858623,-0.332616130,-0.073678312,0.171476791,-0.175604906,0.046221870,0.011036596,-0.232070117,0.001118530,0.478309668,0.209817025,-0.052730401,0.236968115,-0.173963447,0.354730788,0.299938496,-0.257694307,0.076157833,
-0.296338916,0.162925464,0.110509644,0.025186977,0.098183741,0.672667244,0.087922902,0.077709271,-0.058789971,0.267098219,0.205142700,0.075029833,0.244436550,-0.100669556,-0.145377510,0.329919423,-0.127479172,-0.198183438,-0.230823968,-0.266088049,0.032433272,-0.064356730,0.489255334,0.029566690,0.187667938,
-0.031892408,0.598751584,0.179759042,0.220080058,0.262421565,0.277491875,-0.182761440,-0.144797461,-0.206755343,-0.258121219,-0.058303940,-0.218147116,0.364440315,-0.333755308,0.394056765,-0.021876985,0.387384734,0.473477261,-0.016461525,0.033779539,0.049952688,-0.085768369,0.046634322,0.124773704,0.087648766,
0.183443670,0.110104983,0.003540712,-0.007793024,-0.099940821,-0.175950387,0.265484456,0.045947824,-0.057874028,0.129261649,-0.247699568,0.212177885,-0.102692234,0.074555431,0.240791172,-0.088779553,-0.291809521,-0.436768931,0.579619972,-0.196694659,-0.070268231,0.270119704,-0.071329626,-0.054459392,0.047326731,
-0.007514864,0.081947276,0.061334193,-0.198684026,-0.292896896,0.247619143,0.032623944,0.002805062,-0.271540170,-0.121547628,0.064946404,0.402732921,0.167221916,-0.039886575,-0.304434553,-0.387807784,0.318061949,0.349256923,0.120386875,0.076742488,-0.242198121,-0.075618201,-0.229877405,0.010821506,0.206442773,
0.046482235,0.270068207,0.267713241,-0.137154853,0.191610066,0.479498743,0.362257039,0.283333557,0.191411273,0.150902257,0.292728010,0.174048952,0.545687245,0.164645104,-0.030428335,0.017186275,-0.420117023,0.471595443,-0.027561414,-0.144851350,0.253791568,0.421842735,0.206044039,-0.263614970,0.270154379,
0.035606025,0.091956991,0.816237413,-0.154642023,-0.108132398,0.106770655,0.028930867,-0.215545686,0.363667886,0.060894521,0.204577222,-0.033635126,-0.145022144,0.002530214,0.557492713,0.284797133,0.184175419,0.236380879,-0.211009727,-0.063202698,-0.214788309,0.276315901,-0.033052405,0.115714865,-0.065854658,
0.433295017,0.082185911,0.027316728,-0.047368210,0.169991721,-0.175386189,0.153950758,0.076167251,0.170004760,0.427967822,0.021577263,-0.237474831,0.395038258,0.252563439,0.200731784,0.181757599,0.518523543,0.302556226,-0.292004668,0.215129606,-0.050550256,0.617850662,0.098302799,0.339746021,-0.237415847,
0.188219889,0.259364781,-0.149116696,0.079512248,-0.167498139,-0.188022840,0.190693915,0.016799399,-0.205145630,0.219809742,-0.290880364,-0.692866910,0.468684339,0.259805840,-0.268309143,0.063874807,0.117217411,0.662469627,0.052718389,-0.166398912,0.057620511,0.102184382,-0.434003835,-0.254364063,0.267130931,
0.182142236,-0.068837191,0.219082184,0.206210260,-0.049490412,0.572235142,-0.120574312,-0.098316513,-0.058897682,0.353109110,0.161751051,-0.259987409,-0.223682470,0.012277678,-0.180238979,0.038628777,0.310816966,-0.122408941,0.293869916,-0.199235841,0.049752991,-0.299771038,0.335823620,-0.468371681,0.298298194,
-0.109214466,0.049702072,-0.009720126,-0.089425469,0.238037980,0.191888109,-0.027573647,0.054872784,-0.318590701,-0.216127718,0.031855482,0.056144011,-0.023901855,0.341494274,0.024869258,-0.273487044,0.063361095,0.035925225,-0.025528422,-0.021412294,-0.077551651,0.121024061,0.265160169,0.036594399,-0.323323655,
-0.233468345,0.139576344,-0.045354475,-0.155280777,-0.177293543,0.198209474,0.507220747,-0.283369562,0.222631142,-0.059890089,-0.067780038,0.106878770,-0.210379754,0.000014178,-0.141782512,0.013353151,-0.347796992,0.016987563,-0.100778728,0.153875601,0.139179813,-0.004381626,0.130647908,0.338888407,-0.087109009,
-0.386085186,0.141431135,0.104003005,0.183005887,-0.012932336,0.061887239,0.364282356,0.182276148,-0.001800066,0.044128354,-0.044972338,-0.035628193,0.229664268,-0.179223925,0.054698800,0.032624203,0.024475839,0.316673605,-0.498246165,-0.115078348,-0.155201388,-0.142843844,-0.238368977,0.286267841,-0.376601775,
-0.089472975,0.297241696,-0.025233045,-0.071251898,0.236659455,0.121989795,-0.561124540,-0.053870970,-0.042554545,0.109113314,0.000341846,0.394113159,-0.228281005,0.145953852,-0.081026932,-0.080248602,0.085310982,0.203842925,-0.002040439,0.172371589,-0.226147673,0.297413426,0.610330003,-0.218033119,-0.067685614,
-0.108723150,-0.443809365,-0.165588787,-0.009141650,0.014088403,0.092771031,0.182173447,0.161535376,0.217837859,0.140404734,0.077041530,0.036384228,-0.100233614,0.181357561,0.248687865,0.007069100,0.335332816,0.144832378,0.034958249,0.199460523,-0.327741424,-0.358919197,0.267097543,0.205687233,-0.525013279,
-0.381056580,0.160751757,-0.235120087,-0.523959277,-0.065702779,-0.214947587,-0.136850006,0.314413663,0.103577271,-0.129949992,0.402505088,0.423043436,0.019989653,-0.381526966,-0.164624981,-0.041855797,0.131620705,-0.408551787,-0.368039128,0.097240624,-0.236771854,-0.053179308,0.282647169,-0.026040500,0.074676270,
-0.087773797,0.078866661,-0.127580915,0.323354711,-0.169019190,-0.000182665,0.066073123,-0.049599272,0.346416921,-0.335607052,-0.018239506,0.231656029,0.204644746,0.345916868,-0.207149285,-0.004382584,0.252491137,-0.243293061,-0.116386578,0.331303833,0.196168839,-0.087972004,0.199710819,-0.165148703,0.028942463,
0.111155259,-0.154446374,-0.294370293,-0.095530280,0.072279578,-0.115469490,0.147786792,0.267382565,0.100872897,0.091638756,0.252554973,0.491884453,-0.112484874,-0.237191318,0.035156837,0.325342151,-0.024777950,0.007785268,0.215416484,-0.265306027,-0.009724066,0.129454957,-0.171244309,0.262143463,-0.042700946,
0.071270139,0.085602296,0.036602874,0.080007816,0.428233186,0.124726062,0.168493417,-0.119986597,0.138314656,-0.117594526,-0.070353186,-0.227591377,0.297712253,-0.067378687,0.034781386,0.483602954,0.161241959,-0.147222103,0.078892931,0.158940374,0.052027981,-0.097243669,-0.012429107,0.214272715,0.139775335,
0.261902254,0.035277521,-0.092294806,-0.089204506,-0.442542717,0.375770194,-0.565308113,-0.065974231,-0.479787207,-0.220654682,-0.256704591,-0.338611341,0.216480741,-0.142854223,-0.104953539,-0.041256673,0.084722841,0.019874678,-0.256935978,-0.117210193,-0.036934897,-0.058531910,-0.156809717,0.054347810,-0.041806257,
-0.080152039,0.148677432,0.162530383,0.118277691,-0.170425992,0.168948814,0.007153964,0.102032057,0.060033329,-0.017514048,-0.238529919,0.211058966,-0.130809333,-0.331630378,-0.371481972,-0.317303403,-0.058704003,-0.196805746,-0.227077580,0.269181288,-0.011744430,0.060299893,-0.026916922,0.258705926,0.086559746,
0.044680975,
0.149230713,
0.072362405,
-0.289299257,
-0.009582817,
-0.011624258,
-0.069519802,
-0.326058992,
0.419979436,
0.330429205,
-0.179180593,
-0.412729538,
-0.135041754,
-0.156023106,
0.105575141,
-0.317563411,
0.236546585,
-0.149652381,
0.102419007,
-0.042914295,
0.015861153,
0.477678460,
-0.027517321,
0.004299810,
-0.436435851,
0.200973482,0.239824060,-0.084277319,0.195966890,0.317273708,0.505938607,0.256805442,-0.312491962,0.017938018,-0.302083391,-0.003093890,0.277359604,-0.140816088,-0.360058465,-0.134498680,-0.007605755,-0.165462353,-0.305751500,0.166810716,0.162015506,0.201194141,-0.245999569,0.234925582,0.221856661,0.019917378,
0.459195690,-0.269450115,0.260164119,-0.070835563,-0.246439274,-0.169490396,0.193814299,0.437069165,0.205528793,0.205116619,-0.096884800,-0.145262557,-0.387745347,0.220613084,-0.335528864,-0.342171956,0.209362839,-0.316729890,0.083764267,0.338688639,0.038326691,-0.296111167,-0.061230857,0.095272523,0.092147462,
-0.404509232,0.082484781,0.058666905,0.112239749,0.053291021,-0.171896347,-0.193418157,-0.012368988,-0.061643902,-0.007549035,0.041232277,-0.011216685,-0.088566056,-0.372514971,-0.184339953,0.645104375,0.036640644,0.348481138,-0.060968339,-0.375090623,-0.158181336,-0.293279707,-0.145608563,0.167091037,-0.089915578,
-0.029767117,0.359672965,-0.095569896,-0.220920699,0.229998748,-0.328819337,-0.585689376,0.237263816,-0.208024612,-0.207431709,0.086487798,0.401914373,0.326258030,0.281569906,-0.305643405,-0.273423809,0.053271941,0.328912053,0.367625298,0.187615210,-0.202579250,0.167764705,-0.231812531,-0.037197543,-0.369995892,
0.265791106,-0.506268262,-0.445710403,-0.460398691,0.654521991,0.067448246,0.054515342,-0.093044215,0.039035404,0.077174972,-0.177185398,0.034119993,0.087398138,-0.134834600,0.013762501,-0.286869021,0.049634023,-0.081759126,0.260539645,-0.154784359,0.414054879,0.114822933,0.069132671,-0.428306996,0.105977250,
0.103471950,0.191793592,-0.011127947,0.038064845,0.016799301,-0.388340717,-0.052111263,-0.237921541,0.174115619,-0.061611179,-0.266736138,-0.051372878,0.022280531,0.169392069,0.258343567,-0.036994761,0.355790688,-0.337316126,-0.234312848,-0.283439356,0.169297219,0.013118321,-0.038535474,0.084730751,0.167822358,
0.097573301,0.573117944,-0.033523755,0.473031331,0.097305681,0.213284806,0.536551070,0.178488978,0.604558234,-0.206736457,-0.209422925,0.341979991,0.145980900,0.000191921,-0.209747925,-0.109895111,-0.113654714,-0.176431987,-0.380653773,0.085098492,0.069372730,0.315535028,0.222123970,0.115884663,-0.259212945,
-0.090532093,0.173259042,0.227493644,-0.116242746,-0.120471945,0.123890225,-0.196738291,-0.143654695,-0.035189475,0.428331799,-0.046739055,0.494718557,-0.044785866,0.235227844,0.095164812,-0.124917279,0.107160503,0.265440059,-0.084667762,-0.459302852,-0.491960253,-0.543136032,-0.372006242,-0.593910128,0.090519322,
-0.127846086,0.383628936,0.185764031,0.234781078,0.225341682,-0.201838189,-0.059862789,0.128208166,0.014965844,-0.020303103,0.221455059,-0.268943372,-0.175693258,-0.083197223,0.255971592,-0.019108457,0.047338731,0.310656479,-0.069454129,0.362525859,0.209062342,-0.034050984,0.133547718,0.091974778,-0.299032650,
0.328349274,-0.353577216,0.129112110,0.301713950,-0.377354438,0.036990392,0.583228944,-0.534191201,0.068590929,-0.344226697,-0.244898421,-0.386824770,0.140252054,0.398822715,-0.293227886,-0.009128140,-0.020532054,0.155929143,-0.019539620,-0.010367016,-0.392318396,-0.156588566,-0.193160162,-0.080155157,-0.381722178,
-0.311406641,0.127733787,-0.069573629,0.166545653,0.185670936,0.230631051,0.026295366,-0.235959418,-0.152021729,-0.180804761,-0.086519241,-0.504193650,0.032102366,-0.103064563,0.085812895,-0.105871454,-0.269277721,-0.079734995,-0.131258532,-0.295342355,0.016013691,-0.107009413,0.098567145,-0.174322507,-0.250241185,
0.399557535,-0.435307893,-0.255897936,0.330130851,0.073464435,-0.109574512,-0.057002859,0.110551919,-0.137940957,0.275656876,-0.042706301,-0.334390406,-0.223617473,0.465189418,0.025055977,-0.176007617,0.187924501,-0.562192761,0.225799813,0.443397283,0.325880653,0.189770968,-0.581483331,-0.664266914,-0.004144823,
0.254127358,0.143638339,-0.029038722,0.161325662,0.208906848,-0.236197506,0.205651100,-0.000947814,0.102163943,0.000409023,-0.384973307,-0.051172066,-0.251260015,-0.608743893,0.143662104,-0.189779264,-0.208245586,-0.153641789,-0.166994218,-0.065940890,-0.147530616,0.212124885,0.114685756,0.645164114,-0.070294498,
0.010990115,-0.164279271,0.243206324,-0.070707680,0.044791984,-0.046489220,-0.155553918,0.044600205,-0.691894677,0.260381151,0.186510928,-0.218005919,0.208577806,-0.191777884,0.285293659,-0.096214193,-0.042335174,-0.374994663,0.265760072,-0.005049585,-0.175287760,-0.215797684,0.294036480,0.110068193,-0.300907837,
-0.164198542,0.085054867,0.034650468,-0.407775505,-0.040658879,-0.365059220,0.097631990,-0.116805407,0.000283431,-0.027735775,0.106924447,0.219276381,0.485333616,0.150874391,0.012853099,0.300598622,-0.603565377,-0.031402301,0.207595793,-0.068729952,-0.144817164,0.074467716,0.192443954,-0.095015139,0.323814103,
0.177713853,-0.160666112,-0.290695326,0.420655011,0.089699548,0.281088217,-0.054089569,-0.130529818,-0.053324502,0.200897501,0.326428705,0.081192504,-0.144553858,-0.005064942,-0.450357928,0.232197475,-0.034909597,-0.258180909,-0.002253774,0.463831939,0.177076165,0.067698933,-0.224112822,-0.205832328,0.121739854,
0.098988184,-0.172391373,0.215491503,0.329473912,-0.102477973,0.430409331,0.257623692,0.418838143,-0.089172593,-0.404026544,0.202059513,0.137127164,0.039371868,-0.049981902,-0.165409265,0.219644504,0.010958123,-0.181372692,0.040178239,-0.067673935,0.442196399,0.041707589,-0.321331466,-0.499871957,0.058537699,
-0.171593978,0.208874265,-0.068715370,0.225316379,-0.160011333,0.039212773,0.315176507,-0.186668314,-0.269397298,0.040317894,-0.272472184,0.068274971,-0.190719335,-0.435818450,0.240362811,0.054968881,-0.344310978,-0.261891535,-0.081290676,-0.111924149,0.205910947,0.258862674,-0.457028458,-0.078789913,-0.439586565,
0.211439885,0.038020057,-0.033681361,-0.012265666,0.121761031,-0.474886191,0.210728123,-0.257630443,-0.086192225,0.296676890,-0.121986675,-0.215945270,0.099681449,0.104811251,0.338094843,-0.437995400,-0.221491748,-0.188135625,-0.262291881,0.322694073,-0.055117257,-0.164090983,-0.259108075,-0.344242404,-0.289462134,
-0.034957104,0.193031506,0.020425587,-0.029603427,-0.107115838,-0.393085327,-0.180030646,0.226312201,-0.291167629,0.126959783,0.235104794,0.303492617,-0.075847934,-0.278841594,0.178386844,0.212785567,-0.171321889,-0.247042651,-0.419843829,-0.266918603,0.265820577,-0.279791189,-0.474953351,0.020307161,0.287573382,
0.170186488,0.026706471,0.059471364,-0.131702375,-0.082921136,-0.117644015,-0.010254691,-0.332564600,-0.259663695,0.008200274,-0.121349709,-0.159846099,-0.045537112,-0.064159263,-0.169499530,-0.142899101,-0.459992208,0.131820046,-0.075574607,0.036902387,0.328771679,0.216764268,-0.261525160,0.252862604,0.282517985,
-0.461203761,-0.074846858,-0.460470905,-0.277750205,0.267962551,-0.269413332,0.146175116,-0.036626262,-0.255309155,0.176352781,-0.249207638,-0.111805862,-0.083875016,0.178131629,0.247839935,0.365335794,-0.385541761,0.095375057,0.033531799,0.013453162,0.097944137,0.301043962,-0.129987548,0.039305255,0.045536095,
-0.269266693,-0.429712237,-0.100283208,-0.012827655,0.072553206,-0.032769243,-0.003283200,-0.057165620,-0.243430144,-0.083626354,-0.152552495,-0.452245181,-0.269781663,0.250758439,0.273744081,-0.333530319,0.150571444,-0.022274040,0.223662653,0.028107047,0.014837665,-0.332346171,-0.170554177,0.258500803,0.035604309,
-0.044013115,0.267011137,-0.200412724,0.606985056,0.139763895,-0.056125086,0.148646289,0.346142754,-0.142309145,-0.040178177,0.223901219,0.062716446,-0.117887140,0.264342207,0.017913237,0.101387859,-0.037776322,-0.201597868,-0.058708202,0.121558422,0.398964490,0.109504408,0.043880105,0.123894992,0.196540399,
0.119065844,-0.071678527,-0.172382580,-0.098637947,-0.162359332,0.049529294,0.247579390,-0.030534086,0.055731090,0.034655760,-0.514197424,0.222503106,0.094739699,-0.115981758,0.030326421,0.191715710,-0.310998619,0.466700845,-0.180713601,-0.187127765,0.014496057,0.068999917,-0.101068214,-0.371483415,-0.081530728,
0.229174290,
0.011894186,
0.352813539,
-0.180490006,
-0.223853172,
-0.284693733,
0.380158410,
-0.150148282,
0.059060119,
-0.289570233,
-0.067627100,
-0.226500069,
-0.196990628,
-0.067163494,
0.293688891,
0.449145123,
0.145535472,
-0.066639866,
-0.082179066,
-0.036881023,
-0.108147106,
-0.334664694,
-0.092943293,
0.130245998,
-0.254198855,
-0.287476994,-0.246353983,-0.059047890,-0.157171859,0.134653486,-0.005069946,0.092377868,0.616106529,0.197553671,0.207462518,-0.097242656,0.120183801,0.307447499,-0.098736011,-0.151073517,0.040104369,-0.012823772,0.182223198,0.347118900,-0.304093763,-0.098751475,-0.181841766,-0.183102852,-0.110555985,-0.182421216,
-0.115142374,0.424104657,-0.093737737,0.148237616,-0.224104932,-0.242169270,0.163248844,-0.211425034,0.184768573,0.106697282,-0.247687246,-0.284594577,0.036801445,0.078203942,0.100171996,0.272951492,0.228245930,-0.362490352,0.359830480,-0.149262030,-0.372050007,-0.029328984,-0.255314834,0.227687538,0.091752520,
0.090727444,-0.148550294,0.246081760,-0.180327222,0.096046549,-0.294672223,0.106826397,-0.091911359,-0.125694196,-0.120907134,-0.388484957,0.107787300,0.145804952,0.081673129,0.513199176,0.255940626,-0.331388814,0.033502503,-0.056507996,-0.229943459,-0.149804794,-0.205239764,-0.057314130,0.063314381,0.030970857,
-0.062625397,-0.243769976,-0.319484941,-0.284619462,-0.009779833,-0.057253104,0.195027051,0.114138300,0.188770788,-0.301825902,-0.042967828,-0.379057343,-0.467165052,-0.239284535,-0.071467671,0.091788009,0.365426014,-0.257581853,0.179871943,-0.126956919,-0.038173487,0.115658960,-0.040170834,0.194395506,0.279770851,
0.166483275,-0.016403345,-0.225167775,0.039558498,-0.116924020,0.216990586,0.445683465,0.293737677,-0.168507403,0.313412189,0.133675829,-0.286404181,0.163454038,-0.179653453,0.038166259,-0.099530187,0.031502900,0.215144706,0.222262640,0.101388305,-0.004895826,-0.130912361,-0.037855285,0.039448643,-0.283545640,
-0.104496421,0.123430341,0.405912676,-0.169186515,-0.273144379,0.220416585,-0.086415699,-0.100121370,-0.068159598,-0.023896030,-0.078381773,0.180565452,-0.058730061,0.054537203,0.198453773,0.519258787,0.001807547,0.128020795,0.076050477,0.323548761,-0.020272359,-0.336540721,-0.255264834,-0.574891865,0.216214237,
0.007939466,0.185489571,0.043936794,0.129897620,0.250609631,-0.027192269,-0.393394511,0.107807506,-0.107788245,-0.105818039,-0.492305823,0.165482154,-0.006408698,-0.231461012,-0.087334268,-0.031597266,0.066210387,0.141259938,-0.098588084,-0.175801204,0.139052830,-0.110344261,-0.000416548,0.080193130,0.083188553,
-0.033389541,-0.063589377,0.160468156,0.018798388,0.390054575,0.022594148,-0.029801309,-0.376629931,0.074920790,-0.236154327,-0.187562348,0.232472874,0.040275476,0.272997547,0.249605689,0.000586090,0.306280471,0.010902862,0.086948429,-0.376596766,-0.029269071,0.297021799,-0.178280542,0.040061955,0.247181146,
-0.270977103,0.356829137,-0.213207814,-0.220150314,-0.036047803,-0.030749464,0.113136248,-0.227268937,0.490915522,0.002291053,0.031200798,-0.071631257,0.253892876,-0.373344692,0.363209540,-0.337194386,0.089017442,-0.243877579,0.063062597,0.268810597,-0.053002666,0.090965814,0.260656526,-0.028310472,-0.305022193,
0.147881574,0.411165515,-0.234081322,-0.443779860,-0.421138409,0.249760833,-0.487975686,-0.043051759,-0.012515490,0.115613349,0.084455452,-0.282875482,0.049252608,0.087335538,0.004215385,-0.023319001,0.157987171,0.174308564,0.384683854,0.276011193,-0.000375160,0.178662169,-0.042505473,-0.566699238,-0.114520146,
0.071659075,0.095792206,0.035697348,0.288130759,-0.002323680,-0.076578260,-0.222214625,0.190182549,0.084899919,-0.652342096,0.351977097,0.175450360,-0.276595109,0.065948073,-0.097905756,-0.007117905,-0.513456466,-0.130878146,0.058500059,0.355883462,-0.150412704,-0.033040093,0.296997068,-0.097781407,0.198230367,
-0.431435102,0.068221845,0.053205506,0.066356512,0.339424638,0.214035103,-0.003482610,0.111110135,0.186026937,-0.253281153,-0.069868246,-0.402102346,-0.300668031,-0.286133358,-0.266751332,-0.178882709,0.152482927,0.013447936,0.132904935,0.193969512,0.140049861,0.022179072,-0.079569883,-0.327378481,0.034587623,
0.451477381,-0.139821991,-0.065655560,0.171391494,0.300114867,-0.164015636,0.532070253,-0.140377021,-0.139240706,0.665477113,0.113295204,0.171319070,0.055806291,-0.025147259,0.096248596,0.056117438,0.151365461,0.021754668,-0.230141659,-0.147983309,0.344603691,-0.321991107,0.071582313,0.166876370,-0.365225450,
0.078902840,0.102474883,0.112950651,-0.313214384,-0.136709964,-0.162052302,0.351222530,-0.219332477,-0.301712450,-0.100921388,-0.004272760,0.102168180,-0.260309377,0.085076712,0.048769340,0.106279150,-0.098731366,-0.235674863,-0.144215837,-0.120644456,-0.192274187,-0.023599537,-0.424750152,-0.093203446,0.014676981,
-0.250344000,-0.031630972,0.366352961,-0.174199813,0.045600369,0.663321070,0.107345056,0.251729331,-0.040649493,-0.242380094,0.370887616,0.260496013,-0.041284748,0.336016404,-0.102032482,0.131440760,-0.041901403,0.277849184,-0.004395867,-0.066710724,0.195212260,-0.382075425,0.478539848,-0.347156385,-0.307203687,
0.221862004,-0.073844779,0.163326311,-0.394449997,0.122787691,-0.063164467,0.157345737,-0.003638404,0.056665592,-0.068128252,0.013871261,0.283636975,0.148730600,-0.127410323,-0.136515691,-0.051157603,-0.219142049,-0.164198811,-0.154954163,0.031582745,0.271722113,-0.199623175,0.330828446,-0.324602031,0.087102139,
-0.097383576,-0.233958483,0.276330315,-0.063910548,0.402381314,-0.062279734,0.314058679,0.295463910,0.138805696,0.370892757,-0.080489630,-0.069503352,0.487568350,0.002678816,-0.086134202,0.019588793,-0.053620635,0.016864826,0.180935203,0.158887860,0.341543516,0.061278507,0.291107944,0.077511609,-0.078239540,
0.365292235,-0.157862423,-0.160713344,0.411307314,0.180494519,-0.140058401,0.341741097,0.280841103,-0.008542103,0.098089829,0.198032755,0.119171046,0.031785279,0.224767415,-0.288507866,-0.199836273,-0.269513662,0.139183959,0.267419807,-0.037314457,-0.041539502,0.277938679,0.239898998,0.352280454,0.171259552,
0.180914933,-0.319694039,-0.441092162,-0.197161905,-0.146782508,-0.276676948,-0.049351416,-0.436213891,-0.053824028,-0.109452128,-0.125549050,-0.352184946,0.203091108,0.107253487,0.127905258,0.256046404,0.112354552,0.199003971,0.159191885,-0.109327874,0.256468669,0.073574393,-0.048017392,-0.051464529,-0.266425920,
0.125381779,-0.125898586,0.208758887,-0.117646706,-0.131960868,-0.312729083,-0.156500244,-0.142690116,-0.367342134,-0.092948914,-0.024069150,0.157481366,-0.163227164,0.009851527,-0.398706226,-0.303973390,0.025215640,0.124702125,0.196088260,0.030374512,-0.036119682,0.275717626,-0.035690937,0.096844875,-0.015784361,
-0.049773013,0.110264340,0.065162731,0.380558250,-0.070503723,0.233542997,0.321350007,0.033291798,-0.202889920,-0.035035533,-0.420556674,0.565466898,-0.433796975,0.271144634,-0.160313710,0.217219780,-0.174802239,0.239777013,0.064145700,-0.127634390,0.165064916,0.084728155,0.125373777,-0.113391824,-0.172376910,
-0.286506813,0.058697943,0.282983096,-0.404269150,-0.039305979,-0.080949841,-0.160632593,-0.078918089,-0.008325489,0.094484001,0.063050714,0.029445411,-0.223863140,0.024048338,0.486597351,0.070279612,-0.228567274,-0.046419649,0.003890568,-0.249840091,0.189342752,-0.041309553,-0.075728328,-0.045184167,0.067321099,
-0.216660909,0.356460906,-0.144529295,-0.058239698,0.021698678,0.337519952,0.127545119,0.101157871,0.095204182,0.064885790,0.217266525,-0.033548703,0.186671492,0.370551140,0.124386313,0.074162077,0.336310505,0.020299683,0.003213913,0.204981480,-0.441928754,-0.014425605,0.037216270,0.019785864,0.124937294,
0.110503789,0.332117843,0.058654644,0.148689057,0.157486920,-0.077298291,0.024695886,0.166889746,-0.370322485,-0.078677777,-0.065560924,-0.273490261,0.055316165,0.162870097,0.099122290,-0.274458163,-0.247985470,0.082135280,-0.132903776,0.305600691,0.022707552,0.401235074,0.147007044,0.132618394,0.087299951,
-0.121287395,-0.105357301,0.248823649,-0.326029672,-0.144450764,0.170738328,-0.468921772,-0.027041367,0.270090006,0.320487330,-0.233701279,0.258201774,0.135661796,-0.324962586,0.300603504,-0.268706487,0.047416937,0.060293157,0.120672522,-0.084369662,0.071955312,-0.316650948,0.411282374,0.027945071,0.181143975,
0.137503138,
-0.188397334,
0.188782996,
-0.035957522,
0.136306579,
0.017840547,
-0.178979252,
0.308007841,
0.187754367,
0.135981102,
0.351891479,
-0.227408101,
0.122497341,
-0.230227927,
-0.001048189,
0.304710727,
-0.175922436,
0.005196975,
-0.086975836,
-0.053801409,
0.215728779,
0.021486962,
-0.110867755,
0.219823607,
0.063757141,
-0.300706113,0.183505439,0.007632597,0.263511707,-0.268793821,0.055117026,0.470108956,0.343298602,0.015663627,0.210603549,0.144880692,0.200190690,-0.384269799,-0.153588348,0.349019717,-0.332639756,0.256905978,0.440607224,0.267340476,-0.056551653,0.154747468,-0.061071511,0.375064369,0.081259502,0.181158305,
0.422100866,0.374668350,-0.054967337,-0.230289676,-0.153089342,-0.061728037,0.177591036,-0.382270886,0.228499432,0.026829042,-0.219687688,0.202188071,-0.221629548,0.232284382,-0.309803660,0.079955667,-0.122852454,0.247962245,0.000891436,-0.115447258,0.296654200,0.020422250,-0.044606057,0.036259922,-0.022682994,
-0.233817184,-0.246535086,0.170482719,0.216866105,-0.066996344,0.178226263,-0.255524157,-0.274142203,0.070164996,-0.273746896,-0.018040697,0.136495339,-0.123355733,0.426487241,-0.125473949,0.361561360,-0.126566712,-0.020690660,0.119209578,-0.020961712,-0.168350498,0.300824735,-0.003539376,-0.142212397,0.241602988,
0.144864411,0.267996510,-0.021994483,-0.086256480,-0.026191514,0.217729072,-0.174498804,-0.382688492,0.107754990,0.293548856,0.146028249,0.273097172,0.129703130,0.000843179,0.153290763,-0.025869178,-0.098174932,-0.267256861,0.070718939,-0.195239938,-0.231280515,0.342985714,-0.224568995,0.059390311,-0.069726090,
-0.212758966,-0.090078199,0.199110067,0.110349855,-0.025867525,0.179045925,-0.120905876,0.144760169,-0.211303050,0.108406775,0.317642913,-0.035287179,-0.014065028,0.232191835,0.323514576,0.347265813,-0.080256915,-0.102725300,-0.214722985,0.128124309,0.088377928,0.034940411,-0.159458020,0.265278581,-0.263629194,
-0.055491605,0.200208353,-0.025181814,0.009433139,-0.005078720,0.067612830,-0.081502928,-0.333200257,-0.213907470,-0.239327064,0.122646273,0.075103463,0.206116355,0.232821178,-0.265519467,0.329751333,-0.058410383,-0.331798227,-0.111165490,-0.262195357,0.450623167,0.029053846,-0.433211261,-0.041832066,-0.006834440,
-0.287997195,0.057790555,-0.046809925,-0.232397905,0.202820924,-0.541070802,0.018197461,0.025423082,-0.032074771,-0.202388957,-0.128682139,-0.297257831,-0.302069396,-0.208885261,0.300153805,0.257733857,-0.149613498,-0.110230416,-0.302408053,-0.248982014,-0.027589134,0.291164875,-0.189077358,0.357396573,0.184181996,
0.388116512,-0.463457012,0.048385378,0.214490724,-0.077352186,-0.259294813,0.097625328,0.256579323,-0.000681872,0.152877229,-0.096287945,0.340621759,0.164033769,-0.008192505,0.149910593,-0.029123418,0.218153340,0.057350442,-0.043238552,0.279715448,0.380045815,-0.319479719,-0.086530581,-0.070657612,0.280846143,
-0.193113224,-0.251465615,-0.033394298,-0.268033196,-0.090919599,-0.259039095,-0.130125620,0.402963423,-0.123897474,-0.072022984,-0.205148872,0.024936076,0.211396133,0.012083172,0.106241212,0.246119027,-0.032820095,-0.008258168,0.201217654,0.104385601,-0.089449527,-0.135526660,0.117597521,-0.136476611,-0.165811984,
0.230855246,0.069031213,-0.108274056,-0.097626733,0.159384053,0.369813765,-0.309140198,-0.015616417,-0.166895716,0.088991355,-0.213482041,0.706731057,-0.490149275,0.356111695,0.124170456,0.175426292,-0.286145038,0.240277487,-0.069128478,0.007660153,0.138635245,-0.086609587,0.146958817,-0.128935335,0.360123596,
-0.405217845,0.003498479,-0.293025387,0.294100383,0.138198359,0.487156870,-0.145816470,-0.183098519,-0.097127239,0.463396352,0.066353494,0.168640837,0.281929249,-0.014291765,0.650464916,-0.246191619,-0.070071103,0.222350806,0.110579365,-0.013351604,-0.157744877,0.038428288,-0.078971906,0.185202468,-0.251788857,
0.043689676,0.249954129,0.148522692,-0.186537519,0.175092519,0.020701445,0.125630956,-0.399935178,0.147359779,-0.192602295,0.356013065,-0.073331697,-0.161504362,0.142239501,0.072805613,-0.260773233,0.149740747,0.147530065,0.037079889,-0.008762368,-0.380139335,0.034217345,-0.074437484,-0.186182158,0.404646866,
-0.124703660,0.160986890,-0.285701222,-0.190047570,0.267939195,-0.225277645,0.258843369,0.023267740,0.256269852,-0.169432108,-0.017071891,0.501280129,-0.073006411,-0.145216033,0.159696367,-0.070921532,0.057255947,0.193923749,-0.204039339,0.366315949,0.445241088,0.256552944,-0.028657113,0.115559157,-0.067723948,
-0.318946134,0.025412922,0.115987619,0.168327967,-0.395757649,-0.151818163,0.141816700,-0.113575739,0.046375130,-0.145481512,-0.549685827,-0.200706547,-0.175893413,0.253560341,0.140961246,0.036519046,-0.011360747,-0.002053466,-0.470393673,-0.084642103,-0.295804426,-0.029830859,-0.049187311,-0.088688725,0.171102109,
0.118577336,-0.080716599,-0.083981153,0.023605905,0.236006738,-0.060414159,0.212772791,0.323959943,-0.157789121,-0.480381745,-0.197824115,0.027217073,-0.008695461,0.382460305,0.014459010,-0.376862575,0.186250168,0.385832205,0.003500198,-0.256695571,0.170029771,0.103450546,-0.297447434,0.051853698,0.168082008,
0.372019764,-0.265169422,0.060342674,0.241941939,0.265355810,-0.098331776,-0.306170913,-0.162343767,-0.405377892,0.241113153,0.291498875,0.003018539,-0.273910643,-0.112116888,0.240490656,0.201294515,-0.141193646,-0.174114941,-0.153040828,-0.083741184,0.003491662,-0.343672727,0.045934362,0.252884375,0.354261258,
-0.234662989,0.095347402,0.418495218,-0.254858872,0.238218199,-0.010620880,-0.028423815,-0.071103264,0.094682111,-0.423433741,-0.302321337,-0.408179886,-0.167277831,0.261534135,-0.256710997,-0.224995017,-0.031100372,-0.289002387,0.260922443,0.446677698,-0.006582757,0.046340065,0.041699974,0.073759921,-0.005010349,
-0.198948275,-0.076712323,0.114216157,-0.205393955,0.168188670,0.264831155,-0.080039003,-0.183857073,0.264196444,-0.202070586,-0.057012066,-0.229655742,0.329512178,0.142287350,0.261282607,0.209599762,0.148175584,-0.012310772,-0.016509960,-0.034791810,0.166825736,0.442094066,0.144162626,-0.003377030,-0.396984745,
0.041696831,-0.429857640,0.056233695,-0.358894180,-0.182116282,0.233824080,-0.318086486,-0.126038840,0.060718850,-0.167630086,-0.198194132,-0.188596658,0.136675495,0.249161916,0.010479543,-0.318966788,-0.219697316,-0.081757953,-0.036989937,0.174972907,0.009840501,0.078152054,-0.140312819,-0.017656890,-0.102242314,
0.049905939,0.297885632,-0.310586090,-0.359803410,0.056970751,-0.207691103,-0.068163014,0.018924608,0.282974098,-0.099012171,0.322033418,-0.050542507,0.115916766,0.073624915,0.333853549,-0.003831630,-0.285069484,-0.097003776,-0.291619569,0.011907831,0.248236295,0.086864168,-0.310714885,-0.052401306,0.250321551,
0.183827691,0.289452855,0.199194738,0.211755856,-0.264663297,-0.380184354,0.559745322,-0.170460153,0.232760567,0.111241283,-0.086102729,-0.102479561,0.426701794,0.101885999,-0.291658258,-0.278524039,-0.103025764,-0.389409978,0.090413497,-0.135433414,-0.232579486,-0.342032117,-0.017347500,-0.224442937,-0.106231064,
-0.326019002,-0.063444410,-0.336349845,0.049869497,-0.095656297,0.155902362,-0.203552845,-0.381885238,0.024779830,-0.284714541,0.449011407,0.292107924,0.014114011,0.309057694,-0.019697328,0.319759179,-0.305086595,0.036728212,0.371603424,0.181995454,0.130221125,-0.106996089,0.038960860,0.026351245,0.229987460,
0.356859829,-0.121559041,-0.173471194,-0.176521603,0.001973587,-0.131750554,0.224415883,0.268072216,-0.079311992,-0.006917554,-0.190235130,0.022993046,-0.274717799,0.291229529,-0.409477008,-0.175737643,0.021687950,-0.175861287,0.288132386,0.297938002,-0.245637923,-0.349938900,-0.136661504,-0.349935145,0.246419998,
0.451576932,0.307193977,0.261509514,0.009617957,-0.003839198,-0.220524032,0.111709739,-0.133688325,0.210851786,0.259091995,-0.269522436,-0.160409931,0.175467942,-0.399507681,0.051102027,-0.002675465,-0.244406577,0.021998292,0.425253488,-0.257059600,-0.011224650,0.307177634,-0.129732721,-0.532179310,0.133652098,
-0.288690557,0.345148407,0.070350226,-0.079429078,0.309569482,0.172833284,0.129715250,-0.022034846,0.534781990,-0.071891307,0.050846818,-0.143594573,0.030495761,-0.095338935,0.253897064,0.183796956,0.018195437,-0.014912107,0.080256047,0.021569446,0.099608786,0.028262658,0.284955149,-0.406120957,-0.047796206,
-0.242815498,
0.222338012,
-0.175044492,
0.446648579,
-0.126132616,
0.043835485,
-0.314911651,
-0.306814851,
-0.004157322,
0.203263221,
-0.198288436,
0.033899616,
0.155302723,
-0.088602063,
-0.580967547,
0.011552460,
-0.013580044,
0.026786772,
-0.156219283,
-0.027612356,
0.211790776,
-0.038447313,
-0.026110342,
0.008790349,
0.037432827,
0.342110409,-0.102801740,-0.422195522,-0.487977707,-0.087459683,0.294875375,-0.618690438,0.059427928,0.038877498,-0.483139593,-0.172460820,0.066030836,0.366102976,-0.041017055,0.034109704,-0.128958130,-0.307661402,0.085554608,0.470789769,-0.151481136,0.061524222,0.202014646,-0.034346042,-0.318101808,-0.542229083,
-0.154812575,-0.037068117,-0.160687676,-0.317347954,0.069557755,-0.092484399,-0.018306182,-0.262403416,-0.423591030,0.314556252,-0.073965574,0.130339254,-0.130474128,0.252137951,-0.076506029,0.195470926,0.057085249,-0.223858307,0.035562526,-0.021831224,-0.469275290,-0.294915755,0.391582098,0.220524629,-0.358136102,
-0.124168174,-0.201248721,-0.194305374,0.258856462,-0.178190800,0.042595605,0.212512727,0.171613425,0.008541743,-0.067682861,-0.008525293,0.331779683,0.070480554,0.274760649,0.079580881,0.161826804,0.063307652,0.128132600,-0.633764910,0.254208250,0.216773178,-0.103432856,-0.211417853,0.389562629,-0.284556967,
-0.080160376,-0.022450797,0.016131330,-0.164134806,0.200894633,-0.066604614,-0.002615367,-0.237806859,0.038349274,-0.034712138,0.056997072,-0.061358409,0.023009375,-0.069399962,0.046847616,-0.220562862,-0.025371001,-0.069241408,0.102015610,0.008706873,0.500785638,-0.220386706,0.168978919,-0.078189785,-0.005149304,
-0.206994129,0.097315313,0.355052598,0.123910313,0.000470614,0.066690416,0.063204603,-0.407092918,-0.289281657,0.291603681,0.044055112,0.037463613,0.156174203,-0.066865219,-0.240547836,-0.150535104,-0.126645326,0.132084495,-0.208345884,0.224532682,-0.147454099,-0.281452492,-0.123462917,0.223400996,0.081013095,
-0.586465087,0.172304019,-0.045490285,0.087174502,-0.156168692,-0.265289976,0.320263068,-0.071116097,0.244810487,-0.626518202,-0.403555653,-0.158216324,0.473325593,0.167736223,0.049738535,-0.144513717,0.304451504,-0.458151852,0.266256422,-0.011229605,0.115449503,0.102132489,0.132318854,-0.165708641,-0.036792075,
-0.091797171,0.132649296,0.459777124,0.036569016,0.208888309,0.351802729,-0.346042045,-0.228977970,0.061468947,-0.109994971,-0.048483152,0.039421554,0.090965408,0.304867201,-0.415178554,-0.762093607,-0.164028735,0.034158155,-0.044001867,-0.410048697,-0.005499402,0.133427817,-0.163742309,-0.117601091,0.154039113,
0.085177507,-0.010639832,0.181750326,0.113533780,-0.012180819,-0.232245854,0.332525920,0.135611346,0.056392119,-0.192070467,0.199982872,-0.256442490,-0.068910033,-0.209602749,0.410172975,0.295530295,-0.294239113,-0.095872500,-0.332225831,-0.118921179,0.101327169,0.420674513,-0.356688926,-0.108300634,-0.284328880,
0.138911119,-0.098003377,0.034587390,-0.084096707,0.091107675,0.196801641,-0.309560744,-0.049545715,0.204360074,-0.005663538,-0.051939334,0.219269558,0.278854075,-0.093392405,0.122287048,0.149080116,0.137244481,-0.056078049,-0.000503089,0.585922516,0.155363598,-0.074875344,-0.145354068,-0.244320552,-0.371147606,
0.432701373,-0.053392085,0.046572267,0.293659547,0.012394317,0.096683756,-0.078905770,-0.131614872,0.354720121,-0.255684510,-0.040411950,-0.180981570,0.201847023,-0.095325289,0.107663265,0.458970242,-0.219138084,0.098795536,-0.145216106,-0.095100410,-0.213698629,-0.204849870,0.249986085,-0.381292941,0.111318799,
0.049742887,-0.300938493,-0.141643503,-0.081976985,-0.231361327,-0.101761346,0.260223920,0.584761241,0.256918398,0.000256705,0.275327391,-0.033292818,-0.234484833,0.058928197,0.250182781,0.519201037,0.094175100,0.157939200,0.145749847,0.435463411,-0.047941145,-0.033612617,-0.398381790,-0.319117084,-0.044511838,
0.131104043,-0.064794175,0.221468458,-0.060072942,-0.124269723,-0.191833986,0.209499366,-0.622101428,0.141757909,-0.143594211,0.262295198,0.048977916,-0.102176333,0.173532679,-0.006736095,-0.190977392,0.074426923,-0.378345993,-0.040957475,0.007337907,0.191387329,-0.016835144,0.113742332,-0.075464233,-0.035151230,
-0.095129592,0.126846430,0.061305390,0.218313803,0.578749725,0.030453338,0.030872717,0.062579409,-0.463570843,-0.143249571,0.473392011,0.098106192,-0.118350563,0.205326639,0.070658569,-0.108381819,-0.168603374,-0.237076419,0.100571707,-0.099360570,0.129699324,-0.003543573,-0.460986304,-0.277900676,-0.210925232,
0.389245187,-0.021001309,0.605478144,0.060839186,0.152219146,-0.026782706,0.285789595,0.157800518,0.173169766,0.263463109,-0.009512107,-0.048772577,0.126177047,-0.156367476,0.055584751,0.255251737,-0.021935190,0.140583070,0.043085091,0.285029447,0.053296983,0.238914440,-0.264611400,0.283103430,0.196625669,
-0.056181108,-0.049774392,0.104624820,0.133693883,0.173500737,0.353032106,0.077598344,0.144521523,0.115463441,0.202325173,0.298609798,0.371519390,0.127050935,-0.159642514,0.042411664,0.012987218,-0.092371169,0.176518158,0.335475086,-0.307716446,0.044381521,0.088836160,-0.200489083,-0.135634455,0.305195143,
0.192597025,0.299688529,0.108706179,-0.141431746,0.449913780,0.016625027,-0.165266264,-0.082464871,-0.139728635,0.098301870,-0.221086816,-0.211816858,-0.289834084,-0.113088573,-0.070862334,-0.096581557,-0.182269811,0.136185816,0.330093300,0.388451155,0.052701221,0.435212974,-0.181307779,-0.238212329,-0.040259878,
0.226520612,-0.135099820,0.062750811,0.078570012,0.215469416,-0.265485003,-0.084589391,-0.161587189,-0.078724409,-0.207510425,0.074975100,-0.213746498,0.011210471,0.240037788,0.226618888,-0.068902829,-0.283449898,0.328110609,-0.146452941,0.228506102,0.172208925,0.002613414,-0.136253251,-0.028104557,0.423182595,
-0.118398174,0.171750616,-0.325188802,0.088622931,0.141807521,-0.006186376,0.129750025,-0.084085640,-0.148899447,0.186937350,-0.013709793,0.160975236,0.015817355,-0.178694214,-0.253689347,-0.210575340,0.168677301,-0.324771743,0.283510374,0.006734182,0.074117714,0.411888638,0.339215120,0.098930919,0.277334138,
-0.260831559,-0.400939979,-0.087640544,0.455866403,0.151439878,-0.277636318,-0.420340491,-0.101244800,0.167126956,-0.104305603,0.120171875,-0.028962415,0.045379460,-0.146365720,-0.068044211,0.158217958,0.285025687,0.287818305,-0.053144795,-0.240180012,0.283221585,-0.089034819,-0.109797811,-0.242680807,0.068591036,
-0.006416584,0.091823081,-0.151157475,-0.060643414,-0.172171168,0.138189422,0.165143401,0.201213079,0.222351349,-0.063208246,-0.104501232,0.018882430,0.170934037,0.238191365,-0.003591879,0.158274646,0.024991767,0.026652645,0.261309611,0.085767942,0.241092120,0.218182565,0.156845158,-0.140240562,0.473137976,
0.040029349,0.087638828,-0.006398682,-0.254377460,-0.329507499,0.389915524,0.071053447,-0.160417193,-0.013209070,-0.274547249,-0.120376774,-0.112005218,-0.215604797,0.475277941,-0.029110055,0.324758212,-0.084502638,0.013615433,-0.007218611,-0.224133162,-0.244112843,-0.230710014,0.510823011,-0.110803012,-0.128909093,
-0.400244329,0.134680941,-0.204152299,-0.272539504,-0.344873183,0.324428150,-0.346210319,-0.060818741,0.285842400,0.011053550,-0.080590784,0.010860896,0.019539363,0.034204385,-0.344093269,0.499267570,0.165470880,-0.026194203,-0.214626769,0.014037099,-0.415781288,-0.221391471,0.075118645,0.234077440,0.049753198,
-0.130655219,0.256601362,-0.168086254,0.071340077,-0.033965371,0.171833493,-0.016274194,0.321225393,0.102432699,0.168876988,-0.055808223,0.048983494,0.434720462,-0.123947049,0.402885078,-0.138850462,0.007255839,0.048143093,-0.072960241,-0.204795845,-0.033178179,0.081125993,-0.052764909,0.012348124,-0.013192233,
-0.069215636,0.058100578,-0.015364521,-0.095076015,-0.241467550,0.201244542,-0.046503705,0.081859987,-0.159327281,0.046721913,0.075771104,-0.022326102,-0.432609602,0.189037136,-0.145342314,-0.060889371,-0.017667835,0.173318031,-0.111396850,0.004515060,-0.129336859,-0.129524523,0.109558053,-0.523963040,0.142425004,
0.093070267,0.258192879,-0.382262656,0.252035712,-0.146370780,0.041085100,0.176598663,-0.230422286,0.436702607,0.416652960,-0.120012729,-0.246371262,-0.067112925,-0.159530851,0.036687257,-0.122996055,0.093497814,0.102098702,-0.004822792,-0.085204299,-0.022812983,0.199971829,0.020585139,0.067704053,0.241380027,
0.233815278,
0.147460931,
-0.204163268,
-0.182994646,
-0.129865499,
-0.055131536,
-0.260575392,
0.023634514,
-0.152685057,
-0.340908028,
0.147534057,
0.102468956,
-0.283776197,
0.074470305,
0.095730908,
0.058140840,
0.103885712,
0.005162758,
0.164191365,
0.027236335,
-0.292386558,
0.386136029,
0.039407140,
-0.124333825,
-0.231147627,
-0.116666175,0.032360019,0.378718595,0.159288906,-0.052740067,0.232579697,-0.026760550,0.214451305,-0.160696068,0.053789640,0.060263721,0.265914706,0.200748877,0.088612363,-0.148393239,0.130816047,0.114750986,0.298934969,0.112364205,0.246554347,0.017871905,-0.311337777,0.166632679,-0.150992588,-0.074622823,
0.292166807,0.012503767,0.056795778,0.017432688,0.311434527,0.371637910,0.185084848,-0.232298744,0.354242280,-0.121220267,0.196729187,-0.332779200,0.342586016,-0.001847508,0.129303645,0.132353720,0.107379914,0.092794891,-0.100789233,-0.081042917,-0.288109789,-0.327631509,-0.097948066,0.136996490,-0.205115743,
