// Neural Network File Format by Kyle Julian, Stanford 2016
6,2,2,45,
2,45,45,45,45,45,2,
0,
-10000.0,-10000.0,
10000.0,10000.0,
0.0,0.0,0.0,
1.0,1.0,1.0,
-0.207535704,-0.023013189,
-0.031777124,-0.089132266,
-0.242639702,0.071921174,
-0.189719153,0.021650934,
0.052312790,0.125012992,
0.143817059,0.141914884,
0.018984998,-0.294361735,
0.063420262,-0.124901677,
0.276845529,0.078427779,
0.032385155,0.077888653,
0.167115971,0.273834239,
-0.002452103,0.332354506,
-0.303969968,0.128117715,
-0.029648687,-0.064910349,
0.080305600,-0.222962725,
-0.116216565,-0.186254229,
0.167193386,0.098792861,
-0.157756787,-0.246130741,
0.227672414,0.104882845,
0.013928657,0.408368747,
0.052416832,-0.083564480,
-0.075703653,0.163606967,
0.050833612,0.041602199,
-0.304385266,-0.324990442,
0.109179433,0.199196101,
0.166282158,-0.036871853,
0.104042948,-0.000488406,
0.059264539,0.093729236,
-0.312818631,-0.286430303,
-0.244881333,-0.065975339,
-0.011246725,-0.097213981,
0.089569929,-0.184793668,
-0.071877952,0.134829777,
0.184337320,0.299634069,
0.034695737,0.249870178,
-0.118861470,0.001263749,
0.013729268,-0.126091096,
-0.145067144,0.066170901,
-0.091140241,0.040951812,
0.200608994,0.359604742,
0.194181041,0.112488928,
-0.287436610,0.212410516,
0.149994299,-0.031826288,
0.214690259,-0.066094458,
-0.216332241,-0.113441993,
0.134661681,
0.018207726,
0.221563896,
0.148390531,
0.089060657,
-0.339832018,
0.184362564,
0.240573383,
0.023073372,
0.299525472,
0.094636910,
0.075745076,
0.060403077,
0.031823835,
-0.001689099,
-0.082203162,
0.126907041,
0.122040552,
0.067605376,
-0.087460037,
0.142606732,
0.209196496,
-0.016338063,
-0.021428956,
-0.045083392,
0.118566992,
-0.229556749,
0.086902890,
0.119943738,
-0.214155857,
0.000871467,
-0.161688036,
-0.029284984,
0.109040135,
-0.007612154,
0.135008773,
-0.112394836,
-0.090504069,
0.042009348,
0.102269926,
-0.212856086,
0.334995030,
-0.061736379,
-0.020580126,
-0.176476447,
-0.298053376,0.116066613,0.324840438,-0.159624682,-0.036667653,-0.310180015,0.139280483,0.013504985,0.063339836,-0.058539519,-0.021713799,0.072529744,-0.081988555,-0.012963210,0.006930746,0.179306873,-0.042012635,-0.096588184,-0.091754743,0.106869344,-0.162974204,0.057096947,-0.186187291,-0.042537691,0.163220313,0.079419172,0.062800459,-0.169459534,0.019818606,0.420544757,-0.287027177,0.116835915,0.004156880,0.368457537,-0.097000466,-0.020065156,0.017184635,-0.279406972,-0.210806075,0.013561029,-0.159501172,0.225023879,0.098209823,0.082277823,0.001890835,
0.080229889,0.027171614,0.268809566,-0.198384728,-0.179641473,0.136295404,-0.204098503,0.060594596,0.018734272,0.294663742,0.101666116,-0.089082053,-0.183894942,-0.161884172,-0.102356207,-0.149889138,0.182152811,-0.163884202,0.018420078,0.062303691,0.015096834,0.102219028,-0.160576564,0.222856419,-0.234684172,-0.015486842,0.120863111,0.166674071,-0.059783828,0.003750274,0.111505628,0.050795478,0.010834950,0.276069403,-0.145946124,-0.152116962,0.097415224,0.262017344,-0.158432282,0.200044747,-0.101791348,0.121698232,0.007269813,-0.193384608,-0.197007934,
0.146741695,-0.024119400,0.030034979,-0.018301555,0.429344925,0.137309479,0.001622226,0.137412493,0.173051186,-0.139071133,-0.191284146,0.140881956,0.039766180,0.004391719,0.244442398,0.079183894,-0.065380002,0.399038121,-0.270870688,-0.062556004,0.120400594,-0.101422958,0.024495636,-0.284554717,-0.125043546,-0.067020895,0.136396550,-0.161049987,0.001105079,-0.119847841,-0.014388428,-0.213069418,-0.051516810,-0.097828678,-0.083291753,-0.133058615,0.185524860,-0.416997096,0.035926156,0.051119921,-0.050071476,0.175773818,-0.102964357,-0.068671405,0.173308628,
0.195906227,-0.029001143,-0.075153044,0.106276031,0.001390032,-0.198594984,0.016069191,0.198714655,0.046426419,-0.109757275,-0.054107318,0.174290894,0.080980285,-0.019487281,-0.084577150,0.015123586,-0.296872230,0.058779093,-0.291402141,0.005322129,0.238120570,-0.031639140,-0.187016331,-0.142277607,0.054760293,-0.027393391,0.150696977,0.029043307,0.109308532,0.159907665,0.194976669,-0.117585658,0.015703756,-0.059388586,0.050598558,-0.000410776,-0.227138215,0.058121723,0.058165616,0.006766551,-0.052953932,0.032293273,-0.032772135,0.280821471,-0.187502380,
0.039473710,0.002932375,-0.058349080,0.033785321,-0.051515678,-0.100549509,0.069877302,0.085593185,-0.147650685,0.036000619,-0.189608639,-0.165875044,-0.230371486,-0.025111121,0.177480898,0.069446807,-0.058800307,-0.408729796,-0.044575295,-0.081212655,0.128821695,-0.156334918,-0.045555576,-0.330847056,-0.223640426,-0.024968427,0.238160618,-0.014940812,0.063301608,0.189527819,0.144112874,0.159148355,0.051722746,0.030998751,0.168931155,-0.176597165,0.018137115,-0.122031047,0.040692769,0.164307297,-0.368791213,0.257938492,0.277175201,0.042238718,0.015757337,
-0.088640201,0.193814512,-0.280439763,0.080184577,-0.112871403,0.136194158,0.241324829,0.268293019,-0.104847318,-0.354507865,-0.106219531,0.062116896,0.149675590,0.046807245,0.124795145,0.042991142,-0.200843362,-0.309109981,-0.274912231,-0.088912865,0.026112566,0.272393274,-0.105096214,-0.027733514,0.000632575,0.017416949,0.394926565,-0.094688197,-0.082410406,-0.260947726,0.057478658,-0.065949309,-0.025377085,0.066983200,0.119033119,-0.147148668,-0.421054163,0.282517310,0.057132485,-0.255664604,-0.073519986,-0.016476420,-0.054069512,0.142107884,-0.294633062,
0.311455566,-0.173995793,-0.059017068,-0.034178442,0.044292514,-0.047203206,0.243948049,-0.134854811,-0.088956533,0.041122212,-0.048972334,0.084398770,-0.153289902,-0.191973392,-0.089656516,-0.035265420,0.054022323,0.036676115,0.345706710,-0.218486886,-0.129541210,-0.190923908,0.048244427,-0.083074120,0.197777476,-0.094655385,0.087688493,0.186335043,-0.272127714,0.125518609,-0.051676609,0.010972042,-0.169703656,0.056562097,0.161448218,0.020635983,0.076888042,-0.072162140,0.341850736,-0.162769989,-0.005269538,-0.047766186,-0.045825694,-0.225349717,-0.376086961,
0.021882047,0.082977532,-0.119074406,0.065349256,-0.018769345,-0.103235637,-0.079859752,0.001633565,-0.269631331,-0.128489285,-0.067253186,-0.202005037,-0.191003812,-0.122185360,-0.190036752,-0.104565198,0.105894785,-0.072003878,0.517472047,-0.028752316,-0.315978751,-0.101551445,-0.169973949,-0.005878050,-0.014638276,0.087025942,0.185119534,0.186307435,0.384004832,-0.089471140,-0.102431052,-0.030125396,-0.080718865,0.276844264,0.105739615,0.006213235,-0.040627513,-0.131079938,0.235095185,0.105463081,-0.035819408,-0.121891520,0.021303845,0.125352514,0.101610859,
0.260733565,-0.083851311,-0.183608407,-0.073094900,0.097653181,0.079807645,0.160985897,-0.125303676,0.115040860,0.067436574,-0.001729135,-0.349584562,0.125649092,0.015057825,-0.119407173,0.096062858,-0.171800143,0.011822403,-0.182318560,-0.242961656,0.045134309,-0.142038513,0.145517446,0.170707612,0.018880626,0.229783082,0.104648725,-0.097881332,-0.109640506,-0.001853275,0.204232486,0.016509872,0.180147643,0.063981921,0.012760987,-0.152174483,-0.182506127,-0.038623730,-0.056541867,-0.168628075,-0.083832115,0.063156180,0.276440088,0.036159085,0.096896599,
-0.220827589,0.114746101,0.061351380,-0.139350118,0.069816226,-0.070916408,0.173649125,0.050976764,0.022386554,0.322596023,-0.185535543,0.131578889,-0.086665386,0.369036325,0.109935509,-0.011795584,-0.203487591,0.194457406,0.025265199,-0.193797931,-0.224931789,0.053541088,-0.007781073,0.032296100,0.154754705,-0.126073832,0.128804693,-0.382780522,0.051680802,0.289152897,-0.075891498,0.027585360,-0.031477872,0.144117811,0.282524648,-0.016551912,0.055051192,-0.114903217,0.182348307,0.345728499,-0.054464758,0.138299903,-0.059755807,0.209299043,0.095130605,
-0.049700740,-0.017568828,0.062496979,0.017299020,0.161147544,-0.051411361,0.069745899,0.080438407,-0.002950510,-0.092413235,0.051457715,-0.046136371,0.235462086,0.078927840,0.101353584,0.178376230,0.033360698,-0.105571011,-0.103685212,0.030478711,0.239620520,0.088198783,-0.231033361,0.058467824,0.068469413,-0.018808758,0.055082515,-0.159492114,0.002410617,-0.288311699,-0.028684517,-0.015272189,0.038034395,-0.035833043,0.004683442,-0.044108792,0.008089274,0.107592641,0.030565951,0.270690222,0.055518063,0.117558075,0.143242869,-0.180520549,0.072629568,
0.057549888,-0.245409133,-0.003517287,0.227516977,0.205959266,-0.161117395,0.086885380,0.097953670,-0.203518743,-0.314955211,0.030040621,-0.152362602,-0.214567582,-0.043060455,0.091309201,-0.065259425,0.166864340,0.223175946,-0.009739392,-0.261515938,0.011376793,-0.357416934,-0.230498029,0.035674348,-0.099103762,-0.036443011,-0.075034804,0.005065524,0.198995623,0.059895941,0.156861874,-0.158647143,0.151434675,0.209861884,0.080758801,-0.050747187,-0.019403131,0.206663221,-0.066690476,-0.049349884,0.261629991,-0.050022268,-0.088030379,0.274704515,0.265487176,
-0.021778106,0.058538441,0.093548949,0.079274562,-0.098902956,0.218629458,-0.103459976,-0.042521246,0.233449460,-0.019794360,-0.011349050,-0.282595448,0.213202951,0.021508471,0.011733345,0.151964732,-0.019261056,0.194930584,0.101898145,0.030374589,-0.038547655,-0.159089755,-0.076434469,-0.237391309,0.104270111,-0.116845390,-0.091269340,-0.158652637,0.024410547,-0.498338600,0.185896073,-0.226578892,-0.004000434,0.119209708,0.081525515,-0.003804820,0.222570926,-0.042918495,-0.077529416,0.254460916,-0.049380874,0.248863710,-0.208992244,0.279796281,-0.113051520,
0.010592407,0.216228327,-0.184165343,0.179628928,0.268022085,0.075855596,-0.036249191,0.059510601,-0.153159991,-0.122677753,0.017270302,-0.082839518,0.320714234,-0.080281309,0.079543396,0.036073917,-0.029771724,-0.160086365,0.321008230,-0.212120193,-0.032628446,-0.206275540,0.252685400,-0.090419512,0.246333765,-0.211443304,0.017872584,-0.174525939,-0.090231943,0.153440425,-0.107344043,-0.106789277,0.173105550,-0.051835616,0.055069644,0.216334397,-0.014056737,-0.160415386,0.210494774,0.088832299,0.061284253,0.223261513,0.112693820,-0.003966498,0.174964275,
-0.116892216,-0.170903333,-0.011169530,0.182638968,-0.118950408,-0.040192439,0.098791912,-0.046255541,-0.320913941,0.035893929,0.096112981,-0.160232127,0.167299829,-0.184161690,-0.021402161,0.249374349,0.351146269,-0.043034470,0.089435192,0.165219989,0.182511151,0.025412204,-0.046488458,0.114515300,0.144218159,-0.089633246,-0.249666909,0.084365802,-0.152063532,-0.093146883,-0.054972658,-0.160351026,-0.160696985,-0.046542905,0.116070364,0.171211832,-0.085764445,-0.361151451,-0.064751979,-0.216248276,0.185989511,-0.017339490,0.176977123,-0.031134595,-0.153043362,
-0.107504481,-0.276849232,0.056755751,-0.128498063,-0.000961025,-0.163688098,0.083594893,-0.368113517,0.110844045,0.038813307,0.004548867,-0.185407071,-0.322147285,0.159377783,0.225001961,-0.002543062,-0.035259522,0.046770319,-0.177975068,0.012118885,-0.227936410,0.090660980,0.130597704,-0.102305461,-0.026913864,0.191905205,0.208642535,-0.003979618,0.065223616,0.012770141,-0.213584568,-0.276786777,0.097449101,0.320856711,-0.244111871,-0.198575862,0.013253977,-0.035931950,0.077866205,0.225077560,0.051329732,0.075898067,-0.121778169,-0.016359449,-0.133152764,
-0.231873352,0.006871330,-0.306728062,-0.060006671,0.043952778,0.007658734,0.269139584,-0.102091466,-0.010780621,0.174815972,0.112997392,0.091026199,0.049987219,0.035194539,-0.312931042,-0.052944012,0.285099556,-0.115632682,-0.060517343,0.154066461,0.005566047,0.011237589,-0.073194148,-0.128805186,0.089414501,-0.171440921,-0.001011484,-0.514624208,-0.019990442,0.059225336,-0.018987686,-0.203899330,-0.004601858,-0.048490312,-0.058002442,0.157462174,0.230943454,0.178040420,-0.149092231,0.215919679,-0.242876433,0.010321049,0.285266923,-0.134547090,0.175124715,
0.330491369,0.020981384,0.023533084,0.036865252,-0.050733950,-0.027425445,-0.099824799,0.187412926,-0.074431063,0.190184691,0.047542898,-0.347452439,-0.029289518,0.188668798,0.002422870,-0.219126488,0.288137050,-0.032220373,-0.329033738,0.067939818,-0.035054766,0.015020368,-0.096123136,0.000812717,0.130595128,-0.219784288,-0.180322025,-0.248343842,-0.102976082,-0.023209322,-0.012452564,-0.213912027,-0.037576705,-0.263148816,0.027804949,-0.094406506,-0.045988626,-0.217136148,0.167958295,-0.101484068,0.289222542,-0.127960834,0.011337570,-0.221110391,0.018419139,
-0.204982526,0.077842068,-0.115767057,-0.065176521,-0.177007163,0.067061079,0.149942682,0.310844756,-0.036021656,0.041531797,-0.061494642,-0.425524313,0.014136710,0.011660909,0.092562025,0.050796616,-0.082236773,0.097334083,-0.119738764,0.005508070,0.205902508,0.501004263,-0.460696106,0.046673369,-0.008943738,0.049357102,-0.231607883,-0.075892164,-0.062251070,-0.023165469,-0.147564939,0.111990594,-0.072425782,-0.072883123,0.243974636,-0.285969301,-0.011953604,-0.016521641,0.073832280,-0.015739850,-0.041333969,-0.061999280,0.123186552,-0.128163660,0.124677881,
-0.082647774,0.089029643,-0.086586305,-0.072753942,0.163921175,-0.273131964,-0.025213384,0.062476227,0.157095879,0.074106709,0.231330610,-0.220972128,-0.192846431,0.173566066,-0.291972012,-0.191972174,0.021664240,-0.264187461,0.145246909,-0.173625198,-0.135470439,0.107877216,-0.342323873,-0.079656871,0.014065601,-0.005127872,0.157645466,0.179865411,-0.065022307,-0.020368765,-0.065188279,-0.042417896,0.133759691,0.119715193,0.094885837,-0.163027360,-0.027858861,-0.122420377,-0.027534408,-0.342989715,-0.189280016,-0.025682639,-0.228637005,-0.208680778,0.445838138,
-0.127064822,0.096616651,-0.060959739,0.097505844,0.082420375,0.059908314,-0.097906277,0.376362830,-0.082875777,-0.101043952,0.042205040,-0.066779887,0.115988983,0.177325520,0.090209609,0.195290493,0.109076611,-0.120858511,-0.284380630,0.259506386,0.088868502,0.202781377,-0.018929083,0.267256226,-0.124694592,0.106839485,-0.057685102,0.042968495,-0.145123101,0.017929546,-0.277784239,-0.118146270,0.117822222,-0.052904637,-0.054773218,0.032885282,0.012294700,-0.037913038,-0.365040589,-0.150465432,-0.029015756,-0.012893377,0.321425910,-0.015313157,-0.142553047,
0.145900127,-0.221187332,-0.227763573,-0.123076581,-0.046885350,-0.002245664,-0.304762226,0.005869172,0.237746148,0.087476542,0.397341723,0.036071608,0.334479799,0.135126773,0.121701267,0.002280920,-0.135317400,-0.062592729,0.155600927,0.196840117,0.358135845,-0.217679249,0.071593546,-0.091817736,-0.119609951,-0.013449856,0.026889823,-0.080712107,-0.308783102,-0.233839158,-0.011905354,-0.117559770,0.110319944,0.230370284,-0.128770644,-0.100456908,-0.377532988,0.148567075,-0.256877939,-0.241128215,0.152905517,0.036016797,0.034027786,0.228742289,0.000230720,
-0.095730532,0.072596204,-0.162406967,-0.031887609,-0.012059133,-0.191363333,0.008345035,-0.099112131,0.087427950,-0.092043468,0.361648845,-0.040273488,0.030173934,0.025010137,0.099247120,-0.382585706,0.134811220,0.021632985,0.074083663,-0.011028521,0.228655329,-0.260453755,-0.204997821,-0.082563136,-0.005602361,-0.096451466,0.096374295,0.240658898,0.125212508,-0.046207974,-0.063276961,0.027159573,-0.095490013,-0.047373744,0.128908803,0.120215893,-0.003583174,0.072106427,-0.019712656,0.115301570,0.066315577,0.195132254,0.104849998,0.036068563,-0.220641136,
-0.057348422,-0.033248008,0.323381888,0.314796876,0.128185383,-0.035569750,0.044631989,0.025194705,-0.134728815,0.184988173,-0.227786566,-0.199551815,0.088074660,0.075270084,-0.099253575,-0.305384392,0.057539639,-0.126254615,-0.018223856,0.098737371,-0.065322778,0.159744758,-0.010824386,-0.273082432,-0.130614183,0.045442916,-0.112212156,-0.066827546,0.220990846,0.032879877,-0.016285805,0.028902037,0.238075717,0.074805622,-0.280532844,-0.172382110,-0.046239459,0.128680523,-0.129777547,0.059117514,0.070247478,-0.081362227,0.068636172,0.252511033,-0.042302317,
-0.359363688,-0.111710977,0.112362572,-0.107644297,-0.137746817,0.015961934,0.024409319,0.146714935,0.109079364,0.103326215,-0.216526736,-0.131042012,0.075351938,0.242064651,-0.065108337,0.063847431,0.019184766,-0.099021183,0.151213023,0.009302158,-0.193492314,0.169633819,0.069150401,0.056972987,-0.024862523,0.137418151,-0.235981661,0.015341965,-0.123473687,0.017968877,0.029010656,0.078268604,0.368826985,-0.036418652,-0.160280257,0.110438286,-0.017766855,0.403030978,0.059493062,0.100935517,0.013600245,0.057533002,-0.154590566,0.137462055,-0.173187582,
-0.113288300,-0.247403879,0.206007919,0.274944598,-0.087352293,0.396427713,-0.046015496,-0.229118650,0.032077455,-0.083931687,-0.168222949,-0.216001081,0.104733469,0.041882202,-0.260701242,-0.125119295,-0.158460653,-0.123862972,0.024312867,-0.059925597,-0.038244581,0.063537355,-0.242958626,0.000131064,-0.202582635,0.029728210,0.444019392,0.006617130,-0.018120648,0.001382773,-0.254688691,-0.051322412,0.033533597,0.010062933,0.109512271,0.036938468,0.174295208,-0.232789296,-0.129047205,0.118830814,-0.290195759,-0.037997766,0.103677370,-0.122630296,-0.014110155,
-0.114750882,-0.016692485,0.107762957,-0.133101643,-0.104169752,-0.066259974,-0.225922722,-0.012930778,-0.007450558,0.172363944,0.134826872,-0.234089214,-0.040917599,0.247951384,-0.119121003,-0.222530888,-0.116429630,0.174654824,0.032020081,0.101069799,0.138583200,0.024458554,-0.075085304,0.138777760,-0.023959276,-0.337768016,-0.131100253,0.258912828,-0.122091619,0.080680750,-0.167369985,-0.195088060,0.118619609,0.032223659,-0.082465424,0.067179706,0.044262907,-0.144933870,0.135387446,0.170191773,-0.048866542,0.057011659,0.047135330,0.023684103,-0.084245541,
0.009313591,-0.100994776,-0.122595906,-0.049026157,0.178122550,-0.143382189,-0.109436268,0.033984533,0.054531789,-0.003278103,-0.027601228,-0.107187878,0.168748003,0.341739389,0.131497665,-0.081635634,-0.123102919,0.226472069,-0.084089874,-0.063557606,-0.104159814,0.183942439,0.072654492,-0.185122808,0.013351209,-0.253874610,-0.190091956,0.397770008,0.071258947,-0.096370129,-0.179536123,0.161441423,0.021024439,0.195343459,-0.187603953,-0.157878642,-0.092551389,0.104085336,-0.116290064,-0.050640151,-0.150938339,-0.259628309,0.177531791,-0.240015321,0.067716184,
-0.118963147,0.078098867,0.015838248,0.353784079,0.160966878,0.224177858,0.020869063,-0.051772435,0.151307551,0.209548717,-0.011254409,0.194768586,0.018376594,-0.097988324,0.073554511,0.105346971,0.126662826,0.021896314,0.219790337,0.131376318,0.099321151,0.100053300,0.161173023,0.042325962,-0.234165781,-0.212105473,0.061864565,-0.019931860,0.286403642,0.112530174,0.234216325,-0.252971287,-0.248619761,0.120481835,0.013509070,-0.024950523,0.107698637,-0.046418430,-0.068095877,-0.016510717,0.097585022,0.191869212,0.061737400,-0.028355774,-0.082267985,
-0.033751448,-0.133445594,0.081417709,-0.264286999,0.089501867,0.148265084,-0.121237437,0.185913524,0.346599092,-0.174254814,-0.213410671,0.054302386,0.240476741,-0.085071899,0.080306186,0.324424412,0.327340973,-0.057884531,-0.057768122,-0.084097164,0.177922102,-0.141578832,0.147561343,0.165963131,-0.017410867,-0.189649533,-0.088410478,-0.126650120,0.244072584,0.218748484,0.143893111,-0.054149935,0.112529664,0.033377327,0.108424607,-0.137672670,0.015141056,-0.212289122,0.299611204,-0.313183896,0.123059837,-0.255067007,-0.173510111,0.229581319,-0.058731855,
0.104048112,-0.017166814,0.044010881,0.017341162,0.067437789,-0.194088555,0.199101278,-0.031306733,-0.186167444,-0.030634308,0.047696617,-0.174330248,-0.017141905,-0.160429587,-0.120412837,-0.071225493,0.127140171,0.159275990,-0.185699140,-0.145865199,-0.080849634,-0.124761323,-0.041106953,-0.002730323,-0.017037986,-0.310688556,0.004898516,-0.091457753,-0.101823642,0.316172357,0.052353837,0.102511600,0.260052984,0.335200786,0.199576313,0.138035280,-0.298627654,-0.108039094,0.192323813,-0.105555671,0.089102932,0.073277860,-0.128433875,-0.046274932,-0.030220602,
0.257643626,0.158181974,0.112752417,-0.037808444,0.128596111,0.280369066,-0.078702902,-0.129982351,0.091268195,0.095484906,0.141642160,-0.046742492,-0.208499769,-0.207749345,-0.008668946,0.066651518,0.009638907,-0.333491435,-0.258129314,0.055044413,-0.036534307,0.170540030,-0.200118798,0.143214719,-0.026324221,0.205606058,-0.194364622,0.041494782,-0.142869691,-0.163264033,0.078214017,-0.178446290,-0.100002995,0.200194223,-0.045449005,-0.059567364,-0.117657388,0.080205622,-0.256156137,-0.069098909,-0.567307703,-0.048738536,-0.383950762,0.114000126,0.082249114,
-0.034490541,0.042466400,0.295841897,-0.066582290,-0.118469887,0.020886814,0.100483414,0.025790182,-0.057413764,0.110361985,0.141541191,-0.089940254,0.028763775,-0.072993623,-0.065361542,0.030328764,-0.085317123,0.076638427,0.062432379,0.237647868,0.219018245,0.007484050,0.007435950,-0.218863421,-0.321674288,0.051490220,0.191692933,-0.255407836,0.027188656,-0.066047859,0.054326365,-0.527384356,-0.051515461,-0.004149244,0.128663239,0.003710291,0.034001998,-0.090223405,0.100011077,-0.155252504,0.104936616,0.046534219,-0.103305559,0.152790310,0.068142759,
-0.022904560,-0.060023658,0.061079102,-0.097969971,0.036478204,0.331225012,-0.032900901,0.149792343,-0.119116943,0.008842703,-0.003360411,0.096780836,0.014124688,0.144574930,0.193060661,-0.067479843,-0.094451044,-0.087648282,-0.154583196,0.076595622,-0.093131604,0.147185505,0.076899029,0.198323134,-0.414950140,0.057491094,-0.221242819,0.199620929,-0.034675524,-0.144492925,0.112263989,0.316912979,-0.133868605,-0.086104810,-0.066722135,0.040511853,-0.260545187,-0.114026869,0.291292250,-0.221737315,-0.032638864,-0.199321766,0.035024766,-0.218305432,-0.173294807,
0.083941441,0.078209923,-0.080610282,-0.015536473,-0.033136111,0.036753877,0.121991808,-0.083485732,-0.177434161,-0.137554167,-0.009635773,-0.102109601,0.094968822,0.175392115,-0.067071003,0.135624191,-0.128654126,-0.026631825,0.034905851,-0.094741067,0.070860167,-0.074939819,0.046648937,-0.116405243,0.142881882,0.332979501,0.090415530,0.127708374,0.203884194,-0.064634092,0.010775127,0.017009865,0.202991738,0.016121372,0.084464338,-0.111686657,0.085379373,-0.168844046,-0.047375402,-0.024531650,-0.154314404,0.093634727,0.224767486,0.074641477,-0.055116637,
0.051390901,0.084586457,0.124700259,0.316370673,-0.043923058,-0.029490956,0.185037634,0.092023864,0.014170961,-0.232424864,0.028253466,0.117399153,-0.187615728,0.018777524,-0.234215288,-0.076901481,-0.222980819,0.014909913,-0.028393871,-0.127993282,0.131169462,-0.259649227,0.140302377,-0.190022168,-0.015114524,0.160801457,0.150576121,-0.015927918,0.132580646,0.111054484,0.064794821,0.041423834,-0.002577541,0.004234736,0.093554569,0.207300053,0.028923362,0.107441592,0.124331235,0.069664449,-0.034572916,-0.119134216,-0.074616724,-0.159801293,-0.055134773,
-0.123882360,0.082315096,-0.298298200,0.018617157,0.014092779,0.004212155,-0.024617321,-0.084768227,-0.243872951,0.110168963,0.087100643,-0.024737619,0.126916345,0.004735022,-0.176097718,0.173956799,-0.229479599,-0.018363948,0.288469814,-0.095330178,0.026473205,-0.040901995,-0.094541512,-0.033707551,-0.002793172,0.054451609,-0.061904138,-0.114774755,-0.058836325,-0.214034280,-0.112192554,0.162288384,-0.196370553,-0.112529586,-0.218601598,0.027333809,-0.201260846,-0.082851192,0.215874412,0.004459254,0.195993222,0.165947615,0.054540624,0.037837294,0.047994062,
-0.244003536,0.056699281,0.028849101,0.180263286,0.258773001,0.055315742,-0.029103584,-0.007146545,-0.199606601,-0.096913941,0.027106147,-0.084227724,0.196367234,0.051273297,-0.119476183,-0.079594990,0.218564241,0.036251321,0.204762563,0.136244631,-0.131357205,-0.458029883,-0.049485779,-0.173868574,-0.007751091,-0.110039624,0.098691977,-0.130683771,0.275849364,0.029605531,-0.185225473,-0.124507246,-0.061537908,0.197536007,-0.067480877,-0.000660480,0.173136788,-0.069770626,0.080765357,0.146137635,-0.033640656,-0.176402350,0.101480863,-0.205769315,-0.222565741,
-0.063879241,0.265892022,0.203199154,0.100865064,0.041112516,-0.154253670,-0.244396633,-0.084255202,-0.285811689,0.151929507,-0.307413825,0.063094593,-0.018495937,-0.180605673,0.124236231,-0.217791516,0.237278882,-0.030210162,-0.117419989,0.010237397,-0.124822254,0.076020496,-0.094914881,-0.027966799,0.032780695,-0.002084969,-0.039437097,-0.039047936,-0.152180757,-0.086132525,0.152654221,-0.082602734,0.284094428,-0.130237242,-0.097676417,-0.070121559,0.103502216,-0.020709203,-0.087685391,0.066598633,-0.277541984,-0.026528419,-0.141332258,0.116797022,0.019103208,
-0.159053619,-0.079094274,-0.070643243,0.120425280,0.024455604,0.144382116,0.185202917,0.111222681,0.038573728,0.065322448,-0.002784099,0.020101823,0.017532801,-0.092236861,0.108126383,-0.007421065,0.077298123,-0.174231070,-0.100799596,-0.224891538,-0.027631435,-0.063799494,-0.249251817,-0.034200794,0.406704061,-0.172889485,0.240906363,-0.156202030,-0.158737878,-0.011550389,-0.018952102,-0.132119623,-0.007725221,0.101621030,-0.027807635,0.132484065,-0.118675212,0.175456439,0.149774976,0.070508522,-0.052786500,0.101487966,-0.062452114,0.038197919,0.085071584,
-0.185965867,-0.173642353,-0.273552486,-0.005807016,-0.257781006,0.223269121,0.027350100,-0.060702489,-0.103901028,-0.129666542,0.316083848,0.116259598,0.194704184,0.030054649,0.071963971,0.129800398,0.221065024,0.073940307,0.054554638,-0.048071736,0.041561557,0.236929462,-0.062515455,-0.331328157,-0.172356309,-0.040983820,0.058549423,-0.283390035,-0.194094673,0.104172886,-0.078395341,0.284904720,0.225076409,-0.139239798,0.202488275,0.009482419,0.039748111,0.127319967,-0.158236869,-0.110997492,-0.027712715,-0.101055663,0.059046179,0.121802772,0.001011427,
-0.137328080,0.174560051,0.107714083,0.080531167,-0.103167180,0.091426101,-0.137874086,-0.022717205,-0.195384951,0.284242634,0.148748908,0.095501503,-0.137157341,-0.278959859,-0.179490767,0.088646957,0.006088391,-0.149212170,0.025223184,0.063300255,-0.020198313,0.217732759,-0.328475145,-0.088892871,-0.116412017,-0.024104447,0.051656450,0.203183282,-0.139707290,0.087573784,-0.112311551,0.199763098,-0.098386236,-0.019139858,-0.054197682,-0.279743622,-0.083719575,0.032488603,-0.175953993,0.261461528,0.090267733,-0.026179646,0.303444555,0.238426857,-0.007442812,
-0.139934765,0.235572766,-0.138637032,-0.122781165,-0.005832344,0.300507403,-0.020627338,-0.118386635,0.025203100,-0.421832143,0.057312503,0.064432817,-0.135158023,0.078389394,0.254636991,-0.018472614,-0.309960348,-0.285808159,-0.087287696,0.077278298,0.040237251,0.064118636,0.147910090,-0.084008717,-0.000104602,-0.069908410,0.055332410,-0.049150399,0.073296050,0.024110761,-0.367118464,0.004530794,-0.013186175,-0.019177099,0.097152440,-0.007419599,0.064344256,0.218687042,-0.034239919,0.064287724,0.178113884,0.134771244,-0.315722809,0.055001456,0.241260113,
0.193192659,0.279476066,-0.064287494,0.132340423,-0.098554132,0.195479634,0.012278567,-0.174364240,0.187356543,0.017998002,0.204780442,0.173789930,0.134881455,0.221000791,-0.093707141,-0.118857092,-0.172185531,0.028654349,-0.116503516,0.075963378,-0.076110094,-0.165242256,-0.151140257,-0.044466400,-0.001671145,-0.345695623,-0.079124047,0.025216894,0.096226487,-0.024665514,-0.220122585,-0.006342102,0.086685148,-0.020567157,0.027566153,-0.141245319,-0.161825576,-0.105896309,-0.143504866,0.123694235,-0.300927784,0.083767265,0.022516443,0.146414506,0.209649307,
0.166971070,0.131619633,0.003733156,0.104564156,-0.066135338,-0.164780216,-0.096913064,-0.095049752,0.042161956,-0.074347247,0.048096791,0.004239952,0.108307248,0.007736336,0.015588974,0.272285974,-0.268208397,0.139627984,0.004010699,0.139384248,0.010396833,0.193938417,0.057367749,-0.043265504,-0.176091080,-0.096764253,0.159155296,-0.185899064,0.254036053,-0.030785564,-0.055958521,0.121668619,0.136041563,0.043487156,0.006792317,-0.130669562,-0.070596990,0.245902264,0.336392332,0.052494797,0.032534828,-0.144685915,-0.175822656,0.041705623,0.061392776,
-0.217611858,
-0.031599389,
0.124887250,
-0.164847742,
-0.045562705,
-0.038906538,
-0.261670528,
0.105884501,
-0.134813622,
0.168147119,
-0.130181827,
0.121904487,
0.031288441,
0.134860553,
0.031992955,
0.075119926,
-0.018748203,
-0.026539856,
-0.184117585,
0.027051435,
0.060377877,
-0.063465448,
0.023416329,
0.013082266,
-0.009465280,
0.005270400,
-0.058662799,
-0.122887846,
-0.038002315,
0.055771956,
-0.187641575,
0.037469771,
-0.309122413,
0.513763819,
0.109530548,
-0.043184196,
0.070321743,
0.005076928,
0.061728875,
-0.050959527,
-0.082663623,
-0.072590225,
-0.194296857,
-0.054017152,
-0.366896187,
0.132922669,0.170513854,0.041022190,-0.092013519,-0.066849349,-0.187872841,-0.015564135,-0.226606031,-0.177510693,-0.009914770,0.079529427,-0.021964088,-0.162162256,-0.147473934,-0.308944085,-0.073448460,-0.048161352,-0.181330738,0.103587838,0.434349979,0.083745882,0.050890732,0.267569941,0.120284378,-0.066380333,-0.059454063,0.020579500,-0.058387936,-0.135920863,-0.009279425,0.211349454,-0.028250487,0.210972528,0.259907500,0.142705511,-0.264686751,-0.182807035,0.077713917,-0.152046758,0.108195165,-0.008749751,-0.350879912,-0.003111959,0.011272874,0.474068677,
-0.245180594,0.216453577,0.137624318,-0.130530064,0.147676214,0.184847849,-0.119814476,0.140421253,0.062475467,0.071392850,0.170584552,-0.179655962,-0.134752164,0.129602779,-0.010398952,-0.057235696,-0.125041305,0.062828022,-0.247673993,0.142978641,-0.124566516,-0.283646494,0.100134902,-0.122906453,0.044861128,-0.200055942,0.015994659,-0.163769962,0.340680456,-0.312684999,-0.072379355,0.006537056,-0.239671872,-0.024873373,-0.125601454,0.116180288,-0.043766902,0.260199747,-0.054688593,0.209437061,0.014888281,0.058194675,-0.052344127,0.289181528,0.137495572,
-0.093420380,0.021084812,-0.113054207,0.177330665,-0.114337581,0.287085003,0.265840056,0.057031499,-0.005037650,0.047629014,0.052350726,-0.451035263,-0.309872351,0.148354005,-0.315673489,-0.025413951,0.203759238,-0.008056761,0.184749792,-0.023133481,-0.079167717,-0.103908120,-0.193858744,-0.194367782,0.067434669,-0.179914856,-0.110357574,-0.088494047,-0.029953928,0.140210549,-0.046273787,0.185879594,0.081118981,-0.062280439,-0.093367129,-0.142075337,-0.112564919,0.188394442,0.042324224,-0.155592631,0.046772489,0.017008124,-0.040262639,-0.356726824,0.015073236,
0.093606198,-0.022379455,-0.157369100,0.168156397,0.004898597,0.117360024,-0.192307834,-0.055045370,-0.165169487,-0.246648565,-0.157314653,-0.070438932,-0.054287956,-0.186480610,-0.021611228,0.152513271,-0.043056172,-0.018356532,-0.061917565,0.057482045,0.229293215,0.118791499,-0.010526842,0.104635503,-0.254624706,0.169941241,0.095626535,-0.084903227,0.199106533,-0.087499692,-0.094764000,0.101441087,0.008647506,0.139298625,-0.060214240,0.072426431,0.059704018,0.109886138,-0.053811489,0.153662019,-0.214250136,0.224225577,-0.072753092,-0.357994247,-0.087401546,
0.108174749,-0.002659802,-0.374903779,0.260900767,0.030201556,0.018923828,0.115838980,0.093211726,0.191546104,-0.019368571,-0.055933458,-0.134870234,0.107839114,-0.028430522,0.209080534,0.247380787,-0.044077481,-0.201343211,-0.203273805,-0.131917556,0.199728625,-0.150035746,0.083886795,0.306625029,-0.132865557,0.045981436,-0.121505335,-0.157044661,0.011952928,0.117710010,-0.084615407,-0.159124198,-0.209496891,-0.189077373,0.063811727,-0.039337452,-0.067277045,-0.164942513,0.052086245,-0.057044070,-0.321623747,0.093083355,-0.042598404,-0.038175422,-0.030054891,
-0.051057038,-0.103806803,0.110080706,0.202744730,-0.101614058,-0.056139398,0.257971396,0.047204726,-0.042060321,0.210770049,0.003583125,-0.079005458,0.031988103,-0.212662446,-0.000066525,0.264651357,0.085546290,0.344963858,0.049672245,0.078427903,-0.258941410,0.075614820,-0.112318527,0.216670763,-0.031029561,-0.257716818,0.041810238,-0.206705435,0.280172160,0.229345002,0.264584051,0.252756172,-0.031915692,-0.047749254,0.213688156,-0.087824398,0.001728298,0.284928113,-0.076349623,-0.164573768,-0.138896380,-0.166047917,0.139361488,-0.101089391,0.158334054,
-0.281205764,-0.160859906,0.156045365,-0.184361107,-0.250241406,-0.165809857,-0.070269266,0.064319146,0.148504920,-0.045524763,-0.115416873,-0.169397927,0.122162991,0.304002009,0.020778547,0.255245246,-0.072471663,0.083880952,-0.008352018,-0.344133812,-0.130355569,0.046716578,-0.038002804,0.318979201,-0.138271153,-0.066669868,0.048229506,0.019920399,-0.033359850,0.075707652,0.194140130,-0.037874233,0.000152250,0.121945494,0.031366922,0.067587330,0.174477544,0.234879031,-0.224556604,-0.113927914,-0.115552733,-0.059124429,0.104164655,0.120460518,0.050572129,
-0.261371179,-0.103580524,-0.134155086,-0.050361029,-0.051299175,0.007448584,-0.099842142,0.241488445,-0.203227591,0.147781406,-0.097530573,0.112043499,0.169589357,0.160693397,-0.150478208,0.171789476,0.004587457,-0.033800397,0.176228888,-0.081166328,0.358090166,0.067466410,0.103671638,0.124918507,-0.113203460,-0.042921408,0.038279929,0.010391757,0.108448914,-0.112435367,0.119022878,-0.047937940,0.069389391,0.314789522,0.014031765,0.065920088,0.042306150,0.081044513,0.257552538,0.096533821,-0.058775818,-0.118284213,-0.076561063,0.192630713,0.171002113,
0.111832576,0.191407573,-0.189864170,-0.297263421,-0.163657940,-0.119685733,-0.057877203,-0.046891975,-0.175885238,-0.206661702,-0.156954712,-0.308847423,-0.112053103,-0.136076519,0.113854597,-0.028714483,0.179032891,-0.193740136,0.020941917,-0.111552888,0.080827971,-0.106079400,0.158634688,-0.278124510,0.030671449,-0.079427374,-0.134339648,-0.050804786,-0.022110739,0.078775455,-0.002051209,-0.140289626,-0.013564714,0.062090751,0.060012233,-0.274447923,-0.000203862,0.131563237,-0.203392421,0.092606940,-0.038701422,0.123586236,0.239525380,0.045592354,0.192318215,
-0.049185390,-0.018026134,0.034858299,-0.266781699,0.047401102,-0.098589941,-0.123409748,-0.054630246,-0.070266618,0.171584559,-0.253038471,-0.029667692,-0.125974120,-0.095696527,-0.020932687,0.097282858,-0.018330921,-0.229568562,-0.141147330,0.132255001,0.280491710,-0.081076520,0.304793698,0.053726543,-0.313937156,0.008083587,0.019137594,-0.085737815,0.002538313,0.109218570,-0.012785005,-0.234079171,-0.090743282,-0.020385076,0.229047599,-0.174775249,0.250257418,-0.228799451,-0.029243181,-0.136424918,-0.235081175,0.052940948,-0.145371338,0.047743979,-0.221696532,
0.033897128,0.104846346,0.031710693,-0.144551124,0.166553507,-0.180911105,0.252466468,-0.055958506,0.014866793,-0.156268444,-0.097421057,0.026157740,-0.054936609,-0.230986056,-0.160014381,0.033032130,0.095504821,0.193920580,-0.142185666,0.229735702,0.021811256,0.039554454,0.093758219,0.023113017,0.023816778,0.146404304,0.073442723,0.183962704,0.146941825,0.127005862,0.139634520,0.227020837,-0.234713745,0.092485452,-0.186725476,0.236283460,0.005318995,0.110117701,0.205339107,0.089776703,0.036152799,0.201496487,-0.214073244,-0.129747706,-0.015808782,
0.069995213,0.139133215,0.131794361,-0.251110401,-0.036469350,0.130111232,0.053240409,0.205281166,-0.124282540,0.346853246,0.151689977,-0.122615146,0.149578671,-0.101218133,-0.207247331,0.019258610,0.150822663,-0.050330449,0.135082412,0.123749695,-0.011828115,-0.186456877,0.009643713,-0.072581147,-0.154330704,0.101314417,0.153780086,-0.018188066,-0.194784626,-0.150572511,0.093434761,0.341917334,0.108457676,0.190356133,0.027703832,-0.129554625,0.117041213,-0.131245694,0.076458644,-0.155449750,0.172859415,0.006952629,0.263930396,0.036481447,0.355899103,
-0.270870203,0.089424301,-0.040709028,-0.024774211,0.132917579,0.402370087,0.086679429,-0.128003223,0.071738068,-0.051172093,0.148556204,-0.074140463,-0.241940796,-0.354178471,-0.098394255,0.020255714,-0.014383621,-0.000775644,0.278447551,0.014707131,-0.214525923,0.209674539,-0.136229713,0.039638380,-0.016836710,0.042522504,-0.368219358,0.184784812,-0.399746345,0.038959289,-0.166338914,0.022507203,0.126165002,-0.184951375,0.023642619,0.091700070,-0.199404504,0.042012278,0.250762187,-0.016406006,0.269260089,-0.010087359,-0.138645019,0.085383283,0.051979243,
0.139770045,0.162985667,0.067565099,-0.204652580,-0.298271572,-0.079259353,0.025509458,-0.025716381,0.161482452,0.092118119,0.037620731,-0.095111983,0.035424681,-0.136334576,-0.091663072,-0.271316821,0.089709649,-0.033896929,0.147872671,0.015646904,0.085526459,-0.141704751,-0.050302788,0.204278019,-0.095829240,-0.126762238,-0.273528464,-0.089740342,-0.087457438,-0.128750098,0.147114707,0.157117102,0.018203421,0.071389797,-0.065940292,0.155632456,0.256018986,-0.070465848,0.235815150,-0.132247932,0.107762958,-0.018452041,0.017775871,0.346311718,0.329670787,
0.248734111,-0.178087108,-0.113870443,0.217746071,0.108177669,-0.101447577,-0.057547568,-0.059298978,-0.012826436,0.123693475,-0.001219904,-0.043338877,-0.003688909,0.113858934,0.013652948,0.259442432,0.113655499,-0.114763251,0.315048653,-0.217210882,-0.093277548,-0.101165433,-0.073663097,-0.168338343,-0.387718868,-0.444812104,-0.082839517,0.100732025,0.033262850,0.168981237,-0.084132592,-0.063010680,0.072109478,-0.291831556,0.316285681,-0.243177001,0.142106265,0.091741074,-0.048228009,0.179527627,-0.023116117,0.369884073,-0.163100870,-0.128163812,0.188390424,
0.023829078,0.123145526,0.162158265,-0.084935532,-0.094487390,-0.037871117,-0.002192434,-0.097110656,0.039608733,0.022137000,0.057322315,-0.108872358,0.276687454,-0.112594942,-0.286326475,0.185915469,-0.025315919,0.021307240,-0.015913625,-0.128459640,0.047638820,0.133392543,0.073830081,-0.059259816,0.105005131,-0.013310120,0.210441664,-0.052890087,0.648385185,-0.247323013,0.039063790,-0.036377741,0.076646579,0.030422509,-0.211031995,-0.191525102,-0.035227409,-0.151509760,0.098507532,0.021818054,-0.102845235,0.068821528,0.135841450,0.024031010,-0.095252758,
-0.057910213,-0.044412165,0.149179629,0.247953160,-0.003236134,-0.089769103,-0.188162544,-0.015583106,0.238046142,0.129845870,-0.125400157,0.329814816,-0.011006407,0.080569721,-0.064343486,0.013583117,0.039759125,0.021023672,0.024390840,0.069334894,-0.097378618,-0.025047180,-0.081234499,0.011851581,0.031072767,-0.034952804,-0.010755437,0.084223252,-0.013074397,0.147899984,-0.159792203,-0.081022140,-0.025291476,0.039416549,-0.200255388,-0.102375563,0.094606003,-0.047179996,-0.139187897,0.200392345,-0.024981242,0.268015295,-0.158489083,-0.179249698,-0.147943659,
-0.186331184,-0.067893230,-0.280208777,0.241781907,0.022829851,-0.090685473,-0.069815910,-0.027272497,-0.042429550,-0.063265363,0.145450847,0.182580438,0.027748999,-0.021795710,0.003676481,0.226250408,-0.082163703,0.163083366,-0.277143231,-0.084893404,0.019771007,0.144793491,0.076622446,0.061135628,0.019597080,0.142897314,-0.004204313,-0.134034506,-0.086859457,0.070175401,0.032657580,0.046225731,0.054710000,0.328137797,-0.104661698,-0.044927639,0.152029929,0.210954252,0.181084263,0.028886249,0.099230468,-0.006028455,0.085062072,-0.173336991,-0.049692369,
-0.111686811,0.004767363,0.026896539,0.151288000,0.043247216,-0.170887375,0.153383474,0.201163760,0.150868134,0.236326961,0.026076234,-0.080951565,0.107049576,0.250501371,0.155256438,0.304898082,-0.031607943,0.027246414,0.140225067,-0.361636937,0.001544882,-0.256024352,-0.013395035,-0.003590550,-0.081066902,0.173462899,0.145717831,-0.030465292,-0.089313323,-0.068949856,-0.023147146,0.068572960,0.043445920,-0.118619838,0.075614858,-0.012464624,0.129644768,-0.177613121,0.120107364,-0.380715446,-0.007056913,-0.034847874,0.102729650,0.222830046,0.088975763,
0.102237867,-0.077862730,0.134066530,0.007158982,0.039175284,-0.041101581,-0.029597424,0.106190919,-0.281071883,-0.242846865,0.047011681,-0.343504667,0.119249209,0.063227612,0.148374829,-0.066839991,0.100226732,0.070476100,-0.148439088,-0.164439851,0.249604506,0.095255128,-0.000169315,-0.170539955,-0.072263337,-0.011664631,0.041867130,0.109620147,-0.195745286,-0.038836464,0.060666280,-0.052474847,-0.188932394,-0.103851512,-0.047140920,-0.069345469,-0.230379559,0.095180673,0.061536958,0.162150349,0.000153992,-0.214891207,-0.250148479,0.142148849,-0.231535127,
-0.146913542,0.229664853,-0.082447768,0.029893136,0.136518616,0.175309992,-0.068674854,0.157576190,0.171761008,0.209162671,0.045865093,-0.027764256,-0.025780306,0.088137055,-0.064675244,0.093759236,-0.211402440,0.071140325,0.366773174,0.087418744,0.045658354,0.027985314,-0.138344127,0.033230391,0.090087318,-0.150065564,0.068107611,-0.287732718,0.134356198,-0.163050132,-0.023599437,0.076295082,-0.215819495,0.073894653,-0.181325030,-0.102081721,-0.048488629,0.109513775,0.215685278,0.056543264,0.085312864,0.180383858,0.043875609,-0.085761186,-0.026075186,
-0.130811823,-0.002431385,-0.006109576,0.140009124,-0.261583876,-0.029392354,-0.208907336,-0.174173508,-0.107829738,0.102060934,-0.219474913,0.281858659,0.238611433,-0.058329850,-0.155394654,0.231930523,0.140488423,0.166691734,0.123016678,0.196410612,-0.027288823,0.020248841,0.049762907,-0.144700034,0.137030268,0.269951016,-0.029788644,-0.005693418,-0.078650133,0.082199849,0.074591081,-0.052595570,-0.176277761,-0.093427361,-0.138802082,0.136116218,0.116121029,-0.011470307,0.068493033,-0.168761048,0.226813010,0.173443326,0.019392119,0.002661202,-0.047710608,
0.185928568,0.042656701,-0.011046202,0.143945653,0.044484453,-0.056506516,-0.202875198,-0.007763475,0.003017211,0.016120659,0.050152880,-0.033253274,-0.156540877,-0.085871502,0.009557285,0.086939355,0.143024348,0.118559912,0.027255344,-0.024430830,-0.154685807,-0.049876661,0.061445589,-0.053572053,-0.001286174,0.045307304,-0.121065174,-0.087361559,-0.140961183,-0.011378511,0.260043901,-0.098305313,0.138952824,0.102272726,0.040573520,-0.371845508,-0.009432955,0.039436022,0.184687355,-0.200512012,0.102652298,0.015772922,-0.031951411,-0.162523651,0.295573672,
-0.186238786,-0.075078251,-0.155615135,-0.058238214,0.356022964,-0.106422126,-0.037430213,-0.077641970,0.085255443,-0.028425209,-0.007632482,0.191210186,-0.180038254,0.290338031,0.000548746,-0.134459372,0.209776519,0.028651780,0.055865192,-0.131436388,0.023496572,0.151761568,-0.147327819,-0.094337992,-0.104268670,-0.106033356,-0.110601652,-0.095624414,0.143974352,0.178473232,-0.030382367,-0.022363751,0.057262349,-0.003734377,0.110155488,-0.193165275,-0.023382121,0.073899991,0.063591131,-0.092213923,-0.093626825,0.024467556,0.206376895,-0.001566089,0.078672257,
0.067073489,0.342826266,-0.023670191,0.126892119,0.098710128,-0.137863457,-0.023355080,-0.031350400,-0.087727717,-0.005573957,0.087029160,-0.038875672,-0.032455745,-0.014843878,-0.029578118,0.042608606,-0.320630862,-0.000619981,0.078292591,-0.110636977,-0.081838429,-0.038307832,0.098586232,-0.065853749,0.048272475,-0.031990906,0.081840615,0.113621201,0.190031334,0.196898634,0.042308741,0.112702992,-0.216682585,0.080872383,0.106860417,-0.064247863,0.119827801,-0.100089089,-0.124775566,0.041804865,-0.202857673,0.102453579,0.044671625,0.022060133,0.235806091,
-0.066810822,-0.017102250,-0.029356733,-0.185837988,0.013237245,-0.128881081,-0.219244645,-0.116870606,-0.128607155,-0.055940165,0.180567847,-0.069947371,-0.048159292,0.261454300,0.222323955,0.075892670,0.176149360,0.150823728,0.046506426,0.007765270,-0.162611957,-0.056418729,0.252145779,0.078556187,0.148846122,-0.052424952,-0.276666876,0.164395060,0.400116625,-0.172507895,0.084467584,-0.045210775,-0.029082450,0.492157560,-0.102431675,0.087565975,-0.218113200,-0.055332395,-0.190400631,0.079997198,0.151226911,-0.209789261,0.188316604,0.162498329,0.074493820,
0.224050437,0.078425849,-0.166014085,0.171073008,-0.152409120,0.241104108,-0.054998913,-0.267774342,-0.003770818,-0.102900126,-0.043092455,-0.279007299,0.078890026,-0.206740026,-0.025814558,0.028404293,0.131354769,-0.002593090,-0.208387014,-0.001112037,0.029002776,-0.027266062,-0.070645205,-0.181275213,0.230711454,-0.196634820,0.219821504,0.153974773,0.199079786,0.035812245,-0.045111426,0.089433313,-0.063684811,0.084671189,-0.090373175,-0.157512150,0.056860036,0.076367007,0.415378834,0.181942419,-0.190795716,-0.144890173,0.180826904,-0.019645583,0.016547830,
0.034555724,0.227681162,-0.099007058,0.142799423,0.044054023,-0.203339783,0.025477143,0.081335690,-0.154060309,-0.084213637,-0.055741098,0.171525806,-0.127978727,-0.011535785,0.239253757,-0.312743890,-0.373118313,0.156831329,-0.133036871,0.095536207,-0.048365404,-0.026649660,-0.009565042,0.189563797,-0.126920615,-0.108462834,0.118143301,0.050290206,-0.142928115,-0.217262121,-0.424790429,-0.120830089,0.098172554,0.190032871,-0.062390096,0.173750143,0.121184047,0.214677678,-0.172295619,-0.201148573,-0.141422907,-0.209987744,0.021860187,-0.054725856,-0.141633728,
-0.187935833,0.163656918,-0.048312773,0.097056520,-0.094973343,0.078225582,0.061208836,-0.079788613,0.314660633,-0.064745285,0.014237041,0.099662372,0.083040147,0.189775830,-0.012540774,0.042168138,-0.002992269,0.054342797,0.232530109,0.012281297,0.008991683,-0.046146287,-0.227549517,0.125985967,-0.114016232,0.080872753,-0.269432634,-0.213759487,-0.219766933,0.086351140,0.050293478,0.035536953,-0.085953054,-0.200540443,0.136472725,-0.221160012,0.249026848,-0.111341139,-0.071587281,0.125197836,0.117161882,-0.113192162,0.072649948,-0.190648454,-0.086693936,
0.107589104,-0.414305240,-0.076157498,-0.003001578,0.180138863,-0.113147329,-0.211200547,0.218793131,0.373863311,-0.134989269,-0.098857498,0.024167571,0.275410196,0.067855914,-0.109118939,0.269200451,-0.072814541,-0.130541148,0.186022896,0.017207344,-0.071297405,0.076243850,0.157544816,-0.063772178,0.179364692,0.306604990,0.226811815,-0.060993551,0.032048784,0.271513661,0.143552932,-0.169763653,-0.259082098,-0.270157295,0.246743809,0.089800595,-0.166861793,0.041087756,-0.320093676,0.116107578,0.078741783,0.035508611,0.096153582,-0.200680123,-0.416155928,
0.239493801,0.129853202,0.071587699,0.133043333,0.042024282,-0.299495258,0.205031605,-0.061928788,-0.084396907,0.047322196,-0.174842786,-0.046754514,-0.157963707,0.165514476,0.188458568,-0.098946458,-0.004267557,0.002172092,-0.113578069,0.003144251,-0.225919297,0.063729819,-0.024052295,-0.181390487,0.144239265,-0.119596020,0.110059010,-0.027820095,-0.082071304,0.087195685,0.109631531,0.190752315,-0.148403554,0.235959521,0.014491074,-0.054301479,-0.022375599,-0.294939140,0.179858553,0.247911019,0.218770788,-0.026280743,0.185802427,0.040705343,0.246775517,
0.210766734,-0.141588103,0.160656197,0.158773353,-0.093712021,0.148449631,-0.019573007,0.117348282,0.090145419,0.091262895,-0.087014831,0.166066006,-0.080303483,-0.146744310,-0.092993849,-0.158211695,-0.040255425,-0.094828755,-0.072730289,0.032743040,-0.166845538,-0.048751539,0.271709745,0.414517557,0.005886952,0.030320211,0.217984973,-0.156705810,-0.118047756,-0.251769226,0.038967155,0.292352154,-0.025963881,0.136887052,0.108132921,0.064008216,0.074095554,-0.180854751,0.064574517,-0.089366430,-0.208706535,-0.146834544,0.068982702,0.070857638,-0.041882933,
-0.059718643,-0.002818897,0.064596836,-0.057687431,0.001358046,0.035620530,-0.128913306,-0.011251633,-0.205707709,-0.011538216,0.174561918,-0.083579211,0.055846799,0.135387845,-0.106798643,0.479746769,-0.197907820,-0.051874580,0.031355559,-0.136938769,-0.341193806,0.213804365,0.001674942,0.019064708,-0.089963886,-0.127428637,-0.041404454,0.065267038,0.183504493,0.210562391,-0.185290579,0.384965194,0.244571859,0.068619903,-0.097992583,0.016136394,0.129892770,0.321497097,-0.142748911,0.121666691,-0.324373214,0.086326330,-0.008764788,0.035725857,-0.070254909,
-0.206053802,0.062781424,0.059522907,-0.306602282,0.058644507,0.049475289,0.090549590,-0.067641562,0.145986288,0.110149890,-0.031559467,0.194035028,-0.397694778,-0.032899581,0.182746673,0.064075288,0.023024812,0.211448720,-0.162741661,0.035174921,-0.220870289,-0.109687007,0.126206576,0.125503669,0.151850057,-0.091425063,-0.149004361,-0.097619992,-0.048145479,0.051281119,0.304019784,-0.118951878,-0.062534283,-0.011103169,0.215398054,0.042257221,0.071891994,0.187012799,-0.336611573,-0.072714905,-0.237202334,0.274263439,-0.007055080,-0.070436557,-0.103185439,
0.059506115,-0.057240100,-0.185785109,0.169421745,0.055783586,-0.089052079,0.130001588,0.274101311,-0.004128875,-0.318462686,-0.058353844,-0.202270443,-0.244058727,-0.098702629,0.140318672,0.151375603,-0.013011394,-0.000783818,0.159733278,-0.072128112,-0.032575247,-0.068951347,-0.070612796,-0.033652164,-0.025276577,0.018048910,0.076430368,-0.280750551,0.036166559,0.076130032,0.046763233,0.046709955,0.176927064,-0.076286239,0.150498831,0.105369929,0.070141732,-0.044349274,-0.110984329,-0.033012671,-0.024961723,0.064897757,0.024489934,-0.074499864,0.111294048,
0.027223127,0.034712419,0.156901355,0.212587028,0.191810566,0.177776153,0.055314702,0.109035888,0.020210997,-0.007426514,0.088343032,-0.034468718,-0.062814281,-0.225814318,-0.057333640,-0.212793307,-0.037051727,-0.092573664,-0.062565431,-0.068059205,-0.020053275,-0.255389051,0.091966233,-0.065266795,0.005649646,0.211797053,-0.226507245,0.026402457,-0.210552622,-0.164865851,0.088217536,0.211982910,-0.231296517,0.057358724,-0.045337240,0.183980934,0.135437628,-0.029347218,-0.110369325,0.158874661,0.079849767,0.352531849,0.427826123,0.155135896,-0.178245192,
-0.084301182,0.027452189,0.116930955,-0.110199298,0.094486944,0.145752305,0.017248396,-0.235671545,-0.174824835,0.092648716,0.108062056,0.027267709,-0.109767220,0.075400613,-0.216167964,-0.083022772,-0.069492752,0.151396081,0.163010202,-0.058236039,0.042088022,0.194865591,-0.193503325,-0.176833090,0.044542578,-0.208588015,-0.040263646,0.129884493,-0.177811649,-0.121690713,-0.139727038,-0.021855877,0.188712143,0.181172956,-0.112105407,-0.009985056,-0.131586744,-0.038995138,0.162549163,-0.062157324,-0.121559218,0.205578315,0.006950101,-0.301719673,0.216563671,
0.227993031,-0.125428987,-0.025191564,-0.241389525,0.136081769,0.154049077,0.097924806,-0.065691054,0.144128283,-0.137311846,0.104877269,0.309783712,0.285030968,0.121807394,-0.209821270,-0.124912198,0.248798963,0.307091926,-0.129254701,0.029909860,-0.008599977,0.017969978,0.033033303,-0.037510600,-0.017734716,0.166733031,0.050761890,-0.282233892,-0.093981900,-0.108332315,0.066227854,-0.224850503,-0.061792783,0.134805108,-0.375755735,0.130691498,-0.201295185,-0.327184121,-0.145386241,0.066157812,0.074424428,0.142648839,-0.003204123,0.008351541,-0.106327310,
0.179358821,-0.177067236,0.197100736,0.095298282,0.073215611,0.101936056,-0.029228795,-0.194299540,0.101460956,-0.054205456,-0.134716480,-0.048368684,-0.061727228,0.017584643,0.186838699,0.030216502,-0.158854952,-0.005164369,-0.093363877,0.127307677,0.093789048,-0.036560550,0.143097345,-0.180313607,-0.089086264,0.340019157,0.150415307,-0.199988956,-0.145459786,0.118768286,0.162704284,0.212568948,-0.185707804,-0.033636029,-0.230448831,-0.039388667,-0.062025291,0.006220346,-0.366671365,-0.141897264,0.116939897,-0.072897754,0.149238784,-0.085636496,0.014552260,
0.055101151,0.069168575,0.350395091,0.144892521,-0.262141298,0.005469219,0.207346183,-0.145884584,0.168753624,0.065625271,0.283083099,0.075909077,0.206317195,0.128262792,-0.204255175,0.285691635,0.192742479,0.224168452,0.153247445,0.189196210,-0.229667650,0.197565760,0.112591228,0.114295318,0.129391868,0.165547289,0.025110553,-0.076282287,-0.112294824,0.028752677,0.101998324,-0.016805114,0.097959666,0.027708166,-0.201079305,0.005053219,-0.081918289,-0.052980680,-0.257682840,-0.068073297,0.071710198,0.281592622,-0.048131606,-0.116060060,0.118886434,
-0.179947737,-0.155791732,0.202172743,-0.241759507,0.110623453,-0.204004728,0.328562649,0.068926893,0.137056337,-0.228412696,-0.151962642,0.170829609,-0.140744334,0.187861476,0.182716961,-0.220667958,-0.074516060,-0.070092089,0.112409053,0.124163733,-0.034921718,0.005146150,-0.080318817,0.200428588,0.082381681,-0.106511743,-0.195656681,0.058396298,-0.068721544,-0.019088386,0.165302134,-0.052215077,0.046596829,-0.205630569,-0.189337356,-0.121605640,0.127102230,0.218374199,0.161673654,-0.155895526,0.028279881,0.051725490,0.017354856,-0.052148975,0.129951216,
0.299049711,-0.067552234,0.120848094,0.085761837,-0.158569956,0.157879576,0.104071213,-0.258339106,-0.200862106,0.101587590,0.138963663,0.146350661,0.050273204,0.017835879,0.076912172,0.080302498,0.118677835,-0.197103414,0.078785110,-0.006893546,0.546877883,0.152666205,-0.073122697,0.091699764,0.182304525,0.064229683,-0.025615940,0.181351688,0.317747923,-0.148430952,-0.038447185,0.009955489,-0.205314561,0.008335161,-0.204898010,0.425802122,-0.044992343,0.407868696,-0.178026340,-0.137957308,-0.012072729,0.051672293,-0.024400171,0.018013798,-0.187664492,
-0.105552830,0.224941587,-0.088045699,-0.182360713,-0.254903142,-0.223359310,0.046362602,-0.223310719,-0.026679758,0.118648493,0.116223186,0.191633508,-0.167932439,0.055524791,0.026455735,0.289398581,0.148351470,-0.307845813,-0.118375161,-0.105621037,-0.134866910,-0.061103568,-0.141305909,0.175254428,0.122055658,-0.097105805,0.281027747,-0.169203017,0.285073878,0.214881752,0.072943846,-0.026903997,0.032891723,0.195248934,0.125931249,0.184918847,0.100839058,-0.063153759,0.214840570,0.133642930,0.028102077,0.203750994,0.281895866,0.085643320,0.249464556,
0.140215994,0.052746336,-0.110712229,0.143069388,-0.047518909,-0.115322997,0.266749999,-0.420463009,0.013904774,0.132268323,-0.086433450,-0.001656946,0.121135519,-0.015500147,0.088181331,-0.145153134,0.041192279,0.161410445,0.037630732,-0.096012072,-0.077781340,0.106734978,0.023167267,0.047320444,0.221022540,-0.018075305,0.084165423,0.171956740,-0.172279971,0.218323904,0.030234787,0.108133974,0.030728867,0.104719076,0.257781665,0.128234469,-0.063285542,-0.336022176,0.017289655,-0.351820816,0.271850170,-0.125048269,0.028665835,0.054761226,0.132781392,
-0.183741438,0.099894170,0.079513033,0.097297111,-0.048685803,-0.018625141,-0.091753303,0.063775227,-0.260961276,-0.056568819,-0.283193790,-0.132667740,-0.013846866,0.243215727,0.126564429,-0.036862836,0.050104383,-0.020718268,0.042231035,0.080398239,0.036817448,-0.025924879,0.268587717,0.029867297,-0.158448389,0.102746394,0.125750880,0.040139083,-0.138897413,-0.282260460,0.100891403,-0.167011406,-0.001334597,0.052642240,0.029407741,0.011572558,-0.051707969,0.117629881,-0.260191409,0.035299899,-0.022667578,0.062906320,-0.062363305,0.116249821,0.065102012,
-0.087584030,
-0.023494267,
0.072867530,
0.195968774,
-0.096565057,
0.101808104,
0.003798947,
0.289113242,
0.123717697,
0.347548171,
-0.186456138,
0.111282741,
0.270876768,
0.179422649,
0.128633873,
-0.071629678,
0.046901933,
-0.171481001,
0.225347700,
-0.128278453,
-0.153229737,
0.176463983,
0.002659474,
-0.348424462,
-0.042434561,
0.183923903,
-0.262292444,
-0.299378133,
-0.108438223,
-0.254550231,
-0.047682937,
-0.042487501,
0.085381667,
0.116619497,
0.109277734,
0.004906278,
0.014976768,
0.283279989,
-0.062129879,
0.028149929,
0.118548423,
0.133856983,
0.100270714,
0.116447481,
-0.008930619,
-0.089872316,-0.278207804,0.094322518,0.073634930,0.039756247,-0.001535328,-0.093884897,0.002403844,-0.005526939,-0.143568421,-0.314162470,0.044607102,-0.117016159,-0.109821274,0.219340232,0.068251633,0.012216695,-0.128880927,0.088678906,-0.060389965,0.031297644,-0.033507957,0.060257828,0.005534510,-0.021835735,0.077320428,-0.145679981,-0.302650306,0.312899380,-0.091495153,0.063084244,0.133296425,-0.175222449,0.143226313,-0.315142274,-0.022971512,-0.056867827,-0.045743674,0.157665427,0.288840210,-0.309604108,-0.112872223,0.128916277,0.228200079,-0.013367197,
-0.125817346,0.008097809,0.039258705,-0.020104224,-0.232699817,0.191005270,0.020348563,0.022565016,0.003030290,0.234990126,-0.256224982,-0.203776797,-0.324750900,0.181764426,-0.162929872,0.071608877,0.050028879,0.166668228,-0.153201369,-0.083785281,-0.254620890,-0.002655575,-0.029909103,0.040072802,0.133046807,0.379329498,-0.115489476,0.087758595,-0.092918706,0.089105787,-0.155817065,0.075746386,-0.097258726,-0.100514727,-0.062789728,-0.090387036,-0.061750340,0.001317565,0.182009965,0.031950949,-0.038742125,-0.065284529,0.130483857,0.101686852,0.055599333,
-0.205353837,-0.076634654,-0.108791139,-0.111147953,-0.146716834,0.098022504,-0.144225846,-0.144422015,-0.044164207,-0.317540351,0.261296257,0.087189533,-0.229608788,-0.017578088,0.050567710,-0.011132502,-0.058193231,-0.032671574,0.119702273,-0.253424097,-0.053344703,0.125341219,-0.101681145,0.181204265,0.051185611,0.102650793,-0.020483812,-0.145421839,-0.070240350,0.048053942,-0.095648188,-0.152868814,0.118381791,0.050241870,0.077928516,-0.126734093,-0.175367272,-0.001997253,-0.029470853,-0.067554726,0.008049888,0.221174228,0.073294963,0.177172642,0.177433231,
0.113443765,-0.021673800,0.006802069,-0.066642022,0.368200616,-0.064903119,0.306984574,-0.090060128,0.104555368,0.149569952,-0.115639355,-0.141987081,-0.011043025,0.167625127,-0.094188631,-0.120036007,0.086577325,0.070175392,0.110593256,0.167235080,0.348612275,0.192836468,-0.147052295,-0.063127518,0.014366519,0.030386942,-0.091754760,-0.067824438,-0.099336925,-0.026433923,-0.431292344,0.068643336,0.048412763,-0.154748198,-0.093512639,-0.243992302,-0.003241577,-0.025209586,0.113863955,-0.253354285,0.147296096,0.016832827,-0.106718788,0.342188409,0.299810258,
-0.224859336,-0.234043240,0.059914153,-0.015936942,-0.128080211,-0.155413950,0.072865887,-0.006344491,0.033508928,-0.079227317,0.066064285,-0.413065211,0.171085546,-0.152157076,0.050088430,-0.337881338,0.173776308,0.040284280,-0.046223745,-0.140089201,0.017451635,0.185328330,0.171292367,-0.029880879,0.259613465,0.064369993,-0.022509243,-0.122540728,0.055653277,-0.039439324,0.149810233,-0.277726890,-0.111249680,0.035589424,0.173518715,0.245351880,-0.156161125,0.003753827,-0.061306500,0.014271409,-0.061488596,-0.179183564,0.312878467,-0.115795855,0.118164665,
0.054977319,0.057881044,0.068784018,-0.110449904,0.066983619,0.071278535,-0.262031388,0.176920942,0.122013209,0.196652097,-0.049107734,-0.013600970,0.042988152,0.047891648,-0.077713820,-0.018091795,0.292288307,-0.081296292,-0.112118989,0.030303366,-0.022187623,-0.022024529,-0.159428573,-0.047814902,0.014220077,-0.094950682,-0.178149499,0.168780442,0.136687340,-0.057538133,-0.030839473,-0.090827028,-0.193462341,-0.032502947,-0.118845061,-0.021266900,-0.185861802,0.169101463,0.059311921,-0.064407833,0.046048131,0.013285635,-0.093123891,-0.104160710,-0.147006980,
0.003823182,-0.236820366,0.021851233,-0.145594944,-0.050985095,-0.112113306,-0.074405192,0.006052680,0.101004933,-0.016090172,0.004798132,0.139094849,-0.033193627,0.051573212,-0.224943936,0.013636095,0.052322972,0.049186803,-0.086919471,0.097130238,0.287818833,-0.080263279,0.013425313,-0.026054746,-0.107815897,-0.146488722,0.179052742,0.143365343,0.099854731,-0.026095205,-0.188243786,-0.156324677,0.164010881,-0.180262336,0.234144340,-0.121333968,0.046529961,0.077668880,0.195745216,0.052374077,0.215289340,-0.108659816,0.267569019,0.054230045,0.132855453,
0.163234049,0.069757654,-0.155014975,-0.197454561,0.231322723,0.092573234,0.113289689,-0.188664674,0.204129925,-0.050788830,-0.105568913,0.094428985,0.052989349,0.048358401,0.016719229,-0.144806206,0.051798477,0.109631936,-0.287692759,0.066503285,0.130686497,0.086952260,-0.294276088,-0.042533411,0.227672199,-0.054371354,0.014430370,0.016319993,0.028207441,-0.212462748,-0.189613660,0.030216718,-0.212226658,-0.037173157,0.125047304,0.339111950,0.070532366,0.015857466,-0.109501647,-0.221816530,0.072042515,0.210109798,-0.021425107,0.106933111,0.045410903,
0.302207138,0.199682018,0.185449398,-0.023460591,-0.074055390,0.190159412,-0.147742688,-0.168398140,0.153275967,0.392880646,0.289701628,-0.174942501,-0.026583273,-0.143667208,-0.104714372,0.099603144,0.167648961,-0.154889353,-0.044699923,0.105125639,0.044500831,-0.087731030,-0.218796864,0.100632950,-0.083882937,0.101552050,-0.073698381,-0.163540883,-0.202383188,0.156750471,0.356992007,-0.138823075,-0.005634666,0.131237855,0.115979284,0.027670320,-0.064786833,-0.097364683,-0.016700723,-0.098746458,-0.185237243,0.071018996,-0.115428944,0.286996129,0.106544901,
0.003529878,0.180134427,-0.127522467,0.176330048,0.027192456,-0.079889098,0.152389024,0.059009306,0.000348740,-0.179849119,0.099345395,0.085758488,-0.064045782,0.129680568,-0.038991800,-0.067258723,-0.005119931,-0.135248977,-0.167812452,-0.119124004,-0.065862226,0.081189306,-0.260344213,-0.358073461,-0.135305309,-0.364864472,0.077240612,0.011332367,0.110382008,0.154794172,0.165603307,0.008797664,0.060795872,-0.174005021,-0.196999016,0.135816214,-0.116326764,-0.093499733,0.030928924,-0.094664132,-0.035416247,0.083379552,0.055927128,-0.232352458,0.183171531,
-0.146097843,-0.109311531,-0.236146981,0.018791090,-0.123668821,-0.252749514,0.295127708,0.025970675,0.041422491,-0.119615130,0.003549597,-0.208372714,0.190800295,0.086881819,-0.254096521,0.072198263,0.107217786,-0.083421883,-0.163160136,0.049440074,0.183569646,-0.207380541,-0.248408600,0.030028183,0.218776253,-0.167960202,-0.031633835,-0.061965030,-0.000951667,0.112212140,-0.210881837,0.255473114,0.391514587,0.134330984,0.112271498,-0.190338083,0.053320296,0.239137414,-0.058812317,0.028755339,-0.032303355,0.021947843,-0.079990937,0.010216428,-0.194002904,
0.045013025,-0.180742077,-0.096542007,-0.178519238,-0.320349288,0.024124253,0.003065989,-0.131001417,-0.036574096,-0.146408394,-0.016379678,0.241815007,-0.006082028,-0.031182682,0.061377302,0.268729200,-0.028003498,-0.206159845,-0.014471607,0.234257909,-0.068744355,0.204649017,0.147046786,-0.024916494,-0.339001814,0.246076577,-0.213993745,0.022198842,-0.107778930,0.033017465,-0.021525345,0.093118496,0.026130922,-0.038928632,-0.052036453,0.002948889,0.009960087,-0.290137888,0.256474536,0.014443280,-0.216446897,0.067568651,-0.012517561,-0.252627599,-0.284661450,
0.051721883,-0.018830254,-0.174026118,0.262585458,0.124056751,-0.224101817,-0.113779081,0.047229858,-0.032860279,0.000248283,-0.087413173,0.336726973,-0.131599639,0.137989035,0.027225357,-0.071557474,-0.125906499,-0.135128528,-0.033393513,0.025664403,0.107156663,-0.044197775,-0.028817069,0.051233975,0.084250615,-0.153312851,0.056952501,0.124956213,-0.012035004,-0.058638580,0.093145077,-0.263594418,-0.084907025,-0.020996146,0.218522743,-0.480168108,0.089747742,-0.016595594,-0.157748116,0.067136022,0.163533918,0.039622187,0.083933118,-0.130070744,-0.059033895,
0.204182261,-0.086467761,0.145867557,0.022066617,0.043417243,-0.216844445,-0.247403978,0.204034690,0.231539101,0.019332782,0.118804220,-0.055774785,0.093576586,0.115363570,0.025678398,-0.071884718,0.131345659,0.039692248,-0.091227031,0.187053818,0.227045167,-0.157415696,-0.184384353,0.084460871,-0.256586662,0.143680610,0.048116871,-0.035926796,-0.133863576,-0.076647221,-0.104649306,0.214127164,0.221196430,-0.096678751,0.254503809,0.124227614,-0.066758748,-0.329449723,0.123310743,0.237922939,0.002529428,0.052461610,0.025168043,-0.172316196,-0.032956855,
0.203903118,-0.173350087,0.077184989,-0.105264382,-0.121906819,-0.237074379,-0.061593269,-0.064221483,0.096346701,0.041776644,0.008342251,-0.021313135,-0.098773452,0.048487443,-0.255327110,0.060354907,0.094925854,-0.024157499,0.011497140,-0.327664582,0.163653306,-0.024681217,0.095816205,-0.031111184,0.028517274,0.060461423,0.090405384,-0.047006319,0.108475412,-0.196863794,-0.408509477,-0.048199567,0.011231831,-0.075403145,-0.129711611,-0.046867953,-0.010775555,-0.055280488,0.114211113,-0.103043432,0.145141154,-0.164699205,0.135340517,0.039169768,-0.024865717,
0.171980666,-0.244034744,0.103383690,-0.010932114,0.218752166,0.181568561,-0.391329840,-0.075537965,-0.054206069,-0.217391975,0.130709701,0.106350898,-0.140255990,0.051496142,-0.082322778,0.291342111,-0.094481574,-0.136629852,-0.097742890,0.202130360,-0.177811466,-0.018875687,-0.078622426,-0.027901491,-0.271074927,-0.282542047,0.170814014,0.097122515,-0.015563019,0.225681239,0.052276576,-0.219250951,0.186997611,-0.040248321,-0.173873902,-0.010936709,-0.208444293,-0.137806357,-0.028868230,-0.105175843,0.075636662,-0.043973155,0.212168684,-0.083218355,-0.200865814,
0.145303597,0.306610044,-0.030919553,-0.063279535,0.065824450,-0.005865672,-0.066917057,0.006351503,0.269253877,0.202916348,-0.094810776,-0.056746935,-0.057907438,-0.096423256,0.378034294,0.060060260,0.123689369,0.098291448,0.393099034,-0.083060430,0.069894261,-0.057783908,0.118563175,-0.038598507,0.023642261,0.027558397,0.016265287,0.097651085,-0.065232482,0.108705810,0.144275880,0.078260575,-0.067066711,-0.180634484,-0.049128526,0.145248542,-0.039928036,0.169900244,0.301762977,0.096193247,0.114617884,-0.007033041,0.012643822,0.225141196,0.141860913,
0.175379955,0.126516810,0.122914742,-0.148020494,0.059729678,-0.238474924,0.002261491,-0.064312054,-0.179675388,-0.041296074,-0.071302897,-0.044848115,0.057615276,0.218734905,-0.185676238,0.044121911,0.114962653,0.191540346,0.185522565,0.044176192,-0.131288789,0.042065258,0.134695827,0.067106185,0.085744028,-0.052663855,0.133425386,0.232243906,0.096339673,0.221988076,-0.210485876,0.042470145,0.267158818,0.112389007,0.376819197,0.220033513,-0.117228057,0.135508240,-0.108427819,-0.025838668,-0.058274804,0.089790816,-0.027065938,0.134420796,0.107271882,
0.017236488,-0.050079995,0.128352869,0.168954394,-0.179562601,0.209562887,0.025216605,-0.126878144,-0.077566260,0.141786639,-0.105265605,0.109862232,0.051123792,-0.007071509,-0.280221608,0.220327415,0.054318506,-0.007170715,-0.137326111,-0.138741430,-0.061811130,-0.127859034,0.033849004,0.030895139,-0.061961314,0.101291080,0.275615242,-0.172390106,0.520286259,0.182375850,-0.051725812,0.024185200,0.058084703,0.139241134,0.006216058,0.057073952,0.049696151,-0.036208958,0.172864434,-0.048041125,-0.205183129,0.328627664,-0.038920480,0.108912147,0.012158315,
-0.059778948,0.065405816,-0.129893997,-0.109134917,0.041057540,-0.043171340,0.167955961,0.109719786,0.012339154,-0.046762675,0.149108075,-0.222332495,0.011008680,0.070688225,0.048919751,0.039681849,0.056410207,-0.185907028,-0.106984896,-0.095333150,0.406503265,0.119326602,-0.158920571,-0.304811965,0.063922121,-0.084198081,0.064605582,-0.163416217,-0.023591416,0.106766555,0.006668988,-0.079397517,-0.269211307,-0.120601398,0.113134729,-0.029704177,-0.337842733,-0.095597071,-0.193497459,-0.188522050,0.209289105,0.124212812,-0.183073672,0.071945174,0.252602303,
0.037652968,-0.009340729,0.324366287,0.106758382,-0.083096620,0.063744783,-0.025004849,0.055975231,0.211176494,-0.021712107,-0.068710396,0.141835933,-0.042140609,-0.006323409,-0.178429056,-0.034065654,0.226181563,0.025577968,0.327314956,0.140832664,-0.327682152,0.266411390,-0.111110274,0.148333172,-0.231485265,-0.404601897,-0.047811402,0.088403278,-0.066351406,0.053011790,-0.132922518,0.136506191,-0.160529642,-0.026251452,-0.098259733,-0.011770673,-0.026121793,0.187480773,-0.156714087,-0.166137556,-0.127397562,0.257190862,0.376018235,-0.059320070,0.058529939,
-0.180841252,0.129173178,-0.170711112,-0.218648693,0.036014937,-0.125946669,-0.011409031,-0.113852161,-0.153753834,0.082641118,0.018702551,-0.088400286,-0.051018507,-0.223405311,0.037815307,-0.205563937,0.165439159,0.164722373,0.170910498,0.174231455,0.048213527,0.231804297,-0.099228080,0.199686501,0.168330194,-0.107860941,0.014002174,-0.078808177,-0.158802839,-0.025313788,0.050824835,0.387353573,0.006234120,-0.017190927,-0.152553510,-0.096826694,0.273880779,-0.088250274,-0.228583844,0.055512589,-0.053538227,-0.035135766,0.148401768,0.013012148,-0.203453891,
0.337528580,-0.275093666,0.019938950,-0.016673348,0.141532426,-0.083479659,-0.050416802,0.286399839,-0.068265676,0.227057221,0.095175915,0.014639961,-0.297419712,0.012176295,-0.200642309,-0.241513663,0.170908630,-0.096122045,0.122551631,0.047603223,-0.312402839,0.100076364,-0.051020355,-0.033007287,-0.123041963,0.046070181,0.004517152,0.022774438,-0.038761577,0.209681121,0.083779308,-0.042512890,0.080981447,0.157697965,-0.010180354,0.114843276,-0.445294086,-0.084803454,0.047890915,0.191862754,0.055341554,0.076923216,-0.014571920,-0.108471751,-0.085370683,
-0.266545288,-0.171756177,0.034940019,0.077047607,0.013975763,0.372180482,0.154535049,0.407399800,0.013557640,-0.114245747,0.148688517,-0.166082414,-0.014187674,0.199278880,-0.049716457,-0.076175232,0.009311422,-0.052016255,-0.198668799,0.158153725,-0.059827965,0.036693966,0.099166237,-0.142045426,0.197528973,-0.199428892,0.062171345,0.049381161,0.325819898,0.059837113,0.024450052,0.094390360,-0.116654955,-0.129630809,-0.085159164,0.175114695,0.189526775,0.007417288,-0.053645326,0.064586161,-0.178660032,-0.090416127,0.053742034,0.133528861,0.254701370,
-0.222643874,-0.059845528,0.093750818,-0.006010176,0.214211991,0.064666088,0.064504474,-0.069307645,-0.041332974,-0.023894946,-0.111060603,-0.003755202,-0.241334778,0.189320713,-0.048663758,-0.251918805,-0.102773762,0.096185285,-0.168550112,0.140025399,-0.053055524,0.093527932,0.116664147,0.098283897,0.095026960,0.001883007,0.143547159,0.104105405,0.082210881,0.093502567,-0.456158170,-0.014135158,0.288262165,0.076984888,-0.208090337,0.193163256,-0.229781961,-0.038512132,-0.017963228,0.240199866,-0.035093572,0.225713385,0.384662001,-0.383277922,-0.178225983,
-0.146915196,0.262317576,-0.064892210,-0.057746232,-0.116586405,0.037179555,0.104894741,0.053933783,0.063542084,-0.026652474,-0.249976176,-0.182878553,0.098059463,0.106975250,0.231647749,0.059267169,0.005108318,-0.266717488,0.085537979,-0.022236298,-0.034661581,0.050910501,-0.018266687,0.114769412,0.119073234,-0.071256236,0.227517353,0.044978538,-0.000449509,0.097490437,0.010298345,-0.147753175,-0.041919502,0.069585675,0.051796438,0.213797566,0.141255324,-0.015199037,-0.276168028,-0.078946592,0.083510040,0.128231495,0.009166311,0.064919996,0.092365351,
0.273810052,0.188922352,-0.062510987,-0.090832362,0.200888528,-0.145569092,0.020410718,0.066429432,0.057920196,-0.249566029,-0.073770161,-0.198524021,-0.039196391,-0.044506371,0.083669626,0.072137286,0.202738622,-0.002925073,-0.042570262,0.022866523,0.186914014,0.049635748,0.083792255,-0.068834087,-0.053180735,0.152155977,0.227012279,0.028726981,0.299841686,0.202375665,-0.087565226,-0.147997906,0.227319500,-0.042021500,0.016891103,0.270456641,0.062036756,0.056675568,-0.104930386,-0.227947168,-0.054044911,0.159847794,0.124568672,0.218545164,0.046301186,
0.209749385,0.104771850,-0.077196653,-0.148981067,0.374756936,0.011157180,0.073177937,-0.241687665,0.274261405,-0.023291225,-0.159590782,0.172568568,0.149741522,0.147660391,0.134039807,-0.051755245,-0.140224877,-0.109860579,-0.075684802,-0.091426451,0.077061044,0.059522750,-0.018545742,-0.054102925,0.144274670,0.012149822,0.197185230,0.139428609,0.001424723,0.047303139,-0.117591735,0.091497184,-0.138548123,0.086583591,0.063446138,0.083252759,0.315956052,0.167557147,-0.115071482,-0.000157490,-0.090629001,-0.172316771,-0.065278884,0.305909532,0.013623498,
0.091030031,-0.147977253,0.012359244,-0.083212077,-0.059281439,-0.123579931,-0.000183570,-0.040324242,0.093279708,-0.050181514,-0.170388109,-0.162080279,0.122376266,0.075951762,-0.049837133,-0.024789094,-0.048651671,-0.101203980,0.025010725,-0.052504979,0.027915598,0.117107588,0.030115289,0.380300258,0.174906000,0.110140184,-0.020910381,0.153785407,0.125940806,0.001254066,-0.188441602,0.108280640,0.023997550,-0.022257804,0.156412678,-0.054277419,-0.196228364,-0.000612488,-0.036102826,0.075455981,-0.318443206,0.044955842,-0.188015110,-0.182159692,0.002100320,
0.267030829,-0.250583858,-0.198090484,-0.313196176,0.221729937,-0.308170778,0.035428259,-0.083041798,0.083440016,-0.153657753,0.214219030,0.208243850,-0.036744892,0.238022795,0.214121944,0.161789788,0.034530765,0.008688640,0.104242407,-0.008723105,-0.228767242,-0.211555403,-0.106645572,-0.154687159,-0.178468582,0.289733576,-0.127382891,-0.250624342,-0.212698014,0.039149675,-0.076132956,0.164614435,0.009730218,0.051213332,0.284794719,-0.087774090,-0.079102494,-0.115379990,-0.057263299,-0.139718239,-0.178941853,-0.033611771,0.174252839,-0.124673260,0.075906110,
-0.052718291,0.150702155,-0.200710800,-0.161636297,-0.099244883,0.048100862,0.134879440,-0.069022647,-0.082820541,-0.491548152,-0.027755109,0.076615775,-0.088057742,0.000855411,0.140643542,0.186154808,0.080468574,0.138350586,-0.102191662,-0.042573515,-0.164028435,-0.049712014,-0.109387220,0.082490839,-0.265397177,0.131577347,-0.105163914,0.024441536,0.039934945,-0.212848725,-0.005027167,-0.171436738,-0.186048759,0.084788053,-0.342157887,-0.321326009,-0.198298983,-0.134524599,-0.015899926,-0.132054167,0.013546572,0.074723055,0.042126002,0.041231666,-0.216810510,
0.141480576,-0.101578343,0.155768343,-0.139726731,0.175769022,-0.285717001,0.084866078,0.125257462,-0.026637013,0.022718276,-0.065403684,0.246761558,0.040423038,-0.013385382,0.330712042,-0.187010392,0.303512112,0.011238427,-0.046247847,-0.205060365,0.235749156,0.053848550,-0.037939186,0.278910008,-0.106307623,0.027426205,0.188827101,0.106164847,-0.002457180,0.038220199,0.013142134,-0.083766501,0.219381299,0.246973513,0.277160228,0.151774714,0.095923372,-0.055713087,-0.044687518,0.330582376,-0.059681411,0.086570218,-0.048892226,-0.082363351,-0.056597445,
0.078903673,-0.085152624,0.115034627,-0.072558271,-0.112758534,-0.148894292,-0.075767906,0.166638301,0.016680809,-0.007926539,-0.273867120,0.087946972,-0.062957339,-0.248019291,-0.013008531,0.119494229,0.156145847,-0.261513002,0.017275256,-0.140518827,-0.137124426,0.152062039,0.269711681,0.343745011,-0.219857449,-0.094076339,0.102726417,-0.105738009,-0.232347271,0.014916029,0.091958785,-0.230879876,0.206140685,-0.076370557,-0.105838330,-0.055575797,-0.050910071,0.368685634,-0.026572208,-0.060075727,-0.027476458,0.007091011,-0.290321549,0.132477159,-0.095142996,
0.046037127,-0.084743400,0.215350844,0.278362252,-0.075561647,-0.148880830,0.381064273,-0.149612371,0.301670564,-0.175530690,0.079005288,-0.199282017,-0.078186678,0.059204762,-0.200437310,0.092102519,-0.066092722,0.143236208,0.257065800,0.025263742,0.123863886,-0.038595688,0.049075949,0.378394459,-0.088243562,0.001341307,0.176038390,0.003209853,-0.119769710,-0.010086334,0.430397756,-0.117708312,0.118874605,0.149828763,-0.046506623,0.103424891,0.237468768,-0.095803511,-0.032550880,0.058694351,0.142958189,-0.213091738,0.372201142,-0.013735550,0.130716005,
0.012511083,0.049217398,-0.119757458,-0.205701667,0.225859225,0.048844453,0.015047306,0.131361724,-0.131451200,-0.057567547,-0.141146726,0.088556364,0.254516723,-0.138713865,0.215084194,-0.175369696,-0.012922590,0.139435495,0.182112374,0.048205059,0.058438977,0.041741090,0.163252699,-0.010766482,-0.036966157,0.048569833,-0.098450435,0.178861608,0.169473870,0.211929393,0.091036626,-0.010371302,0.169303999,-0.100012602,-0.364716314,-0.062766969,-0.194595744,0.192129202,-0.015983627,-0.055120974,0.309023537,0.046912241,-0.041416213,0.028233706,0.042240714,
-0.056245857,0.162556462,-0.099096672,-0.229875392,0.092472629,0.302727664,-0.064443349,-0.130609899,0.155464727,-0.044193581,0.185752445,-0.061478441,-0.047044585,0.185098373,0.005683063,0.204717506,-0.033537908,-0.039031403,-0.181804022,-0.069692942,0.068892434,-0.000223169,-0.094551029,0.019048755,0.008650882,0.053107216,-0.114914722,-0.138172564,-0.142170425,0.273041684,-0.125616869,-0.023939793,-0.287251572,-0.186555614,0.093235857,0.084237395,0.080792730,0.160443668,0.130083310,0.029053610,0.081004070,0.062453569,-0.021466329,0.103180138,0.200908968,
0.083685910,-0.150382461,-0.107529031,-0.048225516,0.101814557,-0.003904154,0.215744485,-0.282111410,-0.096619612,-0.076855214,0.075144318,-0.226348868,-0.074407412,0.142548113,0.163347836,-0.092776735,0.138912820,-0.068314011,-0.092358093,-0.047610649,-0.106448412,0.132059346,-0.088407474,0.033102185,-0.129426721,-0.123614285,0.206764328,-0.011129172,-0.121278880,-0.209290798,-0.087259390,-0.110952100,-0.242915623,0.028977325,-0.083444325,-0.355453310,0.098309705,0.146342201,-0.185796599,0.038425366,-0.098699100,-0.018082841,0.058275501,-0.196632829,-0.213723362,
0.000269269,-0.068847510,0.124693166,-0.169506652,-0.207631522,-0.186370811,-0.054283114,-0.055105700,-0.032286846,-0.053851771,-0.026416076,0.147301905,0.051878076,-0.013447465,-0.243080616,-0.007381848,-0.080414023,0.007605104,-0.128461759,-0.024036338,-0.035207847,-0.093542565,-0.145599747,0.011687290,-0.285926986,0.241931745,0.116908685,0.040974403,0.257010899,-0.123004226,0.167160934,0.197469647,0.012652074,-0.022079081,0.162352912,0.177396663,-0.153054947,0.114106056,0.113119426,-0.139325977,0.064134630,-0.053691695,-0.226758295,0.188978496,-0.042134932,
-0.061903876,0.024503048,0.074636389,0.342991968,-0.206475962,0.046426623,-0.183085716,-0.143522029,-0.138015181,-0.066628348,0.059058055,0.120033472,0.132613289,0.074562954,-0.145652888,-0.096769139,-0.068633070,-0.141779786,-0.239363628,0.267613661,0.278214563,-0.009091722,0.066930191,-0.015750103,-0.001824419,0.085878373,-0.226103381,0.081086440,-0.215956884,-0.092161829,-0.001168116,-0.185188301,-0.307012987,0.041451730,0.070022027,-0.044062479,0.137110151,0.142285322,-0.226652461,-0.132988278,-0.124279917,-0.086312064,-0.315360731,0.220166757,0.049449266,
-0.138312702,-0.131619783,-0.062261983,-0.044544079,-0.130125954,0.091788082,-0.163389542,-0.330661428,0.022914248,0.089517497,0.181836751,0.182854590,-0.051008591,-0.070619378,-0.097138453,-0.118490505,-0.067482947,0.221143581,0.141963642,-0.044643298,-0.192883662,-0.055485742,0.238053779,0.094585461,-0.179244711,0.253256219,-0.032228477,0.014153543,0.322932263,0.027937049,-0.131854185,-0.244559496,0.085351598,0.288503516,0.130257648,0.155017187,0.014666483,-0.270727785,0.102482526,0.074163155,-0.195288073,0.150384651,0.143486939,-0.193663873,-0.046139897,
-0.084909196,0.066509829,0.072816332,0.109766266,-0.028183062,0.234074727,-0.060198254,-0.222742127,0.111432083,0.065349987,0.130913841,0.036211972,-0.158446589,0.139390250,-0.198605057,-0.011479036,0.008105563,0.081046041,-0.155906798,0.118259807,-0.196131449,0.176969813,-0.152211444,0.217385623,-0.081715119,-0.045953628,-0.159007816,0.115874896,-0.049472338,0.118393031,-0.060837780,0.172168971,-0.118225385,-0.010668667,-0.024418422,0.076477010,-0.012448915,0.155193079,0.155484907,0.180171917,-0.162493060,-0.074047726,-0.281162471,-0.111373109,0.061715430,
0.121232413,-0.257035420,0.060611964,-0.013975009,-0.223174573,0.032599358,0.250403622,0.046902289,0.248778607,-0.117663037,0.212034608,0.106858512,-0.110459658,-0.350649432,0.187814320,-0.048378154,0.093092904,0.081582487,0.174688595,0.101587323,-0.041949347,-0.034441732,0.201044223,0.126526102,0.014650502,0.028179988,0.371943774,-0.110623801,-0.081486265,-0.044138967,0.052643104,-0.070998605,0.085737533,0.298224155,0.100373852,0.314688084,-0.171130512,0.233295125,-0.054007287,-0.020687865,0.117621696,0.170103401,0.138813498,0.056831137,-0.084953021,
0.227189558,0.073078336,-0.201824297,-0.069621192,0.119695676,-0.121243048,-0.026968017,0.342995225,0.042274814,-0.104442249,-0.053070212,0.206301342,0.164671607,0.022056073,0.154041299,0.047080851,-0.136731779,-0.046856086,0.206314900,-0.100320908,0.123293305,0.034857282,-0.230530319,-0.093819137,0.149326178,0.283374595,-0.130589205,-0.093237006,-0.378873280,0.075049097,-0.036391250,-0.273125889,0.039617840,0.124462492,-0.085675100,0.018463643,-0.095566575,0.086976896,-0.206159900,0.190546691,0.031850409,-0.166496271,-0.142834909,-0.045935616,-0.063371290,
0.003513587,0.114009716,0.028413668,-0.251080496,-0.093485517,0.313706312,0.239868865,-0.016172096,0.111441560,-0.002056142,-0.074691943,-0.255364427,-0.207965197,-0.326773324,0.202876722,0.028553006,0.041444067,-0.131984614,-0.077811446,-0.037944526,0.144609599,0.170959398,0.078996248,0.332183707,0.314434851,-0.283692288,0.271889405,0.179039044,-0.055308523,-0.150152877,-0.066353422,-0.013131590,0.043205543,-0.048037498,0.183985013,0.008970831,0.270498258,-0.071600499,-0.197962962,0.303100274,-0.080144492,-0.200104476,-0.197580149,-0.083176110,-0.165886345,
-0.109414399,0.122311877,0.029677878,0.023802972,0.122235499,-0.111622024,0.237056280,0.107340122,-0.104996637,0.008699947,-0.350852865,0.042485332,-0.309703969,-0.101428949,-0.227025189,0.166350922,-0.030369829,0.328692259,0.325308617,-0.137427874,-0.073440943,0.068117475,-0.226107286,-0.122248373,0.187366956,0.086860474,0.108198529,-0.150283387,-0.000457130,-0.260986119,0.047583906,-0.163251139,0.029113383,-0.114287089,0.267483523,-0.045919567,0.185349205,-0.001954637,0.158723124,-0.067750672,0.012433752,0.159891861,-0.203393310,-0.028264451,-0.062724576,
0.184688707,
-0.259061635,
0.374909545,
-0.105789538,
0.071102867,
-0.051202681,
-0.093652968,
-0.204901225,
0.068709724,
-0.244271055,
-0.190120017,
0.138235495,
-0.154924471,
-0.065508241,
0.097094150,
-0.068145804,
-0.136069051,
-0.042142403,
-0.154705330,
0.092485823,
-0.110690313,
-0.164360347,
0.187040108,
-0.173305779,
-0.065262661,
-0.249258220,
-0.398823870,
0.018833402,
0.089148629,
-0.035032156,
-0.056785223,
0.175417626,
-0.100804887,
0.082249397,
-0.148227472,
-0.054401755,
0.113965581,
0.047016228,
0.035095408,
0.044593802,
0.008484189,
-0.146306492,
-0.013736744,
-0.050049798,
0.243255797,
-0.059312289,-0.257608327,0.136333803,0.045310080,0.070509117,0.112557338,-0.104732481,0.095599702,0.014263029,0.081251708,0.145705905,-0.053639899,-0.273158777,0.052358912,-0.070296925,-0.064876241,-0.195119939,0.347060107,-0.205758291,-0.239385365,0.056475933,0.152568842,0.036495608,-0.044469470,0.174701250,0.151151892,0.170867578,-0.188383368,0.059287852,0.292096153,-0.067565886,0.034559017,0.110769147,-0.215824258,-0.064198139,0.226380659,0.204326064,0.031182242,-0.030420484,-0.040443003,0.113170133,-0.152668868,-0.324601808,0.230289483,-0.004379315,
-0.003739774,0.149873292,-0.080087155,-0.085426904,-0.210030268,0.077962815,-0.147128451,0.026634780,0.395353930,0.021501436,-0.155850951,0.047180260,0.067950856,-0.006333088,-0.061259997,-0.407824050,-0.042733870,0.160460136,0.029728282,-0.068273902,-0.045872444,-0.189716702,0.095909197,-0.077191447,-0.061238335,-0.282106480,-0.123362507,-0.052720049,-0.162502124,-0.164122830,0.040730615,-0.211001212,-0.155452900,-0.039803205,0.160075997,0.162151137,0.003728326,0.047000537,-0.351676278,0.153244483,-0.026015897,0.200205054,0.182400023,-0.143132622,-0.095979114,
-0.203307097,-0.069350466,-0.115814881,0.077740348,-0.074736666,-0.105748275,-0.190655368,0.307760452,0.020891973,-0.059546938,-0.152848878,0.037773206,0.052377179,0.095159009,-0.019150996,-0.331434960,0.324767455,-0.099053128,0.318683440,-0.022522317,-0.140865427,-0.015808215,0.004693914,-0.098027057,0.077890522,0.032925124,0.116747285,-0.075075927,-0.259913107,0.132374964,-0.113973823,0.186529737,-0.016712691,0.155279451,-0.072649643,0.066596353,0.260554291,-0.345403793,-0.000359937,0.238427622,-0.072655225,0.037808464,-0.110168791,0.052718873,0.001567498,
0.103174059,0.058696948,0.060772209,-0.130450189,0.296960482,-0.066544987,-0.110096619,-0.220367591,0.188781960,-0.031315428,-0.084674172,-0.100967202,0.004320623,0.060697710,-0.300160216,-0.124259822,-0.030839349,-0.075858772,-0.087642974,-0.170555582,0.069096657,0.193756323,0.075313201,-0.037470651,-0.393037537,-0.089962158,-0.028821383,0.068680816,0.102369426,-0.034627132,0.051025226,0.057862664,0.100619769,-0.190648513,-0.019088809,-0.017445039,0.064262726,-0.106523518,-0.113210704,-0.058288539,-0.286691348,-0.072628260,0.162602710,-0.082055631,-0.318257687,
0.057265190,0.130660190,-0.264076734,0.053593329,-0.136540865,-0.000672877,-0.138933949,0.185473403,-0.113852177,-0.060932098,0.063068116,0.073971690,0.046138102,0.035074634,-0.087044278,0.002911644,-0.009617623,0.094718164,0.051384761,0.160711391,-0.302072800,0.030623604,0.092740581,0.102987819,0.178464480,0.013888918,0.208387164,-0.069784220,-0.010109134,0.171458130,0.038191557,-0.069993738,0.231470003,0.236789026,0.133360245,0.106184495,-0.151629936,-0.037519382,-0.194257347,-0.343111532,-0.098684543,0.001704970,0.219688519,0.012415862,0.114196681,
0.236814293,-0.127446257,0.189221105,0.023982327,-0.144692786,0.074130330,-0.034021611,-0.120148099,0.231163657,0.170966231,-0.086359664,0.145069428,0.034613006,0.106988367,0.100799964,-0.068112103,0.146781688,0.145225906,0.035026485,-0.002310442,-0.155655680,-0.243530450,0.051740025,0.316591309,0.077517318,0.115988316,0.118823454,0.133448646,-0.142131056,-0.113949434,0.087769603,0.086292407,-0.273041390,-0.007647484,0.018834529,-0.006998148,-0.122991173,-0.035126999,0.030898482,0.304064444,0.157118038,0.182808531,0.098474248,-0.074409921,-0.047268739,
-0.224299096,-0.023255359,0.027909861,-0.101962835,0.039643705,0.184606827,-0.205549239,0.184070301,0.251830254,0.154444271,0.097740703,0.169521145,0.061805259,0.137753315,0.024478394,-0.018533123,0.151626425,0.130501085,0.234302232,-0.125315144,0.015806624,0.134393972,0.069935547,0.075203392,-0.182884906,-0.003579974,-0.155750375,-0.015282501,-0.000437819,0.024289485,-0.132157433,0.107375041,-0.093614912,-0.187401302,-0.347908682,0.136300995,-0.036464277,0.031813745,0.135643985,-0.249647461,-0.102221331,0.132495155,-0.063104946,-0.128262824,0.185666354,
0.154644985,0.270543073,-0.088677797,-0.106799774,0.516325066,0.139101100,-0.108078144,0.127170230,0.146672116,-0.017902672,0.069382849,-0.148805858,-0.192791768,0.227101121,-0.047124655,-0.199734291,-0.120154622,-0.026992395,0.031216254,-0.070732625,0.158772885,-0.178985198,0.401258824,0.131457412,0.210191740,0.198760322,-0.210226966,-0.098857005,-0.042879707,-0.293682563,0.205838684,-0.013258095,-0.220720741,0.315624969,0.103566876,0.020188959,-0.173637074,-0.236276581,-0.194504883,-0.094458666,-0.074853595,-0.281871818,0.351091961,-0.025686744,-0.138637918,
0.137644843,0.212259281,-0.146242549,0.050684440,0.120987088,0.162588403,0.012274481,0.223420469,0.006801907,-0.077050087,-0.081154436,-0.005604309,-0.183371594,-0.112949253,0.059584736,-0.206667584,0.178818257,0.046870521,-0.075470987,-0.275067576,0.031972365,0.061092406,0.146144093,0.012763836,0.116622636,0.053594216,0.019580097,-0.103452614,0.191818830,-0.174444637,0.094634017,-0.178768670,0.164805696,-0.146752096,-0.052532374,-0.193784064,-0.128427725,0.039056680,-0.114456059,0.174133176,0.033257222,0.067520772,0.078873913,0.117116785,0.167672274,
-0.121869663,-0.239282576,-0.032955427,-0.001839185,-0.100872684,-0.079009832,0.165912184,-0.000062918,0.203186706,0.256941518,0.010896985,0.095576352,-0.016473442,-0.039926875,0.066589485,0.152717398,0.294921525,0.109712146,0.087126571,-0.126983549,-0.282435814,-0.048240126,0.038721627,-0.128677774,0.141786265,0.172366305,-0.220841268,-0.162124560,-0.046270430,-0.373310843,-0.115685655,-0.031013322,-0.148790268,0.000260594,-0.187454311,0.252498460,-0.041588918,-0.087764119,-0.059693832,0.040018714,0.168295480,0.032859333,0.004742869,-0.144974545,-0.083391068,
0.182072289,-0.077214029,-0.254989845,0.046516636,-0.083809917,0.129164053,-0.105173043,-0.047095431,-0.217222114,0.006210891,0.194770692,0.128967415,-0.194007779,-0.064854285,0.133521558,0.009801225,-0.038754313,0.218742313,0.061040570,0.171910399,0.132720532,0.214426223,-0.134307775,-0.062172071,0.098542439,-0.130361632,0.417319255,0.254901848,0.083572601,0.062910545,0.084596225,0.072206721,0.151500973,0.214169672,-0.127758452,0.077038262,0.149286773,0.110048590,-0.083037819,0.043372973,0.205715714,0.166843382,-0.189484629,-0.211052207,-0.234589019,
0.065693954,0.161398653,-0.044606385,0.064617917,-0.229000209,0.244907172,-0.033838478,-0.046911081,0.174497306,0.130974095,0.145446439,-0.141405285,0.165819139,0.549141319,-0.148806545,0.196232467,-0.131678658,-0.124709063,0.031553588,-0.172113816,-0.101381102,0.106546557,-0.057379958,-0.075294513,-0.043964837,0.132586159,-0.017987044,0.361578816,0.392217539,-0.057907532,-0.005396286,0.159321541,0.062247870,0.064845038,0.156856661,-0.094910770,-0.092081808,0.102138904,-0.199236344,0.194507103,0.439177610,0.274526506,0.194409893,-0.110855186,0.107838203,
-0.080111023,0.051364133,0.150436564,-0.067263739,0.275646105,0.040517301,-0.086399581,-0.124618921,0.096937233,0.020366479,0.037129098,-0.158182510,0.151545305,0.200439977,-0.203003249,0.328953031,-0.114777370,-0.030538785,-0.069685212,0.170370845,0.074058714,-0.198614606,-0.037994961,-0.016789089,-0.168440984,-0.094877937,0.119961121,-0.002219188,0.187749155,-0.087521064,-0.355224867,0.184691961,0.015549314,0.105841042,-0.055980565,-0.102773889,0.295983075,0.271442094,0.005230921,0.221550025,0.209774894,-0.046959377,-0.023816553,-0.195317700,0.119453386,
-0.040403691,0.025328493,0.192662400,-0.043342572,0.072531759,-0.082827048,-0.112703267,0.210766128,-0.021451037,0.024351786,0.038786023,0.096005829,0.129917047,-0.254792163,0.082501529,-0.267395566,-0.065780142,0.092345923,-0.052235322,0.082881152,-0.022826001,0.140683558,0.010164720,0.028077189,0.073442376,-0.115242899,0.011330532,-0.093537847,0.026757509,0.020438918,-0.160820582,0.180801646,0.233505063,-0.331444876,-0.081616840,-0.288699179,0.153620306,0.105767421,-0.084646451,-0.117181355,-0.162059566,0.064821744,0.001944197,0.053629963,-0.208209744,
0.074258601,0.256672836,-0.130535788,-0.081591762,-0.270614659,-0.154905436,0.106642142,-0.035168438,0.010466038,0.000012481,-0.085639914,0.008019131,-0.061400157,0.130403961,0.052337226,0.016680687,-0.007664277,0.060394891,0.133442115,0.167362405,0.141347240,0.016269383,0.262250299,-0.186661805,-0.071945155,-0.112163031,-0.004086040,0.269434315,0.068922645,-0.162657607,0.071555939,-0.004155262,0.050088515,0.074904203,-0.158748988,-0.249891551,0.042936911,-0.071839543,0.066293851,-0.291631398,0.158747663,-0.114950410,0.129528401,-0.174014533,-0.196414184,
0.162822949,-0.273128704,0.166648923,0.022321518,-0.131704022,-0.081967220,-0.144229372,0.019477740,-0.132352906,-0.049668944,0.263419267,0.015340478,0.130782560,0.101323962,0.167592162,0.229390521,0.005443668,-0.117072609,-0.192359376,0.076987731,0.108163009,-0.051431381,0.016419521,-0.276571776,-0.236064467,0.161800193,0.050020054,0.109129585,0.304354645,-0.375441828,-0.014898416,-0.018904696,-0.104372824,-0.047876478,-0.244420384,-0.104654610,0.284129593,0.368599044,0.147534981,0.321918442,-0.215753635,-0.061414549,0.001838642,-0.171273462,-0.291180977,
-0.071144197,0.188004028,0.041683205,-0.084206694,0.110729456,-0.168018221,0.096067716,-0.163599650,0.256267621,0.130183503,-0.104769727,-0.147896259,0.072718010,-0.151462406,0.191377445,0.087275871,0.182492101,-0.430694579,-0.083863224,-0.033865748,-0.256100348,-0.015934221,0.041117634,0.034387009,-0.056900423,0.041146349,0.120693036,-0.177895539,-0.165411717,0.055376408,0.019728682,-0.010850311,0.021711572,0.119288351,0.044623462,-0.142718500,0.056808016,-0.001346461,0.062264079,-0.136557199,-0.081481427,0.058018638,-0.215673033,-0.198130729,0.124711443,
-0.110736161,0.215866236,-0.395469353,0.030266449,0.128483221,-0.103527560,0.000063622,-0.021732383,-0.025821152,-0.106955352,-0.030223348,-0.260663962,-0.275836366,-0.147902063,0.055078011,0.011471436,-0.180590648,0.215930612,-0.148907000,-0.148548905,-0.197150609,-0.215650954,-0.093148810,0.074589166,0.059504276,0.204224452,0.033468692,0.132162638,0.044860346,-0.035249271,-0.160539488,-0.111071909,-0.127919538,-0.353301283,0.141921469,0.286954105,-0.015591692,-0.009111051,-0.121699179,0.073547593,-0.067470239,0.050409873,0.162545787,0.008169412,0.165270617,
0.149582923,-0.039911054,-0.053523508,0.038900621,0.161130263,-0.039277075,-0.252724812,-0.040574753,-0.109899660,0.206844871,-0.153058719,-0.101342624,0.162912933,-0.111342601,-0.032237943,0.005655691,0.285632465,-0.088375575,-0.158175190,0.053282233,-0.165643644,-0.229834364,-0.076856478,0.001868269,0.082981882,0.046983216,0.186996612,0.136521941,-0.143686446,0.084805322,-0.128626180,-0.119331004,0.072276501,0.007964332,0.123981278,-0.160395712,0.132451548,-0.143489860,-0.004878750,0.012979443,0.034146162,0.063252586,-0.227931451,0.201445176,0.032877848,
-0.053982800,-0.308028731,0.139592226,-0.089649175,-0.046602223,-0.137218599,0.146646882,0.303578464,0.179125439,-0.012931369,0.146434458,-0.145572494,-0.176219149,0.093472210,-0.250748045,0.103014187,-0.010681031,0.166750861,-0.067592851,0.065942149,0.056106941,-0.321883961,0.181348370,-0.490146595,0.034799716,0.129125921,-0.308714431,-0.040207965,0.066397898,-0.086458011,-0.099103933,0.193390248,-0.085820610,-0.071244186,-0.003589114,-0.223416465,0.040808798,0.259801176,-0.022189478,-0.056669803,-0.023421335,-0.063443552,-0.034365816,0.302724754,0.132504728,
0.091404384,0.193771564,0.028982754,-0.093168200,-0.040856341,-0.107335343,-0.156338760,-0.101779899,-0.112273760,-0.037030099,0.064636892,-0.034977411,-0.101190630,-0.133596569,0.086092295,0.157611146,-0.034869100,-0.052222389,-0.126427942,-0.003107832,-0.005241219,0.336888631,-0.178385518,0.010768865,-0.035602688,-0.008761929,0.057470473,-0.161760399,0.126303001,-0.009130005,0.104416628,0.290337786,-0.089319718,0.173572357,-0.006968753,0.008395055,-0.186896907,-0.158642155,0.108893687,0.049675594,0.210329024,-0.008837305,0.065589760,-0.108547567,-0.007534415,
0.225627307,0.014658786,-0.403054637,-0.175015147,0.095241504,0.076671108,0.132993528,0.064422469,-0.025211936,0.322162528,-0.272452360,-0.001718310,0.232048474,0.088764863,0.016561176,0.077565485,-0.137803476,-0.112283877,-0.059361256,0.306678209,0.138743786,0.130144394,-0.094331118,-0.288194966,-0.067120614,-0.057847552,0.218533201,0.104205934,-0.245068581,0.057429208,0.378473218,0.068455255,-0.075472085,-0.057199082,-0.054089544,-0.143568952,0.237301537,-0.239788341,0.005662313,0.111119576,0.129548857,-0.174871238,0.051025961,-0.088998756,0.114421183,
-0.057701526,0.169151447,-0.152308788,0.128247826,-0.070586763,-0.018144784,0.159967766,-0.036067489,0.125060649,-0.054192792,0.166167511,-0.128745867,0.053942306,-0.264865904,0.014548188,0.169351808,-0.380878532,0.104642246,0.300049370,-0.011911623,-0.250295794,0.004112750,0.192449210,-0.388480133,0.006883534,-0.107944702,0.053697524,-0.032525890,0.247578515,0.138483701,0.108353385,0.128589718,-0.070182002,0.132437034,0.071205568,-0.153232600,0.020799798,0.218702434,0.413152258,0.061366754,-0.195776669,-0.395250648,-0.043342704,-0.119890624,0.048012529,
0.234313566,-0.327744228,-0.216354154,-0.315463899,0.000575792,0.048806105,-0.426579422,-0.109674627,-0.116813985,0.080256720,0.150983804,-0.262188759,-0.279724431,-0.013386162,0.338337036,0.247041353,-0.124892617,0.224048366,0.034982816,0.026775849,-0.408579402,0.050229092,-0.158450425,0.009376745,-0.190218084,-0.174410008,-0.122981219,0.021714908,-0.036303257,0.107513733,0.172362763,0.013733186,0.163534337,-0.038285121,-0.125641955,0.135063607,-0.134117168,-0.296392714,-0.248858613,0.431948817,0.221517994,-0.238364673,0.018255163,0.151506651,-0.214168655,
-0.057292097,-0.075280011,-0.087340038,-0.033489077,0.200175248,0.031914335,-0.301241920,0.399669766,0.059608709,0.117854896,-0.075480215,0.065006171,-0.083462317,-0.105282505,-0.008782643,0.166967749,0.102126974,0.134957037,-0.032870984,0.022413228,-0.155855072,0.020797204,-0.027542253,0.116716313,-0.246138075,0.041414910,0.066181344,-0.063373729,-0.207449593,0.260509770,0.055371885,-0.065817324,-0.080355126,-0.034770114,0.072192151,-0.052158404,-0.019415268,-0.048892059,-0.048616922,-0.127830775,-0.033542646,-0.056727817,0.079646950,0.318344928,-0.054782965,
-0.061750173,0.222136921,0.149290819,0.044182066,0.150313231,0.099889415,0.047098805,-0.171476328,-0.080399304,0.137472910,-0.029974006,0.107544381,-0.023422495,-0.103774697,0.160693389,-0.034040145,0.288369551,-0.001711697,0.029180204,0.187906825,0.145336644,-0.012169596,-0.233942400,-0.350951487,-0.241518689,-0.046148286,-0.027105083,0.084917164,-0.168953884,-0.028068280,-0.238008399,0.184864278,0.123563340,-0.310278446,-0.092283173,-0.166338489,-0.114358313,0.056726522,0.314710660,0.013983509,0.197225223,0.232434927,-0.025490381,-0.038241224,-0.187711566,
-0.116811881,0.144881851,-0.064439532,0.097854806,-0.064898064,0.003414222,-0.175380551,0.017283234,0.114346673,0.061868259,-0.003064005,-0.375785858,0.119530252,0.120341382,-0.076803303,-0.007935936,-0.017454377,0.120492228,0.282108700,0.205589683,-0.070695813,0.077123742,-0.258762645,-0.006834460,0.065398780,0.135073138,0.096754785,-0.169887415,0.099727302,0.165587752,-0.087990391,0.109396670,0.125629976,-0.176442052,-0.004222289,-0.143458975,-0.200465463,0.166370045,-0.002763991,-0.295595377,-0.244022537,-0.057412701,0.003937013,-0.113932595,-0.356950431,
0.142661927,0.059889052,-0.075107530,0.186937211,-0.162259553,0.282272052,0.160836672,0.121687653,0.261685849,0.085995458,-0.057540085,0.108256787,-0.095847341,-0.065477039,0.038259578,-0.296152033,-0.055373648,0.103867471,-0.130414217,0.015129489,0.056659671,0.059644510,0.151097137,0.080363289,0.429045030,0.035124261,0.120658967,0.089413522,0.251433745,0.136136768,0.149735645,0.089498479,-0.104401836,0.108535005,-0.020964018,-0.038573667,0.160232873,-0.019425075,0.145061581,-0.084316195,0.143383626,0.176128123,-0.101762228,-0.045290172,-0.201274411,
0.175358954,-0.225751738,0.277714596,-0.146370324,-0.059199868,-0.093968646,0.073572296,0.092979528,-0.229973330,0.153926403,-0.205405271,-0.012141211,0.045456955,-0.240626880,-0.048999826,-0.204242130,0.164524201,0.120644137,-0.161166680,-0.211539919,0.119215775,0.109421421,-0.181880007,-0.376768908,-0.006643542,0.014947146,0.135046755,-0.023124863,0.071467905,0.143666475,-0.161583421,-0.047253193,-0.107392307,-0.301226871,0.188204691,-0.294588242,-0.011479186,0.246506443,0.120368612,0.037669720,0.135746157,0.024411776,-0.050931104,0.174266436,-0.022338586,
-0.011449075,0.341253861,-0.164544664,0.166939517,-0.078477594,0.235790051,0.199293595,0.028536382,-0.105767708,0.108687554,0.233295357,0.037139665,0.167899007,-0.089302077,-0.000392295,0.207092777,0.090534959,0.336113034,0.190744681,-0.144299929,-0.161472430,0.098230779,-0.012914066,0.265826850,-0.229166783,-0.133952985,0.112019273,-0.066348590,0.226498803,0.187199793,-0.035026051,0.176315419,-0.021807796,0.113811511,0.172653171,0.245193666,0.012086163,-0.041993199,0.207413324,-0.225696847,0.083857020,0.089070283,0.091667398,0.163513476,-0.107007305,
-0.160757042,-0.116596306,-0.149286177,0.123665155,0.107394841,-0.192740441,0.121242461,-0.155817329,0.086654983,-0.017345886,-0.013989126,0.057944500,0.116068378,-0.126912630,-0.055077613,-0.226292843,-0.160369061,0.097874546,-0.094339080,-0.053289959,0.230974985,0.013946748,0.071419355,0.129417247,0.015230398,-0.060093949,0.034633860,-0.254596552,0.014935207,0.118069058,-0.007653095,0.138242465,-0.018881619,-0.135557616,0.269072940,0.022943595,-0.123504337,-0.043239000,0.125697739,0.001116746,-0.009635618,-0.047263665,-0.107351509,-0.091474275,-0.055854696,
0.047535042,0.154903756,0.111690701,0.022788135,-0.092097360,-0.229114282,-0.157800593,-0.342041639,0.005957497,0.158906144,0.101579427,-0.131103177,0.123442808,-0.092814851,0.078045246,0.050761997,-0.139231757,0.235946245,-0.050768681,-0.272756631,-0.090157149,0.033017313,0.231715867,0.163002828,0.015969214,0.083948862,0.114797058,-0.157365329,0.034782988,0.082021089,0.094213157,0.076524876,0.093696246,-0.142931386,-0.027488492,0.118404791,0.101939800,-0.004845686,0.312177127,0.114550998,0.111689677,-0.183744647,-0.097352500,-0.029315837,-0.045005573,
-0.053288779,0.358916141,0.032570476,0.196791503,0.227534282,0.009989695,0.255238842,0.049532969,-0.034367049,0.179137227,-0.066493282,-0.073221270,-0.054842476,-0.054489718,-0.202768387,-0.107791031,-0.249932756,-0.228488066,-0.018097911,0.155431484,-0.151159581,-0.009570699,0.012196742,0.211641127,-0.092069198,0.080524219,0.085717370,-0.183261311,-0.034838429,-0.124188834,0.250594568,-0.197140067,-0.014850287,0.129654578,0.087321626,0.357416174,0.082715883,-0.100317945,0.062255625,0.064305793,0.114101900,0.087749710,0.173087899,0.279639244,0.043363757,
-0.135107609,0.162049991,0.005687188,-0.006124566,0.280893773,-0.217747688,0.136141564,0.230129766,0.171265473,-0.013203893,0.112532208,0.016596366,-0.473536093,0.115643935,0.062240473,-0.070101382,0.181999808,0.126107707,-0.201766413,-0.036167468,-0.038551658,-0.047630826,-0.190137885,0.230099020,0.333017973,-0.066573166,-0.098036586,-0.193826998,-0.229329333,-0.258146767,0.252679924,-0.005649062,-0.226528188,0.001288667,-0.158941596,0.223426528,-0.203944083,-0.005668014,0.087663142,0.056499503,-0.020139091,-0.171925901,-0.079255841,0.039536197,0.012262407,
-0.065895117,-0.171164447,-0.081381576,0.114678156,-0.184321765,-0.007665401,0.016862305,-0.322275848,-0.409762861,-0.015351772,-0.115662383,-0.136743552,0.070085237,0.132932958,0.013220066,0.280269716,0.159028329,-0.184122957,0.049207104,0.090797422,0.051554526,-0.119733415,0.252186107,0.325656361,0.070387165,-0.014416326,0.045849764,0.024411059,0.077707059,-0.393680829,-0.019211375,0.000844691,0.092220633,0.031699728,0.185097513,-0.218825691,0.085389445,0.106916768,0.268537060,-0.047278086,0.095736487,-0.026617590,-0.070919237,-0.020959139,-0.022790050,
