// Neural Network File Format by Kyle Julian, Stanford 2016
86,2,2,5,
2,5,5,5,5,5,5,5,5,5,5,5,5,5,5,5,5,5,5,5,5,5,5,5,5,5,5,5,5,5,5,5,5,5,5,5,5,5,5,5,5,5,5,5,5,5,5,5,5,5,5,5,5,5,5,5,5,5,5,5,5,5,5,5,5,5,5,5,5,5,5,5,5,5,5,5,5,5,5,5,5,5,5,5,5,5,2,
0,
-10000.0,-10000.0,
10000.0,10000.0,
0.0,0.0,0.0,
1.0,1.0,1.0,
-0.453409300,0.948476274,
0.891526511,1.216568556,
0.178069682,-0.697523686,
0.625720770,-0.186100747,
-0.275790322,-0.295156261,
0.600419250,
0.710670980,
0.159231205,
-0.031489753,
-0.886403433,
0.599691650,0.997406368,-0.578268483,0.170413640,-1.047716320,
-0.805322502,-0.288521941,0.587318062,-0.420862113,0.610949418,
-0.065813246,-0.604281659,0.203873073,1.022840339,-1.276896026,
0.449513024,1.510477821,-0.303055146,0.140845586,1.105602400,
-0.619061584,0.210216753,-0.798219688,-0.573715114,0.931571296,
-0.608131775,
0.709263645,
-0.309933109,
-0.122782784,
-1.164581438,
1.215538163,0.903130406,0.564241222,-0.132313869,-0.505581077,
0.560724928,0.288333637,0.071079143,0.163994327,-0.312413872,
-0.411323724,0.015433277,0.572904802,0.996584041,0.428254810,
-0.783177913,0.108869077,0.561770459,0.774220319,-0.845709798,
0.962863720,-0.338167526,1.305728393,0.330143570,0.242967874,
-0.585482455,
-1.024931939,
-0.996483386,
-0.224280284,
-1.382131832,
0.200823866,1.457915597,0.482200549,-0.777154457,0.704919583,
-1.047377894,-0.905612016,-0.303949045,0.473696884,-2.034412290,
-0.099190526,1.129326166,-0.313322102,1.195762931,0.536358425,
-0.667455895,-0.864345849,1.053795171,0.437509767,0.005999342,
-0.740643255,-0.956703086,0.356148250,0.301476795,-0.610275157,
0.890656705,
0.431243944,
-0.973761915,
-0.319455543,
0.012186065,
0.690935230,0.272531239,-1.374412184,-0.446081528,-0.477668678,
0.533583907,-0.414311528,-0.744939216,1.461127933,-0.845546748,
-0.202972575,-0.217363545,0.845159674,0.929773786,0.952616196,
-0.038759478,0.035334236,-0.641916397,0.482497493,-0.713915840,
-0.844562616,0.651621555,-0.853824995,-0.155522110,-0.957449806,
-0.188388957,
-0.597893836,
-0.186048846,
-1.563380312,
-1.109410982,
0.440150425,-0.586504843,-0.479993991,0.171592000,0.161146191,
-0.999287527,-0.151641748,0.392964860,-0.310524600,1.189374095,
0.685180034,0.445609107,0.827017624,1.231090186,0.261600613,
-1.361350830,-0.466571848,0.902408953,-0.166138418,0.615544948,
-0.395340378,0.960130052,0.689773693,-0.252127907,0.208461603,
-1.180287363,
-0.197882567,
0.050130120,
-0.189691192,
-0.229227806,
1.099032677,1.484348720,-0.831562609,-0.157702418,1.046322603,
0.237333080,-1.679366213,0.916701448,0.581662504,0.551131746,
1.275907889,-0.596641330,0.476899390,-0.372200913,0.158216792,
0.257213660,-0.598966008,-0.052788830,0.642183653,0.258301678,
-0.243405189,1.781362817,-0.126465592,1.317142793,0.707942808,
0.638411492,
-1.848857755,
0.308758796,
0.560176229,
-0.533568850,
-0.352286210,0.569115205,0.484462164,-0.110668229,0.630535489,
-1.248740986,-0.498954732,0.023249494,-0.714634478,0.807426482,
0.194954589,-0.184377191,-1.485187784,-0.841766759,0.179238565,
0.449707928,0.755743180,-0.492914501,1.096057841,0.555103538,
-0.186581458,-0.328000529,0.313361888,0.867153623,0.966061248,
1.924726558,
1.201619111,
-0.399080435,
-0.268397694,
1.101110392,
-1.214121035,-0.410649798,0.826253169,1.583353940,-0.188354899,
0.301997145,-1.260571136,-0.339350455,1.248653624,0.896845631,
-0.309820637,-0.045969059,-0.726250637,-0.209100984,0.083130722,
1.329997897,0.541252201,0.422431684,0.202005116,-0.123577360,
0.076537686,1.088048776,0.468336348,0.496320772,-0.392514144,
0.947093340,
-1.829318653,
-0.601015433,
-1.223220247,
-0.057972533,
-0.606333814,-0.480471123,0.527730026,0.304526300,-0.248023627,
0.011187617,0.569377394,-0.059672664,-0.249833836,1.177079321,
-0.336113846,0.373419914,0.234993448,1.162477297,0.393438257,
0.768201504,0.048667263,0.591314549,-0.756026687,0.734288807,
-1.162606232,0.323847284,0.391969197,0.388268810,0.445174868,
0.060990531,
0.021441210,
-0.697420304,
-0.076679688,
0.391196207,
0.525110143,-1.258909633,0.025364775,0.392981477,-0.048127403,
-1.006191452,-0.355595732,-0.551136560,-0.721893462,0.067114714,
-0.059685967,-0.871772481,-1.240580717,-0.660037513,0.529226343,
-1.517823344,0.606980582,0.075629053,0.249018244,0.074071945,
0.918382460,0.443707512,0.813869161,0.646293334,0.653452845,
-2.344105359,
0.566192669,
-0.526222543,
-0.863060856,
-1.359736293,
0.045253145,-1.347061518,-0.071853440,0.273144989,0.609886006,
-0.236088774,0.135154579,-0.072136143,0.831780043,0.946199360,
0.571756918,-0.026193963,0.543563358,0.072618158,0.981663202,
0.261681405,-0.206013235,0.419099319,-0.024770710,-0.143756251,
-1.031714377,-0.352691970,-0.727141998,0.257342533,0.419844422,
0.585968527,
0.495810773,
0.273106147,
-0.154458396,
1.796696929,
1.081337862,0.022116278,-0.503300576,0.588844220,1.579052917,
-0.393322670,-0.903822570,-0.164010358,0.522564922,-0.808209189,
-0.070861905,0.966214172,-0.456100946,-1.080284354,0.010589788,
-0.986389153,-0.014683058,0.344766529,-0.630456984,-0.318325113,
0.563104171,-0.103057230,0.595310109,-0.497531634,0.323992711,
0.893523067,
0.250673464,
0.183522901,
-0.066897209,
0.030992254,
-0.799984135,0.459097634,0.309780207,-0.023969837,1.015143501,
-0.129011106,0.047863699,0.559998419,-1.136402956,-0.982875781,
0.434291384,-0.705505055,0.049189071,0.122294783,0.446921761,
-0.606874795,0.640596217,-1.706948550,0.217408687,-0.055043086,
0.080831333,0.053559634,-0.580020969,0.113356286,-0.610768989,
0.673023266,
0.523028756,
0.902101811,
0.108045339,
0.827429415,
-0.811555328,-0.805662037,1.477158575,0.628820017,0.841407064,
-0.319334395,-0.285059398,0.854944526,0.411532446,1.006283259,
-0.289955341,-0.106769445,-0.924444871,-1.314081489,0.735376344,
-0.037803316,-0.184444377,-0.493119134,-0.387228303,-0.854707844,
-0.537434745,-0.320115546,0.987935766,0.987949806,0.400497267,
0.209258128,
0.592297097,
0.065934640,
1.119295548,
-0.288023569,
-0.979046866,-0.313522082,-0.501869565,0.302382562,0.245010546,
0.259684629,0.939799187,-0.440701212,1.087463267,0.277632981,
1.038335645,-0.931249733,0.240731053,0.391530021,-0.626846402,
-0.323141362,-1.061476001,-0.045468116,1.267358046,0.138425611,
-1.237817570,-0.190191088,-0.235303630,-0.677529314,-0.687588339,
-0.116765386,
0.214089203,
0.572419682,
0.267795404,
0.391177277,
0.772323486,0.500317509,-0.194323893,-0.672106008,0.559024705,
0.734247169,-0.239540344,-1.234422958,0.380303773,1.288232055,
-0.505055459,-0.137135586,-0.947260518,-0.035498461,0.159808484,
0.339694571,-0.079904532,-0.856443531,-0.216663172,-0.089544650,
-0.209048033,0.498138468,1.060820310,0.324731159,-0.434156653,
-0.435923250,
-0.160121367,
-0.651611765,
0.441935627,
0.530096248,
0.186231806,0.768705450,1.078827242,1.657171742,0.175801224,
0.113839552,1.019475631,-0.034006079,-0.657134150,-0.757979075,
1.330367256,1.727995071,1.755932033,-1.337581754,0.447361015,
-1.204593699,-0.026077232,0.749228267,-0.805736781,-1.018346121,
0.316761277,0.003636612,-1.097347345,-0.802624347,0.301233579,
0.416110983,
-0.956301097,
0.520630330,
0.811603639,
-0.313492392,
-0.088246783,-0.166053357,1.337458675,0.329771859,0.131869699,
-0.221818207,1.453242436,1.045151347,-0.571789797,0.925861776,
1.019371112,-0.344975996,-0.268500143,0.129777310,-0.199001847,
1.231009922,0.269511846,0.298714241,-0.488308419,-0.485816941,
-0.012596085,0.752438286,0.473831790,-0.849362662,-0.701278527,
-1.113800740,
0.517961637,
-0.268344979,
-0.425559791,
0.335508906,
-1.509274879,1.629456928,0.412158034,-0.103726616,0.054695717,
1.345571625,-0.415706541,-0.243129883,0.516960443,1.370835923,
0.353464872,0.009864065,0.196540306,1.093091421,-0.528743611,
-0.180483191,-0.296059380,0.277501385,-0.753954507,0.146843923,
-0.398122080,0.318770793,0.442384620,0.422998981,-1.051927223,
0.004315143,
-0.613960492,
0.983365887,
-0.304767832,
-1.211274348,
-0.106195608,-1.763328756,0.076607640,-0.194533885,-0.580038941,
1.391528058,0.503124650,-0.384982689,-0.392311543,-0.076594422,
-1.656458735,-0.031429554,1.531949177,0.343850372,-0.130234047,
0.469272908,-1.306225332,0.749029307,0.726726983,0.370538133,
-0.195098022,-1.242341891,-0.709858230,-0.233975406,0.061834727,
-0.348781912,
0.797911095,
-0.468526902,
0.773081399,
-0.839463784,
1.904909241,0.885250524,-0.048106745,0.096604940,0.221206469,
-0.192286730,-0.800165682,0.695126871,0.224779735,-0.592570621,
-1.439639229,0.169769940,0.755401918,-0.787321186,0.126390437,
0.694972904,1.033299065,-0.092596269,1.002093688,0.335760119,
0.345806327,0.142997684,2.136819507,0.087336481,-0.013681498,
0.273906649,
0.772359579,
0.247670756,
0.302116665,
0.394172494,
0.037776140,-0.054579883,0.468683869,0.340485429,-0.668319190,
0.348040586,1.517903714,-1.115913177,0.777309717,0.478571740,
-0.357170438,0.161619669,0.479798147,0.423151012,1.273592618,
-0.356852742,0.985828552,-0.524808478,0.722840157,0.556132529,
-0.132036759,0.891985981,-0.156112616,0.379402514,-0.592782646,
-0.160533524,
1.243620264,
-0.184160344,
-0.462189504,
-0.830430393,
0.545789426,0.940102629,0.819371857,-0.058927440,-0.580885820,
1.088583395,-0.619166472,0.410311474,0.227092635,0.313272398,
-1.149848361,-0.878894961,-0.424571403,-0.200394834,-1.629618079,
0.989957837,-2.221339476,-0.533633229,0.943032066,0.166222509,
-0.670690644,1.032179009,0.204858660,-0.084231898,-0.354441076,
0.931586718,
0.316967481,
-0.933854849,
-0.477759678,
1.092441727,
-0.809600873,-0.282097452,-1.484866591,-0.055978141,0.257414570,
-0.790045325,0.245687658,0.179113536,0.041955513,0.234141187,
0.549325750,1.742676735,0.199556726,-0.362058896,0.671029013,
0.005567526,0.075749262,0.544778130,-0.769092564,-0.465970001,
-0.853481454,-0.891117727,-0.941151194,0.179750026,-0.640784899,
-0.027158034,
-1.128987826,
0.248811202,
0.534624680,
0.351487696,
0.498355495,0.326012463,-0.622198050,0.104379796,-0.235728647,
1.514188876,0.247301614,0.020001661,-0.048774228,0.547811524,
1.103281216,-0.296376747,-1.258557234,-0.137297876,0.007120565,
-0.201206003,-0.193761363,0.941003309,0.412631189,1.184646076,
0.274580230,-0.720111607,0.013100095,-0.763676548,0.041144299,
0.457053040,
-0.696581722,
-1.201829080,
-0.294224942,
0.394508432,
-0.246287986,-0.546960225,0.314617011,0.572037739,1.013757474,
0.717810860,-0.547191850,0.480049526,-0.247344277,0.097619534,
0.161944094,-0.040066685,-0.710452829,0.341813141,-0.879879145,
0.154976286,0.908348992,-1.101259596,0.051728532,0.711395116,
0.504464400,-0.105109160,0.024788663,-1.087836990,-0.078565109,
0.568462795,
-0.401361373,
1.296634241,
-0.340130794,
0.041174716,
-1.600881737,0.441756057,0.027341870,-0.780859008,0.423387528,
0.184818001,-0.108924188,0.022683087,-0.743319794,0.046494088,
0.375237279,0.120091672,-0.711333585,-1.179536461,1.733307748,
-0.021641488,-0.363357806,0.720367944,-0.873910224,0.913225898,
-0.295010494,-0.697495733,-0.801865622,-1.020926341,-0.738774974,
-0.737035754,
0.052352284,
-1.772969095,
-0.231781703,
-0.247976616,
-0.712735268,-0.082432558,-1.221072587,-0.686393113,-1.416911809,
-0.362379579,-0.885873780,1.230184171,0.435876471,-0.269115045,
-0.799022684,0.195605712,0.198802623,0.311706477,0.376698198,
0.956683794,-1.169624509,0.269156580,0.211695257,-1.522545765,
1.243678243,-1.113803159,-0.272185451,0.235587938,1.248726458,
-0.429101838,
0.292681734,
0.599721689,
1.004700416,
0.471024438,
0.016416133,1.224327722,1.384101072,-0.358589555,-0.197090856,
0.062561975,-0.594719677,-1.244568609,0.633240788,0.480664066,
1.078296326,1.036650428,-0.249397571,0.289302738,0.301868770,
1.159337261,1.187800231,0.839590172,-0.499776244,-0.032128153,
0.306352161,-0.131269114,0.013653714,0.740456060,0.013049051,
-0.475834222,
0.296071595,
0.138955684,
0.116538752,
-0.273601385,
-0.908236100,0.814351397,0.289489766,-0.306259426,-0.200965451,
-1.331891946,-0.604108457,1.203381850,-0.216464850,1.218712729,
0.039162618,0.167328759,0.937591135,0.094824780,0.319942265,
0.339250431,-0.642461245,0.045768022,0.751884874,-0.398105694,
-0.108886426,-0.434296118,-0.731753934,0.762578130,-0.069698274,
-1.605235472,
0.191444683,
0.634691677,
-0.412003127,
0.218289096,
0.253163814,-0.262425117,0.544617200,0.057246081,-0.072557063,
-0.591009874,-0.419127153,-0.322410415,0.594825075,0.772858011,
0.154209627,0.592478261,-1.012959123,-0.297268889,0.495352908,
0.855847867,-0.511351390,0.385704624,-1.065394968,-0.476068509,
0.336705513,0.119364015,1.448510554,0.888036703,0.122167427,
0.281174888,
0.847642100,
0.701800206,
0.181970914,
-0.638441679,
0.228107422,-0.145101550,-1.392195084,1.200609803,0.013024677,
0.495396624,0.182505558,0.541598152,0.152847573,-0.124322046,
1.738723678,0.420522532,0.352927142,0.121318587,0.686819218,
-1.198121431,-0.407708675,0.345447761,0.750141894,-0.758002451,
-0.536445662,0.377613868,-1.078766309,-0.295682992,0.190500305,
-0.241974450,
0.621209442,
-0.331192540,
-0.569302252,
-0.811201437,
0.789840930,-0.059918738,-1.073517373,0.185530275,-0.732571951,
-0.139115359,0.913525660,0.121488468,0.762759417,-0.814872122,
-0.009394959,-0.738444601,0.060599916,0.347884843,-0.355810667,
0.387520251,0.194267011,0.923053488,0.435586754,0.930100344,
1.212631608,-0.068817164,0.046491379,-1.253676942,1.099972297,
0.298542511,
-0.129137284,
-0.003675721,
0.986697051,
-0.071846016,
-0.236232715,-0.662198823,-0.622380811,1.000667984,-0.304184825,
-0.647903327,-0.884299213,-0.587994172,-0.123555670,0.286479470,
-0.296176501,-0.537525241,-0.646402644,-0.738224069,0.168228324,
0.799035717,0.191459033,-0.644999520,0.289944876,-0.023229014,
-0.682379120,-0.205016202,0.219579387,0.934537489,1.048580414,
-0.861461671,
-1.141285324,
0.773105948,
0.441479216,
0.353527805,
0.027431011,0.772665035,1.551645049,0.346616860,-0.154399341,
0.394179518,0.255969807,-0.302763836,0.406521473,0.954824238,
-1.278407567,-0.303121241,0.937764088,0.959258067,-0.147584086,
0.724034094,0.249157104,0.259231894,-0.152915354,0.235987818,
0.014060172,-1.009691923,-0.268164330,0.279178578,-0.646590492,
0.224252586,
-0.155892296,
-0.871210887,
-1.092070772,
0.047030014,
-0.485409645,-0.440767467,0.130970184,-0.367592901,0.590655354,
-0.636155085,-0.354046967,-0.210818021,-0.181748508,0.685121576,
1.509377834,0.364631246,-0.903636224,0.155523106,1.417978856,
-0.155876350,-1.145645152,-1.590585091,-0.101552363,0.582048110,
0.204558306,-0.067628797,0.369718707,0.612088690,0.302011007,
0.755904071,
1.075129064,
1.051963592,
-0.090459064,
0.205509872,
0.617262650,-1.000019810,0.381157546,1.164439725,-0.978728190,
0.222070008,1.614861548,-1.403363296,-0.611795463,-1.273275954,
0.647229968,-1.098051469,0.005859624,1.180569377,0.204085295,
0.808791547,0.465230919,0.413544156,0.531579046,-0.485060326,
0.094352172,-0.225041860,1.582965987,-0.011586172,0.710641441,
0.392889413,
-0.100143236,
-0.922625828,
-0.468682904,
-2.011450384,
-0.068880739,0.881661328,-0.452022860,-1.027019706,-0.000345293,
-1.433716985,0.325206694,0.023537314,-0.090493532,-0.672985613,
-0.429693004,0.044880139,0.376738878,-1.179797458,-0.642514819,
0.149781617,-0.925961394,-0.778427874,0.539454814,0.902701749,
0.006425929,-0.797116595,-0.754819735,0.529262198,0.434665687,
-0.102764611,
-0.167928156,
0.506057812,
1.210741687,
-1.605816479,
1.791351352,-1.399748105,0.120829261,0.527677230,0.046813842,
1.162793394,0.040077274,-0.531700114,0.121824870,0.228585633,
0.605273134,-0.602990163,1.244251376,-0.837784007,1.028132635,
0.208011714,-1.236941006,-0.616181178,-0.147121376,0.564559414,
-0.354292713,-0.323981411,0.383876264,-0.015779381,-0.152196155,
-0.671487918,
0.876172184,
0.907190352,
-1.205306237,
1.493824812,
0.795138943,0.658953097,-0.704202846,-0.235491815,-1.281444875,
0.251270713,-1.324436867,0.832031414,-1.321732881,-0.123948767,
-0.282898618,1.342903088,0.309427631,1.121663919,0.224983784,
0.598113635,-0.039223162,0.822871535,0.274026807,0.089471871,
-0.080515025,-0.060694071,-0.011648163,-0.179278057,0.320541511,
-1.193058826,
0.373763991,
0.704541839,
-0.448717641,
-0.166426778,
-1.323225580,1.286280342,0.048144338,0.008000047,1.148109320,
-0.327480532,0.117555403,-0.179327348,-0.162185169,-0.408639632,
0.012754199,0.065995973,1.189485614,0.399981341,-0.593637667,
-1.045696374,0.522559363,-0.205004642,-0.811098343,-0.709569611,
-0.039789107,0.471054079,-0.593438558,0.330432648,0.630022651,
0.373001457,
0.690887029,
0.899949494,
-1.017460143,
-0.536995340,
0.453244901,1.040918767,-0.315566752,-0.823090664,-0.827158797,
0.024666157,-0.352320210,-0.725719611,1.313473687,-0.176588370,
0.475059581,-0.390548079,0.031706256,0.485796471,1.051361381,
0.189914673,0.308126653,-0.598174797,-0.806102183,0.936332764,
-0.736296355,0.177117985,0.889535280,-0.174110968,-1.244899723,
-0.835861091,
-0.277445568,
-0.219633173,
1.052894569,
0.735477466,
-0.082182387,0.811800717,1.127312962,0.300502200,0.905909312,
-0.432883687,0.414673422,-0.092069066,-0.387041175,0.249160269,
-0.343895657,-0.181812533,0.286890405,-0.267089774,-0.625555092,
0.642973175,-0.333385268,-0.242702854,-0.272662031,1.054226359,
0.503418253,-0.893557242,0.528148788,-1.726135203,-0.611803427,
-0.039499690,
-1.717050243,
-0.542991728,
-0.086684536,
1.208564138,
-0.843975277,-0.464647313,1.754538762,0.915918228,1.370718794,
0.898724896,-1.179875194,1.195205254,-0.483953223,-0.047668402,
0.349803893,0.198732214,1.490693193,0.680052730,0.722868100,
-0.144537837,0.300324207,-1.232871088,-0.940077209,-0.520796444,
-0.050688099,-0.510257756,1.736577429,0.125771623,-0.175640480,
-0.202982838,
-0.324389925,
0.345529192,
0.777454312,
-0.089503700,
-1.130903238,0.665394163,-1.287447060,0.478458021,-0.100230756,
-0.270893981,-0.332781917,-2.015250680,0.407867178,0.761380859,
-0.694427881,-0.959325353,0.127038950,-0.326124817,0.496539537,
-0.610873576,1.397017315,-0.207938411,0.714488549,-0.507633711,
-1.156322674,0.246646983,-0.032964977,2.508361209,-1.295089112,
-0.026168959,
-0.523612363,
-0.235366491,
0.125768784,
-0.434779334,
-1.032948671,0.070876418,-1.854401376,1.220973669,0.759046348,
1.801372041,0.629220628,1.009077963,0.361013262,0.368546910,
-0.601643403,-0.848258132,0.418751911,-0.888202415,0.486114428,
-0.337975217,-1.267215505,0.175086262,-0.058600193,-1.303402443,
-0.028780485,0.710076551,0.278555975,-0.732307516,-0.540997316,
0.841656879,
-0.156862391,
0.240768422,
0.850443772,
0.308383059,
0.924071533,-0.107982761,0.284845301,0.268601830,0.112719741,
1.255692551,0.436469044,-0.924611426,-0.531643905,-0.300043093,
-1.122584039,-0.129263430,0.057677629,-1.338944433,0.940071578,
-0.342112227,0.334648576,-0.268109404,1.807986963,-0.141946389,
0.574755606,0.267123207,-0.480549015,-0.179394678,-0.829864365,
-0.827714217,
0.097459952,
0.954447085,
0.538025906,
-0.216034140,
0.156248033,0.218403798,-0.846117335,0.556341312,-0.109773618,
0.357419106,0.061136505,0.052013864,-0.287781149,0.422865336,
0.892869378,0.148724508,-0.379402953,-0.970423867,0.380759689,
0.400212268,-0.676287965,1.870712746,-0.295073193,-0.659202110,
0.568990804,1.153480414,-0.495986605,1.437778748,0.416762866,
0.191320085,
0.510779218,
0.274318263,
-1.765708895,
-0.746593747,
-1.143339310,-2.699938091,1.387672598,-0.187476188,0.544483604,
0.172451712,-0.000035343,0.376551132,0.567535373,0.516741530,
-0.253383877,1.352696214,-0.041111120,0.464769014,-0.535731122,
-1.432386149,-1.194491686,1.053456892,0.513958652,-0.043250990,
-0.654409274,0.371880736,-0.489978261,-0.772284760,0.153544968,
-0.078577845,
-0.281672822,
-0.594111300,
0.010295053,
-0.821209815,
-0.393544061,0.114236254,-0.470912229,-0.786212175,-0.766632491,
-0.067258183,-1.623288184,-0.492803080,-0.547717916,-0.639430178,
-0.508009434,0.650125535,1.315824927,0.918691226,-0.111755372,
0.078247498,-0.466790874,-0.231760877,1.267131207,0.308499782,
-0.015509322,-0.508237097,0.591818284,0.113363633,-0.995776128,
0.193352822,
-1.569042156,
-0.029378950,
0.586926960,
-0.745194795,
-0.589420040,-0.186094596,-0.619633849,0.150215597,0.090519440,
-0.583013593,0.294488363,-1.316333860,-0.837895413,0.606660416,
0.079361541,0.651779783,0.034217257,0.680430726,-0.191712371,
1.007169336,-0.737103312,-0.096040771,0.143918976,-0.283090598,
-0.982164088,1.643654819,0.263711122,-1.385203448,-0.707228047,
-0.436813377,
0.901158081,
-0.276385446,
1.134710485,
-0.312302147,
0.612434462,-0.529587484,0.378456743,-0.650424300,0.976726624,
0.106111413,-0.069852522,-0.930978274,-0.972452851,-0.173693019,
-0.809071578,0.179942748,-1.129144275,-0.807996761,-0.001063669,
1.271237037,0.195556669,-1.152717001,-0.551199412,-0.848790108,
-0.206416992,0.007928434,1.295952237,1.196739146,0.297536215,
-0.461970459,
-1.539246694,
-0.806869381,
-0.186516065,
0.110641162,
-0.001841811,-0.416050496,0.328053080,0.910657176,0.985564324,
-0.773694471,-0.692666895,-1.107386383,-0.722703118,0.907405263,
0.575382503,0.762267558,-0.636970890,0.121229096,0.136801494,
-0.773152994,0.015620034,0.869029775,-0.632488447,0.215293113,
0.785894576,-0.412654534,-0.344873847,0.408088409,-0.856152208,
0.076091591,
-0.436134973,
0.107413913,
0.074966638,
0.357408008,
0.932009896,0.512623586,0.548258040,0.178819668,0.158461804,
-0.904719267,-0.356641825,0.849595448,-0.541987014,0.419552285,
-0.930594241,-1.262039581,-0.643898406,-0.006884253,0.721227298,
1.384536642,-0.616327897,-0.299637838,1.061468454,-0.929931057,
0.226862800,0.150976682,0.234034212,0.396654090,-0.007092119,
0.723266765,
0.347048897,
-0.468857955,
0.193381671,
1.097364798,
0.733687388,0.272127303,-0.071147106,0.309218181,0.263188553,
-0.122405795,1.265029392,0.573537867,0.354246635,-0.595900409,
-0.733711853,0.049883454,-0.108643446,-0.382842284,-1.434515544,
0.489937787,-0.821345910,0.912187460,0.146418577,-0.126237027,
-0.160647807,0.643322990,-0.347962628,0.347770513,-0.279131927,
-0.346690356,
-0.496631547,
-1.048349276,
-0.698651330,
0.592370880,
0.202459519,0.295177473,0.696435610,-0.426919384,0.444154261,
0.701598786,-0.054531935,-0.547253297,-0.952626379,-0.099560894,
-0.633450353,0.725385231,0.690587526,0.178200340,0.368816333,
-1.774677395,1.005757062,-1.301250570,-1.264173073,0.548717379,
0.592834163,-0.410669114,0.378943621,0.600379595,0.136343890,
-0.060907520,
-0.571724435,
0.115664367,
0.782031599,
-0.227145597,
0.267245795,0.607842675,-0.177743165,0.105754020,1.490361938,
0.029786638,-0.668586065,0.472418244,-0.869306847,-1.020436246,
1.273205644,-0.279809960,-0.344511475,0.024266642,0.052057909,
1.122417658,0.708153713,0.743156656,-1.288122539,-1.107441903,
-1.229800570,0.751213483,-0.900072384,-0.282198432,-1.879963199,
-0.414831939,
-0.355886295,
-0.852542960,
-0.402626170,
0.547983204,
0.334825850,-0.100495634,-0.186358193,-0.307250209,-0.220628174,
-0.707788571,0.433710148,-0.062445160,-0.736486558,-0.304852296,
0.417118227,-0.568543180,-0.375451620,0.465972870,-0.612690903,
0.874714283,-0.095717030,0.745206662,1.713653146,-0.369251638,
0.496040319,1.048239828,0.124753796,0.639340837,0.201103363,
1.007212149,
1.407538140,
-0.534778637,
-0.209746839,
-1.020668019,
-0.165208704,0.615958151,0.569106777,0.154560646,0.832215209,
1.407694537,-0.113373238,-0.921342280,-0.394389295,1.161772714,
-0.628385619,-0.554484775,0.729129743,0.853946351,-0.462052446,
-0.244776537,-0.105828018,-1.937902206,-0.220006941,-1.664627934,
0.207390422,-0.208324098,1.091690369,0.921918256,-0.227735321,
0.354400921,
-0.276390016,
0.436309987,
-0.023363690,
-0.702842521,
-0.081286357,0.061210888,-0.951892407,-1.609214110,0.240640550,
0.076248732,0.524052261,0.193693303,0.550625146,0.252586726,
1.121738175,-1.022977080,-0.160726962,0.179678406,0.135083749,
-0.180502550,0.351496121,-0.092086023,2.031712474,1.361751442,
0.402225904,0.005474155,0.161374777,-0.813333403,-0.340901409,
-0.215211332,
0.860140577,
0.438762811,
0.104780935,
0.906510707,
0.038145441,-0.509514922,-0.838357428,-0.091419358,0.037653258,
-0.912704704,-1.112256574,-0.149378205,0.257641641,0.796308848,
-0.031642370,0.827249818,-1.009420291,1.085592523,-0.419774459,
-0.038760970,-0.433438672,-0.558332401,2.084784581,0.110167554,
-0.152401644,-0.278118046,1.000302052,0.376093767,-0.265108383,
0.647448665,
0.549530297,
-1.301902543,
0.852684731,
0.762523162,
-0.530390309,1.758360077,-0.211156348,-0.546231499,-0.686944196,
-1.255508068,0.218161702,1.422774127,-0.092407056,-0.215614752,
-0.112807560,-0.347778745,0.341041021,-1.046146255,-0.526201685,
1.212031062,-0.879056985,1.059195296,0.907056287,-0.036523169,
0.269502138,-0.072085013,0.787361168,-0.262735324,0.126278685,
-0.730894019,
-0.052324298,
0.219130103,
-0.400339552,
-0.364244620,
-0.297061626,1.071337836,-1.178698368,-0.088332243,-0.064692742,
0.051584650,-1.138182104,-0.004484447,0.569785929,-0.155841193,
-0.589074406,-1.094340989,-0.895930161,-0.138886550,-0.626707141,
1.025077333,0.900325549,-0.086216944,-0.500110217,1.316860446,
-1.232773976,-0.610828542,0.152958880,1.404825593,-0.952729474,
0.317333977,
-0.012217396,
0.313739032,
-0.143673804,
0.351225531,
0.487609973,0.519930736,-0.188147290,0.825754798,-0.190955280,
-1.396325997,-0.346929070,0.210720828,0.683569073,0.690416209,
-0.216777238,0.795657692,-0.190792670,-0.789475154,0.729910844,
0.383280957,-0.100819725,-0.409975812,-0.279596916,-0.491729441,
-0.932169165,-0.051277536,-0.580279211,-0.803087039,-0.073162772,
1.056274166,
-0.103456589,
1.186281648,
-0.966944062,
0.579346405,
-0.008279096,0.487703611,0.270953525,1.074152974,-0.189318758,
0.414980807,0.638091862,-1.007133034,0.104832355,-0.213362831,
-0.145066925,0.268792942,0.342988193,0.109701341,-0.443408780,
-0.920978019,1.462821488,-0.901665552,-0.426155746,0.611411991,
-1.165532035,-0.017263479,0.761650202,0.352368744,-1.486071509,
1.460635107,
-0.709555934,
0.344977914,
-0.908614266,
0.053496390,
-0.145763981,0.701889117,0.623821564,-0.329681203,-1.356368428,
-0.885629186,-0.101658923,-0.359885544,-0.359546315,-0.008769792,
0.116532856,-0.430195885,-0.675455313,-1.043322114,1.081365165,
0.063513137,0.280592980,-0.362241271,0.078364875,-0.023964163,
0.536143789,1.458865407,0.149930474,-0.153730896,0.193085306,
-0.498731798,
0.077194832,
0.680300046,
-0.053202718,
-0.430349660,
-1.214480321,0.757224782,1.653435543,-0.708040357,0.068374936,
0.346861092,0.449206538,-0.516997561,0.445520732,0.009189720,
0.466307783,-0.150032930,-0.293020881,0.654044443,0.987615957,
0.316970796,0.152404179,0.165187132,-0.136951661,1.864203797,
1.270483596,0.029416574,0.243754964,-0.729817001,-0.632551150,
-0.522245196,
-0.151200440,
-0.635731620,
-0.728758598,
0.841726158,
-0.783115148,-0.226968167,-0.787651842,-0.036336135,-0.338560300,
-0.027019479,0.482941084,-0.420453018,0.462024319,0.838680679,
-0.309029102,-0.275519885,1.198103315,-0.317441434,-0.445974253,
0.316391118,-1.188464134,-0.897461121,1.027355463,0.728033078,
0.457359633,-0.180763742,0.445580366,0.563578703,0.817327435,
1.496863335,
0.619107548,
-0.908279705,
-0.646669656,
0.677850277,
1.184873882,-0.336597139,-0.892034848,-0.456475342,0.422817417,
-0.488743616,0.806740391,0.985495575,1.265476055,0.149984690,
-0.818521618,-0.782453265,0.540196677,-0.182778056,-0.831898691,
0.250797192,-1.079773930,-0.043853669,-0.364361617,0.018304701,
-1.162457798,-0.412247571,0.994734405,-0.337726618,0.013642098,
0.106393208,
-0.248156447,
0.625826645,
0.454530582,
0.406113980,
1.191256545,0.274549816,-0.269626396,0.682919136,1.404385372,
-1.053390647,-0.250800331,0.010696961,0.620139356,0.498673111,
-0.377610386,-0.112696347,-0.245289071,-0.437124955,0.142460559,
0.572735405,0.581678954,-1.655172874,0.077915951,0.872008026,
0.328865127,0.531847789,-0.616624719,0.105681686,0.465114277,
-1.115334220,
-0.122187123,
0.581063006,
0.749395197,
0.162190863,
1.108528343,-1.266805227,0.397183471,2.659517529,-0.693963517,
0.516872755,-0.140089415,-0.454235245,0.731982114,-1.490271877,
0.164902453,0.308510743,0.693110835,0.060598860,0.234797010,
0.464575465,0.041674770,-1.143079480,-0.409375005,0.376562438,
0.136592106,0.064498811,-0.212840981,0.572858164,-0.640728457,
-0.389274669,
0.442260016,
-0.741842737,
-0.276009002,
-0.784099516,
-0.126971350,-0.797187193,0.421612767,-0.477219122,0.165211476,
-0.156551674,-0.087693927,0.113317950,0.873996838,-0.126326163,
-0.979293133,-1.109471030,0.196914828,-0.897322493,0.647410446,
-0.684181304,-0.537747450,0.289322100,0.372894178,0.397668838,
-0.116121006,0.400693814,0.119819998,-0.677187997,0.030018114,
-0.178009159,
-0.796654584,
1.152520971,
1.263548064,
-0.340340606,
-0.069608558,0.182970328,0.238511297,-0.888941766,0.232818707,
0.767949302,0.103777758,-0.913159504,-0.484214696,0.667291298,
0.415514976,0.184086544,-0.649820175,-0.087514960,-0.070358142,
0.768222325,-1.313752126,-1.229006791,0.639491481,-0.830009126,
0.555541470,-0.308410227,-0.374665533,-0.912540180,-0.492466985,
-0.072805593,
0.088358451,
0.668311981,
0.008491888,
0.258247688,
-0.869950573,0.167218146,0.524961831,1.748062545,0.099521695,
-0.284286724,0.619990019,0.237966166,-0.759658714,0.484852739,
0.636640355,-0.847782713,-0.467736644,-0.782388450,-0.540124421,
0.693940890,1.060425650,-0.224234353,-0.203420554,-0.130599795,
0.060706816,1.136041936,0.488116688,-0.466422775,-0.497513224,
0.135358893,
0.388361425,
-1.387063832,
0.981295200,
-0.186553365,
-0.581053641,-0.340083357,-0.160521736,-0.407135662,0.284973445,
0.555737140,-0.597304930,-0.385144614,-0.183535304,0.114348791,
-0.266782633,-0.407727293,0.375266197,-0.661590327,-0.939747781,
-0.165150590,-0.558769764,0.175647265,0.112680198,0.025059928,
0.775060052,0.797739396,-0.126606223,-0.910204844,0.152204783,
-0.454444056,
0.626381937,
-0.866600174,
1.070519232,
1.015167617,
0.100785202,0.067284896,0.437028395,-0.082272663,-0.683160619,
0.063689138,-0.406328269,-1.862039993,0.140178113,-0.536819986,
1.071990033,-1.068930948,-0.956940631,-0.450551670,0.729605649,
-0.361187484,0.547647407,-0.678368068,-0.224525555,-0.038132433,
1.731548792,0.705333167,-0.474363008,-0.082325885,-0.822648119,
-0.292335604,
1.053461063,
0.860602570,
-0.875181884,
-0.647493081,
0.238133277,-0.124648720,-0.150376356,-0.385946439,-0.820156778,
0.852636340,-0.973686027,-0.916682124,-0.595078772,1.199148745,
-0.354735592,-0.234662978,0.615503680,-0.248898296,0.088219888,
-0.048009706,0.892767204,0.965907742,-0.118689205,0.063517495,
0.404054793,-0.947713834,-2.630013428,1.128035930,-1.209238694,
-0.659837201,
0.025857838,
1.082402548,
-0.842801108,
0.364377046,
-1.319095751,0.021296341,0.800208084,0.127866069,-1.466887773,
0.865554955,0.462560547,-1.026939963,-0.904413493,-0.072076615,
-0.520443503,-0.067123970,0.164688825,0.175039074,0.951456756,
-1.921372189,0.459051906,0.445044246,-0.115363332,-0.633440393,
-1.536316233,-0.298666717,0.145868693,-1.062746688,-0.067358552,
-0.839497787,
-0.140598134,
0.201788309,
0.390960796,
-0.181368014,
-0.029376066,0.044114695,-1.214308760,0.529504174,0.413086243,
0.479637872,0.893686425,0.421818083,-0.182659849,-1.000312757,
-0.558133295,0.776004290,0.088047075,1.025221171,0.516859615,
-0.279337747,0.203449733,0.102664513,0.443987732,0.862075602,
0.108029450,0.661357897,1.839448447,-0.000046666,-0.086943278,
-0.262026904,
0.233530319,
0.410466125,
-0.334596519,
-1.024581583,
0.332748536,-1.333328448,0.193330236,0.377339917,-0.082637058,
1.700881213,-0.640146907,-0.079543399,0.619968962,-0.066928334,
1.121930635,0.886765917,0.404995531,-0.133224473,0.111787806,
1.308330728,-0.161614561,-0.972931124,-0.393291093,0.751515278,
-0.776773561,-0.613467061,0.174148463,1.647483528,-1.796873386,
0.357342297,
-0.056702196,
-1.023090487,
1.392671987,
0.158687889,
-0.652585938,-1.304807294,1.062495040,-0.457110187,0.689903804,
0.920246976,-0.305383084,-0.591702843,-0.347162799,-0.366789266,
0.043782300,-0.331821439,0.554822677,-0.537535849,0.724241647,
-0.884928019,0.254801462,0.253663159,0.192894085,0.218937972,
-0.737722046,-0.106337217,-0.601857191,0.066704665,0.363021655,
1.482008956,
0.388308230,
-0.723529192,
-0.237516103,
-0.662087070,
-1.269085365,-0.142503348,-0.666970546,-0.418392629,-0.295221815,
0.454876855,-0.544114685,-0.362291341,0.186107973,-1.860529928,
-1.101317376,0.463314318,-0.185279983,0.770831085,0.098966075,
-0.159290163,-0.044719813,-0.952078723,0.011631267,-0.630938227,
-0.837708170,0.093571445,-0.306878973,-1.031091723,-0.394838641,
-0.711495684,
0.766700230,
-0.352219910,
-0.095642277,
0.148128191,
0.231787774,0.044129383,-0.622329416,-0.869854775,-0.388175597,
-0.133768032,0.842610706,-0.022037753,-0.799936001,0.732000322,
-0.696096354,-0.651921129,0.849026244,-0.253595667,0.669492557,
0.044653686,0.672096595,-0.353126112,0.554780193,0.300931559,
0.072123414,0.092140096,-0.944374377,-1.263114632,1.279418950,
0.087426544,
0.094684873,
-0.223370450,
-0.625590227,
0.102083960,
0.240085579,-1.039933968,0.967091260,-0.349510756,-1.124593824,
-0.178244001,-0.036919660,0.263814583,-0.575732718,-0.934679345,
0.039352863,-0.209153525,1.394741421,1.194807268,-0.105542885,
-0.410475035,0.476174606,0.331315665,-0.053110977,-0.762085117,
0.230445539,-0.121116777,0.302723905,0.162499479,-0.195608611,
-0.048982192,
0.320990306,
0.620565029,
0.547385794,
0.058562840,
-0.493729855,0.314731257,0.655618399,1.106314612,1.268838884,
-0.105306434,-0.639903930,0.374570360,-0.414893115,0.734366303,
1.419985617,
-0.455080927,
