// Neural Network File Format by Kyle Julian, Stanford 2016
6,2,2,50,
2,50,50,50,50,50,2,
0,
-10000.0,-10000.0,
10000.0,10000.0,
0.0,0.0,0.0,
1.0,1.0,1.0,
0.117624168,-0.199191657,
-0.232483530,0.168103411,
0.166511570,-0.088623747,
-0.023655017,0.212274350,
-0.040458012,0.081720845,
-0.027642981,-0.302274912,
0.013801690,0.121632393,
0.018477607,-0.325943791,
-0.162806043,0.204716042,
-0.045813947,0.134646531,
-0.076235864,0.085714162,
-0.033220325,0.097754277,
0.163883518,0.104581538,
-0.258035863,-0.032677366,
-0.003799957,-0.188382256,
0.007801025,-0.042442011,
-0.037427675,0.071867649,
0.149813658,-0.184007362,
-0.107039427,0.264421047,
-0.012220548,-0.087475675,
-0.005919174,0.052044271,
0.057995292,-0.222747824,
-0.086603654,0.115602539,
0.241259292,-0.067123250,
0.178038734,-0.107436070,
0.200992717,-0.118661315,
-0.080203972,0.135767994,
-0.135611024,-0.053212389,
-0.135292453,-0.008270408,
-0.012974525,-0.296850238,
0.000710180,-0.092399157,
0.029878553,-0.215933412,
0.090641566,0.051927687,
0.042212620,0.159844953,
0.032440949,0.035164366,
-0.069474045,-0.094453835,
0.197843604,0.096832103,
0.065753017,0.428889622,
0.065003775,0.120352124,
0.112427012,0.259252023,
-0.069690997,-0.114364255,
-0.068443880,0.017783414,
0.160128521,0.033435239,
-0.035514582,0.214317455,
-0.352758062,0.118088939,
-0.211357158,0.148475788,
0.153457296,-0.059570846,
-0.036908411,-0.099452387,
0.190925773,0.106762682,
0.042787240,0.051843644,
-0.014196978,
0.076321930,
-0.008006366,
0.182703149,
0.022060463,
-0.326022756,
-0.033834098,
-0.150104279,
-0.113650328,
-0.117595056,
-0.016474115,
0.305580123,
-0.127276359,
0.063685514,
0.019301268,
0.059374779,
-0.328467301,
0.122866609,
0.055916982,
0.118602869,
-0.131076784,
0.156520129,
0.100056554,
-0.067990762,
0.024025491,
-0.066813195,
-0.237544019,
-0.065452933,
-0.118619611,
0.211718746,
-0.260553547,
0.168352529,
-0.154273766,
-0.076983425,
0.009760474,
0.011638891,
0.094640659,
-0.195186655,
0.123294288,
-0.295407886,
-0.261003378,
0.096202204,
-0.019858267,
0.216156327,
0.068610501,
0.001978727,
0.196721885,
0.065573037,
0.039037192,
-0.024031624,
0.048547804,-0.085786665,-0.168659826,-0.236785595,-0.087751887,0.219521570,0.145547467,-0.294050111,-0.039698796,-0.128445367,0.012320876,0.146533294,0.144054310,0.010964223,-0.122609488,-0.038199981,0.110760452,-0.033057590,-0.024976700,-0.140358907,0.139579330,0.033015532,-0.087940532,0.063526187,0.092084348,-0.097036808,0.076300129,-0.134998778,0.250964861,-0.097419512,-0.088934166,-0.202025739,-0.094179009,0.095659798,0.069379775,-0.101980401,0.167049909,-0.061966430,0.257627522,-0.218235061,-0.211318583,0.000003579,-0.143512376,-0.026786936,-0.080828668,-0.176654243,0.174673877,0.178685461,0.086336410,-0.023395296,
0.088821469,-0.195889979,0.037342206,-0.197462791,-0.039208787,-0.278285149,-0.098383625,0.118332879,0.058817846,-0.008708863,0.019761165,-0.007275362,-0.010789044,-0.106932524,-0.100894909,0.031661946,0.049900786,-0.171189144,0.042700172,0.412093414,-0.164645023,0.102587901,-0.074442366,-0.183336978,-0.154347418,-0.006367086,0.025344569,-0.021893574,-0.087958149,-0.200117946,0.128671477,-0.085599748,-0.039422112,0.144802490,0.043579786,-0.252391634,-0.096884500,-0.207681902,0.109977167,-0.185647495,-0.236399053,0.137618760,-0.009782016,-0.185373374,-0.060516993,-0.054242812,0.157648873,0.004547887,-0.034831622,0.016820632,
-0.126066961,-0.180927383,0.245453107,-0.267068030,-0.206157022,0.014998693,-0.156736106,-0.197521030,0.110612769,0.198921258,-0.020294560,0.059685526,0.173208228,-0.073715832,-0.002584372,0.080145100,-0.095251203,-0.256579849,-0.092815447,0.237777385,0.171124125,0.085276768,0.319834186,-0.151096548,-0.017595010,-0.231315437,-0.004033514,0.001732805,-0.030762813,0.216935824,-0.350607852,-0.067509693,-0.023435573,-0.067214449,-0.041381546,0.043474171,-0.083294818,-0.094385467,0.122875577,-0.070292048,-0.076243284,-0.240755349,0.093234528,0.092909805,0.035704781,0.079637270,-0.017424615,-0.008837858,0.065579423,0.163782991,
0.239495172,0.166110587,-0.182459840,0.260653937,-0.002396542,-0.209489648,-0.096087270,-0.186582262,-0.206723469,-0.092709904,0.015653418,0.073795887,0.226580029,-0.196342811,0.087813916,-0.050492496,0.173740277,-0.012862066,0.087752200,-0.127637188,-0.077494347,-0.228215078,0.074038738,0.019681975,-0.100678715,0.101130924,-0.185255533,-0.072354517,-0.042576530,-0.026464405,0.161281611,0.155228511,0.021171472,0.145453702,-0.113084102,0.027074575,0.001869533,-0.228903552,0.018780020,0.215828142,0.254534996,0.012341911,0.071444152,-0.025788534,-0.055527893,-0.045210910,0.190150865,0.004067743,-0.195553290,-0.075543679,
0.011453967,0.118373118,-0.002604578,0.042192271,-0.078420300,-0.044499578,-0.088019345,-0.252734078,-0.142731793,0.067428038,-0.069455227,0.128180537,-0.284899084,-0.159409608,-0.164251353,0.035319940,-0.056508128,0.014712900,-0.120000479,-0.265137074,-0.019547745,-0.129846690,0.127408724,0.005029546,-0.145878143,-0.090519429,0.134110342,0.164770878,-0.016257009,-0.173170183,-0.073682374,0.063889065,0.215620880,0.323835775,-0.031295071,0.164530616,-0.181110036,0.164237115,0.018946936,0.047124211,-0.159979222,0.187550919,-0.101002825,0.056251774,0.002281442,0.045227399,-0.111454029,0.123334100,0.224870619,-0.109364876,
0.079591089,-0.056012132,-0.052506613,0.208933580,0.135135863,0.080090229,0.248610310,0.212444892,-0.003685740,-0.151671927,0.129847387,0.023397951,-0.097525948,0.151834940,-0.130017427,0.015248784,-0.159326170,0.150782278,0.214764569,-0.083287003,0.107416481,-0.164414142,0.250173429,0.006064189,-0.080623380,0.216801682,-0.241491938,-0.264732235,0.137783758,-0.247384889,-0.025892764,-0.247573505,0.182752628,0.082395713,-0.081998114,-0.321044457,-0.167855696,0.055639242,0.106039075,0.009799201,-0.001658864,0.260996671,0.224913046,0.160536035,0.012158947,0.138563205,-0.041282065,-0.052043179,0.023044127,-0.034525186,
0.199077318,0.001245291,-0.053662263,-0.135231246,0.158788264,0.120953206,-0.107929743,-0.073526935,-0.052242211,-0.078454531,-0.112194738,-0.034063115,0.143776611,-0.049165399,0.174243434,0.211414675,0.095240003,-0.111503979,-0.239602810,0.083238412,-0.004339654,-0.113747031,-0.199515833,0.133897233,-0.013413545,-0.146323864,-0.099026879,0.023809093,-0.263508105,0.112593743,0.080025026,-0.023816328,0.033971452,0.156844342,0.103188640,-0.228554187,-0.044572048,-0.008003373,0.043956864,-0.134143179,-0.024197167,0.061636100,-0.042600755,-0.106940956,-0.112991524,-0.131303365,-0.033403944,-0.150648897,-0.005605344,0.008437001,
-0.054740596,-0.084794939,-0.059159684,0.284557869,-0.063703658,-0.079560510,0.068888530,0.000526102,-0.187272419,-0.097325860,-0.117392860,0.075404978,0.275038795,-0.077888251,0.137472442,-0.117156839,-0.034549051,0.017051529,-0.044569445,-0.164973509,0.041462896,-0.008805921,-0.006569139,-0.111259630,-0.074344901,-0.174687223,0.009392991,0.052769396,0.058224732,-0.247174230,-0.290054044,0.002759123,-0.101294811,0.050214490,0.227191220,0.043634307,0.177316505,0.086628199,-0.157099516,-0.148780992,0.022760792,0.055509590,0.163541132,-0.068919123,-0.127215875,-0.064758222,-0.184968832,0.007679342,-0.040500503,-0.260437858,
-0.300999509,-0.212913041,-0.109391758,0.200522291,0.264272535,-0.060760611,-0.226948039,-0.201763433,-0.083992060,0.027759769,0.080667198,0.093841676,0.313184016,-0.218573568,-0.005423334,0.038207238,-0.016358043,0.128029607,-0.351217230,0.180273395,-0.129464809,-0.134003625,0.042034899,0.059711829,-0.055599539,0.192451307,-0.103435348,0.024425147,-0.184516632,0.020995546,-0.037671166,-0.148864975,-0.180923106,0.258262131,-0.209146976,0.185652412,-0.016395701,-0.005982387,0.050348740,-0.058184537,-0.136163439,0.085044332,-0.228582081,-0.000728932,0.181429259,0.115465268,0.058293612,-0.070959113,0.209942970,-0.051306591,
0.011079869,-0.146883751,0.045808116,-0.049735670,0.080315244,0.161906574,0.355721597,-0.032577273,-0.145456964,0.024826783,-0.050302228,0.178080999,0.041897892,0.009372454,-0.040215390,-0.063666801,0.031449303,-0.105529468,-0.142705474,0.198445264,0.076052191,0.133105257,-0.130764929,0.103109605,0.065923437,-0.413048559,-0.191615445,0.067435115,-0.090706818,0.173280457,0.070902702,-0.291705901,-0.058847096,0.095021879,-0.017458750,0.013418733,-0.076875476,0.116098673,-0.283078949,-0.056679746,-0.052192877,0.199196991,0.001928483,-0.085551424,-0.166731126,-0.191213223,-0.032107471,0.122068530,0.281678168,0.096520350,
-0.108286439,-0.028363024,-0.153028173,0.141593634,0.114833415,-0.230233419,0.118347976,-0.066586374,0.077284952,0.162210544,0.022313222,-0.079477474,0.064329826,0.058597927,-0.054354574,-0.081887673,-0.010288806,0.065267120,-0.003520545,-0.000382773,0.237488762,-0.100468658,0.201777463,-0.284870874,-0.155357789,-0.322860262,-0.055456264,-0.029774772,0.170140311,-0.027857307,-0.012069030,0.008423503,0.146841011,0.058076635,0.129379521,-0.116290666,-0.112765535,-0.162461940,0.297842719,0.029557022,0.194267586,0.049615617,0.075202817,0.207995567,-0.031047176,0.141504271,0.049082509,0.253300992,0.274238056,0.179035457,
-0.004491807,-0.104173134,0.126756086,-0.036148785,-0.089257856,-0.205624460,-0.220642825,0.088315655,0.105262561,-0.138589844,0.274979305,-0.122594864,0.054836234,0.155456277,-0.139262075,-0.161101137,0.134563657,-0.006560602,0.208819207,-0.015725237,-0.075376387,0.118051317,0.215704983,0.189323964,0.106563240,-0.151910638,0.298217385,0.009156519,-0.016078623,0.105448776,-0.034927614,0.045348226,-0.260654549,0.008544659,0.225097170,0.019555177,-0.066566674,0.235389557,0.235870709,-0.097314628,0.198136393,0.084429540,-0.272940723,-0.049976162,-0.170200706,-0.252470689,0.088333923,-0.058583156,-0.076802005,-0.238423375,
0.128426978,0.351026278,-0.085599051,-0.166880983,0.094739550,-0.072912955,0.014481592,-0.036583226,0.006436533,-0.361240036,-0.119338793,-0.021840560,-0.018387416,-0.029723490,0.005655545,-0.178451579,-0.040472480,-0.245997331,-0.160888433,0.078743459,0.169268337,-0.034268039,-0.205517777,0.325855594,-0.198489552,-0.003293160,-0.023178428,0.008426729,0.071645110,0.053535134,-0.001732299,0.177545751,-0.091454032,0.033713177,0.157031083,0.133326909,0.102815221,-0.105157034,-0.254084189,0.267369892,0.019379639,-0.014051753,-0.076398696,-0.060196423,0.246155467,-0.135005176,-0.151050542,-0.246614902,0.045349416,-0.026514407,
0.154563332,0.178848087,-0.035848800,0.021423739,-0.189898903,0.216697724,0.239064902,-0.055796607,0.028731602,-0.106922047,0.170732469,-0.046182371,0.194985590,-0.007359438,-0.050047365,-0.240705185,-0.064455267,0.148400834,-0.135523707,0.243553468,0.141725427,0.075149250,0.037530532,0.028944868,-0.223303991,0.031178048,-0.020203853,0.159746111,0.087852769,-0.063861671,0.284680116,0.115187059,0.221338635,-0.124189539,0.186254316,-0.129233584,-0.063285000,-0.015545175,0.082284905,0.039931187,0.019608258,0.129194955,0.243500481,0.065085977,0.005372304,0.015985275,-0.073431575,0.153868826,-0.023363956,0.141159081,
-0.117652983,0.084151857,0.086664661,0.145758191,-0.110764059,0.015122569,0.318916139,0.021313269,0.109995129,-0.156719654,-0.121032058,0.093289087,-0.014750897,-0.127795598,0.284654511,0.099783649,-0.220031319,0.124338653,0.104884350,0.206267488,0.018733616,0.039366422,0.342709643,-0.060325372,0.236813011,-0.149909850,0.046035659,0.023554628,-0.190178881,0.118166887,-0.007842580,0.033219680,0.094344882,0.221481003,0.129372296,0.088152905,0.262214126,0.337051934,0.000897368,0.106544161,-0.128664753,-0.171885363,-0.103034852,0.004683334,0.041040795,0.345992355,-0.042679776,-0.195538769,0.231410359,-0.286541884,
-0.055653876,0.045934535,0.061987157,-0.277760363,0.074794734,0.303826840,0.123984254,-0.058181306,0.069478277,-0.104478801,0.066812142,-0.258830219,0.125707208,-0.070657229,0.071927955,0.199291184,0.042882204,0.281184286,0.157204683,-0.048907269,-0.065562491,0.151144738,-0.079172655,0.102664608,-0.038340525,-0.012609132,0.148243878,0.117278325,-0.348231438,-0.206305763,0.268063645,0.169023861,0.055119518,-0.379519266,0.128015718,0.140671583,0.198179530,-0.048692000,0.054014535,0.049388940,-0.103813502,0.201971201,0.136423267,-0.060119052,-0.068149156,0.008927451,0.016889441,0.044970710,0.086416998,0.062526583,
0.017517525,0.032353772,0.121639372,0.230856510,0.001559653,0.063705685,0.126340235,0.165427045,0.167490874,-0.043748133,-0.015593373,-0.015649424,0.103709261,-0.150262441,0.101017779,-0.119325070,-0.112982837,0.008870531,0.129121794,0.108524905,0.151569519,-0.099698541,0.131173433,0.065657092,-0.025472782,-0.114790750,0.222393404,0.118696655,0.066919375,-0.056230984,-0.072217250,-0.057663201,0.019239155,0.039585920,-0.046059781,0.310462553,0.183646587,-0.073650232,-0.066133988,0.122842322,-0.035370918,-0.027809348,0.011157603,-0.178082938,-0.110153907,0.175782525,-0.232257359,0.057147963,-0.099266007,0.057401668,
-0.093218984,0.371929158,-0.004776437,0.154616268,0.270327181,0.031272955,0.253130259,-0.259330896,0.151612762,-0.080187257,-0.047812171,-0.030520386,0.248777615,-0.024074361,-0.022066140,-0.038639828,0.007753214,0.243044299,-0.229129509,0.045350056,-0.113901108,-0.071110497,0.207600468,0.210590959,0.016418352,0.058163337,-0.030139296,-0.230814680,0.084641958,0.308414035,0.078891475,0.210676473,-0.064975136,0.101891108,-0.062016490,-0.032898672,-0.176185856,-0.080245390,-0.024655680,0.261977126,0.285869892,-0.289312506,0.023908032,0.196249604,-0.170866518,0.106428433,-0.000572172,0.168152375,0.137978588,0.138431448,
0.004207550,0.138721977,0.157839024,0.094746648,0.200791890,0.210937242,-0.109897647,0.186441509,0.013231256,-0.260432366,-0.176649360,-0.059547225,0.141050647,0.049547926,-0.020365296,-0.104844795,0.202919564,0.250232629,0.050824511,0.010164881,0.198569544,-0.090736288,0.349222819,-0.033903514,0.189667285,-0.216254663,-0.226568514,-0.097995728,0.008707790,0.233834764,-0.029811748,-0.027619117,-0.121056836,-0.132484957,0.119702766,-0.160788312,0.027261458,0.026796991,-0.077042517,-0.172029726,-0.152461269,-0.055009395,0.027965154,0.113262766,-0.275053197,-0.105678669,0.392476017,0.123532284,0.227864855,0.012729242,
-0.022971196,0.136634848,-0.143844295,0.007393359,0.095140173,-0.195482139,0.102696711,-0.086851861,0.127677327,0.034414305,0.091438912,-0.028108132,-0.109658741,0.019831851,-0.017725349,0.089886638,-0.081458203,0.132460147,-0.068170553,-0.183191436,0.127923283,0.224426632,0.112256670,0.048871449,0.105175050,0.007996056,-0.073273565,0.153643458,0.083511644,-0.017013764,0.237689123,-0.054514205,-0.230334270,-0.431923972,-0.017712649,-0.002200144,0.062840112,0.306747789,0.119898689,-0.270857945,0.052825499,-0.189631382,-0.340839786,0.053885153,0.067160852,-0.062508957,0.048626064,-0.090205425,-0.177809236,0.090890416,
0.008144104,-0.128311475,0.159946555,0.122979091,0.114580703,-0.056030128,0.058051520,-0.047859123,-0.166329214,-0.065457982,0.023976797,0.078195476,0.015447499,0.209864976,-0.058374273,-0.086669563,-0.074629728,0.218349147,0.076454182,-0.011428429,-0.068980814,-0.201238573,0.055814080,0.088618862,0.010365494,-0.440251621,-0.103480689,0.168147532,0.080359564,0.070505347,0.028674114,0.118777411,0.105812236,-0.169700126,-0.169156158,-0.198582723,0.047801419,0.100136790,-0.224985281,0.058046938,-0.192679602,0.337808267,0.305007849,0.003382175,0.062411165,0.029253569,0.018592863,0.064487702,-0.169358086,-0.132575421,
-0.191756241,0.046736517,0.002267021,0.018928599,-0.124559866,-0.138038177,0.049488974,0.062559616,-0.184247307,0.124692211,-0.255909220,0.022296067,0.124137539,-0.050331994,0.193712672,-0.008255337,-0.110656009,0.247559337,0.059265618,0.251705787,-0.151436116,0.176430410,-0.030656680,0.147493143,-0.106626591,0.073053235,0.134138806,0.123210294,0.130137720,0.245200818,-0.000981858,-0.068704209,0.096069867,-0.057975760,-0.046333926,-0.004192613,-0.177124382,-0.221051835,-0.257274551,-0.142508866,0.201705994,-0.019404119,-0.201799716,-0.183482571,0.055831310,-0.102238268,0.006587851,0.016255657,0.076897388,-0.034602901,
0.053872135,0.032022002,-0.325005952,-0.177152374,0.092378685,0.103419875,-0.077151275,-0.180889093,-0.023686148,-0.066057652,-0.055879565,0.165118984,0.059671389,0.219113796,0.078463823,0.092620909,0.345702690,-0.287412040,0.203470579,-0.069052310,0.055155308,0.006538917,-0.164393827,-0.128399909,0.250515951,0.072121834,-0.123719831,0.044789827,-0.081530626,0.144900542,0.092250009,0.016453204,0.034486713,0.003726805,0.019999622,0.098251266,0.294269430,-0.028475218,-0.069727150,0.001239374,-0.127503114,-0.172825192,0.138920105,-0.201474244,-0.039006004,0.179593310,-0.078406456,0.103054664,-0.173667537,0.097773432,
0.000974347,-0.016528493,-0.136719601,-0.127483205,-0.121321143,0.019424453,-0.050787794,-0.128709661,-0.061111159,0.077641223,0.062142468,-0.130778057,0.080976344,-0.017956474,0.150735820,-0.083854968,-0.044802898,0.047267353,0.066602264,-0.136562547,0.077300418,0.097707288,-0.093566509,0.003031567,0.111584209,0.170685809,-0.152270342,0.262483907,0.076091361,0.124473946,0.134672699,-0.067797602,0.179267826,0.050727074,0.308792860,-0.191681301,-0.028019727,0.000270341,-0.191096739,0.015021473,0.063249278,0.063389601,0.099746966,0.320182575,0.058921873,0.043356868,0.055750643,-0.036334228,-0.021707037,-0.094640959,
-0.011282651,0.198916821,0.259221223,-0.269649965,0.145729819,-0.050754674,-0.080208437,-0.043483830,-0.138600734,0.063890812,-0.002587035,0.025790602,-0.374462272,-0.087107624,0.033247724,-0.127810668,0.000423173,0.327060471,-0.014947094,-0.196471882,0.163154684,-0.176969182,0.015639322,-0.133577633,-0.194741258,0.004500726,0.160923067,-0.012890805,-0.151762959,0.261280985,-0.120995580,0.076219199,-0.134120964,-0.252170553,-0.039708677,-0.238357637,0.023921868,-0.090206941,0.051814879,0.205045701,0.027589788,0.118885792,-0.025160184,-0.091654219,-0.124027652,-0.091779495,-0.009423345,0.142169519,0.097835546,0.034472024,
-0.056401317,-0.139124490,0.023404834,-0.125284036,-0.072112100,-0.317589535,-0.217803285,0.121689726,-0.360143276,-0.126057158,0.229216906,-0.038001317,0.176087557,-0.119802839,0.162790544,-0.392879200,0.083767421,-0.209436901,0.046598666,0.081044761,0.007610957,-0.121364883,-0.278268389,-0.075354995,0.095737937,0.101710360,-0.025528798,0.115590448,-0.145700678,0.204405367,-0.048485014,-0.058747396,-0.144356567,0.221314390,0.059011387,-0.100398971,-0.140588434,-0.135304749,0.005583645,0.177892120,-0.114928653,-0.090122975,0.325314291,-0.059649748,0.063146910,0.059179456,-0.147647148,-0.185322816,-0.106154635,-0.052091271,
0.058647699,0.139457949,-0.065942602,0.289469196,-0.153024759,0.078134743,-0.081330041,-0.033812820,0.272864328,-0.098437706,-0.005565094,0.027240791,-0.258453029,-0.172167372,-0.346019340,-0.056262838,0.129284837,0.195256555,-0.018988316,0.019129740,-0.009572212,-0.109767286,0.037412425,0.015417316,-0.076251588,-0.035280939,-0.059400771,0.056421836,-0.012009338,0.027177840,-0.022537319,-0.008201785,-0.119465703,-0.105526491,-0.052237468,0.031748791,-0.058905649,0.164963528,-0.056212076,0.104305552,-0.091389682,0.011296141,-0.138340426,-0.101966714,-0.093720942,0.093842407,0.111742567,0.346952537,-0.114244695,0.011839235,
0.045218557,-0.076786412,-0.195175373,0.108235009,-0.074586658,-0.014949264,0.071597019,-0.012366652,-0.021148861,0.051551334,-0.103276139,0.067076024,-0.062402867,-0.193265298,-0.066957048,-0.170883620,-0.022746070,0.160537635,-0.377592830,-0.187179607,0.004096200,0.141140365,-0.091613523,0.201914954,0.155941959,-0.118399718,-0.151989756,-0.181697492,0.129808356,0.008112891,-0.032146786,-0.114054968,0.121904209,0.089282503,-0.048037278,-0.156880830,-0.065301189,0.112357589,-0.054755328,0.214083838,0.181641716,0.071483243,-0.012964030,-0.032945453,0.136060003,-0.113803582,0.049588902,0.002982725,-0.056274772,-0.269500922,
-0.053809765,-0.132547840,-0.223695547,-0.006619436,-0.007288155,0.017547914,0.276147148,0.054559460,-0.000365004,0.100107581,-0.227429412,0.006954073,0.206616754,0.129349886,-0.015231471,0.119915107,0.012277827,0.054845440,-0.041459902,0.059072669,-0.086733130,-0.133717086,-0.214889222,-0.034319450,0.061250299,-0.100568270,-0.039476459,-0.075501492,-0.101516674,-0.060200112,-0.107565978,0.083642992,0.063963868,0.089412107,-0.062858018,0.008679430,0.063224836,0.112134607,-0.059845837,0.054803681,0.015038951,-0.198494866,0.115136816,-0.178829092,0.265917581,-0.012652831,-0.086131062,-0.119974563,-0.008983633,-0.134541867,
-0.034441356,0.094537528,-0.035364608,-0.214483173,0.109037529,0.190471073,-0.002051943,0.051944737,0.046986854,0.000024625,0.191413039,0.424466610,-0.023468107,-0.173862965,0.195068246,0.223206539,-0.019671257,0.002105598,-0.179716495,-0.313290269,0.092847302,0.163760220,0.224821085,0.144115289,0.021511170,0.195979843,-0.206781376,-0.080567801,-0.216611139,-0.076921433,0.387438387,0.141799882,0.046956912,0.111595791,-0.129600782,0.220905393,0.009471367,0.000581444,0.050431618,0.205997070,-0.133735168,0.042198906,-0.234453186,-0.100127494,0.116105844,-0.135000122,0.176203431,0.024029595,0.060354815,0.123975339,
-0.261570716,-0.030434347,-0.020993247,0.103302972,0.145005908,-0.028321670,0.190754948,-0.112579345,0.157389623,0.029828905,-0.106370093,0.233621634,-0.070641071,-0.011166226,-0.096521821,-0.103890750,-0.130802189,0.109278177,-0.203317060,0.026396301,0.029626015,-0.049912210,0.061460479,-0.027785523,-0.113728784,-0.119518822,-0.146296996,-0.126619916,0.005001036,0.065411859,-0.093764310,-0.006896658,0.078833843,-0.026769793,-0.065493978,-0.105939255,0.109619867,-0.186489943,-0.240237137,-0.193569506,-0.139544652,0.091350722,0.236780758,0.041944549,-0.087795563,0.098413428,-0.039802015,0.004324852,-0.315630665,-0.053081757,
0.090266394,-0.029409384,-0.208480986,0.049829047,-0.061448456,0.124179522,-0.107412475,-0.025988293,-0.016081094,-0.142898559,0.064676827,0.046231887,-0.142687415,0.005810553,0.085248717,0.003526257,-0.165613501,0.052554645,-0.046387985,-0.335818031,0.142794290,-0.139438857,0.028675145,-0.188534097,-0.081309743,-0.055384898,0.206886261,-0.027676668,0.012495561,-0.064629978,-0.112735631,0.081932653,-0.071355103,0.051181593,-0.279795428,0.067851274,0.117325959,0.129313461,-0.219130413,-0.012206226,0.228386447,-0.000114441,-0.328533151,0.226654974,-0.066678883,0.038483235,0.005505682,0.048928565,-0.013749911,-0.042614460,
-0.034971384,0.060692015,0.043306496,-0.069201005,-0.069115616,0.059680057,0.026390502,0.124485618,0.064750650,-0.090244732,0.205164915,0.226072859,0.026793154,0.050129217,-0.067164395,0.201018657,-0.134693936,-0.218833630,0.049047878,-0.186084087,0.019839875,0.208889591,-0.055154085,0.044187874,0.063189749,-0.022629285,0.048073274,0.175116504,-0.064121806,0.008841848,0.062767366,-0.093241814,0.121719917,0.122777713,0.113053711,0.018088703,0.050753658,-0.173545784,-0.259270404,0.089759933,-0.082452002,-0.143749669,-0.140832836,0.070254473,0.134566035,-0.132577071,0.051357063,-0.080115386,0.211377499,-0.159929435,
0.085078375,-0.134060734,-0.097658499,-0.224027596,-0.174936361,-0.273249658,-0.022726707,-0.025297812,-0.065280244,-0.109722721,0.197398842,-0.054460284,0.004602807,0.134689943,-0.102673419,0.043712625,-0.163261731,-0.029772793,0.019321694,-0.007211578,-0.036130500,-0.188697671,0.116668896,0.154293527,0.097695603,-0.067645594,-0.342395796,0.157967536,-0.106556636,-0.088586463,0.034505708,0.056763623,-0.127307743,-0.082453863,0.020757614,0.054533953,0.214325980,0.046838963,0.035634898,-0.148802863,0.069396073,0.161346437,0.193892610,-0.164062394,-0.109842709,-0.044918399,0.177453529,-0.082948195,-0.251652778,0.252320879,
0.114245539,-0.019660688,-0.212694416,0.005529313,-0.143354887,-0.142404732,0.030679228,-0.048033196,-0.054858066,0.129916188,0.052081716,0.232819492,0.006809159,-0.190025500,-0.006694466,-0.202272884,0.005437713,-0.056829734,-0.002343545,0.045953621,0.079856583,-0.222554276,-0.170397865,-0.278211493,-0.104077261,-0.066234188,0.217327458,-0.023008327,0.229724488,-0.009967545,-0.013707681,0.038334887,-0.158748899,-0.183172161,-0.055127793,0.130679149,-0.198094236,0.277317566,0.185732167,-0.140411822,0.118603263,0.164251963,-0.269768974,0.148044326,0.019068159,0.134122531,-0.177718973,-0.104965479,-0.073206993,0.000706361,
-0.100139197,0.088775297,-0.096909207,0.106063169,-0.072283409,-0.043346518,0.118557668,0.229397512,0.230289614,-0.122655462,-0.064959148,-0.059959601,0.023408658,0.241008295,0.239073792,-0.073248418,-0.178691981,-0.034458224,-0.042007636,-0.065659675,-0.109738393,0.175965857,0.177313362,0.075417087,-0.106632737,-0.039488134,-0.082957802,-0.085872042,0.074635398,-0.062097074,0.092198604,0.103087498,-0.093649294,0.167481099,-0.072301271,0.021989589,0.083387800,-0.063369830,0.065899470,0.226578050,-0.240784902,0.043773111,-0.177910341,0.103021405,-0.027525320,0.300979965,0.024415805,0.137296489,-0.079643100,0.118501281,
-0.100194735,-0.102418496,0.121561081,-0.013865847,-0.062447902,-0.048996735,-0.091181073,0.030768256,-0.041863860,-0.023901294,-0.087915934,-0.201266587,-0.153124908,-0.078247264,-0.032070165,0.076783633,-0.152865109,0.071815595,-0.102809040,-0.193092879,-0.108472116,0.004840746,-0.051673513,-0.074848048,-0.220773124,-0.037480894,-0.015725347,-0.013749105,0.276347695,0.102255982,-0.074029883,0.109105739,-0.138177662,-0.052926006,0.001134306,0.117907229,-0.112322387,-0.051700335,0.148942942,-0.022460304,0.122613651,-0.194812464,-0.093644363,-0.006057584,0.059097137,0.195937450,0.291494115,-0.090931155,-0.060679917,0.119859516,
-0.070972601,0.153133717,0.132956338,-0.241800882,-0.140168492,-0.003471369,-0.119744643,0.094426285,0.018370202,0.163483548,-0.073255354,-0.175765743,0.032354268,0.202943081,0.043670229,-0.102804943,-0.021290909,0.196110574,-0.254277670,0.044351356,0.098688984,-0.267848041,-0.161512510,0.170408209,-0.327173557,0.224156122,0.076831368,0.073690048,-0.027112217,-0.290962244,0.260559637,0.188447827,0.159413457,0.142062639,0.112601094,0.274911879,-0.156395853,-0.292830434,-0.000861092,0.096579570,0.025857033,-0.027819118,-0.074907270,-0.002596224,0.102186467,-0.030411870,-0.009538722,-0.037298869,-0.174335849,-0.074897735,
-0.129777123,-0.227725131,-0.144653845,-0.174410073,0.138990771,0.013605380,0.158924499,-0.197999237,-0.042919485,0.121885142,-0.081326444,-0.298203990,0.001301567,-0.031791396,0.144173752,-0.010959451,-0.106353606,0.007363052,-0.199767500,0.122184247,0.132615318,0.175445168,0.002904067,0.043643800,-0.047439989,0.115861056,0.261023163,0.095812270,0.004843066,-0.103573409,0.036290864,-0.099942341,0.052262152,-0.094476978,-0.061017806,0.044553894,-0.156865967,-0.262133451,-0.074602620,-0.142886300,0.083402319,0.146875317,-0.033298848,-0.127370213,0.171756513,-0.076977944,0.336390368,0.093808018,-0.096783596,-0.068357935,
0.045445333,0.041639761,0.123448712,-0.083722528,0.080118872,0.057681519,-0.293947161,0.128195546,0.120735358,-0.034722206,-0.125254752,0.137474392,0.016969063,-0.048667589,0.004201315,0.003548395,0.208207458,-0.055365127,-0.069165171,-0.048313376,0.008060286,-0.125604770,-0.191942469,-0.026191765,-0.195541755,0.071498399,-0.066739078,-0.081165302,-0.041305498,-0.110562528,0.014984231,0.016084930,-0.319126177,0.057258519,-0.034110853,0.045517418,0.162662011,0.160553691,0.078313606,0.037041193,-0.114438275,-0.067249151,0.018024887,-0.098163443,0.092350417,-0.026973912,-0.266685114,0.012684817,-0.123466410,0.055933376,
0.200194992,-0.190199659,0.145807199,-0.034738523,0.033502074,0.017067044,0.205008146,0.007207480,0.017698484,-0.072587571,0.122702704,0.047913952,0.025406135,-0.100923002,0.122206314,-0.101593353,0.230899384,0.043833856,0.107248124,-0.022780379,-0.011696354,-0.015743819,-0.236858856,0.004879736,-0.132679091,-0.029663763,0.231569233,0.002986166,0.177806336,0.016408521,-0.100355247,0.123558942,-0.253234456,0.159766506,-0.075004432,-0.134895757,-0.016760730,-0.046991413,0.087101346,-0.071048349,-0.058103941,-0.097409653,0.007271580,-0.037968274,0.041002493,-0.326871011,0.196353381,-0.071256983,0.177300926,-0.064795609,
0.100251715,0.297922068,0.031570412,0.121216773,0.050404924,0.062757582,0.127390147,0.035345965,-0.311817615,-0.019591621,0.109246976,0.179684843,-0.172543147,-0.001536221,0.112213916,0.263530527,-0.168877169,0.119092593,0.053823138,0.055341008,-0.040859078,0.166642986,0.016109778,-0.213111635,0.054249880,0.211938229,0.178752632,-0.164394119,-0.096080659,0.120398136,-0.043101601,0.007937386,-0.092609460,-0.040881254,-0.201638941,0.021946381,0.045404172,0.060484983,0.067642117,0.220413877,0.123469752,-0.084225953,0.035621666,0.016446837,0.153498127,0.214872160,0.186860638,-0.118907100,-0.029968862,-0.072682726,
-0.164180370,0.373835330,0.071615220,-0.310262466,-0.053222271,0.093884293,0.179186083,0.198508146,-0.085513735,-0.176909763,-0.149322517,0.081375827,-0.229848319,-0.015578422,0.118394480,0.057975415,-0.193433645,0.028054685,0.348809384,-0.228612453,0.023552546,0.180867989,0.134588152,0.130957202,0.141818730,-0.162280234,0.004612261,-0.131990724,0.002842232,0.112655483,0.232985216,-0.075249176,0.048418219,0.011614982,0.060776849,-0.126932318,-0.086262209,0.133580050,0.081714917,-0.176974162,-0.135048460,0.043215612,-0.079113140,0.139407555,0.160701966,0.311653166,-0.230403660,-0.127634253,0.069786088,0.012827231,
-0.008409491,-0.077204324,0.003580088,-0.389033695,0.190048506,0.007558097,-0.130225205,0.092886924,-0.083488158,0.226031052,0.120156349,-0.184460624,-0.069848585,0.067201588,-0.207556620,0.060170964,0.050933955,-0.203380236,-0.074467180,-0.131090853,0.179161469,0.046479564,-0.040245811,-0.025929645,0.025033153,0.061911835,-0.086244003,0.059145838,0.489107512,0.111694743,0.065667611,-0.391140628,0.030913509,-0.155632869,0.095567733,0.028989822,-0.061932392,0.228565563,0.274011661,0.158268721,0.065448955,0.065905409,-0.020065643,-0.175972203,0.118951720,0.094588088,0.240641564,0.072250692,-0.041658222,-0.001854136,
0.071999801,0.075656487,0.068426271,0.326410723,-0.213642638,-0.106508426,0.106355752,0.102555263,0.043392509,-0.200546205,-0.127053219,0.051553888,-0.256679283,-0.088867678,-0.032536547,0.059021454,0.193846885,-0.112655852,0.393204216,-0.023606971,-0.000496451,0.142202272,-0.020255408,-0.101409183,-0.126292720,-0.247862232,-0.014038915,0.163545843,-0.273357924,0.039335097,0.008454609,-0.006192530,0.086274492,0.415736462,-0.064214323,0.180250698,-0.217915456,-0.113309631,-0.017554538,0.032934733,-0.158281881,-0.006342358,0.287613294,0.043035916,-0.090414713,-0.040507892,-0.088967521,0.111478080,0.165104510,0.096076482,
-0.075638372,0.090753435,-0.158467478,-0.123938306,0.012117027,0.024312254,0.008326782,0.097441047,0.077421257,0.042065617,-0.233411637,0.080632355,-0.193548002,-0.281676849,0.025394250,-0.149049906,-0.191496069,0.133454331,0.049297442,0.101947141,0.028288934,-0.054430902,0.145344858,-0.095867636,-0.010702252,0.254960787,-0.090864938,-0.076337749,-0.215553914,0.121352728,-0.080055974,-0.169200734,0.038374158,0.008424592,0.073344912,-0.044517362,0.239044897,-0.031223490,0.248794958,0.190488627,0.157753672,-0.200446909,0.127266519,-0.114306479,0.106039158,-0.206341405,0.200492952,-0.008241421,-0.117393783,-0.012361722,
-0.071693609,-0.115875997,-0.051315736,0.054655807,0.132157177,0.251822399,0.102056640,0.044670203,0.045865718,0.209331002,-0.016225024,0.149980381,-0.190280743,0.079185140,-0.068334804,0.072965631,-0.194587732,0.271312277,-0.085468086,0.106079585,-0.266235439,0.054501069,-0.051969460,-0.010209046,0.046477092,-0.033100274,-0.144482752,-0.186021360,-0.023153103,-0.048194595,0.096751350,-0.124355918,0.062100905,0.285610320,0.066559095,-0.071904669,0.082139596,0.029545332,-0.161716310,0.005776832,-0.197739657,-0.003244457,0.031633142,-0.066619649,0.369088140,0.083506831,0.043834339,0.074180866,0.026646355,-0.071496019,
0.112628813,0.279918633,-0.128298550,0.010404073,0.065966910,0.115041573,-0.022681381,0.116587378,-0.174207146,0.013410223,-0.135223100,0.128323122,0.264815252,0.353229165,-0.056041566,0.009807750,0.005658587,-0.034293563,0.110361072,0.156798827,0.168221617,0.141377104,0.004336542,-0.132836600,-0.046173772,0.262424600,0.118564610,0.133534872,-0.031458624,-0.039188573,-0.061630056,0.067633874,0.020391347,-0.098150665,-0.046739212,0.090045636,-0.045866144,-0.259738834,-0.003724714,-0.113647345,-0.065637653,0.022429784,-0.025041863,-0.019746667,0.153441457,-0.301927911,-0.088083645,-0.202045587,0.048411693,-0.009995840,
0.112795147,0.142219545,0.006277498,-0.084372203,-0.143427448,0.062907570,0.293221521,-0.014305123,0.040568295,-0.192081494,0.013282251,0.167033919,0.306908957,-0.162562209,-0.346740114,-0.096540593,0.088375456,0.008163792,0.153678951,0.113444646,0.047554890,-0.214033778,0.086989372,-0.072290057,0.091166535,-0.278747918,-0.233807991,0.026732267,0.191627084,-0.197216903,-0.114438904,0.117094623,0.076011444,0.089040755,0.090464288,0.102400544,0.040466950,-0.279897786,0.080292965,-0.112411140,0.123612900,0.107890781,0.110288121,0.082749811,0.223205117,-0.012557160,-0.000866562,-0.068628964,-0.172192198,0.203489120,
0.181329096,0.312932986,0.027073822,0.189493749,0.029610734,0.111006799,0.162617036,0.005057512,-0.110969366,-0.012852842,-0.082929783,-0.172977363,-0.142103744,-0.038834552,0.155106089,-0.223251704,0.149743066,0.004417273,-0.339889289,0.008356933,0.100201488,0.107814123,-0.304444011,-0.143626078,-0.234740386,-0.000225350,0.213869790,-0.021586949,-0.137316443,0.146992076,0.061050197,-0.008350669,0.023809828,0.080323540,0.111575864,0.276899766,-0.115074813,0.281292221,-0.012340213,0.001143486,0.275094343,-0.047916307,0.144196338,-0.225291579,0.142463829,0.168060629,-0.108383746,0.236613312,-0.096354633,0.042476735,
0.112619534,
0.121530503,
0.143429744,
0.163870396,
0.157616738,
-0.036498838,
0.157214484,
0.128224424,
-0.037877158,
0.016440578,
0.157010925,
0.007273255,
0.125661442,
0.049335758,
-0.091722042,
0.268892944,
0.047699883,
0.028876626,
-0.110541025,
-0.085144838,
0.002145041,
-0.106212829,
-0.079558773,
0.010505487,
-0.093497272,
-0.029825839,
0.274584814,
0.161461710,
0.109933244,
-0.110747587,
-0.096976660,
0.190711321,
0.087564871,
0.057467154,
-0.002554279,
0.078070401,
-0.115865079,
0.278471261,
-0.149238422,
-0.286859828,
-0.268975350,
-0.275149441,
-0.078693306,
-0.117344081,
0.051875548,
0.026103967,
0.248190926,
0.085040610,
0.270409257,
0.014738302,
-0.132665831,-0.008553719,-0.129877247,-0.006603720,0.026695149,-0.125663863,0.006383294,-0.074620177,0.035755567,-0.153599338,0.009197182,0.038205674,-0.081451232,0.183487764,0.334280497,-0.040315294,-0.201121222,0.036727755,-0.110151231,-0.029715841,-0.217460828,-0.016154161,-0.117747664,0.082510021,0.013210258,0.132761437,0.010513632,0.045989329,-0.087794323,-0.079858687,0.309201678,0.049587015,0.114921286,0.131964658,0.030450052,0.173237366,-0.133185233,-0.314948619,-0.269696396,-0.000527430,0.168118168,0.260742391,0.181651205,-0.093213329,0.076598010,0.089162248,-0.003729679,-0.258550443,-0.125636357,-0.070144404,
0.067404290,0.056796733,-0.202806978,0.168851905,0.260280944,0.122982795,-0.053769403,0.072927691,0.277828620,-0.131286263,-0.054337648,-0.145442954,-0.060408044,0.011626962,0.069358095,-0.173060924,-0.111411500,-0.027912900,-0.087791063,0.099715421,-0.108954219,0.068684137,-0.248806574,0.039423756,0.018807061,-0.003533508,0.233757358,-0.016889550,0.275843595,-0.230586033,0.042422732,-0.167808084,-0.192270720,-0.058970032,0.021599269,-0.209279154,-0.229442992,0.144721529,0.120282542,0.189604613,-0.005333396,-0.031547928,0.088915942,-0.048052948,-0.149005104,0.127123558,0.108685141,-0.326076602,-0.150886358,-0.034992534,
0.053262821,0.000853627,0.105590495,0.252052334,0.052075361,0.233402396,-0.000265628,0.008859417,-0.056434979,-0.142019669,0.208822799,0.020608794,-0.082292700,0.153025060,-0.179511539,-0.076914293,-0.015239971,-0.059577678,-0.196346927,0.051976580,0.071762830,-0.208723069,0.111210984,0.127782798,-0.044392882,-0.081985788,-0.008753373,0.041143342,-0.000992643,0.141685698,0.342108726,0.091222823,-0.119609783,-0.027890064,-0.202436331,0.196348340,-0.145952257,-0.113158737,-0.099653644,0.122910329,-0.103833293,-0.133539510,0.089015265,0.052903979,0.037238302,0.184835112,0.080065301,0.098584196,-0.008515219,0.124742035,
-0.183294350,0.160056597,-0.133213680,0.093700616,-0.290103548,-0.005224461,0.488518993,-0.144774905,0.003532139,-0.088575845,0.007966412,-0.148106485,0.156950868,0.011312965,-0.112412921,-0.152303647,-0.027862045,0.115794247,0.045458179,0.098357260,-0.100119326,-0.023757373,0.054626842,0.109390754,0.253001816,-0.075855980,-0.107657595,-0.050688815,0.091567816,-0.070457749,-0.044593976,0.083829727,0.048299319,0.027448879,0.140884317,0.008632323,-0.001327048,0.059063720,0.163550557,0.108695373,-0.174775634,-0.012605612,-0.050755710,-0.122429258,-0.058948694,-0.099280362,0.097343014,-0.267345218,-0.268885112,-0.099582058,
0.077764896,-0.184920543,-0.160939374,0.104407441,0.036610765,0.016991720,0.045163799,0.287665043,0.053867108,0.029597582,0.018475736,-0.053524981,-0.248295640,0.173509102,0.157281222,0.362995375,0.028528168,-0.208437671,0.180374367,0.145819169,-0.104119644,0.081991079,-0.174601388,-0.206080836,-0.069931559,-0.218663119,0.147795307,-0.025273970,0.141058484,-0.208412132,0.108627085,-0.037484680,-0.166796395,-0.060700380,-0.019676012,-0.116674660,-0.385797327,0.110781292,0.124345769,-0.026363118,-0.060855548,-0.065574159,-0.199927540,0.054788167,-0.007749130,-0.118451834,0.074649692,-0.048448944,-0.182278003,0.033410968,
0.167480573,-0.130894797,0.012929871,-0.217100465,0.064039762,-0.038801463,-0.001598376,0.062897255,0.116037290,-0.034219795,0.233383104,-0.131098536,0.033562093,0.047376473,-0.125757332,-0.090778233,-0.165075190,0.201966029,-0.086093516,-0.167182417,-0.120558695,0.158519800,-0.004187024,0.053470309,-0.147413167,0.185034525,-0.249920782,0.064329100,0.033689842,0.097032289,0.079163778,-0.064401515,-0.200726732,-0.250630829,-0.138997330,0.293997364,-0.061718276,-0.117676414,-0.153485638,-0.069824779,-0.117814127,0.007668642,0.233166358,-0.029510156,0.044216982,0.138945994,0.110914801,-0.349998893,0.032200501,0.047142822,
-0.176283334,0.043230299,0.139521501,-0.154893953,-0.173589090,0.137136877,-0.291415234,0.031124567,0.028066328,-0.116637909,-0.173071894,0.190016564,0.048871104,-0.089507601,-0.101415906,0.262046658,-0.042590710,0.114422208,0.117256649,0.030906826,-0.230533970,-0.148096513,-0.012813802,0.280159048,0.208232603,-0.154927909,0.114581987,0.060128974,-0.170891615,0.177898583,0.156391256,0.376099262,0.097696688,-0.045343226,0.084696856,0.111861924,-0.102770274,-0.204828213,-0.126715518,0.096318898,-0.284599599,0.006586637,-0.200710924,0.149037182,0.361879767,0.123110171,0.224936403,0.091710614,-0.135333406,-0.306922452,
-0.213732263,-0.323433608,0.003986720,-0.192819990,0.155889826,-0.116063375,-0.146987997,-0.023586296,-0.181688317,-0.068468620,0.050688123,0.039628262,-0.109750729,0.005527926,-0.080808955,-0.003106470,0.226182233,-0.189133212,-0.065024603,-0.105675939,0.193934621,-0.019320659,0.067774647,0.003438301,-0.103293885,0.103345811,-0.039086006,-0.103338765,0.053124425,0.135793625,0.245415067,-0.057385749,0.084513996,0.071681456,0.008550530,0.131676696,0.077928543,0.018333905,-0.126845746,0.183368601,-0.032908502,-0.048483684,0.016696657,-0.061733763,-0.073002807,0.049857807,-0.046582545,0.003100828,0.257984061,0.141628383,
0.256493026,-0.035540845,-0.129657570,0.046169253,-0.047856780,0.187868781,0.006106430,0.028995788,0.080773380,0.038362976,-0.139130512,0.134801267,0.041199679,-0.202122507,0.062881652,-0.038804507,-0.037057621,0.065325266,0.073393911,-0.109310893,0.122076620,0.039303356,0.131440119,0.136872906,0.073379937,-0.039499202,-0.262179433,0.027626930,0.089557730,-0.260221878,-0.138068649,0.034216889,-0.236966489,0.105511876,-0.276593944,0.139577352,0.340335755,-0.003268055,-0.291880430,0.104489336,-0.381905550,0.227962907,-0.290012086,-0.237479737,-0.446985967,-0.180947918,0.179475228,0.173689001,-0.103434607,-0.092751641,
-0.224608390,-0.135610751,-0.050926992,-0.136781958,-0.157223939,-0.159054534,-0.015918760,-0.035414203,-0.098385277,-0.045668335,-0.154401739,-0.176400366,0.085358981,-0.157779553,-0.147736827,-0.025456376,-0.159487135,-0.153604015,-0.047791443,-0.135210552,0.044480215,0.015160331,0.126197280,0.182867984,-0.096710772,0.222892564,0.022176085,0.098759079,-0.047465618,0.019243607,0.383905929,-0.011196388,-0.179580186,-0.140251630,-0.037133947,0.254691377,-0.010049863,0.178885228,0.112161859,0.049231807,-0.014454798,0.126797441,-0.117551512,-0.001497430,0.084028769,-0.137629920,0.152010753,-0.133367103,-0.142244893,-0.146386134,
-0.088533648,-0.013898154,0.076478748,-0.283595845,0.299371390,-0.273255837,-0.066186718,0.221656939,0.183083529,-0.023387841,-0.298003256,-0.079866571,-0.085757148,-0.004381821,-0.104960929,-0.209961157,0.077084922,0.146057442,-0.126372890,-0.183071452,-0.045707500,0.068604868,0.029368274,-0.007211059,-0.003683844,0.020456685,-0.003280090,-0.020785191,0.081538241,0.170525051,0.105543970,-0.159980916,-0.165722179,0.055796915,0.151359467,0.160658777,0.039800873,0.051930187,0.021434871,-0.159938984,-0.141305559,0.191446522,0.009028684,-0.007472290,-0.089678174,0.104608330,0.129842440,0.020807558,0.179721697,-0.103456846,
-0.094814659,0.114871438,-0.256566390,-0.139151113,0.192306792,-0.093587224,0.121440647,0.058338560,-0.161764397,-0.075122950,0.111483107,-0.064841352,-0.052507282,-0.282224227,-0.152135770,-0.035820660,0.130469514,0.032472508,0.203536887,0.214213973,-0.146166043,0.049367080,0.224025391,-0.056643900,0.040853949,0.032481812,-0.064424574,-0.211190310,0.070813415,0.285353411,0.109227540,0.119394700,0.085534372,0.012283980,-0.051867164,0.096275870,-0.010248193,-0.192569048,-0.020401542,0.007960548,-0.010934031,0.054142752,0.067111297,-0.014320381,0.024619363,-0.349971658,-0.126064749,0.337889632,0.268923398,0.002348170,
0.261069261,-0.157450297,0.066297410,-0.041714835,0.088103564,-0.099352836,0.082674102,-0.233227672,-0.052439291,-0.103462401,-0.016991603,-0.079822392,-0.169604922,0.153992678,0.126056022,-0.114384262,-0.043918795,0.010260455,0.091000309,0.005736696,-0.053662505,0.116929378,-0.147645342,0.083108724,-0.149235509,-0.088053445,-0.153502529,-0.139299064,-0.009661405,0.152909494,0.061703196,-0.036502126,0.114784159,0.076139660,0.199151391,-0.151833247,0.244311141,-0.354939820,0.114378730,0.152417207,-0.003892593,-0.163842105,0.197939010,0.189010114,0.004809550,0.283219586,-0.130189975,-0.149915987,-0.011041764,0.041140559,
-0.124778901,0.103019769,-0.162374603,-0.027231821,-0.221744986,-0.050417150,0.086696555,-0.096654001,0.146762441,-0.106466721,-0.027231149,-0.066079860,0.052120604,0.107491313,0.007147537,-0.238727329,0.154003072,0.094308874,-0.261066909,-0.351224950,0.374885883,0.027936818,-0.259579425,0.003309938,-0.159593953,-0.108648525,0.111466675,0.213848913,-0.036793136,-0.048171207,-0.097736628,-0.108004815,0.131028278,-0.237158840,-0.257160738,-0.136653832,-0.066408786,0.039471864,-0.310377941,-0.064092339,0.002752951,-0.003252162,0.268255669,0.012921345,-0.022087884,0.277228039,-0.225011896,-0.046583326,0.145122875,-0.038004746,
0.019328881,-0.229607663,0.001983686,-0.141346352,0.023678792,0.074042586,-0.084308472,-0.317224003,0.259829347,0.121769687,-0.261026438,-0.180380190,0.171577974,-0.051367806,0.074172147,0.180381246,0.036520429,-0.199762916,0.134758157,0.209897063,0.148727138,-0.033463697,0.066339977,-0.154576324,-0.192784055,0.020417353,0.014767758,-0.011901479,0.250864269,0.043981959,0.007442861,0.083537208,0.162778010,0.047605182,0.086349840,0.115730524,0.008612975,-0.249798289,-0.090347826,0.095239421,-0.038722099,0.269268666,-0.256612247,0.061955860,-0.044088068,-0.008027714,-0.282808465,-0.137060866,0.036963325,-0.203039306,
-0.020825986,0.127761919,-0.182793817,0.068347977,-0.231181052,-0.079353940,0.115507878,-0.229469014,-0.145351630,0.230297275,0.058336445,-0.251456514,0.228838047,-0.023712475,0.029758675,0.253491083,-0.041732200,0.009908046,-0.017717935,0.042792686,-0.054646714,-0.005288624,0.121100277,-0.073495708,-0.246682150,-0.037113567,0.145975255,0.197779690,0.187483720,-0.212589787,0.004471831,-0.050157331,0.168100100,-0.033198403,-0.135587913,0.140589122,0.043570361,0.099867913,-0.124658250,0.179031706,0.122197226,-0.014126915,-0.114817291,0.096780438,-0.370904291,-0.278952701,-0.084828627,-0.129311181,0.013979138,0.135103214,
0.236924100,-0.223950449,0.064654397,0.159194095,-0.165133376,0.007228121,-0.187418544,-0.006146072,-0.255691470,-0.097567211,-0.017783829,0.077354062,0.047490793,0.183607065,0.173337051,0.003562531,-0.121489597,-0.085388211,0.086085098,-0.158478755,-0.107880571,0.059860624,-0.034813747,0.009306270,0.143035375,-0.101339768,-0.073349355,0.003673314,-0.061941725,0.084032084,-0.357810477,-0.046731390,-0.020162984,0.043484946,-0.116504577,0.270588354,0.010268528,-0.099494186,0.055946424,-0.143072000,0.134962169,0.052663183,0.137337281,-0.032428369,0.055839584,-0.128283009,-0.019819197,0.074067020,0.074232106,-0.071418629,
-0.179450203,0.002991748,0.054875601,-0.021413185,0.172751623,-0.207588898,0.108704923,-0.050827034,-0.038107034,0.166008963,0.202241381,-0.298391080,-0.114512768,0.170747628,0.326496819,-0.262209304,-0.041568230,0.144017055,0.038491620,0.181099680,-0.054776425,0.062064360,0.264255893,-0.108660266,-0.021408030,-0.091314089,0.136177950,-0.103380641,-0.027933579,-0.088225485,0.047944608,-0.178370902,-0.231249075,-0.115455221,-0.224962539,0.137460475,-0.244986751,0.025623757,0.282667157,0.283138586,-0.015876987,0.082170395,0.129518134,-0.234580905,0.049335335,-0.059844010,0.011979077,-0.118056417,-0.014591327,-0.223335169,
0.059140053,0.025701255,0.041387564,0.046661771,-0.100867232,0.107373801,-0.213407719,-0.066076128,0.223447118,-0.010314500,-0.050907654,0.390889507,-0.081925379,0.239795950,0.105087696,0.129488741,0.111635248,0.093205195,0.173734086,-0.262333885,0.007354983,0.059317433,0.066180015,0.043521683,0.101755791,0.027180605,-0.360185713,0.111960388,-0.213017336,0.075408775,-0.073508102,0.006670341,0.071104150,0.155516835,-0.191880048,0.067903173,0.010603770,-0.361220553,-0.123076376,-0.148212093,-0.121596553,-0.072825616,-0.020227822,0.126914129,0.095882598,0.285331551,0.123004736,0.269022883,0.183857304,-0.207827754,
0.148724051,0.077461466,0.085584758,-0.036454066,-0.027512385,-0.138989733,0.088288742,0.058018865,0.117135446,-0.134119377,-0.017964650,-0.027493870,0.054576849,0.034563829,-0.266521410,-0.037984824,-0.068891548,-0.051222696,-0.165892932,0.009431824,-0.102794156,0.292038870,0.174085726,-0.043764034,0.189432402,-0.276992122,-0.045407059,-0.147892309,0.246937372,0.228833239,-0.047274621,-0.028739067,0.114261106,0.080157553,-0.055481088,0.058054816,-0.145697223,-0.044022376,-0.276166602,0.020565840,0.006509899,-0.129010095,0.136150614,-0.067631702,0.053371342,-0.101452428,0.108635261,0.173869452,-0.036264642,-0.012663040,
0.053519988,0.167360990,-0.192844109,0.231722347,-0.209696465,0.101007149,-0.041185729,-0.173808799,-0.047671694,-0.029149728,0.036329683,0.013779086,-0.008626216,0.020394173,-0.003923994,0.083157901,0.176799637,0.031586277,0.110839808,-0.090459025,-0.002078979,-0.059777566,0.045163259,0.108381660,0.152668985,0.010052389,-0.053945181,-0.055352895,0.178969717,0.069152785,0.141067204,-0.165806465,0.071898525,0.219028862,0.200242652,-0.008143092,0.052570704,0.083684857,0.274831589,-0.039033040,0.073926308,0.194674073,0.006620435,-0.135658130,-0.021387730,0.151795733,0.007951717,-0.010012926,0.143978354,0.123450864,
0.021177622,-0.235386792,-0.321368603,-0.245821409,0.094748316,0.162241679,0.104881502,-0.191321117,0.224539821,0.222537694,-0.208505189,-0.122033602,-0.053012676,0.051383179,0.022740911,-0.204267304,-0.017419731,0.307371169,-0.212011060,0.157231926,-0.190222908,0.239364320,0.029095692,0.054518362,0.282032546,-0.203110412,0.063649337,-0.107682781,-0.047450031,-0.046051893,-0.205194338,-0.284430094,0.080691997,0.274495086,0.073823219,0.056537969,-0.009049721,-0.016534238,0.035347299,-0.083077118,0.063078204,-0.088348930,0.137922368,-0.091455723,0.119759165,0.203544961,-0.203344008,-0.166551656,0.106075346,-0.138959036,
-0.128838479,0.119282872,-0.021157186,-0.036976879,0.319418446,0.100231653,-0.038620540,0.082230170,0.011666658,0.279802065,-0.155050686,0.059487059,0.026603960,-0.033359596,-0.226976338,-0.147844253,-0.308831888,-0.086139909,0.145535552,0.072035431,0.155897149,-0.176213525,-0.090213796,0.004529570,0.174259858,0.217864435,-0.066297313,-0.043898605,0.048317296,0.132333622,0.050144529,-0.019640330,0.062063304,0.006692373,-0.074191765,0.044154518,-0.271948116,0.173272941,0.026452956,0.109380718,-0.124819481,-0.005737511,-0.057948091,0.128985380,0.037866825,-0.016600134,0.052127217,0.105146801,0.263235128,-0.332782211,
0.195466932,-0.124581664,-0.180833807,-0.110841120,0.023544641,-0.030894081,0.017078612,-0.045885430,0.322874291,-0.059476485,-0.027182521,0.040428722,0.063244376,-0.247014267,0.098996752,-0.210230177,-0.031242959,0.218355236,0.015697657,-0.275522810,-0.194919446,-0.032938318,0.034249046,-0.216476662,0.098098382,0.140304174,-0.123646993,-0.233075099,-0.196749261,0.075376117,0.216410727,0.051472541,0.135313690,0.059738157,-0.244202885,0.207180594,-0.219245394,0.011501500,-0.061351937,0.098754038,-0.197808031,0.010991288,-0.053629291,-0.028762794,0.132489883,0.094244404,-0.207081393,-0.130190764,-0.061508732,0.138171158,
-0.172250239,0.252148159,0.248921928,-0.011888816,0.162887340,0.002651689,-0.036025190,0.102463971,0.154833439,0.001496587,-0.124500547,-0.158116120,0.207394281,0.106942829,0.189355695,0.256763929,-0.012839780,0.205910870,-0.047825232,0.104040333,0.076775838,-0.178157907,0.230496900,0.171148230,-0.279092834,0.004248804,-0.080723286,0.076607146,0.014514569,-0.222282941,0.016056217,-0.036467728,0.132476301,0.001601258,-0.046006292,-0.043590672,-0.222333528,-0.046512865,-0.029575801,0.115285230,0.062737206,0.028651308,-0.035477924,0.033184115,-0.225900912,-0.121370651,-0.262179422,0.194661841,-0.027658032,0.192966917,
0.079766927,-0.248346911,0.103525775,0.074688371,0.014980802,-0.015664297,0.127584816,0.122517124,0.093326021,-0.103787506,-0.046807679,0.117262095,0.183459583,-0.056119501,-0.091268636,-0.006264137,-0.119997822,0.214902501,0.013703661,0.230745316,0.043399087,-0.054616027,-0.135303146,-0.203969653,0.071185611,-0.002136477,0.092481660,-0.015984742,0.026626285,0.151806263,-0.010162961,-0.072589639,0.189721303,0.032146820,0.159231810,0.101164549,0.022052340,0.043204723,0.021589002,0.354377113,0.136221539,-0.228616653,0.197046048,0.043105711,0.084154936,0.007851729,-0.297292893,0.063052724,0.183657227,-0.004884583,
-0.087352643,0.086378223,-0.047533343,-0.002661002,0.011316455,0.052987785,0.145307756,0.047935260,0.065805663,-0.084292695,-0.076082717,0.005612473,0.096177518,-0.110231172,-0.105860974,0.019738590,0.079458368,-0.386542062,0.138844560,0.021182785,-0.090208771,-0.147361721,-0.203355749,0.066561896,0.185691209,-0.163192264,0.159616763,0.128781070,0.050401917,0.008351728,-0.205188891,0.081624762,-0.019279329,0.002365162,0.160922827,0.046090071,0.054037387,0.068122149,0.170633918,0.053051795,0.147889540,-0.021845289,0.062530819,0.097255292,0.041784730,0.071110877,0.193671792,-0.416804894,-0.054567061,0.118720746,
0.097422652,-0.042180871,0.135513509,0.159179889,-0.089532232,-0.015649083,-0.014844407,-0.344730105,0.121278288,0.037434426,-0.282539235,0.155862295,0.203506050,0.056494750,-0.277083005,-0.045089463,0.148254590,0.336344860,-0.030179673,0.018499221,0.185635413,-0.042223543,-0.021224504,-0.169066969,0.102894122,-0.108056892,-0.148583352,-0.198059229,-0.079319757,0.018697595,0.018531948,-0.209753642,-0.165565161,-0.092667469,-0.037343119,0.159584747,-0.164377709,0.147131856,0.062956071,0.109589079,-0.014678686,-0.049793630,-0.083309501,-0.293595272,0.025282026,-0.002885023,-0.302731587,0.064567906,0.130056943,0.184741328,
0.051020240,-0.036533623,0.060770601,-0.035228758,0.168414059,0.217319232,-0.330260505,0.001327670,0.111391138,-0.171935990,-0.210148258,-0.114344104,-0.038814447,-0.339593469,0.159478144,-0.319182713,-0.357003993,-0.071991152,0.112764192,0.033939741,0.000250975,-0.064558529,-0.039038604,0.074394627,0.250789192,0.060170956,0.000112500,-0.008367598,0.075426616,0.203662236,-0.024415654,0.007324331,-0.120164381,-0.344526557,0.182463317,0.312816363,-0.289565112,-0.066428453,-0.013168656,-0.261019684,0.156142533,0.344714423,0.066023763,-0.114502549,0.013036444,0.000190220,-0.041240448,-0.153822251,0.135758338,0.020695381,
-0.188912994,0.212484132,-0.084866784,-0.133090433,0.068421543,-0.204936308,0.093309899,-0.081206587,0.312619070,0.175795349,0.000979760,0.114867776,-0.023768281,0.058536838,-0.055706676,0.156362874,-0.257134959,-0.169331369,-0.037219862,0.123217505,0.105415796,0.049035631,-0.039201275,-0.005156432,-0.081512949,0.035444948,-0.135974560,0.296685491,0.184784359,-0.156365066,0.044909526,-0.066166645,0.127230307,0.007335486,0.184800566,0.110465140,0.232847253,-0.092172422,0.174319158,0.131063346,-0.050970112,0.179082608,-0.128803618,0.095036097,0.056524386,0.136035071,0.002023250,-0.024432615,0.186214690,-0.053006765,
-0.069804538,-0.015245826,0.095736826,0.048112123,-0.056111551,-0.120527075,-0.180309958,-0.126677211,0.175039036,-0.051379085,-0.090143000,-0.071794569,0.074308029,0.070987177,-0.169789938,0.099613707,-0.050727608,0.117086568,-0.040557224,-0.093272960,-0.088726744,-0.086100339,-0.030202347,0.184709651,-0.053709055,-0.424990617,0.058382347,0.138271473,-0.063985347,0.036501063,-0.107197635,-0.108333439,-0.093397958,-0.006721592,0.131775182,0.029000434,0.163235298,0.349767566,-0.198479408,-0.102838855,0.250480920,0.028004136,0.072985663,-0.386136833,-0.042551026,-0.125209762,-0.069834910,-0.084028239,0.159128972,-0.269986138,
0.168604972,-0.100329397,0.140162547,-0.142059041,-0.018522365,0.046520055,-0.050853166,0.070092722,0.172661430,-0.193670245,0.013831169,0.042786933,0.151962599,0.021741543,0.092340419,-0.121975700,-0.075202343,-0.114869531,0.048847341,0.059171055,0.116801044,0.295561194,-0.071058492,-0.116333068,0.080415711,0.002526685,0.154622564,0.039561369,0.078885145,0.041582601,0.104029011,-0.012915103,-0.295111592,-0.007099846,0.064073729,0.006736135,-0.007982480,0.262478891,-0.078094702,-0.244675475,0.062335687,0.227098518,0.128544819,-0.126006612,-0.397202174,-0.048716943,0.144442133,-0.094764451,0.035250128,-0.081638567,
-0.004872890,-0.147400752,-0.238587178,-0.169925942,0.081520652,0.016558217,-0.016021038,0.218836588,-0.015012703,-0.137883763,0.262108661,-0.163947038,0.099491399,-0.120346831,0.078447092,0.216619938,0.035854807,0.187307691,-0.070748637,-0.044037598,0.014467673,-0.025585776,0.168381735,0.031409239,0.112368777,0.223738065,-0.100390986,0.151770121,-0.138465907,0.193907072,0.036201984,-0.190242505,0.153737371,-0.058059195,0.011118980,0.092343526,-0.025319918,-0.143357192,0.078777583,0.208029696,0.210040380,-0.066357316,-0.096593680,-0.228097062,0.208396393,-0.081974583,0.193928497,-0.110414424,-0.105233070,-0.046693393,
-0.257454426,-0.007106595,0.109684538,-0.064973923,0.044514940,0.099481755,0.226068014,-0.138916136,0.013732004,-0.009610738,0.064278678,-0.112670287,0.070001818,-0.001641746,0.078820605,-0.121326998,-0.031626347,0.037069483,-0.073357417,-0.033195077,0.077560809,-0.129108574,0.165983664,-0.100115796,-0.069454632,-0.247374640,-0.092724976,-0.019351349,0.169323835,-0.029601879,0.133341561,-0.166575275,-0.123415000,0.022129917,0.228269756,-0.235376677,0.059589651,0.339259693,0.034432160,-0.138259837,0.067478248,0.099661186,0.230047857,0.109875951,0.238026064,0.013834820,-0.224817608,0.092534201,0.156637526,-0.006315816,
-0.133964763,0.101833294,0.096271144,-0.138442725,0.000319458,0.034884111,0.000014881,0.012774933,0.119848928,0.275233885,-0.064835006,-0.068145042,-0.096629046,-0.291446783,-0.121210441,0.094970387,-0.066762390,0.061826257,-0.016135205,0.086721368,-0.092893402,-0.176239577,0.006365960,-0.009667818,0.182462236,0.121610102,0.288677620,0.054832163,0.163552680,-0.024279195,0.045651206,-0.228653593,-0.046984819,-0.050753580,0.250470819,0.013316383,-0.209705254,0.102866686,0.176539622,0.176760183,0.074332709,0.154664487,-0.175478726,-0.067639883,0.121110120,0.129314624,0.051149872,0.040266464,0.178145617,-0.076651867,
-0.088809231,0.035191915,-0.211102678,-0.000732613,-0.200431191,0.140386918,0.244596747,0.076381645,-0.128459252,-0.073885849,-0.182124444,-0.111786490,0.277405568,0.010260825,-0.087583610,0.124008719,0.224309323,-0.016643016,0.016377536,-0.252025368,-0.166963498,-0.051003838,0.200965756,0.207934551,0.055452365,-0.030562553,0.095529724,0.051299659,-0.139108054,-0.070909825,0.180778360,0.160204988,-0.057810800,-0.011082255,0.088443965,-0.212453403,0.314024207,-0.020649769,0.071606578,-0.253282290,0.066519307,-0.236641577,-0.032187136,-0.062336660,0.000175604,-0.019555141,-0.095807156,-0.016284578,-0.100056495,0.198233279,
0.105085452,0.076013217,0.156235855,0.057604095,-0.164814990,-0.080192814,-0.087672160,0.135761954,-0.210673946,0.266829024,0.074964662,0.023241883,0.254552501,-0.401208398,-0.103075039,-0.004089789,0.013891482,-0.094111034,0.138859167,-0.010179392,0.072561206,-0.150887210,-0.283957333,-0.102908494,-0.030064722,-0.010642545,0.064642692,-0.038318463,-0.049153501,0.029242183,0.068641215,0.058608511,-0.166235367,-0.054931825,0.042508748,-0.000718992,0.271595001,-0.149651899,0.179960057,-0.224347043,0.098283502,-0.086525685,0.025691426,-0.257966722,-0.187621696,0.209350082,-0.089375751,0.070820865,0.164766672,0.206513734,
-0.012684017,-0.172270831,0.156768586,-0.050213484,-0.175913627,0.058995706,-0.069214108,0.089292392,-0.079150162,-0.209010277,-0.064711090,-0.034842123,0.080469391,-0.045054862,0.168540900,-0.020928802,-0.001030821,0.030722193,0.037386939,-0.099866803,-0.093203207,0.119054377,0.009797736,0.042314446,-0.008300315,0.038496242,0.157886924,-0.097017184,0.324761332,0.127435335,0.092458568,0.020013312,-0.028963671,0.086478511,0.239395803,-0.222133068,-0.192570701,0.239897677,0.206108089,-0.114742832,-0.112680508,-0.050625439,0.108217160,0.102614837,-0.021363000,0.095783902,0.170603854,-0.143542191,-0.073461473,0.086407502,
0.091788162,-0.232874084,0.030076460,0.344567865,0.217003443,-0.157621385,-0.103900292,0.238978955,-0.052819660,-0.251951811,-0.038014316,-0.244633840,-0.182789018,0.073274834,-0.119571777,-0.173096823,-0.244362361,-0.154756808,-0.140326420,0.033968899,0.136305302,-0.111361900,0.054043053,0.008983704,0.311934536,-0.097284044,0.043231123,-0.045518511,0.243362170,0.102408324,0.185489062,0.108224461,-0.171965832,-0.164442903,0.079552480,0.037143028,-0.055621385,0.259674610,0.009984644,-0.032979804,-0.261301422,0.033055924,0.081575234,0.072251836,-0.051175990,0.071469083,-0.140252739,0.076243280,-0.070271423,-0.167475410,
0.106171728,0.073640245,0.002144706,0.055126029,-0.156054610,-0.131630364,-0.149365109,-0.086522477,0.104897477,0.052021749,-0.180014317,-0.121190191,0.084689272,0.198761795,-0.203880290,-0.007464136,-0.176586915,0.146539510,0.006258387,-0.048404655,0.018975966,0.076681659,0.068637251,-0.249398726,0.066924073,-0.059031738,0.079910022,0.177453759,0.191677714,0.248493439,0.208947882,-0.070139170,-0.008011509,0.129479115,0.371498641,-0.016706081,-0.073022192,-0.159621630,-0.160892315,-0.140129003,0.134143471,0.058909625,0.325048848,0.009060956,0.031182134,-0.103641386,0.035163407,0.259387741,0.138882459,-0.046881511,
-0.102216979,0.078231912,0.005677862,0.203774640,0.089304661,-0.089614376,0.269646149,-0.319570581,0.098983014,0.014939422,0.188303575,0.414374220,0.040249258,-0.036380279,-0.171167891,-0.108725757,0.009931256,0.101860571,-0.066637998,-0.110902033,-0.013395553,-0.055905113,-0.007503423,0.283299576,0.090111808,0.012477571,-0.092090827,0.101536251,-0.121169890,-0.143341827,0.153560621,0.226401199,0.102631432,0.000157990,0.042508637,-0.008081089,0.200979784,0.037670523,0.139032492,-0.015461446,0.168719921,-0.106115777,-0.035207529,0.224728007,-0.070253493,-0.072090724,-0.066575774,-0.058109120,-0.048492336,-0.076589583,
0.010239820,-0.028216168,0.057524137,-0.115175311,0.061115432,0.022585110,0.070484723,-0.110050068,0.124201208,-0.052366952,0.080913583,0.143338386,0.146043018,0.187772884,0.228123925,-0.059911788,0.179210519,-0.229969289,0.063000749,0.221143130,-0.123448896,0.147584282,0.069058296,0.034385056,0.016135244,-0.054714908,0.140110639,0.024445954,-0.140061638,0.085731282,0.115811486,-0.053754330,0.129550783,-0.002757042,-0.141358757,-0.098783675,-0.001511649,-0.000402101,-0.160119001,-0.195246356,0.061852894,0.055273863,-0.270630169,-0.211409669,0.030489650,0.008469314,-0.191921605,0.021908821,0.158845853,0.033269477,
-0.079374424,-0.105665569,-0.072547050,0.079973647,0.011068949,0.114200664,0.029490130,-0.149392277,-0.067832176,0.263005204,0.068201241,0.032396690,-0.014203877,0.053907161,0.057878618,-0.235562968,-0.005525076,-0.029556648,0.100975458,-0.019858090,0.214602080,-0.130946477,-0.148760322,0.303027328,0.133110527,0.067004414,-0.035023901,-0.032624119,-0.101126895,-0.067716712,0.005113646,-0.012121748,-0.061693774,-0.199598083,0.176299102,0.096308883,-0.224282218,0.145703400,-0.250626545,-0.049435055,-0.202486132,0.100381603,-0.060749715,0.177670048,0.141388565,-0.040220712,0.076320107,0.112503777,-0.036432991,-0.067510408,
0.102147745,0.252735961,-0.096692721,-0.120200668,0.033181367,0.134184837,-0.122320491,-0.106975930,0.125289355,0.140546370,0.189633844,-0.024539772,-0.088485128,0.076565224,-0.056272853,0.136258816,0.255389363,-0.011790065,-0.320478901,0.092334482,-0.191710688,-0.141281323,-0.128774495,-0.207409883,0.031246981,0.055349551,0.017577555,0.197831245,0.024514112,0.025084020,-0.180227251,-0.263396739,0.122647815,-0.077153978,-0.266269571,-0.145825635,0.132006494,0.148550359,0.001230656,0.107144034,-0.055068613,-0.125118872,-0.218593434,-0.075630414,-0.082252545,-0.118242366,0.013658810,-0.036243667,-0.044393873,-0.068443189,
-0.188436071,-0.180816094,-0.064939559,-0.399823864,0.021115460,-0.000082697,0.238869627,0.064925281,-0.021763444,-0.251570460,0.064299197,-0.245934357,0.233971499,0.167408490,0.148069652,-0.063707088,-0.011385125,-0.017958629,-0.001058710,-0.068558055,-0.175516306,-0.201439849,-0.142883421,-0.028104099,-0.136349661,0.089163481,0.328971976,0.199616193,-0.201511271,0.050639574,0.009970330,-0.134190810,0.024400369,0.127643727,-0.000441781,-0.132806032,0.202980008,0.013479739,-0.041117320,-0.075988794,0.075327457,0.133663558,0.009974170,-0.229545276,-0.187639400,0.114934198,0.021165327,0.009153377,-0.099167227,-0.026075904,
0.175195218,0.023642698,-0.141566292,0.103002389,0.182336772,-0.095240381,0.010370364,-0.161313266,-0.025016497,-0.081248664,0.090603239,0.075494374,0.055523635,-0.035722180,-0.089757183,0.360275812,-0.215303663,0.117902839,0.037932350,-0.202621218,-0.270862766,-0.046715242,0.078760655,0.210255863,-0.046557944,0.171129516,-0.001613992,0.041165186,0.028341838,-0.061594211,0.238030206,-0.198992719,-0.222773242,0.017126450,0.263329580,-0.172145985,-0.208089954,0.181935212,0.128816160,0.160772300,-0.114009145,0.019271953,-0.059550945,0.024647367,-0.014868242,0.092135272,-0.121798687,0.120971649,0.162316052,0.026195363,
0.000966776,-0.225257076,-0.108373975,0.081054252,-0.064592253,0.030825037,-0.101456115,-0.126019103,-0.009317898,-0.004519759,0.066375554,0.078360420,0.056407893,0.132410530,-0.184962195,-0.114946455,0.103493027,0.151566330,-0.029012769,0.073366413,-0.047455367,-0.117876572,-0.091221901,0.101117714,0.022765060,0.026900856,-0.133527906,0.045312419,0.092629852,0.291906835,0.201202657,-0.052366584,0.021678508,-0.021251188,-0.098407702,0.070734268,-0.155675530,-0.067767899,0.262081119,0.039949375,-0.367387578,-0.149578831,-0.154512555,0.265444415,-0.012506551,-0.182809693,-0.019032643,0.060755034,0.001638895,-0.000838514,
0.122811496,0.084601467,0.128705709,-0.123219207,-0.055445631,0.018017466,0.014294186,-0.142588285,0.083726508,-0.145321227,-0.163581993,0.069773010,0.104496645,0.004353170,0.062396339,0.077222247,0.072741538,-0.184574549,0.027195662,0.133912671,0.030861036,-0.175928707,0.078622341,0.043676087,0.033161420,-0.090116512,0.185427289,0.073542972,0.075735095,0.166617307,-0.065798755,-0.067282270,0.024641531,-0.156790629,0.160536087,0.048831073,-0.143745792,-0.149096004,-0.140395477,0.043536260,0.001601061,-0.149569304,0.001221958,0.207967574,-0.025109528,-0.018785280,0.017875487,0.050698195,-0.008722899,0.025832351,
-0.147109885,-0.118841009,-0.145740416,0.054397544,-0.101790320,0.304844136,0.054855889,0.059512123,-0.045810910,-0.357204780,-0.239548061,0.111741970,-0.120026898,0.055062585,0.200485009,-0.134771003,-0.115452153,-0.119598089,0.034386993,0.087782546,-0.047545709,-0.150666695,0.008608880,-0.198984089,-0.116014303,0.012935519,0.172447891,0.146147529,-0.012370230,-0.176040477,-0.080429867,0.019364076,-0.235616266,0.006372870,-0.045777823,-0.011978810,0.085985295,-0.074256014,0.322790512,0.357334283,-0.153698585,-0.223517069,-0.293690774,0.185685702,0.027199988,0.145158223,0.031891736,-0.150838243,0.046797228,0.109624494,
0.237546162,-0.103894411,-0.072958762,0.171396331,0.017227309,-0.061054421,-0.056913025,0.013905945,0.102913291,0.043919645,-0.013246726,0.008829298,-0.028114723,-0.148798704,-0.050953528,-0.057121444,0.004277821,0.053492085,-0.085164101,-0.082440021,-0.059183214,-0.032375491,-0.084901485,-0.047145375,-0.044504178,-0.034449201,-0.013085729,0.009154190,-0.234136442,-0.153234554,-0.027287849,-0.192900948,-0.083116915,-0.114682564,0.106861094,-0.202439358,0.011142083,0.000839885,0.136916978,0.117190762,-0.019091073,-0.065196122,-0.075992293,0.135770837,0.088718382,-0.225065098,0.144419938,0.008184864,0.283146461,0.183038595,
0.048721813,
-0.184852310,
-0.192586455,
-0.228473967,
-0.070048706,
0.230813463,
-0.333380729,
0.088133590,
-0.052523218,
-0.036926618,
0.205585300,
0.070198706,
-0.058965465,
-0.051616261,
-0.122302317,
-0.008604402,
0.110453539,
-0.115399261,
0.007802626,
-0.074389993,
-0.011888224,
0.317863841,
-0.129742287,
0.033739192,
0.191077446,
0.249806903,
-0.189649438,
-0.058505769,
-0.087258270,
0.246004203,
0.024271317,
0.407853303,
-0.046202051,
-0.029189177,
-0.139046975,
-0.225438695,
-0.136354099,
-0.054897785,
0.343853213,
-0.225961086,
-0.085796524,
-0.070692318,
-0.182236314,
0.026270457,
-0.115630093,
0.173740582,
0.231933128,
-0.086932835,
-0.235228425,
0.215813507,
-0.113482371,0.214974800,0.106196812,-0.103432640,-0.083042044,0.241497391,0.106473988,0.184161654,-0.103475644,0.218045228,0.152585295,-0.214876746,-0.024127887,-0.051370546,0.011517872,0.283943502,-0.000194907,-0.067616225,0.021722202,-0.016043682,0.128628283,-0.221259283,-0.064465742,0.068488502,0.230738294,-0.091416626,0.090481227,0.104404554,-0.073818831,0.042939248,0.062181722,-0.018218489,-0.164046536,0.342745541,-0.165891974,-0.062374220,0.004951044,0.186777668,0.008694792,-0.053799476,0.289556566,0.126965669,-0.255919480,-0.053625735,0.068228605,-0.157433288,-0.068054302,0.005577319,-0.196932070,0.056439080,
0.082695983,0.036259646,0.033218352,-0.085485601,-0.259688090,-0.027932711,0.061812890,-0.133388150,-0.135742184,0.118781582,-0.077562005,-0.124407681,-0.107931758,-0.062404022,-0.149837246,0.129677006,-0.064148147,-0.002307881,-0.154019962,0.141691628,0.085709815,-0.028516082,-0.160300865,-0.147185941,-0.022355379,-0.288349050,-0.080699933,-0.175563675,0.002069688,0.039453022,0.299047725,-0.033522772,0.038398252,-0.117839417,-0.105803143,-0.035691760,-0.168649827,-0.108863208,-0.034431593,-0.071818571,-0.202422572,-0.054706169,-0.204768970,0.119832435,-0.179192640,-0.017758886,0.042481195,0.220902644,-0.008192996,0.072299245,
0.050581099,-0.142391931,-0.100798093,0.031166698,-0.087396182,0.037848312,0.247361468,0.160347821,-0.097234615,0.068613130,0.165981327,-0.042070952,-0.139789408,-0.120202813,0.053328833,0.158276090,0.011246015,0.112737683,0.097478674,0.187881523,0.115007613,-0.091379609,-0.110046272,-0.121445237,0.018714830,-0.077460530,0.063672569,-0.012461561,-0.053740616,-0.070146680,0.193766040,-0.085465911,-0.024506060,0.160539135,0.192061840,0.210801120,-0.012203895,0.273064197,0.145714058,-0.038889942,0.028650726,0.135401883,0.110889101,-0.087822597,-0.251994158,0.124196892,-0.044226227,-0.165425055,0.364952738,-0.050244031,
-0.030441021,0.195380066,-0.027753531,0.106843531,0.098421632,0.100669134,-0.175841185,-0.070254641,-0.118233997,0.120737154,-0.046634183,-0.198307928,0.032419348,0.021130728,0.173734071,0.459496319,-0.029218401,0.299568324,0.092067448,0.036858101,-0.258927087,-0.185544539,0.127724911,0.043411318,0.072913256,0.165234422,-0.017906592,0.053882056,0.078761157,0.056880260,0.042889528,0.116968988,0.023904262,0.129354797,0.066439951,-0.062318069,-0.057544112,0.172622799,0.057869225,0.061761413,0.185310452,0.289580375,0.261840320,0.106762615,0.004771282,0.191567320,-0.125532403,0.171764940,-0.001418254,0.195300322,
-0.097644306,-0.083567010,-0.020536643,-0.154379642,-0.203012146,-0.109501830,0.075037266,-0.064221264,0.056574426,0.108763552,-0.094460747,-0.375166680,-0.009493802,-0.308683098,-0.028159424,-0.135132867,0.093172478,0.062445905,-0.056885568,0.046080113,0.107570126,0.019056068,-0.210860632,-0.144707055,-0.051520439,-0.068239687,-0.040348744,-0.035830972,0.037029814,-0.002794046,-0.175171426,-0.104475438,-0.066835209,-0.052690431,0.048150459,0.140357538,0.358556336,0.063163883,0.107137169,0.146640341,-0.062241729,0.119719177,-0.048687874,-0.200963069,-0.168269878,0.171736772,0.113047940,0.187284386,0.215531150,-0.064330519,
-0.097844786,-0.071512391,-0.006371860,-0.123598880,-0.337919065,0.033628048,-0.025627959,0.110410316,0.191435946,-0.274965425,-0.166038907,0.299229488,-0.092817479,0.085982650,-0.113443306,-0.092533420,-0.024385384,-0.159657030,-0.029380328,-0.087015801,-0.069269363,0.090519223,0.040770914,-0.214192214,0.055766777,0.048280389,0.017055000,0.119348712,-0.099844904,-0.241798835,0.017413608,-0.064756571,0.055860741,-0.015425527,0.038779233,0.087828744,-0.222076858,0.033604471,-0.108721928,0.205812211,0.055212694,0.005754446,0.059055217,-0.107284247,0.150064147,-0.005223585,-0.139460234,0.114160507,0.227319845,0.000179300,
-0.030837395,-0.185792330,0.026759956,-0.125190017,0.019042287,-0.339408622,0.142019564,-0.129657567,0.006881035,-0.059245543,0.067640502,0.341144176,0.152739174,-0.030235509,0.108250508,-0.194622122,-0.045887916,-0.053505890,0.019113099,0.036088312,0.252578048,-0.202553916,-0.046670803,0.131957275,-0.059205259,-0.274842717,0.088717839,-0.190930615,-0.007176583,0.099519391,-0.075199489,0.231151936,0.195550096,-0.032126579,0.189259578,-0.165395828,-0.068414991,-0.147377036,0.279285898,0.067276106,0.101404849,-0.068317899,0.110229321,-0.258843630,-0.091373381,-0.049807293,-0.020957198,-0.128316849,-0.062034978,0.075329556,
0.154456978,0.037222422,-0.112004705,0.145129542,-0.136391425,-0.150813346,-0.022735645,-0.168191198,-0.167579507,0.052730706,-0.124120034,0.071187990,-0.218599530,0.104424361,0.317120851,-0.123839049,-0.048135177,-0.096177965,-0.068898947,0.015065350,-0.259394589,-0.116737785,0.168807300,0.176119596,-0.122307887,-0.037551162,-0.185841737,0.299964716,-0.218138785,0.121714210,0.099599218,0.072827419,-0.017560662,0.185997338,0.137890698,-0.046477009,0.293566404,0.168841425,-0.145848968,-0.227061920,0.079741909,-0.065032335,0.171882260,0.081766738,-0.094575176,0.118257960,0.066046200,-0.128796342,0.059552573,-0.110414535,
-0.135938494,0.078528828,-0.081231793,-0.137320063,-0.125272361,-0.059209558,0.056948057,-0.357623965,0.229675550,0.219240567,0.092631119,-0.013465864,-0.039708892,-0.009830505,0.001754360,-0.017917383,-0.286098538,-0.096740681,-0.010074465,0.057795082,0.150626882,0.129974493,-0.133119293,0.006343015,-0.047780218,-0.054735617,0.329896923,-0.121784679,-0.102277598,0.359929135,0.064704142,-0.013201339,0.231170945,-0.091971785,-0.029312403,0.169217252,-0.255902713,0.178405080,-0.039054572,-0.310823321,0.110520372,-0.051161818,0.014434313,0.069556797,-0.067274840,-0.024042484,0.210863454,0.049163433,-0.136655772,0.251137827,
-0.162669518,-0.107824446,-0.046618535,0.070247356,-0.077713003,0.155138787,-0.266036793,0.235778918,0.063278001,0.006217470,0.321797467,-0.063608326,-0.021715845,-0.104779570,0.044891520,-0.153119952,0.236650744,-0.168944464,0.053997792,0.045801047,-0.081382436,-0.013722470,0.011336522,-0.188094429,0.065438525,-0.239972951,-0.126121327,-0.079467804,0.249827080,0.263166924,-0.143916549,-0.164569155,-0.053547546,-0.199795606,-0.280078776,-0.047109074,-0.013239080,0.288555940,-0.186167636,0.158990457,-0.142066469,0.114446849,0.076610318,-0.043367359,-0.243265342,-0.299378736,0.274704309,0.093476263,0.038844797,0.054680875,
-0.055226704,0.014727087,0.009805920,-0.277060075,-0.063551650,-0.161978173,-0.214589086,-0.081887422,-0.090959672,0.107728865,0.160041582,-0.097306109,0.093456901,-0.083494635,0.127318391,0.065528212,0.141984890,-0.195311750,0.060711715,0.137636529,0.015549351,-0.049587903,0.094925198,-0.090278972,-0.094382662,-0.118690659,0.216477806,-0.154376320,-0.158993106,0.053521165,-0.052192859,0.166511113,0.031830316,-0.094859315,0.053572481,0.142133053,-0.002874255,-0.196078592,-0.323571285,0.056451993,0.004096355,-0.128721515,-0.003552593,0.263295546,-0.133301026,0.092912245,0.055926436,0.013732157,0.274854286,0.142947659,
-0.086554322,-0.207903458,0.037287976,0.059637290,0.112938734,-0.243501812,0.127309907,0.198426439,0.088492881,0.078056727,0.159387459,0.108578104,0.153394939,0.092930020,0.132411183,0.119403775,-0.010660540,0.214182267,-0.237942997,0.043127582,0.142583738,0.163821141,-0.373417341,-0.155320347,0.110728491,0.205219779,-0.121843796,-0.181797431,-0.024873837,0.052349527,-0.004178619,-0.063327826,0.017360508,0.079675632,0.120826243,-0.015223599,0.168515902,0.079302055,0.102457727,0.104805104,0.048042858,0.113322696,-0.119597255,-0.014116089,-0.199925402,-0.275879349,0.051593052,-0.006625938,0.147661071,-0.069780573,
-0.173074727,-0.222186374,-0.033310539,0.023450326,0.123561951,0.118430426,0.154733840,-0.052139384,-0.028949813,-0.238896476,0.065305871,-0.259548674,-0.091367905,0.011028029,-0.155072859,-0.068387552,0.137657987,0.073868357,-0.008512462,0.068068426,0.113573954,0.075515682,0.010930340,0.004063218,0.029034265,-0.222461641,0.244300803,0.050614484,-0.118627814,0.436098745,-0.021636890,0.011156403,0.049601102,-0.001850117,-0.019297677,-0.231320424,0.000041449,-0.169260089,-0.278841946,0.149884939,-0.049671253,0.017409848,-0.207869139,-0.224987389,0.249344173,-0.132650333,-0.048014141,0.004192225,0.136786086,-0.188775366,
0.064282153,0.067688543,0.003443511,-0.111844041,0.035780445,-0.193453999,-0.170877978,0.177361329,-0.010112076,-0.272825196,-0.162917802,0.086123920,0.139797700,0.034634550,0.038333914,0.032693173,-0.094909068,-0.365238215,-0.017927831,-0.263273739,0.339239835,-0.035836792,0.263963060,-0.182461998,-0.057657929,-0.113362061,-0.028443286,0.169013382,-0.233604730,0.051656804,0.209166787,0.322225025,-0.047710213,-0.177769134,0.088812150,-0.055213108,-0.172599232,0.125903756,0.216977887,0.096573389,0.035192017,0.153745252,-0.054343470,-0.185872221,0.091853214,-0.062899857,0.059491034,-0.402779342,-0.064441510,-0.088426303,
-0.012193648,-0.053723962,0.011945652,0.132351116,0.140460485,-0.022576966,0.042643165,-0.276591892,0.174102876,0.004049764,-0.056499270,0.093054411,0.076031035,0.069832808,-0.012738202,0.181805993,0.017039638,0.028924910,-0.213745115,-0.163631510,-0.038273728,-0.040915927,0.056588807,-0.141568383,-0.090854292,-0.150274479,0.053871184,0.066912652,-0.060612454,-0.012444358,-0.050138752,0.179624852,-0.085220738,-0.038513231,0.116759671,-0.242115265,-0.123784257,-0.169788001,-0.000324455,-0.021307646,-0.179946456,0.058999336,0.266030674,-0.012876082,-0.023018817,-0.009797908,-0.150159327,0.002036116,0.111596508,-0.046365806,
-0.085772526,0.070764811,-0.117283410,0.193912043,0.145400547,-0.057672663,0.010837692,0.276704050,-0.139830602,0.002970961,-0.132637665,0.254165761,0.004128574,0.197024065,0.137736800,-0.073822354,-0.207461950,0.206299662,0.052498045,0.048587204,-0.074978392,-0.066911842,0.120928433,0.116034397,0.112047970,-0.108669689,0.001381604,-0.046134475,0.045356386,0.089425210,0.238695707,0.025695594,-0.092222976,-0.013975675,-0.018417877,0.197962179,0.093748899,-0.031486736,-0.004370244,0.096919196,0.175325368,0.182661028,-0.138152284,0.112965741,0.042331806,-0.018659336,0.159523187,-0.059136134,-0.251518782,-0.269904717,
-0.044640713,-0.191404198,0.162029768,-0.094514599,0.010722101,-0.040178069,-0.046566871,0.252406449,-0.001084374,0.034634693,0.149432715,-0.001421557,0.013016991,0.003957514,-0.157516556,0.350589366,-0.174154322,-0.009700335,-0.236815303,-0.042920523,-0.044080534,0.110814392,0.223410686,0.031506625,-0.026053726,0.081357123,-0.027696422,-0.280856536,-0.051455666,-0.353477445,-0.144190567,-0.010305834,0.042963260,0.109534786,0.011571728,-0.213642121,0.106445784,0.092087679,0.073642323,-0.052299480,0.103789431,-0.062676583,0.176713939,-0.341820677,-0.013966250,0.002720081,0.074017245,0.196337146,-0.089362808,0.307719269,
-0.201508730,-0.213350417,0.122068289,-0.191690795,0.102112886,-0.065331510,0.026888151,-0.056033833,-0.043521167,0.168474874,-0.097602640,-0.091693441,0.251248139,-0.081385706,-0.133224619,-0.044638441,0.191315008,-0.146225335,-0.169694889,-0.279747487,-0.125391405,0.196557658,0.063511327,-0.092233727,-0.033540332,-0.086886540,0.139220094,0.212478140,-0.062162943,-0.065432937,-0.098728891,-0.097580937,-0.080444795,-0.126564119,0.122476046,0.170441777,-0.211615312,-0.091781125,0.170944250,0.083646394,0.079708587,0.196384245,-0.045144695,0.126772483,0.199534138,-0.267209320,-0.287662943,0.159040606,-0.052374386,0.168346837,
0.232081364,0.032306668,-0.209014780,0.133208549,0.076788274,0.009540555,0.061351468,-0.097092010,0.089313893,0.011445069,-0.060429635,-0.153944249,-0.144215444,-0.400788739,0.011487138,-0.003150337,-0.071472065,0.016065542,-0.371241605,0.175155271,0.137101910,0.137229280,0.009052508,0.041403969,0.085748385,0.014837347,0.048687279,0.206227864,0.101035518,-0.069567265,0.084262629,0.039494839,-0.116825760,-0.199216565,0.186782648,0.189611263,0.138229365,-0.120973550,-0.080733455,0.237716230,0.011731790,-0.050879651,0.013718357,0.070154379,0.006211607,0.225947259,-0.241101009,-0.237572816,-0.151727432,-0.027448585,
0.190431157,0.025214581,0.003337489,-0.237326827,0.004969128,-0.040750852,-0.033512661,-0.014197833,0.215384608,0.056778948,0.177426217,-0.063858752,-0.294081904,-0.061958720,-0.207904445,0.257194710,0.007634174,0.170754964,0.164553080,-0.045060814,-0.115588419,0.013948372,-0.120142084,-0.045352359,-0.211107642,0.253375541,0.193555912,-0.081826591,-0.002474190,0.090654292,0.065219852,-0.085366947,-0.116193796,-0.000107011,-0.003905486,0.038194528,-0.115792564,-0.209083797,-0.071562618,-0.069971024,0.145198389,-0.013935246,-0.091975425,-0.157735401,0.119545461,-0.143314827,0.144660962,0.174762862,0.232816496,0.163037940,
-0.121570161,-0.085107461,0.027421537,-0.005369778,-0.042549093,0.044184344,-0.201612451,-0.133865372,-0.087458589,-0.036097631,0.057783273,0.189128189,-0.189029022,0.061156170,0.132179309,-0.027609880,-0.155257978,0.096911582,-0.020549776,0.422557842,0.087133652,-0.005052181,0.009234946,-0.274911090,0.081642555,0.099873146,-0.298949614,0.066639522,-0.253260814,-0.093665531,-0.212627750,0.215521320,-0.000857429,-0.100862447,-0.111936395,0.018556337,-0.020415299,-0.039299902,0.096983572,0.050830149,0.056220628,0.002239132,0.087137078,0.046408316,0.067992217,0.095346640,0.019388279,0.225143453,0.149455449,-0.309046179,
0.147236746,-0.181389241,0.012760760,0.026922403,0.150240973,-0.012315185,-0.004007357,-0.048395051,-0.089681701,-0.061384207,-0.028821435,0.039231017,-0.230411213,0.157165460,-0.026726676,-0.008725355,0.247482367,0.084261672,-0.157490067,0.080298698,-0.035870213,-0.035306069,0.009663393,-0.068333877,0.024922002,0.139657966,0.130834974,0.258730284,-0.020162642,-0.065971714,0.055977077,0.127599124,0.147935129,-0.035041939,-0.037667888,0.080474028,-0.148784007,-0.573279703,-0.088146807,-0.019735496,-0.152474113,0.095365862,0.048888661,0.057906939,0.085392029,0.153603575,0.090140088,-0.119565109,-0.067807048,0.116102949,
0.079862738,0.250952924,0.123011473,-0.490524994,0.014728323,0.063918431,-0.146765653,-0.119132057,-0.111890164,-0.059647414,0.277468950,0.025733187,0.183336387,0.066425625,0.001670958,-0.270482940,-0.029932032,-0.074665441,-0.170510357,-0.088795163,-0.075485929,0.000302431,0.459597869,0.002331172,-0.009645903,0.363702433,0.148502537,0.052117819,0.016104920,-0.044134621,-0.006986342,0.152270761,0.151890520,0.192227710,0.188514563,0.041194091,-0.048518769,-0.281061885,-0.016651630,0.317571932,-0.033626075,0.113584227,0.076140559,-0.065584992,0.256597551,-0.412668180,0.065574492,0.095684374,-0.119992681,0.002097144,
0.123396427,0.081599402,-0.332578384,0.088245733,0.078495353,0.139811773,0.231857168,0.261877909,0.044482448,0.044748479,0.037111136,0.187709061,0.212148368,0.036630294,0.167276657,0.126326616,-0.084365564,0.176602854,0.021480738,-0.044744230,0.082738679,-0.011059446,-0.074998820,0.066547949,-0.232523845,-0.244545389,0.137203101,-0.142712355,0.105277511,0.000682574,-0.083192002,-0.032226152,0.051047289,-0.003658640,-0.098545846,-0.009239398,-0.083301871,0.036623699,-0.257054652,0.245416448,-0.098954675,0.211722322,-0.160285458,-0.061475200,0.230239220,-0.143254551,-0.181680182,0.247331500,0.040508250,0.065975133,
-0.105649850,0.117269227,0.077210871,-0.151839841,0.313307499,0.042145632,-0.116457128,0.309135459,-0.101445565,0.096593487,-0.093637231,0.247100601,-0.033216181,-0.078761723,-0.079940655,-0.125871296,0.071569634,0.192179837,0.142753581,-0.170382010,0.253635655,0.153654224,0.182910663,-0.064017857,-0.259894181,0.083344331,-0.107972880,-0.200233837,0.025039766,-0.055774611,0.128361104,0.088935130,0.034332820,-0.232091744,0.049890870,-0.041071639,-0.016861341,-0.118869678,0.067733876,0.043542183,-0.047900009,0.042331545,-0.001461916,-0.190169913,-0.123878658,0.074287979,0.053515544,0.137903714,-0.127267511,-0.199189427,
-0.094266531,0.047801631,-0.095957738,0.139990450,-0.079058853,0.173999328,0.363732453,0.013318740,0.131411476,0.196783379,0.104562974,-0.077945709,0.178925065,0.033106879,0.117918579,0.240542501,0.050119409,0.174137564,-0.001333765,0.106116875,0.000069987,0.156648504,-0.155252411,0.290835393,0.086084302,0.085092377,0.115235055,-0.103021833,0.125922235,-0.100393140,0.151739886,0.017759047,-0.137509665,0.044678309,0.129629945,0.147445945,-0.021912234,0.110850994,0.059196800,-0.129675703,0.049954696,0.086450705,0.180982480,0.135956170,-0.015872127,0.131235807,0.021732902,0.001261729,0.059793617,-0.182041797,
-0.237332910,0.022303499,0.066405720,0.093271079,0.176163777,0.158209010,-0.103599220,-0.143735564,0.099202237,-0.016012650,0.098676208,0.040218542,-0.049383988,0.257031817,-0.105928612,-0.173756741,-0.140702361,-0.162184320,-0.011123252,-0.037864537,-0.141804808,0.121614556,-0.152537909,0.020641234,-0.337229674,0.017921375,-0.038279856,-0.071897976,0.169107057,-0.312326532,0.004945026,-0.189996066,0.018932911,0.194499017,0.164442146,0.055778604,0.125488624,0.094627301,-0.162865530,0.138698269,-0.159132827,0.182905691,0.062270191,0.227935163,0.145354411,0.144571472,-0.095237172,0.092568347,0.212690529,0.039541806,
-0.060267798,0.186179982,-0.104147914,0.100031926,-0.129361571,-0.137299718,-0.009540738,0.000579865,0.104824658,-0.035170947,-0.099977517,-0.027954261,-0.071695372,0.162121942,-0.001223550,0.057545529,-0.206514985,0.161691720,0.143248696,-0.272573000,-0.196251720,-0.068501868,0.191976801,0.116322748,-0.025729061,-0.002910037,0.100907376,0.131448390,0.271745456,-0.002518788,0.116189668,-0.096283404,-0.198605850,0.109270318,-0.005944703,-0.109012002,-0.132889437,-0.156015981,-0.209751016,0.054966669,0.086897236,0.087962093,-0.066059404,0.214099589,-0.170502261,0.242468686,-0.128625209,-0.014556918,-0.083254034,0.116421183,
-0.051247555,-0.125104573,-0.029644291,-0.096637479,-0.142852451,-0.094012243,0.086144687,-0.127907145,-0.122631746,-0.195365725,0.052905526,-0.214122808,0.145516600,-0.057137600,0.117285014,-0.148653983,-0.100054977,-0.163189708,-0.108735243,-0.017859554,0.078755049,-0.155345115,-0.223038686,0.324238488,0.205026550,0.087635996,-0.173040482,0.117567028,0.084493116,0.051960770,-0.023205524,-0.086732035,-0.028450745,0.143099725,-0.047328719,-0.030157729,-0.191975325,-0.055156997,0.168463789,0.271742501,-0.044093013,0.236638054,0.038213439,-0.168575274,-0.051718696,0.013420442,0.103464070,0.111976826,-0.147142212,0.079988817,
0.015480102,0.062608984,-0.102529219,-0.081516269,-0.139406048,-0.001507729,0.103666581,-0.016602346,-0.029954329,-0.068312385,0.181130571,-0.107674574,-0.125542730,-0.070705058,0.057507181,-0.043324515,0.090223884,-0.077644331,0.049107789,-0.015273513,-0.096888841,-0.084643303,0.132353761,0.255835230,-0.096967330,0.175730669,0.273030987,-0.201925381,0.061392619,-0.126774054,0.033340240,-0.226811263,0.034464662,-0.162133391,0.169471402,0.100107179,-0.138043862,-0.067290588,-0.129125153,-0.011204041,-0.003665224,-0.110138927,-0.114510835,-0.325178997,-0.186080974,0.127080446,0.030954192,0.000858844,0.053646111,0.136469235,
-0.044548151,0.049352297,0.086465085,0.116106708,0.158522084,0.261596191,0.169505997,0.195746396,-0.201045959,0.063402916,-0.000487344,0.061926727,0.044939342,-0.051314214,0.087355830,0.033213695,-0.189862117,0.110165777,-0.066122230,0.196373576,-0.199953783,-0.227256821,0.118838505,-0.083688003,-0.040324599,-0.166711976,0.033175635,-0.062494410,-0.004374978,0.039168899,-0.007319332,-0.142447895,0.123076686,0.081682015,0.135249072,0.012216336,0.128699445,-0.033903516,-0.317464837,-0.193441754,-0.097836173,0.030380852,0.090621744,-0.012095642,0.154745385,-0.125255807,0.381771917,0.043494696,-0.160949297,0.173170243,
0.132154481,-0.446768185,0.014754258,0.112925167,0.054339150,-0.036907879,-0.209376552,-0.019750424,-0.073632408,-0.036993578,-0.078936643,-0.118952386,-0.038775646,-0.109571128,-0.035793523,-0.033701297,0.075522325,0.125271246,0.184298326,-0.194295142,0.122931354,0.135818117,0.131056545,-0.020908048,-0.132378101,0.039735625,-0.133824310,-0.134649232,0.184289605,-0.080256616,0.059972592,0.116020656,0.022311347,-0.034203333,-0.156855583,0.063612394,0.022397946,0.009828183,0.148745500,-0.045336178,0.010012804,-0.183434413,-0.002779023,0.018863770,-0.109549306,0.226574265,-0.133735830,0.004921253,0.030839626,0.097770681,
0.111422482,-0.127750073,-0.343028798,0.311214504,-0.299685941,0.117080664,0.040397787,-0.055405099,0.109549805,0.076914256,-0.046448718,-0.028383702,-0.046480849,-0.117203077,0.000003717,-0.078155348,-0.246351258,-0.085565755,0.115439179,0.076420562,-0.055271464,-0.049988308,0.055065501,0.382357127,-0.075815284,-0.085632084,0.039444397,-0.022857720,-0.094672578,-0.082760593,-0.004783437,0.090339524,-0.221917552,-0.162157037,0.196219570,0.041303607,0.068628395,0.127372249,0.047977044,0.021424360,-0.187260589,0.083639460,-0.336863476,-0.188556137,-0.058841376,-0.079718661,-0.074232367,0.299719330,0.200706737,-0.015433766,
0.013068912,-0.174043970,0.345867987,-0.152339026,-0.033405862,-0.137872666,-0.216284241,0.212106275,-0.298378704,-0.151164847,0.327071510,-0.166597333,-0.143400335,0.140387094,-0.209747766,0.125468341,0.232914624,-0.134356474,-0.035009737,-0.129473783,-0.052841450,0.198848403,-0.185976320,0.095668114,0.196094440,0.302645810,-0.212829932,0.046719825,-0.213365063,-0.000751004,-0.092394980,-0.178071826,0.111266908,-0.050358946,0.111766025,0.283311864,0.018457350,0.207636429,-0.078843288,-0.041357478,0.186250641,-0.120017943,0.030343928,-0.242635769,-0.055209520,0.117992717,0.119360962,-0.000407664,0.112805504,-0.098937639,
0.054917221,0.001167843,-0.061699101,-0.014570542,-0.203417424,-0.101236191,-0.074530969,0.006098825,0.054035113,0.191559730,-0.064480752,-0.276466457,-0.038179692,0.081727578,-0.007276520,-0.113278832,0.226081289,0.120214591,0.029268780,-0.158284505,-0.036169800,-0.098180009,-0.295132350,0.191608392,-0.209692196,-0.103378467,-0.188908208,-0.171031165,-0.038881808,0.189036548,-0.087576570,-0.079611288,0.086095677,0.232599902,0.248694338,0.056749800,0.151481086,-0.174381689,-0.023384508,-0.006411791,0.075098002,-0.069197861,0.035358362,0.102871139,-0.004048066,-0.114334826,-0.109388647,-0.018016827,-0.017665327,-0.056107009,
-0.017450271,-0.089867246,-0.075583438,0.260528666,0.002930365,-0.072693428,-0.049261855,-0.039656508,0.018588067,0.015173958,0.065911269,0.268535073,-0.030712916,0.013602720,-0.082987728,0.232955310,-0.188804003,0.025446864,0.064792395,0.007000233,-0.295923638,0.356614099,-0.161511872,-0.006113417,-0.001405285,-0.102203632,-0.018802398,0.204151260,-0.066165047,0.153360844,0.328697904,-0.144422297,0.131554905,-0.215218170,0.009708280,0.079736362,0.056732330,-0.127715681,0.010690706,0.017170184,-0.205621019,0.167350375,-0.086593625,-0.081811160,0.204802629,0.167384831,0.065475208,-0.007222255,0.077200438,-0.152834848,
0.092409886,-0.054949779,0.038891529,0.028255912,0.022607262,0.254150194,0.041883868,0.074563167,0.039791049,0.218765536,0.054609761,0.025114303,0.249999417,0.021342461,0.108959409,0.178483609,0.020791164,0.183759485,-0.096691054,0.282331451,-0.010697157,-0.043551096,-0.087877272,0.058824848,0.169244065,-0.043447899,0.017448098,-0.197324663,0.067375302,0.101502161,-0.231955176,-0.227298722,-0.021105901,0.024483577,-0.190793467,0.224811339,-0.141696123,0.050162464,-0.085099244,0.090904199,0.074111337,-0.069238779,0.129958392,-0.108460191,-0.080123909,0.077600717,-0.201185589,0.075214629,-0.005526400,0.273500578,
-0.088836497,-0.054600331,-0.204081678,0.237520639,0.179348679,0.061751913,0.068912149,-0.161360781,0.059519576,0.084578392,0.078754430,0.171701338,-0.133358285,0.027144852,-0.194131220,-0.087369581,-0.271397122,0.163638610,0.143948848,0.160100292,-0.359623742,0.308449559,0.056430490,-0.109709547,-0.167170497,0.042493925,-0.101637955,0.021528962,0.220096881,0.006948731,0.166474953,-0.024687085,-0.042007979,-0.168096188,0.118280494,0.218627724,0.105918460,-0.255172762,-0.158146076,-0.029175969,-0.322352944,0.071592849,-0.265900816,0.133978079,-0.166054314,0.004308805,0.146471451,-0.338385220,0.025944961,0.052161498,
-0.061099928,-0.015228391,-0.071807618,-0.006987662,-0.054896511,-0.109048577,-0.012373088,0.046941466,0.028006300,0.124985045,0.034687530,-0.029868289,-0.204476127,-0.071829821,0.121779900,0.316826902,-0.048907718,-0.130620246,0.162124756,-0.127082852,0.005623721,0.060979648,0.328606805,-0.033701450,-0.011715378,0.209779129,-0.115188783,-0.021922900,-0.016380111,-0.100602141,0.255948969,0.116407434,-0.114962012,0.278577484,-0.017540224,0.119257566,-0.394293363,0.126461234,-0.149805853,-0.130030619,0.267888895,-0.128366280,0.148562948,0.085475973,0.239802718,-0.047505408,0.079583887,0.003942253,0.046716473,-0.147934409,
0.139589956,0.013739797,0.025853597,-0.171153235,0.011431101,0.057628922,-0.033437834,0.036827078,-0.165025051,0.107308433,0.143973308,-0.133605619,0.128394175,0.119117835,-0.070322497,0.029953301,-0.112917339,0.025904788,0.066898755,-0.012069001,0.098039853,0.117155724,0.089082164,-0.010900238,-0.124017945,0.012634317,-0.140178127,0.026575280,-0.303425574,0.090529416,-0.040193934,0.070567862,-0.081041873,0.010211324,0.027656369,-0.059481128,-0.348911290,0.029904658,-0.173607107,0.178502022,-0.122368602,0.160766122,-0.102019710,0.023086966,0.003815857,-0.325903989,0.061549002,0.169849031,0.206178080,0.098389635,
-0.004997749,-0.060196467,0.269698907,0.127050091,0.017547637,0.069179028,-0.023229139,-0.220441003,-0.064689124,0.029789985,-0.094056340,-0.096380686,0.076270848,-0.204832609,-0.088215618,-0.113034888,0.038572723,0.181299094,0.048571749,0.094833339,0.137124388,-0.095340570,0.047653915,0.002622512,0.148837953,0.156891403,0.114991397,0.165676187,-0.169235277,0.098991819,0.123081856,-0.283654197,0.013603429,0.096442046,-0.037946281,-0.118817686,0.194771690,0.022980237,0.246951885,0.243669067,-0.093362291,-0.051557709,-0.077120606,-0.114662312,0.024996892,-0.143308486,-0.083245732,-0.203220632,0.021687849,-0.074440116,
-0.060915874,-0.047738602,0.045332093,0.017236795,0.073765333,0.209313730,-0.031274334,-0.094149525,-0.119138165,-0.091375586,0.024134129,-0.012220759,0.104470086,0.017498427,-0.232900635,0.136205932,0.152422484,-0.106028405,0.088275704,0.067179481,0.225852867,0.107493424,-0.254124191,-0.046751079,-0.028201844,-0.093892596,0.034328494,-0.242576378,-0.020489577,0.005846155,0.176475146,0.032511176,-0.078492143,-0.106930981,-0.050282512,-0.120753103,0.399623183,0.031391896,0.074807472,-0.174784147,-0.013583820,0.157168445,-0.190383845,0.057978638,-0.033228270,-0.090523676,0.132071164,-0.160759243,0.092556156,0.141244057,
-0.099012967,0.141201241,-0.030602776,0.143922450,0.138717224,-0.045113510,0.181408089,-0.093328037,0.150126378,-0.068325853,-0.085530663,-0.111114986,0.145511133,-0.072035508,0.055960549,-0.001327546,0.253156255,0.143183886,0.165015750,-0.236930804,-0.080859537,-0.273180115,0.124014408,0.091835694,0.189443816,-0.310524913,0.365703054,0.095675550,0.107918919,0.113770023,0.105974752,0.049627778,-0.043404136,-0.138177330,-0.082224271,0.025572561,0.087312377,0.057809577,0.294744584,-0.286780701,-0.208986443,0.182944744,-0.010293843,-0.039460804,0.041018537,-0.202649104,-0.245807281,-0.216575689,0.114987836,0.058815566,
0.029928195,-0.054995834,0.150872369,-0.373751525,0.189062271,-0.073819150,-0.227789889,0.100155820,-0.186518732,0.044372608,-0.022731209,-0.071909112,-0.119854422,0.194764623,-0.342444801,-0.056452485,0.136852460,0.068042544,0.032305536,-0.006574668,-0.048306070,-0.068623291,0.012770937,0.169460601,0.051211983,-0.059127149,0.017906210,0.107214031,0.145426140,0.178833964,0.033871313,0.042499906,-0.189892138,-0.036967604,-0.028817412,0.120068326,0.092555017,-0.256391178,-0.061160647,0.074072847,0.150023725,0.143724855,-0.002880760,0.091754365,0.042962273,-0.078667469,-0.016904543,0.039358874,-0.182873255,0.004268819,
0.183075770,-0.005950372,-0.162129603,-0.148593058,0.038778884,-0.024334941,-0.234989374,-0.046050386,0.014847674,0.166472788,0.268815649,0.048211430,0.144359265,-0.114544585,0.138767851,0.041913665,0.027647975,-0.105479810,0.042087564,-0.016244497,0.009292747,0.094911527,-0.128598744,-0.215300856,-0.236328665,-0.116509341,0.011224142,-0.083437295,0.284907637,0.009244330,-0.127747762,0.004833471,0.339039241,0.078267181,0.190771092,-0.444005707,0.039456013,-0.030789450,-0.173509591,0.069449993,-0.002426882,0.177111987,-0.044592560,0.224054827,0.173352444,-0.062281353,0.205684917,0.076372117,-0.061459116,0.135810265,
0.116766011,0.178481328,-0.109716525,-0.144568122,-0.125978429,-0.003747364,-0.196630633,0.089747358,0.228388506,-0.278418072,-0.140506678,-0.074148663,-0.150494802,-0.172749513,0.054545110,0.017815004,-0.063796516,-0.018245201,-0.036387076,-0.103942819,-0.279649101,0.071328197,-0.189093920,-0.070052096,-0.180270478,-0.022253399,-0.277966569,0.201319813,0.139132449,0.218188345,-0.010061292,-0.190287930,-0.056062613,0.122565362,-0.096376226,0.061427277,-0.258488173,-0.125798849,-0.042521149,0.190095390,-0.190242273,0.246219222,-0.032243921,-0.060365876,0.022613271,0.068535156,-0.132416314,0.096066722,-0.136517503,-0.110464936,
0.091843915,-0.012815222,-0.087109164,0.210963937,-0.138552747,0.036280392,0.186185837,0.107282127,0.138296601,0.014855442,-0.130116136,-0.033839244,0.151610133,0.002293370,-0.195873295,-0.156708599,0.195522019,0.096467466,0.086352636,0.063477958,-0.007403294,0.222788863,-0.186830486,0.030470777,0.219386483,-0.141759942,-0.070227391,0.056584100,0.209796328,0.073411754,-0.107069185,0.053353035,-0.040660115,0.116886471,0.179132761,0.044076725,-0.161826910,-0.052578352,-0.082382205,-0.106753654,0.012741317,-0.133844388,-0.001463472,0.095461257,-0.012033142,0.251069772,0.313138860,-0.160582770,0.268488414,0.224452036,
0.083722298,0.006596741,0.156004411,-0.013739581,0.052012383,-0.166380440,-0.132518669,0.041293895,-0.052457329,0.144345745,0.138738403,-0.023409164,0.034826677,-0.218581989,-0.046115681,0.028795595,-0.083598891,0.113270835,0.184522319,-0.178407120,-0.024520512,-0.154555873,0.150096931,-0.043082529,-0.056615268,0.198880050,-0.007991820,0.078171091,-0.119433661,0.012576459,0.102708863,0.047983697,-0.065015846,0.020871373,-0.092253061,-0.182812215,0.316059791,0.117319519,-0.068976651,-0.165302128,-0.037041987,0.137612543,-0.020146875,0.280012350,0.074046647,-0.207313323,0.029626918,-0.184094075,0.234356151,0.208281092,
-0.089453619,-0.014389694,-0.107489896,-0.166271191,0.093832129,-0.247750320,-0.165509367,-0.071555762,0.086175770,-0.024615689,0.115915245,0.069275046,0.106616514,0.150046061,0.127415952,-0.184743041,-0.049408994,0.088976342,0.050629792,-0.078628235,-0.070960305,0.082079249,0.013441607,-0.246309199,-0.033968117,-0.113572593,0.123992482,0.084816656,-0.149293427,-0.023600908,0.033920478,0.254389134,0.092335655,-0.022118703,-0.055465340,0.065753163,0.097347176,0.071612532,-0.111217550,0.133012872,0.215297928,0.247480859,-0.105544763,0.072996416,-0.104762852,0.283295316,0.052390999,0.034596552,0.029447105,-0.153172989,
0.169975821,0.068453490,-0.198613918,-0.072978836,0.034212226,0.248004684,-0.049208692,0.133911401,0.088518616,-0.324187018,0.126334832,0.291531607,-0.159414236,-0.142920743,0.158247480,-0.100084625,0.202261676,-0.173128330,0.183080930,0.168500546,0.098128954,-0.343240969,-0.055507768,-0.141327973,0.128083776,-0.055029785,-0.101833210,-0.141830533,-0.169462848,0.092949816,-0.101233241,-0.070938929,0.013224193,-0.017407263,0.060351661,0.159177555,0.214635970,0.072277811,0.188554763,-0.045666345,0.209856954,0.002368115,0.070364174,-0.008140235,-0.134612833,0.124260586,-0.114014905,0.044015069,-0.028039342,0.204160495,
0.132212318,
0.104224487,
-0.114276200,
0.118652476,
0.153596814,
-0.155563369,
-0.213674429,
-0.029500386,
0.070719920,
-0.101696960,
0.182560750,
0.145827012,
0.005033068,
0.131708988,
-0.004862633,
-0.020920450,
-0.012142354,
-0.163481590,
-0.078195709,
-0.024991384,
0.220008810,
0.126928460,
0.175855547,
-0.042153899,
0.071624642,
-0.013623287,
0.285733735,
-0.047853455,
0.092550968,
-0.057373999,
0.409869193,
-0.191268159,
-0.130786047,
0.109628573,
-0.019724360,
0.013626235,
-0.131500992,
0.019189326,
0.088809438,
0.083068014,
-0.264510390,
0.175182446,
0.061352151,
-0.174448973,
-0.144878619,
0.172542640,
-0.121039082,
-0.089790861,
0.106403916,
-0.351577337,
0.050801395,0.162964874,0.030970827,0.000721164,0.118852703,-0.443143394,0.070564072,-0.078718555,-0.165705726,0.071300869,0.089880264,0.166507314,-0.020673290,0.104189562,-0.147038528,0.020253082,-0.099179446,0.157922045,-0.274909688,0.210767679,0.100264024,-0.285892968,0.256300733,0.034744846,0.034992730,0.043082860,-0.144855473,-0.090507838,-0.077231080,-0.069234559,0.002851513,-0.153753127,-0.037535731,0.139948702,-0.103753059,-0.205530946,0.005034456,-0.025390465,-0.126945999,0.143672515,0.015899917,0.058524886,-0.021139106,-0.003287098,0.103985040,-0.055374823,0.185938148,0.145913685,-0.036916364,-0.379512757,
0.089905005,0.229515120,0.088098616,-0.182034048,0.117305708,0.190944954,-0.081112143,-0.089213609,0.013047625,-0.194968322,0.150661357,0.074955071,-0.123763310,0.023334651,-0.136896079,-0.211003295,0.017913409,0.095634223,0.051525213,0.092817463,-0.111857383,-0.005122089,-0.067026138,0.098400291,-0.088026164,-0.285488476,0.257284543,0.035064147,0.264432909,-0.009840381,-0.095041282,-0.072138096,0.190619172,-0.108438282,0.067308301,-0.153913696,-0.014547830,0.295090212,-0.089739016,0.063707254,-0.085917783,0.044574133,-0.049231985,0.031470225,0.082739194,0.076554794,0.006599925,-0.040778279,-0.024056433,0.041368544,
-0.014698661,0.265873261,0.134629327,-0.367526581,0.166696700,-0.087917273,-0.131236040,-0.010082430,-0.067787136,0.127450417,-0.090609328,0.192264606,0.034280287,0.025515267,0.111519681,0.201616806,-0.100967868,-0.143305821,-0.045615869,0.076595751,0.413358810,0.065615011,0.238971725,0.187315022,0.010887386,-0.119224262,-0.023628710,0.116716366,-0.036559561,-0.016858290,-0.048759590,0.079713238,0.081428451,-0.135006127,0.026078139,-0.068595410,-0.263922492,0.183697793,-0.207592219,-0.134257555,-0.026434451,0.140872365,-0.136796204,0.290663142,0.056021999,-0.239892087,-0.228040842,-0.049124894,0.267262081,0.012826493,
