// Neural Network File Format by Kyle Julian, Stanford 2016
51,2,2,10,
2,10,10,10,10,10,10,10,10,10,10,10,10,10,10,10,10,10,10,10,10,10,10,10,10,10,10,10,10,10,10,10,10,10,10,10,10,10,10,10,10,10,10,10,10,10,10,10,10,10,10,2,
0,
-10000.0,-10000.0,
10000.0,10000.0,
0.0,0.0,0.0,
1.0,1.0,1.0,
0.042346892,-0.196597382,
0.060787258,0.151023349,
-0.024619543,-0.288376407,
-0.687825346,0.408148544,
-0.248901710,-0.242322365,
-0.489101642,-0.634127124,
-0.473113202,-0.310241419,
-0.311920953,-0.049147714,
0.548395782,0.408800516,
-0.418706790,0.654864015,
-0.771118158,
-0.298965121,
-0.058853134,
-0.175565555,
-0.374491159,
-0.368298685,
0.118452718,
-0.106727250,
0.168025313,
-0.390898943,
0.442347094,0.159421973,0.593918560,-0.275468924,0.225497244,-0.441052902,0.799561800,0.043488616,0.011512893,0.636281628,
0.682417822,0.277131268,-0.213783245,0.001645971,-0.281494945,0.048364964,-0.556454108,0.179364082,-0.232661693,0.198470810,
-0.072768105,-0.362055010,-0.621545187,0.191184526,0.584319229,1.108265897,0.341526740,0.020417855,0.053170864,0.809146690,
0.175131924,0.310238517,0.416166237,-0.327809555,0.602834557,0.074617043,0.701290017,0.650246918,0.246838213,-0.104897126,
-0.612004230,0.208500171,-0.496090456,-0.067398256,0.901300457,0.102076577,0.239107994,0.025401895,0.426577495,0.232897764,
0.295283659,-0.087269614,0.659293759,-0.153220795,0.382748361,-0.213454263,1.026336577,-0.349488799,0.160119584,-0.828495466,
-0.380420700,0.111438534,0.345227849,-0.043098532,-0.093204891,-0.624546519,0.189554434,-0.670740761,-0.228108872,0.239859153,
-0.565758793,0.759967219,0.663567188,0.190049674,-0.238799467,-0.809051305,-0.502229487,-0.008416753,0.827657785,-0.237238995,
0.535312899,-0.147627584,0.412559426,0.270736243,0.249583784,-0.125693970,-0.426822293,-0.894049992,0.288963163,0.185799459,
-0.246473062,0.312836370,0.639495071,-0.006393321,0.322730125,0.999461134,0.070783243,0.102312188,0.518977461,0.507620086,
0.360622448,
0.850414038,
-0.583709988,
-0.614499748,
0.384700031,
-0.201641758,
-0.172437020,
0.348566936,
0.055507309,
0.046035151,
0.270949935,-1.154188001,0.137296950,-0.133504908,0.196516645,0.434134445,-0.192032360,0.163140460,0.007956959,0.158474625,
-0.095234683,-0.019773482,-0.109375908,-0.808462434,0.506052787,-0.575630735,0.125453628,0.014563392,-0.218231945,-0.268030241,
-0.002745566,0.560210591,1.275800604,-0.049581923,0.491757102,-0.241127731,-0.722173734,0.610781250,-0.282481995,-0.301112875,
0.385839621,-0.372338548,0.401974769,0.361128795,0.000642249,-0.275779009,0.270562404,-0.391787284,-0.660476641,0.318630486,
-0.276466021,0.002360473,-0.557694570,-0.241347591,-0.076129748,-0.388308111,-0.027164119,-0.063560981,0.310656918,0.438997116,
-0.078349833,0.173392085,0.839864986,-0.876762500,-0.103893026,0.518283413,-0.476245340,-0.202492150,0.419061695,-0.282076206,
0.438096818,-0.419974788,-0.507851573,-0.143969195,0.148029786,-0.352640739,0.106990531,0.462699216,0.108709287,0.103540839,
0.456411584,-0.466451118,0.233063595,-0.440690262,0.560136879,-0.338606218,0.280282060,0.277264608,-0.358041774,0.883080648,
0.320168412,0.186793056,-0.033578185,0.361344088,0.424600083,-0.478419665,-0.749504509,0.072977367,-0.316553254,0.064420494,
-0.131732894,-0.041873663,0.269268737,0.018517472,0.400168823,0.357213542,-0.310545746,0.377660896,-0.642834354,0.641114686,
-0.543332219,
-0.007393757,
-0.346380417,
0.339017495,
-0.060990663,
-0.008994260,
0.100013016,
-0.389499253,
-0.525187316,
-0.044693716,
0.692902049,-0.364461208,0.060277258,-0.463657496,0.388306996,-0.177902087,-0.685610305,0.595169804,0.327116199,-0.037805446,
0.082619293,-0.618799448,-0.567461031,0.410391718,-0.566687558,0.297971774,0.146446159,-0.026476480,-0.653427684,0.929320747,
-0.291030354,0.421111805,0.217491123,0.188346027,-0.317321864,-0.088683827,-0.086111328,0.187405384,-0.343629013,-0.219659548,
0.715448796,1.321703895,-0.002076635,0.332756891,0.703428537,-0.132164223,-0.200863024,0.219374704,-0.308147264,-0.188046426,
-0.026383264,-0.675233759,-0.059762793,-0.001422497,-0.384126514,-0.019896412,-0.443554269,0.548753890,-0.706206140,0.110343595,
-0.162942998,-0.201664355,0.295851814,0.577528928,0.003893754,0.018619012,0.753589482,0.051497326,0.003771543,-0.772969546,
0.501058882,-0.657348942,-0.459802191,0.011590920,0.055074706,0.419613680,0.092959661,0.328132225,0.124681580,0.047699464,
0.471243437,0.468505084,-0.325011328,0.591335124,0.146589510,-0.678107519,-0.415488558,-0.285159172,-0.176152998,0.442643910,
-0.040388925,-0.542938569,-0.354504139,0.391912200,-0.197586275,0.577559384,-0.965903798,0.127762873,0.199390324,0.078273944,
-0.177412519,-0.061907410,0.892106514,-0.054622584,-0.107888270,-0.194351265,0.293865082,-0.361695288,0.265653267,0.806274482,
0.280761424,
0.589050978,
-0.133008493,
-0.389265529,
0.299577219,
-0.371062455,
0.198507368,
0.112453530,
-0.381945377,
-0.040502102,
0.037504967,-0.234223934,0.346420145,-0.422711557,0.137268292,0.255560745,0.574524718,0.765671288,0.076672609,-0.918297282,
-0.930533936,0.081856046,0.630920708,-0.580590550,0.483038190,-0.148372613,0.256867316,-0.033605345,0.308981547,-0.058298000,
-0.386785398,0.185951823,-0.091588665,0.348865485,-0.434632469,0.251750695,-0.168675423,0.155755157,0.719831165,-0.393361740,
0.200545381,0.207043322,-0.005713516,-0.011674062,0.203259325,0.096174525,-0.063643562,0.159269508,0.290600685,-0.294183718,
-0.939229644,0.463270279,-0.327047211,-0.217287803,0.131774268,-0.258608086,-0.064884259,-0.065929975,-0.068181718,0.081124280,
0.144916570,-0.434542108,0.005146009,0.573371034,-0.274307710,-0.244478475,0.073853755,-0.204425518,0.782342294,0.135965594,
0.409292863,-0.021106414,-0.148481539,0.285750109,-0.566290722,0.569552316,0.447826587,-0.040623132,-0.000226517,-0.347375410,
0.693681022,0.477733912,0.638102228,-0.769289268,-0.087158528,0.476073199,0.068902559,0.400107943,-0.192218937,-0.397355716,
0.043626008,-0.360075932,0.532380542,0.373028528,0.052013865,0.730705389,-0.240910244,-0.418832978,-0.363176295,-0.483715618,
0.526734838,-0.109251814,-0.265449663,-0.170455392,-0.398212983,0.249330392,0.254445591,-0.709706062,0.039646455,0.170037358,
0.584832340,
0.044584734,
0.133853486,
-0.073912281,
0.277586599,
0.201387326,
0.992285857,
-1.084384412,
0.341029055,
-0.313139575,
-0.572144401,0.406467588,0.069117354,0.594521858,0.256290335,0.147038724,0.046176995,-0.952646267,0.496182189,0.022124151,
0.033191402,0.317771557,-0.383915662,0.215285358,-0.323399465,-0.089108585,0.501599967,0.270100087,0.199155421,-0.101637953,
0.892148318,0.194100524,-0.552631987,-0.003554428,-0.219280210,0.177446763,-0.259068426,-0.365889273,0.389927925,0.439686713,
0.174274478,-0.114104286,0.336657151,-0.251358569,0.974312526,0.563405662,-0.126902264,0.873154387,-0.194112664,-0.076463720,
-0.041752740,-0.448078202,0.551817010,-0.180947818,0.001022986,0.164225136,0.236236838,-0.520536210,0.144223396,-0.488246177,
0.092246763,-0.206210279,0.667498311,-0.286956069,-0.185569614,-0.176204688,-0.857764566,-0.261647538,0.158535781,0.536882236,
0.161775978,-0.217872671,-0.182144250,0.213060679,0.478056649,-0.302354338,-0.037996625,0.585716611,-0.345588492,0.010284584,
0.211332424,-0.013624453,0.265032365,0.100454022,-0.296733634,-0.618292551,-0.729541120,0.785986580,0.155637192,0.457636975,
-0.277650340,-0.377877390,-0.698379984,-0.866606817,0.214282035,-0.408236344,-0.347601603,-0.063045716,1.052720205,-0.500241072,
0.143841082,0.010544577,-0.837776265,0.053862691,0.642633443,0.043480567,-0.065676244,-0.160283663,-0.060411564,-0.483195990,
0.611785339,
0.302077935,
-0.271429089,
-0.170631543,
-0.069235552,
-0.078233567,
0.442323348,
0.292535042,
-0.461357342,
-0.145619091,
-0.226834957,-0.408546553,-0.466060088,0.021194114,-0.343086104,0.270317802,-0.073683685,-0.112096557,0.372264550,-0.581683959,
0.587344729,0.873188567,-0.145321568,-0.552696292,-0.450611991,-0.201919524,-0.759967831,0.336679762,0.123488863,0.107736062,
-0.494278939,-0.100779712,0.466966215,-0.311845778,-0.011154360,-0.251267443,0.044512427,0.048510750,0.171535438,-0.687770238,
0.115327006,0.089676948,0.037600383,-0.056583091,-0.188978158,0.234438781,-1.095802843,0.255527357,0.543605370,-0.317590296,
0.493040599,0.145003736,0.374636585,-0.619543997,0.139304847,0.453689925,0.183355834,-0.158528924,-0.152553401,-1.157415221,
0.286427800,0.158277278,-0.068232257,0.552374401,0.069689815,-0.063410729,0.220134013,-0.049834904,-0.251347547,0.471183878,
0.296021336,-0.496431636,-0.500847383,-0.122011422,-0.137321885,0.376229230,-0.538162138,-0.974251974,-0.068106929,-0.429220017,
-0.063556017,-0.599687382,-0.118467743,-0.365936566,-0.126954185,0.270868659,-0.563810489,-0.030452532,-0.043690685,-0.416815013,
0.016915755,0.839691561,0.312112813,-1.028018113,-0.618954628,-0.082560324,0.378389001,-0.724365610,0.190569343,-0.365114959,
-0.126619838,0.172625514,0.235195784,0.379019728,-0.302739027,-0.232935169,-0.228439588,0.192645409,0.219558851,0.209154787,
-0.371960927,
0.297433292,
-0.092803254,
-0.612997969,
-0.469749952,
0.033972777,
-0.073123608,
-0.020943870,
0.434244044,
-0.193773071,
0.783041804,0.828501000,-0.367911609,0.432122753,-0.269575329,0.167520131,0.127832608,0.225175681,0.663949115,0.048025779,
0.624532735,-0.190178027,-0.082784949,0.659618521,0.274558650,0.690143277,0.275394810,0.772560732,-0.227730632,0.831238660,
-0.280504080,-0.077816625,-0.019728949,0.201751439,-0.552770592,0.153923935,-0.239783173,-0.233039274,-0.763029702,-0.128013716,
-0.472559226,-0.134658826,0.283579995,0.016565124,-0.122194614,0.298309895,-0.090820577,0.520911984,0.022761122,0.238071780,
0.493322762,0.205756591,0.352867832,0.254583733,-0.171519581,-0.316327036,-0.101508256,-0.585008153,-0.335356125,0.128898483,
0.454986396,-0.152918540,-0.346282050,0.410546640,0.009411105,-0.214303894,0.577150157,-0.056114859,-0.716945821,-0.364424642,
0.280076386,-1.051069924,0.684844843,0.407621988,-0.111374750,-0.098983443,-0.932986926,-0.441353454,-0.098072122,-0.551560645,
0.895144729,-0.347480420,0.485529738,-0.283539363,-0.128430281,0.246433060,0.241399855,-0.646831592,-0.379421672,-0.191089003,
0.045700944,-1.035378791,-0.275183895,-0.006967459,0.701685077,-0.528752409,-0.260359880,0.194776793,0.365214182,0.378639023,
0.319043474,0.864133814,-0.422753227,-0.588052838,-0.258808808,-0.327105242,-0.136800481,-0.375906322,0.180398060,-0.663786789,
-0.237258678,
0.433816465,
-0.017146004,
0.004045250,
-0.012942999,
0.326309152,
0.086235563,
-0.141450772,
0.408571059,
-0.154925947,
0.010938539,0.125269550,0.640919030,-0.057492293,0.135072043,0.721265142,-0.130276906,-0.007685492,0.008601677,0.560138745,
-0.133594808,0.110007130,-0.135164208,-0.030933679,-0.252946388,0.265598931,0.256470873,0.310312829,0.042705425,-0.420048288,
-0.176575630,0.172263554,0.249603038,0.135182309,-0.088114334,-0.290716865,0.349306377,0.445229649,0.361626769,0.461913901,
-0.295683703,0.888068975,-0.386028008,0.233408424,0.761935640,0.694127263,-0.445410821,0.357564775,-0.169391220,-0.510600456,
0.113506461,-0.159279283,0.309055772,0.502005573,0.547963414,-0.090696026,0.731963585,0.031093731,0.624817566,0.349555593,
-0.211699870,-0.660236272,-0.339989072,-0.223435117,-0.510688682,-0.099799475,0.437851332,0.154171767,-0.499528521,0.594704713,
-0.630603830,-0.303931195,-0.092060217,0.307113351,0.059143790,0.492461465,0.116063858,0.247726060,0.028995002,0.564836802,
-0.757232523,-0.334414568,0.427606387,-0.169868948,0.259219329,-0.049740339,0.359857426,-0.073387968,-0.118835575,0.491708718,
0.356057331,-0.559758367,0.178366624,0.346847254,0.418902452,0.604340216,-0.114234711,-0.260223815,-0.187270990,0.452294083,
-0.005035347,0.801068124,-0.301491353,0.445115839,0.179814619,-0.267444190,-0.358512739,0.777276419,0.153920590,0.705554444,
0.800086925,
-1.028592643,
0.432179334,
0.218775194,
0.249141799,
-0.195873868,
-0.379386325,
-0.972516179,
-0.148265343,
0.111393541,
0.270281775,-0.004347815,-0.200314059,-0.360456460,-0.186252474,0.059491461,-0.045021548,0.436690601,-0.836073239,0.614012112,
-0.482499163,1.186916008,-0.266183292,0.341576888,-0.171000044,0.230846620,0.394428203,-0.610990118,0.093771191,0.817305028,
0.440556387,-0.334214573,0.941255200,-0.262403221,-0.125259585,0.391469632,0.062519656,0.649164382,0.055797444,0.159432248,
-0.085964139,-0.192540611,0.469070488,-0.428916873,-0.492766799,0.215312155,0.164927829,0.305209854,-0.187669574,-0.146714613,
0.424848341,0.446686691,0.660519080,0.081745217,0.326985326,-0.347521063,-0.246482587,0.487392144,0.030511546,-0.339859676,
0.135739479,0.170268293,-0.157840037,0.510784762,-0.391207155,-0.345347510,0.091332161,-0.255953222,0.048381943,-0.158063670,
0.373889228,-0.275559928,-0.055775980,0.202109897,-0.274179830,0.581814281,0.196440731,0.897892189,0.463296478,0.422767208,
-0.643243195,-0.125950941,0.602667069,-0.102470620,0.287390869,0.193064098,-0.691123085,0.201655231,-0.544849634,-0.122180263,
0.329493393,-0.210916183,0.228895973,-0.370327433,0.638594556,-0.377764096,0.191967121,0.152706216,-0.019735337,-0.506466428,
-0.507073998,0.128143517,0.294645696,0.418229385,0.532444858,-0.822076822,0.150432995,0.050934770,-0.484902625,0.277674567,
0.403451999,
-0.393232140,
0.110315059,
-0.331182070,
0.179585951,
0.244708939,
0.133689709,
-0.145379394,
-0.409990807,
-0.299601119,
-0.888319036,-0.354645341,0.012268536,-0.115815892,-0.037334121,0.006038967,0.050769074,-0.249859891,-0.236579964,0.956526510,
0.143344045,-0.073253922,-0.530198886,-0.172188138,-0.283359946,-0.300078014,-0.567074643,-0.973821939,-0.333181926,0.259118215,
-0.042842693,-0.743668320,-0.052595268,0.173096853,-0.310297198,0.165450866,0.030509203,-0.047962048,0.389000748,0.014146593,
0.122026109,0.168735525,0.246295791,-0.075120300,1.028895453,0.992153807,0.604221984,0.036729352,-0.635682496,-0.227471562,
-0.074842340,0.353288821,-0.167130464,-0.480003141,0.341001114,-0.212178659,0.425486769,0.564024108,0.397759958,-0.065644622,
0.190283193,-0.629994613,-0.082203642,-0.920980763,0.031366348,-0.005872586,-0.264841145,-0.927809466,0.472551429,-0.025847824,
-0.206079422,-0.645437898,0.249425705,0.998106906,-0.407706779,-0.163231948,0.032644396,0.712292834,0.429416370,0.106570765,
0.003598746,-0.181131056,-0.278395264,0.767029904,0.273787609,0.123594916,0.724365648,0.396989983,0.684066487,-0.432639916,
0.279645901,0.077386563,0.653864518,-0.131759881,-0.093465146,-0.014074698,-0.214852147,-0.141699224,0.567998769,-0.242734104,
-0.067091452,-0.323149569,-1.246646230,0.352703414,0.542939665,-0.457150865,0.134360651,0.093664542,-0.233047621,0.047615505,
-0.403389166,
-0.699783807,
-0.142458682,
0.763886666,
0.340591283,
-0.050355589,
-0.431856506,
-0.482794554,
0.525486799,
0.147942603,
0.051975819,-0.089757346,0.567350920,-0.087178832,-0.333503583,-0.463011471,1.021724203,-0.615439200,-0.005732473,0.113722499,
0.318988534,0.171544565,-0.530562532,-0.214042951,-0.225862063,0.140821793,0.028736948,-0.247364792,-0.140931905,0.394143010,
-0.172382341,0.141165324,0.483978306,0.159925312,0.499744721,0.089551130,-0.101569401,-0.275836088,0.479845386,0.003700053,
-0.372847004,-0.021049004,0.066987937,-0.574990431,-0.353008771,-0.110480647,-0.068439243,0.380164651,0.102187820,-0.117520096,
0.007843186,0.095662330,-0.253114967,-0.496854598,0.179773403,0.548802927,0.278485612,-0.504629595,-0.416500469,0.201124429,
-0.183686798,0.417380781,-0.241517989,-0.287440100,0.167796838,0.110283031,0.410882994,0.306660437,0.068882641,-0.571916076,
0.013747041,0.167232055,-0.222814708,0.017657399,-0.151882093,-0.543016153,-0.482817111,0.371646147,0.235865001,-0.392233563,
0.381922614,-0.020058439,-0.183118429,-0.208515758,-0.450903521,0.361284016,-0.785816165,-0.500337158,-0.420901282,-0.199921968,
-0.137034501,-0.187415860,0.224869619,0.287574238,0.538763793,1.122784204,-0.311363590,-0.114982373,0.411433154,0.037947566,
0.381994931,0.320866220,-0.506342915,0.246165215,0.357066355,0.308398752,-0.205883957,0.038245231,0.170130642,0.187550178,
0.174302081,
-0.021528561,
0.321567207,
0.541258804,
-0.086475304,
-0.013412340,
-0.321235327,
-0.005529634,
0.657450842,
0.121166434,
-0.005124372,0.561484266,-0.228669634,-0.560639443,-0.214404549,-0.558354466,0.511860722,0.647570568,-0.355734908,0.179447489,
-0.055328479,-0.443911019,-0.582262749,0.316963930,0.350519280,-0.494499690,-0.035566175,-0.364892790,0.003449167,0.199940236,
-0.465427670,0.692249688,-0.016124067,-0.081802488,-0.951741652,0.457740617,-0.136863293,-0.057837698,-0.629867608,0.937507116,
0.657817480,0.639540276,-0.574215219,0.323179391,0.556892368,0.267968465,0.009511364,-0.925001355,0.902892989,-0.776909766,
0.012895679,-0.315031874,0.870110897,0.320751345,0.328868050,0.047407634,-0.344607980,0.364325341,-0.187779426,0.489836009,
0.014546426,-0.042833814,0.606627990,0.101438016,0.399322710,0.379176967,0.307132844,-0.334786352,-0.741352381,-0.111561373,
0.150425307,0.100381628,0.542360154,-0.027329280,-0.128165374,-0.976480237,0.599555891,-0.242084433,-0.188330237,-0.421460855,
0.650215782,-0.566230140,-0.433562940,0.356309255,-0.478568017,0.249587324,0.495472172,-0.238944733,-0.347769755,0.295128202,
0.028446415,-0.437387365,0.097659156,0.194473896,0.493721054,-0.298679420,0.136880981,0.213799680,-0.822308968,0.077375237,
-0.471567411,-0.134973078,-0.463364566,-0.311214223,-0.529962315,0.334728698,0.633638277,-0.323763466,-0.617201544,0.379488112,
0.733526189,
-0.060978449,
-0.341577702,
0.233780464,
0.175703431,
-0.034724168,
-0.241169261,
-0.064492029,
-0.283808017,
-0.006755566,
-0.041408036,0.871868789,-0.173266931,0.530870924,0.028994087,0.777918010,0.057039328,-0.366114464,0.637409199,-0.644366999,
0.294036267,0.202204928,0.025252547,-0.078337582,0.479955678,-0.479635690,-0.010493997,-0.125704287,-0.453155569,0.197171981,
-0.068043666,0.016539309,0.567200646,-0.275979283,0.037035742,-0.863000343,-0.139359095,0.668935432,-0.053389829,0.105368264,
-0.283724193,-0.090482838,-0.298078538,-0.332218332,-0.262587116,0.047784646,-0.459891805,0.180138611,-0.516585656,-0.001996270,
-0.012391069,0.185104802,-0.410740628,-0.606455938,0.912722074,0.757743530,-0.785904812,-0.512559489,-0.007514570,-0.354959876,
-0.219654164,-0.090877770,-0.605342781,0.258318745,0.366980951,0.466302601,-0.378315759,-0.038778458,-0.514191349,0.232041554,
-0.063488917,0.482352514,-0.471048448,-0.503429391,-0.261494018,-0.069475358,-0.019123887,0.465080945,-0.218560215,0.215540835,
-0.076328132,0.652964105,0.091464199,0.219700212,-0.209784867,-0.116389300,-0.038097418,-0.622530465,0.074949762,0.445777694,
-0.852139197,-0.430756280,-0.886231740,0.208693983,0.259503548,0.133267645,0.428183426,0.718089196,0.035674617,-0.116522442,
-0.616916274,-0.606120912,-0.331360387,-0.024437400,-0.367242856,0.043220760,0.173647509,0.070948361,-0.462174517,0.147157329,
-0.646540789,
-0.296963346,
0.108707718,
0.678152977,
1.086837650,
-0.073934521,
0.410137226,
-0.195588502,
0.650102858,
-0.266144420,
-0.368527220,-0.015490887,0.531785211,0.641221967,-0.036627263,0.110192525,-0.070776308,-0.388667478,-0.118643806,-0.278715869,
0.126624558,0.156018396,0.584036934,-0.246973037,-0.600998399,0.505378176,-0.191788943,-0.284248511,0.145306628,0.001490679,
0.206375202,0.192637040,-0.429200109,-0.252851698,0.355294994,0.276544586,0.135784287,0.000707345,-0.352628228,-0.098905103,
0.268430154,0.431989241,-0.606952989,0.617497739,0.440910609,0.054660345,0.060819471,0.548216025,-0.827420819,0.085856333,
-0.163157331,-0.130011577,0.068271236,0.024934818,-0.688860169,-0.503165590,-0.230873270,-0.117405232,0.689965856,0.113480613,
0.210437793,1.332908657,-0.475528831,0.426979836,-1.028147298,0.673316921,0.094547470,0.541147424,0.064270334,0.387481445,
0.631832639,-0.287173875,-0.360633728,-0.000788626,-0.249894987,-0.138916077,-0.670590782,0.010873689,0.006213827,0.166375121,
0.882203901,0.176979945,0.447983201,-0.724614004,0.421179961,-0.113760523,-0.078226167,0.273824198,-0.418828059,-0.443169411,
0.652326507,0.564177630,-0.090746130,0.105081167,-0.648065159,0.319075952,-0.098485817,0.210895663,0.104094546,0.610831631,
-0.161306715,0.413483059,0.472961308,-0.696077194,0.667717465,-0.069347241,0.593317383,0.121825750,-0.892423079,0.223538575,
0.296045705,
0.104808341,
0.210879259,
0.058910157,
0.028313764,
0.112620701,
-0.131647464,
0.957062943,
0.063844459,
0.354333648,
0.212858565,0.396533419,-0.007337685,-0.791559235,-0.161109412,0.031836515,0.284797789,-0.792145130,0.063051307,0.240084728,
-0.336789258,-0.328051620,-0.050921364,-0.553891476,0.000652651,0.154631485,0.362847853,-0.356277117,0.102640446,-0.155824342,
-0.537628064,0.072809607,0.039403620,-0.055418403,-0.172175417,-0.077637491,0.036963631,0.276273741,-0.211999637,-0.006295806,
-0.368099477,-0.295613786,0.661385036,0.043061298,0.028240278,0.173902274,0.257561366,0.148446406,0.407650936,0.256081864,
0.485697202,-0.320433199,-0.002589357,0.177606134,0.308873977,0.342469485,0.249518555,0.223555191,-0.288145366,0.102177887,
-0.152128183,-0.193193434,-0.250403866,0.695898279,-0.044339340,0.653435545,0.301602484,0.602544474,-0.182422076,-0.249178821,
-0.135776346,0.291758814,-0.363601553,-0.349952785,-0.101535424,-0.838136546,-0.154669605,-0.094341009,0.306316447,0.844971919,
-0.242884779,-0.423498463,-0.169940316,0.138088848,0.797215337,0.598175680,-0.275846765,0.124365019,0.157107706,0.164390849,
0.346735332,-0.048703104,-0.013637933,0.163954659,0.060798415,0.784463281,-0.369076973,-0.734151312,0.172418050,0.091863852,
0.607725344,0.320964533,0.314821597,-0.658917014,0.307302084,-0.106229097,-0.287078351,0.085468676,-0.349362367,-0.728551861,
-1.194197291,
0.012881857,
0.308635117,
-0.103828292,
0.048052627,
-0.409274032,
0.457746378,
-0.190496734,
0.139393677,
-0.491682501,
-0.008096212,0.327832292,-0.022603838,0.290856892,1.346621426,-0.070373262,0.011417803,0.319593018,0.281161304,-0.201078168,
-0.319879535,-0.191409896,-0.286058897,0.304762026,-0.184561972,0.062920641,-0.188447097,0.064774864,-0.070166365,-0.012575494,
-0.332475376,0.281894105,0.046758715,-0.198540301,0.361685720,0.026448388,-0.192997670,0.203218564,1.020816995,0.045994973,
-0.027532228,-0.050637985,0.405679257,-0.368411468,0.349171384,0.747497838,0.732799702,-0.401938108,-0.477431438,-0.129545098,
0.422725398,0.268738667,-0.754603683,0.434992738,-0.818192731,-0.083497335,-0.011330675,-0.178126444,-0.931196176,-0.583021258,
0.688664018,0.306571467,-0.466814697,0.163196561,-0.070006248,-0.163155888,-0.404996166,0.747293688,0.340798566,-0.064364473,
0.221501543,-0.230707753,-0.230941545,-0.382724613,-0.302569818,-0.232663919,-0.036746192,0.384463668,0.031050533,0.472058968,
-0.471260824,0.598881954,0.171111295,0.294666666,0.501536580,0.046011181,-0.183159528,0.191994126,0.411715893,0.256635727,
0.212130771,-0.468329158,0.665644944,-0.260461315,-0.030854372,-0.329834929,0.317835441,0.047874842,-0.324697506,0.311732714,
-0.134848939,-0.020628351,0.127723236,0.265870443,-0.141701733,0.562563093,-0.230671824,-0.353674732,-0.068346188,0.389298719,
-0.226936994,
0.421494768,
0.289487874,
-0.636263665,
0.515537783,
0.081009971,
-0.276804116,
0.554101621,
-0.052773184,
-0.003103051,
-0.005425514,0.390794239,0.700330328,-0.263554069,0.719532101,-0.971569228,-0.056815234,0.093409902,0.549210590,0.266427698,
0.441339351,1.084777022,-0.124816028,-0.231083019,-0.268096350,0.206374461,-0.008011544,-0.260599888,-0.409713719,-0.275148882,
-0.254205975,0.063421200,0.371456972,-0.362788507,-0.271961595,0.411028388,-0.122195919,-0.807088906,-0.024308180,-0.534025757,
-0.093710982,0.759771544,-0.202970041,-0.111202390,-0.247763055,0.208479853,0.449748474,-0.262712853,0.390376415,-0.382876150,
0.055582399,-0.027384526,0.254828377,0.499040075,1.070177422,0.025340276,0.019127348,1.131373975,0.160012590,0.021298696,
0.614612623,0.464311730,-0.357683869,0.676468684,-0.192193460,0.070124346,0.342571096,-0.117080088,0.136800962,-0.277682662,
-0.031740290,0.428412325,0.218223306,0.348471781,-0.097001389,-0.111305075,-0.071682268,-0.137167613,0.036930141,-0.866549845,
0.598916067,0.300866713,0.152189066,0.112560477,-0.309375917,0.816582531,0.683774983,0.237957407,0.687004576,-0.663356716,
0.369496527,-1.084593915,0.438061454,-0.690433395,-0.290502242,0.170368040,0.053068351,-0.988559315,-0.064803885,0.104480046,
-0.111904223,0.550038950,0.278414240,-0.335984684,-0.880315365,-0.517819338,0.287462054,-0.603325240,0.330107136,0.447429068,
-0.178937469,
-0.945177479,
0.337019206,
-0.301936538,
0.341949463,
0.091829233,
-0.326511745,
0.089588672,
0.075511002,
-0.307223398,
0.517036896,0.163831949,-0.124055719,-0.366147616,-0.001551732,-0.037764020,0.445162114,0.053052754,0.619048845,-0.018651887,
0.062565101,-0.209777192,0.103804459,-0.869348243,0.155280668,0.467444211,-0.569048076,-0.719958069,-0.054098670,0.260692323,
-0.506320844,0.237195314,-0.071846629,0.169609842,-0.059267673,-1.045196403,-0.282496678,-0.013690147,0.119754288,-0.000959618,
0.465534306,-0.374557460,-0.422486763,0.274837445,0.092424354,-0.046012207,-0.064793620,0.723207513,0.277407578,0.640361331,
0.241059117,-0.089626801,-0.597927436,0.269855098,-0.164902347,0.109724869,0.487737099,-0.482465019,0.382039065,-0.107902806,
-0.219736535,0.203980322,-0.444195542,-0.410648028,0.099715073,-0.263615518,-0.816607097,0.252445866,-0.203350925,0.401345028,
-0.487814219,-0.065622826,-0.192936900,-0.172584958,-0.054562919,-0.226766468,0.595457879,-0.177152817,-0.531227956,-0.292606205,
-0.298917676,0.687544123,0.208639429,0.689850532,0.065474345,-0.115717189,1.174736778,0.229621064,-0.070142879,-0.982729314,
0.128261531,-0.461778312,-0.567710294,-0.001504527,0.383837862,-0.470089900,0.119147731,0.058334661,-0.545484198,0.329790061,
-0.234478040,0.058963944,-0.026883740,0.104252248,0.286367137,-0.540886597,0.292335759,0.160364788,0.617833635,0.114838181,
-0.305192353,
-0.372858728,
0.017041966,
-0.030639695,
-0.636706877,
0.089117272,
-0.649508124,
0.208849690,
-0.264119581,
0.169175103,
0.409104674,-0.972770161,-0.859259262,0.279711473,-0.593010649,0.642706644,-0.382570961,0.036127110,-0.079415074,-0.163916121,
0.173349256,-0.348767951,-0.206611034,0.761108555,-0.602638505,0.752970365,0.092148916,-0.171337482,0.266655284,-0.437509701,
0.032451171,0.351702028,0.476475895,0.999497647,0.279572289,0.313330355,-0.116949705,0.154062733,-0.435320879,0.226664151,
-0.002446273,-0.259647163,0.129755005,0.206333710,-0.721934176,-0.038798158,0.466928920,-0.403239477,0.614183125,0.454820609,
-0.123313722,-0.038792602,-0.494808007,-0.053745906,0.067009342,1.062830653,0.344922501,-0.224952032,0.789299492,0.138899525,
-0.177427653,-0.416003268,-0.624567831,-0.325685732,-0.360111025,-0.078181671,0.507248407,0.307780858,0.419315991,0.426010640,
-0.248170726,-0.232305904,0.857731361,-0.205556593,0.025578145,-0.037988881,0.090023109,0.289517179,-0.380503111,-0.457346301,
-0.805558179,-0.347323243,0.204166395,0.634335691,-0.157534198,-0.130181919,-0.390415449,0.165142542,0.090974229,0.885761675,
0.519997815,0.737926607,0.172834213,0.604826488,0.501117710,0.407412083,-0.525726554,0.181468700,-0.561976684,0.163754879,
0.440447706,-0.865261624,0.074479739,0.088261023,-0.021248996,-0.493202754,-0.642519275,0.928799313,0.087293947,-0.317405879,
-0.124956852,
0.217472216,
-0.550216362,
0.055255595,
0.175015559,
-0.010566911,
0.841614669,
0.036198243,
0.221777692,
-0.416740544,
0.244939440,1.662169818,-0.081330122,-0.314050913,-0.183611253,-0.567812631,0.738214870,-0.384230660,-0.135975592,0.478963599,
0.369940462,0.289793732,0.286814519,0.385073684,-0.254483758,0.448172809,-0.468829662,0.448185497,0.926946463,-0.208553929,
-0.219055459,-0.168183327,-0.538101313,0.202787270,0.590125656,-0.333961799,0.187847358,-0.105314390,0.262581806,0.254864962,
-0.426145894,0.850349928,-0.049818586,0.293975795,0.358833587,-0.332957395,0.206693433,0.105399208,0.477061043,0.284224315,
0.597176290,-0.457205536,0.465894428,0.078755009,-0.625461036,-0.069028579,-0.754070303,-0.856545189,0.461831402,0.080104500,
0.231593922,-0.264175817,-0.220990599,0.462355483,0.202173255,-0.193547053,0.801068991,-0.266304106,-0.372368668,0.726481412,
-0.444093467,0.717485212,0.077744081,0.076733638,-0.412214428,0.229966729,0.241366113,0.114961840,-0.057276595,-0.301748797,
0.375687418,-0.007509904,0.941961558,0.287907752,-0.097952741,0.225994350,0.343667383,-0.472443151,0.112698454,-0.003138533,
-0.215905296,0.082536883,0.161647893,-0.859960592,-0.154275120,-0.179030396,-0.102429860,-0.131931996,-0.184023993,0.008605477,
0.720315356,0.229585006,0.057416413,0.231287633,0.244313417,0.286009714,-0.883135347,-0.760014996,-0.136842531,0.941738198,
-0.430376043,
-0.356974414,
0.269600373,
0.085705617,
0.089062421,
-0.285523971,
-0.140368159,
-0.658115766,
-0.302332981,
-0.264411951,
-0.461942755,0.610083347,0.062643715,-0.158276911,0.760742542,-0.067179370,-0.521737368,-0.272232532,-0.209539525,-0.274730467,
-0.129138203,0.743089773,0.779140847,-0.176724209,-0.200979080,-0.181149702,-0.404313091,0.253155393,-0.418648066,-0.692731019,
-0.471657964,0.520227331,-0.776065299,-0.281850431,0.412364054,0.612404503,-0.207076098,-0.281630349,0.668259893,-0.337737233,
-0.559095159,-0.836883902,0.305574693,-0.070338539,-0.106880708,-0.066794695,-0.737541992,-0.050977733,-0.374287410,0.082289799,
0.089000259,0.408696478,-0.221330038,0.153288465,0.019993826,-0.441919899,-0.121057796,-0.303705227,-0.107979096,0.142767503,
-0.182247873,0.387829664,0.335407145,-0.001942988,0.431295117,-0.281307363,-0.454179772,-0.216481052,0.298469205,0.440212072,
-0.342085534,-0.232897210,0.406991328,-0.314265452,0.294012373,-0.753001448,0.205724619,0.141972613,-0.380466702,0.019849427,
-0.760012599,-0.467527203,-0.210541005,0.326362658,0.419010091,-0.026120727,0.348052925,-0.775098584,0.028059630,0.344564610,
-0.254837275,0.464770580,0.759264038,-0.292959961,0.286254587,-0.377109082,0.057564606,-0.456818138,0.292225080,-0.162702921,
0.306328329,0.119111203,0.047459592,-0.264506592,0.365026185,-0.314380992,0.152198106,-0.149016799,0.039388342,-0.268056766,
0.242699682,
0.165025375,
0.314374130,
0.181835069,
-0.881862423,
-0.042632712,
0.261358745,
0.662793459,
0.115004563,
-0.400828646,
0.104958275,-0.222259238,0.582462738,0.225291297,0.730111689,0.555800770,0.910417320,-0.297237053,-0.719445423,-0.180108385,
0.124936094,-0.088330982,0.335875437,-0.072086136,0.338823890,0.174820380,-0.477168015,0.170978039,0.437353480,-0.146337183,
1.136604660,-0.240805062,-0.124425735,0.038115295,-0.479299192,0.268473028,0.031975925,0.001036148,0.081802234,-0.395928734,
-0.435789534,0.032154449,0.179804216,0.050656097,-0.278118004,0.691728642,0.343791225,0.798677257,0.348648326,0.314593050,
0.315151664,0.032035214,-0.505803671,-0.244962400,0.671921763,-0.518640666,-0.139111100,-0.488705820,0.643422752,0.324535315,
0.023232088,0.472991530,0.223974656,0.176840214,0.611741627,-0.554867153,0.346948964,-0.850333750,0.334699126,0.477164490,
-0.096178028,0.369413298,0.239556806,0.205588487,0.080475093,-0.354677105,-0.239136840,0.291401363,0.160811949,0.422727451,
-0.197707644,-0.108928099,-0.129308844,-0.076732609,-0.260130217,0.118927858,-0.162845699,0.229942388,-0.222134704,0.719506231,
0.170181318,0.272862477,-0.456842272,0.581136584,-0.045739085,-0.208112333,0.321859668,-0.740479206,-0.097081723,0.234219318,
0.119276650,-0.366502386,-0.556984516,-0.515663699,0.593924068,0.548993474,0.061200636,0.147901043,-0.216298447,0.611419373,
0.178667064,
0.514193573,
-0.769158129,
-0.282864101,
-0.298685455,
-0.260956660,
-0.077648762,
-0.150191056,
-0.000139487,
-0.180332934,
-0.110260218,-0.723141447,-0.542569223,0.053789686,0.221087380,-0.128307292,0.387834938,0.146910488,-0.423094015,-0.131629759,
0.475324506,0.396505273,-0.395784760,-0.032629693,-0.488789254,-0.077271916,0.033051567,0.198849737,0.040241776,-0.150865971,
0.479532999,0.406051798,0.030369089,0.139962593,0.169969288,0.770697782,-0.805833957,0.224646296,-0.253735190,-0.265468846,
-0.155122069,-0.215488283,-0.046079997,0.719018368,0.317328642,-0.455255521,-0.122330761,-0.222246302,-0.868102658,0.419553951,
0.912437975,-0.240121603,-0.403609380,-0.021114849,0.848733133,-0.753332501,-0.124862871,-0.215133793,0.660770150,-0.311172316,
0.334585023,0.256449536,-0.430590654,-0.162572637,0.407963650,0.098557778,0.537220833,0.098586319,0.063609100,-0.189533381,
0.708474917,-0.402267780,0.124018196,0.202312679,-0.064059535,0.399281423,-0.057756588,-0.103697074,-0.129026015,0.057968102,
-0.218417128,0.069927716,-0.549429204,-0.059909480,0.022991807,1.093924352,0.610318645,-0.447672799,0.318779378,-0.052763307,
-0.202033277,-0.245521212,-0.145185511,-0.036876197,-0.369050858,0.595413142,0.845560365,-0.097131701,0.789189871,-0.627918772,
0.351876095,-0.257377068,-0.355263207,-0.070189641,0.336301404,-0.195148572,-0.514669539,-0.338124846,0.360065481,-0.702033973,
-0.543208207,
-0.487100160,
-0.231066158,
-0.255089330,
0.124059426,
0.408176116,
0.081173555,
0.411273622,
-0.433351752,
-0.349077180,
-0.422945196,-0.013758421,0.141506729,0.163454425,-0.054826234,0.061673892,1.562286350,-0.219601570,0.061259326,0.640376922,
-0.022856036,0.927267667,-0.134212380,0.454606457,0.332597397,0.018621791,0.026127381,-0.056426216,0.064337655,-0.127999776,
-0.007842834,-0.427864597,-0.038658837,0.132132699,0.043567482,-0.467996486,-0.816980739,-0.275105147,0.081074465,0.124194153,
-0.801978488,-0.339333956,-0.863860360,-0.047308282,-0.142513631,-0.214570113,-0.344986102,0.228101820,0.517803955,0.489999633,
0.260385836,-0.152635532,0.226973868,0.315290308,-0.629083013,0.118834547,0.210531691,0.261697517,-0.272211797,-0.482072605,
-0.298107824,0.247294145,-0.119129329,-0.088842550,-0.692981071,0.210000685,-0.682512039,-0.284616142,0.383671142,0.201713103,
-0.123862301,0.050340103,0.470779490,-0.508835980,0.316346952,0.438873452,-0.409350456,-0.224434064,0.045440302,0.029434497,
0.178728623,0.468667557,-0.368642407,-0.106496286,0.069900561,0.050991118,-0.103004645,-0.151478191,0.812738078,0.493556643,
-0.036897344,0.147884763,-0.066535798,0.325856866,0.031837437,-0.162503035,0.006322003,0.625737894,0.592347501,-0.813790709,
-0.020260169,-0.720218642,0.450899136,-0.728318924,0.053392531,-0.384922304,0.338382144,-0.373933836,-0.284037598,0.284999028,
0.633973643,
0.935146182,
1.022132198,
0.024783409,
0.251101839,
-0.022270128,
-0.023913628,
0.422046618,
0.148875664,
0.097165661,
0.235071856,-0.143137551,-0.390323849,0.169835622,-0.392402254,0.333624773,0.357524908,0.652988095,-0.256617595,0.426992753,
-0.275278526,-0.552336690,-0.853945116,0.241399988,-0.399863704,0.035633106,0.223221939,-0.075198109,-0.051669065,0.084733054,
0.486368173,0.209463698,-0.266645734,-0.420834875,0.073386041,-0.467184169,0.074850973,-0.227996668,-0.147819385,0.250035101,
-0.074802252,0.459661066,-0.683849334,0.004681499,0.113395110,-0.786377867,-0.137338466,-0.048753778,-0.587679535,0.161119044,
0.822451906,-0.159460786,-0.208860480,0.253617416,-0.505780563,0.644387189,0.515707603,-0.220984775,0.169818980,-0.187597416,
-0.490915166,-0.268096138,-0.126382521,-0.119121106,0.104740897,0.056481960,0.467486653,0.081505115,0.094077353,-0.136371579,
0.426095232,0.616285576,0.465016702,-0.284428039,0.825804237,0.269836383,-0.932622893,0.009438400,-0.460270765,0.397220466,
0.016037565,0.836188956,0.204817740,0.556349999,0.325617773,-0.026417808,-0.653676359,-1.067651827,0.261543440,0.012887809,
0.219822019,0.242351964,-0.464079348,-0.227715246,-0.009304295,0.068653698,0.150046494,-0.020867984,-0.606138728,0.690678297,
-0.178088398,-0.045427059,-0.602776809,0.529961322,-0.170372918,0.332415073,-0.251679350,-0.302990996,0.747104442,-0.534647657,
-0.299166725,
-0.375361234,
0.376701431,
-0.385575739,
-0.089005035,
-0.207758644,
0.635362298,
0.080139526,
-0.481498126,
0.158264693,
-0.386666614,0.741551801,-0.726345081,-0.854443846,0.638618328,0.871802017,-0.832158406,-0.483927579,-0.346934523,0.019773027,
-0.332969086,-0.178490041,-0.140684390,-0.256544618,1.232982104,0.405697276,-0.413025667,0.762888017,0.236295855,0.035035635,
-0.469542279,0.273217877,-0.153136331,-0.191406458,0.060931325,-0.292093865,-0.074925980,-0.621720017,-0.484513177,-0.345823146,
-0.018739821,-0.568051385,0.998157341,-0.156431542,-0.431967075,-0.470294372,-0.281814253,0.073552919,0.423993241,-0.051588568,
-0.606364085,0.740923678,-0.137272694,-0.166305825,-0.203164275,-0.485911022,0.552260461,1.203890062,0.109471953,-0.457494818,
-0.096350730,-0.251154864,0.522184043,0.102448778,0.283747243,0.349952690,-0.133343901,-0.708623607,-0.283985119,0.590048771,
-0.054920085,-0.075621672,0.095426326,0.076477590,0.000433646,0.255939406,0.181144619,-0.464861698,0.549316413,-0.086975105,
0.782006200,0.077840750,-0.069033687,0.200353588,-0.394791079,-0.120905280,0.237580824,0.631331717,-0.139394869,-0.862136688,
0.313998246,-0.492517269,-0.198228525,-0.562894049,0.086773456,-0.053854615,-0.941715317,0.111753920,0.035774942,0.356483534,
-0.083567974,-0.354092711,-0.023594166,-0.198890723,-0.030931822,-0.339420613,-0.061140692,0.019759281,0.444970170,0.071860164,
0.082240196,
-0.308565688,
-0.047782719,
-0.050213019,
0.136641910,
0.032229520,
0.871331615,
-0.328461162,
0.476947487,
0.034534816,
-0.383477462,0.118996281,0.480334164,-0.683555645,-0.500931371,-0.392534872,0.213942362,0.039333626,-0.298467111,0.430493054,
0.328351457,0.100436549,-0.134423333,-0.659537548,-0.116336890,-0.409355418,0.221652338,0.116152286,-0.302938046,0.560884188,
0.287893632,-0.183747429,0.066273483,-0.418459808,-0.318241839,0.002604261,-0.595461108,-0.164136526,0.023603451,-0.772649372,
0.039151655,-0.675071680,0.101198624,-0.053962706,0.977678951,0.326005896,-0.238537656,-0.591221174,0.443659590,0.322522822,
-0.234146894,-0.152804210,0.486636184,-0.235460819,-0.011440302,-0.031404520,-0.421929694,-0.526160926,0.259436164,0.161578416,
-0.228351697,-0.969675974,-1.093671468,-0.452045749,-0.604975982,0.222394276,0.165765969,-0.792424491,0.094829877,-0.144450841,
0.165524324,-0.603823032,-1.159667561,0.484829241,-0.592541044,-0.305900302,0.826624198,-0.152717741,-0.500301549,0.893306867,
-0.062186237,-0.298432200,0.251796046,0.604500565,0.196466884,-0.637919997,0.256699903,-0.296411267,-0.767833241,0.135963838,
0.276344828,0.285744382,-1.376296347,-0.130789385,-0.959617775,0.190031633,0.496638385,0.109185675,0.030029886,-0.276497631,
0.159499070,0.196994180,-0.407664859,0.055086455,0.028155080,1.012738299,0.704143353,0.196354397,-0.006153905,-0.992117199,
-0.540182079,
-0.829358007,
-0.333180525,
-0.111316092,
0.159313894,
-0.629885701,
0.577739562,
-0.132998700,
0.367319810,
-0.287486271,
0.583068282,-0.102007429,0.293725263,-0.187911333,0.047483117,-0.547799018,-1.066033017,-0.513809031,-0.620198198,0.598794033,
0.082229403,-0.037519165,0.149985130,-0.459438637,0.324992369,0.398567959,0.445920326,0.223443844,-0.265318798,-0.083556371,
0.241629708,-0.587012996,-0.136550133,0.524548965,0.140536634,-0.021531368,0.811097022,0.197368732,0.371085899,-0.468762656,
0.008556757,0.352702015,-0.285712407,-0.030045749,0.489692664,-0.086478594,0.420285982,0.209018043,-0.088276071,0.270252291,
0.381278668,0.235026545,0.530111449,-0.615713627,0.437896036,0.640260871,0.090429192,0.435141161,0.612657894,-0.338007318,
-0.876938127,-0.136161128,0.500402111,-0.167567147,0.725309445,0.147240639,-0.019670521,0.454176253,0.064543794,-0.028418981,
-0.492446256,-0.339330797,-0.556578350,0.503109421,-0.235236062,0.235462867,0.456797073,-0.325785368,0.005284936,0.452024946,
-0.308946367,0.051682665,0.027796947,-0.335261910,-0.460572765,-0.364123770,-0.649976674,-0.331866805,-0.659517804,0.128217842,
0.395305944,-0.410690836,0.175431488,-0.469343997,-1.015395557,-0.197537786,-0.568953328,0.174677867,-0.204992380,0.165881420,
0.014314792,0.536270254,-1.233153672,0.537499356,-0.069959871,0.791144499,-0.186801479,0.498874557,1.056657906,0.065392139,
0.616658149,
1.060515616,
-0.346853600,
-0.251853309,
0.116454917,
0.523045392,
-0.266915664,
-0.498815045,
0.093800977,
0.679695891,
0.464115072,-0.388324423,0.051633358,0.190287716,-0.598345802,-0.248338217,0.183364134,0.194412914,-0.328632729,0.058429650,
0.419598448,0.160573502,0.269485999,-0.289161717,-0.327699189,-0.051577772,-0.588882740,0.338992271,0.603828476,0.054373594,
0.762964378,-0.157321921,0.840691868,0.022987831,-0.341163475,-0.614305049,0.021605884,-0.546750906,0.885916944,0.047284565,
0.655036103,0.617784060,0.290183273,-0.583860391,-0.038307083,-0.483180408,-0.203358397,0.059440626,0.282318185,-0.135093226,
0.376476627,-0.142225247,-0.017495479,0.382830093,0.674778600,-0.315181255,-0.476847504,0.774077255,0.012063556,-0.051975438,
-0.460263868,-0.270144865,0.140523841,0.123798425,-0.224450741,0.062938025,0.014866312,-0.349428641,0.408096504,-0.005315909,
0.590197458,0.581496560,-0.088282941,0.332634034,-0.256851257,-0.018597893,-0.125612838,-0.634433426,-0.599518443,0.365113351,
0.056487291,0.262580604,-0.301749605,-0.340627358,0.552946903,0.248675814,-0.350352758,-0.638307690,-0.119272878,0.016765906,
-0.370726159,-0.149188068,0.174488275,-1.135285144,0.018825613,0.475615745,-0.021622761,0.075597601,0.565995773,0.336104072,
-0.389325205,-0.180497935,-1.186157528,-0.278709959,-0.489009173,0.280790052,-0.396745631,-0.227809823,0.155166785,0.269341949,
-0.244746934,
0.321110231,
0.164486095,
0.002150978,
-0.291598730,
0.071642482,
-0.391077598,
-0.319960409,
-0.045997143,
0.069597390,
0.228099152,0.058570659,-0.023461741,-0.197544256,0.789887461,-0.050409523,0.134981145,-0.119615683,-0.324682771,-0.323007056,
-0.237504749,0.417922860,-0.506138246,-0.762122233,-1.036014233,0.462715185,-0.126465941,0.107034649,0.126924251,0.331010526,
0.726373391,0.110201242,0.222031261,0.042314020,-0.161356607,-0.055420762,-0.183432302,0.258319532,-0.077782915,-0.045669757,
-0.618383525,-0.391219378,0.002595742,0.229269928,-0.383762733,-0.323466323,-0.535565690,-0.138481472,-0.557310869,0.190044064,
-0.580305938,-0.052126088,0.179194660,0.413948798,-0.729379805,-1.100291591,0.678880272,-0.893465486,0.129545309,-0.433622561,
0.198165402,-0.656005507,-0.085398891,-0.454064363,0.479475771,0.077840493,-0.055720716,-0.054095049,0.041433607,0.110460864,
-0.721270183,0.680890652,0.133790847,0.331211961,-0.187924578,0.281605058,0.438738753,0.204822710,-0.036921533,-0.190713777,
-0.464478026,0.349945286,-0.077269315,0.177871718,0.473953138,-0.584243633,-0.267858309,-0.002133248,0.063106481,-0.292849804,
-0.285784404,0.002373654,0.419065542,-0.326237593,-0.426740135,0.320027341,0.352411126,0.152094955,0.072641219,-0.366899553,
-0.467164683,-0.403915357,0.301476435,0.588742595,-0.440131960,-0.306013897,-0.509560111,0.767121943,-0.185182575,0.059798142,
-1.013810130,
-0.351593358,
0.625104443,
0.122659817,
-0.225739003,
-0.429702659,
0.171428510,
0.050477553,
0.061878256,
-0.154140901,
0.145839123,0.745196987,-0.990538494,0.775081370,0.308333100,0.056077940,0.258596491,0.351862285,-0.112977166,-0.213997840,
-0.397319951,-0.049107674,-1.089594072,-0.161495758,0.293310993,0.526277626,-0.085399049,-0.312377467,-1.031307699,0.067767106,
-0.258245480,-0.304332342,0.520523326,0.671151409,0.075719189,0.087686118,-0.066241551,-0.806004780,-0.006814772,-0.601519306,
0.900500078,0.552987119,0.114665988,-0.171284436,0.419833040,0.213399124,-0.723803543,0.768985864,0.059338188,-0.406732151,
0.379789797,-0.322812268,0.659133433,-0.135104828,0.193821661,0.228878122,0.608063245,0.619561903,0.171107211,0.079697061,
-0.251955420,0.015681115,0.911152841,-0.039347620,-0.415314310,0.049426891,-0.244205961,-0.847961333,0.119457583,0.731460012,
0.020824693,0.223650615,0.720390261,-0.164234859,-0.227859749,0.120983901,-0.476236222,0.592347155,-0.205143791,0.277329267,
-0.127776183,0.292506374,0.533433004,0.205544824,0.658219099,0.908963312,0.198230592,-0.376990657,-0.329711172,-0.471690979,
-0.081488174,0.052971916,0.726664345,-0.699876736,-0.152849565,-0.645784973,-0.882678301,-0.234152014,-0.552052487,0.327860052,
0.003983242,-0.517077658,-0.019888512,0.049524361,-0.696276127,-0.318531238,0.792337923,-0.578921763,-0.440963234,0.345649139,
-0.228114509,
-0.017790347,
0.089124421,
0.838819999,
0.421326809,
-0.667795017,
0.144944926,
0.086013719,
-0.391510292,
0.316117126,
0.482681187,0.675815997,0.254309127,0.060565986,-0.062609036,0.128953379,0.487761633,-0.012937260,0.256383101,-0.008745638,
0.069021487,0.348019247,-0.028498038,0.222082569,0.399367855,-0.254824691,0.017386399,0.303793637,0.115599808,0.453765850,
0.490270201,0.324076033,-0.232102880,0.056765696,0.478701672,0.264521087,-0.691980781,-1.063648678,-0.134229155,0.255833754,
0.733211992,0.154058006,-0.463852693,0.019112072,0.166629691,-0.273263719,-0.059065483,-0.252957045,0.763658323,-0.176771159,
-0.206522721,-0.060999487,0.082144126,0.009664260,0.041012394,0.313550918,-0.623090988,0.943705089,-0.765456983,0.290225551,
0.032602663,-0.463514151,0.026570146,-0.231134353,0.439302530,0.912772167,-0.078908465,-0.120523512,0.581529997,0.182946752,
0.443605892,-0.194280317,0.103844063,-0.024349743,0.135961946,-0.004138456,-0.104666590,-0.629321711,-0.239172714,0.233217725,
0.138327760,-0.182111356,0.065449618,0.023070433,0.210962171,0.456768787,-0.135206426,0.197403211,0.219528576,0.470237055,
-0.242341194,0.587218669,0.219115244,-0.540741708,0.638052159,0.151058185,-0.735676895,0.060487985,-0.131628267,-0.218223900,
-0.212998382,-0.155130777,0.095863121,0.461659796,-0.027340938,0.559865115,-0.456317999,-0.025967271,0.766912165,0.104158495,
0.168476927,
-0.524231887,
-0.755029357,
0.030239554,
-0.118905303,
-0.286799525,
0.138709288,
-0.466451406,
-0.106798110,
0.213206308,
-0.682796640,0.476725711,-0.123838574,-0.091948996,-0.546620894,-0.045788399,0.294788105,0.087967197,0.068908171,-0.510279363,
0.826402486,0.086227471,-0.201096407,0.370969496,0.408604886,0.733336335,-0.385367725,0.047887996,-0.119816204,0.487399241,
0.691549774,0.431576157,-0.541748206,0.236078454,0.012615804,0.616672909,-0.369407045,0.235961066,-0.217446792,0.841027397,
0.105001550,-0.728133887,0.695728479,-0.916522436,0.170022038,0.110409063,0.340815601,-0.480680813,-0.237084975,-0.333732432,
-0.235853659,0.701323589,-0.587963499,0.075569250,-0.916205179,0.323716791,0.118395568,0.304909289,0.338046361,0.098928182,
0.325687534,0.527044064,0.062208143,-0.114490807,0.089098599,0.172086031,-0.045625445,-0.396024631,0.557061179,-0.086426488,
0.238352665,-0.086947667,-0.080856328,-0.541721472,-0.341839980,0.855217607,-0.855030480,0.431333742,0.000620347,-0.289205105,
-0.513281124,1.114585453,-1.473143621,0.145721092,0.036307265,0.477689661,-0.359567830,0.049608701,0.256199647,0.545064344,
0.078523381,-0.588512568,-0.157841792,-0.113418468,0.099608643,-0.375579172,-0.206370004,0.210917963,0.630858653,0.338498458,
0.873114768,-0.033115938,-0.845681197,-0.529325409,0.018502749,-0.020694462,0.259911467,-0.101905906,-0.426246844,0.049780338,
0.240329667,
0.317498371,
-0.106493606,
0.017720158,
-0.448224319,
-0.756695278,
-0.744713769,
0.287678887,
-0.520827563,
0.710639726,
-0.114545561,-0.379787673,-0.224768882,-0.902333476,-0.591023199,0.060345676,-0.352345382,-0.276345369,-0.680709227,-0.109110703,
-0.608593446,0.231316282,-0.635504406,-0.125788242,0.606119355,-0.295842798,-0.188525875,1.168164874,0.546251643,-0.045350952,
-0.156670795,-0.310324393,0.523310224,-0.346374532,-0.623114221,0.349463694,0.117851191,0.424304467,0.841208765,-0.661665888,
0.196607944,-0.656759925,-0.196513271,0.354363417,-0.224500499,-0.263629383,0.179294776,-0.402859106,0.079998080,-0.400236361,
-0.509648154,-0.001575637,-0.125886495,-0.353055883,0.758987025,0.098191565,0.019450081,-0.530496927,-0.058853296,-0.510992731,
-0.022422780,-0.300867294,-0.249463321,0.194108073,0.136554341,0.235019043,-0.571342727,-0.394620907,-0.131614408,-0.097657281,
0.082214037,0.798078841,0.096575953,0.164677223,0.059791153,0.168479301,0.505143040,-0.523060995,-0.556472157,0.345786114,
0.129760892,-0.609335193,-0.204559983,0.139013665,0.129080414,0.025190903,-0.163314380,-0.049995005,-0.667301402,0.377122965,
-0.366298705,-0.736410409,-0.610762505,0.028121263,-0.185345857,0.062102650,0.140738911,-0.127599305,-0.133180048,-0.037225305,
-0.282622531,-0.378512317,0.173358496,0.123225714,-0.014649860,0.241209419,-0.036547041,0.160007944,-0.593729105,0.899472881,
-0.594175558,
-0.068281371,
-0.556206698,
0.996683612,
0.265151792,
-0.539712909,
-0.259139992,
0.020429457,
0.168656566,
0.516492280,
0.322926012,0.979242425,-0.133363378,0.345861596,0.080243240,-0.129113238,0.163007564,-0.121190533,-0.439134068,0.593559080,
-0.501652302,0.123564989,-0.455651061,-0.054137276,0.109582711,-0.152672124,-0.076005086,-0.402757963,0.353058965,-0.326657897,
-0.494147075,-0.173660805,0.216980317,-0.192616543,-0.285579633,-0.061987878,-0.380726687,-0.250686530,-0.127200918,0.100370073,
0.573167399,0.321773545,-0.251103711,-0.091453908,0.118113261,0.523780508,0.114294421,-0.416547183,-0.242906205,0.024814812,
-0.332234214,-0.073749873,-0.071808670,-0.408136917,-0.882450421,0.081948131,-0.319956979,0.301482371,-0.527995727,0.140823189,
-0.687796849,0.209657137,0.165765736,-0.150700282,0.308958024,-0.269679342,-0.258502833,-0.029445077,-0.516715851,-0.384494399,
0.041094962,-0.047331508,0.160672710,0.155430794,0.136744985,-0.737807578,0.033136297,0.811284917,-0.310419410,-0.537022391,
0.077236457,-0.271426644,-0.267238397,0.244908203,-0.263543381,-0.253815529,-1.015831035,0.101597356,0.675743650,0.069994908,
0.839653937,-0.772676450,-0.313257225,0.403196129,-0.517941835,0.208194043,-0.325527835,-0.024682948,-0.685535331,-0.322233637,
-0.197006515,-0.806069578,-0.267196822,0.297900046,-0.146641197,-0.049454681,-0.619321440,-0.112453812,0.796665203,-0.104767822,
0.135713775,
0.225951772,
0.404447880,
-0.021923985,
-0.123639119,
0.683840717,
0.064527119,
0.352616387,
0.779943512,
0.197217496,
-0.789695942,0.012955717,-0.900655842,0.533457777,0.281096564,-0.021559363,0.573217442,0.891702023,0.201159391,0.237617116,
-0.305239176,-1.169377717,0.579557796,-0.222621922,0.258826860,0.012429321,0.194421420,-0.377825056,-0.189881285,-0.229091650,
0.036950543,0.390126547,-0.304102120,0.566433322,0.282040021,-0.045513138,-0.146203652,-0.006841362,0.419728076,-0.265733373,
-0.382575446,-0.085693576,-0.301070303,0.296959274,-0.439742963,0.092184007,0.491887543,-0.184028565,-0.423974653,-0.598808082,
0.075035695,0.284874411,0.016424263,0.085673724,0.341028649,0.531007361,0.595964287,-0.487320737,-0.675683998,0.564386128,
-0.152963598,-0.186244058,-0.234400392,0.325416152,-0.414682332,0.762430878,-0.645224939,0.908482958,0.563134468,0.246978523,
-0.260353825,-0.386496339,0.109360343,-0.559548219,-0.866373596,0.177845636,0.484417037,-1.102947385,0.374284560,-0.021242043,
0.298597214,0.044085128,0.103309724,0.071681992,1.317458362,0.534754904,-0.097495289,-0.343904666,-0.056399159,-1.140127449,
-0.632849542,-0.452018591,0.227620683,0.211707063,0.058631659,-0.136900927,0.546818077,-0.344071446,0.121615071,-0.236341018,
0.372043467,0.390342165,-0.098611026,0.228928876,-0.221159922,0.150426655,0.278855682,-0.471483412,0.525388510,0.582168517,
-0.904739784,
-0.590076701,
0.171052628,
-0.861780953,
0.432927452,
0.015786698,
0.116901094,
0.307779288,
-0.745242373,
-0.110730388,
-0.218010360,0.500861313,-0.330675983,-0.144541895,0.018312448,0.264851501,0.308503584,0.220573854,0.173672945,0.140439317,
-0.447079706,0.045252909,0.400299466,0.019388767,-0.580295535,0.293254458,-0.163098827,0.403959845,-0.116314270,-0.624602743,
-0.399284499,0.526924502,0.473529855,-0.390321558,0.129428254,-0.779496719,-0.478927309,-0.060532489,-0.109108611,-0.031364005,
0.162209835,-0.405541928,0.471473061,-0.486480335,-0.720234657,0.363781415,0.597201021,-0.344662525,0.414726714,-0.182846514,
-0.457602390,-0.107518887,-0.429167995,0.351627001,0.432315834,-0.064589349,0.131666167,0.380984809,0.241457583,-0.038903586,
-0.410466991,-0.536575260,-0.224757223,-0.206684314,0.156034101,0.152688631,0.561991693,0.680962333,-0.346346166,0.134065824,
0.045668801,0.017216303,-0.027818460,0.228277628,0.551448563,0.293306970,-0.316373423,0.183856673,0.165701335,0.646518004,
0.766186065,0.494049489,0.374871393,-0.367460216,0.283599262,0.375171542,0.078966092,-0.236141475,-0.263669725,-0.068511283,
-0.365978985,0.069223087,0.275854462,0.259307495,-0.797152647,-0.045754927,0.171852845,-0.716270056,-0.172169815,0.255042215,
0.491254790,-0.629683813,-0.086378266,-0.488538752,-0.168996043,-0.289093433,0.304440334,0.250583910,-0.715806699,-0.532713207,
0.320057961,
-0.845804230,
-0.090436881,
0.376071461,
-0.721455024,
-0.849219901,
-0.191031316,
-0.926073779,
0.372084036,
-0.304694712,
-0.428946668,0.049708484,0.045825582,-0.441877404,-0.331179929,0.931266730,-0.767817081,0.478515586,0.258236766,-0.037255284,
0.166044109,0.181298339,-0.259619437,0.104537283,-0.291054854,0.097420448,-0.348342080,0.541459829,-0.723302755,-0.218395703,
-0.103364617,0.506675876,0.262262160,-0.509711736,-0.137671049,-0.698539427,0.375170638,0.380936613,0.064008780,0.231937292,
0.112841040,0.654732955,0.567807271,0.166180932,-0.420474364,0.426356952,0.340459139,0.210058348,0.509715578,-0.270812104,
-0.150277398,0.046256235,-0.312661597,0.293651319,-0.225773468,-0.365374607,0.245155406,0.324892263,0.358544973,-0.102071087,
0.513290355,0.199357431,-0.649012154,0.171690087,-0.324855557,0.437422456,-0.225129711,0.057992926,0.309224960,-0.369686364,
0.332455137,-0.491601624,0.371289451,0.224627662,0.029109936,0.188963500,0.022003859,0.415023148,0.579552744,-0.552832837,
-0.116117382,0.204083761,-0.263915169,-0.105298603,0.042033939,-0.564410977,0.106972204,0.266358433,0.003325124,-0.061672174,
-0.460812919,-0.138205337,0.525602004,-0.258799725,0.052736432,0.019989256,-0.313529438,-0.750252001,0.445729927,0.622241982,
0.451906260,0.153036134,0.364625155,-0.427172819,-0.007385732,-0.053736743,0.049839584,0.202769298,0.882646574,-0.323024781,
0.048727646,
-0.193633086,
0.547797857,
-0.333884150,
-0.199837134,
-0.236917818,
-0.296178126,
0.457856206,
-0.501427862,
-0.499010318,
0.210957505,0.295619518,-0.222134151,0.721188182,0.037069860,-0.123138411,0.434015525,-0.694156262,-0.704283541,-0.660623432,
-0.274340687,-0.191580276,1.289723041,-0.323035721,-0.069827754,0.395193116,0.521326927,-0.289573450,-0.255860577,0.155214121,
0.272592294,0.180567181,-0.372188292,0.037228980,0.265508109,0.164099391,-0.286276069,-0.471994649,-0.545023669,0.488370808,
0.127469667,-0.093913247,-0.067074613,-0.391648531,0.351700724,-0.841127362,0.145246441,-0.293914195,-0.062346799,-0.002284539,
0.184345195,-0.405051096,-0.010264018,0.032675217,0.358760107,0.076887846,-0.442531243,-0.035268291,0.197861960,-0.509946806,
0.598972548,-0.592863751,0.131805213,-0.235784199,-0.814205582,-0.431065904,-0.159325457,0.484061134,0.113568831,-0.686522933,
0.548140030,-0.172588205,0.245582328,-0.446220883,-0.158603684,-1.074847425,0.622926386,-0.983397945,0.344386710,0.793689352,
-0.182238169,-0.195296348,-0.175494396,-0.691398221,0.372628236,-0.227483524,-0.078174410,0.042803413,-0.098817334,0.064711480,
-0.087909496,0.415887832,0.052842381,-0.233177994,-0.257641137,-0.549534298,0.327955865,0.272744522,-0.156961105,0.185759932,
-0.085504682,-0.170387846,-0.222063043,-0.010891360,-0.131780503,-0.739734665,-0.435495950,-0.502709385,-0.429157674,-0.314795812,
-0.226598072,
-0.475844984,
0.432891437,
0.005994756,
0.345796353,
-0.485757223,
-0.232079004,
0.511176273,
0.376517279,
-0.236357821,
0.028754014,0.365043304,0.287073279,0.189154824,-0.133107026,0.548432045,-0.318052370,0.537703619,-0.571639962,0.192195515,
-0.058842252,0.542205479,-0.225020482,-0.749116956,0.680078774,-0.197713377,-0.012661845,0.196591767,-0.552737959,-0.093364508,
-0.416056713,-0.469200088,0.470453201,-0.247074242,0.201414384,-0.023415938,0.279091281,-0.372764274,-0.730097096,-0.421381894,
0.054339736,-0.480889814,-0.109179937,0.816938535,0.505235215,0.295015319,-0.102716844,0.431910414,0.196738931,-0.506416827,
-0.106527268,-0.459774073,-0.492583339,1.076856822,0.037035177,0.511520997,0.429707142,0.133863297,0.042395333,-0.150523630,
0.040772141,0.074882072,-0.646240986,-0.503188098,-0.352066373,-1.441030229,-0.553388333,0.400748282,-0.227934959,0.456058447,
0.271238570,-0.520632952,-0.412057041,-0.324336799,0.785702002,0.500777040,-0.534935169,0.630198830,-0.494735311,-0.088071129,
0.162058623,-0.279389235,0.217554333,-0.506728210,-0.650827787,-0.797260226,0.148325161,-0.058480968,-0.465194027,-0.260039839,
0.055744497,-0.937646448,0.417795182,0.433630058,-0.302582297,-0.334313921,-0.243330358,0.102990652,-0.151517602,-0.276403922,
0.152837559,0.335416866,-0.218256113,-0.634180201,-0.684751659,0.510383937,-0.028652703,0.224801230,-0.257584140,-0.013643087,
-0.011051170,
-0.000368570,
0.377998406,
-0.331068641,
-0.105602057,
0.097218289,
-0.125138771,
0.061494757,
-0.877738706,
-0.119021629,
-0.352854178,0.556439645,-0.340817372,-0.506833940,-0.233348325,0.260261133,-0.038676287,0.895145080,0.355716294,-0.540973015,
0.259228820,-0.405621941,-0.255413397,0.321406121,-0.246707664,-0.060138207,0.115303798,0.169112046,-0.485307945,0.475711094,
-0.544518679,1.028715813,0.158648972,0.678142079,0.209428155,0.422212989,-0.076411519,-0.082494127,-0.205067936,-0.028629754,
-0.693541074,0.299332638,0.243674522,-0.525453558,-0.359241632,-0.036671360,0.021920549,-0.053970933,-0.024772498,-0.160262238,
-0.266309306,0.696112936,-0.394560397,0.162648020,0.179827738,-0.172475816,0.284308275,-0.367794215,-0.469341683,0.623861250,
1.046132747,1.126725040,-0.036587391,-0.423587216,0.119835904,0.408995462,-0.391798223,-0.666003066,-0.570218541,0.167705309,
0.366464312,-0.573344177,-0.254995379,0.323010426,-0.107996816,-0.666784526,-0.259294444,-0.546582846,-0.092741476,-0.018405343,
0.279579881,0.402340028,-0.637251392,0.327889980,-0.520501097,0.013730350,-0.225409287,-0.774582132,-0.217735103,-0.488670791,
-0.383576024,0.149876463,-0.602601368,0.128790064,-0.142387266,0.259275892,0.174820385,-0.209550540,-0.412889394,0.538756282,
-0.773071532,-0.475543461,0.291627608,-0.172324406,0.305731115,-0.398065705,0.118029259,0.643814131,-0.820584228,0.301319674,
0.248893113,
1.038460819,
0.057475078,
0.678897460,
0.202173615,
0.048463251,
-0.186669501,
0.432591550,
-0.039755788,
-0.975369277,
-0.038763744,0.048192198,0.041340539,-0.558696264,0.659314770,0.476643440,-0.298360751,-0.105102088,0.515081526,0.410929377,
0.156685685,-0.488259403,0.437353896,-0.439734509,-0.325653198,0.226018511,-0.362969837,-0.124113411,-0.149971238,-0.423891979,
-0.262380198,0.733631647,0.444247518,-0.315205096,-0.066771856,-0.385708376,-0.154871833,0.383470386,-0.529235041,-0.171211810,
-0.479037231,-0.361200308,-0.365339199,-0.268213701,0.281018568,-0.273681445,0.049152294,0.107957371,0.326046372,0.295569342,
-0.401056917,0.169077166,0.408950669,0.288610157,-0.730010635,0.593200727,-0.357410947,0.536282789,0.250937730,-1.030580737,
-0.176461962,-0.464423719,0.037654842,-0.130832453,0.265506693,-0.444677223,-0.270115560,0.082900339,0.409965007,0.189773621,
-0.144967488,0.311115854,-0.105925067,0.381506127,-0.215677964,0.146624853,0.209062677,-0.614481270,0.045415317,-0.129504534,
-0.379068795,-0.017363610,-0.260761361,-0.121394436,-0.709456954,-0.579824811,-0.404112408,0.312800270,0.032321104,0.330448422,
-1.316026913,-0.023068836,0.418639365,0.219440612,0.694584254,-0.012039061,-0.323043023,0.565673145,-0.572955928,0.065413700,
0.218284823,-0.812069227,0.099262740,-0.178159559,0.067501538,0.633824476,0.033942952,0.198653772,-0.223028423,0.004069884,
0.133555348,
-0.289928568,
0.530964438,
0.268473018,
-0.218729280,
0.224502574,
0.211655175,
0.070336064,
0.102318972,
-0.332006128,
0.143429322,0.711696727,-0.071855290,-0.533959945,0.106510124,0.238942067,-0.679796321,-0.349708648,-0.073271271,-0.084543793,
0.074867020,-0.102692297,0.587642356,0.169492955,-0.113653272,-0.608913838,0.520522109,-0.475334454,0.092458753,0.153897278,
0.185294714,-0.263230584,0.761228627,-0.542799677,-0.445007372,-0.319129319,0.291111574,-0.421023679,-0.534724255,0.914546677,
0.513767004,0.638826357,0.272076811,0.106916740,-0.039541784,-0.325359396,0.432902404,-0.584359855,0.278834205,0.106018133,
0.255043424,-0.630567641,0.033519483,0.457895442,-0.455986747,-0.173195213,0.535107154,-0.262176073,-0.053995617,-0.164937501,
-0.135364740,-0.483527378,-0.174118317,-0.074067157,0.128499829,-0.237260481,-0.340714136,0.479884547,0.370778211,0.531723186,
-0.350467537,0.432400726,-0.182829284,-0.280807134,-0.404083742,0.342486884,-0.915030524,-0.170616264,-0.285774612,0.708716247,
0.073225598,0.275716025,0.402849079,-0.489771268,-0.596703347,-0.573189440,-0.507169187,-0.423370754,-0.129095548,0.280035072,
0.092568676,-0.351315854,0.216939748,0.833115840,-0.622023711,0.315283674,0.568106481,0.447174518,-0.830310108,0.283578957,
0.683118945,0.311475006,-0.179494712,-0.279341326,0.441313272,0.510012915,0.377626004,0.019090791,-0.711462012,0.615030258,
-0.149327470,
-0.105177222,
-0.444269468,
0.568239809,
-0.046161346,
0.273537121,
-0.769872173,
0.848782498,
-0.457012322,
0.096076695,
-0.091592958,-0.620001065,0.070004265,0.370861006,0.594645071,0.748478764,-0.028411708,0.270761246,0.162699217,0.151071318,
0.593279268,0.305454407,-0.554892475,0.045181005,-0.635045341,-0.739487739,0.205982080,0.411631275,-0.172590525,0.132083368,
-0.320142165,0.087673153,0.027821804,0.071143985,0.201287808,-0.120634321,0.219266047,-0.295190547,0.467065585,-0.195497735,
0.923688325,0.062177579,0.266252960,-0.325557460,-0.264076240,0.199913907,-0.062949633,-1.074745834,0.338168233,-0.341439016,
0.036475502,0.569026719,0.072595474,-0.243825207,-1.381502862,-0.427346251,0.262024886,-0.434223151,-0.503176374,-0.095622456,
1.243093889,0.082455235,0.657362544,-0.190433010,-0.617721109,-0.405536580,-0.716033557,0.219652636,0.375534808,-0.224274205,
-0.073271676,-0.247559756,0.685571890,0.074556388,-0.648870960,0.628273017,0.193390935,0.177418495,-0.131295837,0.403692126,
-0.058799430,0.398994390,-0.526939028,-0.217377537,0.747409502,0.226175368,0.317752655,0.191786192,0.073529578,0.161131305,
0.337032933,-0.405434740,-0.091376323,0.303940658,-0.279180889,0.048602340,0.076263044,0.468481220,0.548771694,-0.107728164,
0.373699782,-0.117503042,0.222979317,0.282228168,-0.032361211,0.305043918,0.070760299,-0.115364260,0.425225320,1.068991645,
-0.171127060,
0.878191386,
0.070315215,
-0.417906449,
0.391190537,
0.987234105,
-0.463140917,
-0.454248202,
-0.045144623,
-0.307618378,
0.040377250,-0.354846104,0.539057109,0.159517882,0.777289813,-0.500287966,1.268050548,0.058504213,0.195599350,0.976379995,
-0.541596988,-0.022663748,0.243060269,-0.182913593,0.464485435,0.483831002,0.097264814,1.178489744,0.372896315,0.850732253,
-0.814386731,-0.325304710,-0.221438116,0.321771024,0.060987428,0.437912578,0.170613274,0.200721879,-0.339905022,-0.408107899,
0.510412188,0.261340636,0.349954843,0.109862792,-0.229887470,-0.248264264,0.670379880,-0.239448546,-0.355092513,0.405374258,
-0.627441906,0.248544358,0.309196942,-0.129346104,0.340602292,-0.278497001,0.497738185,0.085452818,-0.292099048,-0.914860178,
-0.388339602,-0.027317983,0.752517348,-0.906055379,-0.156498190,-0.193869570,0.149361246,-0.147894927,0.079585489,0.009707388,
0.531027374,-0.076805487,-0.199772597,-0.173840079,0.330020229,1.040369989,0.032603833,-0.722668478,-0.809508735,0.270018417,
-0.503488965,0.444075390,0.497621777,0.187293707,-0.433364924,-0.024827974,-0.493078144,0.035381503,0.184584262,0.569809674,
0.168899336,-0.198684384,0.165730785,-0.048055936,-0.475909177,0.635978921,-0.128827702,0.153021743,-0.157665835,-0.086367630,
-0.276199384,-0.153210913,-0.023406448,-0.963503323,-0.418863514,0.333479661,-0.890580789,0.000659400,0.225863185,-0.501196694,
-0.448290994,
0.738717523,
-0.403631548,
-0.391953216,
0.462423332,
1.374455456,
0.553492759,
-0.300930993,
0.169085901,
-0.252312519,
0.193488233,0.018923821,-0.058125899,0.681543294,0.682217530,-0.036943096,0.819553096,0.243798045,0.550240553,-0.395892823,
0.200475948,0.292806344,-0.399349363,-0.161794678,0.195173504,-0.399294387,0.592888081,-0.189713049,0.558097326,0.131421696,
-0.212061778,0.274380728,-0.331343380,0.214647451,-0.175607838,-0.205966314,-0.858363192,0.066136083,-0.529507239,0.118643157,
0.334342941,0.123589477,0.172902378,0.047846385,-0.328165973,-0.496429265,0.027515542,-0.371652153,0.480747551,0.336991408,
-0.276116784,0.513616485,-0.415418439,-0.238950184,0.820108586,-0.748344948,-0.118722802,-0.026729109,0.091329498,-0.635289247,
0.642963148,0.011556990,0.356105631,0.148606323,0.750325681,-0.237953127,0.410808777,0.297112989,0.733223019,0.146031258,
-0.270787505,0.299608099,-0.527728352,-0.304892563,-0.333288107,1.014857151,0.315802682,-0.443264346,-0.078480104,0.164982356,
-0.172947267,-0.404786967,0.141851353,-0.827336234,-0.461010045,0.621011582,0.002462443,0.216253537,-0.190403192,0.328014512,
0.137456530,0.535577356,-0.328794904,-0.154955903,0.675205370,0.314872220,0.093245580,-0.176859223,-0.563926031,-0.793398756,
0.283215808,-0.601495631,-0.193561063,-0.191634244,0.678632609,-0.440512383,-0.026288282,0.267460975,0.089428245,0.855273551,
0.129376234,
0.278604583,
0.360156326,
0.093070291,
0.214946142,
0.281547481,
-0.500969141,
-0.020830159,
0.203504947,
0.031676871,
-0.228034369,-0.021660858,0.418545737,0.128929188,0.675252439,-0.008511204,-0.001908781,0.136644722,0.064254782,0.348064913,
0.480779234,-0.080296263,-0.093494459,0.306402649,0.491530083,0.373557026,-0.001938232,0.010217834,0.537126358,-0.282012821,
0.396699267,0.121235098,0.199716111,-0.085668419,0.141691382,0.484295328,-0.214042321,-1.023357826,-0.719244875,-0.088547958,
-0.294832239,-0.564708501,0.537276060,-0.004603232,-0.335969018,-0.375797434,0.628370586,-0.850381256,-0.339063285,-0.133303181,
-0.727730358,0.204889677,0.184455950,0.209616560,-0.995113948,0.278083307,0.247027962,0.616036996,-0.285911405,0.158506984,
-0.827981202,0.195129061,-0.593926230,-0.135459846,0.712685920,-0.553527836,-0.152273654,0.059587178,0.321696710,-0.215094543,
0.177922626,-0.246109510,0.062943015,-0.178805507,-0.717953225,0.154550930,0.316431376,-0.483832727,-0.107864601,-0.611951017,
0.328102479,-0.810749785,0.117183497,0.213225227,-0.196369029,0.156800196,-0.848136373,0.406203503,0.294681860,0.517995718,
-0.384836009,-0.238409985,0.664272601,0.287430277,0.240921667,-0.024370857,0.047079708,0.306504075,0.334629569,-0.018499959,
0.057433354,0.328903223,0.042245791,0.093263884,-0.498217623,-0.384925485,0.040319458,0.165956030,-0.059272565,-0.248970575,
0.498219718,
0.054536861,
0.069322283,
0.618693527,
0.063743051,
-0.380638996,
0.344068103,
0.468678001,
0.058240965,
0.558407600,
-0.190723591,-0.169561290,-0.146599046,-0.563093039,0.814076824,-0.794208651,-0.664930312,0.526338913,0.253015718,-0.278858005,
0.176410713,0.451896887,-0.166098434,0.529773478,-0.493955784,-0.653348145,-0.350898080,0.062640240,0.009112455,0.092316163,
0.396411595,-0.363963150,0.266358942,-0.511684584,-0.314944614,-0.329890992,-0.090878039,-0.526030568,0.132021647,-0.246376450,
0.604617880,0.808590851,-0.358696540,-0.585183305,0.181045281,-0.200835815,-0.818462520,-0.452580726,-0.696945511,-0.120376357,
0.414553551,-0.562113271,0.458198353,0.530984923,-0.085346649,-0.303675426,0.585595155,0.352574206,0.496941760,-0.720927432,
0.080124062,-0.346075932,-0.870070642,-0.031599319,-0.076023171,0.765477765,0.036993981,-0.006607039,-0.060329429,-0.249709584,
-0.165928916,-0.229809654,0.730472043,-0.085165795,0.197996921,0.268605642,0.068791548,-0.722843363,-0.154226837,-0.122383351,
0.089851348,0.197063552,0.251298102,0.224490238,-0.263172328,0.274498167,0.325232741,-0.130776510,0.182841990,0.158869197,
-0.142275340,-0.151294471,-0.212557053,0.210500428,-0.100892365,0.162065060,-0.438254243,-0.140012826,-0.680453942,-0.099190086,
0.489506012,0.542204429,-0.255500860,-0.861556209,-0.634687086,-0.155144964,-0.559728930,-0.588766331,-0.356186964,0.070289319,
0.159752242,
0.359781076,
-0.099309909,
-0.035148007,
0.514406829,
-0.301936580,
-0.008924756,
-0.063840857,
0.537379532,
0.262503559,
-0.072031754,-0.406744232,0.448435788,0.252266350,-0.151130985,0.156347562,-0.439762337,0.480246533,0.139633112,-0.027267305,
-0.095283912,0.205313404,-0.935419250,-0.338802991,-0.034464626,-0.927912901,0.474255457,0.201363667,-0.634281439,0.394252361,
-0.224888046,-0.270147992,-0.445404700,0.085029540,-0.237494841,0.268428417,0.320655967,-0.550382254,0.407767363,0.408582568,
-0.165092064,-0.531182008,0.083790984,0.682711292,-0.123577284,0.529515466,0.289612329,-0.214207082,-0.481707320,-0.065161480,
-0.377236032,0.316796020,-0.032773752,-0.360130691,0.995178189,-0.395374177,0.000943747,0.436581613,-0.281041916,0.371310027,
0.103228102,0.650751318,-0.058278245,-0.006062598,0.095491077,0.925811043,-0.801947002,-1.151745619,0.026023360,-0.701224719,
-0.991467695,0.481786461,0.304035115,0.241364068,-0.056300998,-0.291558002,0.236009689,-0.158330960,0.116426382,-0.174062579,
0.196848628,0.278794857,-0.036787802,0.402372958,-0.008105309,0.275533666,-0.111547083,0.026159011,0.500163647,-0.728716616,
-0.282428850,0.091668038,0.148218192,-0.811154286,-0.176437561,-0.027293492,-0.735475119,-0.072459137,0.399600176,-0.516806233,
-0.091263515,-0.031825965,0.407465900,0.310664924,-0.586297715,1.224202309,-0.098038822,0.459719841,-0.727979324,-0.160430154,
-0.134272337,
0.217293796,
-0.067636721,
0.054204577,
-0.159496753,
0.749861949,
0.139316968,
0.000229942,
0.284259519,
-0.536567067,
-0.633299800,-0.133900243,-0.470386510,-0.349574268,0.096996442,0.745763695,0.218167873,0.083360318,-0.338038772,-0.271159942,
0.112109336,0.057673604,-0.549844488,0.136682985,-0.145557158,-0.466154793,0.078138865,-0.093915684,-0.154075322,-0.275652252,
-0.206175094,
-0.011276313,
