// Neural Network File Format by Kyle Julian, Stanford 2016
16,2,2,40,
2,40,40,40,40,40,40,40,40,40,40,40,40,40,40,40,2,
0,
-10000.0,-10000.0,
10000.0,10000.0,
0.0,0.0,0.0,
1.0,1.0,1.0,
0.236518035,0.206044805,
0.229930698,-0.060178302,
-0.117048731,-0.052365574,
-0.167063298,0.100916399,
-0.225259079,-0.334987253,
-0.051909664,-0.114788493,
-0.144147514,0.046049478,
-0.117035530,-0.244883972,
-0.180385015,0.183253744,
-0.155009346,-0.212383917,
-0.219844924,0.207200624,
0.170851437,-0.187261893,
0.008156253,0.214270652,
0.185663306,0.025176747,
0.136737936,0.098204841,
-0.353752703,-0.132000659,
-0.106265378,0.098216568,
-0.059941293,0.038520687,
0.004136466,0.042759693,
-0.086898838,-0.129104807,
-0.028311584,-0.163017780,
-0.089692532,0.249642165,
-0.072540675,-0.316118801,
0.168576941,-0.082724421,
0.001337426,-0.120237632,
-0.055938946,0.002933403,
0.059757309,0.072548442,
0.069563060,0.060558529,
0.041943027,-0.068947591,
-0.123091891,-0.246961713,
-0.093613501,-0.270389719,
0.093621009,-0.041822762,
-0.117645764,0.180558248,
-0.001803548,-0.142156654,
-0.000268664,-0.110697209,
-0.086912569,0.142350962,
0.277475308,0.208733782,
-0.096248886,-0.172072697,
0.005255378,-0.089749086,
0.194027332,-0.222359466,
0.039916188,
0.187842172,
0.030352852,
-0.123143320,
0.017078929,
-0.093436422,
0.016380755,
0.084529488,
0.165282868,
-0.063356941,
0.101087079,
-0.041781041,
-0.031857754,
-0.111611262,
0.069669174,
-0.195916159,
-0.129026865,
-0.236863885,
0.143460795,
0.016957408,
-0.094332670,
-0.035528534,
-0.009431434,
-0.100186210,
-0.171013777,
0.041553060,
0.169945629,
0.051174440,
-0.099436549,
-0.097256133,
-0.224515087,
-0.009928266,
0.210334044,
0.091943855,
0.191701619,
-0.028618025,
-0.095971198,
0.320494955,
0.069041334,
-0.147299930,
-0.242174896,0.182951126,0.159710369,-0.163819692,0.270142351,-0.040850369,0.002148492,-0.139176863,0.029486609,-0.160938326,-0.103238707,-0.042126739,0.081098058,0.011052597,-0.178929138,-0.154397444,0.096434347,-0.052237149,0.145178603,0.244575647,-0.075863065,0.221061567,-0.140650766,0.117379369,0.144424753,0.152081162,0.288654659,0.079000554,-0.154578864,-0.022482005,0.056751877,-0.082356268,0.088445931,-0.048470469,-0.260142685,-0.197810269,-0.256072147,-0.228097734,-0.209155668,-0.104513751,
-0.350510275,0.163066776,0.131003556,-0.058214017,0.140853724,0.066764753,-0.017376659,0.184745991,-0.012386376,-0.076449460,-0.082021619,-0.125274648,0.300457246,-0.097057193,0.067737131,-0.251699948,0.143051561,-0.066764710,0.015704976,0.319441499,-0.093834560,0.055486142,-0.102983412,0.179621179,0.084639346,0.125856660,0.342000791,-0.039891591,0.045441643,0.209790057,-0.322138080,0.016112787,-0.215035046,0.205021611,-0.056984540,0.296186922,-0.198630363,-0.075605875,0.146384937,0.163438736,
0.047268462,0.183678294,0.323065008,-0.230508877,-0.157622169,-0.197376655,-0.028498428,0.296862858,-0.098728320,-0.157519604,-0.026632989,-0.220846341,0.125450402,0.069092934,0.284035608,-0.145933648,-0.194297051,-0.071250718,-0.080500650,-0.202486994,-0.014716772,0.080953458,0.213057472,0.201716494,0.012063865,0.285394919,-0.045228730,0.127933980,0.094251261,-0.005553205,0.026690860,-0.058259622,0.098736048,-0.216526308,0.054409475,0.241113281,0.166258418,-0.081958333,0.247096096,-0.148318217,
0.037629620,0.114115260,-0.117893216,0.285914656,-0.404381538,-0.163017252,0.068813734,-0.046007777,-0.201097083,0.035449766,0.159741009,0.122082357,0.019953299,0.148237087,-0.138694252,0.114675361,-0.027950799,-0.224659572,0.204832558,0.078157406,0.189871547,0.575052725,0.140885538,0.010352561,-0.241761442,-0.356981866,-0.102169901,0.120730744,-0.285866878,-0.108164498,-0.260267431,0.307478403,0.114665319,0.114716715,-0.023312336,0.068978557,-0.021790755,0.022440503,0.026471170,0.004322365,
-0.020103391,0.062887941,-0.049936648,0.242402790,-0.027762998,-0.337564082,-0.263593497,0.203604056,-0.233472746,0.036085149,-0.252225286,-0.118362261,0.243107051,-0.173684495,0.293956624,0.002467028,-0.128291073,-0.152661867,-0.114970907,0.174417862,0.067087274,0.036597829,0.099436902,-0.087824167,0.014350984,0.177537007,0.131879217,-0.083586513,0.132208851,-0.060307969,-0.088509829,0.033007869,0.038400334,-0.295837882,-0.011791573,-0.135416457,-0.185811533,-0.205065296,-0.041420127,0.190271830,
-0.027842142,-0.100733167,-0.083949316,-0.234893467,0.051009132,0.044852429,-0.063176247,0.226942746,-0.055129847,0.049044375,0.228263757,0.177521433,0.103062755,-0.279786703,-0.154639601,0.010677656,0.116633920,0.195640391,-0.250860735,0.001109195,-0.217971557,0.145423145,0.083009232,-0.104309530,0.013111954,-0.063266365,0.143498810,0.062227095,0.022540434,-0.022465243,0.153890841,0.056287762,-0.177074659,-0.041422332,-0.139593388,-0.238628274,-0.228395304,0.305857508,-0.051172438,-0.008267509,
-0.087398119,-0.121262443,0.094898641,-0.068305763,-0.333794878,-0.169381994,-0.081503562,0.216016773,-0.011425370,0.085424983,0.073295663,0.070073911,-0.086103418,0.108616028,0.065587839,-0.062337148,0.169512074,0.044775856,0.073251965,-0.275826489,-0.078083073,0.085221626,0.111676129,-0.082167560,-0.380962372,-0.080275067,-0.059326071,-0.194582610,0.187383305,-0.261167460,-0.183025106,0.020334121,-0.177201811,-0.052463495,0.177229842,-0.030369238,-0.123083564,-0.051554457,0.060761122,0.173111642,
0.078381426,-0.240754629,0.098381148,0.049927319,-0.024254723,0.016691087,0.238459978,0.293688503,-0.069844038,0.116794486,-0.135440527,-0.079183820,0.421739658,-0.174275724,0.011340365,0.032036161,0.116412213,0.258217594,0.226810133,0.433463893,0.353269270,-0.048550013,-0.360548563,0.144659302,-0.198468902,-0.072360501,-0.323416910,0.120592051,-0.155096954,0.273648245,-0.081330297,-0.182625641,-0.133034696,0.051014808,0.061858499,0.276577973,0.020633093,0.124926672,-0.031063528,0.060322377,
0.152392941,-0.100849879,-0.104929674,-0.067662039,0.055141493,-0.031667734,-0.393234720,0.073339165,-0.019781834,-0.194764357,0.038499288,-0.323101429,-0.266915130,-0.095942879,0.182148877,0.225218247,0.051642405,0.009663536,-0.094971361,-0.065476624,0.229404921,0.061632214,-0.048692427,0.210171743,0.130556740,-0.051652977,-0.133479146,-0.198547100,-0.156388288,-0.018652298,0.126362149,0.116062256,0.021238802,-0.049411747,-0.056652299,0.178253809,0.094661878,-0.007923958,0.301562526,0.100187178,
0.047102153,0.419897841,-0.112145175,-0.079951649,0.063731820,-0.125031750,-0.092131938,0.227587081,0.079341376,0.048531638,0.036455273,-0.035824269,-0.057811961,0.050148236,0.165799843,0.069795452,0.156415225,-0.265783351,-0.036709239,0.005432024,-0.076402991,-0.096490263,-0.211043447,-0.186794870,-0.223131117,0.346934564,-0.144278449,-0.005558671,0.004490619,-0.268286898,0.017380205,-0.143461461,0.003962049,-0.269753435,-0.000723997,0.131095386,-0.075731860,0.045473757,-0.078643521,-0.036506289,
-0.160225681,0.202164690,0.217481185,0.025629136,-0.115646851,0.152009432,-0.038800419,-0.164132084,0.007525015,0.058058000,0.020509330,0.112987270,-0.112215097,0.260945358,-0.012191159,0.014793980,0.465485475,-0.111220214,0.110165912,-0.118311268,0.560158826,-0.193268096,0.277336651,0.016649942,0.234756392,0.138047210,-0.250955152,0.285918801,-0.010889691,0.334895701,0.105940679,-0.077927582,-0.019374666,0.003909129,0.192420701,-0.142964124,-0.081018463,-0.180688946,-0.027359248,0.228571182,
0.226000983,-0.173490821,-0.337431737,-0.025563018,0.337159161,-0.062672389,-0.120423910,-0.081440167,0.098887388,0.117706658,0.114967080,0.191980690,-0.225391317,0.224373504,0.104294122,-0.049595399,-0.121158647,-0.010578738,-0.179030447,0.297111321,0.148456613,-0.148896506,-0.214483561,0.047721847,0.175547895,0.241455652,-0.178841806,-0.136943675,0.109533331,-0.187264522,-0.211412501,-0.057760530,-0.228385772,0.273841828,-0.121047435,0.391998879,0.000531779,-0.122622909,-0.207481967,0.055021163,
-0.238508672,-0.234481737,0.134001418,-0.048446903,-0.009234559,-0.010095564,-0.074096089,-0.141957946,0.565062616,-0.090655011,0.136977749,-0.223862862,-0.038102576,0.128755182,-0.011617652,0.187756830,0.041896899,0.073366573,0.117416813,0.052473773,-0.130328513,0.348072887,0.150002412,0.176581393,0.122970984,-0.239209998,-0.045659754,-0.067826993,0.417159822,-0.361156784,-0.142593531,-0.060848774,-0.000462564,0.164824315,-0.356111149,0.034577183,-0.116739413,-0.173530791,0.096283418,-0.408926615,
0.013336667,0.132961182,0.097491303,-0.064469999,-0.014090795,0.010811018,0.093114860,0.045650283,0.173718835,0.142972459,-0.402453133,0.038467840,-0.298877081,-0.118491046,-0.162891571,0.204163796,0.007417411,0.166770911,-0.315364163,0.092054469,-0.140152526,0.154332142,-0.118585903,-0.141076613,0.043931139,-0.279425985,-0.201129908,0.013924665,-0.072518796,0.037306688,0.117051522,0.174328324,-0.147006376,-0.122270635,0.123777023,-0.223900138,0.309215931,-0.113723590,0.059808578,-0.116667403,
-0.080929157,0.137700923,0.181368157,0.258198538,-0.052201113,0.044129053,0.321377385,-0.082401703,0.015683024,0.062667997,0.023265785,-0.023616025,-0.334246639,0.254220850,-0.111228457,0.231531836,0.165714021,0.117078702,0.049239922,-0.247678189,0.003034465,-0.158957345,-0.112822659,-0.022143002,0.382836753,-0.104618209,0.110931478,-0.128382791,-0.032085996,-0.126689513,-0.161644768,-0.036653319,-0.352248383,0.013373019,0.274643335,-0.228524856,0.121727142,-0.065535238,-0.007695066,-0.044386305,
0.046515871,-0.121162530,-0.115079381,0.179380826,-0.221747429,-0.016109073,-0.151657194,0.106717382,-0.262938311,0.012209463,-0.000180686,0.056386390,0.160305603,0.100050766,0.210492303,0.226982975,0.130731809,-0.069149693,-0.051856199,0.072457274,0.207647584,0.254763317,-0.031190893,0.062197267,-0.094360286,-0.267851803,0.085106263,-0.096464991,0.013890752,-0.161587671,-0.296575841,-0.119635293,0.165214029,-0.102240226,-0.152863086,-0.281582868,0.092665597,0.219882646,0.064572549,0.199986470,
0.073763224,-0.061919755,0.138014078,0.179400169,-0.052411523,-0.196250579,0.166051302,0.060661555,0.146843392,-0.137339953,0.302080827,-0.033797289,-0.018750204,0.060936119,0.055781453,-0.156847073,0.185348457,0.074139949,0.155689167,-0.196798683,0.050379712,-0.133821930,0.081575598,-0.241046388,0.221023394,-0.045179038,0.119968804,-0.008558027,-0.055319031,-0.028915166,0.003750782,0.029984914,0.019646396,0.047500551,0.110435316,0.182456344,0.153897339,0.095978561,0.098657253,0.005600094,
0.183263517,-0.331061428,-0.007871971,-0.076272730,-0.214012472,-0.162077481,0.034691197,-0.067126507,0.157063275,-0.165666782,0.121608825,0.101044823,0.261793304,-0.206250997,-0.038357927,0.181802591,0.158612439,0.081560228,-0.027512910,-0.001353354,0.193104208,0.109593544,-0.228095158,0.002033788,0.126973352,0.186688102,0.069130772,0.109106888,0.323714946,-0.100540178,0.084858680,0.135344846,-0.303601503,0.286351470,0.243688298,-0.199194484,0.153995564,-0.244437626,0.203900064,-0.009007578,
-0.187913513,-0.102233773,0.255046359,0.176927525,-0.142183821,0.064353849,0.277457190,0.007874005,-0.437385358,0.201673190,0.156505581,-0.118531059,-0.218798491,0.120140879,-0.092419233,0.087530258,-0.159789393,0.044722007,-0.287750298,-0.417901827,0.165837474,-0.189383624,0.207636012,-0.319094602,0.264159749,0.212542049,0.010051004,-0.138786074,-0.104345357,0.152087283,-0.015001719,0.060169141,0.026659594,-0.239675894,-0.021611500,0.046094619,0.134566858,-0.034028304,-0.015995324,-0.091931403,
0.137198604,0.063250870,-0.183735494,0.016035483,-0.267898777,0.093018517,0.014221842,-0.113878530,-0.082713207,-0.093611075,0.031529398,-0.233456618,-0.076243669,0.148173319,0.208272769,0.023824051,0.063878211,0.275530909,-0.176077154,0.075575184,-0.025042664,-0.261281390,0.102292935,0.637468170,0.123920276,0.169023209,-0.122139167,0.209604193,0.041496811,-0.094416468,-0.018257615,-0.058960712,-0.323211351,-0.196743167,-0.011252175,-0.046060509,0.308951668,0.005174043,-0.186474638,0.185038931,
-0.237302859,0.124945838,0.164647755,0.304711641,0.166286956,-0.080805813,-0.056084055,-0.190935404,-0.045765420,-0.138780216,-0.109890741,0.019589251,-0.044089062,0.097373377,-0.167675263,0.106914897,-0.109019642,0.081243294,-0.038364940,-0.087321082,-0.303817535,0.039816425,-0.060636226,-0.099268458,0.097808765,-0.165693016,-0.034275300,-0.104490246,-0.110820236,0.159060823,0.020940896,-0.084783798,0.022189804,-0.121762585,0.259345569,0.155813541,-0.071909222,0.020334193,-0.005948658,0.373468882,
0.301023651,0.121725513,-0.148291584,0.161396870,0.047207236,-0.085703608,0.072001355,-0.061990016,-0.016356560,-0.340057163,-0.093460970,-0.174153192,0.182628580,0.288199452,-0.014565426,-0.002153959,0.110491038,0.225915447,-0.009962640,-0.091772234,0.095846944,-0.173294308,0.255282449,0.319365804,0.246579254,0.124517390,0.145424015,-0.160147695,0.130736806,0.034098375,0.022635024,-0.049413927,-0.293869729,-0.198356828,-0.071138531,-0.079196778,0.055932472,0.166306789,-0.253694942,-0.281220512,
0.144554273,-0.048002041,0.075652891,0.165786987,0.113300671,0.193073281,-0.084002428,0.075521857,-0.038174266,0.190032446,-0.000496268,0.058394084,0.063675540,0.286170934,0.009976333,-0.126434725,0.150475629,0.278583502,-0.256238648,-0.141133731,-0.328135876,0.104809968,0.041224665,0.071519088,0.153092447,-0.312594070,-0.104272309,0.160657671,0.271970253,0.166270284,-0.046533645,0.020246318,0.172579490,-0.198506103,-0.060099934,-0.002098530,-0.292199299,-0.288113084,0.104067058,0.072940227,
0.031611698,-0.117578613,0.015201602,0.140670697,-0.033107603,0.189327732,0.021865726,0.060112988,-0.224125831,0.125527011,-0.028979605,0.126946049,0.172150315,0.075712261,-0.109523793,-0.062702398,-0.041692698,-0.348999467,-0.011619369,-0.094064929,0.097787896,-0.132803527,-0.050947387,-0.040907015,-0.137322303,-0.080489993,0.098751727,0.193328373,-0.069622760,-0.002711246,-0.081393596,-0.150452047,0.211902977,-0.160778369,-0.032775539,0.006417851,-0.185520525,-0.003823556,0.081436590,0.087595707,
0.251040968,-0.163167080,-0.115480617,0.005616488,-0.141276408,-0.192164171,0.076287888,-0.113452835,-0.010671765,-0.063199025,-0.234917493,-0.062105517,0.026572002,-0.065816708,-0.079249970,0.022569660,0.101851770,-0.028048339,0.187670641,-0.116464331,0.004552326,0.049958009,0.025416622,-0.031791502,-0.206938178,-0.177476257,-0.033875940,0.159577907,-0.109673410,-0.074949019,0.197840139,0.151786075,-0.150671382,-0.009244964,-0.132730785,0.129381498,0.241520879,0.124455664,0.097510134,-0.120919964,
0.340479476,-0.006093882,-0.116093706,0.120184977,0.131415880,0.055301502,-0.064458332,-0.133572412,-0.144742743,0.041687277,-0.017558127,0.229806225,-0.013380750,-0.275592509,-0.074091840,-0.098968989,0.115693054,-0.008328433,0.168078423,0.071238596,-0.343649211,0.175852376,0.002810557,0.033973710,-0.195426839,-0.123194300,-0.092029767,-0.165127810,0.102298794,-0.123974679,0.009892415,0.096572873,0.140667608,0.128692994,-0.471608321,0.021747895,0.080372765,-0.163732590,-0.040349613,0.188644794,
-0.028013112,0.003413018,-0.051937889,-0.039444597,-0.421601032,-0.054712753,-0.266423439,0.105793039,0.001411438,-0.405629892,-0.197686312,-0.024267133,0.193242137,0.102688784,0.121015484,-0.163090102,0.056277033,-0.131326375,-0.104475360,0.031494419,0.211561001,-0.186311258,-0.110373800,-0.306654297,0.109206887,0.098522300,0.014578160,-0.344957751,-0.065687858,0.098799315,0.330826231,-0.231979531,-0.235761837,-0.160087709,0.014671541,0.013342889,0.011577393,0.134670337,0.098589583,0.170360383,
-0.042327342,0.072682073,-0.062593621,-0.184630188,0.147168206,-0.002887810,-0.322578928,-0.169161072,0.102499111,-0.147865503,-0.396668118,0.197432750,0.108136834,-0.448201184,-0.114184668,0.185180520,-0.038653461,-0.202971246,-0.155641161,-0.040489488,0.002517934,0.376232609,-0.023515642,0.139007846,0.363621473,0.346170274,-0.106125029,0.075986433,0.245569686,0.089851722,0.038212412,-0.171181842,0.274634966,0.203704928,0.496959875,0.152370774,-0.029397444,-0.034534835,-0.015863239,0.237987382,
0.004004995,-0.024144358,-0.179970967,0.264620701,-0.132562808,0.055124759,0.040120541,0.171079268,0.184189877,0.075223867,0.174157263,-0.334109137,-0.123414798,0.055594768,0.024577427,0.132508564,0.086141556,-0.103493564,-0.266290717,-0.415125198,-0.218239927,-0.215538620,-0.022414441,-0.220593683,-0.076677792,-0.082438838,-0.147811722,-0.258173659,-0.365120977,-0.104142083,-0.032293292,-0.068003439,0.132895747,-0.269207300,0.182672574,0.128858064,0.019910728,-0.158277044,0.011000128,-0.062422676,
-0.255945153,0.151906930,-0.250093803,0.000899081,0.000892133,0.238490086,0.199065268,0.145691699,-0.159139872,-0.169428675,-0.295098516,0.130299646,-0.062410469,0.009332520,-0.140572966,-0.259617251,-0.311713718,0.091557662,-0.253230226,-0.209097811,0.213046073,0.473615917,0.093609268,-0.113541976,-0.004852862,-0.132215591,-0.097176068,-0.132127216,0.006110041,-0.178659340,0.398963078,-0.155171902,0.194797671,0.035520881,0.231316796,0.147821201,-0.108536677,0.207215582,0.226154186,0.090428679,
-0.114170125,-0.045333371,-0.005239513,0.092356728,-0.192470057,-0.181093354,0.140695217,-0.339365836,-0.087403659,0.075806639,-0.077380128,-0.220091357,0.011840326,0.079355912,-0.202498008,-0.071215867,0.095006907,0.130301653,-0.168523022,0.117245381,-0.334691668,-0.187859707,-0.041638749,-0.190723822,-0.012620479,-0.097996505,0.146225207,-0.066836126,-0.112450402,-0.012154565,-0.157203683,-0.153251931,0.059717212,-0.268269321,0.002244175,-0.400697076,-0.021398864,0.222879860,0.008757866,0.088385192,
0.049288104,-0.193561505,0.320874175,0.301520306,-0.040398868,-0.085673891,0.108829059,-0.196819258,-0.023554682,-0.004821453,-0.110812789,0.303041997,-0.137255779,0.103748939,-0.059024902,-0.128520330,0.166291991,-0.153572982,-0.360994520,-0.010807876,-0.210654939,0.278284058,-0.145576213,-0.153412377,-0.130024084,-0.016837244,-0.160455769,-0.092686791,-0.268944344,0.160107401,0.112654652,-0.092173615,-0.135995787,0.023708821,0.045181475,0.007586779,-0.140209208,0.223930482,-0.284818718,-0.429746892,
-0.191179040,0.070081948,0.057485764,0.139451158,-0.088126606,-0.217610277,-0.014888945,0.151747981,0.136534758,-0.023137337,0.056467622,-0.011567408,-0.104046861,-0.244087764,0.080404566,-0.011294092,0.043645992,-0.038692884,-0.110551242,0.170157449,-0.170899469,-0.059552679,0.056129177,0.210043993,-0.111546390,0.145047928,0.008813529,0.247938705,0.084478614,0.061455447,-0.012593924,0.077089318,-0.040646598,-0.163398662,-0.020226308,0.190651372,-0.141441202,-0.179430435,-0.021916379,0.225482913,
-0.119602884,0.129178095,0.100680645,-0.069426259,-0.066883801,-0.108047034,-0.078726543,0.078762623,-0.154260004,-0.105748766,0.342999306,0.152577879,-0.106300772,0.053546879,-0.188628673,-0.209393494,-0.132719441,-0.081509621,0.387691893,0.014367005,-0.007526444,0.045717650,-0.183774838,-0.287010163,0.035012629,0.090165978,-0.006202917,0.069749192,-0.047069794,0.063535171,-0.110213294,-0.120783330,0.128657167,0.123451039,0.091498437,-0.038360389,-0.323166722,0.155357588,-0.115419981,-0.006093980,
0.062525003,0.287947378,0.010162458,-0.139503928,0.198428756,0.077396175,-0.171975167,-0.322084096,-0.064783416,-0.067043283,0.020015678,0.215842606,-0.205604282,-0.045782232,-0.209101405,-0.069030506,0.189275713,-0.185108993,-0.041403256,0.127830064,0.371562610,-0.007666866,-0.109832613,-0.030734578,0.158367243,0.180517667,-0.079065944,-0.029716669,-0.027904882,-0.134394185,0.376632880,-0.086298940,-0.130288257,0.198899364,0.035004445,0.277768028,0.182803388,0.183560827,0.046920651,-0.052006932,
0.140057758,-0.226502728,0.095317080,0.056205579,-0.174995868,0.143993028,-0.304104851,-0.113350589,-0.201267161,-0.249056711,0.102390682,-0.223440142,-0.052699523,0.105910072,-0.138502846,0.061592072,0.006210741,-0.065839521,0.188487441,-0.274722112,0.132969889,-0.054823086,-0.000285789,0.114089729,0.127210807,0.149910689,-0.079586483,-0.047431413,-0.137296916,0.021466475,0.233126877,-0.096927516,0.019838791,0.304964061,-0.051884581,0.306833388,0.171422373,0.222531048,-0.413558734,0.005204843,
-0.077865975,0.006979180,-0.466609999,-0.204251696,0.003580936,-0.009433284,-0.190208203,0.109062599,0.065287279,-0.050906645,-0.313327510,-0.039120511,-0.104134040,-0.085345429,-0.085949806,0.007417851,0.181740270,-0.035112078,0.040235649,-0.214987211,-0.130697561,0.112823386,0.126064439,0.168996179,0.090428374,-0.194650836,0.102715950,-0.245137432,0.316709059,-0.029875558,-0.086572681,-0.171598592,0.294761982,-0.028885302,0.095252991,-0.025396012,-0.378612758,-0.010904962,0.021694080,0.045344324,
-0.106914682,-0.081517032,-0.013572611,-0.081398019,0.131864186,-0.126538330,0.150188861,0.122443170,0.078050094,-0.198670187,-0.286380781,0.463527731,-0.041564324,-0.077385897,0.137823531,0.120857101,0.004266826,0.246088618,0.076904141,-0.072842152,-0.039987906,0.078829839,-0.132620296,0.113659288,0.050244023,0.039842885,-0.064715142,-0.083564787,0.289884222,-0.160854455,0.132110908,0.026866392,-0.029963685,-0.128593415,0.004461935,0.123612573,0.140032543,0.009558026,-0.084556079,0.006618803,
0.330223422,-0.017389610,0.157702403,-0.046161444,-0.115331192,-0.002226591,0.070116290,0.068345758,0.131487781,-0.186949516,0.012487545,0.052892752,0.219416028,-0.078528774,-0.051022150,0.250102652,0.295949120,0.087365871,0.061658408,-0.063370021,0.004017451,-0.136347222,0.060804825,-0.072572253,-0.077185405,0.220864687,-0.079874147,-0.289575728,0.052617765,0.355801570,0.126560129,-0.199174641,-0.134256018,-0.040283008,0.221656534,0.031923701,0.131035821,0.129787579,-0.254238357,0.025987950,
-0.134618748,-0.060445475,-0.220613351,-0.023920337,-0.074446720,0.043030395,-0.126163851,0.072080281,0.079360933,0.169956587,0.118467900,-0.102289777,-0.070805153,-0.056560625,0.058418544,0.253070854,-0.230883502,-0.209092915,-0.067264269,-0.340624939,0.222021847,0.143004859,0.044047798,-0.236753474,0.010334181,0.177139995,0.007829543,0.002375905,0.063366756,0.094595161,-0.060386664,0.021858032,0.004572771,0.131964098,0.044641166,0.007830891,-0.018659815,-0.080260038,-0.168301547,-0.047735516,
0.239200086,
0.586668120,
0.236248755,
-0.178561976,
-0.151736536,
-0.069676850,
-0.063269296,
-0.102158580,
-0.332577860,
0.117495481,
0.167078761,
0.016705036,
-0.008432643,
-0.225819372,
0.013051403,
0.017488783,
-0.031159513,
-0.399543025,
-0.101735039,
-0.114426653,
0.258031043,
-0.128826786,
-0.350600587,
-0.079831677,
-0.147193437,
-0.148733527,
-0.211251282,
-0.405267987,
0.028533604,
-0.091239694,
-0.182177125,
-0.140278626,
0.062450114,
0.359840583,
0.023656774,
0.159168296,
-0.183181185,
0.104994715,
0.120041978,
-0.105771144,
-0.001631087,-0.290835807,-0.134881549,0.097347298,-0.313139825,0.031843533,-0.292404897,0.068724333,0.159039019,-0.124037287,0.112421451,-0.281571080,-0.092033688,0.026162532,-0.016772978,-0.061419779,-0.118117938,0.182678746,0.010621077,-0.176491991,-0.082341092,0.100825320,0.152085824,0.019747944,0.061947018,0.197935405,-0.124463786,-0.013761289,0.144147479,0.123545992,0.264548702,0.129939228,-0.106339907,0.215170325,-0.319801692,0.038098882,-0.052200524,-0.143075733,-0.135767332,-0.051928971,
-0.084551935,-0.256018354,0.189553460,-0.085600837,0.109126651,0.183215588,-0.077712086,-0.052566326,-0.070921598,-0.107306889,-0.267270174,-0.313745901,0.229060099,-0.024818994,0.077789651,0.076563567,0.012792119,0.022271344,0.105894456,-0.302775606,-0.011058985,0.281484782,0.354275362,-0.139798223,-0.114894128,-0.174765582,-0.230565102,0.179134539,-0.079257685,0.071360191,-0.143079097,0.019685172,0.055581564,-0.026835467,-0.211385284,0.045765489,-0.273589078,0.138124533,0.262879084,-0.003964656,
0.192088315,-0.126713802,-0.241496770,-0.194091725,-0.019466094,0.199196965,-0.137547020,-0.224672418,-0.063796782,-0.283141377,-0.075559107,0.126892598,0.142074276,0.090972037,-0.178906097,0.309324778,0.167809654,0.415207843,-0.281660560,-0.033402304,0.226159807,0.298636691,0.012457612,-0.048398571,0.264216767,-0.128728280,0.204928884,-0.162059141,0.267139491,-0.042428286,-0.023039963,-0.009693980,-0.109861756,0.265906244,-0.023611358,0.083522086,0.066334374,0.070907317,0.131193643,0.031226067,
0.032497365,0.086775760,0.134727572,-0.006153113,0.037792910,-0.131293656,0.229446534,-0.075934011,0.121151010,0.204021132,0.238475910,-0.154356541,-0.150035919,0.047040948,0.107007009,0.015619185,0.279846848,0.038055547,0.097845814,0.158794190,-0.058581606,-0.060492724,0.105524169,-0.272862397,0.056031123,0.156603716,0.159855675,0.257128007,-0.063432111,-0.061340295,0.019951746,0.069217388,0.009815953,-0.194482628,0.094071157,-0.056326547,-0.010574166,-0.274327947,0.216972110,0.064226483,
0.028499655,-0.362823392,0.083855311,-0.023517678,0.027177432,-0.019211717,0.045211382,0.121272805,0.057712616,0.093476754,0.027795042,-0.135591329,-0.088688983,-0.131605097,-0.042568140,0.085433700,-0.002600643,-0.042014413,0.014990136,-0.268462438,0.112261872,-0.063816261,0.077813908,0.021775230,-0.007961603,0.096901986,-0.045953801,0.259655404,0.027061396,-0.052562092,0.058707851,-0.153486069,0.141356788,-0.137092375,0.181569332,0.079826543,0.263035335,0.019077507,-0.017970113,0.098891140,
0.270322640,-0.070767467,-0.152164180,0.076641485,0.157126952,0.319633964,-0.033987238,0.420330837,0.126727028,0.254450337,0.149579031,0.211472191,0.020209664,0.101281610,-0.276658981,0.061175071,0.075302012,-0.349088515,0.000885537,0.296292280,-0.096874135,-0.009107645,-0.101542038,-0.269074163,0.109632923,-0.058093943,0.043546991,-0.394518591,0.092237767,-0.117234135,-0.086360336,-0.071747490,0.168789398,0.335741300,-0.039542838,0.137898583,-0.096892560,0.045736622,-0.170186773,0.020508994,
0.004064283,-0.071081954,0.277577053,-0.121206306,0.314473540,-0.048455689,-0.067845908,0.283452800,0.035881910,-0.180083921,-0.098745741,-0.106062756,0.018554174,0.165595597,0.002128396,-0.109928639,0.016544943,-0.076714707,0.223307503,0.069423317,-0.109779834,-0.140882791,0.194072346,0.008406032,0.006536813,0.275021612,0.019068674,-0.096079529,-0.080923517,0.165163526,0.015529311,0.118344546,-0.062789847,0.010774991,-0.097183227,-0.135822206,0.131627691,-0.218644248,-0.050954314,-0.033100331,
-0.024240087,0.183754746,-0.188520831,0.020184867,-0.265776477,-0.349741654,-0.215328022,-0.031732877,-0.018615901,-0.040359446,-0.150326746,0.033083394,-0.027017001,0.095410506,-0.016946961,0.203923347,0.123147367,0.142231075,-0.135026331,-0.032325081,-0.059248666,0.290002902,0.054938678,0.135395463,0.048338153,0.020119676,-0.132851926,-0.130792157,-0.171022238,-0.032106324,0.138100000,-0.183345158,0.191549014,-0.187703082,-0.099349261,-0.059255745,0.132784061,-0.161882131,0.002576567,-0.168520037,
0.117036224,-0.091724314,-0.114304781,0.252771929,0.014424072,0.104123305,-0.124306084,0.068410012,0.048266352,-0.035998522,0.018516276,-0.143771666,-0.039504285,-0.118052051,0.031575024,0.197621145,0.161297005,0.033627167,-0.052437651,-0.050427816,0.104198672,0.116156351,-0.057828215,-0.204151171,0.128030363,0.172236357,0.029706175,-0.002735875,-0.258282423,0.127620513,0.106228966,-0.024816290,-0.190485804,-0.332400870,-0.217450860,-0.243327249,0.053208378,0.047291617,-0.178662550,0.054363216,
0.218439315,0.167697700,-0.213270170,0.031643540,-0.220482373,-0.526225734,-0.309792635,0.001890674,-0.138483173,-0.036426862,-0.286916975,0.144395684,0.396720257,0.058528365,-0.017560900,0.120960081,0.067260359,0.027857381,-0.195016518,-0.113982916,-0.210014804,-0.228431942,0.157007654,0.140595013,0.066763957,-0.212775120,-0.052613713,0.021698502,-0.187780793,0.100286276,-0.098578598,-0.121263741,-0.072005362,0.266551865,-0.162132839,0.110157745,0.230039475,0.134338186,0.283216196,-0.068492682,
0.201306388,0.038094226,0.077528198,0.062610459,-0.289732655,0.081101986,-0.242588692,-0.049811171,0.081469819,-0.191033863,0.134838048,0.192404635,-0.162114549,-0.039994493,-0.040794275,0.187542814,0.021816708,-0.190357328,0.061787611,-0.062365235,0.005125572,0.435592182,0.183296284,0.152809365,-0.228423696,-0.127799883,-0.116404263,0.032974217,0.278581955,-0.081708470,0.022986319,-0.033122707,0.019223332,0.011551210,-0.083642396,0.009480902,-0.120119194,-0.076787067,0.048509997,0.000294329,
0.062525970,0.014152196,0.020172206,-0.162917734,0.207137023,-0.270240029,-0.263929862,0.164281793,-0.104525874,-0.216462366,-0.359108613,-0.034355649,-0.018951503,0.263855653,-0.007125797,-0.078961862,-0.072794744,-0.010673486,0.249085385,-0.046775664,0.298281010,-0.016685438,-0.096170583,0.153276332,0.022914469,-0.068353750,0.011029939,-0.044856243,0.122793218,0.204398634,-0.094001053,-0.069978135,0.168473455,-0.151896749,0.163568532,-0.274067250,-0.067779475,0.125245922,0.070622270,-0.122561341,
-0.167804258,-0.162398162,-0.231290496,-0.071701587,0.038612850,0.078374584,0.300527999,0.042693113,-0.103217175,0.092501848,0.122582257,0.166306417,0.003121523,-0.107049173,-0.083136702,0.141179011,-0.021210381,-0.221936687,-0.195191246,-0.082018118,0.114823524,-0.109350650,0.210600462,0.181272141,-0.029402276,0.047601108,0.088820159,0.146803340,0.015070729,-0.128749405,-0.107712213,-0.088845144,0.035676760,-0.398767583,0.073680596,0.067846434,0.076508796,0.065596990,0.229188003,-0.152739246,
0.059857114,0.166012961,0.088762960,-0.179530143,-0.035520224,0.007770400,0.051734675,-0.085010202,-0.028285855,-0.032898794,0.212951905,-0.347903059,-0.008609321,-0.298783049,-0.209810831,-0.015582505,-0.114641690,-0.017453370,-0.284510406,0.165671225,0.256483838,-0.159773971,0.057369786,-0.217611685,0.075402296,-0.051480054,-0.263662965,-0.099940007,0.472789566,0.146579426,-0.104486095,-0.058904255,-0.028589313,0.025095885,-0.235651708,0.261208686,0.045773726,0.043361299,0.303422827,0.098915226,
0.178530622,0.141706434,-0.155488857,0.024107583,-0.089617371,0.043659727,0.209486767,-0.242596233,-0.159689206,-0.020672351,0.264956791,-0.152578490,-0.194613636,-0.008059720,-0.138560651,-0.155695540,-0.060653783,0.311972365,-0.087456664,0.001367363,0.107975857,-0.092243586,-0.266474114,-0.129127137,-0.163396587,-0.073177257,-0.146717555,0.033374010,-0.119978645,0.083447219,0.167220307,-0.041370449,-0.099262259,-0.034510528,-0.176412614,-0.128356942,-0.047815714,-0.029117514,0.000179308,-0.058531553,
0.083644992,0.228773270,-0.138989289,-0.227450083,0.125009531,0.087676773,0.087334168,0.060378105,-0.094158981,-0.168211165,-0.207330927,0.130936654,0.092672462,-0.288812194,0.042210159,-0.004127199,0.345759761,0.191900449,0.336865800,-0.056658765,-0.365919164,0.412076333,0.094509922,0.087676053,0.081072259,0.389299059,0.145465686,0.058231119,-0.138891014,-0.168368411,0.173920143,0.022766342,0.079924503,-0.071212175,0.168183666,-0.237356368,0.206201199,-0.111157551,0.170365672,0.181104416,
0.017411091,0.074444288,-0.244271589,0.145214761,0.430107886,0.221301618,0.156402479,0.309799235,0.107017245,0.265072052,-0.130217626,-0.037081194,0.211885120,0.090523792,0.031267228,-0.196574894,0.169556210,-0.186375773,0.324484877,-0.051201904,0.215522128,-0.107353959,-0.193023544,-0.056130093,0.018903579,0.125240333,-0.042400027,-0.047450177,0.024571442,0.131973342,0.218340050,-0.175972291,0.114826570,-0.077709140,-0.262999820,0.023295250,-0.198038093,-0.220632262,0.080350141,-0.073521285,
0.115240962,-0.113819236,0.025596061,-0.128388469,-0.115123093,-0.088186823,-0.368285975,0.109461681,0.102852820,-0.114540463,-0.098273948,0.100556716,0.009519849,-0.005394821,0.167426443,-0.034428115,-0.002403610,0.012394570,0.105511073,0.094235123,-0.031070247,-0.136296737,-0.334309883,-0.057846942,-0.065832311,0.009193733,0.137232070,0.061676439,0.411834083,0.057267205,0.005824011,0.498020024,0.027857726,-0.140253288,0.352234945,-0.031183754,-0.208556339,0.119603305,0.065933810,-0.031671366,
0.159995985,-0.092188210,-0.075522807,-0.087205559,-0.242142405,-0.158902525,0.154974847,-0.202595798,-0.188837914,0.034321602,0.122406602,-0.287458610,0.324938243,0.054523684,-0.026395421,-0.073802256,0.041472763,0.069464678,-0.125822149,0.183091479,-0.013273454,-0.190690573,0.359325758,0.230466857,-0.139666790,-0.307300626,0.107515007,-0.375390504,-0.121988410,-0.123408563,0.189269037,0.014606573,0.212554281,-0.012294017,-0.666690281,-0.061446444,0.102309176,-0.125329698,-0.048538170,0.107591260,
-0.130571426,-0.175079712,-0.155347288,-0.136063682,-0.020954139,0.124889353,-0.064546840,0.116151456,-0.317373565,0.055337271,0.195169456,0.035764688,-0.110487376,0.499802090,-0.471093283,-0.085227313,0.221496211,0.058930012,-0.226258178,-0.127207092,-0.194722756,0.065683277,-0.152212121,0.007610697,0.181084099,-0.427084776,-0.143267508,-0.341525530,-0.081572554,-0.160036151,-0.228047040,-0.099481262,0.149673951,0.186523384,-0.021459767,0.134411750,-0.011748274,0.123220512,0.036561327,0.000775548,
-0.187557845,-0.056339990,0.110824680,0.004664614,0.026409024,-0.053539882,-0.069811345,0.007387916,0.250395735,-0.050583034,0.086320769,0.135520250,0.154737042,0.220232841,0.372670191,-0.330758607,0.224039902,-0.229660855,-0.042677072,-0.249228930,0.087882322,0.013459827,-0.005579374,-0.197130640,-0.143277716,0.170592793,0.079373216,-0.054246159,-0.141140917,-0.102166382,-0.202269843,0.281234883,0.068340795,-0.031192182,-0.235096403,0.013674507,0.095752339,0.046382113,0.070524144,-0.231147328,
-0.013200029,0.185989537,-0.158116560,0.182213589,0.297280010,0.082916383,0.044661796,0.013152595,-0.031104936,-0.097871527,0.018184464,-0.100242761,-0.046505235,0.135980145,0.146930689,0.192916345,-0.128553189,-0.036876456,0.035061235,0.074054679,-0.108875853,-0.075893776,-0.134703282,0.136380247,0.033049472,0.183264510,-0.055857854,-0.252374150,0.274576183,-0.170976493,0.111969765,0.138196884,0.044483269,0.173854828,-0.303336648,-0.227435508,0.156194842,0.124863824,-0.005435318,-0.300641123,
0.225855008,-0.133335900,0.081367272,-0.241886208,0.012490920,0.050710169,-0.074302365,0.196707827,0.235178732,-0.229650797,0.058766821,-0.277903009,-0.037863641,0.123543510,-0.044625369,-0.093803593,0.116233961,-0.285525775,0.036076274,-0.219454057,-0.271209531,-0.121885975,-0.031871902,-0.177506428,-0.248854540,0.151854176,-0.121528450,0.101269931,0.144553915,-0.150811218,0.011219660,0.099958809,0.058750142,0.118557744,0.244486408,0.040735149,-0.039333899,-0.350058350,0.412923288,0.346676858,
-0.214678639,-0.039492296,0.134837143,-0.024323787,-0.247673447,-0.159507837,-0.232609651,-0.098217905,0.145732169,0.032971411,0.240867398,-0.007542405,-0.209789383,0.015392951,0.223254789,-0.024694720,-0.158274358,0.201716589,0.087838424,0.012382649,-0.127330678,-0.028338353,-0.076626208,-0.042378527,-0.149942512,-0.020441958,0.226390590,-0.169484291,-0.385928770,0.060506330,-0.013799568,0.205093607,-0.611289213,-0.512134161,-0.074361315,0.125906307,0.156794584,-0.004911942,-0.175323601,0.008741315,
-0.044482546,-0.290320596,-0.234853588,0.250712591,-0.230152663,0.073536176,-0.140857390,-0.127462144,0.197264914,0.070979539,-0.074990272,-0.220673242,0.160178468,-0.068942214,-0.056129344,-0.127482468,0.096248634,0.046012297,-0.033836957,0.089147410,-0.184039539,0.011466508,-0.076354011,-0.101203339,-0.017363226,-0.111836248,-0.150504045,-0.127425493,-0.016703387,0.051347047,-0.378412629,0.249255016,0.143927770,-0.254679773,0.046948081,0.341500173,-0.106855574,0.277196232,-0.020429602,-0.265112551,
0.079923191,-0.004481933,-0.127727777,0.119003426,-0.028579056,0.023156288,0.027644153,0.079743660,0.082141452,0.014151819,-0.075390734,-0.041901024,-0.038912714,0.060913940,-0.266814608,-0.039573363,0.118861944,-0.024559317,0.316734153,0.057694208,-0.278167666,-0.225209398,-0.039889631,0.099249109,0.249170467,0.025249554,0.004404228,0.021630023,0.043424925,-0.039515505,-0.029410486,-0.020969758,0.121156579,-0.318694137,-0.195628426,0.011714450,-0.053813480,-0.080651727,-0.168710885,0.034641821,
-0.333263333,0.111800813,-0.107974893,0.251360763,-0.339350788,-0.033877359,0.118744437,-0.049437760,-0.063641275,-0.089366930,0.238115715,0.142899357,0.030850823,0.103632147,-0.230978665,0.230806417,-0.305486837,0.040782189,-0.096120802,-0.040598699,-0.091082175,0.127238817,-0.079371749,0.012046317,0.221537626,-0.170329175,-0.046105891,-0.276174904,0.150548147,-0.059597642,-0.100574078,-0.045598482,0.047680379,0.150696846,0.192323010,0.005932603,-0.168511522,0.147565616,0.244561914,0.343379643,
-0.232972062,-0.087791838,0.111805807,-0.043494349,0.326651259,-0.174735691,0.000912590,0.076793035,-0.271643779,0.386297425,-0.174271634,-0.132291458,-0.274793508,0.012859934,0.102563128,0.156708821,-0.211875093,-0.015371493,-0.028870032,-0.072227875,0.088769889,0.120609945,0.092330167,0.039667113,0.382274076,-0.221871039,0.118664596,-0.240114186,0.286818371,0.164596825,-0.281634845,0.219557584,0.193064371,-0.435893784,0.221274872,0.046849291,0.209725085,0.194385309,0.080361154,0.190537673,
0.051399839,0.146719082,0.313250827,0.162879160,0.019349117,-0.190518696,-0.216821788,-0.158317409,0.177797837,0.132852674,0.193845508,0.026351468,-0.330166984,-0.128839532,-0.181300801,-0.063019679,-0.000939439,0.284876254,-0.064521764,-0.229772823,-0.031121055,0.058923270,-0.105572430,0.039337352,0.054312451,0.275340335,0.066706109,-0.166117120,0.010925602,0.045149383,-0.062082249,-0.024564851,0.135927920,-0.026254285,0.000818370,0.086418051,0.071356312,-0.328066450,0.086919456,-0.161335339,
0.197232708,-0.141757146,-0.007092978,-0.011724880,0.129809944,0.002565988,0.182527368,0.117709488,-0.217463033,0.100575089,-0.064260917,-0.004644266,-0.059805021,0.011715203,-0.068134968,-0.096842411,0.205307359,0.148177277,-0.356374927,0.149701814,-0.170431775,0.222077883,0.085807895,0.114500985,0.075297342,-0.068839367,0.074451222,0.086290126,0.046723189,0.057295776,-0.099483190,0.206369216,-0.023663855,-0.295343482,-0.188808793,0.004785328,0.061874837,-0.109072950,0.054624327,0.232074907,
-0.121503424,0.011000540,-0.019349492,-0.070385766,-0.049948354,0.010059592,0.236455393,-0.006044589,0.045342081,-0.075737324,-0.140598037,-0.121236116,0.221862399,0.034456655,-0.253583125,0.124890795,-0.046861748,0.087254461,0.236760700,0.146383706,0.138057863,0.021764695,-0.166210942,0.148585323,-0.184215771,0.190315627,-0.065146165,0.235351619,0.245139158,-0.011157937,-0.295441513,-0.013063690,-0.029101239,0.021859928,-0.167970624,0.091287018,-0.033067814,-0.252327864,0.016880000,-0.095647247,
0.092429987,-0.023978562,0.071551251,-0.078743384,0.035558858,0.136073042,-0.133726624,-0.172762377,0.036413186,-0.102634993,0.168088727,0.183275600,-0.152043159,0.061642824,0.155838974,-0.148405904,0.024407588,0.184749869,0.144656725,0.034929011,-0.007643316,0.208738478,-0.200170565,0.213393143,-0.165785444,-0.190526600,0.076952954,-0.272074417,0.142407514,0.185429633,-0.242493394,-0.247427698,0.098496482,-0.248105270,-0.159660918,-0.029786243,0.083906459,-0.154236530,0.051249093,-0.217310537,
0.231212328,0.215306512,0.305267174,0.036816243,0.057174392,-0.147732438,0.032635724,-0.111542915,0.004238708,-0.029732886,0.059707911,0.073465790,-0.047419950,-0.100194208,-0.078187257,-0.022832609,-0.008131698,0.209463320,-0.205490359,0.051010383,0.217487988,-0.092379874,0.057829650,-0.050793684,0.036452380,0.167805438,-0.010252176,-0.208806747,0.196804627,-0.295316721,-0.005112098,0.011646291,0.079731427,0.068420078,0.217966690,-0.061670638,0.008220327,0.145299684,0.048098559,-0.254163594,
0.027366808,0.118724602,0.089235513,0.374500214,-0.198488310,-0.154725592,-0.231962210,-0.440412179,0.214920954,-0.122978341,-0.306692868,0.020133149,0.271641795,-0.045940355,0.385492103,0.012512822,0.137183457,0.004703528,-0.191810305,-0.356144808,0.018330397,0.135003262,-0.401022670,0.210633713,-0.311167229,-0.050145847,-0.245011322,0.097936030,0.014050908,-0.059381909,0.220780661,0.150077875,-0.262428192,-0.186858284,-0.302405533,-0.058407869,0.202936441,-0.020252977,0.096325474,-0.093038784,
0.126897970,-0.461596039,-0.107457308,-0.082167685,0.195538862,0.145433966,-0.106584937,0.067145265,0.015819858,0.100520675,-0.170086343,-0.122622661,0.020604207,-0.041699808,0.105090826,0.135269226,0.027933164,-0.011868465,-0.102921554,-0.295265716,-0.084028506,0.035001569,0.105177530,-0.187319364,-0.241554255,-0.128009232,0.065587094,-0.111645548,0.043692072,-0.098838910,0.287639081,0.252068981,-0.166864431,0.032920815,-0.381518462,0.048439684,0.043949660,0.162121370,-0.138669301,0.276308418,
-0.459505285,-0.055412336,0.012742676,0.230315262,-0.196251363,0.238929247,0.041391995,-0.127057001,-0.091592387,-0.042374559,-0.114545610,-0.356201015,-0.144403432,0.065199008,-0.090586456,0.073240142,-0.002537215,-0.109619719,0.085902454,0.266889713,-0.177248092,-0.029984224,0.383292321,-0.140049885,0.153581233,0.011059824,0.129996144,0.136902138,-0.164574205,0.024738545,-0.156278274,0.253998753,-0.176581530,0.005388677,-0.331707599,-0.026977236,-0.169771188,-0.380985454,0.019347533,-0.151577780,
-0.088595812,0.067593023,0.038253174,0.078389214,-0.069085100,0.045360924,-0.003848122,-0.294408650,0.032576446,-0.208530095,0.147710534,-0.144770680,-0.093781586,-0.150355867,-0.383215902,-0.107302407,0.021742959,0.190614937,-0.039496791,-0.165081429,0.280897744,-0.026539247,-0.012512320,-0.116786415,0.138628057,-0.159064962,-0.074417696,0.311591374,0.302880592,0.300229415,0.048915871,-0.142400911,-0.052102745,-0.119231383,-0.035672695,0.001063942,0.125266871,0.147972135,0.154267680,-0.038693147,
-0.185665469,0.086401515,0.162474586,-0.096465145,-0.032543766,0.240200475,-0.190523180,0.177023659,-0.008542662,-0.209886752,-0.127614087,0.151571327,0.068529010,-0.106835676,-0.074860768,-0.053099822,-0.019571266,-0.032260254,-0.000448650,0.034904409,-0.207037968,0.085680014,0.010741152,0.258931264,-0.020628004,0.014962677,0.003219331,0.063853000,-0.146825514,-0.291784323,0.297122119,0.118965370,0.042143444,-0.387220079,0.097992919,-0.126240993,0.171155366,0.091961218,-0.187957370,-0.035071991,
-0.055654402,-0.095686823,0.063937762,0.023148159,0.144882045,-0.343038354,-0.410699400,0.177364382,0.198533677,-0.172822654,0.274356193,0.209519518,0.061358569,0.176262789,0.077313799,-0.080237166,0.020525034,0.193440960,-0.115387118,-0.040140790,0.007573227,-0.007405706,0.130610440,-0.031630798,0.033854590,-0.125280584,-0.146043076,0.009583915,-0.084225925,-0.076212484,-0.179759471,-0.173863097,-0.001461612,-0.029901604,0.223340544,0.086818352,-0.166647874,-0.007443610,-0.138471873,-0.048402648,
-0.305109085,0.032549108,0.282897887,0.007017335,-0.040544615,0.181053377,-0.148716928,-0.019249059,0.201596628,0.231662249,-0.005612152,0.012510200,0.191450406,0.197469903,-0.006025024,-0.261588261,-0.018209125,0.290768116,0.203956836,-0.053346071,-0.068945520,-0.102231104,-0.078021260,-0.031019342,-0.338503283,0.023680351,-0.257362809,0.196684160,-0.027919527,-0.367900568,0.290611556,-0.299183614,0.079832939,0.078431376,-0.052414467,-0.413132730,0.044839886,0.289868841,-0.081274033,-0.335448904,
0.217615434,
0.251261924,
0.018022137,
0.191175088,
0.118570080,
0.060212204,
0.023567824,
0.151681382,
-0.002880410,
0.103569624,
-0.194921264,
0.014252371,
-0.007146651,
0.061124429,
0.149184612,
0.109950386,
0.298914277,
-0.104732363,
-0.225931071,
0.204789093,
-0.115829769,
-0.192897861,
-0.005987743,
-0.086437062,
-0.287441001,
0.226470408,
-0.186367077,
-0.267560005,
0.166323805,
-0.239143435,
-0.190991112,
0.246797157,
-0.309599134,
-0.129014732,
-0.189190110,
0.194235159,
-0.032512159,
0.236112866,
0.054468590,
-0.091821052,
-0.034517137,0.262508209,0.135337554,0.281712338,0.214618873,-0.139402361,0.160324603,0.072178657,0.009173645,0.052189212,0.073916707,-0.250466251,0.286376095,0.156397145,0.102632228,0.034557672,-0.182640545,0.011533282,0.069255622,0.078530046,0.214236401,0.004474775,-0.125096018,-0.258694713,-0.042436372,-0.077379425,0.072750632,0.262831175,-0.291971932,-0.067508388,0.290336102,-0.383770050,0.327943394,0.191721206,-0.029142355,0.165938272,-0.006731003,-0.222898773,0.098956161,0.557159411,
0.021476236,-0.184078133,0.167140689,-0.010881429,-0.084270426,0.025527887,-0.201870563,-0.051448905,0.319145949,0.064243172,0.099360286,0.203669352,0.148860709,0.194968504,-0.011744576,-0.008010360,0.166240119,0.105425331,0.124462934,-0.064358077,-0.103007063,0.270063030,-0.246436360,0.254564051,0.009516555,-0.011488692,0.052061909,-0.024301351,0.066150186,0.169951535,-0.221359119,0.252084151,-0.365880580,-0.111080793,-0.293378503,0.080643442,0.119307004,0.175794827,-0.186068438,0.116154694,
-0.017575932,0.041524195,0.072490536,0.071516480,0.246399670,0.082372782,0.112526128,-0.112447070,-0.048073352,-0.332914005,-0.070342679,-0.022866124,0.022761479,-0.174558771,-0.189743780,-0.063785172,0.118878944,-0.084763678,0.083311318,0.075523041,-0.292503351,-0.158884753,0.053000723,-0.056133414,0.142466232,0.223483064,0.232996563,-0.169272701,-0.108580692,-0.042827467,-0.106227571,0.299810812,0.181373105,-0.246611430,0.017894984,-0.226691169,-0.062374645,0.146244543,0.091631444,0.110745599,
0.120955400,0.401145610,-0.066708239,-0.019202669,-0.046445272,-0.332370140,-0.040739355,0.094950982,0.043194874,-0.130294998,0.027214430,0.064279555,0.309654376,0.051081856,-0.275076939,-0.067674764,0.134754418,0.049461251,0.031245259,0.044566379,0.005224527,-0.288811901,-0.452017378,0.116514404,-0.363042576,0.209258683,-0.184683238,0.021821299,0.024905340,0.186526714,-0.138891623,0.026202172,-0.071999013,-0.003694583,0.055675120,0.223913755,0.282862221,-0.072757598,0.341422343,0.041618529,
0.166447214,0.064061462,0.105197291,0.170714485,-0.059474607,-0.093640642,0.052723934,0.089586268,-0.082113576,-0.208817944,0.248930221,0.186769853,0.128948192,0.132390135,-0.005936562,0.106995282,-0.042193638,0.115214533,-0.368975101,0.140645274,0.040868486,0.042050128,0.127329557,-0.120308741,-0.217789032,-0.193953153,-0.063386102,-0.061547446,-0.213990913,-0.060491907,0.118209375,0.041020665,-0.366604087,0.049950255,0.007568380,-0.118709108,0.060739362,0.109846873,-0.072443059,0.092376000,
0.076813428,0.051039266,-0.052061936,-0.385242360,0.204553220,-0.094824544,-0.221531642,0.197341004,-0.017044389,-0.128327158,-0.135664843,0.050595829,0.237921483,-0.044651530,0.068699808,0.064137797,-0.169064218,-0.132782989,0.073252428,-0.158606503,-0.026920076,0.151642433,-0.282287003,0.054260997,-0.252686917,-0.012744056,-0.149757591,0.217138069,-0.224218836,0.202316046,-0.246734142,-0.050549712,0.272245338,0.111595915,0.249991778,-0.304798409,0.307402190,0.152893630,-0.043276948,-0.029280909,
0.112971597,0.224338691,0.072093077,-0.143419143,-0.193985327,-0.019860225,0.223447049,-0.298500032,0.095511575,0.160081382,0.092837730,0.020488246,-0.069865271,-0.221801371,0.104520969,0.047560630,0.139066270,-0.180980981,0.175834093,-0.206345706,-0.338560363,0.269877326,-0.014145441,0.251434159,0.110372350,-0.164834762,0.207437595,-0.049467953,-0.232655018,-0.120410520,-0.149550007,-0.075629248,0.196015330,0.065248125,-0.142370537,-0.262537190,-0.151063068,0.223610492,-0.178941857,-0.157507029,
0.302723864,-0.036627101,0.023253762,-0.089360651,-0.023483004,-0.080948434,0.026444034,-0.320618447,-0.124417705,-0.044529408,-0.000855744,-0.156557611,0.035325437,0.279394427,0.353512063,0.009687194,0.209285790,-0.069055805,0.071496880,-0.179971001,-0.013332526,0.144099769,-0.383690942,-0.027250879,0.074932545,-0.053200436,0.165326427,0.096123424,-0.119399538,-0.455851652,-0.103040229,0.484029490,0.011959774,-0.114405315,0.263431632,0.010555901,0.062567747,-0.106100144,-0.125489599,-0.016732942,
0.016178845,-0.079734806,0.188352594,-0.031713229,-0.061690989,0.342835284,0.021435168,0.003400751,0.035902813,0.070225974,-0.270466266,-0.061149589,0.195533160,-0.190700831,0.080675401,0.185118785,-0.024662042,-0.023075954,-0.213959447,0.166925289,0.153858474,-0.015137267,-0.106145395,0.019483591,0.244947944,0.182652148,0.047656585,0.218427722,0.219721085,0.178804913,-0.037130013,0.174909904,0.406168585,0.237881003,0.134032921,0.205712408,0.163813650,-0.043337812,-0.065463412,-0.201194393,
0.012251853,-0.140511163,-0.201329195,-0.107809709,-0.034023698,0.235714114,-0.268531676,0.293053514,-0.145557076,0.059426101,0.042688198,-0.178057884,0.040252462,0.141471276,-0.160701472,0.169184373,0.028286967,-0.042194182,-0.057836898,0.046516776,-0.113211252,0.131078629,0.058266250,0.027097276,0.166707911,-0.137988807,-0.020312431,0.293344677,-0.064103909,0.006567922,-0.279747816,0.114733909,-0.087047924,-0.106345872,-0.044603202,-0.234612954,-0.034474349,-0.040899228,0.125696412,0.113648146,
-0.027354685,-0.098901776,0.196822467,-0.061515117,-0.268939181,0.149130469,0.033433102,0.076577500,0.390468362,0.055208237,0.184826934,0.099756463,0.235493391,0.077528767,-0.046373604,0.176633610,-0.021426822,0.263809807,0.191261550,0.034355693,0.103293183,-0.002876122,-0.216215195,0.238760774,-0.187538543,0.166941266,0.238905742,0.107577142,-0.228091659,0.013041998,0.045576777,0.300665497,-0.194668940,-0.099818089,0.023454006,0.089035038,0.110595299,-0.004322768,0.067267371,-0.073200718,
0.077567818,0.212599155,-0.105141945,-0.137982739,-0.307556957,-0.097754096,0.090647558,0.004240184,0.068585335,-0.094915215,-0.098800758,0.202778748,-0.294501481,-0.035174187,-0.075972055,0.210246396,-0.191364035,0.006758928,0.211612491,0.013954037,0.330701283,0.046085048,0.053418367,0.247018877,-0.265208955,-0.164789029,-0.017710087,-0.317276572,0.154593234,0.096935016,-0.279022977,-0.042075514,-0.071195145,-0.199876939,-0.014482566,0.102052542,0.183952693,-0.037737209,-0.028725887,-0.088133846,
-0.183741204,-0.286017653,-0.002786020,0.049867239,0.100974981,0.012160691,0.066954587,-0.100054401,-0.028685673,0.136381186,0.034155159,-0.096005145,0.065804332,0.305926321,-0.091262187,-0.228633146,-0.232796731,-0.017507779,0.159119206,0.069347305,-0.079136890,0.143171248,-0.001658691,-0.236848210,0.107141239,0.016530590,-0.103120600,-0.262830967,0.018685632,0.236613192,0.042441178,-0.380860319,0.047578905,-0.022621420,-0.084157545,-0.025320212,-0.190683081,0.181476601,-0.313173935,0.009825446,
0.105620051,-0.091127571,-0.099531120,-0.083096474,0.053678969,-0.220107913,0.161276187,-0.150998421,0.015754788,0.030935868,0.186384852,0.250294736,0.135044138,0.019060400,-0.109599549,0.118278003,-0.129354354,0.067141933,-0.161308139,-0.098935719,-0.178047038,0.073298120,-0.228350085,0.168621496,0.151488598,-0.064163885,-0.249479779,0.314127836,-0.082005169,-0.111489297,0.031666654,-0.046505005,-0.167541437,0.117438407,-0.137468347,0.103168992,-0.043888182,-0.039863046,-0.332016974,-0.069743153,
-0.063386732,0.051637743,-0.070070768,-0.188513260,-0.117647510,-0.230402259,-0.321712896,-0.077484750,-0.010187040,-0.067689615,0.149027419,0.129567920,-0.003681537,0.005931334,-0.265244602,0.064051128,0.178979333,0.043008167,0.221330140,-0.158746842,-0.239500672,0.146958889,-0.132582346,0.102007889,-0.135940101,-0.108960482,-0.087062666,0.026070043,0.075204161,-0.312488538,-0.039896296,-0.045695989,0.394965708,0.111833736,0.038873691,-0.045400126,-0.057926623,0.170407490,-0.145918647,-0.011751675,
-0.022140764,0.035403501,0.166212897,-0.199273521,0.090052558,-0.048584877,0.186641060,0.131811235,0.254180789,-0.010145960,-0.024038283,0.046987472,-0.150268641,0.011749165,-0.138106198,0.001576547,-0.173304809,-0.065677932,0.142033601,-0.244328944,0.207981690,-0.373703258,0.046027922,-0.125120986,-0.054392131,0.083112740,0.496432156,-0.063169367,0.127511238,0.003475996,0.073024535,0.114195476,-0.159474126,0.075233210,-0.028927258,0.258087936,0.073126510,-0.257880770,0.023152122,-0.070712210,
-0.102408090,-0.247104629,-0.035273466,0.101832543,-0.111414072,0.039872107,-0.037361861,-0.186097240,0.012933254,-0.083240110,-0.226718007,-0.033718082,-0.014559035,-0.324964433,-0.009457883,-0.033737562,0.339258464,-0.115992328,0.169380461,0.021571007,0.177246282,0.070940062,0.008940896,-0.108522400,0.024345079,0.046563720,-0.118957253,0.073849528,0.167028415,-0.041040583,0.127071098,-0.217574244,-0.067674138,0.171889961,0.013547066,0.017356297,-0.072116406,0.110407377,-0.086774414,-0.005626912,
0.070948150,-0.014242041,-0.129666045,-0.123155424,-0.137442741,0.204355639,-0.134490864,0.147801700,0.085994205,0.130425314,-0.140103203,-0.065609422,-0.049103878,0.136375088,0.278825659,0.424044244,0.124388533,0.160096557,0.286658230,-0.033481510,-0.347384697,0.092577860,0.041879612,0.021250999,-0.311389672,-0.078125274,-0.293052086,0.227260136,0.265336246,-0.091987543,-0.336604784,0.098844515,-0.025597262,-0.155336794,-0.070136395,0.085637822,0.103921624,-0.043209589,0.153354312,0.055773230,
-0.048491028,-0.145941136,-0.026188504,-0.235162157,0.125589337,0.146038071,-0.255082238,0.209048074,0.111862903,0.205680966,0.168043807,0.246039843,-0.087191131,-0.025783738,0.009543677,0.114256059,-0.020353315,-0.353556194,0.047191721,-0.129004082,0.007783086,0.060353079,0.303740170,-0.070315418,-0.038962448,0.222280800,0.385971498,-0.191287221,-0.013251919,0.088810190,0.033755757,-0.007660096,0.238111961,0.035894914,0.004583105,0.074447158,0.191670606,-0.076411732,0.144506762,0.091047538,
-0.162915488,0.115628827,0.143025758,-0.147435965,0.109248172,0.225742712,0.188113284,0.211930542,0.109748602,-0.223371160,-0.246099925,-0.000055723,-0.019741083,-0.063301070,-0.220519923,-0.063558719,0.150829527,0.252784388,0.056507554,0.016267103,0.007281427,-0.093150768,0.212746141,-0.089502533,-0.104902025,0.088683561,0.006364719,-0.107469481,-0.053354048,0.136310014,-0.011420915,-0.203328280,-0.113273315,0.079505526,-0.111539438,-0.228833253,-0.102854943,-0.115585890,0.032952089,-0.075165004,
0.331879453,-0.191665324,-0.083070492,0.040857549,-0.013707445,-0.002410333,0.101943103,0.243958436,-0.171396140,-0.021682215,0.262713187,0.048554849,0.069407828,0.128751916,0.076835077,-0.182063925,-0.328102803,0.110430929,0.074835741,-0.050366402,0.172496516,-0.329457299,-0.054267762,-0.005145106,-0.298020278,-0.214040869,0.087216874,0.129248190,-0.090236141,-0.371643880,0.100014543,0.018316927,-0.015881453,0.298352034,0.083153383,0.035729147,-0.073713450,-0.141306033,0.000137143,0.040751490,
0.145831801,0.160172677,-0.138220786,0.338250303,-0.144002209,0.017344902,0.152928906,-0.124421159,-0.183209272,-0.232861359,0.115696284,-0.187102331,-0.119047502,0.121410881,-0.098845407,0.025287093,0.247117512,-0.183581249,-0.057997025,-0.057836392,-0.000094302,-0.220739088,-0.212163413,0.083634105,0.137950536,0.246185575,0.050619720,-0.134112522,0.032011924,-0.146497704,-0.035468539,0.024956155,0.057635366,-0.139533203,0.267957045,0.119818359,0.290488628,0.181132682,-0.304296515,0.054715581,
-0.003363285,0.078199129,-0.260546538,0.148850603,-0.475674115,-0.010754544,0.040567735,0.111442677,-0.167290990,-0.074568933,0.210423110,-0.055372248,-0.041504788,0.186878576,0.189514071,0.314597875,-0.051802364,0.258977814,-0.030446254,0.125851738,-0.130740543,-0.230111095,0.106696874,0.041283011,0.140746919,0.095457464,0.047621056,-0.093323616,-0.139079109,-0.005477061,0.098049804,0.126415440,-0.170382646,-0.206253022,-0.113690732,0.114674339,0.086250833,0.247249800,0.004565505,0.012654002,
0.151630251,0.257180685,0.229390210,-0.069951796,-0.010017396,0.220385730,-0.107000372,0.208385662,0.358750178,-0.175086801,0.028479234,0.035325366,-0.122629464,0.178402609,0.144482105,0.151327910,-0.244703786,-0.254446968,-0.122172184,0.138256120,0.103341357,0.063196496,0.128398230,0.091519426,0.092294213,-0.142716129,0.145489218,-0.162071684,0.190645532,-0.048272703,-0.061865247,-0.097115568,-0.178260943,-0.035323628,-0.221862429,-0.031082593,0.217297995,0.062760213,-0.108276674,-0.008342210,
0.113963832,-0.250099913,-0.136189959,-0.062602487,0.003519916,-0.272867191,-0.148667300,0.057799431,-0.106863472,-0.248018979,0.145734742,0.068216095,-0.025767326,-0.138881049,0.124038181,0.472695807,-0.039831016,-0.000346086,0.233498677,-0.177318223,0.197721478,-0.005182308,-0.066996996,0.193207231,-0.184032720,-0.217145585,-0.002164589,0.005408132,-0.145639889,0.188895027,0.032136129,0.512538064,-0.093524742,0.123327989,0.129102645,0.031884501,0.226920748,-0.131794881,0.181365910,-0.097132501,
-0.000250879,-0.016321175,0.111468811,0.070564430,-0.176178433,0.186885087,0.144210599,-0.037896924,0.015112922,-0.227147061,-0.132908300,0.092133161,-0.009123308,-0.001098501,0.051148305,-0.146888252,0.086420146,0.085063198,-0.339616215,0.066419057,-0.043895229,-0.177145381,-0.089541215,0.257283923,0.107466189,0.268637912,0.114817850,0.112700701,0.012143867,0.048002458,0.377043330,0.068931623,-0.167299032,-0.190933948,0.227200748,-0.012511067,-0.191859574,0.397737934,0.034161921,0.248825063,
-0.012722377,0.055767227,-0.190337169,-0.052394109,-0.083372635,0.165763451,-0.196573052,0.054963539,0.315139097,-0.102771909,-0.142584418,0.085678261,-0.038778387,-0.033554157,-0.243443210,0.013283993,0.017042110,-0.092648106,-0.124590353,0.211700065,0.110267288,-0.010980842,-0.181837288,-0.185269737,-0.040566140,0.072973086,-0.102899901,0.042125903,0.091089748,-0.110182139,0.106990040,0.194851127,-0.098152022,-0.087483232,0.345009502,-0.123530812,-0.034545888,-0.016863921,0.230754294,0.222681270,
0.125089780,0.115773576,0.074092845,0.130689694,-0.266603582,-0.085835154,-0.211308909,-0.053236862,-0.262364547,0.130147063,-0.162857816,-0.160236879,-0.086221827,0.047604874,0.357881418,-0.297446167,-0.184950286,0.054769796,-0.247518120,-0.041517463,0.007301240,0.171935200,0.022506822,-0.008857200,-0.199296927,-0.056340375,0.001022497,-0.069511598,-0.099561406,0.164508055,0.030890526,0.010452664,0.024483019,0.125076047,0.154479137,0.087194933,0.288225100,-0.087011868,0.057382091,-0.014797780,
-0.080752941,0.080711429,-0.122427443,-0.029700528,-0.213333888,-0.063958767,-0.238660082,0.053997750,0.043049170,-0.061256992,-0.056409037,-0.048758775,-0.126588389,-0.158752886,0.184532380,-0.047330168,0.117426530,-0.034408995,0.206945065,0.165990808,-0.017666911,-0.049191730,0.149127719,0.031913333,-0.045191594,-0.054160455,0.045277229,0.056989103,0.003490147,0.022586517,0.154231671,-0.011480262,-0.158637379,-0.128878505,-0.099502446,0.026710174,-0.158007914,0.094340431,0.006246796,-0.142907168,
0.178053628,-0.393718458,-0.157900328,0.083617149,-0.005752385,-0.050626868,-0.068674844,0.092989855,-0.080027792,0.158527782,0.016842346,-0.158107586,0.055206808,0.146561226,-0.044170507,-0.185650170,-0.213502167,0.170858488,0.162081592,0.185027346,0.332547879,-0.056303040,-0.065680050,-0.103535892,0.104394777,-0.368987844,-0.051137766,-0.034827898,0.359332679,-0.038779663,0.093592386,-0.264094985,0.015226627,0.024728718,0.350401065,-0.049156443,-0.084751131,-0.052076881,0.014814923,0.015828276,
0.242243588,-0.190782968,-0.149011200,-0.039939677,0.272658849,0.098541217,-0.027068694,-0.107833305,0.091339842,0.036320911,-0.293550455,0.152965927,-0.252717740,-0.269511692,0.017102400,-0.099795721,-0.342620766,0.191665858,-0.149358838,-0.151979613,0.124663341,0.131610744,0.279350973,-0.001737131,0.232722772,0.138665619,0.017169754,-0.068760775,-0.408577613,-0.035970104,0.337047983,-0.139967227,0.049104541,0.121742781,0.095623416,-0.337687225,-0.040136865,0.092892796,-0.038234144,-0.194057641,
0.017480379,-0.014692589,-0.050348961,0.066005267,0.155968807,0.107720942,-0.240392472,-0.217765046,0.079204957,-0.017947087,0.080387817,-0.090876983,-0.009363726,-0.040692185,0.095511599,0.047188907,-0.191425414,0.016751746,0.243824289,-0.074653741,-0.037814978,0.114889510,-0.122029188,0.111466541,-0.045255197,0.154649807,-0.008771498,0.105801799,-0.050524936,0.212307644,-0.100434597,-0.188391556,0.028694735,0.117921283,-0.265138555,0.051683062,-0.089025522,-0.191959017,-0.053787786,0.228044279,
0.008006032,0.213704623,-0.084874915,-0.134348033,-0.075421170,-0.048196929,-0.039436777,-0.071347324,0.079341489,-0.010285250,-0.360755419,-0.264310871,-0.335749745,-0.020843471,-0.237776413,0.094840604,-0.101966672,-0.027136546,-0.219662264,0.021909673,-0.094980811,-0.004674091,-0.247165058,0.186930090,-0.271162842,-0.426865846,-0.099511187,-0.202619477,0.064246511,-0.222524826,-0.120593429,-0.151126532,-0.117590404,0.100176406,0.096037812,0.116397881,-0.225851021,0.080292745,0.014802269,-0.204393923,
0.242554899,0.143982954,-0.083769549,0.149106815,0.211933588,0.024362179,0.062605199,0.061215791,0.073408819,0.059691960,-0.212334332,0.147170775,0.134900151,-0.224863622,-0.142172677,-0.027063568,0.282503970,-0.028975999,0.064576041,-0.147679876,0.089034877,0.170033409,0.065450359,-0.069276769,-0.160940105,-0.169101496,0.305226618,-0.143432810,0.026066649,0.191213763,0.129367071,0.055784363,0.045976903,0.098397050,0.215419913,0.125868686,-0.120900204,0.139117742,0.085927494,-0.301234638,
0.372276836,-0.118862640,-0.064005351,0.178074659,-0.121617055,-0.061804068,0.066355709,-0.065543684,-0.042004538,-0.318410698,-0.207137471,-0.026511736,-0.044086531,0.151151855,0.317323413,-0.214483352,-0.165488004,-0.003774201,-0.152191799,-0.078244053,-0.060538077,-0.154457402,0.076756485,-0.026478938,0.072864167,0.093650895,0.179156571,-0.192840446,-0.091460685,0.051820130,-0.304385451,-0.110987765,0.355900799,-0.093670609,0.429377057,-0.091350762,0.067855761,-0.297287791,0.068900517,-0.124507046,
-0.070033110,-0.036686613,-0.015031506,0.210870169,-0.181331553,0.075506050,0.143082940,0.274992927,-0.072505716,0.250195511,-0.413482958,-0.072072555,0.147419454,0.121789742,0.100837997,0.354032442,-0.072080069,0.077080900,-0.011303281,-0.358186733,0.160704758,0.054580546,-0.014272526,0.102022647,-0.088109404,-0.211322708,-0.082435026,-0.101216797,0.030614161,0.081662233,0.033242583,-0.204139787,-0.394928428,-0.044063709,0.145002200,0.000868152,-0.255659624,-0.456512489,-0.031289578,0.054068259,
-0.058177957,-0.003676486,-0.047156652,0.198207296,0.044111287,-0.066634937,-0.050561235,-0.242746132,0.048725417,0.043428029,0.384741407,-0.341538321,-0.046533325,-0.048689408,0.077964178,0.063734342,0.175992847,0.034498608,-0.213689889,-0.030498908,0.055279742,-0.135862225,-0.165730093,-0.093650229,0.261398271,0.115068903,0.081500761,0.075327336,-0.010792291,0.072883463,-0.016144578,-0.110282120,0.163316659,0.236618501,0.054322999,0.063737672,-0.198725620,-0.190518302,0.096715557,-0.066509767,
0.065480380,-0.044580540,-0.275982476,-0.096187580,-0.095429338,0.154515519,0.129437339,0.267136473,0.044150701,-0.055053246,-0.130095481,0.157937258,-0.094624847,-0.291623985,0.037689739,0.359968648,0.040007274,-0.106591764,-0.076203293,0.025673769,-0.217476381,-0.346140663,-0.126389024,-0.206856712,0.068528937,0.293325687,-0.034819861,0.077895682,-0.300935045,0.014984176,-0.143598202,-0.075772219,-0.137718882,0.074857058,0.112058024,-0.006138672,0.006838592,0.174195632,0.128669488,0.025067686,
-0.142316725,0.139845407,-0.065470401,0.039042557,-0.040382298,-0.020613446,0.050039108,-0.098226817,-0.054706140,0.182240597,-0.060566013,-0.119226748,0.157069657,0.062329049,0.001996751,-0.055843464,-0.008536196,-0.115420001,0.028557148,0.280946596,-0.038974069,0.007471904,0.052306989,-0.032137713,-0.206481437,-0.004854765,0.119833165,-0.034324531,0.160455148,0.045254324,-0.158415126,-0.165692559,0.061246717,0.175180349,0.114485158,0.091917643,-0.043660844,0.061602710,0.182891866,-0.001515815,
0.157981587,-0.066143799,-0.159417471,0.499564296,-0.099895837,0.215470509,0.024922953,-0.205108289,0.126755866,-0.262474948,-0.095158015,-0.012318141,0.007375849,-0.040655555,0.148143682,0.029907069,-0.181028108,0.240284849,-0.114011359,-0.109094523,-0.301337336,-0.050793675,0.256114141,0.077832607,-0.130992012,-0.020439972,0.004298850,-0.115506276,0.092275363,-0.020729397,0.077725982,0.120720711,0.228036928,0.043324510,0.253678581,0.014187019,-0.138688006,0.138328341,-0.091897964,-0.072959282,
0.080408425,
0.220761010,
0.169540456,
0.219175003,
-0.180560596,
-0.097327059,
-0.089227913,
-0.175280945,
0.001787983,
-0.107576069,
-0.235631307,
-0.071247241,
0.070570484,
0.043817382,
-0.014843343,
0.234371973,
-0.159833331,
0.028163608,
-0.114113562,
0.038676122,
-0.193188164,
-0.135674771,
0.089312365,
-0.301789626,
-0.086189989,
-0.310097403,
-0.035758023,
-0.021669694,
0.246142414,
-0.100370336,
0.004342878,
0.164022360,
0.021096449,
0.104916336,
0.013073552,
0.097219849,
-0.211383357,
-0.105173172,
0.000244657,
-0.174081673,
0.043156940,0.012935376,-0.046398805,0.169488097,-0.047893382,-0.018779843,-0.124962332,-0.038695973,0.009021126,-0.097592196,0.397487494,0.243092660,-0.159090662,-0.019554530,0.172100083,-0.214223559,-0.181098251,0.090892455,0.154603563,-0.055725828,0.094764476,-0.112739300,-0.009036916,-0.023787864,-0.242033400,0.271574982,0.143530647,-0.343030570,-0.095733565,0.171894473,0.061029437,-0.129951164,-0.161089883,0.163365732,0.054389818,-0.046371750,0.312387116,0.010469849,-0.104278707,-0.101477193,
-0.101219772,0.023360531,-0.252589540,-0.015186723,0.043522572,0.070815850,0.341257791,0.065843175,0.062055556,0.076866715,-0.001304436,0.040944416,0.067303459,0.119282971,-0.003238662,-0.100125462,-0.120113761,-0.139472345,0.203146356,0.067715134,0.121157594,-0.047172016,-0.046217347,0.091821848,0.081285595,-0.227218980,-0.100914620,-0.211974658,-0.260960707,0.072205811,0.173834323,0.088765171,0.061299555,-0.047646553,0.060480277,0.347460621,0.030453731,0.059508654,0.129051927,0.227725634,
0.003982803,-0.107638377,-0.124130161,0.022002879,0.064430699,-0.001118692,0.042252835,0.079632820,0.033036449,-0.073378692,-0.142227430,-0.227255588,-0.055808265,0.073090924,-0.158396072,-0.291147476,-0.065494808,-0.383502263,0.026286587,-0.004281261,-0.028964302,0.271526561,-0.225427480,-0.222259302,0.053620468,-0.061706964,-0.174257400,-0.237920973,0.187226711,0.087529179,-0.112927467,0.013422453,0.110822913,-0.321945915,-0.076960460,0.257401700,0.016856375,-0.249481892,-0.114372594,-0.111953211,
0.022481380,-0.021364057,0.040492615,-0.417325411,-0.089228579,-0.023151008,0.051676543,0.105186468,0.052450885,0.303587525,-0.172812104,0.013803990,0.212010359,0.337706472,0.149483018,0.106508417,0.312375123,0.041672147,0.252475107,0.196486275,0.252227258,0.109726902,0.245258098,-0.336930411,0.329807480,-0.002561721,0.300277071,-0.045548878,0.133788719,0.013306483,0.058632626,-0.407471312,0.081381827,-0.059439694,-0.400328773,-0.018892944,-0.034918057,0.017886448,0.204057117,-0.171527026,
0.227311883,-0.045688052,0.044154704,0.131588228,0.050255545,0.064704583,0.087253510,0.066951846,0.026249744,-0.057995163,0.067420983,0.244785538,-0.081928849,-0.043958200,0.062708291,-0.259535436,-0.062299200,0.052334626,-0.073795480,0.063661977,-0.050229550,-0.282941681,0.177445397,-0.078901632,0.051905994,0.186342364,0.040153328,-0.181592759,0.191581290,-0.091014869,0.149743145,-0.182025858,-0.022513325,-0.198719563,0.225627171,0.208221643,-0.372336676,-0.139646971,-0.311750305,0.165361959,
-0.431027356,-0.071528774,0.261768327,0.150793022,0.352535722,0.064557287,0.105345783,0.053671809,0.004092997,0.128362742,-0.179579910,0.160785931,-0.161198352,0.121380364,0.130428406,-0.117733787,-0.003114836,0.249075679,-0.016120631,-0.051360686,0.026154502,0.049896021,-0.001048729,-0.232693690,-0.124755662,0.115521462,-0.061442335,-0.272911776,-0.058221769,0.032330402,-0.002427721,-0.253726434,-0.050673701,-0.267052552,-0.120697893,0.063527534,-0.017376633,0.095819691,0.009259637,-0.135919341,
-0.108506145,-0.096357409,0.288511717,0.022991806,-0.000181024,0.090790231,0.009249913,-0.049199276,0.121525288,-0.066748542,0.205410343,-0.017112267,0.073148797,-0.122301453,-0.161725556,-0.074942186,0.106205300,0.007078861,0.093575129,0.193345859,0.213776588,-0.386468338,0.068912362,-0.328035433,0.112125778,-0.140106253,-0.126925452,-0.128784257,0.028266516,-0.001505390,0.075322997,0.277050997,0.045737764,-0.016286660,0.160753226,0.124048535,0.125361877,0.115367778,0.259709190,0.142081598,
-0.018900324,0.095526228,0.134801346,0.118530342,-0.119276958,0.050735286,-0.062764590,-0.206847667,-0.123566714,-0.079468209,0.500807691,0.063705290,0.117224567,0.107476274,0.243551978,-0.127490803,-0.089631463,-0.000372723,0.049727799,0.095371841,-0.269741143,0.079748242,-0.234740585,0.503429720,0.044024310,0.262128299,0.102144927,-0.076408600,-0.153614638,0.176196006,0.080028031,-0.016283933,0.029670828,-0.125860522,0.147260922,-0.233983705,-0.230445961,0.012021679,-0.352043790,-0.294030966,
0.033252287,-0.049135078,-0.451748153,-0.017815115,0.229525178,-0.059946621,0.157669622,0.001259103,0.207935773,-0.051740719,0.414831761,-0.194265020,-0.082587183,0.150095997,-0.331210385,-0.147447001,-0.293264613,0.007058159,0.144178281,0.184055269,0.100657937,0.303165456,0.229685263,0.277741354,0.193373447,-0.086172897,0.216680691,0.376959731,-0.490901328,0.143209967,-0.103901216,-0.082355943,0.289825378,0.206397602,0.127352871,0.024996541,-0.007993915,-0.069870516,-0.294290572,0.239461023,
0.072307115,-0.015352693,0.195519985,0.020283117,0.225553594,0.004593345,-0.015858730,0.386953250,-0.109685944,0.197967449,0.123648018,-0.010036371,-0.089362160,-0.143055929,-0.146432628,0.119398023,-0.141883807,-0.113579450,0.135482678,0.071950239,-0.012130467,0.227847824,0.071065269,0.206953599,-0.252645628,0.071008398,0.072381509,-0.280274789,0.078222399,0.321237045,0.009809484,0.112242162,0.289463780,-0.147392964,0.019787886,-0.106172331,-0.191749138,-0.175425126,0.207924213,0.030562272,
0.097616374,0.178176519,0.035123375,-0.219284557,0.166010587,-0.050446343,-0.248932172,0.161022779,0.025905615,0.009213914,-0.250434729,0.120387366,-0.227005040,0.274324456,0.070827078,0.177375588,0.082680435,0.163016113,-0.329728540,-0.184495227,-0.038101581,-0.217264168,0.033586824,0.438015380,0.130789455,-0.087168176,-0.033818488,0.165970178,0.040974733,-0.296037890,-0.135242488,0.123084403,0.044950548,-0.130862322,-0.020441259,0.054468338,-0.222597084,0.111627523,0.019665818,0.083139008,
0.177731364,-0.336261832,0.013029209,-0.122495518,-0.288722725,-0.076490009,-0.233471121,-0.020586466,0.226033846,0.047706512,0.024559306,-0.116230724,0.110080155,0.254488664,0.078698425,-0.199080963,-0.116521280,-0.034303964,-0.005811037,0.213673056,-0.050260549,0.006574366,0.139000740,-0.004733343,-0.174227802,-0.084502970,0.168085172,-0.070766387,-0.001583393,0.273814704,-0.042402677,0.112175318,0.248854065,-0.009493840,-0.080554248,-0.192245259,-0.033119502,0.218977534,-0.349227143,0.047547926,
0.115612744,0.312625906,-0.020478313,0.056933361,0.187028736,-0.094250826,-0.251418032,0.200641638,-0.100664138,-0.136075252,-0.026919438,0.236881308,0.045567358,-0.224112596,0.109777648,0.260553665,-0.204296361,0.067490716,-0.096832808,-0.167011468,-0.583267124,-0.217671820,0.011383562,0.233486071,0.116688849,0.241882018,0.062310798,0.170003086,-0.114727300,-0.152660153,0.270243038,0.029542021,0.200402955,-0.058045890,0.576362975,0.112294554,0.003429328,-0.063153100,-0.146838079,0.195060322,
-0.134168984,-0.078244951,0.134694910,-0.001685789,-0.132668920,-0.131569919,0.296554434,-0.140505779,-0.070404961,-0.155729034,-0.165270204,-0.059059904,0.220133033,-0.002180027,0.174586697,-0.058551914,0.296618211,-0.254274079,-0.020949285,-0.014948845,-0.052975603,-0.069824564,-0.105320521,-0.024187674,-0.077263640,-0.124958568,0.020125296,-0.031640234,-0.044076702,0.175147754,-0.101320219,0.158326205,-0.175741355,-0.130290063,-0.039004850,-0.058684157,-0.108305558,0.038773798,-0.117066710,0.114735050,
0.045132747,0.145160486,0.020326329,-0.199244582,0.090268021,-0.231247668,-0.059073584,0.127663893,-0.378040653,0.274305721,0.093231921,0.488179702,0.289542197,-0.030569589,0.124064192,0.055941975,0.020826662,-0.186935118,0.118053849,0.259148057,-0.123328616,0.057090733,0.028758097,0.098821688,-0.128485702,-0.295576593,-0.201528229,0.087750246,0.207235795,0.076551650,0.013838460,0.138208037,0.070334900,0.015294336,-0.050241329,-0.055005608,-0.209479999,0.063478872,-0.090915596,0.336097047,
0.258684672,-0.137360177,0.167961892,-0.024048347,-0.034037170,-0.143439317,-0.015312388,-0.204059694,0.083858921,0.120320278,0.016218955,-0.532034688,-0.223648086,0.052686724,0.062607013,-0.107734097,-0.081619064,0.164924081,-0.025191730,0.027767640,0.026195933,-0.249228472,-0.291930548,-0.302657433,-0.004259039,0.335014670,-0.231028717,0.103779767,0.135759696,0.058510189,0.029190399,0.090315492,-0.295400904,-0.289597810,-0.033653270,-0.392197189,0.174378048,0.007480100,0.247207160,0.054804107,
0.051709782,0.222132797,0.006987494,-0.223438723,0.078040661,-0.005003365,-0.061232956,-0.125164828,-0.024257811,0.210000998,0.071105100,0.000300949,-0.077297933,-0.105874016,0.096880247,-0.093433224,0.119282775,-0.015060976,-0.198693791,0.144682650,0.037115681,-0.071376825,-0.024022401,-0.000401585,-0.034294380,-0.198545752,0.186042183,0.093757480,0.258937805,0.085331682,-0.244312104,0.072053271,0.026123930,0.027201513,-0.017157729,-0.094799351,-0.040876484,0.172303456,-0.173633136,-0.330290722,
-0.225369294,0.058855301,0.280846547,-0.083833854,0.237036844,-0.030119989,0.262151988,0.112071202,0.184384554,0.055250669,0.079542889,0.473544847,0.162711685,-0.107048399,-0.067983225,0.026064863,-0.152866791,0.130043034,0.095052362,-0.353201023,0.183397889,0.079816678,-0.136995300,0.027040516,-0.382525527,-0.112509962,0.041520830,-0.042179234,-0.094353063,-0.102012822,0.030172315,-0.259144478,-0.136061444,-0.014790763,-0.135098858,-0.055170167,-0.150397696,-0.408576939,0.111381443,-0.336231257,
0.048914756,-0.089558578,-0.164405216,-0.104834379,-0.149523180,-0.051833463,0.015166910,0.226284633,-0.097859742,0.052929785,0.085460659,0.084140568,-0.005796265,0.031607026,-0.229531433,0.098740809,0.027889712,0.105559349,-0.030101812,-0.135913636,-0.139432769,0.041658720,-0.220215775,0.025027384,-0.051492400,0.161154231,0.027557847,-0.275019632,0.038673911,-0.218280262,0.026438025,0.001860438,-0.067885425,-0.025843406,-0.272050242,0.379453256,-0.346905604,0.096634621,0.147631541,-0.207273020,
0.093173763,-0.056638951,-0.131961882,-0.091153329,0.218065882,0.055860825,0.102743826,-0.089432005,-0.076484994,0.119818661,-0.067155114,0.242451019,0.073439747,-0.093278878,0.087266004,0.046512357,0.038990394,0.014841278,-0.143898705,-0.035853765,0.119667749,0.032343845,0.003856578,-0.012264051,-0.043370494,-0.037761654,0.138036762,-0.050985295,-0.306474755,-0.211367396,0.016631918,0.022713112,0.145004718,0.123720886,-0.197918689,0.074229860,0.069473559,-0.037042714,0.039537000,0.000162961,
-0.276668014,-0.192690240,-0.079378378,-0.256983186,0.162088165,-0.143508841,-0.248751661,-0.188634488,0.092844491,0.252058238,-0.002900560,-0.056292724,-0.272988466,-0.113071181,-0.020378169,0.131079320,0.195656604,0.031810611,-0.260787341,0.347320125,0.271481405,-0.003745103,-0.069628908,-0.091953282,0.062240003,0.080196926,0.079027368,0.201657842,-0.083197148,0.051279957,0.114260916,-0.189549166,-0.085025318,0.035442686,0.055096479,-0.043880526,-0.005701718,0.208648556,-0.240288160,0.088829417,
0.001764032,0.215863870,0.050943282,0.096936070,0.128755947,0.174413400,0.304671169,0.371977946,0.111317989,-0.050166890,-0.502064608,-0.137650450,-0.099670790,0.315994755,-0.055894386,0.079148984,-0.156821410,0.105690071,-0.193156427,0.083107053,0.011470261,0.156916758,0.282019891,0.098113275,-0.209747572,0.391543701,-0.128629459,-0.248213959,-0.266308771,0.381390403,0.245032856,-0.119040942,-0.214445953,-0.247017164,-0.394027735,-0.012879433,-0.280193190,0.026591088,-0.092475123,-0.101493322,
-0.249793638,-0.203494610,0.112933890,-0.064835203,-0.153309400,0.003187390,0.233950849,-0.044760862,-0.316972983,0.007793895,0.087752722,0.195361579,-0.019515494,-0.038053748,-0.052695977,-0.329202602,-0.062586328,0.143897726,-0.187497414,0.110954395,0.353633198,-0.043988391,0.176956350,-0.236643680,-0.035846657,-0.123842625,-0.114693930,-0.043555432,-0.065050729,0.320755336,-0.215995301,0.184081490,-0.195231271,-0.065149789,0.185107447,-0.153349538,0.053622649,0.100707437,-0.142195379,-0.137178003,
0.104865009,-0.403858156,-0.018940575,-0.206200559,-0.149257899,-0.025098057,0.188165586,-0.191352954,-0.103388627,-0.253436779,-0.189826086,-0.306593526,0.058974652,0.078477684,-0.032194958,-0.088974804,-0.064430720,0.198236081,0.204904849,-0.008915934,0.038657017,-0.291890431,-0.089674047,0.228949083,0.140552368,-0.206144282,0.045997552,0.245089664,0.032986840,-0.349838374,-0.027313031,0.101224163,0.081547048,-0.150089452,0.032533412,-0.069866210,0.064742152,-0.132453316,-0.116148582,0.263942871,
-0.065443941,0.203740774,0.093554425,-0.027901656,-0.070289060,0.023601723,0.068513681,0.153612480,-0.111651276,-0.054442871,0.060054586,-0.022536769,-0.271933103,-0.122397548,-0.108576232,0.114022078,0.116920410,-0.104305432,0.070355682,0.038302922,-0.006465654,-0.051217174,0.052007810,0.007275227,-0.110469376,0.524839796,0.258385706,0.252039231,0.140928644,-0.065922720,0.278615810,-0.015820178,0.124102993,0.070385153,0.049381223,-0.020761294,-0.179288719,-0.096100306,0.321528546,-0.197359006,
0.024549592,-0.124090832,0.048131266,0.097891613,0.253190526,-0.159688288,-0.132281177,0.177816658,0.124071301,-0.072814422,0.058148801,-0.020168179,-0.073081999,-0.132936932,0.153940513,0.308736087,0.103605884,-0.103890357,0.261170609,-0.140894391,0.288652293,0.109068770,-0.119425482,0.002472254,0.193149747,-0.074819307,-0.006081659,-0.090898647,0.102184408,0.294343864,0.011411705,0.067443561,0.115280062,-0.198538018,0.167999346,-0.060042562,-0.392860453,-0.003267464,0.172842226,-0.193306681,
-0.067869001,-0.193431996,-0.196886235,-0.070791816,0.018018035,-0.298325740,-0.023688589,0.065307862,0.178514725,-0.122160148,0.113065616,0.020569943,0.273922492,-0.031612051,-0.128110390,0.103457559,-0.096726777,-0.043136307,0.030362549,0.114021576,-0.106662526,-0.163864943,-0.006226091,0.231688210,-0.055539070,-0.019233452,-0.188928534,0.269439449,-0.185284030,-0.188260125,-0.149109179,-0.023188281,-0.089872189,0.128424408,0.346126310,0.046577890,0.128072922,-0.242313095,0.286924992,-0.218809442,
-0.185785682,0.075115166,0.119115371,0.029960898,0.077873375,-0.129830444,0.024830898,-0.237928978,0.089418728,-0.370392489,0.320045374,0.139177537,-0.045591802,0.102751994,0.230608966,-0.321637409,-0.012863445,-0.056382893,0.208999954,0.083160466,-0.023477137,-0.084489914,0.324198941,0.228677960,0.176970105,0.033002195,-0.052789636,0.047552584,0.013207173,0.115832623,0.162907547,0.274682110,-0.195197668,0.198601107,-0.014293593,0.123947158,0.120115835,0.002227467,-0.428528614,0.244364929,
-0.156837639,-0.053591374,-0.200909973,-0.225278756,0.023660783,-0.188984107,-0.011666019,0.103185507,-0.135131665,0.105066286,-0.065673396,-0.343861822,0.216329116,-0.033581901,-0.132455963,0.108554471,0.093750703,0.061708336,0.200417945,-0.385852447,-0.067377762,-0.141591102,0.134438327,0.399692156,-0.022146945,0.038863865,0.200240269,-0.224072041,0.288706344,-0.091109752,-0.161493157,0.070973705,0.243751554,0.153676840,-0.441029336,0.217360917,0.031718533,-0.039213139,0.230004674,-0.506221350,
0.141820331,-0.309645056,0.193611732,0.099178543,0.025619297,-0.012432082,-0.112126164,-0.178871969,-0.052076476,0.091019682,-0.182645981,0.027056861,-0.110873997,0.013034631,0.181696917,0.025686903,-0.219655809,0.048631700,-0.167455587,-0.080198033,0.428071208,0.057721541,-0.049773910,0.025658108,0.441210272,-0.092215079,-0.074457553,-0.181997363,0.034484614,-0.099643111,-0.126572076,0.083855059,-0.070089880,-0.085621092,-0.192956458,0.038458955,-0.079860517,0.035387197,-0.180907701,0.100932858,
-0.029695466,-0.047781919,-0.043102680,-0.021070496,-0.042320517,0.073856429,-0.193426212,-0.007316024,-0.116472369,0.030257046,0.034903876,0.362430251,0.242109622,-0.032311878,-0.061701798,0.142905681,-0.132284973,0.166414968,-0.083088346,0.126293364,-0.174412305,0.022380719,0.334236283,-0.110868560,-0.245037447,-0.277857820,-0.101671567,-0.217135035,-0.012610436,-0.199754146,-0.183426035,0.133034669,-0.278308285,0.054539101,0.238540302,-0.116474697,0.047297355,0.048210183,-0.066294041,-0.088734725,
-0.157814517,-0.040000577,0.026636872,0.214611053,0.074940276,0.013122003,-0.029085904,-0.078268946,0.103493670,0.303358100,0.325806581,-0.147985209,0.081635848,-0.350464793,-0.061250172,0.012015916,0.146327235,-0.072824694,0.094546312,0.028756654,0.414438792,-0.105027490,0.025045758,0.234445500,-0.001181921,0.023755709,0.028518838,0.135592037,-0.016064892,-0.061973688,-0.095277752,-0.104200034,0.010421896,-0.135460082,0.043845410,-0.204774371,-0.036596974,0.171285004,-0.130323511,0.190931996,
0.222342759,0.045615945,-0.377475681,-0.050840060,-0.026766450,0.218298837,0.150000222,0.018439696,0.260475549,-0.012815859,-0.089340419,0.049672289,0.249824964,0.160525622,-0.049502529,-0.252084023,-0.098524116,-0.173340944,0.005952413,0.089179318,-0.290125870,0.112646580,-0.138101743,-0.134824486,0.169857765,-0.259205787,0.087379832,0.210872118,0.163112303,-0.318410673,0.154124543,0.238238675,-0.055597844,-0.064856928,-0.080727544,-0.228121333,0.361854540,-0.299875547,0.315263805,0.147410304,
-0.003751515,-0.024185216,-0.285383019,0.088325095,-0.397930126,-0.093684482,-0.054339746,0.262608031,-0.137901527,-0.116313766,0.130533292,-0.331245431,-0.249101357,0.148251989,-0.127605577,0.034677042,-0.074969924,0.008523724,-0.187777209,0.135788548,0.311593918,-0.223305941,-0.081998313,-0.033456197,0.182038869,0.212437446,0.075413504,0.088848134,0.027010338,-0.097125974,0.062135343,0.187678461,-0.015959019,0.217368385,0.029260577,-0.066995615,-0.316057921,0.247434870,-0.065404098,-0.179390304,
0.073593805,-0.269694936,0.047704299,-0.140642530,-0.157923618,0.029210437,-0.195221780,-0.268661831,0.143252822,-0.223286840,-0.050278830,-0.097198532,-0.159750408,-0.087544621,0.125670647,-0.000988124,-0.268303572,0.022812860,-0.321117254,-0.079852317,0.096361790,-0.125659482,-0.046495884,-0.040602927,0.102245763,-0.125201033,-0.293656030,-0.141291624,0.103291076,-0.275759327,0.098962248,-0.077737936,-0.105812974,0.277615457,-0.155550641,-0.307012508,-0.029295562,0.173011031,0.016027848,0.214485440,
0.181251992,-0.142630616,0.167539443,0.017548729,-0.118781802,0.029913405,0.189613720,0.308918414,0.067425673,0.142627979,-0.103795657,0.224171670,0.056039970,0.114117393,-0.184464003,-0.357062101,0.197881115,-0.286486451,0.280574092,-0.157352555,0.272043327,-0.024322325,0.204349613,-0.161288327,-0.460598102,-0.031352928,0.404110476,-0.136030683,-0.034799389,-0.044701258,-0.080821736,0.015476549,0.074966906,-0.052392742,0.137306404,-0.012346997,0.019729021,0.178220624,-0.302422287,0.096442411,
-0.207582099,0.273890288,0.048926591,-0.138919006,-0.004711805,0.194846343,-0.027564418,-0.241687503,-0.251316542,0.018225120,-0.077885662,-0.161998206,0.173069351,0.061674298,-0.248912591,0.305280256,-0.122708314,0.011191470,0.081208800,-0.216180639,0.017942091,0.272044765,-0.127866125,0.002837361,-0.079507778,-0.001570935,-0.202425083,0.316110715,0.003109242,-0.041962065,-0.002163448,-0.306770084,-0.062157569,-0.226778299,0.028367492,-0.229299001,0.090937528,0.162930074,0.074121879,-0.030406021,
-0.067257185,-0.041398527,0.335773237,-0.158160341,-0.059711779,-0.117258681,-0.208312354,-0.100957580,-0.032211717,-0.010081057,-0.109403952,0.035078045,0.318445111,0.006208627,0.119841363,-0.010530909,-0.176519980,0.051530137,0.012269128,0.009975441,0.051423626,-0.087624436,0.115465768,0.310970421,0.035998490,-0.215753737,-0.136481239,-0.030468093,-0.026817414,0.018581784,-0.010265739,0.094961058,-0.351607622,0.144765935,-0.008794129,-0.143093600,-0.045731781,0.002193612,0.197614883,0.223047172,
0.076743366,-0.110701258,-0.003831902,-0.372220698,0.022061394,-0.055684264,0.069937609,-0.111998169,0.018641980,-0.140932112,0.018115212,0.053282661,0.019378901,-0.014456116,-0.085010559,-0.024213292,-0.027877437,-0.057956161,0.227788035,-0.082067759,0.053659077,0.109682231,-0.242751920,0.155664214,-0.136821264,-0.059941693,0.072464849,-0.069001753,-0.211038529,-0.211998380,-0.275517841,0.065073385,-0.025554041,0.139889718,0.180392193,0.270835295,-0.230370964,-0.224623146,0.007506845,0.126238763,
0.165145911,0.059303486,0.022334139,0.160676047,-0.062862874,0.119022010,0.062993271,-0.022528412,0.055744128,-0.087689098,0.092969892,-0.284139145,0.403138175,-0.012360142,-0.054605799,0.462514343,-0.009491581,0.342357670,0.388446731,-0.043465641,0.097885789,0.149661978,0.086308807,0.031353880,-0.021171642,-0.116887555,-0.009377458,0.114299932,0.031626868,0.144867618,-0.145158977,0.116018370,-0.252663384,-0.080224711,-0.184683875,-0.009819057,-0.147939140,0.037952452,-0.066157033,-0.038344497,
-0.210265609,
-0.130738177,
-0.095436783,
-0.020163870,
0.207983711,
-0.183566561,
-0.171534013,
0.011551897,
0.153896282,
0.306421200,
-0.026730384,
-0.020810001,
0.008487923,
0.286400062,
-0.078952320,
0.061951382,
-0.106794392,
-0.087217591,
-0.139583194,
0.035382300,
0.259070182,
-0.043922926,
-0.229954966,
-0.162834000,
-0.009746252,
-0.128420799,
0.075794829,
-0.351780870,
-0.008628280,
-0.063069681,
0.002223455,
-0.072594654,
-0.197803544,
-0.352314159,
-0.044786678,
-0.001601671,
0.151297286,
-0.293670593,
-0.164695093,
0.352745593,
0.100364982,0.079172854,-0.333595932,-0.052273993,0.062167110,0.037941187,0.198963552,-0.030806844,-0.229706559,-0.081746184,0.037357892,-0.025567055,0.076830459,-0.059242928,-0.034714680,0.104748770,0.107333840,-0.140225113,0.122095166,0.127598026,-0.109762281,0.054556623,0.223787670,-0.081358806,0.108924429,-0.064054435,0.191159476,-0.170911506,0.167127791,-0.364232928,-0.178139319,-0.288583526,0.113323526,0.138830061,-0.137148281,-0.068401897,0.273435647,0.003053833,0.110905856,0.003786861,
0.111625969,-0.155267214,-0.112819727,-0.077880057,-0.048944996,-0.322034638,-0.177963640,-0.289640599,0.244810688,-0.028886996,-0.032757780,0.298363293,0.215296938,-0.009897147,-0.024906118,0.200948962,-0.074257539,-0.130882068,0.053961609,-0.218265214,0.092880002,-0.331566716,-0.211717913,-0.355843943,-0.160283385,-0.335891467,-0.034444832,0.067817967,0.348035569,0.021613416,0.221765583,-0.185422241,0.081557490,-0.116924958,0.105373206,-0.017124340,-0.202517437,-0.302339847,0.147870645,-0.079849612,
-0.036470181,0.252344939,-0.247731729,0.088119128,-0.007812834,0.040126702,-0.182510624,-0.036863322,0.294158992,-0.303110166,0.061455982,0.230331783,-0.271194795,-0.042145786,0.089020542,-0.011322995,0.053858694,-0.184397518,-0.112179301,0.066527606,-0.088679537,-0.055179657,-0.059377658,0.008016075,-0.098767597,0.167030228,0.027901715,-0.158301709,-0.199462617,-0.116201658,-0.072451039,-0.031666551,-0.149835790,0.054946774,0.043724857,0.079044251,-0.115052611,0.122538796,-0.034682740,-0.160797844,
0.127625436,-0.120411874,-0.293656142,0.019203245,-0.008505726,0.141302893,0.002451522,-0.139002352,0.091077831,-0.045619660,0.037529684,-0.378095423,-0.017178640,0.110051822,-0.099210573,0.073158617,0.017491237,0.047918977,0.194862528,0.221293069,0.148365798,0.101443181,-0.259141166,0.165208386,0.046898076,-0.111394868,-0.117795772,-0.031366760,-0.149941833,-0.136136672,-0.170155271,0.113118035,0.138027554,0.127736226,0.045359614,0.000658414,-0.260301171,-0.157448832,-0.098137572,-0.154055074,
-0.239797368,0.232247919,-0.224179109,0.440334456,-0.072690621,-0.307352698,-0.156344983,0.175673857,0.038042395,-0.077088877,-0.177893563,0.214998669,0.146860954,-0.104984843,0.172639641,0.103797446,-0.362596779,0.000988041,0.227780776,-0.042765490,-0.012263224,0.058202266,-0.009486698,0.143791370,-0.050255928,-0.029812917,-0.158736525,0.039465073,-0.197078106,-0.091387192,0.081812464,-0.111839086,-0.184921467,0.026444569,-0.243532313,-0.083340718,0.032459013,0.115575713,-0.114288029,0.207905808,
-0.392610875,0.012865898,0.210270268,0.145833806,-0.043699695,0.032445793,0.162319739,0.026665456,-0.253374381,-0.101673728,0.301137227,-0.144017286,0.162402566,0.137514417,0.131258104,-0.089628305,-0.003735546,-0.061059602,0.098998533,0.047503086,0.042236073,0.005771860,-0.105944415,-0.090937505,0.222583162,0.023122971,0.263411745,-0.078987222,-0.070562988,-0.196308613,-0.067473255,-0.017783654,0.142993143,0.186094702,0.117323400,0.045644904,0.098659092,0.274397727,0.048355513,0.387812580,
-0.215939760,-0.419216658,0.152468706,0.021541768,0.145994898,-0.015404777,-0.208111513,0.049676461,-0.038856587,0.262913871,0.080975023,0.494979074,0.067884196,0.134766191,-0.048686297,-0.162913766,-0.301894530,0.259173794,-0.141626333,0.009837917,-0.125482280,-0.222578981,0.090821407,-0.230245130,-0.043924822,-0.214789523,-0.080130961,-0.076021402,-0.110830351,-0.090738402,-0.265907011,0.006860267,-0.049637991,-0.161155030,-0.094237429,0.294909135,0.123755610,-0.052232153,0.215305365,-0.107729235,
-0.107867592,0.010772952,0.177033822,0.177357551,0.124805323,-0.034390622,-0.107839589,-0.102251383,-0.183606181,0.245103434,0.001689963,0.069326000,-0.110616258,0.445319174,-0.132780331,0.094114378,-0.019739515,0.086491858,-0.020112410,0.063892490,-0.065485544,0.023885850,-0.094605031,0.112877962,-0.021467629,-0.201113062,0.177944742,0.041120968,0.127984608,-0.061007329,0.348926992,0.007384147,-0.136040777,-0.097155298,-0.001375702,-0.066689652,-0.072130454,-0.090959895,0.350351772,-0.009520456,
-0.123452604,0.122666064,-0.125602550,-0.188638645,0.165782380,-0.052916120,-0.243738759,0.047012570,-0.187240201,0.228884173,-0.008368821,-0.033184758,0.087528957,0.261867638,0.329732549,-0.227632079,-0.048093798,0.084646058,0.200618769,0.231012227,-0.052677746,-0.097056920,-0.000893618,0.082351131,-0.097804756,-0.402496085,-0.110764923,0.261775593,-0.056383411,0.179020315,-0.258577508,0.005214022,0.327486227,-0.124154902,-0.000104142,0.006717943,0.019022445,0.121135232,0.157472294,-0.112746926,
-0.021729216,-0.028079499,0.345527652,0.103804758,0.028751940,0.089149734,0.163914319,-0.093269710,-0.000566060,0.035440415,0.253732516,0.239956828,-0.089362801,-0.043638195,0.016142836,-0.196509463,-0.015918938,0.112082524,-0.098385495,0.085439314,-0.167179921,-0.219771929,-0.068298245,0.194333749,0.317916658,-0.234713907,0.146939695,0.099715454,0.152605198,-0.029961720,-0.119612258,-0.157392310,0.067762855,0.029294588,0.006015080,0.007893468,0.263774333,-0.091426499,0.082884902,0.109564487,
-0.078073190,0.111008356,-0.119112892,-0.000474483,0.065938316,0.127854834,-0.063355466,-0.241890670,-0.012470069,0.101471003,0.010758869,-0.065872532,0.051642287,0.020076292,-0.174182552,0.273904833,0.198821945,0.167195685,-0.212833071,-0.158846519,0.155347980,0.132986934,0.186096569,0.176672608,-0.102811970,0.115292466,-0.344939859,-0.173006693,-0.113275445,-0.135415005,0.038584365,-0.006189868,-0.219119119,0.027167641,0.172126995,-0.072174479,-0.171015410,-0.068262276,-0.031869470,-0.070957020,
-0.027131065,-0.117571188,-0.135349515,-0.185754467,0.220604933,-0.129249118,0.034503698,0.082252786,0.188164612,-0.114731848,0.235776396,-0.013708405,-0.388084366,-0.009044545,0.122491893,0.126470786,-0.027481315,-0.048905787,-0.108892147,0.148303689,0.153567623,0.078145125,0.031077964,-0.320720782,0.286438236,0.296107766,0.126945024,0.226712838,0.273748144,-0.115902616,0.139917259,-0.246420977,-0.066167386,0.052307021,-0.054466645,0.055459636,0.007996118,0.067572570,0.205969858,-0.031040178,
-0.013572218,0.023637746,-0.145472512,-0.018375079,-0.090641958,0.344738834,0.049998813,0.004812363,0.013128334,0.001851654,0.131792802,-0.139545492,0.027823396,0.156730612,-0.051163285,0.206840268,0.366432792,-0.040195988,-0.089823332,-0.066624174,0.037172236,0.009298936,-0.267124095,-0.166799781,0.100023484,0.120975258,-0.070764728,0.137517585,-0.320490160,-0.124493251,-0.178339848,-0.323806552,-0.082435495,0.058234690,-0.273299435,-0.180305096,-0.130215331,-0.015793808,0.291235947,0.084568458,
0.083319964,-0.359010520,-0.064947541,0.438990735,0.167355093,0.307986671,0.013014604,-0.131238341,0.331573474,0.023591719,0.015831540,0.163167780,0.036434377,-0.094047576,-0.020642453,-0.187489318,0.234050098,0.150096371,0.213565131,0.032512639,-0.058823660,0.088594193,0.280812887,0.023796023,-0.011005267,-0.149944067,0.132810554,-0.064838229,-0.054492913,0.032480817,-0.427095157,-0.262545041,0.404127100,-0.115723013,-0.238550188,0.024811533,-0.184752346,-0.292910275,0.103040006,-0.035047382,
0.346271176,0.037142532,-0.095343902,-0.011554012,0.493193358,-0.241031972,-0.265477772,0.370556377,0.391061794,-0.078907627,0.234956841,0.229388644,-0.113648341,0.102880972,0.191967951,0.307996924,-0.102183335,-0.019917287,0.307084379,0.142171130,-0.026495280,-0.222086286,-0.049754487,0.045661933,0.178012429,0.406366924,0.063683949,-0.067482311,-0.156770827,0.133385683,-0.104135199,0.041151142,-0.395927197,-0.541277260,0.125983589,-0.018362686,0.077441940,-0.215458954,-0.233809147,-0.132594727,
0.072831274,-0.163490248,0.163294942,-0.075992101,-0.031436004,0.165123231,-0.072627659,-0.148295170,0.299519576,0.210001990,-0.009133665,0.067165648,-0.007915860,0.108027905,0.215776847,0.225941815,-0.059396525,0.006033625,0.101810235,0.016179450,-0.079343591,0.001967968,-0.018417664,-0.119537919,0.066510558,0.209722050,-0.021956093,-0.257587171,-0.012052157,-0.154463285,0.212206849,-0.080811556,-0.241961074,0.015831894,-0.098071596,0.150984947,0.049265899,-0.316885031,0.268563551,0.060116224,
0.246196556,0.000406199,0.220588079,-0.148594187,0.143264738,0.185521100,0.058532225,0.091779934,-0.080879680,-0.216568361,0.066872718,-0.203125428,0.201192766,0.223874523,-0.312311874,0.119694851,-0.076484623,-0.229850767,0.253852106,-0.015148541,-0.101513796,-0.193288010,0.034061710,0.058427461,-0.022934866,0.020224465,-0.000505092,0.167357847,-0.288695167,-0.025446688,0.207476895,-0.048683248,-0.155416982,0.314924116,-0.082373391,0.115454055,-0.011044406,-0.303670368,-0.433222597,-0.159260072,
-0.014193884,-0.052540770,-0.157799209,-0.145573320,-0.005218213,0.017151283,0.164055369,0.077004449,-0.017066604,-0.279311373,0.023085153,0.024207978,-0.194923708,-0.032732170,-0.200393424,-0.123306268,0.154083141,-0.245237113,0.017791065,-0.151277922,0.149335006,-0.134078800,-0.018987172,0.106074443,-0.019291222,-0.385204094,0.480164165,-0.358371908,0.098120651,0.223966767,0.305711526,0.063088568,-0.093923565,0.247045843,0.039005249,-0.147669621,-0.108929791,0.101484990,-0.167436643,-0.011690807,
0.340940317,-0.021621804,-0.024669272,-0.061338464,-0.052966751,0.289814339,0.059908399,-0.171681904,-0.246862787,0.301787771,-0.176335477,0.038083271,0.201042884,-0.082665993,-0.195487173,-0.006161293,0.008221477,0.018819545,-0.252350987,-0.324016803,-0.034095585,0.328522634,-0.083504050,-0.120629065,0.193956303,0.095400671,-0.124071315,-0.359215188,0.010784866,0.104945154,0.103142441,-0.149427331,-0.009972707,0.107693375,0.252269569,-0.113633355,-0.031202771,-0.067983782,0.024603466,-0.291800873,
-0.020593507,-0.063906570,-0.084457966,-0.194708091,0.327134016,0.133988165,0.232621454,-0.044955780,0.103561205,0.157681164,0.151202944,0.140005781,0.057336072,-0.047618196,0.091491142,-0.330277907,-0.047249666,-0.013160630,-0.406972026,-0.102353747,-0.216354087,0.042745279,-0.050384285,0.226728547,-0.106769534,-0.021190033,0.057654664,-0.058866979,-0.114305809,0.122461333,-0.137812561,0.026358549,-0.005812809,-0.158711947,0.128211694,0.072408995,-0.365402277,0.187693080,-0.233658854,0.009304143,
0.026783180,0.427302194,0.051561834,-0.149980632,-0.042035629,0.043152645,-0.137691971,0.321340308,0.104262277,-0.090098149,0.156947527,-0.484897775,-0.057110570,-0.055320942,0.186225003,-0.016239242,0.189263263,-0.181846618,-0.234374881,-0.305438461,-0.087578046,0.185359165,-0.271177128,0.070725506,-0.093301283,0.115313112,0.164644195,0.049681568,0.138375430,-0.112529008,0.042465000,-0.119291181,0.002524818,-0.234586853,-0.215757507,0.208891465,0.052073558,0.051146212,0.034711405,-0.102370782,
-0.310633033,-0.410481007,-0.031253803,-0.217920664,0.181539167,-0.265794898,0.102155422,-0.072837788,-0.131196286,-0.162353411,-0.228178402,0.015894859,0.156633964,-0.204415447,0.147759794,-0.198483838,-0.015839237,-0.214009901,0.081154878,-0.230194006,-0.234733195,0.107406263,-0.163152237,0.275471518,0.003495842,0.066269725,-0.319451912,-0.171870006,0.182957951,-0.207668688,-0.122480354,0.156209177,0.063693320,-0.051902460,0.016666839,0.044192047,-0.183794353,0.005597662,-0.137519078,0.195010484,
0.097757207,-0.121191149,-0.032263637,-0.015377478,0.121736545,-0.197747551,0.229330601,-0.251912521,-0.063968713,0.074716823,0.428223291,0.005074241,-0.160909844,0.023364396,0.055015382,0.052328224,0.295379200,0.062749647,-0.238468922,0.364888417,0.150458573,-0.056818531,-0.343141788,0.001987031,-0.098958678,-0.145891056,-0.103522181,0.048165996,-0.231252081,-0.036910720,-0.045777392,0.244903199,-0.016653673,0.012276374,0.181185110,-0.391419933,0.006563498,0.045409154,0.281269595,-0.323540716,
0.542365644,-0.311695956,-0.071110806,-0.349251143,0.220785659,-0.217626060,-0.122647669,0.026238063,0.120853675,0.035487493,0.035485152,0.111387176,-0.076286963,-0.119373267,0.001895468,-0.124904839,0.183755716,-0.057804484,0.049918742,-0.281767863,0.160185336,0.007633463,-0.493263355,0.081984100,-0.003750140,0.069428857,0.336887294,0.010976550,0.098697830,-0.201167957,-0.057427581,-0.607154503,-0.076687333,0.054881217,-0.151254786,0.315416478,0.229939295,-0.076920639,-0.053816238,0.121004163,
0.022315331,-0.066515896,0.065738537,0.052423741,0.133120061,-0.042765165,0.069238658,0.067676760,-0.010789472,0.031869848,0.130949154,0.162587992,-0.332179399,0.162941624,0.063653829,-0.180086771,-0.165383490,-0.005561240,0.116754135,0.065506135,-0.002117273,-0.248718670,0.134641209,0.069264812,-0.145127105,0.120750393,-0.219765185,0.055562292,0.231444866,-0.049875688,-0.086619851,0.239849346,0.086994064,0.052146299,0.115456773,-0.065621975,-0.055825314,-0.110285467,0.075680630,-0.069735761,
-0.308198904,0.388713918,0.056860417,0.179249656,-0.234437288,0.007440862,0.349792728,-0.124728607,0.055235972,0.106375352,-0.080680838,0.144866980,0.295242249,0.254885658,-0.186542607,0.265797873,-0.060267720,0.082305800,-0.194886155,0.163954694,-0.289498305,-0.294070582,0.159584370,0.219849677,-0.006182741,-0.134365243,0.024393921,-0.043540928,-0.159906327,-0.124157185,-0.226064876,-0.175835908,0.168952668,-0.251162965,0.419511740,0.203039941,0.004466903,0.306184249,-0.096856135,0.072534558,
-0.101444185,-0.032524364,0.190181321,-0.278077978,-0.026591035,-0.098870233,-0.193462151,-0.061094865,0.001149722,-0.199762452,-0.055835266,0.069735797,-0.022393666,0.041517994,0.088853575,0.020236919,0.003014953,-0.107282065,0.018328881,0.212076571,0.282171447,0.249323753,-0.215110846,0.100799043,-0.059716850,-0.085225198,-0.089324147,-0.088442948,-0.053062041,0.035362864,0.013649941,-0.132286345,-0.253832417,-0.039613514,-0.063615413,0.064491582,-0.025089295,0.128194310,0.112658871,0.072585056,
0.155949319,-0.007026724,0.110264019,0.008533403,0.080142962,-0.052647738,0.019963450,-0.312411155,0.085857423,-0.010909849,-0.021322846,0.028184213,0.172208032,-0.054649114,-0.036344551,0.172825140,0.329738390,-0.204057114,0.138803224,-0.021464078,0.161637529,0.145279558,-0.110245753,-0.202740456,0.190382588,-0.381820844,-0.089842266,0.075978213,0.240094912,0.039845070,-0.224504196,0.193933915,-0.075560022,0.263522873,0.061754450,0.127768420,-0.082895581,-0.245712381,0.103277678,0.065536342,
-0.192440068,-0.025482566,0.019150916,0.039583939,-0.074889592,-0.182997430,-0.235517225,-0.119693913,-0.390115185,0.108670989,-0.171045534,-0.228446074,0.141955932,0.130716558,-0.058321740,-0.177928739,0.115943852,-0.277762459,0.114668645,-0.239376246,0.214290167,0.094508507,-0.009983314,0.064745066,0.213658060,0.027069696,-0.197801064,0.295600290,0.215246111,0.021496663,-0.239301071,-0.036465025,-0.125305496,0.001400256,-0.168002938,0.153733864,0.186086550,-0.192214957,0.060662654,-0.144592487,
0.078398451,0.103950777,-0.181720510,-0.271742361,0.027056766,-0.245351611,-0.000660656,-0.390680939,0.100774986,-0.219524983,0.305497818,0.467698004,0.125221469,0.147420089,-0.173040893,-0.158768692,0.038533753,0.094493326,0.277588259,-0.016967359,-0.381318220,-0.066980034,-0.053436785,0.410115026,0.175131390,-0.196864541,0.068150032,-0.074745801,0.049776579,0.048566786,0.134176916,0.018778292,-0.080130283,-0.212975629,0.111685095,-0.144696311,-0.130148800,0.066359340,0.056817212,-0.003478357,
-0.035342442,0.173122944,0.211668339,0.008544857,-0.019015384,-0.099423050,-0.060843771,0.118234894,-0.132485142,0.133586345,0.016585498,-0.028508575,-0.096309485,0.160234953,0.240521776,-0.287693987,-0.090062454,-0.042476891,-0.153648906,-0.187234815,0.124078237,-0.238083870,0.106705895,0.307593488,-0.101380436,-0.248796735,0.025032616,-0.120575654,-0.245643584,0.033030050,0.034408178,0.017879708,0.235617389,-0.262561764,0.268745878,-0.189326614,0.061520947,0.205404091,-0.109350420,-0.195209158,
