// Neural Network File Format by Kyle Julian, Stanford 2016
6,2,2,15,
2,15,15,15,15,15,2,
0,
-10000.0,-10000.0,
10000.0,10000.0,
0.0,0.0,0.0,
1.0,1.0,1.0,
0.331233063,-0.188914514,
-0.190913822,-0.312747612,
-0.289540008,0.027768841,
-0.178249829,-0.351171269,
0.239233873,-0.577927784,
0.308787353,-0.404931509,
0.055714630,-0.141449940,
-0.189521480,0.310706900,
-0.456668667,0.040388816,
-0.017049755,-0.297803422,
-0.286017495,0.378011481,
-0.280776289,0.005337447,
-0.118974885,-0.520194791,
-0.020181931,0.227865832,
-0.374292522,0.224460807,
0.291046502,
-0.106236689,
0.007774515,
-0.252643247,
-0.231176848,
0.335072015,
0.064319202,
0.631519573,
-0.067223463,
0.053190298,
0.196257339,
-0.347674875,
-0.218589054,
0.256937163,
0.064619953,
0.183787592,0.119847054,0.531111699,-0.088986392,-0.036876029,-0.530635967,0.264177537,0.563208739,-0.144326271,-0.051346184,0.382134723,0.080602885,0.373016051,-0.160463712,-0.326885754,
0.113009001,0.073309641,-0.642855642,0.276579570,0.010689229,-0.165666074,-0.423447043,0.058293297,0.079453448,0.330690360,0.079271634,0.037090391,0.351242870,-0.667644498,-0.790316957,
0.118791629,0.227042535,-0.562264671,0.120783992,0.389475438,0.291422257,0.022210677,0.003975352,-0.248190394,0.101054966,0.262408975,-0.155423949,-0.208963237,-0.102155325,-0.101735549,
-0.109655227,-0.082559040,-0.213745514,0.192442062,-0.174634635,-0.024454395,0.200814107,-0.229570030,0.247309068,-0.090090930,-0.178989765,0.239283935,0.222942002,-0.244449788,0.254476956,
-0.226374681,0.007985155,-0.130895420,-0.257851835,-0.167191662,0.036540713,0.494362093,-0.159765166,-0.762905208,-0.004754538,-0.727712092,0.111258076,-0.571151432,0.440399276,0.363915095,
0.097126044,0.176442920,-0.062839031,-0.120539306,-0.285635232,-0.061640838,-0.057806328,0.082908208,-0.337685757,-0.016523777,-0.329387341,0.663774993,0.233545299,-0.314525423,0.516258920,
-0.420911325,0.282120255,-0.160376596,-0.521888085,0.142276945,-0.094025476,-0.073026250,0.389325850,0.070843934,-0.007749341,-0.055065142,0.375434033,0.300819738,0.289524499,-0.038474438,
0.090124765,0.037936570,0.125314449,-0.076957180,-0.012223179,0.321634346,0.207725995,0.281423669,-0.216341041,0.232867341,0.068912169,-0.369578123,-0.572314179,0.183408742,0.038706669,
0.103826811,-0.186198079,0.402724548,0.732074230,0.159837254,0.002576144,-0.160497899,0.125208367,-0.090773338,-0.193232113,0.491425036,-0.076377871,0.342696463,-0.124271261,0.546806393,
0.210915895,0.149143131,-0.224056735,-0.286630996,0.217083021,0.083230386,-0.204577474,0.583506098,-0.129377672,-0.058070490,-0.192071346,0.447673074,0.134728314,-0.051394363,-0.113749852,
0.492374444,-0.041229106,-0.383968285,-0.844779662,0.264641696,-0.209672833,-0.537863409,0.219370618,0.026232752,-0.306498691,0.058179775,-0.363915331,-0.193346982,0.236881357,-0.133596915,
0.468295415,-0.536261795,-0.532274323,-0.751971611,-0.129770264,-0.246503772,0.577093871,-0.497434178,0.239583028,0.071739060,0.781183827,0.429061516,0.172043395,0.131718021,-0.528681479,
0.037635608,0.273059081,-0.187272207,-0.604601348,0.529069404,0.166116661,0.159920138,-0.274649940,0.058187737,0.371982388,0.149499709,0.256806128,0.370338398,0.446343770,-0.270609495,
-0.114020365,-0.115731208,-0.069797104,-0.456777964,0.155885479,-0.414339560,0.262121740,0.041600875,-0.318858124,0.496771494,0.604573839,0.500694707,-0.656907321,0.387874466,-0.191063095,
-0.062391767,0.138891727,-0.050927121,-0.565300942,-0.352178760,0.537084889,-0.067631843,0.076030673,0.027161481,-0.172559227,0.454501103,-0.174287716,-0.044257555,0.191811855,0.311500965,
-0.317929856,
-0.424891972,
-0.407324692,
-0.462056584,
-0.159080298,
-0.102122357,
-0.192780177,
-0.315949024,
0.021947531,
-0.028522678,
0.216753148,
-0.093651780,
-0.253633020,
-0.084074327,
0.039655252,
-0.139531760,-0.496271331,-0.090106544,0.197093630,-0.019874071,-0.046614104,0.167651325,-0.693848684,-0.411634382,0.054448846,-0.067513845,0.052426255,0.170876555,-0.569991793,-0.377380168,
0.057173024,0.437744284,0.237153790,0.013227619,-0.068815450,-0.153629062,0.400150553,0.272676188,0.571852471,-0.370013215,0.012968685,-0.228477316,0.263748010,-0.379216274,-0.022951958,
0.733240675,0.034992172,0.390341256,0.405680253,0.316244047,-0.177445861,-0.129885473,0.834341556,0.131819563,-0.099340579,-0.388225045,0.330632024,-0.738703400,0.158722304,0.257208805,
-0.119585220,-0.298940149,-0.071005379,-0.281625075,0.095239261,-0.213402640,-0.488313217,0.278848634,0.364432559,0.006401367,-0.330114914,-0.145248872,-0.282972758,-0.429081619,-0.363620738,
0.110599936,0.652717386,-0.076392516,-0.432029482,0.110116740,0.244430920,-0.194856932,0.209594811,-0.736133192,0.400557541,0.398228553,0.079668636,-0.285470780,-0.072394482,-0.232704108,
-0.129509156,0.006337043,0.094736195,0.421647418,-0.248623895,-0.080689392,0.352066549,0.528374903,0.234712114,-0.224949277,-0.456933587,0.302891002,-0.234832483,-0.245636487,0.426513334,
-0.098984610,0.147222421,-0.225635492,-0.845403667,0.157296810,-0.523922363,-0.015174073,-0.549017654,0.714872913,-0.556720532,0.402338299,0.118997239,-0.111584070,-0.071473768,-0.016260828,
-0.367191500,0.065407636,-0.281353004,0.928067746,0.056151262,-0.562703152,0.288089874,0.358393547,0.003622763,0.620772247,-0.176246112,0.041327309,-0.060507242,0.859237960,0.130009133,
-0.013677011,0.102523870,0.323320262,0.217205452,-0.255921495,-0.036421337,-0.113461402,-0.387587802,-0.390874615,-0.371956495,-0.227816486,0.192014771,0.569713315,0.226904635,0.371920459,
-0.003465301,0.315796027,0.201796065,0.811007845,0.802261376,-0.245982674,0.053205841,-0.246276808,0.328514488,0.307382802,-0.136313658,0.033923560,0.569798750,0.172233753,-0.768932736,
-0.233163835,0.328193032,0.277432761,-0.448957019,0.229565613,0.044274859,0.005610958,-0.525716263,-0.235861594,-0.192424756,0.100872405,0.223244418,-0.404866576,0.263976161,0.311343237,
0.011017798,-0.289769900,0.281175163,0.462132071,0.033885303,-0.172437470,0.132259394,0.056824797,0.034637319,-0.013798207,0.020983749,-0.439008164,0.125733756,-0.067187146,0.094778777,
0.629280679,0.485284279,-0.250309227,0.010293168,-0.111591632,-0.458710683,0.175600964,-0.324794849,-0.208742001,-0.060939493,-0.037165323,0.223971792,0.230587427,-0.154731128,-0.462174418,
0.123837197,0.040943058,0.151155735,-0.440109741,0.048484013,-0.802575885,0.178643495,0.034544507,0.270946246,-0.069911842,0.313437793,-0.645177962,-0.303121797,-0.026184739,0.334103496,
-0.078611430,0.025171498,0.291817194,0.621016322,0.374823344,0.165857168,0.003442010,0.422254895,-0.250905099,0.057897333,-0.266538123,-0.041578780,0.097730538,0.383158873,-0.428799770,
0.011200208,
0.125462857,
-0.763446770,
-0.281242389,
0.240510658,
-0.282660554,
-0.708692865,
0.362548097,
0.216522851,
-0.490052484,
0.036487002,
0.326396965,
-0.146112334,
0.082293423,
0.044144335,
0.224037031,-0.586419276,-0.329121202,-0.532016083,0.476199395,-0.566733772,-0.332458099,-0.387786131,-0.479673608,-0.119279344,0.081184514,-0.194031486,0.033914100,1.027789446,0.280543693,
0.624142258,0.368555782,0.043140503,0.429595800,0.076638291,-0.353604229,-0.102575270,0.178352160,0.086974244,0.752127589,-0.578915522,0.228060175,-0.325848869,0.361575499,-0.406466415,
0.169293260,0.174626980,-0.720830761,-0.765910543,0.286204513,-0.462598438,0.052386591,-0.138271640,0.264633794,0.643948772,-0.083573596,0.141874522,-0.608692409,0.350678208,0.586636801,
0.228098647,-0.195422000,0.395931894,0.069784714,0.362394273,-0.214694460,0.097538191,-0.033094092,0.151478858,-0.411210187,-0.118389056,-0.290824450,-0.033782777,0.038254371,-0.622799188,
0.228341382,-0.321775911,0.088591803,-0.378585723,-0.096035632,0.101226672,0.060909672,0.052172930,0.445505402,-0.299576450,-0.123377451,0.352145848,-0.117598543,-0.566204566,0.327989767,
0.539897867,0.143327214,0.357749547,0.064411741,0.167952143,0.096766184,0.120692293,-0.056997305,0.066598879,0.505534399,0.329927141,0.168534850,-0.366108638,-0.166634569,-0.125160575,
0.194408568,0.190754605,0.242620753,-0.056932496,0.211887641,-0.002296408,0.003903414,0.041048669,-0.325111851,-0.033877130,-0.247387185,-0.078252430,0.178705143,0.302723497,0.262467095,
-0.005340861,-0.166937489,0.003448445,-0.214781855,-0.381297263,-0.361605507,0.493858446,-0.293162241,-0.145487914,0.136790187,-0.078162758,-0.286045841,-0.324878600,0.015295264,-0.389022171,
0.521540965,-0.272160461,-0.127773769,-0.147176482,0.323424057,-0.459810057,0.247758398,0.763938301,0.169382961,0.128853212,-0.241683692,-0.135429065,0.176638730,-0.382504131,-0.081363991,
0.077772361,0.184487048,-0.093228908,-0.266290724,-0.586997439,0.806634715,0.072118322,-0.219049668,-0.020417232,0.007927980,-0.315772776,-0.268949556,-0.244752345,0.143582214,0.358558735,
-0.321762660,-0.421566787,0.370173939,0.033763023,-0.199125713,0.150067823,-0.434703955,0.449170758,-0.241682914,-0.028184640,0.192575994,-0.100713771,-0.074551000,0.059848281,-0.014441045,
-0.287512860,-0.187115522,1.017481206,-0.064749769,-0.231716122,-0.361407818,-0.205972623,-0.297634347,0.316066605,-0.375365905,-0.087471518,-0.576554271,-0.028806560,-0.120047133,0.152062962,
-0.051924169,0.338979819,-0.117039905,-0.180127334,-0.171048621,0.226589476,0.090747410,-0.118172150,0.034278191,0.091298282,-0.105315276,-0.290019628,-0.342974009,0.127402968,0.149373472,
0.089412496,-0.692736748,0.334889608,-0.100518347,-0.438638406,0.211401763,0.437277190,0.008157391,0.476057758,-0.176311937,-0.441708641,-0.052165191,0.011749683,0.311983905,-0.019702227,
0.369520902,0.325455124,-0.353980151,0.070747737,-0.400077223,0.036213457,-0.024246535,-0.443929330,-0.179032162,-0.005431366,0.011629459,0.294104214,-0.027901599,0.304144598,-0.040511378,
-0.607510851,
-0.410843022,
0.052700344,
0.544943752,
0.379196236,
-0.136497507,
0.031066822,
-0.234031620,
-0.121248922,
0.073755274,
-0.326212295,
-0.027203562,
-0.145626525,
-0.054685225,
-0.351284166,
-0.070853759,-0.232784697,-0.000614921,-0.488459394,0.141174639,0.498929226,-0.184596766,-0.385357432,-0.087706329,0.033355495,-0.339439271,-0.378229684,-0.565689549,-0.463998778,0.612179810,
0.473917476,-0.510686712,0.303657217,0.382953934,0.102873096,-0.128789696,-0.028897043,0.306570500,-0.156173687,-0.192992508,0.051848152,-0.396164732,0.370991116,-0.437362765,-0.271074682,
-0.159799897,0.413074721,-0.127491878,0.118638341,-0.190962634,0.304782755,0.125781142,-0.192675843,-0.030456327,0.102593299,0.136968231,-0.170996006,0.022560071,-0.125620452,-0.083185494,
0.232309237,-0.038911755,-0.382900942,-0.203794140,0.053361848,0.072014191,0.406991503,-0.217651421,0.278640398,-0.018961987,-0.702688173,-0.190699078,-0.306946359,-0.136743896,-0.373655319,
-0.065442788,-0.501504369,0.631674153,-0.263277116,0.280128509,0.148805551,0.056106810,0.075997771,0.276931686,-0.396314969,0.251189512,0.469867280,0.504974506,-0.454944139,0.527478685,
0.526882778,-0.126396152,0.328792237,0.159382180,0.629127192,0.159112362,-0.100332204,0.241596223,0.195133548,-0.365602879,-0.329725514,-0.436707570,-0.075712747,-0.204027806,-0.266418832,
-0.251745046,0.478614666,-0.120269407,-0.696716278,0.235816256,-0.164589243,0.509632064,-0.205130797,0.076198042,-0.073697318,-0.408539513,-0.077848332,-0.034105960,-0.007041673,-0.025390088,
0.130245620,0.472421360,0.134322125,-1.040542970,0.341831875,0.162141818,-0.173052219,-0.390299617,0.029569587,0.100827898,-0.100702423,0.060873776,-0.194158387,-0.224828278,-0.009449772,
0.495586874,-0.223906072,-0.320481729,0.243561307,0.285225390,0.049008525,-0.509591624,0.605304806,-0.341469304,0.386401737,-0.110916701,-0.430071610,-0.213012154,-0.127264669,0.095357229,
0.069925715,-0.226541546,-0.321312819,0.259303921,0.278363412,0.715116497,-0.005460168,0.554295959,-0.047094050,0.152941048,-0.135481799,0.015170573,0.185216745,-0.260775725,0.132436619,
-0.441015084,0.655129723,-0.315097351,-0.408660757,0.568374598,-0.257340635,0.308425345,-0.165194697,-0.206249395,0.232808144,0.238565917,0.075136698,0.147607131,0.097723091,0.053114186,
0.370790448,0.241356704,-0.239982893,0.778458203,-0.074501308,0.050809078,0.498191683,0.127155073,0.033594532,-0.084653758,0.154038617,-0.116529902,0.004485819,-0.184651488,-0.604677370,
0.041318768,-0.706739574,-0.490690463,-0.021545932,0.295705971,-0.269158116,0.117413619,0.185822036,0.395282412,-0.227324929,-0.344065291,0.377293646,0.218220903,0.165267530,-0.026366949,
-0.145084932,0.040356536,-0.470206640,-0.210841861,-0.411726767,0.101275430,-0.022275861,0.186336204,-0.270302532,0.581105867,0.215531274,-0.047945548,-0.144235094,0.009185341,0.067647732,
0.295889259,0.162218529,0.438508003,-0.037784092,0.164912945,0.242895848,-0.006040422,0.002081826,-0.212140230,-0.076564155,0.384617733,0.192630228,0.008672323,0.098412768,-0.349793743,
0.077363587,
0.088064420,
-0.071763243,
0.148926037,
-0.426580977,
-0.099081372,
0.196686129,
0.094761336,
0.495470317,
0.310589585,
-0.302826066,
-0.111051913,
-0.212529995,
0.485693413,
0.466634138,
0.266746779,0.127629486,-0.428027568,-0.013669542,0.689908236,0.412281092,0.142291606,-0.156867874,0.086594505,0.613588976,0.085926795,-0.187093018,0.237590143,0.126302950,0.246214505,
-0.387388801,-0.245027581,-0.057510817,-0.334390352,0.206019593,0.192964056,0.622175520,-0.332275984,0.232546318,0.389362968,-0.044862404,-0.017162761,0.384578494,-0.079046053,0.198661500,
-0.421674453,
-0.106017533,
