// Neural Network File Format by Kyle Julian, Stanford 2016
56,2,2,35,
2,35,35,35,35,35,35,35,35,35,35,35,35,35,35,35,35,35,35,35,35,35,35,35,35,35,35,35,35,35,35,35,35,35,35,35,35,35,35,35,35,35,35,35,35,35,35,35,35,35,35,35,35,35,35,35,2,
0,
-10000.0,-10000.0,
10000.0,10000.0,
0.0,0.0,0.0,
1.0,1.0,1.0,
0.041376450,-0.239413258,
0.097362736,0.124893851,
-0.168346416,0.044779879,
0.327524543,-0.117190407,
0.123981706,-0.145845607,
0.138951095,0.250214313,
-0.162149747,0.109110957,
-0.022222836,-0.012630545,
0.133144853,0.364649905,
-0.033565664,-0.060767690,
0.193336042,0.051898922,
0.006335174,0.179375993,
-0.204417035,-0.035865365,
-0.268009167,0.156580673,
0.091260733,0.053154595,
0.166332220,-0.182505826,
0.030210338,0.017035900,
-0.481524684,-0.003551503,
-0.214430868,0.201323952,
0.051642004,-0.039660801,
0.091860371,-0.128577159,
0.329655626,-0.015240329,
-0.068126439,-0.054974122,
-0.066826861,0.020546046,
0.085445236,0.175467758,
0.155363744,-0.056589619,
-0.148801656,-0.400782200,
0.207835932,-0.374616905,
0.271185366,-0.364407433,
0.130114145,-0.072251587,
-0.118898792,0.201460777,
0.052786443,0.445524898,
-0.043017383,0.337985266,
0.008930808,-0.106656075,
-0.246932174,0.414024979,
-0.084471422,
-0.023682236,
0.324520020,
-0.077632437,
0.123711319,
-0.267537702,
0.300745475,
0.185537226,
-0.098939565,
0.119667386,
-0.022176203,
-0.232169598,
-0.297192401,
-0.008075869,
0.117295093,
-0.276911509,
-0.072265780,
-0.208077348,
0.289965459,
0.338460589,
-0.064998863,
-0.186831941,
0.214473294,
-0.013023157,
-0.417830530,
0.135329953,
0.072870142,
0.262857962,
0.077989833,
0.435339374,
-0.125150539,
0.250355590,
0.071457326,
0.351721044,
-0.243078060,
0.064757317,-0.208556606,-0.437017419,-0.095907933,0.216871044,-0.021551532,0.013595395,-0.049023801,-0.408395615,0.166097044,-0.024395584,0.124609043,0.155522657,-0.028104435,0.320053951,0.095437008,-0.069235879,0.240420729,0.137953644,0.026545095,0.135573807,0.517568579,-0.076368611,-0.079342716,0.183256325,0.173798012,-0.271052184,0.158447458,0.218928985,0.009225554,0.110385098,0.072766337,0.295636440,0.092627027,-0.160575233,
0.021737458,0.098273059,0.200541229,0.135125230,-0.056683416,-0.058573351,0.299901399,-0.044299386,0.055954994,-0.072994253,0.070035670,-0.077748849,0.227106841,0.157570528,-0.290028788,0.217426974,-0.029730209,0.075233764,-0.060042737,-0.172988527,-0.000004248,-0.114644125,0.047326466,-0.366516797,-0.159255236,-0.074914226,-0.048054586,0.306002167,-0.133395925,0.074072794,0.221247907,-0.049424877,0.127461661,0.325321433,-0.191307892,
-0.026005964,0.175964873,-0.162316513,-0.124604868,0.201761117,0.122810182,0.087228446,-0.274379666,0.077861986,0.017289222,-0.245532241,0.101527796,0.016401052,-0.117030191,-0.282867518,-0.120843659,-0.019174555,-0.350529065,0.068262999,0.238891932,0.225878497,0.203716563,-0.097876408,-0.051832391,0.095384841,-0.123136776,0.153574305,-0.067537223,-0.025181087,0.304618116,-0.100075438,0.437773792,-0.201313443,0.021507315,0.067561164,
0.091767453,0.149531281,0.243444094,0.140428558,0.156382585,-0.152009105,0.100175701,0.257662318,-0.010605494,0.261887263,-0.088009663,0.207595372,0.125732639,0.204857235,0.173879681,-0.107843750,0.031654590,-0.035910037,-0.022304242,0.125704637,-0.212782908,-0.070985514,-0.087924151,0.060122443,0.265678890,0.237447305,-0.172592912,-0.058998838,-0.046765558,0.262337930,0.140830173,0.136570538,0.203318330,-0.014921928,0.053867752,
-0.046925611,-0.311265818,-0.036016145,0.128933803,0.193598227,-0.002312579,0.154371873,0.104173864,0.026892181,-0.200048425,-0.172360384,0.022674168,-0.115750884,0.032500902,-0.108455675,0.294933873,0.182552950,0.089162215,0.117046606,0.192573146,0.066683347,0.005222420,0.214920929,0.126055044,-0.135578343,-0.260423940,0.252576352,0.068752868,0.149401895,-0.140870568,0.021694709,0.001564145,-0.322113117,0.120854433,-0.051810882,
-0.253426486,0.124006860,-0.040401879,-0.289225360,0.173176289,-0.050183627,0.369586614,-0.047375567,0.140740680,0.044351610,0.100677178,-0.218865214,-0.209136802,-0.142248911,-0.065913972,0.166444887,-0.380148483,0.153360826,-0.283445717,-0.031136595,-0.194277490,-0.005353874,-0.030962404,0.140185234,-0.104152706,-0.131192357,-0.268165408,0.150191354,0.016880319,0.391481299,0.211392010,-0.104271283,-0.083616942,0.149461369,-0.016094421,
-0.178120549,-0.296779404,-0.001577725,-0.145140711,-0.394795149,0.199277655,0.051422684,0.048531459,0.142717091,0.280545378,0.159034633,-0.308829820,-0.167682786,0.021115274,0.285428601,0.080968614,-0.002024126,-0.007131226,0.003708324,0.029660285,0.059596363,0.049512172,0.263517054,0.000915133,-0.038576018,0.113394357,-0.081208794,-0.211911498,0.031945235,-0.187762028,-0.072883327,-0.023513889,-0.276354167,-0.058586375,0.149372963,
0.130398702,-0.053333968,-0.071287585,0.219597855,0.044936412,-0.089997530,-0.036393958,0.058227600,-0.099254667,-0.112073879,-0.207941972,-0.113430372,0.013215554,-0.228264369,-0.099172726,0.093517033,-0.029556151,0.001499976,0.081045164,0.141466288,-0.180133288,0.164860707,-0.393414075,-0.107755438,0.088499055,-0.135301848,-0.056760038,-0.201330189,0.132399950,-0.127731498,-0.178160437,0.026602852,0.099923588,-0.407042289,0.142167148,
0.083785244,0.037516857,-0.158670751,0.062398698,0.121523035,0.072329492,-0.361067631,-0.083650649,0.254600545,-0.080253718,-0.179613073,0.073330303,-0.065668610,0.126344769,0.016394803,0.044692253,-0.174495292,-0.377170885,-0.203393297,0.167668358,-0.008003211,0.140862836,0.292287382,-0.135076928,0.340832116,0.034638323,0.448108508,0.062226919,-0.195580898,0.252618291,0.257960767,-0.190226095,0.072045745,0.143489018,0.157958771,
0.026938322,0.006119517,0.232333402,0.052158975,-0.050075038,0.044655486,0.138581635,-0.008841625,0.037871733,0.084309674,0.037088650,0.130758282,0.133449731,0.322611975,0.149760310,0.513479241,0.155944232,-0.141867135,0.010455730,0.252164373,0.200434758,0.240265856,-0.124370972,-0.062650690,0.078090131,-0.043136114,-0.116387111,0.100726804,-0.151029617,0.145608039,-0.159106878,-0.181291476,-0.075005105,0.041893149,0.115601176,
-0.147797862,0.189049273,0.045520502,0.132062249,-0.046938947,0.010432455,0.024685423,0.024070931,-0.213983017,-0.066965066,0.099705588,-0.252850931,0.162662057,0.045899394,0.105971870,0.202850840,0.234231678,0.070393265,-0.061630168,0.011303973,0.083851741,0.181289295,-0.191886024,0.055448580,-0.174144059,0.171861569,-0.046571126,-0.260871099,-0.036488049,-0.108677191,0.048296452,-0.089311149,0.089116605,0.200079087,-0.064474308,
-0.152357006,0.096547912,-0.041718618,-0.118946291,0.263537741,-0.073133198,-0.067126473,0.173430985,0.179323973,0.208650345,-0.009084811,0.186669014,0.082512051,0.069962909,-0.071810383,0.004545451,-0.031980828,0.151206253,-0.228538056,0.082586713,0.078278868,0.064201855,0.043725085,-0.041505685,0.214433614,0.033410388,0.079057028,0.147988470,-0.242469535,-0.329780398,-0.182079600,-0.144335328,-0.046600522,0.013958133,-0.209252564,
0.056177385,0.211425901,-0.004169923,-0.165249979,0.203322910,-0.075587992,-0.148306190,-0.019444572,0.360312973,-0.022808595,0.092751115,0.085849562,0.158977421,-0.166930857,0.414420507,-0.241641096,0.261449110,-0.266673479,0.148885976,-0.109023930,-0.086529328,0.413882917,-0.043398821,0.131580432,0.200966979,0.047725626,-0.094387113,-0.200753208,0.132148958,0.092987290,0.046000046,0.015672994,-0.247493624,-0.086977694,0.186678896,
-0.112663377,0.174020104,-0.178344837,-0.020724505,0.239734434,0.104529893,-0.126285057,0.158702972,0.174673676,-0.092013667,0.186037779,0.206033244,0.041102580,0.186160701,0.173993579,-0.125085214,0.165289801,0.067445642,0.102953652,0.132444304,-0.008347255,0.024041198,-0.326218270,0.076142578,-0.018183045,-0.088971714,-0.118174142,0.054480661,0.175706595,-0.120477135,0.162962143,-0.040417652,0.076245290,-0.050302540,0.064029412,
0.179068543,-0.047303182,0.548302785,-0.129881740,0.177192046,0.043203842,0.367591451,0.063562435,0.272466927,-0.018055644,0.085219879,-0.073077362,0.035162974,0.082810630,-0.044016732,-0.201589913,-0.119615453,0.127170488,0.233836021,0.070545383,-0.019481543,-0.118163507,0.088246051,-0.208659192,0.077767377,0.216478555,-0.319778789,-0.030932097,-0.126588501,-0.217151195,0.081160751,0.125260603,-0.179456939,0.072807056,-0.083686381,
0.087190053,-0.044383682,0.111658525,0.205795476,-0.005830416,0.132302318,0.309087640,-0.116359195,0.328572085,-0.154732112,-0.106804702,-0.092701359,-0.204616539,-0.107238917,-0.243637964,0.030434888,-0.065003807,0.109688717,0.200101514,-0.382812575,-0.172717207,-0.258824652,-0.132247260,-0.389803587,0.199140608,0.117980431,0.157141603,-0.049911728,0.073268742,0.346469693,-0.082271478,0.115103161,-0.229410517,0.005087502,-0.289776202,
0.132910255,0.125418328,-0.156492076,-0.062173017,-0.005556198,0.250710335,0.202960854,-0.167620422,-0.093917996,-0.070999422,0.141597854,0.115088146,0.076789784,-0.046875272,-0.024846232,-0.052920775,-0.094618098,0.129376261,-0.073141642,-0.436524693,-0.459748651,-0.164788897,-0.078516140,0.264860984,0.046860668,0.025706938,0.028090209,0.105468595,-0.207391162,-0.075318249,-0.225088804,-0.237097623,-0.211463366,-0.006390934,-0.000428074,
-0.329288765,0.163140698,-0.118062471,0.086862670,0.017768896,-0.072843027,0.203949356,0.171988547,-0.049672667,0.224273377,0.029736987,-0.170111498,0.332697821,-0.372365487,-0.004583671,0.392840236,-0.285013643,-0.218400884,-0.240647355,-0.311016503,-0.072493984,0.037225567,-0.068496073,-0.089006456,0.066961709,-0.413174119,0.255171594,0.231147317,0.052480419,0.111639541,0.200614943,-0.011819963,0.048799121,-0.211252932,-0.058927782,
0.040750772,0.060149269,-0.252204660,0.079228446,0.157087084,-0.082561601,0.001829025,-0.044652899,0.141637835,0.351901489,-0.482089566,0.267641852,-0.095837281,0.078201797,0.047983171,0.018231232,-0.225477855,0.147211255,0.154597616,-0.013936126,-0.065061678,-0.202740077,0.134257158,-0.125372346,-0.228151272,-0.011089823,0.059377021,0.077583092,-0.222273781,-0.082293455,0.072026499,-0.083655991,0.029780954,0.081228171,0.116362505,
-0.312835681,-0.570147118,-0.263561434,-0.038182768,0.053372623,-0.248103726,0.015371202,-0.186600394,0.005118828,-0.092320037,-0.029514460,0.011251834,0.054850037,0.144926864,-0.058719882,0.028714125,0.087543259,-0.305822853,-0.085397086,-0.259533134,0.105795308,0.240168731,-0.193582230,-0.018354855,0.119523242,-0.132896626,0.297318201,0.130627393,0.173145903,0.217433504,-0.145461028,-0.251219981,-0.177784921,0.168366159,-0.267700563,
0.145547349,0.023654647,-0.116666122,0.100345190,0.067638938,0.081172710,0.108347247,-0.172589443,0.124838192,-0.051176374,0.357940048,-0.210209218,0.045917377,-0.327346387,0.166108322,0.173965852,0.194793742,0.123569472,0.066045800,-0.012040572,0.110251917,-0.000457477,-0.015303398,-0.061803616,0.280304940,0.050031028,0.292449846,0.095481425,-0.218328034,-0.106272888,0.100201390,0.083527200,-0.201716809,0.104359375,0.055860214,
0.074380680,-0.263349932,0.039633961,-0.075279770,0.057584975,0.130236204,-0.020447194,0.157139397,0.054157871,-0.006827763,-0.129721116,-0.088717566,-0.069017202,0.027150505,0.097727866,0.023547225,-0.135636333,0.199504264,-0.199998119,-0.086876649,0.157310333,-0.303535918,0.209398777,0.009309263,-0.076107640,0.103158950,-0.080869968,0.190753982,0.003730869,0.117722232,0.079108687,0.098518980,-0.108318741,0.088553613,-0.107276626,
0.103762587,-0.106744861,-0.142646551,-0.151715648,-0.290158995,-0.081511069,0.273989267,-0.126712270,-0.285108785,-0.157720873,-0.008628195,-0.008962841,-0.071154397,0.009751398,-0.024318432,-0.089276335,0.110987013,-0.170605322,-0.313934288,0.072706558,0.417398538,0.129059281,-0.064688045,0.032379644,-0.173861143,-0.005744459,0.242393484,0.507757306,-0.068872632,0.309471488,-0.069479016,-0.174969314,0.250263358,-0.116444093,-0.056896102,
-0.033497524,0.417118359,0.119528419,-0.066398687,-0.222356028,-0.092122730,0.106376229,0.057993988,0.093245776,-0.158374239,0.352563860,-0.015456056,0.153001411,0.106712923,-0.249009818,-0.080077421,-0.069170966,-0.215840733,0.143833760,-0.475630796,0.155204178,0.233829434,0.035271196,-0.144451513,0.177790410,-0.131332865,-0.041773486,-0.151751545,0.185588322,0.327287583,-0.179500573,0.026411340,0.201078145,-0.115422957,-0.234358164,
0.127165853,-0.262660336,0.082867185,0.075272213,-0.119265080,0.160962718,0.042464922,-0.074617496,-0.221681031,-0.057134908,0.054953539,-0.370781637,-0.233203603,0.097428688,-0.334300015,0.127910188,0.081433624,0.070294638,0.215569230,-0.016081922,0.274724109,0.163330809,0.138212040,0.205965231,-0.157908263,0.120516146,0.043110354,0.026190962,0.057473671,0.094365953,-0.007417758,-0.041450306,0.263929621,0.437619870,0.108871636,
-0.011460340,0.058205388,-0.345338651,0.183401589,0.054603381,0.137776645,-0.247547850,0.290080033,-0.223383911,0.046566950,0.071346713,0.163042659,-0.239634516,0.229207621,0.087080410,-0.247303085,-0.054268992,0.267991673,-0.155165219,0.219404749,0.083804144,0.212999617,-0.460987529,-0.097140210,-0.018478399,0.041539627,-0.036634075,0.081423453,0.154186610,0.013223206,0.259970747,-0.043726991,-0.267085095,0.292711256,-0.268480602,
-0.047387141,-0.154309893,0.021624991,0.180627468,-0.305764358,0.188438111,0.235175184,0.045732080,0.492804657,0.179215386,-0.152823949,0.440193542,-0.087814788,-0.071193724,-0.266688689,-0.085192335,0.037810917,-0.132251158,0.289917836,0.146045029,-0.214846908,0.003775413,0.349000653,0.122016035,0.187016258,0.106803100,-0.154938462,0.048545715,-0.207499068,-0.152789496,-0.068528733,0.016483756,-0.160728577,-0.012630035,0.320077577,
0.134045308,0.018404877,0.023676858,0.305457369,-0.041945134,-0.271953140,0.034300186,0.023726070,-0.128465747,-0.050011509,-0.054261805,0.188236503,-0.067918871,0.080264717,0.197965437,0.239692557,-0.021166085,0.039373392,0.154842970,-0.010207420,0.002393638,-0.189685657,0.101445771,0.257628373,-0.353890062,0.184333626,-0.073552081,-0.155913637,-0.089650021,-0.172066911,0.065880428,-0.117635266,0.070257395,0.269634007,-0.182402133,
0.154929814,0.115649624,0.009162416,0.067773867,0.122672677,-0.002658042,0.317911259,0.036046523,0.198201400,-0.140134997,-0.142702761,-0.078349025,0.169437901,-0.042516957,0.029785757,-0.191080767,0.160905412,-0.169592575,0.119617684,-0.032383957,-0.006964708,-0.163663820,0.040089544,-0.058246314,0.005038333,-0.224997596,0.132089961,-0.196435289,-0.004423643,-0.063415019,0.068733226,0.010993612,0.072393299,-0.175332234,0.058534585,
0.168426810,-0.113442051,-0.006682527,-0.301102296,-0.051538629,0.117168310,0.064688271,-0.153287416,-0.030737030,0.202389120,-0.124881792,0.056803564,0.082333017,-0.179449942,-0.617076644,-0.130778647,0.262775107,-0.046342197,-0.219509210,-0.136342349,0.064984679,-0.200886183,-0.157061136,-0.213351422,0.126783418,0.027312674,-0.065383053,0.299153045,-0.014537576,-0.172500234,-0.154833117,-0.088229998,0.007547723,0.209612381,-0.208404188,
-0.055061202,0.163423876,0.117614016,-0.126917906,0.215875729,-0.009027446,-0.084115225,-0.100266045,0.207647585,-0.123656995,0.137569220,0.072946154,0.054095435,0.164493609,-0.001185627,0.145068799,0.081902886,-0.070867121,-0.039800370,0.092721157,0.282453475,-0.110286900,0.000634190,-0.066670911,0.054693679,0.249025697,0.110183779,-0.071403920,-0.380018772,-0.328141932,-0.044310518,0.013216362,-0.186463296,-0.109742616,0.002660972,
-0.115790324,0.052137126,-0.082756587,-0.208379920,-0.150461996,0.029582052,0.108211061,0.101409009,-0.030700229,-0.013001792,-0.225421247,-0.057705585,0.111280597,0.050950466,0.180496531,0.090321219,-0.262915526,-0.158305298,0.048110946,-0.061941549,0.201527063,-0.150740288,-0.139430172,0.084700144,-0.146330104,0.206193706,0.151558147,0.221019731,-0.032954909,-0.291336407,0.093947147,-0.336148322,-0.078991969,-0.250589489,-0.238003096,
0.083862882,-0.126701716,-0.050687350,-0.127768710,0.072539989,-0.098963114,-0.157210852,0.108147436,-0.165386493,-0.011542511,-0.045868990,0.025926455,-0.049806512,0.462258797,-0.238327646,0.249613683,0.015963972,-0.026132776,-0.171854915,-0.114863580,0.046037161,0.070814616,0.049539518,0.103595549,0.185947774,-0.200694745,-0.058404591,-0.174940339,0.257568042,-0.091638681,0.061029143,0.065894853,0.096874103,0.238934708,-0.037937790,
0.045621392,0.022552955,0.003536279,0.078437396,0.214663309,-0.143133007,0.067047862,0.228183639,0.373067464,-0.194784564,0.121539276,0.158134167,-0.022045200,0.009324356,0.188435457,-0.258610449,0.013572859,0.116790996,0.049720272,0.055312476,-0.171398029,0.032837270,0.282544869,0.212831804,-0.152821918,-0.386680983,0.141395877,0.181675846,-0.097925006,-0.034476352,-0.277108234,0.075816761,-0.012309009,0.362105676,0.037372986,
-0.241657820,-0.113665494,0.092772178,0.055187115,-0.182781788,-0.144369322,0.048032024,0.020777914,0.093986864,-0.191184109,-0.321678198,-0.076498356,0.203682306,-0.093470670,0.028766792,0.039738771,-0.141623500,-0.287773742,-0.072950707,-0.002726992,-0.001573099,-0.015097673,-0.007572253,0.122281771,0.132235321,0.121003505,-0.171614852,0.302145975,-0.012285381,-0.033556363,-0.042537979,-0.057556313,0.342397822,-0.253803902,0.072170043,
-0.084061706,
-0.133925472,
-0.023154913,
-0.017170666,
0.143909788,
-0.026890337,
-0.451893327,
-0.141233907,
-0.163001134,
0.048056489,
0.048665336,
-0.084742777,
-0.102822197,
0.202625487,
0.061226078,
0.075440591,
-0.139336588,
-0.192258269,
-0.277496397,
0.036454723,
-0.089506001,
-0.033625433,
0.013291749,
-0.067886500,
0.186831763,
-0.066326823,
-0.107627323,
0.136953241,
-0.116749427,
0.199799721,
-0.042558141,
-0.413390993,
0.179410426,
-0.206581652,
0.456765456,
-0.030961128,0.038098732,0.269252306,0.066836276,-0.025732033,0.384906078,0.018660833,-0.114713097,-0.012641376,-0.250708748,-0.078979952,-0.057922878,-0.038641009,0.001723095,-0.426331583,0.032060483,-0.417700245,-0.093186117,0.127827441,0.051759239,-0.004240442,0.148998728,-0.032676051,0.204634197,0.009575153,-0.163743284,-0.500426158,0.268741173,-0.177363187,0.139259759,-0.151628371,-0.017955762,-0.058433480,-0.608270012,-0.191653462,
-0.103811197,-0.215386054,-0.056668347,-0.215042216,-0.011868882,0.173824448,0.030511611,-0.275242757,-0.028594907,0.061470247,0.224070851,-0.144985547,-0.024100703,-0.070792237,-0.065911754,0.112628417,-0.137375324,0.048242349,-0.102495604,-0.029834734,-0.112171151,0.073954731,0.243597135,-0.164074746,0.157632449,-0.032514675,-0.041448416,0.103002368,0.128543132,-0.142338923,0.104783073,-0.238210290,0.077937878,0.308952069,-0.053760290,
-0.235634760,0.115123027,-0.178629393,0.090870260,0.133697801,0.166815307,0.043740653,-0.349038034,-0.071507931,0.058842540,0.250199472,0.148003095,-0.142712375,-0.132971859,-0.112194550,-0.079285586,0.305897567,0.160909543,0.089400818,0.078254513,-0.254396699,-0.147070797,-0.188118773,0.389637825,0.068008027,-0.155520411,0.164856400,-0.015311154,-0.058812361,0.201176327,-0.101986763,0.006008442,0.024975786,-0.341477033,-0.190748710,
-0.206371225,-0.020834422,-0.058858509,-0.007991912,0.010534102,0.103724796,-0.087896662,-0.132126755,0.260086691,-0.107200339,0.048112444,-0.164650044,0.309272718,0.080950302,-0.119583686,-0.263047867,0.031872195,0.019248348,0.391888642,0.037613975,-0.007360710,0.072512466,-0.176014879,-0.024520108,0.165381270,0.027390283,-0.057507679,-0.310904992,-0.205064632,0.083024156,-0.020083569,0.050527439,-0.082958182,0.150661565,0.059523634,
-0.187358450,-0.363784439,0.037382008,-0.176529301,-0.066983490,-0.099750204,0.547934103,-0.424987856,-0.328879098,-0.194679855,-0.059610439,-0.311929170,-0.088223645,-0.102848836,0.097185422,-0.027232518,0.000221318,-0.206997337,-0.008263669,-0.106958281,-0.055994899,-0.067793033,0.019327821,-0.128634649,0.046002274,-0.085704598,0.173759158,0.156038378,0.218331882,-0.034549914,0.021491461,-0.112244149,0.002966736,0.036926195,-0.032606017,
0.181810788,0.510410145,0.454011893,-0.001974499,-0.132550552,0.132157735,-0.027128318,0.310753371,-0.202005026,-0.063698177,0.218775639,0.054197199,0.015975118,-0.409347609,-0.050026597,0.202752814,-0.047156869,0.052300227,-0.238934906,-0.102022605,0.070903803,-0.276043104,0.060472378,-0.111899965,0.061691191,-0.116304701,0.260002406,-0.026875790,-0.122071473,-0.088978214,-0.148877008,0.022266111,0.160474806,0.252591686,-0.205248250,
-0.093696555,-0.061603464,0.106769394,0.125572623,-0.047799976,0.042380449,-0.100204496,0.352812963,-0.121932842,0.029161784,0.216971947,0.265536182,-0.136417635,0.007318572,0.205820338,0.131118438,0.269747076,-0.039001413,-0.064000391,0.128905072,-0.302568163,-0.412792368,0.076729914,0.233946374,-0.063316473,-0.049942182,0.075653370,-0.072445714,0.110836986,0.262747006,-0.389677813,0.025833403,-0.298473996,-0.294537634,0.118866564,
0.140601651,0.254207052,0.095499215,-0.102133726,0.006455356,0.099324910,-0.018726912,-0.094572881,0.216239588,0.074571582,-0.000907807,0.362491399,-0.346339352,-0.174438449,0.074762391,-0.015614208,0.610232353,-0.086596703,-0.073383108,0.122824741,0.394048869,0.110498280,-0.212416530,0.114952188,0.338960572,-0.126856339,-0.002419280,-0.007213568,-0.234841778,-0.019643189,-0.154898476,-0.018026750,0.068821598,0.287052128,-0.018251295,
0.067024156,0.013057274,-0.125028210,0.001257105,0.291634763,0.187643421,-0.273961442,-0.079430106,-0.050317942,-0.197527885,0.076699090,0.491719433,0.246756821,-0.041350255,0.000815207,-0.443225297,0.068498643,-0.178975215,-0.118577736,-0.218866571,-0.151170578,-0.154256501,-0.294925812,-0.114396513,-0.256804638,-0.139235782,-0.141920078,-0.139634101,-0.325706760,0.132918816,0.261807089,-0.182568275,0.199555864,-0.103404259,-0.220905942,
0.142623742,0.031836353,0.340960769,-0.085772140,0.163369980,-0.075071031,-0.314898207,0.146613268,0.187132937,0.018384687,-0.064584498,-0.424743709,0.237047382,-0.050871763,0.451357065,0.159888973,0.370392668,-0.230134092,-0.185718583,0.164309211,-0.067513645,-0.014051185,-0.285882980,-0.218670320,-0.101712164,0.225325277,-0.119522366,0.171225936,0.197712554,0.025218012,-0.222268125,-0.145740515,-0.357727569,0.249310235,-0.047334302,
-0.048285786,-0.156949446,-0.069666233,-0.356226768,-0.318421304,0.259951509,-0.242350602,-0.120879872,0.095518005,-0.067432230,-0.489173209,-0.150352140,0.059417951,0.302787103,-0.192299278,0.241629315,-0.185772812,0.006482665,-0.037920371,-0.122573975,-0.054896114,0.202728125,0.042488632,-0.019217308,-0.129012580,-0.099805122,-0.000540798,0.032197308,-0.076248200,-0.171675124,0.037045416,0.006231131,0.117093062,-0.055990545,0.036833273,
0.442267170,-0.280214517,-0.009820967,-0.216609909,-0.141761540,0.085713131,-0.246649159,0.018379263,0.208390039,0.066030672,0.037929324,-0.101133617,-0.077885695,-0.240870366,-0.436705020,-0.196717808,-0.148030323,0.068711312,0.316361259,-0.111702775,0.179010893,-0.059257586,0.204518313,0.224499409,0.212544422,0.066990810,0.081216196,0.298511832,0.075738800,-0.205974419,-0.109545409,0.316344709,-0.092267766,0.212784825,-0.053486742,
-0.173098925,0.151483956,-0.087358550,0.332489430,0.185326676,-0.216113974,-0.021847398,-0.215183166,0.070412890,0.108702047,-0.105440329,0.078530029,-0.386254120,-0.026289230,-0.046711355,-0.117184161,-0.278152249,-0.145298435,-0.138121292,0.311829601,0.132811923,0.277506602,0.201064385,0.028233523,0.051292013,-0.200464620,0.030411859,-0.155437034,-0.041069923,0.206966603,0.075112791,0.219798277,-0.308343484,-0.007842034,0.029552588,
-0.009893779,-0.300965562,-0.145099455,0.302573906,-0.132072223,0.252066305,-0.183665454,-0.106943892,-0.101177905,-0.121081504,-0.086972385,-0.102537125,-0.200979601,0.229297425,0.382070665,0.131926584,-0.048434651,-0.163526689,0.079301740,-0.076869533,0.062588039,-0.105459609,-0.091468942,0.027199366,0.094023302,-0.055009000,-0.033502345,0.294100786,0.150664774,0.417008622,-0.063588476,0.157580885,-0.338521017,0.034533328,-0.052535825,
0.055182341,-0.138756149,0.055642740,-0.176033103,0.110478154,0.050981817,0.417792334,-0.191420538,-0.199069588,-0.410554307,0.082811133,0.064654434,0.015781534,-0.030925285,-0.201321136,-0.123993740,-0.030589086,-0.242843446,-0.594760866,-0.156707718,0.269411371,-0.051581360,-0.070095087,0.112359587,-0.019242133,0.019535393,0.093079382,0.162954168,0.193135016,-0.023808447,0.138917477,0.305958298,-0.104193602,0.257907024,-0.129834669,
0.351006969,-0.086021708,0.002789351,0.192009002,0.075008180,0.110741767,-0.174775779,0.131791526,-0.203061904,-0.220478950,0.257165350,-0.121047248,-0.025211515,0.122328484,-0.009764369,0.037147414,-0.130876994,-0.147959540,0.124669755,-0.161762855,-0.151945524,0.179850719,0.083430161,-0.034166166,0.205240444,-0.003035490,-0.021818165,-0.131651209,-0.143976933,0.183021064,-0.011963314,0.270685092,0.083789385,0.095574872,0.147526248,
-0.279457108,0.036362129,0.049050266,-0.308234370,-0.077618650,-0.056807366,0.184977310,-0.163099790,0.028239755,-0.180681835,-0.095693232,-0.149534925,0.038312123,-0.236652746,0.254457008,0.108980110,0.233512191,0.147771725,0.030656015,0.040042352,0.166169405,0.097993802,0.038288717,0.115958927,0.064471365,-0.155037691,-0.101849826,0.072693478,0.062325484,-0.223016723,-0.053825469,0.036312596,0.308997700,0.105663471,0.172747425,
0.052214124,-0.273970333,0.178312752,-0.044848126,-0.011232347,-0.178553248,0.061670350,0.222579525,0.204146026,-0.141349108,-0.156790282,-0.039046555,0.191328697,0.114981278,0.026419703,0.178682834,-0.038741474,0.389959083,-0.085583030,-0.071659780,0.394003257,0.137705452,0.162418101,-0.113601036,0.283905347,-0.237812038,-0.550051235,0.213208801,0.176710952,0.212298559,0.034805693,-0.004856371,0.345172914,-0.064105600,-0.350253476,
0.206796105,-0.011611579,-0.230011296,-0.033749216,-0.066255858,-0.031136203,-0.008650154,0.155777176,-0.237024998,-0.249584190,0.087943941,-0.071337424,-0.227255788,-0.424042914,0.331448070,0.173678931,-0.154731893,0.342202712,0.082732963,-0.089015347,-0.020268229,-0.049449169,-0.481541089,-0.026590850,0.095793693,-0.136543045,-0.275481385,0.202371257,-0.311687583,-0.016396877,-0.065210830,0.107992718,0.272069451,-0.037265432,-0.074710037,
-0.061282422,0.053090866,0.149903060,-0.277181210,0.095382604,0.188258403,-0.251670363,-0.126094974,-0.107640792,-0.003851768,0.100871970,0.064033674,0.011705916,-0.156023457,-0.314260076,-0.026995826,0.202810798,0.057480449,-0.138395913,-0.040122293,0.132174782,-0.023147174,0.213467424,0.064910021,0.475600078,-0.330471347,0.224683147,-0.292744874,0.271965706,-0.112334582,-0.182153670,0.246783497,-0.287115770,-0.039509908,0.192166364,
0.018968863,-0.112625063,-0.117540128,0.143088453,0.137623645,0.060374145,0.299792407,-0.199283028,0.186920415,-0.250187725,-0.265604312,-0.000996591,-0.022025537,0.265936473,0.367206313,0.099223040,0.115623276,0.069294827,0.353479427,-0.068567897,0.230235072,-0.301127175,0.162014248,-0.140770546,-0.020450641,-0.163486700,-0.064692493,0.152567546,0.286397081,-0.074395394,-0.377735713,0.232367987,0.033926154,0.010142220,-0.310878530,
-0.171321836,-0.217944357,-0.175777628,0.052493760,-0.117862227,-0.410298557,-0.008918908,-0.107456551,-0.141342096,0.142414367,-0.087157716,0.033876746,-0.039203038,-0.110150237,0.151778613,-0.510288236,0.357305500,-0.122979021,-0.085224155,-0.160401618,0.046416109,0.036041426,0.023506259,0.061430225,0.017751990,-0.009001882,0.145256031,-0.111689322,-0.092468760,-0.108246607,0.321095225,-0.159921743,-0.223640751,-0.049878931,-0.111599975,
-0.359299730,-0.205505536,0.064013102,-0.013722383,-0.135691930,0.067941153,-0.126257602,0.004291331,0.172761248,0.066015905,0.138203546,-0.120683392,0.153766351,-0.164851965,0.271869310,0.131995425,0.342648965,-0.219625708,-0.376917786,-0.059783494,0.117627735,-0.188848292,-0.267300594,0.032396898,-0.258468060,0.118743948,-0.092803293,0.040828023,-0.329859581,0.096497324,-0.004396309,0.141316701,0.145497348,-0.011351332,0.259479768,
0.120566841,-0.013981182,-0.025874145,0.414821486,-0.003457234,-0.040931167,0.150560297,0.022735070,-0.003702598,0.327333601,0.023438412,-0.014391318,-0.028044975,-0.209323549,0.018629422,0.053645693,0.178323179,-0.060627541,-0.159626916,0.051402736,0.104962687,0.150527118,-0.073969558,-0.381972374,-0.064107583,-0.118727426,0.168724290,-0.240380670,0.520398594,0.324948634,-0.160136762,-0.030085911,0.002637790,0.042266723,0.141680507,
0.270587829,0.124499696,-0.152783726,-0.032164629,0.292979667,0.306482182,0.092288027,0.208945048,0.107297804,0.043122733,-0.124397845,-0.045140389,0.026871630,0.143117150,0.001033261,0.146006284,0.077502570,0.218850108,-0.129758825,-0.152041802,-0.040843684,0.010358361,-0.101002926,-0.074055048,-0.144864641,0.134116948,0.165066196,0.007905034,0.046812784,0.041006079,-0.083828621,0.003992172,0.043378132,0.014805288,0.177568495,
0.073597835,0.115204800,0.025839255,-0.062550486,0.246095572,-0.166486932,-0.119713945,-0.282002298,-0.264711479,-0.007687100,-0.004105077,-0.328038967,0.198792629,0.043219003,0.055288639,0.022420204,0.099688533,0.022720065,-0.108468652,-0.000299891,-0.083265963,-0.161623110,0.130361321,0.421482262,-0.142657068,0.077443773,0.025960330,0.146478313,-0.193042367,-0.062181043,0.060373063,-0.305556051,-0.112448708,0.513612223,0.164335947,
0.118012785,-0.295772063,0.003305132,0.093057211,-0.330814960,-0.118754914,0.135502207,-0.286819517,-0.080523253,-0.128352378,0.004355185,-0.069394163,-0.017921351,0.018361664,0.274787689,0.225351935,-0.151929704,0.149490263,0.473065562,0.122211696,-0.398793409,-0.110690846,0.406021634,-0.001947733,0.098987245,0.274833565,0.078350594,-0.275804902,0.012613209,0.022735765,0.354614521,0.032459897,-0.089712042,-0.201602518,0.222606793,
0.065043760,-0.118127759,-0.091698724,0.150055731,-0.256944838,0.003912377,-0.151193146,0.037562706,-0.095400132,-0.118233971,-0.132209993,0.222177592,0.100404864,-0.002279857,-0.026116392,0.154701493,-0.322390139,-0.141524893,0.221483441,0.085338175,-0.018465551,0.249846771,-0.330087756,-0.099407675,-0.096964361,-0.021599419,0.369351034,0.013631551,0.123468395,0.356608214,0.080066755,0.066732363,-0.017654245,0.122048491,0.089703019,
-0.151409168,-0.256582902,0.499032537,-0.005255121,0.123401806,-0.184949634,-0.037445181,0.315879859,-0.246452703,-0.302103263,0.123734360,-0.022999073,-0.025101546,0.189942976,-0.071909621,-0.009532310,-0.325435132,-0.031854368,0.089021347,-0.122834871,0.052192030,0.120499069,-0.375869620,0.142236250,0.127963662,0.193426255,0.242116423,-0.189704256,0.003955684,0.195366544,-0.101995373,0.002050492,-0.028294569,-0.261866947,-0.344492732,
-0.261712149,-0.111562342,0.294197746,0.165116685,-0.081538076,0.229088130,0.078465854,0.146987878,-0.061757328,0.076341545,-0.177049179,-0.063284797,0.035392099,-0.192931930,-0.018976644,0.224266524,0.115708264,0.114422475,0.142884750,-0.119101883,-0.146746987,0.123806943,-0.094011338,0.151697468,0.090729652,-0.063957279,0.041253877,-0.109133914,-0.134209179,-0.184229082,-0.122465070,-0.086908553,-0.187314964,-0.236604572,-0.206967762,
-0.069094119,0.091286574,0.117060088,-0.071671222,0.027295360,-0.246321147,0.146172299,-0.294144177,0.131093115,0.238782913,0.229870489,-0.279866996,-0.036793075,0.115064837,-0.046825936,0.050565581,-0.144369245,-0.010880326,-0.064807831,-0.315386326,0.212854884,-0.116474224,-0.093525939,-0.019292349,0.028404051,-0.017384935,0.059236192,-0.017386902,0.081318269,0.093497156,-0.115757090,0.029991244,0.013776578,-0.262285452,-0.160073504,
-0.400730203,0.086068785,0.150780321,0.006685521,-0.093543025,0.073525244,0.104845041,-0.128503633,0.085219605,-0.072119606,0.037537257,-0.141141874,-0.015667500,-0.076607518,0.250043696,0.328869508,0.167530217,-0.244026349,0.111236485,0.035812617,-0.087052007,0.081623251,0.070170122,0.251892815,0.137931257,0.154889350,0.022385828,-0.059195219,0.097533976,-0.196131596,-0.333451762,0.142675486,-0.010838309,0.076148320,0.226435436,
-0.192376250,0.151793322,-0.157418565,0.317256536,0.033567597,-0.164587394,0.201556991,0.018917403,0.035547270,0.006091903,-0.107662657,0.167029017,0.167359158,-0.097162281,-0.041162310,-0.020238396,-0.203608286,0.184383187,-0.108986061,0.076227810,-0.157330224,0.235159616,0.024915796,-0.015127080,0.030790203,-0.458567729,-0.013919551,0.272295916,0.156186270,0.147790465,0.331171647,-0.153007635,-0.132944820,0.097786781,-0.334870015,
-0.295937621,-0.037366945,0.064018837,-0.109019616,0.411861896,0.351889029,0.158641255,-0.162515565,0.023631522,0.045417916,-0.156363802,0.018034892,-0.070173242,-0.241580616,-0.217675038,0.209207183,-0.322658743,-0.108100367,-0.019087040,0.148756942,-0.017225462,-0.093795077,-0.186795349,0.015532648,-0.090065537,-0.189970945,-0.256910995,-0.116465156,0.058161146,0.104604182,-0.235230824,-0.108690440,0.234513542,-0.124228299,0.081741290,
0.128223801,0.246510540,0.064548839,-0.329643478,-0.321669206,0.181929396,-0.141577657,0.380214573,0.371141071,0.065452916,-0.060782392,-0.379126382,-0.166635335,-0.293222686,-0.071971304,-0.139025367,0.091412241,0.078323622,-0.081166368,-0.098534421,0.013815179,-0.253677061,0.318414301,0.153514377,0.044550818,0.076703654,0.172761824,0.250720327,-0.188065848,0.049905001,-0.160409172,0.381319482,0.165890578,-0.486425175,0.043352236,
-0.072623863,
0.103767528,
0.122488216,
-0.283216769,
0.096103841,
-0.328033224,
-0.539791316,
0.074449765,
0.062970754,
-0.051423019,
-0.088547178,
-0.434128775,
-0.082884963,
0.211572568,
-0.373480296,
0.034531418,
-0.188372125,
-0.030294470,
-0.332170661,
-0.438662039,
0.046874915,
-0.084772567,
-0.137301364,
-0.115406635,
-0.010498092,
-0.303379956,
-0.047869674,
0.160052220,
-0.134766469,
0.130284676,
0.191151964,
-0.146186649,
0.028757813,
-0.074038456,
0.218092138,
-0.050231447,0.160725609,-0.023316680,0.334647880,-0.130299598,0.188264714,-0.299442087,-0.004360410,0.001736279,-0.140830075,0.156568496,-0.490860101,0.114684369,-0.118142092,0.193456919,-0.144313874,0.179541121,0.288079657,0.142839575,-0.286343335,0.009818771,0.054181206,-0.033221278,0.221621836,-0.200088284,-0.277132335,0.450200009,-0.057922873,-0.234418188,-0.144034332,-0.072277110,0.255771967,-0.067990172,-0.022557287,0.167818473,
-0.111941503,-0.068888573,-0.176011578,0.131020167,0.178482173,0.235914200,-0.208971850,0.154223278,0.086732867,-0.109340276,-0.194764587,-0.299342743,-0.182200465,0.238628099,-0.260150969,0.090651310,0.334575282,-0.132850555,-0.082553169,-0.009615485,0.293818047,0.105522632,-0.073617148,0.100677886,-0.060039395,0.451970835,-0.267296100,-0.055545676,0.173585760,-0.151340632,0.052220914,0.249191560,0.419085784,0.191615726,0.160319578,
0.197466357,0.028442937,0.276631552,-0.151945610,-0.192683701,0.617540721,-0.012650200,-0.083093731,0.034544038,-0.124610952,-0.012689211,-0.104725408,0.249386047,-0.215115964,-0.217409035,-0.113080280,0.044082485,-0.450259346,0.142504495,-0.220589585,0.053562542,-0.200904528,0.034085739,-0.223537276,-0.087712176,-0.451865039,-0.212980769,-0.128083974,-0.083838041,0.017494599,0.103319560,0.331015926,-0.156373823,0.209527910,0.163405744,
-0.014585077,-0.002304144,-0.182626546,-0.021008031,-0.028316605,0.402721243,0.305910949,0.327544371,0.091691074,-0.189408400,0.341888512,-0.165504665,0.140458545,0.160848181,-0.055412167,-0.005873005,0.137807536,-0.041806210,0.236330849,0.145897799,-0.344682701,-0.204472405,-0.276446947,0.003240376,0.230276541,-0.010160825,0.001181011,0.305481564,-0.158609564,0.057125712,0.093206910,-0.175854441,-0.220799045,-0.185307217,0.178773256,
-0.125822424,0.077702308,-0.115576356,0.340606513,0.083770348,0.055053862,0.030282484,-0.317066398,0.213285456,-0.225159843,-0.293337795,0.032343351,0.126536974,0.299269574,-0.116029406,0.179461007,0.015329604,-0.196181191,0.061870717,-0.118904004,0.132703783,-0.054445919,-0.285085656,-0.131025452,0.215574672,-0.124029798,-0.010670157,-0.043579777,-0.082747812,0.102676080,0.072886596,-0.036405059,0.156895417,0.047289309,0.332094910,
-0.044154789,-0.229600599,0.118760848,-0.056490318,0.064630448,0.019266831,-0.134741399,-0.245912689,0.227335976,-0.118931575,0.165351990,-0.071484552,-0.040726603,0.306030220,0.129751290,0.045212104,-0.284374272,-0.061271036,-0.066992480,0.013703119,-0.107210467,-0.251892886,0.001390356,-0.033090086,0.208323127,-0.258751681,0.432965292,-0.169217660,-0.029013867,-0.104242212,0.307966084,0.089263782,0.311805266,0.169308367,-0.136496951,
0.024648506,-0.249376209,-0.175186541,0.264741447,0.143002226,0.038947349,-0.085770662,0.339404548,0.207229551,-0.158180733,0.163114625,0.212043016,-0.063984363,0.096228795,0.020834127,0.043685337,0.222311398,0.088979069,0.345023144,0.076580471,-0.108324918,-0.066521070,0.072075695,0.046502286,0.086628683,-0.241325907,-0.057475759,-0.143423664,0.163553804,0.176338239,-0.044823216,0.096713528,-0.141360531,0.107572422,-0.212444524,
-0.040339860,0.083663708,-0.140595991,0.105642610,0.115317358,0.143819694,0.218069737,0.264832064,-0.172229535,0.225351943,0.083825787,0.161474852,-0.019724192,0.233831980,0.004787953,0.163530552,-0.166123232,-0.016662183,0.051853949,-0.099238119,0.209479273,-0.213782661,0.036030685,-0.044910107,0.146714119,0.188297037,0.220519769,0.135312703,-0.255827846,-0.104158103,-0.072297011,-0.204310781,0.031672818,-0.288835636,-0.040608844,
-0.242741743,0.140465786,0.209919209,0.011868701,0.053191829,-0.537295767,0.199743630,-0.158672476,-0.063529978,-0.091329609,0.230727354,-0.139219945,0.229304871,0.006006605,0.090409803,0.242406781,-0.330728540,0.138639459,0.188848938,-0.054838591,0.016602310,0.246079665,0.078896958,0.433490581,0.200888446,0.077289040,-0.110862038,0.211180657,-0.108961177,0.293885101,0.259207023,0.425125830,-0.006897579,-0.138757309,-0.166426134,
-0.062128190,-0.154907525,-0.283783843,-0.038730988,-0.058270148,-0.005545415,0.169071645,-0.254154055,0.073278502,-0.017006769,0.133360496,0.084100459,-0.061702148,-0.064797556,0.208696408,-0.035981845,0.030591428,0.026794608,0.113505625,-0.058450862,0.019531736,0.132152438,0.064411950,-0.307004255,0.066280744,0.150988986,-0.033023721,0.131226589,-0.204768593,-0.025221249,0.166072702,0.116473388,0.030052662,-0.163685590,0.208412301,
0.200417352,0.084670891,-0.162507720,-0.011344288,0.131177823,-0.040177818,0.046755533,-0.049975922,-0.013610651,0.509031125,0.155666385,-0.242738469,-0.111043115,-0.021155153,-0.117475539,0.062417204,0.120230611,-0.083948881,-0.125215606,0.121769392,0.331197365,-0.090184488,-0.246525436,0.174011894,-0.338449443,0.054219523,-0.113803953,-0.168592814,-0.227547068,0.054685236,-0.028122497,0.136359879,-0.096372396,-0.206278469,-0.027684965,
-0.187949303,-0.458759482,0.314499319,-0.435423086,0.044429896,0.115031832,0.034186309,0.268585844,0.082698833,-0.123997343,0.082566711,0.159078997,-0.172191331,0.016352959,-0.192418030,0.335801061,-0.062316460,0.202074999,-0.200769437,-0.291350711,-0.317585375,0.122020642,0.019136526,-0.317214485,-0.077788650,-0.014653703,-0.262242460,0.081219697,-0.016583414,-0.067012199,0.021361307,-0.027391082,-0.001140643,-0.011674433,0.044262385,
0.371948712,-0.004111466,-0.046879555,-0.049547874,0.018328692,-0.094520834,0.027374238,-0.134582794,-0.054994111,0.005413189,0.233470995,0.327729227,-0.187440186,0.245016100,-0.141908276,0.175354318,0.127636449,-0.282456386,0.191660853,-0.043734605,-0.223786603,0.026599242,0.359264921,0.051524442,-0.255060879,-0.136892925,0.075056125,-0.318816134,0.076019419,0.242232861,-0.192203700,-0.031266556,-0.058115423,0.135942697,-0.189409158,
-0.143196487,0.185788481,-0.135094767,0.028378936,0.010386334,-0.061261787,-0.165058034,-0.098858830,-0.043544321,-0.321758650,-0.304113018,-0.327199878,0.094513166,-0.118710464,0.034532645,0.042457973,-0.099644772,0.060485914,-0.107589339,0.253898761,-0.179187353,0.155488435,-0.009099141,0.136180065,0.212665030,0.097603681,-0.301387984,0.571311891,-0.045260713,-0.119942592,0.069126243,-0.094728467,0.485359176,0.127630715,0.188463214,
0.270793866,0.085731671,0.140849863,0.066046605,0.439444031,-0.122563868,0.025173335,0.456567520,0.034043808,-0.000975452,0.027901539,0.035642682,-0.336713414,-0.063295099,-0.017962987,-0.184839612,-0.155862912,-0.130762976,-0.309201881,0.100082524,-0.353383502,0.028805337,0.105870108,-0.111110312,0.118646265,-0.033801905,-0.029639334,0.129002313,-0.103839953,-0.328982234,0.225218379,-0.178364187,0.252140234,0.054366638,0.292897169,
-0.013800179,0.156248270,-0.163732528,0.030341878,0.157302683,-0.113633770,-0.073649298,-0.298876662,-0.211495070,0.005077591,-0.149888995,0.070358362,0.013119781,-0.092035553,0.302766056,-0.044472195,0.191770019,-0.016076826,-0.231814856,-0.083652920,0.213669365,-0.138974078,-0.076427159,0.099883409,0.069913470,0.059621528,0.072475893,-0.131904612,-0.037765871,0.165898312,-0.091091740,0.237097235,0.045405590,-0.276381285,0.245425364,
0.174105094,-0.305146798,-0.350547734,-0.078667093,-0.294833439,0.085409895,0.106297127,0.199452936,0.169918266,-0.075928067,-0.069821364,0.249786616,0.088120901,-0.014067164,0.500644313,-0.290768153,0.115127151,-0.099159838,-0.029210985,-0.171315530,0.133115711,-0.101314723,0.207968551,-0.182236315,0.012438286,0.105047758,0.092151776,-0.111495348,0.167606885,0.085418641,-0.025721966,0.042803648,-0.091319474,-0.088484364,0.045126337,
-0.060941496,0.264336218,-0.067033001,-0.101093497,-0.069854962,-0.045236664,0.260870336,0.014060356,-0.166049925,-0.012615937,0.218443028,0.030189638,-0.113230488,0.030793694,-0.182556543,0.012550778,-0.086634128,0.033419678,-0.004753297,-0.152041056,-0.233771983,0.254812616,0.135219977,-0.012151443,-0.032539286,0.075302223,0.090182787,0.345490703,-0.061283700,-0.209395680,0.038127067,0.075048074,0.278876615,-0.085835180,-0.197410233,
-0.214980861,0.156401312,0.127405953,-0.158700572,-0.293463386,0.081007081,-0.070744296,-0.296789221,-0.111515286,-0.114399999,-0.240763988,-0.111695992,0.020295105,0.428080963,0.317226737,-0.046278603,-0.170190364,0.032524807,0.139258851,-0.036073373,-0.018370275,0.358164467,0.140581404,0.182157790,-0.097224649,0.239596889,0.031881946,0.005687773,0.179612035,0.026246462,0.001642277,-0.277156141,0.104410813,0.076388810,0.075460945,
0.057748365,-0.229307437,0.070007713,0.347734812,-0.002466045,-0.097321022,-0.087462320,0.101642558,-0.281708627,-0.167490173,-0.231224158,-0.088293291,0.171153314,0.083011091,-0.320795878,0.280495835,0.476677514,0.037662251,0.069737255,-0.101624179,0.023313273,0.150067677,0.080886802,0.049711720,-0.283783707,-0.182415915,-0.108601141,0.210353383,0.044442087,0.132203551,-0.044324390,-0.054440119,0.042438136,0.166191634,0.009085459,
-0.549082485,-0.181262617,-0.319754800,-0.124042688,-0.036477321,-0.148847566,-0.148493750,0.013990719,0.215651511,-0.045894111,-0.250470334,-0.071377819,0.264559315,0.023028924,0.054300722,-0.238224087,0.045967382,0.436293277,-0.145669808,-0.011521172,-0.049746760,-0.364265876,-0.018024075,-0.201740238,-0.013851423,-0.043018048,-0.028234523,0.036800857,0.034823502,-0.029986803,-0.006126310,-0.059444934,-0.256877053,-0.136123546,-0.099298283,
-0.077758391,-0.112573272,-0.088882570,0.034438444,-0.091230012,-0.150755369,0.171051815,-0.238031385,0.079596558,0.113757785,0.000732969,-0.299151806,-0.023138712,-0.029048581,0.306204353,0.323686100,0.164510925,-0.213849108,-0.482035528,0.047232158,-0.039155076,-0.095170861,0.160916700,0.219949112,-0.105601422,-0.016671089,0.060970025,-0.017078147,-0.317217633,-0.080538181,0.375112581,-0.125703479,-0.053560205,0.096605560,0.045941508,
0.062951582,-0.056667401,-0.036924491,-0.182128187,-0.357209020,-0.087742914,0.034836397,0.047191253,0.183356891,-0.249327674,0.065998769,-0.112527900,-0.021730636,0.078986066,0.048310121,0.041770868,-0.067986597,0.032919390,0.200189405,-0.074595259,0.008278217,0.120757365,0.040915412,0.067392488,-0.180454476,-0.291577119,-0.088433940,-0.131331095,0.213402577,0.133659723,0.026684447,0.126942521,-0.097997087,-0.318861666,0.012575373,
0.315819456,-0.049780892,0.004113733,-0.071365810,-0.084964588,-0.104655231,-0.037505387,0.372880910,-0.014887850,-0.411407164,-0.106519903,0.144955614,0.208002327,0.203118553,-0.001384247,-0.220450365,-0.260223759,0.057949670,0.102828028,0.326428805,-0.064508217,-0.062710987,0.084324738,-0.382467392,-0.056824861,-0.124251503,0.136688949,0.225271238,-0.143148021,0.120270479,-0.027232669,-0.232849030,-0.080011379,0.114687999,0.156700733,
-0.030747602,-0.001463968,0.092435293,0.363455120,-0.184584248,0.067520275,0.255822384,0.070295635,-0.380686728,-0.090686212,0.496917904,-0.126420887,0.074298420,0.033494071,0.009930346,-0.030025431,0.005654528,-0.074509032,-0.100893119,0.061459057,-0.142704293,0.070936753,-0.162144584,0.114873975,0.101940941,-0.078566808,0.164052007,0.092660440,-0.075781313,0.048095125,0.058687643,0.183639880,-0.252589545,-0.211261814,0.103592115,
-0.134631517,-0.110428368,0.123013662,-0.276945495,-0.005231066,0.311450708,0.044205020,0.001261289,0.042111056,0.113483752,0.227328113,0.567269359,0.118872767,0.102763827,-0.036474726,0.111984251,-0.063965999,-0.073493549,-0.206125796,-0.031924735,-0.090405426,-0.240611168,0.031892893,0.162800318,0.331582755,0.048420298,-0.022949527,-0.362636492,-0.032535055,-0.029483909,-0.115740409,-0.000468947,-0.061552197,-0.041640426,0.220529485,
-0.199846831,0.116343027,0.029682234,-0.180435556,0.115903535,0.130280353,-0.103713959,-0.165788028,-0.215684495,-0.492666604,-0.002487248,-0.216450267,0.236560005,0.005729265,0.374996403,-0.179865145,0.125673765,-0.287701211,0.103496989,0.089977720,-0.122170119,0.249550500,-0.243779632,-0.502808466,-0.103382364,0.077733337,-0.175205933,-0.031550781,0.210666733,0.288839289,0.016124438,0.165672107,0.160913707,-0.037025746,-0.294324294,
-0.199991301,-0.078507566,-0.370859695,0.050008228,0.037165933,-0.034274349,-0.020496379,-0.112110048,-0.139892003,0.151854561,0.088040209,0.026115685,0.099935248,-0.411382923,-0.360648832,0.066903041,0.025391219,0.187871985,0.197772157,0.056292070,-0.138370374,0.048854158,-0.076951139,-0.056822827,-0.100119065,0.041875392,-0.096224098,0.002918019,0.456538568,-0.141361343,0.036367650,-0.221903191,-0.090829511,0.380296865,0.279941095,
-0.359449835,-0.095403299,0.323061353,0.039536403,-0.019409914,-0.034271089,-0.048739602,-0.074687668,0.118187126,0.311980058,0.090478913,-0.166183066,0.220780564,0.006245169,0.677853283,0.034579011,-0.006531886,0.024656344,0.076175209,-0.265557954,0.044567268,-0.160465116,0.313557965,0.127126418,0.030120841,-0.162291087,-0.025279932,-0.105205923,-0.360244950,0.008186809,0.099298051,0.187843008,0.206035342,-0.162704390,0.095073370,
0.149302422,-0.139502441,0.116888742,0.167512556,-0.106248343,0.109486628,-0.273942583,0.058727723,-0.065941712,0.005815233,0.017694105,0.168774250,-0.216182224,0.038091010,0.360722150,0.122150169,-0.039149964,-0.104718848,-0.041960574,0.309843159,-0.455061005,0.128444055,-0.211372431,0.028424797,0.253006031,0.124231171,-0.127379300,0.032421190,-0.102778299,0.187170233,-0.035842127,-0.320238213,0.083524478,-0.303878326,0.132669671,
-0.039300097,-0.139383866,-0.066743474,0.075273887,-0.089746380,-0.016052468,0.212819230,-0.215133307,0.211698833,0.230664428,-0.083059931,0.092082538,-0.238028766,0.173083105,0.343984742,-0.290678550,-0.226250616,-0.110820948,0.083871537,0.225348392,-0.133330442,-0.051979520,-0.051870575,-0.047317428,0.015163870,-0.078725994,0.078644156,0.008920166,-0.099063152,-0.118902351,-0.388761698,-0.008978026,-0.154711957,-0.129033339,-0.180684987,
-0.307183386,0.067114476,-0.129189180,0.004484511,-0.251793456,0.003768100,-0.172954380,0.025858580,-0.192375676,0.199752072,0.272638315,0.263664601,-0.202058712,0.026635794,-0.010595061,0.091588443,0.006709045,0.149300030,0.017171529,-0.146906059,-0.078690956,0.145312918,-0.086217631,-0.147345205,0.076542288,0.301906348,-0.151628491,0.044388778,-0.479899836,0.027225145,-0.205135537,0.004480809,0.175377450,0.230329770,-0.035996918,
0.074369376,-0.300718286,-0.285375445,0.051774673,0.128922801,-0.094542134,0.001964543,0.208125058,0.248009886,0.122095347,-0.103803358,-0.019228611,-0.033662810,0.069567286,0.059474431,0.170380523,-0.002754255,-0.467126813,0.365984772,-0.076313344,0.010642241,-0.055094100,0.043258324,0.052390280,0.001306323,-0.518483908,-0.273105355,-0.140406512,0.067760852,0.214861601,-0.047405329,0.177569648,-0.034306532,0.104246626,-0.014538224,
0.079695150,-0.300404215,-0.138532054,-0.010750093,-0.052889394,0.266770510,-0.080349004,0.047837412,0.189870275,0.253198031,-0.016499352,-0.319943206,0.119676416,-0.194243457,-0.130973961,0.169762700,-0.481192128,-0.505341442,-0.171933272,-0.009848894,0.259512735,-0.101869364,0.003519278,-0.137656099,0.311961567,0.265122894,0.210629911,0.148490788,-0.407501468,0.254692459,-0.204402111,-0.332597637,-0.060980039,-0.249436025,0.319034428,
-0.114654192,-0.187975412,0.169759208,0.245319901,0.054960429,-0.112200148,-0.408771302,0.201102328,0.088378747,-0.180789882,-0.370487261,0.429383046,-0.594653526,0.177841727,-0.338076778,0.050881850,0.184630918,0.066140552,-0.316741755,0.043946594,0.172823647,0.074454249,0.111243530,-0.263299205,-0.015356069,-0.334657889,-0.050575546,-0.191756917,-0.090344451,0.104194800,-0.175253541,0.283530678,0.080831206,-0.207656838,0.222179659,
-0.203824136,
-0.284120298,
0.052020973,
-0.071481068,
0.023871148,
-0.226902997,
0.174027774,
-0.206504503,
-0.068225071,
-0.394499449,
-0.032897100,
-0.130681365,
-0.148031277,
0.191197090,
0.157722226,
0.254636747,
-0.133099341,
0.189704252,
-0.063441443,
-0.065344950,
-0.045134940,
0.069524738,
0.223283968,
0.226284106,
-0.352011564,
0.064598490,
-0.208103311,
0.313901060,
0.111156558,
-0.062651468,
-0.453260978,
0.289862020,
-0.015194393,
0.434082247,
-0.515436405,
0.003558425,0.062202760,-0.146141054,-0.089819132,0.134483012,-0.223864360,0.013361944,-0.347693071,-0.121739664,0.170502378,0.011353790,0.274359265,-0.135139487,-0.070590118,0.113887198,-0.110546754,-0.003698054,0.050366519,-0.059479268,0.392316405,-0.184178841,-0.225386681,-0.047583296,-0.083797293,-0.156851255,-0.163337457,0.062935721,0.391200748,-0.148179570,-0.107591094,-0.285349094,-0.111862273,0.050748380,0.258449647,0.003609534,
-0.075045957,0.109583570,0.375657575,0.042100378,-0.176721955,0.221882052,0.263377679,0.091225806,0.195696209,-0.085127684,0.243049634,-0.175724647,0.033208985,-0.075472845,-0.087207616,-0.082417341,-0.333452718,0.216802997,-0.235833674,0.142648024,0.042960264,-0.084431224,-0.186481691,0.081708357,0.097298113,-0.125504204,0.141432198,-0.039477228,-0.225216801,0.105659450,0.313464913,-0.174001443,-0.270019041,0.321752972,0.094537369,
-0.051157169,-0.197567484,0.019836114,0.281656821,-0.051413001,0.209938300,0.253425372,0.069422228,0.051796441,0.017221970,0.105716675,0.140439642,-0.206461546,0.352307911,0.054538122,-0.039307720,-0.000040953,-0.247691480,-0.100380384,0.146952279,-0.189516015,0.006593904,0.155780852,-0.170591945,-0.051180737,-0.115669585,-0.343517063,0.155539619,-0.261148476,-0.194959917,-0.301167802,-0.298242130,0.045424678,0.294310565,0.181852663,
-0.012017929,-0.046251083,0.173599483,-0.041716294,0.322774268,-0.142963730,-0.064144208,-0.258176419,-0.078979974,-0.131505893,-0.150776583,0.020142662,-0.112211021,0.312622453,-0.055080896,0.124392774,-0.167833610,-0.245195430,0.056902169,0.054622701,0.346657240,0.036539974,-0.254946445,-0.092084462,-0.206174876,0.027287620,0.069257413,0.104899871,-0.141557928,-0.241039375,-0.109137446,0.077161758,0.037992258,0.089648140,-0.178563190,
0.054468587,0.136394910,0.073075371,-0.242039857,-0.198929730,-0.250929346,0.019958958,0.054942934,0.092721724,0.064742379,-0.170058380,-0.062497439,0.056230777,0.039165777,0.123853246,0.155939650,0.015396714,0.004328807,-0.103577654,-0.094587207,0.121860549,0.035963112,-0.286958137,0.093051790,0.050768014,0.028491318,0.419845996,-0.184025095,-0.269694930,0.308653199,-0.075648862,-0.220274259,-0.164472717,-0.129538301,-0.030318160,
0.054946165,-0.189978301,0.038240726,0.195126179,0.000481652,-0.143019205,0.071083847,-0.104324479,-0.422288066,-0.192315297,-0.202587618,0.010238404,-0.074982598,-0.077187416,-0.064456224,0.309432422,0.273125791,0.080004346,-0.121389254,0.023784446,0.053483707,-0.030809227,0.003244542,-0.144115804,0.051207772,0.218189217,0.257313457,-0.222455364,-0.270846882,-0.273931757,-0.037557281,0.303198496,0.235090323,0.013835704,0.059406754,
-0.132488838,-0.177051966,0.240363752,-0.349826301,0.322815975,0.097939410,-0.227132764,0.003280743,-0.082712164,-0.178889802,-0.137824462,-0.140107158,-0.097198456,0.240561713,0.038176165,0.072357325,0.324001303,-0.064414478,0.026017294,-0.032752628,-0.054232946,0.232437982,0.278290762,-0.135104547,0.014646660,0.190296758,0.094101006,-0.062339858,0.020972411,0.042653677,0.078847923,-0.036932327,-0.024248760,-0.053489206,-0.435280826,
-0.134512018,-0.280468329,-0.019790402,-0.095172207,0.225624335,0.137766936,0.081273333,0.027499418,-0.258046180,-0.207390016,0.026987613,-0.200111693,0.015804619,0.109871839,0.203968400,0.077796579,0.097798816,-0.070986768,0.190775065,0.109027153,0.006084491,-0.384760509,0.049097897,0.028619842,0.010757678,-0.317165417,0.114699192,-0.113078560,0.055420624,0.298960740,-0.060839763,0.177041265,0.114643104,-0.071619669,-0.026249256,
-0.189086895,-0.258786069,-0.227205812,-0.189028218,0.269398298,0.029518849,0.073969591,0.032262365,0.039067441,0.106129280,0.033536129,-0.196198233,0.174117768,-0.291067898,-0.033416975,-0.040514164,0.174297166,0.227554743,-0.118137427,0.063230170,-0.204676926,0.088558743,-0.007563565,0.058504019,0.073615667,0.276417607,0.391654969,0.139089837,0.093888025,-0.027341828,-0.038266788,-0.146247852,-0.141238662,-0.242580914,-0.120646907,
0.142703801,-0.136250572,0.035992933,-0.137929328,0.279339644,-0.347751945,-0.058185298,-0.136714056,-0.254246651,-0.169966667,0.104741528,0.171287801,-0.231786836,0.117439406,-0.191563026,-0.289815985,0.015277512,0.189189352,-0.132668814,-0.141509561,-0.075671669,-0.193096685,-0.201059273,0.040712269,-0.045066091,0.042828944,-0.016296379,0.126273392,0.136901197,-0.035814691,-0.076387502,0.228208396,-0.090786251,-0.333755981,-0.161791131,
-0.229129445,-0.090715937,0.004906109,0.025876100,-0.045141062,-0.318144626,-0.111324281,-0.149589256,0.237966832,-0.040940882,0.231723061,-0.168849273,-0.226661197,0.007965043,-0.263185597,-0.036575628,0.186590808,-0.007628269,0.291348927,0.228413210,-0.045735124,0.244879081,0.315476220,-0.017046025,0.056592544,0.162574466,0.128817995,-0.261746168,-0.062857281,-0.018250341,-0.465289275,0.191431570,-0.109702224,0.041193575,0.099715462,
0.393295476,-0.091822299,0.377800186,0.187105626,-0.084474736,0.042440662,-0.018646485,-0.048776716,0.199960453,-0.126658631,-0.010957057,-0.067332516,0.026338032,0.200760770,0.233378814,-0.138132423,-0.101870798,0.036617656,0.362486915,0.221228729,-0.079687095,0.155158622,-0.013548694,-0.404020206,-0.062185431,-0.123321294,0.302167303,-0.070014083,0.158361752,-0.027720167,-0.110396331,0.298566449,-0.057311656,0.225563911,-0.111422358,
-0.336085678,-0.385151685,0.002567487,-0.312500599,0.062253857,-0.064425910,0.309266165,0.097899769,0.187197721,0.629884108,0.183340490,0.087303965,0.101045541,0.008762430,-0.061215868,-0.242239508,0.187100637,-0.032443919,-0.096278164,0.253073665,-0.199924121,-0.274838098,0.119378873,-0.327429224,0.075484982,-0.007475886,0.330524814,0.284635165,0.279202009,0.247713980,0.291116759,-0.034426681,0.127696331,0.038798465,0.164009152,
0.281517560,0.133082186,0.168125860,0.148061948,-0.034554137,0.154213290,-0.297123208,-0.032430903,-0.105454005,-0.001271539,-0.529116228,0.313303057,-0.293261906,-0.195793166,0.156601424,-0.095569589,-0.002687246,0.019781119,-0.199538204,-0.020098680,-0.037014228,0.118791023,0.146940932,-0.044742232,0.082422671,-0.125759720,0.173418245,0.033479559,-0.071304985,-0.047876243,-0.091492148,0.030584440,0.091165369,0.193376306,-0.228940201,
0.056092364,0.121730978,0.115341332,-0.202814112,0.220375618,0.048967030,-0.192137140,-0.054657913,-0.141839727,-0.378097508,-0.011158726,0.064269921,-0.271141138,-0.168153438,-0.262696887,0.214899476,-0.066034325,-0.383658849,-0.070030930,-0.148785763,0.101616277,0.220588393,-0.019673230,0.074537116,-0.192605246,0.088084210,0.156212905,0.129570016,0.029130895,0.118411272,-0.205509885,-0.061109394,-0.018770672,0.075351593,-0.121195294,
-0.248440572,-0.068284396,0.346685497,-0.426818597,0.178151506,-0.151799691,-0.092022383,0.261516669,0.000963145,-0.044930401,-0.254571625,-0.129027282,-0.031055944,-0.219817718,0.050594533,0.132715795,-0.028725483,0.340142084,-0.016222883,0.304196199,0.126796683,-0.156758057,-0.101631728,-0.361851466,0.034341043,-0.073269970,0.096196664,-0.173263665,-0.097636410,0.319588627,-0.359979521,0.398019579,-0.014576751,0.107920936,0.421199270,
-0.155060080,0.161467200,0.177726662,-0.191675856,0.179772783,-0.206201031,0.265333087,-0.281429655,0.011295006,-0.124537268,0.012583101,-0.146995244,0.253708060,0.142512142,0.076811538,0.107378342,-0.223437007,-0.132511005,-0.442509608,0.044770516,-0.400531176,0.029174713,0.185288892,0.152612339,0.321469434,-0.058484872,-0.010944575,0.153410466,-0.051328567,-0.047531328,0.259651860,-0.098686738,-0.072539834,0.048503459,-0.033080915,
-0.124244966,-0.254869488,0.033411367,0.104973374,0.242407735,0.075007159,0.180206884,0.047005163,0.183855776,-0.078401584,0.282203669,0.025305829,-0.071175356,0.043407697,-0.361700849,-0.145182470,-0.220361320,-0.122378714,0.291425697,0.018059837,0.123956618,0.308019168,-0.416743434,0.144323578,-0.098124389,0.185572594,0.145843492,-0.338805375,-0.308358477,0.071749491,-0.337526851,0.069477105,0.289686830,0.188419637,-0.370118137,
-0.142642845,0.100184919,-0.269492680,0.016233315,-0.336057251,-0.404373828,-0.212573302,0.004302778,0.445666960,-0.143597492,-0.029071189,-0.176503504,-0.024260347,-0.003516281,0.022632028,0.357332288,-0.051098721,0.107166303,0.063973955,0.278199854,0.350181041,0.134680387,-0.260009619,0.259815651,-0.225533717,-0.012109359,0.174446137,0.262137405,0.146655829,0.178196764,0.248623868,0.069046191,0.157868119,0.056362232,0.100645642,
0.254979052,-0.179159488,-0.054077504,0.035096326,-0.015716553,0.267823563,0.010340630,-0.377759763,-0.282243622,0.109426585,0.053466621,-0.042929052,-0.123696234,-0.084164555,-0.062678687,0.291850858,0.088878692,0.130884971,0.239525556,-0.449142357,-0.180545370,0.049794269,0.070683644,0.118194017,0.361824712,-0.107541704,0.184901581,-0.339324084,0.092864036,0.338701346,0.254272374,-0.186266122,0.008453749,0.040702036,-0.294027268,
-0.054027436,0.012470544,0.104883991,-0.032883599,0.080745335,-0.257616430,0.065569013,0.161547271,0.045293393,-0.177217758,0.195410722,-0.285489860,0.032270869,-0.035336520,-0.023764142,0.069995364,0.007676001,-0.036533115,-0.163085608,0.064445835,0.067760992,0.095837083,0.395738942,-0.199564732,-0.284851537,0.174612444,0.320091549,0.295422610,0.126642942,-0.191723902,-0.292582094,-0.187421749,-0.181031740,-0.077131172,0.031060480,
0.245754692,0.382598753,0.080608912,0.186917620,0.141334084,0.188089077,0.156894011,0.033149143,0.149886616,0.236619857,-0.068292700,0.114929451,0.044249885,-0.155991527,-0.467531365,0.113035212,-0.062830278,0.311810345,-0.056332095,0.130782230,-0.141530494,0.012189384,-0.008597859,0.032374902,0.213163940,-0.074764179,-0.220935790,-0.125290590,0.242060410,0.290872890,-0.048280806,0.108467640,0.322941441,-0.236087981,0.090819998,
0.091052292,0.051700352,0.249507467,0.243659041,0.124755602,-0.063720277,0.057524941,0.007506793,0.004954407,0.025153158,0.109437005,0.055602509,-0.013425228,0.075978933,0.365397385,0.108914994,-0.079301738,0.104917146,-0.299118613,0.061220137,-0.131102262,0.131029310,-0.266748486,0.051016011,0.048839031,-0.269429544,0.203798049,-0.056583129,-0.255076819,-0.243133933,0.119929730,-0.445911675,-0.243776616,-0.285111267,-0.388203743,
0.375015025,0.333933454,-0.148141683,-0.072639634,-0.323465108,-0.330360700,-0.058377417,0.300856484,0.136158211,-0.048350242,-0.167365574,0.031382662,-0.088111951,0.001234424,-0.126947220,-0.005627825,0.014912863,-0.138129398,0.231265640,0.128474411,-0.083262823,0.434101081,0.074106248,-0.245714481,0.354796299,-0.014924723,-0.226068001,-0.032387372,-0.182338095,0.068745839,-0.199660380,0.248662376,-0.262368448,-0.059584133,-0.037147375,
-0.172240878,0.043339116,-0.184804948,-0.146809338,-0.173536059,-0.236146290,0.191052452,0.143795560,0.087763589,-0.080447585,0.073409773,0.070860456,-0.193442141,0.057953761,-0.240896469,0.326146029,0.437160529,-0.173362593,0.236226144,0.254624026,-0.065065891,-0.142203086,0.034427893,0.015680090,0.000602034,0.132135908,0.041693799,-0.092222901,-0.029290651,-0.156856549,-0.051346287,0.298690533,0.241610783,-0.048296579,-0.284989781,
-0.069300804,0.045915696,-0.021362991,-0.138885873,-0.262888325,-0.049471480,-0.076170277,-0.074550592,0.034870269,-0.324534120,-0.143531475,0.087671943,-0.019104754,-0.174019768,-0.008910170,-0.232092933,-0.120361962,0.057961804,0.337595272,-0.110072066,0.098344987,0.244811300,-0.074006104,-0.033229912,0.211275251,0.062766361,0.074180996,0.111277476,-0.100134522,-0.182790865,0.336295755,0.093060041,0.183480489,0.022626800,0.108604910,
0.043109090,-0.049899191,0.001337278,0.243251204,-0.191898136,-0.144079468,0.222565844,-0.035806291,-0.615612012,-0.077447044,-0.069718567,0.005036319,0.336823327,0.190280916,0.274791998,-0.035229447,-0.140697888,0.121759348,-0.298447958,-0.122751005,0.073314494,-0.202964390,-0.010615579,-0.091868593,0.096997467,0.174997503,-0.155184396,-0.003249049,-0.278127444,0.045963545,-0.117393563,0.095215829,0.013921722,0.042999053,-0.053562345,
0.189952182,-0.101250761,-0.058683101,0.417670503,0.029397416,0.038161346,0.213978430,-0.185200878,-0.243365725,-0.015713979,0.052446052,0.016049697,-0.026646539,0.182189765,0.121728039,0.059817713,-0.246652816,-0.403216975,0.115687426,0.131779254,0.343863691,-0.115974620,-0.318779608,-0.042952637,0.254049859,0.066418523,0.031204219,0.087549807,0.100428492,-0.061323321,0.083966147,-0.009623882,-0.123092742,0.179917775,-0.149552550,
0.141669212,0.177127477,0.291060770,0.059633552,-0.150146006,0.036889420,0.055843534,0.195158866,-0.246070259,0.127537285,-0.013565645,0.189543211,-0.693753717,0.038771500,-0.168632339,-0.131760381,0.140155620,-0.125413129,-0.070181819,-0.247119674,0.005641390,-0.108233391,-0.070118654,0.046858980,-0.037899027,-0.143070108,0.238013968,-0.232139449,-0.087266074,0.053285988,-0.152462751,0.107632387,0.069677314,-0.350109493,-0.015333611,
-0.377492867,0.061165983,-0.045553363,-0.389597514,0.019467782,-0.227468668,0.188292329,-0.142917799,0.299248323,-0.222471795,0.100821993,0.344336774,0.056647274,-0.169422964,-0.058964969,-0.032933183,-0.010960220,0.110259926,-0.104554675,-0.016832849,0.018318979,0.114913766,0.105016519,-0.308636614,-0.203808111,0.060926875,0.122831101,-0.352906683,0.290976049,-0.144361740,0.024282106,0.161345406,0.108304012,-0.063992255,-0.091519333,
-0.069981686,0.078751498,-0.298154546,-0.103844821,0.142621337,-0.144694745,-0.011300172,0.113418319,-0.093709049,0.245998680,0.430783262,-0.078336650,-0.256533215,-0.291290769,-0.025630725,0.296869649,0.006862272,-0.039782863,-0.008956489,0.085864961,-0.211545575,0.087529871,0.261299177,-0.186097843,0.156427895,-0.074010277,-0.180803464,-0.303104328,0.187036860,-0.146809552,-0.033742061,0.172748456,0.068321676,0.146013721,0.017256452,
0.147276384,-0.051378187,0.042337374,0.281634332,-0.226957196,-0.211582539,-0.156996439,-0.057630729,-0.150093093,-0.291721171,-0.002004800,-0.310855304,0.030807433,-0.174820805,0.023127302,-0.150825928,-0.069215595,-0.091047445,-0.068815404,0.205214503,-0.294257471,-0.117519697,0.032643652,0.033560673,-0.196105928,0.111277867,0.138933325,0.212301754,0.088556395,-0.025280331,0.164422387,-0.298864847,0.147711565,0.075410682,0.283480514,
0.049686949,0.165385145,-0.019657314,-0.057124011,0.221057275,-0.173938216,0.351918051,0.127326530,0.244871698,0.395953809,-0.172409947,0.030748638,-0.006605267,-0.326797256,0.058131563,0.217508726,-0.178451171,0.349295423,0.127470724,0.161282711,0.020595065,-0.090371826,-0.034616139,0.084621681,0.021184235,-0.121958782,-0.198502796,0.064881273,0.126287064,-0.155940749,-0.044591359,0.168619938,-0.088592653,-0.080011883,0.001783597,
-0.432980917,-0.083566214,0.040815296,-0.307209297,0.059890884,0.014509192,-0.136784756,-0.081535928,0.058321984,0.234467796,-0.155901924,0.058875839,-0.079847382,-0.189920794,-0.181578490,0.204090789,0.283504822,0.516124247,0.096497029,0.107675713,-0.351124696,-0.177748395,0.215689782,-0.161199053,0.098608927,0.156719708,0.300405109,-0.346013314,0.049640963,0.027492292,0.086298542,-0.123165943,0.142906228,0.300085872,-0.018492395,
-0.170334146,0.211983931,-0.228757853,0.016433692,-0.059251058,-0.240560425,0.083292553,0.031258618,0.193954358,0.096172009,0.157471028,-0.229771029,-0.034735338,0.034093405,0.071350722,0.351928123,-0.235695347,0.156957029,0.036884483,0.112152376,-0.014670483,-0.069030626,0.021493091,0.215438553,-0.193019064,0.043333279,0.053142858,0.136486053,0.120206824,0.376109518,0.169275421,0.165461027,-0.163527629,0.161985237,-0.208311299,
-0.070720094,
0.001800865,
0.023256066,
0.080932870,
0.070573875,
0.068356477,
-0.063760855,
-0.162534577,
-0.211902037,
0.292226976,
0.253432486,
-0.250735903,
0.109511175,
0.134452838,
0.025082705,
0.009731879,
-0.249891665,
-0.078294425,
0.161273783,
0.334474554,
0.157094437,
-0.058571544,
0.098453928,
-0.030685131,
0.046357504,
-0.217164734,
-0.198143684,
0.317567849,
0.085691502,
-0.031109855,
-0.098303506,
0.246901472,
-0.148561956,
0.154892116,
0.174245061,
-0.003197583,0.159414738,0.140226854,0.058723107,0.051906462,0.023525923,0.156224194,-0.081676029,-0.059645729,0.194962494,0.308684567,0.043839480,-0.029379271,0.185141628,-0.124635612,0.363457025,-0.070635742,0.229947597,0.010356469,0.325555840,-0.171806763,0.142773564,0.338539654,0.068201808,0.183888135,0.066414818,-0.076407965,-0.150660135,-0.136157958,-0.044009357,0.178830578,0.031646509,-0.132431993,0.126705471,-0.036269647,
0.001352366,-0.213035349,0.151981739,-0.137937134,-0.115212143,-0.007402438,-0.167326537,-0.084179655,-0.368090696,-0.277755702,0.046737536,-0.151755627,-0.338919293,-0.050819562,0.025707520,0.183467091,-0.141205964,0.044875367,-0.002257115,0.178091517,0.227735123,-0.069524315,0.204153911,0.000862737,-0.021724352,-0.266550252,0.092199131,0.092169980,-0.318822213,-0.218488325,-0.160895338,-0.164356572,-0.278854716,0.198915692,-0.081693627,
0.216182994,0.174658831,0.175253390,0.205724323,0.076872247,0.104204638,-0.275013554,0.227943986,-0.104922413,0.362607968,0.068288532,-0.226332176,0.207125501,0.161974815,0.057898533,-0.088290097,0.110066764,-0.362467619,0.044358391,0.033921034,0.019390341,-0.152738233,0.213998371,0.019667248,0.056849137,-0.341866947,0.218013994,-0.125304929,0.039139548,-0.223732400,-0.081734250,-0.095683198,0.103961526,0.029883313,-0.162026025,
-0.177391406,-0.360485129,-0.228507461,-0.027880105,0.085429663,0.242363985,-0.162501433,-0.036055462,-0.018375674,0.298529280,-0.059836066,-0.112548519,-0.256434178,0.249689434,-0.265467541,0.148600009,0.177526869,0.074416069,0.092129974,-0.346986239,0.141199237,0.581092494,-0.258679233,-0.197327165,-0.166015935,0.162663559,-0.114358669,-0.040691384,0.130968304,-0.303863261,-0.180236091,0.041985034,-0.103474858,-0.284870247,0.030544587,
-0.423183175,-0.133097358,0.125204730,0.022079648,-0.069188677,0.156392457,-0.023185030,-0.224167470,-0.166512564,0.061623738,0.044542402,0.233190744,-0.066755262,-0.146490691,0.287882001,-0.042755578,-0.049301794,0.128227227,-0.173571710,0.229684730,0.066890319,-0.177970319,0.314325549,0.122863835,0.054213760,0.239396193,-0.164875440,-0.107252689,-0.024025764,0.203048419,-0.192451825,0.023296591,-0.200304216,0.274383848,0.005259365,
0.096725089,0.071226994,0.063552360,0.045057044,-0.010739171,0.146205166,0.099512767,0.141466289,-0.145901817,0.026953299,0.275936983,0.165655899,0.223559231,0.075357882,0.082806208,-0.063214761,0.314167719,0.049679667,0.132723188,-0.135218035,-0.058929161,0.000054301,0.111336361,0.259087943,-0.036687276,-0.199407865,-0.052173218,0.282336361,-0.018874356,0.069095041,-0.125924354,0.205709130,0.336954317,0.186525037,-0.087242287,
0.145702835,0.200758388,0.022971731,-0.205627222,0.213721906,-0.009312091,0.474120954,-0.002754969,0.171869833,0.160084699,-0.305566834,0.138878956,0.051483380,0.093840388,0.068566818,-0.244042968,-0.067200831,-0.479511939,0.036495456,0.099248558,0.310616966,0.093626965,-0.095414482,-0.019856814,-0.015255804,0.330452198,-0.253201484,-0.360559467,0.029326138,0.065041309,0.309859784,0.144025264,-0.006073618,0.041714478,-0.038250714,
-0.183375048,0.131667815,0.143179396,-0.010614467,-0.017350821,0.203647637,-0.117012865,-0.056335459,0.222144711,0.354537496,-0.049943732,-0.484509330,-0.086075887,-0.107264394,0.026189321,-0.082692811,-0.113197891,0.022098026,0.080305261,-0.137115283,-0.255065993,0.136235624,-0.080383713,0.100709767,-0.254777240,0.179309379,0.116836675,0.034202532,0.158070653,0.076492991,-0.215588913,0.101285193,-0.068139931,-0.339208860,-0.156571145,
0.425168258,0.067475288,-0.244635752,0.069321657,0.173141631,-0.319626595,-0.146351122,0.026571216,-0.144718194,0.241197447,0.089488561,-0.234742540,0.095665447,-0.148789199,0.087144114,0.087270385,-0.131488813,-0.459638834,0.176728768,0.123310498,0.025489768,0.039553025,0.023788113,-0.244612450,-0.083858720,0.117317011,-0.277934208,-0.323439619,-0.441140315,-0.389297675,0.031273340,-0.264285802,0.140197726,0.129600621,-0.027893865,
0.109081440,0.049947682,-0.011876972,-0.088220177,0.229656726,-0.091567203,-0.121199238,0.034222221,0.087108581,0.142096485,-0.116912403,0.103621801,0.156389393,0.179519898,0.429864283,0.016138915,-0.122550557,-0.369186278,-0.275046183,0.098443000,0.373023461,-0.174112936,0.165240692,0.079995544,0.057536451,-0.109510752,0.008483371,-0.312439660,0.057991889,-0.025510691,0.125608494,-0.057763996,-0.064979977,-0.180577899,0.102171855,
0.042619683,-0.141526714,0.056597648,0.155107607,0.150322716,-0.240464199,-0.012981338,0.004388059,-0.083833382,-0.131356536,-0.036632127,-0.006030273,-0.194162283,0.149208496,0.027241620,-0.059003957,-0.089550287,-0.440644481,0.013417460,-0.123232934,-0.051956023,-0.097751002,-0.052525641,-0.220452335,-0.250289640,-0.061990159,-0.056562523,-0.029630349,0.184187978,-0.110594556,-0.238034393,0.143454761,-0.119213253,0.085441242,0.005673823,
0.154502322,-0.028149177,0.038987496,-0.420576323,0.180008627,0.174099164,-0.181425819,-0.183458889,0.088753118,-0.086136153,-0.138112379,-0.126946903,-0.266599154,-0.198978549,0.109391903,-0.088932355,0.205793066,-0.155749251,0.069192987,0.045152761,-0.008053931,0.103546546,-0.045466152,-0.132541088,0.091210676,0.028864936,-0.024590850,-0.155986085,-0.133544472,-0.039924933,0.010092676,-0.045404068,0.029423690,-0.079971291,0.055924373,
-0.046431211,-0.061677501,0.015508001,0.103634678,-0.089382265,0.068703315,-0.056624221,0.110954097,0.021721835,0.301256379,0.350999787,0.083578301,0.303776679,-0.480214227,-0.083021005,-0.367433024,0.097572082,0.363623071,0.097855496,0.119043666,-0.081760663,-0.105062647,0.077428157,0.053931046,-0.137118930,-0.093794241,0.069837490,0.247705014,0.020722687,-0.241306085,0.024948184,0.128512912,-0.130085825,-0.283553844,0.086295743,
0.341762007,0.089673918,-0.101344679,-0.244860603,0.145201710,0.252096207,-0.303930972,-0.037781842,0.023229679,-0.160728266,-0.008090087,0.022011648,0.014544438,0.155377193,0.038363173,-0.109855931,0.013369656,0.053166696,-0.065061203,-0.128306266,0.194266651,0.266024725,-0.124871011,-0.426943922,-0.164824851,-0.334889084,-0.177429201,0.106999007,0.021056544,0.007540124,0.005384074,0.049975302,0.085860597,-0.158271749,-0.177120550,
0.125983918,0.008230411,-0.009806359,-0.045650135,0.544161575,0.308215425,0.238681969,0.335527025,-0.075110298,-0.254306910,-0.278607987,0.199270232,0.152310992,-0.135346387,0.169398037,-0.001650789,-0.192680791,-0.177373758,0.085125208,0.243469541,-0.004942297,-0.100648122,0.106839956,-0.269965982,-0.226203661,-0.443041350,-0.146418773,-0.086856508,-0.051838726,-0.046037366,-0.159935696,0.023314640,-0.059474688,0.005660345,0.220346753,
-0.150633217,-0.094767761,0.007341588,0.032422213,-0.267518901,-0.222186790,0.030926491,0.197466208,-0.033463891,0.103757787,0.369639693,0.014705454,0.059733067,0.218065193,0.100898172,0.009762836,-0.065742817,0.160176485,-0.064484185,-0.206705983,0.002355548,-0.452182515,-0.051835259,-0.093468444,0.068902556,-0.124628920,0.182282971,0.067604282,-0.273367211,-0.242710419,0.005209150,0.043614951,-0.143290043,0.136804113,-0.077892899,
-0.219353502,-0.157452325,0.090434170,-0.436257556,0.024466411,0.132530606,-0.697151826,-0.173294820,0.332641610,0.188020222,0.029393028,-0.238462610,0.018923320,-0.113552643,-0.059413445,0.089832376,-0.200714073,-0.017842442,-0.110636415,0.179470559,0.209762377,0.080443027,-0.154660346,-0.054954251,0.031006760,0.084658539,0.070177943,-0.051890582,0.203919891,0.166856007,0.119923788,0.061486902,-0.261587159,0.005430236,-0.032851068,
-0.125071667,0.015082324,-0.046599344,0.226096618,0.121507011,0.231051855,0.077308444,-0.103878467,-0.095794725,0.091112925,-0.174503058,-0.127165209,-0.005550693,-0.031765783,-0.043588135,-0.087494585,0.113699749,-0.148764961,0.223413295,0.255347216,-0.111213818,-0.008767082,0.038703062,0.146769214,-0.137350520,0.273313128,-0.115536163,-0.150930481,-0.349255441,-0.007997142,-0.107670570,-0.298372038,0.078529143,-0.120097774,-0.130120041,
0.151547236,0.065127130,-0.168062611,0.352960211,-0.211883819,0.203322211,0.048802681,-0.094020074,0.250764087,0.022605940,-0.010492609,0.078318818,-0.093276468,0.064532549,0.026721222,0.034774190,0.028928746,-0.081793768,0.153481512,0.110229344,-0.059617247,0.190536203,-0.055561274,0.014373625,0.012363944,-0.019795647,0.069647267,-0.109615134,-0.112050463,-0.387675215,-0.206544651,-0.113307147,0.021248451,0.072123088,-0.022343668,
-0.119372274,-0.040889714,0.177952042,-0.044801568,0.078298819,-0.204747028,-0.237623841,0.155103471,-0.279070558,-0.322605162,-0.260120255,-0.067561948,0.159536296,-0.196203526,-0.260274557,0.073940149,-0.212429635,-0.298021183,0.260371008,-0.325073765,-0.053091159,0.023067649,0.151985991,0.046012827,-0.026941206,0.125738671,0.011299733,0.016683228,0.089381139,-0.236391837,0.057204807,0.097740361,0.018917280,0.030379056,0.257828110,
0.156044768,-0.254071147,0.074164081,-0.248487255,-0.274484329,-0.181636784,0.260436367,-0.150231712,-0.053820269,0.210843055,0.012415838,0.026016469,-0.240041063,0.050260197,0.311618994,0.249656849,0.432699486,-0.095501986,0.277584915,0.105260354,0.418143551,0.077946340,-0.280464227,0.014705361,0.107811053,0.392013795,0.013750677,-0.046170939,0.193044383,-0.068749442,0.044023842,-0.004677344,-0.035527161,-0.108086722,-0.004735398,
-0.265173823,0.038267887,0.338611056,-0.092583888,0.189863328,0.072893586,-0.082208663,-0.092061034,-0.161723727,-0.226724162,-0.100763061,0.213614123,0.204260501,-0.197349336,0.032300841,-0.001499357,0.003442328,0.160468883,0.439980081,0.093743303,0.119566503,0.423473852,-0.128149730,-0.297411986,-0.096080923,0.114949682,-0.106766469,-0.119742087,0.121871711,-0.015251624,0.068905826,-0.101257209,0.070926078,0.046689804,-0.372239335,
0.108301937,0.137137797,0.166354673,0.394088461,-0.089317452,0.104213214,-0.230828033,-0.300596081,-0.108808701,0.015882799,0.034982270,0.234239129,-0.142924809,0.468128002,-0.105322684,-0.104567091,0.369810818,-0.263075856,-0.091394491,0.209622017,0.124446815,0.123130782,0.091740990,0.123875127,0.250911486,-0.018381850,-0.249793628,-0.099782327,0.050994008,-0.185298596,-0.161581747,-0.095393054,0.179616439,0.067328050,0.363397098,
-0.031269900,-0.006016727,0.314286487,0.043169971,-0.049044244,0.201655548,0.129749458,-0.139736151,0.045955465,-0.060003631,0.109817034,0.104938266,0.000632832,-0.379023289,-0.097372948,0.085376187,0.251943184,0.008698725,0.137050309,-0.269617683,-0.005193905,-0.137792282,-0.080407594,0.113813288,0.085022821,0.096938298,0.065424691,-0.250430380,-0.077925405,-0.056241075,0.037603172,0.036512651,-0.236364038,-0.002040401,-0.144817126,
-0.217649295,-0.084628160,-0.287045648,0.025141375,0.194654329,0.103832246,-0.185990698,0.001256722,-0.009629202,0.241951396,-0.038038216,-0.118774292,0.126908370,0.045988022,0.170556406,-0.033365981,0.242296886,-0.178640104,-0.306771872,0.087854904,0.081943124,-0.141978703,-0.270994951,-0.355024613,-0.283157039,0.080057772,-0.471580624,-0.024818607,-0.161185132,-0.256933910,0.412088030,-0.105125953,-0.006316497,0.325697517,0.041497029,
0.076154350,-0.128259869,0.011135290,0.062610927,0.419687132,-0.136767705,-0.093794828,-0.201688969,-0.030526529,0.018576854,0.053247474,-0.256953767,-0.198006868,0.046562556,0.293074394,0.033644017,0.084354855,0.375568883,0.082211546,0.047356598,0.007576097,-0.160815337,0.120774844,0.191413569,-0.026610767,-0.057624671,-0.119966343,0.196171067,0.064798185,0.013215692,-0.075175204,0.187230929,0.133624025,-0.124974728,-0.114720288,
0.159105727,0.174604231,-0.148464154,0.133367948,-0.128514448,-0.032636484,-0.074182668,0.395757781,-0.017325216,-0.156263547,-0.083730754,-0.080458760,0.113018751,0.118236373,-0.291350515,-0.154000650,0.018434523,0.050116589,0.135331314,0.071819825,-0.181953265,-0.049158939,0.271541490,0.201383552,0.149796533,-0.039927421,0.036896672,-0.057189935,0.073544988,0.050010029,-0.248526216,-0.022713836,0.369206377,0.106286920,0.176702076,
0.033717510,0.151921424,-0.099462337,-0.178030208,0.060731798,-0.114566764,0.113588107,-0.131518303,0.033156596,0.380736034,0.208773807,0.195755026,-0.132068989,-0.297246962,0.154750952,0.224925969,0.016501217,0.183925359,0.241389338,0.063722652,0.399426851,0.119742296,0.170697887,0.238433470,-0.025275525,-0.017301377,-0.083676793,0.333841772,-0.237178801,-0.040809279,-0.236887681,-0.045169723,-0.321782844,0.154776716,-0.064810090,
0.143570287,-0.029344456,0.008716470,0.020374405,-0.005374338,0.303564572,-0.173754922,-0.182962227,-0.164327167,0.250162875,-0.031042628,-0.139658225,-0.096782828,0.385825326,0.236389359,0.277287167,0.013032868,-0.302621812,0.136552456,0.274079207,0.061210738,-0.001628376,0.181896518,-0.209319252,0.172172546,-0.005275855,-0.097382158,0.055236132,0.204016782,0.307008459,-0.025397716,0.153628884,0.272175795,-0.016859693,-0.262315263,
0.000859056,-0.032281601,-0.127425128,0.046085220,-0.143185515,-0.277309695,-0.218141471,0.062644169,0.123783602,-0.010210767,0.062088896,-0.116680684,0.163128970,-0.329877533,0.119140122,0.002128761,0.189679450,-0.150124000,0.066363944,0.129878029,0.001157030,0.060097228,-0.024397563,0.002051519,-0.264584434,-0.089198124,0.063751974,0.132127418,-0.158609072,-0.076779340,0.059704735,0.363536813,0.358633752,-0.122617201,0.052956883,
-0.289578169,0.126295940,0.030721723,-0.024917788,-0.217503242,0.219507290,0.396658536,0.056564205,0.211430770,0.212339615,0.159631901,0.016824160,-0.048223081,-0.251739422,-0.271641479,-0.008911284,-0.166955936,-0.075011350,0.145881404,-0.267792215,-0.155785871,0.046412120,-0.134555077,-0.030829257,0.086403012,0.104619617,0.194061097,0.095297251,0.186729615,-0.022146920,-0.183235115,-0.065109357,-0.173724556,0.004666180,0.076757940,
0.064946788,0.044842913,-0.343835050,-0.334744167,-0.100065646,0.263576840,0.022980582,0.201588349,-0.074515346,0.076246747,0.151451903,-0.039763416,-0.319834202,-0.238192804,0.153297150,0.022927828,0.075511224,0.144645144,-0.043304638,-0.096045367,-0.092279564,0.083477449,-0.161292807,-0.007874295,0.084088816,-0.140669400,0.172463254,-0.417167721,0.022930628,-0.139713186,0.198040181,-0.060248233,0.114608931,-0.120378503,-0.061065052,
0.285962342,0.410073286,-0.101374852,0.293677250,0.033231034,0.330272257,0.186682878,0.316263890,0.109820656,0.075776757,-0.074936563,-0.088831275,0.108805787,-0.226111460,0.152322705,0.247233116,-0.258978262,-0.189356271,-0.205917536,-0.160828156,-0.169009403,-0.096909930,-0.114687296,0.128650547,0.006802384,0.083167889,0.146577857,0.067426474,-0.102494350,-0.024186908,-0.015911205,0.262852381,-0.067803136,-0.119664553,0.297367500,
-0.504953395,-0.124813253,-0.048183007,-0.171684631,-0.089955455,-0.268174342,-0.057169332,0.202527923,-0.094127825,0.296317566,0.251139573,0.030539541,0.175768517,0.155056362,-0.000441433,0.012449963,0.147990819,0.066217112,0.170950243,-0.142721110,0.300073949,-0.120535863,0.217296271,-0.100675583,0.173806401,0.024679899,0.064143316,-0.173410766,0.015224543,0.096699894,-0.271874272,0.225945084,-0.035141019,0.322564280,0.134547464,
0.137127645,0.227795977,0.025051231,0.037794644,0.143076200,-0.233454983,-0.107907164,-0.196212224,0.151994625,-0.200498952,-0.269808751,-0.123050025,-0.169632050,-0.041503246,-0.001917296,0.254918466,-0.045685036,-0.115938257,-0.202536041,0.116471598,0.373599958,0.100119172,0.093439683,0.212540616,0.079556521,-0.173219953,0.034426473,0.193555016,-0.210560997,0.222656908,0.289891151,0.168008523,-0.120135640,0.039856759,0.078867196,
-0.001156320,
-0.195971312,
-0.152705237,
-0.246785563,
-0.254686352,
0.057546217,
0.084361251,
0.123233867,
0.174484691,
-0.236754349,
-0.119914857,
-0.114119810,
0.372210698,
-0.154376023,
-0.113020395,
-0.027238953,
-0.068931926,
0.196347774,
0.192648714,
0.129456246,
-0.304033407,
0.135044470,
0.119191257,
0.216100190,
0.134611491,
0.115004796,
0.179278479,
0.013717224,
0.031227977,
0.335624040,
0.000399569,
0.131528430,
0.097872313,
-0.396736953,
-0.024026698,
0.179492682,0.093299543,0.417334050,-0.078025858,0.252320284,-0.283602700,-0.435540123,-0.010598885,0.344664872,0.072498851,0.206778290,0.417131681,-0.112442880,-0.059933144,0.216025711,0.051028254,0.223009905,0.111463799,-0.094881154,0.120535999,-0.091254514,-0.033872946,0.069625921,-0.147154222,-0.047480156,0.160131100,0.030962757,0.274437998,0.055666610,0.109507325,-0.077787614,0.276977353,-0.032181185,0.413204035,0.001286236,
0.164447582,-0.103601660,-0.061852646,-0.049624766,0.263167938,-0.128309844,0.084076388,-0.023654024,0.076467521,0.082836470,0.102252254,-0.021371509,0.329507133,0.253714801,0.151587808,-0.038935004,-0.258578625,0.064987933,0.052930903,-0.358557797,-0.073180624,0.238553859,-0.132080287,-0.122820853,-0.112419532,0.008081623,-0.076112714,-0.042508590,0.111523048,0.011691481,-0.079137908,0.159215335,0.003761822,0.091956841,0.333987845,
0.192772916,0.073139005,0.117319714,0.060811217,0.049922152,-0.058247710,0.338281540,-0.272945688,0.002899997,0.087281378,-0.051704396,0.168782772,0.173125963,0.029427734,0.061083493,0.134222858,0.106622651,0.191980218,-0.026496340,-0.124770345,-0.113165618,0.090635098,-0.147490351,-0.141238460,-0.027666622,-0.252734851,0.093310862,-0.229210100,-0.013846610,0.007346352,-0.020660259,0.027255583,-0.144623801,0.053444020,-0.300246592,
-0.182220099,0.087865433,-0.065553844,0.040644151,-0.108390452,0.208023384,0.095986565,-0.315878919,0.058444832,0.169785258,0.005533002,-0.164384626,0.061333054,0.103690128,0.180236242,-0.162680459,0.059852633,0.148855319,0.164967181,0.100587485,0.132484457,0.307965424,0.030528598,-0.077421547,0.145509604,0.215033452,0.120924059,0.202241259,-0.054205859,0.282412356,-0.289468991,0.135732860,0.069652157,0.018165104,-0.083520712,
-0.249583041,0.012051721,0.068359412,0.117570951,0.234443253,-0.080598751,-0.081992040,-0.329296294,-0.220945667,-0.114248050,0.142094769,-0.002477664,0.162939086,0.122862007,0.076486437,-0.245547916,0.299543454,0.006222261,-0.339142631,-0.139976489,-0.182189958,0.031477769,-0.364610033,0.242667124,-0.349496601,-0.195122392,0.133396251,0.158279156,0.256901568,0.161756524,-0.099756614,0.113032182,-0.118244969,-0.130560724,-0.024734993,
0.015842836,-0.119610086,0.102574647,-0.231370219,0.149299309,-0.142561784,-0.154665951,-0.305534643,0.053384763,0.187835608,-0.078569421,-0.234901453,-0.218754830,-0.271064846,-0.292888987,0.056374585,0.143333890,0.049743943,-0.025094555,0.094712026,-0.083242843,-0.085398117,-0.099940567,-0.300318702,0.212598685,0.063276257,-0.085428897,0.114933016,0.319219344,0.025545719,0.113644009,0.070186419,-0.078337279,-0.122591684,0.102586874,
0.138110582,-0.116207768,-0.123499065,-0.013917485,0.334643251,-0.072398699,-0.032090418,0.013959704,-0.023235222,-0.053023710,-0.011961248,0.026294622,-0.027916354,0.005180329,-0.010049867,-0.169694069,-0.070158514,0.396960618,-0.193606989,0.066361551,-0.076860769,0.036521559,-0.025382466,-0.079383549,0.195522431,0.135500480,0.048342319,0.280014173,0.061549933,0.272431375,0.157397740,-0.011984328,-0.092272971,0.086454245,-0.166443987,
-0.068441033,-0.361178952,-0.087372629,-0.034797642,0.279763987,-0.005734838,0.052843816,-0.300564429,0.150924500,-0.127115051,-0.091553718,0.036207978,0.011487597,0.140866352,0.177970271,0.292567405,-0.062963058,-0.029414558,0.162334610,-0.227748665,0.237353742,0.073106189,-0.071530826,-0.231776974,0.019270883,-0.020289354,-0.088278080,0.164131783,0.235060768,0.211309777,0.001303832,0.275098190,0.132306310,0.391608609,-0.239381213,
-0.150526303,0.316242911,0.216446789,-0.205772276,-0.172075131,-0.391566411,0.062873771,-0.122510767,-0.281297081,-0.054343001,-0.143306870,0.176110607,0.089040058,-0.028051882,-0.096984211,0.294438112,-0.086858985,0.041757386,0.110969564,0.067652530,0.207192652,0.048929834,-0.095355316,-0.107303905,-0.093839490,0.000088196,0.009163268,-0.204689728,0.094495125,0.180576015,-0.018105860,0.036001885,-0.464763458,0.072308545,0.131237357,
-0.238497558,0.164061181,-0.297727972,0.116501344,-0.066218956,-0.014396995,0.040667865,-0.237924370,-0.006647017,0.315309086,-0.045365025,0.150564628,0.075328220,-0.054265619,0.357146970,0.299100697,-0.223593452,0.056790731,-0.024534114,0.054559724,-0.203719239,-0.175390537,0.195352942,0.037810691,-0.337700802,-0.007387568,0.189519595,0.316209207,-0.075492162,-0.295087212,0.095372514,-0.110352243,0.259509038,0.170645980,-0.141956316,
0.108493362,0.103192750,0.019809467,-0.064175805,0.026701057,0.219573661,0.267939544,-0.308047221,-0.236482980,-0.249188625,-0.241570674,-0.184650120,-0.053165116,-0.014793483,0.026004719,0.198434261,-0.094707484,-0.071102064,-0.242813708,0.242189768,0.038571587,-0.024016377,0.083684522,0.278775226,0.151989745,0.223529269,0.016994929,0.151458173,0.119268663,0.127065852,0.180371509,-0.122592256,0.086998001,-0.034649500,0.062364748,
-0.094498227,0.002095467,-0.166669950,0.014967066,0.177913056,0.221036799,-0.130117140,0.011917425,-0.370560920,-0.031261415,-0.000585452,-0.241664440,-0.102809978,-0.363434752,-0.121531108,0.080778036,-0.200944990,-0.078236420,-0.121637712,-0.305682123,-0.159679780,0.121713983,0.075344956,-0.019353371,0.307499073,-0.167610114,-0.017269244,-0.265055711,0.011297282,0.420122016,0.040479741,-0.272414136,-0.148316880,0.010762693,-0.064760202,
0.028819459,0.042217722,-0.065876338,0.196054045,0.024716221,-0.015996843,0.013077574,0.012449926,-0.092434169,0.073578140,0.398620967,0.013010570,0.052959592,0.432613707,0.116078414,0.115068474,0.146241284,0.151795201,-0.111491082,-0.225933742,0.006910194,-0.073142445,-0.044870251,-0.048227806,-0.165122676,0.112143777,0.066936322,-0.408156935,0.053617485,0.206008640,0.337537806,0.050616762,0.046888948,0.174625249,0.069413112,
-0.276491483,-0.050716176,0.131546539,0.163911550,0.263343149,-0.155424481,-0.019512694,-0.184390027,-0.184268162,-0.203402923,-0.006793977,0.131292513,-0.055103436,0.068327541,-0.100186839,-0.310078402,-0.040673685,0.210792278,0.027799528,0.208234412,0.185125669,0.023484265,-0.262959043,-0.047719230,0.069469230,0.038334973,-0.130110095,0.215580422,-0.014357697,0.131634146,0.178160238,0.068980772,0.464902203,-0.103445562,-0.072467220,
-0.138901974,-0.079364801,-0.006376310,0.032025270,-0.099545747,-0.470776880,0.036987543,-0.326970119,0.165724130,0.134890810,0.096328415,-0.235629116,-0.019172550,-0.114695825,-0.021895394,0.046075953,0.253861382,0.237784859,-0.088809875,0.444421886,-0.188704761,0.014042985,0.144433154,0.110322502,-0.275203547,0.229682420,0.066414180,-0.236445662,-0.157671733,-0.124356307,-0.218315724,0.077331449,-0.065621238,0.014704145,0.077738797,
0.122351228,0.154125660,0.281520787,-0.063603904,0.177193342,-0.024274843,-0.012316211,-0.352342505,-0.024133914,0.353120254,0.085461394,0.014473324,-0.229522947,-0.064209650,-0.030757225,0.003514676,0.250018104,0.186640358,-0.088392699,-0.008549857,-0.006492910,0.183162801,-0.295409234,-0.095103567,-0.006780664,0.155412501,-0.143569695,-0.361563791,0.113654424,0.008382869,-0.209764793,0.176010667,-0.321163017,-0.129865084,0.069999959,
0.207227063,-0.018040247,-0.397668612,-0.104099835,-0.345739868,0.143196023,0.017124858,0.066579478,0.032788912,0.181695315,0.185049468,-0.113551529,0.253268396,-0.242046173,0.391496687,-0.058091106,-0.209589134,0.258342796,-0.161655005,0.113169488,0.391335485,0.321283821,-0.275461124,0.020105246,0.000472944,-0.169152574,0.278636384,0.055781097,0.179160606,0.119535457,-0.048497986,0.092714020,-0.067946762,-0.343289293,-0.100930412,
0.185530318,-0.041058749,-0.058279661,-0.052095691,-0.132122853,0.281090605,0.340167207,0.229914331,0.138685281,-0.366519007,-0.107415968,-0.024388706,-0.024629794,-0.104406448,-0.232494405,-0.144847897,-0.409427398,-0.151149052,0.184245707,0.291224880,0.107671563,0.094147301,0.025066459,0.154241520,-0.067257873,-0.209266241,-0.056996014,-0.080470193,-0.001697878,0.206265986,-0.044023892,-0.293489375,-0.205198072,-0.185564942,-0.208551901,
0.307059451,0.626915304,-0.176762061,-0.101488566,-0.209531344,0.395438453,-0.118260827,-0.141701861,-0.081278606,0.050806143,0.121200517,0.084619784,0.116847467,0.053222053,-0.016061544,-0.161390688,-0.056796547,-0.125707810,0.074101005,0.096877600,0.241623320,0.086962385,0.148039844,0.212563869,-0.051466338,-0.113849404,0.051923077,-0.092782838,0.021605888,-0.063206209,0.118265435,-0.169356479,0.306331862,-0.120976040,-0.166854864,
0.090196452,-0.233512261,-0.260121279,0.122248841,0.270694576,0.169636278,0.005828026,0.163153470,0.086354180,0.070620906,-0.130858666,0.060528465,0.092179151,0.177292951,0.095707291,-0.096332485,0.113006851,0.012911747,-0.163455932,0.122983643,0.121458751,0.095993409,0.265967190,-0.000202484,0.244361669,-0.028773298,-0.009666389,0.123473428,0.049410452,0.232205198,-0.004420381,0.144629149,0.036349079,-0.028472438,0.031820557,
0.072293165,-0.233775868,-0.194073776,-0.051749937,-0.009445720,-0.107593781,0.226367840,-0.040410990,-0.110648230,0.111073590,0.199517022,-0.120222144,0.296762469,-0.099327894,-0.262799684,-0.045555004,-0.090533696,-0.012281957,-0.140803577,0.093816421,-0.291157289,-0.218991579,0.121630228,-0.268070085,0.076580716,0.217198188,-0.098684203,-0.287492903,-0.051966075,-0.015599684,-0.227948269,-0.294163774,0.022641949,0.175495675,0.049616367,
-0.395917544,0.113237905,-0.218603649,-0.086916638,0.097740940,-0.024968572,0.329473268,-0.209643040,-0.050266273,-0.068650373,0.420297747,0.177536384,0.113047587,-0.081077493,0.167925832,-0.090191278,0.124295299,0.152115521,0.111403206,0.118952559,0.174006960,-0.118487968,0.010220987,-0.254749208,-0.118734675,0.097115154,0.295351505,0.083536658,-0.500557103,-0.092265950,-0.186940242,-0.245681797,-0.059036718,0.082492379,-0.330776715,
-0.195989126,-0.025201561,-0.317117137,-0.206279076,-0.146395132,0.007387899,-0.181029378,0.001577369,0.097461379,-0.268497152,0.283042061,0.133160111,0.060215042,0.014751037,-0.158117059,-0.373135238,0.259757764,0.279454337,-0.049892944,0.173921182,-0.081772936,-0.098536521,0.218184511,-0.110226629,0.081704945,-0.016470176,0.134147400,-0.298807394,-0.053106534,-0.275020513,-0.039781307,0.544175204,-0.140941297,-0.087468364,0.117841306,
0.071369795,0.458528646,-0.212208993,-0.105138951,0.158119506,0.165354243,-0.070930920,-0.098537653,-0.062182228,-0.281482873,-0.055309825,-0.167405866,-0.065729615,0.240248200,0.091616237,0.136745809,0.063091860,-0.162582500,0.182216991,0.203900933,-0.191987982,-0.006594962,-0.033033428,0.534358390,-0.079837395,-0.199959910,0.022263660,-0.208410589,0.347714136,0.344134334,0.187332607,0.232610888,-0.408155548,-0.075792496,0.112597642,
0.023369095,-0.203604897,0.025700200,0.149835078,0.240077389,-0.216429031,0.209887573,-0.070165394,-0.256845147,0.283436794,-0.069035198,-0.211891531,-0.001590659,-0.099260289,-0.083026796,0.149901042,-0.168747094,-0.360705886,0.246142566,-0.088834842,0.139324707,-0.030423346,-0.059878989,-0.418840425,0.323688648,-0.046763274,-0.078306850,-0.422608530,0.489303972,-0.249942336,0.249898959,0.110583055,0.284367368,0.207083655,-0.274620301,
-0.225876007,-0.053323871,-0.008089632,-0.280324243,-0.332862527,-0.156645528,0.030275175,0.031122446,-0.005383075,0.117328372,0.175334115,-0.231066653,-0.195270155,-0.364155197,-0.378204222,-0.127032219,0.003730992,0.343760326,0.053100605,0.172133979,-0.143097721,0.127135645,-0.191054569,-0.265108945,-0.138562778,0.366366087,0.183049101,-0.155202000,0.068598762,0.013605846,0.135745189,-0.000049600,-0.141822128,0.022692865,0.074806167,
0.055835934,-0.113749655,-0.007745624,-0.006791700,0.183691170,0.117257033,-0.180840386,0.078561869,0.131394385,-0.045692319,0.053192407,-0.063419859,0.036038895,-0.191843499,0.104953991,0.257143739,-0.351092342,-0.007776676,-0.005674207,-0.038884744,-0.189181170,0.194989504,-0.215446948,-0.109862107,-0.155692303,-0.004136689,-0.026473706,-0.201241129,0.144517818,-0.139467433,0.076416553,-0.072914607,-0.184772088,0.060817038,-0.195540923,
0.314633753,0.364072260,0.039863220,0.067692412,0.417014120,-0.169854401,0.073253752,-0.156942025,-0.095726596,0.013051519,-0.023044820,0.091550125,-0.063070292,-0.002144936,-0.046603881,0.052236028,0.184802512,0.255184194,0.214773577,-0.239584971,0.230658767,-0.050460258,-0.207119765,-0.066407055,-0.118939061,0.062027470,0.075601570,0.135429566,0.077648223,-0.210170757,0.247340845,-0.146458216,0.190420689,-0.049697901,-0.219145768,
0.084982075,-0.012129824,-0.344492819,-0.116903856,0.215646067,0.245099698,-0.065660195,-0.007499210,-0.137711639,-0.208158240,-0.126911739,-0.170499081,0.334250471,0.005841362,-0.302204598,-0.032230351,-0.157358435,-0.232543253,-0.366560707,0.049389153,-0.098845569,0.074547343,0.183169034,0.052014665,0.056691318,-0.114104339,-0.261639987,0.347785997,0.122718855,0.141880625,0.040366503,-0.343092922,0.181539365,0.019165277,-0.245984205,
-0.070556889,0.045943370,0.073584768,-0.085703052,0.130131133,-0.039824202,0.155483821,-0.065912973,0.032360880,-0.075751029,0.073382892,-0.080650942,-0.012285755,0.007156155,0.044583950,-0.173402769,0.000918664,0.290137238,-0.193921788,0.178729288,-0.225848587,0.091324247,0.195417248,0.004441527,0.265448457,0.147170976,-0.135807860,-0.101411336,-0.098528105,0.230029334,0.039737657,0.065639176,0.157104607,0.150569313,-0.144900911,
-0.098169528,0.232440101,0.152382623,0.058564540,0.123690291,0.349200595,0.096020268,-0.296165934,0.060353896,-0.277204075,0.360506148,0.273310252,-0.033704757,0.144916237,-0.205342119,-0.160699801,0.090726744,-0.149368116,0.176428024,0.204259488,0.089668655,0.368477982,0.200369058,0.001361853,-0.074687331,0.096977818,-0.083881324,0.138221420,-0.072524169,-0.255527162,-0.042773071,-0.184169240,-0.073461870,0.219102916,-0.045542436,
-0.029099776,-0.047356758,-0.205354994,0.000520351,0.035937015,-0.017644838,-0.023812549,0.413939757,-0.100443813,0.074921305,0.395049137,-0.082293812,0.145745869,-0.077260991,-0.105533839,0.018156837,0.028756613,-0.137534938,0.153444659,-0.067919169,0.073381496,0.032088395,0.166159860,0.266339517,-0.210306996,-0.384002948,0.060243248,-0.072190258,-0.018501200,-0.262149333,0.277281987,-0.116170214,-0.237714164,-0.342342461,0.081294110,
-0.078804212,-0.053208162,-0.239425362,0.179979256,-0.139452452,-0.046097974,0.117631653,-0.122962178,-0.178336790,-0.103765763,-0.075378095,-0.071748188,-0.179599638,0.107825408,0.433983086,0.008798593,0.271167875,0.091987760,0.161209178,-0.064951466,-0.182632012,-0.059201318,-0.091640245,-0.058938593,-0.118253563,-0.263207945,0.340045624,0.482957640,-0.061959677,0.034112138,-0.132542380,0.172237854,0.069376004,-0.251734409,0.264700498,
-0.152177282,0.121987993,0.167399603,0.045876134,0.139558077,-0.060017966,0.066941215,0.168076702,0.100330242,-0.112315301,0.244269442,0.291089471,-0.141502740,0.022792691,0.085292014,0.100169624,-0.030025029,0.182023504,-0.055927645,-0.005312499,0.205242259,-0.159833764,0.234663830,0.061087873,0.065694927,0.382653680,0.212514520,-0.014099794,-0.033716990,-0.088930560,0.027665018,-0.168018247,0.149757053,0.125222583,-0.182075714,
-0.184237495,0.319583438,-0.127789203,-0.069252951,-0.054385156,-0.367587344,-0.055221453,0.103766719,-0.081982532,-0.035736688,0.228316480,0.168426935,-0.249297915,0.021820979,0.103635777,0.075713004,0.001808012,0.070251823,0.065398297,0.111112375,-0.074378300,0.012164877,0.269820678,0.001418789,0.038786822,0.029057015,0.482986813,-0.079129050,0.194304422,-0.093523316,0.207580460,-0.048266933,0.079859907,0.139092043,0.110478709,
0.200175913,
-0.114365065,
-0.044447094,
0.112583243,
-0.069916861,
-0.165985735,
0.106145697,
0.196548355,
0.044679954,
-0.299619303,
0.025589745,
0.163660248,
-0.132902196,
-0.061546834,
0.340112257,
-0.001737254,
-0.211437423,
0.186052871,
0.115533858,
0.378502717,
0.051203074,
-0.034186651,
-0.107659669,
-0.081896207,
-0.216067942,
-0.024429114,
-0.154494870,
-0.098649588,
0.265069541,
0.236959002,
0.009973520,
-0.129992751,
-0.166089891,
0.113519550,
0.006064884,
0.275854434,0.074334811,0.107522318,-0.165785752,-0.221109672,-0.171658313,0.200700399,0.374287105,0.070354553,-0.221003222,0.258306863,0.077939659,0.229158630,0.116047261,0.089820282,0.287679956,0.231374824,-0.147196151,0.376133692,-0.294790933,-0.100814536,0.168861531,-0.006940227,0.011795263,-0.079217156,-0.308052435,0.047677120,-0.066597095,0.203187877,0.100750920,0.046611109,-0.050573737,0.047359559,0.141618758,0.225806306,
-0.074798763,0.087765486,-0.291577896,-0.071848962,0.158847028,0.194089882,-0.263356087,0.070659553,-0.369529108,0.081770215,-0.147114906,0.086496575,-0.021268870,-0.225405015,-0.067613897,0.271750176,0.250171451,0.055017287,0.133184545,0.174625074,-0.032965430,0.133379706,-0.117183892,-0.169244439,0.081406279,0.119627746,-0.031806933,0.057839636,-0.122274806,0.089771136,-0.368658231,0.105251995,-0.173955159,0.070794987,-0.112595053,
0.155264044,-0.228483614,-0.228715731,-0.008201930,0.177594087,-0.080751726,0.056808154,-0.139847464,0.523272864,-0.221556316,0.088994226,0.050137257,-0.025066325,0.155097036,0.090210480,0.125583730,0.059428780,0.117942790,-0.421833803,0.106528140,0.109229799,-0.087997557,-0.082296008,0.220904327,0.123115323,-0.063174421,-0.047068971,0.080449281,0.182052548,0.210906317,0.034006537,0.100133457,0.217870642,-0.170370294,-0.202883465,
0.133669139,0.201026176,-0.038952432,-0.106050954,0.078205491,-0.180999921,-0.009456835,0.167212237,0.053960903,-0.198274938,-0.043475342,-0.169381792,0.312937173,0.015017784,0.157889901,-0.085547922,-0.057551291,0.029770270,-0.145215978,0.125661971,-0.255841682,-0.118621236,0.053797543,-0.095959743,0.048949155,0.166702599,-0.220517786,0.058929578,-0.108642876,0.088518697,0.051933452,0.154851072,0.170098088,0.235211929,-0.234139636,
0.019671253,-0.076031208,0.150414078,0.047092596,-0.078781731,-0.365750108,0.134630111,-0.067250136,-0.304894156,0.112147979,0.110452254,-0.120126728,-0.045870564,-0.227265094,-0.055056425,-0.130122628,0.234818310,0.073736378,0.102795720,-0.277581446,0.014578323,0.212401962,-0.216422612,0.339803642,0.306376128,0.114277808,-0.092050564,-0.067665174,-0.029570358,-0.249501179,-0.208702045,-0.100017593,-0.041341774,-0.026562952,-0.031957170,
0.207537945,-0.398507853,0.107330912,-0.004252762,0.144320741,-0.002140716,-0.144393935,0.227677896,0.102577985,-0.176954824,0.034850050,0.284875552,0.243047603,0.137048497,-0.268337228,-0.232831125,-0.197352522,0.043839336,-0.057008875,0.135175921,-0.134468594,0.077920956,-0.155485957,0.097848686,0.127673451,0.193813797,-0.020683533,0.209131492,0.222575655,0.041612147,0.178578564,0.062402234,-0.303081911,-0.072891644,0.298633782,
0.159864030,0.101259321,0.104637420,0.061800085,0.166133392,-0.069518242,0.253760709,-0.004715535,-0.297726677,-0.146617294,0.065959536,-0.205306948,0.221765158,-0.122915681,0.332340048,-0.053543655,0.175131825,-0.153189543,-0.213321956,-0.093692331,0.100869738,0.058880484,0.058157447,-0.076791042,-0.007631673,0.056434146,-0.060159658,0.091964275,0.000885879,0.064647220,0.030072895,-0.011955230,-0.033740750,-0.060908839,0.245146817,
