// Neural Network File Format by Kyle Julian, Stanford 2016
61,2,2,10,
2,10,10,10,10,10,10,10,10,10,10,10,10,10,10,10,10,10,10,10,10,10,10,10,10,10,10,10,10,10,10,10,10,10,10,10,10,10,10,10,10,10,10,10,10,10,10,10,10,10,10,10,10,10,10,10,10,10,10,10,10,2,
0,
-10000.0,-10000.0,
10000.0,10000.0,
0.0,0.0,0.0,
1.0,1.0,1.0,
0.399095740,0.735961081,
-0.293879550,-0.162450161,
0.774067341,-0.553893646,
0.566400212,0.177290276,
-0.512309524,0.245655047,
0.307241000,-0.095987345,
-0.412936110,-0.281618322,
-0.751019517,-0.264662392,
0.326470707,0.263244839,
-0.199745811,0.524959232,
-0.224831616,
0.020123073,
-0.091450723,
-0.209122541,
0.016221465,
0.210041675,
-0.534256429,
0.165605471,
0.590760514,
-0.324784432,
0.512724767,-0.634126606,0.278397275,0.306519139,0.166508370,0.295208288,-0.104136028,-0.358408136,1.035090788,-0.098260410,
0.118241174,-0.694264120,0.122374727,0.247102413,-0.297015788,-0.181082953,0.000989904,0.402512813,-0.537363315,0.038223147,
0.779719597,-0.235734181,-0.219877061,0.501372146,-0.606814144,-0.652253871,0.036263917,-0.122513308,-0.302671800,0.377121207,
0.729249332,-0.423149946,-0.133044317,-0.713956298,-0.162867740,0.097894377,0.146960502,0.221355653,0.121446526,-0.569404524,
-0.361260124,-0.087333030,0.353761032,0.242288743,0.098501730,-0.355202376,0.139779319,0.359185820,-0.280427293,0.597806285,
-0.344333265,-0.257656682,0.072997075,0.723459289,0.366893004,-0.313873619,-0.243693186,-0.515093611,-0.613268572,0.302511506,
-0.036609045,-0.157049127,0.681129478,-1.490519116,-0.556326731,0.540264745,0.009648778,0.040357038,-0.034893859,0.186341785,
0.209522310,-0.070193839,-0.580039332,-0.198971566,0.148016357,-0.271427735,0.523295670,0.828318573,-0.463709593,0.005894579,
-0.256298978,0.708873822,-0.569539617,-0.632577386,0.432944006,0.547937732,0.237142102,-0.228893418,0.431556038,0.198516170,
-0.201864191,-0.349583247,0.233795533,0.652385504,-0.179872497,0.536018874,0.120557086,0.045985930,0.141308941,-0.220098758,
-1.031934163,
-0.511654962,
-0.235303670,
0.586310547,
-0.079203795,
0.227725213,
0.123357098,
-0.494896878,
-0.448686000,
-0.010156762,
-0.429219847,-0.133246718,-0.001299098,0.167893191,-0.665770150,-0.123899895,0.249179404,-0.039624528,-0.601668134,-0.122911485,
-0.736743718,0.305374924,-0.296259716,1.278032816,-0.264604860,0.419922109,0.568996284,-0.742308185,-0.479499104,-0.114781251,
-0.687048100,-0.411082458,-0.148353762,0.066066309,-0.658686577,0.062694214,-0.221315804,0.096304919,-0.211231132,-0.379569275,
-0.372416489,-0.166576076,-0.406339024,0.285495210,-0.551035049,0.549713489,0.171590479,-0.740598678,-0.322317498,-0.223678543,
0.119926890,-0.260888973,0.546254766,-0.041964847,0.584095905,0.189174631,-0.119471157,0.580881828,0.307922851,0.208952585,
0.267376043,-0.410259615,0.660112745,0.530239831,0.048595684,0.241814017,-0.519359079,-0.155675704,0.787837191,-0.028953870,
-0.100960847,0.103009645,-0.560769247,-0.137916989,-0.188189466,-1.375050831,-0.133729737,-0.267757998,0.771043394,0.716593642,
-0.249701836,0.121423511,0.948617579,-0.123257494,-0.124494556,-0.425869778,-0.146379205,-0.418885370,0.169913499,0.087751691,
0.443436453,0.438746383,0.066493565,0.544782934,0.666393887,-0.113747997,-0.458752036,-0.237847777,0.553557989,-0.366720073,
-0.321414603,-0.266159649,-0.459844839,0.813295656,-0.047658469,0.512161917,-0.031344956,-0.037299146,-0.483012809,-0.594056755,
-0.129140275,
0.951559366,
-0.182523272,
-0.398590130,
-0.295616821,
-0.346524177,
-0.578112599,
-0.147321884,
0.072928617,
-0.290354523,
0.109264645,-0.057731382,0.417260778,0.278143719,-0.181459247,-0.240539628,0.347711901,0.223238169,0.870397139,-0.137988702,
0.356694027,0.048199409,-0.792041841,-0.442622925,0.036046457,-0.408041243,-0.016385640,0.443588267,-0.234235347,-0.511780960,
0.623623754,0.467121291,0.168400432,0.010882855,0.493413449,0.610645772,-0.002957074,-0.259478004,-0.716761507,0.134435980,
0.153262433,-0.068603490,-0.385289121,-0.408684124,0.185490010,-0.266820195,-0.049528387,-0.534355030,-0.619353205,-0.537096974,
0.184687242,0.282439763,-0.244356582,-0.260301124,-0.084024716,0.417979194,-0.095189467,-0.224487177,-0.118679971,0.080786015,
0.330394022,0.047159328,0.598516468,-0.117494774,0.433439826,0.123316113,0.251808626,0.147063286,0.343074235,-0.095648612,
0.710292901,-0.828680105,-0.246975512,-0.093641824,0.018825336,0.138343773,-0.314862662,-0.056048146,-0.730496301,0.623837302,
0.060872186,-0.587825430,0.190572199,0.666700117,-0.178177949,-0.113786823,-0.383469571,0.351182926,0.982732127,0.296737821,
0.009836245,0.035630067,-0.555669710,0.333586307,-0.340668935,-0.978651694,-0.278465734,0.152891694,-0.488435195,0.460148472,
0.336049384,0.290626908,0.485831204,0.005299808,0.341464712,-0.229850623,0.724515164,-0.310084812,-0.238218737,1.003380044,
0.480742185,
-0.520813968,
-0.096180129,
-0.373176551,
0.127831226,
0.668159480,
-0.552056180,
0.565203980,
-0.286419676,
0.219138658,
0.482543583,0.385282259,0.305648377,0.024464570,-0.369698038,0.406995392,0.630233401,-0.209144906,0.091258076,-0.671337403,
-0.738814957,-0.747920421,-0.202414620,-0.506316360,-0.382656786,-0.503746353,-0.171354259,0.289534786,0.206321493,-0.161455370,
0.356078143,0.284447294,-0.015889289,0.705053882,-0.082648633,0.573019731,0.090973825,-0.082879314,0.210896843,0.173797508,
-0.574641181,-0.110539354,0.082733129,0.184302090,0.133152661,-0.280014104,-0.190031054,-1.060207050,-0.656502336,-0.047155801,
-0.609059756,0.245442657,-0.561255737,-0.103025355,0.642588497,-0.086449701,1.152484792,-0.226383838,0.323439612,-0.090314230,
0.720780907,-0.325115914,0.182012297,-0.466840308,-0.618543200,-0.440115884,0.159320748,0.078438060,-0.021225119,-0.420871020,
-0.067560326,0.257131335,-0.104611633,-0.036146045,-0.101883266,-0.352719686,0.335335407,0.878360806,-0.158183297,-0.250019225,
-0.113168651,-1.017173738,-0.006510037,0.027569226,0.054510834,0.033356786,0.302880641,-0.576886824,-0.206040507,0.252155688,
0.253159473,0.078405420,-0.102013909,-0.309774778,-0.063448343,-0.072268729,0.069213380,-0.279059208,0.644569853,0.065196997,
0.327131866,-0.169993188,-0.431227205,-0.092116565,-0.302509425,-0.574454642,0.356956270,0.297317637,-0.015609845,0.789794310,
0.194458512,
-0.168969381,
-0.064278580,
0.155899366,
-0.153508576,
0.062419228,
0.096234318,
-0.630916683,
0.117384672,
-0.276477236,
0.452800834,-0.234283234,1.025463788,-0.688343532,0.129886837,-0.135918701,-0.269167374,0.201931424,-0.127581218,0.449066375,
0.567150920,-0.112315303,0.328135664,0.314054673,-0.327609035,-0.842322256,0.605381227,0.220666738,-0.127808968,-0.748760970,
-0.236627876,-0.705951168,-0.204301308,0.299091050,-0.282474922,-0.447621662,0.547673336,0.367012530,0.642911805,0.064531556,
-0.506384568,-0.061763475,-0.302938552,0.512326567,1.124817930,-0.705298909,0.164806878,-0.286592827,0.093835460,0.317199814,
0.469737163,0.142554986,0.165435154,-0.292532347,-0.220161808,-0.129485725,0.220278098,0.100723661,0.223235738,0.146746902,
0.830178199,-0.067787950,0.305676302,0.279180436,0.120145968,-0.227415176,0.647493179,-0.184740397,-0.034644678,-0.467438408,
-0.049993731,0.232643095,0.218884234,0.114479174,-0.134158599,-0.375093670,-0.113384562,0.532658573,-0.427551088,-0.876489480,
0.531490660,-0.128482720,-0.689695259,0.379178360,0.372514513,0.265991783,-0.777167758,0.529685305,0.444460656,-0.480318035,
-0.055092082,-0.148050124,-0.888302441,-0.784122190,0.826848593,-0.622472174,0.263216129,-0.242383463,0.609709691,-0.502857779,
-0.134378920,-0.319712943,0.183596071,0.020500231,-0.030891509,0.180306916,-0.041253990,0.238372432,-0.481143221,-0.334156928,
-0.140105537,
-0.748344854,
-0.930282076,
-0.466806113,
-0.875050915,
-0.458754838,
-0.057061102,
0.282103273,
0.758147903,
0.438221052,
-0.322363066,-1.181115911,-0.141308379,0.143747448,0.035017005,0.222724645,-0.554802921,0.368399003,-0.489434944,1.038185820,
0.112791629,0.255030603,-0.042034182,-0.470599291,-0.438787047,0.376131477,0.634460805,-0.504150363,0.595473866,-0.143266134,
-0.239857090,0.512786133,0.156941582,0.372283851,0.041685186,0.331140942,-0.612246231,0.420165692,0.081202631,0.095110754,
-0.726928680,-0.207556616,0.910320088,0.147526327,0.114386216,-0.195694229,0.241254929,-0.215609110,0.380397846,0.441113598,
0.119119013,-0.003738201,-0.482209163,-0.024914340,-0.598628367,0.900905361,-0.191667183,-0.090157176,0.606982319,0.489655886,
0.717771666,0.598963517,0.244510577,0.590183258,-0.148095212,0.077023505,0.064822762,0.360522461,-0.528656644,-0.135883456,
0.506962561,-0.124963023,-0.345419052,-0.193602232,-0.579209995,-0.050292505,-0.481302806,-0.779415059,-0.561071991,0.395101324,
0.520181475,-0.177042216,-0.397684044,0.224110365,0.405096928,-0.606258955,0.090389126,-0.850018948,0.246506007,0.069414954,
0.577346477,0.912027438,0.096566848,-0.702556121,-0.017014275,0.628477664,-0.091359315,-0.523727372,-0.170314187,0.123918718,
0.669642918,0.084998919,0.294374130,-0.114560733,-0.234774607,-0.241372782,0.568015742,-0.347518723,-0.072803646,-0.268461085,
-0.339469818,
-0.070538386,
-0.108230255,
-0.432374356,
-0.770176111,
-0.398068065,
0.721086919,
0.253905312,
0.261056956,
0.255429732,
-0.502180217,-0.722467079,0.753577356,0.494425682,0.690225344,-1.264423703,0.096781654,-0.129933230,0.190072687,-0.284058594,
0.494232701,0.619072953,0.337466851,0.182489598,0.813129639,-0.210567830,0.198523744,-0.079465043,-0.043102236,-0.547670783,
0.217059800,-0.016404725,-0.543213338,-0.078364615,0.200681716,0.227921805,-0.315459046,-0.024399969,0.018482248,-0.428089176,
0.152236381,-0.162510413,-0.347563305,-0.563286296,-0.454034617,-0.413888737,-0.608745561,0.484825292,-0.108020737,-0.637846352,
-0.082650367,0.898789638,-0.590307166,0.556534919,-0.141206178,-0.046511684,0.204128008,0.551792876,-0.089580685,-0.909670210,
0.270836785,-0.332833054,0.184536660,0.385393743,-0.506433417,0.368097848,-0.177909628,0.271207385,-0.011138662,-0.719521222,
-0.694272547,0.448662433,0.054137410,-0.265049289,-0.096698874,0.113943676,0.114988099,0.287783200,-0.800204409,0.687660243,
-0.193829816,-0.482974170,0.094920541,-0.288024768,-0.261346344,-0.221934846,-0.043423611,1.111103625,0.025809272,0.371475945,
0.603759891,-0.422526046,-0.581510748,0.602025930,-0.293215039,-0.152509520,0.091310551,0.293138123,-0.176857281,-0.964169436,
-0.360321021,0.860706263,-0.088983078,-0.401648130,-0.504352977,-0.316561291,-0.227671584,0.251175499,-0.781887343,-0.386394456,
-0.255809679,
0.433299720,
-0.271381710,
-0.038368276,
-0.263674214,
0.008966191,
-0.281682904,
0.072653595,
0.163848463,
-0.428017973,
0.191265351,0.354093736,-1.109081978,-0.231060729,0.306122962,0.294272037,-0.461849894,0.053657835,-0.201222338,0.347596779,
0.736532064,-0.380027645,0.704034376,0.831416507,-0.054281060,-0.020522041,-0.933151214,0.356661754,-0.308588266,-0.304247729,
0.259264235,-0.315109884,-0.232294590,0.536652109,0.112757015,0.105154855,0.414967042,-0.051904391,0.258497055,0.337571773,
-0.917856926,0.159544143,0.076379795,-0.133682209,0.050446917,0.036684047,0.785703232,-0.026821471,-0.637108904,-0.925173678,
-0.271236456,-0.133748903,-0.393177256,0.585508057,-0.452229092,-0.120378858,-0.153298670,1.104010316,-0.301508696,-0.009603971,
0.235534547,-0.309747285,-0.076940672,0.047010068,0.233686984,-0.339509761,0.419930876,-0.086029297,-0.421002178,0.756400341,
0.093532350,0.129955578,0.172448221,0.060192794,0.011146291,-0.121160060,-0.262538873,0.597216092,-0.553309656,-0.415250050,
0.290186093,-0.294746327,0.153301086,-0.245179530,-0.057923875,1.284853092,0.160385394,-0.297648077,-0.397019851,0.411425609,
0.195137905,-0.073601416,0.182779998,-0.496814676,-0.168331525,0.112083803,-0.136455938,0.411155649,0.936188910,0.445372909,
1.183741526,0.348985902,-0.062939840,0.415087734,0.069696350,0.244644275,-0.368692199,-0.003618860,0.461617677,0.230523816,
-0.571152134,
-0.321984816,
-0.281829795,
0.248469312,
0.093999068,
-0.029354352,
-0.212418611,
0.083988519,
0.388126593,
-0.108333545,
0.537262908,1.132286107,-0.381960998,0.546450491,0.039625662,0.503734999,-0.364634615,-0.427618734,-0.945309297,0.282295266,
-0.097716806,-0.323729865,0.210235693,0.868033424,0.059548006,-0.381160613,0.034442514,-0.090088208,0.488373376,-0.194761744,
-0.398650775,0.271363608,-0.161117613,-0.013236373,-0.156979508,-0.327477800,-0.260068128,-0.057531679,0.279410664,-0.054351254,
0.607283983,-0.358053147,-0.238752848,0.330204880,1.112858429,0.433813284,0.547730244,0.742699241,-0.433055902,0.564940856,
0.596562892,0.684166356,0.351032244,0.097910723,-0.211266428,-0.375977629,0.574304522,-0.438197371,-0.075056918,-0.376175183,
-0.771536150,0.361669399,-0.282342333,-0.098349524,-0.432155300,-0.523965496,-0.031897033,-0.107337661,-0.230228198,0.000997381,
-0.043204902,0.475800553,0.045634033,0.291627361,0.296192332,0.633398698,0.280806126,0.228824046,-0.231640230,-0.235291651,
-0.497682450,0.295826577,0.436175450,-0.687219760,0.362345285,-0.184450849,-0.062469633,-0.254535339,-0.335019174,-0.375435734,
-0.359097295,-0.069051200,-0.634096278,-0.171521874,-0.255534273,0.448055363,-0.658461829,0.161285093,-0.221242302,0.132038141,
-0.130127944,0.607757986,0.243197379,-0.404334323,0.357698584,-0.934029663,0.351334782,-0.509810533,-0.834010025,0.263594438,
0.256572777,
0.429463963,
0.312706893,
-0.035721387,
-0.252011180,
-0.306129931,
0.010176888,
0.069506625,
-0.017715212,
-0.028971559,
-0.432743639,-0.642920770,0.426528633,0.354693543,-0.551343201,0.596153571,-0.066213138,0.705052624,-0.349167951,0.712175549,
0.034386035,-0.089930689,0.117453815,-0.449842573,0.019586680,-0.450988704,-0.049780004,-0.109100920,-0.209077932,0.125187896,
0.667451653,0.057264115,0.294062618,-0.544033855,1.004283329,0.578989721,-0.225497187,-0.078715740,-0.289807598,0.016229782,
-0.219171187,-0.385990913,-0.255597566,0.715937397,0.071674220,0.014751581,0.124761564,-0.526310755,-0.514542651,1.440799218,
-0.073992954,0.273591115,0.229672313,0.467122128,-0.349103738,-0.437419545,0.360727527,-0.385008115,0.741850823,0.682714393,
0.155668118,-0.430619367,0.435184407,0.335878000,-0.046387278,0.149929357,-0.382032585,0.073587674,0.619105070,0.185288203,
0.254063987,-0.443005022,-0.096836011,0.436499638,0.184126052,0.513796190,0.161697638,-0.915139043,-0.033472125,-0.771227091,
-0.198292080,-0.547711275,-0.278551867,-0.054611229,-1.021013854,0.088385507,0.910288320,-0.591451785,0.644363658,0.880366873,
0.761742217,0.449093122,0.212994589,0.153534957,0.063875876,-0.066584831,-0.082581978,0.069374627,0.126452951,-0.099595578,
0.138873435,0.390640000,0.002865486,-1.031720638,-0.454077016,-0.206337968,-0.925500322,-0.227403112,-0.312500839,0.145218074,
-0.329642843,
0.019905837,
-0.251582900,
-0.512729623,
-0.135115969,
-0.314968743,
-0.797523415,
-0.057162971,
0.164492225,
-0.319828610,
0.308276106,-0.284997072,-0.454545084,0.335642039,-0.039638437,0.100117219,-0.108223634,-0.351094145,-0.331615450,-0.183165870,
-0.276740818,0.427773000,0.935431813,-0.359743894,-0.090372275,0.046450037,-0.046826894,0.286837170,0.101216769,-0.441242121,
1.857107841,-0.805478291,0.394271291,-0.272599849,0.294773347,0.422803654,-0.047603374,0.761024097,0.633111335,0.875246633,
-0.106362006,0.452169585,-0.452933046,-0.256417243,-0.073706026,0.095907414,0.315305083,-0.717849382,-0.444330071,-0.555253574,
-0.326774036,-0.508587118,-0.386601423,1.088707980,0.329980451,-0.828732942,-0.286410117,-0.911275312,-0.297995781,-0.090306235,
-0.504568976,0.720019508,0.150298608,0.357661887,0.196492167,0.337059125,-0.200426134,0.043175177,0.728127642,-0.519886328,
0.045415480,-0.405013175,-0.355242928,0.026468342,0.677528336,0.400712773,-0.031812511,0.165040123,-0.755023721,1.167691940,
0.100496209,-0.135479556,0.021295547,0.271461363,0.099960104,-0.166126317,-0.035326790,0.183602022,0.113291943,0.423584577,
-0.531062335,0.127503881,0.486999270,-0.427767311,-0.136032529,-0.596660510,-0.385530219,-0.115777798,-0.363622047,-0.158120724,
0.159146848,0.256856632,-0.031694376,0.094333944,0.090428079,0.512488048,0.731918137,0.347845956,-0.225432504,-0.624759259,
0.359490348,
0.037664141,
0.156777504,
-0.119929015,
-0.137324735,
0.256713716,
0.110084420,
0.224334225,
-0.299147341,
-0.278749032,
0.273880424,0.095600941,0.008127011,0.187533601,-0.346455085,-0.432219952,-0.408851352,0.234997968,-0.267170736,0.025458285,
0.404978626,-0.168613207,-0.699931407,-0.387685254,-0.029419618,0.145032573,-0.791944788,0.313795149,-0.028843558,-0.067607731,
0.833967077,0.119457417,-0.569770138,-0.475828575,0.620901208,0.111031618,0.425596155,-0.562252620,-0.736585379,0.217781720,
-0.065072609,-0.376571611,0.479555086,0.691200456,0.390904611,0.085229813,-0.150833162,0.557537285,-0.283256168,0.723204423,
-0.170074632,-0.004208676,0.681697786,0.424637132,0.954362544,0.046262539,-0.319225760,0.047373859,-0.138262072,0.222634951,
0.521707519,-0.565201530,0.012705052,0.396531713,0.110354473,-0.084353829,-0.380406035,-0.380569667,-0.284349132,0.346051634,
-0.026201184,-0.017893373,-0.000574330,0.329937248,-0.386308316,-0.594312917,-0.086593403,0.286726423,-0.340567058,-0.082060890,
0.228384359,0.526875479,0.180527933,-0.080279714,0.032711688,-0.008438957,-0.035732668,-0.454352096,-0.500791939,0.350697886,
0.076184174,-0.090881609,0.031249778,0.150015986,-0.674904300,0.198348786,0.698436104,-0.190286696,-0.159392771,-0.373860058,
0.055718838,0.319606402,0.077217863,-0.407837258,-0.021463234,-0.397609601,-0.831807631,0.807766085,-0.543072257,0.216767282,
-0.352682009,
-0.118667670,
0.782611959,
0.529082591,
0.130154439,
0.248067091,
0.207769114,
-0.499260041,
0.441397900,
-0.345837530,
0.311596058,0.227480471,-0.048804783,0.025882266,0.243791154,0.214647740,0.995537377,-0.707123321,0.250442790,0.296232708,
-0.549735528,-0.027076349,-0.681603368,0.126119351,0.513850532,-0.174931095,0.696767840,0.619711427,-0.212373574,0.058536646,
-0.257954093,0.182307229,-0.587085607,-0.633969369,-0.352048249,-0.018605232,0.155104222,-0.658127408,-0.201250398,-0.256535737,
0.118219635,0.816795986,-0.009009335,0.523097863,-0.609486720,0.356893319,-0.283993537,0.017579483,0.519936229,-0.252198949,
0.606923089,0.025108766,0.036241339,0.386643239,-0.233851787,-0.597377515,-0.016177263,-0.065334247,0.466148772,-0.430267098,
-0.409072069,0.010096599,-0.183096930,0.166685900,-0.267388548,-0.643102217,0.026943981,-0.408102030,-0.371162782,-0.292575408,
-0.100290629,-0.083388866,0.321364761,-0.403621701,0.009876635,0.517275809,0.562701818,-0.198354845,0.257006424,0.004688544,
0.507330055,0.697671647,0.321850329,-0.308653644,-0.256191839,-0.198807786,-0.115221054,0.318778352,0.022881320,0.083028519,
-0.147287598,-0.009810034,0.244332977,0.040643673,-0.268602338,-0.625085230,0.685457708,0.351849052,0.049281211,-0.287923325,
-0.458291438,-0.321547922,0.366726989,0.443204756,-0.568368619,-0.151964479,-0.209967701,-0.402568113,-0.571897852,0.160499788,
0.171578110,
-0.595227615,
-0.360037762,
0.813447470,
0.286299160,
-0.095094485,
0.048867580,
-0.466226596,
-0.450748962,
0.511248242,
0.166782243,-0.614246828,0.339863207,-0.515029765,0.257967886,0.236572947,0.041321517,-0.190787291,0.111609065,-0.211400962,
0.355708090,0.017436584,-0.209396081,-0.605952240,-0.042154121,-0.063298150,-0.357536917,0.316194522,-0.287465541,-0.214047959,
-0.170175974,0.032030153,-0.332827157,0.268825120,0.741855739,-0.090209574,0.418378200,0.232685001,0.377825275,-0.107579848,
0.502734870,0.270407717,-0.053416025,-0.324874172,0.794441476,-0.196540279,-0.372642135,-0.614108361,0.069429931,0.140628361,
0.105691204,0.061415198,-0.341138541,0.194460800,0.320096081,-0.802606576,0.014436859,-0.139512667,-0.030783351,0.397109497,
-0.400177091,-0.207931714,0.471249513,0.429006285,0.288165771,-0.421923197,0.601271482,-0.153247941,-0.052632720,0.727558836,
-0.635129653,-0.102844665,0.203766875,0.560832439,0.324805783,0.130388450,0.291236933,0.529439477,-1.031449912,0.589665875,
0.354788502,0.294205745,-0.496028309,0.568284641,0.465110056,-0.294789916,-0.521252365,0.008570988,0.131493591,0.022310225,
0.045176246,0.198014711,0.263780953,0.346912355,0.303684513,0.046388874,-0.269101835,-0.749619977,0.401578321,0.390600684,
-0.326742502,-0.360171727,0.475710154,-0.371587484,-0.110351005,-0.231026919,-0.164322195,0.250577967,-0.181560499,-0.157935829,
-0.722301582,
0.514832502,
-0.122823666,
0.199523532,
-0.600974582,
-0.018605536,
-0.292678250,
-0.464311678,
-0.346575372,
0.430751909,
-0.587957566,-0.062387866,-0.562346129,0.110274869,-0.267125883,0.206453712,0.479398734,0.063201896,-0.567602848,-0.342631274,
0.422189153,-0.409619507,0.439093793,0.069885235,0.354137444,-0.080890234,-0.069453528,0.471315315,0.165018891,-0.331220756,
0.696681532,0.034040029,-0.285855881,0.097193565,-0.884952899,-0.153911842,-0.216646717,-0.193800505,0.370897139,0.329363903,
-0.140278438,0.481067326,0.300707783,-0.126274288,-0.090176674,-0.272192332,0.182636688,-0.022433427,0.139940690,0.421430408,
-0.005208344,0.106547380,0.301903373,-0.113671217,-0.222971565,-0.312849077,-0.399511146,-0.516252302,0.308789710,-0.118268668,
-0.289647855,-0.567790748,0.151906129,0.502564760,0.324016476,0.091716924,0.108648187,-0.075790794,-0.675775120,0.663409445,
0.353006833,-0.622525566,-0.250961108,-0.012647177,-0.693431915,-0.336000104,0.402105577,0.095554110,0.139312091,0.105735666,
-0.436707797,0.292710810,-0.039795501,-0.725238740,-0.152602457,0.496378119,-0.096658526,0.164146914,0.069401000,0.260651573,
0.365666982,0.908735367,0.555356656,-0.809576048,-0.077761630,-0.240065080,0.937988231,0.605488163,-0.152601032,-0.675575545,
0.104434859,-1.046440250,0.514211826,-0.286645448,-0.176111818,0.464274701,0.068138857,0.069083586,-0.257559263,0.216437179,
0.437134587,
-0.590788204,
0.332439244,
0.423486340,
0.326700050,
-0.217843072,
-0.122313101,
-0.432125254,
-0.303185299,
-0.612365792,
-0.003396471,-0.522927033,-0.141881440,-0.089809013,-0.425527656,0.072613202,-0.413538093,-0.557093088,0.031586366,0.125259851,
0.644149854,-0.124011328,0.026944272,-0.258405668,0.042089246,0.277817775,-0.562717750,0.160386003,-0.300305120,0.657543528,
0.267215766,0.134287049,-0.463854191,0.663219805,0.727176084,0.046471636,-0.193959220,0.563044584,-0.290535658,-0.260805522,
0.567129991,-0.784399008,0.227299079,0.366912426,-0.604605616,-0.121308778,-0.122292172,0.328124271,-0.172644859,0.008216552,
0.092074419,-0.312849748,-0.650097464,0.234692004,-0.927044664,0.440061515,0.624681066,0.271434768,0.412483105,0.268515769,
-0.241872453,-0.453267033,0.313219978,0.145211550,-0.889401975,0.416545245,-0.268785824,0.333092607,-0.243128786,-0.051374715,
-0.571102449,0.445950198,0.124431291,-0.436332789,-0.558890072,-0.166113904,0.173866882,-0.155652063,0.347868566,0.819464329,
0.024757519,0.157186915,0.341861266,-0.729398053,-0.460305776,-0.594191823,-0.296095744,0.547327437,0.534495169,-0.308730998,
-0.474152662,0.381665282,0.373992280,-0.453540502,-0.158790436,-0.219491627,0.588606906,-0.120867031,-0.942106957,-0.435647157,
0.058292250,0.234399142,0.213380957,-0.180711374,-0.364968615,-0.070117661,0.056383758,0.345272565,-0.407762021,0.465120036,
0.015384327,
0.487816341,
0.398562126,
0.377210235,
0.703490981,
0.015213704,
-0.520290843,
-0.468895797,
-0.205566480,
0.183292808,
0.076358943,0.246965772,-0.361609773,0.805964347,0.083914083,0.340383373,0.277922930,0.242617081,0.959730601,0.363899578,
-0.546813093,-0.073239538,-1.059207837,0.327677808,0.520819241,0.143443576,0.132138417,0.549301539,-0.302609179,-0.080421563,
-0.097969886,0.117725454,0.566740092,0.174247215,-0.106587516,-0.409443116,0.137681582,-0.059220492,0.638158488,-0.549489070,
-0.114917888,-0.155755605,-0.181193247,-0.128880648,-0.661393308,0.500157121,-0.095472928,-0.024682770,0.034843328,0.609945915,
0.122466084,-0.127768052,-0.239142285,-0.215909743,-0.578955222,-0.116548894,-0.075604293,-0.196384204,0.241058049,-1.195025380,
-0.257586315,0.041707068,-0.103219659,0.049178718,0.135426087,-0.846261524,-0.486058550,0.046759457,-0.456989046,-0.451141202,
0.350634242,0.418709392,0.354989628,-0.105975749,0.364942171,0.044362645,0.386696216,-0.116383256,-0.099106263,-0.267908203,
-0.228260453,0.338195073,-0.013466501,-0.185909835,-0.130109515,0.260638439,0.430140425,0.177961856,0.249522705,0.215932235,
-0.083234729,-0.717845003,-0.593267157,0.248143335,0.234944864,-0.315448820,-0.301009982,-0.654662790,0.201594403,0.428533530,
0.104205476,0.308054354,0.141870488,-0.094041302,-0.147515208,0.079606732,-0.112783708,0.306739968,-0.902954074,-0.111821636,
-0.050619239,
-0.217397872,
0.730233442,
0.282966123,
0.360887453,
-0.193633010,
0.155129990,
0.191716906,
-0.266235934,
0.713015462,
0.304122219,-0.340035404,-0.064929628,-0.856147445,-0.005058834,-0.924745394,0.537380989,0.351534520,-0.034485444,-0.651488656,
-0.071187986,0.201488386,-0.144264167,0.131623081,-0.281163582,-0.292883119,0.265401452,-0.825487505,-0.115940318,-0.161286705,
-0.210475291,0.659451377,-0.461211701,0.597610953,0.312611767,0.014308460,-0.222217425,-0.381161833,0.397090118,0.153854382,
-0.173713531,0.011119924,0.440868358,-0.507244002,0.073559571,-0.027789321,0.009846570,-0.075393328,0.059234123,0.524480740,
-0.333683485,0.038724323,-0.570310219,0.683340236,0.294639327,-0.322668534,-0.257953593,0.345331826,-0.404233622,-1.403332477,
1.010870340,0.345800937,-0.215635845,0.071202446,0.063072836,-0.989971889,0.204764670,-0.183269966,-0.207467740,-0.048553771,
0.566700007,0.029055671,0.231973152,0.329908285,-0.371981012,0.008017469,-0.130639635,-0.292222567,-0.622375150,-0.423089682,
-0.594422567,0.430654156,-0.388038012,-0.307533488,0.215111579,0.514001300,0.018641936,0.225653126,0.418229685,0.159227528,
0.008340989,-0.467790992,0.094118198,0.075530900,0.489634710,-0.554107185,-0.468617307,-0.178058218,-0.234037213,0.397391381,
-0.182476017,0.420131877,-0.524973071,-0.882752694,-0.310784165,0.676682053,0.000377758,-0.412738189,-0.255178249,-0.357832822,
0.337386030,
0.291025420,
-0.558738379,
-0.123080640,
-0.188869923,
-0.102437291,
0.099258782,
0.349522354,
-0.332069333,
0.142307552,
-0.102365543,-0.102564289,0.062621018,0.405392876,0.607870445,0.056590586,-0.561714382,-0.182785193,0.129999207,0.526669988,
-0.051498119,-0.432897307,-0.125502042,-0.109804022,-0.588114790,-0.551175854,-0.608200023,0.159474205,-0.419651975,-0.088286423,
0.443354061,-0.184816911,-0.388999466,0.455514624,-0.422997654,0.173300242,-0.091439058,-0.384838566,-0.416133376,-0.104200377,
-0.288033329,-0.382564948,0.441802115,0.406449783,-0.208904140,-0.567183657,0.081692925,-0.308933904,0.241272874,0.390946618,
-0.828804321,0.658773818,-0.351158179,-0.603540186,0.164403718,0.080335057,-0.629949870,-0.631171712,0.576181437,-0.863576477,
-0.079106519,-0.112211032,0.773719699,-0.150859460,0.468546805,-0.297892552,0.395032486,0.271498765,-0.456082056,0.169769192,
-0.018562641,0.302472684,0.111646569,0.358842004,0.274422010,-0.294265226,-0.016993366,-0.420125289,0.288135963,-0.234210800,
0.025236107,-0.946110094,-0.566072417,0.124079105,0.282796315,-0.206742313,-0.680150453,-0.597732748,-0.280392240,-0.742476902,
0.697308802,-0.049449573,-0.455830236,-0.376817655,0.353036401,0.090270475,-0.186809730,-0.650377659,0.073532794,-0.183005605,
-0.489283844,0.213057909,-0.164013772,-0.323213892,0.106461376,-0.240947278,-0.950267782,-0.171560868,-0.045127212,-0.444388459,
-0.120675478,
0.315223397,
0.246869612,
-0.381219915,
-0.360293130,
-0.481055814,
-0.103275635,
-0.710025001,
-0.295466307,
-0.018303437,
0.053697089,-0.264791110,-0.384515024,-0.615018938,0.571471397,0.696324692,0.216623907,0.404203674,-0.835139489,-0.026181732,
-0.784094871,-0.489812784,0.599490747,0.134569147,0.405816073,0.288164260,-0.192183436,-0.066733936,-0.726865921,0.086151757,
0.055224191,0.206629086,0.193581492,-0.247392390,0.635646173,0.760867327,0.364198074,-0.292298523,0.596924357,-0.409397371,
-0.482445859,0.063902436,0.532456968,0.507115329,-0.322874727,0.593119855,0.382167159,0.057900191,-0.381281989,-0.650457756,
0.043686392,0.062687603,0.226803181,0.732161601,0.418659047,0.486774858,1.027082432,-0.201691760,0.265777037,0.360113103,
0.360840891,0.724935564,-0.101734305,-0.326341890,-0.580496775,-0.219483803,-0.040642394,0.070314976,-0.471978820,0.411348425,
-0.790547899,0.406831006,-0.419994465,0.443876393,0.104951831,0.785068268,-0.411302260,-0.481389463,0.382759331,-0.113274138,
-0.287338728,-0.366033055,0.490215931,0.445401229,0.422302804,-0.269726407,0.893256263,0.469249860,-0.286932526,0.195589971,
-0.147728600,0.330352577,0.145474841,-0.370456056,-0.115129814,-0.247674392,0.300112588,-0.390795664,-0.077682521,-0.292846915,
0.182096476,-0.432006946,0.608571126,-0.604277540,-0.092725909,-0.441972022,-0.345403142,-0.389564792,0.139219929,-0.391153614,
0.847783919,
0.723105648,
-0.802925003,
-0.495649162,
0.106518398,
0.053255626,
0.275142623,
0.205829384,
-0.286102332,
-0.410511985,
-0.027756305,-0.314875005,0.579091231,-0.460673855,-0.837681210,0.020340814,-0.216739199,-0.695143699,-0.261827351,-0.132531637,
0.570699192,0.292833371,-0.228343781,-0.445916777,0.073923151,-0.093807634,-0.361730646,0.201483479,-0.508707296,0.281024215,
-0.078888240,-0.135233667,0.255111387,-0.034544630,-0.082477021,-0.223873559,-0.138151223,-0.453176677,0.395108811,-1.108704326,
-0.137391597,0.241921995,-0.620713847,0.476975826,-0.633615108,0.581230428,-0.513146251,0.441353861,0.135447994,-0.213680244,
0.785723976,0.453342804,-0.134152505,-0.648480725,-0.194094599,0.316602914,-0.007307545,0.580364676,-0.233853244,-0.098975232,
0.122336927,0.415578816,0.492656592,-0.501555312,-0.108115182,-0.620361497,0.235688779,-0.171039010,0.301710941,-0.102668536,
0.576068638,0.048114547,-0.219859473,0.260533652,0.249205802,-0.328154753,-0.227075750,0.376051650,-0.370684254,-0.175957003,
0.656905147,-0.097035556,0.648792667,-0.210709238,-0.128555288,-0.691663023,-0.587660975,-0.272176253,0.012301540,0.148135225,
0.279910656,-0.770878746,-0.572119201,-0.232969574,-0.394457612,0.753115060,0.153744639,-0.800091205,-0.157879287,-1.138346792,
0.641296243,0.461596744,-0.162744683,0.162669518,-0.398334786,-0.400318901,-0.436105760,-0.065497923,-0.250901613,0.455459776,
0.428999973,
-0.563451889,
-0.122448360,
0.026448884,
-0.006378566,
0.417976856,
0.104393070,
-0.435314040,
-0.584951044,
-0.877985583,
-0.329233852,0.202198668,-0.043699151,-0.105894123,-0.031587980,-0.041215560,0.042111215,-0.132697626,-0.278345904,-0.050797024,
-1.381337861,0.028603944,0.137533334,0.349976109,-0.142886909,-0.069151059,0.129866685,0.616606921,-0.659474780,0.535663377,
0.201385728,-0.138735998,0.260635814,-0.799344349,-0.057836839,-0.060724435,0.371373731,0.553261633,-0.569406396,-0.441679991,
0.236020085,-0.093374687,-0.131606636,-0.280654727,-0.170768724,0.158760668,-0.270490494,-0.249139566,-0.246762873,0.246011879,
0.292449648,0.253166803,0.150851323,0.566906257,-0.351548342,1.065870221,0.268152822,0.036771114,0.450885738,-0.152881473,
0.712268960,-0.259430383,-0.099611764,0.630747805,0.664031404,-0.574123819,0.198288133,0.391821430,0.340214612,0.039597301,
-0.398410803,-0.237111452,0.041588055,-0.039492185,0.278998718,-0.332605499,-0.824221974,0.581350604,-0.078676835,-0.520241988,
0.443743807,-0.604068103,-0.191544079,-0.353070631,-0.134685046,-0.051427643,-0.096332809,-0.261592002,0.974517255,0.104520597,
0.028251188,-0.333959963,-0.032339678,0.324333278,-0.595078849,0.220526046,-0.238498488,1.166854956,-0.493487912,0.667216198,
0.101820502,0.483401859,0.069539524,-0.196354344,0.087402058,-0.622424565,-0.160832253,-0.197821861,-0.975756370,0.440439245,
0.534590735,
0.383278974,
-0.087912009,
-0.372456376,
0.423679118,
-0.130249876,
-0.364061032,
-0.014240994,
0.122531921,
0.598360293,
-0.346896973,-0.058011505,-0.217455866,0.337641326,0.140788101,0.741423188,0.296712514,-0.240219950,0.536675304,-0.178279053,
-0.499925642,0.053708813,0.456575347,-0.091258092,0.140647365,0.316515165,0.771451452,-0.683048128,-0.515166939,0.737778556,
-0.373596022,0.219993684,-0.693718738,-0.615881270,0.034519505,0.034017154,0.183616015,0.646024961,-0.099634103,-0.730322390,
0.316409459,0.219147874,0.404224634,0.402005829,-0.801677300,-0.495884720,0.321127584,-0.213692764,-0.068566218,0.526985733,
-0.300293494,-0.301694722,0.368746960,0.654881815,0.036929384,0.714304576,-0.004486395,-0.161151969,0.192739538,-0.289514826,
-0.186685255,-0.064617345,0.285279959,-0.121011671,-0.155236579,0.102337618,-0.166952475,0.383000105,0.428902871,0.099637510,
-0.026162662,-0.028317765,-0.656468097,0.298549618,0.098974594,0.043588354,0.466134694,0.312181686,0.109309990,-0.102206419,
-0.564759143,-0.073199331,0.361805166,-0.799049811,-0.060946023,-0.466735616,-0.145334674,0.583960666,0.180672833,0.074173619,
-0.015408097,0.493221339,-0.164183686,-0.811279116,0.188392509,0.061275913,0.227515046,0.009544688,-0.666559349,-0.338279947,
0.117896826,0.178120560,0.364860691,-0.737607548,-1.103384741,-0.177248359,0.109487235,-0.122765509,0.057681209,-0.259700557,
0.657667445,
1.117659723,
-0.376121129,
-0.441808368,
-0.268034517,
0.445013211,
0.161719926,
0.119301700,
-0.588550173,
0.285689838,
-0.868249756,-0.249973713,0.095400452,-0.670599792,-0.482384200,-0.165136890,0.411157016,0.082852526,-0.058954840,0.201988156,
0.201993011,-0.381878149,0.665686952,0.209864822,-0.688314549,-0.468972403,0.397633351,0.117033359,-0.445947096,-0.603675402,
0.197935814,-0.248613991,0.613283388,-0.058222148,0.411326526,0.237677538,0.216809905,-0.720494560,0.286401570,-0.816385307,
-0.157096434,-0.640314352,0.028383125,-0.046170976,0.537271478,0.201926824,-0.028972909,-0.055258910,0.649695422,0.107605528,
0.889034734,0.065321984,0.115347325,0.102228931,-0.530506049,0.288758911,1.036457554,0.867921127,-0.119752270,0.666113304,
-0.019206803,-0.209049381,-0.103176801,-0.814683163,-0.401633998,0.161991837,-0.089457933,-0.068285784,0.396843719,-0.978400720,
0.137365134,0.392574304,0.085434491,0.252927476,-0.600409577,0.071737884,0.091816474,0.167415606,0.928342782,0.348557181,
-0.279046273,-0.325612851,-0.268902067,0.243815988,-0.175887766,0.083604868,-0.238441976,0.181395106,0.346254583,0.596833980,
-0.240523202,-0.296139687,-0.677482099,0.522889649,0.506610494,0.371954642,0.015134003,0.339217606,-0.222583007,0.537973611,
0.692918260,-0.105167216,-0.261567172,-0.546447383,-0.494041565,0.173615525,0.611610524,0.669280087,-0.288825704,0.050464778,
-0.077457470,
-0.943497678,
0.175235530,
0.011312752,
0.566027416,
0.243066613,
-0.508593310,
-0.255542678,
0.278672530,
-0.422563207,
-0.264323244,-0.566053913,-0.012306302,-0.355627729,-0.442515143,-0.597114158,-0.259462339,-0.346153732,0.313454029,0.280473716,
0.181830458,0.038423077,0.572488669,-1.030362773,0.125119626,-0.378032232,-0.059202478,-0.531253817,-0.298844810,0.314946903,
-0.051706447,-0.726510591,-0.223930000,-0.065037081,-0.251647204,0.072480902,-0.714697302,0.118720601,-0.884727436,-0.308337666,
0.023423336,-1.314611013,-0.112168021,1.244809094,-0.384280980,0.137118891,-0.154716585,0.107244147,-0.499163040,-0.122943010,
-0.254552250,-0.222517036,-0.041785082,-0.230685663,0.723435852,0.542095526,-0.464258302,0.362157732,0.204690789,0.220892414,
-0.105463115,-0.624555890,-0.456217535,0.886973425,0.905251233,0.031157056,-0.289997086,0.601077054,0.320864228,0.181635503,
0.174186701,-0.032200974,0.131521486,0.211890979,0.044973426,-0.069654068,-0.249028842,-0.289071683,-0.222837332,-0.302747712,
0.071820987,-0.119279702,-0.347677568,0.456338718,0.536897748,0.063426863,0.474244988,-0.547553409,-0.359793837,0.358134623,
0.004583598,0.077682322,0.292316123,-0.751054475,-0.206176285,-0.378881656,0.349666158,-0.523905865,-0.450068393,0.089827993,
0.521419577,0.170539612,0.060346939,1.022218128,0.345739438,0.065615906,-0.310577936,-0.234934386,-0.638768214,-0.583884597,
0.001359137,
-0.129150897,
0.014233028,
0.334934784,
-0.216556037,
0.811969832,
0.018080928,
0.058422581,
0.659741033,
-0.007750779,
0.319924050,0.072235549,-0.706656557,-0.038697544,0.357319861,0.474441416,0.088711471,-0.041079734,0.354277161,0.161683120,
-0.097047513,-0.115416356,0.414397166,-0.440753753,-0.105896371,-0.104415182,-0.931066748,-0.373418407,0.141976932,0.215358341,
-0.201427317,-0.254257291,0.699915572,0.096250170,-0.419282628,0.423839378,0.798099149,-0.667779876,-0.132251036,-0.205862712,
0.216633443,-0.024334325,0.015193158,-0.903645058,-0.788507724,-0.237249483,-0.603269550,-0.023244628,-0.079193884,0.197680002,
0.187965320,0.618166663,0.451125957,0.505545548,0.619889039,-0.103616179,-0.084319089,0.522796405,0.177376772,0.393334061,
0.193350486,-0.701261715,0.051028630,-0.039115359,-0.010557990,-0.552729562,-0.059358187,0.384883626,0.101334895,0.019866946,
-0.508786821,0.481108601,0.450176828,0.498613678,0.787960845,0.240398286,-0.203971593,-0.544471013,0.524651180,0.564562584,
0.364952617,0.404892895,-0.468311749,-0.172310093,-0.551855901,0.134247864,0.438369256,0.076963668,-0.659228779,0.799326298,
0.464741393,0.255554017,-0.380717205,0.093105816,-0.076738529,0.417121961,-0.206810718,0.329749334,-0.030822086,-0.356509598,
-0.786114569,-0.440531850,0.595632990,-0.002885500,0.683667431,0.084869062,-0.120936705,0.443317605,-0.239350732,-0.314079728,
0.868041265,
0.815789434,
-0.171692858,
0.929723258,
0.331437675,
0.196679073,
0.446538260,
0.105092351,
0.486596183,
0.220473790,
0.171681164,-0.614723811,0.491326146,0.566802888,0.054482267,0.240331459,0.474468856,-0.567594339,0.392678081,0.045723414,
-0.203139500,-0.057282252,-0.209752917,-0.263125625,-0.372181433,-0.442256643,0.337298136,-0.156999380,-0.416153503,0.018670246,
-0.088587912,0.301359338,0.171820279,0.837746057,0.369168752,0.174982342,-0.167072103,-0.260161708,-0.252211349,0.095430331,
0.745823516,-0.263423936,-0.340757040,-0.887506359,-0.008100402,-0.366960347,-0.218828069,0.353349605,-0.199380022,-0.069009942,
0.340435369,0.199964319,-0.074660959,-0.117980244,0.155297717,-0.741906754,0.568947949,-0.310572549,-0.168692552,-0.521404642,
0.075364205,-0.271832286,0.133856851,0.112983254,-0.161398224,-0.206909660,-0.544560076,0.303784105,0.163652724,-0.696511007,
-0.070811402,0.482035052,-0.410486266,0.622810077,0.130483308,-0.206944356,0.136963606,-0.090101800,0.106289435,-0.115887391,
0.167316840,0.038012865,0.183928740,0.204365711,0.000418272,0.532279987,0.010781972,-0.454545285,0.241730945,-0.685499410,
0.472024240,0.319742932,0.348745259,-0.117327025,0.275589931,0.327985536,-0.029880972,0.186817864,0.099274950,0.067590029,
0.000109038,-0.238205105,0.267638848,0.472249268,-0.271356531,-0.164535101,-0.000530316,-0.121473093,0.506189389,0.151876567,
-0.271020415,
0.441518498,
0.294074270,
0.038866509,
-0.129552002,
-0.103623377,
-0.200403279,
0.502906686,
0.320211438,
-0.011603773,
-0.215070886,-0.155219735,-0.576387939,-0.565072019,0.559411438,-0.340850011,0.476342088,0.312582054,0.306082720,-0.063983738,
0.454575286,-0.526197519,-1.015794082,-0.366449533,0.204987769,0.796269504,-0.666908474,0.256320309,-0.303309543,0.638739634,
0.049663311,0.045582688,-0.087911368,-0.354721705,0.063024674,-0.363593109,0.227896720,0.068722753,-0.135467427,-0.204348354,
-0.023465898,-0.552553511,-0.444137494,0.015845530,0.001399420,-0.409323307,0.003951188,0.157452890,0.765934584,0.091634807,
-0.830317988,-0.327209628,-0.309571869,0.170647154,-0.246247292,-0.194636421,-0.655019515,0.166377953,0.620749289,-0.251695893,
0.152551887,0.098665983,0.222879121,0.009527044,0.111198391,-0.218601287,0.686308269,-0.620657278,-0.427230206,-0.918264607,
-0.036850151,-0.167465602,0.002129071,0.208041351,0.577457203,0.287249565,0.171929616,-0.227335418,0.257910858,0.015991689,
-0.667812065,0.009354638,0.375402594,0.494439048,-0.142142862,0.448198931,-0.091378324,-1.021749891,0.487732867,-1.118529033,
0.542523879,-0.419552434,-0.253307126,0.289590164,-0.109996623,-0.708522764,-0.708189407,0.307803264,-0.089910013,-0.478942411,
0.350259963,0.107114786,-0.718638216,0.237252153,-0.034660297,-0.048112137,0.219698397,-0.183458778,0.680178309,-0.068393609,
0.095263369,
-0.122252338,
-0.946877477,
-0.008785082,
0.173853174,
-0.221313780,
0.451508041,
0.108392529,
-0.269415374,
-0.757549846,
-0.735501021,-0.232508241,-0.004544259,0.244953777,0.238580843,-0.338016247,0.408518852,-0.303569321,-0.157484174,-0.684711250,
-0.225198554,0.310463892,0.313902207,0.299024293,-0.070968298,0.255480212,0.303370940,-0.937243904,0.126335259,0.323872185,
-0.444981763,0.364068319,-0.229352091,0.824479366,-0.263136254,0.088536284,-0.378578421,0.256852753,-0.182791897,0.086744166,
0.420585837,-0.364638504,-0.143448193,-0.256189687,0.689848448,0.469509264,-0.734030779,0.500906827,-0.671252013,0.161777792,
-0.096715754,-0.390707420,0.268817825,0.444355850,0.093149247,-0.433632774,0.341279138,-0.009324068,0.202148322,0.741293053,
-0.304169996,-0.448089105,0.475640375,0.332362232,-0.540584321,0.213913592,-0.680436444,-0.098339963,0.008105499,-0.025491284,
-0.778279775,1.043493653,0.008027818,0.026163397,-0.555020839,0.341611335,-0.108266041,-0.296517779,-0.226517340,-0.270501139,
-0.193883697,-0.562557031,0.551540242,0.096263093,-0.831657871,-0.113414251,0.231659496,0.945707403,0.194573489,-0.248046352,
-0.227939116,0.875917915,-0.086018136,-0.221763567,0.218694792,-0.498794875,0.357101429,0.593131289,-0.157002207,0.498510566,
-0.267964075,0.895009195,-0.090433782,-0.349360135,-0.499360094,-0.364483474,-0.631367337,0.076227338,0.284139592,-0.409164405,
-0.067512585,
-0.129970384,
0.465954678,
-0.009250815,
-0.398428337,
-0.626664256,
-0.146522019,
0.198184757,
0.061790924,
-0.142288525,
-0.359067458,-0.704440383,-0.035130465,-0.047915024,-0.332434975,-0.035523606,0.529979755,-0.084148859,0.193626125,-0.034861372,
0.335587137,-0.364469361,0.021219678,-0.228101656,0.673742104,-0.531644519,0.128518166,-0.431306385,0.092845429,0.559512021,
-0.473346176,0.397605277,-0.124278041,0.058458154,-0.070079744,0.537593528,-0.371778507,-0.003050383,0.111871597,0.825470504,
0.060394037,-0.715476299,0.431082026,0.150588467,0.517558060,-0.013526190,-0.150106247,0.241082284,0.085480461,-0.533202556,
-0.357633845,0.155232118,0.025726573,0.702008772,0.373813658,-0.027021633,-0.302319442,-0.134148578,-0.522828295,0.199776211,
-0.283127187,0.245908062,-0.165017288,-0.387421792,0.311104127,0.186347051,0.459178821,0.410689408,0.070020840,-0.366289117,
0.197965029,-0.321002888,-0.275947087,-0.423194793,0.007347361,0.183936655,0.076983856,-0.092000634,-0.044672141,-0.511643712,
0.294512018,-0.044985757,0.703694251,-0.523276316,-0.193278499,-0.000393327,0.050139552,0.308604280,-0.242084659,-0.594243461,
0.440169624,0.011768006,-0.745097512,1.063816484,-0.661483975,-0.644699897,-0.798939820,0.502639483,0.417262155,-0.269708430,
-0.584683415,0.203916528,0.127357996,0.290263255,-0.220740333,-0.064136345,0.153879356,0.610494716,0.219748839,0.127691043,
-0.009369038,
0.208871151,
0.371571775,
0.430669777,
0.533478306,
0.184816722,
-0.689992601,
-0.211925964,
-0.006273815,
-0.490036956,
-1.298906992,0.205612729,0.216184210,0.048195465,0.432585963,-0.557579652,-0.473335659,0.457533988,-0.075058291,-0.555377143,
0.512551044,0.622576063,0.114243217,-0.101195579,-0.025032169,0.598029829,0.018312307,-0.049917126,0.385798385,0.059929550,
0.279660140,0.434937393,0.343377021,0.509538207,0.630170438,0.503011712,0.355110399,0.175034377,0.264653815,-0.673892360,
0.272540235,-0.186444405,-0.334033815,0.233251966,-0.360837498,-0.442148969,-0.742122677,-0.141883951,0.807609128,-0.097630593,
0.021118673,0.916039937,-0.327965872,-0.479106350,-0.064577093,0.030619162,0.019449096,-0.326733452,-0.127627084,-0.156165832,
0.121293156,-0.074280709,-1.063321662,0.159221465,0.055528263,0.114021587,0.110884384,-0.375021241,-0.389657124,0.346872520,
-0.344819259,-0.247083380,0.146617045,0.848627744,0.502738038,-0.269271937,-0.088113550,-0.076530750,0.340532423,-0.123766718,
0.292658879,-0.338384011,0.472637593,0.007069616,0.634909773,-0.594473519,-0.187523228,-0.459187285,0.343290277,-0.442471930,
-0.260110433,0.523631356,0.301459661,0.224698381,-0.754335975,-0.978681500,-0.022836000,0.064614665,-0.390773871,-0.690642373,
0.062324379,0.157213924,-0.844242753,1.271873718,-0.208536132,-0.334680770,0.347015874,-0.269568744,-0.099434815,0.433553218,
-0.566188865,
-0.213619614,
-0.598930055,
0.233389661,
0.096548808,
-0.250435811,
0.314049757,
-0.935355926,
-0.053828835,
-0.176985560,
-0.771307674,0.189596119,-0.371189898,0.788164654,0.442219536,-0.348126041,0.050452701,-0.126685913,0.278145343,-0.078153113,
-0.035411496,0.601937029,-0.546934854,0.330302840,-0.341103069,0.433978717,-0.039979002,-0.606539913,0.315889234,0.354613468,
-0.080835443,-0.269681242,0.076047294,-0.729459122,0.214237323,0.595979805,0.007280623,0.470093483,-0.110285530,0.343715956,
-0.842053855,-0.316854353,0.250236475,-0.127591492,0.096798990,0.872132135,0.085604759,0.176080013,0.149299699,0.076913957,
-0.513248981,0.807702643,0.072205435,-0.504235821,-0.167948229,0.022739402,-0.316854420,0.071429113,-0.393548103,0.280737310,
0.261624389,-0.423764864,-0.237204204,-0.370278321,0.028986673,0.515948638,-0.008335863,0.003517562,-0.203374561,-0.261795111,
0.098276171,-0.176401886,0.171325910,-0.009232350,-0.077844163,-0.251301713,-0.033894131,0.135392453,1.086065471,-0.103091293,
0.283255990,-0.406154523,0.670777400,0.792437845,0.877201707,0.591184051,-0.600703626,0.369250964,0.379638126,-0.077360903,
-0.065375030,0.266173853,0.265315835,-0.010399416,0.075766803,-0.486748831,0.102330687,0.338151787,-0.176638982,0.175278639,
0.425113448,0.090822170,-0.106123763,-0.234317641,0.579685843,0.081520665,-0.022394783,-0.070588668,0.109969265,0.589515034,
-0.041416645,
0.088855144,
-0.889209040,
0.193723200,
-0.097568357,
-0.504165947,
0.406362900,
-0.322726042,
0.096208828,
-0.561018347,
-0.069857459,0.519097800,-0.425213689,0.691754394,0.073918489,-0.059705730,-0.146844551,0.142325471,0.314270328,-0.490047451,
0.293527465,0.001286711,0.106057364,0.223118864,-0.298134694,-0.422968885,-0.553234749,-0.096302915,-0.058125499,-0.347372703,
0.320938591,-0.617860484,-0.004247460,0.038298581,-0.068547933,0.260616863,0.303339294,-0.220148752,1.251141887,-0.033678145,
-0.011821810,0.505104495,0.274514242,0.434504115,-0.061504903,-0.006760407,-0.796516856,0.166362444,0.060487220,-0.505208642,
0.463926614,0.159060532,0.309321828,-0.488890979,0.231858976,-0.278887637,0.147595469,0.018987241,-0.313157589,-0.466806150,
-0.223123572,0.568209558,-0.709230978,0.280945088,-0.300407080,-0.210627777,0.187499268,0.035021420,0.573127666,-0.256020619,
0.139882841,0.149377744,-0.331695680,-0.421546205,0.359690361,0.157157677,0.485116674,0.203424159,-0.221780332,0.625016341,
0.139137962,0.003294175,0.627621419,0.152454146,-0.038164762,0.387412472,0.201954429,-0.146146048,0.005303934,-0.812119640,
0.046199705,-0.867697170,0.083470360,-0.006931295,0.309545752,0.318504894,0.324401483,0.686460086,-0.101141985,0.825065933,
0.376320627,-0.142247133,0.070541486,0.358144036,-0.438898511,0.138122730,1.165767621,0.466619905,0.245136010,0.108817947,
0.254120031,
-0.377636891,
0.177853424,
0.518366612,
0.259887546,
-0.411868762,
-0.424696563,
0.219331827,
0.365443563,
0.541166544,
0.372365172,0.400718367,0.351659044,-0.908651959,-0.291415523,-0.692577939,0.040587447,0.693183501,0.209430436,-0.488102684,
0.090124032,-0.187197071,-0.404208953,0.237397377,0.370156169,0.692887413,0.315124913,0.122510608,0.558216689,0.293242413,
0.491723461,-0.113097882,0.298720530,-0.582607647,-0.009733191,0.199949998,-0.876377172,0.011748877,0.008225574,0.102482684,
-0.328450688,0.483203440,-0.201154476,0.299581572,-0.193829786,-0.206675667,-0.021891950,-0.190308916,0.307818871,0.253984051,
-0.532588832,0.836613640,-0.138741995,0.071673968,-0.337805309,0.199438436,-0.717501035,-0.376335246,-0.356293381,-0.350800062,
-0.208031010,0.047076907,-0.058093791,-0.257250892,-0.679395173,1.200275910,-0.100470644,-0.399787035,-0.006574360,-0.518611341,
-0.096517211,0.480843454,0.517590414,-0.417171199,-0.455602756,0.125105986,-0.501565993,-0.161090251,0.424480006,-0.003677777,
0.307362014,-0.156073796,-0.026821969,0.050253267,0.336835905,-0.686335514,0.877012593,0.105814200,-0.122806164,0.447837578,
-0.295455539,-0.070360951,0.039647295,0.628702956,0.403769145,0.026299091,0.108749505,0.883477406,0.093486824,0.246842820,
0.828206640,-0.138406656,0.077986271,0.467672997,0.436838517,0.191093293,0.090620932,-0.558449491,-0.131018950,-0.876697134,
0.300892195,
-0.052731263,
-0.250928443,
-0.212170095,
0.400090355,
-0.259802343,
-0.601513033,
0.019132766,
0.021379348,
-0.177909457,
-0.351153259,0.702698581,0.461424786,-0.587326192,-0.824018156,-0.624026002,0.138820134,0.239649268,-0.569340009,0.041897743,
-0.586276647,0.984021769,-0.547433170,0.048256533,-0.379160655,0.373047666,0.381286869,0.126423387,0.010147204,-0.176366097,
0.492308092,0.639619591,-0.458383557,0.000926351,-0.722846878,0.426943982,-0.457025859,-1.202439807,0.009866359,0.179931153,
0.262894740,0.246356543,-0.235012593,0.645757117,-0.085563829,-0.465959700,-0.047059515,-0.457423898,0.327534422,-0.188693959,
-0.631536017,0.352107811,0.345675626,-0.205964108,-0.045248523,0.265477394,-0.258586820,-0.711750892,0.390460508,-0.334858497,
-0.019821318,0.180357042,0.753096333,0.410559033,0.035986704,0.423527266,-0.568286979,-0.309662063,0.173832090,0.227084506,
0.244239743,-0.566479808,0.688994877,-0.400112306,-0.108941686,0.252790632,0.250542623,0.289472175,0.179915469,-0.395726847,
-0.402037920,0.379797670,0.262876301,-0.312203433,-0.511701343,-0.559247378,0.496430578,0.946063721,-0.038108140,-0.213989470,
-0.285162021,-0.077655603,-0.489726964,0.127234887,-0.003068574,0.348576398,-0.137634180,0.143353711,0.732682328,-0.397225557,
-0.143225834,0.367157697,-0.701718397,0.549062131,-0.468899444,0.605576135,0.136070840,0.390684528,-0.139853033,-0.568335656,
0.296292097,
-0.381496737,
-0.258390743,
0.763750140,
0.823680127,
0.185946545,
0.133605526,
0.119364333,
-0.503567114,
0.362565665,
0.024538784,0.326184451,-0.319143475,0.997698268,-0.001886419,0.612652404,0.168614197,-0.127428397,-0.372222159,0.099348830,
0.236303710,-0.014693265,-0.416987520,-0.212525203,-0.192270167,-0.370574486,-0.112153461,-0.483558732,0.409951422,0.511609196,
-0.647541364,0.085076494,0.020860765,-0.367245638,-0.185341528,0.289345631,-0.093104431,0.495334294,-0.279762223,0.064880000,
-0.442254911,-0.570106131,-0.557506362,0.084193899,0.367508958,-0.223468152,-0.100333199,-0.724680944,0.788650126,-0.680367917,
0.189125965,0.623618655,0.321780589,0.352384891,0.163983588,0.547882817,0.083631996,0.306052937,-0.258323825,0.046664344,
-0.731628078,0.512250216,0.077041477,-0.244791881,0.071846712,-0.245472862,-0.305404870,0.239165507,-0.300294385,-0.623474587,
0.856454139,0.665199371,0.121896281,0.168739541,0.125973402,-0.259816217,-0.171594474,0.084151770,-1.045290334,0.388369733,
-0.193278309,0.317460489,0.134190864,-0.584488125,0.224899915,0.151329262,-0.284589090,-0.419162443,-0.708050704,-0.298725065,
0.044817428,-0.700650497,-0.461355782,-0.712336658,-0.143629934,-0.231910422,-0.395437659,-0.102759693,0.213871401,0.331686400,
-0.841279306,0.136127338,0.197073892,0.057190601,-0.739798075,-0.305618844,-0.005320900,-0.079009022,-0.515868052,-0.415516716,
0.254049159,
-0.211507158,
-0.137027703,
0.524945375,
-0.245579339,
0.151043659,
-0.418498959,
-0.019299442,
0.178891959,
0.242655456,
-0.010122131,0.187826145,-0.159829368,-0.132699369,0.469693150,0.659205776,-0.785356536,-1.127872834,0.287228432,0.252691937,
0.298254405,0.239156102,0.051484702,-0.141000241,-0.366962017,-0.488863408,-0.320113736,0.258596495,0.503682308,-0.054061752,
-0.303262450,0.136729417,-0.396879964,0.313134371,-0.836148643,0.277829917,0.134763673,-0.053575975,0.593423268,0.518090237,
0.476075257,0.059957929,0.408930646,0.486072720,-0.294684206,0.240587663,0.406040509,-0.210931174,-0.026447859,-0.292313369,
-0.723622338,0.322430309,0.017161504,0.098780610,0.414660227,0.097342100,0.223194397,0.313211007,0.547053788,0.524921289,
0.307757652,0.220147002,-0.466745810,0.347993652,-0.121484488,-0.157455325,0.498605641,-0.703858331,-0.044861203,0.040540854,
0.449205137,-0.097447714,0.426596699,-0.255554080,0.453793074,0.387554134,0.418175848,0.404808312,-0.429456885,0.555428615,
-0.266205277,-0.220126046,0.335605358,-0.533724022,-0.266480202,-0.612437904,0.221219731,0.075361904,-0.429820142,-0.008163330,
-0.360953653,-0.411091365,-0.299616669,0.122364482,0.215580251,0.418360191,-0.335064086,0.197051577,-0.271742994,-0.406986825,
0.228358223,-0.065807509,0.756847602,0.177195303,0.604098594,0.585451087,0.072643090,-0.522125724,-0.600702922,0.194620658,
-0.636153732,
-0.147007578,
-0.639970277,
-0.398089287,
0.075439863,
0.234760547,
-0.039551366,
-0.208764540,
-0.289832539,
-0.116129180,
0.472850119,-0.073170700,0.322515335,-0.428228540,-0.390300309,-0.134896554,0.024899577,-0.744644011,-0.022331475,-0.256868712,
0.125436845,-0.003192383,0.271134393,0.779082406,0.505099060,0.161390113,0.351691069,0.187584171,-0.570765247,-0.174798409,
0.072254707,-0.490479524,0.808749513,-0.209462690,-0.542748809,0.352795163,0.006880160,0.303960829,0.378348402,-0.054585149,
-0.178879905,0.428084757,0.218297541,0.284984465,0.173819311,-0.458482780,-0.144553572,-0.821627383,-0.482573301,0.043735266,
-0.159854748,-0.088715341,-0.279265191,-0.489467085,0.196458264,-0.201944133,0.532212188,0.154847134,-0.272679070,-0.221775560,
0.143567133,0.034860587,-0.161027293,-0.015994479,0.491393853,0.357560797,0.326611374,0.053894347,0.363429786,0.442731800,
0.131988119,-0.308610904,-0.266924160,0.128461225,-0.208130291,-0.361369359,0.297936072,-0.787073234,0.803790122,0.090587073,
-0.714150964,-0.291643125,0.970951548,-0.034417982,-0.108251584,-0.248817164,-0.309270602,0.796402952,0.393005579,-0.208507829,
0.565465339,-0.345279019,-0.428217551,0.405418545,0.263983241,0.060002511,-0.382091586,0.828378935,-0.655937691,-0.208412748,
0.142269108,-0.620522810,0.910145103,0.102870807,-0.906403071,-0.669189206,-0.628641819,-0.131544493,-0.667828577,0.068553904,
0.056834208,
0.324498663,
0.121616785,
0.234141221,
-0.752627398,
0.414048297,
0.266357630,
-0.224592440,
-0.225688174,
-0.105354030,
-0.345508100,0.060581393,-0.389267140,0.200995788,0.253889220,0.141866702,-0.072557666,0.348546627,-0.420613918,0.008528803,
-0.516484417,-0.081338533,-0.595749645,0.133942447,0.291938585,-0.913807294,-0.272907116,0.302534659,0.675099515,-0.404311855,
0.288226004,0.289850950,-0.093872363,0.060480112,0.276529023,-0.497964553,0.706044726,0.836961797,0.459785472,-0.571842760,
0.329925926,-0.171741159,0.986809887,-0.459988919,-0.586481650,-0.434801363,0.123678223,-0.351670251,-0.119056426,0.257142640,
0.921165380,0.456480967,0.112403706,0.243606223,0.078700650,-0.448319794,0.098097248,-0.106566782,0.716278855,-0.307338846,
0.314658864,0.115779217,0.252570360,0.165083192,0.852264481,0.332356032,-0.044435814,0.160518793,-0.026185200,-0.560625515,
-0.159185170,0.743261776,0.393863182,0.182784783,0.019200136,1.273544749,0.260213567,0.486578080,-0.177333279,0.065990063,
0.317488621,-0.295706109,-0.127892799,0.211774556,-0.463427386,-0.547749007,0.437557893,-0.042490854,0.236335284,-0.052795324,
-0.242880078,-0.136857586,-0.454373674,0.472047900,-0.136098948,-0.849790643,-0.515654071,0.335182705,-0.255089616,-0.021149142,
0.707963546,-0.090763784,0.061353634,-0.042156035,-0.080578763,0.481342856,-0.306131439,-0.402143588,0.326135932,-0.044313912,
0.213593770,
0.966813841,
0.470454452,
0.134531223,
-0.062599668,
-0.228563307,
-0.265992450,
-0.320824418,
-1.115112836,
-0.180012071,
0.571112655,0.374098379,0.615459795,0.336468199,0.403178045,-0.087040639,0.336289937,0.296862924,-0.428311424,0.438454792,
-0.424001763,0.154875206,-0.430189098,0.046736854,0.327828738,-0.376984183,-0.192213881,0.190710080,-0.175983265,-0.227820291,
0.758566495,-0.040353329,0.674492307,0.085649646,-0.471727075,0.096000285,0.008254387,0.105085591,-0.249433768,-0.610125686,
0.179470445,0.075971831,0.609539447,0.497284694,-0.915020446,0.544797929,-0.052549735,0.077135988,-0.362184866,0.265974854,
0.744329357,-0.385150248,-0.103543455,-0.309396335,0.668120311,0.123163212,-0.878981104,-0.207218503,0.218620813,-0.472278564,
0.451342039,0.565742032,-0.401341037,0.738297048,-0.264240983,0.507242175,-0.128419217,-0.052655833,-0.062166105,-0.075481071,
-0.106308132,0.205872350,0.123832910,-0.154524493,-0.096160683,-0.606876991,0.146293758,-0.403191509,0.268511028,-0.515577448,
-0.166331586,-0.000211359,0.080972523,-0.353945679,-0.386138196,-0.873063332,-0.633917016,-0.091701401,0.487054255,-0.228617361,
0.850959488,-0.176468960,-0.106546208,0.410648685,0.621974662,0.245026790,0.411298627,-0.157127825,0.495677504,0.282256292,
-0.440627569,-0.030974147,0.401924536,-0.535698439,0.064103572,-0.284576727,-0.139053645,-0.038009991,0.516002934,0.243553505,
-0.372089541,
-0.593527870,
-0.230418305,
0.128734974,
-0.067417520,
-0.298237276,
0.014206379,
-0.819059372,
-0.070704561,
-0.621967321,
0.482108358,0.859498232,-0.440735134,-0.035201772,-0.360797544,-0.364116432,0.588839536,1.048853642,0.277711786,-0.045695291,
-0.480778487,-0.081051096,-0.858707739,0.077380578,0.246680306,-0.034803052,0.128914028,-0.353186816,-0.330659512,-0.331830407,
0.233705793,0.342509848,-0.677020697,-0.181008680,0.247938166,0.602547372,-0.487841139,-0.281755737,-0.297286012,-0.316872510,
0.705798590,-0.124432057,-0.259198317,-0.127483698,-0.497160196,0.006321101,-0.117012518,0.145264288,-0.131918811,0.030190443,
-0.114473272,-0.004381796,-0.172609958,-0.040625126,-0.013586823,0.931167189,-0.178113498,0.142515276,0.274277662,0.844027238,
0.180462830,-0.071335271,-0.938244462,0.175844248,0.080963240,0.372933748,0.135179648,0.508585253,0.786575596,0.091661739,
-0.045273827,-0.018131051,-0.047795151,0.183801633,0.710336948,0.106068915,0.200099096,-0.008621959,0.792515803,0.127494758,
0.102597002,0.134133969,-0.041081881,-0.638320654,0.323182420,0.338669689,-0.656798952,0.031989428,0.370105179,-0.646929229,
-0.380205377,-0.696568031,0.611132508,-0.294558996,0.757153259,-0.532913643,-0.181156375,0.277217099,1.044488381,0.272299521,
0.400783003,-0.526822683,0.499924956,0.208275734,0.886692482,0.201759471,0.496511323,-0.174325075,-0.047708997,0.411792642,
0.656987670,
-0.600166595,
-0.263145754,
-0.213616385,
-0.832203336,
-0.602591481,
0.476503956,
0.109944358,
0.102783965,
-0.131641389,
0.097566349,0.100837500,0.042525387,-0.690681299,-0.435040388,0.103857927,-0.697347918,-0.294823448,0.288346118,-0.026538652,
-0.073214758,0.072818654,-0.449138775,-0.063744321,0.299364364,-0.693927921,0.271414451,0.167608183,-0.283111886,-0.083066689,
-0.391933661,0.189001745,-0.077700349,-0.208328192,0.071954214,0.751992662,-0.061712437,0.153286120,0.270813108,-0.025348584,
0.519504085,0.269022991,-0.577857539,0.616135796,-0.288274476,-0.289507975,0.396522494,-0.335683308,0.940178681,0.054797249,
0.260255145,0.040715781,0.339904695,0.399084392,-0.279648017,0.044260004,-0.442829624,0.064896527,0.079880793,-0.031164667,
-0.292201229,-0.210933955,0.428073416,0.021765857,-0.331209591,-0.013797137,0.012670931,0.084008410,-0.756894521,-0.409560539,
-0.060148944,-0.458505604,-0.189684647,0.007139739,0.137687424,0.443195699,-0.337503295,-0.736927504,0.026710212,-0.208873941,
-0.245552923,-0.468259727,0.859454819,-0.068450805,-0.409521578,0.092913960,-0.396159298,0.244171980,0.230262090,-0.118237511,
0.413194092,0.600675734,0.244305186,-0.038003615,0.043687831,-0.561550757,-0.185008952,0.408725834,-0.228726129,-0.183612477,
0.029274307,1.353917578,-0.428800427,-0.491818953,-0.541795486,-0.355552194,-0.094347291,0.447590208,0.415201561,0.121269612,
-0.056853522,
0.475540496,
-0.197683689,
0.109069544,
0.619803770,
-0.542938035,
-0.342580245,
0.271970244,
0.174619920,
1.217671341,
-0.401478020,-0.293942922,1.040098646,-0.296215634,0.085485230,-0.060232075,-0.629497961,0.591501573,0.264959418,-0.061350854,
0.105253463,0.588887195,-0.867272841,0.125056602,-0.189561030,0.243229370,0.881281704,0.068268169,-0.173937060,-0.062989447,
-0.332075301,-0.736009190,0.326218777,0.329100531,-0.689108674,-0.169340175,0.182521136,0.655798618,0.415104315,0.432166457,
1.019137836,-0.127624176,0.200354963,0.721979956,0.101051898,-0.332642861,0.254501016,0.388841157,-0.346406825,0.512827253,
-0.381588156,0.817588311,0.825575182,0.378857620,-0.292731870,-0.355487023,-0.278179582,0.786300127,0.051354105,0.012093744,
-0.293639142,-0.480477030,-0.297335848,-0.218003613,-0.181925258,0.070961548,-0.438538732,0.339249879,0.204745789,0.981990558,
-0.339313713,0.224418883,0.061500354,-0.054334306,0.051455935,0.383808897,0.035619175,-0.357047747,-0.290852223,-0.314680448,
-0.517964694,-0.065930388,-0.365081559,0.838313362,-0.216070476,1.279321770,-0.295405854,0.349143272,-0.019484795,0.402435098,
-0.279407669,-0.721568908,-0.463318960,0.127051754,-0.492520767,-0.127142124,-0.038613188,-0.711803644,0.943515930,-0.227123710,
-0.491173548,0.129157555,0.501459352,-0.484116800,-0.159535275,-0.111220788,-0.187749417,-0.785063578,-0.027191757,-0.822062959,
0.114907893,
0.167127278,
0.648335750,
0.183619419,
0.096955427,
-0.396483098,
-0.479801931,
-0.302032197,
-0.397548981,
-0.456064815,
-0.375105933,-0.413789872,0.558848627,0.019229466,0.256751412,0.593979243,-0.833279608,0.769254570,0.324145237,0.553787929,
-0.034772639,-0.275483696,-0.390357301,-0.108100311,0.530654204,0.141822422,-0.160789641,0.509166623,0.432387630,0.159171749,
0.701884768,0.462240582,-0.355193746,-0.023017350,-0.300453136,-0.613706271,-0.568766705,0.690839665,-0.062769741,0.031932484,
0.125206944,-0.149876924,-0.043977515,0.377394015,-0.303309431,-0.013562386,0.232830801,-0.044644498,0.179425551,0.439875222,
0.581096098,0.275722549,0.026030172,0.026858571,-0.104075206,0.377910176,-0.197716721,-0.554208679,-0.395134433,0.621570779,
0.354480058,0.342009419,-0.160127026,-0.101910228,-0.198310836,0.086703818,-0.581930813,0.354364500,-0.500679224,-0.579330900,
-0.289914283,-0.117045299,0.284453682,0.384045701,-0.423022623,0.372180382,-0.373993630,0.405827071,0.021057125,-0.092645640,
-0.001572879,0.218394726,-0.586795540,0.546705336,-0.077509355,0.171214723,-0.098315552,0.516004497,-0.990649728,-0.687090899,
-0.249374831,-0.620674378,0.000762041,-0.309406826,-0.072633112,-0.231596902,0.109445302,0.451133037,0.156883449,0.293060930,
0.494754290,0.354130081,0.597530847,-0.184660669,-0.529238452,0.198324463,-0.131338019,-0.486384168,0.182418774,-0.048570968,
-0.041554370,
0.167295942,
-0.489511784,
-0.273057294,
-0.013714369,
-0.006587575,
-0.518218217,
-0.377750539,
-0.169505125,
0.294791935,
0.099632909,0.011410047,-0.116078578,-0.421184303,0.163911665,-0.379784589,0.390875962,0.570428556,0.328660410,1.407616402,
0.192175022,0.358031807,0.572008306,0.189451545,-0.063383880,0.173062621,-0.898773511,-0.104343386,0.127491012,0.453031690,
-0.811201879,-0.895137266,0.335269211,0.196171436,-0.054733659,-0.185272552,-0.249291751,-0.196830233,1.117821712,-0.414060304,
0.013335467,-0.037130934,0.030220296,1.008027490,0.129137965,0.222889506,0.013534486,0.161234724,0.256946413,-0.161534124,
0.797855140,-0.429218079,0.918566826,0.054066049,-0.273513480,0.190896892,-0.397658492,0.311725741,-0.118856465,-0.259232328,
-0.554810349,0.320239613,0.149247849,0.493324804,0.071844101,0.204677284,0.588246442,0.502477190,-0.089018107,0.951476566,
1.183780354,-0.339739218,-0.070926195,-0.369357467,-0.445924503,-0.198183722,0.561323085,-0.336223509,0.379051831,-0.657996660,
0.569817816,-0.286063769,0.123008379,-0.049950625,0.057242238,-0.186795362,-0.200277393,-0.004856042,-0.263889853,0.231517705,
0.530428725,-0.587043423,0.444414423,-0.032266025,-0.001413086,-0.060231611,0.075057562,-0.048813077,0.263213292,0.726723410,
0.023730878,-0.660078588,0.410820673,0.343577516,0.079624148,-0.065910163,-0.778999636,-0.450661501,-0.150594596,-0.114543964,
-0.412099572,
-0.626677366,
0.369363550,
-0.285087059,
0.231114265,
-0.497890381,
0.492353918,
0.015733927,
0.137598909,
-0.268827523,
-0.401512486,-0.190159820,0.057305678,0.037938394,-0.065810297,0.213403445,0.001013409,-0.198387697,-0.061019168,0.265707523,
0.333967741,0.321186498,-0.794938405,-1.191787159,0.461773436,0.141786298,-0.129374475,0.153841317,0.330063248,-0.031059113,
0.216558077,0.344839981,-0.228486598,-0.032507414,0.513531342,0.220177537,0.024908370,-0.030427591,0.026665001,0.185972821,
-0.259404895,0.618670910,0.096153723,0.214522770,-0.012525944,0.451000008,-0.397679940,-0.303116832,0.399133499,0.383723518,
0.151380344,-0.176681445,0.163423380,-0.265307998,-0.662364121,-0.220613318,-0.457287096,0.475066213,0.140824686,0.227069766,
-0.123593003,-0.110293668,0.260399048,-0.140313957,-0.024557006,0.685233628,-0.124890864,-0.062375846,-0.369354153,0.663817519,
0.010465836,-0.411456202,-0.142917153,0.394156352,0.439401617,-0.394235995,0.080503907,0.194300601,0.030903091,0.756905062,
-0.530352562,0.118550592,-0.540321555,-0.539713182,0.075925028,-0.407542094,-0.122092006,-0.808781917,0.274786712,-0.348179583,
-0.363706160,0.461123658,0.586413455,0.671733034,1.176748718,0.088941909,-0.107627155,-0.315879087,0.743208903,0.451860408,
0.131486072,0.742853835,0.268042954,0.228263647,0.442567168,0.118745038,1.084495041,-0.950304979,-0.603112728,-0.208872171,
-0.196313990,
-0.202501481,
-1.142275298,
-0.528364197,
-0.985836416,
-0.018111999,
0.103264285,
0.038636319,
-0.836805960,
0.280313164,
-0.044411506,0.374663537,-0.445022376,0.877830452,0.149103702,-0.409588228,0.422736763,-0.701619021,-0.011808494,-0.069687953,
0.304329906,-0.573500292,0.642530177,-0.786782860,0.515754070,-0.003219843,0.347149871,0.157598552,0.114159080,-0.275297795,
0.134353346,0.255289470,-0.619883952,0.346316377,-0.500300239,-0.982346790,-0.337154641,-0.043345720,0.017191184,0.215888400,
-0.764768302,0.243773855,0.691646818,0.032901220,-0.245971147,-0.540771965,0.455026830,0.014750928,0.344034108,0.345264662,
0.136606955,0.102092747,-0.806694554,0.228862968,0.098959187,0.113768363,-0.266726125,0.582707077,0.714180880,-0.161320203,
-0.153590596,0.511097444,0.085650165,-0.106294223,-1.122947467,0.013112734,0.840025598,0.587075826,-0.390054285,-0.125825501,
1.208737012,0.335165319,0.391439500,0.268626963,-0.034435734,0.343989578,0.142392578,-0.107493241,0.265873811,0.411489007,
-0.009306121,-0.677044829,0.435601073,0.393003159,0.048225982,-0.150635075,-0.133251858,0.764004553,-0.287278319,-0.255861960,
0.225072954,0.196212979,0.112310696,0.302352963,-0.306041920,-0.409292769,0.084591911,-0.070983758,0.426047526,-0.436442722,
-0.349394170,-0.157086305,0.512054275,-0.298140509,-0.386503364,0.265025523,-0.016250298,0.620011158,-0.049375150,0.691899147,
0.033470580,
0.338535674,
0.666318216,
-0.173724584,
1.205661236,
0.269595176,
0.159054333,
0.106926611,
-0.049627477,
0.496801514,
-0.338603009,0.072654279,0.243949966,-0.720680577,-0.624862307,0.007117851,-0.324892311,-0.235495730,-0.080111034,0.511426506,
0.309537108,-0.126656649,-0.412857730,0.418792296,-0.592487198,-0.016424485,0.130149470,-0.005891378,0.204111826,0.813478001,
-0.019767617,-0.053156743,0.269012861,0.029023954,-0.447774318,0.675275811,-0.105020648,-0.372970354,-0.011182575,-0.699866130,
0.095781660,-0.786949504,0.287710750,0.212668499,0.316359848,-0.122188813,-0.661401028,0.000748985,0.738034422,0.382128481,
0.034675459,0.294445495,0.332738691,-0.619846891,0.029352247,0.077074469,0.012370881,-0.184545593,0.976506162,0.539423302,
0.016463677,0.208031472,0.352718623,-0.094109063,0.514456035,-0.341691067,0.371334551,-0.333169629,-0.232912456,0.299757241,
0.588974584,-0.637949016,0.408958999,-0.115270715,0.568927104,-0.510605685,0.817759029,-1.127558047,0.247884411,0.085053139,
-0.569968249,-0.090944390,0.032682508,0.530773539,-0.249535117,-0.426044593,0.137155787,0.149792605,0.012387039,-0.295531425,
0.042579875,0.356049736,0.458986915,0.080619512,0.762778910,0.013938633,-0.091015069,0.327485889,-0.692844020,0.419101895,
0.223255860,-0.252913858,-0.552942120,-0.362928636,-0.080933008,0.552647512,0.102622571,0.602489034,-0.465341208,0.380932489,
-0.433809002,
-0.163015668,
-0.397055413,
0.110007168,
-0.543039493,
-0.206050808,
0.253872782,
-0.154727777,
-0.265332138,
0.192320624,
0.128859760,-0.665547758,0.031119916,0.311984590,-0.571030713,-0.956646868,0.197530634,-0.816297898,-0.491102141,0.061864015,
-0.198911776,0.159043248,0.481851178,0.494208599,0.042058482,-0.017742790,0.398442912,-0.202051519,0.260776123,0.055900159,
0.184209842,0.049829049,-0.317029838,0.014366859,0.342898454,-0.651706268,-0.623545526,0.029709842,0.160105613,-0.253907752,
0.632606248,-0.282647455,-0.284345626,0.032219960,-0.022342169,0.512209408,0.214759687,0.148645202,0.702011284,0.167794742,
0.124804125,-0.487066281,0.022982004,0.545855296,-0.138620334,-0.188908939,-0.155562892,-0.324145505,0.393431366,-0.215019911,
0.719421056,-0.111783755,0.218377890,0.202605055,-0.067443799,0.304445020,0.359275618,-0.003639800,-0.120438494,-0.601523791,
0.137709532,-0.827980333,0.272383438,0.064641564,0.499202806,-0.452880800,0.507462321,-0.178679261,-0.149859318,-0.189152890,
-0.279276483,0.141064969,0.028638010,-0.460162293,0.413026147,0.355697965,-0.397793946,0.830252807,-0.425732108,-0.103265520,
0.292713401,0.164745644,-0.091463225,0.140586885,0.049126288,-0.824659302,0.294544925,0.075033905,0.494239070,0.349342771,
-0.167081514,0.417169621,-0.658511823,0.258576545,-0.260160918,0.739619046,0.078115702,-0.285601374,-0.298259162,0.689465958,
-0.116941789,
0.310887985,
0.254166661,
-0.148029328,
-0.443328881,
-0.304486870,
0.699804622,
-0.747475632,
0.567282797,
-0.047854926,
0.486179057,0.114314363,0.518913872,-0.225696205,0.235185327,-0.383837777,-0.086878062,-0.106513699,-0.068841859,-0.148373207,
-0.494765365,0.377990495,-0.075570443,0.013522008,-0.313685966,0.252163590,0.346484185,0.549396669,0.175674914,0.142531378,
0.831694082,0.111361727,0.204215873,0.273460469,0.064451711,1.148991782,-0.326924562,0.221640844,-0.643818722,-0.711869667,
0.058832547,-0.003288249,-0.674132779,-1.115828597,0.130461142,0.422654037,0.402010723,-0.001787032,0.155086768,0.006854218,
-0.047637674,-0.723834277,-0.526280698,-0.430274665,-0.404451423,0.324323220,-0.095821181,0.067889867,0.011023929,0.568657010,
-0.220462309,-0.337848113,-0.221239420,-0.925588940,-0.618971606,-0.083175934,0.483854339,0.210478797,0.159906018,0.047512565,
0.074046757,-0.404929422,0.071586907,-0.450743366,-0.354471893,-0.175167414,0.350448631,0.147726571,-0.234746269,-0.269159114,
-0.240914961,0.389912203,-0.182821596,0.150961133,-0.146975940,-0.337275836,-0.233709170,0.231664025,0.085215676,0.477004768,
-0.246662763,0.092026742,-0.013033518,-0.059073430,-0.198317606,0.190680007,0.590690233,0.588708584,0.652295522,-0.592707214,
0.118229312,0.648386042,-0.032280544,0.580279564,-0.401610597,0.197906919,0.138337934,-0.122445789,-0.467526833,-0.479646263,
0.737778750,
0.310860531,
0.101153871,
0.038634662,
-0.011661939,
-0.718577424,
-0.236309747,
0.250270456,
0.503680624,
0.005872432,
0.097365971,-0.193724996,0.256869754,0.491595323,-0.113289642,-0.603203681,0.666453135,-0.397409329,-0.162480997,-0.641270696,
-0.240177087,0.517303852,0.150253788,0.250919487,0.053602328,-0.184782202,-0.380321837,-0.164832539,0.115535779,0.361611172,
0.595638878,0.159285192,-0.868963846,-0.142011492,-0.197071811,0.889270960,-0.537197597,-0.002593829,0.007947238,0.264516240,
-0.313827232,0.027613273,0.228071132,-0.001518036,-0.370403346,-0.044174927,0.158206117,0.103535936,0.219419878,0.014304622,
0.370657546,-0.031736290,0.037349617,-0.496495943,-0.242453311,0.263194684,0.105622483,0.033882627,-0.154989914,0.046015940,
-0.213116188,-0.348641424,-0.121933849,-0.116201896,0.206758307,-0.363448028,0.069960029,0.226971090,-0.111582072,-0.250311440,
-0.023188496,-0.496657086,0.293206521,0.026551343,-0.166803234,-0.081586806,-0.330176999,0.135829509,-0.211449960,0.317635182,
-0.448228930,0.252989161,0.123724055,0.266573234,0.041122950,-0.324739493,-0.055975928,0.701158385,0.235951541,0.815321388,
0.043053663,0.142342316,-0.311179184,-0.097902898,0.189903910,-0.288008895,0.049965606,0.616111430,-0.568533586,-0.544176802,
0.521839322,-0.045822395,0.142364260,0.120542145,0.383929062,-0.276007810,-0.062035725,0.161333487,0.064766160,0.210833417,
0.448860520,
-0.194818080,
-0.194340812,
-0.220184478,
-0.486932203,
-0.009147098,
0.297984303,
-0.141249162,
0.000847096,
0.688976477,
0.008787547,-1.493020965,0.871781525,-0.527013020,-0.418854231,-0.121978641,0.165237129,-0.022703523,-0.969028979,0.306406056,
0.156447877,0.352903792,0.483497733,0.740343271,-0.091818548,0.203412894,0.213571903,0.033522586,0.453485331,0.052442743,
-0.300560332,0.371502515,0.121951608,0.023190091,0.972208391,-0.057802913,0.599921161,0.400670845,-0.129364404,-0.021637141,
-0.029543952,-0.303501733,-0.803297158,-0.812129727,0.123219459,0.926147059,0.902330899,-0.651093323,-0.426190841,0.311455005,
-0.741265140,-0.257335338,0.429301752,-0.410023181,0.053338945,-0.579480517,0.574531888,-0.581075989,0.091227513,-0.624144056,
0.463547305,-0.494737637,-0.260164137,-0.343860589,-0.042040105,0.004492813,-0.442899080,-0.172558938,0.103380193,-0.217274830,
-0.736870685,0.168314382,-0.116999970,-0.096739789,-0.248746119,-0.624182059,0.266156781,-0.654436726,0.597131848,-0.317154948,
0.138591395,-0.259429405,0.204629563,0.162869788,-0.225738248,-0.656939716,0.396036971,-0.617893645,-0.429975666,-0.406628196,
-0.894849090,-0.078789695,0.172898051,0.265164459,-0.362664469,-0.468087124,-0.382954575,-0.306619008,1.063292732,-0.205545496,
0.482797990,-0.003959223,0.071403211,0.489893406,-0.074043781,0.246615282,-0.196264792,0.347429157,0.222938228,-0.939690136,
0.337302698,
0.883273431,
0.399962102,
0.168710100,
-0.015563398,
0.393564844,
-0.197468153,
-0.017405250,
0.232729552,
-0.259138255,
-0.618725348,0.048430919,0.348159173,-0.182278265,-0.448435438,0.267646376,-0.014905900,-0.340674151,-0.348333166,0.022749851,
-0.307493539,0.737439190,-0.627323400,-0.010012009,0.740337753,-0.163255894,-0.353057959,-0.109261303,0.075817719,-0.083374696,
0.445011839,0.412841432,0.389602917,0.469979817,-0.252576710,0.549749040,0.659370629,0.201225254,0.000528612,0.799170854,
-0.349389815,0.017508471,0.024533693,0.537282873,0.078254833,-0.244117521,-0.276364237,-0.464149820,-0.564338089,0.087551740,
-0.072325321,0.287347676,-0.606879664,-0.433579849,0.471016049,-0.366400313,-0.078971228,0.027263807,-0.250694954,-0.156172731,
-0.319011288,-0.912440097,0.717638910,-0.441524248,0.325504131,0.115969762,0.402381636,-0.317123983,-0.080144962,-0.086222974,
-0.419784464,-1.044964213,-0.877247652,-0.058856199,-0.447379722,-0.020687339,-0.135945050,-0.006219461,0.723919632,-0.075049344,
0.039418375,-0.281234266,-0.399804263,-0.293240324,-0.048145564,-0.043947634,0.281948740,-0.764348341,-0.125552633,-0.364671258,
0.099105766,0.066529087,1.095377322,-0.183322886,0.511617470,-1.109585737,0.520541201,-0.332006377,0.155893229,-0.026791522,
-0.422018787,-0.917906930,0.393027752,-0.272232972,0.712915584,-0.052407511,0.208732138,-0.172193246,0.611000211,0.271022840,
0.253567236,
-0.055739678,
0.845401035,
0.516287393,
0.643223031,
0.718286955,
0.269652789,
0.351250517,
-0.360541945,
0.486783769,
-0.411407396,0.080362445,0.086576302,0.331851732,0.431989966,-0.538561545,0.139195435,0.130176628,0.547017856,0.025457000,
0.195458011,0.509576891,-0.047042151,-1.231455938,-0.221505016,0.489388727,0.228390249,0.244416610,-0.163769484,0.275082497,
0.166720840,0.001863591,-0.604575568,-0.280798377,-0.209720056,0.250591790,-0.370037999,0.236316854,0.160870335,0.049554538,
0.087153847,0.779581825,0.190728796,0.226042991,0.234095480,-0.007487717,0.546476910,0.374372564,0.239352131,-0.371921401,
0.148566280,0.578601381,0.204287145,-0.612039702,1.162137516,0.540669953,0.291034139,-0.356536971,-0.127150718,-0.469905141,
0.100601561,-0.616303415,0.213083806,0.547432604,-0.288877257,0.013474912,-0.131272002,-0.191336054,0.104518433,-0.270989193,
-0.492010056,-0.336678544,-0.476437482,-0.194137660,-0.501753674,-0.355878373,-0.590081856,0.297140982,0.100203454,0.895849979,
0.339109432,0.385575001,0.531297497,-0.380220418,0.025240959,-0.351612889,-0.244389416,0.021999274,-0.031318144,0.371528475,
0.257052100,0.147089133,0.258045486,-0.218160628,0.245331674,0.913354633,0.148391224,-0.904244955,-0.534256472,-0.048940874,
-0.545222106,-0.370993451,0.405826760,0.499146989,0.302077019,0.070979050,-0.328462545,0.344219805,-0.344120900,0.164973746,
0.541440669,
0.115618273,
-0.039277814,
0.602354508,
-0.316165113,
-0.330020980,
0.485562638,
-0.682126570,
-0.238770513,
0.463026165,
0.077805412,-0.407580981,-0.351074050,0.561622163,-0.195473741,-0.324519511,-1.145939175,-0.662522466,0.239531724,-0.193717590,
0.060211884,-0.614647992,-0.601825588,0.013559868,-0.265843702,0.198637017,-0.256464560,-0.319389294,-0.288611404,0.296757734,
-0.136990254,-0.145926410,0.334294678,0.553137069,-0.410391440,-0.265174337,0.600841242,-0.487287996,-0.495040505,-0.242926314,
0.131402885,0.651241102,0.731447820,-0.111546499,0.218906519,-0.054105517,-0.401704133,-0.292155180,-0.033935317,-0.197553159,
-0.044572285,0.171992431,0.326338281,0.079637991,0.214647862,0.289824496,0.100772275,-0.337096254,-0.263410725,0.156485026,
0.623931393,0.136128693,-0.212391197,-0.500937586,-0.835798436,0.357603609,-0.061172879,-0.370407530,0.142202428,0.551343740,
-0.844066603,0.331779176,0.104197727,0.144257897,0.113386675,0.089858776,-0.232291488,-0.238416796,0.034247925,-0.358531928,
0.212230730,-0.902284436,-0.171406609,0.622623248,0.562222427,-0.129611297,0.503423943,-0.205526042,-0.543679856,0.370341116,
-0.641753677,-0.144248690,0.093720640,0.275454331,0.082115891,-0.191777144,-0.332162001,0.076428581,1.454620145,0.463541032,
-0.053126562,0.074709420,0.263561539,0.107149480,-0.021623365,0.178672345,0.277389194,0.630149138,-0.326851810,-0.260433724,
-0.611534524,
0.522987194,
-0.279137421,
-0.297162629,
-0.496069854,
0.621894559,
-1.182321830,
-0.157495901,
-0.256396070,
0.014071826,
-0.055215935,0.566248720,-0.632840885,-0.395140055,-0.307424249,-0.478622760,-0.055167360,0.082821176,0.439908678,0.471619763,
0.169697640,1.170701029,0.824174407,-0.891798418,-0.779365258,-0.138550644,0.866354199,-0.731104707,-0.115615575,-0.002826910,
0.110621087,0.349763581,-0.848336436,-0.452847987,0.048268875,-0.138620618,0.106697855,-0.281943074,-0.570455709,1.138617240,
0.405338578,0.035781918,-0.551045988,0.164056687,0.037847634,0.006311847,0.115409094,0.368451549,-0.405073006,-0.043288390,
0.710971094,-0.714654912,-0.571583548,0.393955057,-0.584461880,-0.523610475,-0.322722399,0.403319177,0.014174380,0.552857443,
-0.287876287,0.234559818,0.221096964,-0.063649220,-0.536226902,0.400368226,0.560644746,-0.229162849,0.167319809,-0.090012047,
0.650115160,0.062787228,-0.307142968,0.338655632,-0.409562410,0.172233656,-0.058507255,0.094515556,0.041621604,0.270023589,
0.384324372,0.141565720,-0.275358513,-0.153274128,0.038156196,0.046407116,-0.055842812,-1.018683847,0.501837456,-0.166320353,
-0.231867106,-0.212483203,-0.431614061,-0.004788806,0.024608635,-0.297978146,-0.834902193,0.149513495,0.499535533,0.412715777,
0.410011915,-0.202889570,0.928230701,-0.067693540,0.250049745,0.614451849,0.361051326,0.435826473,-0.541338667,0.180849353,
0.580819939,
-0.472945410,
0.283215467,
-0.353051539,
-0.056048897,
-0.077461668,
-0.113880499,
-0.942968546,
0.291421586,
-0.163650636,
-0.186588360,-0.274522702,0.226871306,0.496649320,0.358195254,0.226863177,-0.447997670,-0.493384333,-0.759873092,0.269883383,
0.452739701,0.058313770,-0.110698545,-0.089237334,-0.267672162,0.143490824,0.223321355,-0.028616138,-0.176888672,-0.436734245,
-0.631485201,-0.365489630,0.441568357,0.509755118,1.006124871,-0.216572910,0.197230961,-0.140524143,-0.246591942,0.849104841,
-0.493189919,-0.256225556,0.086078414,-0.363100670,0.168103032,0.063413533,0.102080081,0.339570681,0.265838554,-0.169509467,
0.323562178,-0.589271141,-0.083391421,0.355795325,0.236150947,0.224477242,0.174439779,-0.792950322,-0.116485159,-0.030180659,
0.158360196,-0.029210853,-0.160366646,-0.241873682,0.156858240,-0.110579645,0.051795797,-0.341973240,0.018434120,-0.666998186,
-0.709305441,-0.314104083,0.305780414,0.018262404,-0.903954557,0.036884222,0.638545942,0.248730469,-0.014911131,-0.324836967,
0.209877732,0.800696765,0.220705287,-0.841134098,1.056312076,-0.009702493,0.030163407,-0.436403464,0.466453763,0.824303903,
-0.355766731,-0.456168742,0.289205505,-0.273746271,0.379775180,-0.430561210,0.122478158,0.404931040,0.266986793,-0.053630167,
0.068146117,0.530478622,0.478508998,0.335709188,-0.116034368,0.276203969,0.449574233,-0.606782150,-0.135735685,-0.001681805,
-0.351493649,
-0.836901956,
-0.009654293,
-0.269920683,
0.064831314,
0.515750200,
-0.011101827,
-1.002249359,
-0.301380958,
0.040792139,
0.046542442,-0.564779494,0.643235926,0.234809826,-0.217173174,-0.244667496,-0.440949505,0.042989115,-0.566599967,0.330467176,
-0.465350585,0.416434612,0.456189516,-0.425339145,-0.319767909,-0.145595566,-0.024789077,0.293897364,0.465659620,-0.387001620,
0.915900580,0.248004622,0.589158372,0.062766332,-0.481197894,-0.141542735,0.046030733,-0.088982129,0.415457546,-0.133617738,
-0.431651709,0.350139296,0.171857491,-0.320329848,-0.372752654,0.045676522,0.041579524,-0.475352669,0.475674074,0.158476986,
0.724271316,-0.422600796,0.353410937,-0.266700390,0.550165586,-0.113955687,-0.408090309,0.715531470,0.361027499,-0.166278879,
0.289605890,0.184095955,0.121244084,0.298356676,-0.339344671,0.368020661,-0.244865477,-0.321673838,-0.128928646,0.661622518,
0.076037789,0.032889511,0.633500793,-0.054461955,0.650448149,-0.155424812,-0.377385903,0.539340993,0.007365798,-0.133943286,
1.089146174,-0.045018632,0.422710860,0.148529175,-0.016480257,0.143970346,-0.172044381,-0.492096044,0.061908635,0.475608743,
0.368600916,-0.086132194,-0.216185274,-0.604627962,0.207046725,-0.124969360,0.117492180,0.208887685,0.056306542,0.081137217,
-0.429955902,-0.127911072,0.678055076,-0.101536586,0.017920685,0.140384731,-0.057336931,0.240770684,-0.253893451,0.524253096,
0.116410767,
-0.076531629,
-0.031391369,
0.598947867,
0.068328708,
-0.042842122,
0.032281992,
-0.673171366,
0.324549631,
0.625608550,
0.121123264,0.154786865,0.117391806,-0.302402244,0.233875626,0.177309640,-0.273746532,-0.274311064,-0.629933009,-0.167937797,
0.670843718,-0.129482405,0.083473429,-0.776427553,-0.549433023,-0.593883848,0.779370983,-0.262563048,-0.269616017,-0.000155260,
0.571140665,-0.695625489,-0.610444436,0.052291232,0.122904922,-0.199541364,0.049965443,-0.284179589,0.482663902,-0.246093933,
0.582299323,-0.877216450,0.152185182,0.403444332,-0.043525440,-0.376619713,0.238033346,-0.409134854,-0.305081065,-0.272703494,
0.133116934,0.623196316,0.870724012,-0.143930266,0.498870305,0.079087820,-0.249043561,-0.735290277,-0.468133765,-0.731924410,
-0.122652039,0.684524727,0.180275977,-0.526823153,-0.039223535,-0.474187618,-0.212045628,0.180062002,-0.249202218,0.131995782,
-0.016495118,1.277646799,-0.291517863,-0.355142261,0.152227362,-0.003773173,0.209760491,0.073392980,-0.415028894,-0.195781958,
0.433514589,0.444165391,-0.629972461,0.276419869,0.103627968,0.116206971,-0.053304293,0.188681362,0.328680621,-0.287618881,
0.083435546,-0.410974535,0.025324203,0.068317127,-0.376760672,-0.252124436,0.081936725,-0.220149026,1.085640972,0.377081581,
-0.124142167,-0.752257276,0.144446126,0.408792061,-1.025433225,-0.341141085,0.116531067,-0.397557830,0.364255377,0.496451281,
0.417247395,
0.400073666,
0.597936145,
-0.514438363,
0.426083157,
0.075686350,
0.506574017,
-0.282569905,
0.610446539,
0.151747062,
-0.293913624,0.462589135,-0.326790096,0.556030767,0.020392161,0.249843180,0.043190682,0.202052542,0.005231803,0.001684457,
-0.765425695,-0.721372710,-1.020300289,-0.188058078,0.272258404,0.037959743,0.283364701,0.259181213,0.168338734,-0.331229091,
-0.455133272,
0.078736123,
