// Neural Network File Format by Kyle Julian, Stanford 2016
21,2,2,50,
2,50,50,50,50,50,50,50,50,50,50,50,50,50,50,50,50,50,50,50,50,2,
0,
-10000.0,-10000.0,
10000.0,10000.0,
0.0,0.0,0.0,
1.0,1.0,1.0,
0.071271521,0.073854273,
0.187527914,0.196350495,
0.254672078,-0.065350576,
0.081534887,0.075846608,
0.105840053,0.243822095,
-0.021751391,-0.104854469,
0.025975605,-0.083759586,
0.051179297,-0.015369762,
0.255311724,0.180954116,
0.202161787,0.001501852,
0.125227830,0.164112393,
0.018741317,-0.102289831,
-0.056267281,-0.251520605,
0.159995426,0.146924416,
-0.003055711,0.102897679,
0.067689445,0.167525856,
0.052653746,0.047121472,
0.085764098,-0.220141090,
-0.039524806,-0.035650166,
-0.065636770,-0.092314450,
0.069008781,-0.204926047,
0.081837237,-0.062539094,
0.032702976,-0.146034397,
0.179976119,0.215468237,
-0.083525769,0.010368493,
0.106367099,0.207091199,
0.112884902,-0.036108242,
0.093475706,-0.094462797,
-0.005878345,0.053705756,
-0.090627694,-0.002954867,
0.113354849,0.141946522,
0.052107075,-0.212107093,
0.045731514,0.174315780,
-0.009120055,0.033344019,
-0.120844340,0.199258373,
-0.170325922,0.153026465,
0.084548045,-0.033522695,
0.004211844,0.102666517,
0.006337330,-0.140720098,
-0.192014336,0.168222145,
-0.068117373,0.167209966,
-0.038259422,0.040679785,
-0.041615499,0.105052287,
0.158265871,-0.107355279,
-0.081055346,-0.184861326,
0.281661028,-0.032460117,
-0.264569485,0.098503785,
-0.056633967,0.074642449,
0.127006514,-0.313468810,
-0.031743355,-0.088021477,
-0.059994524,
0.090026282,
0.199193450,
0.001721046,
0.042186715,
-0.043066754,
-0.065512666,
-0.091190311,
0.185514835,
0.072584676,
0.190719339,
-0.027608566,
-0.119858290,
0.272993342,
0.166567579,
0.143964388,
0.053567775,
-0.086442357,
-0.061937879,
0.181639005,
-0.063460809,
-0.001106747,
0.174355325,
-0.015691302,
-0.049094413,
-0.047580224,
0.232585893,
0.058150804,
-0.047242486,
0.101601248,
0.219160386,
-0.122343240,
0.080860605,
-0.052366401,
-0.040960168,
-0.090757352,
-0.053252096,
-0.144169561,
0.131222151,
-0.030710264,
-0.181132365,
-0.100079822,
-0.087794195,
0.051856314,
-0.293883759,
0.016076228,
-0.139631996,
-0.131805022,
-0.114702967,
-0.014255112,
0.193180312,-0.211420666,0.151438188,0.119602356,0.167652255,0.086010529,-0.203736794,-0.151644110,-0.175811963,-0.225067469,0.102606571,0.001246009,0.060315175,-0.184749723,-0.046373458,-0.224471776,0.041747511,0.078907686,-0.018501559,-0.064517585,0.241932223,-0.143477357,0.117118366,-0.035405626,0.283008620,0.250151868,-0.106809647,0.007227999,-0.149395100,0.108752327,0.044756014,0.037625120,0.066513582,-0.036878718,0.077485114,-0.067361808,-0.030857715,0.060594636,0.151507196,0.160526184,-0.073649430,0.175711604,0.138601312,-0.010083858,-0.050206918,-0.104785625,-0.018600470,-0.030356312,-0.065242915,-0.275590373,
-0.193523159,0.123652652,0.362443327,0.085198521,0.358846556,-0.064658619,-0.197321868,-0.155257203,0.196540172,-0.205718980,-0.011921312,0.348862161,0.152040297,-0.073549411,-0.036032239,-0.157098178,0.020447576,-0.023023455,0.171471682,0.035700954,-0.117257863,-0.129108865,0.027089663,0.067037421,0.159565371,-0.080021267,0.016326763,0.097510109,-0.108209793,0.130975621,0.212209530,0.286362965,0.252604825,0.083741680,0.269238082,-0.043476632,0.124996387,0.331511513,-0.179597682,-0.094023613,0.025188167,0.072003348,-0.065006063,-0.094690265,0.054014854,0.203038863,0.051440146,0.260490899,-0.022773047,-0.175371862,
0.069210700,0.042545243,-0.166445684,0.217754207,-0.032995690,-0.098136079,0.214301289,0.056977497,0.029829057,0.010726820,-0.127862136,-0.096026345,0.019973813,0.119836591,0.054667652,0.018944726,-0.002556251,0.110071204,0.162499702,-0.196762416,0.254268396,-0.095716676,0.013253893,-0.013689404,0.006916763,0.116217655,-0.013062508,0.035386778,-0.023685708,-0.118290126,-0.007501977,0.239971322,0.178147305,-0.192809019,-0.011898389,0.037138321,-0.072053540,0.031773943,-0.018089854,-0.284251845,-0.071394756,0.016090691,0.204424663,0.111702263,-0.073197344,0.319831942,0.125748063,0.174272473,0.242266998,-0.050854690,
-0.073619146,0.027572345,0.156055587,-0.042708386,0.027091139,-0.265284629,-0.108585661,-0.192773322,-0.099864125,0.036582994,-0.254981681,0.238073759,0.081439037,0.109510262,-0.027759327,0.111438474,0.131545433,0.247923302,0.045130391,0.152404403,-0.240327539,0.165097968,0.019266419,-0.107764210,-0.024676535,0.052143508,-0.078282281,0.167454479,0.138606680,-0.165352421,0.076373036,-0.357605875,-0.227276269,0.163280994,-0.040158736,0.423343426,-0.102058480,-0.151008392,-0.025519224,0.050330668,-0.290444579,-0.214105467,-0.131503990,0.046751951,-0.033691392,0.191874458,-0.053906738,0.114367015,0.282612027,0.041698530,
0.056334383,-0.174700361,0.098250957,-0.014878788,0.216265007,-0.073455971,-0.010155063,0.115573938,-0.085745510,0.254758253,0.116262147,-0.387148169,-0.112224417,0.089899231,0.027116510,0.204287674,0.100682324,0.174035635,-0.051450787,0.021676709,0.020434178,-0.175276572,-0.046133657,-0.096604493,-0.057614940,-0.254002275,-0.002259140,-0.031348381,0.016526260,0.136422050,-0.061958276,-0.013587717,0.072997004,0.047638256,0.012821769,0.019246027,-0.004101939,-0.191984988,-0.213425391,0.199947020,-0.107561615,-0.238101170,-0.101335836,-0.091215099,0.034269509,0.019635735,0.175037188,-0.077487022,-0.303117737,-0.149726112,
-0.046624682,0.053362273,-0.000688524,-0.081221082,-0.003853137,0.150977077,0.047260491,-0.019531015,-0.036404361,-0.127117298,0.061784303,-0.152336388,-0.107988773,-0.040702537,0.004441780,-0.093333240,0.062730279,0.118647980,-0.035125024,-0.012449488,-0.133187564,-0.102573517,0.035152996,0.010511911,0.062804759,-0.408572294,-0.120007295,0.031316618,-0.063893941,0.128646881,0.103730033,0.205373566,-0.170911862,-0.021310418,0.019561714,-0.228922818,-0.024021954,0.055880450,-0.003346441,0.063809612,-0.029630820,-0.209784410,0.044671114,-0.050197478,-0.092248143,0.023035959,-0.140178767,0.083180562,0.041809440,0.100520580,
0.020569635,0.036251833,-0.153437765,0.363628510,0.202649549,0.160924703,-0.110517750,0.249555859,0.001317865,-0.168606596,0.188333601,-0.050784330,-0.122181971,0.066199793,-0.155233817,-0.082862811,0.092266855,0.145690478,0.190689962,-0.074165288,-0.087507872,-0.027560675,-0.189921593,-0.012081628,0.241934845,-0.211201577,0.136195798,-0.057113528,-0.049099413,-0.190571849,-0.054603275,0.147628989,0.200247568,-0.366630117,-0.069611552,-0.210145782,0.055015818,-0.010862063,-0.248104940,0.065517694,-0.032150455,-0.000786051,0.159079339,0.070673747,0.024045787,0.087967062,0.020279186,-0.411066992,0.048228208,0.158566673,
0.116071555,-0.181233822,-0.129239236,-0.008324481,-0.108089542,0.175531216,-0.017622543,0.193678817,0.012604962,-0.072060268,-0.032149269,0.007527783,0.024736911,0.120600110,0.177951402,-0.014536208,-0.010485652,-0.240545485,0.103725092,-0.104024251,-0.019768506,-0.010767007,-0.082598769,-0.127774583,-0.074799381,0.055674543,0.203219394,-0.023346802,0.053624664,-0.089336493,-0.077755372,-0.082795979,0.047249997,0.202721559,-0.082558861,0.128348085,-0.323904067,-0.298545406,-0.194143307,-0.021319246,-0.185641521,-0.109750977,-0.009427086,-0.067176048,0.114420198,-0.038040886,0.016517171,0.039800471,0.035963345,-0.230309409,
-0.043707856,0.011578886,0.079592330,0.217444126,-0.044848071,0.112862247,-0.099775402,0.084618668,0.097124425,0.375975675,0.106222886,0.126330004,0.203660148,-0.034926485,0.172562466,-0.160799292,-0.117406554,-0.129961301,-0.027049016,0.023789484,-0.061243032,0.354325574,-0.151122222,0.114658539,0.018251759,0.158729159,-0.068278092,0.114736880,-0.205631824,0.096916583,-0.109067423,-0.024287857,0.133196014,-0.088859714,-0.060637731,-0.173785625,0.027056688,0.087649515,0.170936930,-0.090028257,-0.085986596,0.206977534,-0.155404640,-0.294295998,0.240181068,0.022932589,0.004965844,-0.059989184,-0.060890137,-0.087491021,
0.033052738,0.090389925,-0.082920437,-0.115982451,0.058554858,-0.049740294,0.038165008,0.044527017,0.017537712,-0.132472201,-0.149895543,0.128368051,0.278881314,-0.056835254,0.104340519,0.102760054,0.017261452,0.041434820,0.048291706,0.162763488,-0.053312641,-0.053862457,0.033302467,-0.023476702,0.107204095,-0.014128519,-0.069485396,0.121486408,0.114035482,0.085376426,0.108928228,0.246503500,-0.082011663,0.122707129,0.129525315,0.003584372,0.026636129,-0.044703407,0.063259388,0.083783272,0.062048024,0.149035278,-0.065974413,0.250533736,-0.120642559,-0.114111503,-0.058006687,0.214276761,-0.181311527,0.049466484,
-0.170419649,-0.043545738,-0.125270787,-0.148476421,-0.266245413,-0.002420376,-0.071934220,0.171733710,0.033579362,0.260346756,-0.111836958,0.166804525,-0.000417353,0.037505677,-0.026074456,-0.190168546,-0.019068426,0.065958466,-0.079289586,-0.047292623,-0.075053821,0.111944464,-0.006649131,-0.218460617,0.054510534,0.113183163,0.061549679,0.050113990,0.117768306,-0.199506831,0.023551364,0.184393481,0.036506806,-0.123567417,0.027646407,0.086440133,-0.000266306,0.116014771,-0.196288168,-0.134384858,-0.097691258,-0.166219169,-0.114088450,0.343995787,-0.048676525,-0.029589005,-0.109029831,0.013035198,-0.306322085,-0.078660369,
0.181750302,0.084309805,0.036636738,0.113337196,-0.284499502,0.048384058,0.131175040,-0.132084500,0.091356477,0.168780354,0.048498569,-0.101210827,0.186212461,-0.029318523,0.267715750,0.152069657,0.137231915,0.164757113,-0.055842063,-0.117089700,-0.284130414,-0.105401046,0.212245032,0.196395485,0.071995706,-0.097436946,0.092576935,0.165715649,0.016617473,0.107491765,0.071646590,-0.235760063,0.131986337,-0.133917729,0.274098857,0.014073007,0.157308740,-0.019859398,-0.017989016,0.136525638,-0.028497395,0.198238641,-0.090456377,0.164825014,0.283691444,0.062397650,-0.053557587,-0.111868340,0.084966707,-0.046554411,
0.312337506,-0.000578664,0.042221313,0.077641805,-0.024079459,-0.113525686,-0.024923643,-0.118892301,-0.080627510,0.125136444,0.226012110,0.143981107,0.262662218,0.039270970,0.111649500,0.054124729,0.069271691,0.142679471,0.069222297,-0.111339088,-0.073491431,-0.205154638,-0.111163342,-0.301143950,0.129625246,0.158353231,0.048456664,-0.148264863,0.110892150,0.299554124,0.106089594,-0.063566265,-0.053678976,0.232660911,-0.051598885,0.058809991,0.053298283,0.000051579,0.338149904,-0.046851978,-0.263174993,0.116140636,-0.136403678,-0.024131203,0.156542808,0.164977792,0.017798774,0.147565565,-0.082923595,-0.059738548,
0.077403403,-0.137898662,-0.109428618,-0.109438383,0.039305802,0.049374998,0.178481517,0.189658451,0.056466226,-0.098333751,-0.132731357,0.003798874,-0.102267426,0.013170597,0.063410809,-0.031248465,0.011353903,-0.036373362,0.078415713,0.143325937,-0.142169980,0.060432416,-0.275014099,-0.113513797,-0.123961420,0.050950322,-0.111926550,-0.451971481,-0.359676223,-0.124930892,-0.039476420,0.196290465,0.209703186,-0.205391123,-0.156541578,0.036277779,0.182523224,-0.050648771,-0.114644081,0.067396226,-0.029789741,-0.164671555,-0.065900931,-0.082770309,-0.410022901,0.158179894,-0.267262224,0.019594197,0.289603630,0.146752623,
0.075738462,0.057311468,-0.318603245,0.036724473,0.262548738,0.082081982,0.078816756,-0.080930659,0.116922961,-0.212745270,0.200701155,0.006035590,-0.045329524,-0.022170550,-0.322748897,0.129751587,-0.064558271,-0.223201545,-0.043368230,-0.021548390,-0.191898533,-0.126315374,-0.091606846,0.108528075,0.075869537,0.117566032,-0.110750578,0.189116704,0.113135917,-0.150884960,0.175050013,-0.038509351,0.058095145,0.024861723,0.018306508,0.049278547,0.024430768,0.143865301,0.374664820,-0.153378853,-0.104067652,0.105516570,-0.194662159,-0.025373941,0.037459841,0.215697141,0.132417106,0.095154849,-0.156199672,-0.027639819,
-0.092944913,0.086850180,0.161112675,-0.045381525,0.058492700,0.148022407,-0.222026910,0.172530264,0.130157663,0.209601449,-0.091243432,-0.127336818,-0.084152978,-0.055368673,0.083934614,0.126256936,-0.059996264,0.087281545,-0.085838194,-0.064184866,0.175441165,-0.145404198,-0.096871590,-0.180090017,0.052912697,-0.056064494,-0.071151484,-0.013509268,-0.030295162,-0.030498018,-0.000459381,-0.062849322,0.107879952,-0.151183412,0.183339021,0.143139216,0.030312624,-0.175997947,0.061491350,-0.102036506,0.250396789,-0.254541473,0.029503604,0.139176659,0.114694169,-0.070616613,0.084224841,-0.066871475,0.010200187,-0.133346521,
0.074002852,0.189665596,0.364294700,0.118212992,0.035264296,0.116869690,0.006550721,0.021274934,-0.271494966,-0.008895550,-0.164797709,-0.019101922,-0.114403755,-0.054685701,0.031402679,0.155084574,0.101578316,-0.204907550,-0.029837041,0.121507074,0.195358872,-0.117591515,-0.036954201,-0.130821953,0.099076302,0.010926969,-0.100129217,-0.054956618,0.121817659,0.073678813,0.034712108,0.135340822,-0.075058049,0.003956103,0.012502238,-0.170514151,0.049129030,-0.272080714,0.039327570,-0.133617342,-0.038003207,-0.103511798,-0.108580166,0.083162966,-0.001093982,-0.105351776,0.057902302,-0.164364811,0.123268588,0.093970387,
0.043279969,-0.111772845,0.224480885,0.271152627,-0.038208945,-0.032773360,0.095744748,0.044593647,-0.042024783,0.318648256,0.196562673,0.014999603,0.133773501,-0.127414511,0.108850833,0.119344189,0.218947308,-0.060371311,0.067514579,0.042310521,-0.133087242,-0.047318513,0.042363686,-0.074190597,-0.078463393,-0.232419819,0.141789373,0.085093699,0.110358557,0.020809196,0.147769063,0.205031522,-0.109723208,0.060911576,-0.010939818,-0.100948830,-0.004346991,0.010737731,-0.196108561,0.169138773,-0.026001791,-0.181438616,-0.232803850,0.109095665,-0.129911377,-0.033726777,-0.215450953,-0.186062802,0.147606916,0.041082967,
-0.005910328,-0.038936399,0.060786573,-0.224761046,-0.070434272,0.013308810,0.262323224,0.044505698,0.194376946,0.146343795,0.100837803,-0.170275928,-0.254191021,0.209924865,0.134017719,0.024182583,-0.115243116,-0.106034339,-0.094367484,0.214984434,-0.143910173,0.025723048,0.246583212,0.002211550,-0.052075075,0.025918149,-0.082302960,0.078353716,-0.013386563,0.305852630,0.019201726,0.069723153,0.139428788,-0.183307330,0.135056430,0.094036753,0.273529314,0.199269390,0.005072350,-0.002354796,-0.107365839,-0.025834619,0.061668635,-0.201919893,-0.029995326,-0.231902940,0.313971225,-0.056715548,0.242488442,-0.033268752,
0.118904365,-0.153374462,0.013635394,-0.055627764,0.024987604,0.129759805,-0.042801162,0.002281701,-0.199132578,-0.037522354,-0.176364899,0.025683247,-0.037502553,-0.107398130,0.022156909,0.102981790,0.004627397,-0.021011979,-0.102943331,-0.412591022,-0.082860863,-0.089455582,-0.183609137,-0.243352502,0.239057698,-0.143997620,0.313488191,0.122002390,0.001107681,-0.176242298,-0.020599057,-0.311154323,0.020919428,-0.212866579,0.092395295,-0.272764828,-0.073647346,0.100713784,-0.052789648,-0.362529771,-0.099245918,0.174228348,-0.108359575,-0.286285871,-0.164806905,-0.093331011,0.018520231,-0.151747934,0.212707199,-0.045325493,
-0.093828189,0.208593372,0.032665812,0.048732616,-0.105131101,0.168149888,-0.041908925,0.292332791,-0.077469174,-0.010346177,0.102354080,-0.041248780,-0.127513979,0.196078543,-0.173087223,0.019269333,0.105231019,0.130055179,-0.116270852,-0.142570979,0.034141942,-0.097242491,0.039738219,0.057925164,0.163588904,0.196695187,0.131342408,-0.106891010,0.127654994,0.222305665,0.081295451,0.058111909,0.068767621,-0.162088269,-0.022496497,-0.025477283,-0.081308371,0.059937060,-0.114089121,0.107433566,0.028794155,-0.329508707,0.179054996,0.311468682,0.067701158,-0.014090907,-0.171976191,0.048924369,-0.098961423,-0.106317128,
-0.007409501,-0.002191954,-0.078943691,0.037484654,0.153756500,-0.126113105,-0.016250002,0.190096897,0.024273156,-0.193153966,-0.044979547,-0.142645597,0.171869670,-0.163011352,-0.015097624,-0.102351232,0.061300784,0.015358350,0.013231049,-0.113766353,-0.176240888,-0.018311907,0.047758002,-0.190201320,-0.013250218,-0.035928704,-0.049049340,-0.009798752,-0.120543339,-0.216444186,-0.076267748,-0.030031142,-0.121331604,0.007938574,0.021717641,0.023882838,0.003925444,-0.222799216,-0.171768004,-0.172992764,0.094887081,0.147506741,-0.019735511,0.008108993,0.311594433,-0.172417581,0.241023607,0.306309422,0.003856143,0.121083676,
0.192785923,-0.124724106,-0.139152518,-0.127937828,0.163225255,0.267462012,-0.012310001,-0.021067530,-0.220381820,0.027250692,0.150046691,0.074717231,0.172073025,0.025532998,-0.193090584,0.028871360,0.034392398,0.166832698,-0.109125119,0.210873005,0.178330854,-0.098308419,-0.030872691,0.021986069,0.120356506,-0.102284818,-0.087956423,-0.120553080,-0.081837131,0.002602653,0.020926652,-0.229614663,-0.072528566,0.147260708,-0.131629813,-0.045614194,0.125722113,-0.249319455,-0.225697950,-0.055905984,-0.061621928,-0.095798844,-0.121930945,-0.210174885,-0.048902911,0.090564970,0.038357146,-0.249664592,0.148133299,-0.070068645,
0.277923926,-0.302493671,0.105146348,-0.133655838,-0.303526769,-0.264532219,-0.236706940,-0.237581342,0.126561167,-0.198949209,0.161002801,-0.023148404,0.033319787,-0.032184538,0.042308222,0.075190663,-0.021724899,-0.221432945,-0.101961443,0.112038851,0.163508373,0.039590304,-0.249911345,0.079059534,-0.200558403,0.023401617,0.108257907,0.331156413,-0.022387947,0.055695786,-0.119231960,0.071964345,0.106219523,-0.078787944,0.143606826,0.012694341,-0.208237068,-0.086442428,0.067604874,-0.213479678,0.123996125,-0.113943467,-0.220027667,-0.197103724,0.098706555,-0.093031728,0.042283562,0.080059290,0.311897513,0.166776809,
0.183270367,-0.093074211,-0.069293080,0.033383897,-0.007505103,0.296793407,-0.140844943,-0.003751840,-0.068791950,0.072114793,-0.017263246,-0.034962982,0.105271618,-0.323471514,-0.021135238,-0.270516562,0.033822034,0.057346876,-0.056543506,0.022447162,-0.289655598,-0.164616335,0.137752045,-0.076448787,0.095098418,-0.183997054,0.077471517,0.006491326,0.037144120,-0.182192985,0.128167919,0.012964894,0.040527982,0.174319579,0.000760262,-0.135313457,0.079114803,0.147263608,-0.148117651,-0.210704307,0.418614024,0.286239903,0.148122629,0.166737478,0.008569203,0.134133608,-0.031844976,0.276042419,-0.048202637,0.044096498,
-0.065516051,0.046949948,-0.148262097,-0.081266378,0.062728428,-0.029220805,-0.008911627,-0.126018498,0.033701893,0.131179715,0.117615272,-0.026713639,-0.031936791,0.055629495,-0.114021483,0.000463374,0.066638460,-0.089640387,-0.138058342,-0.095670457,0.172102049,0.020563404,-0.040186645,-0.096366128,-0.138869921,0.070605815,0.075273233,-0.068461051,0.189578994,0.137216170,-0.176178945,0.197823210,-0.323433625,0.160536857,0.039434648,0.218647851,-0.042320767,0.239467897,-0.099457974,0.118372456,-0.218047982,0.008563029,-0.074467662,-0.270183652,0.275451821,0.208333774,-0.126996745,-0.072316442,-0.149341286,0.255161096,
0.029633404,0.056437849,0.184096274,0.126378288,0.316887743,0.115229696,0.039741734,0.140550433,0.137476674,-0.141391087,0.172274192,0.019337331,-0.153892842,-0.147137881,0.200743264,-0.274901652,0.251489632,-0.050469016,-0.058372665,0.048271614,0.090430873,0.238176322,0.138196145,0.166727615,-0.245507143,-0.102464707,0.094735606,-0.128301418,-0.442129563,0.208221019,-0.029352182,0.237374939,-0.165789116,0.050969188,0.051195002,-0.025352844,-0.060312977,-0.155367785,0.200949922,-0.317228943,0.142894421,-0.039628760,0.004692938,-0.177658095,-0.002210533,-0.062471788,-0.015759728,-0.018475562,0.093731429,-0.254249627,
-0.004370088,0.076674501,0.061019067,-0.213394544,0.162912928,-0.216278086,0.088275450,0.031779322,0.041086932,-0.259373645,-0.343748057,-0.064291145,-0.112323037,0.022082569,-0.088760395,-0.137426209,-0.082438537,0.043541905,0.213923670,0.110258013,0.028436398,0.028883341,0.089983295,0.250765611,-0.171316566,0.123851395,0.138447522,-0.044796677,0.186065155,0.026164919,-0.136315997,-0.032502427,0.019128684,-0.217758870,-0.009109838,-0.196419234,0.090828098,-0.226745065,0.161589748,-0.232951468,-0.249877650,-0.141018462,-0.122861343,-0.180659216,-0.027670375,0.083684378,0.209983081,0.042563592,0.045919939,0.029380392,
0.128005103,0.040212781,0.001229030,0.157934689,-0.205557968,-0.128759418,-0.193000916,0.219487867,-0.161092090,-0.094938171,-0.028498467,0.068099917,-0.057484389,-0.009002927,-0.148040626,-0.039499305,0.070298004,-0.140043591,-0.069704108,-0.122982160,-0.074556992,0.199870270,-0.060152751,0.162792215,0.127723003,-0.212380152,0.081612029,-0.177127926,0.022727932,0.210206627,0.100996260,-0.039448568,0.174573734,0.039764572,0.129035207,0.399639823,-0.314257639,-0.204080634,0.040080255,-0.246025987,-0.159029441,0.213337373,-0.099025564,-0.139604598,0.297747362,-0.023956888,0.053692193,0.033209755,0.106348932,-0.186735427,
0.169218401,0.021558480,-0.117769472,-0.132672210,0.010700823,-0.204842763,-0.032374346,0.099827848,0.035720295,0.133469455,-0.199182224,0.130450158,-0.022812757,-0.148258357,0.028748404,0.327003349,0.043822187,-0.202933174,-0.136936347,-0.195085245,-0.196633491,0.101294549,-0.083169535,-0.158676880,-0.070970896,-0.249984982,-0.245190653,0.024846475,0.090489441,-0.032976373,-0.067118223,0.054743896,0.042448220,0.146643089,0.294861975,0.174282103,0.095883871,-0.114062547,0.072210448,-0.207174683,-0.102287542,-0.034435726,-0.208116976,-0.029529253,0.007084834,-0.041752215,-0.237799985,-0.079697130,-0.013613639,0.065020428,
0.046823128,-0.059779663,0.007003595,-0.021008005,-0.123003268,0.163253677,0.066834728,-0.164025104,-0.228675007,-0.067037826,-0.036364948,-0.057876013,-0.040874192,-0.091643266,0.052174804,0.053192975,-0.057574722,-0.103351433,-0.243583786,0.101353152,0.361879957,0.073683016,-0.040845906,0.163656076,-0.014535010,-0.199632985,0.069905242,0.215996838,0.085072517,0.080797099,-0.164056963,0.094442382,-0.186363396,-0.101096182,0.029349684,0.097410493,0.095003464,0.146785209,0.157529351,-0.119000874,-0.131110377,-0.113595141,-0.110420007,-0.066582506,0.117676796,-0.149318542,0.034491402,0.016055892,-0.070965136,-0.150132604,
0.037363132,0.096014186,0.184318561,-0.169257613,-0.071688931,0.156070790,-0.018129716,-0.017849822,-0.047852387,0.025030740,0.161449277,0.096419353,0.078410943,0.063504029,0.027133356,0.049603881,-0.165820866,-0.137920161,0.228663503,0.000226037,-0.165010362,-0.209921723,-0.119548081,0.184495209,0.252329837,-0.127117713,-0.202540224,-0.201903146,-0.094488494,0.082812003,-0.064504106,0.389536849,0.047988943,0.011531231,-0.027144674,-0.008062936,-0.065550221,0.100394761,0.025354483,0.041827565,-0.169776166,0.114959246,0.112177560,0.049115608,0.073425563,0.088972194,0.037489955,0.242851489,-0.265949969,0.012098931,
-0.284254891,0.064374741,-0.424914701,0.204621062,-0.236283301,0.088888534,-0.009176119,-0.054575304,-0.172130963,-0.163149380,-0.054118638,-0.124196678,0.027534547,0.019993266,0.101689708,-0.018799702,0.039293873,-0.043700214,-0.089124100,0.027401121,-0.055874272,-0.262789832,-0.124366893,0.048692427,-0.041008669,-0.155288536,-0.048651214,-0.041445086,-0.082380818,-0.139850027,-0.064748207,0.139530570,-0.089957684,-0.047395945,0.008506694,0.191094921,0.238814502,-0.103661894,-0.122016542,-0.262199218,-0.050427783,0.191749939,-0.098970910,0.160619378,0.191368835,0.128776846,0.017922564,-0.111197887,-0.076437215,0.025125241,
-0.146583454,0.222234014,0.061960729,-0.094104920,-0.038918273,-0.023801686,-0.088653044,0.010639946,-0.013387116,0.220744503,0.006836732,-0.076281417,-0.440578363,-0.203410535,-0.139756080,0.112443440,-0.050939748,-0.022331972,0.101731618,0.092630870,-0.096490857,0.248410842,-0.106560609,-0.228448224,-0.177159026,0.069136089,0.152462599,0.161407909,-0.194138407,0.093305374,-0.034968492,-0.020292063,-0.019799217,-0.003516271,0.231081810,0.186049981,-0.164900719,0.254468148,-0.121509917,-0.118059653,0.198500918,-0.125763774,-0.180784284,-0.239102427,0.025385703,0.300150358,0.215987592,0.093085032,0.134625571,0.037077513,
-0.149491259,0.037458754,0.103646306,0.111237352,0.055215255,-0.012253822,-0.166048929,-0.015515144,-0.012158698,0.008322602,0.098452645,0.126340521,-0.161167836,-0.054545941,0.070517155,-0.028757544,0.014232446,-0.344458733,0.140145718,0.080847251,0.168408794,-0.019844038,-0.101746874,0.148626800,-0.160770151,0.320971890,0.048065663,-0.082999004,-0.002101358,-0.030230438,-0.067367182,0.208005154,0.066553030,0.095835040,0.049646212,0.115600315,-0.127646312,0.150597795,0.201814264,0.007911954,0.140865278,-0.005237628,0.177061141,0.090478843,0.033874911,-0.351422005,0.000404520,0.131071403,-0.138516814,-0.110670272,
0.029914394,0.089950244,-0.218415090,0.083455851,-0.043671771,-0.241068846,0.173398238,0.257640740,-0.008481165,-0.061744038,0.088295129,-0.251608437,0.068319539,-0.207734809,0.024411615,-0.095627920,-0.179082018,-0.075439863,-0.071749467,0.023522184,0.287978393,-0.140234157,0.053346851,-0.145379306,-0.019271990,-0.073656179,-0.063509109,0.213012474,0.002758925,-0.291084264,0.052256758,-0.044855731,-0.248787621,0.031910680,0.111609787,-0.002659849,-0.062808560,-0.094629794,-0.081426488,0.071932563,-0.056559839,-0.017720207,-0.098173647,0.164525501,-0.012728956,-0.205646363,-0.128134458,-0.101626460,0.124183920,-0.237091149,
-0.393821009,-0.006942779,-0.160892572,-0.205863996,0.080638664,0.170319998,-0.214422965,-0.064744513,-0.163220259,0.126706385,0.119098051,-0.057035193,-0.110390510,-0.096527245,-0.013634310,0.027081236,0.036557310,0.037200386,-0.230663742,-0.186522937,-0.214192665,0.148253855,0.017051647,0.023120141,0.200296659,0.104274102,0.097863431,-0.145114453,-0.163158511,0.124294138,0.025113357,-0.013300672,-0.095364793,0.003302459,-0.147171644,0.041095148,-0.031076680,0.180363345,0.046776444,0.045436683,-0.034683835,-0.050009312,-0.192676237,-0.254063678,-0.146090908,0.055373529,0.077861640,-0.082283197,0.098447041,0.146471949,
0.032274940,-0.012196590,0.046082231,-0.184500725,0.086169640,0.189242246,0.034102432,-0.192802774,0.131909900,-0.031682616,-0.174089755,0.111224855,0.184532215,0.308674009,0.180581432,0.075096090,-0.148262869,0.131335011,0.165325661,-0.381078476,0.086262150,-0.164832119,-0.179244877,-0.062130273,-0.053642959,-0.010603394,-0.159792925,0.120699634,0.120416635,-0.040192089,0.146826963,-0.139712256,0.173898360,-0.009139301,0.008607805,-0.092927478,0.026225307,0.076627756,-0.236225051,-0.100358003,0.039726544,0.054485090,0.401020853,-0.311249630,0.102796174,0.060031053,-0.092630929,-0.050196153,0.076854354,0.043062891,
-0.006218996,0.170840356,0.000886739,-0.267677040,-0.003788017,0.016206698,-0.099482675,0.096221205,0.148433461,-0.107964765,0.181300803,0.096101739,0.090502836,-0.041456815,0.013887106,-0.064232420,-0.028406896,0.002493345,-0.077900191,-0.047161958,-0.003456196,-0.022481621,0.038631344,-0.009869117,-0.144412108,0.044866916,0.085549013,-0.161149616,-0.011028901,-0.003825721,-0.025333682,0.337238160,0.032727293,0.262792856,-0.130464062,-0.126266632,0.054589283,0.217882499,-0.210674407,0.126728894,-0.134255724,-0.023995275,-0.123071822,0.059420942,-0.119050511,0.047970694,-0.148493958,0.277808938,-0.041111635,0.038536149,
-0.120342946,-0.061843180,0.030948861,0.195255054,0.026173392,0.075397382,-0.013291617,-0.205921687,-0.047781998,-0.009768306,-0.052103719,-0.109089128,0.030847075,-0.156687542,0.143989452,-0.133613293,-0.010481524,-0.189570309,-0.163317443,0.143610262,-0.054033964,0.018146284,-0.210939061,0.004833389,0.142854737,-0.211187363,0.047300419,-0.137661606,0.098431664,-0.101022533,0.232219858,0.015939012,0.184799250,-0.130246686,0.151269909,-0.214807325,-0.136962961,0.176395144,-0.119612857,-0.170546257,-0.005339983,0.095121268,0.092963406,0.108437411,-0.274643358,-0.137326397,-0.097685352,-0.027803936,-0.180989786,-0.135573591,
0.087502926,-0.090823914,0.173168007,-0.088346452,0.376213625,-0.282432079,-0.146979818,0.014464634,0.126940476,-0.095235035,0.251491899,-0.105553946,0.371849026,0.122963186,-0.183625166,-0.168069068,0.084930533,0.023003121,-0.044721195,-0.033107585,0.327533633,0.067298430,-0.029634636,-0.002748817,-0.035209865,0.293817102,0.159531021,0.113370075,-0.037664540,-0.099010902,0.023866738,0.037313464,0.100316304,0.149581776,-0.094715926,0.092094783,0.137553575,-0.085137175,0.120462098,-0.106486660,-0.181416622,-0.115348162,0.071697407,0.252383884,-0.059567575,0.075257939,-0.052990130,-0.037334442,0.175018349,0.001087629,
-0.063030650,-0.063752243,0.010625803,-0.165756817,-0.045636123,0.042956866,-0.073566995,0.060674978,-0.097458516,-0.223599774,0.009656583,-0.169873763,0.179744768,-0.041862280,-0.045476614,-0.045034594,0.085638887,0.032702357,0.133933957,0.032066710,0.083982175,-0.107665319,0.053560902,0.182931565,0.196995375,0.192179207,-0.036314793,0.042343575,-0.090547289,-0.016941388,0.056400535,0.071375426,0.004654208,0.020978439,0.006068816,-0.128463093,-0.042712442,0.087699509,0.071460443,-0.229020284,-0.165218481,-0.142501576,0.162032857,-0.012821648,0.041426094,0.162259758,-0.310622417,0.014217479,-0.338923504,0.121483494,
-0.034515251,0.022917623,0.150924648,-0.089717657,0.192399137,-0.110850131,0.136583094,0.044341497,0.065907327,0.094310410,-0.136415691,0.219225036,-0.027299587,-0.354739498,-0.191236112,-0.241092758,-0.148451823,0.010435402,-0.166031682,-0.020217140,-0.019436197,0.215573573,-0.177921185,0.007061203,0.006230679,-0.087774452,0.110349447,-0.009159145,0.026617613,0.280657999,0.038111197,-0.055506122,-0.149112939,-0.270269850,-0.149841173,0.181648918,-0.163768922,-0.078494511,-0.063563681,-0.436959107,0.102189399,0.105048357,0.044855274,0.095079536,0.279003665,-0.023468273,0.045502490,0.052486396,0.111525619,0.165190882,
-0.030308621,0.186161376,-0.072870504,0.074061462,0.009768489,0.066816556,0.245683836,-0.084411363,-0.346108844,0.023785482,0.079193260,-0.034214584,-0.007389515,0.143246529,0.057396149,-0.113012300,0.048844772,0.106685413,0.072310477,0.053901737,-0.006406056,-0.285448919,-0.180070628,0.045457720,0.012151054,0.158145531,-0.161502643,0.068925435,-0.300537363,-0.107495188,-0.078589242,-0.060935318,0.046292596,-0.172279520,0.007680600,-0.115530883,-0.050463941,0.051163732,0.097104729,0.096953625,-0.166864944,0.058938861,-0.104251985,0.083768619,-0.215701619,-0.103428400,-0.041017075,0.382336909,0.019885310,-0.034650736,
-0.050944655,-0.109837254,-0.147712734,-0.128793531,-0.185494738,-0.051881883,0.071750890,0.066480186,-0.100679692,-0.039355624,-0.104816970,-0.237246389,0.047104947,-0.092034818,0.001135778,-0.034579591,0.115597891,-0.170430486,-0.058789224,0.093875514,-0.097846808,0.149415075,-0.197228251,0.014564383,0.060737443,-0.059147706,-0.244409199,0.073670232,0.105739783,0.024646245,0.047128856,0.022715026,-0.075383741,0.060069188,-0.234027559,-0.032639228,0.228715982,-0.080462536,0.150556612,-0.018535032,0.108227931,0.134155093,-0.062281415,0.001976600,0.134731344,0.117295718,-0.042012010,-0.064713350,-0.367442605,0.272732769,
0.022474142,-0.158875113,0.056280544,0.005692037,-0.128251437,-0.156933604,-0.202182222,0.173098447,0.018050555,-0.048125661,0.161214149,0.179195937,0.027358906,-0.037901524,-0.208158836,0.100208313,0.069508144,-0.046129626,0.001189983,0.325435182,-0.209120500,0.101857059,-0.066045752,0.004617474,-0.016979001,-0.021505979,-0.016935335,-0.002271187,0.023401731,-0.026011609,-0.095807824,-0.246366154,-0.212383496,0.072350827,-0.000662244,0.000697960,-0.022548098,0.112708090,-0.186828237,0.015850234,0.089977433,0.242496024,0.276842394,-0.105665984,0.412706454,0.025907354,-0.153077640,-0.226423613,0.153157599,-0.079960028,
0.107711482,-0.157567624,0.233810100,-0.008411023,-0.083717766,-0.098203061,0.109327383,-0.242006730,0.191036515,-0.344048897,-0.157440685,-0.111246880,-0.049119186,0.011358071,-0.017656669,-0.190851196,0.012065674,-0.080282258,0.216955540,0.021175570,0.025488359,0.004953660,0.076856818,-0.080309916,-0.042080433,-0.035615830,0.033095897,0.094777662,-0.034007754,0.042764146,0.107114890,0.106889336,0.059728083,0.070005117,-0.019845887,0.039311794,-0.103643659,-0.098023105,-0.075133826,0.146245313,0.179281881,0.184154605,-0.097857793,0.027596592,-0.057620067,-0.063476620,-0.116464356,-0.214476160,-0.156658309,0.305671289,
0.179313635,0.097032805,0.048371518,-0.071814098,0.084333550,-0.024820603,-0.074422444,0.145573214,0.086952055,-0.233686507,0.065221619,0.042502967,0.122783797,0.148433189,-0.010357982,0.115429782,0.260907183,0.045809763,-0.244551908,0.270019255,-0.385334924,0.058264058,0.047672039,-0.000993750,-0.090363756,0.045181648,-0.177437405,-0.200720409,-0.249163819,-0.156903311,0.033309154,0.023093831,-0.168133965,-0.090381274,-0.088675397,-0.179838300,-0.165819287,0.048213110,0.044972161,0.096063989,-0.003764864,0.001681626,0.056315968,-0.140520285,0.183909000,0.342942746,0.027239805,-0.090007943,-0.364088579,0.300545586,
-0.023526685,0.443524613,-0.273567888,-0.085510167,0.160337205,-0.036915353,-0.274674180,-0.105577278,-0.279914368,-0.194639849,0.007442011,-0.011552504,0.066963916,0.233004008,0.002082537,0.003539350,0.133544806,0.010578157,0.025877571,-0.138161804,-0.148597114,0.128218522,-0.070382775,0.015712068,-0.017089825,0.047247639,0.070903541,0.130837630,0.149960559,-0.045896116,0.156805496,-0.112460329,-0.040090812,-0.050354246,-0.251787711,-0.127855010,-0.079068016,-0.075456317,-0.104696186,-0.125107506,-0.094523175,-0.066109944,-0.019167549,-0.021748965,0.088879367,-0.021681242,-0.053601314,0.062520604,0.125551740,-0.060178294,
-0.228954947,0.036443904,-0.257723511,0.017373990,0.028683321,-0.146905357,0.273424894,0.112423087,0.139391219,0.044572002,-0.172235751,-0.147535408,0.089599336,-0.216460670,0.220185310,0.133927393,0.029339910,0.207218461,-0.122858035,-0.112818821,0.102920345,-0.035052915,-0.058051842,0.299493107,0.046109695,0.045430660,0.047451573,0.015234243,0.284785273,-0.183678158,0.157588204,0.048813947,0.276578459,-0.080087105,0.190190762,0.001535697,-0.042642431,-0.002434020,-0.103650840,0.065680822,-0.101215270,0.364986644,-0.200657068,0.260657871,0.083465321,0.073466172,-0.130654528,-0.116491405,0.073676618,-0.191688328,
0.148167141,
-0.106953162,
-0.077666313,
0.122567914,
-0.096293217,
0.054711363,
0.123716490,
-0.173092891,
0.009224206,
-0.012851816,
0.085603263,
0.022455498,
-0.064628411,
0.207705120,
0.139027719,
0.035062763,
0.053214890,
0.090216946,
-0.058383598,
-0.167591592,
0.163914406,
-0.031275645,
0.095326691,
-0.180789569,
0.090745190,
-0.020472584,
-0.039704667,
-0.214492161,
0.103399012,
0.108801513,
0.093635104,
-0.110964640,
0.051542108,
0.031431960,
0.180110433,
0.101396744,
-0.171907597,
0.058365502,
0.018203200,
0.105517533,
0.094898612,
0.005537264,
0.112972270,
0.087179895,
0.300472774,
0.109391238,
0.033891001,
-0.160632670,
-0.026204044,
-0.263033961,
0.207783452,0.151714798,-0.279116988,0.117861470,0.077439912,0.156782745,0.055492567,0.051635318,-0.016212063,0.083704256,0.032272587,0.018824142,-0.268697321,0.226449673,0.152457109,0.057952760,-0.045078625,-0.123152027,-0.100130948,0.142772981,0.119551925,0.033782304,0.075392057,-0.272548511,0.226493493,-0.343421806,0.110587423,0.230553372,0.026026585,0.117654415,0.117633197,0.113287779,0.080173940,-0.184940719,0.075174308,0.099712130,-0.171536230,0.155398441,-0.118058238,-0.088578302,-0.091262825,0.089149013,-0.013053684,-0.104388621,-0.162583036,0.044409566,-0.057171277,0.179463685,-0.112137500,0.055156173,
0.188932544,0.067437629,0.002202143,-0.094056542,0.038672574,-0.108158372,-0.186321314,-0.202336596,0.130081733,-0.025064968,0.285720904,0.042893618,-0.026832323,0.101077989,-0.136755851,0.195194107,0.137996821,-0.110476577,-0.029931920,-0.299236021,-0.027813718,0.128046291,-0.104295611,-0.008585804,-0.241520938,0.037685727,-0.117517858,-0.047154449,0.141971950,0.211205926,-0.039028491,-0.091321439,0.126761434,-0.064372407,-0.119408214,-0.150130409,-0.068364471,0.110298139,0.123358866,0.134052711,0.102221967,0.184066686,-0.012084841,-0.074528148,-0.166359783,0.305801319,-0.068570526,-0.023805001,-0.026488561,0.057493161,
-0.293644063,-0.035846213,0.011403192,-0.012802381,-0.005632934,-0.084785634,-0.363235654,0.135669573,0.016206648,-0.151492316,-0.029946724,-0.095808818,-0.150214250,-0.135679825,-0.095791157,-0.188485636,0.008976549,-0.197881883,-0.070735221,-0.171042537,0.058897027,-0.309285718,-0.024203527,0.034964794,-0.184606262,-0.222413459,-0.033891622,-0.161302203,-0.066170689,-0.116876777,0.031551559,0.092166662,-0.129893417,0.095086998,-0.085720095,-0.116316964,-0.238318165,-0.099745506,0.162075443,0.009262459,-0.140567750,0.031263029,0.107343213,-0.102035447,0.090758516,0.215439551,-0.239677197,0.071775884,-0.017542922,-0.067150700,
-0.137278456,-0.099318668,0.161015875,-0.032860701,-0.229217573,0.043929047,0.045974989,-0.013883489,0.155434061,-0.002154798,0.089710245,-0.037664710,-0.016274719,0.229049059,0.200825333,-0.156666831,0.118658032,-0.119492606,0.013924767,0.134015927,-0.101479708,-0.120883925,0.208107151,0.064445343,0.100728951,-0.175757287,-0.139408619,-0.140472894,0.229979912,-0.088772726,-0.146767889,-0.053693038,0.053917719,0.044311981,0.143915185,-0.030937559,-0.246578622,0.043625825,-0.255504196,-0.311346896,0.241288619,-0.091179897,-0.089799396,0.088069476,-0.149801235,-0.160146156,0.399138192,-0.008206236,-0.040410707,0.099007574,
0.022001864,-0.135533073,-0.007924403,-0.171451096,0.025996489,-0.029501241,0.047589259,-0.072317931,0.024790405,0.003344968,-0.007538116,0.163825364,-0.069974463,0.026987842,0.031841670,-0.101620005,-0.006302239,0.183039474,0.000335350,-0.099840828,-0.113012525,-0.280516878,-0.078846233,-0.001093712,-0.064022272,-0.206241645,0.166519425,-0.005503876,-0.006694648,0.027984920,-0.065657024,-0.198179444,-0.055700174,0.182603362,0.177242151,-0.007369693,0.144145732,-0.071049269,0.009979821,0.059911105,0.037791692,-0.041555491,0.002365989,0.005867626,-0.081437635,0.027893673,0.072760594,0.185195720,-0.062155764,-0.210191946,
-0.210990516,-0.165992984,0.109060715,-0.164797545,0.047081123,-0.205584348,0.034567898,-0.078053233,0.017557204,0.168056062,0.010151330,-0.093350904,-0.142059513,0.107210686,0.104719591,0.037804215,0.056417498,-0.037337597,-0.141880183,0.136166802,-0.175793312,0.109924813,0.020303680,0.006061094,0.010764240,0.124182420,0.002589147,-0.012004756,-0.059149051,0.074287375,0.047541181,-0.058189805,-0.225554414,0.087160642,0.026962299,0.015857759,0.146029724,-0.054660998,0.129946926,0.162458118,0.147964194,0.048935638,0.203961396,0.023245441,-0.157731542,-0.164171525,-0.070804287,-0.235082218,-0.153476901,-0.027843800,
0.097604814,-0.106223827,0.028836489,0.010386296,-0.039226993,-0.291031025,-0.101125078,-0.186724811,-0.190183687,0.336630321,0.078897698,-0.021153790,0.018017360,0.003938108,0.262230797,-0.169625196,0.042571408,0.082056950,0.074930931,-0.134667754,-0.031832077,0.205649651,-0.163508046,0.012098073,-0.064867024,-0.092625177,-0.051544425,0.120636006,0.120378051,-0.022496819,-0.073880116,-0.099851220,0.295117649,0.532269249,0.197591600,-0.047550274,0.159744745,0.122543817,0.065458100,-0.101227924,0.067756657,-0.093748697,0.048315729,-0.024021741,0.221606657,0.121606703,0.048268374,0.061058240,-0.222859485,-0.006350937,
-0.004609437,0.018172887,-0.145631271,0.094357709,-0.013377042,-0.051395256,0.006310649,-0.120158050,0.176823336,0.069033734,-0.023394624,0.000668405,0.129267246,-0.096052336,-0.040994057,-0.194599382,0.014075213,0.007158354,0.100807523,-0.015890223,-0.099628529,-0.184585542,-0.106832388,0.187348691,0.085887748,-0.120521980,0.041511007,0.224616228,0.223154153,0.088523311,0.187667834,-0.025645625,-0.148577541,0.097224141,0.114347821,-0.151148029,-0.075518686,-0.192740900,0.079309008,-0.030485711,-0.097776803,0.046191576,0.142909155,-0.101099376,0.358502061,-0.030951368,-0.002803042,-0.011529732,-0.019830380,-0.132165665,
-0.101713085,0.031298596,0.209374884,0.135510974,-0.000661938,-0.118647908,-0.002890511,-0.059512887,0.037984081,-0.266337485,0.204481303,0.120916214,-0.141393987,-0.034224647,0.066926435,0.270038866,0.033541917,0.181334667,0.201019810,-0.146127388,-0.065461117,0.178740127,0.207923676,-0.094652937,0.095370219,-0.091669156,0.061449839,0.053418375,0.184745337,-0.027087693,-0.075245639,-0.182884420,0.473128250,-0.052505590,0.040934374,-0.098478924,0.023853240,0.130439066,-0.084416884,0.055593233,-0.097560634,0.022445246,-0.121912241,-0.061678875,-0.044035396,-0.334621804,0.001852787,0.134091398,-0.196376189,0.057543811,
-0.084911808,0.033193661,0.228800055,-0.123256798,-0.090795238,-0.081719414,0.030256122,0.060578698,-0.207195043,-0.072435455,0.010129194,-0.064083568,-0.001309463,-0.008193915,0.030683946,-0.019667452,-0.077324244,0.007863354,0.032165930,-0.298804123,-0.234017535,-0.098903034,0.252319360,-0.136784567,-0.150954101,-0.045501603,0.179793017,-0.009507929,-0.220620402,-0.103302270,-0.327066702,-0.188855690,0.118225241,0.056736365,0.061965744,-0.109306412,0.318304840,0.068135778,-0.126376254,0.127438687,0.100442361,-0.089518782,0.096471238,-0.070310203,0.084516553,0.164953558,-0.219902361,0.151721758,0.225740793,0.000920298,
0.159570563,0.029135303,-0.052012378,0.055265126,0.049432110,-0.137027628,0.047780905,0.048777925,0.027550318,-0.027303731,-0.012261132,0.032898720,0.020569356,-0.266032340,0.026598283,-0.131388956,-0.087519562,-0.068958719,0.349945036,0.163551831,0.065018453,0.095583379,0.079817871,0.009431789,0.035376044,-0.095956257,0.106049352,0.005667216,-0.114882668,-0.178178900,-0.003557412,0.139728888,-0.073242270,-0.123730771,0.129343617,-0.045055648,0.020602264,-0.037720218,0.046887538,-0.024474805,-0.073640957,0.132096600,0.148559300,-0.082279552,-0.106487563,0.121656086,-0.095246914,-0.396612597,-0.087708687,0.268424358,
-0.329127329,-0.111179967,0.084026909,-0.194623564,-0.056833568,0.104571089,0.010733692,-0.251124902,-0.078363898,-0.015486392,-0.084423263,-0.001236688,-0.108276511,0.206159091,0.067453245,0.203112764,-0.079811659,-0.018811992,0.061305979,-0.312001065,0.038381011,0.168433814,-0.142017264,0.200849973,-0.056699706,-0.029487984,-0.023149549,0.000708661,-0.240443314,0.121561900,0.104714372,0.111094621,0.053538778,0.015547652,-0.187284402,-0.232177935,-0.072782467,-0.035001488,-0.153705124,-0.182353001,0.102064668,-0.069152822,0.094952885,0.070708951,0.195805152,-0.195112466,0.039382229,0.059796013,0.014981274,-0.000797269,
0.028209485,-0.181250602,-0.175589434,-0.014155972,0.007566218,-0.096865382,0.133851165,-0.076957836,-0.030558071,-0.132649481,-0.202332370,0.019873733,-0.020866443,-0.235920337,-0.354183163,0.077469512,-0.023080609,0.126394093,0.109135386,0.276845598,0.210438521,-0.016666847,-0.165991420,0.214849178,-0.141412925,-0.181469295,-0.149188816,0.187850831,0.179382946,0.142924672,-0.390830322,0.031273092,-0.177826717,-0.160429157,0.242065990,-0.307988850,0.111428698,-0.142078989,0.086523409,0.068750990,0.019535845,0.203517314,0.013978930,-0.014712491,-0.022808971,0.162455454,-0.021759137,-0.214775691,0.057392306,0.053020398,
-0.142736645,0.049218857,0.080991109,-0.019727921,0.007228114,-0.093199163,0.009327303,-0.053838345,-0.002561381,0.009081000,-0.083957831,0.178693163,0.045523207,-0.217191170,-0.045460817,-0.067487328,-0.043292712,-0.039352713,0.061428414,-0.047664462,0.037655056,-0.090497874,-0.243003821,-0.209999732,-0.035350856,-0.069907915,0.056709810,-0.223006396,-0.201548529,-0.009887375,-0.028444597,-0.020126728,0.254968994,-0.059752637,0.012175831,-0.014155606,0.127606219,0.143368117,0.137547479,-0.085805138,-0.034322879,-0.259746260,0.238090353,-0.167294759,0.055186491,-0.170483198,0.151782912,0.046761244,0.194117766,-0.017001531,
0.207046134,-0.064456409,-0.010871467,0.048965201,-0.010657551,0.006095127,0.199278979,0.138837127,0.002273779,0.200996353,-0.200851219,0.031084783,0.302640945,-0.051114579,0.122883546,-0.174377296,0.136132348,0.147084178,0.053101155,0.169889316,0.192495451,0.083446991,0.105451366,0.145044222,-0.248098803,-0.148469720,0.104299135,0.080401673,-0.024175897,0.050839510,-0.119165788,0.164182750,0.093057453,-0.091267141,-0.113645373,-0.197286333,-0.091637819,-0.118410180,0.259738722,0.421015965,0.088884879,-0.181547744,0.000004777,0.017026771,-0.041105029,0.294232776,-0.055482638,-0.004846619,0.266167047,-0.071742672,
-0.180155654,-0.179531641,-0.084255455,-0.000594879,0.145645574,0.082107731,-0.326715049,0.171715548,-0.313058865,0.068280966,-0.336326689,0.182875710,-0.044879054,-0.193899601,-0.162428346,-0.116265095,0.235784386,-0.228671012,-0.092115959,0.133726668,-0.261916244,0.030142887,0.113042111,-0.200213408,0.433684013,0.095284080,0.135618801,0.159218322,0.058290534,0.039516297,0.091481115,-0.222550598,0.133677033,-0.010485623,-0.079887255,0.114108045,0.038522881,0.061737539,-0.128909158,-0.339580229,0.280064447,-0.009796295,-0.075814615,0.145026304,-0.024423138,0.132460843,-0.140581854,0.086459690,0.218132230,0.008757226,
0.185000507,0.141354743,-0.037795969,-0.209696707,0.013972074,0.003498345,0.312620778,-0.199101865,0.031992152,-0.061727890,0.107628649,-0.236330403,-0.035535370,0.050914074,0.151989235,-0.231621483,-0.005978670,0.151067061,-0.035202383,0.042024890,-0.075051073,-0.151395477,-0.048512448,-0.009009559,-0.167624929,0.124239880,0.221241497,-0.027009339,0.067660873,0.151400106,-0.179650071,-0.068620166,-0.001622797,-0.077524060,0.260339528,0.096945021,-0.037905256,0.017283255,-0.022395646,-0.152348891,0.069707500,-0.055991090,-0.189500998,0.019936015,0.076117100,-0.149705423,0.160467838,-0.021687914,-0.153067478,-0.231620358,
0.198717458,-0.072761730,-0.032536647,0.139257819,-0.055032896,0.229433948,-0.207918054,-0.116723532,0.082276539,0.053617520,0.045522078,0.063867601,-0.094580732,-0.214452227,0.096823440,0.068899560,-0.042478087,0.111206803,-0.212334339,0.122351773,0.096536653,0.076757905,-0.181668736,0.134641266,0.210941553,-0.188042209,0.022924974,0.053306629,0.063768395,0.001826020,-0.074290784,-0.024002502,-0.074119287,0.088502274,0.009137061,-0.179448552,0.176118131,0.109931172,0.035209319,0.151158390,0.029591002,-0.091617006,0.215807597,-0.044908083,0.121019431,-0.101122216,0.154213660,0.027445323,0.073028589,0.128546205,
0.049945637,-0.088084658,0.211835312,0.007172820,-0.284951129,0.125395171,-0.061329537,-0.259157450,-0.210282635,0.124466506,-0.078167606,0.293219980,0.039026370,0.115080795,0.004460843,0.222312759,-0.082183517,-0.033652978,0.124451625,0.090083951,0.231378109,-0.152261954,0.030560130,0.105317511,0.051373871,0.119045448,-0.137456449,0.164648164,-0.084076658,-0.063586586,-0.033095353,-0.038716385,0.401356758,-0.142758833,-0.090381577,-0.141833995,0.209113764,-0.189777068,0.114183251,0.036847877,-0.037871159,-0.245180208,0.005273742,-0.007652107,0.106644618,0.030154411,0.040768000,0.028859953,-0.098947553,0.254853095,
-0.060068587,0.099147150,0.084694247,-0.215468266,0.099456149,0.049618750,0.218286056,0.114193634,-0.102243408,-0.194978763,0.069059708,-0.130235367,0.083817968,0.039558832,-0.195299557,0.029560810,-0.233167805,-0.124133789,-0.048319699,0.236553666,0.008536352,-0.087965622,0.143252735,-0.107612251,0.125848045,0.224058937,0.008695735,0.033931891,0.193153719,0.208734127,-0.112608649,-0.005057114,-0.064583667,0.018192009,0.111358898,0.034088254,0.248166612,-0.069273276,0.060179448,-0.072867399,-0.056787127,0.015497943,-0.089367339,-0.127917946,-0.178166101,-0.012674264,0.177483978,-0.070802521,0.149687928,-0.097322792,
-0.038042941,-0.007874500,0.003605451,-0.044263230,0.194227487,-0.072498533,-0.129046793,0.130581816,-0.257868221,0.045854160,0.053519342,0.113291186,0.095504533,-0.089277302,0.041510035,-0.096954270,0.004630580,-0.239776819,-0.009504821,-0.079507430,0.071008675,0.112922843,-0.135389060,0.002263727,0.211249445,0.002806326,-0.062428201,-0.167689967,-0.353730501,0.271557708,0.091592990,-0.228512840,-0.090207388,0.017530518,-0.013974412,0.064680106,-0.137912471,-0.107473324,0.170928335,-0.062532651,0.175628252,0.089095001,0.162655591,0.130792676,-0.073690349,-0.120136256,-0.018538245,0.080112719,-0.494151625,0.024639391,
0.310753808,-0.209710333,-0.101238852,0.049480195,-0.224238597,0.053197942,0.053824566,0.112198554,-0.150166926,-0.000770110,0.080255321,0.057830135,-0.063878999,0.016348549,-0.226614008,-0.057998119,-0.047473452,-0.013730480,0.070917394,0.118591616,-0.082003521,0.184347245,-0.188779068,-0.084519830,-0.330181358,0.262204040,-0.155003480,-0.096575506,0.125912257,0.151749032,-0.211374448,-0.071960934,-0.062675964,0.120094294,-0.174803088,0.195677239,-0.018962973,-0.003987060,0.176013025,-0.127055300,-0.224790012,0.047801036,0.301877329,-0.046590964,-0.000781311,0.167222028,0.010395316,-0.170383859,-0.160650135,0.149366124,
-0.305946878,-0.196897456,0.062612753,0.013867386,0.123866652,0.208032990,0.091758128,0.059219024,-0.160387083,-0.042185469,0.068904835,0.090640194,0.007167045,0.093487876,0.135613697,0.001913884,-0.051524355,0.184657444,0.085283172,0.034843177,-0.111057872,-0.086337645,0.275565804,0.061153041,0.129875083,-0.068247148,-0.005966631,-0.141380748,0.012661660,0.064690842,-0.044996457,0.020321769,-0.092677923,-0.177670599,-0.244831124,0.055945811,0.051060675,0.042519960,0.069057780,-0.110744822,-0.062268092,0.077435099,-0.111843485,0.331440464,0.087317005,-0.100018088,-0.057852516,-0.192153975,0.017233963,-0.082292958,
0.184374301,-0.234326443,0.089548801,0.286753390,-0.145705717,0.050109462,-0.051363858,-0.084257667,0.257486253,0.080695121,0.215839007,-0.073426321,-0.020970810,-0.007919254,0.145142625,0.089358730,0.037181968,-0.156540797,-0.086710792,-0.237936286,-0.000383621,-0.011810104,-0.093622497,-0.021501907,0.005653742,-0.003467524,-0.121658376,-0.011018885,0.136250015,-0.338596834,0.214621287,-0.028277271,0.085327385,-0.014284959,-0.093423501,0.074043830,-0.107876823,-0.043135140,-0.429043311,0.092100713,0.068266324,-0.045471492,-0.085169602,-0.084076412,0.050304397,-0.163034779,-0.092365886,-0.372885998,-0.309220967,-0.232083403,
-0.033332272,0.191243395,0.074662900,-0.007119984,0.032168870,0.041786143,0.264713013,-0.218908231,0.119514897,-0.293131614,0.032516159,-0.086785621,0.130500732,-0.078784181,0.099949950,-0.170631538,0.304061307,0.190612124,-0.091482625,-0.129734533,-0.286826534,0.011264030,0.053477042,-0.109779442,-0.256038111,0.167110068,-0.177912489,0.045078164,-0.227496784,-0.107028088,0.180363319,-0.041027834,-0.061784942,-0.319283058,0.014413054,-0.167971638,-0.175879388,0.089640965,0.047996796,0.075892058,-0.214558424,0.014293423,0.149986751,-0.038428583,-0.179071275,-0.084767372,0.033381592,0.293992256,-0.030001482,-0.390875354,
-0.213009483,0.154315242,0.217891948,-0.083908801,-0.033393474,0.199101246,-0.070013487,-0.050118463,-0.028998396,0.122742830,0.217447491,0.004206305,-0.034820071,-0.097303796,-0.193994459,-0.286086478,-0.104967454,0.173193364,0.006891228,0.080670232,0.165414785,0.049427478,-0.051706920,0.152855690,-0.087149235,0.163384381,-0.188825778,-0.079022127,-0.061970598,-0.044523003,-0.003929258,-0.018612863,0.138909588,-0.029066420,0.180684145,-0.197502877,-0.040416091,-0.126215725,0.064898290,0.179564853,0.028719433,0.119504415,-0.117873459,-0.054476648,0.069881480,-0.010711518,-0.103221442,0.039349319,-0.131786903,0.144313583,
-0.140773457,-0.143900202,0.129279444,0.009104161,-0.043999756,0.116069564,0.039977524,-0.112128053,0.307963672,0.175038576,-0.039556997,-0.403753905,-0.024554297,0.065798503,-0.082628292,0.073797393,-0.049403026,-0.067876740,0.048953160,0.051978688,0.071588165,-0.133230907,0.000503212,0.047133273,0.199134485,-0.147975923,0.062959773,-0.084443490,-0.230494319,-0.005062382,0.100754611,0.105344726,0.070317421,0.128115601,-0.349310001,-0.009440352,0.006591397,-0.006888008,0.163275272,-0.086807657,-0.241618394,0.129697813,0.027669334,-0.051465736,0.096014408,-0.086298377,0.088423878,0.212689918,0.328668346,0.311110328,
0.000915150,0.019401208,-0.252595886,-0.001672532,0.099324695,0.006519697,0.060201124,0.038305619,-0.151515364,-0.133127200,-0.050016243,0.048182409,-0.006222897,0.170509889,0.116373890,-0.048528080,0.163567492,-0.040383913,0.151745321,-0.022546931,-0.028058192,-0.318348345,0.035866831,0.156806932,0.379841142,0.089969281,-0.293487092,0.046010919,-0.159241994,-0.015067923,0.175498334,-0.074711169,0.186708898,-0.089710255,-0.058274547,-0.225762770,-0.080276440,-0.090709723,-0.278327700,-0.093450636,-0.183545472,0.165434333,0.107321834,-0.073293987,-0.147739601,-0.092952799,0.038417368,-0.065223748,-0.133810819,-0.136939622,
0.042601548,-0.097309914,-0.063224837,-0.269856739,0.050277180,-0.006457107,-0.059086025,-0.220385818,0.105835039,-0.010366405,-0.059907331,0.125256467,-0.004584996,0.121724023,-0.047140245,0.142534345,-0.113152894,0.188609145,-0.103277396,-0.039610241,-0.019895032,-0.123902418,-0.010206863,-0.092192247,-0.089091685,-0.022736678,-0.059708239,-0.082288162,0.058776520,0.075896254,-0.239672476,-0.206651555,0.068839431,-0.003030494,-0.029226318,0.034016334,-0.081336745,0.088045922,0.117870867,0.102808441,-0.003050007,-0.086819543,0.149923411,-0.033433396,-0.147372868,-0.189713862,-0.292292739,0.079760340,0.143993010,0.193667093,
-0.075256007,0.243772567,-0.119139127,0.136833322,0.169301494,-0.144600053,-0.025988487,-0.088774597,0.042721673,-0.054859177,0.023432919,-0.209064324,0.124097457,0.138306020,-0.077465600,0.167179289,-0.299267540,0.103277826,-0.108693972,0.100149027,-0.032230108,-0.146984863,-0.241050769,-0.128831250,0.262152284,-0.053981620,0.032353400,0.196427983,0.019693907,-0.130689576,-0.180384796,-0.242022347,0.069663806,-0.174151641,0.051414691,0.008022643,0.007529493,-0.174446222,-0.193622079,-0.051520370,-0.020429508,-0.116166325,0.164021296,0.111468194,-0.185846197,0.043352979,0.259995217,0.007059220,0.077299736,-0.113513060,
0.019913863,-0.043926711,-0.016383925,-0.019103400,-0.145485304,-0.146991466,-0.037409967,-0.170912850,0.249076375,-0.058841593,-0.095175664,0.056476281,0.275774136,0.077209306,0.016229994,0.147996136,-0.039598528,-0.117291294,-0.040285052,-0.019985753,0.101097576,0.111017298,-0.055250197,-0.104397925,-0.040507927,0.314599811,-0.017157886,-0.004090944,-0.229335429,0.022925822,0.209952123,-0.174270423,-0.037051126,-0.268147197,-0.203020767,-0.047611126,-0.149932827,-0.139315453,-0.240963164,0.066009742,-0.109262040,-0.047580176,-0.178993645,0.190703844,0.266082451,0.002788531,0.014812522,-0.224747589,-0.086129889,0.243841385,
-0.035427996,-0.067715003,0.228398312,-0.204605295,-0.173365238,-0.026082462,-0.203570661,0.051846094,0.119482054,-0.066274257,0.123214683,-0.128778867,0.087696119,-0.109921967,-0.067845827,-0.072915000,-0.019908270,-0.393714173,-0.006951193,0.046627122,-0.166627201,0.197733120,0.063246724,0.052705228,-0.054933535,-0.277447694,0.043419944,-0.292605799,-0.052886286,-0.084468462,-0.226801185,0.201298322,-0.030686974,0.187537599,0.111368565,-0.361870527,-0.063490594,-0.189650765,0.138227936,0.116329782,0.007446392,0.016921040,0.041439060,0.021508716,0.230700293,-0.035587467,0.236809060,0.147021505,-0.096706251,0.022546726,
-0.034622742,0.026354968,-0.018628164,-0.022986168,0.135067068,-0.047332704,0.024637071,-0.003343109,0.047896238,-0.041325785,0.018141370,0.005652464,0.135854219,0.034784322,0.066245007,0.316548486,0.014255943,0.119858925,-0.008322592,-0.132788631,0.115109143,-0.105741284,-0.493644498,-0.085863741,0.128210456,0.100297966,0.133589106,-0.007569835,0.011440763,0.144491137,-0.102068061,-0.154098040,-0.254489692,-0.228207821,-0.201600444,-0.101443938,-0.360465847,0.209704520,0.139952216,0.018370122,-0.159326100,-0.213094881,-0.096894265,0.062418811,-0.414923461,-0.180454108,-0.012733974,-0.169188503,-0.237868854,-0.015453807,
0.042185613,-0.143277323,0.058447778,0.140372163,0.036421914,0.111045414,-0.285796901,0.062328851,0.138549365,-0.046795340,0.005499877,-0.103368367,0.075390193,-0.055961821,0.152364373,-0.038485787,-0.086140779,0.100581138,0.349976019,-0.026785546,-0.217573246,-0.132327961,-0.032623883,-0.145929928,-0.114381748,-0.112504872,-0.146640010,0.142026980,-0.144198712,-0.027160424,0.039095444,0.149452126,0.162997730,-0.290155375,0.089444052,-0.201511273,0.193020315,-0.139159003,-0.038936656,-0.128505177,0.434224638,-0.103368849,-0.035750470,0.090189428,0.227676003,-0.021579175,-0.238680513,-0.111102049,0.051875787,0.206692874,
-0.122780007,-0.138635373,-0.117350721,0.146582697,-0.022209499,0.061623817,-0.201393645,-0.111858089,-0.121309731,0.342255546,-0.064417815,-0.104845443,-0.083333911,-0.255086758,0.138162142,-0.114588071,-0.021645198,-0.052654110,0.033663493,0.196370374,0.027795302,-0.039976469,-0.050038149,-0.172221774,0.231755863,0.060103568,0.175114937,0.092710297,0.185567037,0.008154532,-0.050495069,-0.230976706,0.366342891,0.065577984,-0.097504201,0.006289236,0.171866456,0.349086226,0.114971608,-0.119954539,-0.108891359,-0.074651808,0.133219183,0.031653318,-0.247265325,0.287296700,0.277866373,-0.006434747,0.046682863,0.059187562,
-0.221784641,-0.136261173,0.044137234,0.222579797,-0.283139878,0.117969847,-0.077481564,0.257005650,-0.020628781,0.045179768,0.100145548,0.023944918,-0.157195620,-0.186147446,-0.101847418,-0.021635377,0.008364976,-0.186133913,0.177755719,-0.086502658,-0.185939829,0.125591891,0.003457059,-0.166855757,0.014655091,-0.022742035,-0.063852344,0.099678297,-0.056568682,0.128596952,-0.111977984,-0.260864608,0.118085431,-0.070719956,0.262397911,-0.103658974,-0.237236646,-0.052174645,0.112152453,-0.038161808,0.121195853,-0.220846820,-0.006169691,-0.104764273,-0.124752053,-0.133037382,-0.251951335,0.028855329,-0.235122397,0.031834495,
-0.147752489,-0.060874391,0.064233638,0.074835000,-0.101324813,-0.269989485,-0.027889057,-0.246926052,0.031005391,0.288065721,0.103401968,0.088271938,0.151287308,0.178665927,0.008623759,0.154229747,0.028385129,-0.230160851,0.298134133,-0.067540350,0.002913245,-0.065084533,0.195874019,-0.107884464,0.071836073,0.026162095,0.046175867,-0.066621128,0.102421341,-0.034512085,0.024042150,-0.077987961,-0.068988102,-0.166162648,-0.001997312,0.116699301,0.253768224,0.154830154,0.024347099,0.126207363,-0.278602614,0.102340405,-0.028762356,-0.166324750,-0.175460287,-0.068938960,-0.159057355,-0.154236462,-0.243243835,-0.230520572,
0.258559902,0.254486667,-0.159648302,0.144237186,0.058575991,-0.037588250,-0.115841342,-0.147714730,-0.064749913,-0.050906854,0.140868545,-0.204909755,0.154777498,0.101043425,0.047518274,0.068400952,-0.169516814,-0.262356959,-0.162133463,-0.026392480,-0.250371704,-0.153940851,-0.053905223,0.134872163,0.166107603,0.015339810,0.175280246,0.213433628,0.001545480,-0.104363218,0.226599742,-0.220580509,0.135123962,0.041752971,0.297407326,0.006642483,-0.111643681,-0.085410859,-0.130295015,0.146894360,0.091783401,0.086822403,-0.017704181,-0.151619010,-0.058272082,0.159629353,0.138418270,-0.142230886,0.301291976,-0.138781227,
0.129684121,0.074439006,0.129023296,0.022678353,0.036925803,0.047919774,-0.194440063,0.026535198,-0.115531200,-0.037507617,-0.088607580,-0.078188592,-0.050445138,0.144558013,0.035812992,0.144018732,0.087286601,0.034462699,-0.014721829,0.074566906,-0.023862121,-0.024856251,-0.235212585,-0.253655455,0.096414721,0.055788741,-0.037231354,0.088004298,0.157859658,0.142664217,0.141056493,0.044490995,-0.140781687,-0.113685348,0.244306620,0.025351216,-0.035433310,0.053327997,-0.101942173,-0.161430103,-0.139604374,-0.030821947,0.000935447,0.012293477,0.314987661,0.042385049,0.009705625,0.202015997,-0.045119489,0.183819573,
-0.024032710,-0.129893031,0.068015643,-0.188667794,-0.188979798,0.045833565,-0.234877098,0.039815473,-0.114128542,-0.226551605,-0.058522777,-0.037086562,-0.141743028,0.280947485,-0.351588782,-0.139733817,0.097059612,-0.292655105,-0.114443086,0.244150261,-0.291821838,0.129395679,0.132255154,0.147451731,0.027330870,0.310688488,-0.050437627,0.005468326,-0.117096903,0.017228831,-0.052571928,0.137843145,0.156098808,-0.055181466,-0.038782355,-0.162529075,0.214021154,-0.235656627,0.098064067,0.208360304,0.178963903,0.115747527,0.088135307,-0.269508660,-0.078317333,0.044342681,-0.074893943,0.023187180,-0.036195485,-0.135289999,
-0.385371993,0.161581514,0.014074235,0.055998506,-0.101366240,0.034911988,0.004542535,-0.080145559,-0.065895550,0.172287957,0.101614406,-0.138761779,-0.093529057,-0.099276563,-0.162430699,-0.084731608,0.003509795,-0.063528134,-0.087258447,-0.193615651,-0.100198188,-0.189994009,-0.003378823,0.326594468,-0.130870485,0.030488912,0.200699823,-0.043124842,0.079715300,-0.034074824,-0.021314238,0.018796555,-0.093566552,0.041073271,0.230883917,-0.100325585,0.013637088,0.006344438,-0.299828109,0.298495956,0.062052171,0.069313431,0.146696386,-0.076061517,-0.091484816,-0.036144156,0.044304061,0.386256087,0.048148005,-0.203019890,
0.077141470,0.006526500,-0.236795387,-0.025555691,0.091896143,-0.226655038,-0.062698304,-0.103386995,0.114382868,0.234411891,-0.059026122,-0.240236479,0.003754910,0.021472966,-0.274607915,-0.098138972,-0.114727961,0.016802878,-0.057322796,-0.131012650,-0.197139908,-0.131747677,0.174839903,0.070641668,0.136467450,-0.002252358,0.023859028,0.065364700,0.121889972,0.003457080,0.213317312,0.027187591,0.063680767,-0.000683273,0.135635358,-0.110446684,-0.177910682,-0.228531404,0.031566974,-0.207485483,-0.002969451,-0.176858209,0.064157704,0.089390187,0.062032346,-0.039842802,0.247415640,-0.070602051,0.045533289,-0.100926138,
0.005379882,-0.080609216,0.040872440,0.046102765,-0.026529253,0.069085000,0.310486422,0.205448968,0.156194268,-0.042028670,-0.117916919,0.089550729,0.452680202,-0.072361184,-0.002515467,0.069595365,0.264004361,-0.010676857,-0.077007172,-0.040768486,-0.013878447,0.205468286,-0.077361259,0.152792553,-0.008627276,0.055299660,-0.248699594,-0.095145769,0.198178039,0.107019696,-0.318847245,-0.039302568,-0.145520341,-0.010929215,-0.044050586,0.006322547,-0.043614152,-0.270198577,-0.146958935,0.109127332,-0.184747064,-0.090138421,-0.053468770,-0.031252447,-0.046234212,-0.014119750,0.011653390,-0.369066177,-0.301689433,-0.018543856,
0.136281732,-0.258695690,-0.192368925,0.100869947,0.181520990,-0.163756961,0.149209798,-0.073304118,-0.314360508,-0.000039992,0.206236079,-0.034239350,0.122839413,-0.077318517,0.081880018,0.042054530,-0.079149952,0.115173228,0.042818601,0.096699648,0.179024233,-0.064917906,-0.051986298,0.035002996,0.149816744,0.044396763,0.003286803,0.115304718,-0.108216247,-0.015219448,0.122233968,0.043384204,-0.162856185,-0.042610252,-0.081130096,0.242787612,-0.191816010,0.316357891,0.367001722,-0.015416059,-0.135209920,0.129390440,0.030898343,-0.059080293,-0.220493575,0.101114307,-0.030060755,-0.116382270,0.184008469,0.009918768,
-0.129690022,0.074194459,0.045140829,0.008473609,-0.149721603,0.024768537,0.216536278,0.136293896,-0.006158461,-0.149280570,0.054519043,-0.150017040,0.102701194,0.039222442,0.090951488,-0.134491635,-0.056807445,-0.000268951,0.037363807,-0.091945697,-0.140423501,0.166590109,-0.050508372,-0.212421568,-0.074775502,-0.051451128,0.128636577,0.335096480,-0.118151496,0.088725610,-0.165168057,-0.078964392,0.206729565,-0.132333139,-0.163018670,-0.079653987,0.054331565,0.029926383,-0.064474147,0.031414113,0.215250029,-0.071241404,-0.008373370,0.301712481,0.144032427,0.085690904,-0.182922674,-0.184179041,-0.079494466,-0.045106437,
-0.087807623,-0.037712030,0.179104545,-0.059196755,0.352803801,-0.057142644,0.328531778,0.319609510,0.058224351,-0.094949989,-0.175239899,-0.109199380,-0.123980115,-0.174971591,-0.018646863,0.016743323,0.037573629,0.101109645,0.113577592,-0.044184590,0.102453635,0.279298895,-0.045390159,-0.111493413,0.073567640,0.124150986,-0.054160448,-0.015840278,-0.090999174,-0.057407399,-0.067106761,-0.218732791,-0.023858134,-0.093582370,0.096277765,-0.084438952,-0.035653804,0.007584986,0.036609718,0.040955805,0.085456328,0.356502188,-0.075119061,-0.041989522,0.007682771,-0.046091519,-0.221136514,0.012350931,-0.234258287,0.002156969,
0.053315239,0.060408848,-0.010653991,-0.192592266,-0.039186686,-0.043049787,0.272274067,0.145654611,0.304593987,-0.061961534,0.169231590,-0.183009888,-0.038426618,-0.097290459,-0.219137144,0.194899720,0.019299247,-0.287737545,0.059716421,-0.024516547,0.074282433,-0.249022577,-0.129906103,0.137619533,0.097938070,-0.020326047,0.078568936,-0.299570087,-0.042185693,0.231675256,0.023202113,-0.058383821,0.223447650,-0.031241484,0.229594647,0.037530056,0.041929065,0.210242119,-0.057673230,0.033579377,0.071201036,0.031332222,-0.063289587,0.206246583,0.181507810,0.433844735,0.135589063,-0.123835587,-0.073810959,0.159179477,
0.029360140,0.052031570,0.195522929,-0.178891318,0.085973474,-0.004196453,-0.299595151,-0.220377444,0.228931153,0.004901768,-0.130418624,-0.193205468,0.085962078,0.106888351,0.012969077,0.051964807,0.000158275,-0.008800076,-0.130642538,0.051368254,-0.148626174,0.129059470,0.045270523,0.035505310,-0.045732478,-0.061288099,-0.037982079,-0.135232551,-0.043391287,0.178131598,0.060019493,-0.070148221,-0.011539010,-0.095449488,0.132645228,-0.135092296,-0.058745010,0.073430565,-0.134289567,0.229558392,-0.124711533,0.072165763,0.090361396,0.340854796,-0.001162240,0.149209084,-0.206487152,-0.093959537,-0.063544568,0.050537605,
0.115451994,0.006110041,0.241471606,-0.391934881,0.064505502,0.220434504,-0.035080019,0.003325233,0.012723591,-0.077741798,-0.084855105,-0.135881315,0.062930418,0.136464943,0.099465669,0.091532699,0.088835420,-0.013691850,0.265865328,-0.083386359,0.022337821,-0.021914736,-0.035957760,-0.103938385,0.150902605,-0.115126457,0.022074630,0.168089324,0.227539917,-0.059986742,-0.024718693,0.067675040,0.125398898,0.127246502,0.189743539,-0.203695724,0.086874215,-0.039230446,-0.051553315,0.103828138,-0.169528523,0.138995571,-0.283988199,-0.113706382,-0.081275772,0.013474289,-0.024254117,-0.108533024,-0.135116366,-0.151865740,
0.040267216,-0.189169509,-0.015830097,-0.063677233,-0.174015108,-0.101017795,-0.071378783,0.018969338,0.045185166,0.026143415,-0.112984169,-0.074333387,0.191524843,0.054870918,0.076102578,-0.095040199,0.174909707,-0.136928840,0.147324788,-0.181659157,-0.112381376,-0.037457024,0.180056610,0.031661207,0.000215655,-0.037085970,0.074538609,-0.000011556,0.011309066,0.146072219,-0.243056747,0.390320792,0.093925210,0.243419977,-0.090893052,-0.050336478,-0.138804692,0.239408277,0.019656332,0.036203541,-0.231625733,0.150364591,0.046283086,0.048457979,-0.218891867,-0.032513128,-0.204562932,-0.124464244,-0.026249545,0.000544144,
-0.117299746,
-0.001071651,
-0.029666932,
-0.037612170,
-0.012919232,
-0.011335635,
0.183457815,
0.229565620,
0.149768931,
0.029176783,
-0.044576260,
0.216458053,
-0.007465403,
-0.018122975,
-0.082487318,
0.020904933,
-0.262759370,
0.120381493,
0.001675746,
-0.143871092,
-0.144505581,
-0.096971496,
-0.174380077,
0.050417000,
0.087859692,
-0.228106174,
0.107224413,
0.143092952,
0.057007643,
0.149360587,
0.087566548,
-0.019192656,
-0.040017658,
-0.063468978,
-0.121489386,
0.000456588,
-0.143620668,
0.074599878,
-0.157946910,
-0.350832068,
0.001081421,
-0.085406370,
-0.059886291,
0.133160384,
0.080412272,
-0.233455530,
-0.116475075,
0.101954832,
-0.284053902,
-0.070179333,
0.033409052,-0.135105090,0.130998533,-0.016024509,0.078223197,0.117666404,-0.290730360,0.101515250,-0.115178677,-0.001987476,-0.137819603,0.050865330,-0.046811053,0.094505351,0.028640748,0.103328943,0.126741061,0.014748543,-0.096413007,-0.326116271,-0.044471275,0.043319852,0.100861140,-0.187259611,0.089845497,-0.117353419,-0.144957354,0.032643237,0.127500761,-0.150819493,-0.168731310,0.078454319,-0.060115664,-0.218369952,-0.054268605,0.070233404,-0.211118696,0.117667353,-0.030783147,0.169347082,0.209441563,-0.210577066,-0.216027013,0.061355767,-0.033568242,-0.183632380,-0.237090194,0.074374755,0.139075801,0.050363123,
-0.002788830,-0.010594316,-0.089907195,-0.012109531,0.157470959,0.185159474,-0.148984521,-0.016623010,-0.220472436,0.155399182,0.075842747,0.018765068,0.189211721,0.252733691,-0.055090923,0.064036301,0.122928813,0.025675660,-0.062188310,0.075874531,0.210957192,0.114650168,0.005065531,-0.009687250,-0.009296975,0.120129204,0.076836330,0.243100538,-0.077896837,0.111488576,0.336784107,-0.067680218,0.011372539,0.123526072,-0.025531285,0.170999665,0.160298979,0.045055729,-0.155194907,-0.015938464,0.257355390,0.078402404,-0.026826076,-0.135537226,0.089445073,-0.082940650,0.046244528,0.200436015,0.099118089,-0.118295774,
0.087651419,-0.039525110,-0.237710975,-0.069153823,0.118068137,0.065074261,0.188431096,0.031617692,0.105545439,-0.021760307,0.098278844,-0.150272780,0.142663436,-0.210969820,0.085061214,0.106740051,-0.164599711,0.051802956,0.075013425,-0.118262979,0.224058965,-0.052947087,-0.272159143,0.094271476,0.102542348,0.044116602,0.043807041,-0.198694389,-0.003435441,0.128126028,-0.209084658,0.163533344,-0.343583254,0.009299122,-0.249789519,0.218947616,-0.036000172,-0.134609423,-0.145988854,0.004877394,-0.288136778,-0.027458623,-0.001510625,0.326230848,0.024121635,-0.199676709,-0.080780602,-0.135832769,-0.150067459,0.121527150,
-0.056597851,-0.052422790,0.012639759,0.153173654,0.022184753,0.068072044,-0.151902830,-0.024702337,-0.104578898,0.180330578,0.246333139,0.024250196,0.067050826,0.146134349,-0.211439758,-0.082665211,0.319660270,0.179287104,0.329070835,0.002771414,-0.164833781,-0.190206109,0.126023517,-0.039199376,-0.139028678,-0.042623497,-0.091321204,0.090102896,-0.198927885,0.040320575,-0.150302188,0.207996433,0.059048142,-0.191098307,-0.021098144,-0.204056943,-0.062358618,-0.060692631,-0.322072005,0.017150992,-0.245345277,0.162468710,0.059674816,0.057500044,0.019273498,-0.108791591,-0.216009294,-0.126941847,-0.013058085,0.047974524,
-0.118757391,-0.139604532,-0.080632177,0.134950607,-0.081540440,0.034378371,0.158654367,0.180406208,-0.099171029,-0.140874548,0.071084387,-0.006820818,-0.019780090,-0.188758432,0.150104678,0.028813069,-0.062930833,-0.096201021,0.102037231,0.264262088,-0.145813233,-0.110258435,0.129642245,0.194814387,-0.034633366,-0.128940838,0.238011515,0.279380228,0.077022523,0.017244069,-0.088040112,0.155992697,0.002335733,0.329835115,0.095906729,-0.051688131,0.150437940,0.137925147,0.002365910,0.137547663,-0.030204780,0.211018643,-0.082097987,0.045164671,0.115844822,-0.015995839,-0.017845435,-0.150193523,0.004609425,0.137309689,
-0.126670029,-0.119419006,0.289881315,0.136633060,0.165907288,-0.123655839,-0.097934863,0.167046202,-0.083294258,0.022343348,0.072717892,-0.069476088,-0.084425316,0.090059729,0.033095652,-0.013826182,-0.221794032,0.089804022,0.019976204,-0.094559571,-0.215684106,-0.013510265,-0.104509521,-0.010206461,-0.058031971,-0.056635956,0.073819440,0.100246617,-0.080055137,0.114063663,0.170639983,-0.074044988,0.104882057,0.145172343,0.208116033,0.240553892,-0.115337888,0.027224933,0.156418479,0.070044771,-0.056128250,0.036890668,0.008769789,0.021242339,0.007468065,0.448721453,0.226523686,-0.114546408,-0.217180300,0.079883921,
0.008665397,0.070029079,0.266833626,0.088258503,0.049108078,0.374209687,-0.246055802,0.022241550,0.035819819,0.060090140,-0.045321180,0.046883715,-0.019995992,0.028784139,0.073429285,0.168470248,-0.472284411,-0.114519448,0.210449769,0.070325351,-0.160853776,0.054436329,-0.015881257,0.005054551,0.151808942,0.238395137,-0.013577958,-0.124999176,-0.052424837,0.041162772,0.184668656,0.124109503,-0.091440909,-0.109190340,-0.077940053,-0.088769718,0.108487206,-0.009856135,-0.103392749,-0.265843786,0.079103069,-0.021808397,0.041711928,0.076752267,0.198427122,0.019115745,0.013930730,-0.191994013,-0.061930890,0.238989033,
-0.043894333,0.034854190,0.021661240,-0.118624316,0.081227623,-0.193299737,-0.196824842,-0.164106744,0.165655183,-0.044321369,0.018076015,0.109175826,0.176264901,-0.169771205,-0.006229775,-0.117373688,0.019085186,-0.236192143,-0.022183285,-0.117968553,0.128631387,-0.016998461,0.020182097,0.108519788,0.008687940,0.044518693,0.108203356,-0.087564209,-0.008193840,0.066264876,-0.126543923,0.019643380,0.109275544,0.116489823,0.067538398,0.004405484,0.139548020,-0.012298302,-0.065517272,-0.136685760,0.238257447,0.144944989,-0.284789528,0.264579876,-0.064778344,0.172709208,0.006541445,0.020265827,-0.330016254,0.108027233,
-0.092972385,0.011801793,0.163076679,0.291443832,0.036234440,0.146436845,-0.001466468,-0.015239076,-0.158637108,0.207568772,0.175635256,-0.200800285,0.001206468,-0.139926554,0.002053355,-0.162939226,-0.158186293,0.177787731,-0.203692588,0.001665742,-0.229121578,-0.079289129,-0.077794491,-0.023546850,-0.104174706,0.128904875,-0.016754651,-0.210949876,0.074958251,-0.082513126,0.132030517,-0.001089914,-0.140213151,-0.081264458,-0.374129361,0.248598365,-0.136302672,0.173822830,0.072821727,0.022208843,0.068072159,-0.254942388,0.121622364,-0.049339405,-0.254614857,-0.199538625,-0.114687389,-0.161687209,0.111651822,-0.146919356,
-0.143451810,-0.071330577,-0.111359572,0.156311463,-0.079171915,0.015840069,0.028345396,-0.045561555,0.177870144,-0.110563402,-0.083191212,-0.042892739,0.102628183,0.096095374,0.138925812,0.057823093,0.089075115,0.123324707,-0.063499600,0.202751093,-0.047956848,-0.058494371,0.089483454,0.104883394,-0.029519965,-0.193532595,-0.098063981,-0.110938694,-0.085028427,0.153836613,0.235835584,0.061364783,0.251153787,-0.023382860,0.006860923,-0.071353858,-0.090520686,0.079114050,-0.099679203,0.174391312,0.370948428,-0.165533092,0.144536065,0.182676590,0.124646661,0.054090856,-0.072035685,0.013702863,-0.165011926,-0.071835519,
0.055219842,-0.093522809,-0.128485084,0.184695774,0.118708009,-0.118660659,0.240960533,0.047856192,0.258240869,-0.061612128,-0.157024356,0.118756111,0.026236518,-0.067336362,0.155250356,-0.109304138,0.132850468,-0.071711256,0.180365857,0.041861310,0.100383462,-0.053905452,0.039385818,0.064795908,-0.192184416,0.082362028,0.205051041,0.217503715,-0.156505538,0.137998644,0.079556501,0.332320753,0.178328063,0.057448569,0.021037677,-0.270084327,0.044210422,-0.232746437,0.024004643,-0.244325305,0.040430571,-0.026913019,0.122735813,-0.030060639,0.023798108,0.002735002,-0.023887494,-0.081018484,0.036404420,-0.215185468,
0.141869617,0.047536153,-0.151171816,-0.134438977,-0.141256665,-0.035945545,0.047262541,-0.290332024,-0.175179526,-0.064572313,0.013417937,0.094324674,0.132909992,-0.003615145,-0.081637437,-0.166907695,0.236063255,0.078481425,0.238222945,0.036291462,-0.211212432,-0.120249852,-0.130891313,0.044813787,-0.063275816,0.025597703,-0.160689815,0.145145808,0.038887960,0.120072268,-0.058681216,-0.104011777,-0.294160732,-0.097382720,-0.097425622,0.054484922,-0.029108043,-0.052305774,0.002320600,-0.034272678,-0.101006684,0.231816286,0.054739859,-0.131102989,0.050449368,-0.039311193,0.002647309,-0.133345548,0.131637701,0.056140058,
0.098264773,0.134139204,0.035582673,-0.209966956,-0.054440793,0.135597520,-0.041334896,-0.286920670,0.104034501,-0.139657137,0.359601041,-0.176560499,0.120176474,-0.105062084,0.063243472,0.052753859,-0.273432975,-0.057844736,0.006167465,0.096682169,-0.033355774,-0.343874633,0.198621716,0.073647474,0.115179473,-0.014096671,0.099709414,-0.325025532,-0.016972559,0.272285285,0.123952444,0.029012009,0.035395217,0.004173307,-0.053320004,0.012981666,-0.105164620,-0.083758478,0.289622478,0.002803381,0.118592463,0.006813373,-0.028535429,0.016937346,0.021025703,0.176683369,0.139904419,-0.113839583,-0.050569153,-0.287537510,
0.085764374,-0.009077180,-0.195274739,0.037265157,-0.063275581,-0.024524114,-0.036666669,0.006518508,-0.121392152,-0.194339553,0.046569986,0.018108206,-0.295776828,0.049291615,0.040903868,0.240214025,-0.019932519,-0.100820905,-0.286020257,-0.040454240,0.015447778,0.080022853,0.049684573,-0.028379157,0.054351654,-0.028730744,0.221487260,-0.260858729,-0.175104682,-0.201878091,-0.016554972,0.083028387,0.100908746,-0.056593568,-0.026578552,-0.003090829,0.057033177,0.085083347,0.315903592,0.082048529,0.037546438,0.049655980,0.102133391,0.119980527,-0.192909813,-0.079079358,0.039504887,-0.025894868,-0.064271823,0.018346197,
0.126368861,-0.068334323,0.131553833,-0.132213808,0.098813868,-0.381436132,-0.048705384,0.127967640,-0.140223924,-0.026686163,-0.033000313,0.198991901,0.120178707,0.345530457,0.086698549,0.079979790,-0.318107184,0.035275332,-0.187504355,-0.066457918,0.157991737,0.069502278,-0.095136298,0.009276797,0.041501471,-0.080615768,0.076628830,0.034313396,-0.242739021,0.080287155,0.157451625,0.087503593,0.003980928,0.001719229,-0.050034780,-0.146373021,0.192338649,-0.047973164,-0.251140411,0.081990189,-0.202879014,-0.181515849,-0.046747321,-0.169389782,-0.079594787,0.011074562,-0.262901331,0.297314182,-0.315605351,0.152175825,
-0.271992687,0.083184084,-0.052806955,0.171560261,-0.187815174,-0.068364759,-0.009985595,-0.067719615,-0.129230460,-0.149827062,0.069828166,-0.011256926,0.064311469,-0.039438685,-0.193803356,0.035871243,0.270915267,-0.314368142,0.027792798,-0.024864111,-0.148395357,0.061753005,0.041355662,0.053457927,-0.108290063,-0.034194740,-0.157826696,-0.092096092,-0.037378398,-0.143455461,0.102191183,0.024958575,0.001453538,-0.030491743,-0.161042590,0.084670929,0.225150949,-0.121604278,-0.340848651,0.031796549,-0.112730097,0.119206588,0.169388160,-0.012922763,0.026613825,0.071312141,0.016152951,0.023670815,0.100283415,0.154364855,
0.118952796,-0.235821530,0.283855753,-0.084582169,-0.241375916,0.128771828,-0.143812638,-0.065429146,-0.268924088,0.001048719,-0.252772605,0.090213716,-0.234011748,0.041300596,0.174665198,0.032708433,-0.182995933,0.021959362,-0.065273857,0.080711839,0.114345441,-0.085030973,0.139196810,-0.016879605,-0.245456482,-0.198646663,0.245748374,-0.023810766,0.042475918,-0.084782781,-0.158996419,-0.138714766,0.124776413,0.240249760,-0.207251577,0.044851023,0.144261714,-0.111026716,-0.042854871,-0.078106419,-0.160361229,0.195049513,-0.079413624,-0.069506157,0.043695747,-0.067212352,-0.173794300,0.102558588,-0.069776693,-0.156838045,
0.033630964,0.226137651,-0.092849292,-0.035018277,0.012223738,0.010090029,-0.169608619,-0.017934042,-0.099901799,0.103569045,0.007473078,-0.086031520,-0.103745612,0.125434667,0.057958502,-0.014018931,-0.106620229,0.147724579,-0.073163892,-0.021520767,0.035829373,-0.012104799,-0.001384845,0.028242957,0.227188878,0.014572067,-0.300148040,0.041365192,-0.047619603,0.049486993,-0.200702983,0.071194183,-0.047771939,-0.048038944,-0.068073185,0.357094307,-0.165924744,0.112011519,0.087446154,0.026122610,0.119685864,0.043765635,-0.054641398,-0.011570840,0.064877367,0.278349920,-0.234415298,-0.053256515,-0.397430785,-0.129405816,
-0.107096255,-0.028269467,0.228198736,-0.012562261,0.082440074,0.343922317,0.141476271,-0.035708721,-0.282142300,-0.007269430,0.074015043,-0.261673887,-0.195719748,-0.050813935,-0.029120370,-0.124983748,-0.076971106,-0.054957946,-0.017154730,0.098836003,-0.152529151,-0.072229698,0.062491463,-0.138146845,0.063853620,-0.301815415,0.209519680,-0.029368909,0.009122499,0.081049883,-0.015461994,0.141928818,0.035631806,-0.146093092,0.292764062,0.007339611,0.133789169,0.055350500,-0.026313610,-0.087390331,-0.031476454,0.018744604,0.189493923,0.080018735,0.027908116,-0.024001344,-0.225022627,-0.132213928,-0.106933320,0.027387592,
0.128945846,0.182217757,-0.044565958,0.155008252,0.169044939,0.259693303,-0.099985787,0.313226262,0.096213539,-0.271809726,0.041746178,0.057931962,0.026745263,-0.176857714,0.147789236,0.189121911,-0.102217651,-0.074623081,-0.059436322,0.052074394,0.223385092,0.065224229,-0.093961834,0.034726610,0.025890631,-0.214889844,0.003008460,0.189587867,0.020014294,0.330171941,-0.045187939,0.025115168,-0.202465712,0.153926201,-0.360173545,-0.229963983,-0.177236669,-0.022188807,0.116908797,0.047165942,-0.122000428,0.091675086,0.209185588,-0.183437414,0.134217960,-0.014790299,0.168060839,-0.004406525,-0.395857889,0.004420783,
-0.122598910,0.034697338,-0.105305989,0.169910065,0.375063186,0.035305006,-0.075223883,0.011050723,0.283459583,0.045439990,0.062357622,-0.202512858,-0.009591904,-0.123711194,0.061865297,0.029736461,-0.043141717,0.120294632,0.117401002,-0.114733513,-0.155203495,-0.051648237,-0.043961241,0.144824069,0.188072746,-0.099118566,0.109118560,0.299156509,-0.128356867,0.101893564,-0.096603878,0.080623953,0.276343568,-0.102553783,-0.026064821,0.080316933,0.178815068,-0.125230400,0.259413641,0.105578098,-0.109809731,0.043949714,0.259372982,-0.026161398,-0.149199998,-0.116925741,0.143350749,0.205783501,0.398908250,-0.202534599,
-0.008350177,-0.080225196,0.058666430,0.314912235,-0.013631887,0.053375155,0.024924421,0.063123877,-0.176621900,0.031351230,0.065062744,0.252563424,-0.061044861,-0.119230517,-0.011666295,0.057737700,0.139695509,-0.171678985,-0.238229799,0.015653995,0.082686500,0.074203745,0.250230413,0.161718414,-0.044716807,-0.198592886,-0.030535330,0.271305324,-0.137772867,-0.224770826,0.121718723,-0.276482484,0.030559834,-0.200752868,-0.330372470,0.182499748,0.283748419,0.130673016,-0.085519306,-0.487272133,-0.232247941,0.053595278,0.346306901,0.050128017,-0.131768434,-0.128293779,0.037496089,-0.162158668,-0.331601315,0.121953845,
-0.009335306,0.028116489,0.183046365,0.028526299,0.140040632,-0.082729304,-0.083161293,-0.119611424,0.035329206,-0.079043561,-0.031249806,0.038865157,-0.078341006,-0.014265647,-0.264282678,-0.141533798,-0.037257563,0.085227899,-0.152542161,-0.070692239,0.117797910,-0.070212954,-0.179289967,-0.229587898,0.092220437,0.044376757,0.024289270,-0.064911836,-0.181370649,-0.035737709,0.129987786,-0.001871340,0.065543771,-0.070828595,0.041860291,-0.244267955,-0.168880830,0.040271791,-0.158877547,-0.083187773,0.065847745,-0.103536803,-0.042067999,-0.110682783,0.019695547,-0.047847733,-0.098763587,-0.052818940,0.025431478,-0.011773876,
-0.087223326,-0.192968499,0.078431639,0.056543246,-0.213323709,0.114419712,-0.183586451,-0.251242517,0.154601778,-0.080963064,-0.049302428,-0.165756402,-0.002128836,0.169199028,0.389725312,0.166832666,-0.124621804,0.117985440,0.063393851,-0.009621803,-0.089116285,-0.205584788,-0.123892371,-0.154414374,-0.158926021,-0.057505552,0.008892595,-0.299203142,-0.028469262,0.097065370,0.051182454,-0.227203517,-0.152568608,-0.134284673,-0.209042131,0.101293784,0.100532097,-0.064664556,-0.358779849,-0.021307699,0.138055648,-0.000654220,-0.110153348,0.022958207,-0.137043854,-0.019530162,-0.127695832,0.184508500,0.030636432,0.046849552,
0.088554476,-0.030708891,-0.074987576,0.033605856,-0.025881571,0.018845628,-0.200940074,0.112008030,0.074304500,-0.111494088,-0.134221530,0.197113636,0.294320992,-0.019725398,0.123842726,-0.320177336,-0.102558333,-0.001675563,-0.002433726,0.144176742,-0.328427102,-0.082594730,0.033671969,0.134874499,0.110715509,-0.159420554,-0.159012480,0.040679934,0.286290951,-0.107915429,0.010290672,-0.263892554,0.059854112,-0.000944716,0.060786098,-0.101359353,-0.162037692,-0.131669167,0.024781841,0.056012480,-0.050433213,-0.112511443,0.032250938,0.042589544,-0.104291547,0.028749125,0.124952014,0.059805401,0.007402667,-0.135687772,
-0.013585338,-0.275477587,-0.050899727,-0.144870659,-0.074374981,-0.060731457,-0.019868098,-0.092512450,-0.140734766,-0.247061607,-0.069557883,0.008546884,-0.018583117,-0.042819483,-0.085856779,-0.233446844,0.252252711,-0.295814579,-0.120817482,0.247226681,-0.173533101,-0.020397906,0.149956717,0.023519406,0.115432254,-0.045878020,-0.130732803,-0.103762914,-0.069687150,0.180236676,0.027170633,-0.121325341,0.145915284,0.050186010,-0.041524205,0.125112715,0.080378303,0.058438293,-0.043612208,-0.167328851,-0.189448532,-0.157009829,-0.120247416,-0.211721599,-0.083430278,0.145471910,-0.077376493,-0.039056178,-0.121194020,-0.045427239,
0.004336342,-0.173820069,-0.044152597,-0.333086476,0.025684574,-0.032510739,0.056042848,-0.032468169,0.063400352,-0.108882906,-0.012805936,-0.035191959,0.222501845,-0.116120073,-0.375314542,0.051761224,0.018456042,-0.189135421,0.173760470,0.070437166,0.120573712,0.192715402,-0.000740143,-0.013538387,-0.074290801,0.130777859,-0.014436579,-0.114007914,-0.162956015,-0.001636071,0.155285656,0.163661484,-0.179842933,0.012415682,-0.133505442,0.010315017,0.181294070,0.043959521,0.008368734,0.060033716,-0.101984940,0.200949389,-0.019798203,-0.136101480,-0.218106791,-0.205785147,-0.104975560,0.044022053,0.246643345,-0.026945671,
0.025551328,-0.069411975,0.143503384,0.038040948,0.059441658,-0.034293517,0.156394649,0.237525650,0.008482181,0.100421217,0.105442120,0.187720365,0.051786185,0.257748400,-0.059514952,-0.045331329,0.323247762,-0.008423320,-0.081108870,0.067419009,0.102756873,-0.084772538,0.164135148,0.182531428,0.252456333,-0.062088103,0.011193960,-0.020072032,0.180288955,0.054379587,0.228390546,-0.115995017,0.025265933,0.077775963,0.040656888,-0.284228136,-0.002865964,0.031954456,0.024328323,0.168043776,0.382931358,-0.086622704,-0.019291418,-0.086538360,-0.095057461,-0.178569164,0.166166108,-0.334571863,-0.032435670,-0.149000245,
-0.184442930,-0.131594232,-0.189461830,-0.188936777,0.115039349,0.224372150,-0.201734080,-0.101006341,-0.077753919,-0.140829692,0.002037372,-0.048105905,-0.085746486,-0.106463203,0.188093672,0.149132188,-0.182694008,-0.223101130,0.071999855,0.229396943,-0.281205859,0.071310026,-0.272525218,0.082810531,-0.199954565,0.284331032,0.242558636,0.129856976,0.206752433,-0.343663510,0.015954228,-0.031777694,-0.030066500,-0.115451073,-0.048103270,0.045654183,0.165211375,-0.197890782,-0.069180003,-0.027306670,-0.003785742,0.096705744,0.186040946,0.128133841,-0.238643615,0.006719432,-0.007523052,-0.180612274,0.018868935,-0.050172371,
-0.161505233,0.086923472,-0.009836114,-0.090655686,0.123726537,0.021061728,0.200290471,-0.049077829,-0.141471639,0.091072412,-0.008466096,-0.234557797,0.154578417,0.126275506,0.114424266,0.246964413,0.061228653,0.264055349,-0.039011224,-0.201007139,-0.175753244,0.338973240,0.062880555,-0.267576678,0.024476989,-0.194256074,-0.051041498,0.120979007,-0.226007752,0.081060805,0.043080040,0.008973263,0.076335486,0.185031716,0.046284979,0.096564387,-0.122865739,0.066632927,0.207821000,0.017770516,-0.129865712,-0.060528739,-0.212345299,0.069410332,-0.132630039,0.132771272,-0.273155664,0.028577409,0.035472029,0.003796699,
-0.120576278,0.235391678,-0.042505103,-0.110349167,-0.006327599,-0.124798446,0.015023918,-0.017654976,0.026101390,0.006502602,-0.099831319,-0.143125468,-0.113654128,0.243109232,0.041810425,0.135801413,-0.172760925,0.339711980,-0.033301448,0.141589913,0.344881766,-0.128347833,-0.094610841,-0.096259180,-0.101089381,-0.071691614,-0.221569953,0.142420375,0.002561768,0.158207407,0.121252531,-0.109775593,0.040120901,0.089637650,-0.168732825,-0.286066875,-0.018034535,-0.060451940,-0.002490854,0.085420234,-0.155211491,-0.179163405,-0.151469694,0.030183208,-0.184474295,0.073797573,-0.082718364,0.191750292,0.059189556,0.064568062,
0.104809512,0.079859056,0.154139900,-0.064938265,-0.233639312,0.065474409,-0.095703882,0.097062598,-0.235346832,0.275170502,0.019977783,0.108695991,-0.040757990,-0.000512211,-0.088502823,-0.028163640,0.087217655,-0.076438060,0.099697699,0.092654436,-0.030573330,-0.004219287,-0.028902212,-0.163433400,-0.067549443,0.042223903,0.091559423,0.021226653,0.117381417,-0.056931348,0.057861072,0.311496904,0.169383331,0.340278389,0.175020733,-0.251497401,-0.139053719,0.315523060,-0.127881820,-0.095242400,-0.152951296,-0.000265443,-0.029865091,-0.135400377,-0.055670912,0.201502952,-0.010767280,-0.072548443,0.024297481,0.028142228,
0.086484318,-0.011403489,-0.106010256,0.020352190,0.149773623,-0.274809801,0.018003520,-0.093691555,0.059949023,0.081377964,0.113092490,0.233402150,0.124084825,-0.059271272,-0.164884334,0.140021360,-0.066380077,-0.129046523,0.050541622,0.214283795,-0.144139360,0.042085071,-0.058170871,0.069186089,-0.061955214,0.248921780,0.006167867,0.154638656,0.285793053,-0.060167414,0.069693496,0.143311948,0.061643557,-0.289151017,-0.032127484,0.008547412,0.027928272,0.269686178,0.127241011,-0.211587111,0.183316897,-0.278531205,-0.092719369,0.248186105,-0.405396583,0.103704024,-0.196579816,0.021749496,0.299989134,-0.193067821,
0.206477354,-0.187055670,0.320420847,0.161556922,0.074951389,-0.039749315,-0.112940119,0.041101505,-0.141067255,0.206240558,-0.078092767,0.138277025,0.131662330,-0.045222133,-0.182238311,-0.152421075,-0.107166551,0.046264981,-0.039352104,-0.175311108,-0.232198408,0.012452660,-0.038527554,0.017973294,-0.167989933,-0.130419112,0.130025415,0.228940979,-0.123916899,0.062541568,0.225356335,-0.107028800,0.079877598,0.416016578,-0.176046573,0.049286915,0.208716286,0.168530166,0.112802125,0.207536389,0.029408716,-0.029148651,-0.066322952,-0.123821732,0.071459134,-0.144502196,-0.265695418,-0.086612017,0.130956048,0.042849923,
-0.224833076,0.025029435,0.222924177,0.093177571,0.168154079,0.037005207,0.109097624,0.094897515,0.009570842,-0.135553473,0.255438109,-0.170192047,-0.039363494,-0.008728477,-0.072998702,0.032221397,0.232517718,-0.169382184,0.191701456,0.078730089,0.268927886,-0.039078560,-0.004506494,0.001541403,-0.094068669,-0.099599064,0.054222417,-0.146332802,-0.040053082,0.369522806,-0.199196691,-0.044756730,-0.033626748,-0.168560492,-0.273883317,-0.010383903,0.143272423,-0.261012567,-0.047930157,0.103110824,-0.132110738,-0.076891699,-0.192226346,-0.081665818,0.232267297,0.250673624,0.064799293,0.232795084,-0.352708532,0.072259594,
0.109731895,0.124002679,-0.137707351,-0.200475895,0.040154417,0.355255929,-0.028604020,0.100940130,0.149411355,0.315887370,0.017989349,0.004505156,0.073897669,-0.100202097,0.197354980,-0.001871418,0.090421109,-0.091763564,0.147763529,-0.151445934,0.030616808,0.049811626,-0.038932824,-0.010568178,0.033707744,-0.046582146,0.066573211,-0.220480985,0.342611744,-0.097308154,0.136378769,-0.189598771,0.279267703,0.334127885,0.073906447,-0.022574156,0.107786636,0.072046747,-0.032278055,-0.028903571,0.277328687,0.110294339,-0.013364673,0.086328196,-0.109610720,0.169022232,0.192036781,-0.219264834,-0.237806462,-0.088450133,
0.185318991,-0.034593301,0.015352626,0.084730289,-0.005695698,0.106502879,-0.065535272,0.071433708,0.121210614,0.161352636,-0.188236925,0.111363595,-0.182715222,0.068847824,0.151927281,0.152366931,-0.073283767,-0.022206074,0.085813868,-0.063626547,-0.048598295,-0.199846743,0.024827135,-0.101974818,0.042847285,-0.192597627,-0.249140707,-0.086721283,-0.028472015,0.074796960,0.077235186,-0.087557051,0.054217284,-0.106494817,-0.111664961,-0.007920643,-0.088010941,0.017036539,0.164752783,-0.098851991,0.196671948,0.213370512,0.013167601,0.097336146,0.283191362,0.220537896,-0.004480869,-0.115463953,0.135809644,-0.168524570,
0.083729210,-0.290374091,0.039973481,-0.112245493,0.175433988,0.052337792,-0.075503901,0.053676149,0.055724584,-0.190108621,-0.053091098,0.113499934,-0.006068309,0.033828227,-0.118334236,-0.304471722,0.070690430,0.025711695,0.299917906,-0.220710777,0.101806541,-0.195317334,0.011191296,0.066010204,0.103219901,-0.265556932,-0.174872725,0.085968134,-0.071404059,0.086790504,-0.255828390,0.049567582,-0.172313442,-0.005491639,-0.144456509,0.114187488,0.218970618,0.105414820,0.069660934,0.081964119,-0.287072178,0.125604485,-0.122867514,-0.023497678,0.103076106,-0.158435766,-0.054726359,0.272013400,0.131919642,-0.246355804,
0.277443709,0.018596810,-0.239422910,0.046268603,0.238522516,-0.010636581,-0.185902145,-0.122950366,-0.045467593,-0.294618135,0.211282519,0.139797363,0.133528045,0.085019880,0.190450798,-0.081728460,-0.027788955,0.112771916,0.159708010,0.136796216,-0.163699714,0.201231632,-0.194999613,-0.168669208,-0.014901948,-0.049016816,-0.034432394,-0.142268912,-0.024618390,0.020298041,-0.186048313,-0.088941042,-0.262590150,0.052224102,-0.196418971,0.085781857,-0.148549489,-0.006645716,0.010962669,-0.105155316,0.227711226,0.087185260,0.085206427,-0.019545216,-0.021049855,0.065757092,-0.118607841,0.037842210,0.045535425,-0.291452069,
-0.173482741,-0.221088744,0.042172354,0.050675281,-0.073298595,-0.018546885,0.161990182,-0.024581769,0.106138420,-0.024771619,-0.220554357,0.082581013,0.079495396,-0.059031512,-0.198239238,0.280699783,0.063791874,0.035280687,0.081880550,0.020417455,0.262421229,0.045154896,0.132222278,-0.149353723,0.282018060,-0.159992926,0.029199272,-0.083298312,0.034294135,-0.009661765,0.084122584,-0.006839266,0.183661997,0.178760476,0.129478521,-0.059293069,0.098492744,-0.097818377,-0.117398627,-0.066220736,-0.236903557,0.066434171,0.006149869,0.132359726,-0.031882793,-0.130223048,-0.070112142,-0.060929743,0.124580473,-0.114220175,
0.100685957,0.195107456,0.104556283,-0.217315479,-0.053824078,0.056575460,0.035166131,0.074854395,0.094017618,-0.057555694,0.001903865,-0.121152458,0.061451223,0.010312152,-0.082270696,-0.003682632,0.021338361,0.109537610,-0.170529600,0.057523346,0.064280715,-0.033951809,-0.108611697,0.046334728,0.088964108,0.029348747,-0.128142264,0.231494394,0.136608168,0.027101522,-0.075669708,-0.008324841,0.016914116,0.248466240,0.002120431,-0.260206936,-0.053344269,-0.070211444,0.070413444,0.018681654,0.122818732,-0.078221236,0.008745027,-0.074760174,-0.104379797,-0.200288929,-0.042442511,-0.236381957,0.178007414,0.042182575,
0.096251602,0.237222097,-0.121329260,0.110835718,-0.155062861,-0.069366438,-0.298750764,0.101621791,0.155933368,0.243506237,-0.119180683,-0.130644565,-0.098163935,0.099490715,0.034986598,0.067616622,0.147023477,0.151065195,0.113532706,-0.020452078,0.098136588,0.046708352,0.026639301,0.120039245,0.117395866,0.037319505,-0.196225323,0.099797245,0.169387336,0.063050331,0.360003765,0.198844198,-0.021887092,-0.242574131,-0.070021583,0.115582977,-0.151536363,0.084602152,0.028283934,-0.137113853,0.329303877,-0.171659668,0.247829435,0.025428517,0.061580816,-0.120540549,0.171760600,-0.052311986,0.214454075,0.130336657,
-0.249248493,0.000854474,0.094520449,-0.013953559,0.053882715,-0.073106600,-0.009281658,0.115456551,-0.014438701,0.050828140,-0.002873941,-0.419841652,0.105789247,-0.088568048,-0.368803897,-0.116894558,-0.011503635,0.036256815,-0.019786122,0.324442226,-0.166659975,0.025629608,-0.042523735,-0.147588249,0.091590622,0.095101124,0.092059880,-0.014956653,-0.145743619,-0.086450541,0.286817073,-0.008814206,-0.011147728,0.074990199,-0.000636126,0.066524759,-0.004990863,-0.128110943,-0.051539379,0.162652138,0.240616509,0.081685157,-0.362549087,0.097873613,0.091222381,0.323331039,0.175088891,0.080999776,-0.009230488,0.112161433,
-0.003082008,0.120125908,0.199968437,-0.054095229,0.205800537,-0.077444213,0.374743333,0.143255323,0.064643103,-0.016295933,0.087976131,0.047541428,0.025078661,-0.002061050,0.015859592,0.047080620,0.163749035,-0.071118874,0.025965294,0.158613160,-0.049631105,-0.037251804,0.051644755,-0.181728905,0.094195567,-0.130208470,-0.024820160,-0.131721062,-0.072531026,0.021843539,-0.188167618,-0.046686643,-0.154041598,0.009013267,-0.189130362,0.054797140,-0.059516107,0.015139532,0.042680697,-0.056324970,0.131126944,0.275466623,0.250559888,0.001659473,0.047392519,0.190515753,0.143577081,0.174574337,0.076045190,0.062689495,
-0.083608352,-0.030093053,0.064024042,-0.120253972,-0.150747506,-0.230853509,0.081165209,-0.059636551,0.123454144,0.020721526,0.097940066,0.131634644,0.029722415,-0.234681122,0.147335374,0.091945846,-0.281139006,0.159077612,-0.004958396,0.265490026,-0.083722644,-0.071101481,0.051849727,0.057972899,0.040879382,-0.198389100,-0.051136781,0.009506757,-0.021121065,-0.275526613,-0.336640724,-0.225518122,-0.165065481,0.280054144,-0.151606390,-0.175714313,-0.108703814,-0.205645045,0.062091004,0.090785952,0.060655511,0.100790115,0.029424223,-0.202285094,-0.065506641,0.171477473,-0.082304530,0.183531304,0.138081876,-0.084270090,
-0.076105476,0.044325822,-0.089275746,-0.117362887,-0.152065613,0.062823062,-0.154513595,0.053806350,0.048707346,0.212152559,-0.018071095,0.068957082,0.011494580,-0.184398146,0.028849114,0.322271392,0.354295276,-0.397889032,0.035982524,0.124287776,-0.314588534,-0.048583853,-0.000203086,0.197713943,0.183122804,-0.146169000,0.023372293,-0.102510502,0.200921746,0.319553859,-0.115045634,0.060623478,0.117619606,-0.028073594,-0.102431880,-0.342973648,-0.082296651,0.192965564,0.187792124,0.136083546,-0.091291799,0.020169825,0.153538303,-0.079227725,-0.247490047,0.040677468,0.147640887,0.188586514,0.084134815,0.039215015,
0.184466573,0.120445619,-0.212111216,0.072057960,0.101073485,0.036804932,-0.307074758,-0.246747744,0.043182076,0.017689620,-0.004555686,0.217801767,-0.034921552,0.096022235,-0.199908447,-0.081081899,0.251771566,0.183844209,0.076648731,0.197735882,0.075683204,0.146757929,0.006512812,0.055865126,-0.070540118,-0.025740947,-0.123197170,0.110282608,-0.036917600,0.188845626,0.046086963,-0.130094614,-0.067534328,-0.027806198,-0.269135250,-0.255625793,0.230614474,-0.066714461,0.032851606,0.071936459,0.004300608,0.083772009,0.261112646,-0.241581811,0.038051205,-0.006432885,0.148144288,-0.011106236,-0.041920531,0.018037526,
-0.105847992,-0.056965258,0.028945835,-0.158064209,0.094346201,0.259304666,-0.101834564,0.128891086,-0.048983564,0.003556021,-0.227833774,-0.216837879,-0.005380176,0.202160022,0.036574137,-0.118265763,0.243139191,-0.159543084,-0.057549447,0.021715108,-0.057534996,-0.222200984,0.084835684,0.064576987,0.002381973,-0.058034182,0.045545861,0.271185440,0.174844304,0.007177736,0.034351843,-0.020823969,0.010468791,0.120972418,-0.175967134,-0.133516288,-0.163953535,-0.020938017,-0.038526503,-0.007017053,0.311034865,0.031013697,-0.122641880,0.003788597,-0.031665291,0.010266425,0.122815634,-0.068461146,-0.125067516,0.188191198,
0.026286472,-0.099982650,0.066714383,0.047997575,0.082470350,0.071781243,0.028118553,-0.123848269,0.135435883,0.216164640,0.082816233,-0.027886397,0.014326740,-0.232501419,-0.001556631,0.124562390,-0.134850293,-0.128099966,-0.086846139,0.048409543,0.101797096,-0.115498828,0.032406830,0.161362898,0.110688839,-0.003543909,-0.016769891,-0.294513044,-0.009420536,-0.182695833,0.021854168,0.212826797,0.129181478,-0.065653141,0.074834127,-0.028706069,-0.095991902,-0.058789738,-0.061984437,-0.138430767,0.063148035,0.213729933,0.026304767,0.129581712,-0.141871201,0.095520368,0.096611855,-0.079591657,-0.078833184,0.061072584,
0.122131846,0.026576510,0.068919975,0.072224840,0.013562965,-0.159930717,0.015094774,0.034457540,0.060957635,0.055139414,-0.312383445,-0.200696948,0.227331540,0.074188225,0.058456192,-0.152774280,-0.002421349,0.132517159,-0.110636221,0.105701080,0.100166041,-0.066319562,-0.079840074,0.173271640,0.050027492,0.045442124,-0.042650812,0.055075009,-0.042561486,-0.043954786,-0.165145501,0.031050676,0.136754945,0.312578579,0.037224485,-0.134596898,-0.148205253,-0.137691632,0.054026890,0.066810390,-0.095504154,0.047504387,0.020448519,-0.027343820,-0.075175176,0.017121199,-0.253420183,0.011160711,-0.162263248,0.057993064,
-0.112033169,
-0.207566035,
-0.114671590,
-0.009239694,
-0.067080336,
0.058424994,
0.162944712,
0.013658739,
0.182806860,
0.148966097,
-0.183348157,
0.006728058,
-0.179575702,
-0.252384639,
-0.190108071,
0.140345552,
0.119042176,
-0.005160094,
-0.162274626,
-0.078314465,
0.081502465,
0.262742098,
0.247270794,
0.069712913,
-0.120810707,
0.171768426,
0.164420299,
0.299014771,
-0.071662576,
-0.115412908,
0.251622385,
-0.111343232,
-0.172673662,
-0.159302997,
-0.260793868,
-0.021650812,
-0.045480083,
0.087995867,
-0.146901514,
-0.083019376,
-0.220474133,
0.261461968,
-0.145272143,
-0.005774273,
-0.066807405,
0.275431430,
-0.119517402,
-0.019933999,
-0.135220506,
-0.209317019,
0.014225790,-0.262489715,-0.163133039,0.117392074,-0.003601893,0.063978868,-0.096713081,-0.206492464,0.188279034,0.023957400,-0.130532203,-0.182574430,0.104659493,0.125297836,-0.207286491,-0.016415814,-0.052861616,-0.295542217,-0.029127599,-0.040955699,0.135973166,0.042563845,-0.057265728,-0.154954513,0.074167162,-0.025728912,-0.341634368,0.174282298,-0.259626759,0.010153127,-0.008491938,-0.024688807,-0.191696471,-0.128062516,-0.029032483,0.057417517,-0.026396318,-0.073949185,-0.132748215,-0.062396358,0.044492229,-0.313487764,-0.038115635,0.012177991,0.064464562,-0.191561323,0.153541843,-0.172173093,0.209133080,-0.091943819,
-0.011519554,0.074368293,-0.081374063,0.044777009,-0.233196402,-0.149630013,0.199862405,0.019940962,0.179874154,-0.213729435,0.155184309,-0.220431386,-0.032289346,0.029632258,-0.040273988,0.106192244,0.196779643,0.084953728,0.041815669,0.107621964,-0.127043935,-0.218283665,-0.138814737,0.074076915,-0.148570999,-0.143488437,0.295590020,-0.157522444,-0.091017874,-0.000911067,-0.204383201,0.099131001,-0.359012031,0.145224172,-0.038191622,-0.021235775,-0.127327270,0.215799654,0.030245049,-0.015824464,0.029609882,0.015846985,0.168015665,-0.165582746,0.168102672,0.195143426,-0.319742553,0.133134839,0.096317653,0.223099887,
-0.043493229,0.376924148,-0.029369047,0.164871700,-0.087434327,0.003362992,-0.161825740,0.309868231,-0.253030500,0.025689460,-0.106637215,0.136981173,0.146003959,0.042461799,0.026786594,0.086981893,-0.137536368,-0.195841445,0.040877953,-0.025974787,-0.041580300,0.225408988,0.057160700,0.031278180,-0.022634936,0.007091499,0.210543921,0.060091448,0.197133810,0.066082223,-0.108598000,-0.055346210,0.126656439,-0.068536526,-0.016310596,0.003104014,0.183061315,-0.064169882,0.192561895,-0.219320174,0.091426556,0.065059903,0.156223774,0.062567132,0.242735379,-0.097860777,0.258307445,0.127641990,0.195062632,0.021601628,
