// Neural Network File Format by Kyle Julian, Stanford 2016
11,2,2,20,
2,20,20,20,20,20,20,20,20,20,20,2,
0,
-10000.0,-10000.0,
10000.0,10000.0,
0.0,0.0,0.0,
1.0,1.0,1.0,
-0.139829793,-0.210079344,
0.161836272,0.162819000,
0.013003404,-0.408029033,
0.007244313,0.005141011,
0.136257662,-0.153902813,
-0.139350169,-0.213724515,
-0.382459628,0.432090005,
0.152944966,0.133264691,
-0.239059682,-0.017792334,
0.130057750,0.178664819,
-0.204699891,0.262799170,
-0.176904897,0.270757476,
0.292488201,0.063974370,
0.156098236,-0.544750169,
0.046097177,-0.224890229,
-0.385370497,-0.272864283,
-0.148034562,-0.217887442,
-0.062036831,0.216039730,
-0.417211541,0.092728610,
-0.240523536,0.092743666,
0.193413570,
0.084015604,
0.079571584,
-0.154838862,
0.038553773,
-0.185690669,
-0.190466169,
0.202487751,
-0.405691842,
-0.063462408,
0.031835366,
0.276891698,
0.157421350,
-0.021482232,
-0.053460555,
0.204118187,
0.251603423,
0.032422921,
-0.006576759,
0.389078247,
-0.194081160,-0.102375945,0.257492836,-0.029260033,0.123089522,0.004548071,-0.534968305,-0.079892687,0.077179002,0.234916087,0.248993963,-0.074776087,0.043910685,-0.218541506,0.076550205,-0.367696992,-0.223820217,-0.101587769,-0.078828149,-0.017025534,
-0.351423270,-0.135925643,0.432118178,-0.041947717,-0.262760573,-0.107186435,0.128875806,-0.216396489,-0.509114795,-0.559268823,-0.188058695,-0.110848277,0.085075621,-0.296103014,-0.470824158,-0.126324323,-0.429490011,0.147617128,0.738845066,0.109224560,
0.278026647,0.091070814,-0.088714885,-0.254254767,-0.225359614,-0.004383033,-0.090732783,0.054519935,-0.199012601,0.032249688,0.025062326,0.499373623,-0.425864935,-0.325313506,-0.068299968,0.048077363,0.076352152,0.320152320,-0.388986699,-0.209753970,
-0.567865334,0.296188941,-0.282775630,0.371624733,-0.035784472,-0.246155324,0.536945473,0.287054939,0.283204313,-0.277428876,-0.302942573,0.114937902,-0.210598321,-0.156891543,0.225701414,0.170618488,-0.049178191,-0.191487441,-0.058794901,-0.031753068,
0.304692921,0.382791783,-0.236175184,0.285361774,0.240019161,-0.195944838,0.034542146,0.343099473,-0.378816149,-0.174717100,0.157853924,0.476984375,-0.030634228,-0.192693037,-0.341911982,0.044224417,0.141529422,-0.012862397,0.446232100,0.138011635,
-0.141952724,0.034400856,0.013347465,-0.109314300,-0.246811028,0.431073771,0.191112167,-0.031818678,0.024099578,0.727155764,0.155195135,0.264027970,0.121939466,0.678123223,0.085329433,0.594816790,-0.451696852,0.164857366,-0.296932276,0.017929234,
-0.109883227,-0.163229620,0.126837585,0.275866629,-0.441216757,-0.141211530,0.157110692,0.122016014,0.094778354,-0.042350841,0.257545503,0.319664164,-0.161421216,0.071052853,-0.230855637,0.174474046,0.309169367,-0.249034482,-0.204988137,0.368745414,
-0.330249484,-0.190817581,0.271964579,-0.172799024,0.429797186,0.632831452,-0.122423693,-0.097868890,0.248168964,-0.315073515,0.303765756,-0.152044562,0.575955924,0.109637752,0.473337272,0.369071932,-0.129302404,0.080383001,0.186208701,0.271400086,
0.100530743,0.053049728,0.318163454,-0.553169281,-0.588864250,0.181680153,-0.281058718,-0.104606429,0.658698901,0.160031133,-0.053868887,0.119275721,0.097848573,0.057384145,-0.173723229,0.045622790,0.017368955,0.210271699,-0.082245795,-0.440765434,
0.288679582,-0.546169723,0.273514896,-0.029485820,-0.053058906,-0.226345071,-0.169474339,-0.203354279,-0.155867586,0.004017468,0.589233364,-0.113562259,-0.208373582,-0.113104638,-0.095219897,0.177768851,0.522779038,0.202469536,0.038862930,-0.156625015,
0.133153276,0.355359089,0.143242196,0.048827127,-0.293605858,0.036739468,-0.358393874,-0.308887457,0.169350730,0.020618012,0.206258671,0.123261986,0.079622305,-0.462979053,-0.390490587,-0.176700152,-0.042673526,0.164323858,-0.241574409,0.152612591,
-0.177858338,0.257684314,0.004659209,0.217380980,-0.146406254,0.046161053,0.136813283,-0.392786391,0.182616630,-0.140186697,0.099044380,-0.176821022,-0.349494355,0.367753934,0.098967932,-0.457734647,0.198031196,-0.417277933,-0.038470228,0.030282397,
0.031858715,0.628163510,-0.206675469,0.115750813,0.078637641,0.122814853,0.178730858,-0.314058475,0.127801157,-0.203913306,-0.576502175,-0.027886009,-0.120224311,0.171686484,-0.007414670,0.352011847,0.478666023,0.087083433,0.289290876,-0.258179545,
0.195645962,0.019730194,0.486232589,-0.109926960,0.111540886,0.218644767,-0.003004346,-0.277523355,-0.057149771,0.547305648,-0.348163012,0.060512597,-0.309028656,0.401441302,-0.624765492,-0.281932150,-0.067601017,-0.439598751,-0.463465735,-0.115486044,
0.251167945,-0.158749278,-0.382106986,-0.071730077,0.230953451,0.257126985,-0.312931832,-0.307606376,0.358968493,-0.217115951,0.142547730,-0.170792574,0.522593556,0.077240516,-0.115033480,-0.075236351,-0.070448741,-0.420100052,-0.370607353,-0.584098800,
0.228665130,-0.070628220,-0.015870572,-0.130766284,0.172805636,0.157448787,0.304019735,-0.214814885,-0.350862032,-0.231138685,-0.057385041,-0.091308155,-0.175790871,-0.001648648,-0.160683019,0.056450738,-0.261197164,0.432170277,-0.162383072,0.203283460,
0.063461588,0.319416220,0.307691586,0.433273582,0.503270595,0.040180386,0.260371414,-0.355336668,-0.355410821,0.022877333,0.220580213,-0.372330202,-0.268571583,-0.015488494,-0.557814611,-0.112756943,-0.508975870,0.325591054,0.462930082,-0.101899764,
0.368576552,-0.162775055,-0.047404847,-0.450961409,0.028189115,0.118373636,-0.352610580,0.091372088,0.039007103,0.099361931,-0.021651032,-0.029581355,-0.846525721,0.550348780,-0.022806781,0.380267461,0.707337004,-0.196424394,0.015802151,-0.256614936,
-0.127238203,0.392632973,0.520840821,-0.305760813,0.390787426,-0.091810582,0.007990768,0.210568069,0.231036464,-0.180689851,0.238512712,-0.127254769,-0.048667633,-0.049886261,-0.048056766,0.300422010,-0.224192433,-0.153914884,-0.237172579,-0.301697176,
-0.205432788,-0.020962613,0.315358988,0.553693111,-0.149320309,0.141181035,-0.315791071,-0.384419658,0.334615840,-0.182092915,0.265998385,-0.012280152,0.553813058,0.221036770,0.035906287,0.392327410,-0.298934597,-0.166810607,0.007120852,-0.165205126,
0.275539210,
0.251376464,
-0.017762614,
0.140694061,
0.202981491,
0.218656658,
-0.052569098,
-0.323750641,
0.173450313,
0.199924544,
-0.023917865,
0.452350839,
0.294318478,
0.053768267,
-0.256717233,
0.226197640,
0.170143454,
-0.088991016,
-0.063640907,
0.085277117,
-0.103951514,-0.092918720,0.263454381,-0.029796820,0.372583652,-0.282275227,-0.137460913,0.473389377,-0.094628173,-0.238127740,0.230068876,-0.509848947,-0.186448115,0.254386902,-0.000992009,0.084310419,0.130510076,0.481048968,-0.280325488,0.121375300,
0.265239061,0.322249466,0.269288527,-0.210167005,-0.536559559,0.146956853,-0.206239585,-0.187370579,0.074525698,0.086938322,0.317605173,-0.269483253,0.192238450,0.332680920,0.149792256,0.107648884,0.085898575,-0.754276408,0.217314103,-0.108906288,
0.327411739,-0.109548795,0.327726575,-0.078759259,-0.174281244,0.142528405,0.388856077,0.493075124,-0.212459306,0.179751818,-0.502452931,-0.074550278,0.139503497,-0.407335775,-0.490817883,-0.202671171,-0.127808159,-0.254338379,-0.223326340,-0.046861072,
-0.479422773,-0.034995735,0.264481887,-0.142945452,0.241515110,0.276503059,0.148704252,-0.011337392,-0.107005219,0.178092675,-0.119009877,-0.175589117,-0.135935619,-0.323652495,0.006050943,-0.116602936,-0.329278642,0.137261633,-0.118932841,-0.122422792,
0.143026077,0.211406763,-0.044487522,0.076364172,0.435093743,-0.430458964,-0.187248921,0.366425305,0.146450495,-0.099320426,0.205514013,0.291478690,0.194568328,-0.070122847,0.195474337,0.112382334,-0.146358435,0.026872197,0.212054218,-0.217230617,
0.043843216,-0.172029162,0.034262799,0.122499395,-0.413308707,0.084883706,-0.115935352,0.032313144,0.126596446,0.062555174,0.131737563,0.544274186,-0.176727663,0.515874846,0.156057608,-0.222548299,0.241311197,0.319418374,-0.098772175,0.015471271,
0.577157682,-0.175017656,0.395418636,-0.062124858,0.210400085,0.106718763,-0.203220474,0.202778410,0.063182404,0.229145570,-0.047902018,0.432022883,-0.134996315,0.014685259,0.250329933,-0.123651814,0.340348179,-0.263373552,-0.335750283,0.189589390,
0.039647265,0.043725731,0.192542746,0.268127507,-0.300536129,0.288820013,0.054571779,-0.138305766,-0.135409989,0.337940809,-0.117907032,-0.202827416,-0.241916935,-0.245836386,-0.068595585,0.399576325,-0.198115302,-0.284068164,0.046075950,0.176734550,
0.001502750,-0.604853146,-0.021117762,0.591447028,-0.130139740,-0.129296646,-0.312081216,-0.040757434,0.316932813,-0.112843458,-0.017499930,-0.393169876,0.278216323,0.301981019,0.019420899,-0.078993282,0.342861851,-0.256271370,0.417214032,0.015864058,
-0.599235603,-0.686132376,-0.137805057,-0.204267155,0.012905222,0.161394597,-0.336840703,-0.404643837,-0.354015690,0.007061139,-0.036777856,0.474759801,-0.463370166,0.027420671,0.004672287,0.181607116,0.330301985,-0.655454961,-0.041234040,0.013101752,
-0.137275832,-0.010595640,0.058929725,0.009884369,-0.130047848,-0.500763765,-0.538597685,0.258490654,-0.278949454,-0.140730856,0.295502003,0.316961418,0.098236558,-0.111714751,0.029434936,-0.312514641,-0.072396891,-0.012057961,0.182007065,0.180061537,
-0.100300248,-0.175830454,0.188339095,0.252721938,-0.023075989,-0.063896968,-0.392545585,-0.036547494,-0.454780990,-0.288044251,-0.573569064,-0.026602065,0.047782388,-0.049558364,0.104285242,-0.263253341,0.234705902,0.062202099,-0.270844998,0.084502690,
-0.268701433,-0.081767909,0.199969058,0.104669418,-0.105543027,-0.091173473,-0.438247826,0.499459791,0.265481881,-0.262641796,0.247256109,-0.266302038,0.025753072,-0.591618797,-0.684246849,0.022712160,0.022166275,0.146623343,-0.161738398,-0.113218503,
0.050452215,-0.122328882,0.035236080,-0.076290334,-0.255872191,-0.062015871,-0.322177601,0.234461678,0.027464359,-0.046703536,-0.230203818,0.807119182,0.091464276,-0.052252325,-0.297173049,0.277066089,-0.184428522,0.348462902,-0.352289661,-0.060624191,
0.351523193,-0.117110850,-0.346883614,-0.064741229,0.058704753,0.338820884,-0.072876846,-0.677008246,0.270375550,-0.186573652,0.264988582,0.409406053,-0.105329164,0.105208667,-0.370108968,0.044711745,0.234160433,0.204072664,0.061220394,0.309637706,
0.276332471,0.231681190,0.022454219,0.000662781,0.066944514,0.210428718,-0.385261223,0.041857165,-0.304443726,-0.249095853,0.117424523,0.131147703,-0.016580490,-0.156586882,0.095249117,0.532596910,-0.029964053,0.093477857,0.013311554,0.230856028,
0.087014157,-0.191917975,0.177904298,0.149608732,0.289249615,-0.201705379,0.002064931,0.156364039,0.222254107,0.149020507,-0.383091673,-0.208329039,0.263979131,0.119076108,-0.277726315,0.033464087,-0.260595153,-0.257543534,-0.006598905,-0.450536687,
-0.016131882,0.283751950,-0.117666725,-0.174600915,0.439169795,0.154522597,-0.049394199,0.143628322,0.130265664,0.162024844,0.390120726,-0.134971770,-0.057305345,-0.411918542,-0.258525898,0.186858132,-0.239197498,-0.248859244,0.175986904,0.243414111,
0.024473319,-0.389370424,-0.044080769,-0.276418801,-0.084567827,0.023408161,0.115179704,0.125066115,-0.096375352,-0.196059238,0.201994723,0.094510942,0.156131947,0.309173879,-0.207425319,0.189434910,-0.483781903,0.302829563,-0.166161969,0.638892817,
0.201486618,0.465387414,-0.359061236,-0.095649667,-0.010173757,0.340534381,0.013778663,-0.456837630,0.024776672,0.248623024,0.113553625,-0.095730231,-0.442607866,-0.145198974,0.347362627,0.143952409,-0.207641334,0.004553187,0.514759641,-0.284914263,
-0.034896005,
0.035630582,
0.293665620,
0.119160892,
0.041438899,
-0.085732598,
-0.505169425,
-0.072926447,
0.178806781,
0.212496596,
0.069393519,
0.081611361,
-0.002452085,
-0.311058139,
0.276425520,
0.399255535,
0.098839149,
-0.479620238,
-0.152378454,
-0.238719468,
-0.226550154,0.249247873,-0.058292768,0.034571011,-0.239300990,-0.390691456,-0.290527059,-0.057900721,0.451624497,0.272366777,-0.039888266,-0.141712766,-0.313178641,-0.416852205,-0.072566831,-0.331892456,-0.009323997,-0.220509282,0.153135789,-0.404118867,
-0.119979937,0.157872007,-0.419095074,0.261300186,-0.131766833,0.226945133,0.113949002,-0.389959880,0.561890189,0.251988551,-0.244772301,-0.041654149,0.056339281,-0.409212020,0.036366773,-0.207951688,-0.019583167,0.298058918,0.103837869,0.063420580,
0.318599353,0.175895445,-0.096604609,0.022158011,0.395778273,-0.285818929,-0.189102292,0.166285886,0.342734282,-0.268510985,0.310439177,-0.161786097,0.069470764,-0.103896334,-0.006827574,-0.042581262,0.283252269,-0.160284667,0.291973129,0.398898532,
-0.291483910,-0.279149753,-0.150392652,-0.186115119,0.225357252,0.178519239,-0.436148289,-0.332391623,0.253155037,-0.083609309,0.096376706,-0.509214596,0.289904133,0.597689126,0.009047587,-0.002358806,0.155305379,0.047581107,-0.035204069,0.070855090,
-0.333543762,0.455646083,0.447840700,-0.384237716,0.200276951,0.090894643,-0.188966982,0.129481937,0.082902817,-0.091110038,-0.076734323,0.006180520,-0.301790877,-0.086152962,-0.335103370,0.002779463,-0.555772428,0.115492034,-0.225192447,-0.230062656,
-0.286411668,-0.063798660,0.240768990,0.104972136,-0.206863833,0.207749359,-0.433491583,0.079365557,-0.498089173,-0.089050274,-0.153625923,-0.117411284,-0.278679845,-0.178934165,-0.253513381,0.165457377,-0.108383307,-0.373519861,-0.016402557,0.165589893,
-0.186489048,-0.153028031,-0.003342599,0.150279105,0.004587147,0.037831786,-0.087020248,-0.617344288,0.474188538,-0.538743270,0.059623192,0.092380182,0.214963531,-0.044287901,-0.047322960,0.247448616,-0.141138124,0.080852806,0.442451107,0.414893957,
-0.120520207,0.024901129,0.091620915,-0.219490616,-0.394710066,-0.194735145,0.009263509,0.173047617,0.163552359,-0.000033602,-0.530828419,-0.443767474,0.149636315,0.066084385,0.422124040,0.019377318,0.404018707,0.091187547,-0.605275633,-0.135364173,
-0.302313227,0.234548663,-0.226366256,-0.107691420,-0.863929426,0.010796207,0.136142883,-0.152749418,0.136472257,0.329863193,0.291052508,0.084776759,0.368049322,0.258213542,0.003416073,0.399394420,0.425501459,0.079836437,0.134459470,0.105524951,
-0.017554402,0.156701852,-0.495149276,-0.201386453,0.290072078,0.306514237,0.050133468,-0.305287292,-0.101527952,-0.428553794,0.272348360,-0.015932540,-0.261482827,0.199133598,-0.006942758,-0.293634306,-0.069921596,-0.255282631,-0.126956134,0.230434864,
-0.342257015,0.060058165,0.197976977,0.065591915,0.163601201,0.249958264,-0.352563213,-0.210048820,-0.418894254,0.014773703,0.100330789,0.050033055,-0.436269614,-0.209549480,0.089166223,-0.449921714,-0.003640806,0.354827282,0.016878981,0.006061594,
-0.212519380,-0.113939618,-0.001027176,-0.399777623,0.088591298,-0.310602360,-0.533893639,-0.108531884,0.405982059,-0.343174072,-0.077228455,-0.066842116,0.045665951,0.416442753,-0.321321847,0.542449325,0.213977736,-0.035276728,0.192314520,0.040187074,
0.415192428,0.143676981,0.238488133,0.015525463,0.184318569,-0.213208468,0.165916521,0.044291564,0.207173968,-0.042945370,-0.313926488,-0.224088247,0.298351922,-0.019433520,0.069131886,0.088056916,0.074199568,0.001550238,0.251829554,-0.202513315,
-0.085754334,-0.082593980,0.011970180,0.261807244,0.371004154,-0.508888533,-0.217562499,0.644721548,0.521401417,-0.436326724,-0.242511483,0.029679748,0.282807729,-0.201116173,-0.516811149,-0.275531242,-0.324793246,-0.099463335,0.313839746,-0.177457012,
-0.118786967,0.286927160,-0.414305334,-0.153139038,0.266745970,0.248456194,-0.211001489,0.143879053,0.387398378,-0.033866938,-0.095322528,-0.086835971,0.227695874,0.036029681,0.617889642,-0.195671240,0.171283847,0.268419936,-0.283152668,0.408487208,
0.194494165,0.007650609,-0.223714120,-0.267408767,0.024534034,0.173660520,-0.701999858,0.049420082,-0.061938611,-0.339952220,-0.070818338,0.055585990,-0.032225384,0.161099700,-0.271309730,-0.349207764,0.318802281,-0.356314160,-0.046413690,0.034985743,
0.287143665,-0.447505559,0.667431846,0.185181523,-0.370964656,-0.121922418,-0.516453124,0.094468797,0.100627109,-0.080553240,-0.052930310,-0.132975709,-0.282994927,0.362471771,-0.181043578,0.166105056,0.130634706,0.181330790,0.309378858,0.238957659,
0.126850354,0.134014191,-0.273517727,0.049005451,0.470226733,-0.338581561,0.252426156,0.060618981,0.069314863,0.306894080,-0.237916346,0.081266717,0.270318782,-0.250806004,-0.199852802,0.183273419,0.158598283,-0.048514069,0.032214020,-0.669417948,
0.356054317,-0.224638546,0.093666134,-0.019131018,-0.367664054,-0.312589318,0.048160468,0.024478910,0.315987567,0.074120927,0.200701541,0.055546578,-0.302551674,-0.055596435,-0.219336662,-0.576188610,-0.169665594,0.454673278,0.186795291,0.025893279,
-0.277484192,0.355613000,-0.349149344,-0.081177912,-0.153193183,0.232561859,0.295940795,0.549415162,0.044867085,0.051925570,-0.105839584,0.267251462,-0.421594886,0.086159837,0.009548228,0.163408702,-0.044174645,0.263090384,-0.420173175,-0.089990737,
-0.336149654,
0.004505671,
-0.316396766,
-0.476065856,
0.358203053,
-0.143653496,
-0.239123745,
0.248416823,
0.471437853,
0.192917885,
0.104321118,
-0.052388167,
0.304386671,
0.020497340,
0.300220482,
-0.003784366,
0.344063756,
0.158581108,
-0.395481928,
0.367861791,
0.272195467,-0.261623771,-0.137308541,0.122459148,-0.025536402,0.211402282,0.184396304,-0.411126592,0.338316001,-0.253290558,0.375547378,0.279258213,-0.384725757,-0.192983242,0.310945418,0.243922128,0.234926270,-0.208643681,0.020846906,0.115945761,
-0.107924198,-0.617783509,-0.149300444,0.188170196,0.184790697,0.062213271,-0.017322511,-0.274935597,-0.068078905,-0.333329005,-0.250352246,-0.313070146,0.138036414,-0.172559015,-0.352472385,-0.137311233,-0.094854330,-0.083714938,-0.360107492,-0.124963019,
-0.027175744,-0.149276026,-0.373383152,-0.203474066,0.319305752,0.322162279,-0.478832953,-0.556672237,-0.235890335,0.072111931,0.303949056,-0.117617131,-0.214209276,0.103887633,-0.280592044,0.067291777,-0.000281904,-0.085731476,0.225979543,0.016574294,
0.158517306,-0.425857597,0.083780098,-0.247617267,-0.141620368,0.085865724,0.308730425,0.078979935,0.193300892,-0.286393114,-0.214721497,-0.179087240,-0.015269966,-0.077134962,0.214615131,0.198718807,0.301124540,0.144455998,-0.106684352,0.094098368,
0.136238081,0.364802229,-0.337842591,0.458895118,-0.546909993,-0.391849626,0.287191535,0.261162187,-0.022387903,0.250256277,-0.076304427,-0.014021221,0.453648772,0.164498336,0.016324998,-0.296236600,0.028823074,-0.271038620,0.326266202,-0.207494844,
0.194010896,0.017583687,-0.305095412,0.017167745,0.475593380,0.449276516,0.372215522,-0.142996274,0.051749183,0.637857902,0.148658167,-0.115005476,-0.308037991,-0.139804282,0.194486666,-0.038738505,-0.331337315,0.501707874,0.216859659,0.054855494,
0.176837500,-0.204749859,-0.373434630,-0.382487017,-0.566773774,-0.304452319,-0.235443763,-0.305430259,0.134724089,-0.449385303,0.819859574,0.155004749,0.165946286,0.015636247,0.334427010,-0.064144961,0.103922841,-0.145750250,-0.173105900,0.048430234,
-0.149641391,0.178405787,0.573652808,0.159063319,0.102551757,0.230116592,-0.125096094,0.003714286,0.207947856,-0.175078357,0.065196198,0.207002711,0.131060258,-0.186065295,0.039351966,0.450237036,-0.275945644,-0.103112253,0.075676599,-0.407433220,
-0.489067873,0.247023811,-0.130499691,-0.104584229,-0.285176197,0.345325747,-0.093111029,-0.381094518,-0.269854191,-0.041082555,-0.341555281,0.310693891,0.162819859,0.000678306,0.116209363,0.020464512,0.291156309,-0.469195772,0.068860963,0.203316580,
-0.572883069,-0.126403900,0.131843062,0.216488280,-0.036076839,0.244413866,-0.001923633,-0.203637704,0.278376386,0.204956129,0.296768000,-0.559994882,0.079367988,0.108158729,0.105323530,0.160655658,-0.423585126,0.230609294,0.053598252,-0.093658342,
-0.040248039,-0.048279807,-0.043987130,-0.207314635,0.038607517,0.355525843,0.238111758,0.074432979,0.141128618,-0.012454924,-0.377422384,0.150765875,-0.138286374,-0.574668041,0.146697586,-0.242338930,-0.108772166,-0.125775612,0.075768544,0.132792443,
0.089532521,0.111374511,-0.281791817,-0.142076282,0.012492656,-0.119394446,0.108236282,0.200620955,-0.107492851,0.130970010,0.019165022,0.072405184,0.489773001,-0.603132808,0.090421309,-0.506986604,-0.536858548,0.192731853,0.195457869,-0.388656008,
0.413464465,-0.262798660,-0.208975587,-0.059570173,-0.322120207,0.160879814,-0.259800059,-0.033302802,-0.297202996,-0.464992854,0.111062739,-0.089160984,-0.241173680,-0.379829408,-0.027442658,0.114951516,-0.381642313,0.092540698,0.348694753,0.032852105,
0.106300347,-0.464206460,0.015095481,-0.173157180,-0.370401437,-0.113730062,-0.355614091,-0.191897866,0.020677456,0.134901712,0.155552640,-0.089874148,0.212091946,-0.220685248,-0.122637814,-0.160245589,0.121800820,-0.152088584,-0.225978333,0.407101487,
-0.285343040,-0.051674469,0.016424558,0.290587540,-0.166847858,-0.096054286,-0.314475520,-0.003195500,-0.065888096,0.249314631,0.073404084,0.189342879,-0.154670992,-0.143284590,-0.279779079,-0.366204258,0.280927850,-0.188270860,0.032438449,-0.416602344,
-0.193080133,0.189548610,-0.214033589,0.180346086,0.318026873,0.188814709,-0.030211774,0.046159387,-0.230697727,-0.382621079,0.354030466,-0.078271223,-0.012809344,-0.245217239,0.114500826,0.087899498,0.305104642,0.230935699,0.126700517,-0.269438557,
-0.042798868,0.237921852,0.043653778,0.460368428,0.027440860,0.209597216,-0.326345274,-0.334125814,0.388267175,0.152559801,0.560534567,-0.223219230,0.088822260,-0.049225115,-0.039788652,-0.042245313,-0.143955315,0.075843510,-0.184507076,-0.054907081,
0.064136119,0.166311695,-0.144968876,0.149319391,-0.182166015,-0.208825817,0.011492560,0.202766045,0.096375090,0.125234229,-0.371214752,0.057118442,-0.095657873,0.024400604,0.191048945,0.147428944,-0.113184671,0.112040869,0.073114241,-0.166766678,
-0.023683798,0.026034631,-0.484548498,-0.447811659,-0.027694865,0.338848984,-0.022988048,-0.135803542,0.113941609,0.064478996,0.258081675,-0.284670096,-0.042313728,-0.197363586,0.182953107,0.149843820,-0.217596184,-0.305533325,0.060645899,-0.156634132,
-0.132675520,0.162246423,-0.063657139,0.087744310,-0.001267954,0.052329202,-0.224493101,-0.486866229,-0.096468134,0.103956966,-0.496614174,-0.687486669,-0.321156587,-0.120399304,0.101004479,0.082534658,-0.042644394,0.156791996,0.147940836,-0.211805755,
-0.124640248,
0.227112444,
-0.212034182,
0.561155585,
-0.270406309,
-0.122372722,
0.466418088,
0.147799291,
0.443536265,
0.260517471,
-0.054290376,
-0.212965105,
0.361631661,
-0.506672003,
0.145364266,
-0.041748931,
0.203011571,
-0.003501620,
0.132073930,
0.652398009,
-0.275056714,-0.086943790,0.028443829,0.715751970,0.123393045,-0.152253626,0.196151258,-0.199575856,-0.027900914,0.293580841,-0.288343865,-0.309286449,-0.410259387,-0.298656328,0.056507418,0.292874098,-0.200654550,-0.435835858,-0.000114493,0.063938224,
-0.142130140,0.105907072,0.083237095,-0.064557731,-0.369370392,-0.329491441,-0.221861263,0.040655419,0.269183187,0.474201824,0.359670584,0.278477303,-0.122623981,0.330818824,0.026012756,0.006497529,-0.113045104,0.021819566,-0.242918830,0.049408401,
-0.423890667,-0.153592216,0.068515315,-0.102824986,-0.097035051,0.055973304,0.082389714,-0.079582895,0.404133845,0.137980237,-0.022550970,0.316220109,-0.103834473,-0.016723289,0.228015196,-0.167901018,0.096012239,0.340497533,-0.085974484,-0.217082722,
0.251853967,-0.102930009,-0.260014423,0.747816251,-0.052234359,0.100252492,-0.292879346,-0.445522794,-0.229286972,-0.049608842,-0.071593385,-0.261243844,0.284007120,0.432252785,0.360430053,0.124194403,0.173827539,-0.196034927,-0.189873155,0.044717564,
0.536596320,-0.193285642,-0.302216578,-0.311964319,-0.121756047,-0.238874070,0.154835271,0.066722863,-0.504295603,-0.180339018,-0.083239724,-0.287925273,0.341975440,-0.334828997,-0.670637785,-0.256159033,0.154432417,0.149330881,-0.134897502,-0.127964222,
-0.025950852,0.153778080,0.235250398,0.017422366,0.016330241,-0.540283918,0.062572896,-0.042948679,-0.052137020,0.187887143,0.443886000,0.319728372,-0.034451228,0.286473394,0.253843961,0.267038568,0.160963418,0.143741154,0.042401594,-0.040649011,
-0.137832820,-0.330543297,0.443734638,-0.189606042,0.300036530,-0.106444568,-0.456390928,0.082991648,-0.522818721,0.259647482,0.208781488,0.001687635,-0.258737675,-0.197126322,-0.077611921,-0.185989776,0.267765363,-0.520393279,-0.447829104,-0.161178618,
0.103338254,-0.288379012,-0.393247930,-0.357490054,0.161553841,-0.242731799,0.134342697,-0.221404482,-0.121949226,-0.270393707,-0.161169036,-0.142540834,0.309613341,-0.168267999,0.014481703,0.200281193,0.252373760,0.103797516,0.160240394,-0.268146273,
-0.029315053,-0.119993681,0.417397466,0.265106851,-0.126037764,-0.158589846,-0.293564345,-0.509257200,0.087628110,-0.148368790,-0.249939184,0.002461556,0.024915497,-0.247273824,-0.556502146,0.153005697,0.101310271,-0.232146949,0.123107638,0.434117653,
0.438000642,0.113266833,0.061419568,-0.137592048,-0.227884394,0.043463065,-0.055844881,0.059419384,0.083025097,-0.499373367,-0.188948925,0.019154177,-0.230667068,0.014966137,0.297123014,0.201901366,0.196802331,0.130579436,0.012147974,0.240568317,
-0.306178661,0.279206617,-0.372818251,0.132429204,0.490882857,-0.275287947,-0.088097001,0.467206443,-0.348802698,-0.669227351,0.126988652,-0.412054414,-0.009473952,-0.108058285,0.251673639,0.389316677,-0.152506611,-0.229855923,0.076293657,0.081883265,
0.324508733,0.186891425,0.049392414,0.137795329,-0.269388366,0.182024005,0.037176077,0.399878090,0.358050883,-0.114616026,0.643045322,0.284551996,0.064784161,-0.246570376,0.107395822,-0.202416153,-0.147699416,0.301673975,0.671392452,0.234899582,
-0.206026977,0.041418015,0.229400629,0.626591581,-0.237364164,0.296139907,0.007728081,0.171026614,0.245412730,-0.140056722,-0.051947029,-0.313134661,0.081516959,-0.332098873,0.226086928,-0.017737528,0.108366702,0.126081646,0.006466102,-0.415512333,
0.212400786,0.182975180,-0.279558197,0.331915273,-0.232576882,0.309641869,-0.160358301,0.374539828,-0.144258248,0.196527423,-0.277873053,-0.109797209,-0.238005324,0.343213703,0.429392375,-0.130908598,0.190215447,-0.247376159,-0.506494310,0.201987323,
-0.497943306,0.175180293,-0.195419511,0.405837095,0.256637357,0.342086233,-0.460791930,0.236430357,-0.069459264,0.133704961,0.440770272,0.136653184,0.234852447,0.037233101,0.180770308,-0.268119147,-0.086026746,0.173736025,0.042533582,-0.017697993,
-0.178499049,-0.219360893,-0.322349218,0.365817787,0.132291062,-0.028260793,-0.208886198,-0.016883032,-0.588415930,-0.153984221,0.010793465,0.215186365,-0.273862913,-0.850739378,0.420560225,0.071369710,-0.331440820,0.267987162,-0.149917133,0.379410222,
0.377660597,-0.466813660,0.315939474,0.292833684,-0.262891885,0.247346670,0.140130342,-0.327789747,-0.025784335,-0.108421494,-0.072155969,0.305399780,-0.487181466,0.219521824,0.000124183,-0.052172033,0.232103762,0.186375446,-0.042986921,-0.230782886,
0.081305054,-0.065844149,-0.072696059,0.286256377,0.158210716,-0.054207361,0.081345936,-0.050220563,-0.150571047,-0.116419521,0.131881856,-0.199815673,-0.169482489,0.013448886,0.316157973,0.336887673,-0.356716560,-0.160640667,-0.072077512,0.214277059,
0.063750074,-0.076331481,0.080947300,0.156501010,0.109727496,0.086798782,-0.314009374,-0.197338581,-0.006485798,-0.451657291,-0.282833520,0.376740941,-0.184892255,0.071573339,-0.140840542,0.283356524,0.155827110,-0.133604361,0.195188001,0.222292839,
0.207923002,-0.230877440,0.394294366,-0.817774001,0.269797654,0.193260709,-0.062717980,0.162399160,-0.037800434,0.400826589,-0.014204889,0.078585609,-0.005713431,0.142313740,0.007720138,0.051938529,0.133742401,-0.232636880,0.081394026,0.405771550,
0.015420453,
0.927083279,
-0.393361236,
-0.006415282,
0.375935214,
-0.093059393,
0.190392474,
0.518461618,
-0.098527701,
0.102405934,
-0.278610953,
-0.176181697,
0.408808398,
0.269997336,
-0.445674669,
0.298730504,
-0.063522268,
0.046724269,
-0.101055394,
-0.117736664,
0.413436738,-0.010270341,-0.229065847,0.183864220,-0.300694696,-0.396504016,0.223508945,-0.286409896,-0.194525767,-0.214712298,-0.236242841,0.074306047,0.393873053,0.397893791,-0.148917682,-0.023243132,0.354105798,-0.140145567,-0.361832594,-0.095175772,
-0.650574588,0.398454244,-0.087240847,0.185451995,0.314963330,-0.082839122,-0.047302359,-0.131298073,0.533201607,0.156310359,-0.214138656,0.129733223,0.208447055,-0.246450957,-0.090161609,-0.329318632,0.043415955,0.019166982,-0.371105448,-0.047622049,
0.133168212,0.114723827,-0.261585499,-0.084982590,-0.197669039,-0.003305935,0.132969764,-0.509260967,-0.132488607,-0.019033406,-0.047851171,-0.421342544,0.212597169,0.276765693,-0.287483375,0.247358814,0.016692160,0.029478961,0.365783258,0.284995401,
-0.273693871,0.129054735,0.259990827,0.100763197,0.145523672,-0.219763786,-0.371337565,-0.000690793,0.083034520,-0.230105965,-0.333897777,-0.374418028,0.444943289,0.305861812,0.813585114,0.434661253,0.473461472,0.147013194,-0.046404872,-0.012327217,
-0.371196643,0.123836389,-0.295271033,-0.207024449,0.192744292,0.136471645,-0.432417844,0.242390015,0.482169617,0.045547359,-0.289316852,-0.302429778,0.077350321,0.190399114,-0.243825581,0.014944477,0.236054823,0.021915321,0.077034998,-0.044676751,
0.225457686,-0.079077515,-0.474159151,-0.590643660,0.161149563,0.140653456,-0.185538014,0.030314920,-0.148316496,-0.042085771,0.218617208,-0.297094617,-0.195135800,-0.212903249,-0.067674489,-0.071069785,0.009428749,-0.135759777,0.243496856,-0.173284238,
0.199084300,0.309152577,0.080845674,0.108379832,0.071785497,-0.316283074,0.388791766,0.462867515,-0.104953967,0.001130634,0.050205119,-0.339917223,-0.161103265,-0.324322867,0.403068829,-0.119260403,0.232731867,0.317210671,0.092829717,-0.129779543,
0.030367540,-0.130007158,-0.194211208,0.157797579,0.083422158,-0.056143816,-0.084722214,-0.357405008,-0.218888839,-0.100959812,-0.038159545,0.061969789,-0.255850939,0.192548505,-0.022685729,0.103488858,0.305804936,-0.558797906,-0.169868069,0.183068452,
-0.328937873,-0.339781277,0.676900063,-0.033671528,-0.129118707,-0.100106708,-0.209626160,0.241490536,0.260050421,0.211471162,-0.113770972,-0.168234083,0.157550431,0.176469047,0.182133466,0.150815876,0.358430180,-0.064498353,-0.100852629,0.146345709,
0.013734265,0.129354710,-0.118006151,0.085931345,-0.019464651,-0.107071075,0.277291351,-0.117752512,-0.085198578,0.349212838,-0.048850330,-0.132506956,0.158282157,-0.262043011,-0.250939991,0.003922759,0.023177075,-0.228898841,0.357733477,-0.243894365,
-0.274046942,-0.115975673,-0.267668244,-0.217702688,-0.090394454,0.196478589,0.223691157,0.699621904,0.477171150,0.046115262,0.491832987,0.094227064,-0.089536448,-0.096446558,0.167878029,-0.345609444,-0.044571209,0.098906720,-0.099457942,0.230478199,
-0.508768288,0.168696362,0.241115263,-0.267836214,0.116515805,0.211393939,-0.632661020,0.142778888,0.156098126,0.143621815,0.213302400,-0.026674573,0.016456574,-0.016401983,-0.372352256,0.059571722,-0.313833460,0.135728475,0.076022272,0.656029261,
-0.362691796,0.137818631,-0.265198871,-0.021618206,0.498580793,-0.309898528,-0.048451996,0.592037740,0.365957859,-0.069253677,-0.154497734,-0.088913103,-0.083707197,0.400161420,-0.052640804,-0.279219611,0.174154372,-0.163420994,-0.134493196,0.075550771,
0.377518930,-0.148528917,0.264869123,-0.138594821,-0.300337589,0.206497943,-0.101697314,0.149039038,-0.196806345,0.000716856,-0.011620394,-0.193034425,-0.003523260,-0.310657051,-0.310485058,-0.201387655,-0.305962554,0.011069209,0.270510265,0.076227607,
0.186050955,0.137460346,-0.250886346,0.570693930,-0.044300471,-0.193360428,-0.075193704,-0.531548279,-0.689722581,-0.057800354,-0.104616430,-0.015132817,-0.040430516,0.362483093,0.241548101,-0.032223574,0.013625819,-0.175419938,0.191269825,-0.103203481,
-0.365962661,-0.594440635,0.000373826,0.037217780,0.004471264,-0.148296744,-0.028845004,0.223530994,0.035223880,0.022016353,0.002920040,0.412808602,0.123303954,-0.130984006,-0.115847288,-0.336726008,-0.188067436,0.277192728,0.151722337,0.063953730,
-0.496703274,-0.483596557,0.281798946,0.089762914,-0.750014191,0.211038002,-0.430046564,0.005560381,-0.081380074,-0.055298368,0.314146428,-0.012809527,0.188289969,0.088588591,-0.335945052,-0.056695917,0.393431107,0.167559204,0.019376962,-0.048022336,
0.550654379,0.096425543,0.056215427,0.075192723,0.125051534,-0.187075800,0.216793612,0.325308250,0.398666160,0.104156250,0.339661184,0.294794912,0.146502450,0.309216909,0.194909243,0.139544830,-0.380034287,0.014842233,0.253501903,-0.069250055,
0.288299278,0.103962782,-0.039609427,0.123246872,-0.335768751,-0.200933239,-0.295671950,0.132510455,-0.460910614,0.151836147,-0.316120943,0.157292166,0.025014976,0.311591170,-0.194623568,0.222154690,0.138506662,-0.648919213,0.079201116,0.152523827,
-0.106606179,-0.437538474,0.122535981,0.027131755,-0.307254515,0.280831186,0.071394439,-0.356764256,0.099305633,-0.143624418,-0.088008841,-0.280394009,-0.225829665,0.149889126,0.037224480,0.082493141,-0.235546022,0.143326788,0.169869893,-0.176961282,
0.210299790,
-0.429688293,
0.136180570,
-0.174472185,
0.178998893,
0.081563575,
-0.090793998,
0.072258638,
-0.181097643,
-0.069621574,
-0.431384382,
-0.360120355,
0.220243575,
0.051758703,
0.004685198,
0.453293899,
-0.343201054,
0.076759412,
-0.384504089,
-0.351994498,
0.230698363,-0.322739371,0.317685186,0.224626998,0.044553420,-0.030319301,0.211228740,0.072728029,-0.013298636,0.002379649,-0.121630203,0.051558709,0.105618772,-0.340109455,-0.073965033,-0.403061492,-0.135586276,-0.105904843,-0.225772071,-0.256993653,
0.195843118,0.434432125,-0.181110031,0.121448512,0.093581027,-0.052404622,0.106312564,0.101766653,0.272977877,-0.389447071,0.248212638,-0.057593314,-0.329900304,0.180095578,0.343445081,-0.102916459,0.040789794,0.197432925,0.122041401,0.083711173,
-0.245319419,-0.093704359,-0.261349517,0.103967218,0.358275615,0.023293548,0.136792251,-0.281061792,-0.129738272,0.058944083,-0.029194307,0.333444920,-0.081874639,0.128796801,-0.028543921,0.158251002,-0.334497177,-0.077455813,0.029028950,0.001400711,
0.087864033,-0.276207122,0.043694778,-0.524562034,0.100575577,-0.078004067,-0.129794599,0.187583074,0.070500925,-0.346839173,-0.003144599,-0.719762574,-0.761468089,0.032127151,0.070179359,0.232325600,0.371593068,-0.148119204,0.234546042,-0.218882066,
0.360539956,-0.149638407,-0.120590851,0.106765732,0.065473818,0.071880615,0.336597311,-0.071600466,0.268179644,0.042932920,-0.089447714,0.003634176,-0.227892097,-0.553334351,0.365539491,-0.160739891,-0.057667464,0.230581640,0.237408573,-0.121992838,
-0.082304779,0.310676048,-0.080193105,-0.200151707,-0.381579630,0.748202759,-0.149818811,0.075875918,0.123207431,0.061996502,-0.136033810,-0.180098306,-0.051228461,0.073713393,0.107593933,-0.526158156,0.291845867,-0.173132702,0.075226508,0.015507963,
0.222531505,0.028369434,-0.050526010,-0.920533546,-0.111316363,-0.009157335,-0.163093173,-0.000892238,-0.371793509,-0.313937124,0.309349451,0.178205146,0.149467541,0.017183080,0.253064670,-0.094122253,0.062470168,0.178507427,-0.001235560,0.198323350,
0.219649224,0.263019757,-0.039485149,0.018039547,-0.302350307,-0.197253524,-0.306015771,-0.449416952,0.108376339,0.095144089,0.136074712,0.036195965,-0.281155647,0.088857930,-0.104893712,-0.235378983,-0.003446897,-0.013204875,0.297339748,0.165840175,
-0.232221423,-0.005572955,-0.047807027,-0.071086361,0.251226301,0.014429572,0.212414093,-0.049448629,0.260226020,-0.146295167,0.150872449,0.449413627,-0.018938358,0.198946177,-0.432556014,0.468535694,0.030510672,0.276504768,-0.068645554,0.068318103,
0.122855454,0.201898571,0.182185080,0.160007474,0.028435576,-0.499906087,-0.107411227,0.140883222,0.348808044,0.245218911,-0.129468610,0.314171806,0.037324204,0.038285480,0.140439084,-0.437044423,0.276154042,-0.228243751,0.258573037,-0.003015019,
-0.379887023,-0.161598258,0.225505553,-0.136782797,-0.305978402,0.370812295,0.000803030,-0.177588937,-0.246593229,-0.196464864,0.167766558,-0.241253292,0.090155193,0.372486771,-0.214308968,-0.543029850,0.161195333,0.060187102,0.234225525,-0.237624203,
0.112935156,-0.341140681,0.058184244,0.222609618,-0.071166679,0.366872875,-0.014022644,-0.049225262,0.220489340,-0.221313802,-0.382332657,-0.056452204,0.370546287,0.267080526,-0.084857259,0.126724130,-0.027380453,0.524521728,0.030636309,0.116784205,
-0.022840029,0.906755538,-0.166650838,0.376388040,0.280967939,0.155242146,0.266852061,0.064745755,-0.050342285,0.107757609,0.336629961,-0.369143354,-0.073835818,-0.009140007,-0.482780853,0.175705045,0.236314562,0.634209121,-0.490535103,-0.305655596,
0.195417637,-0.230665371,-0.299816657,-0.259579468,0.056533189,-0.005512469,0.031460037,0.131839788,0.398438500,-0.150747681,-0.648248607,0.485528326,-0.351831505,0.300639399,0.003959967,0.039998733,0.135114267,-0.005339064,0.379095391,0.058952185,
0.102626612,0.005696092,0.463223761,-0.246299448,0.211240701,-0.107104852,-0.216160057,0.108053857,0.071554025,-0.459373769,-0.061977282,0.272494146,0.136963345,-0.417280530,0.145011474,-0.220070108,-0.196022940,0.033350840,-0.225955425,0.493458072,
-0.153006923,-0.176649280,0.056989993,-0.066510331,0.043830319,-0.422444648,-0.227045552,-0.247586782,0.251306262,0.405781041,0.509421093,-0.297476671,-0.263677948,0.157626079,-0.169371099,-0.047583496,-0.141417187,0.068849717,-0.587219861,0.578414846,
-0.217917526,0.217239808,0.214850826,-0.262194093,-0.275342126,-0.004008111,-0.200993166,0.238879018,0.352317112,0.124625912,0.101346651,0.275975281,-0.239804293,-0.104353477,0.658850502,0.101118510,-0.278568754,0.249920780,0.110164421,0.235468989,
0.388501080,-0.202377801,-0.021342505,-0.042576652,-0.612009389,-0.438237872,0.322659627,-0.233346219,-0.317153152,0.121894383,-0.297006294,0.183426952,0.076831347,-0.400408473,-0.124255409,0.335764226,-0.272357052,0.012048142,0.122284473,-0.047604186,
0.332368158,-0.199053052,-0.381381572,-0.346478831,-0.073767780,-0.361217235,-0.075921715,0.060692432,0.136583598,0.052102432,0.474557866,0.016538363,0.158611704,-0.001879054,-0.332967151,-0.259523945,0.333287568,-0.543391392,-0.493649713,0.235502226,
-0.172171029,0.074661169,0.227960456,-0.242489643,0.017753918,-0.231995895,0.269103103,-0.065357568,0.081827709,0.028296980,-0.136735080,-0.450681895,-0.069594342,-0.065296668,0.260453206,-0.425683715,0.088046329,0.025877372,0.097934509,0.172661203,
-0.052011101,
-0.182637217,
0.599907551,
-0.005291766,
-0.022970176,
-0.012712855,
-0.348987549,
0.277198428,
0.014933759,
-0.563877249,
-0.165536931,
-0.081041794,
-0.291383749,
-0.174169407,
-0.185937772,
0.436849599,
-0.076873924,
-0.216696844,
-0.022448344,
-0.143183754,
-0.389814727,0.262196628,0.420140082,0.243285028,-0.188344924,-0.318908332,0.135356644,-0.323123556,0.436807695,0.270994824,0.278114948,0.326272713,0.163801867,0.171181886,0.037548870,0.074149792,0.061841523,0.109037551,0.502340481,0.034925110,
-0.361118964,0.063941282,-0.074256842,-0.080274066,-0.123722944,-0.103894920,-0.095530933,0.374955933,-0.082428434,-0.379887087,0.025218422,0.027457705,0.207477367,-0.316611700,0.290354737,-0.072726477,-0.374714961,0.085560092,0.033977682,0.032713491,
-0.432683536,-0.028420744,0.145567261,-0.336268799,-0.026179614,-0.199505379,-0.053356809,0.339810899,-0.209200704,0.338000265,-0.110379134,-0.243127325,0.236678803,-0.034417187,-0.604729474,-0.381487484,0.392475702,0.470623189,-0.065739344,0.287212480,
0.274486555,-0.351981146,0.064317839,-0.407159493,-0.222085302,-0.332220800,-0.424480915,-0.361702496,0.060334682,0.100692189,0.158811529,0.341811070,0.051073212,0.191943565,0.085258000,0.044694674,0.080338387,-0.131617035,-0.024916761,0.073783689,
-0.360645072,0.275383347,-0.070365207,0.306201050,0.028139272,-0.108580547,0.193411761,-0.147547405,0.458050509,0.019391704,0.041325702,0.126639339,0.229852073,-0.166044048,0.090204378,-0.040001633,0.578068441,0.300989370,-0.184715145,-0.256285379,
0.118354618,0.134516067,0.310772376,0.644781744,0.195369509,0.330402193,-0.251796547,-0.118911728,-0.154754259,0.051211140,0.036324470,-0.114012573,-0.065005868,0.063926046,-0.178940861,-0.066002682,0.181229497,-0.848972824,0.198793221,-0.275084063,
0.245537865,-0.235956292,0.448898226,0.183646104,-0.051480449,-0.533529592,-0.154817718,-0.090278361,-0.228648117,0.061327777,-0.022758765,0.142857562,0.490622815,-0.414324164,0.253813876,0.246207585,-0.392988329,0.255116226,-0.019637503,-0.222636390,
0.077370021,0.021090766,0.131156528,-0.450724788,-0.018789405,0.275111894,0.186115841,0.253130210,-0.347202380,0.275843564,0.024085544,0.045978415,-0.253878913,-0.425842278,-0.601888105,0.005982716,-0.462982328,0.169852550,0.025778970,-0.302687732,
-0.316316196,-0.183938937,-0.336831922,-0.138613246,-0.090379472,-0.060314399,-0.157081739,-0.295306740,-0.286565503,-0.166730252,-0.104536452,0.129797476,0.116397908,0.119978816,-0.257213275,-0.392016583,-0.308807666,0.280196405,-0.194899862,-0.197491646,
-0.171035674,-0.265062624,-0.091503651,-0.117587548,0.180495689,-0.308383382,0.241694770,-0.242046487,-0.011171196,0.225100288,0.181385201,0.768113340,0.296722314,0.122978973,-0.390130818,0.020754064,-0.289016042,-0.112605137,0.043817657,-0.000746966,
0.224972461,0.624468688,-0.174313205,-0.368653046,0.004557139,-0.295329450,-0.023404306,-0.069646223,-0.389012096,0.148182162,-0.034064966,0.181669401,0.226874616,0.613286277,0.206614075,0.167349210,0.096982588,-0.189287385,0.114212139,-0.115674557,
0.060435520,-0.139168924,-0.156414111,0.034595142,0.086071713,-0.502039821,-0.503894550,0.121585971,-0.178903007,-0.440650222,-0.116629615,0.150607136,0.529742177,-0.000427966,0.514531585,0.202876726,0.083424920,0.320489508,0.375376352,0.130130317,
0.227690149,0.015819558,-0.322263439,-0.557647839,-0.403227371,-0.290673987,0.044571011,-0.211023898,-0.124898722,0.313023862,0.028328018,-0.155350313,0.105529646,0.275064608,-0.298202370,-0.262502667,-0.023548046,0.110786610,0.161476013,-0.043475695,
-0.151003857,-0.221536755,-0.162432627,-0.155628777,-0.430664065,0.120219960,0.287789007,-0.142162019,-0.080635048,0.074926845,-0.373400047,-0.171750913,0.015613530,0.405030701,0.288841165,-0.306176605,-0.300571954,-0.277665213,0.374851121,-0.073446136,
0.030918785,-0.508220816,0.121272339,0.530689188,0.039296363,0.043501873,-0.208816675,0.297207868,0.261960693,0.294439145,-0.341636216,0.076444992,0.249222406,0.394660924,0.007981607,0.054018528,-0.325847014,-0.481675644,0.228470921,0.040375120,
0.444622561,0.409306401,0.391630427,0.021484018,-0.206888137,-0.087093569,0.022284196,0.179584328,-0.004644593,-0.202750643,0.155917893,0.015421884,0.427826656,-0.123993308,0.526979257,0.246448117,-0.223343563,-0.235433542,0.211701438,0.160265311,
-0.162568864,-0.112693613,-0.609893794,0.625370536,-0.260934476,-0.195091334,0.151644766,-0.089707677,-0.326706306,-0.008787221,0.069939811,-0.093464559,0.271467943,-0.541725486,0.023634295,0.017252728,0.040154679,0.222571449,0.105633166,0.293480816,
0.045128756,-0.043628757,0.130050189,-0.014783098,0.336358393,0.130249560,-0.331938200,0.123108733,0.200836793,-0.208124967,-0.044101174,-0.151954378,0.390655140,0.355276183,0.084626204,-0.090253097,-0.221731886,-0.145003605,-0.205999483,-0.034828128,
-0.046719289,-0.411156199,-0.336170207,0.018474892,0.670047637,0.512771573,-0.254986329,-0.184380071,0.368964448,-0.059876132,0.642403592,-0.204256388,0.219554880,0.100139369,-0.084669815,-0.409782347,0.144611796,0.234631667,0.226271629,-0.142704443,
0.013422651,-0.297377175,0.287229266,0.585157164,0.335213015,-0.389354662,0.074738102,0.140928332,-0.704578669,-0.155375056,0.085340990,-0.153706943,-0.484606098,0.429203928,-0.036792084,0.028843646,-0.230216932,0.104679954,0.028034810,0.162304477,
0.020691966,
0.118104032,
-0.384507996,
0.221329588,
-0.084653089,
0.212261497,
0.210966665,
-0.065451785,
0.438519672,
-0.129603964,
0.217303790,
0.135296780,
0.098079456,
-0.453823741,
-0.572439694,
0.219199214,
-0.235074356,
-0.098392730,
-0.378863635,
0.285581681,
0.374137552,0.463681932,-0.242682513,-0.180159336,0.509005064,0.008848654,0.011501166,-0.047352695,-0.406745054,-0.469240149,0.171658040,-0.817463596,-0.540709955,0.041889253,-0.113301910,0.309042858,-0.163671813,0.057735493,-0.205628244,0.299002138,
-0.360635751,0.093753962,-0.281773868,-0.227928246,0.384754487,0.269906422,0.148761036,0.365306808,-0.087910043,-0.105840832,-0.008805212,-0.151086215,0.255647981,-0.144534020,0.327575958,-0.286920263,-0.076926352,-0.076652186,0.440852742,0.035692021,
-0.011857760,0.153740305,-0.197649396,-0.214925301,0.350184061,-0.082997635,0.224520054,0.011914479,0.233648349,-0.364694085,-0.081747167,0.523456647,-0.083300041,-0.176955670,-0.421353084,0.080761115,0.086936284,-0.408645105,-0.084098283,0.109176557,
-0.014188215,0.326599466,0.516946505,-0.360117745,-0.547265768,0.176848018,-0.139005008,-0.232955410,0.071649338,-0.119370744,0.051304430,-0.020404553,-0.184075347,0.470085377,-0.243725042,0.148004147,-0.260189252,0.184480544,0.392325595,0.027727183,
-0.375301796,-0.144974959,-0.082079718,0.146742611,0.146786849,-0.216546510,-0.001147406,-0.131796374,-0.434583101,0.310392045,-0.045032612,0.311401002,0.123039682,-0.062129189,-0.008957368,-0.005364315,0.145041640,-0.082443160,0.034830176,-0.476894596,
0.124636568,0.061086702,0.190783993,-0.168600774,-0.090332570,0.435729669,0.250668308,0.670398770,0.225091581,-0.056577200,-0.099215023,-0.019432349,0.041080874,-0.124889065,-0.279446798,-0.487507441,0.059807389,-0.138563445,-0.333672180,0.205905542,
-0.020134754,-0.205461231,0.447257852,-0.320159538,-0.088598653,0.041626125,-0.262394615,-0.077179671,-0.111362868,-0.074762910,0.225188235,0.245917898,0.032234479,-0.132318549,-0.200898719,-0.207764162,0.144472285,0.181731728,0.006805350,0.121978648,
-0.157145146,-0.020247470,0.380204659,-0.034081498,0.274824809,0.339875549,0.243491424,0.075711840,-0.155014793,-0.148852189,0.040948305,-0.447085987,0.052548940,-0.164468656,0.171610370,0.481866242,0.031890085,-0.277084751,-0.154834819,0.116930901,
-0.253044556,0.149025197,-0.297435214,-0.169094599,0.159501605,-0.225906377,-0.158103355,-0.395328070,0.043101836,0.186876740,0.577920866,-0.041789779,0.170776057,0.128262037,-0.265266273,0.321893197,0.003372917,0.947597078,-0.213881226,0.006242183,
-0.138438471,0.029663053,0.356567202,0.035176159,0.044642136,0.115653746,0.437032586,0.301155284,0.094644116,0.291710849,-0.024076514,-0.131191646,-0.029772671,0.072854742,0.138434352,0.615392417,-0.315573050,0.110131244,-0.090867729,0.345161029,
0.022366495,0.025994022,0.140222628,-0.370891251,-0.484246139,-0.198482081,-0.347164004,-0.535552785,0.068601277,-0.204194390,-0.145564612,-0.288123008,0.219989389,0.025544738,-0.747982961,0.011807334,-0.275819611,0.389606327,-0.420904062,-0.451979141,
0.381640670,0.171527442,-0.138658013,-0.570163938,-0.246928176,0.175517900,-0.284982797,-0.498023751,0.166280375,-0.389536813,0.255329392,-0.141872360,-0.024502862,0.159202498,0.041401296,-0.138447442,-0.058458544,0.233574915,0.126121719,0.376074994,
-0.182303556,0.112698422,-0.275146774,0.212907370,0.178722528,0.044111624,0.268746123,0.164006849,0.321944428,0.299574142,0.324230080,-0.008668881,-0.282610376,-0.260253625,0.278558412,-0.033833774,-0.055977096,-0.180473204,-0.120169147,-0.207805233,
-0.145349504,0.371511541,0.095607421,-0.348411716,-0.480946975,-0.269772922,-0.363462249,0.017415878,0.134006627,-0.005776368,-0.234106447,0.083608858,-0.509446679,0.649808183,-0.544702875,0.274316551,-0.079681438,0.019077350,-0.061236520,0.041563234,
-0.269441350,-0.260686524,0.158683513,-0.024143719,0.255252310,-0.053657718,0.255360504,0.072327249,-0.364045839,-0.035286817,0.095151702,-0.104661811,-0.080537043,-0.225299576,-0.125013110,-0.213210374,0.165501635,-0.083918988,0.309035490,-0.069433354,
-0.105063759,0.301004761,0.292310926,0.167564892,0.255135375,0.342912555,-0.081985835,0.028748846,0.009595851,0.303425385,-0.291442956,-0.039516221,0.431750401,-0.256605900,0.255973795,0.240852465,0.031780808,-0.193481562,0.141452540,-0.183887425,
-0.240590780,0.410424248,-0.022024077,-0.124828111,-0.044675789,0.571919794,-0.124788603,0.222905289,0.139512265,-0.068748726,0.548649398,0.032541164,-0.555088153,-0.013621593,0.262658855,-0.020873516,0.362411921,0.364326954,0.311252632,-0.332628391,
-0.150513708,-0.085322518,0.125846866,-0.181569055,-0.182409091,-0.080112025,0.117045579,0.327441854,0.076330196,0.033759511,-0.117189115,-0.297541377,-0.032326639,0.122082785,-0.584586294,-0.140970220,-0.161265193,0.011414051,-0.273591159,-0.153405539,
0.050775246,0.346567610,-0.633205317,-0.018853274,-0.014746697,0.399348695,0.153144741,0.177162003,-0.054937166,0.148587331,-0.043882089,0.069819982,-0.267689372,-0.061414262,-0.084580318,-0.154961087,0.183155548,-0.299305716,0.098157654,0.084909682,
0.145847657,0.146308482,0.221970341,0.008426549,0.112941513,-0.161748773,-0.375367938,0.199728948,-0.105963065,0.484068792,-0.326611207,0.206792858,0.203320611,0.060174919,0.225981393,-0.172032407,0.129865279,-0.200525782,0.217253898,-0.293511117,
0.122618339,
0.597895423,
0.040073319,
-0.360501504,
0.342559426,
-0.004250398,
0.170631465,
0.194883970,
-0.445720125,
-0.386439153,
-0.561166442,
0.101313986,
0.248313388,
-0.006066273,
0.301652762,
0.150761212,
-0.202878429,
0.008376030,
-0.555458499,
-0.436351018,
-0.326205933,-0.162335798,-0.331658011,0.316877202,0.291671492,-0.163593741,-0.394046167,-0.100472932,0.032535524,0.057400814,0.144684876,0.020855266,0.120384358,0.187130640,0.157607404,0.354133890,0.231971403,0.341536906,-0.101935510,-0.052175768,
-0.020232820,0.443680366,0.086956064,0.171733674,-0.002522911,-0.069912169,-0.138731934,-0.237707759,0.119322654,-0.493597995,0.037470024,0.034699468,-0.062658026,0.153122132,-0.319025090,0.156695176,0.226802608,-0.226857674,-0.312513099,0.128436351,
0.096721281,
0.106868793,
