// Neural Network File Format by Kyle Julian, Stanford 2016
81,2,2,5,
2,5,5,5,5,5,5,5,5,5,5,5,5,5,5,5,5,5,5,5,5,5,5,5,5,5,5,5,5,5,5,5,5,5,5,5,5,5,5,5,5,5,5,5,5,5,5,5,5,5,5,5,5,5,5,5,5,5,5,5,5,5,5,5,5,5,5,5,5,5,5,5,5,5,5,5,5,5,5,5,5,2,
0,
-10000.0,-10000.0,
10000.0,10000.0,
0.0,0.0,0.0,
1.0,1.0,1.0,
-0.226129064,-1.217548618,
0.683728357,-0.064111628,
0.029500870,-0.155766511,
0.483266737,0.763866563,
-0.061056481,0.065916528,
0.107412300,
-0.662692869,
-0.804336275,
0.389204165,
0.354229214,
1.248313121,0.435019326,0.790590243,-0.152011588,-0.164365517,
-0.502780170,-0.128901029,-0.699001622,-0.819375865,-0.463118427,
-0.645679425,0.732639481,-0.370502540,0.252224675,0.297538048,
1.225740080,-0.998201177,-0.519443104,0.698957386,0.166539311,
-0.012664597,-0.439700089,1.023472386,0.429941078,0.970185198,
-0.591721065,
0.813933266,
0.749641931,
-0.004205791,
0.242490857,
1.318556996,0.150742345,0.168466222,-0.003419624,0.612042935,
0.556223076,-0.608721429,-0.325022100,0.565060745,-0.212104005,
-0.111270129,0.837974310,-0.488125743,1.260014768,-0.427260943,
-0.815772011,0.461289802,0.046054525,-0.024745505,-0.038542253,
0.103835876,-0.154656541,-0.214873362,0.573759731,1.388107773,
-0.372800620,
0.331163938,
-0.856129442,
0.790659070,
-1.850528600,
0.852553408,0.591943156,0.511361058,-0.817498660,0.736853430,
0.706366637,0.924352847,0.593019452,-0.012438909,-0.532200220,
-0.273472102,0.120716106,-1.265027923,0.460170154,1.710750311,
1.531287476,1.220760230,-0.275932356,-0.766749953,-0.283903333,
0.573122026,0.953852603,-1.187352944,-0.228957303,0.172684678,
-0.564608170,
0.739846260,
1.288021804,
-0.725888468,
0.458861177,
0.701122062,1.182337826,0.326495901,0.094232627,0.621058287,
-0.866152766,-0.668648726,-0.428693754,-0.257104987,0.272643033,
0.040782546,0.310303435,0.634236867,-0.676002868,0.647751118,
0.099541181,0.214473307,0.031180733,-0.057118032,-0.577770929,
0.012563020,-1.701453110,-0.205717261,-0.395042153,-0.601653870,
-0.364129250,
1.467761266,
0.783326283,
-0.723422308,
-1.249365138,
0.354800855,-0.585835199,1.390277482,-0.007005716,1.410722398,
-0.425777857,-1.452897241,-0.178413360,0.538837258,0.301799807,
-0.506963984,-0.428852491,0.372547797,0.316874952,-0.442194795,
0.406079102,0.375841781,-0.474700826,-0.294716652,0.359831813,
0.348072148,0.646715588,-0.273195700,0.289446856,0.750661347,
-1.228330791,
0.692091705,
-1.316348162,
0.863908044,
-0.205097297,
-0.533199753,0.050515838,-0.054886336,0.459882672,0.695327357,
-0.594158706,-0.746713599,0.351503113,-0.003993857,0.019577381,
0.475379156,-1.135798312,0.076797288,-0.588798368,0.312112532,
-0.029612689,0.701317696,-1.182900029,0.923635146,0.383315878,
0.476225359,-0.735811593,-0.652680841,-1.118227131,0.777049642,
-0.399618882,
-0.746713208,
0.350939128,
0.758778870,
1.161738106,
-0.169384097,0.243890929,0.127368130,-0.773810164,0.126870270,
1.129351954,-0.354373906,-0.790269237,0.305103685,-0.015710008,
0.146368443,-1.033087111,-0.343745835,-1.045006694,-0.250666541,
-0.613042410,1.378742012,0.491461504,-0.270904027,-0.542117008,
0.216739122,-0.760784494,-0.587808516,0.929608220,0.475867478,
0.910920786,
1.062385986,
-0.914166848,
-0.196990419,
-0.519958428,
0.729989842,0.279253894,0.103838251,-0.345071881,0.146960535,
-0.751468643,-0.997343377,0.390892759,-0.626131300,-0.549406262,
0.793425181,0.208241248,-0.829213357,-0.182513136,-0.695867098,
1.686277952,-0.311414448,0.111223734,0.622723124,0.814317189,
-0.232734175,-0.018399355,-0.451125114,0.086841543,-0.269354615,
-0.068134629,
0.448448104,
0.185240041,
0.536405804,
-0.455779368,
-0.370430754,-0.094236070,0.336967845,-0.868038277,1.451153960,
-1.019013450,-0.205775481,-0.754295971,-1.320184855,-0.286362848,
-0.618344922,0.249583549,-0.051421230,0.047718680,-0.844122962,
0.740600332,-0.161959594,-0.451499603,-0.386775858,-0.039231481,
0.397094480,0.582690199,0.392024318,0.072157149,0.577041033,
-0.200761771,
-0.067245233,
1.023763242,
-0.240342964,
-0.307784685,
-0.354676585,-0.552774716,-0.000211686,-0.260881759,0.475741447,
-0.532940835,-0.089785302,-0.363720216,-0.036561740,0.127212567,
-0.217948408,-0.132641506,0.167071673,1.011019187,0.024866297,
-0.058988355,0.863844734,-0.406793318,-0.204989171,-1.223520548,
0.605494349,0.737063825,0.655601350,-0.624524316,-0.732320018,
-0.209501653,
-0.277814682,
-0.679488196,
-0.744155486,
-0.310605325,
0.264186670,0.897528921,-1.708410101,-0.093187866,-0.081227649,
-0.334766007,1.146183741,-1.271481193,0.348811597,0.181056085,
1.165362744,1.046703299,0.357086942,-0.125731805,0.980637471,
0.535534710,0.895832932,0.111672221,0.600790255,0.666014988,
-0.008372351,-0.364058821,0.979988410,0.554025045,0.618095340,
-0.237120040,
-1.045554503,
0.535131982,
-0.078175822,
1.511035009,
0.498604138,0.695130801,-1.080067910,0.208579681,-0.003015241,
-0.280850007,0.218473600,0.181721820,0.047747271,0.524506135,
1.108763471,0.442319498,-0.812296880,-0.386604706,-0.059991705,
-0.934591359,2.016365341,-0.362785726,-0.657343039,-0.164846446,
0.407271909,0.245462936,-0.727231704,-0.514120844,0.132902945,
-0.565902064,
0.566843496,
1.330333048,
-1.261839622,
0.443796347,
-0.862787657,-0.506384825,0.594846360,-0.875538510,0.319000417,
-0.236152153,0.679275934,0.512236643,-0.263989408,-1.432419080,
-0.346669594,-0.437867354,-0.144180974,-0.456792072,1.383954879,
0.405053806,-0.961413310,0.708647288,1.266365871,-0.861702276,
-0.003884992,0.788749373,0.262544049,0.182730737,0.381499807,
-0.386989336,
-1.203457308,
1.259666533,
0.085915639,
-0.910440076,
-1.689120747,-0.044741608,-0.584338365,0.741506203,0.885282653,
0.854675815,1.057545125,-1.045840328,1.329769873,0.327673676,
1.195606747,1.078767822,-0.761142241,-0.563547462,0.408067967,
-0.351979777,-0.413432359,1.181318710,-0.365500199,1.141243708,
-1.129989991,-0.240277216,-0.463806443,-0.245787417,0.182980947,
-0.582763919,
0.712042320,
-0.211740016,
0.162186505,
-0.642305827,
0.957932928,0.171779091,-0.516652780,0.184121185,-0.329392174,
-0.785243171,-1.917547232,-0.088218905,0.957411817,0.271315951,
-0.442739232,0.978124823,1.530827497,0.029432144,-0.114719821,
-0.178726515,0.607781985,0.001282133,-0.435699137,0.353857508,
-0.139417844,0.588526408,1.339415267,-0.653066331,0.899935564,
-0.607162462,
-0.904582177,
-0.159847055,
0.546852976,
0.562302070,
-0.154455518,-0.674542798,-0.927975375,-0.072416635,-0.658156027,
0.024504867,0.120972523,-0.331742736,-0.724143786,-0.383197398,
0.480523746,-0.915422131,-0.700830093,0.133552662,0.812990323,
0.304639289,-0.330281660,0.736913037,0.820479118,-0.846876922,
0.382149529,0.721110760,-0.805342781,-0.517688088,0.686315449,
-1.157302648,
0.065202504,
-0.386792844,
0.000305679,
-0.295640176,
1.324146078,-1.558822911,-0.451101501,0.744420669,0.118252459,
-0.210120013,-0.682131871,-0.400060330,0.567232558,0.961479433,
-0.346082470,0.585041341,1.324775678,-0.435869177,0.056434157,
0.939697361,-1.179406418,0.113761494,0.474279243,-0.692785983,
-0.050581422,0.256886462,0.748140220,1.492595938,0.054288089,
-0.409139181,
0.017101811,
0.516669649,
-1.877956488,
-0.740792287,
-0.463129591,0.387290507,0.697359228,-1.169305059,0.378129420,
0.127170861,-0.302695550,0.319023750,0.256185909,0.777174578,
-0.110776360,0.095318286,0.543142320,-1.343059527,0.115322593,
-0.347407163,-0.395341037,-0.676540038,-0.604979552,-1.866787169,
-0.876999566,0.671072203,0.730536100,0.110125457,-0.546435686,
1.614913823,
-0.573009327,
0.721144707,
-0.261000436,
0.848078367,
0.588239639,-0.468675803,-0.232717789,1.129734144,0.550109403,
0.514202864,-1.225070130,0.883463446,0.612603301,-0.666645861,
1.438912987,-0.213139464,0.466256837,1.618850821,-0.002132015,
-0.537665002,-0.002577469,-0.620120731,0.286208148,1.245866857,
-1.161602465,1.054018529,0.538826042,0.102082207,0.933473000,
-0.060672599,
-0.028956323,
-0.421857953,
0.247783772,
-0.532788268,
-0.454298102,-0.321847984,-0.050233158,1.134042511,-0.217794009,
0.439304995,1.332689037,-1.785370883,-0.004733384,1.407752614,
-1.364687990,-0.130225522,0.515975984,0.035203339,-0.456453643,
-0.403238228,-0.871716985,0.516883885,0.683312708,0.044351789,
-1.026524305,-0.289824465,0.423035826,0.120246381,-0.275472134,
0.174493536,
-1.903165103,
0.035078756,
0.756924547,
-0.932034964,
0.049215163,0.533517065,-1.540880460,0.127823316,-0.368090076,
0.189259560,0.452499300,1.443164948,0.027085501,-0.533004821,
-0.525269988,0.470827061,-0.619343043,-0.162485136,-0.350938031,
-0.469430905,-0.462505863,-0.804247003,-0.064518970,-0.098791290,
-0.473548808,-0.735064563,-0.191333726,0.538035680,0.666795058,
0.799738499,
-0.083076378,
-0.180138343,
0.984148302,
0.159395042,
-0.388411356,-0.293882182,0.075353178,1.210419991,0.811987801,
-0.394242195,0.280541241,-0.561514846,-0.664264531,0.045191055,
0.667668685,0.082880077,0.639637329,0.377000131,0.904154216,
0.366198259,0.170367248,0.899677004,-0.227003114,-0.492439999,
-0.357371847,0.157877986,-1.318990986,0.653572162,0.581102526,
-0.420540318,
-0.394341914,
-0.470716024,
0.614821258,
-0.576490637,
0.579234464,-0.838963285,-0.177332393,0.308253292,0.296280540,
-1.495577137,1.014827104,0.537273586,-0.872358618,0.279120784,
-0.727889918,0.376041095,-0.066687040,-0.882338527,-0.483693265,
0.176151350,-1.513167543,1.325743009,0.468463430,0.842997065,
1.099357738,-0.273033370,-0.417440850,-0.493729748,-0.652398772,
-1.093830754,
-0.607809236,
-1.592274813,
-0.064351155,
-0.478522868,
-0.102897633,-0.531990103,0.019015208,-0.251258953,-0.259262607,
-0.011675101,-0.702572440,0.426380237,-0.450589833,-0.342935519,
-0.630506824,0.426452904,-0.228268828,0.404506576,-0.889258831,
-2.033290566,0.854717900,-0.307871767,0.609101639,1.548249386,
-0.135285528,-0.740216254,0.117613269,-0.227540271,-0.433403123,
-0.615305460,
0.124999556,
0.141632107,
-0.553713719,
0.770094792,
0.277184213,-0.272784730,1.086726878,0.134319870,-0.453271519,
1.292687959,-0.431392340,-0.793167683,-0.174344029,-0.693576897,
0.006941409,0.439512181,0.738653905,0.958006593,-1.141494422,
-0.175346414,-0.005837226,0.376490332,-0.235271466,0.021761251,
-0.285373909,0.561433317,-1.249315430,0.411153088,-1.655106186,
-0.693300925,
-1.269294423,
-0.365506969,
0.993008130,
0.404037006,
-1.051720402,-0.157640368,-0.024444471,0.112390312,-0.822838061,
1.056334829,0.542167279,0.294021124,1.207135152,-0.098944327,
0.185642374,0.128847075,0.698681429,-0.697927139,2.184043144,
-0.086610336,0.686763917,-1.137687143,0.038412174,0.872986158,
0.080397444,0.729803021,0.180269061,-0.485931082,0.174617391,
1.292184712,
-0.453380125,
-1.670468115,
-1.184172922,
0.090431046,
-0.205225641,1.032997325,-0.712267518,-0.438085929,-0.417321784,
0.405190182,1.200286725,1.076988250,-0.324593683,-0.724292813,
-0.289434811,0.393676073,0.465409824,1.123813784,0.255928429,
0.402210689,-1.105619446,-0.260457279,-0.186668065,-0.825568832,
-0.082389820,-1.027328079,-0.267604336,-0.722747910,0.459619949,
0.727313600,
1.045184177,
0.241413982,
1.065525418,
0.622917494,
-0.882677622,1.077885433,0.516314216,0.479990084,0.011336074,
-0.497655231,-0.221324910,0.308476854,-1.754393796,-0.908980031,
1.083204975,0.597609884,0.575872518,0.259849992,-1.313213164,
-0.014097183,-0.694630857,0.000378791,0.692811589,0.561684793,
0.623398671,-0.467715138,0.347637470,0.469754658,0.695735752,
0.015928160,
0.724905625,
0.183410764,
0.280856798,
-0.140811911,
-0.097070474,-0.766486854,-0.605987037,0.526496957,0.108317534,
0.142096826,0.372148509,0.376487235,-0.731303705,-0.250141378,
0.356267179,0.195214340,-0.694458573,-0.870598089,-0.028764800,
0.036083590,-0.498010162,-0.093798143,0.279462040,-0.192863623,
-0.803879397,-0.172052489,-0.132893457,0.536083053,1.736865903,
-1.276512529,
-0.635031944,
-0.090539991,
-1.121062746,
0.497013156,
0.016015729,0.813767635,-0.346241031,-0.004386198,-0.372064051,
-0.817405346,-0.139779084,0.594582529,0.467965073,0.120808836,
0.112900060,-0.185696430,0.158810543,-0.433515312,-0.713024834,
0.453110876,0.891405805,-0.694036861,-0.835003116,-0.201395330,
0.574618434,1.977778210,0.464499643,-0.649217006,0.349821199,
1.562506848,
1.096873730,
0.350146030,
-0.825197560,
-0.076505267,
0.214047651,-0.118586271,0.662739506,-0.612551656,-0.489071762,
0.186596736,1.117493390,-0.451606924,0.520926238,0.133657364,
-0.171803007,1.578757287,-0.124514443,1.455365346,-0.429885448,
1.226677840,-0.465957948,1.478053162,0.401586030,-0.768132374,
-0.721672439,0.423444244,0.186576752,-0.478979620,-0.295480928,
-1.290302331,
-1.189782061,
0.232421198,
0.963347671,
0.814680236,
-0.562252522,-0.560465062,-0.108135035,1.004805345,-0.688392463,
0.233440180,-1.055252687,0.232774304,0.545357126,0.576214322,
-0.012690158,0.308738730,0.281608391,-0.846185973,-0.818075829,
0.404462022,0.250840366,-1.276071354,0.080050747,-0.469244971,
0.140939325,-0.846798365,-0.329985041,0.639207512,-0.986210148,
0.421492579,
0.957868004,
0.010669457,
0.203890408,
-0.508723430,
0.185511192,-0.760997146,-0.177773403,-1.213791061,-0.527397422,
0.569705251,-0.451293634,-0.673536848,0.187229520,0.491148176,
0.731675076,-0.248823349,-0.936791162,-0.576125690,-0.370376574,
-0.372074887,0.239544509,0.844142387,0.384943326,0.382968310,
-0.218395793,0.759986294,-0.133043029,-0.422613293,0.252894299,
-0.551670082,
0.948143223,
0.396420897,
-0.114277733,
-0.070811334,
-0.953234741,-0.977201821,-0.118566789,-0.964163690,0.438230391,
-0.579282313,1.465773266,-0.425104100,-0.321535320,-0.217569628,
-0.070363514,0.029730941,-1.453397610,-0.960691533,-0.884072348,
0.545268777,-0.594643264,0.602915054,-0.975166961,0.186986945,
0.812539298,-0.536377601,0.325948315,1.546884198,0.400134927,
-0.449685690,
-1.066244261,
1.243548320,
-0.759935274,
0.114234219,
0.616189954,-0.699276730,0.393791921,0.483219331,-0.694741373,
-0.264052062,0.067225232,0.769909411,-0.937390231,0.611390649,
1.013233158,0.394765493,0.751641594,-0.986838959,1.503518326,
0.347962291,-0.026932563,-0.730413585,-0.233138164,0.104532663,
0.613717319,-0.457616902,0.497101316,0.480652049,0.649232498,
0.574504471,
-0.535021962,
-0.393655691,
0.144523370,
-0.425771598,
-0.536226940,-0.694484858,0.893030118,-0.535892613,0.100884824,
-0.270393813,0.287691465,-0.502860047,0.574587334,-0.635288822,
0.671455049,-0.294709662,-0.053326843,-0.250320784,0.318388938,
-0.281233652,-0.143070424,1.086448676,0.302312472,0.920609827,
-0.362341387,-0.334420964,-0.833403943,-0.067545266,0.660729402,
0.063123985,
0.137453596,
-0.638369462,
0.635322027,
-1.139082052,
1.594623599,0.585614960,1.096770182,0.040272706,0.561522717,
-1.226611250,-0.414539298,0.028192272,-1.045398695,-0.178231305,
0.015709452,0.742742964,-0.311610729,-0.984876244,-0.829677292,
0.003106793,-0.309700715,-0.493918924,-0.432228755,-0.955901352,
0.522412108,-1.237042248,0.708994522,0.969096236,0.285714758,
-0.536057410,
0.599064628,
0.505092650,
0.185145593,
-0.197405487,
0.859078171,-0.894244235,0.929674952,-0.524922108,0.326189447,
0.296276743,-0.281904875,-0.804245809,0.377658979,1.130679276,
-1.310795460,0.980434852,-1.342238267,0.296208527,0.138222295,
0.306253702,-0.822934732,0.226724678,0.248381781,0.898740839,
-0.221645522,0.211856841,0.183683542,0.154066666,-0.096166012,
-0.071046365,
-0.267118974,
1.044550154,
1.065668156,
-0.243936661,
0.257765909,-1.490031360,0.710668059,-0.723256479,-1.101503679,
-0.749229879,-0.405497511,-0.251036291,0.416637133,-0.786449150,
0.967328127,-0.762174841,0.258430436,-0.673872270,0.771290725,
-0.082272575,0.535912808,-0.937088111,-0.377160953,-0.521187229,
0.098678383,-0.096390149,0.124143295,1.387007373,-0.176138936,
0.314672696,
-1.384837862,
-0.404707390,
-0.740242988,
-0.060248009,
-0.266311980,0.763033872,0.326244911,-0.566113572,0.130943073,
0.865937716,0.030921719,0.567719603,0.127307672,0.014291179,
1.583621141,1.264065500,0.175218945,-0.568395287,-0.901951169,
0.463162044,-0.851929007,-0.838159592,0.642253457,-0.944109385,
0.482126283,1.119714520,-0.409021789,0.039009320,-0.545580960,
-0.237010613,
0.857595692,
-0.142289261,
1.020163974,
-0.093665410,
0.197183961,-1.212699568,-0.908227544,-0.464500352,-0.160727946,
0.481191783,0.030436687,-0.014918812,-0.118288160,0.539990717,
-0.020320760,0.888824592,0.743166187,-0.060558278,-0.260596717,
-0.154675462,-0.143304032,-1.457478305,-0.678885700,-0.180945983,
0.835129333,0.424272174,-0.135947746,0.834470041,0.706750755,
0.600440367,
-1.755860605,
1.279659324,
0.585711425,
-0.404335689,
0.007442259,-0.563372364,-1.069814939,0.406809400,0.623586116,
0.287498984,0.177165502,0.586304213,0.198785295,0.502181712,
-0.597220221,0.237294348,-0.036207793,0.194582583,0.568122315,
-0.973746747,0.134881202,-0.056116993,0.363443419,-1.160359851,
-0.836183960,0.250120971,0.146838480,0.876068999,0.173185909,
-0.474061371,
-0.397219373,
-0.481095366,
0.100986023,
-0.446699327,
-0.044422442,0.263761924,-0.527852753,-0.213528599,-0.675659950,
-0.217084139,-0.141185679,-0.547147016,-0.386539937,0.287658624,
0.257106699,0.140085834,-0.527165553,0.421984235,-0.887118936,
-0.477993932,-0.431326693,-0.242405152,-0.127695589,-0.348755676,
-0.638333029,0.453978227,0.675120760,0.573119158,0.284754030,
0.555071432,
-0.602264666,
0.049316079,
0.571966477,
0.085300974,
1.013682899,-0.745351635,1.292540267,-0.493655541,0.440978607,
0.374136233,-0.513613617,-1.292223224,-0.153481000,-0.965603934,
0.880915007,-0.236142163,0.803333361,-0.073993839,0.306149815,
1.196077569,0.171998116,0.146563161,0.056509147,-0.994830378,
0.086737951,-0.325648556,-0.499620804,0.897459084,-0.978894345,
-0.405596740,
-1.392089886,
0.016887507,
-0.147273009,
0.286146800,
0.060555859,0.394445127,-0.395886290,0.457337738,1.464286102,
0.614302949,-0.521042010,-0.369197755,0.485576613,0.138580370,
-0.821810378,0.298442226,0.234594196,0.938159708,-0.407015869,
0.089515447,0.952756092,0.360797921,0.422135539,-1.437262811,
-1.365069557,-0.697730119,-0.654029950,0.238333641,0.327837461,
-0.689649821,
-0.126825275,
0.188099871,
0.646202466,
0.218162081,
1.403920543,1.709970304,-0.080627173,-0.344244417,0.725579477,
0.070696814,0.045631802,-0.977279741,-0.013009616,-0.388001230,
1.206499745,-1.245575016,0.862552319,-0.432168386,-0.349810394,
-0.839794490,0.377891439,0.548877561,-0.419333696,1.053686328,
0.530015614,0.757913135,-0.640471762,0.160162556,0.783132230,
-0.099828859,
-0.362930518,
-0.263313678,
0.635141539,
0.427949713,
0.328362848,0.732759404,-0.378149373,0.109122965,-1.393546693,
1.159471422,-0.000300289,0.258528587,-0.303701134,-1.006696984,
0.800455258,-0.436116890,0.949217988,-0.245838783,0.952606765,
-0.035599434,-1.558308523,-1.252471130,1.426659600,-0.753705712,
0.080513475,1.292614787,-1.139853419,0.348223221,-0.759451873,
-0.030186022,
0.735819541,
0.643525802,
-0.524507676,
0.000391291,
0.262015467,1.006976619,-0.446217464,-0.039370051,-0.840542949,
0.719993178,-1.014155703,0.689768123,-0.330355868,0.851705453,
0.033894560,0.209883930,0.763846107,-0.977286980,-0.358059516,
0.756550840,1.161524171,0.264573559,-0.130730419,0.647724137,
0.144795757,0.922694320,-0.095475169,0.642989638,-1.741582402,
0.213338119,
1.274898718,
0.706787269,
1.176374515,
-0.784710168,
-1.227867205,-0.670226830,-0.792790493,0.049013514,-0.485302814,
0.435791644,-0.273151896,-0.697907381,0.944317114,-0.018936306,
0.890009040,0.433987084,-1.275251091,-0.745775888,0.048591903,
-0.109925227,0.555829810,0.694737881,0.433890978,-0.995751332,
-0.390455247,0.272001621,-0.991648515,-0.498795662,-1.520760814,
0.053043620,
-0.619392550,
-0.535576190,
-0.041571204,
-0.497132974,
0.110410380,0.538955324,-0.000249816,-0.451985956,-0.283791308,
-0.568111338,0.167966456,0.882712783,0.200409664,1.641969279,
-0.798423848,1.008715253,-0.846239807,-1.147843450,0.573283706,
0.184471830,-0.160316606,0.584331904,-0.361677653,0.051934145,
0.618727146,0.730859185,0.264065825,-0.234827761,-1.100988075,
-1.018645760,
0.534597342,
-1.144972527,
0.699846463,
-0.202718038,
0.041846942,1.194013010,0.606593482,-0.265973761,0.100543907,
0.195855095,-0.864172912,-0.334886964,-0.990073939,-0.281037237,
-0.474788223,-0.794442848,-0.832481888,0.120803573,-0.606645425,
0.848157782,-0.719544933,-1.008021207,0.192739457,-0.056708090,
-0.523520608,0.284134612,0.208712940,-0.495566368,-0.625228126,
-0.294709063,
-0.233300484,
1.362416528,
-0.286714728,
0.097295090,
-0.445927232,0.114768375,0.258880709,-0.607321780,-0.635060045,
-0.322046481,-0.054278688,0.995619850,0.977126378,0.371650409,
0.421673202,-0.191806224,0.312649238,0.090175120,0.434649408,
0.404863330,1.090883716,-0.242768191,-0.303042166,0.445244833,
0.599126250,-0.636584247,0.855875538,0.290915197,-0.305130625,
0.219811068,
-0.491850910,
-0.604326755,
1.186306603,
0.477352598,
-1.602641052,-0.456410967,0.065968903,0.907099625,-1.010378289,
-0.254310379,0.657752396,-0.026391428,0.340613856,0.091955675,
0.771276669,1.297215627,1.288973964,0.115263116,0.279002420,
0.889101712,0.907793899,-0.075881213,0.506960638,0.353635520,
-1.668005164,0.227061326,0.721327977,-0.342075090,-0.447136871,
0.217559395,
-0.053897085,
0.842710349,
-0.475432082,
0.566044087,
-0.283779059,0.552612577,-0.172250298,-0.481578572,-0.790903985,
-0.049373569,0.182600906,-0.115564510,-0.053128119,0.751904675,
-0.093217592,-0.406309052,-1.762692595,0.326103922,-1.029349308,
-2.150972648,-0.801111815,0.064204705,1.057661729,1.064804979,
-0.413209175,0.756379680,-1.027637581,-0.524465186,0.650095263,
0.123450786,
-0.074431295,
-0.244512092,
-0.246466939,
0.097121137,
-0.088197255,0.453328484,-1.170244372,-0.711325577,-1.030951458,
-0.456730749,0.128565747,0.398837065,0.648682834,0.283188074,
-1.002778980,-0.565942006,0.838293084,-0.444160780,0.757492237,
-0.379321845,-0.461437861,-0.632078794,0.770502586,-0.259583292,
-0.943951221,0.279747240,1.062883306,-0.432485579,-0.121761487,
0.658314258,
0.088292066,
0.393480589,
0.523217468,
0.587158317,
-0.757455104,-0.853311118,-1.135720755,0.750041130,1.121672590,
1.220801915,0.888744253,0.521686672,0.150821413,1.034435915,
0.447250452,-0.036607112,-0.657101618,-0.452258389,1.321304424,
0.248876724,1.460506067,0.557980478,0.549721749,-0.262800313,
-0.781401191,0.644499165,0.821877319,0.055399546,-0.497531736,
0.264711956,
0.470419256,
0.309025660,
-0.569811426,
-0.435055758,
-1.017148953,0.125474230,-0.173860301,1.244104719,0.363000998,
-1.816721726,0.040777194,0.486787421,-0.763795003,-0.148431646,
0.553762397,0.103526390,0.399798607,-0.743306626,0.480930420,
-1.236843791,1.070810221,1.639153483,0.751981410,-0.609268983,
0.483359928,0.122067624,-0.614554466,0.431912826,0.319322752,
-0.544278605,
-0.177806275,
1.319168930,
-0.486415142,
0.870681544,
-0.416462690,0.365965058,-0.036576854,-0.999984192,0.019077129,
-0.395303493,-0.755935476,1.616261555,0.554364862,1.191935113,
-0.513803398,0.213039001,-0.315890035,0.939321132,-0.105825910,
-0.890698671,0.583348159,0.416727424,-0.538992404,1.168585051,
-0.340761385,-0.819972841,-0.518683601,-0.162839903,-0.142827756,
-1.086214998,
-1.252121262,
1.009946892,
-0.627050271,
0.903637046,
-0.448434971,-1.335777644,1.044161543,0.190246250,-0.388511643,
0.630187998,0.377886310,-0.444849308,0.166661046,-0.985964869,
0.628219336,0.160000410,0.348585978,-0.030078780,-0.700161805,
-0.102358369,1.096209911,0.898326338,0.407754495,-0.026648234,
0.224205611,0.310808692,-0.369525525,-0.470574264,-0.518447149,
1.613721848,
-0.282786626,
1.498419554,
0.229233970,
0.043532075,
-0.332577800,0.067113401,-0.564615938,0.399296347,-0.433623644,
0.220347544,0.722022301,0.808865214,0.656169503,-0.923582986,
-0.260479180,-0.581501241,-0.083190374,0.685413890,0.183926211,
0.418576168,-0.568222330,0.137842755,1.019004113,0.699795581,
1.196935265,-0.180490720,-1.454324489,-0.441853531,-0.872153911,
0.284612322,
-0.602685599,
0.466898487,
-0.238967616,
-0.940151716,
-0.347391340,-0.149151502,0.304396294,0.631532790,-0.402223099,
0.562927392,-0.512455920,0.492319931,-0.757536621,1.741053050,
-1.363071766,-1.131322639,0.106484231,0.458200361,0.129023349,
-0.521912150,-0.463118288,-0.172583139,0.099765617,0.829469409,
0.888540684,0.360729007,-0.377330178,0.393371843,0.452133195,
0.132648855,
0.472928231,
-0.446913164,
-0.184822522,
0.287180227,
-0.605616220,-1.405400327,0.413951219,-0.495243410,0.197143688,
-0.790376970,0.134745511,0.009894359,-0.257780034,-0.095940605,
0.772650872,0.693279097,0.240750393,-0.634294224,-0.052099215,
0.526746633,-0.217461054,0.239928653,0.197203559,-0.832443882,
-0.498300084,-0.132442626,0.359164716,0.699648146,-0.905214997,
-0.007622675,
-0.408996247,
0.630144584,
-0.420188489,
1.212022015,
0.299770515,1.003947339,-0.121016285,-0.990764598,-0.487567644,
1.809088104,0.580628698,0.644895367,-0.394149449,0.401734903,
0.552796432,-0.153554719,-1.003426384,-0.326295078,-0.835895854,
-0.692415844,-0.967632397,0.105481691,-0.214761551,-0.181177798,
0.093525364,-0.373071919,0.418261765,0.896067520,-1.627768096,
-0.396855682,
-0.770479193,
0.146000448,
0.242538585,
1.204298366,
-0.563077861,-2.041261923,0.406864575,-0.448080789,0.512947239,
-0.403604683,0.289808774,0.194236674,-1.809682607,-0.538270819,
0.001934521,1.001450828,-0.286228901,0.332399754,0.608506572,
0.392386705,-0.935219522,1.052006154,0.365230080,-0.346432521,
0.648906900,1.182665340,1.765311334,-0.941478735,-0.420531620,
-1.213349167,
0.643608568,
1.521468742,
0.425950170,
0.777043581,
0.650136388,0.898715992,-0.516572617,-0.456644595,-0.204371248,
-0.297257429,0.573958699,0.102944430,-0.659809269,-1.314947655,
0.287953656,-0.614215225,0.246808607,0.708040133,1.097059472,
-0.855073094,0.813293209,0.973620965,1.032348248,-0.478612826,
1.048274702,1.363109827,-0.032552074,0.437000159,-0.130588871,
1.327032249,
-0.358472137,
-0.728740797,
-0.128313586,
-0.274626123,
0.313121832,-1.234765413,0.620465695,-0.511301913,1.198982212,
-0.328096973,0.594209584,-1.630762903,-0.578791893,0.657540134,
1.276159511,-0.270203464,-0.796447356,-0.281087596,-0.389579050,
-0.694695497,-0.573560692,-0.416417715,-1.408682843,-0.023180986,
0.291614059,-0.789103369,-0.850036354,-1.535457373,-1.463273093,
-0.353430619,
0.112625847,
-0.339091535,
-0.397537974,
-0.887161858,
-0.065135755,-0.795599862,-0.336804216,-0.398648201,0.703455720,
-0.001773350,0.363021712,-0.317746026,-0.482675905,-0.570118132,
0.795125780,-1.267709707,0.500649503,-0.614818213,-0.680743373,
0.714976101,1.153727527,0.406140822,0.061287118,0.672331191,
0.332088621,-0.402658108,0.812371373,-0.152716982,-0.040339570,
1.029542421,
1.597110754,
0.717097575,
0.215319859,
0.720681881,
0.805207847,0.424942417,0.740562308,-0.158971900,0.887969159,
-0.177334222,-0.942160595,0.776443382,-0.453466121,0.207802822,
0.097685820,1.512966509,-0.209954171,-0.058937157,-1.531739484,
0.358529221,-0.591207997,-0.042436811,0.658877192,0.349979093,
0.317982691,-0.361973815,1.450076064,-0.161840438,0.131871080,
-0.170110185,
1.400043004,
0.376284803,
0.343850646,
0.119383584,
-0.447849600,0.730846335,-0.558535333,1.225763357,-0.891369916,
0.016771676,-1.016716054,1.103564571,0.435310680,0.173047388,
1.548667721,-0.411444651,0.559673604,0.604848280,0.190551050,
0.320537563,0.565379043,0.298717856,0.375036210,-0.065510584,
-0.720695886,0.216654003,-1.120100648,0.301186241,-0.426977601,
-0.721253029,
-0.140677927,
0.415490987,
0.292440198,
1.650619280,
-0.793618302,-1.446839060,1.601988543,-0.768015426,-0.021092169,
-0.246333659,0.411093258,1.237118190,0.117332940,-0.495927208,
-0.286925196,0.577380548,-0.585636932,0.722034197,-0.596720233,
0.293599095,0.424749916,0.255398070,1.375092331,-0.544673931,
0.880036144,-0.095202899,-0.358878696,0.400983208,-0.334227754,
0.215161760,
-0.109914752,
-1.352446013,
-0.415290094,
0.362562682,
0.022881840,0.593312734,0.258458084,-0.455880435,-0.384629296,
-0.071873974,0.573456040,-0.976503430,-0.069233460,0.427345393,
0.678955058,0.281978240,-0.552591247,0.143638305,-1.465937927,
-0.324388507,0.985257830,-0.455716123,-0.163475773,-0.817782489,
-0.291504194,0.397569089,-0.563739991,-0.031765358,-0.339073195,
0.111745222,
-0.097160106,
-1.538954545,
0.061019213,
-0.000853570,
0.113238022,0.719190082,0.026131903,0.150053144,1.695791584,
0.365126121,-0.545508545,0.367786970,-0.229573933,-0.063580273,
-1.495390879,-0.439831410,-0.060886005,0.692087530,0.109456607,
-1.184723384,-0.003342240,0.125506027,0.874178195,-0.069415861,
-0.300560345,0.825699473,-0.313506801,0.943068800,-1.197548726,
0.969230892,
0.729916458,
0.400969440,
-0.628483335,
-0.010855077,
-0.745407067,0.365250643,0.300052528,-2.007348873,0.107279990,
-0.518899332,1.545314996,-0.404642439,0.709025032,0.036673721,
-0.793778353,0.368975920,-0.822927569,0.342958094,-0.295121221,
-0.407323762,-0.515832415,-0.287592101,-0.575870418,0.256481790,
-0.506328818,0.225489489,0.712449487,-0.345505402,1.493751718,
-0.394384797,
0.486135695,
0.703722433,
0.894344499,
1.028663869,
0.559953227,0.310102986,-0.408357600,0.598229802,-0.170513738,
0.083693614,-0.439506477,0.942082755,-0.003759184,-0.505648223,
0.819006404,-0.221103472,0.351701689,-0.734154696,-1.058554958,
0.438266930,-1.170026862,-0.361146945,0.023402437,1.189420663,
0.385824738,0.848084180,-0.633714637,-0.083393779,-0.230783721,
-0.419675963,
1.413537919,
0.300578415,
0.391380279,
-0.604354647,
1.546207783,0.228803084,-0.126995509,-0.712942520,-0.194925264,
0.709151141,-0.028925028,-0.364511051,-1.598209622,1.243955210,
-0.174697499,0.144183222,-0.072164063,0.009144484,-0.140759175,
0.234568612,0.370502396,-0.150794917,1.483369851,-0.094456780,
0.554842698,0.857212634,-0.535438954,-0.492488474,0.000395729,
-0.705628271,
-0.329050855,
-0.766006344,
0.707275252,
-0.921462533,
-0.556581685,0.281952180,-0.705989187,-0.010301893,-0.446485518,
-0.302977491,-0.093905328,0.003981273,1.104922111,-0.324981527,
0.167013505,-1.078646700,0.325905618,-0.720856908,0.253571876,
0.841088682,0.058864707,0.596360737,-0.093248481,-0.888593449,
-0.632670923,0.920874584,0.845531044,0.541875327,-0.867472590,
-0.872254855,
0.628346222,
0.010495137,
-0.786501825,
-0.401702346,
-1.043842742,-0.021396710,-0.426024071,0.432846321,-0.800409935,
0.877978487,-0.617988877,-0.835257813,0.845079890,-0.271667761,
0.063947877,-0.582787519,0.464902118,0.081423359,-0.274670880,
-1.223429628,1.289121344,0.141761425,0.399617724,-1.262957396,
0.474779440,0.649928765,0.233661529,0.673707447,-0.604429693,
1.519898018,
-0.417805609,
1.452762463,
-0.478229611,
1.345671890,
0.266337740,0.026018805,0.089567352,1.059030571,0.872600003,
1.005148908,0.407180847,0.363533137,1.277754459,-0.413007980,
-0.786923631,0.238106771,-0.582971829,1.043177614,0.770399745,
0.598445757,0.379417307,-0.091240761,0.429329115,-0.760586183,
0.136025052,0.517811560,-0.074226047,1.259170789,0.377309148,
-0.258576862,
0.619778313,
0.703454433,
0.048665755,
-0.015611140,
0.003375355,1.705045853,0.016297271,-0.223392064,0.460849567,
-0.697085807,1.185892466,0.199882762,0.428905979,0.332821750,
0.864660665,-0.387249911,0.204910922,1.249457644,0.175660447,
0.253203808,1.735477916,0.371624511,-0.750149644,-1.182267285,
0.971290333,-1.103652226,0.093251766,0.039399431,-0.284837584,
0.805681836,
-0.518973562,
0.673870378,
0.180585166,
-0.649486329,
0.291023885,-0.261663404,-1.207060224,0.004003827,0.682683686,
0.479558607,-0.056476349,-0.824892307,-0.752027866,-0.421359205,
0.084180769,
0.193978430,
