// Neural Network File Format by Kyle Julian, Stanford 2016
76,2,2,5,
2,5,5,5,5,5,5,5,5,5,5,5,5,5,5,5,5,5,5,5,5,5,5,5,5,5,5,5,5,5,5,5,5,5,5,5,5,5,5,5,5,5,5,5,5,5,5,5,5,5,5,5,5,5,5,5,5,5,5,5,5,5,5,5,5,5,5,5,5,5,5,5,5,5,5,5,2,
0,
-10000.0,-10000.0,
10000.0,10000.0,
0.0,0.0,0.0,
1.0,1.0,1.0,
-1.142907788,-0.745278749,
1.390094071,-0.111045863,
-0.261265432,0.442400868,
-0.722565733,0.159589433,
0.216779869,-0.902785841,
-0.057891229,
0.594056392,
0.443303279,
0.951724949,
0.795326493,
1.025600388,1.159165095,-0.878059383,0.119556008,0.574976478,
0.317217684,-0.044970512,0.647237613,-0.441257330,1.067563567,
-0.481309287,1.265850580,1.042200681,-1.082860915,-0.131125236,
-0.982798964,-0.283266562,-0.318973607,-0.061224377,1.289208771,
0.537648549,-0.152006398,-0.298342751,0.067123184,-0.437805201,
-1.762964532,
0.305582550,
1.291973251,
0.770294436,
0.811001031,
0.471279256,0.061630118,0.085561323,1.373681727,-0.199587743,
0.752804727,0.771457252,0.686840108,-0.013078657,-0.065808511,
0.539207343,-1.112122609,0.267518776,-0.311816329,1.581167205,
-0.299382740,0.646733507,0.993762677,-0.516353761,0.035392942,
-0.443383203,0.605716660,-0.675421679,-0.462848592,-0.470774229,
0.359859070,
0.187717771,
1.500666252,
-0.545339729,
-1.359131427,
-0.109050893,-0.490035260,-0.768632207,-0.332418572,0.551706720,
1.950434753,-0.383352423,0.654918405,-0.439213253,-0.371711631,
-0.345378042,-1.542934197,-0.465861540,-0.776007513,-0.638574378,
0.117606798,0.171160842,-0.684144282,-0.096175902,0.657810384,
0.063509413,-1.250059047,0.606713850,0.777624511,0.272629389,
-0.034898604,
-0.190020365,
1.146889808,
0.540901312,
0.955830545,
-0.058995738,1.364288581,-1.289790606,1.455156353,0.659501831,
0.041528836,-1.608118820,-0.765651879,0.385679489,-0.205949621,
-0.837273703,-0.447008689,0.355399466,0.191918969,-0.611448021,
-0.113599609,-0.362076436,0.887724779,0.664148554,-0.420039825,
-0.479987678,-1.126461847,-0.083667442,0.152506471,0.663170453,
-0.951984432,
-0.608853524,
0.500866356,
-1.080241072,
1.088385233,
0.456493634,0.061749851,1.463272228,-1.123079580,-0.469347170,
-0.217141746,0.253016796,1.036515527,-0.133643374,0.138111391,
-0.093603764,-0.670135885,0.658083945,-0.499438618,0.410187536,
-0.388404524,-0.799167557,1.652563388,0.221766002,0.596916168,
-0.526744860,0.743705631,0.120721118,-1.659210868,-0.220662678,
0.013660756,
0.242963101,
0.464672030,
-0.509061418,
-0.450312549,
-2.056766999,-0.728876215,0.516465289,1.381208746,-0.325433292,
0.290688591,0.277532644,0.542330106,0.898320579,-0.082730934,
0.150662983,1.241657704,-0.751352537,0.145291533,-0.242944540,
1.199427081,-0.380267901,-0.909370392,-0.347683604,1.135794315,
-0.048219671,-0.665781345,-0.571605559,-0.656602966,-0.405222039,
0.087764335,
-0.393663309,
-0.845463243,
-0.360976642,
-0.421126183,
-1.011527301,-0.417919064,-0.395263569,-0.549560475,-0.590079356,
-0.480329207,-1.167386461,0.571000513,-0.100213997,-1.377674800,
0.970145029,-0.312089557,0.343678865,0.542020123,0.634341310,
-0.071870977,-1.266004223,-0.740738531,-0.367931164,0.435676554,
0.486629750,-0.077216056,-0.736682087,-0.625253311,-0.440051486,
1.275071730,
-0.001346367,
0.001991950,
0.576684681,
-1.421647279,
0.032334335,-0.134416285,-0.459681398,-0.762444033,0.322323739,
1.066726246,0.139090890,0.120835886,0.130070370,0.047424639,
0.156533974,0.239275412,0.108292657,0.068571596,-0.069904088,
-0.772741368,-0.426207241,-0.414984098,0.704833808,0.206053780,
0.451548872,-0.376899126,0.905239747,1.161588806,-0.924551088,
0.048092398,
-1.118692234,
-0.150914928,
-1.535267157,
0.383184910,
-0.563731312,0.583265138,-0.367056513,0.222827279,-0.412935487,
-0.415302006,0.087458039,0.305973273,-0.024999497,-1.318232175,
-1.553879248,-1.958921479,0.733759175,0.042398550,0.959655906,
0.321072826,-0.363759856,1.415626107,0.398389675,0.841829425,
-0.202526786,-0.855189479,0.031828242,0.638276318,0.609240263,
0.454392412,
0.075598821,
-0.575974216,
-1.255805534,
0.257187321,
0.105915572,0.542642899,1.410958318,-0.741042908,0.001871907,
-0.229964877,0.665497305,-0.838880059,0.475394322,0.639806597,
-0.179265853,-0.625821031,-0.092879900,-0.871738709,0.285365220,
1.278484319,1.356484533,-0.551299997,0.100264236,0.220785668,
-1.263045464,-0.174307862,-0.067887746,-1.845179998,0.503451585,
0.999291104,
-0.477122897,
-0.181960847,
0.601152987,
0.037282622,
-0.853914277,0.351663880,0.015780559,0.531447391,-0.154593344,
0.599445428,-0.537536706,0.532791810,-0.219222346,-0.087968364,
-1.427985161,-0.308979762,-0.187186768,-1.224166339,-0.609866525,
0.713718932,-0.351557941,-0.384792701,0.304928771,-0.159457125,
0.965865109,0.240036198,0.358326892,0.580727639,0.751980408,
-0.931163088,
0.121155027,
0.403676869,
-0.652335835,
-0.103306335,
0.099200597,-0.249131094,-0.187120387,-1.021048040,-0.087919699,
0.032325227,-0.137826819,-0.018768937,0.711161982,0.582739581,
-0.317139494,0.703640430,-0.397457605,0.347319048,0.185321649,
-0.337730396,-1.359514145,-0.182648493,0.002819413,-0.210934849,
0.223395010,0.392630383,0.336234165,-0.533735062,0.202379847,
-0.670490536,
-0.243570497,
-0.180916877,
0.287521100,
-1.036887206,
-0.768892979,-0.664864324,-0.454259356,0.215938566,-0.850069890,
0.041383825,-0.543645929,-0.966557880,-0.395011647,0.419158075,
-0.230495240,-1.265287955,-0.870392557,0.310383497,-0.439048450,
0.286036238,-0.100821479,1.039512141,0.260171450,0.141727887,
-0.462064448,0.752144730,-0.270598202,-0.011702812,0.168501366,
0.130696171,
-0.726379564,
-0.069256200,
-0.268902466,
-0.838871669,
0.174202404,-0.718982341,0.255225725,-0.393559141,0.753522526,
0.133646983,-0.842283648,-0.990071099,0.710710346,-1.183513134,
0.254746627,-0.202532397,-0.377470634,-1.221892627,-0.349844670,
0.158831340,-0.955271106,0.895709128,-0.163782355,-0.293829543,
-0.573098840,-0.374255120,-0.373650320,-1.081936191,-0.458142448,
0.841494922,
0.891439474,
-0.968246392,
-1.737561216,
1.403419208,
1.141888699,0.500369609,0.742723688,0.235173003,0.381335360,
-0.140886947,0.307068759,-0.051700811,-0.066292374,0.543326753,
1.233680565,-0.221117357,-0.969183951,0.412422221,-0.179931050,
-0.051386951,0.229274449,-0.572901569,0.572202834,0.453248699,
0.224184514,-1.279928556,-0.898952485,-1.244108854,-0.387921270,
-1.324375366,
-0.169917912,
0.745898735,
0.598062294,
-0.543555985,
0.133454992,0.411959460,0.087988585,0.528573371,1.226202295,
0.002460086,0.358791883,0.581984789,-0.898872766,0.243777861,
-0.579855102,0.147122857,0.053320919,0.684196433,0.863264897,
-0.421541983,-0.008014664,0.931048179,0.300356713,0.260292422,
-0.548175355,-0.282837255,-0.179887942,0.098837686,-0.373052641,
-1.072480503,
-0.554532094,
1.800024567,
0.392779153,
-0.836196422,
1.654086487,-0.140200030,0.874923906,-0.295225365,-0.199777371,
0.682701341,-1.298386009,-0.143089792,-1.064864623,0.894620446,
-0.400472766,0.039920687,-0.125195097,0.952474623,1.521191696,
0.187506745,0.148183662,-2.043570737,-1.038632667,-0.101068657,
-0.034037249,-0.182781640,-0.288646023,0.161972093,-0.373074472,
0.609673476,
0.576249936,
0.263619577,
-0.064564046,
-0.027150692,
0.153606615,-0.483364300,0.034429596,1.199349292,0.806659287,
-0.061546492,-0.118020577,0.452282173,-0.642458338,-0.744325035,
0.104497809,-0.563885179,-0.523453002,0.724667723,1.477959495,
0.164026491,0.905474557,0.181364976,0.163541432,0.193205341,
0.181667350,-0.500822174,0.441472751,0.880017627,0.423998050,
-0.192617524,
0.886054630,
0.297343909,
0.046358824,
-0.472735985,
-0.587974456,-0.287055314,0.842851577,0.450299792,0.529287093,
0.475758225,0.918981808,0.665695400,0.862617683,0.595313159,
0.346360926,-0.809629616,-0.476192075,0.333309330,-0.018170987,
0.372478042,0.266583619,-0.244210942,-0.662414429,2.101915085,
-0.540805687,-0.699155061,0.031161538,-1.090270712,-0.772078973,
0.434241854,
-0.281783160,
0.846218041,
0.629072200,
-1.162261947,
0.359637619,0.427262139,0.483702748,0.048174992,-1.285576937,
-0.790031546,0.917323677,0.858245939,-0.485392874,1.659604074,
0.349105716,-0.616811051,-0.759925337,-0.293484341,0.141059250,
0.893287753,0.036955265,0.447663463,-1.526198345,0.571610045,
0.275021256,-0.326339801,0.493150416,0.339544405,0.910826061,
1.630751228,
-0.987139445,
0.502963664,
0.851877379,
-0.220275058,
0.111398160,-0.196167152,-0.138697573,0.215941748,0.991688780,
-0.409218810,-0.308046645,-0.468607599,-0.116219796,-0.412357464,
0.502374517,0.292117530,-0.152165378,1.074622331,0.662818660,
0.918102806,1.206675049,0.335947589,-1.364789571,-0.458763523,
0.339079792,0.403153836,1.246880130,-0.508275569,0.175678754,
-1.208887026,
0.465208367,
0.186859494,
0.372639008,
-0.290096814,
0.709377170,-0.479936640,-0.281602388,0.089973899,-0.363307388,
-0.165121346,0.820254137,0.103444651,-0.934418686,-1.083291760,
0.760204847,-0.782485496,-0.435101194,-0.760026604,0.876399537,
0.375962507,0.363829360,-0.336726675,-0.451852895,-1.066411666,
0.403283270,0.234857738,-0.329974268,0.552743206,0.388860361,
-0.719779184,
0.064831794,
0.213766308,
-0.462009529,
-0.880456120,
0.110795477,-0.746575569,0.516042664,0.137676485,-0.244643831,
0.114387485,0.716185693,-0.101823773,1.225617159,0.610316486,
0.749853809,-0.492368673,0.729665547,-0.505028236,0.592725601,
-0.231924550,0.249771911,-0.633084766,0.906899333,-0.668884824,
-0.498330448,-0.210757131,0.164042526,-0.005679914,-0.847657860,
-0.659240917,
0.327048524,
-0.409865532,
-0.181750832,
-0.972634162,
-0.017918947,0.117254873,1.229474566,-0.382588391,-0.940102748,
-0.256599158,-1.275736192,-1.507339411,1.176630756,-0.117286331,
0.293535393,0.130444368,1.720697153,-0.124874089,-1.043496925,
0.127226697,0.117001354,0.652289733,0.299867781,-0.469159197,
-0.558958937,-0.515130578,0.116905203,0.422146470,-1.789486124,
0.445084734,
-0.586046800,
0.088966558,
-0.163669799,
1.717484270,
0.951241270,-0.120703462,-0.991972398,0.460566519,-0.492627943,
-0.457624887,0.568672631,0.134566863,0.725969494,1.502012775,
1.039936294,-0.633030490,0.210752837,-0.256832758,0.793621461,
-0.472797697,0.726595947,0.308090922,0.186067292,-0.146274174,
0.079117997,0.267800084,-0.449325577,-0.431847249,0.472843978,
-0.469777854,
-0.934012645,
0.102432800,
0.336559324,
-0.165155521,
-1.116811654,0.123832401,0.784712601,-0.426106063,0.881676287,
-0.729674549,-0.988704614,-0.146051928,0.347896290,-1.263802644,
0.378092374,0.339275287,1.042080084,-0.662592313,0.480628158,
0.392971959,0.426046499,-0.082341716,0.108918838,-0.369382209,
0.888360493,-0.721012479,0.320303045,-0.090519595,0.571278867,
0.675751350,
1.161243044,
0.079342059,
-0.074945607,
-0.070694764,
-1.677559941,-0.651455435,-0.243694737,-1.083061882,0.499591338,
0.525876307,0.686523416,-0.256872228,1.030530316,-0.267366378,
0.270515706,0.073306926,-1.398659792,0.655848300,0.010765594,
0.529393225,-0.159720492,1.404368625,-2.198974470,0.987921293,
0.576567663,-0.167107416,-0.378646627,0.423333263,-1.063147925,
-0.681423165,
-0.246478837,
0.901939362,
0.140598324,
-0.903490913,
0.292997293,-0.463645112,0.577794702,-0.409983927,-0.646586458,
-0.324425219,0.123295221,-0.323101716,0.140554251,0.011405865,
-0.768218454,0.539665999,-0.271653773,0.479487631,-0.451384554,
-0.232120826,-0.687493363,0.349219728,1.309274979,-0.342322700,
-0.052008005,-0.166982894,0.610294304,0.680662689,-0.683817967,
0.580571897,
0.402362763,
1.394050642,
1.260785594,
0.673244609,
0.280722586,0.636843085,0.514893526,-0.256013382,0.402602003,
1.095687522,-0.311165169,0.081047220,0.067632410,-1.368868989,
1.250074953,-0.679158451,0.070999864,0.279278390,-1.470882746,
0.004857003,-0.194303628,0.839559123,-0.061712633,0.577404201,
-1.651016491,0.950570101,1.052697196,-0.299264412,0.050157694,
-1.051960439,
0.040001340,
0.187668498,
-0.720678634,
-0.403467714,
0.921207437,-0.142501266,0.439427378,0.967678552,-0.070926610,
-0.510840869,0.390823757,0.001417936,-0.209289274,0.613643689,
-1.119828283,0.632309718,-0.210360929,-0.466286852,0.973222912,
-0.393407666,-0.714862427,-1.432780352,-0.485598458,-0.119964137,
0.046705136,0.098786386,-0.514628384,0.192587253,-1.312127968,
0.209210531,
-0.660465537,
0.150957526,
0.428070917,
-0.513489548,
1.596747718,-0.686517847,-0.081214095,-0.215368821,0.002918323,
0.111557865,-1.723325376,0.894687465,-0.258642676,0.300019081,
-0.251576621,-0.236358260,-0.195136559,0.669838860,-0.042825141,
0.646708362,0.313946600,0.148489975,0.209027267,0.291105620,
-1.232353588,0.380422299,1.067800863,1.509839962,-0.616324183,
0.660049591,
-0.075576814,
-0.091042802,
-0.632483400,
0.171881367,
-0.262621106,0.048947066,-0.036433394,-1.088806802,0.051786934,
0.233706073,0.037493915,0.094275567,-0.499978803,0.761389072,
-1.647202879,-1.312757837,-0.848009061,-1.247770781,-0.428599722,
1.382973363,0.594034917,0.177807161,0.571155673,-0.310405312,
-0.184337729,-1.419745995,-1.079656921,-0.823491070,0.625053934,
0.942577114,
0.547079451,
0.487598769,
-0.902271181,
1.667054591,
-1.041312333,-0.688266828,0.049596072,-1.321749177,-0.282477314,
0.625989124,1.520648230,-0.832693815,-0.264836533,0.437139719,
-0.397031039,0.018171355,0.582076313,-1.024142187,-0.344453943,
0.704319644,0.031574641,0.567353089,-0.109380874,0.363658632,
0.305753936,0.691191126,0.672545758,-0.726249199,0.135155956,
1.972254359,
0.008192435,
0.171043864,
0.184648894,
-0.390985127,
-0.452789191,-0.675558267,0.391568802,-0.225398265,-0.092970804,
-0.163068582,-0.681669169,-0.783019954,0.163446956,0.544020138,
0.175814777,-0.619386631,0.322657559,-0.094508010,0.419482274,
-0.015864805,-0.551194800,-0.433253828,1.112033733,-0.070249014,
0.050097086,0.815628463,-0.062209129,-0.216824858,-1.216696024,
0.571605287,
0.100572722,
1.178841110,
-0.225083261,
0.353557646,
0.091384625,-1.720307512,0.752634875,0.495716649,0.335692438,
0.171839615,0.473465268,-0.288779442,0.435179147,0.146569071,
0.853610906,0.091406654,0.072846170,0.480054427,-0.343181877,
-1.809122275,0.376796612,-1.222834431,-0.638494152,0.626002533,
1.164904844,0.454221263,-0.294717612,-0.653634462,-0.474665435,
0.642614823,
-0.350085560,
0.890686666,
-0.875484299,
0.371514110,
1.000236948,0.444014824,-0.385267578,0.697639870,0.988595851,
0.358983352,0.326984401,0.167331305,-1.334762774,0.981915076,
-0.127935126,0.519854268,-0.614550760,0.620277018,0.032039912,
-0.741737561,0.309470664,-0.020815557,0.545044205,-0.908278800,
-0.292515404,-0.709168129,0.461491777,1.262910157,0.666720338,
0.193044072,
-0.329240544,
0.228512629,
0.602901415,
0.063963512,
-0.149662998,-1.160617256,-0.090060310,-1.179556160,-0.581387801,
0.509227862,-0.030698553,-0.274098713,-0.799938918,0.053379228,
-0.599178679,0.700971559,0.367462223,-0.575876486,0.332263610,
0.384554638,-0.329743605,-0.618100828,0.233286491,-0.093040777,
0.582053248,0.764636358,0.361063960,-0.479479249,0.622477340,
1.233099833,
0.068741807,
-0.720987763,
-0.218467617,
-2.088219297,
0.382502504,0.975303023,-0.063357244,0.072903017,0.031058979,
-0.583893388,-0.685857080,0.966916883,1.368713556,0.835656775,
0.845408062,-0.023371726,1.082459732,-0.289558481,1.064933512,
0.043574695,0.310703904,0.212495002,-0.043777361,-0.971465682,
0.632275838,0.060582901,0.201107562,0.089979052,0.277758211,
0.090406041,
0.106602788,
0.088534758,
-0.651399412,
-1.503832676,
0.842172101,-0.187622065,-0.333092488,0.466401166,0.202156682,
0.407302556,-0.126925416,0.621280696,-0.536901866,1.060954427,
-0.890033714,-0.058101428,0.534114229,0.381329554,0.254321974,
0.442491794,1.091704217,-0.175632092,-0.813614407,0.581018893,
-1.006725878,1.043379721,-0.568338329,0.120485663,-0.904473217,
0.182419738,
0.008978246,
0.182478914,
-0.826091037,
0.779349796,
-1.457208293,0.077963815,-0.076536945,-0.124272057,0.511347031,
-0.683031448,-0.174007281,-0.442580056,-0.211074466,-0.661444989,
0.923150100,-0.963745231,-0.574409366,-1.470546372,0.660785678,
1.300072058,0.068812877,0.951583808,0.062979766,0.525716607,
-0.525050552,-0.244640225,0.571391135,-0.595051019,0.443787796,
0.146749795,
-1.182424417,
-0.105638101,
-0.090538162,
-0.356056515,
-0.659419432,1.040826036,0.449198173,-1.397175413,-1.094537864,
-0.496448946,-1.760307549,-0.177867770,-0.612426120,-1.156936880,
0.768153078,0.620142743,-0.061243694,-0.376833153,0.581029352,
0.453811415,0.439251185,-0.140040538,-0.314378996,0.062861880,
-0.494111351,0.417477913,-0.428574660,-0.143465693,-1.063478291,
-0.161761734,
-0.159566060,
0.035413242,
1.070707728,
-0.083904123,
1.694382891,0.016957851,-0.603348143,0.446681988,0.472302036,
0.820850371,-0.036422642,-1.175151251,-0.177665770,-0.569798846,
0.101274860,-0.286861569,0.194815434,0.833233717,-0.266149884,
0.308452456,0.273929153,-0.695743254,0.730926241,-0.160238064,
-0.838603366,-0.377192491,0.217317183,0.767737895,0.589191828,
0.078559458,
-0.790485458,
-0.341567439,
0.023303131,
-0.188507841,
0.284435127,-0.356111775,-0.014255596,-0.511208824,0.111177413,
-0.681019066,-0.671707360,-0.766193260,-0.354213507,-0.555479336,
0.037854255,0.665410298,-0.079839878,0.380525703,0.031074710,
1.063660539,-0.394950517,0.392799760,0.074807868,-0.710588955,
0.879470697,-0.963649534,0.318193669,-0.505408482,0.974094263,
-0.554406597,
0.200510193,
-1.357950633,
1.120047379,
0.441033191,
0.245581852,-1.340826563,0.115574717,-1.584514516,-0.146035900,
-0.106368622,0.082124051,0.469892549,1.481540539,-0.171258646,
0.655991211,0.737150810,-0.904616237,-0.983106143,-1.818338930,
-0.161822396,-0.160565244,-0.126578420,1.368293412,0.388849602,
-0.344853867,-0.793236890,0.178623413,0.049225050,1.148780666,
0.421738837,
-0.040655206,
-1.293365768,
0.723522768,
-0.012443413,
-0.650515985,-0.040128947,-0.157989164,0.364358218,-0.101956031,
-0.447686806,-0.729594646,0.290618206,1.734506643,1.151705010,
-1.505540126,1.018721575,0.655215310,0.587700433,0.668495254,
0.267735593,-0.106889545,0.830508253,-1.151505712,-0.294378179,
-0.365845979,-1.283461455,-0.943557038,-0.978825950,-0.626788595,
-0.769521446,
-0.418245368,
0.696001393,
1.370465218,
0.155339366,
0.277738667,0.446782339,-0.905009529,0.111445727,0.468672862,
0.986995266,0.218403105,0.112480413,0.528160690,-0.466580143,
0.953660741,-0.773663653,-0.668274938,-0.552352238,-0.865332968,
-0.832468456,-0.074482461,-0.683538417,-0.883933642,0.189123854,
-0.487618403,0.044291216,0.226359140,-0.718182912,-0.981377477,
-0.343311902,
-0.671144955,
1.140569878,
1.005327675,
-0.174482693,
-0.487637347,0.190146304,0.668848109,0.822380873,0.574256255,
-0.088475506,0.450730471,-0.560308908,-1.385589288,-0.320753233,
-0.108026809,0.721627023,-0.657861013,-0.671953755,0.208970533,
0.106411132,-1.449173855,-0.618100245,-0.248873291,-0.709887191,
0.292429250,-0.345496567,0.631576373,0.585275401,0.495116655,
0.242751906,
0.258902785,
-0.661071519,
0.579982828,
0.109499610,
0.484823517,0.678094404,0.520396569,0.456362815,0.225970639,
-0.440040584,-0.003416803,0.560043626,0.082058914,0.473819535,
-1.269719230,0.903258199,-0.407270615,0.186817552,0.766940729,
-0.206238177,0.155703170,-0.268668337,-0.459854339,-0.737421320,
-0.779029579,0.205846440,-0.097045541,0.032206102,-1.978201896,
-0.037184012,
0.266589135,
0.450121237,
0.295447077,
-0.560777860,
0.058818749,0.921325536,-0.337114022,0.298607941,-0.079306889,
-0.116778308,-0.333206001,0.260061296,1.651100675,-0.563937957,
-0.577433167,0.857499566,0.351115085,1.076675449,0.045507115,
-0.257257457,0.511665922,-0.958549498,-0.265456517,-0.639503948,
0.095965078,-0.389827397,-0.026154717,-0.028173683,0.398244096,
-0.247837503,
1.230270450,
0.021086957,
0.322570437,
-0.640352358,
0.463198723,-0.207546204,-0.834432131,0.387336154,0.343858459,
-0.655869921,0.415905816,-0.791581665,-0.674195100,-0.162954560,
-0.315134706,0.225873682,-0.155273285,-0.104213947,-0.983330031,
-0.520237860,0.752444988,-1.044856121,-0.372168805,-0.075502801,
0.478039071,0.949490415,0.022187297,0.909416847,-0.588998360,
0.801893376,
0.875836216,
-0.013663425,
0.603732661,
-1.045347019,
-0.917146334,-0.310139160,0.136196738,0.276258496,0.896295668,
-1.096047536,0.272448915,0.006206285,1.229583837,0.456090338,
-0.766872012,-0.081715133,-0.294608363,0.432903779,-1.222582430,
-0.693695473,-0.151408127,-0.258308694,-0.440927193,0.009166810,
0.345886211,0.340625995,0.676668574,-1.263041541,0.036247827,
1.448473573,
-0.711625063,
0.064638807,
-1.649971683,
0.527019899,
0.827651099,-0.383349754,-0.913424632,0.775598367,-0.353733792,
-0.930458189,0.042700558,0.097538782,0.458433010,-0.320385468,
-1.118851908,-0.411542146,1.142875182,-0.784308259,0.583377890,
-0.606662732,0.158011302,0.834399600,-0.003585524,-0.227276005,
0.234537938,0.408500201,-0.440759628,-0.795464169,-0.086017438,
0.449444818,
0.149621584,
-0.560256183,
-0.996042935,
0.014043123,
-0.725572392,-0.501606441,0.795293627,-0.680974021,0.994899543,
0.448263923,-0.977178892,0.149452613,-0.474848373,-1.756851241,
0.089411952,-0.318054947,0.399130503,-0.815369257,1.025041057,
-0.178675838,-0.313779141,-0.761539704,0.100121841,-0.697735757,
0.623719751,0.271835823,-1.006066161,0.316583638,1.050491674,
-0.144824082,
-1.437975948,
0.619432700,
-0.225876954,
-0.208638296,
0.398425139,0.412297743,-1.103588679,0.317275116,-0.005190804,
0.251600412,-1.127251612,-0.934168409,0.777976941,0.067080462,
-0.401344230,0.203076623,1.095090626,-0.697242601,0.221297066,
0.347355599,0.429791173,-0.146520905,0.761874402,-0.119923623,
-0.296740005,-0.896249408,0.184379091,0.300523505,-0.627550631,
-0.571058104,
1.025148311,
0.355085180,
-0.901744327,
0.882367714,
0.682236619,1.617393452,-0.470080978,-0.893121209,0.416970150,
0.522336507,0.428313489,0.414111341,-0.503510733,0.766917384,
-0.093535010,0.439267813,-0.192101885,-0.191419993,-0.339631442,
0.601953913,-0.230647860,1.241499200,0.958984592,0.601573664,
-1.274206540,-0.587510862,-0.827389836,0.470231204,0.485941919,
0.515561696,
0.518743582,
0.350967916,
-0.620527026,
0.060587096,
1.879346534,0.345708902,-0.117553100,-0.042040196,-0.411689013,
0.091567355,0.789546080,-0.890729644,-0.488118041,0.542792949,
-0.255817954,0.042442623,1.217628824,-0.127058004,-0.965027643,
0.461533171,0.071371061,0.524340154,-0.182551561,-0.490381621,
0.321549749,-1.279173809,0.450399957,0.578936971,0.136831762,
-0.435703452,
1.058825338,
-0.301953503,
1.046330365,
0.034014215,
-0.919399770,-0.433189788,-0.824999959,-0.913245228,0.094766557,
-0.191757251,0.471788976,0.419258341,0.791463193,1.148388895,
-0.182413356,0.016043551,-1.203448134,0.304373834,0.279186658,
1.152757590,0.402017552,1.029304544,0.263266527,-0.670333030,
0.467974132,0.700818090,-0.653989529,-0.485513031,0.034444544,
-0.733981260,
-1.137219800,
-0.432170755,
-0.184136062,
0.944135867,
-0.238318545,0.383295018,0.155019799,0.579442448,0.127211468,
-1.018814336,0.853498170,0.864365772,-0.988023729,0.595309701,
1.210274726,-0.328079520,0.203092171,0.519508888,0.937128143,
-2.301017539,-0.574586856,-0.541282385,-0.087650858,-2.006176762,
0.503532321,-1.120637253,0.700686098,-0.993474629,0.341221803,
1.080486777,
-0.567252821,
0.312902213,
-0.886586330,
0.030698390,
-0.310864391,0.629752695,-1.056916756,-0.268459183,0.784931972,
1.389861876,-0.294904163,-0.890943648,0.519997078,0.647651139,
0.032738649,-0.751119091,-0.485429056,-1.456180030,0.105096781,
1.124283967,-0.240395558,0.929879897,-0.651426998,0.320345085,
0.778780078,0.673916489,1.020400129,-0.048626347,0.837746851,
-0.969029441,
-0.079627695,
-0.175751465,
1.381671010,
-0.490338893,
-1.004032860,-0.435371805,-0.689957525,1.096597105,0.796906016,
-0.567609478,-0.691486113,0.011787061,0.600062672,1.508521338,
-0.600754955,-0.148029242,2.079545762,0.028378924,-1.125875311,
1.013573883,0.798783897,-0.594972813,-0.066082905,-0.881911527,
-0.392414502,-0.359361132,0.340688208,0.704886544,0.043107782,
-0.225239629,
0.297454753,
-0.048665695,
0.120557514,
0.584070375,
-0.412200196,-0.348686887,-0.721422561,0.025703715,-1.480985445,
-0.511998163,0.090666631,0.340690772,0.474731008,-0.575062835,
0.874978705,1.634068229,-1.757514655,-0.839341068,-0.505502318,
-0.932831673,-0.694932605,0.067758596,-0.155627869,0.702442099,
-0.497944296,-0.476705034,-0.492335483,0.806110090,-0.115515568,
-0.416985966,
-0.370630711,
0.663900867,
-0.335312561,
-0.444913898,
0.135612274,0.131359875,-0.054442870,0.485158328,2.197353289,
0.241221344,-0.891989478,-0.176562073,-0.754597236,0.392726361,
-0.280793477,-0.661742561,-0.164751504,0.214937412,-0.231289062,
-0.623149847,-1.315221782,1.481667998,0.221507814,0.764563493,
-0.348499049,-2.370156947,-1.305446027,-0.225584797,-0.798050634,
-0.345799671,
0.777309333,
0.363763537,
-0.544725599,
0.522199849,
0.546858238,0.681396815,-0.186342319,0.492188914,0.067591550,
-0.238764472,-1.673777375,-1.505832550,0.036616273,-1.087544927,
0.622876389,-0.297327030,0.907369374,-0.332194840,-1.104011153,
-0.021154598,-0.254051925,-1.492694668,1.456279556,-0.112998838,
0.660025697,-1.373477678,0.070557210,0.019382357,-0.460153793,
-0.797966174,
-1.137446033,
-1.191856896,
0.054868086,
1.029551816,
-1.131887665,0.145346496,-0.165817146,-0.793029165,-0.690125113,
0.690407398,-0.922288216,-0.938098367,-1.110388208,-0.063828674,
-0.213979662,-0.036775748,-0.352666739,-0.700308624,0.178890308,
1.072912933,-0.201393375,-0.051859744,-0.550863092,-0.247651523,
-0.548265388,0.411529437,-0.891377570,0.752355545,-0.060491219,
-0.288566691,
0.089597990,
-0.686701576,
0.518594805,
1.365334427,
-0.326149215,0.847318151,-2.491956227,-0.051203596,0.407021739,
0.351353787,-0.328906931,-1.021956752,-0.515984770,-0.045030262,
0.766532523,0.388124866,0.340926444,-0.032404309,-0.073636898,
-0.279180327,-0.385307409,0.314633976,0.000724072,-0.871523519,
-0.641755132,0.022020005,-0.653526084,-0.212273649,0.966624928,
-0.610192480,
-0.043364487,
0.255765797,
-0.641296057,
-1.024598604,
0.341756635,-0.549348010,0.288902674,1.701693662,-0.058592638,
0.150757213,0.113598035,0.198628290,0.667357985,1.063232038,
-0.216962505,-0.297245304,-0.802494349,-0.572174832,0.464955259,
0.520661216,-0.119439433,-0.829455380,-0.533549235,0.423254764,
0.291154194,0.710781853,0.034247509,1.340490066,0.399244155,
0.306230075,
-0.612992484,
-1.130863155,
-0.543092546,
0.176423891,
0.416259653,-0.172038596,-0.286006984,-0.316621117,0.618273035,
-0.254480099,-0.099013552,-1.539877844,0.259337555,-0.876462120,
-0.868425496,-1.367460835,0.631913904,-0.921958980,0.792017072,
0.599083164,-1.436271512,1.037884437,-0.323949538,0.841531855,
-1.239052301,0.432659990,0.178588106,-0.842045311,1.368568708,
0.069286971,
0.023952683,
-0.994120168,
-0.827273862,
0.588780488,
-0.647318953,1.275186976,-0.002949740,0.491926365,0.053309934,
0.143415283,0.283904870,0.704518562,0.122596400,-0.393255042,
-0.567566790,-0.755037044,0.114908712,-0.471311412,-0.432499572,
0.409238670,1.388109043,-0.310036986,-0.795108178,-0.061340900,
-1.271644825,0.244706128,0.926716541,0.010817724,0.395720690,
0.148466320,
-0.343540413,
0.929187071,
-0.272829615,
-0.672598358,
-0.638342097,0.412720478,0.611012104,-0.432744453,-0.296731987,
-0.180701561,-0.249702592,0.434144273,-1.074716615,0.562866487,
0.691013006,-0.040992404,0.390994127,-0.405840943,1.052887024,
0.732880521,0.002143172,0.221041496,1.743484733,-0.071123603,
0.179345793,0.345692069,-0.592727838,-1.100093567,1.054301887,
0.045836931,
-0.537099756,
0.539865802,
0.667621044,
0.745617178,
-1.025373727,-0.029399343,0.049667612,0.409559362,0.073373123,
-0.152663890,0.572689391,0.166987952,0.287519324,1.622445319,
0.340600348,0.962899014,-1.432741419,0.603274328,0.880373941,
-0.348412309,0.812147796,-1.558615453,-0.045221323,0.865281077,
0.081394570,0.323933803,0.193769280,0.467729872,0.535566455,
1.213998729,
-0.213729238,
-0.616881132,
-0.777973559,
0.567908003,
-0.561803919,1.055337113,-0.715502393,-0.054280090,0.218674826,
-0.181131890,0.739172601,-0.671030120,0.634051463,-0.872283708,
0.013093039,-0.622210240,-0.196184391,0.250129327,0.872234195,
-1.632832615,1.214503628,-1.552196096,-0.155948896,0.145259681,
0.159526744,-0.417685299,-0.061730031,-0.167775198,-0.834588765,
-0.520458443,
-0.307479444,
0.305090120,
-1.002490881,
-0.326109790,
0.927277089,0.662858399,-0.442064770,0.161879284,0.314379618,
-0.125900243,-1.225827294,0.247772292,1.433514325,-0.164850760,
-0.189216378,0.611477864,-0.258509595,1.404718004,1.736303302,
-0.156630314,-0.996177236,0.401431406,0.004386955,0.102238614,
0.014120613,0.107150502,0.297092503,-0.859924078,0.002851931,
-1.619306179,
0.823043127,
1.173880888,
-0.691604445,
-1.055637788,
-0.843486156,-0.099164908,-0.342247453,-2.073054480,0.347731720,
0.065855450,0.304716606,0.159449563,-0.694155073,0.011284684,
0.206334141,0.395856421,1.403035498,-0.227414100,0.492018494,
-1.902425346,-0.456170935,-1.134527042,0.655590337,1.149777207,
-0.686973765,-0.163651885,-0.901134651,0.009289249,-0.799931593,
0.029528455,
-0.817778832,
0.153439790,
-0.244809239,
0.123788908,
0.051069446,0.275468482,-1.674696117,1.408005770,0.199495025,
-0.697378217,-0.409679994,-1.218514750,0.315521960,-1.021642777,
-0.189401395,-0.181540567,0.753160028,-0.162912294,-0.931221096,
-0.915921387,-0.553619745,-0.271872435,0.738059376,0.955654687,
0.684900832,0.415377755,0.105231739,-0.697188635,-0.252935615,
0.097853150,
0.023240898,
0.890436675,
0.085321631,
-1.067238462,
-0.147229199,-0.910608247,0.272631111,-0.006017968,0.416135338,
-0.566414655,0.425045510,0.695532689,-0.548954075,0.674013252,
-0.809061622,
0.103133108,
