// Neural Network File Format by Kyle Julian, Stanford 2016
101,2,2,5,
2,5,5,5,5,5,5,5,5,5,5,5,5,5,5,5,5,5,5,5,5,5,5,5,5,5,5,5,5,5,5,5,5,5,5,5,5,5,5,5,5,5,5,5,5,5,5,5,5,5,5,5,5,5,5,5,5,5,5,5,5,5,5,5,5,5,5,5,5,5,5,5,5,5,5,5,5,5,5,5,5,5,5,5,5,5,5,5,5,5,5,5,5,5,5,5,5,5,5,5,5,2,
0,
-10000.0,-10000.0,
10000.0,10000.0,
0.0,0.0,0.0,
1.0,1.0,1.0,
0.548338950,-0.547915576,
0.308958676,-0.126135455,
1.977736777,0.163611991,
0.350350565,0.095028277,
0.369622812,0.580492380,
-1.251920803,
-0.140053335,
-0.782804548,
0.157241131,
-1.046401120,
-0.293165300,-0.605422602,0.213334041,0.555254932,0.516668504,
0.257233365,0.904184027,-0.014966767,1.291472673,-0.878548359,
0.399198910,0.907548717,0.055880841,-0.413054434,-0.842857890,
0.879271648,0.008734198,-0.212121890,0.507580461,0.011323188,
0.115578621,-0.013062514,-0.117145483,0.497210545,-0.466717194,
-0.299533971,
0.061938474,
0.180198673,
-0.741103874,
0.134790728,
-1.269974407,-0.131287610,-0.331292832,-1.260611111,0.800920451,
-0.628538691,0.862217214,0.007857441,-0.771668697,0.099326127,
0.531014373,0.630630642,0.728586987,0.790183570,0.249683012,
0.689083148,-0.637354822,0.956599324,-0.074640616,-0.228008837,
-0.066139927,-1.454795737,0.286098480,-0.694817804,-0.457486393,
1.226408971,
-0.803586722,
-0.807672396,
-0.742598143,
0.068344439,
1.765306328,-0.276755839,0.003392545,0.380263804,1.067084178,
-1.024888702,-0.119507719,0.095741719,0.063369808,-0.367623441,
-0.442600907,-0.124069541,-0.361319495,0.324244423,-0.199099056,
0.681415391,0.166662106,-0.437463039,-0.526172721,0.035406737,
-0.600402574,-0.481871082,0.194664174,-0.235322825,0.568186174,
-1.079677725,
0.365465070,
-0.387017199,
-0.942456701,
0.232985823,
-0.255071998,0.140900440,-0.200152394,1.057860665,-0.293535398,
-0.592444176,-0.540525371,-0.038657249,0.897541755,-0.739607902,
-0.838431810,-0.987310038,0.475269400,0.277480834,0.220484287,
-0.268608778,0.740400462,0.267853566,0.690576526,0.019432013,
0.320893004,-0.410038897,1.606665175,2.011170750,-0.374877501,
-0.209793201,
-0.135864361,
-0.148922598,
-0.022550643,
0.518060680,
0.060884668,0.418973434,0.450530130,0.949338912,0.024488754,
-1.055745876,0.289266867,-0.103934331,0.138251045,0.162090837,
-0.253716032,0.622489096,0.745282875,0.538475993,-0.392198182,
-0.565029606,-0.486914608,0.816983458,0.177385151,1.387746548,
-0.602520020,-0.267877996,0.474027357,0.413026129,0.060278012,
0.417634898,
-0.522875270,
0.360276890,
-1.448911637,
0.125869033,
-1.049737587,-0.792674098,-0.229292417,-0.510654083,-1.297441964,
-0.222431734,1.254467915,0.516256170,-0.759318536,-0.714426894,
0.173814194,0.223471742,-0.281776137,-0.250146799,-0.198948310,
-0.582372854,-0.229371056,0.016023203,1.294503416,-0.512431801,
0.654117005,-0.129335069,0.413454340,1.342850930,0.499902405,
-0.284978428,
0.727181604,
0.444467474,
0.793342082,
-0.848593520,
0.016449245,-0.380074151,1.304372095,0.953768306,-0.634294581,
0.196106103,0.144536168,-0.112003280,-1.030909723,0.121277125,
0.339252320,-0.141808729,-0.688929550,0.588268095,-1.152070943,
-0.105349333,-0.392511572,0.434043345,0.468962127,-0.648081362,
0.735689851,-0.317266101,0.704482079,-0.273969907,0.293981957,
0.785146684,
0.371518104,
0.440572894,
-0.184704769,
-0.684077952,
0.142074830,-0.127645805,-0.111918574,-0.087317040,-0.654343975,
0.228831498,-1.266058249,-1.288591479,0.155603669,-0.178583873,
0.379327599,-1.075347876,-1.401849544,0.190825098,-0.550128889,
-0.065863086,-0.352964425,-0.239592983,-1.904572244,-0.021428342,
0.273592859,1.170244670,0.033193440,0.251626442,-1.205382949,
-1.221732166,
-1.180080219,
-1.021555031,
0.620807631,
-0.562914652,
-0.149114465,-0.010012893,-1.991986992,0.786023748,0.008417508,
0.744540656,-0.879494920,-0.955339795,-0.355228346,1.241585214,
-1.598567213,0.461869788,0.991806685,-0.080392587,-0.181809349,
0.086025576,-0.149058077,-0.923816917,-0.618633809,1.385519315,
0.175285145,-0.255296529,1.021844452,-0.400136024,0.250416528,
-1.816378529,
0.217953044,
0.842073127,
0.221224246,
1.059647373,
0.513663391,0.663495951,-0.648230722,0.588596567,-1.646015707,
-1.271571980,-0.750039886,0.430620414,0.905264994,0.091711076,
0.351738564,-0.658744944,-0.666075173,0.412007936,-0.317285790,
0.312490214,-0.510797281,-0.613065026,-0.569664089,-0.282120844,
-0.178764166,-0.233017336,1.071340907,0.181039610,-0.088921859,
-0.235254218,
-0.387309968,
0.915071301,
-0.829580187,
-0.406766310,
-0.514400324,-0.328035480,0.396120124,-0.641492366,0.436655019,
0.526908121,-0.093543783,0.640587819,-0.259129528,0.421721695,
0.601365170,-0.198712862,1.947099962,0.676330954,0.138760825,
-0.226870610,0.187796330,0.897623714,0.008056013,0.303036834,
-0.304084484,-0.954926227,0.620916585,0.109594902,-1.264646996,
1.029716161,
-1.091762132,
0.220969016,
0.757818960,
-0.450676622,
-0.955266120,-0.701724851,-0.575879363,0.581355152,-1.465978683,
-0.586889449,1.637604354,-0.190392817,-0.761005837,-1.100488475,
-0.826386332,0.814248475,-1.437490500,0.405025515,0.042060963,
1.500299113,0.091404944,-1.027040756,-0.034460498,-0.469130570,
0.092679055,0.478654842,0.320137900,-0.783969197,0.285050677,
-1.435251481,
-0.981278427,
-0.368519762,
1.429364252,
-0.612207411,
-0.681493038,1.868778926,-0.817171846,0.519019269,-0.436900383,
-0.789511935,0.364409347,-0.566213009,-1.044072408,0.322713536,
-0.191393062,-0.092846053,-0.158665993,0.502812163,0.327929037,
-0.228386707,1.207294528,-0.974470987,-0.866414113,-0.624311122,
-0.097409972,-0.742402182,2.183575993,-0.728639059,0.070732273,
0.681401436,
-1.229849955,
0.765742000,
-0.413805469,
-1.025505701,
-0.971582054,-0.568259724,-0.139251444,-0.013007288,0.266186470,
-1.645721067,0.712447864,-1.104334194,0.653248692,-0.049451356,
-0.372513170,0.526520640,0.153119186,-0.216145079,0.848747730,
0.125655350,0.347316458,-0.908560074,0.600919842,0.304584770,
-0.136013846,-0.035234781,-0.746902983,-0.080630027,0.843766786,
-0.685117373,
-1.165603054,
-0.042774055,
0.199295573,
0.603888002,
1.214764479,-1.011749733,-0.858240969,0.536737795,0.619756287,
0.238261811,0.361878939,-0.676552482,0.300438476,0.678271793,
0.059261223,1.089705760,0.065573816,0.662369670,-0.820667080,
0.340363179,-0.101072164,-1.704796786,-0.410111483,0.540819188,
0.680020870,-0.479302981,-1.096897105,0.779495881,-0.302405869,
0.379549287,
-0.425504329,
0.758205961,
-0.101137096,
0.204512692,
0.400060086,-0.057355808,-0.017074007,-0.075106706,0.159173893,
-0.075289370,0.384851860,-1.219131768,0.085848152,-0.083693312,
-0.229678731,-0.330588763,-0.574525075,-0.686731566,-0.007192675,
-2.406444589,0.761476532,0.498147718,0.382619722,-0.187904775,
0.005001951,-0.117930991,0.348082153,-0.678899876,-0.915545618,
0.114935165,
0.241017848,
0.822628708,
-0.305098520,
-0.758289198,
0.048979129,-2.344194541,-0.291149183,-0.528423952,0.107302166,
0.221297347,-1.294801403,-0.068567161,0.507866447,-0.382351251,
1.061341670,1.010069014,0.145359259,0.252216526,-0.725896506,
-0.165650159,-0.398394424,-0.003171322,-1.188064574,-1.220604997,
-0.301772632,-0.397068108,0.205753487,-0.737470513,0.505041450,
-0.918101353,
0.225629258,
0.716754282,
0.309136823,
-0.261531428,
0.670142703,0.817625999,-0.518229637,0.070665015,-0.378007615,
-0.956362511,0.127883886,0.926369563,0.246847280,-0.324283544,
-0.429838986,-0.252156352,-0.068670127,-1.264540362,0.657109708,
-0.391937420,0.202945189,-0.320643420,0.939563378,0.041841302,
-0.774879251,-0.883507255,-0.282520760,-0.444454680,-0.210772099,
-0.790003942,
-1.338877896,
0.911190508,
-0.986892056,
0.629347620,
0.603203592,0.255460550,-0.627487803,0.750267795,-0.427106129,
1.519138670,-1.231619999,-0.624219558,-0.539513443,-1.288629129,
0.132122096,-0.344326507,0.215272118,1.324716093,-0.212886455,
-0.020522466,0.506420367,-1.026425619,0.324815341,-0.989774700,
-0.097719605,-1.372023905,0.585062037,0.322541441,0.764899444,
-0.089315839,
1.910869362,
0.432914819,
0.220783175,
0.419461998,
-0.420815950,0.623446956,1.854130415,0.099320694,0.202005478,
1.074955628,-0.251337455,0.335292390,-0.787523829,1.404977079,
0.792457638,0.251126555,-0.801333144,1.074200789,-0.744128706,
-2.204734504,0.401198008,-0.127840148,0.164165638,0.526890557,
0.666704751,-0.184139645,-0.910691077,0.167091806,-0.073809735,
-0.938783164,
-0.329971733,
-0.591793479,
0.107295658,
0.812473956,
0.516411089,0.776032055,1.324416152,-0.623453400,0.283145453,
1.052573498,-0.347974195,0.018221542,-0.192913410,0.335059387,
0.129896679,0.809836014,-0.528098037,0.299906954,-0.165565040,
-0.368779346,-0.369870207,0.345149904,-0.031279353,-0.763387861,
-1.475903102,1.150073784,-0.162136795,-0.658154693,0.080439630,
-1.218802979,
0.097580632,
-0.564845706,
-0.933591158,
-0.190116128,
-0.105132338,-0.998895895,-0.974855139,0.521954596,-0.329118491,
-0.664046488,-1.476045299,0.394966980,0.025225350,-0.644736661,
0.487369396,-1.796250113,0.667349593,-0.931261965,0.875191005,
-0.727386766,-0.417019985,-0.229458095,-0.368204173,0.759687246,
-0.926419448,0.374626364,-0.552079400,0.385867604,0.041066846,
-0.083631804,
0.380660231,
0.568489715,
-0.892053896,
0.078029803,
1.177822032,1.213486122,-0.859208025,-0.156406775,-0.055834163,
0.192038920,1.092235537,0.600266334,-0.581610051,0.541863134,
0.084893809,-0.182213498,0.674095008,-1.044586963,0.018923482,
0.780075894,-0.026914397,0.639055587,-0.432442896,-0.182190902,
0.393444820,-0.175702550,0.683954362,-0.616946665,-0.334228532,
1.003995610,
-0.297650857,
0.036787114,
0.419692934,
-0.112252496,
0.392373014,0.324620943,0.037379212,-0.362155330,-0.147274734,
0.027387911,0.075198389,-1.291272753,-0.181156148,-0.305589599,
-0.448892651,-0.806179866,-0.011313321,0.453202752,0.630696625,
-0.759007303,-0.002276212,-0.739298075,0.826405983,0.820512109,
0.336957441,0.473128533,0.190492513,0.763746114,-0.194804408,
0.742978785,
-0.881119483,
0.679406114,
-0.671816429,
-0.478511661,
0.422522389,0.620275863,-0.374074026,-0.384300900,-0.161099885,
-1.174576132,-0.146769269,0.524578673,0.336988141,0.324354571,
0.623356767,-0.617886241,-1.156284446,1.158355900,0.281053648,
0.594588236,0.539770294,0.804671109,-0.533696747,0.506515348,
-0.108198673,0.597461156,-0.885192001,-0.011339880,0.264491687,
0.310660299,
0.472123884,
-0.478991011,
1.012158105,
1.134605885,
1.285147519,0.529040208,1.345244997,1.437301210,0.289728068,
0.583593711,0.065114668,-0.135352692,-0.086607104,1.043226163,
-0.476368899,1.077095754,-0.272235511,-0.318641823,-0.537520728,
0.912218896,0.490668691,1.305133974,0.016337679,0.805081235,
-0.053817978,0.576672868,-0.248159659,-0.123305274,-0.109696872,
-0.418160646,
-0.510340006,
-0.400916524,
-1.045522978,
0.614756158,
0.773960327,-1.751333364,0.170342166,-0.810873988,1.198318474,
-0.005357372,0.184801285,-0.034310055,-0.896071072,0.180724686,
-0.292817527,0.303820691,-0.622968997,-0.815956935,0.916105976,
0.454030084,0.352943665,0.048206886,1.035839276,-0.349404214,
-0.301900016,-0.320196037,1.128675017,-1.001691271,-0.184041191,
0.713640221,
1.436749937,
0.134869751,
0.864881497,
-0.475364634,
0.726224526,-0.560974956,0.148580130,-0.516533497,-1.178271104,
0.301358985,0.199408403,-0.308681344,-0.902109019,-0.481105016,
0.338780370,0.835262096,-0.985487458,-0.560734502,-0.555973238,
-0.116025559,1.280973046,-0.291762514,0.745267978,-0.424980878,
-0.034889829,-1.434625173,-0.403459928,0.174720548,-0.388317489,
0.248923225,
0.092512798,
0.146806832,
-0.465003219,
-1.178434874,
0.099261115,-0.556765411,-0.628856518,0.073190361,-0.512085087,
0.120106989,-1.355676223,-0.020439902,0.141107913,0.482423026,
0.279927640,0.800062203,0.373603192,-0.566154573,-0.059620416,
1.180274317,0.902498221,0.267408942,1.094804348,0.887250123,
-0.479410258,-0.579201510,0.076330601,-0.255622625,-0.181961680,
0.266004220,
0.353231713,
0.396512933,
0.039759269,
-0.337751124,
1.656991687,0.566069086,0.080070221,-0.332010552,-0.777822541,
-0.359478221,-0.858768773,-0.607647654,0.325256415,0.569608812,
-0.697393992,-0.276968287,0.540671260,-0.726580246,1.550554143,
0.045246533,0.287769012,-0.161860131,0.164300086,0.437882416,
-0.571273659,0.336742192,0.060214102,-0.436229553,0.002785725,
0.604138834,
-0.719061458,
-0.100475825,
-0.459816133,
-0.392933602,
0.745624732,-1.428697745,0.563688729,-0.236156991,-0.716691196,
-0.636774196,-0.753004841,-0.326133664,-0.029016674,-0.464639347,
0.070449676,0.910099666,0.712134716,0.177769811,-0.424629663,
-0.416768595,0.717423999,-0.838976925,0.043674070,0.679514990,
-0.326731431,0.070306181,-0.367021250,-0.850591386,-0.190661898,
0.314540594,
-0.345432177,
0.107771468,
-1.809182281,
0.185316144,
0.157489503,1.060221787,0.139619448,0.435974770,0.176736680,
-0.098876805,0.003051358,-0.034548716,-0.442543340,0.719154040,
0.384922409,-0.947200025,0.835593889,-0.463710484,0.694203686,
0.479309757,1.329485555,-0.252686967,0.162127619,-0.781143970,
0.800129691,1.364167174,-0.998757697,0.172409479,0.016234384,
-0.288188706,
0.543281593,
0.199732227,
0.249270325,
-0.264088017,
-0.246085315,-1.332901832,-0.428917217,-0.969668535,0.732307718,
0.580246260,1.467355874,0.110117880,0.148373345,0.207208491,
-0.050981848,0.732563644,-0.245404099,0.044826598,0.551368895,
0.376584553,-0.135040515,-0.084790361,0.040046043,0.257941668,
0.563338463,-0.139486356,-0.737455456,-1.357364779,-0.106758895,
0.057165471,
-0.087428308,
1.108103906,
0.249494294,
1.209099868,
-0.469038649,0.472639839,-1.010232730,1.028415175,-1.061421140,
-0.425841436,0.703617502,0.717251455,0.659254863,0.321329394,
-0.578298189,-0.946047710,0.433056027,-0.149165627,-0.004335582,
0.109475682,-0.026588841,0.103386495,0.859876027,1.271741673,
1.127147456,-0.974027975,-0.566671565,0.481605995,-0.012002991,
1.291218163,
0.150878585,
0.166398492,
0.515313228,
0.254127101,
0.981261216,0.261420217,0.156986653,-1.057880161,0.524432536,
0.599117257,-0.422854492,0.033122904,-0.986263550,0.263420360,
-0.724159527,0.659613274,-0.061580626,0.450516179,-1.052795054,
-0.004953794,0.043208002,0.374546410,0.231406207,0.701475439,
-0.238081953,-0.257460189,0.532560205,-0.597285211,0.625364098,
-1.049107424,
0.016393815,
-0.334887093,
0.490723427,
-1.021778715,
-1.327825909,-0.373651275,2.028951530,0.218039890,0.992620038,
0.423133260,0.311772756,1.040635412,-0.404995799,0.198766257,
-0.112865885,-0.770526954,0.299453821,0.697152543,0.556277158,
-0.427345455,-0.591473323,-0.976586182,-0.924309527,-0.884895791,
-0.031638368,-0.373527730,0.719997743,-0.919705079,0.474683427,
-0.282040677,
0.339425607,
0.267087877,
-1.238683261,
-0.171976128,
-1.300275035,-0.921561827,0.306019028,-0.019119105,1.139355004,
0.855591701,-0.176153990,-0.353408071,0.734285836,0.599944506,
0.137692977,-0.541357995,0.671956657,-0.988231338,-0.095036415,
0.791292776,0.352277941,-0.022630117,0.507251762,0.546261335,
0.222311516,-0.130377862,2.196255679,0.104662545,-0.486685957,
0.857187849,
0.213143691,
-0.478717636,
0.444914567,
-1.063237150,
0.337681287,0.047400641,-0.123513248,-0.342108741,0.460251684,
0.384742857,-1.065990766,-0.841849492,0.264452339,-0.661588819,
-0.338895188,-0.083646398,-0.450457088,-0.681417547,1.063955307,
-0.182269795,0.289745986,0.043178096,-1.117889355,0.101331903,
0.454356168,-0.298089385,-0.668034423,-0.103301042,1.405843227,
-0.005323073,
0.034071556,
-0.335849301,
-1.011963513,
-0.878047038,
0.177615901,-0.008331468,-0.106736453,0.023918926,-0.718879843,
-0.512388284,0.725905671,1.301173069,-0.367505390,-0.808590147,
1.105392629,-0.089784499,0.183945696,-0.295179102,0.878223385,
0.210161510,0.037238499,1.029307907,-1.295485611,-0.108682786,
0.847859500,0.325833100,0.448773062,-1.088315566,-0.090545540,
1.025070626,
-0.065633819,
1.330064762,
0.774684095,
-0.143686388,
1.125801369,-1.074108257,-0.411199196,1.513576177,-0.937373372,
-0.467522227,-0.218953357,-0.356977560,-0.157742221,-0.576997265,
0.239949994,-0.256543194,-0.320621543,0.212524493,-0.817271877,
0.523754841,-0.471485095,0.809790754,0.402237188,0.521066697,
2.617937894,0.206146541,-0.132896395,-0.102021323,-0.068295700,
0.027117110,
0.181459073,
-0.152616560,
-0.092081086,
0.851208265,
0.600908618,-0.201720943,-0.275802310,-0.092034502,0.084197647,
-0.497744929,0.463467229,-0.429561938,0.322751534,0.372044215,
0.773813202,-0.087910909,-0.497737717,0.255655806,1.055583709,
0.303718286,-0.414541615,0.890242223,0.982251803,0.471755830,
0.794841757,0.156994272,-0.660667430,-0.225822870,-1.870558366,
0.366698229,
0.157807384,
0.056214805,
0.558976655,
0.450221225,
0.562291205,1.055399957,-1.293852542,1.337370883,-1.209339519,
0.341033400,0.052238865,-0.030367049,-0.377901278,0.192133364,
0.138467975,-0.782829170,1.169410802,0.778514271,1.887473902,
0.015368868,-0.176351608,-0.270053203,-0.707419792,0.676814128,
1.015318369,-0.041432752,-0.142172318,0.133915029,0.365004690,
-0.655167861,
-0.529744626,
-0.311828186,
-0.529648549,
0.607266329,
-0.587471175,-0.837548817,-0.272190272,1.052676309,0.230734792,
-0.973410465,0.006545413,-1.083352238,-0.094839808,0.237315384,
-0.357078490,-0.490125530,-1.035584529,-0.092533766,0.572356151,
-0.240040225,-0.178139477,0.716996346,0.435079587,0.514865039,
-0.796286302,-0.104760730,-0.167941629,0.817953615,0.843841515,
-0.650810108,
0.483344036,
0.000863425,
0.399438774,
-0.681949789,
-0.039941806,-0.105260914,-0.573781804,-0.393358853,-0.234865613,
-0.900641324,0.654573638,0.907388796,1.606487351,0.692276440,
-0.089996896,-0.422995122,0.167970386,-0.174068220,0.038523537,
-0.268170532,-0.752938562,0.225585390,0.270117412,0.091351373,
-0.155585931,0.322450473,0.964902535,-1.146843818,0.840953353,
-0.195676441,
-0.024918037,
0.787350087,
-1.970701129,
0.824693040,
1.888689836,0.981251914,0.443372639,0.437536355,-0.103679150,
-0.128674307,0.108849318,-0.272159956,-0.359784247,0.472977587,
0.315817825,1.365554584,0.420206094,-1.301195339,-0.488633644,
-0.689903887,0.997960366,-0.597219824,-0.716323251,0.737824084,
0.229800579,0.086715354,-0.604825587,-0.165847566,-0.743469958,
0.010079396,
-0.651625366,
-0.014916217,
0.979954755,
-0.431243176,
1.076856641,0.337231901,-0.508620585,1.479575618,0.614830658,
0.201991404,0.783161975,-0.157008087,-0.112890445,0.517159039,
-1.213412949,-0.274834655,-0.223236094,0.254577882,-0.271211513,
0.062237761,0.091936591,-0.977602858,0.369612735,0.779225959,
-0.538977519,-0.648376497,-0.510945639,0.862055249,0.381112694,
0.120619358,
0.745336560,
-0.124823843,
-0.425188285,
0.089938119,
0.996196915,-0.288679131,-0.895032711,0.147620540,0.750470204,
0.344694949,-0.392893629,0.763973074,0.797194227,0.148165348,
1.597721440,-0.313460056,0.666075713,-1.112915742,0.137982808,
0.667553708,-0.166802143,1.161300962,0.787774942,0.110415081,
0.649996731,0.818714966,0.474427633,0.084577742,-0.441039117,
-0.309984484,
0.188897054,
-0.544687383,
0.302222243,
0.591960394,
0.410587623,1.021616965,0.422206185,-1.994601082,0.505936841,
-0.375304610,0.854826615,0.844214544,-0.160364245,0.260041711,
-0.459918365,-2.033109957,1.184464615,0.956724657,0.911852093,
-1.086926407,0.000325735,-0.793010677,-0.257161418,0.541617686,
-0.295004157,-0.383699700,0.826058030,-1.815368831,-0.390982752,
1.966437553,
0.647695426,
0.013815800,
0.335147414,
1.049586373,
0.128671903,-0.008433600,-0.568380162,0.364144977,-0.225871893,
0.198074066,0.853952923,-0.205018557,0.407788674,-0.207978637,
-1.082550108,-0.403830687,-1.100004704,-0.474646736,0.315318520,
0.308359750,-1.209883018,-0.218178970,0.580909602,0.473869691,
0.570536984,-0.618002854,-0.450791447,-0.447102301,0.035837552,
1.104426024,
0.765239619,
-0.853220594,
0.034258581,
1.729447247,
0.861463986,-0.285750578,-0.948639749,0.033033686,-0.433755328,
-0.396983258,-0.273953079,-0.103853235,-0.038295792,-0.240430896,
-0.052405227,0.496478590,0.265881021,-0.246569069,0.962968888,
-0.044776366,0.018379957,0.639307000,-0.510238041,0.169562126,
0.148587367,-0.225782198,1.072072742,-0.961530631,-0.703376591,
0.855558387,
0.344494972,
-0.507406549,
0.359666196,
-0.533255480,
-0.645866474,-0.340569035,-0.020558388,0.564394835,-1.905565640,
0.389105470,-0.036566907,1.788857130,-0.978459175,-1.563979493,
-0.007934937,1.200942527,-0.624850317,0.422394443,0.307565734,
-1.144122275,-0.906392598,-0.806238130,-0.648952094,-0.477995664,
-0.114967774,-0.281551527,-0.659458290,0.738942050,0.181751137,
-0.093859657,
0.881939634,
0.280337816,
-0.829144711,
0.792491350,
-0.637208199,0.352519705,-0.894660040,1.704879518,-1.112069704,
0.090608417,0.669833146,-0.451196266,0.639732460,0.314039377,
-0.591473843,-0.865339377,0.051732181,-0.368445935,-0.203408446,
-1.359268432,-0.302926623,0.986259787,1.055246594,-0.086598281,
-0.126175708,0.347390221,0.504771399,0.987423697,0.621175000,
-0.045985180,
-0.289774444,
1.010343117,
-0.144805917,
-0.263391508,
-0.558759609,-0.601444377,-0.524442764,-0.298337623,0.458626359,
1.911028000,-1.346068043,-0.563728597,-0.067482793,0.178757932,
-0.396558653,0.034452422,0.123859075,0.307496234,0.564081840,
-1.162841266,0.665206553,1.040589134,0.467804073,0.528654538,
-0.874021209,0.462855026,1.553321135,-0.581124123,-0.543533530,
-1.067512528,
1.270892899,
0.408740380,
-1.115632566,
-1.063580574,
-0.242142562,-0.226241286,-0.625889616,0.526328114,-0.047053723,
0.650846770,-0.459572557,0.527276393,0.176799566,0.364200556,
0.045779275,0.454962975,0.551861030,-1.483699327,-0.123717829,
-1.562705662,-0.025733326,-0.723468425,-1.182722337,-0.339125884,
0.476271718,-0.205444784,-1.018526603,0.812608064,-0.371194903,
1.126491317,
0.458662975,
-0.937611743,
0.511623922,
-0.343941829,
0.057020621,0.228876387,-0.345848555,-0.920046508,0.155663470,
-0.211874122,0.051792878,0.394802857,-1.727283246,0.727742030,
0.144590424,-0.707817407,-0.410176865,0.142328565,1.351968610,
-0.216901339,-0.515175091,-0.554294523,-0.869857647,-1.258301852,
-0.506467399,0.031681586,1.149202354,-0.263268589,0.367741218,
0.384590145,
0.037068310,
0.382799913,
-0.223670416,
0.281576245,
-1.207427798,0.009759521,-0.358127286,-0.169123652,-1.085580190,
-0.020678714,1.624222069,-0.072925122,0.305779832,0.531879913,
-0.059653951,1.871895056,0.328425858,-0.970071666,-0.647528874,
-0.924387328,0.400452790,0.589259241,-0.247309550,1.130445899,
-0.038402036,-1.157407820,1.290125183,1.159704778,-1.531505343,
0.098949735,
-0.501131891,
0.810663679,
-0.587483575,
-0.432190988,
0.407880274,-0.798690524,0.462536821,-0.789394903,0.427577944,
-0.406681759,-0.611517773,0.124985662,-0.196186167,-0.226674162,
0.932866908,0.958521674,0.217620730,0.097552203,0.478098046,
-1.243037290,-1.187986899,0.519073609,-0.190129794,-0.598763102,
0.617895796,0.619186026,0.452367701,0.278472172,-1.133028250,
0.815387681,
0.545350087,
1.821021315,
1.105610105,
0.824646057,
-0.264202311,0.714576315,0.258625188,0.263038767,-0.639057547,
-0.517513596,0.659888131,-1.177225786,-0.465085292,-0.125280046,
0.977903300,-0.051634220,-0.233825292,-0.719397017,-0.226744150,
0.604570166,0.807533317,-0.507434448,0.483721130,1.164902707,
0.159731498,-0.339461828,-0.213547763,0.666603512,0.875401364,
0.638594761,
-0.251978550,
-0.843933558,
-0.965343055,
-0.397668630,
1.011302208,-0.293817240,0.336699903,-0.801392143,-0.013078526,
-0.324762358,-0.532603647,0.948862863,0.395486745,-0.727591536,
-0.251462075,0.860391901,-0.875054148,-1.379813695,0.718499405,
0.636002527,1.668940197,-0.247022598,0.296390003,0.207826526,
-0.740761504,-1.025381743,-0.323127904,-1.116129805,0.208587437,
-0.723925099,
-0.052934326,
-0.076539360,
0.543203438,
0.213388673,
-1.927891038,-0.778566141,-0.601334161,-0.127282567,-0.927389880,
0.173949795,-0.060243878,-0.827962815,-0.693446518,0.385470807,
-1.694317487,-0.943759853,1.265711398,0.334270959,-0.343032990,
0.390902700,-0.075923811,0.121302095,-0.960852890,0.215802341,
-0.146118110,-1.323944284,0.798566933,0.103307288,-1.715932367,
-0.833084847,
0.261423276,
0.288107104,
0.488505680,
-0.704953861,
0.207260637,0.914941250,-0.275926695,-0.828087282,-0.805753942,
0.836173706,-0.531628414,0.597884932,0.565971756,0.662453731,
0.617062981,0.627741705,-1.117982093,0.548707096,-0.370721203,
0.532981957,0.324544261,-0.713620898,0.059423846,0.285920184,
1.166036621,0.662006363,-1.077798806,0.082812492,-2.257069998,
-1.107872805,
0.565482238,
1.175353125,
0.434788885,
-1.077255622,
0.298753223,-0.301471980,0.526895353,0.381848036,-0.319985224,
-0.980704110,0.975143656,-0.169099101,0.752111123,-1.331363747,
-0.382880215,-0.191778631,-0.841687058,-0.523913332,0.133851195,
-1.898679577,0.361760554,-0.929632312,1.308491398,0.281698274,
0.919836963,0.248138873,0.011636614,0.664894462,-0.870834176,
-0.233281992,
0.489425052,
-0.498847783,
0.159451050,
-0.413675477,
-0.845005590,-0.316421639,-1.188121593,-0.219125324,0.946644861,
0.167394177,0.214648565,0.474772171,-0.844727050,1.387516996,
-0.342595714,0.604790295,0.045695836,-0.380574752,0.046413915,
-0.367554210,0.830142614,-0.996195969,-0.948207144,0.441272306,
0.406907542,0.572564553,0.114390730,0.235028105,-0.263385127,
-0.725925417,
-0.228341701,
1.145486852,
0.462284928,
1.141530326,
0.060862627,-0.701882321,0.030337901,0.279715416,-0.412351676,
-0.270774683,-0.970626504,-0.032444905,1.098577319,0.776995009,
-0.706904966,-0.561325839,0.654698903,0.066982447,0.022715395,
-0.137977340,0.091743298,-0.080237896,-0.486625368,-0.650066241,
-0.657699168,0.365722779,-1.542829487,0.117069095,-0.562065617,
-0.343266400,
-0.890520881,
0.851355588,
0.150718487,
-0.628661021,
-0.591089217,-0.277660874,0.210117558,-0.284545471,0.151338092,
0.028986380,-0.737794715,1.118791581,0.028568345,0.619829992,
0.130528629,-0.291899281,-0.273450795,0.064992655,0.302473332,
1.196010458,0.915226312,0.026502008,0.039588400,0.681299918,
-0.095922908,-0.654077287,0.170609279,-0.349094531,-1.400399253,
-0.597663411,
-0.509627662,
0.740909511,
-0.241729350,
-0.064275526,
0.130160741,0.241535966,-1.249757536,-1.636283582,0.269687592,
-1.408678868,-0.346349347,-0.744919315,1.132800316,1.070083590,
1.571966918,0.051615558,0.171344517,0.253159109,1.251551732,
0.241479048,0.524414241,0.914815659,0.213610595,0.312057733,
-0.365374660,0.960730776,0.352119674,1.053069361,0.829664252,
-0.037317029,
-0.891113972,
-0.328979687,
-1.271361234,
-0.684823027,
0.917801039,0.474829792,-0.488049217,0.512861381,-0.974902979,
-0.282364360,0.445954917,-0.070543565,0.615554588,-0.628874420,
0.063239681,0.563943365,-0.710442343,0.004125746,-0.221540331,
1.168851390,0.174805733,-0.401179379,-0.514196731,0.506866755,
-0.671893807,0.441256865,0.708069909,0.825328415,0.545208926,
0.439120355,
0.034086317,
-1.638729077,
0.967146595,
0.389850827,
0.135222882,-0.969173504,-0.745529273,0.433112403,-0.857861983,
0.765311128,-0.584099110,0.557334120,0.021232824,0.369152358,
0.180158152,-0.708807379,0.000452049,0.242606060,-1.103096188,
0.377510887,0.622025883,0.820979296,-0.188779112,-0.199086846,
0.061904243,-0.591412334,-0.750538041,-0.086009183,0.682408230,
-0.312502744,
-0.765511265,
-0.899847186,
0.077707352,
0.049544947,
0.133782489,-0.271380906,0.151810144,-0.090106203,-1.130639293,
-0.383160640,0.188085852,-0.567345694,0.208302850,-1.229683071,
-0.262926211,-0.592705912,-0.172146215,-0.811256604,0.095334201,
-0.475643877,-1.454230295,-0.374845732,0.315504594,0.249272796,
0.275586025,-1.110713777,-0.462582517,-0.432941323,-0.215289404,
-0.357991863,
0.035634937,
0.138409658,
-0.936554397,
-0.421747289,
0.873272161,-0.326423414,-1.143968476,-2.085379701,-0.315307022,
0.000949422,0.467283444,2.867004717,1.060081735,0.423658481,
0.294373721,-0.133205798,-0.105760686,0.831981616,-0.015864039,
-0.291687554,0.692488710,-1.284740486,-0.411369865,-0.572807762,
-0.990276813,1.286148234,-0.314164633,-0.344561865,-0.288634286,
0.276198301,
0.148554027,
-0.072425181,
1.763546864,
-0.862947018,
-0.720224913,0.686087325,1.442593283,0.420826805,1.492997891,
0.199568999,-0.128493890,0.007699770,0.429048265,-1.041737148,
0.565625821,0.527075252,-2.055281777,-0.429636875,-0.016127820,
-0.077983330,0.294001360,0.500159404,-0.152277426,0.345816446,
-0.489300755,-1.353144614,0.778231682,0.176670243,-0.506920892,
0.345471038,
0.551606180,
-0.942664816,
0.252487500,
-0.490081523,
-0.348616078,-0.184899902,0.294393685,0.932472753,-0.861359323,
0.485737663,0.074800600,1.508989072,-0.266613585,0.382365781,
0.033729088,0.599448721,1.240178338,0.646263866,-0.063000863,
-0.276268706,0.319775101,0.884275176,0.147508142,0.932685087,
1.336613147,-0.368013301,0.528535728,0.899578002,0.629156450,
-1.040102087,
0.260875118,
0.499825198,
-0.171601660,
-0.214861857,
-0.515177398,-1.303940794,0.194032119,-0.149528650,-0.809259543,
0.426317240,0.448820307,0.199556696,0.456959069,1.490806817,
-0.323935926,-0.523688508,0.307414055,-0.237540843,0.236946200,
0.123190224,1.317568490,0.616527086,-0.089961808,-0.342729890,
-0.177421125,0.441446119,0.276128424,0.100443051,1.844764508,
0.410691957,
0.795513867,
0.070114347,
-1.039151103,
0.486124240,
0.556052749,-0.427440681,0.203608140,-0.873433460,1.409789498,
-0.328205005,-1.049184907,-0.563308134,2.061811978,-0.417625478,
0.262747688,-0.553195949,-0.374514493,-0.492265769,0.960126442,
0.099883858,1.240359652,-1.107761020,1.319791804,-0.188598626,
-0.731314399,1.522559175,0.089628296,-0.399352489,-0.826627615,
-0.696714662,
0.309251322,
-0.995906218,
-0.976980030,
0.037112631,
0.894840980,-0.113121194,-0.585217012,-0.692818759,1.370985470,
0.143632518,0.215454189,-0.340805966,-0.469934094,-0.403333303,
0.751409459,0.028495747,0.319472357,-0.355866057,-1.162251433,
0.144095123,-0.279441818,0.271026683,-0.934385251,0.105209874,
-1.119367600,-0.596102831,0.831631510,0.523448537,0.656533266,
0.247858277,
-0.377414935,
-0.668055756,
-1.276258286,
-0.503478330,
-0.515011722,0.119998412,0.913672138,0.421078331,-0.827430828,
-0.983571389,-1.001608354,-0.818777623,-0.159276881,0.067366742,
0.304816696,0.608513469,-0.357508962,-0.391661527,0.171703444,
0.132920579,0.452594488,0.459311840,-0.163509132,-0.293717548,
0.747509056,-0.447027449,0.086548933,-0.709900238,0.669201843,
-0.123563517,
1.058590410,
-0.577805160,
-1.198646485,
-0.486196284,
-1.213311828,0.474541944,0.486160433,-0.488401819,-0.172064547,
0.196995465,-0.170521127,0.547589845,0.709077719,-0.196647874,
0.223094005,-0.941615576,-1.315317915,0.359608529,0.108466040,
-0.344661189,0.893719655,-0.286473784,-0.639377152,0.512366429,
0.254753629,1.508265967,0.654274676,-0.043988645,-0.518468428,
-0.145591316,
-0.846281179,
-0.406741308,
1.188585561,
-0.452274048,
0.183914756,-1.463632093,-1.502495871,0.559103686,0.515246160,
-0.030124309,-0.983609615,-2.071589021,-1.196525015,-0.109174263,
-0.804243608,0.912296823,-0.365248758,0.763394726,-0.631125091,
0.778293784,0.008634551,0.339099122,0.970767131,-0.787491527,
0.568172773,-0.856074342,-1.289881474,-0.804412873,-0.119764267,
0.152807782,
-0.627448848,
-0.364497780,
0.589956795,
0.313126234,
-0.280959347,-1.124877984,0.113879143,0.989980108,0.237765881,
-0.116542519,0.854036392,-0.326017592,0.758311242,0.065373114,
-0.558723150,0.417675737,1.033192048,0.117456827,0.294921138,
0.394319547,1.041440520,0.308673614,-0.770303891,-1.430726213,
-0.276563225,0.509981419,0.002776976,0.251249201,-0.091514570,
0.026467871,
-1.290734075,
-0.795158543,
2.106723026,
0.380212633,
0.055106430,-0.086389920,-0.000653002,0.138787912,2.051624641,
1.432917760,-1.266779544,-0.841860289,0.033946974,0.662281606,
-0.225256306,-0.058912785,0.439069673,-1.012485332,-0.034677308,
1.308444598,-0.038075795,-0.152927599,0.382033561,0.018098668,
-0.323061480,0.047154839,-0.072650452,-0.649302172,0.538223227,
-0.596170146,
1.243286137,
0.447120004,
-1.049530275,
0.037362254,
-0.702464118,-0.097616198,-0.003690406,-1.267919046,-0.842593078,
-0.116437035,-0.143821637,0.913486981,-0.282055554,-0.588036804,
1.266043948,0.074445234,-0.208500991,-0.482484239,-2.008099876,
-0.347805499,-0.282270515,-0.137705475,-0.958230587,-0.540127302,
0.513464232,0.001654412,1.362023090,0.766618635,-0.727926755,
0.005211617,
0.597129232,
-1.199272489,
-0.202208080,
-0.170459954,
-0.526306508,-0.060013238,1.124725043,0.293420506,0.603827006,
-0.356117556,0.286938576,0.442354318,-1.077169475,-0.013467574,
-0.682898586,0.131004564,-1.001050132,0.897209990,-0.452336381,
0.714655093,-0.016931499,-0.187630056,-1.520316420,0.206410538,
0.023528947,-0.335530569,0.220328918,-0.585759458,-0.595533071,
-0.548988882,
0.138453093,
-0.888200951,
-0.426894280,
0.368941814,
0.344447066,-0.058888291,0.411152181,0.008415776,-0.405354396,
0.808014590,-0.080382570,0.074396275,0.281209143,-0.420697916,
-0.471062382,-1.134790214,-0.633121448,-1.075050364,0.626518454,
0.968237811,-0.631801256,-0.094123727,-0.452507716,0.517601411,
0.852795601,-0.122435029,0.571980718,-0.874419546,0.196534574,
1.220718305,
-0.749377186,
-0.041561088,
0.970488139,
0.078938929,
-0.126296827,-0.330851328,-1.346957085,0.332388300,0.816503239,
0.519491824,0.899229368,0.045927074,0.022248752,-0.676444605,
-0.605937637,-0.054675102,0.182379171,-0.297631753,-0.056106154,
1.018477681,1.345860683,-0.274635092,0.820306119,1.487608690,
-0.812354893,-0.917627630,0.396348502,1.141569443,-0.139451236,
-0.136274155,
-1.488724264,
-0.452372603,
-0.529489678,
-0.828567496,
0.860058516,-0.833685438,1.303445625,-0.785358802,0.912438581,
-0.229932364,-0.178059019,-0.123215228,-0.196857016,-0.288017833,
0.731407885,0.412144767,0.219757600,1.431424402,-0.666890027,
0.179551561,1.918331434,0.869899097,0.510976319,0.255039073,
0.345201415,-1.566705731,-0.767517966,-0.336315611,-0.186023388,
0.316882191,
-1.265687317,
0.884751845,
-0.083360456,
-1.184747166,
-0.238163404,-1.397408908,0.259996464,-0.820445929,0.273602831,
0.667145382,0.696930533,-0.659733099,-0.416835629,0.307965868,
-0.500618542,0.525353485,-0.451397969,0.275947133,-0.423016982,
-0.429006748,-1.015647524,-0.356739506,-0.675073126,-1.491842273,
0.933290661,-1.648971106,0.866109175,1.357434539,-0.649504492,
0.245929024,
-0.083036757,
0.001757359,
-0.412111064,
-0.979175428,
0.912540165,0.214981496,0.480993771,0.062691757,1.167894575,
1.199992274,-0.152369207,-0.695829106,0.391947957,0.931475510,
-0.895706288,0.149453131,-0.179836300,-0.256987867,0.930170173,
-0.185403450,1.225613395,0.260699466,0.765073337,0.187349340,
0.580821019,-0.854577479,-0.038715878,0.510844584,0.010296061,
0.518417499,
-0.855877660,
0.640462010,
-0.812143907,
0.490578621,
0.673547396,-0.640802781,-0.091012332,0.095314466,0.436578029,
-1.088167577,-0.990794825,1.358383248,0.925725126,-0.306957846,
-0.659783033,-0.348708069,-0.049690487,-0.437535182,-0.108743174,
0.265803658,-0.537212055,0.215426181,0.674952086,-0.226976140,
0.507699080,-0.634585280,0.117300455,1.522768118,-0.223594516,
0.137463857,
-0.483270458,
0.553833831,
0.192655959,
1.275107901,
-0.243252766,0.346502738,0.093526925,0.672330549,0.042368797,
0.147525544,-0.324311878,0.916142431,-0.658972377,0.128313090,
-0.069231587,-0.308486748,-0.572524227,1.189073819,-0.397721750,
0.722928009,0.981107747,-0.653740234,0.600511199,-1.836504222,
-0.647403794,0.382216302,-0.148176400,0.575576187,-0.155582973,
0.655380356,
0.766814849,
-0.318913666,
-0.591355382,
-0.680648399,
0.759240386,0.151109663,1.007994564,0.410510405,0.146778641,
-0.068173152,-1.568707754,0.370599681,0.090992263,0.063456844,
-0.714786196,-0.309625308,-0.657161075,0.684210905,0.282806542,
0.508980615,0.015603512,0.924737813,1.297411103,0.071235550,
0.599538093,0.447374784,-0.646162760,-0.349949006,0.059386295,
-0.193690694,
0.393102785,
0.104093007,
-0.190393357,
0.262818040,
1.372016450,-0.428501178,-1.445174293,0.460695951,0.193240142,
-0.029754685,-0.280976235,-0.230786042,1.193089290,-0.842675876,
0.079310638,-0.354019672,-0.499621090,0.042327508,0.270069777,
0.171334644,-0.464523082,-0.644376660,-0.556442627,-0.436212389,
0.558936635,0.592299933,0.501466840,0.070775814,0.879719638,
-0.164828422,
1.162044568,
-0.774533909,
1.441104054,
1.427584833,
-1.000860868,-0.887495554,0.538632947,1.183852074,0.661970889,
-1.125928929,-1.244335279,0.030029218,0.185150562,-0.037759667,
-0.705333965,0.010551248,-0.207304120,-0.510929052,0.190619624,
-0.773120110,-0.277144762,0.390186633,0.359881721,0.126476600,
0.592961092,-1.009276821,0.093994332,-1.355795028,-1.070103907,
-0.523340235,
0.356334796,
-0.111036905,
-0.252496024,
-1.040844648,
0.852397716,0.833853864,1.885059309,-0.088428819,0.500422004,
0.612864586,0.607232312,-0.219669497,0.745050692,-0.107603405,
-0.141961442,0.536542670,-0.082928407,0.433074313,-0.380846595,
-0.172824438,0.305796595,0.503928503,0.069786123,0.251518321,
0.323282920,0.489936551,-0.271909184,-1.272416770,-1.089061614,
-0.455906497,
0.711258223,
-0.258083937,
2.534320459,
-0.211456348,
0.416267817,-0.412974144,-0.715759081,-1.250790626,0.151908642,
-1.266488347,0.280775501,-0.293936163,-0.502477754,-0.360327955,
-0.208211357,-0.838993824,1.641494805,0.011440464,0.002093023,
-0.790872368,0.483947154,-0.197673083,0.849431774,0.253324154,
-0.990758167,-0.276692123,-0.474103260,0.690477062,0.895116094,
-0.193763151,
-1.399063613,
0.800271652,
-0.411982586,
1.442004480,
0.212698914,-0.031787637,-0.088400530,1.305197746,0.000774843,
-0.165944628,-0.316986445,0.059010800,0.691548362,-0.129653482,
-0.993099560,0.090209101,0.218767173,0.192248168,0.621837073,
-0.013218205,-0.925041978,1.081476469,-1.220914017,-1.203653078,
0.415393361,-0.162517937,-0.000911022,0.414459476,-0.146767779,
0.661509579,
0.990236492,
0.435015997,
0.315694710,
-1.712432882,
-0.559779874,1.334159672,0.154023741,0.532780844,0.094890869,
-0.051304276,0.059177913,-1.126159500,0.083104417,-0.358777132,
-0.716422834,-0.675887354,-0.384398787,-0.410054901,-0.187966223,
0.959213048,0.157419704,-1.121246891,-0.138674237,-0.040580325,
-0.312582578,1.489541569,0.003252411,1.334787314,0.771447836,
1.132424008,
0.225091625,
1.797748772,
-0.546992461,
0.657554092,
0.181117396,0.785549229,-0.737715889,0.521565004,-0.195669214,
-1.826064211,0.385238044,0.757828577,-0.173145158,-0.745712259,
-0.907468895,-0.260330936,-0.285433776,0.744298573,0.647344087,
0.092978189,0.061293183,-0.808715329,-1.519526659,0.122118791,
0.877410907,0.073185484,1.309470236,-0.019581483,0.701070510,
0.223619977,
-0.268737769,
-1.632731275,
1.314318169,
0.112986376,
-2.014392392,0.163742728,-0.124878097,-0.361608338,0.060975607,
0.784827652,0.077905564,0.151687674,1.280890589,0.252975985,
0.343109307,0.632048092,-0.243134701,0.222034783,-0.148667113,
0.458462945,-0.403315074,0.011005086,0.438878262,0.455940075,
-0.142912300,1.035195626,1.209846183,-0.395210864,0.295107169,
0.392127507,
0.870219572,
-0.889075478,
0.066104049,
0.629007171,
0.029430568,-1.037792178,0.269176243,-0.478888417,0.357162838,
0.765463533,0.577130610,-0.790332991,-0.495702009,-0.487390313,
0.858767557,-0.245722044,-1.535289557,0.605034888,-0.944630683,
-0.155667035,-0.159873814,-0.810662879,0.388344245,-0.724411899,
0.159187651,0.783845556,0.164404535,-0.368646007,-0.464922134,
-0.381252442,
0.299507128,
-1.067771415,
0.422757339,
0.863601402,
-0.931034023,-0.876122734,-0.481289673,-1.207840207,-0.066211513,
-0.499712665,0.165974906,0.404878072,0.291813915,0.045588425,
0.117459611,
0.874787890,
