// Neural Network File Format by Kyle Julian, Stanford 2016
51,2,2,35,
2,35,35,35,35,35,35,35,35,35,35,35,35,35,35,35,35,35,35,35,35,35,35,35,35,35,35,35,35,35,35,35,35,35,35,35,35,35,35,35,35,35,35,35,35,35,35,35,35,35,35,2,
0,
-10000.0,-10000.0,
10000.0,10000.0,
0.0,0.0,0.0,
1.0,1.0,1.0,
-0.058073448,0.260184305,
0.338401186,0.002899432,
0.038153895,-0.068876349,
-0.379507376,-0.385209777,
0.104908813,-0.037986192,
0.094191834,-0.082034062,
0.265714307,-0.097361564,
-0.104128732,0.139998770,
-0.104437519,-0.119979600,
0.491091313,0.085965520,
-0.113371290,0.237527341,
-0.047878217,0.181116177,
-0.318084969,-0.122152980,
-0.020165008,-0.026494500,
0.307887025,0.138366173,
0.074478409,-0.114007232,
0.095244750,-0.030902501,
-0.286621046,0.113505318,
0.325625215,0.093707119,
0.432228923,-0.273965054,
-0.131496088,-0.238824194,
-0.239939127,0.026880873,
-0.098215710,-0.096470582,
0.072013735,-0.109629960,
0.139402877,-0.120849268,
-0.064758607,-0.208323155,
-0.228581908,-0.244795133,
-0.045192533,0.197147076,
0.080775420,0.190334809,
0.135576536,0.076873532,
-0.031268270,-0.089147503,
0.350908756,0.112353615,
0.191413286,-0.239987654,
-0.112285453,-0.424058851,
0.059852762,0.158009170,
0.033311220,
0.046643396,
0.042634347,
0.009589120,
-0.033825122,
0.302824157,
-0.049683770,
0.020208684,
-0.134933016,
0.034117949,
0.061356241,
-0.048679071,
-0.091418058,
-0.054218644,
-0.179928161,
0.306264228,
0.010025453,
-0.005488571,
-0.157753609,
0.104346717,
0.226715572,
-0.156469373,
0.312111532,
0.158799776,
0.061025764,
0.234641889,
-0.077229604,
-0.363495140,
-0.046859034,
0.120978217,
0.120937672,
-0.330357696,
-0.081915653,
0.280241353,
0.167514482,
-0.408896790,-0.024857254,-0.240116617,-0.008782890,-0.347681159,0.113892872,-0.222998144,0.145457243,-0.067310690,0.022341549,-0.348311889,-0.037147334,0.107545291,0.427930015,-0.084952113,0.215500678,-0.117921955,0.092553248,-0.185665823,0.091692326,-0.315061644,0.209941643,0.087143236,0.185725221,0.022042895,0.072847055,0.340905215,0.261307237,-0.034874463,-0.104081959,0.194568513,-0.053678413,0.199631820,0.277442548,0.143281564,
-0.318795547,-0.178637216,0.189011050,0.272940213,-0.010655247,-0.439192943,-0.160169191,0.000491731,-0.062333687,0.038801270,-0.128120539,-0.171222798,-0.104979226,-0.350946563,0.075346665,0.160050659,0.196870515,0.150960812,0.168729428,0.228376329,0.171842329,-0.004910437,0.013329398,0.328276894,0.073426039,-0.013966169,0.012819918,0.044912256,0.004719356,0.067443530,-0.291242200,0.101684515,0.083224430,-0.358051946,0.271081179,
0.057844782,0.248519157,-0.225406703,-0.534462971,0.083690804,-0.021535534,0.151157941,0.113050645,0.204354908,-0.097305587,0.032175761,0.081938589,0.254039385,0.017326263,0.116210128,-0.133218778,0.249594800,-0.010743821,0.184002824,0.066328487,-0.144549296,0.054352754,-0.151543937,-0.063220876,0.020017711,-0.114895719,0.049548896,0.081185550,-0.371151020,-0.201576446,0.087442903,0.155841415,0.019548361,0.078641633,-0.030193632,
-0.043401065,0.116894526,0.283641627,-0.087305374,0.175095960,-0.279899545,0.167841564,-0.036914690,0.224063948,0.291878585,-0.005689734,0.257342627,0.040003516,-0.038001666,0.081207394,0.043791927,-0.169357178,0.097340862,0.049214467,-0.005315926,0.260324015,-0.234515385,0.375498306,0.018836912,0.015033491,-0.119878226,-0.184450070,-0.322897229,-0.106674917,0.058437708,0.319779362,-0.244991584,0.022483906,-0.012238379,0.098866286,
0.058012845,0.339593643,0.281370086,-0.078015423,-0.255377972,-0.192322928,0.216728379,0.242527219,-0.000717584,0.076739385,0.196801486,-0.399729231,-0.069061530,-0.056269535,0.152035356,0.067084524,0.157636906,0.163518675,0.307851493,0.084541047,-0.012124934,-0.325366582,0.215217479,-0.058155022,0.118600804,0.216627557,0.093711559,-0.258902991,0.113903664,-0.035015244,0.188890164,-0.245404850,-0.220940015,-0.029661748,-0.035243417,
0.053478346,-0.061594375,-0.347384549,0.212336076,-0.153191995,-0.089067843,0.203486622,0.091078821,-0.295215769,0.094564842,0.017776929,0.109414395,-0.127588588,0.196452454,-0.083505581,0.028603360,0.082491345,0.012297086,-0.063728181,-0.261590643,0.351320555,-0.228565482,0.067422545,-0.049280199,0.233931255,-0.070627894,0.003677387,-0.217338345,0.123100295,-0.236949681,-0.272403602,-0.227201416,-0.460672748,-0.055851347,-0.335013644,
-0.289259843,0.086577749,-0.162555868,0.004253089,-0.061076659,0.334879917,0.121345493,0.199528123,0.164971541,-0.101074088,0.033941232,-0.094291134,0.251150031,0.018503944,0.206441329,0.052660635,-0.130591897,-0.178438980,0.053449671,-0.054650809,0.042539134,0.209479842,0.024079913,-0.130844332,-0.146332229,-0.152874159,-0.331741262,-0.184160444,0.055727345,0.025508219,-0.027648193,0.212882609,0.062788147,-0.120741293,0.054694808,
-0.037458942,0.180398545,0.059643836,-0.094875335,0.155779501,0.102724421,0.070097851,0.003635474,0.080404093,-0.106443715,0.141640532,0.007215094,0.187846736,-0.090747365,0.022346623,-0.240958290,0.143306511,0.092612798,-0.143220007,0.000776047,0.143013797,-0.027976358,0.169443775,-0.115347805,0.069317348,-0.031436771,0.475412805,0.190231526,0.025033374,0.255348217,0.179174584,0.161295544,0.110139209,-0.207030485,0.029873706,
0.228239642,-0.123811473,0.247996559,0.169907066,-0.058920406,0.062349616,0.085590230,0.022578289,0.188597583,0.109413692,-0.394645201,0.084247683,-0.131788858,-0.113883204,-0.239825555,-0.122071353,-0.199502786,-0.271697939,-0.084151267,0.039586857,0.104630414,-0.159671488,0.227902508,-0.189507998,-0.256039749,0.115058683,-0.150588857,-0.026700779,-0.259370465,-0.010381980,0.195948304,-0.214522600,0.078680438,0.113855690,0.023893846,
0.142550353,0.087342473,-0.219594778,-0.014920329,0.165836520,-0.121956892,-0.013254015,0.097648045,0.155334916,-0.045633860,-0.158283807,-0.021608295,-0.043284706,-0.008559020,0.354316915,0.167914210,0.203729276,0.159169307,0.055089198,-0.134822948,0.185214209,-0.049742377,0.183107755,0.392521585,0.029074796,-0.020707470,-0.095254077,0.269783554,-0.189231097,-0.113036790,-0.224882156,-0.007345447,0.053694390,-0.175468151,0.208201913,
-0.017383265,0.311188136,0.092155676,0.079378175,-0.142166994,-0.068015403,-0.263627648,0.001565033,0.071823798,-0.116278125,-0.015945428,-0.053029195,0.242059272,-0.080414263,-0.085603350,0.007661596,0.073966127,0.141045394,-0.154185178,0.037424905,-0.132446321,0.283206690,0.384473498,-0.314247181,-0.270435125,0.164161818,-0.143175610,0.168627361,0.284170415,0.561679692,0.086082968,0.029980243,-0.262529344,-0.041131226,-0.036635768,
0.008333781,-0.206209034,-0.051227810,-0.046234756,-0.285138664,0.093529492,0.402425409,-0.010786595,-0.033587941,-0.108428782,-0.212134263,0.001037169,0.066861562,-0.025058927,0.151212678,-0.044456622,-0.080761501,0.248635949,0.002155197,-0.184120950,0.285281657,0.071161545,-0.229544268,-0.158606568,0.023403447,-0.142821162,0.005450306,0.038304860,-0.088380130,0.384448785,-0.143576379,0.107647938,-0.145774901,-0.037249819,0.022414861,
-0.463029192,-0.138367259,-0.143846556,-0.182890552,0.440377715,-0.183904603,-0.156554806,0.002602797,-0.075122437,-0.108376100,-0.212492726,0.020333565,0.103251501,0.187709770,-0.000452968,-0.088833174,-0.079528220,-0.422387980,0.328154146,-0.575165226,0.154811903,-0.017976614,-0.059542115,0.091152677,-0.129924788,-0.075450083,-0.167522862,-0.133126808,-0.098806424,-0.385368544,0.107303093,-0.335543668,0.012337365,-0.141143288,0.342079839,
0.283490925,-0.012000238,-0.007178607,0.276433931,-0.250942228,-0.255153542,-0.159124103,-0.003318625,0.050249938,0.004604164,-0.138288906,-0.160845230,-0.040289515,-0.180922814,-0.121157388,-0.046575954,0.120514589,-0.010295827,0.028690061,0.156754973,-0.071940393,0.083651865,0.276872060,-0.003734429,0.142162601,0.048600106,-0.194844302,-0.166856133,0.234566856,0.054805727,0.208425468,-0.109221374,0.078623465,0.197068523,0.096257353,
0.333933326,-0.192350272,-0.100024890,-0.198093902,0.111618809,-0.027629020,0.114199623,0.027855284,-0.117859183,-0.162232567,0.365611454,-0.459800324,-0.049576907,0.119804383,0.483379393,0.135755144,-0.015899263,0.049929835,0.179833827,-0.238697333,0.090788740,0.023521264,-0.085011069,0.110697620,-0.195183503,-0.136087978,-0.071925601,-0.224116741,-0.166288594,-0.283824868,-0.020547563,-0.247198170,-0.256744377,0.059760914,0.036277881,
-0.055562601,-0.231419531,-0.231684214,-0.011501842,-0.237244834,0.051632607,-0.006761955,0.028817508,-0.035050767,-0.002665125,-0.070545215,0.231424873,0.143523490,-0.149746858,0.067929252,0.185685143,0.112878471,0.002603373,0.037694769,0.183402731,0.124215972,0.164893498,-0.156887728,0.191857592,-0.134185928,-0.399160569,-0.064608715,-0.116851550,-0.306208960,0.189349420,-0.000683858,-0.054109241,-0.064469089,-0.192428004,0.303962517,
-0.205796974,-0.017864589,0.139236303,0.007672790,-0.046755607,-0.148670058,0.136721290,0.043547671,0.056310432,-0.248661772,-0.162881066,0.259830837,0.212818433,-0.047077140,0.067039225,0.017655796,-0.239280759,-0.024173949,-0.010730010,0.521957877,-0.217547596,0.045483188,-0.011900653,-0.096521458,-0.051902244,0.369190094,0.052497530,-0.057500424,-0.012348423,0.029222010,-0.016387945,0.122548357,0.249159368,-0.073179881,-0.003186746,
-0.087229127,0.065046935,-0.064770253,-0.040972260,-0.002935633,-0.127146233,0.061709134,-0.153429881,-0.097375404,-0.241536282,-0.259103324,-0.110473163,0.022765263,-0.430571685,0.182662802,0.354699947,0.105096457,0.202214346,-0.115185402,-0.106315631,0.604267208,-0.068387197,-0.117531266,0.326725784,0.029352518,0.081126626,0.353147692,0.246677166,0.286086508,-0.066916523,0.167232032,0.137822032,-0.087401590,0.276148508,0.261717953,
-0.341242852,0.000129404,0.041415375,0.174029785,-0.186751969,-0.074763231,0.012932381,-0.296323167,-0.107811530,-0.204206658,0.187156139,0.462907980,-0.090033450,0.033190725,-0.195737775,0.203668921,-0.371967238,-0.136563853,-0.236884614,-0.208385891,0.079168816,0.061004494,-0.007928068,-0.001643426,0.088183220,0.101206498,0.089388754,0.237310584,-0.061975770,-0.257113187,0.118342256,0.248269228,-0.254577316,-0.207226969,0.069554018,
0.135365890,-0.205895438,0.136316214,-0.035802209,0.180469521,-0.177132450,0.157462564,-0.037066383,-0.097657258,0.101731318,0.145113662,-0.046520433,0.366031683,-0.136088713,0.089887665,0.081808850,0.046907217,-0.198411456,0.181502558,0.073554138,-0.094070083,-0.138398396,-0.036438475,-0.202575542,-0.300922098,0.019124596,0.028758520,0.235860146,0.097508663,-0.030313748,0.021799715,-0.045570625,0.012338186,0.001060492,0.016691383,
-0.020812745,0.091047929,-0.239850456,0.202442746,0.203127392,0.114918036,0.090196669,0.049323967,0.293645966,-0.060798139,0.026106610,0.307642927,0.006298708,-0.258280104,0.064460368,-0.013475242,0.075322943,-0.037520506,-0.044535154,0.116611952,-0.099447279,0.182307647,0.060604995,-0.277759384,-0.225600139,0.065595030,0.180460095,0.285702456,-0.169680499,0.007814370,-0.077686851,0.154396140,-0.188377965,-0.060322742,-0.208624980,
-0.245274075,-0.158029130,0.429171015,-0.205233699,-0.760753952,0.169503626,-0.118212267,-0.165765447,0.292344139,-0.128979559,-0.413113336,0.159650426,-0.374797916,0.007984076,0.090507452,0.046228638,-0.036784554,-0.066890838,-0.221343690,-0.071199856,-0.040247057,0.073812548,0.143770936,0.156632684,-0.161740367,0.015040532,-0.047953496,0.186651246,0.015537679,-0.086235016,-0.241448643,0.144320984,0.064184680,0.289240522,0.161624337,
-0.078975681,-0.003396091,-0.210103404,-0.172388353,-0.112196729,0.181502886,-0.367932266,-0.037384965,0.311022820,-0.442213548,-0.001452469,-0.284066490,0.163536549,0.062202678,0.086204858,-0.006532628,-0.102549626,-0.099808935,-0.084087156,0.173170454,-0.211312092,-0.078483653,-0.146979090,-0.093261174,-0.102843799,-0.002023841,-0.265441445,-0.194680143,0.163520184,0.130842138,0.386588822,-0.111067257,0.167653678,0.026225027,0.015479423,
-0.045112540,-0.100614143,-0.109667237,0.126016203,0.082290080,0.026317465,-0.038762298,-0.032910397,-0.026187887,0.216140560,0.053622765,-0.103895800,-0.373584267,0.213035578,-0.073844375,0.052954903,0.156422033,-0.070100008,-0.102531901,-0.098747721,0.112351800,0.403469977,0.102874135,-0.175614873,-0.201952890,0.341380113,0.048589457,0.340763087,-0.205961718,-0.166634006,-0.122044712,-0.034221471,-0.060261366,-0.024439031,0.291963181,
-0.070922136,-0.184671232,0.017877120,-0.015726104,-0.090573386,-0.076673875,-0.070402883,0.069188900,-0.111630870,0.315898245,0.109666705,0.022364934,-0.245581020,0.003986866,-0.122457412,0.150064033,-0.108468790,0.007835102,-0.036756125,0.309297475,-0.192934751,-0.178502244,-0.221600540,-0.139335130,0.061855921,0.208541399,0.073665717,0.052376684,0.096667382,0.039534980,-0.063616985,-0.355083935,0.429575497,-0.127306426,-0.054733870,
0.131247077,0.186415861,-0.002817115,-0.244540201,-0.468497375,-0.284985129,-0.090964235,-0.117426913,0.093205739,0.086107242,-0.070733150,0.153271685,-0.049107650,0.163396661,-0.398574149,-0.186367345,0.258996722,0.077792250,-0.182981228,-0.171126357,0.065228790,0.165677154,0.114279207,0.211232732,-0.148295210,-0.101344507,0.258397201,0.390851431,0.112379574,-0.017442175,0.081645669,-0.005749374,-0.125464925,-0.093559782,0.272525273,
-0.149839976,0.059173560,0.193544755,0.117732284,-0.281837106,-0.180283702,-0.087546181,0.058416948,0.085842977,0.476015180,-0.110624252,0.104906760,-0.088417829,-0.080396866,0.201416526,-0.096925104,0.241399653,0.007403048,-0.085429065,0.204058860,0.184686831,0.000109039,0.101540255,0.052100502,-0.101648814,0.151275192,-0.076548733,-0.079501230,-0.035834846,0.501833176,-0.064653899,0.125656414,0.029047170,-0.256634242,0.084093662,
0.195958710,0.263028553,-0.017533096,0.309208446,0.035507619,-0.090548387,0.242228236,-0.083761697,-0.202171897,-0.031689248,-0.148078073,0.119315927,-0.198519198,-0.096296999,-0.182558229,-0.035712486,-0.050486304,-0.229596558,-0.027346077,0.047537071,-0.537757750,-0.024832261,-0.179339222,-0.196296846,0.118297895,0.027420420,0.221974893,-0.216380701,-0.231782979,-0.115773142,-0.151094586,0.074326641,-0.070130014,0.065619306,-0.216837154,
0.080338504,0.033074142,-0.126544196,-0.188599201,-0.008269454,-0.041566253,-0.140074241,0.250795632,0.353745691,0.194279904,0.351687572,-0.062024108,-0.064257591,0.012175505,-0.041563384,0.370238965,0.005761015,0.114649577,0.141747893,-0.152391445,0.014211349,0.110062723,0.199226746,-0.105929520,0.099203097,0.271279905,-0.072473571,0.069396096,-0.010073503,-0.078163984,0.298604615,-0.110322018,0.351583768,0.083939939,-0.132372512,
-0.257633065,0.117483847,0.022101085,-0.078665037,0.153728866,-0.021864660,0.063147467,-0.063633783,-0.216493590,-0.224278003,-0.105721424,0.012102365,0.209041301,0.202326913,-0.347573188,-0.084368604,-0.005748246,-0.082827477,0.139861096,0.143855800,0.111523369,-0.277766623,0.278017422,-0.056223793,0.008500645,0.091590192,0.081859807,0.352919577,0.242315717,0.364077163,-0.194207067,0.107621036,0.349058988,-0.176612276,-0.183595488,
-0.000659935,0.084501014,0.188405646,0.092858110,-0.118300103,-0.209596078,0.081603052,0.084318165,0.013580455,0.242442577,-0.135997766,0.051895503,-0.090160513,0.305485942,-0.015137568,-0.127328493,0.151918492,-0.204933297,-0.121147352,0.047888058,-0.035423457,-0.192607762,0.204646101,0.073977103,0.006654976,0.093043891,0.081616673,-0.186255016,0.055613630,-0.127009811,0.076328244,-0.069326429,-0.080828705,0.037960928,-0.218989467,
-0.331999244,0.140827606,0.240833245,0.075018755,0.052683313,0.028578445,-0.074443364,0.062594147,0.183905821,-0.011509198,-0.270875180,0.180311792,-0.265501384,-0.091463889,0.044669891,-0.085345033,-0.202720341,-0.041897261,-0.399317464,0.040711375,0.117348348,-0.088700494,0.096989690,-0.085722976,0.128086464,-0.075914426,0.096775784,0.035003385,0.395261028,0.045945833,0.089194779,-0.142158288,-0.081181351,0.056771581,0.077027360,
-0.135682506,-0.274787860,0.032457239,-0.191154233,0.002152554,0.119052864,0.024429469,-0.124112224,-0.008533824,-0.092123238,0.059395317,0.066446447,0.104980503,0.188178001,-0.184565819,-0.372307538,0.112514119,0.117302911,0.308601263,-0.045265958,0.205047514,0.230584167,0.263243309,-0.303759488,-0.451552936,-0.137334820,-0.110451807,-0.035393118,-0.366324100,0.092237411,0.429021149,-0.221661805,0.169549352,0.118404003,0.176354470,
-0.155214627,0.023196547,-0.243841548,-0.027395282,0.059705631,0.048302771,0.045378886,-0.019929883,-0.030890756,-0.259703617,0.169995354,0.048998814,-0.104515199,0.258302876,-0.216071133,-0.069780996,-0.152956135,0.118541432,0.111412620,0.016016990,-0.214421855,0.094747131,-0.148598386,-0.070812792,-0.040905191,0.194671205,0.403142799,0.094423623,-0.163577776,-0.157987831,0.339627892,-0.268388196,0.017043940,0.233492808,0.287451570,
-0.019844952,0.156774457,-0.064792477,0.321965861,-0.112390216,-0.302630262,-0.097295547,-0.361987191,-0.258475876,-0.282783844,-0.022586340,0.341574193,-0.310089967,0.000420020,0.207531101,0.066442987,-0.260950405,-0.217414730,-0.331656425,-0.019973230,-0.160419004,-0.082279806,-0.082956693,-0.086408344,0.045405448,-0.035223320,0.112315132,0.195137548,-0.006359861,-0.145874004,-0.075737871,-0.027055378,-0.034868541,0.281855727,-0.059144746,
-0.024120782,
0.303306173,
-0.273305301,
0.094979323,
-0.129397672,
-0.413719637,
0.074395677,
-0.020014958,
-0.005604597,
0.057897979,
0.052771513,
0.003021960,
-0.100388913,
0.420354780,
0.017137745,
0.038275451,
-0.047032350,
-0.142711799,
0.001414099,
0.018528818,
0.004004713,
-0.065995232,
0.173124176,
0.191937829,
-0.232560487,
0.211419245,
-0.143396946,
0.186429513,
-0.126704712,
-0.218420157,
-0.040818534,
-0.213297596,
0.113549457,
0.144165586,
0.085594672,
-0.252749364,0.018222792,-0.083870700,0.046722414,-0.016662477,0.000315665,0.428927584,0.308887084,0.083634034,0.289190262,-0.420980734,0.070630055,-0.391437620,0.098884710,0.031327868,0.019929084,-0.033430410,0.048207625,-0.078912092,-0.115622875,0.237570394,-0.117626282,-0.277998929,-0.155081581,0.158028631,-0.263152525,0.006115155,0.105835172,0.028319498,-0.037335045,-0.077242082,-0.082823076,0.228150122,-0.060658687,0.264353976,
-0.345698227,-0.090820917,0.086025139,0.175366836,-0.168055060,-0.117034475,0.361263983,-0.062655858,-0.021617341,-0.041009749,0.075310783,-0.134383290,-0.137529652,0.089329662,-0.082361271,-0.112810567,0.307400530,0.262899730,-0.181672642,0.089048044,-0.097180460,-0.464311484,-0.263058991,0.345138715,-0.072438291,-0.104693492,0.039696356,-0.296841814,-0.252103174,0.079868102,-0.286452228,-0.069732122,0.136956754,-0.171724264,-0.107062162,
-0.231012752,0.385048187,-0.101757047,-0.200106303,0.059289866,-0.336811087,-0.295019605,-0.392914683,-0.039675641,-0.133935780,0.089054494,-0.146832897,0.068245783,-0.004967332,-0.086816776,0.108863390,0.214337734,0.042170560,-0.071326758,0.058902402,0.090686117,0.231964905,0.027872250,0.028792542,0.003810342,0.018872224,-0.150479124,-0.060406157,0.197109945,-0.017383365,0.239592088,-0.066374719,0.043802380,-0.012767159,0.282852586,
-0.265395771,-0.137540436,0.014318848,0.090911090,0.166113910,0.021334896,-0.277114176,-0.064143963,0.285574685,0.499379892,0.107639412,-0.017443408,0.045017161,-0.087300232,-0.219995132,-0.014866655,-0.030364464,0.359959550,-0.152254900,-0.131389804,-0.071443837,0.102106782,0.138825097,-0.161892392,0.164824277,0.162251583,-0.098828507,0.144528754,-0.085141138,-0.076338938,-0.162994222,-0.058103807,-0.215056113,-0.070835947,-0.067781956,
0.216339963,0.335276002,0.056514103,0.122642324,0.174831996,0.010607972,-0.181199392,-0.375417774,-0.077492976,0.106792754,0.198319102,0.327233042,-0.155011008,0.104548861,-0.027622035,0.356271961,-0.107142813,0.049829462,-0.038877301,-0.050411811,0.014623556,-0.018792996,-0.087146768,-0.094326381,0.149978491,-0.449831929,0.201434568,-0.251362788,0.085300995,0.066439617,0.018209159,-0.125549319,0.123761008,-0.248558617,-0.034355317,
0.022908777,-0.033722831,0.133329705,-0.030045390,-0.258472630,-0.227666669,-0.098929702,0.001255282,-0.019360691,-0.062466382,0.264327294,-0.245335859,0.117990631,-0.284678706,-0.043001614,-0.218747860,-0.192021497,-0.124584312,0.041392002,-0.315503868,0.015464920,0.050636532,-0.094605359,-0.240632185,0.159167029,-0.273352779,-0.257503152,0.149458842,0.147055374,0.059425510,0.056185719,0.131694862,0.206500260,0.099196295,-0.077556249,
0.187051849,0.035608706,-0.140082491,-0.033894411,0.095702356,-0.237849383,-0.281457976,0.119058640,-0.180069192,0.117371388,-0.252163272,0.121650629,0.267878790,-0.031290762,0.322479103,-0.013792022,0.013532065,-0.046201907,0.132172187,-0.060980161,-0.113864332,0.053459321,-0.344474430,0.030405952,0.024673522,-0.000991589,0.038645342,0.211820845,0.080321252,0.045362320,0.202486221,0.293871457,-0.127645515,0.097946334,0.242320772,
0.110838091,0.037532114,0.150737802,0.312563250,0.122881747,0.280574333,0.064831175,-0.098474644,0.178797877,0.145580380,0.059420671,0.247448254,-0.028439923,-0.093962314,-0.076795808,-0.296995431,-0.178381329,-0.074523128,-0.423397275,-0.470119418,-0.217009853,0.075275683,-0.309826322,-0.089494437,0.297762379,0.146075936,-0.068165822,0.001529343,0.274529431,-0.243160540,-0.292526892,-0.084380432,-0.307012678,0.146793470,0.582560632,
-0.211765744,0.064886021,0.525876324,0.042832998,-0.288095527,0.093207893,-0.024829512,0.079264670,0.046871731,0.229360299,0.009898910,0.035855014,0.170600514,-0.034702074,-0.021688254,-0.029620955,0.285688016,0.235243612,0.193128255,0.132030400,0.106063481,-0.016682378,0.256861336,0.174437214,0.119145402,-0.013005482,0.172476334,0.211749120,0.174859561,0.042577550,-0.045381000,0.025997268,-0.269705107,0.139817958,-0.091738894,
-0.294198655,-0.261169990,0.098699744,0.148359767,-0.212056123,0.281681395,-0.194514152,-0.012252346,-0.197172037,0.092437012,0.064763912,-0.135601846,-0.190358990,-0.326644381,0.155145550,0.068112401,-0.197579393,-0.016125633,0.029923474,-0.038818651,0.047013932,-0.059216600,-0.050673663,-0.219843933,-0.077732495,0.306946346,0.232626475,0.055749148,0.203507903,0.197122983,0.020689689,-0.220089948,-0.099673217,0.305859471,-0.152502282,
0.349011503,0.073873330,0.027202495,-0.033635091,-0.188974345,0.361232434,-0.005013655,0.061930348,0.113836159,0.050150775,0.239119299,-0.437894716,0.067284696,0.192497798,0.321075971,0.274579550,-0.091252185,0.077723908,-0.023632215,-0.273259268,-0.487027828,0.124623674,0.045419216,-0.114603376,-0.041192214,-0.135111128,0.151296605,0.077697658,0.166100857,0.037080454,-0.156174021,-0.035077729,-0.062040170,-0.194817667,-0.084641224,
0.272088431,0.089526060,0.442479992,0.101533659,-0.057369906,-0.043627912,0.225610576,0.157098653,-0.148582347,-0.112052906,-0.025890367,-0.183035039,0.010059049,-0.059801931,-0.027094945,-0.025264177,0.268162654,0.053198224,-0.037917438,0.171996253,0.086535308,0.042953334,0.277949814,-0.008082953,-0.254639442,-0.060580091,0.026349168,0.043099295,0.026086803,-0.370355857,-0.016512262,-0.029157391,-0.335655035,0.075021685,0.072830839,
0.157240486,-0.101896289,0.100870487,-0.049702486,-0.216131565,-0.113447830,0.227292790,-0.270821865,0.112945460,-0.153553872,-0.210132494,0.297700823,0.190971866,0.115561442,0.057956886,-0.004704115,0.083757286,0.263755943,-0.060836263,-0.354093265,0.035872897,0.015413405,0.353286645,-0.042288054,-0.221309214,-0.066349408,0.194337313,-0.089262303,0.003104254,0.243394166,-0.050190238,0.115265135,0.068243744,0.207511743,-0.110122927,
0.024460010,-0.090444040,-0.262187751,0.062781851,0.015836510,0.068737941,0.056494223,0.075921463,-0.006643053,0.125910667,-0.128221450,-0.067294954,0.041122380,0.437307276,0.048357991,-0.174182590,-0.034424044,-0.072934432,0.084020068,-0.093177903,-0.055445338,0.104259967,-0.089795628,-0.197516793,-0.217039592,0.035183147,0.060944799,-0.136008963,0.261442313,-0.012739440,-0.221835398,0.100483121,-0.126544363,0.013198708,-0.448069071,
0.271050163,-0.282835021,0.169531923,-0.086719324,-0.204507507,-0.067873676,-0.121852566,0.221524920,-0.089684015,-0.137072287,0.054885701,0.057366118,0.064381214,-0.125397083,-0.188908866,-0.064930730,-0.252682697,0.548543737,-0.035656638,-0.169069255,0.178886040,-0.103720277,0.261446982,-0.153618584,-0.087444997,0.146987273,-0.363324869,0.093111904,0.101856222,0.236176786,-0.201401728,-0.125676084,0.320145357,0.181694076,-0.199608432,
-0.351964077,0.106842933,0.303886848,0.361038641,0.142820276,-0.196118816,0.151098782,0.237408893,0.072773792,0.095199464,-0.190028691,0.020488521,-0.199282596,0.264173793,0.114966886,0.294810425,-0.015897854,-0.016845025,-0.358062927,-0.193568525,-0.446844335,0.060536050,0.061481087,-0.140914042,-0.265273813,0.027031984,-0.114061042,0.159892924,0.336859527,0.083002928,-0.062494478,-0.212653156,-0.103150580,-0.105659727,0.202372239,
-0.083737899,0.277770899,-0.192998545,0.116517990,0.005504564,0.074376223,-0.230708417,-0.145229495,0.136118013,-0.285740556,0.096203485,0.094562234,-0.206094427,-0.115668495,0.038027371,0.038390505,0.062973225,-0.043437986,-0.012714286,-0.206012924,-0.001749087,0.213050415,0.192068025,-0.442330697,0.075029258,-0.102477492,0.431443574,-0.098012066,0.029188204,-0.000994816,-0.378832874,-0.134940621,0.128150352,0.142196412,0.064565654,
-0.172414936,0.077671110,0.019920787,0.225728224,-0.013607870,0.217281215,0.061799629,-0.106503449,-0.076560798,-0.003868377,0.095176303,0.128990130,-0.054859882,-0.006259774,-0.054192094,-0.211134604,0.143462155,0.062944001,0.211641563,-0.062592833,0.020103737,0.104937265,-0.203246468,-0.210638845,0.149316690,0.008239193,-0.097813695,0.135763506,-0.116689868,0.083594431,0.073756353,-0.298650669,0.369308885,0.295811773,0.220941208,
0.130994953,0.003057552,-0.246234999,-0.160333474,0.061001880,-0.106862678,-0.156480388,-0.247844096,0.069014565,-0.214318316,0.276941066,0.195412207,-0.152575570,-0.153491953,0.155002144,-0.007843325,-0.020012321,-0.008465867,-0.034980367,0.103941778,0.001904239,0.015382974,-0.052120656,-0.057138934,0.135220043,0.032042242,-0.037424801,0.093288080,0.283748838,0.121524296,0.018188960,0.023723084,-0.081573455,0.117117222,0.098866266,
0.182231414,0.133277899,0.038759482,0.107196419,0.046301314,0.199206210,0.082466304,0.086711911,0.162011984,0.080429604,-0.148991989,0.076320065,-0.003182278,-0.264627162,-0.007406085,0.172038990,-0.106600434,0.074600597,0.468344721,0.181513237,-0.154205293,0.487663996,-0.008317939,0.333441262,-0.045425068,0.036733968,0.085797333,0.064875005,0.299128522,-0.075157909,0.093884272,-0.052894242,-0.269270131,-0.028812059,-0.064517330,
-0.021252600,0.273072557,-0.078279295,0.067201712,0.021165889,-0.091218533,0.118124520,-0.191790978,-0.077088684,-0.108778772,0.209094576,0.193129641,-0.518620681,0.071838426,0.101983145,0.045605557,-0.061320683,-0.100392722,-0.033499076,-0.153075700,-0.159349625,0.038747424,-0.108334283,-0.028646857,-0.069179334,0.178251730,0.397742732,0.079981312,0.165517265,-0.251396487,-0.106074254,-0.302898032,-0.032735925,-0.035276329,0.294994805,
0.112807580,-0.240214432,0.269100400,0.237095214,-0.091434556,0.087445026,0.374055074,0.120546500,0.001066300,0.384014627,0.279251642,0.079361874,-0.042300669,-0.080937186,0.109995775,0.019343665,0.014912718,0.137776142,-0.344159141,0.117520585,-0.138082039,-0.031094321,-0.142481833,-0.263948919,0.034660732,0.604305858,0.024507484,0.091021369,-0.281197427,-0.042432080,0.428579383,0.177673097,0.160462899,-0.111189697,-0.053098119,
-0.322176962,0.011781173,0.205018248,0.184451379,-0.408796103,0.062631302,-0.069545382,0.310996409,-0.010381255,0.117899175,-0.115849626,-0.031847489,0.055544668,-0.209980731,-0.199683377,-0.307729464,-0.173591720,0.226106789,-0.014716186,-0.086550384,0.001529161,0.203394922,-0.073635523,0.008396968,-0.187833142,-0.183944173,0.081522426,0.038241464,-0.334283049,0.095488842,-0.215713817,0.257421104,-0.112699056,-0.067297092,0.162261030,
0.028277085,0.104161588,0.076530747,-0.011184198,-0.112646275,-0.071352556,-0.082934917,0.268088468,-0.008749087,-0.327185829,-0.046142030,0.134357404,0.104252742,-0.086313611,0.031496568,-0.108911882,-0.024284676,-0.181126133,-0.057378309,0.186890204,0.101615369,0.091313270,-0.082134626,0.307730646,-0.149837995,-0.199136222,-0.092235346,0.234312166,-0.003452891,0.024955357,0.207981171,0.147451917,0.035969836,-0.055619402,0.033704330,
0.064629629,0.010826720,0.027016401,-0.012047625,-0.149616958,-0.061016865,0.040447001,-0.215947613,-0.032735321,0.171337576,0.127260926,0.325305333,-0.091694209,-0.047343015,0.522563690,0.104974748,-0.133645237,0.028547197,-0.130991559,-0.049514312,0.080794833,0.000226231,0.010178129,-0.113701655,0.337761641,0.118590325,0.020160402,-0.042992942,0.188790034,-0.188839894,-0.339936977,-0.211312027,-0.157063949,-0.140629819,0.160624967,
-0.163519504,-0.359506738,0.151549634,-0.003386184,0.208047520,0.195951299,-0.108997073,-0.007425155,-0.146825121,-0.048425251,0.024539484,-0.157551902,0.266686514,-0.157991750,-0.157072674,-0.026154863,-0.002739028,-0.195729589,-0.088848351,-0.154403658,-0.024782346,-0.063030447,0.123814594,-0.192797826,-0.148336834,0.217865164,-0.052309089,0.142076626,0.322730877,-0.111417965,0.181761881,-0.273650197,-0.139927235,0.118067175,-0.238250214,
0.104238117,0.304251421,0.104335196,-0.134388988,0.221956670,0.044478996,-0.215787154,-0.177790468,-0.017561041,0.054883586,-0.104010106,-0.174390454,0.169896657,0.063966539,0.252318420,-0.022375085,0.241272190,0.047732631,0.027406180,0.032387778,-0.111020282,-0.007390595,0.265670100,0.097935282,0.204058819,0.009534489,0.228357664,-0.140729314,-0.061392673,-0.302767205,-0.105463318,0.038164746,-0.077332220,0.231193602,-0.186298904,
-0.060625830,0.082624483,-0.072700950,-0.063100141,-0.160329308,-0.008008525,-0.169646483,0.201499994,0.126703518,0.192038734,0.067296811,0.329435651,-0.055456633,0.164845756,-0.222742098,-0.365799751,0.031935058,0.443750935,0.142932322,0.051087289,-0.285062118,0.003125828,-0.025193548,0.125822645,0.171474207,-0.282128353,-0.207349527,0.027539016,-0.268877223,0.031233986,0.237262891,0.203751856,-0.092133695,-0.111029245,0.187503675,
-0.200970106,-0.294544315,-0.004822595,-0.495410273,0.005607728,-0.190764531,-0.020366339,0.178699847,-0.015280090,-0.070278405,0.036653471,0.248454236,0.118421423,-0.137161074,0.059136438,-0.031333027,0.350189095,0.134495837,0.224431165,-0.092397631,-0.006253866,0.286888348,-0.036135029,-0.332305920,0.313840800,0.124796248,-0.085879907,-0.046195022,0.094562356,-0.043180622,0.059350663,0.063315776,-0.074779568,-0.071006226,-0.154826491,
0.121429616,0.007901746,0.163414355,0.248055635,0.232866365,-0.069167754,-0.022060108,-0.428239905,0.084906313,-0.155330399,0.049066521,-0.194049015,0.182726781,0.213968488,-0.145889897,0.092516924,0.088204070,-0.094086285,0.125102710,0.062232556,0.037372283,0.098511078,-0.007174633,-0.210212632,0.300649247,-0.030737801,0.008096314,0.109620798,0.001742885,-0.141313767,-0.111032893,-0.002286600,0.009441289,0.470297125,-0.187582696,
-0.118110533,-0.084205666,0.303010701,-0.378205461,-0.099162513,-0.100518313,0.111752349,0.220543124,0.098076614,-0.268513255,-0.248685243,0.089818883,0.068907107,-0.148520494,0.104527935,-0.104490764,0.095086856,-0.234276560,-0.011086113,0.077817308,-0.036866823,-0.276866713,-0.098592835,0.026560712,0.110338465,0.044289474,-0.031188504,-0.074201969,0.205957627,0.080005573,0.032451886,0.192471763,0.126476707,-0.242676210,0.239447204,
-0.044267309,0.056121416,0.269783330,-0.294867267,0.097247674,0.283462516,0.289261377,-0.107056508,-0.103714426,0.038251814,-0.027459078,-0.135597805,0.133885065,0.108596000,-0.103898371,0.223247763,0.140089798,0.062562928,0.113316098,0.036142415,-0.116228040,-0.196338295,0.255516976,-0.148784834,-0.054144349,0.083591575,0.000028974,0.015245739,0.226086130,-0.240064186,-0.027239410,0.295754261,-0.055397307,0.251628452,-0.007278237,
0.067080557,0.093203651,0.116184684,0.144255467,0.179088862,-0.229646985,-0.156494582,0.352464225,0.004369931,0.199085068,-0.314745873,0.000182190,-0.025496848,0.360403837,-0.014943037,0.343545914,-0.099154083,-0.114526446,0.211452228,-0.093267181,0.152314244,-0.168224479,-0.205885370,-0.055609339,-0.583954960,0.205480091,-0.083282019,-0.030856317,-0.046268280,-0.280128615,0.375941308,-0.254951953,0.135768003,0.085165565,-0.178807625,
-0.242153136,-0.002282956,0.100377316,0.093358002,0.159033266,-0.310929197,-0.071376742,-0.230562356,-0.291020214,0.175001957,-0.099574426,-0.235363699,-0.094087268,-0.015547602,0.251008877,0.004199202,-0.001020252,0.020846525,0.139992827,-0.014581441,-0.131338890,0.471425463,0.463669439,0.446062027,0.238932176,-0.079154139,-0.191305580,0.284990012,-0.137359741,-0.168195942,0.014553152,-0.229193598,0.349607057,-0.013358358,-0.098753972,
-0.182205477,0.104792894,-0.263208450,0.042178518,-0.117707074,0.228886811,0.120302903,-0.155725964,-0.029672523,-0.285596183,-0.056175337,-0.047958808,-0.163900080,0.149454506,0.355058304,0.241824509,0.004142962,-0.058373402,-0.084995249,0.108326450,0.212528992,-0.157973408,-0.171051471,-0.108499965,0.014081324,0.107447326,-0.191385603,0.105125985,0.208797489,0.323220947,-0.031085177,-0.102200486,-0.237515984,0.024295990,0.172656001,
0.085497085,
-0.200803315,
-0.469707464,
0.096394189,
0.066612607,
-0.085806095,
-0.027141108,
-0.033971971,
0.084863958,
-0.491649214,
0.000211319,
0.072009609,
0.268591980,
-0.264960684,
0.233313815,
-0.333427896,
0.180195058,
0.150176441,
-0.094745727,
-0.287778616,
-0.198872595,
0.420175834,
0.174768228,
0.118324015,
-0.119879322,
-0.058148681,
-0.007229389,
-0.048008161,
-0.372451670,
-0.280575807,
0.176591896,
0.267030313,
0.081113239,
-0.014428982,
0.203759367,
-0.278712215,0.146893008,-0.274055037,-0.163437003,-0.009636661,-0.049024465,0.010754308,-0.083453634,-0.168277310,0.026237899,0.024302004,-0.117278972,-0.008934572,-0.001950693,-0.139215857,-0.083373324,0.117431248,0.148332041,-0.118354906,-0.120206645,0.101073370,0.014456189,0.185621980,0.052647035,0.048668860,0.038131383,0.300144414,-0.095128356,0.043148748,-0.193345108,-0.186856543,0.188475548,0.128157125,-0.220660427,-0.059298338,
0.239933682,-0.338209099,0.207475634,0.170988000,-0.047599827,0.019027789,0.394311407,-0.121785662,0.354280519,0.141100774,-0.072261674,0.066189300,-0.082434520,0.138697235,0.198470174,-0.028074597,0.119755754,0.014645458,-0.043714004,0.274610526,-0.005629645,0.034014625,0.206814241,-0.049909444,-0.371469966,-0.095788591,-0.106965147,-0.130619486,-0.343794525,-0.148927338,-0.195119081,0.204963836,-0.264304777,0.052291717,0.276159898,
-0.137585529,-0.080671572,-0.156040230,0.029486292,-0.123349838,0.161775506,0.169424457,-0.003377711,-0.097067803,0.221730218,0.064179889,-0.198286243,-0.159575668,0.131782818,0.350981408,0.287179270,0.039614269,0.084998242,-0.040397619,0.089182081,-0.068309441,-0.235341602,-0.117362865,0.116582809,-0.084628682,0.131257231,-0.189685487,0.142021242,0.051495267,0.151502974,-0.343305733,-0.213964156,-0.164178526,-0.002724908,-0.110296382,
-0.125977762,0.108092297,-0.098280833,-0.249110815,-0.036470027,0.082175500,-0.159753690,0.140454447,-0.052409731,-0.103614795,-0.053828677,-0.236651698,-0.336524486,0.193160824,-0.009753911,-0.039078129,0.202076450,-0.150635084,0.296215616,-0.147759345,0.034493829,-0.082848984,0.159364184,-0.165397329,0.047668359,-0.101787731,-0.393721476,0.272263219,0.099856350,0.126572442,0.427099292,-0.187007016,0.058626551,0.093727336,-0.062377806,
-0.113967410,-0.212647039,-0.262182142,0.178311205,0.097665069,-0.192236541,0.203940498,-0.251015615,-0.095784136,0.013276682,0.136038463,-0.229385557,-0.130845682,0.129919415,-0.061937782,-0.192308627,-0.038352906,0.423459220,0.150445746,-0.080369128,-0.200921840,-0.261565999,-0.212046714,-0.077302691,-0.103971922,-0.131322880,-0.156622555,0.109309386,-0.262191398,0.152306098,0.026611793,-0.407241073,-0.084458518,0.097612969,-0.106819065,
0.049704467,-0.174945314,0.004069259,-0.186957948,0.042299121,-0.147748260,-0.293516279,0.323546216,-0.044200258,-0.081829436,-0.098451653,0.106841993,0.522363483,0.023150769,0.382414305,-0.037648312,0.088521375,0.145464850,0.305117799,0.032649149,-0.219990457,-0.010611832,-0.027123875,0.002847498,0.103908177,0.106762598,0.097466104,0.127439206,0.159474386,0.074835392,-0.001132981,-0.004067273,0.252686289,-0.173175633,0.104891389,
-0.043858117,-0.014929557,-0.177672481,-0.145316333,0.020721630,-0.148846737,0.193760630,-0.605218634,-0.261513231,-0.342431833,-0.062448177,-0.304929297,-0.071255280,-0.043856008,0.046546928,-0.161515812,-0.129797949,-0.339219190,0.133512911,-0.172849947,-0.252434213,-0.083556266,-0.296080961,-0.161513633,0.147595846,0.187008013,0.163416257,-0.500431139,-0.058306679,0.026492420,-0.282375556,-0.158307254,0.042481838,-0.082156996,0.539823611,
-0.020665595,-0.015758010,-0.211080469,0.062754590,0.104057023,-0.187197414,0.163395882,0.070792970,0.321163050,-0.138302811,-0.094649768,0.140936959,-0.284424133,-0.165996999,0.106570465,0.304905735,0.230715176,0.053978820,-0.012087734,-0.325011707,0.076406657,-0.103072007,0.302032860,-0.046826201,0.117976597,-0.181011084,-0.137464495,0.040877864,0.177608464,-0.029465531,0.234903160,-0.254361181,0.382023639,-0.264600708,-0.132590458,
0.228839922,0.087297472,0.197017178,-0.124873908,0.270017300,0.042887056,-0.043656583,-0.081230790,0.261958767,0.270229778,-0.265437009,0.069494598,0.005927889,-0.058966548,-0.093056492,-0.504511646,-0.158047840,0.025592825,-0.069743093,-0.128130905,0.213280950,0.067713146,-0.281101238,0.006399568,0.123517197,-0.378503328,-0.071815435,0.037483366,0.035066935,-0.202976630,0.101343132,0.017998857,0.040137558,-0.249288385,-0.069485750,
-0.175181168,-0.090608252,0.197541139,0.102125431,0.091441244,0.140453625,-0.244473991,-0.077227617,-0.018244177,-0.173138749,-0.034904529,0.276445458,-0.289168777,-0.045859985,0.018874608,0.042304959,0.099872497,0.056323332,-0.115602164,-0.102190847,-0.100559942,0.062729706,0.176625365,-0.108630866,-0.212997325,-0.021449861,0.323913828,0.063065608,0.221933766,0.143264731,-0.162624051,-0.107813704,-0.244027841,0.283817448,-0.241434340,
-0.132996200,0.132522405,-0.328984163,0.271814271,0.041447962,0.116528665,-0.292083108,-0.235587176,0.141249541,0.129540445,-0.361564521,-0.210586129,-0.117518669,0.256305657,0.027084877,-0.076058660,0.365836269,-0.047110483,-0.201779152,0.096002372,-0.130336237,-0.130301389,0.023926053,-0.185022809,-0.046394047,0.254984575,-0.211650363,-0.031527730,-0.089542412,0.027832059,0.071198963,0.141527436,0.106650234,-0.263199742,-0.004438046,
-0.137173950,-0.327307060,-0.005578522,-0.204644008,-0.144339068,-0.284581106,0.028508832,-0.258840252,-0.003374023,0.245511792,0.340129384,-0.068869552,0.110891139,0.051569893,-0.119066917,-0.038162451,0.327847878,0.528616003,-0.078633659,-0.018766761,0.009704506,0.026681480,0.150810705,0.192609395,-0.108661164,0.216398055,-0.323039776,-0.249306044,0.002837467,0.094759807,-0.129149417,0.218596033,0.199801554,0.395109281,-0.176057136,
-0.147498444,-0.056970528,-0.073695732,-0.204750448,-0.194193535,0.087672184,0.002082997,0.108882175,-0.232400998,-0.171468620,-0.195526358,0.165099869,-0.081582060,-0.371277102,0.058051659,-0.118570534,0.149301271,-0.052549941,-0.280042596,-0.097978987,0.070427972,-0.312686278,0.231013310,0.141204771,-0.194284573,0.242200447,-0.056616716,-0.173500566,0.131013363,-0.036754272,-0.013835805,-0.041630937,0.240944509,0.140686105,-0.147944380,
-0.020565290,0.200113862,0.165959467,-0.144244971,0.141101106,-0.046000350,0.092935899,0.063176517,0.082494245,0.031098392,0.283175704,0.288651452,0.129500989,0.094226697,-0.017574966,0.104255818,0.031240266,0.163948694,-0.097138577,-0.173803389,0.140983564,-0.075990902,0.008919237,-0.011888147,0.212656823,0.237876295,-0.088281115,0.098718806,-0.335488663,0.264269917,0.031246446,-0.434664218,-0.038020648,-0.049568160,-0.173403434,
0.042192020,-0.100129804,-0.239740207,-0.113911346,-0.353287262,0.203426332,-0.023141409,0.039722526,-0.079352895,0.031033078,0.007132283,0.168072249,0.142316703,0.397756387,0.191087504,-0.009725638,-0.047914822,-0.121915300,-0.039846536,-0.128493710,-0.290610953,0.027890713,0.252068254,0.110751788,-0.007988681,-0.025283397,0.459198703,0.044610177,-0.036054110,0.168823812,-0.033432358,0.075173741,0.004297190,0.043491188,-0.359902592,
-0.148233743,-0.017172334,0.092019841,-0.181644368,-0.257822573,-0.142506924,-0.080336199,0.037863911,-0.155964035,0.185626691,0.011911951,-0.079507943,0.081283705,-0.514870011,0.023155035,0.077091626,0.463224191,0.050713720,-0.134332470,-0.015440291,0.151020356,-0.487229593,-0.091137403,-0.017810610,-0.132157005,-0.095884312,-0.341229942,-0.565737531,0.353642416,-0.100179422,0.162092113,0.080530303,0.237401462,0.094003177,-0.010618144,
0.082081439,0.438120568,0.121045161,0.025341374,0.042768833,0.123474108,0.136234371,-0.127154471,0.108360082,0.003208856,0.081963936,-0.341179173,-0.160491805,0.119563200,-0.130157297,0.006585313,-0.316541547,-0.154923901,-0.053417499,-0.111960475,-0.152201164,-0.118484520,0.355272936,-0.279838210,-0.164592732,0.539578878,0.024768659,-0.287681845,0.043741807,-0.036481333,0.279951232,-0.160502100,0.158048088,0.021307690,0.008187029,
-0.005758066,-0.349225089,0.204844889,0.242143159,0.055448927,0.245674780,-0.004626993,0.149394236,-0.034789585,0.169643668,-0.028461168,-0.516143683,-0.275449808,0.249258421,-0.021965689,0.133603657,-0.058978581,0.231162456,-0.075352354,0.064941035,-0.043030795,-0.131238582,0.117183051,0.108865277,-0.227511459,-0.055977936,-0.130621689,-0.025566876,-0.308325294,-0.183551670,-0.096700767,-0.078786260,-0.140575518,-0.017249815,0.101763152,
-0.175995246,0.136980687,-0.227578515,0.067872064,-0.149577488,0.255652320,-0.275158774,0.224204648,-0.065807255,0.003620299,0.061780031,-0.000067839,0.163319692,0.369938425,-0.002679268,-0.282839860,-0.113927718,-0.084876116,-0.154289987,-0.233420647,-0.060298615,-0.147530473,0.057021581,0.079470035,-0.167199161,0.121018840,-0.036380128,0.087927264,-0.018926400,-0.090923092,-0.232987425,-0.111003252,-0.104327143,0.175455848,0.023179066,
0.063420620,-0.039085399,-0.003641501,-0.139278507,-0.189831615,-0.006652046,0.121441556,0.109653128,-0.279422560,-0.036559244,-0.212537347,0.167307055,0.151332567,0.159070415,0.127586124,-0.109614191,0.173914554,-0.220359675,-0.127336598,-0.006427010,-0.310697559,-0.066294919,-0.053464036,0.118833918,-0.128025281,-0.248783997,-0.268516547,0.078884721,0.284831054,-0.162332037,0.182296528,-0.019227421,-0.054538664,-0.143755997,-0.050469331,
-0.033283502,0.005355968,-0.122329189,0.047091970,-0.251178025,0.081859884,0.021514540,0.223981251,-0.018737919,-0.294234775,-0.028482337,-0.019046055,-0.050367012,0.155242532,0.041916671,-0.027544824,-0.019936016,-0.319311788,-0.018402320,0.019409373,0.049146034,-0.485144925,-0.007555249,0.236735047,0.032157786,0.151914041,0.049849806,0.045238402,-0.121284283,0.142843889,-0.336593094,0.286173643,0.026856349,-0.040461151,-0.016093550,
0.025088853,0.239728772,0.022869905,-0.066714459,0.139229734,0.052238578,-0.266914684,0.163881515,-0.048870556,-0.015081567,0.210432395,-0.346753189,0.274504245,-0.290259438,0.094604562,-0.159142659,0.194170927,0.200480105,0.083823693,0.120722976,-0.315135226,0.153868565,0.109984491,-0.142901764,0.132956536,0.253224565,0.399562788,-0.118584919,0.123442867,0.102671110,-0.124848704,0.150398518,-0.064821615,-0.050636943,0.302438815,
0.143270297,-0.274040755,-0.025173032,-0.166179525,0.105061396,-0.171374719,0.103550081,-0.258213768,-0.135423351,-0.128380557,0.076005907,0.235033411,-0.042112868,-0.028909819,-0.388864431,0.027487552,-0.083116566,0.097742250,0.126703706,-0.091493212,0.455462685,0.170293307,0.085288029,0.082750850,0.077686160,0.167155610,-0.146207157,-0.039199879,0.316616534,0.335972813,0.112979114,0.108398518,-0.073988862,0.198250253,-0.287334078,
-0.120474509,-0.101713062,0.016643759,-0.243197859,0.178570567,0.136752611,-0.153312931,0.330874101,-0.234906948,0.160267008,0.217124040,0.171481430,0.196490510,-0.030053162,0.136424616,-0.103515473,0.092006265,-0.162167599,0.037411339,-0.150311235,0.136611840,0.067496791,0.009644615,-0.255718318,-0.115462084,-0.006702426,0.233751973,-0.209300550,-0.163467425,-0.062147779,-0.158606723,0.280760076,0.017737330,0.372882543,0.241731496,
0.053321200,-0.010171150,-0.016597919,-0.023205697,0.195514444,-0.139782799,-0.087812372,-0.103227376,0.038917316,0.059726723,-0.204537715,0.139817078,0.255042310,-0.118303817,-0.171079361,0.199025254,-0.042310873,0.015367038,0.054005026,0.058482480,0.120153804,-0.386833316,0.111886162,0.154959047,0.070125985,0.130904581,0.120134958,-0.185799128,0.453814864,-0.078897455,0.069911715,-0.085356643,0.092438902,0.121993175,-0.183972856,
0.022221177,0.217612326,-0.242599557,0.482679363,-0.244995749,0.028699181,0.438960107,-0.074516381,-0.236997784,-0.378430276,0.330701320,0.127081395,-0.090535802,0.467940821,-0.076240051,-0.080206746,0.034599313,-0.088296551,-0.038195916,-0.003953339,-0.249905523,0.218616807,0.150814766,-0.141541953,0.036114073,-0.176011323,0.048420773,0.024211139,0.108267819,0.346590709,0.003491009,0.035906227,0.199615205,-0.237310045,0.244063827,
0.045548111,-0.255422761,0.124743514,0.022911002,-0.024084621,0.059023503,0.044713276,-0.120461485,0.125826992,-0.115684369,0.078233569,-0.292000075,0.171698937,0.454094332,0.096785397,0.191140864,0.039843089,0.194057456,0.124329660,0.276852549,0.147291429,-0.214500478,0.009907283,0.265682603,0.086701550,0.221011642,-0.321732605,-0.133273255,-0.143536643,0.059523762,-0.129246029,-0.239565713,-0.106014277,-0.154547582,0.396944214,
0.134001352,-0.008624043,-0.118891761,-0.170044542,0.057823780,-0.175386534,-0.044357406,0.000180310,-0.054421803,-0.047859807,0.122279105,-0.172958180,-0.057471071,0.405117799,0.384684568,0.130546563,0.144345963,-0.154537801,0.068506691,0.168621862,0.115354181,0.155557892,-0.140442892,0.180412806,-0.388748146,0.087913207,-0.139301355,-0.105680769,0.033069970,0.252999874,0.011367336,0.310001780,-0.232680384,0.092505627,0.315496275,
-0.121676178,-0.003228691,0.276235732,-0.209444100,0.128604634,-0.114116984,0.416605069,-0.103717310,0.111203678,-0.232231113,-0.014386102,0.218350371,-0.285120254,-0.080947670,-0.134814990,0.024887004,-0.048103066,0.038733667,0.211397759,-0.002821007,-0.117837789,-0.233843554,0.449991839,0.064556045,0.310894519,0.140932362,0.193085783,-0.353528517,-0.187181202,-0.143882231,-0.065510728,-0.106545720,0.170408910,-0.164979345,0.058180195,
0.055841155,0.036948580,0.057228133,0.108302638,-0.094416610,-0.124781043,-0.175786971,-0.017011932,0.296911391,-0.069940059,0.142109339,-0.119332898,0.113634426,0.214131522,0.289611904,0.001539927,0.209977384,0.020004149,-0.032599140,0.126282594,-0.036831996,-0.080627720,0.013835540,0.201038036,-0.113540027,-0.079447828,0.435339636,0.026323934,0.078698813,-0.139484210,0.254117562,0.190395889,0.144830280,-0.371573139,-0.074900117,
-0.271476062,-0.091756240,-0.055301667,0.199920009,0.098828381,-0.234826660,-0.060713370,0.110511902,0.034218464,0.016536074,-0.306035571,-0.030542963,0.101518052,0.029267882,0.006919226,0.125856330,0.164770800,-0.265443655,-0.015933359,0.175740315,-0.081760281,0.047520151,0.115096580,-0.065620951,0.022485625,-0.038321718,0.064055989,-0.043336106,-0.121472497,0.193883382,-0.010359030,0.016048514,-0.075359315,0.137542083,-0.018187323,
0.136419181,0.008236178,0.249651753,-0.232025871,-0.262743720,0.291637344,-0.042171277,-0.031924871,0.097662435,0.270008174,0.021983815,-0.063181378,0.138790972,0.077119168,0.197042914,-0.147220340,-0.228445483,-0.127473360,0.206809438,-0.180469172,-0.002421326,0.351105167,0.118282368,0.054706032,0.045108355,-0.001535035,-0.014960001,0.172828240,0.032515392,-0.132642941,-0.132306036,0.092509718,0.195749644,-0.019089502,0.344711836,
-0.263951002,-0.320951004,-0.201514623,0.019305496,-0.213774612,-0.042812104,-0.133138993,-0.185028901,0.043478164,-0.271610925,0.158930104,0.090593003,0.102420624,-0.291684525,0.054532438,0.089275034,0.121186769,0.340977802,0.202511724,-0.029695627,0.094706292,0.126345498,0.037437110,-0.136179333,0.200191967,0.199473659,0.285672157,0.035914308,-0.205429637,0.002126013,-0.228227095,-0.318930305,0.252463830,0.173109104,-0.277391586,
-0.017788342,-0.035048711,-0.142279218,0.276349817,-0.538957070,0.082887973,-0.260278296,-0.125286209,-0.041689514,0.262538594,0.198724498,-0.230061374,-0.091524599,-0.004863285,0.136256741,0.170929795,0.054626049,0.045055212,-0.156492373,-0.085426477,-0.015220665,-0.303890333,-0.195662522,-0.145740732,0.024345918,0.295447760,-0.266842711,0.249681640,-0.036815303,-0.349530232,-0.068240261,0.159259797,0.014761866,-0.050325238,0.068049949,
-0.168364780,-0.299612310,-0.105246310,-0.260055427,0.230073780,0.392125556,0.216882093,-0.197632782,-0.230520550,0.192609434,-0.060873677,0.022009089,0.151607128,0.132564102,-0.097225869,-0.039923128,0.016943210,0.008456955,0.056603610,0.345102399,0.033887728,0.134032359,-0.060082506,-0.137561545,-0.153278270,-0.028767653,-0.236322730,-0.033178791,0.070318061,-0.226636919,-0.038623909,-0.034051060,-0.145694011,-0.092359284,-0.051024939,
0.097918631,
-0.000711820,
-0.278817315,
-0.052950104,
0.061080285,
-0.316913621,
0.191374573,
0.191698227,
-0.111336761,
-0.041351019,
0.241551391,
0.000545479,
0.041762441,
-0.049499338,
-0.245054654,
-0.097541710,
-0.170835391,
-0.217008387,
-0.058948602,
0.073370084,
-0.068570180,
0.109955193,
0.070077858,
0.211094773,
0.221677310,
0.211353084,
-0.072513198,
-0.240072911,
0.166573211,
0.154483989,
-0.262930652,
-0.140134569,
-0.080438039,
0.230225568,
0.434968799,
0.314084187,0.347530348,0.285760482,-0.046681025,0.106658765,0.058660460,0.012206587,-0.130167510,-0.343367470,0.083209436,-0.011892499,-0.028024801,0.044010026,0.397265680,0.059981867,-0.208920129,0.047893018,0.262220904,-0.066175903,-0.289843614,0.068227730,-0.095036082,-0.129927850,0.122751134,0.014261208,-0.198894256,-0.051325196,0.029202984,0.054761418,0.105343663,-0.155954891,0.010798810,0.478488716,-0.240914876,-0.124795687,
-0.214744097,0.253536377,-0.026802385,-0.189761635,0.075458282,-0.110614124,-0.124142531,-0.093110017,-0.220548763,-0.177902744,0.235540486,-0.074833666,0.033477179,-0.128451919,-0.200279831,0.260279616,0.005330225,-0.057235351,0.128855028,0.201106835,-0.018085343,-0.000188092,-0.088727989,-0.207498190,-0.348126993,0.038552835,-0.131506694,0.021718467,-0.241040567,-0.139702866,-0.190504557,0.185237204,-0.074509035,0.108084708,0.164029509,
0.071597932,0.314790886,-0.120523471,-0.378289645,-0.108537972,-0.174632684,-0.039252140,0.099451731,0.317692589,0.166113820,0.249924963,0.092429612,-0.146404045,0.024730432,-0.347057143,0.235442952,-0.096614788,0.181371403,0.184619017,0.057841907,-0.039964285,-0.046489756,0.003176052,0.328982025,0.022519339,0.147763269,-0.158714519,0.016372980,0.343377270,-0.022507558,-0.013118714,0.012549574,0.061683949,0.254930161,-0.038658316,
-0.020531311,0.261186178,0.057490579,-0.177900983,0.069781559,-0.144343942,-0.141859509,0.007935831,0.010883540,-0.003629944,0.261012824,0.071843725,-0.054385153,-0.183466015,-0.132128349,-0.218588508,-0.174536267,0.092571510,-0.259935670,0.354763820,-0.054700081,-0.038545816,0.018757892,-0.153289358,0.130383122,-0.064304592,-0.522898247,0.097422661,-0.064065578,-0.425206469,0.003990794,-0.006080547,0.143140385,0.168113263,-0.161447461,
0.083845036,-0.294737247,-0.151951494,-0.024898010,-0.023450894,-0.137260934,-0.019444728,-0.250214946,-0.095026729,0.160846527,-0.094768407,-0.183234612,0.126470528,-0.093517364,0.037583036,-0.221801911,0.207452732,0.173662823,-0.162125224,-0.191008019,-0.109028197,0.169324892,-0.054990312,-0.204593718,0.013225475,-0.154515252,0.039263918,-0.181436183,0.028567681,-0.537195321,-0.127886568,-0.229144378,-0.024218981,-0.040486332,-0.090477311,
-0.008032357,0.157724057,0.024907633,-0.210468559,-0.077697495,-0.012377804,0.198835128,-0.268796718,0.146835047,0.130442749,-0.141108612,-0.311833232,-0.115152172,-0.288821975,-0.056041450,0.286236729,0.003076825,-0.201899541,0.331485416,0.185712772,-0.122010472,0.082955386,0.153614515,0.134699550,0.120686814,-0.165944708,0.311373074,-0.069699503,0.044421687,-0.193147854,-0.173604567,-0.035748916,-0.244846626,0.024428128,0.152689358,
-0.208807053,-0.371201329,0.009235281,0.214280272,-0.035392920,0.023398534,0.014306335,-0.067958380,0.113905042,0.150803077,-0.237496524,0.036221140,0.024327081,-0.096463822,0.025310105,0.116239898,-0.107640576,0.242196956,0.146070630,-0.232168757,0.417597839,0.139893775,-0.134099697,0.132539962,-0.161164911,0.073621301,-0.149510025,-0.163267474,0.162636926,0.253911884,0.148006231,0.115371052,0.020801506,0.196958892,0.272758251,
-0.116133291,-0.136631980,0.057131091,0.296826024,0.280095436,0.011818974,0.435513369,0.084116969,-0.278881795,-0.172676471,-0.006530371,-0.029841347,-0.012634134,0.287787427,-0.027523110,-0.194869170,0.208292032,0.075724903,-0.287241929,-0.432525634,-0.131072723,-0.139883910,0.135179302,0.147700645,0.015259391,-0.003492398,0.194872464,-0.161667193,0.345665349,-0.102529669,0.087261005,0.212498816,-0.373737622,0.365554815,0.118080656,
0.006127377,0.080664932,0.260185952,-0.044119454,0.014763465,-0.224561026,0.056361734,0.217486259,-0.346701830,0.121070702,-0.218050993,0.172728698,-0.030324386,-0.180294016,0.022349232,0.053839742,0.084902321,0.015119393,-0.070555829,-0.039795019,-0.162377875,0.106400868,-0.089919291,-0.027271373,-0.003015965,-0.066488913,0.250111670,-0.111734364,0.127956190,0.046563076,-0.118330487,0.043550489,0.327715416,-0.234139017,0.189760448,
-0.084005854,-0.218530748,0.022432924,-0.107071198,0.259016860,0.109243625,0.211544213,0.106245581,-0.163225869,-0.149065683,0.145474865,-0.138035883,-0.009458631,-0.008943752,0.066572582,-0.196775858,0.115780834,-0.185167178,-0.119041311,0.063206912,0.029104508,0.028359947,0.144829191,-0.088180945,-0.000341166,0.091182063,0.092211901,0.285933445,0.137810567,-0.113170889,0.124727741,-0.184038052,-0.060616605,0.016206555,-0.132786413,
0.037109927,0.082164767,-0.116639372,0.043395148,-0.075271674,-0.028250366,0.060900609,-0.185395474,0.077454424,-0.146636399,0.403661660,-0.153019130,0.210149633,-0.174795771,-0.007101616,0.320752645,-0.310309894,0.034832799,-0.155223682,0.021922800,-0.178153544,-0.129938778,0.179196699,0.217565243,-0.413760240,0.108907751,0.274940377,0.097407795,0.206079374,0.110006889,0.202559513,-0.500103999,0.063839303,-0.084958792,0.058231921,
-0.111110152,0.410723978,0.100993385,-0.041108372,0.022028038,-0.094578370,-0.245803239,0.264258042,-0.131594833,-0.115289261,0.306836387,-0.202386443,-0.085558756,-0.013480213,0.202362889,0.170830114,0.087552638,-0.186387236,0.085035075,0.083664452,0.078745506,0.129246997,0.042072537,-0.081253566,-0.292345817,0.139202026,0.039949806,0.016272849,0.038980258,0.135582159,0.071106685,-0.202192047,-0.342114217,0.392395641,-0.091545909,
-0.180376262,0.173273788,0.078497568,-0.124207868,0.357600258,-0.182572667,-0.079100024,0.109238423,-0.560461460,-0.125981560,-0.240048214,-0.131233850,-0.334084057,0.075694097,0.134060215,0.029193933,-0.188216638,0.194535067,-0.148381457,-0.135845939,-0.382726245,0.075454973,0.037096365,0.036387801,0.320110715,-0.334557487,0.101719671,-0.043202007,0.104599569,0.416729273,-0.073119351,0.002682437,0.118264329,-0.252632315,-0.131714136,
-0.147620977,0.166371701,0.341933681,-0.088620322,0.281935289,0.387750669,-0.144864566,-0.138296657,0.400363545,0.122842101,0.280047560,-0.219828693,0.211322541,0.315574473,-0.029135909,-0.091735849,-0.459458073,0.088177787,-0.051265092,0.048185904,0.082096740,-0.132746725,-0.172093327,-0.186292294,0.132289188,0.088539903,0.326866299,-0.124347656,-0.221734787,-0.321836657,0.065138654,0.146245375,0.229858194,0.081796039,0.210621479,
-0.076955924,0.259788122,-0.382748770,0.248853404,0.061417097,0.076241541,0.101838813,0.070055779,0.389007125,-0.152644630,-0.174162251,0.127198968,0.103955941,-0.080334938,0.343643921,0.104351068,0.149564323,0.128065508,0.007993867,-0.152270926,-0.065308424,-0.142173239,-0.147353746,-0.163513359,-0.247430840,-0.347872574,-0.024505050,0.222614527,-0.142425048,-0.100963625,-0.259712307,0.244509844,0.053482677,0.088774075,-0.144793744,
-0.069251854,0.150280846,0.048042338,-0.015303896,-0.212897241,0.361438909,-0.312511497,0.211193811,0.185990835,-0.347147393,-0.084103722,0.043285413,-0.004093074,0.236055911,-0.140897782,0.033280103,-0.082025741,-0.187097249,0.376729863,-0.132784247,-0.146012943,-0.116352911,0.283219278,-0.005827020,0.043691377,-0.097996346,-0.322969311,-0.114158252,0.169485090,-0.131736502,0.108958544,-0.069952199,-0.130474743,-0.297198007,0.146258213,
0.021743571,0.181846276,-0.083778342,-0.138739173,0.102409687,-0.107858192,0.079658248,0.085826793,0.333022913,-0.065158665,-0.162600088,-0.100225987,0.087864926,-0.024400102,0.082290616,0.156979737,0.052293512,0.095434956,0.071310846,-0.163352004,0.063631780,-0.204493706,-0.370815849,0.101357385,0.248381449,-0.024972997,-0.090568857,-0.212904787,0.190970092,-0.293414046,-0.158212602,-0.244381600,0.158667057,0.027545774,-0.265300774,
0.010804316,0.154607230,0.029542679,0.254973477,0.324321847,0.224580347,0.007808316,-0.055720397,-0.022755844,0.067529235,0.165697613,0.029822692,-0.146963293,-0.136681441,-0.095982407,0.064092425,-0.053277254,0.090145482,-0.066028475,0.102509913,-0.022658447,-0.100756277,-0.305831093,0.052737829,-0.448215443,0.026345784,-0.163083986,0.022153451,-0.249704786,0.070201492,-0.082005433,-0.213733911,0.160590801,0.149266560,-0.022344470,
0.315482997,-0.031894942,-0.107111283,-0.282802788,0.204472775,0.189056134,0.302490044,-0.022405038,0.064356137,-0.101830386,0.221603169,0.095536544,-0.245736781,0.052648526,-0.035212144,0.193846037,-0.002029709,0.052648850,-0.086072669,-0.091773932,-0.112541906,0.289236605,-0.016955332,-0.081414066,-0.358908097,0.090150433,0.044706927,-0.019220568,-0.126686667,0.361296628,-0.041767717,0.043997622,0.057755456,-0.156902617,0.296842552,
0.188177124,-0.240274593,-0.101679378,-0.353356433,0.030017027,-0.189123406,-0.068654441,-0.241090639,-0.265869125,-0.102615262,0.270978448,-0.037233822,0.063193057,0.053097523,0.058206026,0.122729286,-0.337648866,0.212217337,0.282369419,0.026378194,-0.217070040,0.144181494,0.011929160,0.132666958,0.032608518,-0.119148228,-0.017804155,-0.153994045,0.112542747,0.078165859,-0.387849811,0.000904588,0.062698862,-0.079967402,0.279511920,
-0.230147145,-0.136690568,-0.153388666,0.148403580,0.041453707,-0.127523085,-0.121725602,0.292747893,0.026508629,0.103409038,0.371559402,0.013730818,-0.083651915,0.172584368,-0.021513427,0.000456530,0.091295230,0.169224905,-0.099135267,0.275351512,0.088673921,-0.057177385,-0.016264710,-0.211440050,0.127379649,0.026262038,-0.061712139,-0.222352877,-0.084866820,0.049477765,-0.137016924,0.031264945,0.260952854,-0.355610801,-0.190090423,
-0.154392629,0.203068876,-0.199356035,-0.022288214,0.175845082,0.108550790,0.153969276,0.088457355,-0.030518599,-0.073407999,-0.022221132,0.051576059,-0.112474326,0.199361494,0.061268291,-0.222819112,0.399145189,-0.215124695,0.237209282,-0.090082393,-0.002523591,-0.083981694,0.033993983,0.158275158,-0.207477247,-0.003081238,-0.027343696,-0.082611557,-0.009814225,-0.155853491,-0.025474356,-0.020699926,-0.186429595,0.143062216,-0.162104138,
-0.099159817,-0.034275884,0.050909679,0.123730752,0.047629898,0.114486595,0.010303533,-0.348381260,0.000291416,0.168711500,0.035131640,-0.350807167,-0.253305051,0.466631749,-0.039681012,0.045673006,-0.037454329,-0.021675343,0.074009839,-0.119561736,0.006460652,-0.037543540,0.140503490,-0.026417280,0.047611098,0.035717653,0.145305119,-0.055582149,-0.078580532,0.118531070,0.168195090,0.276024247,-0.102948887,0.150446030,-0.181486635,
-0.017473509,-0.403366412,-0.044973248,-0.168273214,0.487696518,-0.241959893,-0.040674289,0.030428505,-0.360913925,0.134795917,-0.248434689,0.199767693,0.186740001,0.139283430,-0.304734182,-0.362883910,0.089470163,0.134343079,0.009507231,-0.017650708,-0.209386128,-0.078922893,-0.303521424,0.143070424,-0.379704966,0.084946246,-0.035801400,-0.008716012,-0.097373108,0.193143571,-0.208086806,-0.011929154,0.085140349,0.128716824,0.007272270,
0.030911313,-0.082623344,0.175890024,-0.373222347,0.271688710,-0.017983117,-0.052928599,-0.249322763,0.145862671,0.067802289,0.303357390,-0.079753575,0.097598198,-0.107272355,0.026463891,0.198647178,0.105268008,0.059827145,0.208331486,0.095147647,-0.209408624,0.001240947,0.192056456,-0.174429518,-0.063086604,0.058885062,-0.073393706,0.391367661,0.044885974,0.090747489,0.080642187,0.112170470,0.228785518,0.071353944,0.057266348,
-0.120694679,-0.034517765,0.139443865,-0.009997182,-0.053723121,-0.075195575,0.042782254,-0.012154427,0.039427496,0.390892479,-0.014654350,0.311189473,0.150269986,-0.268220947,0.147289407,0.096551077,0.087794879,-0.048181424,0.180827910,-0.039363718,-0.079530678,-0.012375471,-0.062091844,-0.089092449,-0.058933716,0.021789840,0.433743485,-0.101191502,0.135407419,-0.226556114,-0.227579797,-0.006234434,-0.176377628,0.083149621,0.017319326,
-0.161055192,-0.071664037,0.024452559,0.072813850,-0.074291005,-0.047360134,0.138335132,0.077407002,0.189535225,0.062158460,-0.059989753,-0.461791820,0.226092833,0.170379770,-0.217141194,0.067354756,0.257550730,0.060478373,-0.231919894,0.342369889,-0.152145539,-0.016572230,-0.161692088,0.352255633,0.066683200,-0.069654712,-0.137555598,0.077089782,-0.261309044,0.275476275,-0.043515525,0.061959155,0.070346142,0.151539681,0.033663361,
-0.181502575,-0.210549139,0.127057407,-0.036568250,-0.087643553,0.251574873,-0.153075123,-0.060708480,-0.030314423,-0.110372790,-0.152427745,-0.339002972,-0.083047245,-0.103797900,0.024580482,-0.044846554,0.217982635,-0.205968128,0.011281189,-0.233240393,-0.274875396,-0.047786363,-0.121011794,0.057055448,0.319792956,-0.067519079,0.292269360,-0.141354537,-0.049722369,-0.086791814,0.229504517,-0.140087698,-0.235246032,0.047804343,-0.074728930,
-0.157490303,-0.132454680,-0.543322478,0.217943102,0.193808764,0.141404312,0.016379591,-0.304682911,0.136179409,0.157758079,0.115394617,0.308263232,0.055846711,0.450699936,-0.000113022,-0.181131190,-0.055847863,-0.002967832,0.096413975,-0.318519260,0.071537570,-0.406939196,0.040054071,0.091141439,0.065720067,-0.045335310,-0.286567793,0.271760290,0.203053832,-0.132350001,-0.108362962,0.070383509,-0.142635168,0.324897962,0.250708691,
0.354371517,-0.161323257,0.110020257,0.144747131,-0.152993795,0.162963842,-0.092607063,-0.078754533,-0.084903998,0.262476984,-0.234060059,0.128276198,0.056158850,0.152875945,0.321648596,-0.178645858,-0.465204446,-0.136756377,-0.124877199,0.024206751,0.107421094,-0.041378613,-0.355028876,0.082585610,0.243382865,0.462789413,0.054140885,0.030074816,0.222754834,0.350839312,-0.168413674,-0.376452802,-0.018982082,0.039175369,-0.196885135,
-0.326487218,-0.169067080,-0.006248911,-0.174858704,0.075924139,0.235765832,-0.031527124,0.178737600,0.092032465,0.265958829,-0.180339477,-0.240505027,0.073342695,0.268387929,0.283094313,0.007873633,0.035062801,-0.002646429,0.086009737,0.039674013,-0.067714216,0.349728288,-0.257268191,0.230447259,-0.126829357,0.254734864,-0.174991769,0.182876463,0.170875359,-0.149954088,-0.163293645,0.167102973,-0.273478373,0.066978028,-0.171315322,
0.109272175,-0.051550921,0.055385140,-0.064528975,-0.180736832,-0.433555781,0.027994909,-0.336956444,-0.051009783,-0.257970582,-0.050400949,-0.178077067,0.621448045,0.126134342,-0.434010492,-0.031309329,0.252017659,-0.110082985,-0.064699489,-0.039376114,-0.090562934,0.479037292,0.287732211,-0.086202418,0.003439577,0.065004861,0.107564882,-0.036209141,-0.102810845,0.350736716,-0.193433550,0.030714150,0.285849979,0.289138964,-0.093147636,
0.201305646,-0.305233694,0.125660163,-0.079796871,0.095934280,0.086413960,0.116621547,0.200229001,-0.020297754,-0.125094782,-0.055956396,-0.273424530,-0.016079756,0.221179080,0.018872281,0.137835761,0.086602170,-0.170224785,-0.210757465,-0.074407764,-0.322388948,0.058977427,0.120035288,0.033365547,0.113827780,-0.027274946,0.134311651,-0.256434581,0.577109072,0.294790637,-0.173323324,-0.008254842,0.225709683,0.025633779,-0.376841640,
0.059682039,-0.023518281,0.050645295,-0.087395742,-0.120351056,0.303963900,0.174511542,0.198538709,0.276811768,-0.231727609,0.039042870,0.060756302,0.022608495,0.029177344,-0.179631421,-0.316925422,0.325457005,-0.219482859,-0.026918745,0.064177034,0.121128836,0.074887614,0.045217625,-0.255392406,0.236304621,0.439509138,0.243638334,-0.025880461,0.101824161,-0.055651678,-0.055404415,0.072788154,-0.108204114,-0.336148337,-0.137203081,
0.153217615,0.138685499,0.038475485,-0.316196046,0.147381222,0.073794152,-0.130221433,-0.027489351,-0.125586165,-0.141608733,0.310376145,-0.003482845,0.026004339,-0.031731152,-0.125954623,0.087393990,0.241918769,-0.233586192,-0.009000271,0.025567048,0.337934667,0.111917055,-0.010465195,0.179151310,0.160658884,0.080915662,0.037135339,-0.168164354,0.053891785,0.078186755,-0.008514469,0.195196266,0.062239931,0.021929920,0.101393961,
-0.216694425,
0.118529641,
0.158039114,
0.154808118,
-0.008942232,
0.026408386,
-0.057065499,
0.145016204,
0.169937883,
-0.006809718,
0.255185229,
0.359332175,
-0.052718072,
0.008457646,
0.303785311,
-0.183993368,
-0.142231706,
-0.048307947,
-0.257979601,
-0.166539236,
-0.109220019,
-0.128542032,
0.031737524,
0.193687217,
0.221371958,
-0.139633199,
0.337045685,
-0.226145948,
0.099789610,
-0.199573782,
-0.003472095,
-0.040278070,
0.052536941,
0.202961064,
-0.120660974,
0.054470339,-0.183653711,0.033943806,0.180722470,0.171718474,0.279454507,0.119914732,0.281208622,0.156574125,-0.022563401,-0.061462232,0.052192931,-0.011068834,-0.115034655,-0.219507661,-0.175743977,0.154484795,0.021756540,0.011602847,0.065922541,-0.012374156,-0.029453290,-0.140526943,-0.017135587,0.165262545,0.031038238,0.110257614,-0.130325551,-0.112581732,0.070220035,-0.103264563,0.292027596,0.142620185,0.020228448,-0.137080808,
0.022560752,-0.109804425,-0.032927065,0.210436566,-0.169718016,-0.053569052,-0.193901471,0.214149033,0.167885376,0.159530936,-0.012910845,0.288396030,0.203532591,0.171550701,0.203850161,0.112945466,0.237971592,0.288557977,-0.197411985,0.631731734,0.058014208,0.001127451,-0.203937685,0.122931139,-0.206028369,-0.017275072,0.018439294,-0.049668483,-0.332316449,0.274302236,-0.030690036,-0.073634054,-0.123018048,0.040339268,0.193592906,
0.069536889,0.025136294,-0.214937172,0.001415807,-0.454191795,0.033798068,0.282062109,-0.092467453,-0.198545167,-0.269236136,-0.108354456,-0.114438045,0.087204597,-0.071547652,-0.534651941,-0.148655329,-0.147025912,-0.073683529,0.137892432,0.118443249,0.007893402,0.039487486,-0.043202318,-0.149274838,-0.169376973,0.054682590,0.029441238,0.245047334,-0.146658220,-0.123830632,-0.344103749,-0.134976042,0.280992727,0.198421790,0.313826403,
-0.185329899,0.003630532,-0.214823071,-0.226196084,-0.069852063,0.194404699,0.047870471,-0.225107158,0.055098759,0.059108215,-0.261990715,-0.278248860,0.134955116,0.074050090,-0.287116242,-0.107456873,0.099607632,-0.185031159,-0.324037309,0.190801164,0.296601443,0.155947611,-0.255908340,0.049828878,-0.270569695,-0.041832507,0.301405105,0.050238322,-0.298113554,-0.193527473,-0.092780817,-0.117208638,0.275436793,-0.044996379,-0.016991274,
-0.319078746,0.051166024,-0.043489162,-0.052338057,0.145184275,-0.193222974,-0.040615209,0.152937171,0.389531387,0.310585619,0.045838022,-0.165265806,0.217940554,-0.157784957,0.085900151,0.336021483,0.136851624,-0.198948694,-0.026923494,0.196457100,0.054225518,-0.335641784,0.094941646,0.061428201,-0.166640380,0.208319103,-0.138451484,-0.246128344,0.115655860,0.290135678,0.213252243,-0.117867294,0.023114235,0.153280088,0.092845324,
0.020355258,0.029089174,-0.256727884,0.175935708,-0.231742103,0.177521775,-0.475266220,-0.031085188,0.160206836,0.129082664,-0.187596093,-0.082396557,0.061966936,0.141251299,-0.243661285,-0.015586419,-0.167712875,-0.093585058,-0.006789988,-0.013402424,-0.085979191,-0.315103160,0.042298083,-0.170864401,-0.016487365,-0.128811791,0.070941974,0.110952753,-0.117208948,-0.040054315,0.088008890,-0.023733659,-0.417066119,0.290273457,-0.128475892,
-0.291248866,0.058646024,0.003075989,-0.221625350,-0.188619121,0.277036005,0.069873437,0.147605204,-0.165566727,0.244647918,-0.114633532,0.246642977,0.091780287,-0.081380284,0.074014278,0.124943522,0.117140543,-0.332325785,-0.145943125,0.247714844,0.012538092,-0.134843074,-0.221149407,-0.064035346,0.009241396,-0.191421527,0.226618003,-0.068109499,-0.106103424,-0.176387513,-0.272218041,0.029100816,0.281892677,0.085312390,-0.123474601,
0.167661076,0.096543750,-0.148468790,0.148384784,-0.275654678,-0.000786380,0.161294277,0.085684489,0.163025309,0.087310845,-0.204096560,0.210664117,0.439605871,0.031840843,0.203647619,-0.054633643,0.238803819,0.054671753,0.181955048,-0.119884500,0.076752308,-0.127982504,0.140277522,0.084231984,0.234373126,-0.225493715,0.126058391,0.207701628,-0.114476999,0.121545388,-0.077751882,0.044790817,-0.272946926,-0.018609940,-0.298509148,
-0.109995499,-0.199578474,0.024837670,-0.329885190,0.234641466,0.064640166,0.302666456,0.027548540,-0.096442813,-0.112313821,-0.220893612,-0.165078583,0.313841903,-0.103032123,-0.123969503,0.066166933,-0.103979500,0.186475307,-0.248718265,0.013136677,0.035659643,-0.091207292,-0.054009671,-0.035450363,0.126404622,-0.125487485,0.160991829,0.473904663,0.012519136,-0.021557392,0.191282080,0.217330235,-0.162248184,0.221317229,-0.285977696,
0.191393314,0.051329980,-0.264261419,-0.321215901,-0.166911085,-0.047928447,0.177344186,-0.237546600,-0.156481070,0.055043627,0.100290108,0.144042013,0.067958317,0.323030172,-0.143882480,0.177782712,-0.221931325,-0.033204430,-0.006264138,0.065019788,0.099998385,0.053768712,0.224159695,-0.026667677,0.088847547,0.366529137,0.133429237,-0.176785897,-0.107768497,-0.008772113,0.037218388,0.337851393,0.158179906,-0.079907247,-0.029226504,
0.098235121,-0.159107943,-0.106389954,0.051186376,0.048450495,-0.164725637,-0.070460334,-0.288650714,0.071784391,-0.274795249,0.233073728,-0.069562373,0.071581824,0.465091187,-0.188367874,0.330370942,0.182245887,-0.324663529,0.220050046,-0.170910505,-0.182019120,-0.049882253,-0.286777762,0.009321368,0.238026237,0.144806776,0.279723300,-0.094351338,0.088774119,0.102253047,0.179444522,0.077678252,-0.032587909,-0.202045031,-0.114282491,
-0.220029563,-0.349181405,0.111688295,0.088695560,0.010809589,0.285297329,0.188064746,0.230571793,0.168447066,0.180751605,-0.173679053,-0.058686786,-0.289549805,0.150865481,-0.056888528,0.009355814,-0.359717194,0.110403713,0.191799104,-0.129424092,-0.081585236,-0.136088874,0.095107530,-0.067773229,0.150145412,0.170495344,0.033836532,-0.068428194,0.171841494,0.035394304,0.300659729,-0.085367019,-0.062681925,0.105396999,-0.069015814,
0.140840794,0.117966869,-0.111347487,0.181290049,0.237399406,-0.124819459,0.147262019,-0.072895314,-0.108736842,0.118561168,-0.087517982,-0.198279429,-0.200934939,0.001442103,-0.338814455,0.132000211,0.054058647,0.169777600,0.096901581,-0.092805810,-0.012466412,-0.131683860,-0.075245494,0.017754922,-0.203618120,-0.101193463,-0.090850017,0.150892957,0.224526499,-0.016407202,-0.275335464,0.042251790,0.304016035,-0.242718738,-0.203517883,
-0.115243984,-0.003362404,0.080844962,0.196992962,0.080916531,-0.046963616,-0.013352458,0.101619976,0.092877700,0.088287627,0.256260683,0.070589266,-0.293958211,-0.164646529,0.066580795,0.124535645,0.010287414,0.111194956,-0.144983372,-0.114434838,-0.017525116,0.159852077,0.063443752,-0.134261350,-0.297962689,0.325690253,-0.058215768,0.041548505,0.452326010,0.011590634,0.038775793,-0.070478615,0.111684659,-0.079122451,0.146838094,
-0.127113093,-0.133260810,-0.387159638,0.040688971,0.126544371,-0.030258043,-0.364848261,0.084701453,-0.407843862,0.068659922,-0.075862833,-0.175348199,0.095986784,0.044265858,0.089766532,0.160287546,0.020355714,0.155316534,0.050393457,-0.135589435,0.146518074,0.003253469,0.035898563,0.136972461,0.083545912,0.045024918,0.100910683,-0.084908229,0.051872689,-0.097598773,-0.120466673,0.324836207,0.196726797,-0.057495192,-0.279796943,
-0.009030276,-0.016202417,-0.153387584,0.010380148,0.064838244,-0.071686307,0.009105514,0.067630629,-0.065827475,-0.424151205,-0.008281187,-0.132246488,0.052573129,0.172745932,0.225023148,0.127025753,0.399772635,-0.161148385,-0.150501387,-0.110387010,-0.206035361,-0.010232590,-0.058043570,0.012602098,0.003834242,0.218949785,0.256826802,0.136000664,0.075097706,-0.182289374,0.125486460,0.152887993,0.140466182,-0.245663914,0.290036623,
0.024283762,-0.091368735,-0.112538915,0.254991896,-0.264406097,-0.067084502,-0.172105331,0.053323262,-0.344556406,0.090139508,0.070805988,-0.094963664,0.228171732,0.131614494,-0.052086333,0.067271001,0.044000685,0.114766855,0.464510332,0.149071363,0.070067600,0.240931152,0.241726061,-0.000661282,-0.055943761,0.185600532,-0.154183648,-0.068993864,-0.029046368,-0.042852410,-0.045720588,-0.123002668,0.083896788,-0.277301370,0.110001033,
-0.130054241,-0.122068055,-0.167344384,0.403903145,0.063963816,-0.165540149,0.188578875,-0.208814676,0.297254666,-0.020539886,0.176075981,-0.074778827,-0.282293234,0.102881133,0.054090827,0.036804880,-0.021767797,-0.176364912,-0.036543416,0.174269649,0.085407308,0.262095904,-0.069125686,-0.012916559,-0.222613647,0.010041132,0.190896770,-0.181315927,-0.041027239,0.494499292,-0.161352725,0.039958202,0.393984252,0.006289819,-0.098570142,
0.285739330,0.081038721,0.058679398,0.101008103,-0.062361429,0.396998387,0.003487882,-0.193350798,-0.144502000,-0.232135739,0.060946511,0.069443147,-0.073446379,-0.171246502,0.325254046,0.109363259,-0.233143537,0.054011066,-0.329829301,0.310280894,-0.001045175,0.084544507,-0.085446890,-0.451086285,-0.122543301,-0.142039196,0.191223961,0.210570816,-0.318194101,-0.234376444,0.081664850,-0.021661870,-0.092401698,0.059328186,-0.019788949,
-0.058816332,0.070048138,-0.000347427,-0.164479431,-0.086783148,0.255786420,0.174252847,-0.024570535,0.094600008,0.110859669,0.059349320,0.235228626,0.380557125,-0.111066134,0.161068588,0.050914497,-0.288443909,0.264354551,-0.117899364,-0.065276712,-0.315878126,0.193826166,0.264754315,-0.049035247,-0.274792339,0.188169098,0.058621742,0.336530804,-0.184510673,0.068031376,-0.068142252,0.312107793,0.042597469,-0.166742975,0.072029512,
-0.084658403,-0.161989661,-0.089999962,-0.047164410,0.428451858,-0.533240669,0.080462741,0.105171556,0.289343191,0.149583795,-0.064080837,-0.076131750,0.132226904,-0.166683317,-0.326204161,-0.113430690,0.007590558,0.251078572,-0.146410648,0.331936057,0.019218163,-0.054703220,0.016391449,-0.022173509,-0.316577016,-0.232313392,-0.155268575,-0.187518136,0.029475540,-0.191177958,0.032210859,0.323560075,0.159720903,0.021743953,0.277883829,
0.221196246,-0.025754875,0.140178587,0.020687710,0.061293080,-0.032162162,0.026968436,-0.015623144,0.390787023,-0.196275842,0.120667913,0.272798145,-0.032256389,0.314320268,-0.306656075,-0.076961428,0.068402241,0.054649330,0.063444388,-0.002025785,0.100447683,-0.097132698,0.206954290,0.145270461,-0.160018522,-0.126589789,-0.177397990,-0.089306568,0.246609354,0.112833354,-0.006008880,0.195161525,-0.054155369,-0.310462971,0.105161255,
-0.096390970,0.000935148,-0.042325759,0.104505692,0.215347689,0.102110190,-0.108761652,-0.378745828,0.090751063,0.228406120,-0.028753393,0.173243584,0.288071957,-0.060558342,-0.043566537,0.172105092,0.106321891,0.110004552,-0.033881202,0.222389108,-0.147314047,-0.159016358,0.079488978,0.088342880,0.296530464,0.342802929,-0.123650468,-0.091026992,-0.339151286,-0.316285723,-0.233002954,-0.144233574,-0.364090729,-0.057400119,0.175739261,
-0.178250413,0.040352318,-0.180592955,0.213183902,-0.029420609,0.225965554,-0.127551605,0.033549072,-0.157794800,0.196229564,0.085113376,0.006174215,0.161906897,0.044734849,-0.174688337,0.064292105,0.234885599,0.025667355,0.097790437,-0.305199965,0.245182464,-0.052388362,0.020011291,0.086236471,-0.263311776,0.299877232,0.011933367,-0.106651261,-0.217637520,0.222382382,0.283126873,-0.280938230,0.170139676,-0.045772718,-0.129043558,
-0.313049270,0.261960334,-0.015659281,0.206922232,0.211719125,-0.176684902,0.034210007,0.104473443,0.214276339,0.125025072,0.431649603,-0.081776144,-0.226971777,0.155955522,0.261130169,0.040648373,0.389132112,0.053354620,-0.434979552,0.070341117,0.019898866,-0.182457675,0.168530750,-0.141198196,-0.032687970,-0.288527187,-0.068230715,0.268960474,-0.189306714,0.078391970,0.365518244,-0.325993954,0.168825300,0.117704713,0.074569428,
0.036635887,-0.171291282,0.217233330,-0.137353212,0.111482059,-0.095820752,-0.191170444,-0.157301081,0.012081872,-0.399090718,0.039132188,0.012329802,0.118683809,-0.072896903,0.331527334,-0.219938298,0.027594275,-0.152552699,-0.317168956,-0.007176366,-0.000208493,0.135196847,-0.057578498,-0.207480810,0.022653275,-0.028517791,0.232370044,0.239619478,0.027808293,-0.135542326,0.168807335,-0.011429159,0.114832043,-0.064301833,0.166361185,
0.165193377,-0.184224437,0.137810192,0.332647184,0.163316615,-0.143062348,-0.372899126,0.069257301,0.130967266,0.002842064,0.015030593,-0.235644916,-0.160151028,0.065161472,-0.087407209,-0.231294502,-0.181214928,0.013114080,-0.105503359,0.045185699,-0.000560021,0.131899273,0.676375390,-0.099372331,-0.032394610,0.212021202,0.084657155,0.212232862,0.139479207,-0.140448127,-0.077385932,0.308915140,0.089718584,-0.169247589,0.086752483,
-0.336344541,0.051970605,0.214541536,0.308711445,-0.154417330,0.054843447,0.017143023,0.207122963,0.162868869,-0.327262328,0.138818962,-0.213076460,0.157795004,-0.025204501,-0.034990710,0.060400892,0.295422209,-0.164462720,0.027296620,-0.160884791,-0.043477417,0.137923495,0.027672240,-0.008074437,-0.105101716,0.052983639,0.059705407,0.043849718,0.112044994,0.201387661,-0.201715209,0.228814990,-0.142113513,-0.075781051,0.205530639,
0.397785905,-0.140543769,0.039455810,0.334448171,0.291926995,0.141402649,-0.131166819,0.011198547,0.031146930,0.157388458,0.028502881,0.048941611,0.302938798,-0.187659881,0.188668302,0.253156479,-0.022588342,-0.202255520,0.039694651,-0.217732943,-0.109516851,-0.087292318,-0.023765988,0.038117972,0.006879526,-0.180781879,-0.144235400,0.097142455,0.082182779,0.431544419,0.175600612,-0.112780025,0.144197800,-0.040108111,-0.193827976,
-0.030492034,0.093616618,-0.057171475,-0.208485553,-0.049614712,-0.127401160,0.125879758,0.090242852,-0.034961450,-0.164888704,-0.267914391,-0.119292425,0.136406755,-0.322281282,-0.080376993,0.124080908,0.153967517,-0.241601258,-0.147237922,-0.402126178,0.099854259,-0.339905208,-0.032345915,0.212258355,-0.197747533,0.069434430,0.024098045,0.117946121,0.003559453,0.369752471,0.111854479,-0.067628346,-0.230652734,-0.045942906,0.389313897,
0.368310599,0.390280677,0.350548238,0.212101457,0.159894137,-0.168174739,0.153889414,-0.231799736,-0.165947671,-0.199580448,-0.134344047,0.248735874,0.198867517,-0.033797888,-0.208967977,-0.274990233,0.177562575,0.169118937,-0.191831873,-0.176709997,0.010874887,0.214081824,-0.157235868,-0.208940550,0.064134806,0.298423028,-0.158723649,0.194105292,-0.099619314,-0.156373703,0.008738805,-0.062906669,0.161497911,-0.006602793,0.132814810,
-0.249644364,0.113147096,0.332976529,0.352577961,-0.083331131,0.001671644,-0.149123872,0.112794055,0.070199026,-0.132791719,0.061782059,0.098223697,0.030602540,-0.062450151,0.049469043,-0.015597090,-0.100453645,-0.322208316,0.089898945,0.158787070,0.174744299,-0.023658056,0.143131203,0.122316660,0.159825453,-0.228844320,-0.197221587,-0.030633857,0.000516485,-0.205769424,0.089335143,0.015696224,0.033138925,0.010571520,0.153218707,
0.167688346,0.014214040,0.015833347,0.080516265,-0.149956902,0.007309553,-0.014557566,0.040903841,-0.226922047,0.118118015,0.020433850,0.139134901,-0.239093428,0.058914268,0.004717494,0.138926746,0.157428512,0.137193508,0.248955241,0.151388324,-0.103513663,0.025366620,0.065750291,-0.036275634,-0.067936596,-0.033093483,0.216623313,0.015382982,-0.025344477,-0.005838938,-0.217848324,-0.229799884,0.012919055,-0.194538455,0.002972866,
0.196683616,0.008825605,-0.135288547,0.264856441,0.010987056,0.236231107,-0.183139435,-0.102851895,-0.230134589,-0.128529472,0.162721292,0.091983128,0.017949807,-0.163707222,0.131963842,-0.148052256,-0.228200501,-0.017280362,0.060994563,0.061561219,0.134358638,0.031740911,0.025196247,0.037350970,0.046277468,0.089305583,-0.126774538,0.208749438,0.151316763,-0.030424467,-0.188154933,-0.033775562,-0.046800695,0.042331505,0.348885033,
0.282203950,-0.169670652,-0.127801847,0.191320966,0.094578549,0.117138183,0.202126725,0.309189715,-0.171447680,0.174494917,-0.037401678,-0.038737037,-0.224977089,-0.030767359,0.024148838,0.067063347,-0.155291991,-0.254474244,-0.114960771,0.005047479,-0.048738989,-0.206843214,0.294201300,-0.276200643,0.002519445,-0.175571106,-0.395219285,0.263974891,0.073358603,-0.201073640,0.174321982,0.070812048,0.064073762,0.002173643,0.214242752,
0.034836019,
0.038737769,
-0.333953280,
-0.224532049,
0.263700023,
0.098644272,
0.097825088,
0.128923551,
-0.023641706,
0.126789338,
0.004289410,
-0.212819960,
-0.109762832,
0.122193687,
0.099723748,
-0.078680789,
-0.034027104,
-0.141571398,
0.142051149,
0.048336980,
-0.044916037,
0.236976017,
0.075311211,
0.236610357,
0.069371512,
0.104478957,
-0.079075206,
-0.587527571,
-0.085924294,
0.075779323,
0.079528084,
0.092987953,
-0.081043994,
0.158090895,
-0.255698792,
0.152903524,0.286021436,-0.403149358,-0.100325918,0.089028572,0.002002015,-0.086537466,-0.071390902,-0.019423646,0.157856159,0.317549237,0.140130061,0.117508497,0.123889395,0.286825240,0.153992216,-0.146558049,-0.099443943,0.190157607,0.152859130,-0.000098107,-0.267401582,-0.027079127,0.214043975,-0.134624800,-0.047372068,-0.030444662,-0.017082235,0.065927927,0.325226336,-0.191509030,-0.049128513,0.057160118,0.353153217,0.271701138,
0.205501819,-0.124429393,-0.140413810,-0.055975351,-0.059630743,0.272852924,0.156356104,0.102306640,-0.170739184,-0.148434034,0.207464160,0.037637480,-0.088583171,-0.066856738,0.280252085,0.291790817,-0.033764765,-0.243931286,0.024040364,0.224586831,-0.255572966,-0.394630608,-0.395614088,-0.103928928,-0.262972648,0.174918645,-0.274701182,0.060623284,0.020852053,0.152415749,0.026588381,-0.098092415,-0.139780190,-0.018273103,-0.183237827,
-0.006031402,-0.218806167,-0.160938750,0.141980004,-0.351169961,0.230290261,-0.527430782,-0.127249911,0.002640401,0.265491479,0.288717160,-0.178483761,-0.345170598,0.038614058,0.133151390,0.055619923,-0.041827958,-0.433689809,-0.263667118,-0.216475946,0.011613163,0.057818920,-0.190158837,0.062131525,-0.132744325,-0.321666501,0.069906714,0.000471502,-0.234007396,0.189230217,0.172223951,-0.290907892,0.082880567,0.140653875,0.127534151,
-0.078426182,-0.060197490,-0.075240417,-0.237779604,0.025574170,0.033101300,0.025381237,-0.033200458,-0.002932621,-0.009332567,-0.153262022,-0.361612269,-0.231391686,0.004341561,-0.137700485,-0.121611376,0.117817350,0.175274396,0.211362174,0.071624797,-0.107537061,-0.028093546,0.033505861,-0.093404781,0.111035331,-0.075316297,0.043893992,-0.261542042,-0.399520405,-0.090067551,-0.077797759,0.037233395,-0.015260735,0.180130844,-0.064128167,
0.091132900,-0.427751629,0.007551453,0.150792248,-0.112996560,-0.118570579,-0.128293066,0.211088904,0.123271201,-0.053563848,-0.231595300,0.014650521,0.092736612,-0.169199362,-0.121046924,0.132482721,0.122167838,-0.188587339,-0.527299788,0.230228606,-0.089118354,0.219607453,0.086388077,-0.217653685,0.196057294,-0.049662873,-0.300378586,-0.195919999,-0.072818952,0.003583761,-0.242572624,0.101687489,-0.153408777,-0.029839665,0.046111210,
0.065129900,-0.016052415,-0.187737788,-0.035514226,-0.185614911,-0.002867468,0.060963265,0.271778353,0.265047696,0.110571088,0.259348372,0.089375418,0.207983278,0.095947462,0.109470244,0.458819466,0.168061397,0.455666929,0.527539235,-0.023625228,0.302213067,0.059762121,0.054723859,0.160897845,0.226887454,0.134139510,-0.365445653,0.368434175,-0.198014163,0.129518770,0.052805795,-0.308033353,-0.169412663,-0.324357655,-0.146039913,
-0.053597691,0.147662542,-0.320786822,-0.143253350,0.091739251,0.038647602,-0.065438421,-0.263024033,0.291500962,-0.094379129,-0.035692649,0.156332946,-0.050544700,-0.090122682,-0.016950454,0.141483838,0.026988441,-0.267418615,0.108539092,0.080526056,-0.217265885,-0.129506642,-0.043672271,-0.132719875,0.224775509,-0.173062845,0.062434268,-0.246143081,0.069735206,-0.017370446,0.164138872,-0.113362996,0.001741402,-0.203676556,-0.134103636,
-0.007305447,0.127022898,0.053860385,0.173156095,-0.442818300,0.015197200,0.031048561,-0.090816110,0.194375582,-0.023135262,-0.053998233,0.084660124,-0.007618742,0.075289370,-0.270073350,0.042429625,-0.034853738,-0.109779605,-0.091334456,0.263710975,0.308072371,-0.336735075,0.354463794,0.248417780,-0.053332285,0.166758721,-0.209834147,-0.136777780,0.182606262,0.081470872,0.168137860,0.166123600,0.028553533,-0.135596792,0.409003408,
0.247361514,0.192785631,0.301691136,0.122389879,-0.170578472,0.366317099,-0.208740153,-0.000557763,-0.059345288,-0.111449195,0.236721551,0.019358485,0.096281035,-0.067325176,0.007672367,-0.052146229,-0.101969321,-0.121234117,-0.166925563,-0.209210823,-0.134799355,-0.163238888,0.274118536,0.140163987,0.084882421,0.080128127,-0.210162405,0.243910130,-0.081357274,-0.173251869,0.202763678,-0.435156933,0.097282719,-0.221766373,0.087974221,
0.285976989,-0.019973339,0.120551359,0.119524180,-0.077601092,0.191868509,0.359555400,0.096184285,0.244167506,-0.008593585,-0.094364935,0.211176044,0.313641696,-0.001094404,0.105262991,0.216169755,-0.100298835,-0.033774366,0.167403145,-0.044089947,0.047153875,-0.349586941,-0.147668077,0.205373048,0.324418172,-0.086235311,0.315489975,-0.048655951,-0.048882432,0.018585741,0.122550170,0.168625765,0.189857172,-0.127632375,0.204320904,
0.278321758,-0.092693237,-0.232444835,-0.018955452,0.182517221,0.063069382,0.106863464,-0.083592266,0.111096129,0.114558586,-0.006317966,-0.024498666,0.055630407,0.041997373,0.042606648,-0.181978701,-0.029406498,-0.284671399,0.057049004,0.279997074,-0.009511733,-0.020196000,0.077408002,0.188979277,0.280966741,0.083333300,0.158560985,-0.070117707,-0.086361680,-0.062227955,0.173571117,0.228765779,0.179527488,0.169683888,0.137633117,
-0.016099142,-0.081753673,0.094064871,0.322869424,-0.019336633,0.211386403,0.156580229,0.005906995,-0.386041288,-0.017776297,-0.126357520,0.118123828,0.061126542,-0.248064318,0.281102434,0.040628609,-0.119569219,0.201309575,-0.030575842,0.211501857,-0.019546154,-0.178345146,0.194714521,0.387388980,0.005072034,0.065981948,0.298497429,0.096941300,-0.047176177,0.012778646,-0.066834855,0.278548390,0.294596620,-0.238172173,0.103624028,
-0.178871769,-0.015175528,0.262939710,-0.016224031,-0.014526165,-0.023066840,0.115313546,0.066003678,-0.154593541,-0.038540386,-0.079146081,-0.111340459,-0.096518690,0.200591691,0.352538126,-0.005175376,0.098362931,-0.216633743,0.299563108,-0.127460265,-0.033364179,-0.314588679,-0.085438976,0.051386714,0.168005098,-0.045143860,-0.133930292,0.233868538,-0.144246697,0.306135120,-0.028790851,-0.052293488,0.181576057,0.291862303,0.376495853,
-0.021171336,-0.177138967,-0.338393631,0.288399429,0.390001890,0.091955952,-0.031693344,0.102317848,0.532643351,0.224398336,-0.104045702,-0.088379159,0.037776664,0.054893908,-0.079867996,0.021564930,0.088207086,0.328917052,-0.119469434,0.179080022,-0.061229089,-0.110980472,0.105177887,0.122373641,0.127072591,0.113398336,0.098821750,0.064647869,-0.074130127,0.077060186,-0.136788336,0.200999969,0.017641313,0.110784675,-0.122821961,
-0.154037934,-0.121376857,0.101832146,-0.215911999,-0.128338945,0.005961563,-0.098617980,-0.673074083,-0.096882619,-0.141670379,-0.322532842,0.241792938,0.311561075,-0.310450468,0.105767351,0.217661336,-0.049506178,-0.082892201,-0.209026220,-0.075334064,-0.288703406,0.091149314,-0.055345257,0.001557647,-0.068565217,0.046367719,0.490174706,-0.081677174,0.013069993,0.361347549,-0.240766623,-0.039325849,-0.111998938,-0.210403607,0.025735442,
-0.033528012,0.025820128,-0.121181162,-0.103399916,-0.247487021,-0.209420167,-0.054456428,-0.225369222,0.134341909,-0.299075370,-0.180236308,0.153556167,0.122423602,0.039085642,0.072171733,-0.343063010,0.044479374,-0.002538244,0.228373336,0.244040263,-0.089029328,-0.239463582,-0.023592153,-0.153248729,-0.141230134,0.021193508,-0.069643350,-0.130978982,-0.024710773,0.165491511,0.452219315,-0.040621135,-0.018318731,0.139473412,0.117948042,
0.310012646,0.207248914,-0.193612280,-0.143806059,0.037381771,-0.100940747,0.047504974,0.378570339,-0.172014651,-0.119586438,-0.040636766,-0.018985745,0.004347024,0.052721283,-0.077017530,-0.233318651,0.084209913,0.063376333,-0.158804143,0.307700757,-0.299878989,-0.075792420,0.253573519,0.087276164,0.087424315,-0.032201712,0.200342476,-0.081293831,0.243525166,0.121343744,0.064201603,0.187818681,0.096840967,-0.090645548,0.091131973,
-0.217366479,0.008309436,-0.007600499,-0.172147645,0.148591252,0.159636870,0.106952456,0.164623640,-0.041853079,0.105398467,0.058331723,-0.142351830,0.044680830,0.005471698,0.228778387,-0.124315290,-0.153307594,0.406567751,0.170587111,0.177057604,-0.151658992,0.025001824,0.114877083,-0.095879367,0.017267845,-0.025514730,-0.314189764,-0.047563392,-0.026370308,-0.224766626,-0.076724799,0.059523685,-0.431323811,0.029008868,0.261609617,
0.131367058,-0.024248323,0.123896071,-0.009251711,-0.049398866,0.010942342,-0.115578729,0.322811253,0.023919537,-0.101475643,0.074818146,-0.065757147,0.118102057,-0.287529567,-0.160555693,0.039861937,-0.051513437,0.182862092,0.047728972,-0.106149472,-0.005945932,-0.203362317,-0.212105481,0.084016054,-0.050476737,-0.074627561,-0.131005754,0.232223256,0.263563918,-0.010708112,-0.277898530,-0.074155245,0.383514153,0.182428893,0.093914644,
0.231080719,-0.189905712,-0.052700255,0.005687635,-0.066279159,0.227345223,0.186093373,0.234419477,0.057368014,0.074380702,-0.070765055,0.209957452,0.388002932,-0.217618807,-0.308883591,-0.120001427,-0.156788308,0.035463118,-0.153375917,-0.036229573,0.002350423,0.051502618,-0.078147387,0.160196067,-0.100139906,-0.206532650,-0.144063089,-0.020224209,-0.344676374,-0.072262654,-0.159790075,-0.011840307,0.023876986,0.061254146,-0.415482955,
-0.097975218,-0.122201968,-0.210742398,-0.263099252,0.014066356,-0.018950058,0.079861786,0.215363969,-0.201823480,0.071321156,0.091546015,-0.008787642,-0.300675647,-0.113881695,-0.164001309,-0.049816472,0.236028153,-0.040089753,0.057747982,-0.184598342,0.078964118,-0.086287919,-0.032956975,-0.090601914,0.108590789,0.062054753,0.187996894,-0.529326747,-0.044945247,-0.148064491,-0.285427421,-0.168598373,0.146953014,0.074108327,-0.046448798,
0.054826646,-0.034805995,0.039653528,0.074166241,0.213419074,0.248511981,-0.027918970,0.099529128,-0.266738233,-0.016896269,0.226292303,-0.224150754,0.280015631,-0.547991536,0.027449397,0.063040590,0.108562598,-0.078840461,-0.139063189,-0.032536392,0.060935242,0.145862994,0.068674753,-0.245146799,0.152551049,0.444242528,-0.189442119,-0.068496502,-0.267608673,-0.012579749,-0.131377121,-0.192924072,-0.074969474,-0.227396437,-0.240785951,
-0.104385099,-0.118393264,-0.025063423,-0.033893652,0.252633637,-0.071906727,-0.061490520,-0.058805296,-0.132256212,0.054212345,-0.138468268,0.038429038,-0.050078710,-0.307947053,-0.138185966,-0.184587012,-0.250649179,-0.185824564,0.260139644,-0.021944778,-0.163828266,0.176969264,-0.266100271,-0.083778491,-0.089019789,0.250661789,-0.054412503,0.079027307,0.218336396,-0.117578557,-0.198078509,0.013766250,-0.050636416,0.084271105,-0.199971167,
0.199448664,-0.046416811,0.030807941,-0.050413568,0.011305700,0.065621198,0.124909206,0.241411289,0.135561464,0.060163261,-0.092225347,-0.389826992,0.100141755,0.168513706,-0.166846870,-0.166635960,0.032881309,-0.353522116,0.142822044,-0.163725408,-0.117511493,-0.023248832,0.166253975,0.012187785,0.149803305,-0.019098046,0.016033096,-0.008305480,0.013905814,0.029103990,0.089190858,-0.067459427,-0.143783286,0.075400818,-0.333539379,
-0.021406631,0.042691181,0.105357568,-0.040664340,-0.058874747,-0.174723815,-0.300744058,0.052785881,0.003658523,-0.300788440,0.136989436,0.192820240,0.164788933,0.403258651,0.205477960,-0.063515430,-0.215697340,-0.261654648,-0.234067522,0.113780598,0.180700213,-0.263644383,-0.149747498,-0.073631452,0.186164591,-0.056291603,0.166730689,-0.172674671,0.413967132,0.141016259,-0.008154853,0.229796773,-0.056576703,0.061192666,0.115432858,
-0.357646842,0.160062794,-0.089058169,-0.045825290,0.023496975,0.170921082,0.134035119,-0.052507680,-0.032516691,0.184868285,0.068949122,0.061604227,0.167382359,0.118341376,0.217483774,-0.000256288,-0.114949413,-0.204413849,-0.058441564,-0.086537475,-0.275316226,-0.100595019,0.191018682,0.202862692,0.509771148,-0.283469730,0.021208171,0.306822217,-0.139458337,0.182131237,0.074015596,-0.047360225,-0.099772629,0.019641814,-0.025062802,
-0.059642271,0.193469573,0.017532127,-0.197813517,0.183127398,-0.003108163,-0.038240976,0.022574266,0.046903060,0.051572967,0.046061104,0.119428335,-0.234986406,-0.230254699,-0.384151240,-0.270384230,0.265823399,-0.023015100,-0.020963469,-0.225725283,0.389231748,0.064889221,0.108086140,-0.061018500,0.042414549,0.163823886,-0.003675315,-0.040731822,-0.117312021,0.107913066,0.219986589,-0.239947439,-0.116249278,-0.226895483,-0.115834692,
-0.019416797,-0.164427301,-0.313565974,0.049990704,0.087952678,-0.012430596,-0.467217409,-0.041721423,-0.087003838,-0.115707542,-0.036044394,0.015774180,0.243378210,0.205143923,0.151321256,-0.289633700,0.116272515,0.086316946,-0.034470329,0.305173807,0.077307757,-0.120732590,0.300814092,0.206675556,0.162500739,0.231967177,0.019531157,0.169094220,0.127200286,0.084052753,-0.062084447,0.030442075,0.545729726,-0.019452517,0.086728608,
-0.336789945,-0.114707397,0.127517442,-0.020661115,0.031638646,-0.085352228,-0.002778891,-0.005156311,-0.051950192,-0.215317768,0.185321351,0.015662139,-0.019368645,0.132556580,0.001719994,0.167172518,0.052691142,0.119580902,0.079338983,-0.168695802,-0.275913009,0.038221806,0.062786285,-0.142038969,0.116333521,0.134283203,-0.142923911,0.247202714,-0.219292876,0.187905049,0.051562187,0.169255075,-0.167400770,-0.387020964,0.023269988,
-0.035776759,-0.097126497,0.016825916,-0.122896282,-0.114173456,-0.081698661,0.016100424,-0.107792881,0.179248720,-0.084454456,-0.054366229,-0.291592493,-0.020144991,0.011056873,0.090597529,-0.081418640,0.016043851,0.046624326,0.163694648,-0.235629776,0.030869731,0.143165299,-0.120313079,0.062963715,0.014425076,-0.023072678,0.122017658,-0.067182211,0.114166087,-0.012285410,0.020953981,0.033212476,0.089796867,0.378879615,0.054292607,
-0.114621082,0.177705590,-0.461725604,0.181599477,0.140396105,0.294354425,-0.002947188,0.037515456,0.033391703,0.018155792,0.199928506,0.164192859,0.110730829,0.048064433,0.298064266,-0.120420259,-0.159057346,-0.072560820,0.202390251,0.117990787,0.029677843,0.276899968,-0.195872497,0.026520778,0.028237810,-0.239124700,-0.163719392,0.121689301,0.296924982,0.131305389,-0.166441907,0.020086127,0.034912431,-0.243756883,-0.130148543,
0.114539723,-0.063197656,0.396604433,0.247740146,-0.000872062,0.251654989,-0.001924345,0.231512705,0.122059498,0.102778682,-0.031066304,-0.337437191,-0.123362526,0.233210531,-0.086207264,-0.217844822,0.320550935,0.100638838,0.261779359,-0.184327153,0.137629145,0.075590709,0.127771384,-0.225908095,0.377374665,0.219426989,0.020779894,-0.034250107,0.223852656,-0.091342984,-0.050766343,0.314756948,-0.400249124,0.084547613,-0.081577360,
0.295016640,-0.119340316,0.229093346,-0.008118151,0.068007498,-0.012877304,0.164632871,0.130821073,0.055557527,0.113141187,0.212779010,0.133953978,0.213284284,0.109052300,0.074108075,-0.084634900,-0.164261361,0.005349528,0.074802376,0.060613530,-0.129973371,0.150249014,0.100637181,0.438892283,-0.017622901,0.285454950,0.245788076,-0.124630005,0.048183274,0.266612530,-0.030638650,-0.043968185,-0.105044710,-0.032062038,0.199207971,
0.128254185,0.090340535,-0.249095296,-0.423556991,-0.049939664,-0.061055576,0.052098515,-0.030996854,0.017145585,-0.014017721,-0.079118891,-0.220149831,-0.126162865,0.067091317,0.091082674,0.082913373,0.255493320,0.131821202,-0.156146175,0.294325728,-0.214783715,-0.141392433,-0.483114079,0.018505035,0.453193191,0.156988501,-0.149543642,0.316363891,-0.114071735,0.129251578,-0.041693979,0.214549656,-0.155763712,0.330027180,-0.027410703,
-0.293643888,0.062273229,0.179038089,0.252590318,0.133960380,-0.193918113,0.121839508,0.218105947,0.180395706,0.000074429,0.338752950,0.194889082,-0.055713004,0.038013873,0.077798845,-0.149589451,-0.034763293,-0.215565113,0.140047636,0.024887943,-0.158779970,-0.052898307,-0.089701554,0.071504738,-0.224108070,0.248014179,0.131216759,0.018189158,0.254588833,-0.032629423,-0.051729787,-0.024838570,0.085996763,-0.300766579,0.098783749,
-0.043731662,
0.417333237,
-0.003558284,
0.318946982,
0.017243291,
0.080046097,
-0.094126964,
-0.135495499,
0.152591461,
-0.154941520,
0.012092055,
-0.227728875,
0.084606438,
0.076156902,
-0.086734894,
0.251093786,
-0.022629593,
-0.030562242,
0.177772103,
0.374535911,
0.023612518,
0.111609543,
0.042452456,
-0.270854960,
-0.351795495,
-0.195836691,
0.038561793,
0.069117554,
0.106301303,
0.082431835,
-0.074966504,
0.307046180,
0.235062814,
0.045020496,
0.103575119,
-0.034312738,-0.201463208,0.047874532,-0.110553403,-0.254289013,0.002020159,0.321934067,0.090162772,-0.191797420,0.140835508,0.113740105,-0.069660371,0.034731591,0.145688493,0.070840936,-0.068259224,-0.099238383,-0.075205265,0.053928366,-0.353017051,-0.156380817,-0.134655178,0.359476381,0.066167087,0.117216708,-0.179474009,-0.028189876,-0.071177781,0.314279822,-0.017798247,0.093646341,0.123062553,-0.231899482,0.071207379,0.233733802,
-0.264075036,-0.137150799,0.294681773,0.183148081,-0.196521210,-0.348428636,-0.474056716,-0.301536625,-0.067379757,0.104096153,0.223160866,-0.273190020,-0.114647804,-0.127993881,-0.092453831,0.122954504,0.336716325,-0.119275656,-0.118628256,-0.257578020,-0.050684872,-0.088644774,-0.145189834,-0.035542045,-0.072241912,-0.038421523,-0.030030507,-0.037359462,-0.297792146,0.258145104,0.142213957,0.254816340,-0.375345574,-0.010972715,0.013300542,
0.020150211,0.028718415,-0.082868858,0.277658042,0.395133142,-0.125566833,0.100969068,0.034155476,0.049407297,0.320073396,-0.224984652,0.033780414,-0.449150654,0.162233393,0.276339802,-0.111421147,0.075895083,-0.032361777,0.087696793,-0.076071367,-0.048902712,-0.206247272,0.081824220,-0.100190705,-0.176225148,0.064782923,0.140892672,0.194136548,0.120941642,0.091752968,0.032797961,-0.038160464,0.204508906,0.132299929,-0.128079057,
0.061960469,0.007823495,-0.014334375,-0.335924677,-0.502266796,-0.046979846,0.040414902,-0.116049578,0.053253965,0.245699593,-0.224249970,-0.198135875,0.205547265,-0.075513906,0.290884947,-0.127953489,-0.389263376,-0.140916418,0.046081445,0.050441633,-0.054034029,-0.169039203,0.172328992,0.021721713,0.257561404,0.223743387,-0.115913988,-0.018021993,0.180531262,-0.020681326,0.085624566,-0.110390206,0.131972316,-0.113783313,0.034870996,
0.275648111,0.445893852,0.078682907,0.425549494,-0.146982399,0.347841840,-0.067073489,0.021133362,-0.102760477,0.266830136,0.268008649,-0.305557851,0.123981808,-0.189562272,0.375729252,-0.157118974,-0.066250051,-0.048163220,0.089183052,0.249629094,0.145138729,-0.064999056,-0.126766051,0.293153810,-0.062736365,0.068154492,0.009797310,-0.077692943,0.154994347,0.015887077,-0.137377862,0.024282807,-0.197007552,-0.118553959,0.269530125,
-0.008985403,0.072309299,0.401539143,-0.058574334,0.010825325,-0.131256960,-0.353611496,-0.143841295,-0.158634293,0.024123265,0.015354200,0.358471431,-0.036933752,-0.216395867,0.170986137,0.227844176,0.312641156,-0.015674255,0.110846591,-0.235331120,0.159828885,-0.177408745,-0.107438046,0.393951463,0.125157736,-0.040873512,-0.040997986,-0.076502439,-0.121066020,-0.080916003,0.201643184,0.157324416,0.141522947,0.039369880,0.079858979,
-0.074895788,0.329746370,-0.072618973,-0.304477513,0.035969176,0.075665492,-0.162733684,0.090785528,-0.086886657,0.250676760,-0.352928685,0.048502456,-0.222143690,-0.120832658,-0.159884906,0.139207765,-0.100154724,0.154306371,-0.066644164,0.173410464,0.143767999,0.123731069,0.031194204,-0.426617684,-0.256283334,-0.017942793,0.023242665,0.156481374,0.324877637,-0.022576778,0.086643722,-0.222450601,0.129128317,0.162426715,-0.203089602,
