// Neural Network File Format by Kyle Julian, Stanford 2016
41,2,2,5,
2,5,5,5,5,5,5,5,5,5,5,5,5,5,5,5,5,5,5,5,5,5,5,5,5,5,5,5,5,5,5,5,5,5,5,5,5,5,5,5,5,2,
0,
-10000.0,-10000.0,
10000.0,10000.0,
0.0,0.0,0.0,
1.0,1.0,1.0,
0.670719616,-0.469904152,
-0.463928265,0.838537156,
-1.113510523,-0.209735312,
0.162828814,-0.745795905,
0.394464628,0.184100378,
0.711506730,
0.556687547,
0.943001295,
1.144005920,
1.023305639,
-0.525138195,-0.148684554,0.426721047,-0.253770548,-0.167401810,
-0.684549735,-1.440226505,-0.337898863,-0.945372875,0.136217850,
-0.379694307,-0.444228328,0.419659099,-0.430599989,1.096945139,
1.034258003,-0.231579404,-0.081220587,-0.338080139,0.928400184,
0.175692045,0.956458842,-1.444384534,-0.865674266,-0.308898151,
-0.273278053,
0.375059263,
-0.233784756,
0.951178723,
-0.074815577,
0.645947544,-1.343908083,-0.712174249,-0.698498405,-0.202432560,
0.557122382,-0.996019449,-0.599753812,0.270317038,1.021796865,
-0.483229883,-0.389910744,0.577218518,0.135859662,0.462494797,
0.259403616,0.208311216,0.078294855,-0.399872567,1.485196783,
0.768875340,0.360049905,-1.339531591,-0.431631466,-0.060798768,
0.068533205,
0.151189102,
0.544495100,
-0.415235420,
-1.202637224,
-0.619522930,-0.320365601,0.056913441,-0.365275138,1.060706532,
-0.840688899,0.181997851,-1.272812311,-0.567807381,0.145813782,
1.133362501,0.011166908,0.041493015,0.152823756,0.253989102,
0.066776748,0.749666504,0.300199829,-0.720583922,0.711357508,
-1.175691066,-0.905444476,0.463035564,0.410286080,0.716349337,
0.504954119,
-0.570491921,
-1.158183603,
1.077558267,
1.328500564,
0.401937317,-0.140702559,0.848268361,-0.361923205,0.240935344,
-0.633436112,0.194829367,-1.297649012,0.863554045,-1.019628520,
-0.402202964,-0.529969196,0.746367078,0.326740633,-0.160740279,
0.021568726,0.106405751,-0.187175915,-0.289129139,0.055164972,
-1.116285516,-0.331073379,-0.197591560,0.125818550,0.256226357,
0.284515237,
-0.275960408,
-0.126902987,
-0.202293431,
0.244148330,
-0.132589231,1.146498563,-0.590688389,-0.810122690,0.914946756,
-0.308910550,-0.901474754,0.293787546,-0.021370453,-0.709451419,
0.468809899,1.373535461,-0.321772295,0.775283205,0.274102305,
-0.115671045,-0.177088608,-0.238097751,-0.406287312,0.206875696,
0.216268711,1.263971188,0.353266371,0.462491905,0.996249505,
0.151365333,
-0.096720656,
-0.813836820,
-0.372514932,
0.152418060,
-0.133144044,0.066634899,0.206770345,-0.050071515,-0.877338320,
-0.272656527,0.582307907,0.802313116,-0.145046846,-0.410635191,
-0.527564995,-0.051408990,-0.414848976,-0.790194623,-0.246782859,
0.163752927,0.711259999,0.854472272,-1.553189831,0.148292431,
-0.409614812,-0.373846357,1.427040879,0.531709726,0.074136386,
-0.431373005,
0.309880402,
0.727659236,
-0.110693721,
1.303333552,
0.615451092,0.037120811,0.330942096,-0.583689227,-1.644772551,
0.220857985,0.432149601,-0.032453509,1.232060205,0.363602209,
0.091989848,0.848362583,-0.400040537,0.526734038,0.296251288,
0.209083055,-0.041840772,-0.113244003,1.149360064,0.301270743,
-1.031016548,-1.580901517,-0.471660936,0.395316729,0.627870926,
-0.789525260,
0.383968882,
-0.894923212,
-0.468686674,
0.192655681,
-0.790253169,-0.130884293,-0.872794071,-0.937385834,-0.466930693,
-0.598325499,0.854367716,-0.884193826,-0.786905364,-0.936615425,
-0.855047054,-1.511977572,-0.996458346,0.695273077,-0.252352558,
-0.398172127,-0.172807881,0.418650093,-0.332526439,0.071253779,
0.611060629,-0.456057815,-0.563975664,-0.471338690,0.014385972,
-0.715963608,
-0.401576796,
0.778475233,
-0.273330548,
-0.611029076,
0.417113068,0.424851693,-0.283392902,-1.489420778,-0.486895578,
1.331006240,-0.414725848,0.516067946,0.541726699,-0.090972828,
-0.257434635,-0.063477290,-0.107184229,0.540032759,1.048194078,
-1.342149330,-0.137859406,-0.590643420,0.238420023,-0.500888131,
0.204003095,-0.703749059,-0.106390501,0.170397105,0.578421588,
-0.215327313,
-0.199223206,
0.700875406,
0.349862441,
-1.864867639,
-0.033945142,-0.661420241,-0.274580497,-1.495508403,0.663246904,
0.251498111,-0.262721903,-0.454446640,-1.438112996,0.439819843,
1.155370483,-0.347719941,0.314084834,2.752165907,-0.338641902,
0.209383415,1.126253021,0.257401601,0.377923633,-0.435893422,
-0.285100952,0.096078685,0.235070150,0.083742065,0.779998530,
0.068145073,
0.121896816,
0.216969903,
0.196630622,
-0.216261560,
0.531487258,0.684759669,0.776381221,0.172824307,-0.060458402,
-0.703947543,-0.562718761,-0.198530625,0.565339462,0.279808102,
-0.875859858,-1.260077796,0.037005659,0.405628247,-0.271429217,
0.739707731,-0.195015539,-0.270893565,1.525911208,1.162206075,
0.414268850,0.690348602,0.360753877,0.783826729,-0.378368478,
-0.503763873,
0.802754714,
0.176793009,
-0.305932058,
-0.928086121,
-0.621454430,0.373885476,-0.965877478,0.031826152,0.507596153,
1.677813843,0.114226667,-0.659008896,-0.119212801,1.346032275,
-0.368457564,-0.434699961,-0.124669477,0.241758534,-1.204279412,
0.671307881,0.072002679,-0.689349518,0.220050302,-0.422130038,
0.410425800,-1.336482646,-0.883253459,-0.385077944,-0.556952930,
0.090657820,
0.364130122,
-0.399326019,
0.208477586,
0.544774747,
0.409881921,-0.491088560,-0.451386604,-0.345941123,0.027853425,
0.155771216,0.003535540,-0.522899534,-0.244544526,1.219109209,
0.060505610,0.072387055,-0.310488920,0.058096338,1.006240454,
-0.306132174,-0.680006998,0.638377179,-0.352207489,0.347906064,
-0.392989507,-0.124734309,0.326105654,-2.018268569,-1.692103111,
-0.447291652,
-0.408259723,
1.733994099,
-0.483452695,
-0.065681672,
-0.105231793,-0.320534717,-0.013115725,1.627309354,-0.151691436,
0.173625608,-0.577737181,-0.452017809,-0.742149816,-0.611600863,
-0.600446488,-0.877828553,1.372350358,-0.082577749,1.112743908,
1.271849705,0.288976856,-0.463897383,0.747521263,1.229634811,
0.544851622,2.492777725,-0.171461557,1.246155095,-0.194288172,
0.235102784,
0.549305450,
-0.089692435,
-0.288647491,
-1.891048057,
0.138790230,-1.147753981,-0.857497835,0.740424067,0.438027477,
0.401415717,0.340936133,-0.662464966,-0.008027459,0.600545655,
-0.961826934,0.711091783,0.892036181,-0.788015210,-0.069584001,
-0.547950353,0.300351798,1.139270440,-0.454266829,0.699292018,
0.454173525,0.400905856,-0.716970052,0.277757981,0.032450437,
-0.627558611,
1.033266383,
0.595483322,
-0.249934655,
-0.705359956,
-0.683088723,1.528612280,-0.063488618,-0.337416075,-0.438777359,
1.087866171,0.022185212,-0.210844992,-1.150939359,-0.483848449,
-0.033233198,-0.116710462,0.099010576,0.762538990,0.019413380,
0.772035954,0.643626075,0.006701484,-0.205787365,-0.381917577,
0.726443106,-0.652304750,-0.053660408,-0.491024224,-0.242035201,
-0.690756334,
-0.905659312,
0.055269074,
-0.113624564,
-0.012673136,
-1.430353557,-1.419120371,0.080082501,-0.316448341,-0.119180763,
-1.070986403,-1.770866140,1.213378279,-0.323748230,-0.472685226,
0.313715183,-1.033457495,0.064682901,-0.658710426,-0.145692200,
-0.612482707,0.103771333,0.725737753,-1.219622192,1.808971115,
0.051453378,0.632576359,0.014714678,0.016710404,-0.466521628,
-0.610775817,
-0.030605636,
1.080413844,
0.531577532,
0.445087796,
2.043757078,-0.742781601,0.156262985,-1.548014009,1.086828764,
0.169029782,0.935093248,-0.219202277,-0.682842128,0.425178147,
0.196481374,0.611545942,0.116154033,-1.081370722,-0.048536491,
0.125443354,0.063337544,-0.883923081,-1.595224410,0.754019548,
-0.435389039,-0.317730018,0.195687056,-0.586762943,-0.687839111,
0.367766753,
0.467398970,
-0.334640091,
0.863677843,
-0.799781129,
0.787812320,0.332282432,0.018009877,-0.735960842,-1.055547342,
-0.115837229,-0.052740765,-0.398010310,0.023018001,-0.369381508,
0.254990139,1.900259527,0.155084899,-0.101393106,-1.292364911,
-0.049218072,-1.242010590,0.137059140,-1.031257656,0.758476942,
-0.915497874,0.690107742,0.386567314,-0.405528067,0.315363843,
0.221037566,
0.792998490,
-0.162945085,
0.574361408,
0.611583266,
0.018146042,0.413802511,-0.284241139,0.186749093,0.594035115,
0.044204724,-0.450140227,0.646864845,-0.203084153,-0.351977750,
-0.090419309,-0.949423413,0.493954113,-0.357437387,-1.003915242,
-0.829957654,0.182437176,-0.372630076,0.290727234,-1.491180853,
0.706473628,-0.237968504,0.274674713,0.801755403,0.698944235,
0.421746372,
0.731047187,
-0.201360985,
-0.458944392,
0.426664643,
-0.716331317,-0.299630675,-0.527024731,-0.739956604,0.893309295,
0.084825043,0.602609901,-0.535345750,-0.150960245,1.245702494,
0.093769376,-0.337765151,0.055625454,-0.973775631,0.083659683,
-0.241455321,-0.288510173,-0.535698542,0.312475129,-0.485309962,
1.165334676,-0.033620432,1.543992793,0.714517275,0.942028169,
0.236825495,
0.558120002,
-0.364443770,
0.613743551,
0.004245791,
-0.269204937,0.024975239,1.617131702,-0.970452613,-1.220209688,
-0.311116485,-0.461960265,-0.567807546,-0.303783293,-0.895018799,
-0.998078294,0.402655039,-0.414019234,1.598492610,0.216820028,
1.311846843,-0.619187569,1.054283632,-1.059341053,0.445276639,
-0.628230023,0.027039628,0.825506504,1.012815013,0.385363881,
-0.126108522,
0.037703616,
0.280371950,
0.593337135,
0.106478064,
1.100658413,0.757936163,-1.530392547,-0.791458129,-0.466852077,
-0.821944270,1.028374840,0.078584913,-0.058843590,0.289753733,
-0.530532066,-0.321646270,1.024365165,0.301571517,-0.009003276,
-0.038260050,0.763007172,0.064717495,-0.025179007,-0.867064577,
-0.048270108,0.849858041,-0.048062197,1.756010702,0.078466132,
-0.822770888,
0.308822941,
-0.449273454,
-0.332212022,
-0.021551689,
0.360795043,-0.476826557,2.265246490,0.223135250,-1.519802226,
-0.223995321,0.853243859,0.706060558,0.386602915,0.185438816,
0.023279250,0.410449203,0.580309838,0.227195219,0.803469567,
0.145118849,-0.528535192,0.031959134,0.266835028,-0.542034341,
0.049758409,-0.068284777,-0.142702139,-0.243835292,0.091058775,
-0.958419911,
1.125963235,
-0.040629079,
-0.318797524,
0.554090519,
0.252069270,1.176826383,-0.773206037,-0.048463452,-0.069979533,
0.118689828,0.920474507,-1.774470715,0.808567239,-0.371551257,
-0.742894003,-0.729615268,0.135058826,0.514379879,0.834832354,
2.565653069,-0.170657578,0.417456811,0.642219992,-0.501370964,
0.286930398,0.230911280,-0.206668071,1.102791333,-0.683844951,
1.330954451,
-1.168941441,
0.653718557,
1.439415984,
0.668543751,
1.620562192,0.648128764,-0.808520579,-0.100061392,1.501773854,
0.053144324,0.835358342,-0.178532125,0.841811054,-1.699723067,
-0.162222295,-0.622904104,-0.258753171,0.282424836,-0.501983771,
1.015723246,-1.570800167,-0.918227968,-0.091893191,-0.750492158,
0.873981165,1.219801391,0.990213838,0.797652560,0.403620883,
-0.211274451,
-0.827788890,
0.347374116,
0.112478945,
-0.222645547,
-0.808353486,-0.929320860,0.612504790,-0.101622075,0.848398473,
0.955099912,0.955613894,-0.025467762,0.117757551,0.177904020,
1.168713661,0.686319935,0.270779301,-0.363110582,-1.176580761,
-0.358413174,-0.755151644,-0.829924273,-0.685800620,0.802805960,
-1.282562526,0.305837091,-0.210752369,0.309214188,0.057001119,
-1.182655079,
-0.454456078,
-0.246362436,
-0.422181201,
0.654914541,
-0.590284663,-0.282391683,0.206456263,-1.070142336,-0.010154518,
-1.395513611,-0.670656456,0.592397576,0.790775374,0.543644916,
-0.163369629,0.904555538,-0.083669563,0.052156178,-0.377542476,
-0.300497683,0.306370819,-0.089230177,-1.234833219,0.250182166,
0.973172102,0.242243488,1.053052984,-0.421513688,-0.809499652,
0.249888933,
-0.174884270,
-0.654781748,
0.403224503,
-0.927623172,
-0.700566066,-0.024906622,1.161148685,-2.036068493,-1.340420906,
-0.270686957,0.071018043,0.488417415,-0.355640410,0.461745039,
0.007230295,-1.139661650,1.201721562,-0.176545814,2.325741370,
-0.349478624,1.170804363,0.354558532,-0.464947860,-0.413077869,
-0.875121927,-0.556038127,-0.317636032,-0.462491947,-0.391923314,
0.019746339,
-0.627330538,
0.166995112,
-0.056838279,
0.920238257,
0.037997845,-0.230012127,-0.865866095,0.585269977,-0.066267049,
0.514438756,0.484401442,0.183978102,-0.426202934,-0.109014828,
-0.090104252,0.783844466,-0.338515632,-0.208044420,0.391681922,
0.313502344,0.287342208,-0.147743769,-0.296409357,-0.708881914,
0.127350834,0.588935189,0.032133752,0.552377792,-0.261796573,
-0.071909026,
-0.097891524,
-1.239533831,
0.322517921,
-1.122205320,
1.779860611,-0.391118525,0.625401446,-0.184263555,0.388977273,
-0.261705858,1.180720005,0.360422840,-0.685555917,0.554801718,
-1.129731473,-0.644698132,-0.446553007,-0.136479162,-0.447848180,
0.155263822,0.232921818,-0.353340475,-0.651006681,2.038045383,
0.335592430,0.282521278,0.622548768,-1.191603959,0.938568416,
0.412771667,
-0.141303822,
0.148259291,
-0.247619270,
0.480359717,
-0.213682723,0.401529384,1.038936157,-1.264934678,1.493487539,
-0.081788776,0.410530849,2.286967359,0.849096523,-0.778507334,
-0.261777044,-0.249904834,0.686356860,-0.483602241,-0.049877196,
-0.545369788,1.807525390,-0.451400902,0.396261572,0.567734740,
0.176669684,0.132482985,0.175840901,0.352890157,0.798374153,
0.309372277,
-0.540594906,
0.163680202,
-0.441421613,
0.142713794,
-0.407821896,0.945852684,-1.127208230,-1.079057424,-0.960708788,
0.160462057,0.201488668,0.563187340,0.256063342,-1.047388591,
0.595246609,-0.726898823,-0.517178227,-0.046950723,0.264348938,
-0.453777466,0.427403856,0.324264208,0.265310761,-0.762890021,
-0.642697344,0.176643247,-0.341478047,-0.756602438,-0.618098760,
1.575927441,
-0.655679445,
-0.477033344,
1.041222902,
0.403024419,
1.074388011,-0.029235178,-0.062187551,-0.152755471,0.242341050,
-0.618113998,-0.667276728,-0.648363002,-0.540478455,-0.089426039,
-0.108973634,0.033786118,-0.223901417,0.288138319,0.188993796,
0.838837411,-0.443679573,0.610461752,0.559287271,0.650377728,
0.373691223,0.316359482,-0.857639871,0.072113297,-1.077135574,
-0.873358591,
0.382253590,
-0.136642833,
-0.603798615,
-0.350477533,
-1.775950471,0.125951368,0.856223334,0.060867490,-1.307375808,
-0.782643667,0.309572461,-0.147108978,1.407950322,-0.792804765,
-0.509032065,-0.592238149,-0.018789056,1.171709463,0.967907277,
1.201750599,-0.092970898,-0.206738579,-0.572892887,-0.441582032,
0.654668066,1.076739456,1.489176161,-0.009053549,0.960685413,
-0.127046072,
0.053922588,
-0.101071359,
-0.235985650,
0.781348699,
0.158485908,-0.485525520,0.392292362,0.077530142,-0.390679231,
0.044367239,-0.090712087,1.522985516,-1.097411178,0.948214376,
0.360341977,0.069748120,0.673529618,0.259557269,0.030950035,
1.137692682,1.197555611,-0.123592701,0.949515625,0.746421005,
0.245398800,-0.254747049,-0.030137641,-0.874207287,0.169642751,
0.658425949,
0.259324367,
-0.556819088,
0.607141425,
0.455624561,
-0.734431304,-0.296257253,0.698187310,-0.280935953,0.277239978,
0.897218716,0.693330682,-0.478667572,-0.879409711,0.248254235,
0.260063783,-0.037571924,0.207235272,0.201382705,0.249303352,
-1.078751179,-0.623004598,-0.219732152,0.201604944,-0.476793016,
0.985767557,-0.822524168,0.306529395,0.918156082,0.745795401,
-0.621572979,
0.586902370,
-0.795151681,
0.403397855,
-0.046929455,
0.027375319,0.647274135,-0.008315852,0.706375530,-0.586216223,
-0.751005240,-0.692131666,-0.085376431,-0.303344932,-0.296044896,
0.255993249,-0.785058040,0.600487152,-0.632627830,-0.749605657,
0.201466382,-1.374530661,0.013127433,-0.119678546,0.111930728,
-0.963623394,0.029775521,0.271639062,1.134273182,-0.647677848,
-0.658572086,
0.047814020,
0.132299159,
0.132221745,
0.647642292,
0.515555222,0.203142657,0.003609762,-0.324631627,0.926203564,
0.281417205,-0.276784033,-1.764127615,-0.859128377,-1.226060252,
1.549576059,0.052597017,1.672260904,-0.375737356,-0.598425833,
-0.303175188,0.367085310,-1.205602905,0.957896007,-0.775734874,
1.037940035,-0.967242242,0.616613896,-0.079388581,-0.663938696,
-0.108526945,
-0.431122451,
-0.041691154,
-0.214562390,
0.070736992,
0.406517120,0.057465675,0.090536032,-0.573772248,1.062879607,
-0.558311462,-0.171241387,-0.986301269,-0.705431596,0.335805865,
0.484200473,
0.526545038,
