// Neural Network File Format by Kyle Julian, Stanford 2016
86,2,2,50,
2,50,50,50,50,50,50,50,50,50,50,50,50,50,50,50,50,50,50,50,50,50,50,50,50,50,50,50,50,50,50,50,50,50,50,50,50,50,50,50,50,50,50,50,50,50,50,50,50,50,50,50,50,50,50,50,50,50,50,50,50,50,50,50,50,50,50,50,50,50,50,50,50,50,50,50,50,50,50,50,50,50,50,50,50,50,2,
0,
-10000.0,-10000.0,
10000.0,10000.0,
0.0,0.0,0.0,
1.0,1.0,1.0,
-0.138631940,0.043183239,
-0.144115535,-0.103937299,
-0.069689750,-0.043745035,
-0.154120170,-0.088229189,
-0.046230832,-0.017228006,
-0.077035723,0.192105297,
-0.140196174,0.268194333,
-0.218452060,0.072254876,
0.124074039,0.009441591,
-0.069797254,0.174119089,
-0.143232641,-0.006131335,
-0.131563466,0.042925713,
-0.092609984,0.064376936,
-0.293846137,0.028500259,
-0.196364062,-0.056141835,
0.141648409,0.033854121,
-0.178511622,-0.028311229,
-0.136796220,-0.092705838,
0.158045853,0.064880262,
-0.416097240,-0.260705809,
0.013989990,-0.081066775,
0.234416208,0.164960712,
0.148695338,0.125161277,
0.110675728,-0.002927416,
-0.027555884,0.007471828,
-0.118146083,-0.194105859,
0.005557940,0.441653550,
-0.126696032,0.106453201,
0.088150027,-0.146227903,
0.047301072,-0.180768214,
-0.003766409,0.035159502,
0.128792557,-0.075776508,
0.212055486,0.173529613,
0.154175841,-0.013973792,
-0.074120877,0.064616867,
0.036781810,-0.234385214,
0.086573758,0.007923653,
0.013915993,-0.033807736,
0.157136144,0.012375902,
-0.125653513,-0.230175726,
0.154796851,0.113720038,
0.044457060,-0.269015052,
0.267550436,0.217985265,
0.143679022,-0.356144759,
-0.077915467,-0.262562055,
-0.230124654,0.174236391,
0.011076079,-0.049088509,
0.226790497,0.036993434,
-0.118794778,-0.329920078,
-0.059485610,0.193199871,
-0.068791298,
-0.014406698,
0.005987194,
-0.034973774,
0.273048552,
-0.081966631,
0.075743478,
-0.056394179,
-0.124533200,
0.005668792,
0.012805766,
0.243236411,
-0.109001243,
0.189507298,
-0.290473470,
-0.133003222,
-0.297555529,
-0.175410055,
-0.073981204,
-0.062369965,
0.126768488,
0.014480889,
-0.096939671,
0.101477020,
0.277217467,
0.151433156,
-0.127350261,
-0.137277596,
0.155447772,
-0.227637264,
-0.105316099,
0.066972477,
0.234792086,
0.144791737,
-0.036272153,
-0.146170340,
0.081473979,
-0.045172782,
-0.211039430,
-0.238504237,
-0.311427438,
-0.153786889,
0.157364724,
0.322701904,
-0.131665128,
-0.116669203,
0.025514100,
-0.019098223,
-0.182199360,
-0.162135888,
0.036133257,0.130240598,0.197454366,-0.037251900,-0.154442100,-0.036970669,-0.102779916,-0.052092390,-0.134816350,-0.089151155,0.012669284,-0.234984975,0.167670031,0.057069658,0.072155672,-0.000037156,0.207751009,0.009451478,-0.114123694,-0.059370979,-0.082126340,0.130315906,0.000080954,-0.131058792,0.079057181,0.054335085,-0.005395293,0.181719034,-0.101764083,0.066179419,0.036452091,0.085404213,-0.073496438,-0.060940280,-0.237673760,-0.056757917,-0.098283409,-0.054194474,-0.108910201,-0.059965686,0.239311036,0.162319222,0.082833938,-0.213825089,-0.374946220,0.113109145,0.181347573,0.129128528,-0.086747657,-0.133228845,
-0.063460374,0.008891159,-0.116241532,-0.011482510,0.085398385,-0.063135085,0.202021105,0.002164585,0.107113154,-0.328688601,0.080415320,0.072320722,-0.099062618,0.096675265,0.075055671,-0.096179016,0.003412399,0.354627755,0.024151935,0.047729019,0.190162502,0.012967642,-0.125863696,0.025062793,-0.182547578,-0.076982444,0.072128757,0.021544482,-0.130189444,0.169354454,0.208911045,-0.007214880,-0.056476395,-0.086608031,0.041696544,0.008238100,-0.052671475,0.168583558,-0.049941498,0.103905150,-0.086766581,-0.150545398,-0.423606644,-0.136646169,0.086601507,0.108745540,0.037578870,0.068954923,0.252950065,0.245249920,
0.116074665,-0.038723065,-0.033666483,0.084340339,0.080669917,-0.161945803,0.046883462,-0.196222043,0.063636282,-0.301649848,0.131941452,-0.051308185,0.156663631,0.124850541,0.175283891,0.184102330,-0.085760888,-0.146246029,0.047561232,-0.209491986,-0.053402186,0.275812096,0.314564097,-0.189257093,0.122484553,0.095365305,0.179562400,0.074229314,0.094673442,0.115852063,-0.108449648,0.032417416,-0.150386560,-0.079825576,-0.078123660,0.080401681,0.296783070,0.019036183,0.074446654,-0.085803000,0.048456516,0.173209463,0.052776982,0.070484129,-0.106796677,-0.001656935,-0.098175719,-0.309535102,0.095481849,0.081819048,
0.075545019,-0.172034381,0.068240646,-0.053460529,0.096850109,-0.020103151,-0.045342049,0.007801510,0.030202681,-0.012449679,0.067085066,-0.325405041,0.046531846,-0.065856710,0.201218502,0.007129535,-0.070400359,-0.074436376,0.055197937,0.004587249,0.016336926,-0.036031213,-0.176223440,0.044939691,-0.179715607,-0.183689850,-0.033263975,0.047774911,-0.006765424,-0.028544349,0.129373314,-0.261770527,0.099224362,-0.094950662,-0.080310875,0.102791005,-0.137747954,-0.016379870,0.224511114,-0.045311790,0.225043851,-0.112359723,-0.169966950,-0.010284533,-0.028783474,-0.206921750,0.099870487,-0.215465390,-0.108545493,0.267109841,
-0.048674586,0.115141305,-0.065089633,-0.065736646,0.337283646,-0.219842875,0.372163312,0.256593582,-0.063893512,-0.062149446,-0.143082813,-0.108450648,-0.175940315,-0.099944860,-0.010957658,-0.159100439,-0.177713683,-0.043362369,0.009409022,0.080111696,-0.127749917,-0.052452196,-0.128131089,0.037006120,-0.158587271,-0.051889624,-0.002213279,0.103578725,-0.035144436,-0.010115958,-0.038067778,0.267141890,0.063560544,-0.181734096,0.039129040,0.026250786,0.112686014,-0.038503490,0.109112118,-0.362559095,-0.205037215,-0.103500752,0.332123034,-0.442077034,-0.160551060,0.110466724,0.128676971,-0.029589617,0.023979810,0.020432743,
0.086342026,-0.177336820,-0.121478665,-0.057859014,0.192036927,0.053033069,-0.120226255,0.082665106,0.087800261,-0.006150217,-0.067598600,-0.160573347,-0.061091476,0.148966855,0.142855087,0.130214920,0.002453884,0.053782427,0.126486975,-0.194279983,-0.172011945,0.056010109,-0.155508482,0.060175351,0.041640359,0.219029977,-0.046117856,0.097144397,-0.062407136,0.017135423,0.373921878,0.029175818,-0.152051062,-0.031024651,-0.029273097,0.028164486,-0.151459869,0.058210417,0.098173240,-0.009175585,0.079411195,0.008292244,0.029526300,0.122334413,-0.037680975,-0.153805570,-0.154419854,-0.121688851,-0.084782185,-0.166813123,
0.004608856,-0.194623879,0.076663885,-0.086921090,-0.187708871,0.052800340,0.016351560,0.026775434,0.152615987,0.012745838,0.073055028,-0.066179109,0.107530666,-0.025884890,-0.011970893,-0.051663389,-0.170794210,-0.073407411,-0.074845934,-0.052956408,0.160688290,0.022986672,0.024129835,-0.155046988,-0.064912712,0.045838113,0.070883924,0.064387166,0.286582184,-0.207911000,0.001497706,-0.079411523,-0.083551384,-0.013548574,-0.085795735,0.080298802,0.046464414,0.126444302,0.013611248,-0.395163354,-0.003512570,-0.112874489,-0.225912848,0.017084466,-0.047865768,-0.047907918,0.155913817,-0.137146425,-0.175506196,0.073241747,
-0.074223787,0.026934485,-0.224156627,-0.102316607,-0.080417836,0.034540944,-0.010242988,0.226613194,-0.078535980,-0.162362442,0.090694158,-0.035213938,0.074484353,0.054052843,0.071015695,0.271599244,0.122733244,-0.284529195,0.015013158,0.274149538,0.144852074,0.128908559,0.242834750,-0.095369156,0.204532493,-0.072308373,-0.002583014,0.209923858,-0.177106280,0.051500203,-0.237634696,0.065006550,0.182816851,-0.090543629,-0.288681762,0.185057640,-0.021208017,-0.150447713,-0.027997057,0.047694512,-0.189846292,-0.114024735,-0.137410113,0.024785453,0.002660695,0.010591755,-0.011111774,-0.080850760,-0.060679895,-0.120622593,
0.148967338,0.359069380,-0.072207326,0.067677250,-0.067928826,0.059921835,0.157307378,0.183232310,-0.279519841,-0.079816990,0.017951749,0.010631998,0.141149989,0.041761102,0.253608489,0.387313273,-0.064921156,-0.077123166,0.190790444,0.086962363,0.235579881,-0.011628868,0.110798555,-0.197725966,-0.163129030,-0.026974788,-0.050276862,0.170737404,-0.021327387,-0.143356899,0.019261102,0.142670798,0.222906091,-0.046020470,-0.131162026,0.045388085,-0.426215998,-0.096229034,0.159458215,0.074312033,-0.191751450,0.084663605,0.020750828,-0.119200424,0.061347701,0.338030721,-0.083712676,-0.257703955,0.035726877,0.242115169,
0.095136835,0.119558407,0.151766796,-0.156061469,-0.078319681,-0.121359471,-0.003999459,0.289072367,0.077215537,0.208055380,-0.122602450,0.232562405,-0.091358628,-0.112756447,-0.082843369,-0.165701106,0.047570817,-0.280313645,0.155116223,0.167602601,0.127980553,-0.133642672,0.100827766,-0.028114028,0.114614910,-0.094051051,-0.201015588,-0.050605232,0.062930711,-0.007523241,0.010808277,-0.086654991,0.379699904,-0.004865338,-0.049485501,-0.225778274,0.106728813,-0.130160472,-0.015323860,0.026177987,0.012032184,-0.093897285,0.312481043,-0.089105270,-0.099374512,0.088614373,-0.051100951,-0.321268926,0.079089200,-0.024522078,
-0.055634540,0.041091889,0.093103299,-0.119002167,-0.041036343,-0.034524562,0.101749562,-0.203944270,0.129764606,-0.154418906,-0.208138221,-0.053491497,0.171823761,-0.376656258,-0.299049602,-0.024426753,-0.092074115,0.056493496,0.081269438,-0.073294498,0.042659699,-0.057403939,0.308872855,-0.215883985,0.036633957,0.033083699,0.049972438,0.184033795,0.046204923,-0.011892279,-0.041560744,0.060870817,-0.003789656,0.091543927,0.056330210,-0.032460251,-0.119886640,-0.031683193,-0.262434575,-0.212355623,0.162567902,-0.035182786,-0.088469113,-0.055622283,-0.290815898,-0.084183405,0.237422844,0.139312863,-0.059237624,0.105228909,
0.104600455,-0.366336190,-0.053078043,0.010358002,0.212807874,0.125510828,0.035091389,-0.204058014,-0.016885263,0.103718915,0.205084373,-0.057296267,0.015440853,0.034163168,-0.139285147,0.019650433,-0.013309721,-0.175215504,0.294485378,0.060004713,0.005887705,0.145174086,-0.029898626,0.012144038,-0.268224830,0.031846287,-0.197324347,0.007226838,0.025015766,-0.067854496,0.049188293,0.071779232,-0.213429261,0.310232451,-0.231384370,-0.091991369,-0.038752124,0.172314515,-0.093660540,0.234187698,-0.065527361,-0.178473011,-0.201379166,0.006009690,0.119057161,-0.156539497,0.024523001,-0.114095374,-0.221173136,0.124722146,
0.036559881,-0.278254548,-0.005028211,0.208224905,-0.017804281,-0.038433372,0.148027007,0.179442421,-0.046876189,0.202726160,-0.263279176,0.159572999,-0.067263621,0.173449612,0.150128095,-0.041373410,0.362433893,0.139476841,0.049914946,-0.223191525,-0.196634248,-0.022534191,0.001659198,-0.074793183,-0.021345597,-0.296697062,-0.035171909,-0.129877290,-0.285220023,0.137706568,0.168361513,-0.100742002,0.251568887,0.002362059,0.016488275,-0.138944607,-0.006028427,0.025678416,-0.283823782,-0.020703751,0.033113721,-0.107562597,0.045809712,-0.096069434,0.052893281,-0.155935402,-0.225897766,0.013876825,0.219808694,-0.015786020,
0.137969640,-0.178597587,0.037441412,0.097160727,0.145740440,-0.070580423,0.050059956,-0.037163528,-0.031347493,0.032437966,0.088501163,-0.095019311,0.185513642,0.038503442,-0.155068792,-0.088864708,-0.237588235,-0.102827929,-0.141603541,-0.006088598,-0.034804940,-0.451078014,-0.124768361,0.035419933,0.065394577,0.125157552,0.306003635,-0.206662606,-0.006544465,0.105604524,-0.217176661,0.237186085,-0.046297524,-0.044690987,-0.199199654,-0.087074811,0.210698616,-0.158943161,0.269383796,-0.172591880,-0.046717455,-0.027174587,0.107475983,-0.057473205,-0.058737846,-0.059665045,0.213162538,-0.186805681,0.039847497,-0.058201116,
-0.019172995,-0.064902012,-0.059126530,-0.191759329,-0.201703523,0.007665598,0.156524427,0.153238681,-0.181529159,0.038702461,-0.021431770,-0.122059886,0.170680543,-0.075573871,-0.115742583,-0.145355674,0.002732828,-0.116826440,-0.015358230,0.075668142,0.048653824,0.243821265,-0.227962544,0.147207386,-0.007516410,0.058896078,0.081026058,0.055222767,0.065801079,-0.054682704,0.023988031,-0.152710572,-0.080661445,0.146029666,0.201631090,0.009658446,0.021771132,-0.008722059,-0.116322800,0.246927093,-0.022134571,-0.191218875,0.282941174,-0.108680355,-0.047053585,0.155415368,-0.074554779,0.233238322,-0.162703641,0.274613027,
0.059135505,-0.101227739,-0.014656287,0.073713804,-0.138060841,-0.183380568,-0.019200154,-0.002340423,-0.386171749,-0.043640799,-0.036436036,-0.056974669,-0.159147645,-0.165427316,-0.017485203,-0.006181682,-0.048313758,-0.035834469,-0.400481622,-0.067394925,-0.064867676,0.177770183,-0.106703975,-0.112735815,-0.343577167,0.085126723,0.018062194,-0.057482284,0.135396847,-0.114859756,-0.029530878,-0.051214965,0.041284679,-0.129004236,0.062735485,-0.024775204,0.059186216,0.166846090,-0.030447973,-0.045156942,0.211600048,-0.084768931,-0.020235298,0.095416610,-0.316570887,0.117481495,-0.039500232,0.309824154,-0.098077388,-0.204706349,
0.072642521,0.318014668,0.066650075,0.150414054,0.182830830,-0.009934971,-0.218860113,0.128426320,-0.145076319,-0.022674247,0.094350995,0.023776289,0.248627202,0.092616179,0.158623467,-0.126408882,-0.089725995,-0.144179294,-0.188150564,0.104757328,0.218194876,-0.014466754,0.192816652,0.211366939,-0.027737661,0.220517103,0.090766518,-0.017022920,-0.083798796,-0.153492869,-0.001010279,0.090204225,0.254399345,-0.063951091,-0.036699963,-0.193342671,-0.146657771,0.191396572,0.138874401,-0.236267387,-0.111690470,-0.130302881,-0.050758116,0.012339949,-0.236414873,0.074849198,-0.177803207,0.038652982,0.020196709,-0.431930449,
0.235408269,-0.055381472,-0.122784881,0.018566460,-0.091246424,0.160335737,0.101682703,-0.186497286,0.011918780,-0.058100899,-0.018603611,-0.113420233,-0.024433995,-0.030513472,0.099766511,0.278337415,-0.099605477,0.016236178,0.049449593,-0.018495876,-0.126355697,0.027376650,0.218154472,-0.257796953,0.068913253,0.183576142,0.099178062,-0.057051931,-0.236218526,0.079992528,0.118894487,0.009212244,0.016463987,-0.076093266,0.002000797,-0.018974146,-0.181134521,0.159799330,-0.115520476,0.136793350,0.013416606,0.014361565,0.137251190,-0.071766424,0.179612014,0.021395001,-0.274824168,-0.085722777,0.149308203,-0.035809262,
0.191059529,-0.012703545,0.169090750,-0.111626858,0.071310936,-0.124192078,0.141258238,-0.033666296,0.114144839,0.067212757,-0.158627541,-0.120366292,0.179910936,-0.020077695,0.173513971,0.143401118,-0.175897764,-0.089721898,0.034812365,-0.075744825,-0.209810034,0.098912450,0.185956278,-0.041421537,-0.063417727,0.106274877,0.036955851,0.125414342,-0.044290933,0.046994735,-0.017506758,0.005095808,0.060940538,-0.020174123,0.200119445,0.094947179,-0.146200945,0.034962407,0.295573879,0.049899737,0.136331344,-0.214149240,0.177882043,0.118084171,-0.219952462,-0.107451694,-0.081754238,-0.043428503,-0.172620138,0.121381993,
0.247409702,0.029096875,0.055955394,0.013531267,0.078025969,0.458847246,-0.012683372,-0.188097365,0.021565450,-0.168879253,0.014933539,0.012792524,-0.104059180,0.304142684,0.003300198,-0.273733982,-0.044382439,-0.002728800,0.187671378,0.116371060,-0.020800517,0.184361461,-0.031166323,-0.134989018,0.117888740,-0.006436116,-0.115468307,-0.129986903,-0.052180864,-0.160980776,-0.162177748,-0.123816897,0.065123786,-0.150227391,-0.107573212,-0.186540388,-0.061316360,0.112111878,-0.072199782,0.171758765,0.018390072,0.178004227,-0.068487739,0.216174568,-0.116506592,-0.030884108,-0.032114063,0.140528826,-0.026857606,0.023210959,
0.299452244,0.006602211,-0.174748537,-0.056271616,-0.051249603,-0.119193214,0.022423351,-0.029326331,0.190918352,-0.032606859,-0.025686939,0.125584711,-0.013379919,0.098150562,0.037766876,0.150935916,0.440007640,0.154438230,0.190059188,-0.033336254,0.123367826,-0.298677276,-0.200418194,0.081704422,-0.090070175,0.188137702,-0.072076580,-0.064698555,0.032222809,0.143019037,0.119049058,-0.143734019,-0.138489252,-0.052452037,0.181386758,0.028814201,-0.106257750,-0.032919490,0.138247145,0.273746595,0.263448756,0.103145688,-0.101342495,0.015462159,0.044483385,-0.028151475,0.028797970,0.049292875,-0.052944453,0.010163389,
-0.017977529,0.103912763,-0.041598553,-0.061971935,-0.174148079,0.022604768,0.017512653,-0.176317906,0.049105943,0.019050275,0.002337318,0.207539212,0.318912261,0.067407775,0.208357374,-0.063977511,0.058008421,0.149483030,-0.173373156,-0.029566722,-0.029825839,-0.287361843,0.165308295,-0.022037456,-0.068044723,0.140075642,0.137289831,-0.035325066,-0.272629489,0.061791011,-0.085990783,-0.279161682,0.162600061,-0.072809645,0.277211630,0.011979512,0.103311098,-0.191766990,-0.087252954,-0.071603364,-0.059014648,-0.035436359,-0.068559143,-0.258742972,0.227670463,-0.164113929,0.207422945,0.058162129,0.219301666,0.082265582,
0.027734305,-0.097097689,-0.028602695,-0.085444085,-0.189217463,0.144997170,0.137357376,0.115880177,0.174305867,0.263682655,0.196768493,0.110552588,0.141197001,0.054310915,0.101622525,-0.043152610,-0.237046898,-0.071106173,0.018825952,-0.018025108,0.142591017,0.139328166,0.311012820,0.138485240,-0.281136503,-0.057639589,0.237131001,0.038370811,-0.079263060,-0.000449771,0.144498980,0.162644627,-0.093052210,-0.302122716,0.036680965,-0.276837467,0.161445814,-0.070457499,-0.052761467,-0.408467924,0.185291512,-0.088851450,0.231263866,-0.051149739,-0.036277159,-0.014536553,-0.134256305,0.032822224,-0.035330240,0.127958277,
0.167138636,-0.215775411,-0.008840626,0.128879160,0.060000859,0.291084665,0.145010199,-0.228789685,0.202516911,0.020993387,0.009731541,-0.178171141,0.071848617,-0.252781265,-0.184505579,0.075001240,0.050668639,-0.184212298,-0.209861549,0.116347724,-0.025901455,-0.035679368,0.000502279,0.032315078,-0.006266892,0.039567354,-0.032600156,0.337071058,0.170747766,-0.140481743,0.061841780,0.141579387,0.019578716,0.014511913,-0.060926567,-0.006672143,-0.028382429,-0.009681595,-0.115971123,-0.037846520,-0.035008506,-0.040633595,-0.099795801,0.115644479,0.081331472,-0.161984075,0.345046976,0.094322441,0.061435368,0.116291875,
0.048291760,-0.047554451,-0.013044037,0.109715604,-0.142012948,0.045776755,-0.082840768,0.018729700,-0.135852160,-0.061713097,-0.198426473,0.092578590,-0.053391930,-0.006504103,-0.094817348,-0.146751831,0.122844367,0.073719434,-0.036247285,0.149213889,-0.132160747,-0.140128480,0.106077047,0.094042021,-0.021550980,-0.190433393,-0.207790083,-0.190531766,-0.093657268,0.144481679,-0.410658193,-0.145267855,0.046813324,0.037043208,-0.204762638,0.005990442,0.125672937,0.068164227,-0.017667229,-0.233743946,0.054486346,-0.009220688,-0.014163875,0.402534219,0.103103581,0.089632054,-0.187875853,0.034151622,-0.018806456,-0.055041806,
0.001391043,-0.116530783,0.174417422,0.006608254,-0.002069157,0.023905039,0.145711423,0.199526634,0.285862826,-0.061188444,0.111391724,0.141180271,0.063636975,-0.223748461,0.290932773,-0.196007123,-0.103797632,0.280220233,0.114662653,-0.060303313,0.326724570,-0.071981882,0.090156897,-0.239005895,0.071852956,0.121351428,0.112284072,0.159740528,0.077037972,0.240572705,0.141144323,-0.040322974,-0.005882074,0.046129967,0.028484277,0.028737477,0.296970709,-0.095533731,0.183679710,-0.296698581,-0.132654650,0.043931926,0.185442658,0.234519329,-0.043742838,-0.094612099,0.070055259,0.086703516,0.141705029,-0.060757512,
-0.072511708,-0.029112896,-0.170543623,0.134999839,0.039596909,-0.476564524,0.039585921,-0.058350139,0.188714761,-0.207244165,-0.008621438,0.088982654,-0.099649990,-0.382862314,0.437544566,-0.207881047,-0.001233167,-0.001493491,0.087940494,-0.234106224,0.092328856,0.219250831,-0.109136053,-0.149467859,0.053182170,-0.119893861,-0.106194241,0.052520151,-0.184339092,0.119522476,0.148339160,-0.123284806,-0.321668714,0.065171180,0.368983531,0.014006307,0.168250257,-0.126337176,-0.124230435,-0.102969780,0.002451300,0.091645965,-0.179803703,-0.029859462,-0.196046085,-0.106268905,-0.147598082,0.066527102,0.241639526,0.147119629,
-0.032324902,0.263422264,0.114726825,0.052585782,-0.016296013,0.012347379,-0.120923541,0.019829802,0.001913310,0.039564070,-0.280747497,0.117499039,-0.041668188,-0.087971884,0.044791775,0.055125190,-0.210198059,0.103912202,-0.163436476,-0.062359711,-0.035080234,-0.125926276,0.122619678,-0.091419566,0.026492065,0.047123839,-0.165084188,0.108723311,-0.071456014,0.102879492,0.254668432,-0.184715942,-0.057072763,0.191358655,0.114293220,-0.286333702,0.192761669,0.062126882,0.003288376,0.037712824,0.159306337,0.035705136,-0.132948360,0.132953631,-0.032564219,0.104857594,0.037724566,0.216408538,0.217912573,0.382322272,
0.075424101,-0.246001079,0.025453341,0.084071421,0.311000727,-0.008918005,-0.131234780,-0.017906856,-0.190638507,-0.159536334,-0.231955920,0.118564318,0.214157541,0.040804100,-0.090683233,-0.060895763,0.046896418,-0.138429605,-0.058535338,-0.059969977,0.018628526,0.133464449,0.007425448,0.092569557,-0.058247249,-0.106356859,-0.106448704,0.037592509,0.225977681,0.019420535,0.015766954,-0.063828240,0.084440404,0.055682038,-0.080982777,-0.152844832,-0.067365932,-0.309474768,-0.023221058,-0.175688511,0.217225102,-0.041882734,-0.011657107,0.012606458,-0.064066845,-0.049690099,0.167567512,-0.019685593,-0.019382427,0.137552818,
-0.094768411,-0.024284889,-0.171562994,-0.119519465,0.064657874,0.079655889,0.124569564,0.074554316,0.088602035,0.124228616,0.118008081,-0.022270915,0.093324827,0.002340871,0.333603466,0.169393888,0.020777226,0.065367040,0.015396751,-0.090251730,-0.118005134,-0.002774914,-0.087304538,0.112356226,-0.226051399,0.029923627,-0.204186768,0.176252041,0.111166729,0.056647287,-0.033430048,0.128515347,-0.080304129,0.146336341,0.144564437,0.112754831,0.236077112,-0.204206154,0.082603138,0.148830978,0.088098562,0.064027021,-0.039522077,-0.000285853,-0.124071627,0.165269193,0.260946294,-0.050525269,-0.090421002,-0.168186573,
0.380155150,0.146829916,0.030532740,-0.048381141,0.093484953,0.000290957,-0.204821630,0.027896472,0.001083810,0.060799681,-0.074863363,-0.253136167,-0.133434185,-0.018295277,-0.015423897,0.129023802,-0.108442354,0.312942902,-0.185130772,-0.051334802,-0.057065318,0.000575924,0.160738217,-0.163722033,-0.263033956,0.138865035,0.278437291,-0.031508233,0.161369657,0.029437671,-0.107005649,-0.066130236,0.359941514,0.154225578,0.036393842,0.194752191,-0.087523567,-0.028747064,-0.051142625,-0.009512242,0.116716913,-0.100906445,0.183405794,-0.072909845,-0.084425709,-0.025530076,-0.087297502,-0.024705310,0.066103509,-0.079874290,
0.034840823,-0.129909763,0.001080807,0.105112284,-0.150258338,-0.021549542,-0.197295026,0.042270564,0.013159023,0.134495108,0.115662077,-0.041014973,0.022906565,-0.105937651,0.127827356,0.044453177,0.253390607,-0.123405168,-0.038592885,-0.030358129,-0.182169044,-0.017012251,0.067183858,0.290741929,-0.090147106,0.020688592,0.148601268,0.237517482,-0.163252675,0.237921706,0.007413551,-0.105270709,-0.280283925,-0.134879507,0.018424018,-0.061104658,-0.018841939,0.146923621,-0.054347491,-0.108526624,-0.013325952,0.004065518,-0.129861155,-0.152103154,0.312275710,0.046493452,-0.065442685,-0.015958779,-0.434729838,-0.051402502,
0.006810286,0.189035529,0.008054237,-0.040270229,0.131019072,-0.057154074,0.020029352,-0.164106084,0.231052562,-0.065947466,-0.159712894,0.074184419,-0.048035522,0.115014865,0.059284398,-0.091866877,0.035692762,0.212787869,0.172130878,-0.121705596,-0.234164515,-0.100840137,0.038148602,0.112101869,-0.161244993,0.037661147,-0.067622838,-0.044834436,0.055861696,-0.208102219,0.089258862,0.273640393,0.155454473,0.031410001,0.058174430,-0.028408460,-0.067044589,0.015966992,-0.167345483,-0.120115487,-0.157946289,-0.174698671,0.053082365,-0.114182708,0.080185407,-0.091159172,0.235602679,-0.201031764,-0.048345816,0.163022839,
-0.014504470,-0.125443985,0.033695677,0.034600593,-0.377957089,-0.027461663,0.195152441,-0.055550283,0.212454358,0.291814280,0.058481604,-0.151514114,-0.056655312,-0.262289261,-0.281391004,0.120966329,0.057930730,-0.145117326,-0.062410576,0.169361346,-0.032952193,-0.189973339,-0.194428968,0.255970798,-0.133371968,-0.007585642,0.060567328,0.288055787,-0.048245302,-0.159224837,-0.045784594,0.042377783,0.015079521,0.045757563,0.126757630,-0.006974378,-0.013759330,0.083362506,-0.048004455,0.014821844,-0.064591778,-0.061914610,-0.082663680,-0.309954877,0.226673040,-0.175020968,0.074195848,0.145769446,0.060757828,-0.037380675,
0.129246245,0.076509596,0.130637803,-0.105346217,0.028245139,0.058534420,0.153540934,-0.073063820,-0.120888692,-0.053784494,-0.161569964,-0.035888260,-0.016712954,-0.105294531,0.127656006,0.172259795,-0.120937835,0.032770155,-0.002524510,0.156409415,0.178673420,0.183860712,0.026029973,0.065307757,0.096574653,0.189084480,0.088517954,0.033968221,0.191380855,0.097644390,-0.010024407,-0.042538905,0.155942292,-0.005645487,0.157392385,0.221632596,-0.125838496,0.299733743,0.309030066,-0.101099171,-0.055109523,0.170261879,0.003830103,0.071414930,-0.147236729,-0.103602703,0.195110207,0.048721603,-0.191812825,0.090068193,
0.069899954,-0.211529909,-0.276106321,-0.087485529,-0.155068123,0.015511556,-0.230124655,-0.130549217,-0.040407359,-0.022562039,-0.085312754,-0.047834465,0.028608975,0.004140076,-0.134567455,0.032055593,-0.068367123,0.159877732,-0.048327025,-0.200328336,0.124597145,-0.102975705,0.097218087,-0.094458666,-0.077706183,-0.100872424,-0.157681297,-0.128525110,-0.115036473,-0.114848342,0.032628858,0.011771237,-0.189812879,-0.008052023,-0.096829480,-0.031879323,0.022537964,-0.299768417,0.266264694,-0.021309824,0.215268890,-0.070465796,0.191099459,-0.154528632,0.161468365,-0.023651733,-0.020073119,0.001453189,-0.038965429,0.005457359,
-0.059621789,0.001355325,-0.006133599,0.093878163,0.059918310,0.219796996,0.050859735,0.038898852,0.178490908,-0.348253438,-0.069226344,-0.039022113,-0.009274223,0.057803114,0.041169398,0.155769553,0.020215037,-0.013780121,0.248484378,-0.152340216,-0.010301450,0.156563163,-0.206700781,-0.067168635,-0.147893154,0.119084524,0.220860438,-0.213433045,0.134224465,0.379207709,0.027870500,0.039039437,-0.420771776,-0.168561709,-0.152587274,0.155440124,0.036819179,-0.185294738,0.061440408,0.041713903,0.089605437,-0.278796364,0.096186685,-0.203662050,0.088790786,0.004354026,0.040006141,0.031034638,-0.158688846,0.190130029,
0.225914050,0.064968217,0.109184921,0.161361385,0.098181193,-0.134891724,0.211169400,-0.118490994,0.188789307,0.092357301,0.209188429,0.045824548,-0.109991908,0.060039663,0.010397431,0.274765825,0.116906378,0.032738155,0.143033460,0.133143510,0.031606535,0.227508954,0.031519390,0.113494812,-0.266069910,0.020903238,0.037528279,-0.094776789,-0.186592602,0.203740350,0.033345987,-0.032546432,-0.003482819,0.004397434,0.040147864,-0.045974392,-0.239004842,0.021570841,-0.187411921,-0.116660699,-0.017426356,0.198410835,0.051889395,-0.065690698,-0.129665908,0.009310763,0.062025213,-0.107406672,-0.235463138,0.206213342,
0.024483443,-0.022487655,-0.027694246,-0.365819314,-0.058508970,-0.052599117,-0.012110771,-0.037659559,0.174610157,-0.337193369,0.103417094,0.027593560,0.003449445,0.310186028,0.229236543,-0.063033136,0.091964195,0.115561609,-0.107164060,-0.166718305,0.227805287,0.121362526,0.021260902,0.089257435,-0.037688222,-0.036190982,0.179684107,0.098314651,-0.002247168,-0.078663024,0.181336334,0.063057172,-0.083618450,-0.203351455,0.039135070,0.060660300,-0.137728748,0.123653256,0.035126275,0.051696375,0.013660675,-0.011158823,0.210694142,0.282976476,-0.394648177,-0.143825831,-0.050310775,0.108528664,-0.091395110,-0.056422194,
-0.067510825,-0.029053494,0.242871789,-0.214643316,0.131712669,-0.061635867,-0.238615905,-0.063419000,-0.033523341,-0.187679570,-0.084742191,0.063615566,-0.221552816,0.135322371,-0.009127733,0.079931469,0.017062337,-0.047037733,0.166694013,0.079732004,-0.085368833,-0.021640495,0.018629531,0.194299244,-0.051590714,0.220890170,0.011289120,-0.172037724,0.054575105,0.096265212,0.040294743,0.160590342,0.132831421,0.339171325,-0.047477029,0.001030277,-0.098642299,0.102783994,0.004382155,0.180753339,-0.308267039,-0.107989826,0.048548589,0.053621940,-0.195650450,-0.256418229,0.100143790,0.206969875,-0.302320405,-0.051292002,
0.035386117,-0.255669977,0.162867726,-0.072761940,-0.075313668,-0.452274085,0.153111265,0.216351660,-0.306142141,-0.064005540,-0.036591299,0.077445094,0.077709482,0.036174595,0.043341478,0.041343047,0.036664534,-0.022689865,-0.045049886,-0.122221518,-0.243705979,0.272112785,-0.041679101,-0.101975805,-0.188483965,-0.122087871,-0.214110225,0.099871318,0.076814377,-0.315216993,0.199839698,-0.179180783,-0.058140430,-0.074326488,-0.084289565,-0.074463933,-0.144877217,-0.187038247,-0.306202954,-0.054602387,0.024308644,-0.309348746,-0.225982567,0.077883905,-0.049786404,-0.058452256,-0.055075048,0.179041806,-0.030172718,0.139562364,
-0.125027835,0.041421810,0.063474547,-0.126995544,-0.059282628,-0.029342491,0.028564320,-0.037171301,0.072789055,0.211970753,-0.374940738,-0.287994622,0.024997325,0.226599501,-0.036062414,0.292540593,0.045746956,0.217726291,-0.173345217,-0.089160077,0.405652142,-0.221880107,0.013711380,-0.196718944,0.047657626,0.113081960,0.199754081,0.027730577,0.176465498,-0.066133188,-0.147050274,-0.030590689,0.070874085,-0.175233810,0.332125103,0.058404537,-0.188499343,0.105111561,-0.103489015,0.192297114,0.099984057,-0.026712980,-0.122708228,0.025800641,-0.018820423,0.043813397,0.195014186,-0.153599769,0.306893109,-0.063878415,
0.228602588,-0.259319652,-0.080549804,0.018863320,0.000434333,0.008101127,-0.150086561,0.058418637,0.170188036,0.112021949,-0.141521893,-0.002438955,0.025410334,-0.153359165,0.217360977,0.128946398,0.207473423,0.124959454,-0.075284824,-0.280025164,0.185268720,0.155360477,-0.028088458,-0.056365100,0.033799690,0.037830854,-0.403583051,0.025995805,0.071733146,0.150739407,0.159544414,0.087915094,0.050535862,-0.042841564,0.021865126,0.062472026,-0.167109445,0.176516727,-0.181711990,-0.000631020,0.149932595,0.048332267,-0.100136885,0.126315207,-0.169737425,-0.165717564,-0.117797440,-0.043915703,-0.086598790,0.064747848,
-0.218786489,0.030401995,0.187071070,-0.011343693,0.094350739,-0.255402752,-0.192524052,0.225822966,-0.227104397,-0.053039316,-0.032983432,-0.104196062,-0.022174532,0.011514886,-0.044509196,-0.002221144,0.331128987,-0.066389092,-0.061273990,-0.255855641,-0.157341719,-0.002580765,0.136847158,-0.035471386,-0.183461761,-0.156571415,-0.002948968,0.083000336,0.055050846,0.063605729,-0.102892560,-0.105284635,-0.053664391,0.143243802,0.257511616,-0.286562316,0.390177820,-0.059029926,0.044041014,0.115869511,-0.142573310,-0.124470128,0.316904109,0.044435829,-0.188453956,-0.057126505,-0.120705743,0.085472290,-0.155010491,0.042501767,
-0.188107517,-0.337750369,-0.185934752,-0.088369664,0.025255821,-0.026343668,0.005507863,0.203839887,-0.092745942,-0.099061851,0.294997079,0.159613472,-0.017795071,-0.025459646,-0.227410976,-0.003125357,0.095903391,-0.146777439,-0.120445565,-0.095986575,-0.012006344,-0.114469850,0.074376779,0.087015460,-0.178563273,0.219938029,0.131734259,0.189870874,0.208092435,-0.110956151,-0.008591339,-0.091703494,-0.003535135,-0.141897927,-0.108681803,-0.058207923,-0.034151273,-0.180098449,0.077775515,-0.036674116,-0.050371559,0.095804444,0.160798155,0.215592030,-0.228496544,-0.032348607,0.292496816,0.152540969,0.159339724,0.052378837,
0.027967116,-0.134455634,0.144651130,-0.062847390,-0.116774667,-0.028690977,0.179456982,-0.102253577,-0.103006239,-0.133328665,0.035984711,-0.064374530,-0.067833694,0.014611830,-0.182573520,-0.016298844,0.069433265,0.053419144,-0.090944533,0.262586681,0.079523652,0.161388309,-0.099172012,0.199893635,-0.055217267,-0.024568706,0.179595030,-0.073151495,-0.090149512,-0.091149643,-0.042725274,0.159971455,0.013862795,0.103228505,-0.054733757,0.074188062,0.149122770,0.040788276,0.040764318,0.060548135,-0.127295579,0.116273206,0.200940407,-0.088559010,0.029703352,0.072898330,-0.072884601,-0.022178334,0.029077390,0.181954063,
0.107921671,-0.085007587,-0.202702815,0.187145005,-0.087113313,-0.001166453,-0.089840758,0.067381260,-0.161500648,-0.018360031,0.027925693,0.065143770,0.139931287,-0.026847422,-0.112756964,0.086641144,-0.083902583,-0.137754410,0.086114864,0.041497027,0.077394666,-0.054238076,0.135688288,-0.011029882,0.015218891,0.086951372,-0.129335797,0.011300009,0.003018477,-0.060214074,0.182988100,-0.209337887,-0.162295930,-0.002449164,0.057563139,0.080821503,0.170147446,0.012203079,0.258100562,-0.153862284,-0.171179005,0.024077962,0.023902829,-0.092964975,0.141710198,0.133539238,0.076994595,0.014584028,-0.180697643,-0.032923472,
-0.169325869,0.098899743,0.073469979,0.072279228,-0.218691897,0.193048513,0.079428356,-0.086345276,0.085415749,0.067552775,0.133142703,-0.010800001,0.009659729,-0.089683260,-0.139293769,0.312755437,0.098287532,0.247766544,0.102888847,-0.123610203,-0.106056016,-0.036789546,0.091944558,-0.133983095,-0.246393438,0.063119340,0.318789175,-0.107767424,0.011155007,-0.160083042,-0.181615654,0.121104000,0.041905223,0.152723695,-0.237466587,0.132140920,0.220236276,-0.333888360,-0.009707126,-0.032977883,0.041892435,0.014560456,-0.047078171,0.044778698,-0.040309797,-0.084733792,0.182654792,0.314713774,-0.165254559,0.085222963,
-0.011778237,0.084933425,-0.067543698,0.085802756,0.093885933,0.001835787,0.143656810,-0.062603595,0.339494820,0.037041288,-0.058620066,-0.105574580,0.294953512,-0.035017368,-0.308202330,0.011613978,-0.190673720,0.081425614,-0.269368747,-0.106496808,0.047045326,0.294104032,-0.063964863,0.162413143,0.050266502,0.096716869,0.132512285,0.011687605,0.287493411,0.091437711,0.261071537,0.009440917,-0.023830103,-0.055453355,0.155399994,-0.211507398,-0.153453599,0.116251203,-0.115001685,-0.095249599,0.185927648,0.033472239,0.023123549,0.079906357,-0.206038215,-0.001039238,-0.005904694,0.051029531,0.276427306,-0.135830789,
-0.104421801,0.149188243,0.033355606,0.290396180,0.189926626,-0.367443878,-0.084846265,-0.058935683,0.271703643,-0.143732218,0.032823214,0.122230355,0.164776084,-0.186506900,0.185856473,-0.096937173,-0.055714878,-0.191563625,-0.003918663,0.104656365,-0.002053972,0.181281356,-0.007663681,-0.043599014,0.102024533,-0.058974719,0.019619988,0.093122281,-0.108985815,-0.068085303,0.084541732,0.164196002,-0.037931723,0.357343627,0.144216559,0.084247764,-0.124474853,0.219140981,-0.103215165,-0.088045544,-0.103967536,-0.079943160,-0.116062733,0.113317907,0.022083754,0.109994275,0.090741942,0.182839647,0.049184461,-0.241984096,
-0.094682617,
0.122239329,
-0.269134833,
0.003389150,
-0.021067171,
0.007767529,
-0.067113220,
-0.187659941,
0.157415916,
-0.022724675,
0.305240430,
0.094259070,
-0.024004988,
-0.090900735,
-0.112104244,
-0.041322292,
0.184810810,
0.153908683,
-0.040936124,
0.059390075,
0.086034497,
-0.042097162,
0.101523096,
-0.033263063,
0.201847880,
0.032776268,
-0.011052320,
-0.150318416,
0.043463340,
0.021035798,
0.009222121,
0.145719223,
-0.002216746,
-0.074774976,
0.003351312,
0.335790809,
-0.161485131,
0.131260233,
-0.106174882,
0.001904580,
0.228484897,
0.056809867,
0.109515601,
-0.064731673,
-0.029722546,
0.010535852,
0.085553969,
0.209100246,
0.039001728,
0.020301422,
0.127908919,-0.308972367,0.005698022,0.025298833,0.016730300,-0.228092359,-0.131206622,-0.011936518,-0.010456614,-0.066684194,-0.008597771,0.196078584,0.087563069,0.078993184,0.100695605,-0.082109867,-0.122677044,0.185964516,-0.043302707,-0.219219243,-0.070326056,-0.269228011,-0.006397377,0.077339817,-0.067597873,0.169905496,-0.010393890,-0.156443917,0.007962790,0.178288742,-0.072899305,0.171804222,0.015539575,0.005870793,0.164252521,-0.125226870,0.005061481,-0.038472120,-0.001785367,-0.001474250,0.087001719,0.059930313,-0.160055552,-0.039939900,-0.059873109,0.006373616,-0.125992464,0.050018598,-0.043889598,-0.124537265,
-0.103572736,-0.032421020,0.046581554,0.242319129,0.095179572,-0.022823969,-0.306292507,0.169051483,-0.081362651,-0.186113924,0.205495069,-0.115878144,-0.148521603,0.101276187,0.032441812,0.143900428,0.031927679,-0.105853752,0.029816527,-0.119539198,0.079291413,-0.070264394,0.053250914,0.141344345,0.132181648,0.077524783,-0.014678870,-0.005588496,-0.084571253,0.054399304,-0.108134584,0.048112958,0.068989589,0.103087050,-0.023790922,-0.134629959,-0.147792512,-0.035041336,-0.072185847,0.022205798,-0.019560051,-0.126865653,0.067039960,0.002420416,-0.158739263,-0.072048479,-0.088856580,0.037117546,-0.144736650,0.032345622,
0.135435584,0.031113142,-0.001016668,-0.089485342,-0.154454566,0.002185790,-0.279431569,0.127134005,0.025033971,0.094746222,0.110310310,0.280028925,-0.151998945,-0.089232575,-0.034618489,-0.145732598,-0.152020948,-0.090878146,0.036337775,-0.053156312,0.143449771,-0.255679158,-0.020620536,-0.158180163,0.009898870,-0.281735379,-0.190812021,0.181519411,-0.041561803,-0.179913363,-0.071049893,-0.120538870,0.067878360,0.078213400,-0.063231700,0.171459818,-0.045455049,0.329590933,-0.129824647,0.123462562,-0.089842560,-0.029352873,0.062285190,-0.038993387,0.073598266,-0.172280562,-0.415098621,-0.092488641,0.108180568,0.003804439,
0.336315498,-0.045149418,-0.049549591,-0.012784739,0.087513938,0.041964208,-0.287133888,-0.033676508,-0.075364237,0.043024738,0.240085569,0.017911265,-0.078928437,-0.149885398,-0.171599193,-0.017569771,-0.005336635,0.069358325,-0.070420985,-0.102798474,0.068851325,0.053585485,-0.057306692,-0.149160473,-0.019261084,-0.140375737,-0.046570505,-0.020514059,-0.180906691,0.027746612,0.074096854,0.033430666,-0.009344121,0.051705135,0.075191481,-0.016089734,0.123312989,0.280641396,0.080254355,-0.023045821,0.011889602,-0.182607027,-0.141131401,0.052906236,-0.204189999,0.061322618,0.286513198,-0.200959389,-0.038733725,0.049621321,
0.128155475,-0.127732930,-0.123242859,-0.210517969,0.046052441,-0.050376923,-0.138796571,-0.004863627,0.377399376,0.085432229,-0.098628471,-0.016803325,-0.042417502,-0.104728367,-0.297677223,-0.250733925,-0.113095664,0.027461364,-0.079956244,0.150880171,0.073466848,0.169050353,0.084333272,0.195577636,-0.053014426,-0.089682402,0.151329005,0.358423261,0.074326582,0.155071752,0.033208503,-0.160986561,-0.123966463,0.115140167,0.028279592,0.054675736,-0.132493878,0.175612408,0.045012534,0.114003642,0.342438639,0.050409829,0.006804397,0.004160153,-0.118862217,0.260473281,-0.352311361,0.083102453,-0.072098220,0.160990535,
0.109252563,0.151017886,0.190122218,-0.359092293,0.014060109,0.002807189,-0.206929595,-0.305441898,-0.117426304,0.262542774,0.126146912,0.094409179,-0.005843508,0.178911000,-0.024054214,-0.147655817,-0.147265525,0.084518590,-0.076899834,-0.004139579,-0.114261915,0.010871649,0.136861926,-0.083712592,-0.031506017,-0.220577203,-0.200754979,0.068281186,-0.007713383,0.076378480,-0.195286037,-0.023477289,0.020825728,-0.009693167,-0.335761900,0.007766046,0.197270387,-0.039482746,-0.235969803,0.246084955,0.113429473,0.149656568,0.162358320,0.048283170,-0.038057721,-0.208086479,-0.154235803,0.073524116,0.163631098,-0.045630384,
0.074496515,0.365953763,-0.017232028,-0.123728445,-0.181540379,-0.222767087,0.141297605,0.076058382,0.093576115,-0.017423989,0.155627198,0.298109832,-0.090789176,-0.026533370,0.060026640,0.247191596,0.003823577,-0.043335442,0.296543701,-0.071537999,0.146666691,-0.073516135,0.210531841,-0.022218872,0.169128419,0.106815347,-0.101904079,-0.059875507,-0.081975061,-0.179670260,0.161968858,-0.056451150,0.144113534,-0.103008959,-0.139927479,0.119597279,-0.106569311,-0.191949905,0.460111321,0.021072024,0.118896690,0.145807286,0.112424982,0.268733415,-0.215166066,-0.193252500,-0.023163069,0.272253617,-0.042499925,0.012646229,
0.085378750,0.184709335,0.052849716,-0.317840120,-0.040387415,-0.144931864,0.117055781,0.101263400,-0.021965586,-0.172868095,0.074026200,-0.112215653,-0.130869660,-0.035559108,-0.082697137,0.222905185,0.042181589,0.073231464,0.103751123,0.111601115,-0.233676900,-0.208181699,0.097954041,0.120502073,0.132503167,0.003613164,0.154562970,0.122947899,0.247453945,-0.274455718,-0.190640887,0.270204599,-0.032236542,0.013702572,0.056700224,-0.024129379,-0.102300841,-0.135891135,0.246625851,-0.044868674,-0.261237674,-0.013178499,0.001933523,-0.085710109,0.093146965,0.142271258,-0.070031224,-0.051598297,-0.235940853,-0.083557296,
-0.081041168,-0.042540278,0.175833077,0.040844936,0.015747104,-0.156277894,0.150041671,-0.074689784,0.032397173,-0.066224739,-0.141016954,-0.178524087,-0.002554128,-0.131807947,0.101947346,-0.049757675,-0.036049659,-0.217139188,0.187621498,0.265759825,0.188701758,-0.012535650,-0.196561184,-0.024139190,-0.010141415,-0.177623293,-0.106886504,-0.108897776,-0.071749720,-0.066748391,0.024530402,-0.029608242,0.214593937,0.118329951,-0.008963503,0.267353813,0.058888877,-0.160764787,0.265800905,0.124038745,-0.037347846,-0.163912524,-0.139452906,0.148393705,-0.227744446,0.045076608,0.312608172,-0.066597548,0.230327680,0.068857080,
-0.065741957,-0.157016071,0.384514968,-0.025836154,0.217375274,0.025597874,0.028493616,0.173805918,0.167967900,0.214498880,0.019871065,-0.032802769,-0.022409374,0.270116789,0.222559020,0.087802401,0.132870482,0.151288335,-0.034481407,0.060822266,-0.195020251,-0.198622931,-0.037644855,0.063614915,0.170443276,-0.073942819,0.070711787,0.131140687,0.016996429,-0.060205806,0.094731247,-0.114040484,-0.089796844,0.073491961,-0.101814497,-0.015839356,0.082463933,-0.258284091,0.064075033,0.087394570,-0.009698535,0.080475105,0.026611384,0.321788550,-0.053347436,-0.097218209,0.048029253,-0.322352015,-0.057763624,-0.083466492,
0.071883146,0.032401103,-0.009713405,-0.236470860,0.128905799,-0.064686348,-0.209402194,-0.100452114,0.066875074,0.168952667,0.162299719,0.039524365,-0.006689285,-0.050033877,0.040614040,-0.236568826,-0.111121560,0.021007756,0.113470355,-0.022236816,0.049680239,0.170636492,0.112711312,0.112185145,-0.095121811,0.290164304,0.080534866,-0.004221827,0.017168636,0.091114429,0.070854829,0.069705442,0.277184099,-0.249603792,0.051732833,-0.260166810,0.108301000,-0.054146999,-0.107526699,-0.208651534,-0.052524176,-0.009249933,-0.036437054,0.084516116,0.099459702,-0.235943963,0.166277535,0.002597821,0.174983540,0.197420744,
0.014786104,-0.073969523,0.110354569,0.032239459,-0.121910721,0.042509764,0.113506796,-0.026321619,0.029647691,0.147389829,-0.314100267,-0.210048036,-0.171611089,-0.317544251,-0.074124847,-0.076147304,0.113615699,0.109915508,0.002894509,0.387555346,0.134503850,0.015085071,-0.227617124,0.136491178,0.031777731,0.023467985,0.014631314,0.004394850,-0.012650233,0.014200527,-0.084679310,-0.167154627,-0.207282193,0.278309075,-0.015012853,0.059578544,-0.167655575,-0.135335170,0.064424762,-0.076255327,-0.044618259,-0.018730567,0.096224499,0.069087491,-0.119983365,0.164126730,0.122639969,0.118367810,0.135565586,0.096585081,
-0.019793759,0.085647725,-0.248427253,0.040789265,-0.215469276,-0.099120732,0.227000049,0.169625539,-0.184091222,-0.259870198,-0.187213297,-0.145318605,-0.266490107,0.060995527,0.077893754,0.028493155,0.018902292,-0.141544876,-0.082707812,-0.051119758,-0.080937135,-0.222990459,0.075369118,-0.354305779,0.322931126,-0.109423580,0.017470215,0.163829632,-0.015317320,-0.034782368,0.175245474,0.022081413,0.003073233,-0.138417028,-0.109997281,0.045774761,0.037110077,-0.255768309,0.077946864,0.033264987,0.243835170,0.043762048,-0.150195153,-0.052616539,0.090738502,0.209233430,0.084540360,-0.063578443,0.017645210,0.012992165,
-0.027368442,-0.047094191,-0.279490898,0.147884899,0.083422166,0.259966464,-0.123452910,0.135820735,-0.015219004,0.157741878,0.000854484,0.030596700,-0.015904467,-0.112048973,0.172554899,0.167429600,0.287801082,0.010014688,0.092401541,0.226412658,0.110301401,0.098234117,0.087619521,-0.096887032,-0.067436748,0.086599002,-0.067918097,0.021729690,-0.015071427,0.241042567,-0.071188503,-0.093751802,-0.262055507,-0.198210844,0.023224093,-0.284842130,-0.323478859,0.082559221,0.076507706,-0.159247277,0.080596179,-0.037593634,0.059513838,0.059499639,0.176961829,-0.080033666,-0.263968484,-0.232705114,0.066229498,-0.042320203,
0.177182566,0.090605062,-0.046760452,0.214777291,0.052744466,0.041906837,0.112906804,0.106066715,-0.017211542,-0.009689159,0.151278977,-0.092644534,-0.160459880,-0.112950012,-0.084174753,0.107321193,-0.014987682,0.201977814,-0.229225189,-0.003811444,-0.127489530,0.139622292,-0.147053887,0.134618343,0.155987082,0.080218113,-0.078748183,0.233962807,0.218739651,0.054896653,-0.020192350,0.090358723,-0.171067024,-0.004920466,-0.069631007,-0.170095666,-0.062795098,0.232193250,0.110956357,-0.130726702,0.047745582,0.161204074,0.087099386,0.196376737,0.100060858,-0.091206669,-0.043187543,-0.116426110,0.041832001,-0.124288722,
0.069055550,-0.127612681,-0.073573790,0.311431770,-0.108924199,-0.068976853,-0.158759663,0.028094371,-0.125244791,0.005556429,0.051416903,0.056987902,0.070121851,0.007794143,0.093278615,-0.196079907,-0.014423761,0.135196798,-0.285647253,-0.196177875,0.062421194,0.091719740,-0.005317513,0.055294752,0.007531936,-0.042807847,-0.233942950,0.082197569,-0.019194706,-0.315177866,-0.153800671,0.075525469,-0.137146817,-0.151400659,-0.134906813,-0.052360272,0.200842658,0.057764789,-0.045202629,0.283651261,0.079716637,0.043590178,0.027915758,0.156311950,0.085912032,-0.164380214,-0.082098566,0.229628062,-0.169327064,-0.112356900,
-0.028287514,-0.071956225,-0.240423832,-0.001290704,-0.017993651,-0.285503258,-0.174898298,-0.026690515,0.097446797,0.208118846,0.002951074,0.029104348,-0.018250904,0.064213765,0.092579553,-0.012683167,0.010739369,0.166575269,0.152391103,-0.348306750,0.117129498,0.015464094,-0.060612939,-0.034636606,0.207508780,-0.016037134,-0.119651840,0.086825393,0.007517575,0.034909434,-0.267222805,0.054522912,-0.056191480,-0.215713085,-0.101164844,0.115318384,-0.003849577,0.053154971,0.025479380,-0.012357098,-0.044243154,-0.161860374,-0.183852929,-0.018551648,0.162952367,-0.132209843,-0.236445638,0.010242818,-0.179755969,-0.036449271,
-0.018882719,-0.002528733,-0.181329944,0.030664939,0.154680144,-0.251780072,0.036680438,0.034448819,0.300226932,0.366064248,-0.056140301,-0.056469404,-0.028010215,-0.175921173,0.105121886,-0.138676721,-0.149062350,-0.338786648,-0.311857597,0.027235268,0.162687765,-0.065684586,0.047810204,-0.128315540,-0.048711980,-0.062750736,0.127265749,0.015504510,0.003323880,-0.012594737,0.013757347,-0.076418398,-0.275548184,0.010415761,0.162631209,0.032331507,-0.166395957,0.257059449,0.074564486,0.067677183,0.165413857,-0.283976629,0.136627207,-0.196288873,0.032741383,0.078914800,-0.113073881,0.018252725,0.268966317,0.027531842,
0.100574253,0.176215037,0.063987864,-0.108953426,-0.044545004,-0.051976311,-0.146590403,0.054017936,0.024034920,-0.052510627,-0.080136619,0.104128412,-0.326557417,0.085934191,-0.138108424,0.008435385,-0.002399278,0.331232729,-0.068067085,0.026257425,0.128684987,0.074978472,0.062123665,-0.044981241,0.044201669,0.200016576,0.053047977,-0.015503934,0.073280774,-0.072228874,-0.211051431,0.044350937,0.181417541,-0.147711016,-0.116106672,-0.108218090,-0.175986515,0.127096132,0.107644573,0.090875402,0.041156639,-0.102506418,-0.185346547,0.115674625,-0.113576136,0.058721442,0.127423674,0.030177013,-0.124027774,0.031638568,
0.005033922,0.117522391,-0.001187368,0.017389554,0.133186956,-0.008877614,-0.012347001,0.129934531,-0.012722600,0.182276940,-0.014251277,-0.009802179,-0.078227627,0.127580196,-0.010892368,0.003442274,-0.141708701,0.231693666,0.133408233,0.245125675,-0.057752333,0.060506331,-0.172120167,0.154915082,-0.073248931,0.068385020,-0.083574210,-0.188882014,0.008277960,0.128638015,-0.045994548,0.053673147,0.174375244,0.062297521,0.031729263,0.023034413,-0.000087106,0.064694004,-0.246231359,0.019172813,-0.157489324,-0.095839926,0.002150640,0.022787871,0.068229717,0.063623385,0.005594465,-0.309199271,-0.323912700,0.072860093,
0.274836178,-0.126323338,0.107362928,-0.060409695,0.099501314,-0.171844255,-0.044249163,-0.397306135,-0.009527223,0.034906356,-0.012388464,0.111381991,0.050416329,-0.215108807,-0.001696966,-0.180523581,-0.192562617,0.084211190,-0.096867649,0.191292014,-0.080770455,0.053350994,0.228153208,0.042254639,-0.260324100,0.062356035,0.054235180,0.119262298,-0.197939636,-0.078509469,-0.098918454,0.067431244,0.040865444,-0.017531415,0.061911957,-0.115788259,-0.018230693,0.140429379,-0.073767589,-0.093049902,0.015916526,0.131172990,-0.096775522,-0.081403017,0.304173561,0.221452467,0.082026686,-0.107695655,-0.123265661,0.161464736,
0.005489433,-0.006743723,0.128788837,-0.239491039,-0.056540421,0.295820172,0.074954724,-0.060047286,-0.184322610,0.092701261,-0.246805543,-0.016274360,-0.286167048,-0.211466829,0.005386479,-0.013732798,-0.053805339,0.008986412,0.153870447,0.021938821,-0.020030407,-0.289875769,-0.150898867,0.039443767,-0.071172925,0.062587251,0.104824472,-0.067095659,0.102998173,0.008116825,0.040092660,0.111566892,-0.126706506,-0.101597511,-0.079509487,0.010818016,0.024785520,0.108222594,-0.041480807,0.239937163,0.015888233,-0.148424107,-0.092861502,-0.358872926,-0.136245441,0.159930620,-0.045982197,0.025661295,0.085362010,-0.125178687,
0.048543922,0.129169437,0.044966411,0.069704470,0.261488836,-0.011230462,0.162467233,-0.291709085,0.025585543,0.214542925,0.066295398,-0.067968184,-0.099938909,-0.096169513,-0.265186577,-0.105946084,-0.107806019,-0.196506353,-0.073726938,0.123985038,-0.229738827,0.003172193,-0.041845384,-0.061299180,0.216452563,0.003129968,-0.000626998,-0.052101733,0.239831441,-0.090330837,0.029350100,-0.033976438,-0.042302989,0.123559742,-0.342038035,0.015284739,0.034811263,0.064449615,0.015942398,-0.115513556,-0.106860142,0.022848461,0.142463373,-0.012052035,-0.170789000,-0.105437279,-0.143266010,-0.199161891,-0.146807779,0.170479715,
-0.275785737,-0.197224745,0.147907434,0.201113169,-0.154194989,-0.198957763,0.172130842,0.261378355,-0.065228099,-0.166530095,-0.100701248,0.029704487,-0.056547087,0.046937208,-0.067352013,0.014176802,0.031793610,-0.094639288,0.197652682,-0.051774201,0.072704221,0.167760877,-0.049986672,-0.074788855,0.136746090,-0.276929742,0.011800057,0.010574603,-0.002407324,-0.060155666,-0.060399905,-0.194638173,0.239062057,-0.037359756,0.110711626,-0.314229446,0.038507655,0.148034040,-0.003856969,-0.027715791,-0.085827298,-0.066798148,0.358019920,0.000989864,0.153485851,0.192113041,0.260614184,0.061983318,-0.117414403,0.127210198,
-0.041865446,-0.098865206,0.143635102,0.170641410,0.030783497,-0.060876419,-0.059574346,0.097329072,-0.155958106,0.363666879,0.140725369,0.144030421,0.022316005,-0.041366029,0.232523235,0.144081413,0.193745074,-0.095750073,0.081828823,0.041779482,-0.031728813,0.049895192,-0.137966284,-0.199692835,-0.209706341,-0.179649319,0.069132509,-0.031902314,0.122250832,-0.022686378,-0.137715238,-0.065201721,0.184290615,-0.159495223,0.240456887,0.057925415,-0.026760327,0.170711452,0.133030959,0.046911449,0.197234935,-0.190578999,0.245247826,-0.119283163,0.115344205,-0.338458809,0.228620255,0.294397404,0.033381100,0.131346137,
-0.011004099,0.010984555,-0.240328978,-0.116429432,0.118775807,-0.247583579,-0.152187212,-0.335723377,-0.128360736,-0.025242141,0.057780634,0.081677181,-0.172905250,0.121962347,0.073382470,-0.023147327,0.202134586,0.149731124,-0.131441437,-0.031636871,0.210936289,0.068267013,-0.062897626,-0.076751761,-0.213827796,0.358111595,0.031094265,-0.007945445,0.209771653,0.051420974,0.008284387,0.157710856,-0.093790695,-0.087074404,0.119913307,-0.036105316,-0.129589188,0.086027993,-0.128461489,0.029820716,0.226378366,0.135982789,-0.269759570,0.053241613,0.127792937,-0.054150249,0.145539215,0.185033998,0.079494313,0.079121494,
-0.127759731,-0.091629348,0.043153577,-0.045295238,0.159024848,0.051139081,-0.043114875,-0.054207034,-0.136418766,0.005847137,0.020980550,-0.178781073,0.087525985,0.343606703,-0.162289018,-0.172133183,-0.167481736,-0.020530048,0.114866547,-0.175731773,-0.081782653,0.123217217,0.123476785,-0.000185453,-0.039422276,-0.019769221,-0.005208959,-0.010181602,0.077578092,0.048461035,-0.043613607,0.046459212,-0.009134432,0.024687159,0.193956584,0.008322864,0.056084385,0.071734608,0.044978961,0.087230435,-0.092302216,0.153985764,-0.431787925,0.171232285,-0.228682704,0.049339493,-0.005168164,0.192294780,-0.098457026,-0.022584924,
0.119431124,0.289046678,0.099877506,0.064922418,-0.251231349,-0.143561832,0.133782774,-0.299473844,-0.099773720,0.232676947,-0.110634660,0.026259340,0.074554153,-0.018463335,0.283164859,0.074689244,0.139987494,0.132273711,0.087190617,-0.077547662,0.299226865,-0.066140677,0.254747044,0.161867625,-0.031341674,-0.171439896,0.057751409,-0.139914680,0.290296553,0.333560675,-0.119013000,-0.090763589,-0.064520274,0.031374574,-0.056032488,0.041627448,-0.034707981,0.477549186,0.048491022,-0.033658751,0.187204475,-0.202391712,-0.043543835,-0.094994389,0.146158163,-0.046868130,0.113060265,0.224303381,-0.180487272,0.026231236,
-0.008927695,-0.085734960,-0.101765473,-0.086114867,-0.084715023,-0.032162168,-0.058260989,-0.137207441,-0.204899013,-0.035463159,-0.210989957,0.259715266,0.066856170,-0.003973108,-0.035061096,0.122253446,0.167592532,0.091663345,-0.183423583,0.133753760,0.292879976,-0.052952194,0.010416166,0.175225514,-0.071561089,0.096938939,-0.113005446,-0.090795262,-0.067531833,-0.193458069,-0.004569215,0.251739315,0.147512981,-0.146903750,-0.051124594,0.011362814,-0.009393846,0.155692567,-0.012209954,0.083595903,0.015409652,-0.077144374,0.090636782,0.018021535,0.007456069,0.005275263,-0.124418126,0.033078861,-0.025258326,-0.053992845,
-0.185285932,-0.033685737,0.023219710,0.046867685,-0.029898848,0.038305263,0.088398145,0.043764455,0.128020944,0.070522748,-0.068085543,0.127027637,-0.218914363,0.075008889,-0.127778130,-0.091300510,-0.018365428,0.089996711,-0.096495906,0.026388157,-0.190702925,-0.345345090,0.213783325,-0.153673977,-0.169858705,0.150436086,0.252173823,0.097244998,-0.142413637,-0.102310059,-0.009378355,-0.009561673,-0.091893008,0.043734158,0.104299973,0.075897543,-0.051434738,0.056162032,0.220435916,0.044104381,-0.134025946,-0.017624298,0.050218302,0.075592444,-0.035704580,0.042625674,-0.089074023,-0.150703446,-0.055289020,-0.247250501,
-0.252370700,-0.101392396,-0.046646345,0.094916741,0.079476758,-0.134015022,0.240514992,-0.009844026,-0.139562156,0.072502739,-0.133861511,-0.060915172,-0.056905643,-0.166478402,-0.146243865,-0.287664910,-0.163874687,-0.157106539,0.149042734,0.028221524,0.036174569,-0.204553878,0.072208930,-0.120080911,-0.212815161,-0.035353312,0.056023628,-0.049424915,0.190683948,0.037378799,-0.166131223,0.205412458,-0.006739039,-0.216917325,-0.006095158,0.031168710,0.277440052,0.052704897,-0.055278498,-0.151055385,0.189561368,0.171231304,-0.098861847,0.108007712,0.159682330,0.092719820,0.076171723,0.050299263,-0.135328182,0.340643984,
0.112119386,0.178992539,0.088711736,-0.143192128,0.073366536,-0.002512419,-0.097563576,0.131425894,-0.241258831,0.103222722,0.180183692,-0.049253238,-0.068345317,0.028540993,0.018049136,-0.052323794,-0.250934287,-0.050605854,-0.028286345,0.083754109,-0.025614656,-0.024036469,0.235596984,0.016876114,0.197182233,-0.072008924,0.043360896,-0.194939942,-0.087988404,0.068847445,-0.025089572,-0.040585387,0.081568941,0.240764563,0.217902466,-0.147927126,-0.010542926,0.154835217,0.118124102,0.363005161,-0.120409364,-0.055325314,0.057991245,0.289548107,0.027522558,-0.163867092,0.132922429,-0.184789096,0.175597373,0.090015037,
-0.217674779,0.129892863,0.066026750,-0.263806752,0.103146129,-0.030893964,-0.148652680,0.200027819,0.083437894,-0.113206302,-0.078018348,-0.199192609,-0.026784233,-0.147926489,-0.142998757,-0.049913244,0.124354881,0.288769668,-0.182412166,0.225780957,-0.102551261,-0.275431509,-0.134369937,0.071905062,0.052415385,0.024245645,0.211114291,-0.153480509,-0.214963302,-0.061075212,-0.094506098,-0.212102917,0.202082904,-0.129485117,-0.259269647,-0.357337782,-0.153532618,-0.349265745,0.247317745,0.086542790,-0.190231410,-0.003617979,-0.159356540,0.045456875,0.172648672,0.045347998,-0.206098566,0.057720878,0.204272626,0.351301693,
-0.011417392,0.117923843,-0.005724438,0.002570789,0.065864937,0.115297515,-0.037766195,-0.221280198,-0.355490122,0.114827450,0.008631440,0.009282116,0.007705465,-0.034136299,-0.030308457,-0.069232011,-0.102259856,0.044055017,-0.345372682,0.115331591,0.247994524,0.077705951,0.071555427,0.064154221,0.270165609,-0.006805061,-0.141167587,-0.098106677,0.072614766,0.247398465,-0.010135654,0.040367195,0.094578192,0.081264260,0.102648115,-0.019972600,-0.106170644,0.112789432,-0.299413684,0.135431694,0.134949572,-0.067632722,-0.030623265,-0.084233411,0.093985648,0.004533936,0.022439218,0.197117873,0.412804393,0.240194011,
0.300994688,0.062409204,0.150872780,-0.125806516,-0.021413496,-0.061813071,-0.129296333,0.089306418,0.153187129,0.029624889,0.105274373,-0.021935536,0.035423962,0.012877486,0.098393864,0.196657769,-0.035373879,-0.105700682,0.085096709,0.169142065,-0.217957219,-0.337466719,0.169694607,0.143566897,-0.184101192,-0.076129785,0.344913750,-0.004438489,0.186934308,0.061791915,-0.087993864,0.080822282,-0.124166386,0.033153673,0.035181667,0.092088204,-0.332793466,0.111008337,0.102262589,-0.029251012,-0.247159450,0.103859977,0.007847316,-0.098473337,0.062353529,-0.069055837,-0.032979049,-0.016135833,0.130042163,0.206438862,
0.138915663,-0.086798050,0.050553716,0.086955240,0.109477148,-0.070940435,0.059604801,0.174438460,-0.121025340,0.247428263,-0.236830514,0.259747142,0.088251114,0.004135805,-0.062306554,0.215435841,0.099050374,-0.054819682,-0.034395989,0.113048932,0.115806933,0.023046053,-0.164817500,-0.156891826,-0.075318625,-0.009698738,-0.321433520,-0.081004544,0.349327977,0.235666165,0.150234135,0.089703855,-0.115924589,-0.380681102,0.101780710,0.044554597,-0.122968832,0.221899145,-0.071391823,0.183091747,0.060426553,0.101410481,-0.122998851,0.122591751,-0.008141449,0.287502433,0.042132057,-0.098407125,-0.001639925,0.142247873,
-0.046162549,-0.019886053,-0.023154121,-0.096611689,-0.070312054,0.024329783,-0.085227543,-0.003127895,-0.067478172,-0.033452672,0.023538533,0.202488579,0.080387472,0.168355088,-0.318995040,-0.357396178,-0.171817992,0.013557109,-0.324563469,0.056178388,0.098456795,-0.048863893,-0.196976377,-0.224174595,-0.016428182,-0.108329501,0.096964562,0.171926672,-0.065233785,-0.117540298,-0.162521926,-0.108803854,0.103144506,-0.187583905,0.147326506,-0.118992676,-0.113535846,0.120197388,-0.044603699,-0.042088260,0.205190165,0.099981426,0.043945901,0.007550123,0.242366275,-0.073770369,-0.072001995,0.176880719,-0.033040305,-0.200346992,
-0.152811559,0.155281348,-0.088932932,-0.170054161,0.140279320,-0.211258850,-0.181876126,0.142520219,-0.038553821,0.200463989,-0.065792930,0.186697341,-0.012133973,-0.226137360,0.078489868,0.198091693,-0.187414383,0.160586465,0.061938388,-0.268810580,-0.133864386,0.090593757,-0.011322730,-0.169688360,0.187255125,0.295290814,-0.185269699,0.144567243,-0.249104628,-0.091027002,-0.080619325,0.016370103,0.017119487,-0.023457364,0.112503318,-0.077319790,0.212285908,0.106807481,-0.281774021,-0.157581239,0.108484594,-0.216558952,-0.127215181,-0.151219617,-0.098519280,-0.084962797,0.057061656,0.327421270,-0.063165531,-0.125402628,
-0.436901350,-0.141580066,-0.095570854,0.098780086,-0.015106982,-0.047990207,0.030489965,0.177595454,0.206995175,-0.054619153,-0.040900867,-0.119558847,-0.002440895,0.238456461,0.012879389,0.267999426,0.104496115,-0.055938603,-0.068328298,0.274791057,-0.007320799,-0.200707725,0.212552373,0.024403428,-0.122179810,0.145668732,-0.038169801,0.159420796,-0.289490059,-0.040274784,-0.081451057,-0.021146260,-0.062073569,-0.173425847,-0.235993499,-0.161799053,-0.019109695,0.105619717,0.086088628,-0.039231225,-0.168926430,-0.060571185,-0.108326133,-0.125282011,-0.378286733,0.221565710,0.148649210,0.228339247,-0.307229667,-0.372878821,
-0.002817421,-0.092471503,-0.135912928,0.104074954,0.308662530,0.085432352,0.216287202,-0.077466822,0.000831257,0.157889961,0.020286080,0.098811579,-0.226292422,0.055307638,-0.092441598,-0.137171769,0.341087316,0.209445578,-0.136420412,-0.164731496,0.152487135,-0.049714062,-0.024467760,0.300776710,0.087789594,0.242347970,0.199289756,-0.012080690,0.026403728,0.001965491,-0.058149482,-0.018109423,-0.253166239,0.175906699,-0.382214137,0.200147252,-0.063728499,0.275320083,-0.268920251,0.182724781,0.192683113,0.056489937,0.050381221,-0.054759318,0.163166514,-0.056937649,0.257549777,0.114851019,-0.236095669,-0.084168479,
0.136209951,-0.021423977,0.067879660,-0.186933270,-0.133552713,0.261119997,0.021000148,-0.061127776,-0.149687243,-0.036487981,-0.093997695,-0.302978693,0.054968131,-0.157820286,0.022291816,-0.107793492,0.020395292,-0.255137339,-0.070895609,-0.120676090,0.126169200,-0.214708315,-0.105118395,-0.047382469,-0.302461667,0.174576195,-0.093943981,-0.140112694,0.250512306,-0.047973029,-0.076536996,0.220692143,-0.301103540,-0.108699071,0.015354027,0.218863873,0.289158953,0.339098630,0.051055493,-0.060213977,-0.023494326,-0.264975655,-0.099422373,0.202430069,0.373114083,0.123547596,-0.171007805,0.130307661,-0.128130942,-0.198973893,
-0.000223566,-0.169822613,0.214507681,-0.100359764,0.013537893,0.085996628,0.370705854,-0.203159241,0.100822054,0.147177914,0.036136387,0.207386543,-0.176256570,0.092228237,0.043069633,0.047198024,-0.168819118,0.255674269,-0.173295151,0.109834277,-0.011187134,0.000762879,-0.393825301,0.487386656,0.125679017,-0.127216084,-0.042806606,0.014095333,0.037521961,-0.246356962,0.220393078,0.108766667,0.093854374,-0.095992755,0.256653154,0.030495933,0.024044783,0.193232796,-0.220337185,-0.113830777,0.028273943,0.115976533,0.140182450,-0.053727910,-0.229082761,0.074034492,0.127903148,-0.132817560,-0.072109574,0.074239167,
0.187565273,0.194035330,-0.046726992,-0.310907313,0.078830571,-0.057425452,0.368074552,0.151810715,-0.022627487,0.104285391,0.053065310,0.032848892,0.041010713,-0.006739515,0.090603547,-0.204784373,-0.081024415,-0.033656370,0.256412428,0.028646389,-0.019115871,-0.055616744,0.013193635,0.126887625,-0.093899618,-0.229725608,0.014390435,0.050135294,-0.185268154,0.129007248,0.076044019,-0.083841695,-0.106468500,0.113665649,-0.192684212,0.068778149,-0.005013962,0.062084525,-0.229531673,0.086930441,-0.231529381,0.096211145,0.095593046,-0.027815987,-0.157747275,-0.065002881,-0.123337399,0.135506079,0.100982323,0.273018476,
-0.023711484,0.026435551,0.051972477,0.059074001,-0.007170525,0.034336675,0.128301894,0.010264607,-0.130240128,-0.070583958,0.086217124,0.148855155,0.333921884,-0.140740961,-0.128164298,0.091084074,-0.154408430,0.023259941,-0.016859125,-0.107854774,-0.226506369,-0.111910821,0.085730417,-0.015715134,-0.116855892,-0.065371407,0.162379446,-0.041845621,0.135135430,-0.097958085,0.015280828,-0.124244234,-0.083982924,0.042106690,0.118518985,-0.154114413,-0.407686404,0.038994466,-0.126922288,-0.272103256,0.192956451,0.139972091,0.064218258,0.213232856,0.139730534,0.045290169,0.065255318,0.095651580,-0.019290732,0.208951363,
-0.203083015,-0.182652825,0.007459678,-0.110780142,0.126608208,-0.009361439,0.202228131,0.019078648,-0.060666176,0.017856597,0.102286151,0.007381021,-0.186026666,0.106837501,0.066607244,0.064264543,0.078862504,-0.047745957,-0.157401529,0.151448774,0.246362340,-0.136660070,0.094487241,-0.123443376,-0.167121646,0.109286614,-0.081559446,-0.118425647,-0.113100379,0.227616851,0.102686430,0.041401065,0.311190679,-0.015173373,-0.081743924,-0.058437705,0.120420651,0.190119487,0.136269433,-0.056114495,-0.065004265,0.094417723,-0.028465776,0.277323713,0.056810670,0.083665195,-0.047068882,-0.057572857,-0.069876225,-0.019425750,
0.096804438,0.051510609,0.117191992,-0.015381576,-0.056682749,0.010221753,0.084174738,0.101929937,0.186204593,-0.046887871,-0.071027479,0.063724761,-0.123866688,0.105294906,0.115844132,-0.032828321,0.092407580,0.199376628,0.019749763,0.131897853,-0.016896580,-0.218777817,-0.336673214,0.019701632,0.209588389,-0.082619839,0.147183330,0.386086476,0.157498881,0.185399282,-0.124809971,0.015486737,0.058262880,0.112932889,-0.053024346,0.030258066,0.295785066,0.085858640,-0.109408674,-0.070933880,-0.039540847,0.248295273,-0.264342417,0.231440010,0.033143327,-0.213849320,0.320241934,0.190171101,0.096012580,0.160678515,
0.206786957,0.065751352,0.116426019,0.056050477,-0.122591105,0.092123230,0.026506654,0.089562607,0.142721157,0.119825707,-0.019651151,-0.156559017,-0.051730100,-0.234968968,-0.057715647,0.100535962,0.095451625,0.118705812,-0.170644215,-0.393654125,-0.041300226,-0.208856745,-0.494261847,-0.270914312,-0.127534473,0.125168523,-0.154449169,-0.139975147,0.327334558,-0.132924746,-0.032249096,-0.028336202,0.012539416,0.155326916,0.129701779,0.064369409,-0.130650387,0.218728858,-0.109380467,-0.045429814,0.051656796,-0.301689208,-0.177164286,0.055008278,-0.009443188,0.255984496,-0.154801663,0.181548789,0.089337204,0.023248231,
-0.033273262,-0.052816321,-0.025232928,0.167957172,-0.093983785,-0.210094195,0.082605314,0.140844182,0.078885133,0.188254882,0.258984753,0.136641602,-0.066515966,0.032158424,0.050405595,0.018425319,-0.166683424,0.313288930,0.043093458,-0.087652412,-0.041503532,-0.052384868,0.090201522,0.131305578,0.030122549,-0.124075446,-0.153728904,0.102382203,-0.088933058,-0.076866966,-0.002953125,0.096880065,0.111526495,0.118360295,0.031812899,-0.039671250,-0.017317553,0.141625438,-0.089795942,-0.183281993,-0.091276049,-0.221921098,0.056297796,0.043750450,0.189818039,0.089786130,-0.075343265,0.033589659,0.130903416,0.066966838,
0.070608140,0.008133604,0.132461267,-0.007104687,0.139602005,-0.109373230,0.154831375,0.086901546,-0.084438732,-0.108111112,-0.162187505,0.186237910,0.058237713,-0.197157296,-0.180164927,0.175752738,-0.080097626,-0.007101690,-0.108413898,0.284864666,-0.040392287,0.023769743,-0.410904188,0.098191073,-0.281635816,0.002634591,0.249213031,-0.155901678,0.267917746,-0.249294560,-0.021280989,0.069783735,0.037255713,0.148871845,-0.020794351,0.177660247,-0.050199271,-0.405684937,-0.009703058,0.006437516,-0.181284129,0.076859561,0.054890719,-0.066152577,-0.055814649,0.060253508,0.104758732,0.227785881,0.210327813,0.038200692,
0.008998285,0.292867602,0.101122485,0.154839105,0.167160808,0.175056791,-0.014530825,-0.029174009,-0.077770059,-0.075483565,-0.173567552,-0.029513715,-0.136919420,0.026486166,0.108713801,0.170639198,-0.053974583,0.048427509,0.030324083,0.152185008,-0.091803268,0.016399038,-0.011370847,0.315805506,-0.002721723,0.063674911,0.068091677,0.016108892,0.070883927,0.020974984,-0.041638246,0.247169398,-0.131870188,0.031874588,-0.169425155,0.221175460,0.036505677,-0.018685047,0.153235882,-0.008761088,-0.211960014,-0.029633331,-0.067422056,0.118082901,-0.034523803,-0.027265570,0.069975463,-0.035586298,0.001174755,-0.085290309,
-0.148776959,
0.214854265,
-0.316640696,
0.188501596,
-0.258925932,
0.000401428,
-0.023062806,
-0.053398369,
0.027473874,
0.092582468,
0.121463295,
-0.005122742,
-0.171092767,
0.117219426,
0.098299198,
-0.040402050,
0.078545893,
0.039303812,
-0.120076568,
0.069870297,
0.037961341,
-0.006875697,
0.073306094,
0.083973547,
-0.029524575,
-0.066643062,
0.067532766,
0.221816014,
0.131400174,
0.142461151,
-0.040351585,
0.171472154,
0.135426491,
-0.050705551,
-0.033895341,
-0.146492399,
0.076306641,
0.064667066,
0.007933378,
0.195917778,
0.122134863,
0.133993515,
0.084318661,
-0.009334770,
-0.069745679,
-0.271780578,
-0.119378228,
0.101194324,
-0.123459470,
-0.093120125,
-0.246846235,-0.029436979,0.326851343,-0.356740625,0.195081293,0.351216521,-0.070602988,-0.042476438,-0.102316833,0.067646914,-0.311436559,0.382778925,0.148554515,0.157176796,-0.012606413,-0.028043368,0.118701440,-0.007172733,0.189750424,-0.123114557,0.270840104,-0.063167150,0.009072682,0.001949549,-0.162144368,-0.102543030,0.059493143,-0.010272985,-0.235952306,0.125167388,0.130091369,-0.222685086,-0.115461988,-0.013072594,-0.479390501,0.127524516,-0.079801313,-0.167748985,0.234537921,0.043417994,-0.172325302,-0.090299351,-0.141805246,0.106568860,-0.096574002,-0.021928826,0.084429130,-0.304459018,-0.051491228,-0.123477506,
-0.188914791,-0.049319946,0.214805672,0.113655966,0.124388516,-0.024010600,0.153741417,0.221963270,-0.145726635,0.026413048,0.083164644,0.471517928,0.028531329,-0.065392791,0.074630987,0.036499917,-0.111622248,0.323490241,-0.120685407,-0.316347101,-0.038324067,-0.068540516,0.203722276,-0.019901007,-0.175023679,-0.225094199,0.151438699,-0.100953845,0.018952971,0.165895760,0.186630148,-0.059162326,-0.065560409,-0.280493072,0.482761760,-0.116235590,0.066535266,0.153104193,-0.032472657,-0.082482061,0.007161220,0.120527422,0.225377615,0.239773894,0.551981059,0.076981666,-0.105508724,0.079975428,0.093956006,0.013473885,
-0.048339792,0.206218715,-0.171037561,-0.036798020,-0.033523448,0.001651894,-0.118691218,0.093923792,-0.195361405,-0.249428730,-0.063409521,-0.179123691,-0.105742899,0.109544550,0.210673558,-0.105597881,0.018178334,0.307483587,0.054029758,0.007349634,-0.008431343,-0.023553391,-0.210660583,-0.101802594,0.243746898,-0.059213503,-0.183276467,0.041979378,-0.136025234,-0.118303296,0.013860091,-0.077308261,-0.230669199,-0.002111321,0.088398605,0.048683593,-0.151910087,-0.123947021,0.188719668,-0.203920095,0.302811248,-0.016079389,-0.227715829,0.095848959,0.222189489,-0.058513370,0.285467780,0.103633371,-0.165885992,-0.139311811,
0.088350762,-0.207237387,0.171262471,0.280327514,-0.136343274,-0.308123799,0.172788142,-0.072737846,-0.143547131,-0.071491081,-0.095867014,0.044891502,0.109217510,-0.130914996,0.306246820,-0.150857306,-0.058896956,0.076207927,0.088471010,0.087431537,-0.100985662,0.216108279,-0.013558675,0.102325768,-0.243395685,-0.002062634,0.127210346,0.045879093,0.004622037,0.008493990,-0.048002725,0.028092747,0.029002583,-0.019565156,0.160677139,0.001923393,-0.115119201,-0.158821235,0.076058618,-0.105998884,-0.139006378,-0.014240695,-0.034572019,-0.199933651,0.086825603,-0.092568454,-0.089232109,-0.152792288,-0.048121326,0.225308725,
0.076224810,0.047458510,-0.199366456,-0.059640916,-0.037164524,-0.190113532,-0.099606769,0.035061075,0.003868485,0.087775868,-0.003385200,-0.172508369,-0.078359401,0.015148862,-0.135706576,-0.242388666,-0.257509158,0.056395872,0.096717268,0.034242963,-0.175612987,0.190622374,-0.108529062,0.053525296,-0.319519850,0.141468232,-0.039724459,-0.153723700,0.000059458,0.139857266,-0.197751954,-0.051468116,0.081948626,-0.323705986,-0.121995443,-0.160904545,0.106412274,-0.188954547,0.019803086,0.101732669,0.022009984,-0.004085052,0.188762523,-0.039646310,-0.005309298,-0.185234851,0.237364542,0.027051337,-0.183280606,0.203408227,
-0.068743843,0.095009206,-0.042432843,-0.046774070,0.131155161,0.214646541,0.064169723,-0.104221067,0.335994560,0.025922714,-0.085628404,-0.054005627,-0.262667829,0.266728523,-0.045734103,-0.134386758,-0.030224069,0.196692908,-0.264000523,-0.123881332,-0.208451507,-0.038087665,-0.112430058,0.396798190,-0.082256647,0.172273692,-0.033264078,-0.016657225,-0.037684682,-0.124160885,-0.074819290,0.005008560,-0.097091878,0.050517670,0.078879706,0.175268680,0.026251418,-0.217290030,0.141106556,-0.013404971,0.099715694,0.150719133,-0.076063012,-0.166467772,0.092715947,-0.001666128,-0.039049893,-0.186560986,0.230640234,-0.233963350,
0.180800328,0.011583361,-0.006615116,-0.044557714,-0.140894400,-0.186202091,-0.084256778,-0.083593947,0.026157986,-0.141482287,0.066288335,0.091534901,-0.016252701,0.105955958,-0.214187564,0.111337174,0.132695415,-0.056706281,0.098223714,0.254081083,0.044378018,0.011540402,-0.140906859,-0.086968324,0.068757136,-0.053779697,-0.127348460,0.082611568,-0.028976268,-0.157631813,0.132349918,-0.116376734,-0.058525021,0.190649623,-0.069303622,-0.009396458,0.134696776,0.055229511,-0.017460622,-0.199167092,-0.266184928,0.032436453,0.118911484,0.103751909,-0.260020814,-0.089803365,-0.125637065,0.179615598,0.050703538,-0.082766879,
-0.007518494,-0.279889770,-0.020987001,-0.056996231,-0.018669679,-0.183768391,-0.087763890,-0.023363021,0.136607873,-0.033185666,0.468239222,-0.081402690,-0.133589327,-0.152985997,0.085219355,0.239022847,0.015764542,-0.007283041,0.102940209,0.055158672,-0.132627890,-0.074340113,0.204042093,-0.125426464,0.115015322,0.162831842,0.195372911,0.067042493,-0.308742357,0.004792135,0.004623665,-0.003404166,0.103230351,-0.118330269,-0.020221768,-0.319523469,0.269248860,-0.042763890,0.070422136,0.092868519,0.035453449,-0.002203854,0.041705624,0.510314809,-0.049926774,-0.091830760,0.283632574,-0.178592243,0.136137803,-0.092220530,
-0.263679936,0.300254298,0.158339912,0.126632539,0.175731747,-0.139127000,-0.007525724,0.006460169,-0.144084932,-0.017783963,-0.055748962,-0.249266773,0.155052940,0.269356143,0.176545871,-0.033426568,0.373926831,-0.135356546,0.117323191,-0.005770703,0.116899295,0.079220348,-0.119823065,-0.060539612,0.028961780,-0.121703487,-0.024388999,-0.105514245,0.130762998,-0.016706443,0.133881782,0.131201741,-0.235545562,-0.034971173,0.221929849,-0.090697888,0.187809849,0.191966356,0.255812350,-0.079152051,-0.103686324,0.295174249,-0.180229592,-0.069650707,0.115996454,-0.131059145,0.004477242,-0.309097471,-0.104956210,-0.240757431,
0.086286480,0.122211587,-0.046476098,-0.010579772,-0.039099748,-0.318464264,-0.028121702,-0.166854244,-0.072093649,0.112376339,0.136791187,0.195778422,-0.153714965,-0.204612295,-0.085323976,0.143441654,-0.280716557,-0.044746475,0.184741326,-0.155883440,0.196866473,0.133741746,-0.198775663,0.177333637,0.117131863,0.022315251,-0.006096012,0.115350594,-0.029002071,-0.119204439,-0.005514320,0.028319448,0.054155218,-0.131478479,0.021691138,-0.105409438,-0.291054588,0.100747110,-0.208365780,-0.073575755,0.047819959,0.042265568,0.006742334,-0.165790595,0.152514137,0.117332895,-0.051877774,-0.063070739,0.078709889,0.112360453,
0.019560053,0.032664300,0.021461478,0.374196525,-0.171810643,0.135320177,-0.234056260,0.052203021,-0.077428840,-0.192778619,-0.172682632,0.052509632,0.007773102,0.090501311,0.089410932,0.137781589,0.006709883,0.126167466,0.186192608,-0.065039368,-0.089368263,0.249808422,0.022664260,0.055988999,-0.058624822,0.066012018,-0.047174864,-0.002249337,-0.083706879,0.210993659,-0.225495632,0.047560669,0.079140030,-0.010940890,-0.153623390,0.297353499,0.057974426,0.061601469,-0.065520026,-0.046023488,-0.079029587,0.228213485,0.061939489,-0.066569995,0.036370276,-0.217533556,0.135296635,0.045056034,0.125103107,0.094961815,
0.081779082,0.004282272,-0.165105102,0.139171241,0.073948682,-0.023097462,0.051723999,0.273498115,-0.100920382,-0.130446389,-0.144213267,0.082746008,-0.039541310,0.040021758,0.030394142,0.078375794,0.215721197,0.090485185,-0.013160406,0.121611118,-0.058383941,-0.139638081,0.056277413,0.100497376,-0.040019019,0.136293525,0.062305072,0.027302096,0.100516364,0.135617924,0.228243568,0.066031335,-0.037019618,0.000530915,0.060318768,0.074545930,-0.048544331,0.071314060,-0.137330497,0.016155215,0.019261416,0.053623247,-0.126262915,-0.191777937,0.037137875,0.074069111,0.013602449,-0.001845734,-0.312765528,0.097303093,
-0.005450169,-0.003153897,0.137411250,-0.135468304,0.110775289,0.114304337,-0.103795935,-0.000981155,0.014145522,0.181630219,0.208598276,-0.071912677,-0.235091469,0.074384337,0.085539628,-0.117939110,-0.061881557,-0.182625087,-0.154988369,-0.028245066,-0.106320745,-0.133891884,-0.038181889,-0.259743362,-0.330707899,0.085510457,0.034246945,0.112332164,0.119601975,-0.046591545,0.058442213,0.082114001,0.058864382,0.080744351,-0.051473892,-0.047666142,0.101388601,0.263241622,-0.180035924,0.145712339,0.200670381,0.257658414,0.172048128,-0.034432063,-0.111290013,-0.189056149,-0.309751429,0.205053553,0.196738670,0.057876095,
-0.037431551,-0.083155323,-0.145666446,-0.224821642,0.014071910,-0.200791473,-0.239438087,-0.266341607,0.161588126,-0.124640469,0.052252835,0.192678571,-0.111930507,0.062109067,0.066282433,-0.226394272,0.195742953,-0.035903312,0.048149412,0.175303955,-0.062746869,0.044989933,0.007547048,-0.108089840,-0.010732216,-0.235836313,0.056052148,-0.048506147,-0.105057208,-0.128420783,-0.132967133,0.040831920,-0.052245102,0.009605425,-0.051458170,0.201245068,-0.016504611,0.112467022,-0.035466251,0.008932372,-0.078720904,0.284417293,-0.199075541,-0.002265440,0.038517998,0.095120153,0.108008565,0.184762884,-0.202078288,0.108126322,
-0.084441272,0.057724529,0.170833073,-0.001592611,-0.136745805,0.195822446,-0.033618099,-0.022561056,0.110642993,-0.147609144,0.027865390,-0.068552684,-0.059386154,-0.009121725,-0.116803303,0.023705309,0.094076626,0.048823749,-0.113978425,-0.065754355,0.173685433,0.149108150,0.222335918,0.232040796,0.026645061,-0.092079126,-0.415692120,-0.090207627,0.020885374,0.017064660,-0.210029531,-0.180846903,0.089070753,-0.031444237,0.157273920,0.111591090,0.118526088,0.253165157,-0.095070165,0.030752668,0.067011702,0.035336657,-0.262255678,0.083017578,-0.301347626,-0.008906917,-0.195468712,-0.163150037,-0.059526935,-0.000700544,
0.143230820,-0.126641886,0.007913457,-0.225188985,-0.092540220,-0.234113649,-0.089260658,0.049600474,-0.181808244,0.164267944,-0.041485857,-0.068562329,0.160994501,-0.315351706,-0.001737651,-0.107789990,0.429850267,0.068015422,0.006861957,-0.065121650,-0.026460941,-0.129627505,0.159697484,0.088447965,-0.230129851,0.161240184,-0.245279435,-0.012326755,0.013886663,0.179144448,0.263489422,-0.179501278,0.097888483,-0.130824133,0.142603126,-0.041609717,0.101129595,-0.012589112,0.103999255,-0.035219713,-0.145656270,0.102748194,0.067216123,-0.022791510,0.195565247,0.111203611,-0.106445354,0.083415274,-0.076072084,-0.254710612,
-0.032867748,-0.168337987,0.096654460,-0.084752651,-0.164144937,0.179675600,-0.150341551,-0.008731778,-0.051793153,-0.025312256,0.183527822,0.055833284,-0.011642452,-0.212352907,0.440547984,-0.165953277,0.034139115,0.304144286,-0.062557292,-0.253868975,-0.137860066,-0.115818581,0.102472517,-0.124271517,-0.184712867,0.001544600,-0.099164309,0.043961496,0.000744592,-0.154422980,0.215680751,-0.071325504,0.096587023,0.114714814,-0.092309591,0.012628109,0.177239687,0.138090507,0.250016405,-0.153377622,-0.022734013,0.140395807,0.108120761,-0.271688750,0.098417369,-0.085417550,0.002609366,0.065964891,0.054243235,0.005783210,
0.062813489,0.015551721,-0.022068082,-0.104217795,-0.243755791,-0.112570637,0.096948026,-0.128705699,-0.041288904,0.004062699,-0.159830818,-0.171595782,-0.042443229,0.066803144,-0.094089300,-0.150346745,0.046195830,-0.216440663,0.126618926,0.184454343,-0.168143595,0.172054577,-0.162377041,-0.006801760,-0.118921203,-0.027550901,-0.100418257,-0.073891237,-0.050045380,-0.122116518,0.093426469,0.048587012,0.205530070,-0.138289336,-0.012468036,-0.126933050,-0.120942822,0.105798775,-0.020853761,-0.051924624,0.077463393,-0.087008309,-0.168995676,-0.265316981,0.038703124,-0.273183615,-0.010708492,0.120306432,-0.030657770,0.019737342,
-0.055201119,0.032827296,-0.073981652,-0.023571373,-0.045195766,0.164880305,0.061435930,0.013130263,-0.106217061,0.116233638,0.130235062,-0.204472500,-0.089866076,0.110332100,-0.280600943,-0.024976814,0.023717524,0.202853194,-0.115375352,-0.320198783,0.102984058,0.025630706,-0.017275375,-0.235153499,0.016059284,0.144978068,-0.026753856,-0.071898797,-0.012108073,-0.005181033,0.217163879,0.219596865,0.154030197,0.066466885,-0.085965026,-0.098574620,-0.061641893,0.015219159,-0.381273956,-0.258332829,0.015053167,0.217555484,-0.035348217,-0.045148302,-0.224788386,0.037879673,0.163724672,0.166704997,0.068547512,0.054944345,
-0.180031127,-0.051880482,-0.063748642,-0.051453839,-0.046870501,-0.037558273,0.002808379,0.087480403,-0.120692806,0.054911835,-0.126804437,-0.046891105,0.062228246,-0.031829383,0.160577808,-0.169138420,-0.016926989,0.056094207,-0.016334132,-0.020843066,-0.200103718,-0.188661870,0.007049043,0.089609515,-0.094370918,0.114562369,0.157065228,-0.157989542,-0.255636887,0.061067800,-0.174297559,0.040235157,0.183039869,0.401816122,-0.042782672,0.272198142,-0.039593051,0.016682662,-0.052914297,0.041388341,-0.073488817,0.050873292,-0.073056428,0.013645716,-0.040540834,0.075571500,0.096216423,-0.074380895,0.330397708,-0.093890815,
-0.076098501,0.255205413,0.072084303,-0.192852763,0.109001637,-0.124872117,-0.011011302,0.050861774,-0.188673273,-0.074715461,-0.088132629,-0.131576279,-0.144386790,0.112425926,0.057729723,-0.138630200,-0.022040053,-0.274416142,-0.078909087,-0.029531271,0.030784068,0.043223682,0.044322728,-0.077956477,0.077108623,-0.311202678,-0.074789333,0.048163230,-0.008820596,-0.391095270,0.012254006,0.138398891,0.077602905,-0.000996078,-0.125800626,-0.012771142,0.252009932,-0.020706885,0.008155034,0.175670295,0.046363293,-0.129759085,-0.069967007,0.049075888,0.074785232,0.213834915,-0.001123272,-0.215994965,-0.165898943,0.046663545,
0.053532692,-0.007084593,0.161383790,0.076408293,0.167915282,-0.142431657,-0.165669170,0.009255296,0.159804219,-0.016546089,-0.282129246,0.061468098,0.120050518,-0.077558104,0.003433931,-0.104965879,0.252949647,0.140011138,0.040060338,-0.259691640,-0.266097619,0.017366386,-0.103971002,-0.192113667,-0.271671333,0.078757450,0.238966287,0.002487416,0.006112127,0.028671296,-0.069458316,0.022425830,-0.136673934,0.092185699,-0.064078001,0.056723334,0.129377240,0.115549232,0.107190519,0.009101997,0.047327106,-0.201301512,0.012555038,-0.132130045,0.207613929,0.046670585,-0.103361482,-0.057536546,-0.133685569,0.225328945,
-0.092459442,-0.192172875,0.052702542,0.039551448,-0.242268130,0.215471523,-0.078544133,0.032128651,-0.006187219,0.107842462,0.115432938,0.008097363,0.106059845,-0.008597164,0.000232488,-0.211072933,0.135007767,-0.051130622,-0.353880934,0.039365139,-0.141784173,-0.150420811,0.117128052,-0.131795274,-0.009901345,0.026974069,0.215959867,-0.258628252,-0.164685423,0.155877067,0.125091075,-0.067959608,0.190134696,-0.266408916,0.005751078,0.068595310,0.145320504,-0.028537494,-0.131469901,0.044636376,0.062579009,0.079767316,-0.041600132,-0.158459106,-0.086189871,0.112072727,0.184261138,0.181894663,0.011619262,-0.344352057,
-0.190833146,0.060625552,-0.062944512,-0.030757538,0.184186319,-0.356616548,0.054021410,-0.189137194,-0.137871259,-0.138240393,0.018660960,0.269462429,-0.152257123,0.211948723,0.321006169,-0.108580447,0.006415739,-0.176692369,0.106513230,0.034253785,-0.044071277,-0.114966680,-0.093266638,0.141782702,0.103578114,0.027201374,-0.117766018,0.125486295,-0.158963521,-0.069762553,-0.072299230,0.284833469,-0.294257460,-0.284769736,-0.035721448,-0.005874357,-0.121240507,-0.038252663,0.315952794,-0.036493762,0.040614297,0.138900601,-0.078016471,0.045593526,-0.190638849,-0.294321122,-0.018554998,0.116511669,0.052580387,0.267447387,
-0.152226405,-0.053368955,-0.034746139,0.156076534,0.051943279,0.172050607,0.064392046,-0.335756390,0.028568360,-0.073228911,-0.060813397,0.173168347,0.107439701,0.029574597,-0.365301754,0.015448790,-0.023691780,0.096954406,0.017099619,0.197299359,0.104963735,-0.077856966,-0.016747273,-0.101031582,-0.328397518,-0.059400496,-0.299390538,-0.002160369,0.026698457,-0.087605422,0.148305832,0.069013591,-0.046034360,-0.268081582,0.020654531,0.007819713,0.099582654,0.033670752,-0.293620682,-0.070435050,-0.054794295,-0.025577965,0.208508827,0.124649086,-0.022026433,0.156771843,-0.092118619,0.095808084,-0.170742022,-0.008112805,
0.402365192,0.138633479,-0.102208609,-0.043838639,0.051976005,0.128088077,-0.350803231,0.088330403,0.017279124,0.054222395,0.119857940,-0.166883007,-0.012743540,0.077312453,-0.052752974,0.130581439,0.151158619,-0.025538543,0.279326252,0.134427132,-0.014876856,-0.325381203,0.063238934,-0.073645519,0.103454038,-0.160094925,-0.070441301,0.016654671,-0.085451103,-0.161825538,0.144019867,-0.162918989,0.062631558,0.120511996,0.167646635,-0.007205212,0.122443783,0.237701915,0.001989543,0.136698721,-0.095349185,-0.003039516,-0.018757107,-0.037877903,0.006442152,-0.332441242,0.344495158,-0.053517088,0.005218974,-0.073679628,
-0.130967722,-0.177650608,0.212451964,-0.068425545,-0.087562681,0.086191034,0.047487925,0.170213994,0.012127060,0.169066167,0.014176635,-0.022452731,0.149399772,0.093661116,0.037043987,-0.178598942,-0.149290683,0.054783875,-0.192845043,-0.095557581,-0.050867252,0.167653715,-0.094827463,0.110539033,0.132379167,-0.123472886,0.009394973,0.215779174,0.075636729,-0.031025550,0.115687721,0.040483868,-0.294320465,0.335605229,-0.087441126,0.026197212,0.075457396,0.147437526,-0.010277174,0.068709661,-0.217259972,-0.230248897,0.052713091,0.012820156,-0.071722410,-0.072186056,0.218652074,-0.146702499,-0.096059042,-0.096533503,
-0.070261489,0.088317852,-0.012605084,-0.287353187,-0.073974513,0.069109081,-0.174238809,0.056320417,-0.088445188,0.069635896,-0.224027343,0.277105533,-0.128835265,0.105890681,-0.291408697,-0.144661259,0.209771412,-0.126058384,-0.011544422,0.035201486,0.009051452,-0.187828715,-0.116184621,-0.265784272,0.141464859,-0.370143467,0.005718228,0.016301306,0.025137666,-0.234438002,0.159559813,-0.120311825,-0.181388893,-0.208998023,0.011095377,-0.165122071,0.090408309,0.140981575,0.361769882,-0.011929334,-0.274109570,0.110691736,0.069583506,-0.110045820,0.100200846,0.122618689,0.030704108,-0.257167323,-0.172260544,-0.025653527,
-0.083323105,0.028210192,0.031249652,-0.158000757,-0.126892898,0.028666268,-0.093821017,0.135195185,0.016202227,-0.154095141,-0.071536624,-0.121090582,-0.180030741,-0.158670183,-0.120825885,0.016235038,-0.119842621,-0.056652504,0.140644227,-0.020385588,-0.140923924,-0.166795098,0.006192005,0.014259195,0.025825061,-0.218004824,-0.188714731,-0.093014850,0.213333010,-0.178559061,0.204140933,-0.110192464,0.070947389,0.061026157,0.037067621,0.090842518,0.097331667,-0.102142634,-0.055120271,-0.166479788,0.113101552,-0.149227503,-0.190689263,0.075666008,0.119670467,-0.215748283,0.138004473,-0.045306001,-0.239105491,-0.276371145,
-0.006983762,-0.001849452,-0.106945905,0.190949026,-0.315351399,0.120951001,0.188495788,-0.049059434,-0.115425495,0.074075356,-0.132700833,0.085018112,0.018745717,-0.020745240,-0.029448833,-0.008803410,-0.126813567,0.080412594,-0.223674374,0.154102415,-0.032693077,-0.046680883,0.105169158,0.019661641,0.150397406,-0.094283630,0.218769660,-0.003021857,0.355699028,-0.083519049,-0.148356618,0.096767665,0.072577443,0.264950643,-0.108915403,-0.035609974,-0.065581415,-0.094526974,0.116270089,0.168711680,0.237799337,0.217513942,0.114515677,0.230983781,0.059522984,-0.070491481,0.091157136,-0.153829531,0.201423338,0.145870873,
-0.152928859,0.283474220,0.051571575,-0.115115467,0.077949542,0.054511941,0.187507763,-0.076707000,0.042193351,0.234746071,-0.003078396,-0.281885289,-0.122657317,0.248522038,-0.097083893,-0.091781127,-0.094995797,0.269852985,0.265779355,-0.097112103,0.060128084,0.059506661,-0.161154898,-0.028049446,-0.022546111,0.078764769,0.060456607,0.146945664,0.287909339,-0.020183095,0.058087034,-0.037197234,-0.006663957,0.378671318,0.025887016,0.030693999,0.331333405,0.043244496,0.118523521,0.052548974,0.114503010,-0.141202410,0.055954030,0.131800610,-0.327209028,0.145734492,0.011925988,0.023115266,-0.077926658,0.056426449,
0.100207674,-0.159926703,-0.147971563,0.024055474,0.064135972,-0.001813653,-0.084382675,0.052801875,0.082889303,-0.037913984,0.055363824,0.181383855,0.031406908,-0.257450677,-0.199156756,-0.013182834,0.006117845,0.089217192,0.002083829,-0.076506641,0.048097288,0.149362898,-0.070241981,0.094257665,0.004448023,-0.204143503,-0.054774135,0.007544396,-0.162644211,-0.012351303,-0.030746794,-0.101952064,-0.199885948,-0.223041287,-0.023828928,-0.160896567,-0.246737344,0.125082107,-0.070015678,0.113750493,0.102847690,-0.116553583,-0.026424269,-0.057441020,-0.094636604,0.209468530,0.246072222,0.244777752,-0.060983767,0.050500871,
-0.043315095,-0.092636631,-0.313930281,0.066816732,-0.085753139,0.002021191,0.033223470,-0.074244405,0.247878251,0.122912588,0.156543049,-0.000778981,0.131158359,-0.002470573,0.156409148,0.145743520,0.013830666,-0.139594819,0.172410250,0.017018739,-0.113196586,-0.095526056,0.004643082,0.050699923,0.000227095,0.134004805,-0.049144817,0.078840205,0.102288328,-0.307840120,-0.126163788,-0.128837477,0.072043676,0.186246117,-0.092086704,0.058704214,0.107585763,-0.071378813,0.115134957,0.091617653,-0.168171163,-0.181439981,-0.162603774,0.048956730,0.128005480,-0.105230728,0.054533990,0.024882967,-0.161924733,0.057016872,
-0.085659947,-0.242408191,0.053722706,0.294836197,0.376027948,0.159573801,0.006430864,-0.229476100,-0.076715521,-0.126189150,0.070251848,-0.426300603,0.006249466,0.104667410,0.031823432,-0.197519928,-0.007329928,-0.075050420,0.077149216,0.181997178,-0.132371621,0.106672996,-0.046243035,0.035840433,-0.168592742,0.244579187,-0.161484917,0.188492005,0.180273339,-0.092981735,0.133126544,0.026882029,-0.062384190,-0.057905420,-0.018561289,0.109759838,-0.096674817,0.047474670,-0.134700869,-0.224436346,-0.157660697,-0.032691176,-0.105916282,0.005596200,-0.113718504,-0.104577122,-0.106842218,-0.073566686,-0.073192709,-0.005202556,
-0.014877712,-0.048044712,-0.214047561,0.197654211,-0.109007629,0.058067866,-0.051969358,0.010156278,-0.118978718,0.131923420,0.110215188,-0.038715477,-0.138384044,0.095235494,-0.130598955,-0.006619687,-0.089278736,0.225452039,0.303671517,-0.218905291,-0.199173005,-0.039122856,0.006622791,-0.011944046,-0.026804322,-0.100366551,0.027257538,-0.070431965,0.176330536,-0.108872748,0.008604659,-0.052554086,-0.058003105,0.176100862,-0.142280369,0.113960037,-0.106879744,-0.055926512,-0.106690377,0.041982799,0.045886718,0.165811498,-0.092636128,0.027840693,0.083203507,0.144982109,0.234711068,-0.111767527,0.251199501,-0.126901840,
0.005931936,-0.068810734,0.094231994,0.082648914,0.029911638,-0.074780538,-0.271580055,-0.209365421,0.113356186,0.020757198,-0.037333631,0.081154803,0.153642847,0.046673356,-0.110929982,-0.187704459,-0.088384191,0.124416106,-0.187892348,-0.191421379,-0.047838943,0.056735093,0.211095634,-0.129125316,-0.080891077,-0.066160257,-0.362624392,-0.042337477,0.017451313,0.062605635,0.142479046,0.076233372,-0.129281304,-0.032749189,0.041877966,0.045694744,-0.080276137,0.115554746,-0.051891913,-0.171822748,0.020924928,-0.080565307,0.129907194,-0.330691510,0.064944781,-0.068412022,-0.106009328,0.043607870,0.209411144,-0.160397550,
0.062341045,0.046948160,0.043701097,-0.202174558,-0.305657046,-0.279260062,0.033012742,-0.038880083,0.063759160,-0.069534966,0.143223858,-0.120758114,0.052296266,0.076463784,-0.104944720,0.074127700,0.027638390,-0.353416703,0.166646677,-0.220365571,-0.055279306,0.074957069,0.085857871,-0.041157492,0.039257272,-0.125657713,-0.099511555,0.090600481,-0.174348749,0.287229105,0.011963076,-0.139378495,-0.208257165,-0.069246776,0.011609491,-0.188996500,0.045234364,0.058997845,-0.257432134,0.077027985,-0.028830663,-0.042771133,0.098131068,-0.103894555,0.094900782,0.207629449,-0.016333932,0.008138125,0.137320326,0.034150863,
-0.040864963,0.002178955,-0.161209613,-0.104487031,0.010902194,-0.098973613,-0.065611459,0.063440659,-0.236868462,0.106568416,0.083080241,-0.088854470,0.052217922,0.445242742,0.129815325,-0.039331827,0.141301369,-0.070446145,-0.022051890,0.061654458,0.334932386,0.313450285,-0.090603110,0.004894211,-0.157443262,0.306712409,-0.380757151,-0.084915517,0.027119231,-0.064591724,-0.118286516,0.027949619,0.076536816,-0.088118749,-0.004580905,-0.069734618,-0.049378939,0.146155457,0.084138859,-0.044784613,0.085286584,-0.212699919,0.053268545,0.080510134,-0.062086308,0.217921889,0.052813680,-0.099925214,0.184982258,-0.011140508,
-0.024672766,-0.048942446,-0.187850373,-0.039644777,0.052278000,0.339580972,0.317370197,-0.049127041,-0.071475980,-0.024056006,-0.083618601,0.029163747,-0.194827567,0.087742988,-0.150668950,0.101557629,0.209200660,-0.087217014,-0.030185198,-0.254243975,-0.023468386,0.135650174,-0.134834274,-0.122212583,0.050106370,0.039355713,0.022997665,-0.031199442,0.040567648,0.036605922,0.090277957,-0.117266034,0.084649936,0.029849752,-0.021960449,-0.382427436,0.263706420,-0.097364467,-0.173371384,-0.126133292,0.113860131,0.036430197,0.154992513,-0.275843703,-0.016633132,0.044326948,-0.194557204,0.057883225,0.094844060,-0.091119603,
0.007870467,-0.068525298,-0.165111162,-0.116185782,0.066952182,0.255244409,0.023990542,-0.105106019,-0.259911455,-0.094912182,-0.003630727,-0.206022285,0.150054529,0.189486556,-0.023225722,0.262004554,-0.013622718,0.032871693,-0.009108675,0.107232866,-0.228841017,0.022736878,0.006503943,0.097639864,0.040917011,0.292902214,-0.059101595,-0.166423320,-0.140688263,-0.249292585,0.117983327,0.082557303,0.131266527,-0.181795255,0.102140926,0.180161895,0.112914090,-0.021148484,0.180599081,-0.053114165,-0.087479043,-0.158331386,-0.015306245,-0.026806786,-0.028466562,0.125840376,-0.045006230,0.329738622,-0.253136073,0.050179896,
-0.027517695,0.001447310,0.090779927,-0.269838236,0.199888008,-0.040226823,-0.171804358,-0.078476932,-0.008873860,0.147982251,-0.041163162,0.123980284,0.125141440,0.095794211,-0.021525111,0.212580155,0.163582020,-0.127269560,0.095770251,-0.077985454,0.062166493,0.026462982,0.033030272,0.048570326,-0.048120887,-0.084161158,-0.192311898,-0.198341136,-0.026516339,0.020430351,-0.037771157,-0.278381580,0.040530681,0.126815114,-0.055335624,0.015949393,-0.060784105,0.257493378,0.167737885,0.188578772,-0.102963988,-0.295278135,-0.093090535,0.136198081,0.200682919,-0.187866383,0.085602598,-0.225204823,0.071721469,0.218174092,
0.196548367,-0.229211949,0.092336390,0.185709693,0.069924404,0.215599265,0.144934682,-0.093094458,0.162804566,-0.022158639,0.036952135,0.141880212,-0.063640288,-0.033822500,0.107038874,-0.143464974,-0.011420622,0.099250440,0.141158248,-0.062549811,-0.112936986,0.220295888,0.036053770,-0.214942327,-0.066038114,-0.113804622,0.171872291,-0.068151308,0.230604337,-0.182135690,-0.141313751,0.022950775,0.063200593,-0.294189904,-0.005516860,-0.270917564,0.300966199,-0.046163056,-0.195950723,0.084344665,0.134231238,0.111157797,-0.051069175,-0.265929852,0.155261635,-0.114735970,-0.018326654,0.021886009,0.117204134,0.089415535,
0.024957698,-0.009098657,0.149098770,-0.113095908,0.183776564,0.220736660,0.063785498,0.106529651,0.151453488,-0.038460239,0.208836908,-0.176801582,0.125191417,0.009592056,0.148522887,-0.058308929,0.282500819,-0.004646061,0.015174927,-0.032388953,-0.095113548,0.013245318,0.121389575,-0.175745198,-0.260737201,-0.055514617,0.080694141,-0.142498399,0.110197950,-0.119075809,0.162934059,-0.045025397,-0.205095030,-0.195864631,0.033089987,-0.194079139,-0.130911174,-0.069065183,-0.018026082,-0.101453357,0.035538828,-0.077144437,-0.224603494,0.067838798,0.006211896,-0.219840368,-0.062923334,0.282682382,-0.086563436,-0.051933010,
0.071899133,0.112369974,0.141152775,-0.372148090,-0.081532126,-0.293247815,-0.025674616,0.164984033,-0.029807112,0.186908826,0.097581473,-0.078400104,0.125518094,-0.151523277,-0.084173602,-0.357593760,-0.261997637,-0.080965287,-0.041638067,-0.183487345,0.138630805,0.020053394,0.132465953,-0.074616143,-0.320356049,-0.062463883,-0.026314864,-0.272327905,-0.043333234,0.062847717,-0.204326672,0.012125225,0.262343068,0.091277012,-0.079799390,0.240030010,-0.112942131,-0.037688065,-0.076645448,0.048381330,-0.012762885,-0.204741355,-0.252855757,0.227977253,-0.024635222,0.196062752,0.106862958,-0.045109779,-0.040269200,-0.274332432,
0.019898737,0.132199663,-0.028781068,-0.132287166,-0.064381204,-0.108674024,0.180991578,-0.125247641,0.168397595,-0.035414373,-0.145092268,-0.191621063,0.216160408,0.040189174,-0.137192064,0.071465549,-0.212726247,-0.097216979,0.035760842,0.002057615,-0.133483554,0.084370560,-0.069246619,-0.174857977,0.100387642,-0.205315229,0.089580803,0.196313859,-0.003798190,0.052231517,-0.026123497,0.127502434,0.031797481,0.076386047,-0.006623226,-0.134222142,-0.136165888,-0.038502343,0.076281462,0.159222131,-0.112014864,0.059056579,-0.119562138,-0.071725358,-0.038285528,-0.103141863,0.057809269,-0.015903767,-0.012109806,0.115434019,
-0.010550142,0.015943879,0.248969829,-0.039162621,0.034342095,0.014118163,0.183122007,0.084307968,-0.070153642,-0.018951344,-0.087933424,0.024871138,0.174077016,0.077849873,-0.011015047,0.023424210,0.140114610,0.049577358,0.081506609,-0.040868000,-0.072298196,0.248243901,-0.095143201,-0.016605331,0.063180289,-0.014917385,-0.042521502,0.167354839,0.268055759,-0.134020928,-0.542233629,0.040438799,0.207525337,-0.169616009,-0.210490004,-0.028067250,0.101624850,0.038092564,0.086039825,0.138097772,0.086340913,0.122162278,-0.150410098,0.025698656,-0.050523125,0.142681813,0.037573246,0.249142557,0.316140390,0.003130516,
-0.076137455,-0.064918487,0.049774193,0.274537281,0.304984735,-0.125784356,0.102026226,-0.155971112,0.057973219,-0.185344223,-0.057245776,0.031638355,0.177202822,-0.016441113,-0.092062541,0.025789877,0.215203487,-0.094771871,0.032343978,0.007773672,0.044677257,-0.165296713,-0.161590586,-0.152104996,-0.087240855,0.004667080,0.047012758,0.080603049,0.005005509,0.122256976,0.101513045,0.064491361,-0.061910704,-0.028462853,0.091564898,0.115059520,0.045878229,-0.200579352,0.067934193,-0.120993523,-0.040098894,0.028414137,0.039050191,-0.087543203,-0.166633489,0.141370710,-0.123451208,-0.160315892,0.000192505,-0.111587012,
-0.322216233,0.161189331,0.057219768,-0.057884122,-0.113147770,0.216311764,-0.070838697,-0.118876030,-0.038226457,0.143319740,-0.003555834,-0.073548389,-0.070822168,0.053012643,-0.054116874,-0.258984351,0.072985230,-0.268477820,0.053650551,0.048553233,0.520745004,0.017508634,0.098198882,-0.315385582,-0.008215515,-0.089848161,0.008266464,0.039920180,0.168746128,-0.098353969,0.020481672,0.038778245,0.202092899,-0.401640922,-0.155769392,0.189099531,0.200142117,-0.020495074,-0.030896041,-0.109610487,0.236224092,-0.231511767,0.147243728,-0.063766216,0.155083965,0.180906240,0.013858016,-0.249863636,0.131877090,-0.145004934,
0.107050314,-0.053920920,0.027207961,0.049420405,0.148895754,-0.109052026,0.018560287,0.102422029,-0.089913528,0.147883768,-0.198511015,0.052285822,-0.166355378,0.103607154,-0.024038013,0.480975944,-0.249405412,0.091026868,-0.011387751,-0.135871109,-0.013394313,0.058007904,0.013639383,0.011646536,-0.050666125,0.057893643,0.069420748,-0.270730356,0.107863776,0.076053785,0.067716000,-0.063250919,0.233540733,0.124438519,-0.029800861,0.105136027,-0.241933506,0.027207127,-0.089658538,0.103291611,-0.067359254,0.113826604,-0.196904767,-0.004726592,0.299536310,-0.063275125,0.135638406,-0.066579048,-0.097895237,0.152763240,
-0.061659425,0.052129584,-0.094691101,0.064354981,-0.163201966,-0.017846229,0.050205253,-0.155114284,-0.090689845,-0.078067984,0.146150512,-0.428414696,-0.420278705,0.074743885,-0.089791655,-0.121733752,0.137644775,0.187731540,-0.389928597,0.122172016,-0.229008038,-0.229852775,0.013462550,0.150056052,-0.181179651,0.153730526,-0.040764916,-0.071393303,-0.180427540,-0.165725850,-0.126183401,-0.022585019,-0.147491121,0.193319056,-0.252503231,-0.051305587,-0.126025117,0.062511034,-0.424762962,-0.135927382,0.325975162,-0.155769079,0.350675717,-0.139357394,0.113980942,-0.170317991,0.037638368,0.066895935,0.021170844,-0.048814436,
-0.052060540,
-0.032649684,
0.197924771,
-0.020960204,
0.007105157,
-0.148756811,
-0.445778003,
-0.273553084,
0.024671752,
-0.077284971,
-0.022837000,
-0.072245229,
-0.030445784,
0.068514100,
-0.074667046,
0.105450402,
-0.054727548,
0.089987044,
-0.155199466,
0.136237148,
-0.135786080,
-0.178872789,
0.064958022,
-0.015216239,
0.122177644,
-0.080045622,
0.180013081,
-0.110933180,
-0.010670560,
-0.046867524,
-0.223022178,
-0.176756211,
-0.093947934,
-0.076511045,
0.109618983,
0.022830357,
0.013292132,
-0.153650441,
0.050028902,
-0.148784704,
0.197819487,
-0.179727121,
0.235089543,
-0.009360364,
-0.046020308,
-0.084760743,
-0.086303970,
-0.221355100,
-0.021939143,
0.067945921,
-0.075219351,0.049733736,-0.134690148,0.033027746,-0.016601390,-0.047850915,-0.010389680,0.071911208,-0.070785646,-0.090250500,-0.072422979,-0.044526366,-0.060587212,-0.192003222,-0.096280211,0.182826266,0.210672158,-0.114766438,-0.063732604,0.200220382,-0.222191103,0.056839809,-0.193006423,-0.091913409,-0.097172335,-0.157355435,-0.159285514,0.031937589,-0.101687164,-0.088114933,-0.088798085,0.260896841,0.035634968,-0.049915695,0.020641268,-0.240949683,0.082247762,0.206408122,0.039621479,0.020417189,-0.073250250,0.121825386,-0.030925294,-0.110982270,0.062775674,0.046821161,0.052446316,-0.098643541,-0.076108717,-0.096745197,
-0.226083996,-0.263923007,-0.100648036,-0.113947944,-0.185624203,-0.096457362,-0.013114388,0.088270394,0.003856684,-0.190731327,0.135610074,0.244752467,0.174654443,-0.123473886,0.104992630,0.297735053,-0.147781426,0.017310749,0.087241711,-0.074203227,0.059951751,-0.197153167,-0.162502063,-0.078770691,0.218312053,0.117616241,0.004017485,0.091696611,-0.012040555,0.078239971,-0.005524301,0.069039395,0.095934401,-0.008017142,0.273171586,-0.014689904,0.059080781,0.246522715,-0.070787552,-0.083723357,0.105952290,0.106054590,-0.198023925,-0.216042319,0.110461077,-0.080448579,-0.022929770,0.144357056,0.115248535,-0.094424406,
