// Neural Network File Format by Kyle Julian, Stanford 2016
16,2,2,20,
2,20,20,20,20,20,20,20,20,20,20,20,20,20,20,20,2,
0,
-10000.0,-10000.0,
10000.0,10000.0,
0.0,0.0,0.0,
1.0,1.0,1.0,
0.074068693,-0.004248812,
-0.336777890,0.283976067,
0.261822793,-0.197747184,
-0.406758610,0.143378632,
0.355730696,-0.197886441,
0.172359608,0.160823907,
0.074305462,-0.037806849,
-0.172943205,0.072770639,
0.292459605,0.109946659,
-0.185397487,0.125770467,
-0.190668388,0.176035077,
-0.346991743,-0.150769970,
-0.324668453,0.288249117,
-0.074330547,-0.265983947,
-0.066089910,0.246801514,
-0.197403588,0.005116051,
-0.480628877,-0.133113905,
-0.334452094,-0.233995792,
0.234534566,-0.375924302,
-0.023239575,-0.503257183,
-0.175202257,
0.397034471,
-0.694278891,
-0.391236784,
-0.045517507,
-0.078074411,
0.158011920,
-0.217903281,
-0.439031160,
-0.021507457,
0.103469754,
0.432945782,
-0.502338058,
0.612394893,
0.005283106,
0.042617956,
-0.139127742,
-0.378917042,
0.514058535,
-0.410967949,
0.295906391,-0.113446005,-0.089877233,0.000882869,-0.177360918,0.234112248,0.193663646,-0.278701353,0.267021326,-0.274688306,0.092572113,-0.043751729,-0.040455268,-0.026136565,0.422015425,-0.098767131,-0.287300912,0.355239820,-0.085763271,0.089056339,
-0.288508655,0.021786395,0.528674630,0.242465014,0.076402298,-0.260527960,-0.201327184,0.015179724,-0.403188913,0.145147707,0.224548380,-0.125979195,-0.337337236,0.052181469,0.110798710,0.133688414,-0.003962527,-0.032404927,-0.039021086,0.071560783,
-0.127903024,-0.506832980,-0.284471512,-0.053313318,0.011533342,0.462959303,-0.177454283,-0.019459242,0.748270642,0.053030906,-0.124987911,-0.304804953,0.387366700,-0.162086011,-0.165851480,-0.169993142,-0.182399151,0.234502014,0.018249167,0.314517007,
0.162775840,-0.099286882,0.175708731,0.051850750,0.430640419,-0.420170199,0.061506138,0.261056585,0.063583630,0.154210732,-0.371959490,-0.123270036,0.010469936,0.552542274,-0.223459779,0.282267902,-0.012635501,0.110574039,-0.167054689,-0.175968704,
0.189377339,0.138504970,-0.008498223,-0.200657408,0.344162054,0.291235361,-0.135838811,0.231964203,0.110262119,0.352755711,0.008929653,0.473902309,0.210073650,-0.252908116,0.106186042,-0.237321155,-0.031293517,0.499403105,-0.092873692,-0.033087998,
0.070657061,-0.153846623,-0.096002408,-0.196900968,0.134171610,0.050466787,-0.029059180,0.134634358,-0.216128537,-0.301835065,0.046876902,0.114468985,-0.102367740,0.206617367,0.204224953,0.011427628,-0.273910911,-0.466394194,-0.181612855,0.276808902,
-0.241465889,-0.070919889,0.065620939,-0.369166539,0.435875355,-0.194602416,-0.146763110,0.318532251,-0.557866940,0.807131834,0.170572243,-0.246327588,-0.015697920,0.229049233,0.094929699,0.276737683,-0.007998511,-0.073826477,-0.057419342,-0.342681498,
-0.147052650,-0.082444313,0.055193542,0.102020354,-0.055912758,0.161081420,0.031729982,-0.342646722,0.255396414,-0.222117405,-0.204670847,0.032414520,0.365428218,-0.088578538,0.309964517,-0.251898963,0.262134726,-0.017185309,-0.208885904,0.238408807,
0.148771500,0.012180088,-0.024253384,0.397294391,-0.094310454,-0.007078641,-0.015713310,0.203243209,-0.205344230,-0.385292448,0.265295394,-0.335680558,-0.622187487,0.075714513,-0.180119767,-0.000512026,0.161555897,0.289768373,0.086645982,-0.037321135,
0.311202434,0.465525117,-0.474879993,-0.159446623,0.088333267,-0.209100538,0.257080629,-0.038732413,0.230448834,0.466456432,-0.297672965,-0.237593220,-0.008985947,-0.263611211,-0.212961858,0.035274910,-0.345549917,0.116837306,0.442089780,0.010767081,
0.169331882,-0.143632662,-0.233902816,0.208816396,0.439569728,-0.192224069,0.121360461,0.091739236,-0.041763848,0.262256757,0.120124570,-0.344839438,0.187728852,-0.055208488,0.214457160,-0.015349234,-0.121208333,-0.107341103,0.072798655,-0.023980887,
-0.118345638,-0.456167280,-0.034502276,0.121740594,0.538125980,0.159412464,-0.191415836,-0.302227966,-0.044742666,-0.360246192,-0.382734254,0.213978622,-0.153840087,-0.224630700,0.149747300,-0.137951702,-0.036894208,-0.360527555,-0.112448089,-0.210557486,
0.168968858,0.073974792,0.055775794,-0.076400358,-0.085834320,-0.018714420,0.052443702,-0.063824570,-0.107575708,0.379551715,-0.156545282,0.025999245,-0.656917102,-0.204588125,0.164633593,0.172278076,-0.020820129,-0.091731518,0.233488244,0.049105917,
-0.022770600,-0.387243770,0.175537697,0.060187365,0.302204255,-0.086556547,0.038912565,0.031612567,0.189513731,-0.158565275,-0.149522802,-0.150389794,-0.069551861,-0.672419293,-0.313634597,-0.007089192,-0.139767686,-0.100866507,0.186607013,0.291030402,
0.177396543,-0.130860965,-0.478857339,0.258433171,0.144346082,0.122844689,0.040279714,-0.214359962,-0.207654942,0.352713797,0.038361284,-0.127071500,-0.148584239,-0.200977590,0.655510524,0.196929293,0.197163552,0.398045625,-0.000700260,0.256320903,
0.061653773,-0.543398146,0.328445397,-0.133886439,-0.116841263,-0.275704857,-0.236085656,0.138653696,-0.317192698,-0.075553425,-0.222596426,0.144300459,0.418989964,-0.127657586,0.063282686,-0.378012373,0.408125131,0.403512191,-0.097652456,-0.225138220,
-0.006435321,-0.218588726,0.356779991,-0.016635970,-0.079257544,-0.093947158,0.308851527,-0.097119435,0.169039621,0.137889307,0.273517471,0.172960664,0.209794295,-0.099395379,0.054357494,-0.234306190,0.115537363,-0.112506781,-0.100565378,-0.233126392,
0.176041267,-0.358748335,0.116010250,-0.128995219,0.133297831,0.146659524,0.040041493,0.066605241,-0.219771381,0.042988861,0.144752515,0.230931980,0.066162792,-0.293935552,-0.276689990,0.318491050,0.384970568,0.292004814,0.114503551,-0.131826942,
-0.487200928,-0.039562062,-0.188064440,0.373601468,-0.065129424,0.081972041,0.217066578,-0.638184242,0.285847249,-0.058316005,-0.291007159,0.285121836,0.018763513,-0.230431725,0.265899259,0.012188932,0.354144780,0.395824529,0.317158724,0.282334358,
-0.613968717,-0.485338711,-0.008624451,-0.038527613,0.504204572,-0.103807161,-0.099109714,-0.190173485,-0.000048933,0.056488157,0.022164156,-0.200879255,-0.025823586,0.196090776,0.202235196,0.518924851,0.107336971,-0.282065667,0.021283530,-0.401834203,
-0.321056881,
-0.132086724,
-0.271942325,
-0.355280020,
-0.223973154,
-0.535256292,
-0.425442512,
0.613041285,
0.206388374,
0.148900324,
-0.089752220,
0.102328661,
-0.001010853,
-0.584061449,
-0.017442165,
0.316900070,
-0.041173715,
0.029492899,
0.008964145,
-0.034223334,
-0.162817458,-0.217282765,-0.263061823,-0.073447528,0.005321743,-0.028884463,-0.230913276,-0.174394702,-0.567597539,-0.022532318,0.199978389,-0.467319057,-0.297068549,-0.226713957,-0.513879899,-0.312774176,0.096596508,0.171070292,0.133615833,0.302272545,
-0.406018303,-0.034671308,-0.024721524,0.406832159,-0.384873782,-0.017618315,0.060402510,-0.207834554,0.205378326,-0.217818169,0.040417061,-0.038078840,-0.466704207,0.404110982,0.285239025,-0.278391665,-0.558971659,-0.100347122,-0.201245850,0.216876456,
-0.584133824,-0.013051041,0.107402085,-0.364352667,-0.240740947,0.156631158,0.134589078,0.388489704,0.122962241,-0.157937020,0.550202026,0.596489207,0.276749630,0.098296807,-0.178700876,0.296212906,-0.331113901,0.083041114,-0.338916808,0.230636252,
0.150904046,-0.077069002,0.050408880,0.199555562,-0.078725970,0.039528877,-0.070437478,0.023701378,0.388184718,0.329661388,-0.823796142,0.037191485,-0.052255725,-0.074872842,0.155015368,0.214584770,-0.214376284,0.305408685,-0.034419526,-0.173184325,
-0.354851920,0.150644939,0.095912686,0.040610465,-0.303143520,0.365044313,0.242408284,0.137413934,0.291993810,-0.037848341,-0.324347549,0.203020218,0.112308244,-0.087512636,0.350905760,0.013026512,-0.138736408,0.573113716,0.397629599,0.014791680,
-0.283732564,0.211337570,0.310422103,-0.225218290,-0.041155629,0.315796471,0.110478420,0.417024980,-0.366464232,-0.263961613,-0.450322374,0.370453107,0.367334232,-0.052987283,0.088586165,-0.034863412,0.263978132,0.045040301,0.255630255,-0.014500096,
-0.032401001,0.037874729,-0.239816027,-0.194130393,-0.111479828,0.196279641,-0.186717159,-0.321173172,0.140225225,-0.069373126,-0.094305147,-0.203369876,0.011532162,0.010048904,-0.263632988,-0.352083079,0.052365805,0.012207012,-0.141055135,0.114238792,
0.074988339,0.015228578,-0.545537116,-0.389470801,-0.527501236,0.485132570,-0.150800759,-0.226835363,0.065449026,-0.049108598,-0.303870394,0.136735233,0.393927628,0.345608632,-0.189432815,-0.270048242,-0.120389954,0.034635453,-0.038703329,0.286868643,
0.129470594,-0.320157548,-0.166279621,-0.264000851,0.204396136,-0.230610566,0.288189447,-0.054512654,0.037340962,-0.288333824,0.291810212,0.010891833,0.104042978,0.439971634,0.408345861,0.477749403,-0.159629376,0.529549726,0.073346134,0.106010994,
0.206073597,-0.059173944,-0.368930071,-0.174067067,0.042729857,-0.527712000,0.333166004,-0.619108642,0.190451306,-0.065523552,0.081823902,0.292659637,0.399414594,-0.357462637,-0.316356571,0.605861226,0.095985409,0.082151469,-0.397046918,0.244500569,
0.080347834,0.004362871,-0.088382469,0.178732169,-0.104560398,0.217534796,-0.233551350,-0.104527945,0.000754422,0.324492790,0.602457534,-0.085339026,0.331509733,-0.114000090,0.362733104,-0.267147363,-0.056351698,0.117437635,-0.411917934,-0.365391659,
0.339375899,0.039063286,-0.090954517,0.224603272,0.081700596,-0.061722991,0.066634002,0.013989896,0.577134360,0.332675198,0.031869301,-0.097318150,-0.514879419,-0.139359345,-0.125126227,0.163540029,0.264183203,0.112902639,-0.085865807,-0.379862419,
0.283939740,0.283582028,-0.273723989,-0.326100048,-0.372786135,-0.227209750,-0.032097849,-0.084261889,-0.255580850,-0.137244470,0.897240183,0.595964390,-0.045552183,0.185927200,0.181402732,-0.053116378,-0.026834159,0.257750535,0.601523362,-0.183090406,
-0.234232701,-0.333095225,-0.084600202,0.027084678,0.411859352,0.148129619,0.155644840,0.293533043,-0.249951006,-0.044988393,-0.180170753,0.355289202,0.148031213,0.127147721,-0.068525243,-0.217754681,-0.137481686,-0.112354160,-0.057738596,-0.426196518,
-0.216098710,-0.264195671,-0.071119348,-0.184635100,0.146465041,-0.296021720,0.141721820,-0.016291188,-0.137888845,-0.228309115,0.210225836,0.221344749,0.287607958,-0.246608531,0.044888015,0.326057468,-0.080250911,0.499498097,-0.198163506,-0.091682141,
0.150015300,-0.111875080,-0.479298773,0.183021711,0.177855700,-0.317343163,0.210165658,0.143926338,0.180862238,0.323682031,0.279388231,0.513370125,-0.125378669,-0.113272076,0.054805035,-0.185617729,0.068229590,-0.277656737,-0.455224456,-0.570377539,
0.066762399,0.161423806,-0.057659924,-0.231115547,-0.247025414,-0.042864433,0.478657555,-0.087629818,-0.038064843,-0.273425685,0.056250975,-0.123296524,0.768384845,-0.244663564,-0.292788396,0.113121344,0.166996394,-0.022231478,0.079113591,-0.418090316,
-0.046131470,0.122019577,0.333755955,-0.184728068,0.025881746,0.116077639,0.066334210,0.189032934,-0.242311908,-0.182216296,0.163554179,-0.115448277,0.285150633,-0.255039116,-0.196615894,-0.192392625,0.251646067,-0.090181624,0.046534296,0.120743435,
0.447552514,0.107761589,0.178293334,-0.108004099,0.029171593,0.281732027,-0.561009192,-0.162972433,-0.017314638,0.738488009,0.028117215,-0.455419027,0.155925033,0.532155078,-0.203943450,0.244594610,-0.131933763,0.276696740,-0.099250489,-0.179234472,
-0.331692225,-0.215962217,0.042956690,-0.021892141,-0.258737986,0.020307541,0.009640323,-0.207166251,-0.034984568,-0.400674291,-0.065644498,-0.292213029,-0.377763837,-0.136946591,0.237567494,0.449186634,-0.379521795,0.014257597,-0.124568807,0.051637988,
0.083236775,
-0.209233191,
0.087984249,
-0.129209949,
-0.016875426,
0.210091036,
0.222814177,
0.493128751,
0.527734634,
0.202991928,
0.118054849,
0.098212066,
-0.180352960,
-0.518601123,
0.416089731,
-0.024093032,
-0.272798522,
0.091578195,
-0.215788914,
0.038439623,
-0.224579158,-0.030926784,-0.056567589,-0.014771901,0.071609122,-0.003572442,0.485733640,-0.279038010,-0.303185277,-0.194447506,-0.286158150,-0.015022082,0.117169770,0.034169728,0.012131524,0.336033869,0.220427539,0.275923268,0.203643868,-0.286027627,
-0.039153331,-0.253757115,0.153659086,-0.324309548,0.076092177,-0.044207540,0.255022051,0.532646739,0.449445255,-0.164067104,-0.362157329,0.207940509,0.315011542,0.089146236,0.170495163,0.056426355,-0.155683061,0.085748404,0.123074088,-0.379201967,
-0.033127528,-0.071040511,0.052878121,-0.299738858,-0.054004327,-0.018064020,0.241226781,0.441029540,-0.072282049,0.615820754,-0.069021887,0.102045848,-0.217590864,-0.165801008,0.010588630,0.135375928,-0.031781851,-0.053070121,-0.471339717,0.515194608,
-0.428151529,-0.023988643,0.171504395,0.038620355,-0.375824015,0.214912145,0.383744190,-0.038604963,-0.158089530,-0.081975328,-0.366281326,0.006545409,0.237465930,0.141158381,-0.103257756,0.028667631,0.134007996,0.641796985,-0.159019552,-0.151679361,
-0.312900882,-0.082944619,-0.477642855,0.180553898,0.158074153,-0.150430509,-0.228825090,0.409174494,-0.229422915,0.211910459,-0.209401137,0.082943379,-0.154189680,0.083003285,-0.005917834,-0.115532947,0.179131013,0.381537653,0.388152343,0.032944709,
0.116953370,0.201850889,0.014277999,0.343313883,-0.177265737,0.016785373,0.025979459,-0.053187074,-0.158471745,-0.317231524,-0.246965018,0.075357535,-0.195610771,0.261021181,0.031266444,0.134316459,-0.155766330,-0.487277299,-0.171435422,0.028691167,
0.105616208,0.371926419,-0.329324640,0.084813675,0.128202296,0.073837940,0.157803991,-0.099698373,-0.078208392,-0.084806727,0.348906353,0.296258871,-0.136280384,0.222151687,0.221392773,0.498496927,-0.214047922,0.041225780,0.261072292,0.067769792,
0.005343376,0.052247254,0.235149321,0.318971593,-0.211891480,0.034584631,0.190369207,0.405791357,0.058509905,0.034609165,0.277395431,0.414361074,-0.413674827,-0.217495613,-0.651832623,0.153743190,0.056908001,0.548161020,0.462755090,-0.061887521,
-0.123580958,-0.569717176,0.875244070,-0.012236246,0.303302650,0.107181077,-0.146048650,-0.170571707,-0.408310346,-0.402026576,-0.266430450,0.487026498,-0.130856530,0.010064524,-0.443643743,-0.259668082,-0.000272117,0.344874250,0.140811233,0.194937654,
0.237207006,0.201677343,0.260454799,0.159739826,0.165759434,-0.297270419,-0.010296825,-0.075974359,0.448407746,0.222426567,-0.198620118,0.318920384,0.121776068,-0.047304442,-0.179390276,-0.045331933,-0.028938955,0.000051950,-0.118738467,0.376537405,
0.213021204,-0.146519294,0.198428750,0.097341863,-0.043376910,0.179575745,-0.378253547,-0.138577235,-0.302802883,-0.080035370,-0.345509463,0.017628539,0.240132880,0.209777712,-0.125673618,0.419910854,0.070545945,0.123952845,-0.253921762,0.129323379,
-0.508658563,0.066876216,0.054134317,-0.227263948,-0.184537965,0.178467968,0.200317017,0.130373029,-0.191762216,-0.004038172,0.181684392,-0.344567702,0.021788792,0.465219263,-0.030406002,-0.118225004,0.086128233,0.192628325,0.036674076,0.301978501,
0.328013271,-0.235317028,-0.123704725,-0.480992208,-0.138684760,0.842628219,0.403423759,0.068570169,0.062111507,-0.133264094,-0.151979211,-0.084549300,-0.189941144,0.222642898,0.126862441,-0.127189722,-0.157197421,0.253148502,0.020110372,-0.159149336,
-0.334809732,-0.537070944,-0.626781197,0.368983328,-0.217024234,-0.369961368,0.092603823,-0.090221457,0.091957350,-0.112379554,-0.322847926,0.267920798,-0.089337258,0.495925839,0.357821620,-0.105739250,0.134154614,0.320567986,0.030876827,0.128084923,
0.136126577,-0.135540860,0.179600879,0.227631425,-0.110140065,-0.062227593,-0.176618818,0.106489383,-0.143565620,0.206921032,0.088086711,-0.295942687,0.027338847,0.264987253,0.135510635,0.196768882,0.039242727,-0.165730939,-0.402165675,0.124521069,
-0.106287270,0.543169770,-0.234986999,0.287067408,0.111623659,-0.288393102,-0.251182457,-0.049147679,-0.418521376,0.144385265,0.004337414,-0.447385416,-0.718697019,0.015927922,0.263767042,-0.167083909,0.346445738,0.142781502,-0.409940140,0.461900620,
0.030820606,-0.189130710,-0.262102399,0.055362352,-0.089777255,-0.217573830,-0.351233135,-0.307392936,0.301433157,-0.020324699,0.323363856,0.218550543,-0.669821015,-0.061301157,0.199209879,0.371444439,0.224983398,0.422083111,0.152646162,0.332064305,
-0.174675382,0.245928970,0.037663330,0.296524351,0.163962126,0.108033226,-0.266464504,0.019048099,0.176394879,-0.405941679,-0.473402214,0.034019658,-0.051137891,-0.386718997,-0.233003133,0.138385782,-0.137745068,-0.105342254,0.156612668,0.192279011,
-0.249555159,0.249210773,0.445838294,-0.276569513,0.127951309,-0.165404462,-0.295756327,-0.065730330,0.399717682,0.229301621,0.292745398,-0.050574196,0.012570732,-0.195797864,-0.295151708,0.055103231,0.377612346,-0.015440403,0.432531267,0.376078490,
0.190278221,-0.034135542,-0.016522556,-0.114926273,0.326690321,-0.046877300,-0.301890096,-0.263221977,-0.011681323,0.027106525,-0.368846336,-0.049473603,0.318619330,-0.062353860,0.254478182,0.146635418,-0.324405035,-0.050853767,-0.057017704,0.514462672,
0.109481272,
0.129305633,
0.223813773,
-0.014090293,
0.080696950,
0.185568484,
-0.228654809,
-0.281442409,
-0.103703499,
-0.205768385,
-0.209493087,
0.013260671,
0.045896867,
0.337874814,
0.388771252,
-0.202223899,
0.037310225,
0.082843861,
-0.163844925,
0.114008599,
-0.240249304,-0.045872977,-0.070488987,-0.178458454,0.050059168,0.151885970,0.144467208,0.069641023,0.200486464,-0.114625833,0.030567635,-0.209236143,0.294701816,-0.052539329,-0.285073210,-0.153451918,-0.023383878,-0.481897012,0.139419422,-0.221607991,
0.097393915,-0.105557900,0.003369177,-0.057535172,0.299389458,-0.498255604,0.309958569,-0.095543147,0.152198579,-0.252298711,-0.244518627,-0.283769631,-0.009070641,-0.375803259,-0.275099737,-0.051340113,-0.235350076,0.193636768,-0.087973691,0.194305798,
0.101208137,0.089311400,0.178158557,-0.090099776,-0.086945713,0.114647492,-0.271033168,0.234623808,-0.033803880,0.089501167,0.378023105,0.175925533,0.300281750,0.358864000,-0.231551980,-0.065918630,-0.207770177,0.336687604,-0.277136955,-0.262007246,
-0.046800925,0.085141286,0.257500408,-0.007889752,-0.248458115,0.097234160,-0.131985258,-0.268479149,-0.277819972,0.117733389,-0.004674597,-0.027954666,0.039656269,-0.357316840,0.065425407,0.185621706,-0.352009836,-0.094195820,-0.158382892,0.455832534,
0.107905268,-0.042324112,0.179642133,0.210725245,-0.523642223,0.221867794,-0.250471662,0.001182936,0.020090430,0.187550482,-0.319689962,-0.138148361,-0.326988322,-0.126492015,0.376472733,-0.232646914,0.205881582,0.082775326,0.073679985,0.016165899,
-0.154773802,-0.208073543,-0.201829751,0.191570098,-0.074954126,0.145952230,-0.142520897,-0.210518693,-0.363987213,-0.153125213,0.113564387,0.107528511,-0.103408623,-0.212808356,-0.227840972,0.333173569,0.193467422,-0.105883568,0.139231335,0.059326880,
0.064920348,-0.235656730,0.212402217,-0.078342739,0.201010284,-0.156887119,0.403397643,-0.132831784,0.232971163,0.242118725,-0.350114631,-0.383589903,-0.071547889,0.291759416,-0.313385784,0.177591880,-0.046673732,0.169878501,0.402949329,-0.087597330,
-0.197414577,0.214340319,-0.026215918,0.288921411,0.116632924,-0.114710105,-0.021087805,0.306253316,0.071426406,0.146287231,0.104932067,-0.246986938,-0.084556537,0.002543003,-0.246916243,-0.135787566,-0.794794789,-0.455516949,-0.141052983,0.115539093,
-0.079295825,-0.000757753,0.185995402,-0.225782817,0.033550709,-0.244344516,0.263467916,0.077848989,-0.027423839,-0.019077928,-0.286203905,-0.056175733,-0.225978423,-0.201002751,0.013281166,-0.120065789,-0.049007670,0.006082913,-0.091112813,0.152120059,
0.019361770,-0.101075982,0.347057181,0.023348525,-0.221725608,0.195639562,0.137053594,0.307014181,-0.408870734,-0.203172662,0.039780519,-0.306010680,-0.255834182,0.389383777,-0.756778226,0.230248991,0.006115052,0.330963015,0.335143043,-0.132067380,
0.009512558,0.005874352,-0.047331293,-0.044763053,-0.223631063,-0.074329777,0.107505084,0.009100491,-0.041203704,-0.170340927,-0.114239727,-0.495123299,0.117600237,-0.014935775,0.041432234,0.323546623,-0.621924135,0.226751663,-0.134134741,0.042237474,
-0.384700959,-0.360862774,0.070745581,-0.226955775,-0.153161565,0.310884098,-0.147790539,-0.274908552,0.050804064,0.023230846,-0.050374567,0.222018387,0.347355474,-0.118235883,0.288867184,0.589914333,-0.031943829,-0.517092756,-0.222897431,-0.028624557,
-0.005674876,-0.502536376,0.000715227,-0.055529813,0.387621714,0.081740539,-0.407849707,-0.283211068,-0.256195112,0.302010772,-0.243449148,-0.043449399,0.174969552,-0.107867448,-0.177890950,-0.274287586,0.000584110,-0.551447202,0.167520138,0.484785217,
0.417025287,0.283939765,-0.014606826,0.270135046,-0.385730548,0.232467941,0.109024460,0.039093960,0.217222979,-0.018355331,-0.187489256,-0.165276136,-0.097237879,-0.220891852,-0.263965735,0.169889431,0.626771021,-0.280306186,-0.047386080,0.356477483,
-0.149334626,-0.028390619,0.391675554,0.121298965,0.315519475,0.007672394,-0.261245643,0.326963816,0.313815322,0.054855027,0.236804283,-0.074111169,0.058004009,0.438500548,-0.166218260,-0.367321653,0.247895740,0.119172548,0.236799555,-0.020062474,
-0.090262118,0.090927908,-0.321456973,-0.081604274,0.130571057,-0.052502618,0.009610991,0.332953254,-0.105324550,0.506638917,-0.105914949,0.219483224,0.314052417,-0.468554071,0.463814347,0.103526702,-0.229069556,0.329041035,0.319676475,-0.184613995,
0.448805061,0.087527103,-0.389966985,-0.582193148,0.091742284,-0.045133948,-0.135391731,0.521132528,-0.108352455,-0.177934894,-0.228750270,0.388036332,-0.091807524,-0.306826694,-0.031789685,0.076593102,-0.318112687,0.464173072,0.139362475,-0.057332428,
-0.758837984,-0.075136256,-0.091116429,0.074259130,0.147926252,-0.035429405,0.287322787,0.061743297,-0.078577109,-0.039655740,0.483621135,0.133394066,0.187835251,-0.213440264,0.256039842,0.043381869,0.392156497,-0.069276872,-0.120835243,0.091932447,
-0.493179189,0.331319578,0.244404022,-0.228577168,-0.241612754,-0.135586519,-0.089059696,0.378002884,0.206677405,0.170482040,0.030945978,0.070654564,-0.041013715,-0.039408781,0.025555229,-0.051711706,-0.107153698,0.187610851,0.591935474,-0.006702775,
0.064757320,0.277603369,0.396300587,-0.026559752,0.081096261,-0.207492729,-0.649102758,-0.100238757,0.019358182,-0.587289530,-0.018326255,0.137933830,0.062604067,0.079954280,0.002651767,-0.168638785,0.026481748,-0.201992310,-0.048808166,0.046766602,
-0.344012114,
0.265464724,
-0.009790541,
-0.460533131,
-0.638091520,
-0.105328323,
-0.153889673,
0.150169545,
-0.210286727,
-0.321980266,
0.519794191,
-0.191847660,
0.202392021,
-0.102790738,
-0.312157758,
-0.122291823,
-0.062125326,
-0.233695953,
-0.046200237,
0.149542120,
-0.399659834,0.786268995,0.017391786,0.355881420,0.400269148,-0.597809643,-0.380763582,-0.167999985,0.328390902,-0.340477183,-0.304218967,-0.105712883,-0.426187596,0.399550059,-0.098563335,0.246891693,0.296962406,-0.088959818,-0.660260069,0.055782667,
0.246790854,-0.038527706,0.129392167,0.412539695,0.038125407,-0.135499418,0.192106237,-0.472119859,-0.311547184,0.341726861,-0.397685310,-0.222309979,-0.425430295,0.021152543,0.208855571,-0.161245823,-0.316699146,-0.216095709,-0.007307199,0.220274427,
0.014048071,0.021984756,-0.109724670,-0.270276575,0.094335241,-0.024143590,-0.249652475,-0.055523808,0.622970022,-0.013908910,-0.035213819,-0.099704128,-0.049055878,-0.277144139,-0.162051768,-0.145783193,-0.009542486,-0.025643127,-0.235156170,-0.273096555,
0.055097566,0.651281747,0.210383614,0.264612979,-0.070712824,0.191607775,0.172625611,-0.194300135,-0.209933073,-0.551843014,-0.053087962,-0.056226736,0.278889317,-0.485761628,0.050785160,-0.153371166,-0.057455742,0.319366582,-0.047760524,0.197835963,
-0.029916052,-0.376754555,0.154110479,-0.207591743,-0.307082470,-0.351640476,0.102079926,-0.216702329,-0.087647386,-0.255697079,0.218304859,-0.023272433,-0.005425183,0.222436912,-0.184065311,0.040781404,0.277418171,-0.053670393,-0.474889545,0.569907507,
0.068606189,-0.106265779,0.048775365,0.516202857,0.121142231,-0.320036253,-0.679468278,-0.007104920,-0.191487816,-0.003931529,0.045346257,-0.096544610,0.007476230,0.246394085,0.390300026,-0.031853128,-0.002319779,0.354166840,0.191018182,-0.362660838,
0.090423800,-0.080518386,0.566253743,0.172675811,0.018641106,0.354923762,-0.322754047,0.056494758,-0.339443386,0.011481104,-0.293098414,-0.344393335,0.661240592,-0.124258858,0.322955354,-0.583607093,-0.036087573,0.359584034,-0.481205162,-0.309915539,
-0.201260356,-0.149126432,0.411574400,-0.048382802,0.233999478,-0.106364332,0.307429985,-0.335216182,-0.285663204,0.194224901,-0.065346389,0.187642414,0.197005756,-0.471362188,0.335510868,-0.096608456,-0.231519834,-0.219056267,0.183239945,-0.091767217,
0.298058957,-0.101461867,0.103982132,0.183433348,0.032820263,0.177322258,0.553220079,0.333463614,-0.139647964,-0.225123597,-0.010719905,-0.292009874,0.238321242,0.068813094,0.367470929,0.228082822,-0.064353561,0.314003359,-0.269885955,0.308902325,
0.004045617,0.080965340,-0.147230952,0.082023546,0.153371789,0.295197743,-0.250638931,0.135549335,0.348600017,-0.310110426,-0.144775289,-0.189716046,0.133560329,0.142491367,-0.216520330,-0.045362309,-0.101264680,-0.260051672,0.256910362,-0.168710262,
-0.405441730,-0.007301721,-0.606595554,0.080127570,-0.066256061,0.050567546,-0.048120628,0.313565236,-0.002212473,-0.201753833,0.443769103,-0.138347537,-0.187079655,-0.097104369,-0.289701066,0.256778524,-0.130193450,-0.188692405,-0.422401921,0.189509063,
-0.326860659,0.115164979,0.122123731,0.326754290,-0.197119229,-0.715601177,-0.423234062,0.077051558,-0.001253772,-0.067984338,0.548385927,-0.134659503,-0.066299389,-0.138772885,-0.366547223,-0.043968625,-0.106415814,-0.295125637,0.236054237,-0.064599871,
0.008272346,-0.215848047,-0.043000871,-0.243478882,0.448788682,0.365401737,-0.194242470,-0.498189530,-0.249874124,-0.058304985,0.191588583,-0.455325145,0.236205526,-0.207085513,0.119310568,0.002703462,0.663012042,-0.309083927,-0.493397924,0.146706510,
0.222335708,-0.087089600,0.396833362,-0.071070928,0.210081259,-0.262415615,0.172111844,0.085047805,-0.336789826,0.222822171,0.138957513,-0.176541430,-0.348569352,0.056452125,0.040519267,0.048762185,0.588957946,0.120675680,0.150509955,0.610122169,
-0.048416047,-0.011307218,-0.370062950,-0.324633772,-0.559336706,0.347455886,0.071488382,0.070056237,0.137308750,-0.312963883,-0.056101597,-0.109117713,-0.222976283,0.385558632,-0.046806757,-0.062009895,-0.040482800,-0.240602480,0.050563818,-0.491454927,
0.496431323,-0.033970024,0.415179901,0.059125593,0.157486343,-0.277639022,-0.071421775,-0.267878107,-0.051946886,-0.249599648,-0.226260032,-0.057739311,-0.132482180,-0.391675705,-0.185488465,0.179819551,0.011229064,-0.067330049,-0.175297705,-0.231165594,
0.275402144,-0.184803057,0.305159422,-0.237366421,0.132881100,-0.073636773,-0.367590158,0.158869934,0.247084358,-0.114896496,0.418995223,-0.461356942,0.274708530,0.054866047,0.210340127,0.193139532,0.066159087,-0.430287672,-0.041514116,0.521148971,
-0.192645145,0.071378679,-0.067248183,-0.079929731,-0.068279383,0.303878532,-0.067120090,-0.052030876,0.264596641,-0.258007730,-0.157593985,-0.411065763,-0.699671788,0.325300023,-0.324447938,-0.411405261,-0.288643595,-0.006694058,0.051729455,0.304741269,
0.330454182,-0.299438985,0.005950567,-0.272531270,-0.402394711,0.028545799,0.414448674,0.038868498,-0.053463407,-0.111451499,0.141208432,0.192305951,0.135669601,0.449482866,0.204352289,0.204512422,0.069190209,0.405771934,0.045567368,0.201893791,
-0.410158727,0.371739448,0.556897092,0.364774806,0.335987792,-0.299727487,-0.054688784,-0.146071185,0.366591289,-0.624089439,-0.336342750,-0.030369787,-0.231132057,-0.070840325,0.484073257,0.150254364,0.388158648,-0.145916227,-0.064968797,-0.185240597,
0.000011424,
0.225360167,
0.092001519,
0.056229603,
-0.069084706,
-0.360225663,
-0.107152860,
0.460515632,
0.523276781,
-0.208988141,
-0.193654268,
0.098052949,
-0.210405005,
0.141621849,
0.362055562,
-0.133487844,
0.018669550,
0.158399224,
0.407599631,
-0.337765451,
-0.505831162,0.022918121,0.171280366,0.215403068,-0.247588155,0.114895481,-0.229740201,0.325365759,0.286409733,-0.141233881,0.058659118,-0.104804557,0.293776418,0.450468910,0.238202148,-0.216807334,-0.247249742,0.137263670,0.037151223,0.013683461,
0.039348003,0.186717815,0.168629794,0.388375177,-0.168666864,-0.024877081,-0.136868522,-0.134481018,0.207678072,0.044594532,0.043890759,-0.061763610,0.206190790,-0.034064354,-0.431748814,0.448954574,0.030721924,0.076043676,0.097762674,0.043704944,
0.482691677,0.145952415,0.133731942,-0.010791073,0.076721324,-0.394005420,-0.127475045,0.064170743,0.542927665,-0.307859137,0.159854806,0.102992683,-0.211984088,0.250628801,0.365108624,-0.064962832,-0.124087999,-0.058193173,-0.386869157,-0.622180400,
-0.038459338,0.109998479,-0.083768835,0.064863035,0.158895602,-0.901523092,0.143448253,-0.142381799,-0.387809956,0.120643049,0.351505527,0.133426176,0.093139945,0.034610725,-0.050647891,0.089157223,0.123623704,0.254776729,-0.759415932,-0.201194751,
-0.315210864,0.022670925,-0.012464260,-0.153149302,-0.004847654,0.030400527,-0.056931636,0.495496871,0.107965223,0.159710389,-0.345121944,0.172922044,0.076988608,0.017963120,-0.027855229,0.281727356,0.219074618,0.209034427,0.178377461,0.202743812,
0.061199923,0.007711816,-0.379146614,0.220145618,0.229470154,0.063099063,-0.733718194,-0.346722193,0.570494275,0.578946793,0.327866326,0.077356689,-0.047413519,0.025907510,0.035312991,0.393529883,-0.135105170,0.204066522,-0.025492589,0.138355416,
-0.338165380,0.405436381,0.182260852,-0.289783416,-0.353909776,-0.153745683,0.427459343,-0.171820434,0.162321697,-0.225400404,0.252664177,0.068287567,0.060435766,-0.411515272,-0.023144955,-0.252915074,0.057896766,0.091753787,0.036759466,0.405232609,
0.088885697,-0.141770478,0.178806088,-0.006649386,-0.359637929,0.271962242,-0.183606957,-0.034566768,0.255172694,-0.665538305,0.079633609,-0.327980892,-0.260011729,0.197966867,-0.072289748,-0.228113799,0.138277583,0.314742547,-0.030846852,0.014403186,
0.291804786,-0.179249601,0.174645989,0.259042221,-0.176321236,0.033763765,0.369503543,-0.163117889,-0.527816616,-0.367289716,-0.255176351,0.097638619,-0.086729881,-0.122633590,0.199660134,0.099018674,-0.096969245,0.215075889,0.324967196,0.172727409,
-0.268232350,0.512747139,0.459785105,-0.222790093,-0.266298582,-0.016774604,0.227748000,0.413936191,0.137452647,-0.018069729,0.312491229,-0.224341462,0.089288602,-0.353216689,0.030451227,-0.046551480,-0.035163533,0.466952724,0.412206914,-0.600757499,
-0.024008822,-0.218056757,-0.103629748,-0.085500903,-0.044351913,0.233101970,0.038568025,-0.132103256,0.097593398,0.642922565,0.277039098,-0.256696967,-0.189364364,0.544541271,-0.168406378,0.120814468,-0.297497952,0.021164029,-0.060243114,0.492747020,
0.022346568,0.130009612,-0.000143540,0.193033677,0.107288467,-0.190686859,0.177182931,-0.165784675,-0.306595638,0.406355558,0.329408725,-0.003070099,-0.237117226,0.181452007,0.267000217,0.280094320,-0.133115315,-0.009540909,-0.121614688,0.497786519,
-0.039709962,0.042403887,0.331302188,-0.090436301,-0.445055090,-0.069698417,0.298741713,0.035442591,0.340990584,-0.433766004,-0.374827693,-0.083778121,-0.317949952,0.156550907,-0.147574641,-0.037363454,-0.022250644,0.253379761,-0.024254400,-0.363040251,
0.153323377,0.444054294,0.214737867,-0.388840269,-0.288623799,-0.119481140,0.111510654,0.188663317,-0.310080538,-0.158227944,-0.279927228,-0.130235242,0.039997283,-0.367046009,0.048562912,-0.352501895,0.061210081,-0.033694285,0.162543123,0.140759305,
-0.316894715,0.367495918,0.267045871,-0.606426885,-0.248229390,0.457601397,-0.035222221,0.475585830,-0.197004446,-0.182030205,0.042979556,0.071215958,-0.365728043,-0.456353705,-0.427283061,0.465782268,-0.187954881,-0.201636034,0.219588726,0.237004854,
-0.480688916,0.076168349,0.231220169,-0.203828825,0.310197403,-0.002344567,-0.236342609,0.129718226,0.171043277,-0.374232123,0.159113468,-0.481042104,0.351803473,0.112965937,-0.028928686,0.025126576,-0.216085576,0.171418307,-0.078634534,-0.351580666,
-0.068892144,-0.045247300,-0.332410196,-0.366605829,0.006634091,0.441029452,-0.007930045,-0.221870461,-0.100386098,-0.174740908,0.083191662,0.237642010,0.170776383,-0.274415384,-0.120866492,0.023065813,0.096641689,-0.435995746,0.194155340,-0.011417110,
-0.321289840,0.350994634,0.055814693,-0.109300538,-0.024027920,-0.249851050,0.395611598,-0.110921203,0.013104494,0.168230276,0.233604777,-0.007777560,0.211392525,-0.323817366,-0.060987498,0.091777754,-0.287009385,0.057345410,-0.321002755,-0.474148125,
0.048015616,0.006411907,-0.031436077,0.176442147,0.347758633,-0.019401177,-0.156407357,-0.198961418,-0.008861620,-0.075961348,-0.204993253,-0.036174007,-0.222534799,-0.166216584,-0.158432797,-0.022443704,0.178652681,0.360179158,0.332075561,-0.318697362,
-0.073998515,0.304192392,0.060947321,0.148567059,0.171341523,-0.456785131,0.168274101,-0.136116720,0.092819993,0.171445540,-0.146670690,-0.048065902,-0.092066722,0.027099730,-0.088031772,0.161720414,0.165017040,-0.240534787,0.042387886,-0.167631003,
0.127651454,
-0.142815944,
0.087413115,
-0.201987901,
-0.016034254,
-0.137291048,
-0.147434816,
-0.231570181,
-0.415469917,
-0.141202217,
0.004035680,
0.134983052,
0.018360192,
-0.060349410,
-0.024493372,
-0.535897548,
-0.295301190,
-0.031548710,
0.651746250,
-0.054914392,
0.029853503,0.031185668,0.198992113,0.343764392,0.284932314,0.078316976,-0.009417089,-0.148887178,0.095444228,-0.190590789,-0.000730980,-0.108691466,0.672249228,0.108645881,-0.109255390,-0.050454064,0.153519378,0.168409228,-0.493502987,-0.348694133,
0.564001237,-0.269573607,-0.066617316,-0.430654312,-0.109469477,0.016943141,-0.027068169,-0.469548742,0.363685793,0.386767808,-0.200499846,0.282695957,0.286184729,-0.131011229,-0.006154500,-0.047027763,-0.105327673,0.443356871,-0.124528962,0.451706810,
0.215292115,0.252441681,0.247875416,-0.039690600,-0.079585291,-0.159919140,0.499466280,-0.350342372,-0.176575304,-0.207158313,-0.337933506,-0.214801111,-0.401366746,0.588909328,-0.005080797,-0.369868476,0.187385085,-0.080462445,-0.157896134,0.446740620,
-0.277745979,0.158071612,0.400217059,-0.647252352,-0.323235953,0.016220551,0.272121203,0.132567637,-0.086614655,0.250792426,0.314260869,0.258772904,0.248227647,0.392035694,0.225401971,0.105609938,0.510701520,0.361153556,-0.175093484,0.244149428,
0.600986180,-0.348543003,-0.097063839,0.153096553,0.046082898,-0.087869998,0.090157779,0.284417618,0.244598716,-0.025377036,0.132898744,0.214447476,-0.576305226,0.552760451,0.030178658,0.015077473,0.834106503,0.073153902,0.522059502,-0.385554726,
0.206239499,0.079436913,-0.032685619,0.282054334,-0.009859562,0.160857755,0.272896718,0.033849426,-0.511492922,-0.452556095,0.240084660,0.185741641,0.197320080,-0.116687264,-0.011484845,-0.097477657,0.038968835,0.181698349,0.157257129,-0.584973727,
-0.040537746,-0.233233793,-0.435038714,-0.150170275,-0.214803642,-0.139478390,-0.426392796,0.540884588,0.191650914,0.135532210,-0.113753495,-0.171104686,0.166522363,-0.459014658,0.018644401,-0.257117492,0.304182104,-0.323918207,0.300455358,-0.424710906,
0.307051512,-0.529319126,0.060032562,-0.123319250,0.137662285,-0.360068917,-0.138566246,0.184490933,0.089434692,0.081611045,0.052741792,0.268230817,-0.047153809,0.104020833,-0.563903459,0.108469455,0.012513847,0.167079842,-0.142959212,-0.017196879,
0.098803469,-0.089164660,-0.522668481,-0.009346126,0.187528729,0.351015026,0.357959414,-0.196671856,0.096116048,0.087166806,0.008271109,-0.426299237,-0.160788951,-0.261145782,0.064111016,0.225451801,-0.258183723,0.042460790,0.192560107,0.140365594,
-0.240038815,-0.212957120,0.044229485,0.120347206,-0.191070838,0.034188728,-0.078497205,-0.348123747,-0.023871798,0.057850445,-0.037701320,-0.635584588,0.095245684,-0.021504312,0.163792292,0.210102122,-0.103608688,-0.188469006,0.014376985,-0.054454622,
0.251612092,0.036222057,-0.348762152,0.368889191,0.171622677,-0.508932970,0.166953491,-0.179696866,0.385172658,0.029901032,-0.097881576,-0.293416202,0.378317608,0.153578623,0.457975914,0.455376374,0.301347205,0.067180479,0.246109863,-0.062734331,
0.005573172,-0.128036217,-0.050227181,0.098177800,0.446418847,-0.125005005,-0.043138620,-0.101465944,0.529432036,-0.357839488,0.211215546,0.194764784,0.148270423,0.243634037,-0.072273298,-0.044752603,0.032379052,-0.042100559,0.211121408,0.064850468,
0.011710396,0.204049855,0.244858693,0.017226334,-0.169316595,0.481947755,0.222202010,0.156426081,0.243688691,0.316926566,-0.065834696,-0.326107459,-0.012584583,-0.133187507,0.250980973,-0.254764713,-0.206487647,-0.026773011,-0.139434723,-0.460581898,
-0.279429630,0.050299916,-0.085430822,-0.392523544,-0.023234470,-0.361232594,0.200919195,0.156222112,-0.115462588,0.465665778,-0.048120683,-0.160062905,-0.437775824,-0.132984398,-0.028801158,0.586585050,0.138915855,0.116866201,-0.261420294,0.017958005,
0.431720896,-0.366576415,-0.229009416,0.034854120,-0.040358796,-0.356379895,0.075835991,-0.224695531,0.395514801,-0.065054434,0.226906817,0.240714086,-0.049849824,0.300946177,-0.092702660,0.305435035,-0.228401475,0.227452313,0.180238161,-0.187122832,
-0.502086998,0.442059835,0.188557829,0.261964063,-0.360424858,-0.559422963,0.447776154,0.140704092,-0.190088269,0.286125144,0.466128323,0.489803791,0.185844457,0.046635895,0.612586159,0.423692192,-0.387502834,-0.132546483,0.216644606,-0.012956580,
-0.063884020,0.496950777,-0.112879167,-0.136026765,-0.280495382,0.306210353,-0.181516792,-0.055191967,0.119304826,0.267048631,0.180890058,0.046911276,0.186461249,0.088955038,0.453235450,0.419530609,0.482955481,0.415655684,0.091505466,0.020321993,
-0.055109318,-0.214793872,0.213211796,-0.110717907,-0.021061742,0.413870063,-0.160057924,-0.260025952,0.186244404,-0.263061682,0.214400600,0.113619507,0.269187658,-0.110223184,0.227695041,-0.519013272,0.018752860,-0.064236848,0.271848759,0.233172790,
-0.134459203,0.377850724,0.138396251,-0.109053072,0.206670077,-0.201171983,0.133473328,0.103186000,-0.259638229,0.094324031,-0.053496109,-0.022623595,0.023509483,-0.245497450,0.241545313,-0.106223703,-0.230639475,0.700236394,0.070104687,0.155411002,
-0.338510095,0.160095630,0.149173849,-0.132402341,0.160887183,-0.213382207,0.201901362,-0.033603969,-0.286074335,0.567908492,0.288576059,-0.118204011,-0.241281005,0.200270054,0.069082548,0.091119265,0.182782609,-0.354406823,-0.355872976,0.105562377,
-0.464804074,
0.308440487,
-0.107756905,
-0.113674118,
-0.206282677,
0.263526763,
-0.341561968,
0.030383337,
-0.535290281,
0.123502396,
-0.434428158,
-0.213034616,
0.443370280,
0.223078324,
-0.295569047,
0.445204309,
-0.241368097,
0.194659102,
0.219321844,
-0.261066675,
0.105559770,-0.050035822,0.036858763,0.150321502,-0.555309345,0.265820215,-0.078664496,0.458258878,-0.265492552,-0.121417489,-0.038262086,-0.119752365,0.198203630,0.446106010,-0.128267924,0.124766733,-0.525435652,-0.292592435,0.013930055,0.085593830,
-0.044849042,-0.028870247,-0.139760777,-0.245190899,-0.222981869,-0.634745878,-0.097696143,0.069806116,0.427802903,-0.052985024,0.178348431,0.054521873,0.018419532,0.137774741,0.234895706,-0.322551450,-0.116794620,-0.254749503,0.076755972,-0.030330283,
-0.127993320,0.732030277,-0.162350890,-0.076225172,-0.223299610,0.479386740,-0.064767379,-0.266029044,0.122193846,0.068635789,0.168435944,0.147334461,-0.187832116,-0.132905446,-0.028100859,-0.315694092,-0.279013883,0.752554196,-0.059973799,0.060382316,
0.250339927,0.004568874,0.371810245,-0.568886570,-0.173146677,-0.187584092,-0.176492971,0.463956806,0.069745848,0.040779819,0.155027898,0.329478601,0.336037893,-0.042633761,0.180340854,-0.387466928,-0.183289075,-0.033803515,0.163210824,-0.225584889,
0.062413148,0.205719136,0.027031144,0.258827293,-0.276960902,-0.039657907,-0.387891931,-0.446601238,-0.061458357,-0.197191687,0.067591781,0.081339282,-0.453608957,0.071102270,0.252159919,-0.075684097,-0.255059237,-0.066135795,0.229871653,-0.125526154,
-0.313990246,0.260760436,-0.205189826,0.131682750,0.206989224,0.364938746,-0.277741886,-0.187899627,0.067081372,-0.302676470,-0.203332602,0.128933832,-0.210632276,0.206784291,-0.462100183,-0.356854733,0.162329137,-0.148836594,-0.227740242,-0.182360147,
0.249281249,-0.422145463,-0.196956715,-0.198918870,0.034298397,-0.120997088,0.158526327,-0.145375913,-0.017662413,0.397813420,-0.228583422,-0.449776441,-0.108511756,0.122495051,-0.105739281,0.267330337,-0.049855823,0.130053333,0.118693068,-0.119468279,
-0.124205271,-0.042599377,-0.529884753,0.026436152,0.239721606,0.032605355,0.387241249,0.103083506,0.070767486,-0.174761251,-0.153275352,0.095899794,-0.291494143,-0.259408482,0.016529566,0.341153768,0.070274976,-0.198117062,0.053337082,0.504712486,
-0.001941436,0.103292391,0.454044483,-0.208204357,0.107243579,0.072184235,-0.113177085,0.055849352,0.116028042,-0.480472404,0.049537267,0.140718166,0.405012865,0.703428490,0.215424700,-0.168378768,0.471033966,-0.222109406,-0.389312759,-0.245012503,
0.071061868,-0.085415227,-0.314367728,0.262855137,0.131209740,-0.275243252,0.570469327,0.203341358,-0.257634773,0.091366055,-0.135202105,-0.038867609,0.187384911,0.043027871,-0.375779937,-0.274304432,0.156847264,-0.152688025,-0.120522342,-0.146204019,
-0.308800424,0.480578502,-0.170449253,-0.271753650,-0.240239595,-0.140781306,0.564010456,0.073139747,-0.041175067,-0.079710799,0.107342860,0.054445743,-0.061229822,0.095717702,0.253068863,0.368137246,-0.333246490,-0.310853648,-0.313933397,0.217023822,
0.014646414,0.155334498,0.225639962,-0.002594529,-0.609137555,0.129386878,-0.206330617,-0.164195387,-0.333715997,0.041204827,0.055218389,0.333348269,0.306963214,0.086274639,-0.355592293,0.257341716,0.219552498,0.246247497,-0.379127454,0.128468262,
-0.203758666,-0.350104921,-0.203891221,-0.014570961,-0.264033856,0.220730184,0.109274058,0.052034399,-0.674549372,0.061601670,-0.117672822,-0.453656477,0.160013350,0.010946148,0.080993461,-0.079543244,0.221413770,0.111617569,-0.264761006,-0.256071597,
-0.281038552,0.056697546,0.101670299,0.054074297,-0.025740889,-0.007132155,0.229584284,0.416285788,-0.040461421,0.273425475,-0.291666663,0.112481231,0.003376786,-0.136065352,-0.179336811,0.209430957,0.243997497,-0.159383444,-0.228860599,0.142717400,
0.069137908,-0.144084704,0.225293427,0.259595118,-0.453456009,-0.418930446,-0.202877990,-0.012265964,-0.098976833,0.079070251,0.084994137,-0.161407828,0.192414575,-0.281913961,0.026939755,0.180856237,-0.341290950,0.046044009,0.277501504,0.257639324,
0.012237472,-0.192199901,0.045933291,0.228945657,0.214983333,0.287111496,-0.277370788,-0.527511642,-0.483420553,0.321962015,-0.482675316,0.436609134,-0.167896628,0.512014783,-0.205303340,0.158854929,0.274944719,-0.434619110,-0.281048823,-0.016848814,
-0.286600221,0.083918730,0.335006816,-0.108925641,-0.138844629,0.385033303,0.534050357,0.101689192,0.014997953,0.545584411,-0.238806376,0.384213434,0.010258845,0.053130881,-0.393149495,-0.058492875,-0.009396900,-0.029904691,0.101184700,-0.437819092,
0.171412874,0.414332371,0.399993393,0.136997636,-0.172759636,-0.400722150,-0.228912010,-0.888308604,0.469901751,0.156941794,-0.145564269,-0.133882341,-0.159652554,-0.034007216,-0.102712219,0.268454671,0.091920762,-0.146378606,-0.108302344,-0.580768255,
-0.090991053,-0.394206085,0.201121257,0.323469466,-0.232767067,0.335854505,0.154266704,-0.269850538,-0.370951092,-0.053780519,-0.162554035,0.199456483,-0.317672121,-0.061713466,-0.387903206,0.054795973,0.781207638,0.067189807,-0.488969324,-0.197139712,
-0.048288830,-0.253623305,0.239812632,0.037309175,0.067529409,-0.395716562,-0.244625336,-0.114599740,-0.218525170,0.068328864,0.352282859,0.043583390,0.352028556,-0.166785191,0.408601719,-0.329675667,-0.315560226,0.225469165,-0.272416254,-0.198196978,
-0.159472465,
-0.503419767,
0.049158121,
-0.023871318,
0.380543555,
-0.243685745,
0.514823086,
0.103585157,
-0.157451098,
0.393031501,
0.374942054,
0.178397531,
-0.346862081,
-0.110331602,
-0.392991459,
-0.370396800,
0.533258564,
0.147218396,
0.613004102,
-0.280108338,
0.009542829,-0.068706189,0.073620921,0.243171166,0.009529034,0.098019193,0.131498417,0.397443518,0.190361889,0.184037328,0.384853574,0.112815673,0.054567164,0.233476915,-0.274685448,0.324594346,-0.145505751,0.363108920,-0.119526924,-0.085023759,
0.418505712,0.413893438,0.272926312,-0.475193209,-0.311222861,0.240726386,-0.610377692,0.097916824,0.532040229,0.098341489,0.025789856,0.027686838,-0.142265491,0.033699104,0.065867232,-0.064637043,-0.211230693,-0.052875634,-0.277892533,0.133457352,
-0.074994210,0.007257368,-0.144461871,0.320884264,0.036755501,0.229654288,-0.339256365,0.125517061,0.272135360,-0.257847767,0.209300463,-0.204714264,-0.098074860,0.135679838,-0.302482439,0.213688431,0.277212649,-0.384707139,-0.114130431,0.674060466,
0.111183332,0.146357167,0.119603805,0.236307637,-0.371313170,-0.221018569,0.161319758,-0.321429201,-0.014787297,0.120117778,-0.055990098,0.191789220,-0.044094421,0.191650967,-0.397901155,0.147228236,-0.329585143,0.633789126,0.155511813,-0.464345660,
-0.176587594,0.234511855,0.093391558,-0.109574612,0.041536648,0.631864925,0.005894331,0.428209159,0.225161604,-0.287512888,-0.131163665,-0.080569825,-0.137180906,0.348064027,0.153731877,0.230615903,0.040504273,0.116191544,0.440677483,-0.057699378,
-0.291547629,-0.047990448,-0.411760990,-0.216494270,-0.260315949,-0.320483331,0.204817123,0.055186431,-0.029756720,0.316603321,0.128709565,0.123518063,0.205721819,0.042465345,0.323745456,-0.202450656,0.082977398,-0.485780751,-0.014904621,-0.065555735,
0.098314340,0.180223798,-0.118520698,0.463917816,0.321410329,-0.383535764,0.098628784,-0.333102259,-0.001525899,0.373677199,0.142562900,0.066600619,-0.181625946,-0.197260707,-0.106406134,-0.382891372,0.190830583,-0.023250814,-0.249414059,-0.429187494,
0.151922273,0.261453922,0.181737341,0.114907894,-0.262515323,-0.038923786,0.268345678,-0.139593364,-0.400775784,0.384670833,-0.473051337,-0.196560732,0.072674694,0.473879314,0.000482693,-0.066468101,0.221335675,0.145143419,-0.194337994,0.199803461,
0.629015522,0.020306589,-0.141369175,0.147602787,-0.046313754,0.095254036,-0.132277379,0.145449092,0.025943218,-0.226297590,-0.227823645,-0.109938346,0.000424521,-0.295537623,-0.132189061,-0.342254618,0.019995639,-0.174083293,-0.028636351,-0.031934084,
-0.198278631,0.040372343,-0.013954176,0.183392445,0.003775199,0.115300068,0.341321672,-0.285868263,0.042354742,-0.177944966,-0.154402951,0.022810977,-0.474852635,0.036380201,0.018390802,-0.022901118,-0.470847622,0.212964983,-0.327188025,0.172822638,
0.005655731,0.185846763,0.156101884,-0.182884418,0.225586992,-0.199292243,0.296771405,-0.238835800,0.020733629,0.617904406,-0.116790548,0.215228477,0.272222356,-0.167612705,-0.098351026,0.203105226,0.415255440,-0.110383498,0.414789685,0.085390924,
0.407957712,-0.258868142,0.338726788,-0.096031372,0.021207343,-0.333254839,-0.148667275,0.130511253,0.031099363,0.332378063,-0.288414241,-0.135787899,-0.114032986,0.412744852,-0.085185116,0.068268411,-0.724425110,-0.040186686,0.279347982,-0.108663559,
0.400748419,0.431934965,0.349205904,0.007618248,-0.164395651,0.244556225,0.031049260,0.079684527,0.079010739,-0.030388565,0.452724428,0.320686326,-0.157903904,0.039959069,0.468686765,0.229214459,0.240605663,-0.069308617,-0.349607305,0.166232750,
0.119776576,-0.700719786,0.178866013,0.033047963,-0.511304564,0.266141562,0.124213867,0.060816914,-0.418023750,0.054541310,-0.045863505,0.129409401,0.669451413,0.204967629,0.052852239,0.234617613,0.252634237,-0.556458937,-0.145747831,0.511411477,
-0.158187576,-0.001093864,0.452865886,-0.306549416,0.023398234,0.198354022,-0.193368587,0.032647946,0.171852101,-0.013777031,-0.081751871,-0.010038755,-0.068493432,0.057280346,-0.172273426,0.367561755,0.145103056,-0.105971038,0.321641720,-0.149274814,
-0.113184465,-0.135325931,0.254463030,0.399738512,0.065769739,-0.387508372,0.165649875,-0.279995617,0.043846677,-0.018285567,0.016079198,-0.000127441,-0.222437844,-0.018200762,0.068171430,0.174964011,0.024664794,0.248811990,0.285939504,0.234587181,
-0.104868722,0.053495230,0.104330768,0.020576888,0.057830985,-0.343378057,-0.253115789,-0.045361870,-0.052728232,0.046069404,0.216646405,0.476564169,0.196796954,-0.140030972,-0.103594015,0.263048982,-0.203224190,0.179023992,0.145851837,0.272661151,
0.026810326,0.394872505,0.062940136,0.143713069,0.381618514,0.007027736,-0.095647805,0.030368789,-0.098347564,-0.040131765,-0.086166325,-0.252543614,0.231906238,0.131257048,0.001654403,0.095728585,0.062024199,-0.180779292,-0.165792242,-0.047551439,
-0.048108251,0.148309493,0.291635599,0.352081365,-0.005234353,-0.465973292,0.410076608,-0.259238364,-0.161851166,0.084002766,-0.100099907,-0.230048626,0.251972323,0.204194404,-0.064019839,0.104739384,-0.394936296,0.398619490,0.177420262,0.267852140,
0.283111222,-0.311866243,0.005357696,0.117798975,-0.597882093,-0.424471186,-0.042461802,-0.117727179,0.333755081,0.115451739,0.167333126,-0.184525360,-0.612060803,-0.299333820,0.292389008,0.126933104,0.102159206,-0.182029814,-0.106265957,-0.139238010,
0.295028261,
-0.141921721,
-0.033304106,
0.207785471,
-0.075382270,
0.069092112,
-0.165381953,
-0.247969981,
-0.264054077,
0.094484371,
0.000809526,
-0.272447492,
-0.064223686,
0.339284399,
-0.158416757,
-0.202751751,
-0.272970962,
0.157517868,
0.364516721,
-0.073349675,
0.050787130,-0.274336777,0.276570167,-0.021860949,-0.028382646,0.022835856,0.030061470,-0.198881836,-0.515035647,-0.353869024,-0.426695448,-0.044616491,-0.244099880,0.144938865,0.068418120,0.108300131,0.167443994,-0.039733378,0.026356773,-0.010014727,
0.042855619,0.035619652,0.201100430,0.099721657,0.003221949,0.096044304,-0.098055559,-0.047466663,-0.411597470,0.048927866,-0.606136426,-0.709505209,-0.148424150,-0.009625274,-0.281663955,0.307641837,-0.075230461,0.266365258,0.045295823,0.263708396,
0.428757905,-0.458137360,0.267985483,0.143813713,-0.243153345,0.049261785,-0.067990892,0.240969382,-0.005749564,0.078496624,0.501339472,0.056922875,-0.219576359,0.192293772,-0.159380509,-0.001951063,-0.108218654,0.334432113,0.039959550,-0.031889736,
0.074826012,0.072828501,0.015240653,-0.276622001,-0.309355670,-0.050280983,0.354214993,0.071812054,0.177017471,0.298517820,0.038756598,0.487762424,0.293111859,-0.339008837,-0.186938118,0.507014814,0.016761637,-0.522179930,0.154798451,0.111616881,
0.072836398,0.150046401,-0.092666748,0.193511509,0.068059950,-0.221791531,-0.122374296,-0.210891174,-0.159323477,-0.024021635,-0.305964797,-0.185697183,-0.063023250,-0.362962195,-0.104279444,-0.018216488,0.092853131,0.130139215,-0.199950175,0.340189104,
-0.300824205,-0.189317309,-0.203047747,0.025730725,0.391241648,0.213619968,-0.329934232,-0.181347948,-0.123449014,0.247087168,-0.524422233,0.170940242,-0.240042020,-0.126163350,0.065278082,-0.049158069,0.518316947,-0.190204763,-0.544811575,-0.008722049,
0.020784353,0.316465987,-0.236361148,0.102080053,-0.276539463,-0.157098659,0.235820445,0.185110251,-0.017941508,0.028078142,0.402024764,-0.599283310,0.010384027,0.433603820,-0.089023322,0.070830494,-0.448772679,-0.135694864,0.091873998,-0.017519301,
0.129345720,-0.380609415,0.494869204,-0.059871506,0.295675403,-0.450073057,-0.044183945,0.223375660,-0.453870266,0.186987693,-0.032947933,-0.019913196,0.095016881,0.489537203,0.354732586,-0.172867835,-0.321599678,-0.497736318,-0.333201920,0.039404126,
0.349790989,0.387842733,-0.117398726,0.237959691,-0.167727632,-0.296130119,-0.095347924,-0.028739933,0.173241457,-0.055521248,0.535964027,0.217464878,-0.416563208,0.227301710,0.209633129,0.108013340,0.113101410,0.072371624,-0.151982570,0.165187071,
-0.625553037,-0.818153057,0.222217779,0.457735967,-0.320347045,-0.358861426,0.211145150,-0.050134311,-0.114126325,0.407411373,-0.341532935,-0.174123582,-0.389371843,0.271055654,0.321619602,-0.000089057,-0.663701628,0.071943789,-0.203144671,-0.044053379,
-0.440850496,-0.206571993,0.333052043,0.158277222,-0.490012588,0.251390460,0.556698197,0.111748285,-0.123476894,0.170394722,-0.041497952,-0.256717589,-0.272598327,0.084215063,0.088560686,-0.589365985,-0.469241492,-0.392232644,-0.178688317,-0.133651480,
0.135156326,0.103705328,0.027260503,-0.047343269,-0.248466926,0.431961904,-0.284013923,-0.040937221,0.324941011,0.019970909,-0.165982712,-0.111971579,0.294522588,-0.154386905,-0.025717019,0.089196226,-0.194271027,0.186789643,0.150281933,0.089823076,
0.128913951,-0.395274116,-0.691151103,0.405889989,0.408104605,0.030317326,0.113400967,-0.017246927,0.277679358,0.037564091,-0.143477088,0.052253289,0.227510182,0.029952065,-0.263195357,0.280457107,-0.086531508,-0.062055819,-0.376641154,0.234781298,
0.345274459,-0.342187259,-0.688227453,0.060576589,0.048370485,0.384821540,-0.232089539,0.085017533,0.521670455,0.206506905,-0.108857461,0.065954108,-0.111284023,0.441733022,0.198360241,-0.301744395,-0.055306121,0.248204009,-0.046243029,-0.099624273,
-0.565983402,-0.543142922,0.080519060,-0.188847003,0.072100921,0.145165705,-0.495685256,0.484943663,-0.109231673,-0.148007229,0.100480401,0.083474806,0.063519111,0.032675344,-0.112557478,-0.155460766,-0.586770605,0.310090921,0.498923078,-0.144530913,
0.087749396,-0.153794475,-0.396002385,-0.144722575,-0.009953227,-0.203912881,0.438213937,0.116714538,-0.210404987,-0.453680454,-0.241331525,-0.345246070,0.209135000,-0.397375324,0.056085615,-0.024815656,-0.113035535,0.037988618,0.100059955,0.063568689,
0.066111673,0.410962570,-0.167871963,0.654154458,0.433942985,-0.251993222,0.073769797,0.169931982,0.162881222,0.024379664,-0.015897134,-0.072449161,0.191080221,0.046857604,0.042354683,-0.064460278,0.512543014,-0.178510902,0.107623868,0.433078828,
-0.047372435,0.244313909,-0.626722221,0.194156286,0.310477922,0.084301930,0.184646602,-0.137459685,0.156294889,-0.062229108,-0.002872216,-0.201283914,0.360553843,-0.007797508,0.071982257,0.082928634,0.005965651,0.038564363,-0.140943774,-0.213184688,
-0.408854859,-0.163278353,-0.216630678,0.014928811,-0.301891854,-0.137647949,-0.434195827,0.331869558,0.154446816,-0.022985048,-0.469516313,0.248299292,-0.551481294,0.175490899,-0.002858141,0.490959232,-0.222210354,0.034567871,0.033166764,0.209891218,
-0.185153568,0.227391248,0.198109260,-0.128615885,-0.382299730,-0.446447701,-0.336837078,0.090923981,0.596516954,0.345208105,-0.148118801,-0.498929364,-0.066327544,0.403148061,0.194787792,-0.287062448,0.380058798,-0.131134980,0.007881131,-0.045000884,
-0.365677325,
0.296643556,
-0.260301432,
-0.257306420,
-0.279931386,
0.724850003,
-0.125282514,
0.149195647,
-0.206955568,
0.305805873,
-0.034732252,
0.127285046,
0.073728361,
-0.157793272,
0.071961758,
-0.174749910,
0.032938681,
-0.327549696,
-0.142221246,
0.009805285,
-0.172710886,0.261751322,0.415916810,-0.066079000,-0.030350560,-0.245644329,0.287610543,-0.421799012,-0.160347157,-0.056147101,0.182845178,0.077294583,-0.004224056,-0.122000320,0.097268080,0.420050610,0.129444632,-0.068811441,-0.121960888,0.009357888,
-0.190111070,0.196880365,0.470483797,-0.359049134,0.137598906,0.014900744,-0.416565074,0.024884659,-0.046212205,0.214426519,-0.344451511,-0.304038493,0.428585095,-0.104688897,0.346849568,-0.347636952,0.063469309,-0.287611975,0.061642256,0.388296376,
0.391636766,-0.107898560,0.156974905,-0.052971752,-0.518053610,0.150534878,-0.308201072,0.044898316,0.193287345,-0.362765223,-0.458606890,-0.052359733,-0.021110657,-0.206158797,-0.128520984,0.379771767,-0.246291034,-0.419960995,-0.300732441,-0.073668754,
0.002800786,-0.023433722,-0.415502957,0.315776541,0.090002318,-0.006756000,0.277743859,0.203801961,0.166672334,-0.381160320,-0.156382147,0.102142510,0.068894812,-0.350199528,-0.366194969,0.042110990,0.231134129,-0.094214478,0.075515365,0.132562401,
0.112476581,0.275615587,-0.456196209,0.126122832,0.300576774,-0.222295548,0.115632628,-0.060449890,-0.043491825,0.144219215,0.210523943,-0.202074125,-0.077517036,-0.301395199,0.404854941,-0.160955870,0.248237864,0.259245523,0.167811167,0.291833835,
-0.109638365,0.215172779,0.024584606,0.321832108,0.369875296,0.134005630,0.300723003,0.150403046,0.105374557,-0.323064588,0.029287192,-0.134860760,-0.290358622,-0.117120983,0.307280758,0.097325626,-0.079114456,0.032227055,-0.189179632,0.215555904,
0.170694919,-0.052594092,0.294410245,-0.164148069,-0.364775846,-0.176486855,-0.042241767,0.209398896,-0.016210072,0.078365396,-0.106115339,-0.189932288,0.012665731,0.169598669,0.132175253,-0.269807793,-0.542363675,0.218794725,0.000505433,-0.078710288,
0.057832828,-0.184779577,-0.089929928,-0.019905878,-0.080376546,0.174671008,-0.220735883,0.019063176,-0.427743267,-0.188542544,-0.191191747,-0.282581901,-0.363827601,-0.178972015,-0.129097159,-0.191843234,0.373739804,0.135190255,-0.036474051,-0.003928978,
0.101545714,0.554667443,-0.479701673,-0.085833580,-0.034894788,0.011695190,-0.369110248,0.249678751,-0.224972783,0.368981579,-0.296870162,-0.313583295,-0.060178110,0.080900225,0.246966122,0.106588817,-0.083563867,-0.285934620,0.194212105,0.101777638,
0.223143641,0.000641632,-0.298565714,-0.128155687,0.049431489,0.040592720,0.054628124,0.248722464,-0.315466232,-0.262773056,-0.181287497,-0.104842124,-0.290339407,-0.049725650,-0.384240161,-0.028903795,0.015736099,-0.131569830,0.117400573,-0.245724751,
0.086259244,0.507141126,0.192961538,0.369005168,0.104164542,-0.380434305,0.152302603,-0.149228219,-0.057697556,0.051749878,0.306261619,-0.349064925,0.185212988,0.110343015,-0.387739951,-0.172189523,0.114973908,0.325037517,-0.109123848,0.483599590,
0.052633438,-0.031254626,-0.616108801,-0.194475578,0.226964863,-0.220336615,0.158796801,0.003792352,-0.276241426,-0.300892344,0.445307654,-0.080448343,-0.531205797,-0.589484387,0.103535194,0.190357756,-0.151291118,0.517387317,-0.425426837,0.008714366,
-0.631149872,-0.136938856,0.085454773,-0.492909722,0.200540236,-0.561848430,0.336815962,0.407936562,-0.317200224,0.401999605,-0.180080749,-0.203573493,-0.151474104,-0.112549818,-0.350065458,0.237430634,0.035818297,0.077048259,0.493162850,-0.163250132,
0.481941547,-0.278725924,0.071745826,0.199656744,-0.115046132,-0.232155864,0.269231920,0.125015375,-0.105056550,0.488098058,0.143135900,-0.180873766,0.029075726,0.219940055,-0.161853213,-0.072436920,0.300112522,0.250678688,-0.189918898,0.226431988,
-0.442059550,0.201647684,-1.114265779,0.115897683,0.024274020,0.394946867,-0.312694113,-0.023170823,0.169619669,0.187301456,0.206400002,0.240657319,0.006120216,-0.278896686,-0.027128197,0.144287220,-0.045752786,-0.696509778,-0.142964942,-0.235976126,
-0.252296708,-0.172521433,-0.225643367,-0.462045631,0.065070864,-0.284427597,0.024264809,0.839534720,0.026526555,-0.307528087,-0.070338372,0.321642983,0.466196157,0.127207648,-0.003478159,-0.159611314,-0.364688225,0.202130832,-0.065137168,-0.185932253,
0.083594190,0.132192573,0.038715072,0.151441539,0.004519453,-0.317789628,0.189785932,0.173807544,-0.213145383,0.217992025,-0.442317427,0.233358280,0.320324331,0.028558939,0.003520898,0.565093215,0.331758953,0.102031880,-0.022703924,0.618288644,
0.032480115,0.292022022,0.244240530,0.173257836,0.119497730,-0.019121449,0.150243540,-0.130239656,0.334739748,-0.191700833,-0.224316392,-0.096430478,-0.318414240,0.063655179,0.051248613,0.015563321,0.104017157,-0.092620458,-0.328220646,0.074271239,
-0.090794868,0.191471653,0.422921539,-0.233602113,0.070884033,0.045729151,0.127325423,-0.055842610,-0.218272168,-0.010258117,0.195781025,0.105541433,-0.817894743,0.305049562,-0.158023201,0.069885458,0.252764403,-0.030423030,-0.022217143,-0.257957201,
0.156179509,0.245670721,-0.015181812,0.000581220,-0.173028174,-0.214787036,-0.342423361,-0.208575533,0.127520768,0.039317182,-0.206596781,-0.137345497,0.102481964,0.406951973,-0.307841250,0.312792233,-0.183299180,-0.319064222,-0.030909428,-0.317959213,
-0.019333803,
-0.010420167,
-0.015130572,
-0.369547509,
-0.031510638,
-0.402049055,
0.118014571,
-0.167787660,
0.105402064,
-0.675532821,
-0.113944674,
-0.251028252,
-0.195068856,
-0.015028922,
0.265484725,
0.441254716,
-0.324332385,
0.050700091,
0.121166252,
-0.043547572,
0.256757115,0.220541971,-0.392968534,0.319974864,-0.109722552,0.029257864,0.291809860,0.510840625,0.084449728,-0.484402844,0.151876948,-0.014632929,-0.377470951,-0.202082405,-0.215176634,-0.246681378,-0.104730099,-0.359614037,-0.242970188,-0.044346378,
-0.255959355,-0.036000583,0.485658441,0.035891056,-0.522771883,0.258297913,0.521168707,-0.291413989,-0.032330351,0.230298019,-0.605937549,-0.333468630,0.018447188,-0.190876585,0.174212818,-0.027404516,0.102412286,-0.448955046,0.204153692,-0.270228361,
-0.158457667,-0.507532260,0.602854776,0.260800619,-0.092858755,0.145367660,0.130086214,-0.143925251,0.189476818,-0.195843013,0.185502245,0.099150209,-0.153816518,0.030747741,0.179121248,0.039355031,-0.046830944,0.308997152,-0.273980308,0.123254294,
0.340081138,-0.070619894,0.003187150,-0.293959501,-0.277651976,-0.238010383,-0.117698133,0.191073913,0.358923043,0.146827187,0.221549805,0.012666180,-0.006756671,-0.117342887,0.033014380,0.167652045,-0.311594141,-0.437104281,0.173971566,-0.072393110,
0.126893678,0.012680155,0.426383135,-0.050589733,0.077821116,-0.000070113,-0.503050949,0.011764298,-0.291211510,0.314717932,0.082925523,0.154930951,0.320786846,-0.432502762,0.110893025,0.135894527,-0.070145115,0.050353801,0.074875026,0.030844021,
-0.403814763,-0.105962515,-0.065438114,0.035236021,-0.269570639,0.148367123,-0.123847404,-0.482657768,0.208348655,0.337831799,-0.144165358,-0.076155897,-0.422725573,-0.071202248,0.097071046,0.440389784,-0.456180048,0.343918418,-0.417416780,0.076694195,
-0.042967571,-0.048618032,-0.110549913,-0.385917911,0.405281618,0.376794267,-0.026197767,0.148792659,0.565461704,0.100521603,0.308638739,-0.455858469,-0.338758911,-0.131684078,-0.131722031,-0.287240777,-0.653713079,-0.111649900,0.269217392,0.100821882,
0.258713570,-0.003082317,0.105180335,-0.013195515,0.456438864,-0.070250749,0.002009261,-0.033225426,0.154719432,0.004105044,0.017296975,0.217496067,0.005648769,-0.272295815,0.135371222,-0.190447352,0.262859522,-0.041415226,-0.020776764,0.178426501,
0.006588500,-0.009892745,0.346514035,0.334551386,-0.321786400,-0.033066070,-0.185800940,-0.195926009,-0.509434920,0.350623319,-0.474587261,-0.293162135,0.182415684,0.003845817,0.181692573,0.202990256,0.103133874,0.085513592,-0.029564381,-0.075432611,
0.537518390,-0.100103847,-0.000943493,0.071450168,0.243811544,0.119461231,0.438640905,-0.176599353,-0.076174692,0.176454987,-0.265499547,0.045308874,-0.210710754,-0.268100211,-0.451459937,-0.097657495,0.020644334,0.216974433,0.041817465,-0.249024915,
-0.127947800,0.294065658,0.078156962,-0.105359985,-0.469567375,0.138274351,-0.259015065,0.022486405,-0.047509099,0.212034344,0.166211466,-0.061342928,-0.398156110,0.192503837,0.325211294,0.320154641,-0.053824992,-0.429603301,0.052975275,0.040790416,
-0.509826090,0.511781773,-0.080851166,0.048206437,-0.190197905,-0.586561624,-0.074259023,-0.347015727,0.056084363,0.053201557,0.041981397,0.072911627,-0.217307150,0.177653016,0.506348177,0.056646519,0.061411212,-0.083070184,0.535282851,0.172882847,
-0.251128100,-0.051079768,0.534138487,0.032915905,-0.259653788,-0.002825808,0.016471106,0.064262313,-0.242397097,0.241038487,0.022656431,-0.081206216,0.025847744,0.061066015,0.413085839,0.031718468,-0.183858262,-0.062746254,-0.140206985,-0.189889112,
-0.433391151,0.030709591,-0.335453075,-0.024695211,-0.447310733,0.066296112,0.027190348,0.085662128,-0.380096147,0.104768037,0.147414075,-0.137639143,-0.109162942,0.040191221,-0.495772744,0.354894488,-0.431643919,-0.179024744,0.255827774,-0.210934419,
0.066304047,-0.106212126,0.203217576,0.275164295,0.489924562,0.201331453,-0.049846422,0.068593834,-0.033983433,0.340150138,-0.417713862,-0.416682398,-0.093324581,0.574727425,0.175777058,0.064648293,0.157080281,0.150652961,-0.184606730,0.192772155,
-0.170013389,0.100791060,0.125227727,0.703342413,-0.243388609,-0.043460092,-0.004390128,-0.059763450,-0.205271790,-0.360873716,-0.296881547,0.096070708,0.278725811,0.116627006,0.013277044,-0.027127627,-0.102203062,-0.084473974,-0.235532328,-0.106769596,
-0.125486530,0.400220742,-0.181419909,0.302200335,-0.492148065,-0.016287580,-0.502989774,0.102885554,0.455084947,0.199213695,-0.165411003,0.232874615,0.049968681,0.026293310,-0.649324727,-0.219353280,0.282923301,-0.227544981,-0.197286993,0.123962333,
0.344448672,0.037686461,-0.113353638,0.049643051,-0.042280048,-0.302015262,-0.089743549,-0.069004337,-0.139519381,-0.360517446,0.062661397,-0.650020024,0.118290090,-0.244859333,-0.372732529,0.568484750,0.289905021,0.139352578,0.219233151,0.224068892,
-0.039254546,0.078640506,0.459168128,-0.009127914,0.263021872,0.297969457,-0.200492136,0.206938272,0.063516892,0.026194583,-0.318310574,0.250518030,-0.067611044,-0.002943209,-0.376435688,-0.500378559,-0.004704375,0.237426218,-0.138166753,-0.083190590,
-0.128834328,-0.365051566,0.083248980,0.000665437,0.071883561,0.366936950,0.083497049,0.144246354,-0.108825882,0.180550583,0.315689584,-0.193148017,0.197413773,-0.540313732,0.139039553,-0.074388249,-0.256183090,-0.010791423,0.182129213,0.080746522,
0.288777846,
-0.269774898,
-0.326222392,
0.012631462,
-0.300589819,
-0.489963899,
-0.511745760,
-0.007028830,
0.711026295,
0.003976904,
-0.143014408,
0.159166864,
-0.685535984,
-0.048041669,
0.103546521,
0.024113486,
-0.089126922,
-0.453263618,
-0.185489415,
-0.168102822,
-0.052291738,-0.267193687,0.619488812,0.187591763,-0.166126211,-0.119752167,-0.166280530,-0.387839046,-0.175029880,0.154002507,0.119803624,0.057242838,0.180858004,0.098444713,-0.393821623,-0.372072994,0.135297078,-0.047549502,-0.018847866,0.037368937,
-0.540685964,0.401787454,-0.012522876,0.264037799,0.099529779,-0.007526477,0.315603877,0.478189747,-0.014136735,-0.227910014,0.127007861,-0.118871883,-0.042839826,-0.299567165,0.255741490,-0.233886763,-0.312590566,-0.034580037,0.422505648,-0.177393228,
0.218587593,-0.160879845,0.368074126,-0.390361380,0.143840883,0.052061019,-0.056100823,0.240899789,0.030837563,-0.046814670,0.116682010,-0.174955653,0.062129024,-0.180871758,0.178531010,-0.164136397,-0.217608362,0.116300009,0.220702501,-0.117857681,
-0.208798350,-0.173769031,0.060781083,0.108676746,0.285077664,0.616673267,-0.152188580,-0.198515800,-0.294557335,0.196804811,-0.471935438,0.562874079,-0.454177140,-0.078706552,-0.132582946,0.197375562,0.211536878,-0.214015292,-0.064067538,-0.032899077,
-0.078117640,0.058722261,0.167077538,-0.129717058,-0.237433800,0.305853620,0.079362113,0.187879023,0.365156180,0.050370787,0.297194183,-0.229714996,0.172568367,0.010503562,0.045391945,-0.217419564,-0.014185873,0.318004301,0.231537774,-0.014842040,
-0.210354853,-0.734590780,0.019359109,-0.404613574,-0.087941955,0.581363248,0.280236507,-0.168308778,-0.138121973,0.465810241,-0.086782929,-0.058462264,0.039628506,-0.104995512,0.376466501,-0.045029496,0.218789942,-0.478533576,-0.386525731,0.428562810,
-0.423213898,0.042140281,-0.408296591,0.122605390,0.247038092,-0.024637219,-0.389974387,-0.200182946,0.212499036,0.006406117,0.053198738,-0.593049567,-0.349995436,0.042577041,-0.238102439,0.086199595,0.364092277,-0.175779494,-0.327966159,0.168772389,
0.159750272,-0.169676653,-0.027792181,0.411065273,-0.096569388,0.203160045,-0.371035706,-0.630303246,-0.089763091,0.108668270,0.154027052,-0.065249363,0.118197643,0.086915237,-0.344158611,0.140577214,0.023747798,0.011872106,-0.219931847,0.142197701,
-0.042022288,0.032569302,-0.529584795,0.115528218,0.389700534,-0.238108743,-0.014352707,0.274177282,-0.008160619,-0.097486368,-0.143663765,0.015864148,0.016610852,-0.153168139,0.369652148,0.316605455,0.223117874,-0.228364962,0.182506168,0.022043902,
-0.292846010,0.114774478,-0.239473644,0.115093235,0.063215396,-0.105812882,-0.656418567,-0.620384269,0.303858108,0.287525439,-0.001158148,0.142264209,-0.540505394,-0.170925477,-0.266425242,-0.144789567,0.084700644,0.011816951,-0.200740738,-0.017534192,
0.107257799,0.230550161,0.397494692,0.071961056,0.590994867,-0.408652742,-0.386980522,0.288089750,-0.072266353,0.128409070,0.102535089,0.183172693,-0.310430688,0.469163291,-0.236192128,0.178331806,0.456127682,0.344189685,-0.145804841,0.242765263,
0.207347481,-0.403628157,0.092989142,-0.178886431,0.461141107,0.028917239,-0.070926957,-0.080477124,-0.142540605,-0.244370274,-0.616115250,-0.264476470,-0.142376663,-0.331368301,0.004824414,-0.459806901,0.133631240,0.216563244,0.168667503,0.325537823,
0.232271963,-0.327545244,0.284873944,-0.001352845,0.120593120,-0.248896937,-0.418671804,-0.278678977,0.188920555,-0.116988587,-0.215795443,0.034263320,-0.147141429,0.208904935,-0.115434779,0.266579699,0.156805384,0.250686621,0.236836637,0.115597109,
0.259295616,-0.371137836,-0.086919444,-0.083519351,-0.094691915,0.063312225,0.405462854,0.184530840,-0.452208108,-0.051067458,-0.212541106,-0.365563010,-0.093088297,-0.090819560,0.389351091,0.117784987,0.704034637,-0.127346386,-0.092287418,0.106844996,
-0.059668116,0.379123862,0.254845861,-0.287163525,0.010465841,0.112167277,-0.113999448,-0.068838404,0.352294653,0.365016504,-0.135905587,0.158944144,0.354429573,-0.176390043,-0.121798589,0.057029425,0.127501722,-0.003009849,0.037990879,-0.306804633,
0.053046466,-0.506138819,-0.230671288,0.010595397,-0.152304848,-0.093439195,0.052053802,-0.033994255,0.157556298,-0.398269404,-0.553738348,-0.135874557,0.157481716,0.169790828,-0.116750099,-0.187656472,0.269349985,0.336179481,-0.135862337,-0.181795859,
0.103629301,0.429262862,-0.232164346,0.222709598,0.063716080,0.372816377,-0.082904502,0.193719449,0.339201986,-0.082909322,-0.317855530,0.499448264,-0.097707539,0.116904340,0.154652384,0.378390738,0.201315919,-0.220546948,0.623540326,0.047465604,
0.050475599,0.529996858,-0.230423363,-0.048325688,-0.165945462,-0.476578199,0.229075512,0.073584717,-0.292316030,-0.299593346,0.150145973,0.065694782,-0.008145857,0.056713795,-0.080147340,0.117835214,-0.625815467,0.106307761,-0.574773717,0.051899130,
-0.363818357,-0.197791846,-0.143235938,0.250201758,0.239117407,-0.404816255,0.090457956,-0.321074023,0.595566293,-0.003067141,-0.111763417,0.158344566,-0.071181662,0.168069341,0.102686725,-0.069310520,0.081253556,-0.029499509,0.066716828,0.028485219,
0.638010846,-0.307190555,-0.038972823,0.273985119,-0.135984334,0.342760874,0.030795041,-0.130875001,0.251870753,0.035767609,0.025850565,-0.676004500,-0.080555275,0.130373702,0.117831492,-0.243779485,0.059149618,-0.051644127,0.003806510,-0.726393137,
0.139547461,
-0.132831556,
-0.367556080,
-0.129793354,
0.219397638,
-0.018106531,
-0.201705046,
0.281876063,
-0.130901308,
-0.141392528,
-0.088232880,
0.318316596,
-0.030719644,
0.066874485,
-0.104329169,
0.261462395,
0.096111293,
0.103808129,
-0.162266972,
0.038099221,
0.188328541,0.790325991,-0.042451603,-0.364355742,0.335450592,-0.144379504,-0.421945094,0.000157048,-0.213043571,0.069705732,0.273242224,0.045941834,0.441019423,0.004764965,0.315918233,-0.086537698,-0.139094908,0.488772905,0.130708985,-0.023888373,
-0.270961238,-0.059820987,0.045991738,-0.499969325,0.127360201,0.015298759,-0.260727759,0.585767912,0.001228554,0.008911808,0.502534091,-0.321393217,-0.212476215,0.063112837,0.182177422,-0.254349978,0.038601087,0.320099483,-0.327106489,-0.218098403,
0.095613398,0.186223067,-0.086792025,0.180232405,0.254553231,-0.385206392,0.166736127,-0.256840769,-0.209001823,0.133647002,-0.224827270,-0.344790077,0.608448896,0.160835273,-0.141924151,-0.213763465,-0.059226634,-0.276206547,-0.212312134,-0.075427227,
-0.233260817,0.059190655,-0.193142600,-0.063243497,-0.519059982,-0.442617793,-0.094691608,-0.135639826,0.207779300,-0.018927886,0.632187104,0.085649837,0.264911663,0.058570547,-0.083791143,0.291523624,-0.033621993,0.147359963,-0.331957669,-0.209630107,
-0.064510977,-0.223544398,0.103863013,0.136820475,0.447872534,-0.316143345,-0.039720295,0.146240703,0.392094436,0.082913168,-0.581692213,-0.041956670,0.048392693,0.336033555,-0.035234053,0.084257922,-0.097462196,0.114534145,-0.037404691,0.046533781,
-0.309487603,-0.188740008,-0.253464317,0.029978254,-0.350212160,-0.042164634,-0.094890479,0.051154007,0.283683392,-0.017094015,0.206118148,-0.198068921,-0.053764332,0.103064597,-0.113469704,-0.016104184,0.304246631,-0.116490978,0.234572947,-0.191756085,
0.127771828,-0.357689340,-0.268664318,-0.344115916,-0.251132992,-0.294631583,0.045595405,0.032753010,-0.049117836,-0.438176788,0.692217030,0.157923042,0.096309367,-0.362807591,0.123510870,0.082066615,-0.095993605,0.195128874,0.073709097,-0.686272881,
0.304276997,-0.088780003,-0.112003372,-0.275901396,0.336005490,-0.269240112,-0.206040156,0.071575099,-0.303431380,0.097992948,0.204777608,-0.053528580,0.474580120,-0.161077739,0.454591600,0.145990469,0.225465148,-0.463822138,-0.137763396,-0.290474993,
0.169426157,0.057443149,-0.061878460,-0.523919017,0.381572016,0.073776829,-0.134285833,-0.141290346,0.091581149,-0.001273957,-0.086439884,0.358713414,-0.166524407,0.213093252,0.236869337,-0.196579990,0.144746173,-0.001751411,0.380133466,-0.095589627,
-0.134016539,0.575357982,0.338659065,-0.051738069,0.093092779,0.352891046,-0.283714498,-0.110099807,-0.067993521,-0.447092933,0.101272671,-0.115314401,-0.317537570,0.519075147,0.155044334,-0.021680893,-0.101435093,0.094252058,0.361312652,-0.068995051,
0.019663959,0.626146527,-0.228533078,-0.105856433,-0.062245815,0.168941167,-0.203885017,-0.112458974,0.344820593,0.001723370,-0.078783837,0.031309445,-0.052273931,0.020242418,-0.039751772,0.163971499,0.288163878,0.334950567,0.652188452,-0.383910010,
0.119592419,0.111105370,0.114226140,-0.450201460,-0.013633788,0.080417345,-0.466160329,-0.070902375,-0.166093523,-0.061980468,-0.175802873,-0.283770162,-0.159423091,0.587571955,-0.276234087,0.076796643,0.124952533,0.817912031,0.366948655,0.417086547,
0.271750231,0.287732658,-0.418053907,0.178926797,0.497560389,0.420726090,-0.346033047,-0.175401367,0.125077728,0.519263428,0.245753251,-0.203046160,-0.353946332,0.132276168,-0.007905197,-0.088261644,-0.057406196,-0.070971084,-0.306643540,0.310419129,
0.539635485,-0.051241717,0.120811421,0.008234479,0.062733362,0.402958052,-0.005730335,-0.561809998,0.257652129,-0.003173647,-0.052557805,0.157985042,0.150476313,-0.173918469,0.324527860,0.219381808,0.244687607,0.226110260,-0.197944385,-0.265448928,
-0.246114978,-0.377309699,0.007351116,0.145847226,0.142657214,0.036097035,0.243409224,0.010937211,-0.571696558,0.198058036,-0.032595929,-0.079610234,0.010360695,-0.097255571,-0.300158178,-0.457912742,-0.058619848,-0.344561475,-0.222872889,-0.265705660,
-0.322824518,0.070373079,0.581202785,-0.011132220,0.398238893,-0.104642023,-0.052378242,0.237044071,0.118421237,0.075713667,0.023682593,0.263398682,0.099732622,-0.154408908,-0.022505583,-0.219659387,0.086510931,0.170021887,-0.229109669,0.188788522,
0.367372490,0.042217201,-0.030912459,-0.427586849,0.527002797,-0.434540791,0.275989151,0.251565284,-0.258026217,-0.445762958,-0.276037841,-0.032230945,-0.428533714,0.494085979,0.085548800,0.198742280,-0.124931516,0.340697719,0.238071012,0.167953945,
0.600656722,0.233478960,-0.293611851,0.069006148,-0.390397288,-0.041124943,0.033426396,0.401812667,-0.029294165,0.022463420,0.444993433,-0.026768135,0.200472651,0.345680705,-0.220285980,0.262664781,-0.376170305,0.060362215,0.318070160,-0.539827524,
0.201627142,-0.033746478,-0.095097118,-0.045906660,0.226738846,0.433219045,0.061162306,0.009795528,-0.495333496,-0.259400646,-0.002201730,-0.009023903,-0.426713331,0.167905520,-0.158628229,0.185670572,0.946813847,0.195107441,0.111296127,-0.081768145,
0.077080774,0.358553261,0.106626930,-0.303778080,-0.585237141,0.050373968,-0.295263658,0.018938739,0.088044657,-0.282777103,0.314214088,0.299349975,-0.122308435,0.294242665,0.161445428,0.026906545,0.081948930,-0.328864644,0.218977714,0.241018001,
0.241932882,
-0.145065320,
-0.108495823,
0.034792287,
0.059685581,
0.011661830,
-0.178387241,
0.276969852,
0.158786829,
0.004327000,
0.182996127,
0.497763114,
-0.197154391,
-0.241487374,
-0.000063096,
0.471297816,
-0.206828646,
0.059248594,
-0.322833433,
0.182115449,
-0.079888695,-0.122802890,-0.296485013,-0.377206567,0.208939898,0.572660169,-0.423046048,0.143471758,-0.252156105,-0.598813294,0.299087948,-0.343107339,0.763991663,0.231093224,-0.000897258,-0.155773706,-0.302023004,0.144436981,-0.135989091,0.209963827,
0.279014797,0.092865086,0.010671047,0.006978748,-0.152639856,0.590913496,0.218624813,0.256568698,-0.283726232,-0.345855068,0.424900751,-0.041424951,0.005268584,-0.592251865,0.137678182,-0.525075966,-0.077288847,-0.366217824,-0.101649143,0.144645161,
-0.377654318,
-0.006176766,
